{"learner":{"attributes":{"best_iteration":"71","best_score":"0.42931553160568997","scikit_learn":"{\"_estimator_type\": \"regressor\"}"},"feature_names":[],"feature_types":[],"gradient_booster":{"model":{"cats":{"enc":[],"feature_segments":[],"sorted_idx":[]},"gbtree_model_param":{"num_parallel_tree":"1","num_trees":"122"},"iteration_indptr":[0,1,2,3,4,5,6,7,8,9,10,11,12,13,14,15,16,17,18,19,20,21,22,23,24,25,26,27,28,29,30,31,32,33,34,35,36,37,38,39,40,41,42,43,44,45,46,47,48,49,50,51,52,53,54,55,56,57,58,59,60,61,62,63,64,65,66,67,68,69,70,71,72,73,74,75,76,77,78,79,80,81,82,83,84,85,86,87,88,89,90,91,92,93,94,95,96,97,98,99,100,101,102,103,104,105,106,107,108,109,110,111,112,113,114,115,116,117,118,119,120,121,122],"tree_info":[0,0,0,0,0,0,0,0,0,0,0,0,0,0,0,0,0,0,0,0,0,0,0,0,0,0,0,0,0,0,0,0,0,0,0,0,0,0,0,0,0,0,0,0,0,0,0,0,0,0,0,0,0,0,0,0,0,0,0,0,0,0,0,0,0,0,0,0,0,0,0,0,0,0,0,0,0,0,0,0,0,0,0,0,0,0,0,0,0,0,0,0,0,0,0,0,0,0,0,0,0,0,0,0,0,0,0,0,0,0,0,0,0,0,0,0,0,0,0,0,0,0],"trees":[{"base_weights":[-1.7786352E-8,-3.617311E-1,9.5887446E-1,-5.133862E-1,-6.1077125E-2,7.3365724E-1,1.4997106E0,-5.1636368E-2,1.6272626E-3,-3.7685238E-2,2.4013655E-2,5.653168E-2,9.007897E-2,1.3799223E-1,2.8831866E-1],"categories":[],"categories_nodes":[],"categories_segments":[],"categories_sizes":[],"default_left":[0,0,0,0,0,0,0,0,0,0,0,0,0,0,0],"id":0,"left_children":[1,3,5,7,9,11,13,-1,-1,-1,-1,-1,-1,-1,-1],"loss_changes":[1.6753082E3,1.5987274E2,1.6004846E2,3.6845703E0,1.1204182E2,2.5825256E1,6.0322388E1,0E0,0E0,0E0,0E0,0E0,0E0,0E0,0E0],"parents":[2147483647,0,0,1,1,2,2,3,3,4,4,5,5,6,6],"right_children":[2,4,6,8,10,12,14,-1,-1,-1,-1,-1,-1,-1,-1],"split_conditions":[1.6414524E1,2.2315991E-1,1.2307418E2,1.0519655E1,2.3025684E0,4.906248E1,8.800701E2,-5.1636368E-2,1.6272626E-3,-3.7685238E-2,2.4013655E-2,5.653168E-2,9.007897E-2,1.3799223E-1,2.8831866E-1],"split_indices":[32,24,32,32,32,32,32,0,0,0,0,0,0,0,0],"split_type":[0,0,0,0,0,0,0,0,0,0,0,0,0,0,0],"sum_hessian":[4.828E3,3.506E3,1.322E3,2.33E3,1.176E3,9.35E2,3.87E2,2.317E3,1.3E1,5.74E2,6.02E2,4.68E2,4.67E2,3.58E2,2.9E1],"tree_param":{"num_deleted":"0","num_feature":"34","num_nodes":"15","size_leaf_vector":"1"}},{"base_weights":[1.05453E-4,-3.85709E-1,9.656207E-1,-4.5500004E-1,1.3842388E-2,8.869859E-1,1.9957527E0,-3.732857E-2,-4.7903653E-2,7.519351E-3,-3.612734E-2,3.6616668E-2,9.561357E-2,1.746109E-1,2.8160775E-1],"categories":[],"categories_nodes":[],"categories_segments":[],"categories_sizes":[],"default_left":[0,0,0,0,0,0,0,0,0,0,0,0,0,0,0],"id":1,"left_children":[1,3,5,7,9,11,13,-1,-1,-1,-1,-1,-1,-1,-1],"loss_changes":[1.7992219E3,9.55484E1,1.0993457E2,5.5977173E0,1.1787203E1,4.585663E1,1.4947327E1,0E0,0E0,0E0,0E0,0E0,0E0,0E0,0E0],"parents":[2147483647,0,0,1,1,2,2,3,3,4,4,5,5,6,6],"right_children":[2,4,6,8,10,12,14,-1,-1,-1,-1,-1,-1,-1,-1],"split_conditions":[4.5874655E-1,3.2823488E-1,3.6780448E0,-3.8874826E-1,-3.3657706E-1,5.053566E-1,1.1303436E1,-3.732857E-2,-4.7903653E-2,7.519351E-3,-3.612734E-2,3.6616668E-2,9.561357E-2,1.746109E-1,2.8160775E-1],"split_indices":[31,31,31,28,28,31,31,0,0,0,0,0,0,0,0],"split_type":[0,0,0,0,0,0,0,0,0,0,0,0,0,0,0],"sum_hessian":[4.828E3,3.45E3,1.378E3,2.94E3,5.1E2,1.282E3,9.6E1,6.72E2,2.268E3,4.39E2,7.1E1,1.51E2,1.131E3,7.6E1,2E1],"tree_param":{"num_deleted":"0","num_feature":"34","num_nodes":"15","size_leaf_vector":"1"}},{"base_weights":[1.931925E-4,-3.3407748E-1,9.0405685E-1,-3.9739174E-1,1.1910584E-1,8.3129525E-1,1.8008808E0,-4.1501846E-2,-1.16365515E-2,-2.0941677E-2,2.1967873E-2,7.256782E-2,1.0612859E-1,1.474794E-1,2.591669E-1],"categories":[],"categories_nodes":[],"categories_segments":[],"categories_sizes":[],"default_left":[0,0,0,0,0,0,0,0,0,0,0,0,0,0,0],"id":2,"left_children":[1,3,5,7,9,11,13,-1,-1,-1,-1,-1,-1,-1,-1],"loss_changes":[1.4593125E3,1.0121872E2,8.359448E1,1.5278076E1,1.4352529E1,2.8573303E1,2.1190765E1,0E0,0E0,0E0,0E0,0E0,0E0,0E0,0E0],"parents":[2147483647,0,0,1,1,2,2,3,3,4,4,5,5,6,6],"right_children":[2,4,6,8,10,12,14,-1,-1,-1,-1,-1,-1,-1,-1],"split_conditions":[4.7768298E-1,3.6049506E-1,3.6780448E0,7.7534122E0,2.1128337E0,1.2094283E0,8.800701E2,-4.1501846E-2,-1.16365515E-2,-2.0941677E-2,2.1967873E-2,7.256782E-2,1.0612859E-1,1.474794E-1,2.591669E-1],"split_indices":[31,31,31,32,32,31,32,0,0,0,0,0,0,0,0],"split_type":[0,0,0,0,0,0,0,0,0,0,0,0,0,0,0],"sum_hessian":[4.828E3,3.525E3,1.303E3,3.093E3,4.32E2,1.207E3,9.6E1,2.91E3,1.83E2,1.01E2,3.31E2,8.3E2,3.77E2,7E1,2.6E1],"tree_param":{"num_deleted":"0","num_feature":"34","num_nodes":"15","size_leaf_vector":"1"}},{"base_weights":[2.8429742E-4,-3.126993E-1,7.8353745E-1,-3.6935127E-1,1.3966327E-2,6.552871E-1,1.2348987E0,-3.779198E-2,-1.8116597E-2,-2.5589352E-2,1.41101545E-2,2.8549058E-2,7.153453E-2,1.1551034E-1,2.599023E-1],"categories":[],"categories_nodes":[],"categories_segments":[],"categories_sizes":[],"default_left":[0,0,0,0,0,0,0,0,0,0,0,0,0,0,0],"id":3,"left_children":[1,3,5,7,9,11,13,-1,-1,-1,-1,-1,-1,-1,-1],"loss_changes":[1.1840521E3,6.387021E1,7.901727E1,4.6738586E0,1.7567848E1,2.3692963E1,3.0088501E1,0E0,0E0,0E0,0E0,0E0,0E0,0E0,0E0],"parents":[2147483647,0,0,1,1,2,2,3,3,4,4,5,5,6,6],"right_children":[2,4,6,8,10,12,14,-1,-1,-1,-1,-1,-1,-1,-1],"split_conditions":[4.5874655E-1,3.2823488E-1,1.5913092E0,7.7534122E0,2.1128337E0,5.053566E-1,1.6221248E3,-3.779198E-2,-1.8116597E-2,-2.5589352E-2,1.41101545E-2,2.8549058E-2,7.153453E-2,1.1551034E-1,2.599023E-1],"split_indices":[31,31,31,32,32,31,32,0,0,0,0,0,0,0,0],"split_type":[0,0,0,0,0,0,0,0,0,0,0,0,0,0,0],"sum_hessian":[4.828E3,3.45E3,1.378E3,2.94E3,5.1E2,1.075E3,3.03E2,2.811E3,1.29E2,1.63E2,3.47E2,1.51E2,9.24E2,2.88E2,1.5E1],"tree_param":{"num_deleted":"0","num_feature":"34","num_nodes":"15","size_leaf_vector":"1"}},{"base_weights":[3.4037398E-4,-2.6784408E-1,7.417667E-1,-3.2235307E-1,1.0422328E-1,6.9384927E-1,1.7240901E0,-3.365351E-2,-9.623191E-3,-2.0177329E-4,3.3766847E-2,6.0407866E-2,9.405862E-2,1.24903314E-1,2.1416774E-1],"categories":[],"categories_nodes":[],"categories_segments":[],"categories_sizes":[],"default_left":[0,0,0,0,0,0,0,0,0,0,0,0,0,0,0],"id":4,"left_children":[1,3,5,7,9,11,13,-1,-1,-1,-1,-1,-1,-1,-1],"loss_changes":[9.603923E2,7.197034E1,5.919507E1,9.889648E0,1.126054E1,2.6565247E1,9.029266E0,0E0,0E0,0E0,0E0,0E0,0E0,0E0,0E0],"parents":[2147483647,0,0,1,1,2,2,3,3,4,4,5,5,6,6],"right_children":[2,4,6,8,10,12,14,-1,-1,-1,-1,-1,-1,-1,-1],"split_conditions":[4.8226994E-1,3.6049506E-1,5.152609E0,7.7534122E0,2.240182E1,1.2307418E2,6.7801843E2,-3.365351E-2,-9.623191E-3,-2.0177329E-4,3.3766847E-2,6.0407866E-2,9.405862E-2,1.24903314E-1,2.1416774E-1],"split_indices":[31,31,31,32,32,32,32,0,0,0,0,0,0,0,0],"split_type":[0,0,0,0,0,0,0,0,0,0,0,0,0,0,0],"sum_hessian":[4.828E3,3.546E3,1.282E3,3.093E3,4.53E2,1.224E3,5.8E1,2.91E3,1.83E2,3.12E2,1.41E2,9E2,3.24E2,2.9E1,2.9E1],"tree_param":{"num_deleted":"0","num_feature":"34","num_nodes":"15","size_leaf_vector":"1"}},{"base_weights":[4.065153E-4,-2.5357348E-1,6.360009E-1,-3.00856E-1,8.166264E-3,5.199342E-1,9.8641384E-1,-3.166851E-2,-2.1430012E-2,-1.2193297E-2,1.972542E-2,2.2713205E-2,5.6952376E-2,8.6431436E-2,1.5574281E-1],"categories":[],"categories_nodes":[],"categories_segments":[],"categories_sizes":[],"default_left":[0,0,0,0,0,0,0,0,0,0,0,0,0,0,0],"id":5,"left_children":[1,3,5,7,9,11,13,-1,-1,-1,-1,-1,-1,-1,-1],"loss_changes":[7.796983E2,4.271106E1,5.5572754E1,3.9369507E0,1.3037554E1,1.4942352E1,2.2498291E1,0E0,0E0,0E0,0E0,0E0,0E0,0E0,0E0],"parents":[2147483647,0,0,1,1,2,2,3,3,4,4,5,5,6,6],"right_children":[2,4,6,8,10,12,14,-1,-1,-1,-1,-1,-1,-1,-1],"split_conditions":[4.5874655E-1,3.2512945E-1,1.4633335E0,4.1482872E-1,1.0519655E1,5.053566E-1,5.152609E0,-3.166851E-2,-2.1430012E-2,-1.2193297E-2,1.972542E-2,2.2713205E-2,5.6952376E-2,8.6431436E-2,1.5574281E-1],"split_indices":[31,31,31,24,32,31,31,0,0,0,0,0,0,0,0],"split_type":[0,0,0,0,0,0,0,0,0,0,0,0,0,0,0],"sum_hessian":[4.828E3,3.45E3,1.378E3,2.922E3,5.28E2,1.037E3,3.41E2,2.468E3,4.54E2,3.13E2,2.15E2,1.51E2,8.86E2,2.83E2,5.8E1],"tree_param":{"num_deleted":"0","num_feature":"34","num_nodes":"15","size_leaf_vector":"1"}},{"base_weights":[4.2308442E-4,-1.8614328E-1,5.482618E-1,-2.7732927E-1,-1.4062293E-2,4.5848268E-1,1.0210496E0,-2.816092E-2,-1.9229135E-2,-2.240332E-2,1.4204449E-2,3.5757907E-2,5.7906277E-2,9.275972E-2,2.0085733E-1],"categories":[],"categories_nodes":[],"categories_segments":[],"categories_sizes":[],"default_left":[0,0,0,0,0,0,0,0,0,0,0,0,0,0,0],"id":6,"left_children":[1,3,5,7,9,11,13,-1,-1,-1,-1,-1,-1,-1,-1],"loss_changes":[4.9366586E2,5.6532135E1,5.161371E1,8.0296326E-1,4.0971397E1,1.236142E1,1.6132706E1,0E0,0E0,0E0,0E0,0E0,0E0,0E0,0E0],"parents":[2147483647,0,0,1,1,2,2,3,3,4,4,5,5,6,6],"right_children":[2,4,6,8,10,12,14,-1,-1,-1,-1,-1,-1,-1,-1],"split_conditions":[2.240182E1,2.2814143E-1,2.2254553E2,1.7130958E-1,1.6848226E0,7.150329E1,1.6221248E3,-2.816092E-2,-1.9229135E-2,-2.240332E-2,1.4204449E-2,3.5757907E-2,5.7906277E-2,9.275972E-2,2.0085733E-1],"split_indices":[32,24,32,24,32,32,32,0,0,0,0,0,0,0,0],"split_type":[0,0,0,0,0,0,0,0,0,0,0,0,0,0,0],"sum_hessian":[4.828E3,3.602E3,1.226E3,2.354E3,1.248E3,1.032E3,1.94E2,2.239E3,1.15E2,5.32E2,7.16E2,5.64E2,4.68E2,1.79E2,1.5E1],"tree_param":{"num_deleted":"0","num_feature":"34","num_nodes":"15","size_leaf_vector":"1"}},{"base_weights":[4.4946966E-4,-1.9996454E-1,5.545165E-1,-2.4015684E-1,7.438559E-2,5.0735325E-1,1.1259421E0,-2.5169825E-2,-1.1599687E-2,3.204793E-2,-7.1435695E-4,4.5139473E-2,6.781005E-2,9.073361E-2,1.6590934E-1],"categories":[],"categories_nodes":[],"categories_segments":[],"categories_sizes":[],"default_left":[0,0,0,0,0,0,0,0,0,0,0,0,0,0,0],"id":7,"left_children":[1,3,5,7,9,11,13,-1,-1,-1,-1,-1,-1,-1,-1],"loss_changes":[5.3633655E2,3.9129807E1,3.400598E1,4.4044495E0,9.111261E0,1.10354E1,9.800018E0,0E0,0E0,0E0,0E0,0E0,0E0,0E0,0E0],"parents":[2147483647,0,0,1,1,2,2,3,3,4,4,5,5,6,6],"right_children":[2,4,6,8,10,12,14,-1,-1,-1,-1,-1,-1,-1,-1],"split_conditions":[4.8226994E-1,3.6049506E-1,3.6780448E0,3.0915406E-1,6.03E-6,1.2307418E2,8.800701E2,-2.5169825E-2,-1.1599687E-2,3.204793E-2,-7.1435695E-4,4.5139473E-2,6.781005E-2,9.073361E-2,1.6590934E-1],"split_indices":[31,31,31,31,10,32,32,0,0,0,0,0,0,0,0],"split_type":[0,0,0,0,0,0,0,0,0,0,0,0,0,0,0],"sum_hessian":[4.828E3,3.546E3,1.282E3,3.093E3,4.53E2,1.186E3,9.6E1,2.829E3,2.64E2,1.12E2,3.41E2,8.96E2,2.9E2,7E1,2.6E1],"tree_param":{"num_deleted":"0","num_feature":"34","num_nodes":"15","size_leaf_vector":"1"}},{"base_weights":[4.7993293E-4,-1.8947211E-1,4.758418E-1,-2.2356655E-1,-7.2441297E-4,3.8421354E-1,7.331641E-1,-2.349144E-2,-1.6149756E-2,-1.0201719E-2,1.4652862E-2,1.789931E-2,4.2480562E-2,6.8796694E-2,1.6647296E-1],"categories":[],"categories_nodes":[],"categories_segments":[],"categories_sizes":[],"default_left":[0,0,0,0,0,0,0,0,0,0,0,0,0,0,0],"id":8,"left_children":[1,3,5,7,9,11,13,-1,-1,-1,-1,-1,-1,-1,-1],"loss_changes":[4.3612933E2,2.2207878E1,3.223239E1,2.020874E0,7.9053373E0,8.412552E0,1.4054306E1,0E0,0E0,0E0,0E0,0E0,0E0,0E0,0E0],"parents":[2147483647,0,0,1,1,2,2,3,3,4,4,5,5,6,6],"right_children":[2,4,6,8,10,12,14,-1,-1,-1,-1,-1,-1,-1,-1],"split_conditions":[4.5874655E-1,3.2512945E-1,1.4225903E0,4.1482872E-1,1.0519655E1,5.1859534E-1,1.6221248E3,-2.349144E-2,-1.6149756E-2,-1.0201719E-2,1.4652862E-2,1.789931E-2,4.2480562E-2,6.8796694E-2,1.6647296E-1],"split_indices":[31,31,31,24,32,31,32,0,0,0,0,0,0,0,0],"split_type":[0,0,0,0,0,0,0,0,0,0,0,0,0,0,0],"sum_hessian":[4.828E3,3.45E3,1.378E3,2.922E3,5.28E2,1.018E3,3.6E2,2.468E3,4.54E2,3.13E2,2.15E2,1.69E2,8.49E2,3.45E2,1.5E1],"tree_param":{"num_deleted":"0","num_feature":"34","num_nodes":"15","size_leaf_vector":"1"}},{"base_weights":[4.8587596E-4,-1.3665964E-1,4.0320373E-1,-1.4420747E-2,-2.0376396E-1,3.404468E-1,7.967701E-1,-2.200989E-2,8.263617E-3,-2.058462E-2,2.1491649E-2,2.6022334E-2,4.31144E-2,7.171163E-2,1.5086612E-1],"categories":[],"categories_nodes":[],"categories_segments":[],"categories_sizes":[],"default_left":[0,0,0,0,0,0,0,0,0,0,0,0,0,0,0],"id":9,"left_children":[1,3,5,7,9,11,13,-1,-1,-1,-1,-1,-1,-1,-1],"loss_changes":[2.6676535E2,2.9551598E1,3.003444E1,2.5530245E1,2.0720367E0,7.600403E0,8.444527E0,0E0,0E0,0E0,0E0,0E0,0E0,0E0,0E0],"parents":[2147483647,0,0,1,1,2,2,3,3,4,4,5,5,6,6],"right_children":[2,4,6,8,10,12,14,-1,-1,-1,-1,-1,-1,-1,-1],"split_conditions":[2.240182E1,-3.7086767E-1,2.4883731E2,1.0898432E-2,1.6905863E1,7.150329E1,1.6221248E3,-2.200989E-2,8.263617E-3,-2.058462E-2,2.1491649E-2,2.6022334E-2,4.31144E-2,7.171163E-2,1.5086612E-1],"split_indices":[32,28,32,32,32,32,32,0,0,0,0,0,0,0,0],"split_type":[0,0,0,0,0,0,0,0,0,0,0,0,0,0,0],"sum_hessian":[4.828E3,3.602E3,1.226E3,1.277E3,2.325E3,1.059E3,1.67E2,4.09E2,8.68E2,2.314E3,1.1E1,5.64E2,4.95E2,1.52E2,1.5E1],"tree_param":{"num_deleted":"0","num_feature":"34","num_nodes":"15","size_leaf_vector":"1"}},{"base_weights":[4.9503735E-4,-1.2299724E-1,3.631211E-1,-1.8438837E-1,-7.1452586E-3,3.0646732E-1,7.1841794E-1,-1.8867737E-2,-1.0293361E-2,-2.0022666E-2,8.107741E-3,3.4655526E-2,1.4352326E-2,6.458734E-2,1.3672243E-1],"categories":[],"categories_nodes":[],"categories_segments":[],"categories_sizes":[],"default_left":[0,0,0,0,0,0,0,0,0,0,0,0,0,0,0],"id":10,"left_children":[1,3,5,7,9,11,13,-1,-1,-1,-1,-1,-1,-1,-1],"loss_changes":[2.162946E2,2.5624245E1,2.4477997E1,8.033142E-1,2.1291897E1,6.874283E0,7.024269E0,0E0,0E0,0E0,0E0,0E0,0E0,0E0,0E0],"parents":[2147483647,0,0,1,1,2,2,3,3,4,4,5,5,6,6],"right_children":[2,4,6,8,10,12,14,-1,-1,-1,-1,-1,-1,-1,-1],"split_conditions":[2.240182E1,2.2814143E-1,2.4883731E2,3.003E-5,1.0898432E-2,4.2748548E-2,1.6221248E3,-1.8867737E-2,-1.0293361E-2,-2.0022666E-2,8.107741E-3,3.4655526E-2,1.4352326E-2,6.458734E-2,1.3672243E-1],"split_indices":[32,24,32,14,32,26,32,0,0,0,0,0,0,0,0],"split_type":[0,0,0,0,0,0,0,0,0,0,0,0,0,0,0],"sum_hessian":[4.828E3,3.602E3,1.226E3,2.354E3,1.248E3,1.059E3,1.67E2,2.235E3,1.19E2,3.91E2,8.57E2,8.49E2,2.1E2,1.52E2,1.5E1],"tree_param":{"num_deleted":"0","num_feature":"34","num_nodes":"15","size_leaf_vector":"1"}},{"base_weights":[4.888534E-4,-1.343514E-1,3.960052E-1,-1.6300982E-1,6.4722955E-2,3.6869252E-1,9.309177E-1,-1.7280733E-2,-9.073024E-3,2.923881E-2,-8.053532E-4,3.1482417E-2,4.6557214E-2,6.610157E-2,1.16978906E-1],"categories":[],"categories_nodes":[],"categories_segments":[],"categories_sizes":[],"default_left":[0,0,0,0,0,0,0,0,0,0,0,0,0,0,0],"id":11,"left_children":[1,3,5,7,9,11,13,-1,-1,-1,-1,-1,-1,-1,-1],"loss_changes":[2.5759113E2,2.0560532E1,1.7597717E1,2.2143097E0,7.5245314E0,5.959366E0,3.03059E0,0E0,0E0,0E0,0E0,0E0,0E0,0E0,0E0],"parents":[2147483647,0,0,1,1,2,2,3,3,4,4,5,5,6,6],"right_children":[2,4,6,8,10,12,14,-1,-1,-1,-1,-1,-1,-1,-1],"split_conditions":[5.053566E-1,3.7351155E-1,5.152609E0,3.0171004E-1,6.03E-6,1.2094283E0,6.7801843E2,-1.7280733E-2,-9.073024E-3,2.923881E-2,-8.053532E-4,3.1482417E-2,4.6557214E-2,6.610157E-2,1.16978906E-1],"split_indices":[31,31,31,31,10,31,32,0,0,0,0,0,0,0,0],"split_type":[0,0,0,0,0,0,0,0,0,0,0,0,0,0,0],"sum_hessian":[4.828E3,3.601E3,1.227E3,3.148E3,4.53E2,1.169E3,5.8E1,2.771E3,3.77E2,1.09E2,3.44E2,7.54E2,4.15E2,2.9E1,2.9E1],"tree_param":{"num_deleted":"0","num_feature":"34","num_nodes":"15","size_leaf_vector":"1"}},{"base_weights":[4.9446645E-4,-9.301404E-2,3.164561E-1,-1.5050498E-1,6.8091983E-3,2.6251203E-1,5.662958E-1,-1.48848165E-2,-3.3732433E-2,-1.2637225E-2,1.0269797E-2,2.682271E-2,-5.1223624E-2,7.729611E-2,4.1888613E-2],"categories":[],"categories_nodes":[],"categories_segments":[],"categories_sizes":[],"default_left":[0,0,0,0,0,0,0,0,0,0,0,0,0,0,0],"id":12,"left_children":[1,3,5,7,9,11,13,-1,-1,-1,-1,-1,-1,-1,-1],"loss_changes":[1.4270274E2,2.1390018E1,1.4716881E1,6.818161E-1,1.7419312E1,4.1622276E0,5.616787E0,0E0,0E0,0E0,0E0,0E0,0E0,0E0,0E0],"parents":[2147483647,0,0,1,1,2,2,3,3,4,4,5,5,6,6],"right_children":[2,4,6,8,10,12,14,-1,-1,-1,-1,-1,-1,-1,-1],"split_conditions":[3.0086662E1,2.2814143E-1,2.2254553E2,1.8341633E1,2.3025684E0,2.0329999E-5,2.0464999E-5,-1.48848165E-2,-3.3732433E-2,-1.2637225E-2,1.0269797E-2,2.682271E-2,-5.1223624E-2,7.729611E-2,4.1888613E-2],"split_indices":[32,24,32,32,32,7,14,0,0,0,0,0,0,0,0],"split_type":[0,0,0,0,0,0,0,0,0,0,0,0,0,0,0],"sum_hessian":[4.828E3,3.726E3,1.102E3,2.364E3,1.362E3,9.08E2,1.94E2,2.345E3,1.9E1,5.7E2,7.92E2,9.02E2,6E0,7.9E1,1.15E2],"tree_param":{"num_deleted":"0","num_feature":"34","num_nodes":"15","size_leaf_vector":"1"}},{"base_weights":[4.5409534E-4,-1.2138495E-1,3.0536062E-1,-1.3539907E-1,2.4660839E-2,2.837848E-1,7.832634E-1,-8.161261E-3,-1.43783735E-2,2.7903963E-2,-3.0383624E-3,2.3623995E-2,3.866499E-2,8.714396E-2,1.1221028E-2],"categories":[],"categories_nodes":[],"categories_segments":[],"categories_sizes":[],"default_left":[0,0,0,0,0,0,0,0,0,0,0,0,0,0,0],"id":13,"left_children":[1,3,5,7,9,11,13,-1,-1,-1,-1,-1,-1,-1,-1],"loss_changes":[1.794321E2,7.066517E0,1.3996765E1,1.4084091E0,4.2511277E0,6.3692703E0,3.393299E0,0E0,0E0,0E0,0E0,0E0,0E0,0E0,0E0],"parents":[2147483647,0,0,1,1,2,2,3,3,4,4,5,5,6,6],"right_children":[2,4,6,8,10,12,14,-1,-1,-1,-1,-1,-1,-1,-1],"split_conditions":[4.5874655E-1,3.7351155E-1,5.152609E0,2.002012E2,5.2025363E-2,1.2094283E0,2.2684999E-5,-8.161261E-3,-1.43783735E-2,2.7903963E-2,-3.0383624E-3,2.3623995E-2,3.866499E-2,8.714396E-2,1.1221028E-2],"split_indices":[31,31,31,33,27,31,14,0,0,0,0,0,0,0,0],"split_type":[0,0,0,0,0,0,0,0,0,0,0,0,0,0,0],"sum_hessian":[4.828E3,3.45E3,1.378E3,3.148E3,3.02E2,1.32E3,5.8E1,4.26E2,2.722E3,5.3E1,2.49E2,9.05E2,4.15E2,5.1E1,7E0],"tree_param":{"num_deleted":"0","num_feature":"34","num_nodes":"15","size_leaf_vector":"1"}},{"base_weights":[4.4244545E-4,-1.0132182E-1,2.9893953E-1,-1.2093069E-1,4.914643E-2,2.7812657E-1,7.066043E-1,-1.2886286E-2,-5.7888837E-3,4.58727E-2,6.9953625E-5,4.4966105E-2,2.5625242E-2,4.528734E-2,9.065375E-2],"categories":[],"categories_nodes":[],"categories_segments":[],"categories_sizes":[],"default_left":[0,0,0,0,0,0,0,0,0,0,0,0,0,0,0],"id":14,"left_children":[1,3,5,7,9,11,13,-1,-1,-1,-1,-1,-1,-1,-1],"loss_changes":[1.467176E2,1.063369E1,1.022271E1,1.5862274E0,8.254328E0,4.274811E0,2.5824757E0,0E0,0E0,0E0,0E0,0E0,0E0,0E0,0E0],"parents":[2147483647,0,0,1,1,2,2,3,3,4,4,5,5,6,6],"right_children":[2,4,6,8,10,12,14,-1,-1,-1,-1,-1,-1,-1,-1],"split_conditions":[5.053566E-1,3.831061E-1,5.152609E0,3.0915406E-1,7.95E-6,5.431868E0,9.133603E-2,-1.2886286E-2,-5.7888837E-3,4.58727E-2,6.9953625E-5,4.4966105E-2,2.5625242E-2,4.528734E-2,9.065375E-2],"split_indices":[31,31,31,31,7,32,27,0,0,0,0,0,0,0,0],"split_type":[0,0,0,0,0,0,0,0,0,0,0,0,0,0,0],"sum_hessian":[4.828E3,3.601E3,1.227E3,3.186E3,4.15E2,1.169E3,5.8E1,2.829E3,3.57E2,4.3E1,3.72E2,1.3E2,1.039E3,2.7E1,3.1E1],"tree_param":{"num_deleted":"0","num_feature":"34","num_nodes":"15","size_leaf_vector":"1"}},{"base_weights":[4.4661763E-4,-9.118207E-2,2.6921377E-1,-1.0288268E-1,1.2672882E-1,2.5037426E-1,6.3824797E-1,-1.1301774E-2,-1.8032035E-3,5.5847615E-2,2.8674924E-3,3.2064993E-2,2.0119525E-2,4.444157E-2,9.4403796E-2],"categories":[],"categories_nodes":[],"categories_segments":[],"categories_sizes":[],"default_left":[0,0,0,0,0,0,0,0,0,0,0,0,0,0,0],"id":15,"left_children":[1,3,5,7,9,11,13,-1,-1,-1,-1,-1,-1,-1,-1],"loss_changes":[1.1894727E2,9.197027E0,8.377777E0,2.9381866E0,7.773535E0,3.9791107E0,3.0775013E0,0E0,0E0,0E0,0E0,0E0,0E0,0E0,0E0],"parents":[2147483647,0,0,1,1,2,2,3,3,4,4,5,5,6,6],"right_children":[2,4,6,8,10,12,14,-1,-1,-1,-1,-1,-1,-1,-1],"split_conditions":[5.053566E-1,3.0690203E1,5.152609E0,3.6401623E-1,8.333629E-7,6.5399995E-6,1.0895023E-5,-1.1301774E-2,-1.8032035E-3,5.5847615E-2,2.8674924E-3,3.2064993E-2,2.0119525E-2,4.444157E-2,9.4403796E-2],"split_indices":[31,32,31,31,1,6,8,0,0,0,0,0,0,0,0],"split_type":[0,0,0,0,0,0,0,0,0,0,0,0,0,0,0],"sum_hessian":[4.828E3,3.601E3,1.227E3,3.418E3,1.83E2,1.169E3,5.8E1,3.053E3,3.65E2,3.3E1,1.5E2,4.79E2,6.9E2,3.7E1,2.1E1],"tree_param":{"num_deleted":"0","num_feature":"34","num_nodes":"15","size_leaf_vector":"1"}},{"base_weights":[4.5095244E-4,-8.2051195E-2,2.4244794E-1,-9.259825E-2,1.14375025E-1,2.1980813E-1,5.0415725E-1,-9.046906E-3,-4.499319E-2,5.042711E-2,2.5826404E-3,2.0755744E-2,5.111183E-2,3.2019977E-2,7.1846515E-2],"categories":[],"categories_nodes":[],"categories_segments":[],"categories_sizes":[],"default_left":[0,0,0,0,0,0,0,0,0,0,0,0,0,0,0],"id":16,"left_children":[1,3,5,7,9,11,13,-1,-1,-1,-1,-1,-1,-1,-1],"loss_changes":[9.643219E1,7.4729176E0,7.1651306E0,2.560587E0,6.3395314E0,3.9337463E0,3.5940304E0,0E0,0E0,0E0,0E0,0E0,0E0,0E0,0E0],"parents":[2147483647,0,0,1,1,2,2,3,3,4,4,5,5,6,6],"right_children":[2,4,6,8,10,12,14,-1,-1,-1,-1,-1,-1,-1,-1],"split_conditions":[5.053566E-1,3.0690203E1,3.6780448E0,2.8551846E1,8.333629E-7,6.0034886E-6,5.855678E2,-9.046906E-3,-4.499319E-2,5.042711E-2,2.5826404E-3,2.0755744E-2,5.111183E-2,3.2019977E-2,7.1846515E-2],"split_indices":[31,32,31,32,1,13,32,0,0,0,0,0,0,0,0],"split_type":[0,0,0,0,0,0,0,0,0,0,0,0,0,0,0],"sum_hessian":[4.828E3,3.601E3,1.227E3,3.418E3,1.83E2,1.131E3,9.6E1,3.399E3,1.9E1,3.3E1,1.5E2,1.087E3,4.4E1,5.3E1,4.3E1],"tree_param":{"num_deleted":"0","num_feature":"34","num_nodes":"15","size_leaf_vector":"1"}},{"base_weights":[4.4203072E-4,-8.039576E-2,2.0274135E-1,-9.593384E-2,-9.5707355E-3,1.5701064E-1,3.312645E-1,-8.716284E-3,-1.1113064E-2,1.8077007E-2,-4.508279E-3,2.5033683E-2,1.0759774E-2,4.723854E-2,2.4883311E-2],"categories":[],"categories_nodes":[],"categories_segments":[],"categories_sizes":[],"default_left":[0,0,0,0,0,0,0,0,0,0,0,0,0,0,0],"id":17,"left_children":[1,3,5,7,9,11,13,-1,-1,-1,-1,-1,-1,-1,-1],"loss_changes":[7.8987015E1,3.796856E0,8.05299E0,3.6752892E-1,4.212492E0,4.672201E0,4.081894E0,0E0,0E0,0E0,0E0,0E0,0E0,0E0,0E0],"parents":[2147483647,0,0,1,1,2,2,3,3,4,4,5,5,6,6],"right_children":[2,4,6,8,10,12,14,-1,-1,-1,-1,-1,-1,-1,-1],"split_conditions":[4.5874655E-1,3.0915406E-1,1.4225903E0,2.638E-5,5.2025363E-2,1.609E-5,2.411975E-5,-8.716284E-3,-1.1113064E-2,1.8077007E-2,-4.508279E-3,2.5033683E-2,1.0759774E-2,4.723854E-2,2.4883311E-2],"split_indices":[31,31,31,19,27,18,12,0,0,0,0,0,0,0,0],"split_type":[0,0,0,0,0,0,0,0,0,0,0,0,0,0,0],"sum_hessian":[4.828E3,3.45E3,1.378E3,2.829E3,6.21E2,1.018E3,3.6E2,1.798E3,1.031E3,9.7E1,5.24E2,3.51E2,6.67E2,1.31E2,2.29E2],"tree_param":{"num_deleted":"0","num_feature":"34","num_nodes":"15","size_leaf_vector":"1"}},{"base_weights":[4.1886923E-4,-4.94694E-2,1.6898929E-1,5.1330086E-3,-8.4914915E-2,1.10985704E-1,2.7559128E-1,7.958989E-3,-6.703517E-3,-8.393518E-3,-4.3898042E-2,6.7786746E-2,1.0362281E-2,2.550157E-2,7.38035E-2],"categories":[],"categories_nodes":[],"categories_segments":[],"categories_sizes":[],"default_left":[0,0,0,0,0,0,0,0,0,0,0,0,0,0,0],"id":18,"left_children":[1,3,5,7,9,11,13,-1,-1,-1,-1,-1,-1,-1,-1],"loss_changes":[4.0618732E1,7.2137117E0,6.789591E0,7.8935122E0,7.4712753E-1,2.9182587E0,3.5036297E0,0E0,0E0,0E0,0E0,0E0,0E0,0E0,0E0],"parents":[2147483647,0,0,1,1,2,2,3,3,4,4,5,5,6,6],"right_children":[2,4,6,8,10,12,14,-1,-1,-1,-1,-1,-1,-1,-1],"split_conditions":[3.0086662E1,-3.5386446E-1,1.2307418E2,3.3992117E2,2.6662867E1,3.1793855E-2,1.6221248E3,7.958989E-3,-6.703517E-3,-8.393518E-3,-4.3898042E-2,6.7786746E-2,1.0362281E-2,2.550157E-2,7.38035E-2],"split_indices":[32,28,32,33,32,25,32,0,0,0,0,0,0,0,0],"split_type":[0,0,0,0,0,0,0,0,0,0,0,0,0,0,0],"sum_hessian":[4.828E3,3.726E3,1.102E3,1.467E3,2.259E3,7.15E2,3.87E2,7.22E2,7.45E2,2.254E3,5E0,8E0,7.07E2,3.72E2,1.5E1],"tree_param":{"num_deleted":"0","num_feature":"34","num_nodes":"15","size_leaf_vector":"1"}},{"base_weights":[4.0315968E-4,-6.723421E-2,1.6966796E-1,-7.493887E-2,3.3892684E-2,1.3177082E-1,2.7617076E-1,-8.536309E-3,-4.503117E-3,3.707603E-2,-1.4836566E-3,2.1529827E-2,8.75591E-3,6.88828E-2,2.447387E-2],"categories":[],"categories_nodes":[],"categories_segments":[],"categories_sizes":[],"default_left":[0,0,0,0,0,0,0,0,0,0,0,0,0,0,0],"id":19,"left_children":[1,3,5,7,9,11,13,-1,-1,-1,-1,-1,-1,-1,-1],"loss_changes":[5.529682E1,2.6913815E0,5.529457E0,9.959831E-1,4.027251E0,3.7442055E0,4.5138283E0,0E0,0E0,0E0,0E0,0E0,0E0,0E0,0E0],"parents":[2147483647,0,0,1,1,2,2,3,3,4,4,5,5,6,6],"right_children":[2,4,6,8,10,12,14,-1,-1,-1,-1,-1,-1,-1,-1],"split_conditions":[4.5874655E-1,3.877518E-1,1.4225903E0,2.0464999E-5,8.02E-6,1.609E-5,4.985451E0,-8.536309E-3,-4.503117E-3,3.707603E-2,-1.4836566E-3,2.1529827E-2,8.75591E-3,6.88828E-2,2.447387E-2],"split_indices":[31,31,31,14,7,18,32,0,0,0,0,0,0,0,0],"split_type":[0,0,0,0,0,0,0,0,0,0,0,0,0,0,0],"sum_hessian":[4.828E3,3.45E3,1.378E3,3.206E3,2.44E2,1.018E3,3.6E2,2.376E3,8.3E2,3E1,2.14E2,3.51E2,6.67E2,2.4E1,3.36E2],"tree_param":{"num_deleted":"0","num_feature":"34","num_nodes":"15","size_leaf_vector":"1"}},{"base_weights":[3.9311795E-4,-5.612223E-2,1.6616501E-1,-6.3661344E-2,8.4271036E-2,3.426844E-1,1.4368486E-1,-6.1671976E-3,-3.9867155E-2,4.1837383E-2,8.484508E-4,1.9651554E-3,4.936822E-2,9.657567E-3,2.3374027E-2],"categories":[],"categories_nodes":[],"categories_segments":[],"categories_sizes":[],"default_left":[0,0,0,0,0,0,0,0,0,0,0,0,0,0,0],"id":20,"left_children":[1,3,5,7,9,11,13,-1,-1,-1,-1,-1,-1,-1,-1],"loss_changes":[4.525057E1,3.8178692E0,4.8236885E0,2.2540407E0,4.6554203E0,6.7215576E0,4.6059265E0,0E0,0E0,0E0,0E0,0E0,0E0,0E0,0E0],"parents":[2147483647,0,0,1,1,2,2,3,3,4,4,5,5,6,6],"right_children":[2,4,6,8,10,12,14,-1,-1,-1,-1,-1,-1,-1,-1],"split_conditions":[5.053566E-1,3.0690203E1,5.431868E0,2.8551846E1,8.333629E-7,4.746628E0,1.2307418E2,-6.1671976E-3,-3.9867155E-2,4.1837383E-2,8.484508E-4,1.9651554E-3,4.936822E-2,9.657567E-3,2.3374027E-2],"split_indices":[31,32,32,32,1,32,32,0,0,0,0,0,0,0,0],"split_type":[0,0,0,0,0,0,0,0,0,0,0,0,0,0,0],"sum_hessian":[4.828E3,3.601E3,1.227E3,3.418E3,1.83E2,1.37E2,1.09E3,3.399E3,1.9E1,3.3E1,1.5E2,4.4E1,9.3E1,7.17E2,3.73E2],"tree_param":{"num_deleted":"0","num_feature":"34","num_nodes":"15","size_leaf_vector":"1"}},{"base_weights":[3.7056848E-4,-5.8865875E-2,5.8730364E-2,-1.9306695E-2,-6.555257E-2,1.02216564E-1,-8.215281E-3,-5.0355205E-3,1.2195013E-2,-2.8572837E-2,-6.3680136E-3,-1.2330419E-2,1.1421646E-2,7.596755E-3,-9.669762E-3],"categories":[],"categories_nodes":[],"categories_segments":[],"categories_sizes":[],"default_left":[0,0,0,0,0,0,0,0,0,0,0,0,0,0,0],"id":21,"left_children":[1,3,5,7,9,11,13,-1,-1,-1,-1,-1,-1,-1,-1],"loss_changes":[1.669744E1,6.327896E-1,7.0838184E0,1.5324041E0,8.269491E-1,4.005763E0,7.150644E0,0E0,0E0,0E0,0E0,0E0,0E0,0E0,0E0],"parents":[2147483647,0,0,1,1,2,2,3,3,4,4,5,5,6,6],"right_children":[2,4,6,8,10,12,14,-1,-1,-1,-1,-1,-1,-1,-1],"split_conditions":[2.2315991E-1,2.1169945E2,3.3992117E2,4.237239E-6,2.4503633E2,1.5019066E-5,2.1971446E-5,-5.0355205E-3,1.2195013E-2,-2.8572837E-2,-6.3680136E-3,-1.2330419E-2,1.1421646E-2,7.596755E-3,-9.669762E-3],"split_indices":[24,33,33,17,33,16,16,0,0,0,0,0,0,0,0],"split_type":[0,0,0,0,0,0,0,0,0,0,0,0,0,0,0],"sum_hessian":[4.828E3,2.396E3,2.432E3,3.47E2,2.049E3,1.474E3,9.58E2,2.85E2,6.2E1,1.6E1,2.033E3,7.4E1,1.4E3,4.91E2,4.67E2],"tree_param":{"num_deleted":"0","num_feature":"34","num_nodes":"15","size_leaf_vector":"1"}},{"base_weights":[3.271378E-4,-4.652004E-2,1.4654441E-1,-5.813925E-2,3.6022723E-2,3.218589E-1,1.2493025E-1,-4.3455027E-3,-7.6588015E-3,2.1291418E-2,-1.8117093E-3,2.9564311E-3,4.4961087E-2,1.17155975E-2,6.1759055E-2],"categories":[],"categories_nodes":[],"categories_segments":[],"categories_sizes":[],"default_left":[0,0,0,0,0,0,0,0,0,0,0,0,0,0,0],"id":22,"left_children":[1,3,5,7,9,11,13,-1,-1,-1,-1,-1,-1,-1,-1],"loss_changes":[3.308482E1,3.510415E0,4.4008236E0,8.654671E-1,4.3326025E0,4.766383E0,3.9300709E0,0E0,0E0,0E0,0E0,0E0,0E0,0E0,0E0],"parents":[2147483647,0,0,1,1,2,2,3,3,4,4,5,5,6,6],"right_children":[2,4,6,8,10,12,14,-1,-1,-1,-1,-1,-1,-1,-1],"split_conditions":[5.4068655E-1,3.877518E-1,4.985451E0,8.8317745E-7,6.07E-6,4.746628E0,1.6221248E3,-4.3455027E-3,-7.6588015E-3,2.1291418E-2,-1.8117093E-3,2.9564311E-3,4.4961087E-2,1.17155975E-2,6.1759055E-2],"split_indices":[31,31,32,1,10,32,32,0,0,0,0,0,0,0,0],"split_type":[0,0,0,0,0,0,0,0,0,0,0,0,0,0,0],"sum_hessian":[4.828E3,3.657E3,1.171E3,3.206E3,4.51E2,1.27E2,1.044E3,1.787E3,1.419E3,1.05E2,3.46E2,3.9E1,8.8E1,1.029E3,1.5E1],"tree_param":{"num_deleted":"0","num_feature":"34","num_nodes":"15","size_leaf_vector":"1"}},{"base_weights":[3.2109884E-4,-4.7960103E-2,4.7887772E-2,-1.3005562E-2,-5.3870454E-2,8.38595E-2,-7.4888584E-3,-5.24928E-3,8.014231E-3,-2.5404027E-2,-5.217097E-3,7.5727627E-3,3.6642976E-2,7.5941323E-3,-7.264029E-3],"categories":[],"categories_nodes":[],"categories_segments":[],"categories_sizes":[],"default_left":[0,0,0,0,0,0,0,0,0,0,0,0,0,0,0],"id":23,"left_children":[1,3,5,7,9,11,13,-1,-1,-1,-1,-1,-1,-1,-1],"loss_changes":[1.10924635E1,4.9450397E-1,4.8471475E0,1.2842039E0,6.841278E-1,3.3615437E0,5.2182527E0,0E0,0E0,0E0,0E0,0E0,0E0,0E0,0E0],"parents":[2147483647,0,0,1,1,2,2,3,3,4,4,5,5,6,6],"right_children":[2,4,6,8,10,12,14,-1,-1,-1,-1,-1,-1,-1,-1],"split_conditions":[2.2315991E-1,2.1169945E2,3.3992117E2,3.9439998E-5,2.4503633E2,1.0305E-5,2.724E-5,-5.24928E-3,8.014231E-3,-2.5404027E-2,-5.217097E-3,7.5727627E-3,3.6642976E-2,7.5941323E-3,-7.264029E-3],"split_indices":[24,33,33,19,33,6,19,0,0,0,0,0,0,0,0],"split_type":[0,0,0,0,0,0,0,0,0,0,0,0,0,0,0],"sum_hessian":[4.828E3,2.396E3,2.432E3,3.47E2,2.049E3,1.474E3,9.58E2,2.44E2,1.03E2,1.6E1,2.033E3,1.434E3,4E1,4.2E2,5.38E2],"tree_param":{"num_deleted":"0","num_feature":"34","num_nodes":"15","size_leaf_vector":"1"}},{"base_weights":[2.9244515E-4,-4.0083148E-2,1.263109E-1,-5.092201E-2,2.601498E-2,1.6610236E-1,4.2288333E-2,-4.679845E-3,-2.0622512E-2,2.0031577E-2,-2.9631995E-3,3.4811694E-2,1.3971219E-2,1.6263196E-2,-5.2082003E-4],"categories":[],"categories_nodes":[],"categories_segments":[],"categories_sizes":[],"default_left":[0,0,0,0,0,0,0,0,0,0,0,0,0,0,0],"id":24,"left_children":[1,3,5,7,9,11,13,-1,-1,-1,-1,-1,-1,-1,-1],"loss_changes":[2.4575348E1,2.6220207E0,3.911419E0,2.0031328E0,5.0107813E0,3.7700634E0,2.161459E0,0E0,0E0,0E0,0E0,0E0,0E0,0E0,0E0],"parents":[2147483647,0,0,1,1,2,2,3,3,4,4,5,5,6,6],"right_children":[2,4,6,8,10,12,14,-1,-1,-1,-1,-1,-1,-1,-1],"split_conditions":[5.4068655E-1,7.7534122E0,2.3555E-5,5.431868E0,9.2375734E-7,7.05361E0,8.581703E-6,-4.679845E-3,-2.0622512E-2,2.0031577E-2,-2.9631995E-3,3.4811694E-2,1.3971219E-2,1.6263196E-2,-5.2082003E-4],"split_indices":[31,32,14,32,1,32,4,0,0,0,0,0,0,0,0],"split_type":[0,0,0,0,0,0,0,0,0,0,0,0,0,0,0],"sum_hessian":[4.828E3,3.657E3,1.171E3,3.142E3,5.15E2,7.94E2,3.77E2,3.062E3,8E1,1.24E2,3.91E2,9.9E1,6.95E2,1.06E2,2.71E2],"tree_param":{"num_deleted":"0","num_feature":"34","num_nodes":"15","size_leaf_vector":"1"}},{"base_weights":[2.748543E-4,-4.039311E-2,1.02047786E-1,-4.888262E-2,-1.7022733E-3,4.8653165E-1,9.400962E-2,-4.439033E-3,-2.1330742E-2,1.6202124E-2,-3.2260753E-3,5.549669E-2,-2.6875077E-2,8.5607665E-3,4.0771753E-2],"categories":[],"categories_nodes":[],"categories_segments":[],"categories_sizes":[],"default_left":[0,0,0,0,0,0,0,0,0,0,0,0,0,0,0],"id":25,"left_children":[1,3,5,7,9,11,13,-1,-1,-1,-1,-1,-1,-1,-1],"loss_changes":[1.9990862E1,1.1334543E0,4.2161207E0,2.0808911E0,3.1171808E0,1.5964088E0,3.5286474E0,0E0,0E0,0E0,0E0,0E0,0E0,0E0,0E0],"parents":[2147483647,0,0,1,1,2,2,3,3,4,4,5,5,6,6],"right_children":[2,4,6,8,10,12,14,-1,-1,-1,-1,-1,-1,-1,-1],"split_conditions":[4.5874655E-1,3.0915406E-1,1.7463906E-5,1.2292169E1,5.2025363E-2,3.521545E-6,6.7938867E0,-4.439033E-3,-2.1330742E-2,1.6202124E-2,-3.2260753E-3,5.549669E-2,-2.6875077E-2,8.5607665E-3,4.0771753E-2],"split_indices":[31,31,12,32,27,5,31,0,0,0,0,0,0,0,0],"split_type":[0,0,0,0,0,0,0,0,0,0,0,0,0,0,0],"sum_hessian":[4.828E3,3.45E3,1.378E3,2.829E3,6.21E2,2.7E1,1.351E3,2.755E3,7.4E1,9.7E1,5.24E2,2.5E1,2E0,1.317E3,3.4E1],"tree_param":{"num_deleted":"0","num_feature":"34","num_nodes":"15","size_leaf_vector":"1"}},{"base_weights":[2.6086153E-4,-3.1851728E-2,1.07254595E-1,-4.1032348E-2,2.6054153E-2,1.4455128E-1,2.9907448E-2,-2.7308878E-3,-5.828343E-3,1.7844863E-2,-1.9886158E-3,3.0734017E-2,1.2026001E-2,1.5160258E-2,-1.1811502E-3],"categories":[],"categories_nodes":[],"categories_segments":[],"categories_sizes":[],"default_left":[0,0,0,0,0,0,0,0,0,0,0,0,0,0,0],"id":26,"left_children":[1,3,5,7,9,11,13,-1,-1,-1,-1,-1,-1,-1,-1],"loss_changes":[1.6595116E1,1.9760065E0,3.2122211E0,7.5764847E-1,3.5670826E0,2.9367104E0,1.8498161E0,0E0,0E0,0E0,0E0,0E0,0E0,0E0,0E0],"parents":[2147483647,0,0,1,1,2,2,3,3,4,4,5,5,6,6],"right_children":[2,4,6,8,10,12,14,-1,-1,-1,-1,-1,-1,-1,-1],"split_conditions":[5.754189E-1,3.877518E-1,2.3555E-5,8.8317745E-7,6.07E-6,8.538307E0,7.03E-6,-2.7308878E-3,-5.828343E-3,1.7844863E-2,-1.9886158E-3,3.0734017E-2,1.2026001E-2,1.5160258E-2,-1.1811502E-3],"split_indices":[31,31,14,1,10,32,6,0,0,0,0,0,0,0,0],"split_type":[0,0,0,0,0,0,0,0,0,0,0,0,0,0,0],"sum_hessian":[4.828E3,3.714E3,1.114E3,3.206E3,5.08E2,7.51E2,3.63E2,1.787E3,1.419E3,1.17E2,3.91E2,9.6E1,6.55E2,9.2E1,2.71E2],"tree_param":{"num_deleted":"0","num_feature":"34","num_nodes":"15","size_leaf_vector":"1"}},{"base_weights":[2.480385E-4,-2.8664593E-2,9.6580036E-2,-3.789023E-2,2.3489257E-2,8.703894E-2,3.5082102E-1,-3.4089051E-3,-1.8001875E-2,8.624599E-2,1.28269E-3,5.3708147E-2,8.102988E-3,-3.7075614E-3,5.1838655E-2],"categories":[],"categories_nodes":[],"categories_segments":[],"categories_sizes":[],"default_left":[0,0,0,0,0,0,0,0,0,0,0,0,0,0,0],"id":27,"left_children":[1,3,5,7,9,11,13,-1,-1,-1,-1,-1,-1,-1,-1],"loss_changes":[1.3452555E1,1.7883713E0,2.6741629E0,1.6994519E0,4.9894185E0,2.8663435E0,2.619144E0,0E0,0E0,0E0,0E0,0E0,0E0,0E0,0E0],"parents":[2147483647,0,0,1,1,2,2,3,3,4,4,5,5,6,6],"right_children":[2,4,6,8,10,12,14,-1,-1,-1,-1,-1,-1,-1,-1],"split_conditions":[5.754189E-1,7.7534122E0,6.7938867E0,5.431868E0,1.756984E-6,1.431319E-1,8.325356E-2,-3.4089051E-3,-1.8001875E-2,8.624599E-2,1.28269E-3,5.3708147E-2,8.102988E-3,-3.7075614E-3,5.1838655E-2],"split_indices":[31,32,31,32,0,24,27,0,0,0,0,0,0,0,0],"split_type":[0,0,0,0,0,0,0,0,0,0,0,0,0,0,0],"sum_hessian":[4.828E3,3.714E3,1.114E3,3.156E3,5.58E2,1.075E3,3.9E1,3.075E3,8.1E1,6E0,5.52E2,1.3E1,1.062E3,1.2E1,2.7E1],"tree_param":{"num_deleted":"0","num_feature":"34","num_nodes":"15","size_leaf_vector":"1"}},{"base_weights":[2.5968967E-4,-3.3734486E-2,6.743101E-2,-2.1468144E-2,-4.915595E-2,3.7949823E-2,1.3492756E-1,-3.042647E-3,2.5111584E-2,-1.8655112E-2,-4.124778E-3,2.0445913E-2,2.1067606E-3,4.3937755E-3,1.9584974E-2],"categories":[],"categories_nodes":[],"categories_segments":[],"categories_sizes":[],"default_left":[0,0,0,0,0,0,0,0,0,0,0,0,0,0,0],"id":28,"left_children":[1,3,5,7,9,11,13,-1,-1,-1,-1,-1,-1,-1,-1],"loss_changes":[1.1028976E1,6.0559654E-1,3.2244525E0,4.3737497E0,1.5351985E0,3.174986E0,2.7242403E0,0E0,0E0,0E0,0E0,0E0,0E0,0E0,0E0],"parents":[2147483647,0,0,1,1,2,2,3,3,4,4,5,5,6,6],"right_children":[2,4,6,8,10,12,14,-1,-1,-1,-1,-1,-1,-1,-1],"split_conditions":[3.877518E-1,8.8317745E-7,1.1821766E0,1.1647254E-6,8.5E-6,4.8849997E-6,1.1428108E-6,-3.042647E-3,2.5111584E-2,-1.8655112E-2,-4.124778E-3,2.0445913E-2,2.1067606E-3,4.3937755E-3,1.9584974E-2],"split_indices":[31,1,31,5,11,6,1,0,0,0,0,0,0,0,0],"split_type":[0,0,0,0,0,0,0,0,0,0,0,0,0,0,0],"sum_hessian":[4.828E3,3.206E3,1.622E3,1.787E3,1.419E3,1.13E3,4.92E2,1.731E3,5.6E1,7.6E1,1.343E3,1.03E2,1.027E3,1.98E2,2.94E2],"tree_param":{"num_deleted":"0","num_feature":"34","num_nodes":"15","size_leaf_vector":"1"}},{"base_weights":[2.4320181E-4,-2.3447717E-2,7.91773E-2,-3.1233255E-2,2.0563727E-2,2.1981274E-1,6.294128E-2,-2.7500768E-3,-1.51247755E-2,7.7572115E-2,1.0967586E-3,-7.514007E-3,3.3443477E-2,2.4107124E-3,1.2825963E-2],"categories":[],"categories_nodes":[],"categories_segments":[],"categories_sizes":[],"default_left":[0,0,0,0,0,0,0,0,0,0,0,0,0,0,0],"id":29,"left_children":[1,3,5,7,9,11,13,-1,-1,-1,-1,-1,-1,-1,-1],"loss_changes":[9.032189E0,1.2735975E0,2.5321102E0,1.4100275E0,4.0423393E0,3.9130597E0,2.5360272E0,0E0,0E0,0E0,0E0,0E0,0E0,0E0,0E0],"parents":[2147483647,0,0,1,1,2,2,3,3,4,4,5,5,6,6],"right_children":[2,4,6,8,10,12,14,-1,-1,-1,-1,-1,-1,-1,-1],"split_conditions":[5.754189E-1,7.7534122E0,4.985451E0,4.985451E0,1.756984E-6,4.746628E0,1.2307418E2,-2.7500768E-3,-1.51247755E-2,7.7572115E-2,1.0967586E-3,-7.514007E-3,3.3443477E-2,2.4107124E-3,1.2825963E-2],"split_indices":[31,32,32,32,0,32,32,0,0,0,0,0,0,0,0],"split_type":[0,0,0,0,0,0,0,0,0,0,0,0,0,0,0],"sum_hessian":[4.828E3,3.714E3,1.114E3,3.156E3,5.58E2,1.14E2,1E3,3.062E3,9.4E1,6E0,5.52E2,3.2E1,8.2E1,6.28E2,3.72E2],"tree_param":{"num_deleted":"0","num_feature":"34","num_nodes":"15","size_leaf_vector":"1"}},{"base_weights":[2.399882E-4,-2.7756765E-2,5.55606E-2,-2.6120074E-2,-1.3724244E-1,3.4706914E-1,4.9852926E-2,-2.7600855E-3,4.955489E-2,3.770047E-2,-2.5239581E-2,6.740731E-2,7.345111E-3,1.9373348E-2,3.6720845E-3],"categories":[],"categories_nodes":[],"categories_segments":[],"categories_sizes":[],"default_left":[0,0,0,0,0,0,0,0,0,0,0,0,0,0,0],"id":30,"left_children":[1,3,5,7,9,11,13,-1,-1,-1,-1,-1,-1,-1,-1],"loss_changes":[7.4806857E0,5.710914E-1,2.6831036E0,2.455478E0,2.878367E0,2.7241883E0,3.002781E0,0E0,0E0,0E0,0E0,0E0,0E0,0E0,0E0],"parents":[2147483647,0,0,1,1,2,2,3,3,4,4,5,5,6,6],"right_children":[2,4,6,8,10,12,14,-1,-1,-1,-1,-1,-1,-1,-1],"split_conditions":[3.877518E-1,4.5270798E1,2.1915E-5,4.2210903E1,8.333629E-7,6.316725E-2,4.8849997E-6,-2.7600855E-3,4.955489E-2,3.770047E-2,-2.5239581E-2,6.740731E-2,7.345111E-3,1.9373348E-2,3.6720845E-3],"split_indices":[31,32,15,32,1,27,6,0,0,0,0,0,0,0,0],"split_type":[0,0,0,0,0,0,0,0,0,0,0,0,0,0,0],"sum_hessian":[4.828E3,3.206E3,1.622E3,3.16E3,4.6E1,3E1,1.592E3,3.152E3,8E0,8E0,3.8E1,1.3E1,1.7E1,1.32E2,1.46E3],"tree_param":{"num_deleted":"0","num_feature":"34","num_nodes":"15","size_leaf_vector":"1"}},{"base_weights":[2.4850524E-4,-1.9589825E-2,6.63464E-2,1.5583661E-2,-2.6943214E-2,1.13374315E-1,2.261524E-2,-3.476806E-3,9.80636E-3,-1.8399661E-2,-2.4863756E-3,3.1691678E-2,8.417959E-3,1.791456E-2,3.156795E-4],"categories":[],"categories_nodes":[],"categories_segments":[],"categories_sizes":[],"default_left":[0,0,0,0,0,0,0,0,0,0,0,0,0,0,0],"id":31,"left_children":[1,3,5,7,9,11,13,-1,-1,-1,-1,-1,-1,-1,-1],"loss_changes":[6.3334312E0,9.6128356E-1,2.2905293E0,2.673793E0,9.990239E-1,3.1643734E0,1.7629745E0,0E0,0E0,0E0,0E0,0E0,0E0,0E0,0E0],"parents":[2147483647,0,0,1,1,2,2,3,3,4,4,5,5,6,6],"right_children":[2,4,6,8,10,12,14,-1,-1,-1,-1,-1,-1,-1,-1],"split_conditions":[5.754189E-1,2.2089734E2,6.7799997E-6,2.18425E-5,2.404754E2,3.252135E-1,5.343638E1,-3.476806E-3,9.80636E-3,-1.8399661E-2,-2.4863756E-3,3.1691678E-2,8.417959E-3,1.791456E-2,3.156795E-4],"split_indices":[31,33,6,18,33,24,33,0,0,0,0,0,0,0,0],"split_type":[0,0,0,0,0,0,0,0,0,0,0,0,0,0,0],"sum_hessian":[4.828E3,3.714E3,1.114E3,6.42E2,3.072E3,5.36E2,5.78E2,3.99E2,2.43E2,3.9E1,3.033E3,6.6E1,4.7E2,6.3E1,5.15E2],"tree_param":{"num_deleted":"0","num_feature":"34","num_nodes":"15","size_leaf_vector":"1"}},{"base_weights":[2.3272248E-4,-1.1073173E-2,9.9692024E-2,-2.629907E-2,1.5885485E-2,1.9256438E-1,5.0215665E-2,-2.1842027E-3,-2.0591795E-2,3.1078975E-3,-8.686203E-3,1.3393129E-2,4.5303863E-2,7.6267617E-3,-2.165271E-2],"categories":[],"categories_nodes":[],"categories_segments":[],"categories_sizes":[],"default_left":[0,0,0,0,0,0,0,0,0,0,0,0,0,0,0],"id":32,"left_children":[1,3,5,7,9,11,13,-1,-1,-1,-1,-1,-1,-1,-1],"loss_changes":[5.4312015E0,1.7806251E0,2.2556586E0,2.2146811E0,2.4473715E0,2.5509057E0,2.2610953E0,0E0,0E0,0E0,0E0,0E0,0E0,0E0,0E0],"parents":[2147483647,0,0,1,1,2,2,3,3,4,4,5,5,6,6],"right_children":[2,4,6,8,10,12,14,-1,-1,-1,-1,-1,-1,-1,-1],"split_conditions":[1.1821766E0,3.0171004E-1,2.411975E-5,1.2292169E1,-3.3657706E-1,5.855678E2,-3.5386446E-1,-2.1842027E-3,-2.0591795E-2,3.1078975E-3,-8.686203E-3,1.3393129E-2,4.5303863E-2,7.6267617E-3,-2.165271E-2],"split_indices":[31,31,12,32,28,32,28,0,0,0,0,0,0,0,0],"split_type":[0,0,0,0,0,0,0,0,0,0,0,0,0,0,0],"sum_hessian":[4.828E3,4.336E3,4.92E2,2.771E3,1.565E3,1.7E2,3.22E2,2.705E3,6.6E1,1.364E3,2.01E2,1.4E2,3E1,2.94E2,2.8E1],"tree_param":{"num_deleted":"0","num_feature":"34","num_nodes":"15","size_leaf_vector":"1"}},{"base_weights":[2.1282575E-4,-7.778154E-3,9.169664E-2,-3.4639385E-2,3.5655526E-3,2.1762392E-2,1.7494163E-1,-1.7777376E-3,-7.816654E-3,-5.5041804E-4,7.171476E-3,-8.5962826E-4,4.517348E-2,3.1848095E-2,-3.0807935E-4],"categories":[],"categories_nodes":[],"categories_segments":[],"categories_sizes":[],"default_left":[0,0,0,0,0,0,0,0,0,0,0,0,0,0,0],"id":33,"left_children":[1,3,5,7,9,11,13,-1,-1,-1,-1,-1,-1,-1,-1],"loss_changes":[3.5309312E0,1.3536271E0,2.2550035E0,9.666976E-1,1.9313238E0,2.7712028E0,4.5238996E0,0E0,0E0,0E0,0E0,0E0,0E0,0E0,0E0],"parents":[2147483647,0,0,1,1,2,2,3,3,4,4,5,5,6,6],"right_children":[2,4,6,8,10,12,14,-1,-1,-1,-1,-1,-1,-1,-1],"split_conditions":[1.2307418E2,1.0898432E-2,-6.931436E-2,2.640514E-1,5.174657E-1,2.3418053E-5,2.5760364E-5,-1.7777376E-3,-7.816654E-3,-5.5041804E-4,7.171476E-3,-8.5962826E-4,4.517348E-2,3.1848095E-2,-3.0807935E-4],"split_indices":[32,32,26,24,24,16,16,0,0,0,0,0,0,0,0],"split_type":[0,0,0,0,0,0,0,0,0,0,0,0,0,0,0],"sum_hessian":[4.828E3,4.441E3,3.87E2,1.318E3,3.123E3,2.11E2,1.76E2,9.51E2,3.67E2,2.757E3,3.66E2,1.98E2,1.3E1,9.7E1,7.9E1],"tree_param":{"num_deleted":"0","num_feature":"34","num_nodes":"15","size_leaf_vector":"1"}},{"base_weights":[2.06627E-4,-9.284994E-3,8.3705515E-2,-2.2400692E-2,1.3937228E-2,1.7082022E-1,3.649508E-2,-1.5412647E-3,-4.8957616E-3,8.487027E-3,-8.782648E-4,4.8785843E-3,3.2962803E-2,3.303907E-2,1.8973316E-3],"categories":[],"categories_nodes":[],"categories_segments":[],"categories_sizes":[],"default_left":[0,0,0,0,0,0,0,0,0,0,0,0,0,0,0],"id":34,"left_children":[1,3,5,7,9,11,13,-1,-1,-1,-1,-1,-1,-1,-1],"loss_changes":[3.827952E0,1.321257E0,2.0213387E0,5.136758E-1,2.5244951E0,3.3366613E0,1.6467433E0,0E0,0E0,0E0,0E0,0E0,0E0,0E0,0E0],"parents":[2147483647,0,0,1,1,2,2,3,3,4,4,5,5,6,6],"right_children":[2,4,6,8,10,12,14,-1,-1,-1,-1,-1,-1,-1,-1],"split_conditions":[1.1821766E0,3.0171004E-1,3.5541666E-6,2.640514E-1,6.37954E-2,5.49E-6,6.2199997E-6,-1.5412647E-3,-4.8957616E-3,8.487027E-3,-8.782648E-4,4.8785843E-3,3.2962803E-2,3.303907E-2,1.8973316E-3],"split_indices":[31,31,2,24,27,10,10,0,0,0,0,0,0,0,0],"split_type":[0,0,0,0,0,0,0,0,0,0,0,0,0,0,0],"sum_hessian":[4.828E3,4.336E3,4.92E2,2.771E3,1.565E3,1.72E2,3.2E2,2.195E3,5.76E2,3.79E2,1.186E3,9.8E1,7.4E1,1.7E1,3.03E2],"tree_param":{"num_deleted":"0","num_feature":"34","num_nodes":"15","size_leaf_vector":"1"}},{"base_weights":[2.0127211E-4,-8.35623E-3,7.5482585E-2,-1.7757839E-2,1.8309832E-2,-5.062591E-5,1.2617962E-1,-8.778262E-3,-1.5429237E-3,1.666232E-2,4.8611173E-4,5.508613E-3,-1.89965E-2,5.1385354E-2,1.0503625E-2],"categories":[],"categories_nodes":[],"categories_segments":[],"categories_sizes":[],"default_left":[0,0,0,0,0,0,0,0,0,0,0,0,0,0,0],"id":35,"left_children":[1,3,5,7,9,11,13,-1,-1,-1,-1,-1,-1,-1,-1],"loss_changes":[3.111569E0,1.0876279E0,1.8878558E0,5.2157843E-1,2.2551098E0,2.0942457E0,2.3640637E0,0E0,0E0,0E0,0E0,0E0,0E0,0E0,0E0],"parents":[2147483647,0,0,1,1,2,2,3,3,4,4,5,5,6,6],"right_children":[2,4,6,8,10,12,14,-1,-1,-1,-1,-1,-1,-1,-1],"split_conditions":[1.1821766E0,3.877518E-1,1.1428108E-6,-5.9789765E-1,7.95E-6,2.1459999E-5,3.2160667E-6,-8.778262E-3,-1.5429237E-3,1.666232E-2,4.8611173E-4,5.508613E-3,-1.89965E-2,5.1385354E-2,1.0503625E-2],"split_indices":[31,31,1,28,7,23,21,0,0,0,0,0,0,0,0],"split_type":[0,0,0,0,0,0,0,0,0,0,0,0,0,0,0],"sum_hessian":[4.828E3,4.336E3,4.92E2,3.206E3,1.13E3,1.98E2,2.94E2,1.02E2,3.104E3,9.3E1,1.037E3,1.54E2,4.4E1,1.4E1,2.8E2],"tree_param":{"num_deleted":"0","num_feature":"34","num_nodes":"15","size_leaf_vector":"1"}},{"base_weights":[1.9257599E-4,-1.2350339E-2,4.1983373E-2,1.7868167E-2,-1.8669294E-2,5.3497743E-2,-9.300249E-2,-3.9505395E-3,7.0081265E-3,-1.019282E-2,-1.4927336E-3,5.104841E-3,1.2844811E-1,-4.0299457E-2,-4.8093316E-3],"categories":[],"categories_nodes":[],"categories_segments":[],"categories_sizes":[],"default_left":[0,0,0,0,0,0,0,0,0,0,0,0,0,0,0],"id":36,"left_children":[1,3,5,7,9,11,13,-1,-1,-1,-1,-1,-1,-1,-1],"loss_changes":[2.5317764E0,7.097106E-1,1.7379944E0,1.9289725E0,9.558761E-1,3.033939E0,1.2057097E0,0E0,0E0,0E0,0E0,0E0,0E0,0E0,0E0],"parents":[2147483647,0,0,1,1,2,2,3,3,4,4,5,5,6,6],"right_children":[2,4,6,8,10,12,14,-1,-1,-1,-1,-1,-1,-1,-1],"split_conditions":[5.754189E-1,2.2089734E2,2.637E-5,2.9120001E-5,2.9059024E2,1.0740207E-5,-1.1806853E-1,-3.9505395E-3,7.0081265E-3,-1.019282E-2,-1.4927336E-3,5.104841E-3,1.2844811E-1,-4.0299457E-2,-4.8093316E-3],"split_indices":[31,33,14,19,33,0,26,0,0,0,0,0,0,0,0],"split_type":[0,0,0,0,0,0,0,0,0,0,0,0,0,0,0],"sum_hessian":[4.828E3,3.714E3,1.114E3,6.42E2,3.072E3,1.027E3,8.7E1,3.06E2,3.36E2,1.31E2,2.941E3,1.026E3,1E0,1E1,7.7E1],"tree_param":{"num_deleted":"0","num_feature":"34","num_nodes":"15","size_leaf_vector":"1"}},{"base_weights":[1.898393E-4,-7.0370655E-3,6.376569E-2,5.185907E-4,-3.368746E-2,2.876378E-1,4.7080003E-2,-2.2890209E-4,1.9546133E-2,-2.0935124E-2,-1.2510995E-3,1.4820451E-2,5.6570705E-2,3.1058446E-3,3.3684418E-2],"categories":[],"categories_nodes":[],"categories_segments":[],"categories_sizes":[],"default_left":[0,0,0,0,0,0,0,0,0,0,0,0,0,0,0],"id":37,"left_children":[1,3,5,7,9,11,13,-1,-1,-1,-1,-1,-1,-1,-1],"loss_changes":[2.2191648E0,8.733212E-1,1.8280399E0,1.8504007E0,3.5610814E0,1.234411E0,2.1250758E0,0E0,0E0,0E0,0E0,0E0,0E0,0E0,0E0],"parents":[2147483647,0,0,1,1,2,2,3,3,4,4,5,5,6,6],"right_children":[2,4,6,8,10,12,14,-1,-1,-1,-1,-1,-1,-1,-1],"split_conditions":[1.1821766E0,1.5408984E-6,4.985451E0,7.246651E-6,7.4033333E-6,1.388216E-1,6.335888E2,-2.2890209E-4,1.9546133E-2,-2.0935124E-2,-1.2510995E-3,1.4820451E-2,5.6570705E-2,3.1058446E-3,3.3684418E-2],"split_indices":[31,1,32,13,3,25,33,0,0,0,0,0,0,0,0],"split_type":[0,0,0,0,0,0,0,0,0,0,0,0,0,0,0],"sum_hessian":[4.828E3,4.336E3,4.92E2,3.379E3,9.57E2,3.3E1,4.59E2,3.332E3,4.7E1,1.02E2,8.55E2,2.3E1,1E1,4.36E2,2.3E1],"tree_param":{"num_deleted":"0","num_feature":"34","num_nodes":"15","size_leaf_vector":"1"}},{"base_weights":[1.9265704E-4,-1.4038202E-2,2.8312296E-2,-1.2461176E-2,-1.1980287E-1,1.3830827E-1,1.8159127E-2,-1.3784132E-3,4.5239866E-2,3.4701306E-2,-2.2445774E-2,-5.715931E-3,2.6231948E-2,2.2105614E-3,-3.7059646E-2],"categories":[],"categories_nodes":[],"categories_segments":[],"categories_sizes":[],"default_left":[0,0,0,0,0,0,0,0,0,0,0,0,0,0,0],"id":38,"left_children":[1,3,5,7,9,11,13,-1,-1,-1,-1,-1,-1,-1,-1],"loss_changes":[1.932802E0,5.3341407E-1,1.8100672E0,1.9502149E0,2.3740544E0,3.3358967E0,2.2895756E0,0E0,0E0,0E0,0E0,0E0,0E0,0E0,0E0],"parents":[2147483647,0,0,1,1,2,2,3,3,4,4,5,5,6,6],"right_children":[2,4,6,8,10,12,14,-1,-1,-1,-1,-1,-1,-1,-1],"split_conditions":[3.877518E-1,4.5270798E1,4.8849997E-6,4.2210903E1,8.333629E-7,2.7004788E2,9.1549347E2,-1.3784132E-3,4.5239866E-2,3.4701306E-2,-2.2445774E-2,-5.715931E-3,2.6231948E-2,2.2105614E-3,-3.7059646E-2],"split_indices":[31,32,6,32,1,33,33,0,0,0,0,0,0,0,0],"split_type":[0,0,0,0,0,0,0,0,0,0,0,0,0,0,0],"sum_hessian":[4.828E3,3.206E3,1.622E3,3.16E3,4.6E1,1.36E2,1.486E3,3.152E3,8E0,8E0,3.8E1,5.3E1,8.3E1,1.472E3,1.4E1],"tree_param":{"num_deleted":"0","num_feature":"34","num_nodes":"15","size_leaf_vector":"1"}},{"base_weights":[1.820304E-4,1.5532727E-2,-1.5659552E-2,-1.11963786E-1,2.2657948E-2,-9.896209E-3,-7.800351E-2,-6.040278E-3,-2.3520617E-2,8.550809E-2,2.0134386E-3,-1.1167693E-3,2.20431E-2,-4.774494E-3,-2.8911402E-2],"categories":[],"categories_nodes":[],"categories_segments":[],"categories_sizes":[],"default_left":[0,0,0,0,0,0,0,0,0,0,0,0,0,0,0],"id":39,"left_children":[1,3,5,7,9,11,13,-1,-1,-1,-1,-1,-1,-1,-1],"loss_changes":[1.1745563E0,2.2309422E0,8.5330683E-1,8.1187797E-1,4.864745E0,6.4001113E-1,1.2701645E0,0E0,0E0,0E0,0E0,0E0,0E0,0E0,0E0],"parents":[2147483647,0,0,1,1,2,2,3,3,4,4,5,5,6,6],"right_children":[2,4,6,8,10,12,14,-1,-1,-1,-1,-1,-1,-1,-1],"split_conditions":[-3.5386446E-1,1.5019066E-5,2.3871595E-1,3.8825306E-6,1.5167268E-5,2.2315991E-1,1.682E-5,-6.040278E-3,-2.3520617E-2,8.550809E-2,2.0134386E-3,-1.1167693E-3,2.20431E-2,-4.774494E-3,-2.8911402E-2],"split_indices":[28,16,24,8,16,24,18,0,0,0,0,0,0,0,0],"split_type":[0,0,0,0,0,0,0,0,0,0,0,0,0,0,0],"sum_hessian":[4.828E3,2.452E3,2.376E3,1.29E2,2.323E3,2.176E3,2E2,9.2E1,3.7E1,6E0,2.317E3,2.165E3,1.1E1,1.76E2,2.4E1],"tree_param":{"num_deleted":"0","num_feature":"34","num_nodes":"15","size_leaf_vector":"1"}},{"base_weights":[1.7318461E-4,-8.9291175E-4,3.209241E-1,2.5455257E-2,-1.0021684E-2,1.0972586E-1,9.270874E-2,1.4735964E-3,1.9401258E-2,-7.849157E-3,-4.1812533E-4,5.6578286E-2,-8.366953E-3],"categories":[],"categories_nodes":[],"categories_segments":[],"categories_sizes":[],"default_left":[0,0,0,0,0,0,0,0,0,0,0,0,0],"id":40,"left_children":[1,3,5,7,9,11,-1,-1,-1,-1,-1,-1,-1],"loss_changes":[1.6515698E0,1.1581494E0,1.9466045E0,2.2357855E0,1.4296913E0,1.1939299E0,0E0,0E0,0E0,0E0,0E0,0E0,0E0],"parents":[2147483647,0,0,1,1,2,2,3,3,4,4,5,5],"right_children":[2,4,6,8,10,12,-1,-1,-1,-1,-1,-1,-1],"split_conditions":[1.6221248E3,2.2089734E2,3.148015E2,2.0389346E2,2.9059024E2,2.2426499E-5,9.270874E-2,1.4735964E-3,1.9401258E-2,-7.849157E-3,-4.1812533E-4,5.6578286E-2,-8.366953E-3],"split_indices":[32,33,33,33,33,19,0,0,0,0,0,0,0],"split_type":[0,0,0,0,0,0,0,0,0,0,0,0,0],"sum_hessian":[4.828E3,4.813E3,1.5E1,1.238E3,3.575E3,1.2E1,3E0,1.165E3,7.3E1,2.8E2,3.295E3,3E0,9E0],"tree_param":{"num_deleted":"0","num_feature":"34","num_nodes":"13","size_leaf_vector":"1"}},{"base_weights":[1.876594E-4,-5.7318695E-3,5.4586984E-2,3.618614E-2,-9.6090045E-3,1.3343297E-1,1.1262191E-2,-2.1923063E-3,1.4842789E-2,-1.0235508E-4,-3.6576786E-3,1.992822E-3,2.7734537E-2,3.0356651E-2,-5.852709E-4],"categories":[],"categories_nodes":[],"categories_segments":[],"categories_sizes":[],"default_left":[0,0,0,0,0,0,0,0,0,0,0,0,0,0,0],"id":41,"left_children":[1,3,5,7,9,11,13,-1,-1,-1,-1,-1,-1,-1,-1],"loss_changes":[1.5553397E0,7.082926E-1,1.6176747E0,2.4099746E0,9.233067E-1,2.7387092E0,1.5376236E0,0E0,0E0,0E0,0E0,0E0,0E0,0E0,0E0],"parents":[2147483647,0,0,1,1,2,2,3,3,4,4,5,5,6,6],"right_children":[2,4,6,8,10,12,14,-1,-1,-1,-1,-1,-1,-1,-1],"split_conditions":[1.2094283E0,4.1533787E1,3.5541666E-6,1.2359999E-5,2.0299585E-6,5.49E-6,6.2199997E-6,-2.1923063E-3,1.4842789E-2,-1.0235508E-4,-3.6576786E-3,1.992822E-3,2.7734537E-2,3.0356651E-2,-5.852709E-4],"split_indices":[31,33,2,11,5,10,10,0,0,0,0,0,0,0,0],"split_type":[0,0,0,0,0,0,0,0,0,0,0,0,0,0,0],"sum_hessian":[4.828E3,4.355E3,4.73E2,3.68E2,3.987E3,1.67E2,3.06E2,2.43E2,1.25E2,3.025E3,9.62E2,9.4E1,7.3E1,1.6E1,2.9E2],"tree_param":{"num_deleted":"0","num_feature":"34","num_nodes":"15","size_leaf_vector":"1"}},{"base_weights":[1.8306226E-4,-7.705147E-4,2.870791E-1,-2.2256676E-2,7.3361835E-3,1.3174255E-1,9.1629E-2,-7.865089E-4,-5.942661E-3,-1.2127526E-5,5.7686702E-3,3.547268E-2,-7.983649E-3],"categories":[],"categories_nodes":[],"categories_segments":[],"categories_sizes":[],"default_left":[0,0,0,0,0,0,0,0,0,0,0,0,0],"id":42,"left_children":[1,3,5,7,9,11,-1,-1,-1,-1,-1,-1,-1],"loss_changes":[1.3213266E0,8.3867455E-1,1.4431169E0,7.051109E-1,1.3127092E0,6.888233E-1,0E0,0E0,0E0,0E0,0E0,0E0,0E0],"parents":[2147483647,0,0,1,1,2,2,3,3,4,4,5,5],"right_children":[2,4,6,8,10,12,-1,-1,-1,-1,-1,-1,-1],"split_conditions":[1.6221248E3,1.0898432E-2,1.674E-5,2.640514E-1,5.174657E-1,1.16975E-5,9.1629E-2,-7.865089E-4,-5.942661E-3,-1.2127526E-5,5.7686702E-3,3.547268E-2,-7.983649E-3],"split_indices":[32,32,11,24,24,7,0,0,0,0,0,0,0],"split_type":[0,0,0,0,0,0,0,0,0,0,0,0,0],"sum_hessian":[4.828E3,4.813E3,1.5E1,1.318E3,3.495E3,1.3E1,2E0,9.51E2,3.67E2,3.045E3,4.5E2,6E0,7E0],"tree_param":{"num_deleted":"0","num_feature":"34","num_nodes":"13","size_leaf_vector":"1"}},{"base_weights":[1.8922775E-4,-4.3407576E-3,5.6267664E-2,-8.276474E-2,-2.6185254E-3,2.903334E-1,3.8736768E-2,-5.900648E-3,-3.3672985E-2,4.201833E-3,-7.010951E-4,3.4637824E-2,-2.3612155E-2,2.0642553E-3,3.1002868E-2],"categories":[],"categories_nodes":[],"categories_segments":[],"categories_sizes":[],"default_left":[0,0,0,0,0,0,0,0,0,0,0,0,0,0,0],"id":43,"left_children":[1,3,5,7,9,11,13,-1,-1,-1,-1,-1,-1,-1,-1],"loss_changes":[1.2269769E0,6.033856E-1,1.470074E0,5.593726E-1,8.5787874E-1,8.194146E-1,1.6478708E0,0E0,0E0,0E0,0E0,0E0,0E0,0E0,0E0],"parents":[2147483647,0,0,1,1,2,2,3,3,4,4,5,5,6,6],"right_children":[2,4,6,8,10,12,14,-1,-1,-1,-1,-1,-1,-1,-1],"split_conditions":[1.4225903E0,-6.044004E-1,4.985451E0,3.495E-5,-5.530826E-1,7.975E-6,6.1960187E2,-5.900648E-3,-3.3672985E-2,4.201833E-3,-7.010951E-4,3.4637824E-2,-2.3612155E-2,2.0642553E-3,3.1002868E-2],"split_indices":[31,28,32,19,28,6,33,0,0,0,0,0,0,0,0],"split_type":[0,0,0,0,0,0,0,0,0,0,0,0,0,0,0],"sum_hessian":[4.828E3,4.468E3,3.6E2,9.5E1,4.373E3,2.4E1,3.36E2,8.8E1,7E0,3.91E2,3.982E3,2.2E1,2E0,3.16E2,2E1],"tree_param":{"num_deleted":"0","num_feature":"34","num_nodes":"15","size_leaf_vector":"1"}},{"base_weights":[1.7196072E-4,-1.7091677E-3,1.2625813E-1,1.808576E-2,-8.388571E-3,-4.429525E-2,3.0295005E-1,9.334078E-4,2.0026928E-2,-7.7051385E-3,-2.2966434E-4,2.8772645E-3,-4.2660818E-2,4.4321653E-2,-9.203769E-3],"categories":[],"categories_nodes":[],"categories_segments":[],"categories_sizes":[],"default_left":[0,0,0,0,0,0,0,0,0,0,0,0,0,0,0],"id":44,"left_children":[1,3,5,7,9,11,13,-1,-1,-1,-1,-1,-1,-1,-1],"loss_changes":[1.1455787E0,6.293786E-1,2.1530333E0,1.9130195E0,1.4885132E0,1.0458623E0,1.9799156E0,0E0,0E0,0E0,0E0,0E0,0E0,0E0,0E0],"parents":[2147483647,0,0,1,1,2,2,3,3,4,4,5,5,6,6],"right_children":[2,4,6,8,10,12,14,-1,-1,-1,-1,-1,-1,-1,-1],"split_conditions":[5.201464E2,2.2089734E2,2.671E-5,2.08391E2,2.968263E2,7.5599996E-6,2.3049999E-5,9.334078E-4,2.0026928E-2,-7.7051385E-3,-2.2966434E-4,2.8772645E-3,-4.2660818E-2,4.4321653E-2,-9.203769E-3],"split_indices":[32,33,19,33,33,6,14,0,0,0,0,0,0,0,0],"split_type":[0,0,0,0,0,0,0,0,0,0,0,0,0,0,0],"sum_hessian":[4.828E3,4.758E3,7E1,1.2E3,3.558E3,3.6E1,3.4E1,1.146E3,5.4E1,2.89E2,3.269E3,3.1E1,5E0,2.5E1,9E0],"tree_param":{"num_deleted":"0","num_feature":"34","num_nodes":"15","size_leaf_vector":"1"}},{"base_weights":[1.564986E-4,-1.2260897E-2,1.6881894E-2,-1.7179368E-2,1.4059031E-2,2.2575909E-1,1.2100358E-2,-7.0128543E-4,-4.38221E-3,5.5581506E-2,1.368332E-4,5.9823018E-2,-3.5051988E-3,3.608632E-2,9.3014067E-4],"categories":[],"categories_nodes":[],"categories_segments":[],"categories_sizes":[],"default_left":[0,0,0,0,0,0,0,0,0,0,0,0,0,0,0],"id":45,"left_children":[1,3,5,7,9,11,13,-1,-1,-1,-1,-1,-1,-1,-1],"loss_changes":[1.0031221E0,3.5908747E-1,2.0527036E0,6.3243014E-1,3.0037293E0,4.4896197E0,1.9616743E0,0E0,0E0,0E0,0E0,0E0,0E0,0E0,0E0],"parents":[2147483647,0,0,1,1,2,2,3,3,4,4,5,5,6,6],"right_children":[2,4,6,8,10,12,14,-1,-1,-1,-1,-1,-1,-1,-1],"split_conditions":[3.0171004E-1,6.3369303E-6,2.224E-5,8.58423E-7,6.9099997E-6,6.316725E-2,3.6283075E-6,-7.0128543E-4,-4.38221E-3,5.5581506E-2,1.368332E-4,5.9823018E-2,-3.5051988E-3,3.608632E-2,9.3014067E-4],"split_indices":[31,17,15,1,7,27,8,0,0,0,0,0,0,0,0],"split_type":[0,0,0,0,0,0,0,0,0,0,0,0,0,0,0],"sum_hessian":[4.828E3,2.771E3,2.057E3,2.335E3,4.36E2,4.5E1,2.012E3,1.691E3,6.44E2,9E0,4.27E2,1.8E1,2.7E1,1.5E1,1.997E3],"tree_param":{"num_deleted":"0","num_feature":"34","num_nodes":"15","size_leaf_vector":"1"}},{"base_weights":[1.7065348E-4,-6.6829874E-4,2.5257975E-1,-1.101654E-2,1.3372814E-2,7.927187E-2,7.526854E-2,-6.904895E-4,-1.7691351E-2,2.1214915E-2,8.993049E-4,4.8615325E-2,-9.140788E-3],"categories":[],"categories_nodes":[],"categories_segments":[],"categories_sizes":[],"default_left":[0,0,0,0,0,0,0,0,0,0,0,0,0],"id":46,"left_children":[1,3,5,7,9,11,-1,-1,-1,-1,-1,-1,-1],"loss_changes":[1.0227537E0,6.996255E-1,1.3270891E0,1.8895864E0,1.7767153E0,9.472415E-1,0E0,0E0,0E0,0E0,0E0,0E0,0E0],"parents":[2147483647,0,0,1,1,2,2,3,3,4,4,5,5],"right_children":[2,4,6,8,10,12,-1,-1,-1,-1,-1,-1,-1],"split_conditions":[1.6221248E3,3.0171004E-1,3.148015E2,1.2292169E1,1.7463906E-5,2.2426499E-5,7.526854E-2,-6.904895E-4,-1.7691351E-2,2.1214915E-2,8.993049E-4,4.8615325E-2,-9.140788E-3],"split_indices":[32,31,33,32,12,19,0,0,0,0,0,0,0],"split_type":[0,0,0,0,0,0,0,0,0,0,0,0,0],"sum_hessian":[4.828E3,4.813E3,1.5E1,2.771E3,2.042E3,1.2E1,3E0,2.705E3,6.6E1,4.3E1,1.999E3,3E0,9E0],"tree_param":{"num_deleted":"0","num_feature":"34","num_nodes":"13","size_leaf_vector":"1"}},{"base_weights":[1.7811824E-4,-4.102196E-3,3.783237E-2,-9.450043E-3,2.0566855E-2,-2.3916805E-2,7.9358645E-2,9.2614035E-5,-4.311198E-3,-1.3923216E-2,3.6177584E-3,2.3179108E-3,-1.8560458E-2,4.4933934E-2,5.9326375E-3],"categories":[],"categories_nodes":[],"categories_segments":[],"categories_sizes":[],"default_left":[0,0,0,0,0,0,0,0,0,0,0,0,0,0,0],"id":47,"left_children":[1,3,5,7,9,11,13,-1,-1,-1,-1,-1,-1,-1,-1],"loss_changes":[7.7845484E-1,5.7235867E-1,1.2660552E0,1.2452315E0,1.9333471E0,1.5196538E0,2.1597505E0,0E0,0E0,0E0,0E0,0E0,0E0,0E0,0E0],"parents":[2147483647,0,0,1,1,2,2,3,3,4,4,5,5,6,6],"right_children":[2,4,6,8,10,12,14,-1,-1,-1,-1,-1,-1,-1,-1],"split_conditions":[1.1821766E0,4.7374654E-1,1.1428108E-6,3.169608E-1,1.02E-6,2.1459999E-5,3.2160667E-6,9.2614035E-5,-4.311198E-3,-1.3923216E-2,3.6177584E-3,2.3179108E-3,-1.8560458E-2,4.4933934E-2,5.9326375E-3],"split_indices":[31,24,1,24,2,23,21,0,0,0,0,0,0,0,0],"split_type":[0,0,0,0,0,0,0,0,0,0,0,0,0,0,0],"sum_hessian":[4.828E3,4.336E3,4.92E2,3.564E3,7.72E2,1.98E2,2.94E2,2.725E3,8.39E2,6.8E1,7.04E2,1.54E2,4.4E1,1.4E1,2.8E2],"tree_param":{"num_deleted":"0","num_feature":"34","num_nodes":"15","size_leaf_vector":"1"}},{"base_weights":[1.6446719E-4,-5.819548E-4,2.2473389E-1,5.7524545E-3,-2.3047922E-2,6.373886E-2,6.9178425E-2,-9.403355E-5,1.5234661E-2,-1.1920831E-2,-1.4796025E-4,4.4614602E-2,-9.559789E-3],"categories":[],"categories_nodes":[],"categories_segments":[],"categories_sizes":[],"default_left":[0,0,0,0,0,0,0,0,0,0,0,0,0],"id":48,"left_children":[1,3,5,7,9,11,-1,-1,-1,-1,-1,-1,-1],"loss_changes":[8.095849E-1,6.8520635E-1,1.1589911E0,3.6852443E0,2.1962087E0,8.3476025E-1,0E0,0E0,0E0,0E0,0E0,0E0,0E0],"parents":[2147483647,0,0,1,1,2,2,3,3,4,4,5,5],"right_children":[2,4,6,8,10,12,-1,-1,-1,-1,-1,-1,-1],"split_conditions":[1.6221248E3,1.5408984E-6,3.148015E2,6.3557736E-6,1.6060001E-5,2.2426499E-5,6.9178425E-2,-9.403355E-5,1.5234661E-2,-1.1920831E-2,-1.4796025E-4,4.4614602E-2,-9.559789E-3],"split_indices":[32,1,33,17,11,19,0,0,0,0,0,0,0],"split_type":[0,0,0,0,0,0,0,0,0,0,0,0,0],"sum_hessian":[4.828E3,4.813E3,1.5E1,3.755E3,1.058E3,1.2E1,3E0,3.592E3,1.63E2,1.93E2,8.65E2,3E0,9E0],"tree_param":{"num_deleted":"0","num_feature":"34","num_nodes":"13","size_leaf_vector":"1"}},{"base_weights":[1.702452E-4,-3.485574E-3,4.2023282E-2,-4.8644803E-3,1.5231417E-1,2.7409347E-3,1.3079816E-1,-1.769154E-4,-5.695154E-3,-2.1004433E-2,2.5260169E-2,1.9323732E-3,-4.8030723E-2,9.0625785E-2,1.029306E-2],"categories":[],"categories_nodes":[],"categories_segments":[],"categories_sizes":[],"default_left":[0,0,0,0,0,0,0,0,0,0,0,0,0,0,0],"id":49,"left_children":[1,3,5,7,9,11,13,-1,-1,-1,-1,-1,-1,-1,-1],"loss_changes":[7.3901796E-1,9.5503044E-1,1.3527082E0,7.0994055E-1,1.4703186E0,2.1720593E0,2.478329E0,0E0,0E0,0E0,0E0,0E0,0E0,0E0,0E0],"parents":[2147483647,0,0,1,1,2,2,3,3,4,4,5,5,6,6],"right_children":[2,4,6,8,10,12,14,-1,-1,-1,-1,-1,-1,-1,-1],"split_conditions":[1.2307418E2,2.0195446E0,1.2129999E-5,1.0357178E0,3.138395E-1,2.4968207E-5,2.1306005E-5,-1.769154E-4,-5.695154E-3,-2.1004433E-2,2.5260169E-2,1.9323732E-3,-4.8030723E-2,9.0625785E-2,1.029306E-2],"split_indices":[32,31,22,31,24,16,16,0,0,0,0,0,0,0,0],"split_type":[0,0,0,0,0,0,0,0,0,0,0,0,0,0,0],"sum_hessian":[4.828E3,4.441E3,3.87E2,4.403E3,3.8E1,2.69E2,1.18E2,4.157E3,2.46E2,8E0,3E1,2.61E2,8E0,3E0,1.15E2],"tree_param":{"num_deleted":"0","num_feature":"34","num_nodes":"15","size_leaf_vector":"1"}},{"base_weights":[1.6423408E-4,-5.1965285E-4,2.0591845E-1,-1.0885039E-2,1.0749054E-2,8.532703E-2,7.000389E-2,-7.4358296E-4,-1.9950654E-2,2.0968849E-2,6.7883724E-4,4.112358E-2,-4.094226E-3],"categories":[],"categories_nodes":[],"categories_segments":[],"categories_sizes":[],"default_left":[0,0,0,0,0,0,0,0,0,0,0,0,0],"id":50,"left_children":[1,3,5,7,9,11,-1,-1,-1,-1,-1,-1,-1],"loss_changes":[6.796082E-1,5.624139E-1,8.9365476E-1,1.630209E0,1.8163445E0,5.9296864E-1,0E0,0E0,0E0,0E0,0E0,0E0,0E0],"parents":[2147483647,0,0,1,1,2,2,3,3,4,4,5,5],"right_children":[2,4,6,8,10,12,-1,-1,-1,-1,-1,-1,-1],"split_conditions":[1.6221248E3,2.7832627E-1,2.727E-5,1.2292169E1,2.1915E-5,2.2426499E-5,7.000389E-2,-7.4358296E-4,-1.9950654E-2,2.0968849E-2,6.7883724E-4,4.112358E-2,-4.094226E-3],"split_indices":[32,31,15,32,15,19,0,0,0,0,0,0,0],"split_type":[0,0,0,0,0,0,0,0,0,0,0,0,0],"sum_hessian":[4.828E3,4.813E3,1.5E1,2.507E3,2.306E3,1.3E1,2E0,2.463E3,4.4E1,4.4E1,2.262E3,3E0,1E1],"tree_param":{"num_deleted":"0","num_feature":"34","num_nodes":"13","size_leaf_vector":"1"}},{"base_weights":[1.701885E-4,-1.1913873E-3,9.143172E-2,4.449003E-3,-2.1540413E-2,-2.6275238E-1,1.7534803E-1,-1.6011031E-4,1.3674458E-2,-1.5135029E-2,-4.1518765E-4,-7.923908E-3,-4.942303E-2,2.5653282E-2,-5.3795315E-3],"categories":[],"categories_nodes":[],"categories_segments":[],"categories_sizes":[],"default_left":[0,0,0,0,0,0,0,0,0,0,0,0,0,0,0],"id":51,"left_children":[1,3,5,7,9,11,13,-1,-1,-1,-1,-1,-1,-1,-1],"loss_changes":[6.0015804E-1,5.463169E-1,2.1563227E0,2.9833183E0,2.331063E0,5.555475E-1,1.0927714E0,0E0,0E0,0E0,0E0,0E0,0E0,0E0,0E0],"parents":[2147483647,0,0,1,1,2,2,3,3,4,4,5,5,6,6],"right_children":[2,4,6,8,10,12,14,-1,-1,-1,-1,-1,-1,-1,-1],"split_conditions":[5.201464E2,1.5408984E-6,2.3192008E0,6.3557736E-6,7.4033333E-6,6.555E-6,2.34774E-6,-1.6011031E-4,1.3674458E-2,-1.5135029E-2,-4.1518765E-4,-7.923908E-3,-4.942303E-2,2.5653282E-2,-5.3795315E-3],"split_indices":[32,1,31,17,3,22,5,0,0,0,0,0,0,0,0],"split_type":[0,0,0,0,0,0,0,0,0,0,0,0,0,0,0],"sum_hessian":[4.828E3,4.758E3,7E1,3.726E3,1.032E3,1.3E1,5.7E1,3.564E3,1.62E2,1.21E2,9.11E2,8E0,5E0,4.2E1,1.5E1],"tree_param":{"num_deleted":"0","num_feature":"34","num_nodes":"15","size_leaf_vector":"1"}},{"base_weights":[1.4506772E-4,1.8420927E-2,-6.2086894E-3,1.0689614E-2,1.7950585E-1,-6.8733744E-2,-8.274942E-4,-2.1946372E-3,4.217701E-3,-1.1581045E-2,2.783486E-2,-1.8132318E-2,-4.33115E-3,-7.495673E-4,6.4462344E-3],"categories":[],"categories_nodes":[],"categories_segments":[],"categories_sizes":[],"default_left":[0,0,0,0,0,0,0,0,0,0,0,0,0,0,0],"id":52,"left_children":[1,3,5,7,9,11,13,-1,-1,-1,-1,-1,-1,-1,-1],"loss_changes":[5.608596E-1,1.5498469E0,1.2058141E0,1.2237962E0,1.6960588E0,8.050332E-1,1.4376208E0,0E0,0E0,0E0,0E0,0E0,0E0,0E0,0E0],"parents":[2147483647,0,0,1,1,2,2,3,3,4,4,5,5,6,6],"right_children":[2,4,6,8,10,12,14,-1,-1,-1,-1,-1,-1,-1,-1],"split_conditions":[2.2089734E2,2.08391E2,2.9059024E2,1.535644E-5,3.7351155E-1,2.2656439E-5,6.5242136E-1,-2.1946372E-3,4.217701E-3,-1.1581045E-2,2.783486E-2,-1.8132318E-2,-4.33115E-3,-7.495673E-4,6.4462344E-3],"split_indices":[33,33,33,20,31,12,31,0,0,0,0,0,0,0,0],"split_type":[0,0,0,0,0,0,0,0,0,0,0,0,0,0,0],"sum_hessian":[4.828E3,1.245E3,3.583E3,1.189E3,5.6E1,2.83E2,3.3E3,5.84E2,6.05E2,1.4E1,4.2E1,5.1E1,2.32E2,2.995E3,3.05E2],"tree_param":{"num_deleted":"0","num_feature":"34","num_nodes":"15","size_leaf_vector":"1"}},{"base_weights":[1.3087265E-4,-7.132569E-2,1.5799007E-3,-4.317532E-2,-2.647803E-1,4.6930566E-2,-1.7185005E-3,6.7328657E-3,-6.5913135E-3,-3.4461662E-2,8.96008E-3,-1.3517392E-2,1.0397185E-2,-5.3082863E-3,2.0667913E-4],"categories":[],"categories_nodes":[],"categories_segments":[],"categories_sizes":[],"default_left":[0,0,0,0,0,0,0,0,0,0,0,0,0,0,0],"id":53,"left_children":[1,3,5,7,9,11,13,-1,-1,-1,-1,-1,-1,-1,-1],"loss_changes":[5.0011975E-1,5.113666E-1,7.082145E-1,2.1801038E-1,3.703876E-1,3.348433E0,8.5831976E-1,0E0,0E0,0E0,0E0,0E0,0E0,0E0,0E0],"parents":[2147483647,0,0,1,1,2,2,3,3,4,4,5,5,6,6],"right_children":[2,4,6,8,10,12,14,-1,-1,-1,-1,-1,-1,-1,-1],"split_conditions":[-6.044004E-1,1.20800005E-5,-5.613749E-1,-2.0913844E-1,3.7987888E-6,7.407695E-2,-5.3214765E-1,6.7328657E-3,-6.5913135E-3,-3.4461662E-2,8.96008E-3,-1.3517392E-2,1.0397185E-2,-5.3082863E-3,2.0667913E-4],"split_indices":[28,11,28,26,13,25,28,0,0,0,0,0,0,0,0],"split_type":[0,0,0,0,0,0,0,0,0,0,0,0,0,0,0],"sum_hessian":[4.828E3,9.5E1,4.733E3,8.4E1,1.1E1,3.2E2,4.413E3,1.4E1,7E1,9E0,2E0,7.6E1,2.44E2,3.02E2,4.111E3],"tree_param":{"num_deleted":"0","num_feature":"34","num_nodes":"15","size_leaf_vector":"1"}},{"base_weights":[1.10821966E-4,1.0198213E-2,-1.0299141E-2,5.873102E-3,1.41817E-1,-4.5114714E-3,-7.293326E-2,-6.747618E-4,5.00584E-3,6.44357E-2,4.068311E-3,-6.4335315E-4,1.6818142E-2,-5.664063E-3,-4.142158E-2],"categories":[],"categories_nodes":[],"categories_segments":[],"categories_sizes":[],"default_left":[0,0,0,0,0,0,0,0,0,0,0,0,0,0,0],"id":54,"left_children":[1,3,5,7,9,11,13,-1,-1,-1,-1,-1,-1,-1,-1],"loss_changes":[5.0719523E-1,1.3955762E0,8.613466E-1,1.3253149E0,3.9380436E0,7.2368515E-1,1.0941765E0,0E0,0E0,0E0,0E0,0E0,0E0,0E0,0E0],"parents":[2147483647,0,0,1,1,2,2,3,3,4,4,5,5,6,6],"right_children":[2,4,6,8,10,12,14,-1,-1,-1,-1,-1,-1,-1,-1],"split_conditions":[-3.5386446E-1,-3.616628E-1,2.3871595E-1,1.0452517E-1,6.0917664E1,5.1859534E-1,3.5355E-5,-6.747618E-4,5.00584E-3,6.44357E-2,4.068311E-3,-6.4335315E-4,1.6818142E-2,-5.664063E-3,-4.142158E-2],"split_indices":[28,28,24,27,33,31,19,0,0,0,0,0,0,0,0],"split_type":[0,0,0,0,0,0,0,0,0,0,0,0,0,0,0],"sum_hessian":[4.828E3,2.452E3,2.376E3,2.375E3,7.7E1,2.176E3,2E2,1.848E3,5.27E2,1.2E1,6.5E1,2.153E3,2.3E1,1.92E2,8E0],"tree_param":{"num_deleted":"0","num_feature":"34","num_nodes":"15","size_leaf_vector":"1"}},{"base_weights":[1.0841621E-4,-4.723954E-4,1.7485332E-1,4.7403197E-3,-1.8607354E-2,3.2871027E-2,5.925825E-2,-9.689267E-5,1.3333012E-2,-1.3386302E-2,-2.0524964E-4,-9.770857E-3,2.6134009E-2],"categories":[],"categories_nodes":[],"categories_segments":[],"categories_sizes":[],"default_left":[0,0,0,0,0,0,0,0,0,0,0,0,0],"id":55,"left_children":[1,3,5,7,9,11,-1,-1,-1,-1,-1,-1,-1],"loss_changes":[4.9019647E-1,4.5516706E-1,9.294835E-1,2.7458534E0,2.0508695E0,4.1336936E-1,0E0,0E0,0E0,0E0,0E0,0E0,0E0],"parents":[2147483647,0,0,1,1,2,2,3,3,4,4,5,5],"right_children":[2,4,6,8,10,12,-1,-1,-1,-1,-1,-1,-1],"split_conditions":[1.6221248E3,1.5282405E-6,3.148015E2,6.3557736E-6,7.4033333E-6,3.5166955E-1,5.925825E-2,-9.689267E-5,1.3333012E-2,-1.3386302E-2,-2.0524964E-4,-9.770857E-3,2.6134009E-2],"split_indices":[32,1,33,17,3,24,0,0,0,0,0,0,0],"split_type":[0,0,0,0,0,0,0,0,0,0,0,0,0],"sum_hessian":[4.828E3,4.813E3,1.5E1,3.739E3,1.074E3,1.2E1,3E0,3.581E3,1.58E2,1.34E2,9.4E2,8E0,4E0],"tree_param":{"num_deleted":"0","num_feature":"34","num_nodes":"13","size_leaf_vector":"1"}},{"base_weights":[1.13165996E-4,-6.641855E-2,1.4623278E-3,-3.459638E-2,-2.1226297E-1,1.4090312E-2,-7.621731E-3,-4.7367755E-3,3.0899152E-2,-4.248417E-2,-8.828501E-3,5.264797E-4,1.6709886E-2,2.9862314E-4,-3.5457604E-3],"categories":[],"categories_nodes":[],"categories_segments":[],"categories_sizes":[],"default_left":[0,0,0,0,0,0,0,0,0,0,0,0,0,0,0],"id":56,"left_children":[1,3,5,7,9,11,13,-1,-1,-1,-1,-1,-1,-1,-1],"loss_changes":[4.3355805E-1,4.3820074E-1,5.431604E-1,3.6568344E-1,4.1052908E-1,2.6742218E0,8.1331223E-1,0E0,0E0,0E0,0E0,0E0,0E0,0E0,0E0],"parents":[2147483647,0,0,1,1,2,2,3,3,4,4,5,5,6,6],"right_children":[2,4,6,8,10,12,14,-1,-1,-1,-1,-1,-1,-1,-1],"split_conditions":[-6.044004E-1,2.2952827E-6,-3.9758962E-1,4.764523E-6,4.957578E-6,7.23829E-6,1.932E-5,-4.7367755E-3,3.0899152E-2,-4.248417E-2,-8.828501E-3,5.264797E-4,1.6709886E-2,2.9862314E-4,-3.5457604E-3],"split_indices":[28,9,28,21,21,0,14,0,0,0,0,0,0,0,0],"split_type":[0,0,0,0,0,0,0,0,0,0,0,0,0,0,0],"sum_hessian":[4.828E3,9.5E1,4.733E3,7.9E1,1.6E1,1.98E3,2.753E3,7.7E1,2E0,5E0,1.1E1,1.873E3,1.07E2,1.994E3,7.59E2],"tree_param":{"num_deleted":"0","num_feature":"34","num_nodes":"15","size_leaf_vector":"1"}},{"base_weights":[9.954692E-5,-2.776669E-3,3.3027515E-2,-3.7604007E-3,1.6445097E-1,-1.0445791E-2,1.0132963E-1,-9.1982765E-5,-4.9173255E-3,-8.350088E-3,4.1882597E-2,1.291654E-3,-2.100095E-2,4.0219083E-2,4.4126525E-3],"categories":[],"categories_nodes":[],"categories_segments":[],"categories_sizes":[],"default_left":[0,0,0,0,0,0,0,0,0,0,0,0,0,0,0],"id":57,"left_children":[1,3,5,7,9,11,13,-1,-1,-1,-1,-1,-1,-1,-1],"loss_changes":[4.574364E-1,7.3135895E-1,1.1531543E0,5.6974125E-1,1.6748638E0,1.1123335E0,2.5809925E0,0E0,0E0,0E0,0E0,0E0,0E0,0E0,0E0],"parents":[2147483647,0,0,1,1,2,2,3,3,4,4,5,5,6,6],"right_children":[2,4,6,8,10,12,14,-1,-1,-1,-1,-1,-1,-1,-1],"split_conditions":[1.2307418E2,2.5107412E0,-5.044253E-2,1.0357178E0,5.3286262E-6,1.215E-5,-3.0110048E-2,-9.1982765E-5,-4.9173255E-3,-8.350088E-3,4.1882597E-2,1.291654E-3,-2.100095E-2,4.0219083E-2,4.4126525E-3],"split_indices":[32,31,26,31,21,7,26,0,0,0,0,0,0,0,0],"split_type":[0,0,0,0,0,0,0,0,0,0,0,0,0,0,0],"sum_hessian":[4.828E3,4.441E3,3.87E2,4.416E3,2.5E1,2.37E2,1.5E2,4.157E3,2.59E2,1.3E1,1.2E1,2.13E2,2.4E1,2.3E1,1.27E2],"tree_param":{"num_deleted":"0","num_feature":"34","num_nodes":"15","size_leaf_vector":"1"}},{"base_weights":[1.0066705E-4,1.639089E-2,-5.562759E-3,8.198264E-3,1.4240634E-1,-6.2234383E-2,-6.8535714E-4,-3.3433138E-5,1.1193537E-2,-1.0924674E-2,2.6065484E-2,-2.436212E-3,-2.0321814E-2,-6.38548E-4,5.5125924E-3],"categories":[],"categories_nodes":[],"categories_segments":[],"categories_sizes":[],"default_left":[0,0,0,0,0,0,0,0,0,0,0,0,0,0,0],"id":58,"left_children":[1,3,5,7,9,11,13,-1,-1,-1,-1,-1,-1,-1,-1],"loss_changes":[4.4560736E-1,1.2852E0,9.906118E-1,1.0365442E0,2.290053E0,1.5114312E0,1.0505028E0,0E0,0E0,0E0,0E0,0E0,0E0,0E0,0E0],"parents":[2147483647,0,0,1,1,2,2,3,3,4,4,5,5,6,6],"right_children":[2,4,6,8,10,12,14,-1,-1,-1,-1,-1,-1,-1,-1],"split_conditions":[2.2089734E2,2.0389346E2,2.9059024E2,3.624E-5,3.7351155E-1,1.1330652E-1,6.5242136E-1,-3.3433138E-5,1.1193537E-2,-1.0924674E-2,2.6065484E-2,-2.436212E-3,-2.0321814E-2,-6.38548E-4,5.5125924E-3],"split_indices":[33,33,33,23,31,25,31,0,0,0,0,0,0,0,0],"split_type":[0,0,0,0,0,0,0,0,0,0,0,0,0,0,0],"sum_hessian":[4.828E3,1.245E3,3.583E3,1.17E3,7.5E1,2.83E2,3.3E3,1.082E3,8.8E1,2.4E1,5.1E1,2.24E2,5.9E1,2.995E3,3.05E2],"tree_param":{"num_deleted":"0","num_feature":"34","num_nodes":"15","size_leaf_vector":"1"}},{"base_weights":[9.23376E-5,-4.210065E-3,2.1318821E-2,-1.1080074E-1,-2.4558639E-3,1.5978564E-2,4.4907776E-1,-5.5460613E-3,-3.278951E-2,6.3395198E-3,-4.6233E-4,2.5054053E-3,-1.9709213E-2,-1.3424004E-3,6.492105E-2],"categories":[],"categories_nodes":[],"categories_segments":[],"categories_sizes":[],"default_left":[0,0,0,0,0,0,0,0,0,0,0,0,0,0,0],"id":59,"left_children":[1,3,5,7,9,11,13,-1,-1,-1,-1,-1,-1,-1,-1],"loss_changes":[4.4109762E-1,7.5064564E-1,1.85228E0,7.627266E-1,5.6435406E-1,1.5615832E0,9.343324E-1,0E0,0E0,0E0,0E0,0E0,0E0,0E0,0E0],"parents":[2147483647,0,0,1,1,2,2,3,3,4,4,5,5,6,6],"right_children":[2,4,6,8,10,12,14,-1,-1,-1,-1,-1,-1,-1,-1],"split_conditions":[4.8495635E-1,-5.9789765E-1,3.445E-5,3.1221163E-1,-5.613749E-1,6.2012527E-6,2.72685E-1,-5.5460613E-3,-3.278951E-2,6.3395198E-3,-4.6233E-4,2.5054053E-3,-1.9709213E-2,-1.3424004E-3,6.492105E-2],"split_indices":[24,28,19,31,28,21,31,0,0,0,0,0,0,0,0],"split_type":[0,0,0,0,0,0,0,0,0,0,0,0,0,0,0],"sum_hessian":[4.828E3,4.015E3,8.13E2,6.4E1,3.951E3,8.04E2,9E0,5.2E1,1.2E1,1.25E2,3.826E3,7.72E2,3.2E1,3E0,6E0],"tree_param":{"num_deleted":"0","num_feature":"34","num_nodes":"15","size_leaf_vector":"1"}},{"base_weights":[8.5979496E-5,-8.5597215E-3,1.0016191E-2,-3.5838129E-3,-1.981931E-1,3.3460984E-1,7.8322515E-3,-6.163433E-4,1.90778E-2,1.3371402E-2,-2.8212717E-2,1.3598E-1,1.6425343E-2,-6.489308E-3,1.5093772E-3],"categories":[],"categories_nodes":[],"categories_segments":[],"categories_sizes":[],"default_left":[0,0,0,0,0,0,0,0,0,0,0,0,0,0,0],"id":60,"left_children":[1,3,5,7,9,11,13,-1,-1,-1,-1,-1,-1,-1,-1],"loss_changes":[4.1467297E-1,2.4356608E0,1.5909708E0,1.2631483E0,1.8763735E0,2.3963637E0,1.1807472E0,0E0,0E0,0E0,0E0,0E0,0E0,0E0,0E0],"parents":[2147483647,0,0,1,1,2,2,3,3,4,4,5,5,6,6],"right_children":[2,4,6,8,10,12,14,-1,-1,-1,-1,-1,-1,-1,-1],"split_conditions":[1.0394425E-6,1.4301061E-6,1.0442186E-6,1.3933777E-6,2.2089734E2,2.1380026E-6,-1.8720253E-1,-6.163433E-4,1.90778E-2,1.3371402E-2,-2.8212717E-2,1.3598E-1,1.6425343E-2,-6.489308E-3,1.5093772E-3],"split_indices":[1,5,1,5,33,0,26,0,0,0,0,0,0,0,0],"split_type":[0,0,0,0,0,0,0,0,0,0,0,0,0,0,0],"sum_hessian":[4.828E3,2.581E3,2.247E3,2.516E3,6.5E1,1.4E1,2.233E3,2.484E3,3.2E1,1.3E1,5.2E1,1E0,1.3E1,2.02E2,2.031E3],"tree_param":{"num_deleted":"0","num_feature":"34","num_nodes":"15","size_leaf_vector":"1"}},{"base_weights":[1.0865054E-4,-1.4751267E-2,5.6911404E-3,-1.7844167E-3,-4.825586E-2,7.576508E-3,-1.8176924E-1,-4.1586338E-4,4.48724E-2,-3.087009E-3,-1.2882538E-2,8.545049E-4,-3.6658388E-2,3.1064872E-3,-2.806126E-2],"categories":[],"categories_nodes":[],"categories_segments":[],"categories_sizes":[],"default_left":[0,0,0,0,0,0,0,0,0,0,0,0,0,0,0],"id":61,"left_children":[1,3,5,7,9,11,13,-1,-1,-1,-1,-1,-1,-1,-1],"loss_changes":[4.006753E-1,5.7295215E-1,1.2422758E0,1.0201298E0,5.115041E-1,1.263161E0,7.450204E-1,0E0,0E0,0E0,0E0,0E0,0E0,0E0,0E0],"parents":[2147483647,0,0,1,1,2,2,3,3,4,4,5,5,6,6],"right_children":[2,4,6,8,10,12,14,-1,-1,-1,-1,-1,-1,-1,-1],"split_conditions":[1.0898432E-2,2.640514E-1,2.3345376E3,2.5789785E-1,6.21E-6,4.6552964E-6,2.3025684E0,-4.1586338E-4,4.48724E-2,-3.087009E-3,-1.2882538E-2,8.545049E-4,-3.6658388E-2,3.1064872E-3,-2.806126E-2],"split_indices":[32,24,33,24,6,5,32,0,0,0,0,0,0,0,0],"split_type":[0,0,0,0,0,0,0,0,0,0,0,0,0,0,0],"sum_hessian":[4.828E3,1.318E3,3.51E3,9.51E2,3.67E2,3.476E3,3.4E1,9.47E2,4E0,3.03E2,6.4E1,3.468E3,8E0,1.1E1,2.3E1],"tree_param":{"num_deleted":"0","num_feature":"34","num_nodes":"15","size_leaf_vector":"1"}},{"base_weights":[9.110742E-5,-7.536131E-3,1.0620336E-2,-4.090837E-3,-9.178337E-2,3.6565816E-1,8.149527E-3,4.1086148E-4,-3.986954E-3,3.166668E-2,-1.0619475E-2,6.8798676E-2,3.7913367E-3,3.8415086E-2,6.648203E-4],"categories":[],"categories_nodes":[],"categories_segments":[],"categories_sizes":[],"default_left":[0,0,0,0,0,0,0,0,0,0,0,0,0,0,0],"id":62,"left_children":[1,3,5,7,9,11,13,-1,-1,-1,-1,-1,-1,-1,-1],"loss_changes":[3.878919E-1,8.12633E-1,1.7769207E0,7.8990436E-1,6.811247E-1,1.4528973E0,1.1354778E0,0E0,0E0,0E0,0E0,0E0,0E0,0E0,0E0],"parents":[2147483647,0,0,1,1,2,2,3,3,4,4,5,5,6,6],"right_children":[2,4,6,8,10,12,14,-1,-1,-1,-1,-1,-1,-1,-1],"split_conditions":[2.8127224E-6,7.32031E-12,2.826793E-6,9.05962E-2,1.8568591E-5,1.5679729E-5,-1.2446114E0,4.1086148E-4,-3.986954E-3,3.166668E-2,-1.0619475E-2,6.8798676E-2,3.7913367E-3,3.8415086E-2,6.648203E-4],"split_indices":[13,29,13,26,12,20,24,0,0,0,0,0,0,0,0],"split_type":[0,0,0,0,0,0,0,0,0,0,0,0,0,0,0],"sum_hessian":[4.828E3,2.8E3,2.028E3,2.691E3,1.09E2,1.3E1,2.015E3,2.19E3,5.01E2,3E0,1.06E2,6E0,7E0,7E0,2.008E3],"tree_param":{"num_deleted":"0","num_feature":"34","num_nodes":"15","size_leaf_vector":"1"}},{"base_weights":[1.0873616E-4,-5.2985256E-3,1.5511805E-2,4.5207962E-3,-3.4927066E-2,8.9078024E-2,-3.7078017E-3,8.5919694E-4,-1.1719841E-2,-1.0530056E-2,8.560984E-4,1.5431942E-2,-1.0902033E-2,6.045123E-4,-1.2355431E-2],"categories":[],"categories_nodes":[],"categories_segments":[],"categories_sizes":[],"default_left":[0,0,0,0,0,0,0,0,0,0,0,0,0,0,0],"id":63,"left_children":[1,3,5,7,9,11,13,-1,-1,-1,-1,-1,-1,-1,-1],"loss_changes":[4.02282E-1,1.0402404E0,1.7747921E0,1.3320272E0,2.7246633E0,3.3771198E0,1.1649253E0,0E0,0E0,0E0,0E0,0E0,0E0,0E0,0E0],"parents":[2147483647,0,0,1,1,2,2,3,3,4,4,5,5,6,6],"right_children":[2,4,6,8,10,12,14,-1,-1,-1,-1,-1,-1,-1,-1],"split_conditions":[1.0452517E-1,4.56887E-6,1.2007858E-1,3.949244E-6,6.79E-6,7.0749998E-6,1.7649998E-5,8.5919694E-4,-1.1719841E-2,-1.0530056E-2,8.560984E-4,1.5431942E-2,-1.0902033E-2,6.045123E-4,-1.2355431E-2],"split_indices":[27,17,27,13,3,3,18,0,0,0,0,0,0,0,0],"split_type":[0,0,0,0,0,0,0,0,0,0,0,0,0,0,0],"sum_hessian":[4.828E3,3.574E3,1.254E3,2.685E3,8.89E2,2.59E2,9.95E2,2.599E3,8.6E1,3.39E2,5.5E2,1.95E2,6.4E1,9.21E2,7.4E1],"tree_param":{"num_deleted":"0","num_feature":"34","num_nodes":"15","size_leaf_vector":"1"}},{"base_weights":[9.212263E-5,-1.2475263E-3,5.6012757E-2,-6.82791E-4,-1.9090946E-1,1.2326969E-1,-1.1808355E-1,-4.5603528E-4,2.5696051E-3,-4.1412637E-2,-6.021005E-3,-1.2375146E-2,2.1590663E-2,-3.6924925E-2,5.1078326E-3],"categories":[],"categories_nodes":[],"categories_segments":[],"categories_sizes":[],"default_left":[0,0,0,0,0,0,0,0,0,0,0,0,0,0,0],"id":64,"left_children":[1,3,5,7,9,11,13,-1,-1,-1,-1,-1,-1,-1,-1],"loss_changes":[3.6182967E-1,5.051018E-1,1.3376939E0,4.8126858E-1,3.8350582E-1,1.903148E0,1.3784658E0,0E0,0E0,0E0,0E0,0E0,0E0,0E0,0E0],"parents":[2147483647,0,0,1,1,2,2,3,3,4,4,5,5,6,6],"right_children":[2,4,6,8,10,12,14,-1,-1,-1,-1,-1,-1,-1,-1],"split_conditions":[3.552374E2,3.338564E2,2.2684999E-5,5.174657E-1,6.0949997E-6,7.27E-6,3.0270001E-5,-4.5603528E-4,2.5696051E-3,-4.1412637E-2,-6.021005E-3,-1.2375146E-2,2.1590663E-2,-3.6924925E-2,5.1078326E-3],"split_indices":[32,32,14,24,22,22,15,0,0,0,0,0,0,0,0],"split_type":[0,0,0,0,0,0,0,0,0,0,0,0,0,0,0],"sum_hessian":[4.828E3,4.716E3,1.12E2,4.703E3,1.3E1,8.1E1,3.1E1,4.101E3,6.02E2,4E0,9E0,2.2E1,5.9E1,1.2E1,1.9E1],"tree_param":{"num_deleted":"0","num_feature":"34","num_nodes":"15","size_leaf_vector":"1"}},{"base_weights":[6.8857844E-5,-8.062715E-3,9.408561E-3,2.8732065E-3,-7.8508414E-2,4.724565E-2,-9.377787E-3,-5.7336607E-4,1.1023435E-2,2.7794207E-3,-1.1640425E-2,1.2616105E-3,1.197573E-2,-7.385326E-3,1.0331193E-3],"categories":[],"categories_nodes":[],"categories_segments":[],"categories_sizes":[],"default_left":[0,0,0,0,0,0,0,0,0,0,0,0,0,0,0],"id":65,"left_children":[1,3,5,7,9,11,13,-1,-1,-1,-1,-1,-1,-1,-1],"loss_changes":[3.6682138E-1,1.9893689E0,1.5983682E0,2.0667922E0,1.4010992E0,1.8717289E0,1.9106938E0,0E0,0E0,0E0,0E0,0E0,0E0,0E0,0E0],"parents":[2147483647,0,0,1,1,2,2,3,3,4,4,5,5,6,6],"right_children":[2,4,6,8,10,12,14,-1,-1,-1,-1,-1,-1,-1,-1],"split_conditions":[1.0394425E-6,9.2873233E-7,8.644374E-6,1.1558935E-6,1.3044017E2,6.4035416E-6,4.1499998E-6,-5.7336607E-4,1.1023435E-2,2.7794207E-3,-1.1640425E-2,1.2616105E-3,1.197573E-2,-7.385326E-3,1.0331193E-3],"split_indices":[1,1,4,5,33,3,2,0,0,0,0,0,0,0,0],"split_type":[0,0,0,0,0,0,0,0,0,0,0,0,0,0,0],"sum_hessian":[4.828E3,2.581E3,2.247E3,2.235E3,3.46E2,7.45E2,1.502E3,2.07E3,1.65E2,9.1E1,2.55E2,5.05E2,2.4E2,3.51E2,1.151E3],"tree_param":{"num_deleted":"0","num_feature":"34","num_nodes":"15","size_leaf_vector":"1"}},{"base_weights":[6.373179E-5,-2.5121628E-3,2.8131941E-2,-6.3197536E-4,-1.5756248E-1,-8.0550965E-3,1.255812E-1,5.9996406E-4,-2.2487023E-3,-4.241014E-2,-1.9916294E-3,6.9864436E-5,-2.1601466E-2,9.3198314E-2,8.635865E-3],"categories":[],"categories_nodes":[],"categories_segments":[],"categories_sizes":[],"default_left":[0,0,0,0,0,0,0,0,0,0,0,0,0,0,0],"id":66,"left_children":[1,3,5,7,9,11,13,-1,-1,-1,-1,-1,-1,-1,-1],"loss_changes":[3.4921098E-1,1.2896011E0,1.4327301E0,6.3378763E-1,1.9360205E0,5.408169E-1,3.3987207E0,0E0,0E0,0E0,0E0,0E0,0E0,0E0,0E0],"parents":[2147483647,0,0,1,1,2,2,3,3,4,4,5,5,6,6],"right_children":[2,4,6,8,10,12,14,-1,-1,-1,-1,-1,-1,-1,-1],"split_conditions":[3.9799997E-5,3.183E-5,3.384368E-1,1.904104E-6,1.0740207E-5,1.56028185E1,3.4581652E-1,5.9996406E-4,-2.2487023E-3,-4.241014E-2,-1.9916294E-3,6.9864436E-5,-2.1601466E-2,9.3198314E-2,8.635865E-3],"split_indices":[19,18,31,5,0,32,31,0,0,0,0,0,0,0,0],"split_type":[0,0,0,0,0,0,0,0,0,0,0,0,0,0,0],"sum_hessian":[4.828E3,4.423E3,4.05E2,4.371E3,5.2E1,2.96E2,1.09E2,3.354E3,1.017E3,1.7E1,3.5E1,2.85E2,1.1E1,4E0,1.05E2],"tree_param":{"num_deleted":"0","num_feature":"34","num_nodes":"15","size_leaf_vector":"1"}},{"base_weights":[6.444832E-5,-7.180565E-3,1.0066034E-2,-1.3258992E-2,5.9869472E-2,5.67004E-2,-5.669711E-3,-4.8453757E-4,-6.87795E-3,5.5268615E-2,3.7601453E-3,-2.9491873E-3,1.2545528E-2,-8.177708E-3,1.2523703E-3],"categories":[],"categories_nodes":[],"categories_segments":[],"categories_sizes":[],"default_left":[0,0,0,0,0,0,0,0,0,0,0,0,0,0,0],"id":67,"left_children":[1,3,5,7,9,11,13,-1,-1,-1,-1,-1,-1,-1,-1],"loss_changes":[3.4998944E-1,1.1423658E0,1.4892554E0,1.1997193E0,2.536172E0,3.0378828E0,2.1029267E0,0E0,0E0,0E0,0E0,0E0,0E0,0E0,0E0],"parents":[2147483647,0,0,1,1,2,2,3,3,4,4,5,5,6,6],"right_children":[2,4,6,8,10,12,14,-1,-1,-1,-1,-1,-1,-1,-1],"split_conditions":[2.8127224E-6,9.56498E1,4.3234686E-6,1.1685999E-6,1.4455459E-6,1.199E-5,4.951654E-6,-4.8453757E-4,-6.87795E-3,5.5268615E-2,3.7601453E-3,-2.9491873E-3,1.2545528E-2,-8.177708E-3,1.2523703E-3],"split_indices":[13,32,17,1,13,11,17,0,0,0,0,0,0,0,0],"split_type":[0,0,0,0,0,0,0,0,0,0,0,0,0,0,0],"sum_hessian":[4.828E3,2.8E3,2.028E3,2.568E3,2.32E2,5.11E2,1.517E3,2.231E3,3.37E2,9E0,2.23E2,2.27E2,2.84E2,2.92E2,1.225E3],"tree_param":{"num_deleted":"0","num_feature":"34","num_nodes":"15","size_leaf_vector":"1"}},{"base_weights":[6.925812E-5,-3.059133E-3,2.1116963E-2,-2.964718E-2,2.7304648E-3,1.0580507E-2,4.2149955E-1,-1.4041155E-2,-1.8430239E-3,9.96141E-5,2.3135608E-2,-3.9253677E-3,6.427729E-3,7.982773E-2,-1.769687E-2],"categories":[],"categories_nodes":[],"categories_segments":[],"categories_sizes":[],"default_left":[0,0,0,0,0,0,0,0,0,0,0,0,0,0,0],"id":68,"left_children":[1,3,5,7,9,11,13,-1,-1,-1,-1,-1,-1,-1,-1],"loss_changes":[3.1803232E-1,6.4737386E-1,2.6321738E0,9.3172514E-1,1.3693179E0,1.6348438E0,3.7491026E0,0E0,0E0,0E0,0E0,0E0,0E0,0E0,0E0],"parents":[2147483647,0,0,1,1,2,2,3,3,4,4,5,5,6,6],"right_children":[2,4,6,8,10,12,14,-1,-1,-1,-1,-1,-1,-1,-1],"split_conditions":[5.174657E-1,-5.044253E-2,4.9811833E-6,8.97E-6,5.855678E2,2.093E-5,5.1783513E-6,-1.4041155E-2,-1.8430239E-3,9.96141E-5,2.3135608E-2,-3.9253677E-3,6.427729E-3,7.982773E-2,-1.769687E-2],"split_indices":[24,26,0,7,32,14,0,0,0,0,0,0,0,0,0],"split_type":[0,0,0,0,0,0,0,0,0,0,0,0,0,0,0],"sum_hessian":[4.828E3,4.204E3,6.24E2,7.51E2,3.453E3,6.09E2,1.5E1,6.8E1,6.83E2,3.428E3,2.5E1,3.16E2,2.93E2,9E0,6E0],"tree_param":{"num_deleted":"0","num_feature":"34","num_nodes":"15","size_leaf_vector":"1"}},{"base_weights":[7.722881E-5,-5.0258837E-3,1.4613922E-2,-2.1156133E-3,-9.499151E-2,9.201314E-3,2.5147352E-1,-1.38312075E-2,-4.8413825E-5,-1.0804311E-2,6.7686774E-2,1.0419014E-4,1.55176E-2,7.62967E-2,-3.0969013E-3],"categories":[],"categories_nodes":[],"categories_segments":[],"categories_sizes":[],"default_left":[0,0,0,0,0,0,0,0,0,0,0,0,0,0,0],"id":69,"left_children":[1,3,5,7,9,11,13,-1,-1,-1,-1,-1,-1,-1,-1],"loss_changes":[3.5830018E-1,9.3582106E-1,1.6066314E0,7.6963776E-1,1.201418E0,1.4624696E0,4.0687184E0,0E0,0E0,0E0,0E0,0E0,0E0,0E0,0E0],"parents":[2147483647,0,0,1,1,2,2,3,3,4,4,5,5,6,6],"right_children":[2,4,6,8,10,12,14,-1,-1,-1,-1,-1,-1,-1,-1],"split_conditions":[1.0452517E-1,6.75486E-1,7.2455215E-1,-5.9789765E-1,2.933E-5,1.5913092E0,1.0287562E-1,-1.38312075E-2,-4.8413825E-5,-1.0804311E-2,6.7686774E-2,1.0419014E-4,1.55176E-2,7.62967E-2,-3.0969013E-3],"split_indices":[27,24,24,28,14,31,25,0,0,0,0,0,0,0,0],"split_type":[0,0,0,0,0,0,0,0,0,0,0,0,0,0,0],"sum_hessian":[4.828E3,3.574E3,1.254E3,3.463E3,1.11E2,1.227E3,2.7E1,4E1,3.423E3,1.1E2,1E0,1.163E3,6.4E1,9E0,1.8E1],"tree_param":{"num_deleted":"0","num_feature":"34","num_nodes":"15","size_leaf_vector":"1"}},{"base_weights":[9.679903E-5,2.6292298E-3,-2.5489708E-2,-1.7341305E-4,9.457881E-2,-1.4084385E-1,4.589374E-3,-2.78284E-4,6.594924E-3,3.5064336E-2,1.0855127E-3,-7.3907026E-3,-3.443801E-2,-2.550586E-4,4.096122E-2],"categories":[],"categories_nodes":[],"categories_segments":[],"categories_sizes":[],"default_left":[0,0,0,0,0,0,0,0,0,0,0,0,0,0,0],"id":70,"left_children":[1,3,5,7,9,11,13,-1,-1,-1,-1,-1,-1,-1,-1],"loss_changes":[3.129672E-1,1.132616E0,1.5099862E0,7.362486E-1,2.7832205E0,1.200714E0,1.0016237E0,0E0,0E0,0E0,0E0,0E0,0E0,0E0,0E0],"parents":[2147483647,0,0,1,1,2,2,3,3,4,4,5,5,6,6],"right_children":[2,4,6,8,10,12,14,-1,-1,-1,-1,-1,-1,-1,-1],"split_conditions":[6.4891337E-6,6.1135383E-6,8.032916E-6,6.681144E-6,3.1635088E-6,2.9186665E-5,4.7580442E-1,-2.78284E-4,6.594924E-3,3.5064336E-2,1.0855127E-3,-7.3907026E-3,-3.443801E-2,-2.550586E-4,4.096122E-2],"split_indices":[21,21,3,17,13,23,24,0,0,0,0,0,0,0,0],"split_type":[0,0,0,0,0,0,0,0,0,0,0,0,0,0,0],"sum_hessian":[4.828E3,4.394E3,4.34E2,4.265E3,1.29E2,8.9E1,3.45E2,4.104E3,1.61E2,3.1E1,9.8E1,6.8E1,2.1E1,3.4E2,5E0],"tree_param":{"num_deleted":"0","num_feature":"34","num_nodes":"15","size_leaf_vector":"1"}},{"base_weights":[9.5670766E-5,-2.24031E-3,2.5549568E-2,7.269669E-4,-7.4721076E-2,8.836674E-2,-2.2421738E-2,-5.7359E-5,9.475815E-3,-7.0844183E-4,-2.0311264E-2,3.993794E-3,3.792792E-2,-1.1332664E-3,-2.9469306E-2],"categories":[],"categories_nodes":[],"categories_segments":[],"categories_sizes":[],"default_left":[0,0,0,0,0,0,0,0,0,0,0,0,0,0,0],"id":71,"left_children":[1,3,5,7,9,11,13,-1,-1,-1,-1,-1,-1,-1,-1],"loss_changes":[2.8718868E-1,9.5152617E-1,1.2254306E0,5.1992154E-1,1.5095731E0,2.464436E0,6.941041E-1,0E0,0E0,0E0,0E0,0E0,0E0,0E0,0E0],"parents":[2147483647,0,0,1,1,2,2,3,3,4,4,5,5,6,6],"right_children":[2,4,6,8,10,12,14,-1,-1,-1,-1,-1,-1,-1,-1],"split_conditions":[3.9799997E-5,3.841E-5,1.32899995E-5,3.8014998E-5,9.61703E0,3.0180001E-5,1.910989E1,-5.7359E-5,9.475815E-3,-7.0844183E-4,-2.0311264E-2,3.993794E-3,3.792792E-2,-1.1332664E-3,-2.9469306E-2],"split_indices":[19,19,3,19,32,14,32,0,0,0,0,0,0,0,0],"split_type":[0,0,0,0,0,0,0,0,0,0,0,0,0,0,0],"sum_hessian":[4.828E3,4.423E3,4.05E2,4.25E3,1.73E2,1.75E2,2.3E2,4.193E3,5.7E1,1.14E2,5.9E1,1.51E2,2.4E1,2.22E2,8E0],"tree_param":{"num_deleted":"0","num_feature":"34","num_nodes":"15","size_leaf_vector":"1"}},{"base_weights":[8.6043125E-5,5.980274E-3,-1.0076817E-2,-6.166026E-4,6.486154E-2,-1.4350018E-1,-4.426665E-3,-1.9102781E-4,1.5988598E-2,2.6982054E-2,1.8244382E-3,5.1370095E-2,-1.6961595E-2,3.5710238E-2,-7.636682E-4],"categories":[],"categories_nodes":[],"categories_segments":[],"categories_sizes":[],"default_left":[0,0,0,0,0,0,0,0,0,0,0,0,0,0,0],"id":72,"left_children":[1,3,5,7,9,11,13,-1,-1,-1,-1,-1,-1,-1,-1],"loss_changes":[2.8932822E-1,1.1874782E0,1.3359624E0,5.713106E-1,2.9378963E0,1.32289E0,1.9779226E0,0E0,0E0,0E0,0E0,0E0,0E0,0E0,0E0],"parents":[2147483647,0,0,1,1,2,2,3,3,4,4,5,5,6,6],"right_children":[2,4,6,8,10,12,14,-1,-1,-1,-1,-1,-1,-1,-1],"split_conditions":[1.7049999E-5,1.008E-5,1.7367083E-5,1.688E-5,5.7960063E-2,2.3268358E-6,4.575E-6,-1.9102781E-4,1.5988598E-2,2.6982054E-2,1.8244382E-3,5.1370095E-2,-1.6961595E-2,3.5710238E-2,-7.636682E-4],"split_indices":[18,22,18,18,27,21,10,0,0,0,0,0,0,0,0],"split_type":[0,0,0,0,0,0,0,0,0,0,0,0,0,0,0],"sum_hessian":[4.828E3,3.056E3,1.772E3,2.749E3,3.07E2,7.1E1,1.701E3,2.728E3,2.1E1,5.6E1,2.51E2,2E0,6.9E1,1.4E1,1.687E3],"tree_param":{"num_deleted":"0","num_feature":"34","num_nodes":"15","size_leaf_vector":"1"}},{"base_weights":[1.01031495E-4,-4.389068E-3,1.308642E-2,4.1553364E-3,-2.9998364E-2,7.937436E-2,-3.2990417E-3,2.8571155E-4,3.5205256E-2,-1.13396635E-2,-6.0709765E-5,1.3729672E-2,-9.105561E-3,9.96922E-4,-8.061405E-3],"categories":[],"categories_nodes":[],"categories_segments":[],"categories_sizes":[],"default_left":[0,0,0,0,0,0,0,0,0,0,0,0,0,0,0],"id":73,"left_children":[1,3,5,7,9,11,13,-1,-1,-1,-1,-1,-1,-1,-1],"loss_changes":[2.8161559E-1,7.8545594E-1,1.3481846E0,1.2148294E0,2.2010915E0,2.4409413E0,1.0225362E0,0E0,0E0,0E0,0E0,0E0,0E0,0E0,0E0],"parents":[2147483647,0,0,1,1,2,2,3,3,4,4,5,5,6,6],"right_children":[2,4,6,8,10,12,14,-1,-1,-1,-1,-1,-1,-1,-1],"split_conditions":[1.0495774E-1,4.56887E-6,1.2007858E-1,3.836931E-6,1.146838E-6,7.0749998E-6,1.2292169E1,2.8571155E-4,3.5205256E-2,-1.13396635E-2,-6.0709765E-5,1.3729672E-2,-9.105561E-3,9.96922E-4,-8.061405E-3],"split_indices":[27,17,27,9,1,3,32,0,0,0,0,0,0,0,0],"split_type":[0,0,0,0,0,0,0,0,0,0,0,0,0,0,0],"sum_hessian":[4.828E3,3.588E3,1.24E3,2.691E3,8.97E2,2.45E2,9.95E2,2.682E3,9E0,2.33E2,6.64E2,1.83E2,6.2E1,8.5E2,1.45E2],"tree_param":{"num_deleted":"0","num_feature":"34","num_nodes":"15","size_leaf_vector":"1"}},{"base_weights":[9.540871E-5,-4.9938853E-3,1.1716649E-2,2.0714E-3,-8.005443E-2,1.3098186E-1,1.6960661E-3,-6.716429E-4,3.9036348E-3,-9.574464E-3,2.3498483E-2,3.7338843E-3,4.3133758E-2,-1.1697876E-2,9.811644E-4],"categories":[],"categories_nodes":[],"categories_segments":[],"categories_sizes":[],"default_left":[0,0,0,0,0,0,0,0,0,0,0,0,0,0,0],"id":74,"left_children":[1,3,5,7,9,11,13,-1,-1,-1,-1,-1,-1,-1,-1],"loss_changes":[2.8566447E-1,1.7815247E0,1.7577802E0,9.9785095E-1,1.4510338E0,3.1902828E0,1.3090576E0,0E0,0E0,0E0,0E0,0E0,0E0,0E0,0E0],"parents":[2147483647,0,0,1,1,2,2,3,3,4,4,5,5,6,6],"right_children":[2,4,6,8,10,12,14,-1,-1,-1,-1,-1,-1,-1,-1],"split_conditions":[4.951654E-6,4.56887E-6,7.76E-6,8.096423E-12,5.1019997E-6,-5.024162E-1,1.058663E-6,-6.716429E-4,3.9036348E-3,-9.574464E-3,2.3498483E-2,3.7338843E-3,4.3133758E-2,-1.1697876E-2,9.811644E-4],"split_indices":[17,17,7,29,21,28,1,0,0,0,0,0,0,0,0],"split_type":[0,0,0,0,0,0,0,0,0,0,0,0,0,0,0],"sum_hessian":[4.828E3,3.358E3,1.47E3,3.07E3,2.88E2,1.13E2,1.357E3,2.481E3,5.89E2,2.75E2,1.3E1,8.7E1,2.6E1,8.6E1,1.271E3],"tree_param":{"num_deleted":"0","num_feature":"34","num_nodes":"15","size_leaf_vector":"1"}},{"base_weights":[9.690243E-5,2.2856483E-2,-2.4844278E-3,-8.583512E-2,5.853713E-2,-6.692945E-2,1.0738177E-3,-9.718056E-3,6.4348064E-2,-4.3559745E-3,1.057375E-2,-1.3441116E-3,-2.0294756E-2,9.4709435E-4,-1.2102106E-3],"categories":[],"categories_nodes":[],"categories_segments":[],"categories_sizes":[],"default_left":[0,0,0,0,0,0,0,0,0,0,0,0,0,0,0],"id":75,"left_children":[1,3,5,7,9,11,13,-1,-1,-1,-1,-1,-1,-1,-1],"loss_changes":[2.8376046E-1,1.9130926E0,9.94824E-1,1.0720104E0,1.7924588E0,1.6487839E0,4.550658E-1,0E0,0E0,0E0,0E0,0E0,0E0,0E0,0E0],"parents":[2147483647,0,0,1,1,2,2,3,3,4,4,5,5,6,6],"right_children":[2,4,6,8,10,12,14,-1,-1,-1,-1,-1,-1,-1,-1],"split_conditions":[-5.530826E-1,7.407695E-2,-5.3214765E-1,2.933E-5,1.0898432E-2,3.2813957E-6,8.778669E-2,-9.718056E-3,6.4348064E-2,-4.3559745E-3,1.057375E-2,-1.3441116E-3,-2.0294756E-2,9.4709435E-4,-1.2102106E-3],"split_indices":[28,25,28,14,32,13,25,0,0,0,0,0,0,0,0],"split_type":[0,0,0,0,0,0,0,0,0,0,0,0,0,0,0],"sum_hessian":[4.828E3,4.91E2,4.337E3,1.21E2,3.7E2,2.26E2,4.111E3,1.2E2,1E0,1.17E2,2.53E2,1.63E2,6.3E1,2.511E3,1.6E3],"tree_param":{"num_deleted":"0","num_feature":"34","num_nodes":"15","size_leaf_vector":"1"}},{"base_weights":[9.527513E-5,8.691171E-3,-6.3844547E-3,-6.067204E-4,1.0317301E-1,-2.0750217E-1,-4.911424E-3,-8.2051725E-4,1.1260892E-2,6.0224007E-3,4.7750246E-2,-3.6368307E-2,-9.542915E-3,3.9684004E-4,-2.8548718E-3],"categories":[],"categories_nodes":[],"categories_segments":[],"categories_sizes":[],"default_left":[0,0,0,0,0,0,0,0,0,0,0,0,0,0,0],"id":76,"left_children":[1,3,5,7,9,11,13,-1,-1,-1,-1,-1,-1,-1,-1],"loss_changes":[2.6902637E-1,1.8237909E0,8.1486034E-1,1.6276826E0,2.9615793E0,3.1536734E-1,5.741762E-1,0E0,0E0,0E0,0E0,0E0,0E0,0E0,0E0],"parents":[2147483647,0,0,1,1,2,2,3,3,4,4,5,5,6,6],"right_children":[2,4,6,8,10,12,14,-1,-1,-1,-1,-1,-1,-1,-1],"split_conditions":[-3.9758962E-1,5.1049997E-6,-3.958252E-1,-4.136794E-1,6.89984E-2,2.3069999E-5,1.932E-5,-8.2051725E-4,1.1260892E-2,6.0224007E-3,4.7750246E-2,-3.6368307E-2,-9.542915E-3,3.9684004E-4,-2.8548718E-3],"split_indices":[28,2,28,28,27,19,14,0,0,0,0,0,0,0,0],"split_type":[0,0,0,0,0,0,0,0,0,0,0,0,0,0,0],"sum_hessian":[4.828E3,2.075E3,2.753E3,1.89E3,1.85E2,1.9E1,2.734E3,1.772E3,1.18E2,1.67E2,1.8E1,7E0,1.2E1,1.988E3,7.46E2],"tree_param":{"num_deleted":"0","num_feature":"34","num_nodes":"15","size_leaf_vector":"1"}},{"base_weights":[8.902489E-5,-1.0186108E-2,5.766577E-3,-3.3177126E-3,-1.1903785E-1,1.4330275E-1,1.103967E-3,-5.298074E-4,1.4058932E-2,-2.9404839E-3,-2.4133885E-2,9.996829E-3,1.180005E-1,-1.54549945E-2,4.6459874E-4],"categories":[],"categories_nodes":[],"categories_segments":[],"categories_sizes":[],"default_left":[0,0,0,0,0,0,0,0,0,0,0,0,0,0,0],"id":77,"left_children":[1,3,5,7,9,11,13,-1,-1,-1,-1,-1,-1,-1,-1],"loss_changes":[2.81771E-1,1.2847928E0,1.994856E0,4.6185526E-1,1.1110485E0,4.4643803E0,1.6602191E0,0E0,0E0,0E0,0E0,0E0,0E0,0E0,0E0],"parents":[2147483647,0,0,1,1,2,2,3,3,4,4,5,5,6,6],"right_children":[2,4,6,8,10,12,14,-1,-1,-1,-1,-1,-1,-1,-1],"split_conditions":[1.5019066E-5,1.2779741E-5,2.3954137E-6,7.4511495E0,8.64982E-1,3.085E-6,5.1366333E-6,-5.298074E-4,1.4058932E-2,-2.9404839E-3,-2.4133885E-2,9.996829E-3,1.180005E-1,-1.54549945E-2,4.6459874E-4],"split_indices":[16,16,0,32,32,10,8,0,0,0,0,0,0,0,0],"split_type":[0,0,0,0,0,0,0,0,0,0,0,0,0,0,0],"sum_hessian":[4.828E3,1.718E3,3.11E3,1.617E3,1.01E2,1.01E2,3.009E3,1.596E3,2.1E1,5.9E1,4.2E1,9.8E1,3E0,6.6E1,2.943E3],"tree_param":{"num_deleted":"0","num_feature":"34","num_nodes":"15","size_leaf_vector":"1"}},{"base_weights":[1.007256E-4,5.972731E-3,-9.757655E-3,-3.4429436E-3,9.983491E-2,-8.705939E-2,1.940028E-3,-4.3581292E-4,6.263792E-2,1.3398983E-2,-1.4720857E-2,4.275387E-3,-1.4172815E-2,4.3027746E-3,-1.5224948E-3],"categories":[],"categories_nodes":[],"categories_segments":[],"categories_sizes":[],"default_left":[0,0,0,0,0,0,0,0,0,0,0,0,0,0,0],"id":78,"left_children":[1,3,5,7,9,11,13,-1,-1,-1,-1,-1,-1,-1,-1],"loss_changes":[2.7960166E-1,2.6755328E0,1.6305338E0,1.5889939E0,2.348543E0,1.6879842E0,1.1058127E0,0E0,0E0,0E0,0E0,0E0,0E0,0E0,0E0],"parents":[2147483647,0,0,1,1,2,2,3,3,4,4,5,5,6,6],"right_children":[2,4,6,8,10,12,14,-1,-1,-1,-1,-1,-1,-1,-1],"split_conditions":[8.609647E-6,6.3699995E-6,5.655602E-6,1.09699995E-5,3.571E-5,1.3608172E1,-3.9758962E-1,-4.3581292E-4,6.263792E-2,1.3398983E-2,-1.4720857E-2,4.275387E-3,-1.4172815E-2,4.3027746E-3,-1.5224948E-3],"split_indices":[4,3,0,7,19,32,28,0,0,0,0,0,0,0,0],"split_type":[0,0,0,0,0,0,0,0,0,0,0,0,0,0,0],"sum_hessian":[4.828E3,3.026E3,1.802E3,2.751E3,2.75E2,2.36E2,1.566E3,2.748E3,3E0,2.42E2,3.3E1,7E1,1.66E2,4.61E2,1.105E3],"tree_param":{"num_deleted":"0","num_feature":"34","num_nodes":"15","size_leaf_vector":"1"}},{"base_weights":[1.0179019E-4,2.3714997E-2,-2.2353763E-3,-2.4732983E-2,1.14999495E-1,6.760698E-3,-1.6932836E-2,-9.165828E-4,-2.199979E-2,-1.3274916E-3,2.1475699E-2,1.01387144E-4,1.2738953E-2,-6.601052E-3,-3.7182207E-4],"categories":[],"categories_nodes":[],"categories_segments":[],"categories_sizes":[],"default_left":[0,0,0,0,0,0,0,0,0,0,0,0,0,0,0],"id":79,"left_children":[1,3,5,7,9,11,13,-1,-1,-1,-1,-1,-1,-1,-1],"loss_changes":[2.6655582E-1,1.9266531E0,5.812189E-1,8.643034E-1,1.9350972E0,1.8903172E0,1.0821723E0,0E0,0E0,0E0,0E0,0E0,0E0,0E0,0E0],"parents":[2147483647,0,0,1,1,2,2,3,3,4,4,5,5,6,6],"right_children":[2,4,6,8,10,12,14,-1,-1,-1,-1,-1,-1,-1,-1],"split_conditions":[4.1533787E1,1.2359999E-5,8.609647E-6,9.63E-6,2.9881177E0,1.0453334E-5,1.597E-5,-9.165828E-4,-2.199979E-2,-1.3274916E-3,2.1475699E-2,1.01387144E-4,1.2738953E-2,-6.601052E-3,-3.7182207E-4],"split_indices":[33,11,4,7,32,7,11,0,0,0,0,0,0,0,0],"split_type":[0,0,0,0,0,0,0,0,0,0,0,0,0,0,0],"sum_hessian":[4.828E3,4.34E2,4.394E3,2.84E2,1.5E2,2.726E3,1.668E3,2.64E2,2E1,6.6E1,8.4E1,2.603E3,1.23E2,3.53E2,1.315E3],"tree_param":{"num_deleted":"0","num_feature":"34","num_nodes":"15","size_leaf_vector":"1"}},{"base_weights":[9.226203E-5,2.3859113E-3,-2.3081716E-2,-7.6530385E-5,8.317353E-2,-1.5522206E-1,5.516448E-4,-2.288731E-4,5.5980016E-3,7.792976E-2,3.7220966E-3,3.9471398E-4,-3.1451087E-2,-4.188412E-2,5.1211816E-4],"categories":[],"categories_nodes":[],"categories_segments":[],"categories_sizes":[],"default_left":[0,0,0,0,0,0,0,0,0,0,0,0,0,0,0],"id":80,"left_children":[1,3,5,7,9,11,13,-1,-1,-1,-1,-1,-1,-1,-1],"loss_changes":[2.5673082E-1,8.7432474E-1,1.358556E0,5.291477E-1,4.1295223E0,1.6745967E0,7.1122444E-1,0E0,0E0,0E0,0E0,0E0,0E0,0E0,0E0],"parents":[2147483647,0,0,1,1,2,2,3,3,4,4,5,5,6,6],"right_children":[2,4,6,8,10,12,14,-1,-1,-1,-1,-1,-1,-1,-1],"split_conditions":[6.4891337E-6,6.1135383E-6,-4.8874754E-1,6.681144E-6,-5.807266E-1,-5.4527557E-1,5.6723866E-6,-2.288731E-4,5.5980016E-3,7.792976E-2,3.7220966E-3,3.9471398E-4,-3.1451087E-2,-4.188412E-2,5.1211816E-4],"split_indices":[21,21,28,17,28,28,17,0,0,0,0,0,0,0,0],"split_type":[0,0,0,0,0,0,0,0,0,0,0,0,0,0,0],"sum_hessian":[4.828E3,4.394E3,4.34E2,4.265E3,1.29E2,6.5E1,3.69E2,4.104E3,1.61E2,7E0,1.22E2,3.3E1,3.2E1,3E0,3.66E2],"tree_param":{"num_deleted":"0","num_feature":"34","num_nodes":"15","size_leaf_vector":"1"}},{"base_weights":[8.606085E-5,3.928898E-3,-1.3466594E-2,3.6321476E-4,1.1703541E-1,-1.2336622E-1,1.3800793E-3,-3.493093E-4,6.450285E-3,2.5621086E-2,-5.6508128E-3,-4.6306243E-3,-3.3278596E-2,5.057704E-2,-1.8546665E-4],"categories":[],"categories_nodes":[],"categories_segments":[],"categories_sizes":[],"default_left":[0,0,0,0,0,0,0,0,0,0,0,0,0,0,0],"id":81,"left_children":[1,3,5,7,9,11,13,-1,-1,-1,-1,-1,-1,-1,-1],"loss_changes":[2.5155035E-1,1.517583E0,1.7411342E0,9.027769E-1,2.7920728E0,2.034101E0,1.5362495E0,0E0,0E0,0E0,0E0,0E0,0E0,0E0,0E0],"parents":[2147483647,0,0,1,1,2,2,3,3,4,4,5,5,6,6],"right_children":[2,4,6,8,10,12,14,-1,-1,-1,-1,-1,-1,-1,-1],"split_conditions":[1.5408984E-6,6.681144E-6,7.4033333E-6,1.3951945E-6,3.204583E-6,4.849539E-6,7.5099997E-6,-3.493093E-4,6.450285E-3,2.5621086E-2,-5.6508128E-3,-4.6306243E-3,-3.3278596E-2,5.057704E-2,-1.8546665E-4],"split_indices":[1,17,3,1,9,0,3,0,0,0,0,0,0,0,0],"split_type":[0,0,0,0,0,0,0,0,0,0,0,0,0,0,0],"sum_hessian":[4.828E3,3.762E3,1.066E3,3.648E3,1.14E2,1.26E2,9.4E2,3.442E3,2.06E2,6.3E1,5.1E1,9.3E1,3.3E1,5E0,9.35E2],"tree_param":{"num_deleted":"0","num_feature":"34","num_nodes":"15","size_leaf_vector":"1"}},{"base_weights":[8.543277E-5,-3.1503967E-3,1.6049813E-2,4.5007346E-3,-2.0183157E-2,1.128817E-2,3.9775717E-1,-1.3834563E-4,8.584842E-3,4.464021E-4,-6.7578703E-3,5.5031803E-2,8.585667E-4,-2.6897082E-4,5.697615E-2],"categories":[],"categories_nodes":[],"categories_segments":[],"categories_sizes":[],"default_left":[0,0,0,0,0,0,0,0,0,0,0,0,0,0,0],"id":82,"left_children":[1,3,5,7,9,11,13,-1,-1,-1,-1,-1,-1,-1,-1],"loss_changes":[2.4950713E-1,5.2345544E-1,1.4749994E0,1.326979E0,1.4546688E0,1.1679426E0,6.9031847E-1,0E0,0E0,0E0,0E0,0E0,0E0,0E0,0E0],"parents":[2147483647,0,0,1,1,2,2,3,3,4,4,5,5,6,6],"right_children":[2,4,6,8,10,12,14,-1,-1,-1,-1,-1,-1,-1,-1],"split_conditions":[4.8495635E-1,3.1109253E-1,3.445E-5,3.0086662E1,3.3992117E2,8.7499996E-7,2.72685E-1,-1.3834563E-4,8.584842E-3,4.464021E-4,-6.7578703E-3,5.5031803E-2,8.585667E-4,-2.6897082E-4,5.697615E-2],"split_indices":[24,24,19,32,33,22,31,0,0,0,0,0,0,0,0],"split_type":[0,0,0,0,0,0,0,0,0,0,0,0,0,0,0],"sum_hessian":[4.828E3,4.015E3,8.13E2,2.771E3,1.244E3,8.04E2,9E0,2.585E3,1.86E2,8.19E2,4.25E2,3E0,8.01E2,3E0,6E0],"tree_param":{"num_deleted":"0","num_feature":"34","num_nodes":"15","size_leaf_vector":"1"}},{"base_weights":[1.0064848E-4,5.513523E-3,-9.092223E-3,-1.4459545E-3,7.839653E-2,-5.623265E-2,4.9983854E-3,4.7808784E-4,-5.2662543E-3,-2.0024118E-3,2.0498877E-2,3.254653E-4,-1.2853041E-2,1.6999787E-2,-9.512947E-5],"categories":[],"categories_nodes":[],"categories_segments":[],"categories_sizes":[],"default_left":[0,0,0,0,0,0,0,0,0,0,0,0,0,0,0],"id":83,"left_children":[1,3,5,7,9,11,13,-1,-1,-1,-1,-1,-1,-1,-1],"loss_changes":[2.4034049E-1,1.5420854E0,1.1892658E0,8.855657E-1,3.3058167E0,1.7723477E0,1.3539181E0,0E0,0E0,0E0,0E0,0E0,0E0,0E0,0E0],"parents":[2147483647,0,0,1,1,2,2,3,3,4,4,5,5,6,6],"right_children":[2,4,6,8,10,12,14,-1,-1,-1,-1,-1,-1,-1,-1],"split_conditions":[1.412E-5,2.4062227E-5,1.6254744E-6,1.4773488E-5,1.3933777E-6,1.4495922E-6,4.727054E-6,4.7808784E-4,-5.2662543E-3,-2.0024118E-3,2.0498877E-2,3.254653E-4,-1.2853041E-2,1.6999787E-2,-9.512947E-5],"split_indices":[11,16,5,20,5,5,0,0,0,0,0,0,0,0,0],"split_type":[0,0,0,0,0,0,0,0,0,0,0,0,0,0,0],"sum_hessian":[4.828E3,3.039E3,1.789E3,2.775E3,2.64E2,4.11E2,1.378E3,2.475E3,3E2,1.49E2,1.15E2,2.26E2,1.85E2,4.7E1,1.331E3],"tree_param":{"num_deleted":"0","num_feature":"34","num_nodes":"15","size_leaf_vector":"1"}},{"base_weights":[9.4336116E-5,4.3866695E-3,-1.1573349E-2,-1.7259732E-3,8.129506E-2,-4.6784993E-5,-8.32299E-2,-4.711954E-4,1.411812E-2,1.48301665E-2,-2.3953437E-3,2.3256844E-2,-7.322655E-4,3.7675954E-2,-1.0401999E-2],"categories":[],"categories_nodes":[],"categories_segments":[],"categories_sizes":[],"default_left":[0,0,0,0,0,0,0,0,0,0,0,0,0,0,0],"id":84,"left_children":[1,3,5,7,9,11,13,-1,-1,-1,-1,-1,-1,-1,-1],"loss_changes":[2.4189478E-1,1.6601111E0,1.0729101E0,1.3968868E0,1.8371615E0,1.8972783E0,1.7605704E0,0E0,0E0,0E0,0E0,0E0,0E0,0E0,0E0],"parents":[2147483647,0,0,1,1,2,2,3,3,4,4,5,5,6,6],"right_children":[2,4,6,8,10,12,14,-1,-1,-1,-1,-1,-1,-1,-1],"split_conditions":[1.904104E-6,1.7122723E-6,4.293294E-1,6.533848E-6,4.41E-6,4.6165037E-6,4.0122054E-6,-4.711954E-4,1.411812E-2,1.48301665E-2,-2.3953437E-3,2.3256844E-2,-7.322655E-4,3.7675954E-2,