{"learner":{"attributes":{"best_iteration":"440","best_score":"0.03042084612865305","scikit_learn":"{\"_estimator_type\": \"regressor\"}"},"feature_names":[],"feature_types":[],"gradient_booster":{"model":{"cats":{"enc":[],"feature_segments":[],"sorted_idx":[]},"gbtree_model_param":{"num_parallel_tree":"1","num_trees":"491"},"iteration_indptr":[0,1,2,3,4,5,6,7,8,9,10,11,12,13,14,15,16,17,18,19,20,21,22,23,24,25,26,27,28,29,30,31,32,33,34,35,36,37,38,39,40,41,42,43,44,45,46,47,48,49,50,51,52,53,54,55,56,57,58,59,60,61,62,63,64,65,66,67,68,69,70,71,72,73,74,75,76,77,78,79,80,81,82,83,84,85,86,87,88,89,90,91,92,93,94,95,96,97,98,99,100,101,102,103,104,105,106,107,108,109,110,111,112,113,114,115,116,117,118,119,120,121,122,123,124,125,126,127,128,129,130,131,132,133,134,135,136,137,138,139,140,141,142,143,144,145,146,147,148,149,150,151,152,153,154,155,156,157,158,159,160,161,162,163,164,165,166,167,168,169,170,171,172,173,174,175,176,177,178,179,180,181,182,183,184,185,186,187,188,189,190,191,192,193,194,195,196,197,198,199,200,201,202,203,204,205,206,207,208,209,210,211,212,213,214,215,216,217,218,219,220,221,222,223,224,225,226,227,228,229,230,231,232,233,234,235,236,237,238,239,240,241,242,243,244,245,246,247,248,249,250,251,252,253,254,255,256,257,258,259,260,261,262,263,264,265,266,267,268,269,270,271,272,273,274,275,276,277,278,279,280,281,282,283,284,285,286,287,288,289,290,291,292,293,294,295,296,297,298,299,300,301,302,303,304,305,306,307,308,309,310,311,312,313,314,315,316,317,318,319,320,321,322,323,324,325,326,327,328,329,330,331,332,333,334,335,336,337,338,339,340,341,342,343,344,345,346,347,348,349,350,351,352,353,354,355,356,357,358,359,360,361,362,363,364,365,366,367,368,369,370,371,372,373,374,375,376,377,378,379,380,381,382,383,384,385,386,387,388,389,390,391,392,393,394,395,396,397,398,399,400,401,402,403,404,405,406,407,408,409,410,411,412,413,414,415,416,417,418,419,420,421,422,423,424,425,426,427,428,429,430,431,432,433,434,435,436,437,438,439,440,441,442,443,444,445,446,447,448,449,450,451,452,453,454,455,456,457,458,459,460,461,462,463,464,465,466,467,468,469,470,471,472,473,474,475,476,477,478,479,480,481,482,483,484,485,486,487,488,489,490,491],"tree_info":[0,0,0,0,0,0,0,0,0,0,0,0,0,0,0,0,0,0,0,0,0,0,0,0,0,0,0,0,0,0,0,0,0,0,0,0,0,0,0,0,0,0,0,0,0,0,0,0,0,0,0,0,0,0,0,0,0,0,0,0,0,0,0,0,0,0,0,0,0,0,0,0,0,0,0,0,0,0,0,0,0,0,0,0,0,0,0,0,0,0,0,0,0,0,0,0,0,0,0,0,0,0,0,0,0,0,0,0,0,0,0,0,0,0,0,0,0,0,0,0,0,0,0,0,0,0,0,0,0,0,0,0,0,0,0,0,0,0,0,0,0,0,0,0,0,0,0,0,0,0,0,0,0,0,0,0,0,0,0,0,0,0,0,0,0,0,0,0,0,0,0,0,0,0,0,0,0,0,0,0,0,0,0,0,0,0,0,0,0,0,0,0,0,0,0,0,0,0,0,0,0,0,0,0,0,0,0,0,0,0,0,0,0,0,0,0,0,0,0,0,0,0,0,0,0,0,0,0,0,0,0,0,0,0,0,0,0,0,0,0,0,0,0,0,0,0,0,0,0,0,0,0,0,0,0,0,0,0,0,0,0,0,0,0,0,0,0,0,0,0,0,0,0,0,0,0,0,0,0,0,0,0,0,0,0,0,0,0,0,0,0,0,0,0,0,0,0,0,0,0,0,0,0,0,0,0,0,0,0,0,0,0,0,0,0,0,0,0,0,0,0,0,0,0,0,0,0,0,0,0,0,0,0,0,0,0,0,0,0,0,0,0,0,0,0,0,0,0,0,0,0,0,0,0,0,0,0,0,0,0,0,0,0,0,0,0,0,0,0,0,0,0,0,0,0,0,0,0,0,0,0,0,0,0,0,0,0,0,0,0,0,0,0,0,0,0,0,0,0,0,0,0,0,0,0,0,0,0,0,0,0,0,0,0,0,0,0,0,0,0,0,0,0,0,0,0,0,0,0,0,0,0,0,0,0,0,0,0,0,0,0,0,0,0,0,0,0,0,0,0,0,0,0,0,0,0,0,0,0,0,0,0,0,0,0,0,0,0,0,0,0,0,0,0,0,0,0,0,0,0,0,0,0,0,0,0,0,0,0,0,0],"trees":[{"base_weights":[1.8639668E-4,-9.275025E-3,3.5138127E-1,-1.943261E-2,6.504681E-2,2.884897E-1,3.7745874E-2,-2.410045E-2,6.0231965E-3,4.368704E-2,1.2564915E-1,2.2453839E-1,3.80742E-1,-2.8821146E-2,-1.47441765E-2,2.5975486E-2,-1.5091104E-4,6.315154E-2,3.6388297E-2,1.7340197E-1,9.859053E-2,3.20817E-1,1.9601388E-1,2.3717618E-2,2.5372216E-1,-2.4860464E-2,-1.4561521E-3,-2.580265E-2,-4.0511423E-4,5.048098E-2,1.2785409E-2,-9.747017E-3,5.967235E-3,4.771407E-2,9.563042E-2,4.8218608E-2,2.6465116E-2,2.4335349E-1,1.4298685E-1,1.20897524E-1,6.51843E-2,2.6304957E-3,1.7118836E-2,4.9280148E-2,2.0532152E-1,2.857743E-1,7.810919E-2,-1.4530005E-3,8.877585E-4,-1.4163578E-3,-1.0666678E-3,8.740408E-4,-6.9952704E-4,5.638449E-3,2.1399043E-3,1.2399361E-3,6.628877E-5,-1.085738E-3,-3.137466E-4,5.199409E-5,7.011836E-4,3.8367116E-3,1.5688494E-3,2.7802608E-3,6.8768016E-3,2.1419534E-3,6.1011645E-3,-2.960353E-4,1.4968072E-3,5.1922086E-3,1.31408665E-2,7.4930926E-4,7.808299E-3,6.161341E-3,4.6022312E-4,1.1550642E-3,4.000144E-3,6.750079E-4,2.835338E-3,1.1114558E-2,6.4394786E-3,1.4767242E-2,4.0339343E-3,4.9352436E-3,4.080537E-4],"categories":[],"categories_nodes":[],"categories_segments":[],"categories_sizes":[],"default_left":[0,0,0,0,0,0,0,0,0,0,0,0,0,0,0,0,0,0,0,0,0,0,0,0,0,0,0,0,0,0,0,0,0,0,0,0,0,0,0,0,0,0,0,0,0,0,0,0,0,0,0,0,0,0,0,0,0,0,0,0,0,0,0,0,0,0,0,0,0,0,0,0,0,0,0,0,0,0,0,0,0,0,0,0,0],"id":0,"left_children":[1,3,5,7,9,11,-1,13,15,17,19,21,23,25,27,29,31,33,35,37,39,41,43,-1,45,47,-1,49,51,53,55,57,59,61,63,65,67,69,71,73,75,-1,-1,77,79,81,83,-1,-1,-1,-1,-1,-1,-1,-1,-1,-1,-1,-1,-1,-1,-1,-1,-1,-1,-1,-1,-1,-1,-1,-1,-1,-1,-1,-1,-1,-1,-1,-1,-1,-1,-1,-1,-1,-1],"loss_changes":[1.2792727E1,2.8314977E0,2.3454962E0,3.9214456E-1,5.783086E-1,4.3957806E-1,0E0,1.2271571E-1,6.307596E-2,4.5294285E-2,1.3408291E-1,8.8162184E-2,2.958088E-1,1.490593E-3,1.4856787E-1,3.846533E-2,2.3072632E-2,4.056233E-2,2.7602881E-2,5.2434683E-2,4.9499154E-2,4.559481E-2,5.1340222E-2,0E0,7.336736E-2,2.5213309E-2,0E0,5.364269E-3,9.962667E-2,1.5272908E-2,1.0980574E-2,6.221352E-3,9.512675E-3,2.7460903E-2,3.9316148E-2,3.8843542E-2,1.5465297E-2,2.5771856E-3,4.9954772E-2,1.0573208E-2,1.8730968E-2,0E0,0E0,2.9734615E-4,2.591741E-2,3.6523342E-3,4.956981E-3,0E0,0E0,0E0,0E0,0E0,0E0,0E0,0E0,0E0,0E0,0E0,0E0,0E0,0E0,0E0,0E0,0E0,0E0,0E0,0E0,0E0,0E0,0E0,0E0,0E0,0E0,0E0,0E0,0E0,0E0,0E0,0E0,0E0,0E0,0E0,0E0,0E0,0E0],"parents":[2147483647,0,0,1,1,2,2,3,3,4,4,5,5,7,7,8,8,9,9,10,10,11,11,12,12,13,13,14,14,15,15,16,16,17,17,18,18,19,19,20,20,21,21,22,22,24,24,25,25,27,27,28,28,29,29,30,30,31,31,32,32,33,33,34,34,35,35,36,36,37,37,38,38,39,39,40,40,43,43,44,44,45,45,46,46],"right_children":[2,4,6,8,10,12,-1,14,16,18,20,22,24,26,28,30,32,34,36,38,40,42,44,-1,46,48,-1,50,52,54,56,58,60,62,64,66,68,70,72,74,76,-1,-1,78,80,82,84,-1,-1,-1,-1,-1,-1,-1,-1,-1,-1,-1,-1,-1,-1,-1,-1,-1,-1,-1,-1,-1,-1,-1,-1,-1,-1,-1,-1,-1,-1,-1,-1,-1,-1,-1,-1,-1,-1],"split_conditions":[3.338564E2,6.962302E1,1.6221248E3,1.6414524E1,1.6685765E2,5.855678E2,3.7745874E-2,2.2315991E-1,9.958856E1,2.7154E-5,8.67332E1,1.6676091E-5,6.245E-6,-4.678827E-1,4.5022097E0,7.877473E-6,3.5166955E-1,1.14147224E2,1.753254E2,5.53E-6,2.337E-5,6.827339E-7,4.09E-6,2.3717618E-2,2.968263E2,1.1194393E-6,-1.4561521E-3,6.77925E-2,4.985451E0,2.296326E-6,1.5738118E-6,2.3257676E-1,2.2799999E-5,6.01E-6,4.6321097E-1,1.9979752E-5,2.3871595E-1,1.41E-6,6.9190246E-6,2.7335534E-5,1.1509999E-5,2.6304957E-3,1.7118836E-2,3.4841116E-6,8.155E-6,2.8179804E-5,6.3484026E-6,-1.4530005E-3,8.877585E-4,-1.4163578E-3,-1.0666678E-3,8.740408E-4,-6.9952704E-4,5.638449E-3,2.1399043E-3,1.2399361E-3,6.628877E-5,-1.085738E-3,-3.137466E-4,5.199409E-5,7.011836E-4,3.8367116E-3,1.5688494E-3,2.7802608E-3,6.8768016E-3,2.1419534E-3,6.1011645E-3,-2.960353E-4,1.4968072E-3,5.1922086E-3,1.31408665E-2,7.4930926E-4,7.808299E-3,6.161341E-3,4.6022312E-4,1.1550642E-3,4.000144E-3,6.750079E-4,2.835338E-3,1.1114558E-2,6.4394786E-3,1.4767242E-2,4.0339343E-3,4.9352436E-3,4.080537E-4],"split_indices":[32,32,32,32,32,32,0,24,33,15,33,16,6,24,32,4,24,32,33,6,14,5,6,0,33,5,0,32,32,17,5,24,14,6,24,20,24,2,4,12,22,0,0,0,3,16,0,0,0,0,0,0,0,0,0,0,0,0,0,0,0,0,0,0,0,0,0,0,0,0,0,0,0,0,0,0,0,0,0,0,0,0,0,0,0],"split_type":[0,0,0,0,0,0,0,0,0,0,0,0,0,0,0,0,0,0,0,0,0,0,0,0,0,0,0,0,0,0,0,0,0,0,0,0,0,0,0,0,0,0,0,0,0,0,0,0,0,0,0,0,0,0,0,0,0,0,0,0,0,0,0,0,0,0,0,0,0,0,0,0,0,0,0,0,0,0,0,0,0,0,0,0,0],"sum_hessian":[3.848E3,3.748E3,1E2,3.298E3,4.5E2,8.8E1,1.2E1,2.787E3,5.11E2,3.34E2,1.16E2,5.4E1,3.4E1,1.851E3,9.36E2,1.2E2,3.91E2,8.9E1,2.45E2,4E1,7.6E1,1E1,4.4E1,1.8E1,1.6E1,1.37E2,1.714E3,5.28E2,4.08E2,4.1E1,7.9E1,1.52E2,2.39E2,6.2E1,2.7E1,1.1E2,1.35E2,1E1,3E1,4.4E1,3.2E1,1E0,9E0,3E0,4.1E1,1.3E1,3E0,1.25E2,1.2E1,3.34E2,1.94E2,1.76E2,2.32E2,3E0,3.8E1,3.8E1,4.1E1,3.3E1,1.19E2,1.49E2,9E1,2.1E1,4.1E1,1.5E1,1.2E1,1.04E2,6E0,1.3E1,1.22E2,2E0,8E0,3E0,2.7E1,4.3E1,1E0,9E0,2.3E1,1E0,2E0,3.2E1,9E0,1.2E1,1E0,2E0,1E0],"tree_param":{"num_deleted":"0","num_feature":"34","num_nodes":"85","size_leaf_vector":"1"}},{"base_weights":[1.2161073E-4,-7.442474E-3,3.7154606E-1,-2.3961471E-2,5.7184357E-2,2.737053E-1,6.367069E-1,-2.7253127E-2,-8.565677E-3,2.9245716E-1,4.758197E-2,2.216203E-2,2.4174476E-1,6.842007E-1,6.975425E-3,-1.377765E-3,-2.403837E-2,1.7762508E-2,-1.1577151E-2,3.5267755E-1,8.276632E-2,3.608644E-2,1.2176426E-1,1.877851E-1,2.94625E-1,3.6775343E-2,1.6037626E-2,-2.5193566E-2,2.1555057E-2,8.454296E-3,7.139147E-2,-1.626076E-2,2.531123E-3,5.5063353E-3,3.9794478E-1,1.1504382E-1,2.1727866E-2,2.107404E-2,5.2967742E-2,1.2932934E-1,5.6139976E-2,1.0242793E-2,9.1049686E-2,1.6735414E-1,3.4780082E-1,-1.429928E-4,-1.2694465E-3,-2.821616E-4,1.8282505E-3,-2.654403E-4,1.8156149E-3,5.3695873E-3,4.2716294E-4,-4.608288E-4,-8.864446E-4,5.2820902E-5,1.5187226E-3,2.095214E-2,7.287044E-3,1.647476E-3,6.3665E-3,1.350331E-3,1.4728997E-4,3.1697177E-3,8.2504965E-4,5.249429E-3,2.3739233E-3,5.1138983E-3,8.111586E-3,3.6063462E-3,1.4065938E-3,1.4477976E-3,5.7428787E-3,1.09176515E-2,-3.7139913E-4,7.1603917E-3,1.8339964E-2],"categories":[],"categories_nodes":[],"categories_segments":[],"categories_sizes":[],"default_left":[0,0,0,0,0,0,0,0,0,0,0,0,0,0,0,0,0,0,0,0,0,0,0,0,0,0,0,0,0,0,0,0,0,0,0,0,0,0,0,0,0,0,0,0,0,0,0,0,0,0,0,0,0,0,0,0,0,0,0,0,0,0,0,0,0,0,0,0,0,0,0,0,0,0,0,0,0],"id":1,"left_children":[1,3,5,7,9,11,13,15,17,19,21,-1,23,25,-1,-1,27,29,31,33,35,37,39,41,43,-1,-1,45,47,49,51,53,55,-1,57,59,61,63,65,67,69,-1,71,73,75,-1,-1,-1,-1,-1,-1,-1,-1,-1,-1,-1,-1,-1,-1,-1,-1,-1,-1,-1,-1,-1,-1,-1,-1,-1,-1,-1,-1,-1,-1,-1,-1],"loss_changes":[1.0838953E1,4.0378537E0,1.8233824E0,1.5240788E-1,1.7256532E0,2.0711803E-1,3.7682438E-1,1.7476082E-3,4.2386133E-2,3.4964037E-1,6.275048E-1,0E0,9.0197325E-2,9.97324E-2,0E0,0E0,1.2182981E-2,2.6851874E-2,3.1626277E-2,2.0870614E-1,1.3261694E-2,1.6183847E-1,4.1888118E-2,2.7585685E-2,1.04219675E-1,0E0,0E0,8.698255E-4,2.655815E-3,1.8596573E-2,1.718295E-2,3.5493001E-3,4.895196E-3,0E0,4.002762E-2,8.476749E-4,3.1702768E-4,6.5142125E-2,8.125347E-2,6.1732054E-2,3.3441037E-3,0E0,5.544115E-3,8.1845134E-2,9.662628E-3,0E0,0E0,0E0,0E0,0E0,0E0,0E0,0E0,0E0,0E0,0E0,0E0,0E0,0E0,0E0,0E0,0E0,0E0,0E0,0E0,0E0,0E0,0E0,0E0,0E0,0E0,0E0,0E0,0E0,0E0,0E0,0E0],"parents":[2147483647,0,0,1,1,2,2,3,3,4,4,5,5,6,6,7,7,8,8,9,9,10,10,12,12,13,13,16,16,17,17,18,18,19,19,20,20,21,21,22,22,23,23,24,24,27,27,28,28,29,29,30,30,31,31,32,32,34,34,35,35,36,36,37,37,38,38,39,39,40,40,42,42,43,43,44,44],"right_children":[2,4,6,8,10,12,14,16,18,20,22,-1,24,26,-1,-1,28,30,32,34,36,38,40,42,44,-1,-1,46,48,50,52,54,56,-1,58,60,62,64,66,68,70,-1,72,74,76,-1,-1,-1,-1,-1,-1,-1,-1,-1,-1,-1,-1,-1,-1,-1,-1,-1,-1,-1,-1,-1,-1,-1,-1,-1,-1,-1,-1,-1,-1,-1,-1],"split_conditions":[3.6780448E0,6.1953837E-1,1.1303436E1,3.6049506E-1,7.0749998E-6,-4.8522356E-1,2.4037436E-5,3.0915406E-1,7.95E-6,2.202E-5,1.9002392E0,2.216203E-2,5.152609E0,6.73476E-6,6.975425E-3,-1.377765E-3,7.2455215E-1,2.7595E-5,5.053566E-1,1.708E-5,3.8241665E-6,9.922046E-1,1.7932063E-6,1.7542649E-6,7.01E-6,3.6775343E-2,1.6037626E-2,6.827339E-7,2.0742439E-6,2.4060382E-5,2.1151196E-5,1.1949999E-5,6.9876905E-6,5.5063353E-3,2.8253993E-5,2.6701999E-5,1.050478E-6,9.63E-6,4.0565888E-6,2.5107412E0,2.5107412E0,1.0242793E-2,1.8082618E-6,1.267E-5,2.7019335E-6,-1.429928E-4,-1.2694465E-3,-2.821616E-4,1.8282505E-3,-2.654403E-4,1.8156149E-3,5.3695873E-3,4.2716294E-4,-4.608288E-4,-8.864446E-4,5.2820902E-5,1.5187226E-3,2.095214E-2,7.287044E-3,1.647476E-3,6.3665E-3,1.350331E-3,1.4728997E-4,3.1697177E-3,8.2504965E-4,5.249429E-3,2.3739233E-3,5.1138983E-3,8.111586E-3,3.6063462E-3,1.4065938E-3,1.4477976E-3,5.7428787E-3,1.09176515E-2,-3.7139913E-4,7.1603917E-3,1.8339964E-2],"split_indices":[31,31,31,31,7,28,12,31,7,19,31,0,31,17,0,0,24,19,31,19,3,31,1,1,3,0,0,5,0,12,16,11,21,0,12,15,1,11,0,31,31,0,1,22,13,0,0,0,0,0,0,0,0,0,0,0,0,0,0,0,0,0,0,0,0,0,0,0,0,0,0,0,0,0,0,0,0],"split_type":[0,0,0,0,0,0,0,0,0,0,0,0,0,0,0,0,0,0,0,0,0,0,0,0,0,0,0,0,0,0,0,0,0,0,0,0,0,0,0,0,0,0,0,0,0,0,0,0,0,0,0,0,0,0,0,0,0,0,0,0,0,0,0,0,0,0,0,0,0,0,0,0,0,0,0,0,0],"sum_hessian":[3.856E3,3.78E3,7.6E1,3.011E3,7.69E2,5.7E1,1.9E1,2.48E3,5.31E2,2.9E1,7.4E2,7E0,5E1,1.7E1,2E0,2.26E3,2.2E2,5.4E1,4.77E2,2.2E1,7E0,6.42E2,9.8E1,2.7E1,2.3E1,1.4E1,3E0,2.15E2,5E0,4.7E1,7E0,3.58E2,1.19E2,4E0,1.8E1,4E0,3E0,3.41E2,3.01E2,8.7E1,1.1E1,2.2E1,5E0,8E0,1.5E1,2E0,2.13E2,2E0,3E0,3.2E1,1.5E1,4E0,3E0,6.3E1,2.95E2,1.14E2,5E0,1.6E1,2E0,1E0,3E0,2E0,1E0,3.2E1,3.09E2,2.7E1,2.74E2,5E1,3.7E1,6E0,5E0,2E0,3E0,6E0,2E0,2E0,1.3E1],"tree_param":{"num_deleted":"0","num_feature":"34","num_nodes":"77","size_leaf_vector":"1"}},{"base_weights":[1.1974946E-5,-9.32415E-3,3.0482817E-1,-2.269313E-2,4.5971747E-2,2.2509074E-1,5.944647E-1,-2.5883855E-2,-7.955486E-3,3.6138207E-2,1.3746934E-1,1.7667064E-1,2.9098305E-1,3.385043E-4,3.0986115E-2,-2.6173245E-2,-1.7158233E-2,-1.0576848E-2,1.4655393E-2,2.557506E-2,7.0405245E-2,2.7573305E-1,1.0701792E-1,1.38753895E-2,1.5865982E-1,1.911228E-2,2.2562225E-1,-1.3131624E-3,-2.2559525E-2,-2.0812722E-2,1.4796263E-2,-1.49538815E-2,1.0758903E-3,3.7496846E-2,3.7374047E-3,1.0219391E-1,2.3333756E-2,1.0323673E-2,6.1535254E-2,1.2927522E-1,2.0032253E-2,1.8242568E-1,9.161227E-2,1.7117634E-1,4.6363845E-3,1.328232E-2,1.430238E-1,2.5354055E-4,-1.1758584E-3,-3.8822E-4,-1.1138347E-3,-1.252586E-4,1.8524673E-3,-8.0852763E-4,1.4970811E-4,-9.570391E-5,5.051899E-4,5.495885E-4,3.462711E-3,-9.5449184E-5,2.6810274E-3,3.0877618E-3,8.131623E-3,6.1978743E-4,1.8295676E-3,1.4346411E-3,3.4715224E-3,7.3408376E-4,8.608814E-3,9.042555E-4,1.0035381E-2,3.8097946E-3,7.3599927E-3,2.0039766E-3,8.851073E-3,1.9318564E-3,7.5164656E-3],"categories":[],"categories_nodes":[],"categories_segments":[],"categories_sizes":[],"default_left":[0,0,0,0,0,0,0,0,0,0,0,0,0,0,0,0,0,0,0,0,0,0,0,0,0,0,0,0,0,0,0,0,0,0,0,0,0,0,0,0,0,0,0,0,0,0,0,0,0,0,0,0,0,0,0,0,0,0,0,0,0,0,0,0,0,0,0,0,0,0,0,0,0,0,0,0,0],"id":2,"left_children":[1,3,5,7,9,11,13,15,17,19,21,23,25,-1,-1,27,29,31,33,35,37,39,41,-1,43,-1,45,-1,47,49,51,53,55,57,59,61,63,-1,65,67,-1,69,71,73,-1,-1,75,-1,-1,-1,-1,-1,-1,-1,-1,-1,-1,-1,-1,-1,-1,-1,-1,-1,-1,-1,-1,-1,-1,-1,-1,-1,-1,-1,-1,-1,-1],"loss_changes":[1.0916493E1,2.7525306E0,2.4990063E0,1.4077139E-1,6.473477E-1,2.3892784E-1,3.520546E-1,5.77271E-3,3.1865157E-2,2.3565024E-1,2.6521456E-1,5.5859447E-2,1.3446188E-1,0E0,0E0,1.8262863E-4,9.883694E-3,2.4498213E-2,1.3825292E-2,8.399367E-2,1.7316085E-1,1.6773868E-1,5.1828146E-2,0E0,2.4564028E-2,0E0,4.1348457E-2,0E0,1.839146E-3,1.2406148E-3,3.5579072E-3,7.669471E-3,3.5824364E-3,1.43899415E-2,1.1087085E-2,2.417335E-2,7.060215E-2,0E0,3.5865188E-2,3.188546E-2,0E0,2.341032E-2,3.2488912E-2,2.3556113E-2,0E0,0E0,1.8176883E-3,0E0,0E0,0E0,0E0,0E0,0E0,0E0,0E0,0E0,0E0,0E0,0E0,0E0,0E0,0E0,0E0,0E0,0E0,0E0,0E0,0E0,0E0,0E0,0E0,0E0,0E0,0E0,0E0,0E0,0E0],"parents":[2147483647,0,0,1,1,2,2,3,3,4,4,5,5,6,6,7,7,8,8,9,9,10,10,11,11,12,12,15,15,16,16,17,17,18,18,19,19,20,20,21,21,22,22,24,24,26,26,28,28,29,29,30,30,31,31,32,32,33,33,34,34,35,35,36,36,38,38,39,39,41,41,42,42,43,43,46,46],"right_children":[2,4,6,8,10,12,14,16,18,20,22,24,26,-1,-1,28,30,32,34,36,38,40,42,-1,44,-1,46,-1,48,50,52,54,56,58,60,62,64,-1,66,68,-1,70,72,74,-1,-1,76,-1,-1,-1,-1,-1,-1,-1,-1,-1,-1,-1,-1,-1,-1,-1,-1,-1,-1,-1,-1,-1,-1,-1,-1,-1,-1,-1,-1,-1,-1],"split_conditions":[2.9772958E2,6.1953837E-1,8.800701E2,3.6401623E-1,2.0195446E0,5.201464E2,2.1695623E-6,1.6414524E1,5.564401E-1,1.14147224E2,4.985451E0,6.005563E-6,3.245E-6,3.385043E-4,3.0986115E-2,7.7534122E0,7.070887E-1,5.053566E-1,-5.513652E-1,1.21699995E-5,7.546667E-6,3.2359297E0,9.5E-6,1.38753895E-2,1.221E-5,1.911228E-2,1.1330652E-1,-1.3131624E-3,4.0993505E-6,-5.717311E-1,4.5201627E-6,6.796167E1,9.340284E-2,1.2292169E1,-4.151761E-1,1.5167268E-5,9.776059E-1,1.0323673E-2,8.82148E-1,2.7890533E-6,2.0032253E-2,8.501746E-7,2.3798758E2,6.2096383E-6,4.6363845E-3,1.328232E-2,1.16419554E-1,2.5354055E-4,-1.1758584E-3,-3.8822E-4,-1.1138347E-3,-1.252586E-4,1.8524673E-3,-8.0852763E-4,1.4970811E-4,-9.570391E-5,5.051899E-4,5.495885E-4,3.462711E-3,-9.5449184E-5,2.6810274E-3,3.0877618E-3,8.131623E-3,6.1978743E-4,1.8295676E-3,1.4346411E-3,3.4715224E-3,7.3408376E-4,8.608814E-3,9.042555E-4,1.0035381E-2,3.8097946E-3,7.3599927E-3,2.0039766E-3,8.851073E-3,1.9318564E-3,7.5164656E-3],"split_indices":[32,31,32,31,31,32,13,32,24,32,32,4,2,0,0,32,24,31,28,23,7,31,7,0,7,0,25,0,4,28,4,32,27,32,28,16,31,0,31,13,0,1,32,4,0,0,25,0,0,0,0,0,0,0,0,0,0,0,0,0,0,0,0,0,0,0,0,0,0,0,0,0,0,0,0,0,0],"split_type":[0,0,0,0,0,0,0,0,0,0,0,0,0,0,0,0,0,0,0,0,0,0,0,0,0,0,0,0,0,0,0,0,0,0,0,0,0,0,0,0,0,0,0,0,0,0,0,0,0,0,0,0,0,0,0,0,0,0,0,0,0,0,0,0,0,0,0,0,0,0,0,0,0,0,0,0,0],"sum_hessian":[3.834E3,3.721E3,1.13E2,2.997E3,7.24E2,9E1,2.3E1,2.463E3,5.34E2,6.55E2,6.9E1,5.4E1,3.6E1,1E0,2.2E1,2.382E3,8.1E1,4.79E2,5.5E1,5.02E2,1.53E2,1.1E1,5.8E1,6E0,4.8E1,1.3E1,2.3E1,2.318E3,6.4E1,7.3E1,8E0,3.48E2,1.31E2,1.7E1,3.8E1,1.3E1,4.89E2,8E0,1.45E2,6E0,5E0,8E0,5E1,3.9E1,9E0,1.4E1,9E0,2E0,6.2E1,8E0,6.5E1,5E0,3E0,3.26E2,2.2E1,9.9E1,3.2E1,1E1,7E0,3.5E1,3E0,9E0,4E0,2.69E2,2.2E2,2.9E1,1.16E2,2E0,4E0,1E0,7E0,4.1E1,9E0,2E0,3.7E1,1E0,8E0],"tree_param":{"num_deleted":"0","num_feature":"34","num_nodes":"77","size_leaf_vector":"1"}},{"base_weights":[-1.2807471E-4,-8.353135E-3,3.1979382E-1,-2.1683177E-2,4.4534992E-2,2.3104912E-1,5.625868E-1,-2.4089897E-2,-5.4766326E-3,3.3437073E-2,1.3009053E-1,3.3316E-1,1.9084251E-1,3.3004163E-4,5.854778E-1,-2.463164E-2,-1.4406355E-2,3.761844E-2,-8.177208E-3,2.3832811E-2,6.815371E-2,2.6853323E-1,1.0620517E-1,1.8280609E-2,1.2006147E-1,1.5719202E-1,2.3623653E-1,2.0196587E-2,3.3373836E-2,-1.2414295E-3,-1.8910825E-2,1.6961025E-2,-1.6184796E-2,1.0571594E-2,7.172218E-2,-1.3783514E-2,2.4376283E-3,7.154231E-2,2.0687707E-2,8.416036E-3,5.860365E-2,2.333124E-3,3.0824113E-1,1.7199673E-1,9.094334E-2,1.8524023E-3,6.769163E-3,1.707664E-1,4.0219254E-3,1.8835601E-3,2.4428123E-1,6.227221E-5,-1.0497052E-3,-1.1860853E-4,1.8443632E-3,-4.4971248E-4,-9.5903967E-4,-9.027307E-5,1.6605695E-3,2.4815078E-4,4.38958E-3,5.999116E-4,-7.306564E-4,4.519032E-5,1.6609535E-3,5.1566283E-3,1.4432254E-3,4.8630498E-4,1.587192E-3,2.1015536E-3,3.6241745E-3,2.4489996E-3,1.6580286E-2,9.169548E-3,8.816491E-4,3.786999E-3,6.3813278E-3,5.2879035E-4,8.8153845E-3,1.3258539E-2,6.4289207E-3],"categories":[],"categories_nodes":[],"categories_segments":[],"categories_sizes":[],"default_left":[0,0,0,0,0,0,0,0,0,0,0,0,0,0,0,0,0,0,0,0,0,0,0,0,0,0,0,0,0,0,0,0,0,0,0,0,0,0,0,0,0,0,0,0,0,0,0,0,0,0,0,0,0,0,0,0,0,0,0,0,0,0,0,0,0,0,0,0,0,0,0,0,0,0,0,0,0,0,0,0,0],"id":3,"left_children":[1,3,5,7,9,11,13,15,17,19,21,23,25,-1,27,29,31,33,35,37,39,41,43,-1,45,47,49,-1,-1,-1,51,53,55,57,59,61,63,65,67,-1,69,-1,71,73,75,-1,-1,77,-1,-1,79,-1,-1,-1,-1,-1,-1,-1,-1,-1,-1,-1,-1,-1,-1,-1,-1,-1,-1,-1,-1,-1,-1,-1,-1,-1,-1,-1,-1,-1,-1],"loss_changes":[1.0078212E1,2.6334393E0,1.938487E0,1.16218805E-1,7.0966554E-1,2.3201728E-1,3.1431246E-1,1.3269067E-2,4.5347247E-2,2.2077191E-1,2.558614E-1,8.749843E-2,4.53521E-2,0E0,8.76627E-2,2.300024E-3,8.084413E-3,2.0456951E-2,2.1754755E-2,7.714689E-2,1.278863E-1,9.1336906E-2,5.966556E-2,0E0,7.196888E-5,2.1687806E-2,2.4343133E-2,0E0,0E0,0E0,3.637381E-3,3.169406E-3,2.6926845E-3,3.982957E-3,1.0292098E-2,5.287282E-3,5.966058E-3,4.0165618E-2,5.943939E-2,0E0,2.7546734E-2,0E0,4.433316E-2,1.9631416E-2,2.5469184E-2,0E0,0E0,2.2989929E-2,0E0,0E0,1.4244318E-2,0E0,0E0,0E0,0E0,0E0,0E0,0E0,0E0,0E0,0E0,0E0,0E0,0E0,0E0,0E0,0E0,0E0,0E0,0E0,0E0,0E0,0E0,0E0,0E0,0E0,0E0,0E0,0E0,0E0,0E0],"parents":[2147483647,0,0,1,1,2,2,3,3,4,4,5,5,6,6,7,7,8,8,9,9,10,10,11,11,12,12,14,14,15,15,16,16,17,17,18,18,19,19,20,20,21,21,22,22,24,24,25,25,26,26,30,30,31,31,32,32,33,33,34,34,35,35,36,36,37,37,38,38,40,40,42,42,43,43,44,44,47,47,50,50],"right_children":[2,4,6,8,10,12,14,16,18,20,22,24,26,-1,28,30,32,34,36,38,40,42,44,-1,46,48,50,-1,-1,-1,52,54,56,58,60,62,64,66,68,-1,70,-1,72,74,76,-1,-1,78,-1,-1,80,-1,-1,-1,-1,-1,-1,-1,-1,-1,-1,-1,-1,-1,-1,-1,-1,-1,-1,-1,-1,-1,-1,-1,-1,-1,-1,-1,-1,-1,-1],"split_conditions":[3.338564E2,6.1953837E-1,8.800701E2,4.096477E-1,2.0195446E0,6.0917664E1,2.1695623E-6,1.6414524E1,5.775897E-6,1.18141624E2,4.985451E0,3.19E-6,5.201464E2,3.3004163E-4,1.1303436E1,3.6401623E-1,3.32125E-6,5.2802975E1,5.053566E-1,3.6567103E-6,4.95E-6,8.068385E-2,9.359999E-6,1.8280609E-2,4.599386E-6,1.2035E-5,1.9002392E0,2.0196587E-2,3.3373836E-2,-1.2414295E-3,1.67E-6,3.1221163E-1,1.4195825E-6,1.42E-5,1.5884074E-5,4.63E-6,7.1246895E-6,3.3992117E2,9.405554E-1,8.416036E-3,1.1821766E0,2.333124E-3,1.0666142E-6,4.795836E-6,2.3798758E2,1.8524023E-3,6.769163E-3,4.09E-6,4.0219254E-3,1.8835601E-3,2.269E-5,6.227221E-5,-1.0497052E-3,-1.1860853E-4,1.8443632E-3,-4.4971248E-4,-9.5903967E-4,-9.027307E-5,1.6605695E-3,2.4815078E-4,4.38958E-3,5.999116E-4,-7.306564E-4,4.519032E-5,1.6609535E-3,5.1566283E-3,1.4432254E-3,4.8630498E-4,1.587192E-3,2.1015536E-3,3.6241745E-3,2.4489996E-3,1.6580286E-2,9.169548E-3,8.816491E-4,3.786999E-3,6.3813278E-3,5.2879035E-4,8.8153845E-3,1.3258539E-2,6.4289207E-3],"split_indices":[32,31,32,31,31,33,13,32,4,32,32,2,32,0,31,31,3,32,31,0,3,27,7,0,0,7,31,0,0,0,2,31,5,18,16,6,21,33,31,0,31,0,1,0,32,0,0,6,0,0,18,0,0,0,0,0,0,0,0,0,0,0,0,0,0,0,0,0,0,0,0,0,0,0,0,0,0,0,0,0,0],"split_type":[0,0,0,0,0,0,0,0,0,0,0,0,0,0,0,0,0,0,0,0,0,0,0,0,0,0,0,0,0,0,0,0,0,0,0,0,0,0,0,0,0,0,0,0,0,0,0,0,0,0,0,0,0,0,0,0,0,0,0,0,0,0,0,0,0,0,0,0,0,0,0,0,0,0,0,0,0,0,0,0,0],"sum_hessian":[3.828E3,3.733E3,9.5E1,2.982E3,7.51E2,7.1E1,2.4E1,2.596E3,3.86E2,6.66E2,8.5E1,1.8E1,5.3E1,1E0,2.3E1,2.457E3,1.39E2,2.2E1,3.64E2,5.23E2,1.43E2,1.1E1,7.4E1,1.5E1,3E0,3.3E1,2E1,9E0,1.4E1,2.372E3,8.5E1,7E0,1.32E2,1.3E1,9E0,2.38E2,1.26E2,3.1E1,4.92E2,1.1E1,1.32E2,2E0,9E0,1.2E1,6.2E1,1E0,2E0,2.7E1,6E0,1E0,1.9E1,8E0,7.7E1,4E0,3E0,4E1,9.2E1,9E0,4E0,2E0,7E0,7E0,2.31E2,1.21E2,5E0,1.7E1,1.4E1,2.48E2,2.44E2,6.2E1,7E1,1E0,8E0,1.1E1,1E0,4.6E1,1.6E1,1E0,2.6E1,1.5E1,4E0],"tree_param":{"num_deleted":"0","num_feature":"34","num_nodes":"81","size_leaf_vector":"1"}},{"base_weights":[-6.374353E-4,-9.1084335E-3,2.3458086E-1,-2.0541992E-2,3.963561E-2,1.8538119E-1,5.2002203E-1,-2.3354482E-2,-7.7568423E-3,3.6328603E-2,3.219772E-1,1.519801E-1,2.6377234E-1,3.2179058E-4,5.481971E-1,-2.3587441E-2,-1.6421136E-2,1.2380409E-2,-1.0061223E-2,2.732377E-2,7.6003745E-2,-6.122456E-4,2.1771269E-2,2.4150379E-1,1.3190423E-1,3.0907962E-1,2.0294903E-1,1.7672176E-2,3.2E-2,-2.2571577E-2,-1.1917752E-3,5.4655345E-3,-1.8197572E-2,-3.3452366E-3,5.5586856E-2,-1.4304504E-2,1.4268501E-3,1.02410726E-1,2.5241408E-2,4.864746E-2,9.1276556E-2,1.9199605E-3,2.5417343E-1,9.180822E-2,1.5802558E-1,1.5896477E-2,4.1870247E-3,1.0552108E-2,1.8364709E-3,-1.1346258E-3,8.960265E-4,-3.5152523E-4,8.297595E-4,2.590213E-4,-9.445028E-4,-4.2007948E-4,1.4196571E-3,-3.821199E-4,3.9637038E-3,-1.0546774E-3,-6.142419E-4,2.4315717E-3,3.4763874E-5,3.5279621E-3,7.600093E-3,6.2776986E-4,1.9415328E-3,7.6816822E-3,1.7805794E-3,6.0673114E-3,3.824338E-3,1.3141359E-2,3.7582114E-3,5.168262E-3,1.9534365E-3,8.46619E-3,3.9479723E-3],"categories":[],"categories_nodes":[],"categories_segments":[],"categories_sizes":[],"default_left":[0,0,0,0,0,0,0,0,0,0,0,0,0,0,0,0,0,0,0,0,0,0,0,0,0,0,0,0,0,0,0,0,0,0,0,0,0,0,0,0,0,0,0,0,0,0,0,0,0,0,0,0,0,0,0,0,0,0,0,0,0,0,0,0,0,0,0,0,0,0,0,0,0,0,0,0,0],"id":4,"left_children":[1,3,5,7,9,11,13,15,17,19,21,23,25,-1,27,29,31,33,35,37,39,-1,-1,41,43,45,47,-1,-1,49,-1,51,53,55,57,59,61,63,65,67,69,-1,71,73,75,-1,-1,-1,-1,-1,-1,-1,-1,-1,-1,-1,-1,-1,-1,-1,-1,-1,-1,-1,-1,-1,-1,-1,-1,-1,-1,-1,-1,-1,-1,-1,-1],"loss_changes":[7.6235785E0,2.058989E0,1.771399E0,1.07405424E-1,6.43764E-1,2.6102185E-1,2.7140808E-1,3.5731792E-3,2.522907E-2,2.4622458E-1,3.0866683E-1,1.17317796E-1,2.821207E-2,0E0,9.5617294E-2,5.9247017E-5,3.3265222E-3,3.8235106E-2,2.3711514E-2,8.622646E-2,4.9039006E-2,0E0,0E0,2.6265621E-2,5.8807254E-2,7.2784424E-3,1.5117586E-2,0E0,0E0,2.7768016E-3,0E0,1.0902089E-3,1.344407E-3,6.978726E-3,2.3071721E-2,4.6084896E-3,4.5246202E-3,1.2968138E-2,9.501839E-2,6.022101E-2,2.6741266E-2,0E0,3.8307905E-4,1.424697E-2,2.3255944E-2,0E0,0E0,0E0,0E0,0E0,0E0,0E0,0E0,0E0,0E0,0E0,0E0,0E0,0E0,0E0,0E0,0E0,0E0,0E0,0E0,0E0,0E0,0E0,0E0,0E0,0E0,0E0,0E0,0E0,0E0,0E0,0E0],"parents":[2147483647,0,0,1,1,2,2,3,3,4,4,5,5,6,6,7,7,8,8,9,9,10,10,11,11,12,12,14,14,15,15,16,16,17,17,18,18,19,19,20,20,23,23,24,24,25,25,26,26,29,29,31,31,32,32,33,33,34,34,35,35,36,36,37,37,38,38,39,39,40,40,42,42,43,43,44,44],"right_children":[2,4,6,8,10,12,14,16,18,20,22,24,26,-1,28,30,32,34,36,38,40,-1,-1,42,44,46,48,-1,-1,50,-1,52,54,56,58,60,62,64,66,68,70,-1,72,74,76,-1,-1,-1,-1,-1,-1,-1,-1,-1,-1,-1,-1,-1,-1,-1,-1,-1,-1,-1,-1,-1,-1,-1,-1,-1,-1,-1,-1,-1,-1,-1,-1],"split_conditions":[2.4883731E2,6.1953837E-1,8.800701E2,3.6049506E-1,5.152609E0,5.201464E2,2.1695623E-6,1.6414524E1,7.95E-6,1.3126788E2,1.0895023E-5,1.6548709E-5,7.32E-6,3.2179058E-4,1.1303436E1,-4.3378565E-1,3.32125E-6,5.2802975E1,5.053566E-1,1.21699995E-5,1.1821766E0,-6.122456E-4,2.1771269E-2,6.1245E-7,2.3192008E0,8.113333E-6,2.7004788E2,1.7672176E-2,3.2E-2,3.0745E-5,-1.1917752E-3,2.6988253E-5,4.25E-6,2.7375E-5,7.961779E-2,2.3025684E0,8.169999E-6,1.5884074E-5,9.776059E-1,2.22E-6,9.67E-6,1.9199605E-3,2.5632688E-5,7.94E-6,1.7542649E-6,1.5896477E-2,4.1870247E-3,1.0552108E-2,1.8364709E-3,-1.1346258E-3,8.960265E-4,-3.5152523E-4,8.297595E-4,2.590213E-4,-9.445028E-4,-4.2007948E-4,1.4196571E-3,-3.821199E-4,3.9637038E-3,-1.0546774E-3,-6.142419E-4,2.4315717E-3,3.4763874E-5,3.5279621E-3,7.600093E-3,6.2776986E-4,1.9415328E-3,7.6816822E-3,1.7805794E-3,6.0673114E-3,3.824338E-3,1.3141359E-2,3.7582114E-3,5.168262E-3,1.9534365E-3,8.46619E-3,3.9479723E-3],"split_indices":[32,31,32,31,31,32,13,32,7,32,8,16,6,0,31,28,3,32,31,23,31,0,0,1,31,3,33,0,0,14,0,12,14,19,27,32,11,16,31,2,7,0,12,6,1,0,0,0,0,0,0,0,0,0,0,0,0,0,0,0,0,0,0,0,0,0,0,0,0,0,0,0,0,0,0,0,0],"split_type":[0,0,0,0,0,0,0,0,0,0,0,0,0,0,0,0,0,0,0,0,0,0,0,0,0,0,0,0,0,0,0,0,0,0,0,0,0,0,0,0,0,0,0,0,0,0,0,0,0,0,0,0,0,0,0,0,0,0,0,0,0,0,0,0,0,0,0,0,0,0,0,0,0,0,0,0,0],"sum_hessian":[3.824E3,3.692E3,1.32E2,2.991E3,7.01E2,1.14E2,1.8E1,2.451E3,5.4E2,6.94E2,7E0,8.2E1,3.2E1,1E0,1.7E1,2.369E3,8.2E1,5.5E1,4.85E2,5.67E2,1.27E2,2E0,5E0,1.3E1,6.9E1,1.6E1,1.6E1,7E0,1E1,4.83E2,1.886E3,6E0,7.6E1,4.1E1,1.4E1,3.54E2,1.31E2,1.4E1,5.53E2,4.7E1,8E1,1E0,1.2E1,2.9E1,4E1,1.5E1,1E0,1.5E1,1E0,4.82E2,1E0,3E0,3E0,2E0,7.4E1,3.6E1,5E0,4E0,1E1,7.9E1,2.75E2,1E0,1.3E2,1E1,4E0,2.87E2,2.66E2,4E0,4.3E1,2.4E1,5.6E1,1.1E1,1E0,2.3E1,6E0,3.4E1,6E0],"tree_param":{"num_deleted":"0","num_feature":"34","num_nodes":"77","size_leaf_vector":"1"}},{"base_weights":[7.871183E-4,-8.531853E-3,2.5259623E-1,-1.9497389E-2,3.869604E-2,1.874136E-1,5.1362795E-1,-2.1841103E-2,-3.6873624E-3,2.9554924E-2,1.480114E-1,1.4883178E-1,2.5862998E-1,5.3290015E-1,3.137458E-4,-2.2191714E-2,-9.04727E-3,3.894061E-2,-6.4499206E-3,1.2231215E-1,2.717119E-2,2.7768728E-1,9.568265E-2,1.8263178E-1,1.2355285E-1,1.5910843E-2,2.0082967E-1,1.87431E-2,3.041226E-2,-1.1287492E-3,-1.938241E-2,9.525363E-3,-1.5885107E-2,7.7934875E-3,7.5042345E-2,-1.2195857E-2,2.9278765E-3,8.035527E-2,9.927312E-3,1.798421E-2,4.6079613E-2,1.536936E-1,1.9871905E-2,1.1729566E-2,7.373193E-2,1.1391868E-1,1.0332777E-2,8.924652E-2,1.4241955E-1,1.1924491E-1,1.1946603E-2,-9.983996E-4,1.0458624E-3,4.6916786E-5,2.1819444E-3,-9.926097E-4,-1.7079634E-4,-2.5073206E-4,1.5925523E-3,4.297371E-3,-8.50209E-4,-6.6461053E-4,2.1658004E-4,1.8359562E-3,9.636018E-5,5.664595E-3,2.4862734E-3,4.3600958E-4,1.3801866E-3,1.4064149E-3,2.7329596E-3,8.9414595E-3,2.1906353E-3,4.3731662E-3,7.3695753E-4,6.2100873E-3,2.4262136E-3,5.084351E-3,2.2672128E-3,7.6777562E-3,3.0242426E-3,1.4086803E-3,6.3553564E-3],"categories":[],"categories_nodes":[],"categories_segments":[],"categories_sizes":[],"default_left":[0,0,0,0,0,0,0,0,0,0,0,0,0,0,0,0,0,0,0,0,0,0,0,0,0,0,0,0,0,0,0,0,0,0,0,0,0,0,0,0,0,0,0,0,0,0,0,0,0,0,0,0,0,0,0,0,0,0,0,0,0,0,0,0,0,0,0,0,0,0,0,0,0,0,0,0,0,0,0,0,0,0,0],"id":5,"left_children":[1,3,5,7,9,11,13,15,17,19,21,23,25,27,-1,29,31,33,35,37,39,41,43,45,47,-1,49,-1,-1,-1,51,53,55,57,59,61,63,65,-1,67,69,71,-1,-1,73,75,-1,77,79,81,-1,-1,-1,-1,-1,-1,-1,-1,-1,-1,-1,-1,-1,-1,-1,-1,-1,-1,-1,-1,-1,-1,-1,-1,-1,-1,-1,-1,-1,-1,-1,-1,-1],"loss_changes":[9.074118E0,1.9319259E0,2.251771E0,1.1208248E-1,6.981083E-1,2.6924562E-1,2.606573E-1,1.1623502E-2,4.6413966E-2,1.4039713E-1,3.398621E-1,4.1517377E-2,6.696987E-2,8.158398E-2,0E0,2.3241043E-3,9.295071E-3,2.6402324E-2,1.9918982E-2,3.5222456E-2,1.0947797E-1,1.6164148E-1,1.04668945E-1,2.5980592E-2,1.7062902E-2,0E0,3.9897203E-2,0E0,0E0,0E0,7.851288E-3,5.8177277E-3,2.5539007E-3,4.473574E-3,1.25029795E-2,4.207041E-3,4.697007E-3,6.4726174E-3,0E0,3.798981E-2,3.0343622E-2,1.7022297E-2,0E0,0E0,2.7872771E-2,6.977469E-4,0E0,5.766228E-3,1.6259134E-2,2.863139E-3,0E0,0E0,0E0,0E0,0E0,0E0,0E0,0E0,0E0,0E0,0E0,0E0,0E0,0E0,0E0,0E0,0E0,0E0,0E0,0E0,0E0,0E0,0E0,0E0,0E0,0E0,0E0,0E0,0E0,0E0,0E0,0E0,0E0],"parents":[2147483647,0,0,1,1,2,2,3,3,4,4,5,5,6,6,7,7,8,8,9,9,10,10,11,11,12,12,13,13,15,15,16,16,17,17,18,18,19,19,20,20,21,21,22,22,23,23,24,24,26,26,30,30,31,31,32,32,33,33,34,34,35,35,36,36,37,37,39,39,40,40,41,41,44,44,45,45,47,47,48,48,49,49],"right_children":[2,4,6,8,10,12,14,16,18,20,22,24,26,28,-1,30,32,34,36,38,40,42,44,46,48,-1,50,-1,-1,-1,52,54,56,58,60,62,64,66,-1,68,70,72,-1,-1,74,76,-1,78,80,82,-1,-1,-1,-1,-1,-1,-1,-1,-1,-1,-1,-1,-1,-1,-1,-1,-1,-1,-1,-1,-1,-1,-1,-1,-1,-1,-1,-1,-1,-1,-1,-1,-1],"split_conditions":[2.4883731E2,6.3213956E-1,8.800701E2,4.096477E-1,2.3192008E0,5.201464E2,2.3294999E-5,3.2118397E1,5.775897E-6,1.1689999E-5,4.985451E0,8.67332E1,3.245E-6,1.1303436E1,3.137458E-4,3.0915406E-1,1.3784035E-6,5.2802975E1,5.053566E-1,1.8624167E-5,9.3333664E1,3.3269391E-6,4.4800386E-6,1.0287562E-1,2.3192008E0,1.5910843E-2,-5.468425E-2,1.87431E-2,3.041226E-2,-1.1287492E-3,7.2455215E-1,1.13809966E-1,3.831061E-1,1.42E-5,1.3394892E-6,5.30755E-1,-2.1459219E-1,5.000414E-6,9.927312E-3,9.405554E-1,9.922046E-1,1.1780989E-5,1.9871905E-2,1.1729566E-2,1.5021543E-11,3.338564E2,1.0332777E-2,1.051E-5,1.9168436E-11,4.599386E-6,1.1946603E-2,-9.983996E-4,1.0458624E-3,4.6916786E-5,2.1819444E-3,-9.926097E-4,-1.7079634E-4,-2.5073206E-4,1.5925523E-3,4.297371E-3,-8.50209E-4,-6.6461053E-4,2.1658004E-4,1.8359562E-3,9.636018E-5,5.664595E-3,2.4862734E-3,4.3600958E-4,1.3801866E-3,1.4064149E-3,2.7329596E-3,8.9414595E-3,2.1906353E-3,4.3731662E-3,7.3695753E-4,6.2100873E-3,2.4262136E-3,5.084351E-3,2.2672128E-3,7.6777562E-3,3.0242426E-3,1.4086803E-3,6.3553564E-3],"split_indices":[32,31,32,31,31,32,14,32,4,23,32,33,2,31,0,31,5,32,31,19,32,9,0,25,31,0,26,0,0,0,24,25,31,18,1,24,26,8,0,31,31,8,0,0,29,32,0,7,29,0,0,0,0,0,0,0,0,0,0,0,0,0,0,0,0,0,0,0,0,0,0,0,0,0,0,0,0,0,0,0,0,0,0],"split_type":[0,0,0,0,0,0,0,0,0,0,0,0,0,0,0,0,0,0,0,0,0,0,0,0,0,0,0,0,0,0,0,0,0,0,0,0,0,0,0,0,0,0,0,0,0,0,0,0,0,0,0,0,0,0,0,0,0,0,0,0,0,0,0,0,0,0,0,0,0,0,0,0,0,0,0,0,0,0,0,0,0,0,0],"sum_hessian":[3.865E3,3.728E3,1.37E2,3.026E3,7.02E2,1.11E2,2.6E1,2.635E3,3.91E2,6.49E2,5.3E1,7.4E1,3.7E1,2.5E1,1E0,2.564E3,7.1E1,2.3E1,3.68E2,1.5E1,6.34E2,1.4E1,3.9E1,2.9E1,4.5E1,1.6E1,2.1E1,1E1,1.5E1,2.25E3,3.14E2,1.9E1,5.2E1,1.3E1,1E1,2.28E2,1.4E2,1.1E1,4E0,4.28E2,2.06E2,8E0,6E0,4E0,3.5E1,9E0,2E1,1.8E1,2.7E1,8E0,1.3E1,3.1E2,4E0,1.6E1,3E0,3.9E1,1.3E1,9E0,4E0,9E0,1E0,2.14E2,1.4E1,3E0,1.37E2,4E0,7E0,2.19E2,2.09E2,6.8E1,1.38E2,6E0,2E0,2.8E1,7E0,7E0,2E0,1.3E1,5E0,2.3E1,4E0,1E0,7E0],"tree_param":{"num_deleted":"0","num_feature":"34","num_nodes":"83","size_leaf_vector":"1"}},{"base_weights":[8.482093E-5,-7.60129E-3,2.3460579E-1,-1.4977879E-2,3.6630727E-2,1.7469488E-1,4.822829E-1,-2.0958867E-2,-6.0134525E-3,2.6602186E-2,8.449743E-2,3.0631247E-1,1.5476187E-1,3.059022E-4,2.5182435E-2,-2.1214532E-2,-1.3175353E-2,-1.9122574E-2,3.0070648E-3,1.8834485E-2,4.1241232E-2,1.4558186E-1,6.635596E-2,1.5894203E-2,4.4756318E-3,1.3288216E-1,1.9690116E-1,-1.7910989E-2,-1.0720643E-3,1.0656293E-2,-1.454454E-2,-2.1139015E-2,-1.5294844E-2,2.1225171E-2,-1.8745614E-3,2.78022E-2,1.1687978E-2,7.77177E-2,3.373609E-2,1.7733994E-1,6.126828E-2,2.2414843E-2,7.85103E-2,3.988704E-2,1.3870835E-1,1.1620601E-2,1.3018568E-1,-1.0564032E-3,5.591552E-4,6.401705E-4,1.0537356E-4,-7.6367555E-4,7.1161817E-4,-1.0603102E-3,3.4220004E-5,-8.129009E-4,-7.614891E-5,5.5879756E-4,1.1892012E-2,1.989564E-3,-1.8875771E-4,3.2108792E-3,1.0197711E-3,1.0454046E-3,8.03028E-6,5.3570895E-3,2.1157663E-3,2.49719E-3,1.227116E-3,9.212793E-3,2.185826E-3,3.693403E-3,9.922951E-4,2.3301616E-3,5.693699E-4,4.1567604E-3,-1.1986459E-4,6.63356E-4,2.6605641E-3,7.3086405E-3,3.225453E-3,2.6462127E-3,7.5029503E-3],"categories":[],"categories_nodes":[],"categories_segments":[],"categories_sizes":[],"default_left":[0,0,0,0,0,0,0,0,0,0,0,0,0,0,0,0,0,0,0,0,0,0,0,0,0,0,0,0,0,0,0,0,0,0,0,0,0,0,0,0,0,0,0,0,0,0,0,0,0,0,0,0,0,0,0,0,0,0,0,0,0,0,0,0,0,0,0,0,0,0,0,0,0,0,0,0,0,0,0,0,0,0,0],"id":6,"left_children":[1,3,5,7,9,11,13,15,17,19,21,23,25,-1,-1,27,29,31,33,35,37,39,41,-1,-1,43,45,47,-1,49,51,53,55,57,59,61,63,65,67,69,71,73,75,77,79,-1,81,-1,-1,-1,-1,-1,-1,-1,-1,-1,-1,-1,-1,-1,-1,-1,-1,-1,-1,-1,-1,-1,-1,-1,-1,-1,-1,-1,-1,-1,-1,-1,-1,-1,-1,-1,-1],"loss_changes":[6.87312E0,1.2051797E0,1.7112131E0,1.695689E-1,2.5120968E-1,2.1232486E-1,2.3091221E-1,3.4974813E-3,1.4999983E-1,4.9028963E-2,9.118241E-2,1.6499758E-3,5.497098E-2,0E0,0E0,9.913445E-4,2.2106804E-3,3.6670864E-3,6.691814E-2,1.8132344E-2,3.871599E-2,4.2687446E-2,3.6693633E-2,0E0,0E0,2.7517676E-2,3.607869E-2,1.1842404E-2,0E0,4.643848E-5,1.4760289E-3,5.071908E-4,2.3894124E-3,3.4345514E-1,4.7188956E-2,3.294479E-2,1.7214598E-2,2.1508321E-2,1.7698526E-2,4.882753E-3,2.1874122E-3,4.0038256E-3,2.1153927E-2,1.0674912E-3,2.2140265E-2,0E0,1.0483548E-2,0E0,0E0,0E0,0E0,0E0,0E0,0E0,0E0,0E0,0E0,0E0,0E0,0E0,0E0,0E0,0E0,0E0,0E0,0E0,0E0,0E0,0E0,0E0,0E0,0E0,0E0,0E0,0E0,0E0,0E0,0E0,0E0,0E0,0E0,0E0,0E0],"parents":[2147483647,0,0,1,1,2,2,3,3,4,4,5,5,6,6,7,7,8,8,9,9,10,10,11,11,12,12,15,15,16,16,17,17,18,18,19,19,20,20,21,21,22,22,25,25,26,26,27,27,29,29,30,30,31,31,32,32,33,33,34,34,35,35,36,36,37,37,38,38,39,39,40,40,41,41,42,42,43,43,44,44,46,46],"right_children":[2,4,6,8,10,12,14,16,18,20,22,24,26,-1,-1,28,30,32,34,36,38,40,42,-1,-1,44,46,48,-1,50,52,54,56,58,60,62,64,66,68,70,72,74,76,78,80,-1,82,-1,-1,-1,-1,-1,-1,-1,-1,-1,-1,-1,-1,-1,-1,-1,-1,-1,-1,-1,-1,-1,-1,-1,-1,-1,-1,-1,-1,-1,-1,-1,-1,-1,-1,-1,-1],"split_conditions":[2.6512564E2,5.2802975E1,8.800701E2,2.3871595E-1,1.6685765E2,6.005563E-6,2.1695623E-6,1.00473385E1,4.746628E0,1.0426601E2,5.53E-6,4.48E-6,5.201464E2,3.059022E-4,2.5182435E-2,-4.678827E-1,1.1545902E-5,1.345028E-1,4.985451E0,1.6556093E2,7.892716E-6,1.667353E-6,1.9356455E-6,1.5894203E-2,4.4756318E-3,4.09E-6,3.3143172E-6,6.81E-6,-1.0720643E-3,3.7138745E-6,4.0493032E-5,1.144E-5,1.42503195E-5,1.9520846E-6,1.4092924E1,-4.9726957E-1,2.9120001E-5,2.803E-5,1.3967494E2,1.3635461E-1,2.877884E-6,4.3315476E-6,1.551E-5,2.8189997E-5,7.9925E-6,1.1620601E-2,3.7258867E-6,-1.0564032E-3,5.591552E-4,6.401705E-4,1.0537356E-4,-7.6367555E-4,7.1161817E-4,-1.0603102E-3,3.4220004E-5,-8.129009E-4,-7.614891E-5,5.5879756E-4,1.1892012E-2,1.989564E-3,-1.8875771E-4,3.2108792E-3,1.0197711E-3,1.0454046E-3,8.03028E-6,5.3570895E-3,2.1157663E-3,2.49719E-3,1.227116E-3,9.212793E-3,2.185826E-3,3.693403E-3,9.922951E-4,2.3301616E-3,5.693699E-4,4.1567604E-3,-1.1986459E-4,6.63356E-4,2.6605641E-3,7.3086405E-3,3.225453E-3,2.6462127E-3,7.5029503E-3],"split_indices":[32,32,32,24,32,4,13,32,32,32,6,6,32,0,0,24,16,32,32,33,8,5,13,0,0,6,13,23,0,0,16,6,8,1,33,28,15,15,33,25,9,2,7,15,6,0,13,0,0,0,0,0,0,0,0,0,0,0,0,0,0,0,0,0,0,0,0,0,0,0,0,0,0,0,0,0,0,0,0,0,0,0,0],"split_type":[0,0,0,0,0,0,0,0,0,0,0,0,0,0,0,0,0,0,0,0,0,0,0,0,0,0,0,0,0,0,0,0,0,0,0,0,0,0,0,0,0,0,0,0,0,0,0,0,0,0,0,0,0,0,0,0,0,0,0,0,0,0,0,0,0,0,0,0,0,0,0,0,0,0,0,0,0,0,0,0,0,0,0],"sum_hessian":[3.811E3,3.691E3,1.2E2,3.164E3,5.27E2,9.8E1,2.2E1,1.897E3,1.267E3,4.37E2,9E1,1.1E1,8.7E1,1E0,2.1E1,1.835E3,6.2E1,5.16E2,7.51E2,2.87E2,1.5E2,1.9E1,7.1E1,1E1,1E0,6E1,2.7E1,1.23E2,1.712E3,3E0,5.9E1,3.35E2,1.81E2,1.58E2,5.93E2,1.26E2,1.61E2,2.4E1,1.26E2,1.3E1,6E0,1.6E1,5.5E1,4E0,5.6E1,1.6E1,1.1E1,1.11E2,1.2E1,2E0,1E0,5.8E1,1E0,3.34E2,1E0,1.69E2,1.2E1,1.52E2,6E0,2.5E1,5.68E2,2E1,1.06E2,8.9E1,7.2E1,1.2E1,1.2E1,4.4E1,8.2E1,1.2E1,1E0,4E0,2E0,4E0,1.2E1,5.2E1,3E0,2E0,2E0,5E1,6E0,3E0,8E0],"tree_param":{"num_deleted":"0","num_feature":"34","num_nodes":"83","size_leaf_vector":"1"}},{"base_weights":[4.83822E-4,-7.5519695E-3,2.1703906E-1,-1.6744563E-2,4.0262107E-2,1.6156836E-1,4.6130398E-1,-1.8987449E-2,4.1702744E-3,3.589815E-2,2.7066883E-1,1.5024266E-2,1.4824928E-1,1.6492667E-2,2.7051285E-2,-1.9617522E-2,-1.2995353E-3,3.932985E-2,-4.1989447E-4,3.175732E-2,1.0711139E-1,1.7831618E-2,3.1074593E-2,1.1618356E-1,1.8754843E-1,-2.0264352E-2,-1.3860444E-2,8.992891E-2,-4.1368874E-3,5.814682E-3,3.114133E-2,-6.218486E-3,3.448425E-3,9.639661E-2,2.8550621E-2,1.23737715E-1,1.444099E-2,-1.4862793E-2,4.222169E-3,9.101072E-2,1.4260116E-1,3.8595514E-3,1.9345264E-1,-1.0161869E-3,-8.507203E-4,-3.987875E-4,-8.0375496E-4,5.4654013E-3,1.2792671E-3,1.2408497E-3,-4.284298E-4,2.0159534E-3,-1.2894897E-4,8.57304E-5,-4.943296E-4,1.2619578E-4,1.9667787E-3,5.2867034E-3,9.3035353E-4,1.1128446E-3,2.6729356E-3,6.4096213E-3,1.9788649E-4,9.348357E-4,1.9765143E-4,-9.207997E-4,-1.9390979E-4,5.256319E-3,3.0060937E-3,7.559452E-3,2.6638284E-3,3.4118262E-3,9.894822E-3],"categories":[],"categories_nodes":[],"categories_segments":[],"categories_sizes":[],"default_left":[0,0,0,0,0,0,0,0,0,0,0,0,0,0,0,0,0,0,0,0,0,0,0,0,0,0,0,0,0,0,0,0,0,0,0,0,0,0,0,0,0,0,0,0,0,0,0,0,0,0,0,0,0,0,0,0,0,0,0,0,0,0,0,0,0,0,0,0,0,0,0,0,0],"id":7,"left_children":[1,3,5,7,9,11,13,15,17,19,21,-1,23,-1,-1,25,27,29,31,33,35,-1,37,39,41,43,45,47,49,-1,51,53,55,57,59,61,63,65,-1,67,69,-1,71,-1,-1,-1,-1,-1,-1,-1,-1,-1,-1,-1,-1,-1,-1,-1,-1,-1,-1,-1,-1,-1,-1,-1,-1,-1,-1,-1,-1,-1,-1],"loss_changes":[6.7118225E0,1.6353064E0,1.7953057E0,1.4643711E-1,5.9357476E-1,1.6638112E-1,8.352709E-2,3.1380057E-2,4.8917197E-2,1.705786E-1,2.1547776E-1,0E0,1.11786604E-1,0E0,0E0,9.851694E-3,2.5739057E-2,1.8436149E-2,6.0553304E-3,1.1311674E-1,4.7517687E-2,0E0,1.1061554E-2,2.7587235E-2,1.5039563E-2,1.2588501E-4,3.49484E-3,9.4407983E-4,1.2530903E-2,0E0,1.0316696E-2,3.1596893E-3,5.2755577E-3,1.691787E-2,8.252257E-2,1.3899416E-2,1.9389449E-4,4.5670604E-5,0E0,8.504152E-3,1.3424158E-2,0E0,1.0423064E-2,0E0,0E0,0E0,0E0,0E0,0E0,0E0,0E0,0E0,0E0,0E0,0E0,0E0,0E0,0E0,0E0,0E0,0E0,0E0,0E0,0E0,0E0,0E0,0E0,0E0,0E0,0E0,0E0,0E0,0E0],"parents":[2147483647,0,0,1,1,2,2,3,3,4,4,5,5,6,6,7,7,8,8,9,9,10,10,12,12,15,15,16,16,17,17,18,18,19,19,20,20,22,22,23,23,24,24,25,25,26,26,27,27,28,28,30,30,31,31,32,32,33,33,34,34,35,35,36,36,37,37,39,39,40,40,42,42],"right_children":[2,4,6,8,10,12,14,16,18,20,22,-1,24,-1,-1,26,28,30,32,34,36,-1,38,40,42,44,46,48,50,-1,52,54,56,58,60,62,64,66,-1,68,70,-1,72,-1,-1,-1,-1,-1,-1,-1,-1,-1,-1,-1,-1,-1,-1,-1,-1,-1,-1,-1,-1,-1,-1,-1,-1,-1,-1,-1,-1,-1,-1],"split_conditions":[2.4883731E2,7.108757E-1,8.800701E2,4.7768298E-1,4.413642E0,6.9099997E-6,1.1303436E1,3.5347958E1,4.8399997E-6,2.5107412E0,3.435E-6,1.5024266E-2,3.6780448E0,1.6492667E-2,2.7051285E-2,3.6049506E-1,1.771593E1,7.562343E-2,5.542286E-1,4.835E-6,3.5514106E-6,1.7831618E-2,5.313246E-6,9.523567E-2,1.093E-5,3.423119E-1,2.9799999E-6,3.1850464E-6,6.74E-6,5.814682E-3,2.8999999E-5,1.296E-5,7.2787516E-6,5.4399998E-6,1.3126788E2,1.6475758E-5,1.8082618E-6,5.287959E-6,4.222169E-3,8.068385E-2,1.7745023E-6,3.8595514E-3,5.7899997E-6,-1.0161869E-3,-8.507203E-4,-3.987875E-4,-8.0375496E-4,5.4654013E-3,1.2792671E-3,1.2408497E-3,-4.284298E-4,2.0159534E-3,-1.2894897E-4,8.57304E-5,-4.943296E-4,1.2619578E-4,1.9667787E-3,5.2867034E-3,9.3035353E-4,1.1128446E-3,2.6729356E-3,6.4096213E-3,1.9788649E-4,9.348357E-4,1.9765143E-4,-9.207997E-4,-1.9390979E-4,5.256319E-3,3.0060937E-3,7.559452E-3,2.6638284E-3,3.4118262E-3,9.894822E-3],"split_indices":[32,31,32,31,31,7,31,32,10,31,2,0,31,0,0,31,33,27,31,3,9,0,0,27,11,31,2,0,7,0,19,11,21,10,32,8,1,0,0,27,1,0,14,0,0,0,0,0,0,0,0,0,0,0,0,0,0,0,0,0,0,0,0,0,0,0,0,0,0,0,0,0,0],"split_type":[0,0,0,0,0,0,0,0,0,0,0,0,0,0,0,0,0,0,0,0,0,0,0,0,0,0,0,0,0,0,0,0,0,0,0,0,0,0,0,0,0,0,0,0,0,0,0,0,0,0,0,0,0,0,0,0,0,0,0,0,0,0,0,0,0,0,0,0,0,0,0,0,0],"sum_hessian":[3.855E3,3.718E3,1.37E2,3.119E3,5.99E2,1.13E2,2.4E1,2.817E3,3.02E2,5.89E2,1E1,8E0,1.05E2,1.1E1,1.3E1,2.72E3,9.7E1,3.4E1,2.68E2,5.58E2,3.1E1,7E0,3E0,6E1,4.5E1,2.443E3,2.77E2,2E0,9.5E1,2E0,3.2E1,1.07E2,1.61E2,2.5E1,5.33E2,2.6E1,5E0,2E0,1E0,3.3E1,2.7E1,3E0,4.2E1,2.394E3,4.9E1,7.7E1,2E2,1E0,1E0,1.2E1,8.3E1,2.5E1,7E0,3.4E1,7.3E1,1.58E2,3E0,2.2E1,3E0,4.27E2,1.06E2,2.5E1,1E0,3E0,2E0,1E0,1E0,2.1E1,1.2E1,2.4E1,3E0,2E0,4E1],"tree_param":{"num_deleted":"0","num_feature":"34","num_nodes":"73","size_leaf_vector":"1"}},{"base_weights":[-4.7018594E-4,-7.4878405E-3,2.101755E-1,-1.6854744E-2,3.259881E-2,1.5775923E-1,4.2418727E-1,-1.934493E-2,-5.855608E-3,2.6196454E-2,9.27535E-2,1.3169867E-1,2.1065114E-1,-1.1406206E-4,4.4282857E-1,-9.7214757E-4,-1.6390182E-2,-8.721812E-3,1.4128815E-2,9.563129E-2,2.3586811E-2,1.491634E-1,6.946267E-2,1.649985E-1,1.0879214E-1,1.3251564E-2,1.6477151E-1,1.6267607E-2,5.081679E-1,6.145177E-3,-1.6999897E-2,-1.218807E-2,1.1534295E-3,6.996004E-2,7.898855E-3,1.2792951E-1,5.5363793E-2,1.5028577E-2,4.0067222E-2,1.0638659E-1,1.2383058E-2,7.989905E-2,1.3041506E-2,9.7421154E-2,1.8377951E-1,6.187789E-2,1.23976775E-1,1.1848389E-2,1.2490823E-1,1.0452408E-2,2.7177451E-2,1.3108132E-5,4.4778013E-4,-5.85745E-4,-9.786766E-4,-7.6081976E-4,-3.4885094E-4,-3.5035062E-6,1.1243646E-3,4.2928397E-3,-6.3551194E-4,-4.143741E-5,1.0948086E-3,7.5464956E-3,3.277148E-3,1.617372E-5,3.3169754E-3,4.3179994E-4,1.1472956E-3,5.8453563E-3,1.8630828E-3,2.376481E-3,7.017175E-3,4.3909103E-3,8.8738714E-4,2.9789533E-3,-1.1153577E-5,5.1854937E-3,1.3350014E-3,2.701798E-3,9.3882065E-3,3.6187358E-3,1.5304012E-3,6.609898E-3,2.574927E-3,1.2321556E-3,6.5154904E-3],"categories":[],"categories_nodes":[],"categories_segments":[],"categories_sizes":[],"default_left":[0,0,0,0,0,0,0,0,0,0,0,0,0,0,0,0,0,0,0,0,0,0,0,0,0,0,0,0,0,0,0,0,0,0,0,0,0,0,0,0,0,0,0,0,0,0,0,0,0,0,0,0,0,0,0,0,0,0,0,0,0,0,0,0,0,0,0,0,0,0,0,0,0,0,0,0,0,0,0,0,0,0,0,0,0,0,0],"id":8,"left_children":[1,3,5,7,9,11,13,15,17,19,21,23,25,-1,27,-1,29,31,33,35,37,39,41,43,45,-1,47,-1,49,51,53,55,57,59,61,63,65,67,69,71,-1,73,75,77,79,81,83,-1,85,-1,-1,-1,-1,-1,-1,-1,-1,-1,-1,-1,-1,-1,-1,-1,-1,-1,-1,-1,-1,-1,-1,-1,-1,-1,-1,-1,-1,-1,-1,-1,-1,-1,-1,-1,-1,-1,-1],"loss_changes":[5.7312264E0,1.4093797E0,1.3352928E0,8.320677E-2,2.7139884E-1,1.12853765E-1,1.9180822E-1,3.9958954E-4,3.2371543E-2,1.1443722E-1,7.897937E-2,3.62072E-2,3.6168337E-2,0E0,1.1210918E-2,0E0,1.2861174E-3,1.6889516E-2,2.4143066E-2,2.2830412E-2,8.712673E-2,5.3707153E-2,2.8399631E-2,1.6363502E-2,2.4385512E-2,0E0,2.796036E-2,0E0,2.3953438E-2,4.7253496E-5,9.1323815E-4,5.6538135E-3,3.3687302E-3,1.0290589E-2,7.958742E-3,7.326588E-3,7.227823E-3,2.0603448E-2,4.13467E-2,2.330853E-2,0E0,1.9113213E-2,5.569E-3,7.889047E-4,1.9359589E-4,2.0517968E-3,1.2855232E-2,0E0,4.912615E-3,0E0,0E0,0E0,0E0,0E0,0E0,0E0,0E0,0E0,0E0,0E0,0E0,0E0,0E0,0E0,0E0,0E0,0E0,0E0,0E0,0E0,0E0,0E0,0E0,0E0,0E0,0E0,0E0,0E0,0E0,0E0,0E0,0E0,0E0,0E0,0E0,0E0,0E0],"parents":[2147483647,0,0,1,1,2,2,3,3,4,4,5,5,6,6,7,7,8,8,9,9,10,10,11,11,12,12,14,14,16,16,17,17,18,18,19,19,20,20,21,21,22,22,23,23,24,24,26,26,28,28,29,29,30,30,31,31,32,32,33,33,34,34,35,35,36,36,37,37,38,38,39,39,41,41,42,42,43,43,44,44,45,45,46,46,48,48],"right_children":[2,4,6,8,10,12,14,16,18,20,22,24,26,-1,28,-1,30,32,34,36,38,40,42,44,46,-1,48,-1,50,52,54,56,58,60,62,64,66,68,70,72,-1,74,76,78,80,82,84,-1,86,-1,-1,-1,-1,-1,-1,-1,-1,-1,-1,-1,-1,-1,-1,-1,-1,-1,-1,-1,-1,-1,-1,-1,-1,-1,-1,-1,-1,-1,-1,-1,-1,-1,-1,-1,-1,-1,-1],"split_conditions":[2.6512564E2,6.3213956E-1,8.800701E2,3.6049506E-1,2.0195446E0,5.201464E2,2.1695623E-6,1.4998847E1,5.210979E-1,3.4027119E-6,4.849539E-6,7.946536E1,3.245E-6,-1.1406206E-4,1.1303436E1,-9.7214757E-4,4.25E-6,5.053566E-1,1.771593E1,1.2300947E-1,1.1450872E0,4.413642E0,3.3992117E2,1.0287562E-1,3.338564E2,1.3251564E-2,6.605867E-2,1.6267607E-2,2.720526E-1,3.2988457E-6,1.4495922E-6,1.7431067E1,7.1246895E-6,3.9249735E-6,2.924E-5,9.467331E-2,9.3632266E-2,8.82148E-1,4.95E-6,1.3933777E-6,1.2383058E-2,1.7932063E-6,7.820172E-2,5.0473295E-6,3.860369E0,8.2588956E-2,4.38933E-6,1.1848389E-2,4.599386E-6,1.0452408E-2,2.7177451E-2,1.3108132E-5,4.4778013E-4,-5.85745E-4,-9.786766E-4,-7.6081976E-4,-3.4885094E-4,-3.5035062E-6,1.1243646E-3,4.2928397E-3,-6.3551194E-4,-4.143741E-5,1.0948086E-3,7.5464956E-3,3.277148E-3,1.617372E-5,3.3169754E-3,4.3179994E-4,1.1472956E-3,5.8453563E-3,1.8630828E-3,2.376481E-3,7.017175E-3,4.3909103E-3,8.8738714E-4,2.9789533E-3,-1.1153577E-5,5.1854937E-3,1.3350014E-3,2.701798E-3,9.3882065E-3,3.6187358E-3,1.5304012E-3,6.609898E-3,2.574927E-3,1.2321556E-3,6.5154904E-3],"split_indices":[32,31,32,31,31,32,13,32,24,0,0,33,2,0,31,0,14,31,33,25,31,31,33,25,32,0,27,0,24,0,5,32,21,0,15,27,27,31,3,5,0,1,25,0,33,27,13,0,0,0,0,0,0,0,0,0,0,0,0,0,0,0,0,0,0,0,0,0,0,0,0,0,0,0,0,0,0,0,0,0,0,0,0,0,0,0,0],"split_type":[0,0,0,0,0,0,0,0,0,0,0,0,0,0,0,0,0,0,0,0,0,0,0,0,0,0,0,0,0,0,0,0,0,0,0,0,0,0,0,0,0,0,0,0,0,0,0,0,0,0,0,0,0,0,0,0,0,0,0,0,0,0,0,0,0,0,0,0,0,0,0,0,0,0,0,0,0,0,0,0,0,0,0,0,0,0,0],"sum_hessian":[3.875E3,3.751E3,1.24E2,3.041E3,7.1E2,1.01E2,2.3E1,2.479E3,5.62E2,6.43E2,6.7E1,7E1,3.1E1,1E0,2.2E1,2.394E3,8.5E1,4.92E2,7E1,2.2E1,6.21E2,1.8E1,4.9E1,2.6E1,4.4E1,1.2E1,1.9E1,1E1,1.2E1,2E0,8.3E1,3.64E2,1.28E2,6E0,6.4E1,1.1E1,1.1E1,4.1E2,2.11E2,1.4E1,4E0,4.1E1,8E0,7E0,1.9E1,1.2E1,3.2E1,5E0,1.4E1,2E0,1E1,1E0,1E0,2.9E1,5.4E1,2.29E2,1.35E2,1.22E2,6E0,5E0,1E0,4E1,2.4E1,7E0,4E0,2E0,9E0,2.28E2,1.82E2,6E0,2.05E2,6E0,8E0,3.6E1,5E0,1E0,7E0,6E0,1E0,1E0,1.8E1,8E0,4E0,2.8E1,4E0,1E0,1.3E1],"tree_param":{"num_deleted":"0","num_feature":"34","num_nodes":"87","size_leaf_vector":"1"}},{"base_weights":[-6.7930983E-4,-6.144107E-3,2.2380054E-1,-1.3004725E-2,3.315058E-2,1.6554879E-1,4.016221E-1,-6.012399E-3,-1.743133E-2,2.3174224E-2,7.439934E-2,1.4951942E-2,1.4627583E-1,-1.1121053E-4,4.209588E-1,-1.6149214E-2,9.5878926E-4,-1.8013705E-2,-3.2631392E-3,1.4169562E-2,3.4042474E-2,1.15962036E-1,5.639414E-2,1.2143384E-1,1.8527965E-1,4.302027E-1,5.9020175E-3,-9.057751E-4,-1.2547434E-2,-7.379167E-4,6.5472454E-2,-1.48084285E-2,-1.8224338E-2,2.9283004E-2,-8.958588E-3,2.299996E-2,7.6165134E-3,6.691434E-2,2.9105192E-2,1.6416897E-1,7.882943E-2,2.2074249E-2,6.707217E-2,1.276446E-1,1.5260217E-3,1.846135E-3,1.9765067E-1,1.4345174E-2,2.4264716E-2,-7.031806E-4,-6.9432535E-5,5.328762E-4,-2.1708389E-4,1.4491381E-2,2.6458193E-4,-3.2263694E-4,-9.1155636E-4,-9.233116E-4,-8.2356576E-4,2.171794E-3,-4.9408566E-4,1.966018E-4,-7.0186204E-4,2.562923E-3,8.5131667E-4,8.5995015E-4,1.5662017E-4,5.724952E-3,1.9702264E-3,1.7292028E-3,5.692257E-4,4.636577E-3,9.280771E-3,2.2378126E-3,5.775075E-3,1.5951152E-3,-3.67663E-5,-6.2729884E-4,3.5042947E-3,2.271589E-6,6.550064E-3,4.8133447E-3,1.0792146E-2],"categories":[],"categories_nodes":[],"categories_segments":[],"categories_sizes":[],"default_left":[0,0,0,0,0,0,0,0,0,0,0,0,0,0,0,0,0,0,0,0,0,0,0,0,0,0,0,0,0,0,0,0,0,0,0,0,0,0,0,0,0,0,0,0,0,0,0,0,0,0,0,0,0,0,0,0,0,0,0,0,0,0,0,0,0,0,0,0,0,0,0,0,0,0,0,0,0,0,0,0,0,0,0],"id":9,"left_children":[1,3,5,7,9,11,13,15,17,19,21,-1,23,-1,25,27,29,31,33,35,37,39,41,43,45,47,-1,-1,49,51,53,55,57,59,61,63,65,67,69,71,73,75,77,79,-1,-1,81,-1,-1,-1,-1,-1,-1,-1,-1,-1,-1,-1,-1,-1,-1,-1,-1,-1,-1,-1,-1,-1,-1,-1,-1,-1,-1,-1,-1,-1,-1,-1,-1,-1,-1,-1,-1],"loss_changes":[4.7488465E0,1.019196E0,8.8648653E-1,9.949958E-2,2.2954571E-1,1.3892281E-1,1.7273521E-1,8.827686E-2,1.6196132E-2,4.3948337E-2,7.503003E-2,0E0,3.9512515E-2,0E0,8.02207E-3,3.3774972E-3,8.1158705E-2,1.0074377E-3,1.4906162E-2,1.4291335E-2,3.1323478E-2,4.4340193E-2,2.710399E-2,1.981914E-2,3.4914672E-2,1.8659115E-2,0E0,0E0,3.0765943E-3,2.9737312E-2,2.5500196E-1,3.371438E-3,4.4679642E-4,7.0807394E-3,4.5069493E-3,1.7020665E-2,6.1766207E-3,2.9523425E-2,1.7082334E-2,2.7046502E-3,1.9821271E-2,4.5069335E-3,1.50361955E-2,1.6698122E-2,0E0,0E0,1.7953873E-2,0E0,0E0,0E0,0E0,0E0,0E0,0E0,0E0,0E0,0E0,0E0,0E0,0E0,0E0,0E0,0E0,0E0,0E0,0E0,0E0,0E0,0E0,0E0,0E0,0E0,0E0,0E0,0E0,0E0,0E0,0E0,0E0,0E0,0E0,0E0,0E0],"parents":[2147483647,0,0,1,1,2,2,3,3,4,4,5,5,6,6,7,7,8,8,9,9,10,10,12,12,14,14,15,15,16,16,17,17,18,18,19,19,20,20,21,21,22,22,23,23,24,24,25,25,28,28,29,29,30,30,31,31,32,32,33,33,34,34,35,35,36,36,37,37,38,38,39,39,40,40,41,41,42,42,43,43,46,46],"right_children":[2,4,6,8,10,12,14,16,18,20,22,-1,24,-1,26,28,30,32,34,36,38,40,42,44,46,48,-1,-1,50,52,54,56,58,60,62,64,66,68,70,72,74,76,78,80,-1,-1,82,-1,-1,-1,-1,-1,-1,-1,-1,-1,-1,-1,-1,-1,-1,-1,-1,-1,-1,-1,-1,-1,-1,-1,-1,-1,-1,-1,-1,-1,-1,-1,-1,-1,-1,-1,-1],"split_conditions":[3.338564E2,5.2802975E1,8.800701E2,-3.906052E-1,1.6685765E2,6.9099997E-6,4.763796E-12,4.746628E0,1.3608172E1,9.3333664E1,7.946536E1,1.4951942E-2,1.6049469E-6,-1.1121053E-4,2.319886E-5,1.345028E-1,1.9520846E-6,-3.5386446E-1,7.485546E-6,1.6556093E2,2.227652E-5,2.3898108E-5,3.762876E-12,3.495E-5,1.72E-6,3.13E-6,5.9020175E-3,-9.057751E-4,2.694333E-5,1.8660896E2,4.985451E0,4.5895018E-2,6.0979895E-11,2.3398522E-1,7.06E-6,-4.9925372E-1,2.7439999E-5,4.5764484E1,2.7556964E2,8.700413E-2,9.7031474E-2,2.2887577E-6,8.425899E-7,4.09E-6,1.5260217E-3,1.846135E-3,-1.1384999E-1,1.4345174E-2,2.4264716E-2,-7.031806E-4,-6.9432535E-5,5.328762E-4,-2.1708389E-4,1.4491381E-2,2.6458193E-4,-3.2263694E-4,-9.1155636E-4,-9.233116E-4,-8.2356576E-4,2.171794E-3,-4.9408566E-4,1.966018E-4,-7.0186204E-4,2.562923E-3,8.5131667E-4,8.5995015E-4,1.5662017E-4,5.724952E-3,1.9702264E-3,1.7292028E-3,5.692257E-4,4.636577E-3,9.280771E-3,2.2378126E-3,5.775075E-3,1.5951152E-3,-3.67663E-5,-6.2729884E-4,3.5042947E-3,2.271589E-6,6.550064E-3,4.8133447E-3,1.0792146E-2],"split_indices":[32,32,32,28,32,7,29,32,32,32,33,0,1,0,16,32,1,28,8,33,12,12,29,19,2,2,0,0,12,33,32,26,29,25,3,28,15,33,33,25,25,9,1,6,0,0,26,0,0,0,0,0,0,0,0,0,0,0,0,0,0,0,0,0,0,0,0,0,0,0,0,0,0,0,0,0,0,0,0,0,0,0,0],"split_type":[0,0,0,0,0,0,0,0,0,0,0,0,0,0,0,0,0,0,0,0,0,0,0,0,0,0,0,0,0,0,0,0,0,0,0,0,0,0,0,0,0,0,0,0,0,0,0,0,0,0,0,0,0,0,0,0,0,0,0,0,0,0,0,0,0,0,0,0,0,0,0,0,0,0,0,0,0,0,0,0,0,0,0],"sum_hessian":[3.869E3,3.778E3,9.1E1,3.217E3,5.61E2,7E1,2.1E1,1.248E3,1.969E3,4.53E2,1.08E2,7E0,6.3E1,1E0,2E1,5.08E2,7.4E2,1.891E3,7.8E1,2.49E2,2.04E2,3.1E1,7.7E1,4.1E1,2.2E1,1.9E1,1E0,3.26E2,1.82E2,7.22E2,1.8E1,1.21E2,1.77E3,1.1E1,6.7E1,1.05E2,1.44E2,2.5E1,1.79E2,1.2E1,1.9E1,1.9E1,5.8E1,3.8E1,3E0,2E0,2E1,7E0,1.2E1,1.6E2,2.2E1,1.73E2,5.49E2,3E0,1.5E1,3.6E1,8.5E1,1.547E3,2.23E2,8E0,3E0,1.9E1,4.8E1,1.7E1,8.8E1,4.5E1,9.9E1,8E0,1.7E1,1.36E2,4.3E1,4E0,8E0,1.1E1,8E0,1.3E1,6E0,2E0,5.6E1,1E0,3.7E1,4E0,1.6E1],"tree_param":{"num_deleted":"0","num_feature":"34","num_nodes":"83","size_leaf_vector":"1"}},{"base_weights":[8.942505E-4,-3.809684E-3,3.0793223E-1,-9.835895E-3,6.403165E-2,2.0887949E-1,4.395536E-1,-1.3961986E-2,7.038753E-3,4.277317E-2,1.03199996E-1,1.5216763E-2,1.641319E-1,4.5542854E-1,8.830973E-3,-1.7261533E-2,-6.5428587E-3,9.2333526E-4,1.5648765E-2,6.843797E-2,3.4766637E-2,1.6750959E-1,8.3827876E-2,9.3800984E-2,1.9584821E-1,2.3952272E-2,1.1469561E-2,-1.3984845E-2,-1.7436335E-2,-1.552096E-2,5.3810454E-3,3.865441E-2,-7.451105E-4,3.093963E-2,1.2563391E-2,1.1249634E-1,5.0118066E-2,3.859098E-2,3.302766E-3,1.8851621E-3,1.7759639E-1,9.1428615E-2,2.4383945E-2,1.0376001E-3,9.961176E-2,1.6296025E-3,2.0401472E-1,-8.588279E-4,2.0238624E-3,-8.734241E-4,-3.2799778E-4,-8.7635027E-4,-5.988638E-4,1.236058E-3,-4.7820466E-4,8.5515185E-4,5.221031E-3,-3.927599E-4,1.9133347E-4,8.9705776E-4,2.5442443E-3,-5.7546375E-4,6.9462555E-4,1.6396113E-3,6.200345E-3,2.674307E-3,-1.818372E-4,7.65818E-6,2.1110845E-3,-2.965751E-4,1.4249082E-3,9.075706E-3,2.3830996E-3,1.3385895E-3,4.8331474E-3,1.4975521E-4,1.8089134E-3,5.3122295E-3,1.1637288E-3,1.0582766E-2,2.2351462E-3],"categories":[],"categories_nodes":[],"categories_segments":[],"categories_sizes":[],"default_left":[0,0,0,0,0,0,0,0,0,0,0,0,0,0,0,0,0,0,0,0,0,0,0,0,0,0,0,0,0,0,0,0,0,0,0,0,0,0,0,0,0,0,0,0,0,0,0,0,0,0,0,0,0,0,0,0,0,0,0,0,0,0,0,0,0,0,0,0,0,0,0,0,0,0,0,0,0,0,0,0,0],"id":10,"left_children":[1,3,5,7,9,11,13,15,17,19,21,-1,23,25,-1,27,29,31,33,35,37,39,41,43,45,-1,-1,47,49,51,53,55,57,59,61,63,65,67,69,-1,71,73,75,-1,77,-1,79,-1,-1,-1,-1,-1,-1,-1,-1,-1,-1,-1,-1,-1,-1,-1,-1,-1,-1,-1,-1,-1,-1,-1,-1,-1,-1,-1,-1,-1,-1,-1,-1,-1,-1],"loss_changes":[5.551566E0,1.5484459E0,6.643586E-1,2.4225867E-1,2.5287747E-1,9.954846E-2,1.9740105E-2,6.8307936E-2,3.6000766E-2,3.912881E-2,1.2050593E-1,0E0,3.9625823E-2,7.5531006E-3,0E0,8.639097E-4,9.236408E-2,2.5272654E-2,1.3009869E-2,3.2297745E-2,1.8643796E-2,2.4728E-2,3.617513E-2,2.1775737E-3,1.6015649E-2,0E0,0E0,1.859947E-2,5.259514E-4,3.287591E-3,1.0747053E-1,2.2309074E-2,1.2544774E-2,1.1272188E-2,7.7748112E-3,7.8602135E-3,6.531261E-3,1.9391894E-2,4.3569356E-3,0E0,2.5476813E-3,2.2794783E-2,2.6665782E-3,0E0,2.0841882E-3,0E0,1.0014236E-2,0E0,0E0,0E0,0E0,0E0,0E0,0E0,0E0,0E0,0E0,0E0,0E0,0E0,0E0,0E0,0E0,0E0,0E0,0E0,0E0,0E0,0E0,0E0,0E0,0E0,0E0,0E0,0E0,0E0,0E0,0E0,0E0,0E0,0E0],"parents":[2147483647,0,0,1,1,2,2,3,3,4,4,5,5,6,6,7,7,8,8,9,9,10,10,12,12,13,13,15,15,16,16,17,17,18,18,19,19,20,20,21,21,22,22,23,23,24,24,27,27,28,28,29,29,30,30,31,31,32,32,33,33,34,34,35,35,36,36,37,37,38,38,40,40,41,41,42,42,44,44,46,46],"right_children":[2,4,6,8,10,12,14,16,18,20,22,-1,24,26,-1,28,30,32,34,36,38,40,42,44,46,-1,-1,48,50,52,54,56,58,60,62,64,66,68,70,-1,72,74,76,-1,78,-1,80,-1,-1,-1,-1,-1,-1,-1,-1,-1,-1,-1,-1,-1,-1,-1,-1,-1,-1,-1,-1,-1,-1,-1,-1,-1,-1,-1,-1,-1,-1,-1,-1,-1,-1],"split_conditions":[5.201464E2,1.0712626E2,8.800701E2,1.6414524E1,2.2254553E2,4.0095365E-6,1.2224999E-5,2.640514E-1,5.542122E1,5.6999997E-6,5.7656963E1,1.5216763E-2,-4.7076352E-2,1.7223927E-1,8.830973E-3,-9.0875447E-1,4.746628E0,1.1685491E1,2.2354374E-5,2.2619317E-5,1.2409871E-1,2.3046496E-6,2.8744998E-5,7.6092992E-6,4.2312054E-6,2.3952272E-2,1.1469561E-2,7.0185E-6,1.4998847E1,1.971169E-1,4.985451E0,5.6845754E-1,3.5668883E-1,3.7700377E-6,2.3871595E-1,1.8624167E-5,1.5289725E-5,-1.7056777E-1,4.67E-6,1.8851621E-3,2.921147E-5,1.7670509E-5,3.286445E-1,1.0376001E-3,4.9024998E-6,1.6296025E-3,2.1675712E-6,-8.588279E-4,2.0238624E-3,-8.734241E-4,-3.2799778E-4,-8.7635027E-4,-5.988638E-4,1.236058E-3,-4.7820466E-4,8.5515185E-4,5.221031E-3,-3.927599E-4,1.9133347E-4,8.9705776E-4,2.5442443E-3,-5.7546375E-4,6.9462555E-4,1.6396113E-3,6.200345E-3,2.674307E-3,-1.818372E-4,7.65818E-6,2.1110845E-3,-2.965751E-4,1.4249082E-3,9.075706E-3,2.3830996E-3,1.3385895E-3,4.8331474E-3,1.4975521E-4,1.8089134E-3,5.3122295E-3,1.1637288E-3,1.0582766E-2,2.2351462E-3],"split_indices":[32,32,32,32,32,0,22,24,32,10,33,0,26,25,0,24,32,33,12,12,25,21,23,4,0,0,0,19,32,32,32,24,24,21,24,19,20,26,2,0,12,16,24,0,2,0,1,0,0,0,0,0,0,0,0,0,0,0,0,0,0,0,0,0,0,0,0,0,0,0,0,0,0,0,0,0,0,0,0,0,0],"split_type":[0,0,0,0,0,0,0,0,0,0,0,0,0,0,0,0,0,0,0,0,0,0,0,0,0,0,0,0,0,0,0,0,0,0,0,0,0,0,0,0,0,0,0,0,0,0,0,0,0,0,0,0,0,0,0,0,0,0,0,0,0,0,0,0,0,0,0,0,0,0,0,0,0,0,0,0,0,0,0,0,0],"sum_hessian":[3.842E3,3.785E3,5.7E1,3.477E3,3.08E2,3.4E1,2.3E1,2.794E3,6.83E2,2.01E2,1.07E2,9E0,2.5E1,2.1E1,2E0,1.933E3,8.61E2,4E2,2.83E2,4.6E1,1.55E2,2.3E1,8.4E1,9E0,1.6E1,1.8E1,3E0,1.02E2,1.831E3,4.91E2,3.7E2,1.6E1,3.84E2,4.6E1,2.37E2,1.2E1,3.4E1,1.38E2,1.7E1,2E0,2.1E1,7.4E1,1E1,1E0,8E0,1E0,1.5E1,9.7E1,5E0,1.825E3,6E0,3.11E2,1.8E2,1.61E2,2.09E2,1.3E1,3E0,1.5E2,2.34E2,2.9E1,1.7E1,1.2E1,2.25E2,2E0,1E1,3.2E1,2E0,1.2E1,1.26E2,1.3E1,4E0,2E1,1E0,6E0,6.8E1,4E0,6E0,7E0,1E0,1.4E1,1E0],"tree_param":{"num_deleted":"0","num_feature":"34","num_nodes":"81","size_leaf_vector":"1"}},{"base_weights":[5.500945E-4,-5.2133934E-3,2.1300268E-1,-1.3853594E-2,3.7899602E-2,1.4077486E-1,3.4150994E-1,-1.5920287E-2,1.9608976E-3,2.987218E-2,1.3009913E-1,2.087052E-1,1.20556355E-1,2.504406E-1,4.667303E-1,-1.6266966E-2,2.5198888E-3,5.7337858E-2,-4.2481968E-4,1.0912113E-1,2.7280806E-2,2.4378748E-1,9.178223E-2,1.2129197E-3,1.105137E-2,7.470877E-2,1.3473529E-1,1.4864919E-2,1.0086591E-1,4.8149085E-1,6.8710805E-3,-1.6684182E-2,-1.2022196E-2,3.2751467E-2,-9.479941E-3,7.958386E-2,1.0704869E-2,2.8371299E-2,-1.5343885E-3,6.760019E-2,1.5257229E-1,1.8747523E-2,4.4851117E-2,2.6095377E-3,1.3844388E-2,1.5448928E-1,6.483189E-2,-3.1249972E-5,8.013439E-2,4.2124392E-4,1.37758E-1,5.698646E-3,6.889654E-3,1.0426999E-2,2.5608007E-2,-8.41315E-4,-7.496671E-4,-1.2483452E-4,-6.6888623E-4,4.328919E-3,6.0399366E-4,-1.21853E-3,-2.0091682E-4,1.9739761E-3,5.589615E-3,3.5756036E-6,1.0657194E-3,-1.6085698E-5,2.6505634E-3,4.5406177E-5,-3.750197E-4,1.7441126E-3,3.7754567E-3,2.0904203E-3,8.121153E-3,5.0721405E-4,1.2250749E-3,1.119677E-3,2.6114078E-3,9.3894135E-3,3.8486419E-3,4.021527E-3,1.0615747E-3,4.401721E-3,1.091142E-3,3.3635322E-3,7.194584E-3,1.1346355E-3,-7.0723705E-4],"categories":[],"categories_nodes":[],"categories_segments":[],"categories_sizes":[],"default_left":[0,0,0,0,0,0,0,0,0,0,0,0,0,0,0,0,0,0,0,0,0,0,0,0,0,0,0,0,0,0,0,0,0,0,0,0,0,0,0,0,0,0,0,0,0,0,0,0,0,0,0,0,0,0,0,0,0,0,0,0,0,0,0,0,0,0,0,0,0,0,0,0,0,0,0,0,0,0,0,0,0,0,0,0,0,0,0,0,0],"id":11,"left_children":[1,3,5,7,9,11,13,15,17,19,21,23,25,27,29,31,33,35,37,39,41,43,45,-1,-1,47,49,-1,51,53,-1,55,57,59,61,63,65,67,69,71,73,75,77,-1,-1,79,81,-1,83,-1,85,87,-1,-1,-1,-1,-1,-1,-1,-1,-1,-1,-1,-1,-1,-1,-1,-1,-1,-1,-1,-1,-1,-1,-1,-1,-1,-1,-1,-1,-1,-1,-1,-1,-1,-1,-1,-1,-1],"loss_changes":[4.728781E0,1.4011436E0,8.9866734E-1,1.0242921E-1,4.6091175E-1,6.686032E-2,2.936468E-1,1.7755568E-2,4.7981653E-2,1.1592871E-1,1.9543391E-1,2.645731E-2,2.5037825E-2,1.3121367E-1,1.8835068E-3,4.616499E-3,1.917472E-2,1.4709026E-2,1.1194528E-2,2.216047E-2,8.342117E-2,6.1651886E-2,5.5893242E-2,0E0,0E0,6.1810687E-3,1.41114E-2,0E0,2.3814566E-2,2.0196438E-3,0E0,3.4219027E-4,3.1558871E-3,1.5644463E-2,2.9924926E-3,8.503474E-3,6.753647E-4,9.207989E-3,4.917589E-3,2.1247938E-4,1.9382387E-3,1.8562526E-2,2.9148102E-2,0E0,0E0,1.3938785E-2,1.8015452E-2,0E0,4.52812E-3,0E0,7.181883E-3,1.3326419E-3,0E0,0E0,0E0,0E0,0E0,0E0,0E0,0E0,0E0,0E0,0E0,0E0,0E0,0E0,0E0,0E0,0E0,0E0,0E0,0E0,0E0,0E0,0E0,0E0,0E0,0E0,0E0,0E0,0E0,0E0,0E0,0E0,0E0,0E0,0E0,0E0,0E0],"parents":[2147483647,0,0,1,1,2,2,3,3,4,4,5,5,6,6,7,7,8,8,9,9,10,10,11,11,12,12,13,13,14,14,15,15,16,16,17,17,18,18,19,19,20,20,21,21,22,22,25,25,26,26,28,28,29,29,31,31,32,32,33,33,34,34,35,35,36,36,37,37,38,38,39,39,40,40,41,41,42,42,45,45,46,46,48,48,50,50,51,51],"right_children":[2,4,6,8,10,12,14,16,18,20,22,24,26,28,30,32,34,36,38,40,42,44,46,-1,-1,48,50,-1,52,54,-1,56,58,60,62,64,66,68,70,72,74,76,78,-1,-1,80,82,-1,84,-1,86,88,-1,-1,-1,-1,-1,-1,-1,-1,-1,-1,-1,-1,-1,-1,-1,-1,-1,-1,-1,-1,-1,-1,-1,-1,-1,-1,-1,-1,-1,-1,-1,-1,-1,-1,-1,-1,-1],"split_conditions":[3.338564E2,7.108757E-1,6.7801843E2,4.5874655E-1,2.5107412E0,1.6676091E-5,1.1303436E1,4.906248E1,-2.1459219E-1,3.4027119E-6,4.985451E0,6.1245E-7,2.5107412E0,9.810957E-6,2.56653E-6,3.6049506E-1,7.95E-6,5.6549998E-6,7.6099996E-6,2.3708053E-5,1.0712626E2,4.1774347E-6,8.67332E1,1.2129197E-3,1.105137E-2,6.2096383E-6,1.095E-6,1.4864919E-2,6.630058E-6,3.0082092E-6,6.8710805E-3,3.0915406E-1,4.74E-6,7.691567E1,2.423047E-5,5.754189E-1,-2.4008542E-1,2.4720834E-5,5.8896217E-6,8.82148E-1,1.8329123E-6,9.581226E-1,2.0929654E-6,2.6095377E-3,1.3844388E-2,2.2056422E-5,1.5811744E-6,-3.1249972E-5,6.119785E-6,4.2124392E-4,2.187925E-6,6.3484026E-6,6.889654E-3,1.0426999E-2,2.5608007E-2,-8.41315E-4,-7.496671E-4,-1.2483452E-4,-6.6888623E-4,4.328919E-3,6.0399366E-4,-1.21853E-3,-2.0091682E-4,1.9739761E-3,5.589615E-3,3.5756036E-6,1.0657194E-3,-1.6085698E-5,2.6505634E-3,4.5406177E-5,-3.750197E-4,1.7441126E-3,3.7754567E-3,2.0904203E-3,8.121153E-3,5.0721405E-4,1.2250749E-3,1.119677E-3,2.6114078E-3,9.3894135E-3,3.8486419E-3,4.021527E-3,1.0615747E-3,4.401721E-3,1.091142E-3,3.3635322E-3,7.194584E-3,1.1346355E-3,-7.0723705E-4],"split_indices":[32,31,32,31,31,16,31,32,26,0,32,1,31,4,1,31,7,6,7,12,32,21,33,0,0,4,2,0,0,13,0,31,6,33,12,31,26,19,0,31,0,31,13,0,0,16,1,0,0,0,13,0,0,0,0,0,0,0,0,0,0,0,0,0,0,0,0,0,0,0,0,0,0,0,0,0,0,0,0,0,0,0,0,0,0,0,0,0,0],"split_type":[0,0,0,0,0,0,0,0,0,0,0,0,0,0,0,0,0,0,0,0,0,0,0,0,0,0,0,0,0,0,0,0,0,0,0,0,0,0,0,0,0,0,0,0,0,0,0,0,0,0,0,0,0,0,0,0,0,0,0,0,0,0,0,0,0,0,0,0,0,0,0,0,0,0,0,0,0,0,0,0,0,0,0,0,0,0,0,0,0],"sum_hessian":[3.86E3,3.759E3,1.01E2,3.132E3,6.27E2,6.6E1,3.5E1,2.77E3,3.62E2,5.78E2,4.9E1,1.3E1,5.3E1,2.2E1,1.3E1,2.719E3,5.1E1,1.4E1,3.48E2,1.7E1,5.61E2,1.1E1,3.8E1,1E0,1.2E1,1.4E1,3.9E1,1.6E1,6E0,1.2E1,1E0,2.473E3,2.46E2,1.4E1,3.7E1,9E0,5E0,1.2E1,3.36E2,1E1,7E0,3.79E2,1.82E2,2E0,9E0,1E1,2.8E1,1E0,1.3E1,1E0,3.8E1,2E0,4E0,2E0,1E1,2.273E3,2E2,3.1E1,2.15E2,3E0,1.1E1,9E0,2.8E1,5E0,4E0,3E0,2E0,6E0,6E0,2.39E2,9.7E1,3E0,7E0,1E0,6E0,1.53E2,2.26E2,4.6E1,1.36E2,6E0,4E0,2E1,8E0,1.1E1,2E0,4E0,3.4E1,1E0,1E0],"tree_param":{"num_deleted":"0","num_feature":"34","num_nodes":"89","size_leaf_vector":"1"}},{"base_weights":[-3.806637E-6,-4.8505915E-3,2.1648596E-1,-9.454723E-3,4.5069437E-2,1.4864339E-1,3.2208505E-1,-1.5451462E-2,-1.8227481E-3,3.1616434E-2,6.718774E-2,1.264323E-2,1.21578485E-1,3.590098E-1,1.0224287E-1,-1.5686337E-2,-9.451866E-3,-1.3627597E-2,4.427316E-3,4.1771073E-2,1.9829117E-2,3.997854E-2,8.566306E-2,9.7136475E-2,1.5468423E-1,1.4690525E-2,2.2023378E-2,-6.8955607E-4,6.410395E-3,-1.3536547E-2,-7.923835E-4,1.5275775E-3,-1.0966364E-2,-1.4351931E-2,7.981916E-4,9.1493605E-3,-6.7285155E-3,5.576346E-2,3.2087203E-2,1.3618542E-2,3.840878E-2,6.8862006E-2,2.4360968E-2,1.0329814E-1,5.5521205E-2,1.08680986E-1,4.697708E-2,1.7769216E-1,6.3926786E-2,-7.857405E-4,1.8139126E-3,-1.3287169E-4,-6.534704E-4,-7.897027E-4,-6.0113525E-4,-5.9811666E-4,7.2394474E-4,8.587463E-5,7.226804E-4,-6.1213697E-4,1.4663096E-4,4.693312E-3,2.2018666E-3,1.3718891E-3,3.3345649E-3,1.0401935E-3,-2.4110987E-4,2.629863E-3,-5.2790705E-4,9.511703E-4,3.7119463E-3,-4.43363E-4,1.3931323E-3,7.7814474E-3,4.6158503E-3,3.3300233E-3,6.38453E-4,1.5404101E-3,5.746393E-3,2.6034254E-3,4.1071288E-4,9.291758E-3,1.9994031E-3,3.577462E-3,8.359239E-4],"categories":[],"categories_nodes":[],"categories_segments":[],"categories_sizes":[],"default_left":[0,0,0,0,0,0,0,0,0,0,0,0,0,0,0,0,0,0,0,0,0,0,0,0,0,0,0,0,0,0,0,0,0,0,0,0,0,0,0,0,0,0,0,0,0,0,0,0,0,0,0,0,0,0,0,0,0,0,0,0,0,0,0,0,0,0,0,0,0,0,0,0,0,0,0,0,0,0,0,0,0,0,0,0,0],"id":12,"left_children":[1,3,5,7,9,11,13,15,17,19,21,-1,23,25,27,29,31,33,35,37,39,41,43,45,47,-1,-1,-1,-1,49,-1,-1,51,53,55,57,59,61,63,65,67,69,71,73,75,77,79,81,83,-1,-1,-1,-1,-1,-1,-1,-1,-1,-1,-1,-1,-1,-1,-1,-1,-1,-1,-1,-1,-1,-1,-1,-1,-1,-1,-1,-1,-1,-1,-1,-1,-1,-1,-1,-1],"loss_changes":[4.0250363E0,8.6277986E-1,5.539098E-1,1.5722713E-1,9.220153E-2,1.18756175E-1,2.2305775E-1,2.56297E-3,1.1169108E-1,2.299121E-2,5.6396365E-2,0E0,2.0578086E-2,1.3982773E-2,1.9845083E-2,4.2706728E-4,4.878923E-3,5.486779E-3,5.221311E-2,1.2573749E-2,1.0323621E-2,2.087693E-2,3.1473577E-2,1.1108309E-2,2.4139106E-2,0E0,0E0,0E0,0E0,1.5327418E-2,0E0,0E0,1.2408737E-3,1.4862642E-3,4.712098E-3,2.7411822E-2,1.5751634E-2,1.4631897E-2,8.627921E-3,9.6405195E-3,1.6534958E-2,3.1433553E-3,4.2031184E-3,1.0342807E-2,1.24121085E-2,7.1614087E-3,9.5380377E-4,7.146001E-3,6.0302205E-4,0E0,0E0,0E0,0E0,0E0,0E0,0E0,0E0,0E0,0E0,0E0,0E0,0E0,0E0,0E0,0E0,0E0,0E0,0E0,0E0,0E0,0E0,0E0,0E0,0E0,0E0,0E0,0E0,0E0,0E0,0E0,0E0,0E0,0E0,0E0,0E0],"parents":[2147483647,0,0,1,1,2,2,3,3,4,4,5,5,6,6,7,7,8,8,9,9,10,10,12,12,13,13,14,14,15,15,16,16,17,17,18,18,19,19,20,20,21,21,22,22,23,23,24,24,29,29,32,32,33,33,34,34,35,35,36,36,37,37,38,38,39,39,40,40,41,41,42,42,43,43,44,44,45,45,46,46,47,47,48,48],"right_children":[2,4,6,8,10,12,14,16,18,20,22,-1,24,26,28,30,32,34,36,38,40,42,44,46,48,-1,-1,-1,-1,50,-1,-1,52,54,56,58,60,62,64,66,68,70,72,74,76,78,80,82,84,-1,-1,-1,-1,-1,-1,-1,-1,-1,-1,-1,-1,-1,-1,-1,-1,-1,-1,-1,-1,-1,-1,-1,-1,-1,-1,-1,-1,-1,-1,-1,-1,-1,-1,-1,-1],"split_conditions":[3.552374E2,9.3333664E1,6.7801843E2,2.3257676E-1,1.6685765E2,1.6548709E-5,1.804E-5,1.00473385E1,4.746628E0,2.874E-5,2.4454948E-6,1.264323E-2,2.3855E-5,1.6221248E3,2.1695623E-6,-4.678827E-1,1.8199999E-5,2.4649999E-5,3.547591E2,9.958856E1,3.167E-5,2.3195E-5,2.7924622E2,2.2E-5,2.2895E-5,1.4690525E-2,2.2023378E-2,-6.8955607E-4,6.410395E-3,9.6584823E-11,-7.923835E-4,1.5275775E-3,1.27311806E2,6.77925E-2,1.345028E-1,2.8189997E-5,3.2118397E1,2.613E-5,6.490339E2,2.55175E-5,-3.846901E-1,1.0442652E-6,1.8275183E-5,2.7890533E-6,4.13E-6,7.119676E-6,1.6861501E-6,3.060075E-5,6.3845196E-6,-7.857405E-4,1.8139126E-3,-1.3287169E-4,-6.534704E-4,-7.897027E-4,-6.0113525E-4,-5.9811666E-4,7.2394474E-4,8.587463E-5,7.226804E-4,-6.1213697E-4,1.4663096E-4,4.693312E-3,2.2018666E-3,1.3718891E-3,3.3345649E-3,1.0401935E-3,-2.4110987E-4,2.629863E-3,-5.2790705E-4,9.511703E-4,3.7119463E-3,-4.43363E-4,1.3931323E-3,7.7814474E-3,4.6158503E-3,3.3300233E-3,6.38453E-4,1.5404101E-3,5.746393E-3,2.6034254E-3,4.1071288E-4,9.291758E-3,1.9994031E-3,3.577462E-3,8.359239E-4],"split_indices":[32,32,32,24,32,16,18,32,32,15,13,0,23,32,13,24,19,14,33,33,15,14,33,23,18,0,0,0,0,29,0,0,33,32,32,15,32,15,33,14,28,5,16,13,2,8,1,16,0,0,0,0,0,0,0,0,0,0,0,0,0,0,0,0,0,0,0,0,0,0,0,0,0,0,0,0,0,0,0,0,0,0,0,0,0],"split_type":[0,0,0,0,0,0,0,0,0,0,0,0,0,0,0,0,0,0,0,0,0,0,0,0,0,0,0,0,0,0,0,0,0,0,0,0,0,0,0,0,0,0,0,0,0,0,0,0,0,0,0,0,0,0,0,0,0,0,0,0,0,0,0,0,0,0,0,0,0,0,0,0,0,0,0,0,0,0,0,0,0,0,0,0,0],"sum_hessian":[3.834E3,3.751E3,8.3E1,3.435E3,3.16E2,5.2E1,3.1E1,1.923E3,1.512E3,1.98E2,1.18E2,9E0,4.3E1,2.6E1,5E0,1.849E3,7.4E1,5.23E2,9.89E2,1.05E2,9.3E1,4.9E1,6.9E1,2.7E1,1.6E1,1.7E1,9E0,1E0,4E0,1.35E2,1.714E3,2E0,7.2E1,4.98E2,2.5E1,6.95E2,2.94E2,4.1E1,6.4E1,7.1E1,2.2E1,1.6E1,3.3E1,4.2E1,2.7E1,2.1E1,6E0,1.2E1,4E0,1.3E2,5E0,1.5E1,5.7E1,3.04E2,1.94E2,1.3E1,1.2E1,2.9E2,4.05E2,1.87E2,1.07E2,8E0,3.3E1,5.8E1,6E0,5.1E1,2E1,1.7E1,5E0,2E0,1.4E1,3E0,3E1,5E0,3.7E1,2.1E1,6E0,2E0,1.9E1,5E0,1E0,1.1E1,1E0,3E0,1E0],"tree_param":{"num_deleted":"0","num_feature":"34","num_nodes":"85","size_leaf_vector":"1"}},{"base_weights":[5.947263E-4,-6.2192464E-3,1.4675692E-1,-1.3510466E-2,2.5384972E-2,1.0973362E-1,3.4289277E-1,-1.48797855E-2,-4.0011774E-3,1.1130114E-1,1.9976513E-2,2.3750834E-1,9.556511E-2,2.471683E-1,4.2696768E-1,-7.57015E-4,-9.741416E-3,-6.5902076E-3,1.4537677E-2,1.852699E-1,5.6550335E-2,1.1829891E-2,3.4424614E-2,2.8983422E-2,1.4587196E-2,5.4767437E-2,1.1843944E-1,2.3992786E-3,1.2898405E-2,2.338401E-2,1.0922221E-2,5.2839704E-4,-1.41485715E-2,-9.332979E-3,-1.0458226E-3,-3.5137339E-3,2.2302328E-2,1.0527133E-2,8.250677E-2,7.7126166E-3,7.51143E-2,4.4965304E-2,1.0151936E-2,2.1196937E-2,4.7251854E-2,-4.897912E-4,2.2587555E-3,8.450361E-2,2.8385311E-2,1.031437E-1,1.6014344E-1,-3.7576506E-4,5.9265614E-4,-7.2514405E-4,4.4348204E-4,-3.836535E-4,-8.757436E-4,-1.1481948E-4,1.0715129E-3,-4.89397E-4,8.093659E-4,-5.834726E-4,1.5141907E-3,1.0673151E-3,4.6230154E-3,-1.4858852E-4,1.3255259E-3,1.3097436E-3,4.8695556E-3,1.4103841E-3,3.968257E-3,4.4049183E-4,2.001416E-3,2.4692398E-3,8.61834E-4,3.0464039E-3,1.7273425E-3,5.0692125E-3,9.8889E-4,1.7981984E-3,-6.834652E-4,5.475313E-3,1.1163778E-3,2.0623987E-3,8.201291E-3],"categories":[],"categories_nodes":[],"categories_segments":[],"categories_sizes":[],"default_left":[0,0,0,0,0,0,0,0,0,0,0,0,0,0,0,0,0,0,0,0,0,0,0,0,0,0,0,0,0,0,0,0,0,0,0,0,0,0,0,0,0,0,0,0,0,0,0,0,0,0,0,0,0,0,0,0,0,0,0,0,0,0,0,0,0,0,0,0,0,0,0,0,0,0,0,0,0,0,0,0,0,0,0,0,0],"id":13,"left_children":[1,3,5,7,9,11,13,15,17,19,21,23,25,27,29,-1,31,33,35,37,39,41,43,45,-1,47,49,-1,-1,-1,-1,51,53,55,57,59,61,-1,63,65,67,69,71,73,75,-1,-1,77,79,81,83,-1,-1,-1,-1,-1,-1,-1,-1,-1,-1,-1,-1,-1,-1,-1,-1,-1,-1,-1,-1,-1,-1,-1,-1,-1,-1,-1,-1,-1,-1,-1,-1,-1,-1],"loss_changes":[3.8681676E0,8.554808E-1,1.2186286E0,3.9212644E-2,3.211896E-1,2.4342811E-1,1.11763954E-1,3.3810735E-3,1.838291E-2,1.5556675E-1,7.680607E-2,1.4987683E-1,1.18564844E-1,1.9888222E-2,8.201361E-3,0E0,5.891362E-3,5.084577E-3,6.6660224E-3,2.6779592E-2,2.2086218E-2,2.2951018E-2,3.904164E-2,2.954133E-3,0E0,3.6826506E-2,3.7703156E-2,0E0,0E0,0E0,0E0,3.732787E-3,8.707922E-4,2.9077958E-3,3.1972905E-3,2.0125671E-3,9.301189E-3,0E0,1.0701306E-3,1.6855358E-3,1.706469E-2,9.290479E-3,1.5766382E-2,1.23212375E-2,1.8572152E-2,0E0,0E0,2.3124933E-2,9.415694E-3,3.0977786E-2,2.9277802E-3,0E0,0E0,0E0,0E0,0E0,0E0,0E0,0E0,0E0,0E0,0E0,0E0,0E0,0E0,0E0,0E0,0E0,0E0,0E0,0E0,0E0,0E0,0E0,0E0,0E0,0E0,0E0,0E0,0E0,0E0,0E0,0E0,0E0,0E0],"parents":[2147483647,0,0,1,1,2,2,3,3,4,4,5,5,6,6,7,7,8,8,9,9,10,10,11,11,12,12,13,13,14,14,16,16,17,17,18,18,19,19,20,20,21,21,22,22,23,23,25,25,26,26,31,31,32,32,33,33,34,34,35,35,36,36,38,38,39,39,40,40,41,41,42,42,43,43,44,44,47,47,48,48,49,49,50,50],"right_children":[2,4,6,8,10,12,14,16,18,20,22,24,26,28,30,-1,32,34,36,38,40,42,44,46,-1,48,50,-1,-1,-1,-1,52,54,56,58,60,62,-1,64,66,68,70,72,74,76,-1,-1,78,80,82,84,-1,-1,-1,-1,-1,-1,-1,-1,-1,-1,-1,-1,-1,-1,-1,-1,-1,-1,-1,-1,-1,-1,-1,-1,-1,-1,-1,-1,-1,-1,-1,-1,-1,-1],"split_conditions":[2.0195446E0,6.1953837E-1,6.7801843E2,4.096477E-1,3.4841116E-6,4.985451E0,1.1303436E1,1.6414524E1,5.126495E-1,7.033593E1,1.1450872E0,1.109224E-6,2.2254553E2,2.6563537E-6,6.351512E-3,-7.57015E-4,1.3443353E-6,5.053566E-1,8.29369E-2,1.3249999E-5,6.945302E-1,1.267E-5,9.56498E1,3.950551E-6,1.4587196E-2,1.7126765E2,5.201464E2,2.3992786E-3,1.2898405E-2,2.338401E-2,1.0922221E-2,4.292551E-6,8.920205E-6,-3.7086767E-1,2.5998936E-6,5.3599997E-6,4.51E-6,1.0527133E-2,2.6078185E-6,2.3260869E-5,2.6701999E-5,5.038731E-1,6.490339E2,6.099142E0,9.63856E-6,-4.897912E-4,2.2587555E-3,8.653694E-2,3.6780448E0,2.8224998E-5,2.1480853E-6,-3.7576506E-4,5.9265614E-4,-7.2514405E-4,4.4348204E-4,-3.836535E-4,-8.757436E-4,-1.1481948E-4,1.0715129E-3,-4.89397E-4,8.093659E-4,-5.834726E-4,1.5141907E-3,1.0673151E-3,4.6230154E-3,-1.4858852E-4,1.3255259E-3,1.3097436E-3,4.8695556E-3,1.4103841E-3,3.968257E-3,4.4049183E-4,2.001416E-3,2.4692398E-3,8.61834E-4,3.0464039E-3,1.7273425E-3,5.0692125E-3,9.8889E-4,1.7981984E-3,-6.834652E-4,5.475313E-3,1.1163778E-3,2.0623987E-3,8.201291E-3],"split_indices":[31,31,32,31,0,32,31,32,24,33,31,1,32,17,26,0,5,31,27,23,31,18,32,0,0,33,32,0,0,0,0,17,17,28,5,3,22,0,0,12,15,24,33,32,8,0,0,27,31,23,13,0,0,0,0,0,0,0,0,0,0,0,0,0,0,0,0,0,0,0,0,0,0,0,0,0,0,0,0,0,0,0,0,0,0],"split_type":[0,0,0,0,0,0,0,0,0,0,0,0,0,0,0,0,0,0,0,0,0,0,0,0,0,0,0,0,0,0,0,0,0,0,0,0,0,0,0,0,0,0,0,0,0,0,0,0,0,0,0,0,0,0,0,0,0,0,0,0,0,0,0,0,0,0,0,0,0,0,0,0,0,0,0,0,0,0,0,0,0,0,0,0,0],"sum_hessian":[3.882E3,3.71E3,1.72E2,3.015E3,6.95E2,1.46E2,2.6E1,2.635E3,3.8E2,4E1,6.55E2,1.3E1,1.33E2,1.4E1,1.2E1,2.506E3,1.29E2,3.34E2,4.6E1,1.6E1,2.4E1,4.2E2,2.35E2,3E0,1E1,4.9E1,8.4E1,1E0,1.3E1,9E0,3E0,3.9E1,9E1,2.23E2,1.11E2,1.4E1,3.2E1,1.2E1,4E0,7E0,1.7E1,1.9E1,4.01E2,1.17E2,1.18E2,1E0,2E0,2.2E1,2.7E1,6.4E1,2E1,2.3E1,1.6E1,8.9E1,1E0,1.87E2,3.6E1,1.06E2,5E0,1.1E1,3E0,6E0,2.6E1,1E0,3E0,5E0,2E0,6E0,1.1E1,1.4E1,5E0,3.85E2,1.6E1,1.3E1,1.04E2,5.5E1,6.3E1,1.7E1,5E0,2.3E1,4E0,5.9E1,5E0,1E0,1.9E1],"tree_param":{"num_deleted":"0","num_feature":"34","num_nodes":"85","size_leaf_vector":"1"}},{"base_weights":[1.9977007E-4,-4.2673633E-3,2.1989892E-1,-1.1025363E-2,3.898161E-2,1.6665177E-1,3.8517284E-1,-1.3477108E-2,7.584134E-3,2.1572463E-1,3.5390332E-2,2.143896E-1,1.1507799E-1,9.737543E-3,2.1283416E-2,-1.3979863E-2,-3.2539046E-3,7.5311735E-2,4.610767E-3,2.3645122E-1,7.2963315E-4,2.5974084E-2,7.4039385E-2,1.5574431E-1,2.8937885E-1,-5.158575E-3,1.2814471E-1,-1.4420481E-2,-1.029268E-2,-4.6821334E-3,4.77463E-3,4.1687198E-2,6.2202383E-3,1.1321022E-2,8.380363E-4,3.3532437E-3,1.246207E-2,1.812721E-2,4.0434983E-2,1.5287718E-1,6.723608E-2,9.188238E-3,1.12149455E-1,1.54497465E-2,1.8400546E-3,8.226987E-4,-1.7847415E-2,1.3936752E-1,4.8646253E-2,-7.256347E-4,-6.5854046E-4,-5.429285E-4,1.2520098E-3,1.4659654E-3,-4.1045208E-4,-1.1637853E-5,2.871814E-3,1.9505109E-4,1.0217791E-3,-2.8468846E-4,1.5485696E-4,2.0152172E-3,7.288597E-4,2.4418647E-3,8.0769975E-4,1.0158264E-3,8.579227E-3,2.8918206E-3,5.4134866E-3,1.9169571E-3,6.290482E-3,-1.1372982E-3,-2.0125802E-4,4.0706857E-3,7.922091E-3,6.643208E-4,3.3895336E-3],"categories":[],"categories_nodes":[],"categories_segments":[],"categories_sizes":[],"default_left":[0,0,0,0,0,0,0,0,0,0,0,0,0,0,0,0,0,0,0,0,0,0,0,0,0,0,0,0,0,0,0,0,0,0,0,0,0,0,0,0,0,0,0,0,0,0,0,0,0,0,0,0,0,0,0,0,0,0,0,0,0,0,0,0,0,0,0,0,0,0,0,0,0,0,0,0,0],"id":14,"left_children":[1,3,5,7,9,11,13,15,17,19,21,23,25,-1,-1,27,29,31,33,35,-1,37,39,41,43,45,47,49,51,53,-1,55,-1,57,59,-1,-1,61,63,65,67,-1,69,-1,-1,-1,71,73,75,-1,-1,-1,-1,-1,-1,-1,-1,-1,-1,-1,-1,-1,-1,-1,-1,-1,-1,-1,-1,-1,-1,-1,-1,-1,-1,-1,-1],"loss_changes":[3.7921848E0,1.1072811E0,6.134381E-1,1.4957213E-1,3.1734872E-1,1.2304962E-1,5.5902958E-2,1.4834166E-2,7.657954E-2,3.8237393E-2,1.8113321E-1,8.6863875E-2,4.9365073E-2,0E0,0E0,4.333973E-3,1.9768575E-2,2.1225601E-2,9.28148E-3,2.7829409E-3,0E0,4.533699E-2,4.228419E-2,2.6002526E-3,4.8083663E-2,1.3906137E-3,1.8201828E-2,9.256601E-5,6.2302686E-3,1.6549796E-2,0E0,7.275576E-3,0E0,8.847445E-3,3.500055E-3,0E0,0E0,2.027572E-2,2.8181404E-2,1.3873011E-2,2.9222697E-2,0E0,5.259186E-3,0E0,0E0,0E0,1.11570815E-4,1.3630927E-2,2.4840226E-3,0E0,0E0,0E0,0E0,0E0,0E0,0E0,0E0,0E0,0E0,0E0,0E0,0E0,0E0,0E0,0E0,0E0,0E0,0E0,0E0,0E0,0E0,0E0,0E0,0E0,0E0,0E0,0E0],"parents":[2147483647,0,0,1,1,2,2,3,3,4,4,5,5,6,6,7,7,8,8,9,9,10,10,11,11,12,12,15,15,16,16,17,17,18,18,19,19,21,21,22,22,23,23,24,24,25,25,26,26,27,27,28,28,29,29,31,31,33,33,34,34,37,37,38,38,39,39,40,40,42,42,46,46,47,47,48,48],"right_children":[2,4,6,8,10,12,14,16,18,20,22,24,26,-1,-1,28,30,32,34,36,-1,38,40,42,44,46,48,50,52,54,-1,56,-1,58,60,-1,-1,62,64,66,68,-1,70,-1,-1,-1,72,74,76,-1,-1,-1,-1,-1,-1,-1,-1,-1,-1,-1,-1,-1,-1,-1,-1,-1,-1,-1,-1,-1,-1,-1,-1,-1,-1,-1,-1],"split_conditions":[3.6780448E0,8.82148E-1,1.1303436E1,5.053566E-1,7.0749998E-6,3.6200001E-6,3.13E-6,3.2118397E1,7.36E-6,3.4027119E-6,1.9002392E0,1.0299999E-5,5.313246E-6,9.737543E-3,2.1283416E-2,3.6401623E-1,2.047278E-1,3.89E-6,7.895532E-6,2.5283905E-6,7.2963315E-4,1.0712626E2,1.7479157E-5,2.9799999E-6,6.080557E-6,4.957802E-6,2.34774E-6,3.163947E-1,6.957295E-1,6.74E-6,4.77463E-3,2.5757501E-5,6.2202383E-3,4.8259115E-1,3.235848E-1,3.3532437E-3,1.246207E-2,-5.1851654E-1,7.845E-6,3.444616E-6,3.9631482E2,9.188238E-3,1.093E-5,1.54497465E-2,1.8400546E-3,8.226987E-4,5.287959E-6,-7.368267E-2,6.1520827E-6,-7.256347E-4,-6.5854046E-4,-5.429285E-4,1.2520098E-3,1.4659654E-3,-4.1045208E-4,-1.1637853E-5,2.871814E-3,1.9505109E-4,1.0217791E-3,-2.8468846E-4,1.5485696E-4,2.0152172E-3,7.288597E-4,2.4418647E-3,8.0769975E-4,1.0158264E-3,8.579227E-3,2.8918206E-3,5.4134866E-3,1.9169571E-3,6.290482E-3,-1.1372982E-3,-2.0125802E-4,4.0706857E-3,7.922091E-3,6.643208E-4,3.3895336E-3],"split_indices":[31,31,31,31,7,2,2,32,7,0,31,7,0,0,0,31,25,6,4,0,0,32,16,2,0,0,5,31,24,7,0,15,0,24,24,0,0,28,6,0,32,0,11,0,0,0,0,26,0,0,0,0,0,0,0,0,0,0,0,0,0,0,0,0,0,0,0,0,0,0,0,0,0,0,0,0,0],"split_type":[0,0,0,0,0,0,0,0,0,0,0,0,0,0,0,0,0,0,0,0,0,0,0,0,0,0,0,0,0,0,0,0,0,0,0,0,0,0,0,0,0,0,0,0,0,0,0,0,0,0,0,0,0,0,0,0,0,0,0,0,0,0,0,0,0,0,0,0,0,0,0,0,0,0,0,0,0],"sum_hessian":[3.862E3,3.786E3,7.6E1,3.275E3,5.11E2,5.9E1,1.7E1,2.894E3,3.81E2,9E0,5.02E2,2.9E1,3E1,4E0,1.3E1,2.758E3,1.36E2,1.5E1,3.66E2,8E0,1E0,4.05E2,9.7E1,1.8E1,1.1E1,3E0,2.7E1,2.461E3,2.97E2,1.35E2,1E0,1E1,5E0,1.31E2,2.35E2,1E0,7E0,2.64E2,1.41E2,6E0,9.1E1,9E0,9E0,1E1,1E0,1E0,2E0,2.3E1,4E0,2.282E3,1.79E2,2.93E2,4E0,1.2E1,1.23E2,3E0,7E0,7.3E1,5.8E1,6E1,1.75E2,3.5E1,2.29E2,1.04E2,3.7E1,1E0,5E0,7.6E1,1.5E1,2E0,7E0,1E0,1E0,7E0,1.6E1,2E0,2E0],"tree_param":{"num_deleted":"0","num_feature":"34","num_nodes":"77","size_leaf_vector":"1"}},{"base_weights":[7.7579665E-4,-4.9301498E-3,1.5137517E-1,-1.0698604E-2,3.4744393E-2,1.04871035E-1,2.715048E-1,-1.2879108E-2,4.862007E-3,2.9807128E-2,2.0829412E-1,1.768077E-1,8.775862E-2,1.9996625E-1,1.863177E-2,-1.32511305E-2,1.1665513E-3,2.676701E-2,1.8248038E-3,2.5478344E-2,6.59493E-2,8.613747E-2,1.68227E-2,6.43816E-2,1.0124794E-2,6.820019E-2,1.0854581E-1,1.1960859E-2,6.4861365E-2,-1.3450704E-2,-6.8035284E-3,2.9766116E-2,-7.7292887E-3,3.414773E-2,1.1641457E-3,3.9937682E-3,-4.3285554E-3,7.932824E-2,2.3544407E-2,1.20846264E-1,5.2290224E-2,7.7380924E-3,1.4010469E-2,7.1139226E-4,3.6681541E-3,2.558444E-2,7.501834E-2,2.0536289E-2,1.1263746E-1,1.9592047E-3,4.4815196E-3,-6.832501E-4,-5.652263E-4,2.610131E-4,-4.6069958E-4,8.9366996E-4,4.163595E-3,1.9240318E-4,-6.3117547E-4,7.50505E-4,2.6247676E-3,-1.8742481E-4,8.5757853E-4,2.9596378E-4,-2.7328922E-4,-6.132832E-4,-1.1958797E-4,2.2435465E-3,4.6742763E-3,2.3273383E-3,1.0440742E-3,-5.238286E-5,7.7911387E-3,1.6040861E-3,4.093045E-3,-8.867485E-4,3.5248057E-3,1.5520743E-3,3.0711023E-4,4.2772307E-3,1.4628113E-3,1.6052462E-3,-6.502457E-5,1.1175316E-3,5.723679E-3,8.826336E-4,-7.3569326E-4],"categories":[],"categories_nodes":[],"categories_segments":[],"categories_sizes":[],"default_left":[0,0,0,0,0,0,0,0,0,0,0,0,0,0,0,0,0,0,0,0,0,0,0,0,0,0,0,0,0,0,0,0,0,0,0,0,0,0,0,0,0,0,0,0,0,0,0,0,0,0,0,0,0,0,0,0,0,0,0,0,0,0,0,0,0,0,0,0,0,0,0,0,0,0,0,0,0,0,0,0,0,0,0,0,0,0,0],"id":15,"left_children":[1,3,5,7,9,11,13,15,17,19,21,23,25,27,-1,29,31,33,35,37,39,41,-1,43,-1,45,47,-1,49,51,53,55,57,59,61,63,65,67,69,71,73,-1,75,-1,-1,77,79,81,83,85,-1,-1,-1,-1,-1,-1,-1,-1,-1,-1,-1,-1,-1,-1,-1,-1,-1,-1,-1,-1,-1,-1,-1,-1,-1,-1,-1,-1,-1,-1,-1,-1,-1,-1,-1,-1,-1],"loss_changes":[3.3426104E0,8.58142E-1,7.6481366E-1,1.11115426E-1,4.016571E-1,1.12508655E-1,2.0763993E-1,1.5017301E-2,2.676272E-2,7.0913285E-2,1.7454118E-1,4.1835368E-2,2.7561784E-2,1.1705893E-1,0E0,3.5075545E-3,1.9311357E-2,9.219661E-3,4.755265E-3,4.1455477E-2,3.042315E-2,3.7429083E-2,0E0,1.2084749E-3,0E0,1.1737019E-2,1.2090981E-2,0E0,1.0730572E-2,1.0928512E-3,2.5406284E-3,9.965571E-3,3.3349788E-3,1.2554985E-2,1.0067783E-3,4.82275E-3,1.4003118E-3,2.6347265E-3,2.3713186E-2,3.8534045E-2,2.1874495E-2,0E0,1.0216054E-2,0E0,0E0,6.58114E-4,1.676546E-2,7.996174E-4,3.7409663E-3,1.0447138E-3,0E0,0E0,0E0,0E0,0E0,0E0,0E0,0E0,0E0,0E0,0E0,0E0,0E0,0E0,0E0,0E0,0E0,0E0,0E0,0E0,0E0,0E0,0E0,0E0,0E0,0E0,0E0,0E0,0E0,0E0,0E0,0E0,0E0,0E0,0E0,0E0,0E0],"parents":[2147483647,0,0,1,1,2,2,3,3,4,4,5,5,6,6,7,7,8,8,9,9,10,10,11,11,12,12,13,13,15,15,16,16,17,17,18,18,19,19,20,20,21,21,23,23,25,25,26,26,28,28,29,29,30,30,31,31,32,32,33,33,34,34,35,35,36,36,37,37,38,38,39,39,40,40,42,42,45,45,46,46,47,47,48,48,49,49],"right_children":[2,4,6,8,10,12,14,16,18,20,22,24,26,28,-1,30,32,34,36,38,40,42,-1,44,-1,46,48,-1,50,52,54,56,58,60,62,64,66,68,70,72,74,-1,76,-1,-1,78,80,82,84,86,-1,-1,-1,-1,-1,-1,-1,-1,-1,-1,-1,-1,-1,-1,-1,-1,-1,-1,-1,-1,-1,-1,-1,-1,-1,-1,-1,-1,-1,-1,-1,-1,-1,-1,-1,-1,-1],"split_conditions":[2.4883731E2,8.82148E-1,6.7801843E2,4.9723598E-1,4.413642E0,1.6676091E-5,1.1303436E1,4.906248E1,4.7699996E-6,2.2162554E0,3.0200067E-6,3.3350868E-6,3.2359297E0,7.5599996E-6,1.863177E-2,4.5874655E-1,7.86E-6,1.3086943E-6,3.4438235E-6,3.4841116E-6,4.5445736E-6,4.849539E-6,1.68227E-2,6.1245E-7,1.0124794E-2,2.1653257E-5,4.1499998E-6,1.1960859E-2,1.2725E-5,7.4511495E0,6.07E-6,4.605E-6,3.5728588E-6,2.8069999E-5,3.6499998E-6,1.7524999E-5,5.3201616E-1,1.5167268E-5,3.324894E1,7.2011535E-6,6.201444E-6,7.7380924E-3,5.313246E-6,7.1139226E-4,3.6681541E-3,2.5885E-5,1.0197201E-5,3.6567103E-6,5.46E-6,6.3484026E-6,4.4815196E-3,-6.832501E-4,-5.652263E-4,2.610131E-4,-4.6069958E-4,8.9366996E-4,4.163595E-3,1.9240318E-4,-6.3117547E-4,7.50505E-4,2.6247676E-3,-1.8742481E-4,8.5757853E-4,2.9596378E-4,-2.7328922E-4,-6.132832E-4,-1.1958797E-4,2.2435465E-3,4.6742763E-3,2.3273383E-3,1.0440742E-3,-5.238286E-5,7.7911387E-3,1.6040861E-3,4.093045E-3,-8.867485E-4,3.5248057E-3,1.5520743E-3,3.0711023E-4,4.2772307E-3,1.4628113E-3,1.6052462E-3,-6.502457E-5,1.1175316E-3,5.723679E-3,8.826336E-4,-7.3569326E-4],"split_indices":[32,31,32,31,31,16,31,32,10,31,9,17,31,6,0,31,7,1,13,0,0,0,0,1,0,12,10,0,7,32,10,3,17,15,10,11,31,16,33,8,0,0,0,0,0,19,4,0,3,0,0,0,0,0,0,0,0,0,0,0,0,0,0,0,0,0,0,0,0,0,0,0,0,0,0,0,0,0,0,0,0,0,0,0,0,0,0],"split_type":[0,0,0,0,0,0,0,0,0,0,0,0,0,0,0,0,0,0,0,0,0,0,0,0,0,0,0,0,0,0,0,0,0,0,0,0,0,0,0,0,0,0,0,0,0,0,0,0,0,0,0,0,0,0,0,0,0,0,0,0,0,0,0,0,0,0,0,0,0,0,0,0,0,0,0,0,0,0,0,0,0,0,0,0,0,0,0],"sum_hessian":[3.888E3,3.747E3,1.41E2,3.272E3,4.75E2,1.03E2,3.8E1,2.87E3,4.02E2,4.63E2,1.2E1,1.8E1,8.5E1,2.4E1,1.4E1,2.796E3,7.4E1,4.8E1,3.54E2,4.15E2,4.8E1,7E0,5E0,4E0,1.4E1,4.6E1,3.9E1,1.8E1,6E0,2.711E3,8.5E1,1.7E1,5.7E1,3.7E1,1.1E1,2.62E2,9.2E1,1.3E1,4.02E2,8E0,4E1,3E0,4E0,1E0,3E0,7E0,3.9E1,2E0,3.7E1,2E0,4E0,2.46E3,2.51E2,1.4E1,7.1E1,1.5E1,2E0,1.7E1,4E1,1.9E1,1.8E1,9E0,2E0,2.18E2,4.4E1,1.7E1,7.5E1,5E0,8E0,4E1,3.62E2,2E0,6E0,2.5E1,1.5E1,3E0,1E0,5E0,2E0,3.1E1,8E0,1E0,1E0,1E0,3.6E1,1E0,1E0],"tree_param":{"num_deleted":"0","num_feature":"34","num_nodes":"87","size_leaf_vector":"1"}},{"base_weights":[9.150339E-5,-4.7389497E-3,1.4454432E-1,-1.1584364E-2,2.4406021E-2,1.0246449E-1,2.5102434E-1,-1.2614125E-2,-7.067831E-4,2.2102546E-2,1.8505141E-1,1.5150438E-1,9.0146825E-2,2.895624E-1,1.2572291E-1,-1.306235E-2,-8.677924E-3,2.1886947E-2,-2.1499547E-3,7.983129E-2,1.9608082E-2,1.2311018E-2,3.1742882E-2,4.865405E-2,1.7006844E-1,5.19781E-2,1.0377528E-1,1.1602031E-2,3.4690657E-1,1.0114535E-2,4.0962614E-2,-1.3071638E-2,-9.721033E-4,-9.353838E-3,1.979145E-2,4.1942894E-2,5.6590876E-3,4.1338493E-4,-7.4067162E-3,4.2981204E-2,1.2187898E-1,1.0257088E-2,3.6169E-2,-1.086697E-3,5.6813136E-2,6.9360755E-4,2.7811984E-3,8.877865E-3,1.8178363E-3,7.2312295E-2,3.5193395E-2,8.729946E-2,1.5028952E-1,1.8046577E-2,5.166431E-3,-7.173009E-4,2.7446772E-3,-6.515069E-4,-1.1552765E-3,5.557295E-4,-6.2863727E-4,-1.0703555E-3,-4.3221563E-4,-6.466498E-4,1.7733913E-3,2.6759593E-4,2.775445E-3,9.401236E-4,-3.1184568E-4,-4.8346887E-5,8.5258187E-4,-5.043677E-4,1.342424E-4,2.7214466E-3,2.3104367E-4,2.8334027E-3,7.2282585E-3,1.5046354E-3,3.597247E-4,1.4831348E-3,3.2608416E-3,8.242998E-4,3.4366853E-3,7.52246E-4,3.879505E-3,-3.3679666E-5,2.0613677E-3,4.610851E-3,1.5741282E-3,8.246983E-3,2.3237912E-3],"categories":[],"categories_nodes":[],"categories_segments":[],"categories_sizes":[],"default_left":[0,0,0,0,0,0,0,0,0,0,0,0,0,0,0,0,0,0,0,0,0,0,0,0,0,0,0,0,0,0,0,0,0,0,0,0,0,0,0,0,0,0,0,0,0,0,0,0,0,0,0,0,0,0,0,0,0,0,0,0,0,0,0,0,0,0,0,0,0,0,0,0,0,0,0,0,0,0,0,0,0,0,0,0,0,0,0,0,0,0,0],"id":16,"left_children":[1,3,5,7,9,11,13,15,17,19,21,23,25,27,29,31,33,35,37,39,41,-1,43,45,47,49,51,-1,53,-1,55,57,59,61,63,65,67,69,71,73,75,77,79,-1,81,-1,-1,-1,-1,83,85,87,89,-1,-1,-1,-1,-1,-1,-1,-1,-1,-1,-1,-1,-1,-1,-1,-1,-1,-1,-1,-1,-1,-1,-1,-1,-1,-1,-1,-1,-1,-1,-1,-1,-1,-1,-1,-1,-1,-1],"loss_changes":[2.7171135E0,7.520341E-1,5.388422E-1,3.4177512E-2,2.612304E-1,4.1915596E-2,1.3260579E-1,4.805535E-3,8.687812E-3,1.0038826E-1,8.596146E-2,2.418387E-2,3.4139752E-2,5.2657127E-3,5.661273E-2,2.681017E-4,5.7270657E-3,4.9700835E-3,3.371778E-3,3.969586E-2,1.0493454E-1,0E0,6.597483E-3,1.98083E-4,7.563442E-3,4.963752E-3,2.9029667E-2,0E0,2.8324127E-4,0E0,5.4105083E-3,7.395148E-4,5.603811E-4,2.2266433E-3,4.0497105E-3,3.1776754E-3,1.6808063E-3,3.8977684E-3,2.2453326E-3,7.213846E-3,1.1039808E-2,2.626983E-2,4.4369012E-2,0E0,3.0902307E-4,0E0,0E0,0E0,0E0,1.5528835E-3,3.057653E-3,8.89954E-3,1.2105793E-2,0E0,0E0,0E0,0E0,0E0,0E0,0E0,0E0,0E0,0E0,0E0,0E0,0E0,0E0,0E0,0E0,0E0,0E0,0E0,0E0,0E0,0E0,0E0,0E0,0E0,0E0,0E0,0E0,0E0,0E0,0E0,0E0,0E0,0E0,0E0,0E0,0E0,0E0],"parents":[2147483647,0,0,1,1,2,2,3,3,4,4,5,5,6,6,7,7,8,8,9,9,10,10,11,11,12,12,13,13,14,14,15,15,16,16,17,17,18,18,19,19,20,20,22,22,23,23,24,24,25,25,26,26,28,28,30,30,31,31,32,32,33,33,34,34,35,35,36,36,37,37,38,38,39,39,40,40,41,41,42,42,44,44,49,49,50,50,51,51,52,52],"right_children":[2,4,6,8,10,12,14,16,18,20,22,24,26,28,30,32,34,36,38,40,42,-1,44,46,48,50,52,-1,54,-1,56,58,60,62,64,66,68,70,72,74,76,78,80,-1,82,-1,-1,-1,-1,84,86,88,90,-1,-1,-1,-1,-1,-1,-1,-1,-1,-1,-1,-1,-1,-1,-1,-1,-1,-1,-1,-1,-1,-1,-1,-1,-1,-1,-1,-1,-1,-1,-1,-1,-1,-1,-1,-1,-1,-1],"split_conditions":[2.6512564E2,6.1953837E-1,6.7801843E2,4.5874655E-1,4.413642E0,1.6548709E-5,7.2499997E-6,3.6049506E-1,4.28E-6,3.4027119E-6,6.9499997E-6,8.880025E-2,2.3192008E0,1.1303436E1,2.4037436E-5,1.3126788E2,7.070887E-1,2.3460452E-5,3.4644409E-6,2.3708053E-5,1.2094283E0,1.2311018E-2,1.0073261E-6,3.5612848E-6,2.6170297E-5,1.5527359E2,1.1825147E-5,1.1602031E-2,2.4414148E-6,1.0114535E-2,2.1695623E-6,6.4816986E1,2.1380026E-6,-2.0004374E-1,2.8909667E-6,5.4794255E-6,7.832107E-7,6.398621E-6,5.542286E-1,6.589732E-1,1.485E-6,3.324894E1,2.3192008E0,-1.086697E-3,4.957802E-6,6.9360755E-4,2.7811984E-3,8.877865E-3,1.8178363E-3,7.119676E-6,2.2982498E-5,1.1429471E-5,2.2715416E-5,1.8046577E-2,5.166431E-3,-7.173009E-4,2.7446772E-3,-6.515069E-4,-1.1552765E-3,5.557295E-4,-6.2863727E-4,-1.0703555E-3,-4.3221563E-4,-6.466498E-4,1.7733913E-3,2.6759593E-4,2.775445E-3,9.401236E-4,-3.1184568E-4,-4.8346887E-5,8.5258187E-4,-5.043677E-4,1.342424E-4,2.7214466E-3,2.3104367E-4,2.8334027E-3,7.2282585E-3,1.5046354E-3,3.597247E-4,1.4831348E-3,3.2608416E-3,8.242998E-4,3.4366853E-3,7.52246E-4,3.879505E-3,-3.3679666E-5,2.0613677E-3,4.610851E-3,1.5741282E-3,8.246983E-3,2.3237912E-3],"split_indices":[32,31,32,31,31,16,6,31,6,0,10,25,31,31,12,32,24,12,13,12,31,0,1,0,12,33,8,0,1,0,13,32,0,26,17,8,1,17,31,24,2,33,31,0,0,0,0,0,0,8,19,8,20,0,0,0,0,0,0,0,0,0,0,0,0,0,0,0,0,0,0,0,0,0,0,0,0,0,0,0,0,0,0,0,0,0,0,0,0,0,0],"split_type":[0,0,0,0,0,0,0,0,0,0,0,0,0,0,0,0,0,0,0,0,0,0,0,0,0,0,0,0,0,0,0,0,0,0,0,0,0,0,0,0,0,0,0,0,0,0,0,0,0,0,0,0,0,0,0,0,0,0,0,0,0,0,0,0,0,0,0,0,0,0,0,0,0,0,0,0,0,0,0,0,0,0,0,0,0,0,0,0,0,0,0],"sum_hessian":[3.892E3,3.767E3,1.25E2,3.051E3,7.16E2,9.1E1,3.4E1,2.787E3,2.64E2,7.07E2,9E0,1.6E1,7.5E1,2.5E1,9E0,2.5E3,2.87E2,1.5E1,2.49E2,2.8E1,6.79E2,6E0,3E0,3E0,1.3E1,2.1E1,5.4E1,1.5E1,1E1,4E0,5E0,2.498E3,2E0,2.81E2,6E0,6E0,9E0,1.68E2,8.1E1,1.6E1,1.2E1,4.35E2,2.44E2,1E0,2E0,1E0,2E0,1.2E1,1E0,8E0,1.3E1,4.2E1,1.2E1,9E0,1E0,1E0,4E0,2.49E3,8E0,1E0,1E0,1.4E1,2.67E2,2E0,4E0,2E0,4E0,4E0,5E0,1.56E2,1.2E1,6.4E1,1.7E1,1.2E1,4E0,4E0,8E0,5.7E1,3.78E2,2.01E2,4.3E1,1E0,1E0,1E0,7E0,2E0,1.1E1,3.8E1,4E0,1E1,2E0],"tree_param":{"num_deleted":"0","num_feature":"34","num_nodes":"91","size_leaf_vector":"1"}},{"base_weights":[2.853247E-4,-5.011799E-3,1.2260788E-1,-1.1417664E-2,2.0507447E-2,9.0811715E-2,2.653002E-1,-1.2178699E-2,-5.071761E-3,1.2152873E-1,1.5842343E-2,1.5074563E-1,6.892673E-2,3.5143137E-1,1.8382934E-1,-1.24453325E-2,-1.0492887E-2,-7.198694E-3,1.3773158E-2,1.57285E-1,4.584815E-2,9.807484E-3,3.0721763E-2,1.0229009E-1,2.0853369E-1,6.0057316E-2,1.0357754E-1,4.022419E-1,6.827362E-3,2.5718334E-1,6.915816E-2,-6.1398064E-4,-1.3048101E-2,-1.1119274E-2,1.5937276E-2,-5.924621E-3,-1.47918565E-2,7.5736865E-2,5.052225E-3,1.9975297E-1,5.7996973E-2,-4.767292E-3,7.175178E-2,2.8431104E-2,5.229293E-3,4.6676777E-2,2.2228861E-2,1.517696E-1,5.2532982E-2,1.1152827E-2,3.8045037E-3,7.682553E-2,4.6579298E-2,4.9631525E-2,1.471658E-1,2.207765E-2,8.166583E-3,3.730394E-3,1.3458987E-2,-1.7593393E-2,1.0100757E-1,-5.0271983E-4,-6.6561066E-4,-4.1658804E-4,-6.3010625E-4,1.6134074E-3,-1.7905251E-4,-4.6123844E-4,-1.7156424E-4,-8.2603126E-4,-3.8903073E-4,1.0690716E-3,4.33641E-3,-3.1950005E-4,1.1374032E-3,1.059699E-2,4.0179505E-3,3.3647456E-4,4.3705786E-3,4.3843782E-5,-3.1987764E-4,4.191968E-3,1.182969E-3,3.6235903E-3,1.2190251E-3,2.0969026E-4,1.3859752E-3,1.396278E-3,2.8130289E-3,1.7918242E-3,7.243631E-4,6.7626743E-4,8.281363E-3,5.6958157E-3,1.4432342E-3,1.9253974E-4,4.3058703E-3,1.8578342E-3,4.823041E-3,3.5124794E-3,7.4817735E-4,2.870411E-3,8.121459E-3,-1.0595296E-3,-2.5997494E-4,5.878624E-3,2.2625923E-3],"categories":[],"categories_nodes":[],"categories_segments":[],"categories_sizes":[],"default_left":[0,0,0,0,0,0,0,0,0,0,0,0,0,0,0,0,0,0,0,0,0,0,0,0,0,0,0,0,0,0,0,0,0,0,0,0,0,0,0,0,0,0,0,0,0,0,0,0,0,0,0,0,0,0,0,0,0,0,0,0,0,0,0,0,0,0,0,0,0,0,0,0,0,0,0,0,0,0,0,0,0,0,0,0,0,0,0,0,0,0,0,0,0,0,0,0,0,0,0,0,0,0,0,0,0,0,0],"id":17,"left_children":[1,3,5,7,9,11,13,15,17,19,21,23,25,27,29,31,33,35,37,39,41,43,45,47,49,51,53,55,-1,57,59,-1,61,63,65,67,69,71,73,75,77,79,81,83,85,87,89,91,93,-1,-1,95,97,99,101,-1,-1,-1,-1,103,105,-1,-1,-1,-1,-1,-1,-1,-1,-1,-1,-1,-1,-1,-1,-1,-1,-1,-1,-1,-1,-1,-1,-1,-1,-1,-1,-1,-1,-1,-1,-1,-1,-1,-1,-1,-1,-1,-1,-1,-1,-1,-1,-1,-1,-1,-1],"loss_changes":[2.5289454E0,6.1178607E-1,7.109127E-1,1.4383107E-2,3.5200208E-1,1.6537106E-1,1.3889503E-1,1.0695755E-3,1.3005515E-2,8.208859E-2,6.426145E-2,7.66744E-2,2.4512649E-2,8.701384E-2,1.252107E-1,6.9499016E-5,6.3193142E-3,2.7178945E-3,1.7449945E-2,8.11792E-2,1.6075548E-2,4.359099E-2,2.7011842E-2,4.3728173E-2,1.1879504E-2,1.49537325E-2,3.7372798E-2,2.179873E-2,0E0,1.819551E-3,2.3880955E-2,0E0,2.4567544E-4,1.3954453E-3,2.9843152E-3,2.0254422E-3,3.6841258E-4,5.3538196E-4,6.219754E-3,4.7942996E-3,1.1475863E-2,5.161717E-5,2.6669763E-3,1.6250633E-2,9.501832E-3,1.1188149E-2,1.3913058E-2,1.6917244E-2,1.4145911E-2,0E0,0E0,2.3400903E-2,1.8976532E-2,6.0966816E-3,4.375264E-3,0E0,0E0,0E0,0E0,2.3569446E-5,2.2115931E-4,0E0,0E0,0E0,0E0,0E0,0E0,0E0,0E0,0E0,0E0,0E0,0E0,0E0,0E0,0E0,0E0,0E0,0E0,0E0,0E0,0E0,0E0,0E0,0E0,0E0,0E0,0E0,0E0,0E0,0E0,0E0,0E0,0E0,0E0,0E0,0E0,0E0,0E0,0E0,0E0,0E0,0E0,0E0,0E0,0E0,0E0],"parents":[2147483647,0,0,1,1,2,2,3,3,4,4,5,5,6,6,7,7,8,8,9,9,10,10,11,11,12,12,13,13,14,14,15,15,16,16,17,17,18,18,19,19,20,20,21,21,22,22,23,23,24,24,25,25,26,26,27,27,29,29,30,30,32,32,33,33,34,34,35,35,36,36,37,37,38,38,39,39,40,40,41,41,42,42,43,43,44,44,45,45,46,46,47,47,48,48,51,51,52,52,53,53,54,54,59,59,60,60],"right_children":[2,4,6,8,10,12,14,16,18,20,22,24,26,28,30,32,34,36,38,40,42,44,46,48,50,52,54,56,-1,58,60,-1,62,64,66,68,70,72,74,76,78,80,82,84,86,88,90,92,94,-1,-1,96,98,100,102,-1,-1,-1,-1,104,106,-1,-1,-1,-1,-1,-1,-1,-1,-1,-1,-1,-1,-1,-1,-1,-1,-1,-1,-1,-1,-1,-1,-1,-1,-1,-1,-1,-1,-1,-1,-1,-1,-1,-1,-1,-1,-1,-1,-1,-1,-1,-1,-1,-1,-1,-1],"split_conditions":[2.0195446E0,5.542286E-1,6.7938867E0,4.096477E-1,7.92E-6,3.275E-6,3.3356157E-1,3.0915406E-1,5.174657E-1,7.033593E1,1.2094283E0,2.3742605E-5,4.413642E0,1.6041201E-1,1.645E-5,2.640514E-1,7.2455215E-1,-3.7086767E-1,1.771593E1,5.6427702E-6,4.4387593E-6,5.77E-6,1.4446317E-5,2.4865E-5,3.3992117E2,2.4493907E-5,1.6666563E-5,1.0756214E-5,6.827362E-3,3.4508374E-1,3.7502247E-1,-6.1398064E-4,1.5527359E2,3.042723E2,6.832874E-7,4.5874655E-1,4.8226994E-1,7.4213966E-7,1.42E-5,3.216E-5,3.7563514E-6,5.6964484E-7,5.1644424E-6,2.8585803E-6,6.490339E2,1.8015335E-5,-4.829423E-1,6.1245E-7,6.005563E-6,1.1152827E-2,3.8045037E-3,6.654254E-2,6.0888196E-6,-4.136794E-1,-4.7076352E-2,2.207765E-2,8.166583E-3,3.730394E-3,1.3458987E-2,1.0073261E-6,1.7932063E-6,-5.0271983E-4,-6.6561066E-4,-4.1658804E-4,-6.3010625E-4,1.6134074E-3,-1.7905251E-4,-4.6123844E-4,-1.7156424E-4,-8.2603126E-4,-3.8903073E-4,1.0690716E-3,4.33641E-3,-3.1950005E-4,1.1374032E-3,1.059699E-2,4.0179505E-3,3.3647456E-4,4.3705786E-3,4.3843782E-5,-3.1987764E-4,4.191968E-3,1.182969E-3,3.6235903E-3,1.2190251E-3,2.0969026E-4,1.3859752E-3,1.396278E-3,2.8130289E-3,1.7918242E-3,7.243631E-4,6.7626743E-4,8.281363E-3,5.6958157E-3,1.4432342E-3,1.9253974E-4,4.3058703E-3,1.8578342E-3,4.823041E-3,3.5124794E-3,7.4817735E-4,2.870411E-3,8.121459E-3,-1.0595296E-3,-2.5997494E-4,5.878624E-3,2.2625923E-3],"split_indices":[31,31,31,31,11,2,24,31,24,33,31,12,31,25,18,24,24,28,33,4,4,10,20,19,33,12,20,4,0,24,24,0,33,33,1,31,31,1,18,15,13,1,4,21,33,16,28,1,4,0,0,27,17,28,26,0,0,0,0,1,1,0,0,0,0,0,0,0,0,0,0,0,0,0,0,0,0,0,0,0,0,0,0,0,0,0,0,0,0,0,0,0,0,0,0,0,0,0,0,0,0,0,0,0,0,0,0],"split_type":[0,0,0,0,0,0,0,0,0,0,0,0,0,0,0,0,0,0,0,0,0,0,0,0,0,0,0,0,0,0,0,0,0,0,0,0,0,0,0,0,0,0,0,0,0,0,0,0,0,0,0,0,0,0,0,0,0,0,0,0,0,0,0,0,0,0,0,0,0,0,0,0,0,0,0,0,0,0,0,0,0,0,0,0,0,0,0,0,0,0,0,0,0,0,0,0,0,0,0,0,0,0,0,0,0,0,0],"sum_hessian":[3.901E3,3.74E3,1.61E2,2.99E3,7.5E2,1.33E2,2.8E1,2.669E3,3.21E2,3.2E1,7.18E2,3.4E1,9.9E1,1.2E1,1.6E1,2.299E3,3.7E2,2.89E2,3.2E1,2.1E1,1.1E1,5.12E2,2.06E2,2E1,1.4E1,8.1E1,1.8E1,9E0,3E0,9E0,7E0,1.82E3,4.79E2,3.62E2,8E0,2.49E2,4E1,3E0,2.9E1,1.4E1,7E0,4E0,7E0,1E2,4.12E2,7E1,1.36E2,9E0,1.1E1,1.2E1,2E0,3.4E1,4.7E1,9E0,9E0,7E0,2E0,1E0,8E0,2E0,5E0,4.2E1,4.37E2,1.28E2,2.34E2,4E0,4E0,1.06E2,1.43E2,3.1E1,9E0,1E0,2E0,1.8E1,1.1E1,1.2E1,2E0,3E0,4E0,1E0,3E0,5E0,2E0,7E0,9.3E1,3.95E2,1.7E1,2.5E1,4.5E1,4.8E1,8.8E1,1E0,8E0,2E0,9E0,4E0,3E1,4.1E1,6E0,5E0,4E0,2E0,7E0,1E0,1E0,3E0,2E0],"tree_param":{"num_deleted":"0","num_feature":"34","num_nodes":"107","size_leaf_vector":"1"}},{"base_weights":[6.6015834E-4,-2.6476642E-3,2.0488088E-1,-6.748761E-3,3.9444614E-2,1.5735236E-1,3.433134E-1,-9.250062E-3,3.7310508E-3,2.987842E-2,8.103123E-2,1.15311E-2,1.20399505E-1,8.524091E-3,3.7231448E-1,-4.8444835E-3,-1.1528573E-2,2.8814446E-2,2.226491E-3,5.2605398E-2,1.942464E-2,6.2162694E-2,1.02396816E-1,6.711712E-2,1.4296424E-1,1.942323E-2,4.866586E-3,-1.0009307E-2,1.9011464E-3,-1.1622689E-2,-9.619444E-3,6.0750205E-2,1.6808514E-2,-2.4075024E-3,7.3594754E-3,1.2074001E-1,4.1155126E-2,1.004576E-2,2.813363E-2,6.81693E-2,1.128786E-2,1.2079826E-1,5.012729E-2,8.031508E-2,7.5152767E-4,1.7573503E-1,9.123841E-2,-5.804234E-4,-3.6073412E-4,-1.4007527E-5,4.5463042E-3,-4.77324E-4,-5.8438396E-4,-5.624648E-4,7.94415E-4,4.36705E-3,1.423309E-3,-1.1057424E-4,1.2079768E-3,6.160338E-5,-3.0381218E-4,5.916184E-4,6.346102E-5,1.9736327E-3,7.1721645E-3,4.3075844E-3,1.6516069E-3,5.7005265E-5,1.0069957E-3,1.8901554E-3,2.8518555E-4,3.931337E-3,1.8650134E-3,-3.63931E-4,1.304586E-3,6.207E-3,1.4326301E-3,2.1844966E-4,3.128847E-3,2.0141813E-3,5.014439E-3,7.738419E-4,-7.1747735E-4,2.2365197E-3,9.1462275E-3,2.7597332E-3,6.172599E-3],"categories":[],"categories_nodes":[],"categories_segments":[],"categories_sizes":[],"default_left":[0,0,0,0,0,0,0,0,0,0,0,0,0,0,0,0,0,0,0,0,0,0,0,0,0,0,0,0,0,0,0,0,0,0,0,0,0,0,0,0,0,0,0,0,0,0,0,0,0,0,0,0,0,0,0,0,0,0,0,0,0,0,0,0,0,0,0,0,0,0,0,0,0,0,0,0,0,0,0,0,0,0,0,0,0,0,0],"id":18,"left_children":[1,3,5,7,9,11,13,15,17,19,21,-1,23,-1,25,27,29,31,33,35,37,39,41,43,45,-1,-1,47,49,51,53,55,57,59,61,63,65,67,69,71,73,75,77,79,81,83,85,-1,-1,-1,-1,-1,-1,-1,-1,-1,-1,-1,-1,-1,-1,-1,-1,-1,-1,-1,-1,-1,-1,-1,-1,-1,-1,-1,-1,-1,-1,-1,-1,-1,-1,-1,-1,-1,-1,-1,-1],"loss_changes":[2.6276624E0,6.6107273E-1,3.5390735E-1,9.1492236E-2,1.3283968E-1,1.0219431E-1,1.1711717E-2,2.8221637E-2,2.5334507E-2,6.5026164E-2,1.9032389E-2,0E0,3.128296E-2,0E0,1.5482068E-2,3.35351E-2,2.2168458E-4,1.3548784E-2,1.5145751E-2,6.290482E-2,1.5400045E-2,1.0231584E-2,2.087614E-2,1.045033E-2,2.295345E-2,0E0,0E0,2.35188E-3,8.1196815E-2,1.2643635E-4,4.045101E-3,6.0983114E-3,4.108105E-3,4.480621E-3,8.21178E-3,1.6478345E-2,2.4932712E-2,8.427171E-3,2.125606E-2,7.397145E-3,1.5641893E-3,2.601564E-3,4.853677E-3,3.9557666E-3,8.891896E-4,4.0619075E-3,5.958177E-3,0E0,0E0,0E0,0E0,0E0,0E0,0E0,0E0,0E0,0E0,0E0,0E0,0E0,0E0,0E0,0E0,0E0,0E0,0E0,0E0,0E0,0E0,0E0,0E0,0E0,0E0,0E0,0E0,0E0,0E0,0E0,0E0,0E0,0E0,0E0,0E0,0E0,0E0,0E0,0E0],"parents":[2147483647,0,0,1,1,2,2,3,3,4,4,5,5,6,6,7,7,8,8,9,9,10,10,12,12,14,14,15,15,16,16,17,17,18,18,19,19,20,20,21,21,22,22,23,23,24,24,27,27,28,28,29,29,30,30,31,31,32,32,33,33,34,34,35,35,36,36,37,37,38,38,39,39,40,40,41,41,42,42,43,43,44,44,45,45,46,46],"right_children":[2,4,6,8,10,12,14,16,18,20,22,-1,24,-1,26,28,30,32,34,36,38,40,42,44,46,-1,-1,48,50,52,54,56,58,60,62,64,66,68,70,72,74,76,78,80,82,84,86,-1,-1,-1,-1,-1,-1,-1,-1,-1,-1,-1,-1,-1,-1,-1,-1,-1,-1,-1,-1,-1,-1,-1,-1,-1,-1,-1,-1,-1,-1,-1,-1,-1,-1,-1,-1,-1,-1,-1,-1],"split_conditions":[5.201464E2,9.56498E1,1.6221248E3,1.6414524E1,2.6512564E2,2.81E-6,1.1426894E-1,-3.7086767E-1,1.4092924E1,8.67332E1,9.396286E-2,1.15311E-2,2.6475E-5,8.524091E-3,2.56653E-6,4.746628E0,2.0578406E0,5.68E-6,4.6519653E1,2.613E-5,1.1685999E-6,1.1917732E-1,2.5542282E2,5.981918E-6,1.2987499E-5,1.942323E-2,4.866586E-3,6.77925E-2,1.9520846E-6,-3.5386446E-1,1.525E-5,4.835E-6,5.48E-6,2.7924622E2,-4.308868E-1,8.287959E-7,5.3649997E-6,-4.2357433E-1,3.1528393E-6,7.4699997E-6,3.0689998E-6,5.0732674E-6,2.2236012E-5,2.2952827E-6,6.3484026E-6,4.4800386E-6,-4.0153402E-1,-5.804234E-4,-3.6073412E-4,-1.4007527E-5,4.5463042E-3,-4.77324E-4,-5.8438396E-4,-5.624648E-4,7.94415E-4,4.36705E-3,1.423309E-3,-1.1057424E-4,1.2079768E-3,6.160338E-5,-3.0381218E-4,5.916184E-4,6.346102E-5,1.9736327E-3,7.1721645E-3,4.3075844E-3,1.6516069E-3,5.7005265E-5,1.0069957E-3,1.8901554E-3,2.8518555E-4,3.931337E-3,1.8650134E-3,-3.63931E-4,1.304586E-3,6.207E-3,1.4326301E-3,2.1844966E-4,3.128847E-3,2.0141813E-3,5.014439E-3,7.738419E-4,-7.1747735E-4,2.2365197E-3,9.1462275E-3,2.7597332E-3,6.172599E-3],"split_indices":[32,32,32,32,32,2,25,28,33,33,27,0,19,0,1,32,27,6,32,15,1,25,33,0,7,0,0,32,1,28,19,3,3,33,28,1,22,28,9,6,2,13,12,9,0,0,28,0,0,0,0,0,0,0,0,0,0,0,0,0,0,0,0,0,0,0,0,0,0,0,0,0,0,0,0,0,0,0,0,0,0,0,0,0,0,0,0],"split_type":[0,0,0,0,0,0,0,0,0,0,0,0,0,0,0,0,0,0,0,0,0,0,0,0,0,0,0,0,0,0,0,0,0,0,0,0,0,0,0,0,0,0,0,0,0,0,0,0,0,0,0,0,0,0,0,0,0,0,0,0,0,0,0,0,0,0,0,0,0,0,0,0,0,0,0,0,0,0,0,0,0,0,0,0,0,0,0],"sum_hessian":[3.888E3,3.827E3,6.1E1,3.488E3,3.39E2,4.7E1,1.4E1,2.816E3,6.72E2,2.77E2,6.2E1,1.4E1,3.3E1,3E0,1.1E1,9.61E2,1.855E3,3.7E1,6.35E2,8.6E1,1.91E2,3.5E1,2.7E1,1.1E1,2.2E1,1E1,1E0,5.44E2,4.17E2,1.763E3,9.2E1,9E0,2.8E1,3.34E2,3.01E2,1.1E1,7.5E1,9.3E1,9.8E1,3.1E1,4E0,1.9E1,8E0,9E0,2E0,1.2E1,1E1,3.44E2,2E2,4.08E2,9E0,5.8E1,1.705E3,8.7E1,5E0,4E0,5E0,8E0,2E1,1.68E2,1.66E2,1.73E2,1.28E2,3E0,8E0,1E1,6.5E1,5E1,4.3E1,6.8E1,3E1,2.2E1,9E0,2E0,2E0,1.8E1,1E0,2E0,6E0,4E0,5E0,1E0,1E0,1E0,1.1E1,6E0,4E0],"tree_param":{"num_deleted":"0","num_feature":"34","num_nodes":"87","size_leaf_vector":"1"}},{"base_weights":[1.3387111E-3,-2.0882473E-3,2.0490055E-1,-6.8606036E-3,4.668323E-2,1.6032197E-1,3.2861614E-1,-1.0405247E-2,9.773816E-3,3.1404674E-2,9.26907E-2,2.0078236E-1,1.0980979E-1,3.6096814E-1,9.262405E-3,-1.0841589E-2,-5.380225E-4,6.482115E-2,7.502639E-3,7.1528845E-2,2.806953E-2,2.1645328E-1,7.304098E-2,9.551725E-2,1.0778989E-2,3.85543E-2,1.3141972E-1,3.7652916E-1,4.744921E-3,-1.123125E-2,-7.77947E-3,4.34588E-3,-1.9791233E-3,3.5139628E-2,1.1979174E-1,2.2391561E-2,4.9318806E-3,1.154391E-3,8.718008E-2,2.295288E-2,4.320389E-2,8.060212E-2,1.4128397E-2,7.3268414E-3,6.1912134E-2,8.878868E-4,5.5258847E-3,-6.995404E-4,2.4821812E-3,1.4150272E-1,1.6918576E-3,5.5230977E-3,1.9604485E-2,-5.633239E-4,-4.7853784E-4,-4.2026924E-4,1.0346649E-3,-2.00742E-4,1.0509407E-3,3.9684723E-4,2.9218954E-3,7.0315422E-3,1.9091469E-3,2.5494057E-3,8.3002786E-4,6.8007234E-6,4.2537093E-4,1.4922821E-3,4.712434E-3,2.4932611E-3,9.733584E-4,3.6993106E-3,1.9161567E-3,1.5342702E-3,5.182573E-3,-1.1900393E-4,3.3610505E-3,1.96534E-3,7.664725E-3],"categories":[],"categories_nodes":[],"categories_segments":[],"categories_sizes":[],"default_left":[0,0,0,0,0,0,0,0,0,0,0,0,0,0,0,0,0,0,0,0,0,0,0,0,0,0,0,0,0,0,0,0,0,0,0,0,0,0,0,0,0,0,0,0,0,0,0,0,0,0,0,0,0,0,0,0,0,0,0,0,0,0,0,0,0,0,0,0,0,0,0,0,0,0,0,0,0,0,0],"id":19,"left_children":[1,3,5,7,9,11,13,15,17,19,21,23,25,27,-1,29,31,33,35,37,39,41,43,45,-1,47,49,51,-1,53,55,-1,57,59,61,63,65,-1,67,69,71,73,-1,-1,75,-1,-1,-1,-1,77,-1,-1,-1,-1,-1,-1,-1,-1,-1,-1,-1,-1,-1,-1,-1,-1,-1,-1,-1,-1,-1,-1,-1,-1,-1,-1,-1,-1,-1],"loss_changes":[2.6966438E0,8.8525426E-1,3.0027986E-1,2.0434985E-1,2.3538154E-1,7.8095436E-2,7.343173E-3,1.2290627E-2,7.565221E-2,3.2250077E-2,1.8846965E-1,1.9907355E-2,3.188902E-2,1.3951778E-2,0E0,3.175974E-3,1.5547969E-2,3.494922E-2,2.2319198E-2,1.2392275E-2,1.7438397E-2,7.60237E-2,5.1453978E-2,3.8695894E-3,0E0,4.7733802E-3,1.2922615E-2,2.2307634E-3,0E0,3.3974648E-5,5.734252E-3,0E0,5.7492787E-3,1.0310367E-2,8.235544E-3,1.3395403E-2,8.58989E-3,0E0,2.8609186E-3,1.5914835E-2,6.028831E-3,2.572149E-3,0E0,0E0,2.2687018E-2,0E0,0E0,0E0,0E0,1.3255626E-2,0E0,0E0,0E0,0E0,0E0,0E0,0E0,0E0,0E0,0E0,0E0,0E0,0E0,0E0,0E0,0E0,0E0,0E0,0E0,0E0,0E0,0E0,0E0,0E0,0E0,0E0,0E0,0E0,0E0],"parents":[2147483647,0,0,1,1,2,2,3,3,4,4,5,5,6,6,7,7,8,8,9,9,10,10,11,11,12,12,13,13,15,15,16,16,17,17,18,18,19,19,20,20,21,21,22,22,23,23,25,25,26,26,27,27,29,29,30,30,32,32,33,33,34,34,35,35,36,36,38,38,39,39,40,40,41,41,44,44,49,49],"right_children":[2,4,6,8,10,12,14,16,18,20,22,24,26,28,-1,30,32,34,36,38,40,42,44,46,-1,48,50,52,-1,54,56,-1,58,60,62,64,66,-1,68,70,72,74,-1,-1,76,-1,-1,-1,-1,78,-1,-1,-1,-1,-1,-1,-1,-1,-1,-1,-1,-1,-1,-1,-1,-1,-1,-1,-1,-1,-1,-1,-1,-1,-1,-1,-1,-1,-1],"split_conditions":[5.201464E2,1.2094283E0,1.6221248E3,5.053566E-1,2.5107412E0,6.245E-6,7.23E-6,3.372158E1,7.36E-6,6.8290524E-6,4.985451E0,5.855678E2,-7.5596616E-2,2.56653E-6,9.262405E-3,3.6401623E-1,5.7899997E-6,8.2673676E1,5.53E-6,5.0099998E-6,1.6685765E2,2.874E-5,7.121554E-6,1.2461782E-6,1.0778989E-2,3.7916237E-1,2.20355E-5,3.1927727E-6,4.744921E-3,3.423119E-1,6.957295E-1,4.34588E-3,7.070887E-1,5.0164786E-6,1.7893977E-6,2.0059999E-5,7.2989714E-1,1.154391E-3,1.3012223E0,6.099142E0,2.6563537E-6,4.3800587E-6,1.4128397E-2,7.3268414E-3,2.846349E-1,8.878868E-4,5.5258847E-3,-6.995404E-4,2.4821812E-3,5.88E-6,1.6918576E-3,5.5230977E-3,1.9604485E-2,-5.633239E-4,-4.7853784E-4,-4.2026924E-4,1.0346649E-3,-2.00742E-4,1.0509407E-3,3.9684723E-4,2.9218954E-3,7.0315422E-3,1.9091469E-3,2.5494057E-3,8.3002786E-4,