{"learner":{"attributes":{"best_iteration":"97","best_score":"0.09059764993669059","scikit_learn":"{\"_estimator_type\": \"regressor\"}"},"feature_names":[],"feature_types":[],"gradient_booster":{"model":{"cats":{"enc":[],"feature_segments":[],"sorted_idx":[]},"gbtree_model_param":{"num_parallel_tree":"1","num_trees":"148"},"iteration_indptr":[0,1,2,3,4,5,6,7,8,9,10,11,12,13,14,15,16,17,18,19,20,21,22,23,24,25,26,27,28,29,30,31,32,33,34,35,36,37,38,39,40,41,42,43,44,45,46,47,48,49,50,51,52,53,54,55,56,57,58,59,60,61,62,63,64,65,66,67,68,69,70,71,72,73,74,75,76,77,78,79,80,81,82,83,84,85,86,87,88,89,90,91,92,93,94,95,96,97,98,99,100,101,102,103,104,105,106,107,108,109,110,111,112,113,114,115,116,117,118,119,120,121,122,123,124,125,126,127,128,129,130,131,132,133,134,135,136,137,138,139,140,141,142,143,144,145,146,147,148],"tree_info":[0,0,0,0,0,0,0,0,0,0,0,0,0,0,0,0,0,0,0,0,0,0,0,0,0,0,0,0,0,0,0,0,0,0,0,0,0,0,0,0,0,0,0,0,0,0,0,0,0,0,0,0,0,0,0,0,0,0,0,0,0,0,0,0,0,0,0,0,0,0,0,0,0,0,0,0,0,0,0,0,0,0,0,0,0,0,0,0,0,0,0,0,0,0,0,0,0,0,0,0,0,0,0,0,0,0,0,0,0,0,0,0,0,0,0,0,0,0,0,0,0,0,0,0,0,0,0,0,0,0,0,0,0,0,0,0,0,0,0,0,0,0,0,0,0,0,0,0],"trees":[{"base_weights":[-2.15425E-10,-2.205358E-2,2.7838126E-2,2.377975E-1,-2.25282E-2,2.7409425E-2,1.4140259E-2,1.1697345E-2,6.4176265E-3,-2.698466E-2,-5.1313546E-3,2.1273553E-1,2.6524404E-2,-1.6464488E-5,3.0525768E-4,-2.8852006E-2,-1.7629972E-2,-6.178153E-3,8.54342E-3,5.9077516E-4,1.592415E-2,2.9247299E-2,-1.0045931E-2,-2.8959941E-2,2.6418645E-2,-1.4206169E-3,-2.1762358E-2,-1.9636223E-2,4.494449E-3,-1.4915127E-2,7.871106E-4,3.13805E-1,2.8800476E-2,7.821553E-2,-1.5648125E-2,-8.719009E-4,-3.387616E-4,1.3496707E-3,-4.3938734E-4,6.676872E-4,-3.3665827E-4,-6.663644E-4,1.5964069E-3,-6.260004E-4,4.172023E-3,5.0163355E-5,4.37409E-3,-5.858498E-4,-1.5990654E-4,1.4560613E-2,-4.3938734E-4,1.1009218E-3,5.2729074E-4,2.3174527E-4,4.9319305E-3,1.1996554E-4,-5.924247E-4],"categories":[],"categories_nodes":[],"categories_segments":[],"categories_sizes":[],"default_left":[0,0,0,0,0,0,0,0,0,0,0,0,0,0,0,0,0,0,0,0,0,0,0,0,0,0,0,0,0,0,0,0,0,0,0,0,0,0,0,0,0,0,0,0,0,0,0,0,0,0,0,0,0,0,0,0,0],"id":0,"left_children":[1,3,5,7,9,11,-1,-1,13,15,17,19,21,-1,-1,23,25,27,-1,29,-1,31,33,35,37,39,41,43,45,47,-1,49,51,53,55,-1,-1,-1,-1,-1,-1,-1,-1,-1,-1,-1,-1,-1,-1,-1,-1,-1,-1,-1,-1,-1,-1],"loss_changes":[2.9652834E0,3.3773267E-1,3.9300847E-1,1.734783E-1,2.0849025E-1,3.4437084E-1,0E0,0E0,8.4116284E-5,3.6908627E-2,1.686732E-1,6.744539E-1,2.1189511E-1,0E0,0E0,1.1407852E-2,2.401609E-2,7.894257E-2,0E0,3.1750058E-3,0E0,2.4245846E-1,7.44037E-2,2.9261112E-3,3.7092827E-3,1.7422538E-2,1.0826826E-2,5.0354518E-2,1.22194044E-1,1.169953E-4,0E0,1.7614484E-1,1.7449951E-1,5.3405404E-2,1.1354584E-2,0E0,0E0,0E0,0E0,0E0,0E0,0E0,0E0,0E0,0E0,0E0,0E0,0E0,0E0,0E0,0E0,0E0,0E0,0E0,0E0,0E0,0E0],"parents":[2147483647,0,0,1,1,2,2,3,3,4,4,5,5,8,8,9,9,10,10,11,11,12,12,15,15,16,16,17,17,19,19,21,21,22,22,23,23,24,24,25,25,26,26,27,27,28,28,29,29,31,31,32,32,33,33,34,34],"right_children":[2,4,6,8,10,12,-1,-1,14,16,18,20,22,-1,-1,24,26,28,-1,30,-1,32,34,36,38,40,42,44,46,48,-1,50,52,54,56,-1,-1,-1,-1,-1,-1,-1,-1,-1,-1,-1,-1,-1,-1,-1,-1,-1,-1,-1,-1,-1,-1],"split_conditions":[-3.6797023E-1,-7.521307E-2,-8.180812E-2,-5.2789176E-1,4.2107394E-1,5.160023E-1,1.4140259E-2,1.1697345E-2,-5.2785164E-1,3.322842E-1,2.0267943E-1,3.014491E-2,-3.626787E-1,-1.6464488E-5,3.0525768E-4,-6.865455E-1,3.4148136E-1,4.476901E-1,8.54342E-3,5.9196018E-2,1.592415E-2,-5.487306E-1,-2.0994025E-1,1.8500538E-1,5.9109014E-2,3.575675E-1,1.8503729E-1,1.6741129E0,-3.2100663E-1,4.271275E-2,7.871106E-4,-5.279095E-1,-5.71958E-1,-3.6244187E-1,-1.5079576E-2,-8.719009E-4,-3.387616E-4,1.3496707E-3,-4.3938734E-4,6.676872E-4,-3.3665827E-4,-6.663644E-4,1.5964069E-3,-6.260004E-4,4.172023E-3,5.0163355E-5,4.37409E-3,-5.858498E-4,-1.5990654E-4,1.4560613E-2,-4.3938734E-4,1.1009218E-3,5.2729074E-4,2.3174527E-4,4.9319305E-3,1.1996554E-4,-5.924247E-4],"split_indices":[147,651,828,0,352,336,0,0,0,474,504,78,434,0,0,176,792,495,0,1,0,422,293,423,1,846,423,897,840,20,0,0,539,447,836,0,0,0,0,0,0,0,0,0,0,0,0,0,0,0,0,0,0,0,0,0,0],"split_type":[0,0,0,0,0,0,0,0,0,0,0,0,0,0,0,0,0,0,0,0,0,0,0,0,0,0,0,0,0,0,0,0,0,0,0,0,0,0,0,0,0,0,0,0,0,0,0,0,0,0,0,0,0,0,0,0,0],"sum_hessian":[4.828E3,2.694E3,2.134E3,4E0,2.69E3,2.133E3,1E0,2E0,2E0,2.141E3,5.49E2,9E0,2.124E3,1E0,1E0,1.783E3,3.58E2,5.48E2,1E0,6E0,3E0,1.977E3,1.47E2,1.78E3,3E0,7.3E1,2.85E2,2.42E2,3.06E2,4E0,2E0,2E0,1.975E3,8E0,1.39E2,1.769E3,1.1E1,2E0,1E0,2.1E1,5.2E1,2.84E2,1E0,2.41E2,1E0,3.01E2,5E0,2E0,2E0,1E0,1E0,1.158E3,8.17E2,5E0,3E0,2.4E1,1.15E2],"tree_param":{"num_deleted":"0","num_feature":"1024","num_nodes":"57","size_leaf_vector":"1"}},{"base_weights":[1.6567634E-5,2.7502924E-2,-2.3129843E-2,2.7094658E-2,1.39281545E-2,-2.6419848E-2,-8.505128E-3,2.6688024E-2,1.3861959E-2,-1.7539073E-2,-2.7983142E-2,-1.1463002E-2,4.8541833E-2,2.632854E-2,1.229028E-2,-1.2339286E-4,-2.1034699E-2,-2.8101422E-2,3.268228E-2,9.5093325E-2,-1.2842948E-2,5.536622E-3,2.0323226E-2,1.5138505E-1,2.5575204E-2,2.1461602E-2,-1.7526668E-2,-2.2665821E-2,6.174032E-3,-2.8125409E-2,-4.2382595E-3,1.6562724E-4,1.196873E-3,6.337265E-3,-1.579164E-2,5.2932072E-2,-1.4897263E-2,-2.919821E-3,4.8226435E-3,4.761782E-5,1.4640997E-2,5.273831E-3,7.483424E-4,-4.153184E-4,1.2655867E-3,3.1533375E-4,-6.996847E-4,-6.930915E-4,1.3192894E-3,1.3678833E-3,-4.7670587E-4,-8.4496016E-4,-3.4216937E-4,1.3393356E-4,-3.2465524E-4,-5.8009144E-4,-7.736119E-5,-4.546079E-4,9.2289215E-3,-6.118835E-4,-1.1170204E-4,9.228573E-4,-5.143887E-4],"categories":[],"categories_nodes":[],"categories_segments":[],"categories_sizes":[],"default_left":[0,0,0,0,0,0,0,0,0,0,0,0,0,0,0,0,0,0,0,0,0,0,0,0,0,0,0,0,0,0,0,0,0,0,0,0,0,0,0,0,0,0,0,0,0,0,0,0,0,0,0,0,0,0,0,0,0,0,0,0,0,0,0],"id":1,"left_children":[1,3,5,7,-1,9,11,13,-1,15,17,19,21,23,-1,25,27,29,31,33,35,-1,37,39,41,43,45,47,49,51,53,-1,-1,-1,55,57,59,61,-1,-1,-1,-1,-1,-1,-1,-1,-1,-1,-1,-1,-1,-1,-1,-1,-1,-1,-1,-1,-1,-1,-1,-1,-1],"loss_changes":[3.0728965E0,3.8114548E-1,1.2593377E-1,3.7802958E-1,0E0,2.9219508E-2,8.205675E-2,2.9293227E-1,0E0,1.966121E-2,1.3963342E-2,6.8860546E-2,8.8363096E-2,2.0386016E-1,0E0,2.1036876E-2,1.2078367E-2,9.198189E-4,5.63452E-4,8.061081E-2,6.2269337E-2,0E0,6.901457E-2,6.5480435E-1,2.0330656E-1,1.8876374E-2,5.2830046E-3,8.4169805E-3,1.4641616E-2,8.891821E-4,2.2019865E-4,0E0,0E0,0E0,1.3748277E-4,2.4744034E-1,2.7082048E-2,9.631722E-3,0E0,0E0,0E0,0E0,0E0,0E0,0E0,0E0,0E0,0E0,0E0,0E0,0E0,0E0,0E0,0E0,0E0,0E0,0E0,0E0,0E0,0E0,0E0,0E0,0E0],"parents":[2147483647,0,0,1,1,2,2,3,3,5,5,6,6,7,7,9,9,10,10,11,11,12,12,13,13,15,15,16,16,17,17,18,18,19,19,20,20,22,22,23,23,24,24,25,25,26,26,27,27,28,28,29,29,30,30,34,34,35,35,36,36,37,37],"right_children":[2,4,6,8,-1,10,12,14,-1,16,18,20,22,24,-1,26,28,30,32,34,36,-1,38,40,42,44,46,48,50,52,54,-1,-1,-1,56,58,60,62,-1,-1,-1,-1,-1,-1,-1,-1,-1,-1,-1,-1,-1,-1,-1,-1,-1,-1,-1,-1,-1,-1,-1,-1,-1],"split_conditions":[8.544504E0,-8.180812E-2,4.2107394E-1,-3.7538642E-1,1.39281545E-2,4.0787965E-1,-2.2182895E-2,-3.89161E-1,1.3861959E-2,-4.3448123E-1,3.324327E-1,-7.756525E-2,3.8261962E-1,-7.9274416E-1,1.229028E-2,2.935272E-1,2.5534615E-1,-1.6200447E-1,-1.1297158E-1,-2.224986E-2,3.8202292E-1,5.536622E-3,-1.3242172E-1,-7.133854E-1,-5.7956386E-1,-1.1295537E-1,4.6922797E-1,1.010378E-1,-3.5344556E-1,-5.7548705E-2,-1.12995125E-1,1.6562724E-4,1.196873E-3,6.337265E-3,-1.1291056E-1,3.957237E-1,2.55322E-1,4.3801597E-1,4.8226435E-3,4.761782E-5,1.4640997E-2,5.273831E-3,7.483424E-4,-4.153184E-4,1.2655867E-3,3.1533375E-4,-6.996847E-4,-6.930915E-4,1.3192894E-3,1.3678833E-3,-4.7670587E-4,-8.4496016E-4,-3.4216937E-4,1.3393356E-4,-3.2465524E-4,-5.8009144E-4,-7.736119E-5,-4.546079E-4,9.2289215E-3,-6.118835E-4,-1.1170204E-4,9.228573E-4,-5.143887E-4],"split_indices":[342,828,352,848,0,201,40,816,0,747,474,805,1020,685,0,722,354,880,3,40,351,0,968,689,719,3,341,855,580,791,3,0,0,0,3,9,354,67,0,0,0,0,0,0,0,0,0,0,0,0,0,0,0,0,0,0,0,0,0,0,0,0,0],"split_type":[0,0,0,0,0,0,0,0,0,0,0,0,0,0,0,0,0,0,0,0,0,0,0,0,0,0,0,0,0,0,0,0,0,0,0,0,0,0,0,0,0,0,0,0,0,0,0,0,0,0,0,0,0,0,0,0,0,0,0,0,0,0,0],"sum_hessian":[4.828E3,2.207E3,2.621E3,2.206E3,1E0,2.139E3,4.82E2,2.205E3,1E0,3.22E2,1.817E3,4.59E2,2.3E1,2.204E3,1E0,5.4E1,2.68E2,1.814E3,3E0,5E0,4.54E2,3E0,2E1,1.2E1,2.192E3,2.4E1,3E1,2.53E2,1.5E1,1.812E3,2E0,1E0,2E0,2E0,3E0,1.3E1,4.41E2,1.8E1,2E0,9E0,3E0,8E0,2.184E3,9E0,1.5E1,5E0,2.5E1,2.52E2,1E0,5E0,1E1,1.807E3,5E0,1E0,1E0,2E0,1E0,1.1E1,2E0,2.95E2,1.46E2,5E0,1.3E1],"tree_param":{"num_deleted":"0","num_feature":"1024","num_nodes":"63","size_leaf_vector":"1"}},{"base_weights":[3.414058E-5,-2.238384E-2,2.5847258E-2,1.3195814E-1,-2.2974305E-2,5.6847584E-2,2.3035651E-2,4.4687744E-3,9.66225E-3,-2.631314E-2,-1.2262407E-2,1.1327655E-2,4.772367E-2,2.1474412E-2,6.915618E-2,-1.6561083E-2,1.9597188E-3,-2.6505742E-2,1.0835659E-1,-2.4223143E-2,-5.233156E-3,3.1813204E-2,1.6818899E-1,2.0638295E-2,1.0730049E-1,1.92063E-2,3.2384742E-2,-6.748618E-4,1.9665688E-4,-1.9102523E-2,-2.7266156E-2,-4.1363444E-4,5.289681E-3,-2.4522264E-2,6.5067207E-4,-1.0357892E-2,2.8079713E-2,1.7450431E-1,2.3267534E-2,4.4248827E-2,4.0974805E-1,2.0369356E-2,8.276834E-3,2.931193E-1,1.9999536E-2,3.0385613E-1,1.4052442E-2,7.6957466E-4,-6.1441725E-4,6.195264E-4,-8.1914355E-4,6.2015833E-4,-7.444501E-4,-4.1817315E-4,2.999491E-4,4.5056158E-4,5.431709E-3,2.224308E-3,1.0515336E-2,3.3820164E-4,2.3780072E-3,-3.6138168E-4,3.920965E-3,3.6365367E-3,1.31290015E-2,6.828584E-4,-2.861469E-4,1.0295445E-2,6.4212334E-4,1.1351592E-4,3.4620492E-3,1.1738115E-2,6.241948E-4,1.5983696E-4,8.062876E-3],"categories":[],"categories_nodes":[],"categories_segments":[],"categories_sizes":[],"default_left":[0,0,0,0,0,0,0,0,0,0,0,0,0,0,0,0,0,0,0,0,0,0,0,0,0,0,0,0,0,0,0,0,0,0,0,0,0,0,0,0,0,0,0,0,0,0,0,0,0,0,0,0,0,0,0,0,0,0,0,0,0,0,0,0,0,0,0,0,0,0,0,0,0,0,0],"id":2,"left_children":[1,3,5,7,9,11,13,15,-1,17,19,-1,21,23,25,27,-1,29,31,33,35,37,39,41,43,-1,45,-1,-1,47,49,-1,-1,51,-1,53,55,57,59,61,63,65,-1,67,69,71,73,-1,-1,-1,-1,-1,-1,-1,-1,-1,-1,-1,-1,-1,-1,-1,-1,-1,-1,-1,-1,-1,-1,-1,-1,-1,-1,-1,-1],"loss_changes":[2.7950144E0,2.3861158E-1,1.9436622E-1,2.4093953E-1,9.180856E-2,5.2629286E-1,1.4684558E-1,1.0040268E-2,0E0,5.3788185E-2,5.149529E-2,0E0,3.4348127E-1,1.4087653E-1,1.3861644E0,9.705386E-4,0E0,1.0518551E-2,2.7336147E-2,3.6493242E-3,6.653007E-2,1.9348107E-1,6.105853E-1,1.300283E-1,3.023588E-1,0E0,3.1423855E-1,0E0,0E0,1.199688E-2,3.851533E-3,0E0,0E0,3.502965E-3,0E0,2.4706624E-2,1.0117856E-1,1.329894E-1,1.0254276E-1,7.45748E-2,3.2714605E-3,1.4154136E-1,0E0,7.427043E-2,2.1221464E-2,9.082946E-2,1.3412404E-1,0E0,0E0,0E0,0E0,0E0,0E0,0E0,0E0,0E0,0E0,0E0,0E0,0E0,0E0,0E0,0E0,0E0,0E0,0E0,0E0,0E0,0E0,0E0,0E0,0E0,0E0,0E0,0E0],"parents":[2147483647,0,0,1,1,2,2,3,3,4,4,5,5,6,6,7,7,9,9,10,10,12,12,13,13,14,14,15,15,17,17,18,18,19,19,20,20,21,21,22,22,23,23,24,24,26,26,29,29,30,30,33,33,35,35,36,36,37,37,38,38,39,39,40,40,41,41,43,43,44,44,45,45,46,46],"right_children":[2,4,6,8,10,12,14,16,-1,18,20,-1,22,24,26,28,-1,30,32,34,36,38,40,42,44,-1,46,-1,-1,48,50,-1,-1,52,-1,54,56,58,60,62,64,66,-1,68,70,72,74,-1,-1,-1,-1,-1,-1,-1,-1,-1,-1,-1,-1,-1,-1,-1,-1,-1,-1,-1,-1,-1,-1,-1,-1,-1,-1,-1,-1],"split_conditions":[5.927663E-2,2.0429724E-1,1.01782724E-1,-3.7594843E-1,-2.592878E-1,-1.6767535E-1,-3.5280984E-2,-1.146214E0,9.66225E-3,-2.0960827E-1,7.46631E-1,1.1327655E-2,-7.747636E-3,-6.7735547E-1,-4.3250796E-1,-1.1464264E0,1.9597188E-3,1.5314224E-2,-1.1473716E0,-7.789058E-3,2.1442012E-1,5.9169716E-1,7.35309E-1,2.0267943E-1,-2.8115624E-1,1.92063E-2,-5.372168E-1,-6.748618E-4,1.9665688E-4,1.694823E-1,2.3422639E-1,-4.1363444E-4,5.289681E-3,7.42784E-2,6.5067207E-4,-6.2093798E-2,-3.7682498E-1,-3.617183E-1,8.763647E-2,-2.122557E-1,5.5004543E-1,-5.572001E-1,8.276834E-3,-1.1460063E0,3.9623272E-1,-1.1465958E0,4.0238938E-1,7.6957466E-4,-6.1441725E-4,6.195264E-4,-8.1914355E-4,6.2015833E-4,-7.444501E-4,-4.1817315E-4,2.999491E-4,4.5056158E-4,5.431709E-3,2.224308E-3,1.0515336E-2,3.3820164E-4,2.3780072E-3,-3.6138168E-4,3.920965E-3,3.6365367E-3,1.31290015E-2,6.828584E-4,-2.861469E-4,1.0295445E-2,6.4212334E-4,1.1351592E-4,3.4620492E-3,1.1738115E-2,6.241948E-4,1.5983696E-4,8.062876E-3],"split_indices":[733,718,990,14,542,188,829,5,0,647,304,0,468,1013,649,5,0,822,5,468,692,223,817,504,129,0,446,0,0,709,889,0,0,800,0,464,531,70,292,1014,38,127,0,5,9,5,140,0,0,0,0,0,0,0,0,0,0,0,0,0,0,0,0,0,0,0,0,0,0,0,0,0,0,0,0],"split_type":[0,0,0,0,0,0,0,0,0,0,0,0,0,0,0,0,0,0,0,0,0,0,0,0,0,0,0,0,0,0,0,0,0,0,0,0,0,0,0,0,0,0,0,0,0,0,0,0,0,0,0,0,0,0,0,0,0,0,0,0,0,0,0,0,0,0,0,0,0,0,0,0,0,0,0],"sum_hessian":[4.828E3,2.584E3,2.244E3,9E0,2.575E3,1.85E2,2.059E3,6E0,3E0,1.962E3,6.13E2,4E0,1.81E2,1.993E3,6.6E1,5E0,1E0,1.96E3,2E0,2.26E2,3.87E2,1.61E2,2E1,1.975E3,1.8E1,3E0,6.3E1,4E0,1E0,1.85E2,1.775E3,1E0,1E0,2.25E2,1E0,3.36E2,5.1E1,8E0,1.53E2,1.4E1,6E0,1.974E3,1E0,5E0,1.3E1,3E0,6E1,5E0,1.8E2,1E0,1.774E3,1E0,2.24E2,2.86E2,5E1,4.8E1,3E0,6E0,2E0,1.27E2,2.6E1,9E0,5E0,1E0,5E0,1.828E3,1.46E2,4E0,1E0,1.2E1,1E0,2E0,1E0,5.9E1,1E0],"tree_param":{"num_deleted":"0","num_feature":"1024","num_nodes":"75","size_leaf_vector":"1"}},{"base_weights":[6.0524613E-5,2.597989E-2,-2.1766331E-2,2.5577554E-2,1.3708989E-2,-1.5471387E-4,-2.4516497E-2,2.5223609E-2,1.2095683E-2,7.256949E-2,-4.0088072E-3,-2.4867462E-2,5.1606502E-2,3.3763874E-2,1.3959478E-2,-6.6815986E-4,1.8253733E-1,8.175026E-2,-6.4800526E-3,-2.4964869E-2,3.0094543E-3,7.0448043E-3,-1.5200995E-2,3.2671522E-2,2.5552776E-1,1.0740081E-2,1.2833029E-1,-1.1548247E-2,8.5704384E-4,6.925527E-4,6.2943227E-3,5.7527036E-3,-6.7815016E-4,-1.0605498E-2,3.936096E-2,-2.630966E-2,-1.8361565E-2,3.274161E-4,-7.266453E-4,9.271372E-4,4.3629515E-3,1.4503981E-2,6.207623E-4,2.6402087E-4,2.0549693E-3,4.4731045E-4,1.1449841E-2,-6.295151E-4,-5.0703773E-5,-5.2924023E-4,-1.3598656E-5,4.4061523E-4,4.586689E-3,-7.9380977E-4,-4.779173E-4,4.233689E-4,-5.930918E-4],"categories":[],"categories_nodes":[],"categories_segments":[],"categories_sizes":[],"default_left":[0,0,0,0,0,0,0,0,0,0,0,0,0,0,0,0,0,0,0,0,0,0,0,0,0,0,0,0,0,0,0,0,0,0,0,0,0,0,0,0,0,0,0,0,0,0,0,0,0,0,0,0,0,0,0,0,0],"id":3,"left_children":[1,3,5,7,-1,9,11,13,-1,15,17,19,21,23,25,27,29,31,33,35,-1,-1,37,39,41,43,45,47,-1,-1,-1,-1,-1,49,51,53,55,-1,-1,-1,-1,-1,-1,-1,-1,-1,-1,-1,-1,-1,-1,-1,-1,-1,-1,-1,-1],"loss_changes":[2.7325153E0,3.7118077E-1,1.558361E-1,2.8480363E-1,0E0,8.353582E-2,6.342614E-2,2.11743E-1,0E0,1.2092877E-1,6.050642E-2,3.074491E-2,1.3821502E-1,2.9542565E-1,3.4952116E-1,3.5108456E-3,2.1249339E-2,9.617275E-2,5.261307E-2,2.0074248E-2,0E0,0E0,2.3844761E-3,2.4435818E-1,3.1116435E-1,1.0334869E-1,7.41362E-1,7.0867233E-4,0E0,0E0,0E0,0E0,0E0,1.813506E-2,6.2181663E-2,2.58255E-3,1.8341765E-2,0E0,0E0,0E0,0E0,0E0,0E0,0E0,0E0,0E0,0E0,0E0,0E0,0E0,0E0,0E0,0E0,0E0,0E0,0E0,0E0],"parents":[2147483647,0,0,1,1,2,2,3,3,5,5,6,6,7,7,9,9,10,10,11,11,12,12,13,13,14,14,15,15,16,16,17,17,18,18,19,19,22,22,23,23,24,24,25,25,26,26,27,27,33,33,34,34,35,35,36,36],"right_children":[2,4,6,8,-1,10,12,14,-1,16,18,20,22,24,26,28,30,32,34,36,-1,-1,38,40,42,44,46,48,-1,-1,-1,-1,-1,50,52,54,56,-1,-1,-1,-1,-1,-1,-1,-1,-1,-1,-1,-1,-1,-1,-1,-1,-1,-1,-1,-1],"split_conditions":[8.544504E0,-8.180812E-2,1.1653898E-1,4.2881644E-1,1.3708989E-2,-5.367825E-1,4.552003E-1,-5.7195735E-1,1.2095683E-2,2.1443786E-1,-1.4572878E-1,2.6002234E-1,-3.3363923E-1,6.917738E-2,3.6290012E-2,-4.419606E-1,5.902567E-2,-9.387478E-2,2.6136744E-1,4.6512686E-2,3.0094543E-3,7.0448043E-3,1.8055278E-1,-7.7976125E-1,1.17541745E-1,4.8304963E-1,-3.4076434E-2,2.3870419E-1,8.5704384E-4,6.925527E-4,6.2943227E-3,5.7527036E-3,-6.7815016E-4,-4.447052E-4,1.6642754E-1,-1.4555056E-1,-1.9780184E-1,3.274161E-4,-7.266453E-4,9.271372E-4,4.3629515E-3,1.4503981E-2,6.207623E-4,2.6402087E-4,2.0549693E-3,4.4731045E-4,1.1449841E-2,-6.295151E-4,-5.0703773E-5,-5.2924023E-4,-1.3598656E-5,4.4061523E-4,4.586689E-3,-7.9380977E-4,-4.779173E-4,4.233689E-4,-5.930918E-4],"split_indices":[342,828,218,795,0,625,173,539,0,692,856,768,276,847,102,75,1,145,175,883,0,0,165,370,135,912,246,23,0,0,0,0,0,612,76,856,858,0,0,0,0,0,0,0,0,0,0,0,0,0,0,0,0,0,0,0,0],"split_type":[0,0,0,0,0,0,0,0,0,0,0,0,0,0,0,0,0,0,0,0,0,0,0,0,0,0,0,0,0,0,0,0,0,0,0,0,0,0,0,0,0,0,0,0,0,0,0,0,0,0,0,0,0,0,0,0,0],"sum_hessian":[4.828E3,2.207E3,2.621E3,2.206E3,1E0,2.96E2,2.325E3,2.205E3,1E0,1.4E1,2.82E2,2.315E3,1E1,1.253E3,9.52E2,9E0,5E0,7E0,2.75E2,2.314E3,1E0,2E0,8E0,1.248E3,5E0,9.27E2,2.5E1,7E0,2E0,1E0,4E0,3E0,4E0,2.53E2,2.2E1,1.92E3,3.94E2,2E0,6E0,1.23E3,1.8E1,2E0,3E0,8.98E2,2.9E1,1.8E1,7E0,3E0,4E0,1.49E2,1.04E2,1.9E1,3E0,1.891E3,2.9E1,1.6E1,3.78E2],"tree_param":{"num_deleted":"0","num_feature":"1024","num_nodes":"57","size_leaf_vector":"1"}},{"base_weights":[7.638792E-5,-2.0058181E-2,2.3966216E-2,1.5669492E-3,-2.3066267E-2,2.357393E-2,1.3352028E-2,9.9324554E-2,-3.5496806E-3,7.713577E-2,-2.3361845E-2,2.1992718E-1,2.275995E-2,4.4135767E-4,2.6405632E-1,1.356309E-1,-5.375333E-3,5.120553E-3,5.5790157E-3,-1.1814059E-2,-2.5193026E-2,1.4996304E-2,-3.360454E-3,1.23028874E-1,2.145747E-2,-2.0161295E-2,6.21022E-2,9.425448E-3,2.0144881E-4,5.697283E-3,-4.080703E-4,3.211477E-2,-9.010198E-3,-6.303E-4,9.092508E-4,4.2875618E-2,-1.41139E-2,-2.524626E-2,1.2023895E-3,-1.6690033E-2,4.6597407E-4,1.1830136E-2,7.469828E-2,2.4672281E-2,-8.552633E-3,-2.2821866E-4,-6.7984196E-4,2.3136E-3,4.8099892E-4,1.6446077E-4,7.3004817E-3,-3.0753986E-4,3.232907E-3,6.248984E-3,-1.8413285E-4,-4.7364642E-4,1.4942765E-3,-2.4524183E-4,-7.6249125E-4,-5.797235E-4,-1.3181663E-4,2.2152776E-4,8.5988585E-3,7.6812645E-3,7.2562526E-4,-3.0446934E-4,3.1653093E-3],"categories":[],"categories_nodes":[],"categories_segments":[],"categories_sizes":[],"default_left":[0,0,0,0,0,0,0,0,0,0,0,0,0,0,0,0,0,0,0,0,0,0,0,0,0,0,0,0,0,0,0,0,0,0,0,0,0,0,0,0,0,0,0,0,0,0,0,0,0,0,0,0,0,0,0,0,0,0,0,0,0,0,0,0,0,0,0],"id":4,"left_children":[1,3,5,7,9,11,-1,13,15,17,19,21,23,25,27,29,31,-1,33,35,37,-1,39,41,43,45,47,-1,-1,-1,-1,49,51,-1,-1,53,55,57,-1,59,-1,-1,61,63,65,-1,-1,-1,-1,-1,-1,-1,-1,-1,-1,-1,-1,-1,-1,-1,-1,-1,-1,-1,-1,-1,-1],"loss_changes":[2.3232846E0,1.7053294E-1,3.5441828E-1,1.609134E-1,6.995165E-2,3.4789324E-1,0E0,2.6051074E-1,7.848225E-2,4.5906357E-2,4.8232436E-2,5.6426346E-1,2.8467643E-1,1.5226206E-2,7.528615E-2,3.4983866E-2,4.1579604E-2,0E0,3.9244234E-3,4.0350854E-2,7.892013E-3,0E0,1.7702457E-3,3.3769432E-1,2.0985508E-1,1.1008489E-4,8.390732E-4,0E0,0E0,0E0,0E0,1.505614E-1,4.1250773E-2,0E0,0E0,1.06682256E-1,3.3322718E-2,5.5395365E-3,0E0,4.464842E-5,0E0,0E0,3.5453057E-1,2.1397996E-1,3.949052E-2,0E0,0E0,0E0,0E0,0E0,0E0,0E0,0E0,0E0,0E0,0E0,0E0,0E0,0E0,0E0,0E0,0E0,0E0,0E0,0E0,0E0,0E0],"parents":[2147483647,0,0,1,1,2,2,3,3,4,4,5,5,7,7,8,8,9,9,10,10,11,11,12,12,13,13,14,14,15,15,16,16,18,18,19,19,20,20,22,22,23,23,24,24,25,25,26,26,31,31,32,32,35,35,36,36,37,37,39,39,42,42,43,43,44,44],"right_children":[2,4,6,8,10,12,-1,14,16,18,20,22,24,26,28,30,32,-1,34,36,38,-1,40,42,44,46,48,-1,-1,-1,-1,50,52,-1,-1,54,56,58,-1,60,-1,-1,62,64,66,-1,-1,-1,-1,-1,-1,-1,-1,-1,-1,-1,-1,-1,-1,-1,-1,-1,-1,-1,-1,-1,-1],"split_conditions":[2.6514035E-1,1.1654777E-1,-5.3930146E-1,2.431658E-2,-2.9853383E-1,5.160023E-1,1.3352028E-2,-1.7351048E-2,2.2645637E-1,7.443994E-2,1.6167222E-1,4.5664035E-2,1.9923455E-1,2.1314213E-1,2.2541685E-1,-1.1288632E-1,-2.659331E-1,5.120553E-3,-1.1320508E-1,4.915587E-1,-5.717538E-1,1.4996304E-2,4.273646E-2,2.4547067E-1,-6.866588E-1,-3.758354E-1,-1.1314884E-1,9.425448E-3,2.0144881E-4,5.697283E-3,-4.080703E-4,1.6908173E-2,5.816666E-1,-6.303E-4,9.092508E-4,-3.6710408E-1,-3.623817E-1,5.035718E-1,1.2023895E-3,-3.7578383E-1,4.6597407E-4,1.1830136E-2,5.504211E-1,8.658911E-2,-4.528466E-1,-2.2821866E-4,-6.7984196E-4,2.3136E-3,4.8099892E-4,1.6446077E-4,7.3004817E-3,-3.0753986E-4,3.232907E-3,6.248984E-3,-1.8413285E-4,-4.7364642E-4,1.4942765E-3,-2.4524183E-4,-7.6249125E-4,-5.797235E-4,-1.3181663E-4,2.2152776E-4,8.5988585E-3,7.6812645E-3,7.2562526E-4,-3.0446934E-4,3.1653093E-3],"split_indices":[211,218,802,695,727,336,0,613,150,63,259,112,615,205,6,3,297,0,3,796,539,0,20,608,176,14,3,0,0,0,0,186,327,0,0,18,447,372,0,14,0,0,189,832,197,0,0,0,0,0,0,0,0,0,0,0,0,0,0,0,0,0,0,0,0,0,0],"split_type":[0,0,0,0,0,0,0,0,0,0,0,0,0,0,0,0,0,0,0,0,0,0,0,0,0,0,0,0,0,0,0,0,0,0,0,0,0,0,0,0,0,0,0,0,0,0,0,0,0,0,0,0,0,0,0,0,0,0,0,0,0,0,0,0,0,0,0],"sum_hessian":[4.828E3,2.62E3,2.208E3,3.2E2,2.3E3,2.207E3,1E0,1.5E1,3.05E2,6E0,2.294E3,8E0,2.199E3,1E1,5E0,3E0,3.02E2,2E0,4E0,3.15E2,1.979E3,3E0,5E0,2.7E1,2.172E3,8E0,2E0,4E0,1E0,2E0,1E0,2.6E1,2.76E2,2E0,2E0,1.2E1,3.03E2,1.978E3,1E0,3E0,2E0,3E0,2.4E1,1.962E3,2.1E2,2E0,6E0,1E0,1E0,2.4E1,2E0,2.74E2,2E0,2E0,1E1,2.96E2,7E0,2E1,1.958E3,2E0,1E0,1.9E1,5E0,3E0,1.959E3,2.08E2,2E0],"tree_param":{"num_deleted":"0","num_feature":"1024","num_nodes":"67","size_leaf_vector":"1"}},{"base_weights":[9.4781564E-5,2.563672E-2,-1.9159088E-2,1.1891146E-1,2.44418E-2,-1.9493595E-2,1.686513E-1,4.6872333E-2,4.1210133E-1,2.366035E-2,1.4512886E-1,-1.979224E-2,1.9047482E-1,2.953623E-2,7.546478E-3,4.884646E-3,1.5802538E-1,1.5640814E-2,-3.7402933E-4,2.711158E-1,2.3284294E-2,3.0327119E-2,1.187553E-2,-1.1319762E-2,-2.4544649E-2,7.210295E-3,6.1304646E-4,1.5066436E-3,-1.7751323E-4,1.8811024E-3,-1.1983905E-2,-4.0655176E-4,1.9505116E-1,1.2596909E-2,-3.9669676E-4,2.2550086E-2,1.453027E-1,3.8396372E-3,-1.0086569E-2,-2.1937368E-2,-3.980458E-3,-6.127018E-3,-2.4904111E-2,-6.70048E-4,4.6734865E-5,1.6096955E-3,6.5095704E-3,7.852192E-4,1.2929908E-4,1.4300929E-2,9.406184E-4,-6.5431057E-4,5.016956E-4,-6.7214883E-4,-9.58411E-5,-2.5267262E-4,5.549807E-4,-5.524092E-4,1.3695E-3,5.9614762E-5,-7.49033E-4],"categories":[],"categories_nodes":[],"categories_segments":[],"categories_sizes":[],"default_left":[0,0,0,0,0,0,0,0,0,0,0,0,0,0,0,0,0,0,0,0,0,0,0,0,0,0,0,0,0,0,0,0,0,0,0,0,0,0,0,0,0,0,0,0,0,0,0,0,0,0,0,0,0,0,0,0,0,0,0,0,0],"id":5,"left_children":[1,3,5,7,9,11,13,15,17,19,21,23,25,27,-1,29,31,-1,-1,33,35,37,-1,39,41,-1,-1,-1,-1,-1,43,-1,45,-1,-1,47,49,-1,51,53,55,57,59,-1,-1,-1,-1,-1,-1,-1,-1,-1,-1,-1,-1,-1,-1,-1,-1,-1,-1],"loss_changes":[2.3753023E0,2.2847581E-1,1.7630446E-1,5.2983356E-1,1.8999755E-1,1.7621195E-1,5.0231963E-2,1.0190341E-1,2.3844033E-1,1.8343091E-1,3.6217844E-1,1.1032927E-1,2.9007062E-2,2.4972463E-3,0E0,1.7331852E-2,4.075992E-2,0E0,0E0,1.3246524E-1,1.7921174E-1,4.0759288E-2,0E0,7.6981336E-2,1.1492729E-2,0E0,0E0,0E0,0E0,0E0,1.997186E-3,0E0,3.8644373E-3,0E0,0E0,1.3380611E-1,4.3819818E-1,0E0,2.8792326E-3,3.4690648E-3,5.867054E-2,2.3106346E-2,3.0025244E-3,0E0,0E0,0E0,0E0,0E0,0E0,0E0,0E0,0E0,0E0,0E0,0E0,0E0,0E0,0E0,0E0,0E0,0E0],"parents":[2147483647,0,0,1,1,2,2,3,3,4,4,5,5,6,6,7,7,8,8,9,9,10,10,11,11,12,12,13,13,15,15,16,16,19,19,20,20,21,21,23,23,24,24,30,30,32,32,35,35,36,36,38,38,39,39,40,40,41,41,42,42],"right_children":[2,4,6,8,10,12,14,16,18,20,22,24,26,28,-1,30,32,-1,-1,34,36,38,-1,40,42,-1,-1,-1,-1,-1,44,-1,46,-1,-1,48,50,-1,52,54,56,58,60,-1,-1,-1,-1,-1,-1,-1,-1,-1,-1,-1,-1,-1,-1,-1,-1,-1,-1],"split_conditions":[-3.4741396E-1,4.1408294E-1,5.9420474E-2,3.5768107E-1,-1.4866582E0,-6.77436E-1,-3.7584144E-1,5.583502E-1,-2.5797093E-1,3.9480382E-1,-3.2173306E-2,3.3634055E-1,-3.7588927E-1,-3.7591207E-1,7.546478E-3,1.6620775E-1,-3.4746507E-1,1.5640814E-2,-3.7402933E-4,-3.7585437E-1,4.5000678E-1,6.61469E-1,1.187553E-2,7.46631E-1,8.527967E-3,7.210295E-3,6.1304646E-4,1.5066436E-3,-1.7751323E-4,1.8811024E-3,9.8449785E-1,-4.0655176E-4,-3.7579772E-1,1.2596909E-2,-3.9669676E-4,-3.501856E-1,3.1251472E-1,3.8396372E-3,6.6160905E-1,7.4207747E-1,9.753985E-2,2.7319226E-1,-3.859827E-1,-6.70048E-4,4.6734865E-5,1.6096955E-3,6.5095704E-3,7.852192E-4,1.2929908E-4,1.4300929E-2,9.406184E-4,-6.5431057E-4,5.016956E-4,-6.7214883E-4,-9.58411E-5,-2.5267262E-4,5.549807E-4,-5.524092E-4,1.3695E-3,5.9614762E-5,-7.49033E-4],"split_indices":[16,17,733,789,769,1013,14,1011,33,1010,826,31,14,14,0,76,16,0,0,14,286,122,0,304,683,0,0,0,0,0,48,0,14,0,0,253,99,0,122,313,562,881,366,0,0,0,0,0,0,0,0,0,0,0,0,0,0,0,0,0,0],"split_type":[0,0,0,0,0,0,0,0,0,0,0,0,0,0,0,0,0,0,0,0,0,0,0,0,0,0,0,0,0,0,0,0,0,0,0,0,0,0,0,0,0,0,0,0,0,0,0,0,0,0,0,0,0,0,0,0,0,0,0,0,0],"sum_hessian":[4.828E3,2.075E3,2.753E3,2.5E1,2.05E3,2.749E3,4E0,2.1E1,4E0,2.038E3,1.2E1,2.746E3,3E0,2E0,2E0,1.6E1,5E0,3E0,1E0,2E0,2.036E3,9E0,3E0,9.88E2,1.758E3,2E0,1E0,1E0,1E0,3E0,1.3E1,1E0,4E0,1E0,1E0,2.025E3,1.1E1,2E0,7E0,4.03E2,5.85E2,3.4E1,1.724E3,7E0,6E0,1E0,3E0,1.689E3,3.36E2,2E0,9E0,5E0,2E0,3.93E2,1E1,4.89E2,9.6E1,2.8E1,6E0,4E0,1.72E3],"tree_param":{"num_deleted":"0","num_feature":"1024","num_nodes":"61","size_leaf_vector":"1"}},{"base_weights":[1.0943968E-4,-1.9710084E-2,2.0887114E-2,8.678709E-2,-2.0308398E-2,-5.621863E-3,2.5356228E-2,-2.1184698E-2,1.4692357E-2,-2.303554E-3,-2.2677049E-2,-7.2124763E-3,8.0278E-3,1.4284166E-2,2.4896674E-2,7.632292E-4,-8.320863E-4,1.4252791E-1,-3.820013E-3,-3.2281931E-3,-2.325622E-2,-9.389313E-3,9.768409E-2,1.416648E-1,2.3419453E-2,5.4455483E-3,9.682075E-4,1.0256363E-1,-5.699366E-3,5.6368437E-2,-1.15359975E-2,-2.3364382E-2,3.9531726E-2,-1.3357462E-2,3.6224734E-2,5.396865E-3,-8.948337E-3,4.8456007E-1,5.3277135E-2,2.301595E-2,1.2407955E-2,4.8267967E-3,3.013844E-4,2.1035988E-3,-2.5397664E-4,2.03354E-4,1.8745309E-3,1.6063772E-3,-5.2374415E-4,-7.119744E-4,-2.679104E-4,1.8624126E-3,-4.2171532E-4,-4.1805228E-4,2.4595477E-3,6.3000843E-3,-9.384289E-5,-5.1099225E-4,2.2958823E-4,-4.222584E-4,1.838213E-2,5.416341E-4,7.7578486E-3,8.243385E-4,1.5397894E-4],"categories":[],"categories_nodes":[],"categories_segments":[],"categories_sizes":[],"default_left":[0,0,0,0,0,0,0,0,0,0,0,0,0,0,0,0,0,0,0,0,0,0,0,0,0,0,0,0,0,0,0,0,0,0,0,0,0,0,0,0,0,0,0,0,0,0,0,0,0,0,0,0,0,0,0,0,0,0,0,0,0,0,0,0,0],"id":6,"left_children":[1,3,5,7,9,11,13,15,-1,17,19,21,-1,-1,23,-1,-1,25,27,29,31,33,35,37,39,-1,-1,41,43,45,47,49,51,53,55,-1,57,59,61,63,-1,-1,-1,-1,-1,-1,-1,-1,-1,-1,-1,-1,-1,-1,-1,-1,-1,-1,-1,-1,-1,-1,-1,-1,-1],"loss_changes":[1.9890114E0,1.5927482E-1,2.7949882E-1,6.1948866E-1,1.0481727E-1,1.5012172E-1,4.0619302E-1,4.3712608E-3,0E0,6.357855E-2,2.4402142E-2,7.855371E-2,0E0,0E0,3.4459913E-1,0E0,0E0,7.038325E-3,5.7565287E-2,3.2337766E-2,1.5252948E-2,6.0938988E-2,6.297459E-2,7.3187685E-1,3.0425513E-1,0E0,0E0,2.5366183E-2,5.953501E-2,2.0027626E-3,2.2903996E-2,1.0982871E-2,5.7061156E-3,1.8104348E-2,1.8530071E-1,0E0,6.6722115E-4,3.2819402E-1,1.4719987E-1,1.5881145E-1,0E0,0E0,0E0,0E0,0E0,0E0,0E0,0E0,0E0,0E0,0E0,0E0,0E0,0E0,0E0,0E0,0E0,0E0,0E0,0E0,0E0,0E0,0E0,0E0,0E0],"parents":[2147483647,0,0,1,1,2,2,3,3,4,4,5,5,6,6,7,7,9,9,10,10,11,11,14,14,17,17,18,18,19,19,20,20,21,21,22,22,23,23,24,24,27,27,28,28,29,29,30,30,31,31,32,32,33,33,34,34,36,36,37,37,38,38,39,39],"right_children":[2,4,6,8,10,12,14,16,-1,18,20,22,-1,-1,24,-1,-1,26,28,30,32,34,36,38,40,-1,-1,42,44,46,48,50,52,54,56,-1,58,60,62,64,-1,-1,-1,-1,-1,-1,-1,-1,-1,-1,-1,-1,-1,-1,-1,-1,-1,-1,-1,-1,-1,-1,-1,-1,-1],"split_conditions":[4.210992E-1,-3.2338053E-2,1.359581E-1,3.3398995E-1,-7.5015545E-2,2.0267943E-1,-5.487306E-1,2.6656315E-2,1.4692357E-2,6.855489E-1,5.500466E-1,-5.917348E-1,8.0278E-3,1.4284166E-2,4.1409433E-1,7.632292E-4,-8.320863E-4,-5.278341E-1,-2.0993212E-1,5.3422076E-1,-1.1961272E-1,-6.5507513E-1,4.2795528E-2,4.0256092E-1,-2.5338322E-1,5.4455483E-3,9.682075E-4,-5.279125E-1,-5.590617E-1,-2.2344809E-2,-1.9490471E-1,-2.5921318E-1,-5.279125E-1,-4.4109604E-1,1.5273507E-1,5.396865E-3,-5.279125E-1,4.1406885E-1,3.126635E-1,1.4069492E-1,1.2407955E-2,4.8267967E-3,3.013844E-4,2.1035988E-3,-2.5397664E-4,2.03354E-4,1.8745309E-3,1.6063772E-3,-5.2374415E-4,-7.119744E-4,-2.679104E-4,1.8624126E-3,-4.2171532E-4,-4.1805228E-4,2.4595477E-3,6.3000843E-3,-9.384289E-5,-5.1099225E-4,2.2958823E-4,-4.222584E-4,1.838213E-2,5.416341E-4,7.7578486E-3,8.243385E-4,1.5397894E-4],"split_indices":[352,808,662,498,651,504,422,25,0,162,38,252,0,0,17,0,0,0,293,894,941,694,20,362,146,0,0,0,35,40,530,542,0,697,605,0,0,17,99,134,0,0,0,0,0,0,0,0,0,0,0,0,0,0,0,0,0,0,0,0,0,0,0,0,0],"split_type":[0,0,0,0,0,0,0,0,0,0,0,0,0,0,0,0,0,0,0,0,0,0,0,0,0,0,0,0,0,0,0,0,0,0,0,0,0,0,0,0,0,0,0,0,0,0,0,0,0,0,0,0,0,0,0,0,0,0,0,0,0,0,0,0,0],"sum_hessian":[4.828E3,2.471E3,2.357E3,1.3E1,2.458E3,3.4E2,2.017E3,1.1E1,2E0,2.86E2,2.172E3,3.39E2,1E0,1E0,2.016E3,1E0,1E1,2E0,2.84E2,6.3E1,2.109E3,3.33E2,6E0,2.4E1,1.992E3,1E0,1E0,4E0,2.8E2,7E0,5.6E1,2.106E3,3E0,3.07E2,2.6E1,3E0,3E0,4E0,2E1,1.991E3,1E0,2E0,2E0,9E0,2.71E2,1E0,6E0,4E0,5.2E1,2.053E3,5.3E1,2E0,1E0,3.06E2,1E0,4E0,2.2E1,2E0,1E0,1E0,3E0,1.8E1,2E0,1.593E3,3.98E2],"tree_param":{"num_deleted":"0","num_feature":"1024","num_nodes":"65","size_leaf_vector":"1"}},{"base_weights":[1.2830504E-4,-1.9094229E-2,2.1878723E-2,-1.9296277E-2,7.4813245E-3,2.1501992E-2,1.31276045E-2,-2.293135E-2,-6.603337E-3,2.1125771E-2,1.3099023E-2,1.3852589E-2,-2.3049455E-2,5.466685E-3,-1.5925016E-2,-2.6395824E-3,2.3788413E-2,-1.4016878E-2,1.1477673E-3,-1.6783994E-2,-2.3515534E-2,1.6282841E-4,9.486292E-2,-1.746816E-2,5.6232344E-2,-4.1105836E-3,4.9912296E-3,1.4116439E-2,2.3337647E-2,4.6338514E-6,-5.6376436E-4,-5.259373E-4,1.3174678E-3,-4.42396E-4,-7.094212E-4,-5.498963E-5,2.7940585E-3,7.2808512E-3,9.7445655E-4,-5.478181E-4,2.1468392E-3,2.0924285E-3,-3.7288942E-4,-2.7264334E-4,1.3615919E-3,2.8499083E-3,6.266224E-4],"categories":[],"categories_nodes":[],"categories_segments":[],"categories_sizes":[],"default_left":[0,0,0,0,0,0,0,0,0,0,0,0,0,0,0,0,0,0,0,0,0,0,0,0,0,0,0,0,0,0,0,0,0,0,0,0,0,0,0,0,0,0,0,0,0,0,0],"id":7,"left_children":[1,3,5,7,-1,9,-1,11,13,15,-1,17,19,21,23,25,27,29,-1,31,33,35,37,39,41,43,-1,-1,45,-1,-1,-1,-1,-1,-1,-1,-1,-1,-1,-1,-1,-1,-1,-1,-1,-1,-1],"loss_changes":[2.019414E0,1.4389402E-1,3.4546924E-1,1.18104815E-1,0E0,3.4452748E-1,0E0,8.973241E-3,6.4444415E-2,1.4332557E-1,0E0,5.297608E-3,5.404949E-3,1.1852078E-1,3.6948055E-2,5.761779E-2,3.9903593E-1,2.735905E-4,0E0,7.1653537E-3,1.7853975E-3,4.4147473E-2,1.2122369E-1,2.3671411E-2,7.362837E-3,5.658543E-2,0E0,0E0,3.553251E-1,0E0,0E0,0E0,0E0,0E0,0E0,0E0,0E0,0E0,0E0,0E0,0E0,0E0,0E0,0E0,0E0,0E0,0E0],"parents":[2147483647,0,0,1,1,2,2,3,3,5,5,7,7,8,8,9,9,11,11,12,12,13,13,14,14,15,15,16,16,17,17,19,19,20,20,21,21,22,22,23,23,24,24,25,25,28,28],"right_children":[2,4,6,8,-1,10,-1,12,14,16,-1,18,20,22,24,26,28,30,-1,32,34,36,38,40,42,44,-1,-1,46,-1,-1,-1,-1,-1,-1,-1,-1,-1,-1,-1,-1,-1,-1,-1,-1,-1,-1],"split_conditions":[2.4539259E-1,2.3608904E-1,-3.7538642E-1,-9.9532075E-2,7.4813245E-3,-8.180812E-2,1.31276045E-2,4.163657E-1,5.2389875E-2,3.6648843E-1,1.3099023E-2,4.273632E-1,6.650535E-2,6.050141E-3,-1.6200447E-1,-4.436033E-1,4.2148578E-1,-5.279478E-1,1.1477673E-3,6.5933937E-1,9.036686E-2,-9.935984E-2,7.257727E-1,7.8540605E-1,4.2854927E-2,-3.7567943E-1,4.9912296E-3,1.4116439E-2,1.9552323E-1,4.6338514E-6,-5.6376436E-4,-5.259373E-4,1.3174678E-3,-4.42396E-4,-7.094212E-4,-5.498963E-5,2.7940585E-3,7.2808512E-3,9.7445655E-4,-5.478181E-4,2.1468392E-3,2.0924285E-3,-3.7288942E-4,-2.7264334E-4,1.3615919E-3,2.8499083E-3,6.266224E-4],"split_indices":[589,600,848,280,0,828,0,399,88,57,0,26,837,567,880,756,937,0,0,839,845,280,503,41,20,14,0,0,356,0,0,0,0,0,0,0,0,0,0,0,0,0,0,0,0,0,0],"split_type":[0,0,0,0,0,0,0,0,0,0,0,0,0,0,0,0,0,0,0,0,0,0,0,0,0,0,0,0,0,0,0,0,0,0,0,0,0,0,0,0,0,0,0,0,0,0,0],"sum_hessian":[4.828E3,2.563E3,2.265E3,2.562E3,1E0,2.264E3,1E0,1.991E3,5.71E2,2.263E3,1E0,6E0,1.985E3,2.49E2,3.22E2,2.28E2,2.035E3,3E0,3E0,1.4E2,1.845E3,2.36E2,1.3E1,3.16E2,6E0,2.27E2,1E0,1E0,2.034E3,1E0,2E0,1.39E2,1E0,2.9E1,1.816E3,2.32E2,4E0,3E0,1E1,3.14E2,2E0,5E0,1E0,2.07E2,2E1,6.6E1,1.968E3],"tree_param":{"num_deleted":"0","num_feature":"1024","num_nodes":"47","size_leaf_vector":"1"}},{"base_weights":[1.3934956E-4,2.3779936E-2,-1.7397191E-2,2.3373133E-2,1.2902538E-2,2.3302026E-3,-2.0959023E-2,2.0057548E-2,7.040411E-2,2.120314E-1,3.369919E-4,-2.1290207E-2,2.8662374E-2,4.9862146E-2,1.6949229E-2,5.6035094E-2,4.327916E-1,8.388784E-3,1.3870808E-4,-9.1612333E-4,1.756608E-1,-2.2182789E-2,-1.0863077E-2,6.764345E-3,-1.55597525E-2,3.773321E-2,2.3387907E-1,1.6547294E-2,7.332647E-3,3.1695515E-2,2.947613E-1,2.3242545E-4,1.6113473E-2,6.445982E-2,-2.832004E-3,6.442456E-3,1.4622795E-3,-2.2266509E-2,4.5127723E-2,-1.1985533E-2,2.9518707E-3,3.185693E-4,-2.3664767E-2,2.292162E-4,2.715445E-3,1.6146232E-3,1.3175546E-2,4.7605447E-4,3.9718403E-3,1.4060503E-2,7.2254497E-4,6.411186E-4,1.4609622E-2,3.044301E-3,-2.2977429E-4,2.051594E-3,-1.3816156E-4,-6.7088683E-4,3.118367E-4,-2.7415354E-4,2.3049011E-3,-4.010102E-4,2.2883872E-3,-7.4225944E-4,-1.933893E-4],"categories":[],"categories_nodes":[],"categories_segments":[],"categories_sizes":[],"default_left":[0,0,0,0,0,0,0,0,0,0,0,0,0,0,0,0,0,0,0,0,0,0,0,0,0,0,0,0,0,0,0,0,0,0,0,0,0,0,0,0,0,0,0,0,0,0,0,0,0,0,0,0,0,0,0,0,0,0,0,0,0,0,0,0,0],"id":8,"left_children":[1,3,5,7,-1,9,11,13,15,17,19,21,23,25,27,29,31,-1,-1,33,35,37,39,-1,41,43,45,47,-1,49,51,-1,-1,53,55,-1,-1,57,59,61,-1,-1,63,-1,-1,-1,-1,-1,-1,-1,-1,-1,-1,-1,-1,-1,-1,-1,-1,-1,-1,-1,-1,-1,-1],"loss_changes":[2.0023923E0,3.2994175E-1,1.9489545E-1,3.1919062E-1,0E0,1.7756948E-1,3.92133E-2,1.7721313E-1,6.7871416E-1,5.4785818E-2,9.287473E-2,2.1481633E-2,1.427662E-1,3.951543E-1,1.5522486E-1,7.5183225E-1,2.1755046E-1,0E0,0E0,5.2788604E-2,4.415415E-3,1.3115048E-2,2.3990033E-2,0E0,3.2218017E-3,2.7091455E-1,3.8299978E-1,1.3472992E-1,0E0,3.8780507E-1,6.2022674E-1,0E0,0E0,3.2812655E-2,5.197063E-2,0E0,0E0,6.9913864E-3,5.8631976E-3,2.3577785E-2,0E0,0E0,4.453305E-5,0E0,0E0,0E0,0E0,0E0,0E0,0E0,0E0,0E0,0E0,0E0,0E0,0E0,0E0,0E0,0E0,0E0,0E0,0E0,0E0,0E0,0E0],"parents":[2147483647,0,0,1,1,2,2,3,3,5,5,6,6,7,7,8,8,9,9,10,10,11,11,12,12,13,13,14,14,15,15,16,16,19,19,20,20,21,21,22,22,24,24,25,25,26,26,27,27,29,29,30,30,33,33,34,34,37,37,38,38,39,39,42,42],"right_children":[2,4,6,8,-1,10,12,14,16,18,20,22,24,26,28,30,32,-1,-1,34,36,38,40,-1,42,44,46,48,-1,50,52,-1,-1,54,56,-1,-1,58,60,62,-1,-1,64,-1,-1,-1,-1,-1,-1,-1,-1,-1,-1,-1,-1,-1,-1,-1,-1,-1,-1,-1,-1,-1,-1],"split_conditions":[-3.4742132E-1,-8.180812E-2,1.1653898E-1,-1.6027203E-1,1.2902538E-2,4.8207054E-1,4.552003E-1,1.01782724E-1,2.9959723E-1,-5.1555276E-1,5.9414648E-2,1.4881629E-1,5.7157284E-1,-3.764279E-1,3.5781634E-1,5.7171476E-1,5.9116177E-2,8.388784E-3,1.3870808E-4,2.4315407E-2,5.9354868E-2,4.56247E-2,-3.7564597E-1,6.764345E-3,3.339437E-1,1.8048383E-1,-9.584956E-1,2.4993974E-1,7.332647E-3,1.4872305E-1,-4.4172797E-1,2.3242545E-4,1.6113473E-2,-6.3050854E-1,-2.1270512E-1,6.442456E-3,1.4622795E-3,-1.1966542E-1,5.900905E-2,-2.1248455E-1,2.9518707E-3,3.185693E-4,5.9264652E-2,2.292162E-4,2.715445E-3,1.6146232E-3,1.3175546E-2,4.7605447E-4,3.9718403E-3,1.4060503E-2,7.2254497E-4,6.411186E-4,1.4609622E-2,3.044301E-3,-2.2977429E-4,2.051594E-3,-1.3816156E-4,-6.7088683E-4,3.118367E-4,-2.7415354E-4,2.3049011E-3,-4.010102E-4,2.2883872E-3,-7.4225944E-4,-1.933893E-4],"split_indices":[16,828,218,650,0,568,173,990,690,7,733,361,221,531,976,221,1,0,0,538,1,490,14,0,498,165,153,30,0,361,75,0,0,379,1014,0,0,941,1,1014,0,0,1,0,0,0,0,0,0,0,0,0,0,0,0,0,0,0,0,0,0,0,0,0,0],"split_type":[0,0,0,0,0,0,0,0,0,0,0,0,0,0,0,0,0,0,0,0,0,0,0,0,0,0,0,0,0,0,0,0,0,0,0,0,0,0,0,0,0,0,0,0,0,0,0,0,0,0,0,0,0,0,0,0,0,0,0,0,0,0,0,0,0],"sum_hessian":[4.828E3,2.056E3,2.772E3,2.055E3,1E0,4.24E2,2.348E3,1.921E3,1.34E2,3E0,4.21E2,2.333E3,1.5E1,1.8E2,1.741E3,1.3E2,4E0,2E0,1E0,4.19E2,2E0,2.148E3,1.85E2,2E0,1.3E1,1.7E2,1E1,1.739E3,2E0,1.19E2,1.1E1,1E0,3E0,1.1E1,4.08E2,1E0,1E0,2.146E3,2E0,1.84E2,1E0,3E0,1E1,1.09E2,6.1E1,6E0,4E0,1.73E3,9E0,1E0,1.18E2,5E0,6E0,7E0,4E0,9E0,3.99E2,2.14E3,6E0,1E0,1E0,1.82E2,2E0,9E0,1E0],"tree_param":{"num_deleted":"0","num_feature":"1024","num_nodes":"65","size_leaf_vector":"1"}},{"base_weights":[1.6056068E-4,-1.8295038E-2,2.1411145E-2,-1.8499143E-2,7.63672E-3,1.6746388E-1,2.0879494E-2,5.5453023E-3,-1.864943E-2,-4.5070136E-3,1.0216845E-2,5.5360384E-3,2.5508767E-2,-2.1476826E-2,-7.6306183E-3,-6.892743E-4,4.6392358E-4,4.236589E-3,1.7210588E-1,2.8364422E-2,-1.1133462E-2,5.4663796E-2,-2.1651972E-2,2.7019713E-2,-1.0443644E-2,4.826962E-3,3.3157677E-3,-2.5005965E-4,7.0509417E-3,2.4735522E-2,6.806906E-2,-1.9267313E-2,8.732652E-3,2.4045017E-3,3.2868804E-4,-6.5383007E-4,7.027719E-5,2.272451E-4,3.528189E-3,2.708356E-3,-3.3748455E-4,7.106446E-5,3.710901E-3,6.773364E-4,2.1938116E-3,7.2954646E-3,1.3124418E-3,1.2926574E-4,-6.399738E-4,1.3241868E-3,-1.2673657E-4],"categories":[],"categories_nodes":[],"categories_segments":[],"categories_sizes":[],"default_left":[0,0,0,0,0,0,0,0,0,0,0,0,0,0,0,0,0,0,0,0,0,0,0,0,0,0,0,0,0,0,0,0,0,0,0,0,0,0,0,0,0,0,0,0,0,0,0,0,0,0,0],"id":9,"left_children":[1,3,5,7,-1,9,11,-1,13,15,-1,17,19,21,23,-1,-1,25,27,29,31,33,35,37,39,-1,41,-1,-1,43,45,47,49,-1,-1,-1,-1,-1,-1,-1,-1,-1,-1,-1,-1,-1,-1,-1,-1,-1,-1],"loss_changes":[1.8942882E0,1.4866984E-1,1.7082536E-1,8.241248E-2,0E0,2.3967697E-1,1.5882176E-1,0E0,8.030832E-2,2.1995145E-3,0E0,1.118244E-1,1.801877E-1,2.8588653E-2,5.1845014E-2,0E0,0E0,7.404782E-2,4.737647E-2,2.281307E-1,2.0366756E-2,4.6915626E-3,7.0570707E-3,6.956695E-2,4.0787008E-2,0E0,5.8414403E-2,0E0,0E0,1.5110296E-1,5.557985E-1,4.4251755E-3,1.7161129E-2,0E0,0E0,0E0,0E0,0E0,0E0,0E0,0E0,0E0,0E0,0E0,0E0,0E0,0E0,0E0,0E0,0E0,0E0],"parents":[2147483647,0,0,1,1,2,2,3,3,5,5,6,6,8,8,9,9,11,11,12,12,13,13,14,14,17,17,18,18,19,19,20,20,21,21,22,22,23,23,24,24,26,26,29,29,30,30,31,31,32,32],"right_children":[2,4,6,8,-1,10,12,-1,14,16,-1,18,20,22,24,-1,-1,26,28,30,32,34,36,38,40,-1,42,-1,-1,44,46,48,50,-1,-1,-1,-1,-1,-1,-1,-1,-1,-1,-1,-1,-1,-1,-1,-1,-1,-1],"split_conditions":[5.927663E-2,-1.476564E-1,-5.7956386E-1,-6.3066745E-1,7.63672E-3,6.782398E-2,-5.79415E-1,5.5453023E-3,-2.2302823E-2,5.9446827E-2,1.0216845E-2,6.585337E-2,-1.9527173E-1,3.9194744E-2,-5.1579314E-1,-6.892743E-4,4.6392358E-4,-4.8879468E-1,-3.759388E-1,-1.6027203E-1,8.269307E-2,1.5681906E-1,6.142722E-1,6.4088625E-1,5.03523E-1,4.826962E-3,4.5523265E-1,-2.5005965E-4,7.0509417E-3,-8.766839E-1,-3.7585437E-1,-6.305572E-1,-3.156357E-1,2.4045017E-3,3.2868804E-4,-6.5383007E-4,7.027719E-5,2.272451E-4,3.528189E-3,2.708356E-3,-3.3748455E-4,7.106446E-5,3.710901E-3,6.773364E-4,2.1938116E-3,7.2954646E-3,1.3124418E-3,1.2926574E-4,-6.399738E-4,1.3241868E-3,-1.2673657E-4],"split_indices":[733,91,719,379,0,151,719,0,40,1,0,409,424,999,931,0,0,1000,14,650,224,42,949,22,372,0,173,0,0,384,14,379,152,0,0,0,0,0,0,0,0,0,0,0,0,0,0,0,0,0,0],"split_type":[0,0,0,0,0,0,0,0,0,0,0,0,0,0,0,0,0,0,0,0,0,0,0,0,0,0,0,0,0,0,0,0,0,0,0,0,0,0,0,0,0,0,0,0,0,0,0,0,0,0,0],"sum_hessian":[4.828E3,2.584E3,2.244E3,2.583E3,1E0,7E0,2.237E3,1E0,2.582E3,4E0,3E0,5.19E2,1.718E3,2.054E3,5.28E2,2E0,2E0,5.16E2,3E0,1.594E3,1.24E2,4E0,2.05E3,3.9E1,4.89E2,2E0,5.14E2,1E0,2E0,1.462E3,1.32E2,8.8E1,3.6E1,2E0,2E0,2.038E3,1.2E1,3.3E1,6E0,3E0,4.86E2,5.11E2,3E0,1.401E3,6.1E1,1.5E1,1.17E2,7E0,8.1E1,9E0,2.7E1],"tree_param":{"num_deleted":"0","num_feature":"1024","num_nodes":"51","size_leaf_vector":"1"}},{"base_weights":[1.6796683E-4,-1.6751472E-2,1.9649738E-2,1.7786792E-1,-1.7424665E-2,1.9325707E-2,1.1201647E-2,-1.8479465E-2,1.283766E-2,-1.9311322E-2,5.4664705E-3,2.2885252E-2,-8.405774E-3,-6.273083E-4,-9.488085E-5,1.3022801E-1,-1.9491779E-2,1.989516E-3,1.7273216E-1,2.2986384E-1,2.2352366E-2,-9.392569E-3,3.6484052E-3,-3.4492827E-4,6.2051886E-3,6.1362755E-2,-1.9722074E-2,-4.9023156E-4,7.2087115E-3,7.189977E-3,-4.210364E-4,2.844645E-2,1.0639798E-2,1.6867967E-1,2.1526061E-2,2.9333476E-3,-1.0199456E-2,-8.752359E-5,4.4412655E-3,-3.8678123E-4,-6.368048E-4,-1.5680298E-4,3.783388E-3,-3.7078385E-4,1.6508742E-3,1.2755842E-2,5.8011495E-4,2.8482773E-3,6.1493873E-4,-1.54505E-5,-5.2427786E-4],"categories":[],"categories_nodes":[],"categories_segments":[],"categories_sizes":[],"default_left":[0,0,0,0,0,0,0,0,0,0,0,0,0,0,0,0,0,0,0,0,0,0,0,0,0,0,0,0,0,0,0,0,0,0,0,0,0,0,0,0,0,0,0,0,0,0,0,0,0,0,0],"id":10,"left_children":[1,3,5,7,9,11,-1,13,-1,15,17,19,21,-1,-1,23,25,27,29,31,33,35,-1,-1,-1,37,39,41,-1,-1,-1,43,-1,45,47,-1,49,-1,-1,-1,-1,-1,-1,-1,-1,-1,-1,-1,-1,-1,-1],"loss_changes":[1.5920672E0,3.4177756E-1,2.5011146E-1,4.4978496E-1,1.1140025E-1,2.2170073E-1,0E0,1.5726057E-4,0E0,6.679064E-2,1.1422666E-1,2.1424067E-1,3.398768E-2,0E0,0E0,3.4951642E-2,4.5508087E-2,1.1475743E-1,5.3367585E-2,1.15591735E-1,2.363773E-1,2.3048323E-2,0E0,0E0,0E0,3.9434306E-2,2.4112403E-2,1.1639361E-1,0E0,0E0,0E0,3.934323E-3,0E0,4.131726E-1,1.4712638E-1,0E0,1.7890014E-2,0E0,0E0,0E0,0E0,0E0,0E0,0E0,0E0,0E0,0E0,0E0,0E0,0E0,0E0],"parents":[2147483647,0,0,1,1,2,2,3,3,4,4,5,5,7,7,9,9,10,10,11,11,12,12,15,15,16,16,17,17,18,18,19,19,20,20,21,21,25,25,26,26,27,27,31,31,33,33,34,34,36,36],"right_children":[2,4,6,8,10,12,-1,14,-1,16,18,20,22,-1,-1,24,26,28,30,32,34,36,-1,-1,-1,38,40,42,-1,-1,-1,44,-1,46,48,-1,50,-1,-1,-1,-1,-1,-1,-1,-1,-1,-1,-1,-1,-1,-1],"split_conditions":[-2.0711517E-1,5.1782227E-1,4.2881644E-1,5.9450284E-2,2.016159E-1,2.5051898E-1,1.1201647E-2,5.9264652E-2,1.283766E-2,-2.5915882E-2,1.6639085E-1,3.0935404E-1,-2.893142E-2,-6.273083E-4,-9.488085E-5,5.909998E-2,1.615201E-1,-4.1529885E-1,5.9203673E-2,5.9175037E-2,-2.5973424E-2,-9.745258E-2,3.6484052E-3,-3.4492827E-4,6.2051886E-3,9.660343E-1,3.3628786E-1,6.50457E-2,7.2087115E-3,7.189977E-3,-4.210364E-4,5.9083704E-2,1.0639798E-2,-1.1856211E-3,4.5469284E-2,2.9333476E-3,1.1652323E-1,-8.752359E-5,4.4412655E-3,-3.8678123E-4,-6.368048E-4,-1.5680298E-4,3.783388E-3,-3.7078385E-4,1.6508742E-3,1.2755842E-2,5.8011495E-4,2.8482773E-3,6.1493873E-4,-1.54505E-5,-5.2427786E-4],"split_indices":[938,139,795,120,794,395,0,1,0,11,76,386,233,0,0,1,259,347,1,1,911,813,0,0,0,15,31,555,0,0,0,1,0,154,231,0,218,0,0,0,0,0,0,0,0,0,0,0,0,0,0],"split_type":[0,0,0,0,0,0,0,0,0,0,0,0,0,0,0,0,0,0,0,0,0,0,0,0,0,0,0,0,0,0,0,0,0,0,0,0,0,0,0,0,0,0,0,0,0,0,0,0,0,0,0],"sum_hessian":[4.828E3,2.584E3,2.244E3,8E0,2.576E3,2.243E3,1E0,5E0,3E0,2.38E3,1.96E2,1.988E3,2.55E2,4E0,1E0,2E0,2.378E3,1.93E2,3E0,4E0,1.984E3,2.54E2,1E0,1E0,1E0,6E0,2.372E3,1.92E2,1E0,2E0,1E0,2E0,2E0,1E1,1.974E3,1E0,2.53E2,4E0,2E0,4.3E2,1.942E3,1.86E2,6E0,1E0,1E0,3E0,7E0,2.6E1,1.948E3,1.09E2,1.44E2],"tree_param":{"num_deleted":"0","num_feature":"1024","num_nodes":"51","size_leaf_vector":"1"}},{"base_weights":[1.8050411E-4,2.0758864E-2,-1.714871E-2,2.0387879E-2,1.2592889E-2,6.645404E-4,-1.941586E-2,2.0025488E-2,1.22973025E-2,1.16165146E-1,-9.091568E-4,-1.9666448E-2,6.641074E-2,4.738708E-2,1.7497392E-2,1.3979694E-3,4.8729545E-3,-3.426708E-3,7.093197E-2,-2.039477E-2,-1.0998616E-2,7.635633E-3,-7.361168E-3,2.017855E-1,3.4618493E-2,1.12837225E-1,1.6776118E-2,7.339062E-2,-5.0605554E-3,4.320642E-3,5.0930637E-3,-2.0487128E-2,2.3120984E-2,1.1679554E-2,-1.6287383E-2,3.0115095E-4,-5.5711577E-4,1.1993337E-2,9.956878E-5,8.333987E-3,8.165683E-4,1.1489289E-2,4.0163271E-4,4.7932757E-4,2.9846118E-3,1.9721787E-4,6.1121103E-3,-2.5234622E-4,8.399853E-4,9.1352494E-4,-1.5328586E-4,2.9674429E-4,-6.1775115E-4,1.3790044E-3,-2.229552E-4,-4.8223326E-5,2.2850386E-3,-5.2186084E-4,8.384619E-4],"categories":[],"categories_nodes":[],"categories_segments":[],"categories_sizes":[],"default_left":[0,0,0,0,0,0,0,0,0,0,0,0,0,0,0,0,0,0,0,0,0,0,0,0,0,0,0,0,0,0,0,0,0,0,0,0,0,0,0,0,0,0,0,0,0,0,0,0,0,0,0,0,0,0,0,0,0,0,0],"id":11,"left_children":[1,3,5,7,-1,9,11,13,-1,15,17,19,21,23,25,-1,-1,27,29,31,33,-1,35,37,39,41,43,45,47,49,-1,51,53,55,57,-1,-1,-1,-1,-1,-1,-1,-1,-1,-1,-1,-1,-1,-1,-1,-1,-1,-1,-1,-1,-1,-1,-1,-1],"loss_changes":[1.7224102E0,3.1828147E-1,1.0590309E-1,3.033291E-1,0E0,5.408922E-2,5.1332116E-2,1.5176594E-1,0E0,5.305223E-3,5.3416993E-2,1.4421821E-2,9.901439E-2,3.59704E-1,1.3708317E-1,0E0,0E0,3.6141112E-2,6.510301E-2,9.070396E-3,2.201922E-2,0E0,1.3566434E-3,5.488013E-1,3.0373994E-1,3.9785057E-1,1.3096774E-1,5.0916538E-2,3.125498E-2,1.8804745E-3,0E0,6.9863796E-3,3.8316413E-3,3.0112443E-2,7.7400655E-3,0E0,0E0,0E0,0E0,0E0,0E0,0E0,0E0,0E0,0E0,0E0,0E0,0E0,0E0,0E0,0E0,0E0,0E0,0E0,0E0,0E0,0E0,0E0,0E0],"parents":[2147483647,0,0,1,1,2,2,3,3,5,5,6,6,7,7,9,9,10,10,11,11,12,12,13,13,14,14,17,17,18,18,19,19,20,20,22,22,23,23,24,24,25,25,26,26,27,27,28,28,29,29,31,31,32,32,33,33,34,34],"right_children":[2,4,6,8,-1,10,12,14,-1,16,18,20,22,24,26,-1,-1,28,30,32,34,-1,36,38,40,42,44,46,48,50,-1,52,54,56,58,-1,-1,-1,-1,-1,-1,-1,-1,-1,-1,-1,-1,-1,-1,-1,-1,-1,-1,-1,-1,-1,-1,-1,-1],"split_conditions":[8.544504E0,-3.7538642E-1,1.1653898E-1,2.1785863E-1,1.2592889E-2,4.2721325E-1,4.552068E-1,1.01782724E-1,1.22973025E-2,-5.2793455E-1,4.049622E-1,-3.6909074E-1,4.272639E-1,6.8722147E-1,-2.99981E-1,1.3979694E-3,4.8729545E-3,-4.6678135E-1,1.6971596E-2,8.971801E-2,1.5268804E-2,7.635633E-3,-5.279879E-1,-4.924328E-1,-2.1579005E-1,4.0932104E-2,-6.7735547E-1,-5.278473E-1,8.969953E-2,-5.280273E-1,5.0930637E-3,2.2474356E-1,2.6855791E-2,-5.864576E-1,-4.1492775E-1,3.0115095E-4,-5.5711577E-4,1.1993337E-2,9.956878E-5,8.333987E-3,8.165683E-4,1.1489289E-2,4.0163271E-4,4.7932757E-4,2.9846118E-3,1.9721787E-4,6.1121103E-3,-2.5234622E-4,8.399853E-4,9.1352494E-4,-1.5328586E-4,2.9674429E-4,-6.1775115E-4,1.3790044E-3,-2.229552E-4,-4.8223326E-5,2.2850386E-3,-5.2186084E-4,8.384619E-4],"split_indices":[342,848,218,785,0,26,173,990,0,0,69,301,26,982,179,0,0,64,186,595,822,0,0,330,275,707,1013,0,595,0,0,777,25,448,206,0,0,0,0,0,0,0,0,0,0,0,0,0,0,0,0,0,0,0,0,0,0,0,0],"split_type":[0,0,0,0,0,0,0,0,0,0,0,0,0,0,0,0,0,0,0,0,0,0,0,0,0,0,0,0,0,0,0,0,0,0,0,0,0,0,0,0,0,0,0,0,0,0,0,0,0,0,0,0,0,0,0,0,0,0,0],"sum_hessian":[4.828E3,2.207E3,2.621E3,2.206E3,1E0,2.96E2,2.325E3,2.205E3,1E0,3E0,2.93E2,2.319E3,6E0,1.85E2,2.02E3,2E0,1E0,2.84E2,9E0,2.138E3,1.81E2,1E0,5E0,1.3E1,1.72E2,1.4E1,2.006E3,5E0,2.79E2,6E0,3E0,2.134E3,4E0,3.4E1,1.47E2,2E0,3E0,6E0,7E0,4E0,1.68E2,3E0,1.1E1,1.988E3,1.8E1,4E0,1E0,2.54E2,2.5E1,1E0,5E0,7E0,2.127E3,2E0,2E0,2.9E1,5E0,1.44E2,3E0],"tree_param":{"num_deleted":"0","num_feature":"1024","num_nodes":"59","size_leaf_vector":"1"}},{"base_weights":[1.9399056E-4,2.1300346E-2,-1.5462686E-2,2.0908501E-2,1.2403997E-2,5.5515677E-2,-1.6154697E-2,2.052572E-2,1.2112843E-2,4.17633E-3,2.3450734E-1,-1.9424405E-2,-6.0693407E-3,2.0183189E-2,1.0861283E-2,5.669181E-2,-1.4604213E-2,2.8328206E-5,2.810311E-1,1.0810645E-2,-1.9664722E-2,5.1352903E-3,-6.8515847E-3,1.8578038E-2,7.609386E-2,2.7933412E-3,-1.07648745E-2,-2.239716E-2,-2.7183522E-4,2.5024696E-3,9.287431E-3,3.4744374E-2,-1.4324268E-2,-2.0444216E-2,-1.5775701E-2,8.586612E-2,-7.675355E-3,4.935818E-3,5.394681E-4,9.4621227E-4,1.0351235E-2,-4.1156806E-4,-7.285128E-5,-2.3163237E-4,-7.440184E-4,1.7618368E-4,-1.9045503E-4,1.5023997E-3,9.164577E-5,-6.432915E-4,2.118294E-4,-6.1437424E-4,5.891258E-4,7.12514E-4,-4.961576E-4,8.274075E-5,7.521099E-3,-1.1693012E-4,-5.5830163E-4],"categories":[],"categories_nodes":[],"categories_segments":[],"categories_sizes":[],"default_left":[0,0,0,0,0,0,0,0,0,0,0,0,0,0,0,0,0,0,0,0,0,0,0,0,0,0,0,0,0,0,0,0,0,0,0,0,0,0,0,0,0,0,0,0,0,0,0,0,0,0,0,0,0,0,0,0,0,0,0],"id":12,"left_children":[1,3,5,7,-1,9,11,13,-1,15,17,19,21,23,-1,25,27,-1,29,31,33,-1,35,37,39,-1,41,43,45,-1,-1,47,49,51,53,55,57,-1,-1,-1,-1,-1,-1,-1,-1,-1,-1,-1,-1,-1,-1,-1,-1,-1,-1,-1,-1,-1,-1],"loss_changes":[1.5960984E0,3.0745065E-1,1.3710046E-1,2.9301667E-1,0E0,2.4713212E-1,9.046769E-2,2.3308754E-1,0E0,2.2525862E-2,6.493202E-2,1.5282273E-2,9.462247E-2,1.8292266E-1,0E0,1.574279E-2,1.8926666E-3,0E0,2.385646E-3,1.0724416E-2,5.916178E-3,0E0,5.1985122E-2,1.70771E-1,6.721214E-1,0E0,4.0564802E-5,1.9651884E-4,2.986552E-4,0E0,0E0,4.2208172E-3,1.5215413E-3,2.7971864E-3,1.08863935E-2,8.1504375E-2,2.7479798E-2,0E0,0E0,0E0,0E0,0E0,0E0,0E0,0E0,0E0,0E0,0E0,0E0,0E0,0E0,0E0,0E0,0E0,0E0,0E0,0E0,0E0,0E0],"parents":[2147483647,0,0,1,1,2,2,3,3,5,5,6,6,7,7,9,9,10,10,11,11,12,12,13,13,15,15,16,16,18,18,19,19,20,20,22,22,23,23,24,24,26,26,27,27,28,28,31,31,32,32,33,33,34,34,35,35,36,36],"right_children":[2,4,6,8,-1,10,12,14,-1,16,18,20,22,24,-1,26,28,-1,30,32,34,-1,36,38,40,-1,42,44,46,-1,-1,48,50,52,54,56,58,-1,-1,-1,-1,-1,-1,-1,-1,-1,-1,-1,-1,-1,-1,-1,-1,-1,-1,-1,-1,-1,-1],"split_conditions":[-3.4742132E-1,-5.3930146E-1,8.514031E-2,1.2251786E-2,1.2403997E-2,2.5210783E-1,-1.2816611E-1,4.2881644E-1,1.2112843E-2,-6.29512E-2,-2.5886385E-2,-3.3796528E-1,2.2645637E-1,-3.4743875E-1,1.0861283E-2,-3.47396E-1,3.321721E-1,2.8328206E-5,-2.5857814E-2,2.921891E-1,3.1380865E-1,5.1352903E-3,2.8266466E-1,-3.1674147E-1,-5.650331E-1,2.7933412E-3,-2.5818864E-2,-1.6843157E-1,9.8438907E-1,2.5024696E-3,9.287431E-3,-6.1450716E-2,1.5698826E-1,3.3241782E-1,-6.4478636E-1,-3.4723255E-1,-3.3375554E0,4.935818E-3,5.394681E-4,9.4621227E-4,1.0351235E-2,-4.1156806E-4,-7.285128E-5,-2.3163237E-4,-7.440184E-4,1.7618368E-4,-1.9045503E-4,1.5023997E-3,9.164577E-5,-6.432915E-4,2.118294E-4,-6.1437424E-4,5.891258E-4,7.12514E-4,-4.961576E-4,8.274075E-5,7.521099E-3,-1.1693012E-4,-5.5830163E-4],"split_indices":[16,802,325,466,0,752,751,795,0,236,11,861,150,16,0,16,474,0,11,534,803,0,908,923,450,0,11,411,48,0,0,264,42,474,582,16,322,0,0,0,0,0,0,0,0,0,0,0,0,0,0,0,0,0,0,0,0,0,0],"split_type":[0,0,0,0,0,0,0,0,0,0,0,0,0,0,0,0,0,0,0,0,0,0,0,0,0,0,0,0,0,0,0,0,0,0,0,0,0,0,0,0,0,0,0,0,0,0,0,0,0,0,0,0,0,0,0,0,0,0,0],"sum_hessian":[4.828E3,2.056E3,2.772E3,2.055E3,1E0,2.6E1,2.746E3,2.054E3,1E0,2.1E1,5E0,2.073E3,6.73E2,2.053E3,1E0,5E0,1.6E1,1E0,4E0,1.6E1,2.057E3,2E0,6.71E2,1.997E3,5.6E1,3E0,2E0,1E1,6E0,1E0,3E0,8E0,8E0,1.71E3,3.47E2,5E0,6.66E2,7E0,1.99E3,4.9E1,7E0,1E0,1E0,2E0,8E0,3E0,3E0,5E0,3E0,6E0,2E0,1.709E3,1E0,6E0,3.41E2,4E0,1E0,4.96E2,1.7E2],"tree_param":{"num_deleted":"0","num_feature":"1024","num_nodes":"59","size_leaf_vector":"1"}},{"base_weights":[2.0447021E-4,-1.6060414E-2,1.7497545E-2,-1.6870718E-2,6.786769E-2,-9.141129E-3,2.0223409E-2,2.0094612E-4,-1.8952342E-2,1.3618755E-2,1.9766957E-1,-1.3134466E-2,6.0505677E-2,2.3523282E-1,1.9605061E-2,-2.1864406E-3,6.9412835E-2,-1.966769E-2,-1.0357728E-2,7.784065E-2,-1.7069714E-2,7.1109384E-3,-5.775102E-4,7.853358E-2,-1.4411879E-2,1.7235442E-1,4.072272E-3,2.5745563E-2,1.3084146E-2,1.1653074E-2,1.9247523E-2,-7.930329E-3,1.7187757E-2,-4.8211436E-3,4.9023177E-3,-5.541717E-3,-1.9784348E-2,-1.2950385E-2,1.9642092E-2,3.818719E-4,3.2164252E-3,1.142201E-2,-9.3005446E-4,2.885935E-3,6.480765E-4,1.6014666E-3,-1.5342767E-2,1.5109624E-3,5.8868686E-3,-1.24691175E-2,1.2393427E-3,-5.13123E-3,1.7756391E-3,1.8842788E-2,2.983037E-1,-1.095155E-5,-6.062064E-4,8.994989E-5,2.0477206E-3,4.34524E-5,-3.4720515E-4,-5.1157014E-4,1.730865E-3,-7.463496E-4,-5.889323E-4,-4.1851256E-4,2.1608227E-3,1.7846373E-3,-6.7350804E-5,-1.154203E-5,5.826425E-4,-5.6081626E-4,5.5921006E-5,-4.6733872E-4,9.275891E-5,4.1049196E-5,-2.7195454E-4,4.398578E-3,5.4499327E-4,1.2574889E-2,8.487778E-4],"categories":[],"categories_nodes":[],"categories_segments":[],"categories_sizes":[],"default_left":[0,0,0,0,0,0,0,0,0,0,0,0,0,0,0,0,0,0,0,0,0,0,0,0,0,0,0,0,0,0,0,0,0,0,0,0,0,0,0,0,0,0,0,0,0,0,0,0,0,0,0,0,0,0,0,0,0,0,0,0,0,0,0,0,0,0,0,0,0,0,0,0,0,0,0,0,0,0,0,0,0],"id":13,"left_children":[1,3,5,7,9,11,13,15,17,19,21,23,25,27,29,31,33,35,37,39,41,-1,-1,43,45,47,49,51,-1,-1,53,55,57,59,-1,61,63,65,67,-1,-1,69,-1,-1,-1,-1,71,-1,-1,73,-1,75,-1,77,79,-1,-1,-1,-1,-1,-1,-1,-1,-1,-1,-1,-1,-1,-1,-1,-1,-1,-1,-1,-1,-1,-1,-1,-1,-1,-1],"loss_changes":[1.3585331E0,1.7041552E-1,1.7017281E-1,8.7637424E-2,1.663067E-1,6.142555E-2,2.7777547E-1,4.4600125E-2,1.3309896E-2,3.680441E-2,6.433126E-2,2.53711E-2,7.504219E-2,2.4129406E-1,2.719586E-1,2.9181229E-2,6.358827E-2,3.2323003E-3,1.35546215E-2,1.01106055E-2,5.5144476E-3,0E0,0E0,9.3881227E-4,1.3756324E-2,1.7665774E-3,6.0590026E-3,4.4340845E-3,0E0,0E0,2.3359323E-1,1.875348E-2,4.3274246E-2,2.7076912E-4,0E0,1.4086037E-2,1.0817051E-3,1.443176E-2,1.2343096E-2,0E0,0E0,4.7970674E-4,0E0,0E0,0E0,0E0,1.17402E-2,0E0,0E0,3.8680504E-4,0E0,8.9109926E-5,0E0,1.8020338E-1,8.6040825E-2,0E0,0E0,0E0,0E0,0E0,0E0,0E0,0E0,0E0,0E0,0E0,0E0,0E0,0E0,0E0,0E0,0E0,0E0,0E0,0E0,0E0,0E0,0E0,0E0,0E0,0E0],"parents":[2147483647,0,0,1,1,2,2,3,3,4,4,5,5,6,6,7,7,8,8,9,9,10,10,11,11,12,12,13,13,14,14,15,15,16,16,17,17,18,18,19,19,20,20,23,23,24,24,25,25,26,26,27,27,30,30,31,31,32,32,33,33,35,35,36,36,37,37,38,38,41,41,46,46,49,49,51,51,53,53,54,54],"right_children":[2,4,6,8,10,12,14,16,18,20,22,24,26,28,30,32,34,36,38,40,42,-1,-1,44,46,48,50,52,-1,-1,54,56,58,60,-1,62,64,66,68,-1,-1,70,-1,-1,-1,-1,72,-1,-1,74,-1,76,-1,78,80,-1,-1,-1,-1,-1,-1,-1,-1,-1,-1,-1,-1,-1,-1,-1,-1,-1,-1,-1,-1,-1,-1,-1,-1,-1,-1],"split_conditions":[-1.6030456E-1,8.292224E-2,1.4151469E-2,1.1653898E-1,-1.4472775E-1,4.5146674E-1,-5.151113E-1,4.049622E-1,-2.9334146E-1,-4.8841655E-1,-5.2772146E-1,-1.7991805E-1,4.2743236E-1,2.386341E-1,-5.6581537E-4,4.491777E-2,-3.6726972E-1,1.16206944E-1,-6.94961E-1,2.3851307E-1,1.9695282E-3,7.1109384E-3,-5.775102E-4,-5.2792484E-1,3.5747558E-1,-5.2790344E-1,-5.278774E-1,1.168933E-1,1.3084146E-2,1.1653074E-2,-2.932667E-1,2.9411986E-1,-6.292443E-2,5.9136335E-2,4.9023177E-3,-2.903115E-2,3.6257476E-2,6.342304E-2,6.33943E-1,3.818719E-4,3.2164252E-3,5.933502E-2,-9.3005446E-4,2.885935E-3,6.480765E-4,1.6014666E-3,2.0214097E-1,1.5109624E-3,5.8868686E-3,-5.1541096E-1,1.2393427E-3,-5.279478E-1,1.7756391E-3,-2.851471E-2,-5.278742E-1,-1.095155E-5,-6.062064E-4,8.994989E-5,2.0477206E-3,4.34524E-5,-3.4720515E-4,-5.1157014E-4,1.730865E-3,-7.463496E-4,-5.889323E-4,-4.1851256E-4,2.1608227E-3,1.7846373E-3,-6.7350804E-5,-1.154203E-5,5.826425E-4,-5.6081626E-4,5.5921006E-5,-4.6733872E-4,9.275891E-5,4.1049196E-5,-2.7195454E-4,4.398578E-3,5.4499327E-4,1.2574889E-2,8.487778E-4],"split_indices":[505,224,641,218,440,543,863,69,525,133,0,465,26,23,612,725,18,2,380,23,220,0,0,0,846,0,0,2,0,0,525,323,420,1,0,233,102,784,167,0,0,1,0,0,0,0,956,0,0,7,0,0,0,702,0,0,0,0,0,0,0,0,0,0,0,0,0,0,0,0,0,0,0,0,0,0,0,0,0,0,0],"split_type":[0,0,0,0,0,0,0,0,0,0,0,0,0,0,0,0,0,0,0,0,0,0,0,0,0,0,0,0,0,0,0,0,0,0,0,0,0,0,0,0,0,0,0,0,0,0,0,0,0,0,0,0,0,0,0,0,0,0,0,0,0,0,0,0,0,0,0,0,0,0,0,0,0,0,0,0,0,0,0,0,0],"sum_hessian":[4.828E3,2.488E3,2.34E3,2.465E3,2.3E1,2.17E2,2.123E3,2.68E2,2.197E3,1.7E1,6E0,2.06E2,1.1E1,5E0,2.118E3,2.6E2,8E0,2.027E3,1.7E2,5E0,1.2E1,5E0,1E0,2E0,2.04E2,3E0,8E0,3E0,2E0,1E0,2.117E3,2.01E2,5.9E1,5E0,3E0,1.7E1,2.01E3,1.57E2,1.3E1,2E0,3E0,4E0,8E0,1E0,1E0,2E0,2.02E2,1E0,2E0,6E0,2E0,2E0,1E0,2.115E3,2E0,1.25E2,7.6E1,4.7E1,1.2E1,3E0,2E0,1.5E1,2E0,5.4E1,1.956E3,1.56E2,1E0,4E0,9E0,2E0,2E0,1.69E2,3.3E1,5E0,1E0,1E0,1E0,1E1,2.105E3,1E0,1E0],"tree_param":{"num_deleted":"0","num_feature":"1024","num_nodes":"81","size_leaf_vector":"1"}},{"base_weights":[2.1423493E-4,1.9131893E-2,-1.5218672E-2,1.8760009E-2,1.2386266E-2,1.9519216E-3,-1.7710468E-2,1.6164105E-1,1.7756771E-2,1.7125532E-2,-1.178349E-2,-1.8049156E-2,1.5484997E-2,-9.613539E-3,1.5182188E-2,1.7434152E-2,1.0690189E-2,1.9399181E-1,1.1383768E-2,3.0395746E-2,-1.5015698E-2,-1.31132305E-2,-1.9206468E-2,4.0390724E-3,-7.947763E-3,-2.3713645E-2,1.2049316E-2,1.7392796E-1,1.6989108E-2,7.50388E-3,-4.5837503E-4,8.374681E-3,7.21202E-3,7.374311E-2,-5.914247E-3,1.4171425E-3,-1.6062928E-2,-5.033572E-3,-1.592319E-2,1.0991787E-3,-1.9286258E-2,-1.6455306E-2,3.2323122E-2,-3.1229563E-4,-8.085957E-4,5.630396E-4,-2.2238058E-4,7.784134E-4,1.3707482E-2,7.042011E-5,6.4247136E-4,1.7445786E-4,4.1089994E-3,8.219877E-4,2.701949E-3,7.1875966E-4,-5.959497E-4,-5.006224E-4,1.2859246E-3,1.7624877E-4,-4.646102E-4,6.7377684E-4,-4.9409224E-4,-1.0791854E-4,-5.8158726E-4,-5.8053737E-4,1.3424415E-4,-6.296891E-5,1.3349041E-3],"categories":[],"categories_nodes":[],"categories_segments":[],"categories_sizes":[],"default_left":[0,0,0,0,0,0,0,0,0,0,0,0,0,0,0,0,0,0,0,0,0,0,0,0,0,0,0,0,0,0,0,0,0,0,0,0,0,0,0,0,0,0,0,0,0,0,0,0,0,0,0,0,0,0,0,0,0,0,0,0,0,0,0,0,0,0,0,0,0],"id":14,"left_children":[1,3,5,7,-1,9,11,13,15,17,19,21,23,25,-1,27,-1,29,31,33,35,37,39,-1,41,43,45,47,49,-1,-1,51,-1,53,55,-1,57,59,61,-1,63,65,67,-1,-1,-1,-1,-1,-1,-1,-1,-1,-1,-1,-1,-1,-1,-1,-1,-1,-1,-1,-1,-1,-1,-1,-1,-1,-1],"loss_changes":[1.4101393E0,3.1000203E-1,1.13844275E-1,3.080418E-1,0E0,7.064633E-2,2.6396692E-2,8.896482E-1,2.2918558E-1,1.6129108E-1,2.4723519E-2,1.2886703E-2,6.807879E-2,3.6456673E-3,0E0,1.4706361E-1,0E0,6.256157E-2,1.06180415E-1,2.0897387E-2,1.1580989E-2,9.909406E-3,8.9992285E-3,0E0,7.7266195E-3,2.1108892E-5,7.9291523E-4,2.3940529E-1,1.3923353E-1,0E0,0E0,5.0546337E-2,0E0,2.0707361E-3,3.8099322E-3,0E0,6.750349E-3,1.3204621E-2,7.2086826E-3,0E0,2.8463006E-3,1.1776146E-3,1.7695711E-3,0E0,0E0,0E0,0E0,0E0,0E0,0E0,0E0,0E0,0E0,0E0,0E0,0E0,0E0,0E0,0E0,0E0,0E0,0E0,0E0,0E0,0E0,0E0,0E0,0E0,0E0],"parents":[2147483647,0,0,1,1,2,2,3,3,5,5,6,6,7,7,8,8,9,9,10,10,11,11,12,12,13,13,15,15,17,17,18,18,19,19,20,20,21,21,22,22,24,24,25,25,26,26,27,27,28,28,31,31,33,33,34,34,36,36,37,37,38,38,40,40,41,41,42,42],"right_children":[2,4,6,8,-1,10,12,14,16,18,20,22,24,26,-1,28,-1,30,32,34,36,38,40,-1,42,44,46,48,50,-1,-1,52,-1,54,56,-1,58,60,62,-1,64,66,68,-1,-1,-1,-1,-1,-1,-1,-1,-1,-1,-1,-1,-1,-1,-1,-1,-1,-1,-1,-1,-1,-1,-1,-1,-1,-1],"split_conditions":[-1.3699322E0,-8.180812E-2,2.3808081E-1,5.160185E-1,1.2386266E-2,-3.3866188E-1,-7.8300364E-2,1.2583302E-1,-3.89161E-1,3.779891E-1,-5.5906767E-1,2.3814303E-1,5.900569E-1,-8.872284E-2,1.5182188E-2,4.1677144E-1,1.0690189E-2,-8.340996E-2,6.3413435E-1,-1.5105133E-1,4.2679407E-2,6.340204E-1,-7.9631675E-3,4.0390724E-3,4.474897E-1,1.1641616E-1,-4.2898977E-1,4.2810846E-2,-5.5891913E-1,7.50388E-3,-4.5837503E-4,-1.11940235E-1,7.21202E-3,-2.580532E-1,-2.5806946E-1,1.4171425E-3,1.01044476E-1,1.1704298E-1,4.1698924E-1,1.0991787E-3,4.167029E-1,-1.2275221E-1,2.3808508E-1,-3.1229563E-4,-8.085957E-4,5.630396E-4,-2.2238058E-4,7.784134E-4,1.3707482E-2,7.042011E-5,6.4247136E-4,1.7445786E-4,4.1089994E-3,8.219877E-4,2.701949E-3,7.1875966E-4,-5.959497E-4,-5.006224E-4,1.2859246E-3,1.7624877E-4,-4.646102E-4,6.7377684E-4,-4.9409224E-4,-1.0791854E-4,-5.8158726E-4,-5.8053737E-4,1.3424415E-4,-6.296891E-5,1.3349041E-3],"split_indices":[601,828,4,336,0,597,610,365,816,29,35,4,852,872,0,208,0,13,644,984,20,644,468,0,850,2,12,20,35,0,0,920,0,33,33,0,855,677,997,0,208,90,4,0,0,0,0,0,0,0,0,0,0,0,0,0,0,0,0,0,0,0,0,0,0,0,0,0,0],"split_type":[0,0,0,0,0,0,0,0,0,0,0,0,0,0,0,0,0,0,0,0,0,0,0,0,0,0,0,0,0,0,0,0,0,0,0,0,0,0,0,0,0,0,0,0,0,0,0,0,0,0,0,0,0,0,0,0,0,0,0,0,0,0,0,0,0,0,0,0,0],"sum_hessian":[4.828E3,2.169E3,2.659E3,2.168E3,1E0,3.37E2,2.322E3,1.4E1,2.154E3,1.6E2,1.77E2,2.299E3,2.3E1,1E1,4E0,2.153E3,1E0,4E0,1.56E2,1.2E1,1.65E2,4.39E2,1.86E3,3E0,2E1,6E0,4E0,5E0,2.148E3,3E0,1E0,1.55E2,1E0,5E0,7E0,2E0,1.63E2,1.14E2,3.25E2,2E0,1.858E3,1.7E1,3E0,2E0,4E0,3E0,1E0,4E0,1E0,4.99E2,1.649E3,1.53E2,2E0,2E0,3E0,2E0,5E0,1.62E2,1E0,5.6E1,5.8E1,4E0,3.21E2,1.2E1,1.846E3,1.5E1,2E0,1E0,2E0],"tree_param":{"num_deleted":"0","num_feature":"1024","num_nodes":"69","size_leaf_vector":"1"}},{"base_weights":[2.2483701E-4,-1.5143386E-2,1.6564555E-2,-1.7227342E-2,-3.852924E-4,1.6229412E-2,1.20120365E-2,-1.7386803E-2,2.2172073E-3,2.1705663E-2,-1.0144619E-2,1.5904658E-2,1.1637439E-2,5.406865E-2,-1.7510222E-2,1.3603441E-1,1.38425715E-2,-1.105871E-2,2.7820598E-3,1.5611208E-2,1.0529837E-2,2.1393313E-3,3.5122295E-5,-1.7710662E-2,2.7655678E-2,4.7263447E-3,4.2723573E-4,7.4921297E-3,1.2030165E-1,-1.2296597E-2,5.700447E-2,1.8784206E-2,-7.5890417E-3,-5.331117E-4,1.6739927E-3,-1.3776227E-4,4.7682817E-3,8.628724E-5,4.0271888E-3,3.2169413E-4,5.693388E-3,-3.903381E-4,2.0667755E-3,-3.0668057E-4,2.4846324E-3,1.14686405E-2,5.52644E-4,-3.170296E-4,8.188333E-3],"categories":[],"categories_nodes":[],"categories_segments":[],"categories_sizes":[],"default_left":[0,0,0,0,0,0,0,0,0,0,0,0,0,0,0,0,0,0,0,0,0,0,0,0,0,0,0,0,0,0,0,0,0,0,0,0,0,0,0,0,0,0,0,0,0,0,0,0,0],"id":15,"left_children":[1,3,5,7,9,11,-1,13,-1,15,17,19,-1,21,23,25,27,29,-1,31,-1,-1,-1,33,35,-1,-1,37,39,41,43,45,47,-1,-1,-1,-1,-1,-1,-1,-1,-1,-1,-1,-1,-1,-1,-1,-1],"loss_changes":[1.2128727E0,7.654315E-2,2.9464966E-1,3.2980382E-2,6.683839E-2,2.762831E-1,0E0,2.0154357E-2,0E0,8.351977E-2,2.1244463E-2,2.2451884E-1,0E0,3.5648579E-3,2.0179927E-2,1.3475314E-2,5.994428E-2,1.873142E-2,0E0,1.7225295E-1,0E0,0E0,0E0,1.0501683E-2,4.3067005E-2,0E0,0E0,4.992839E-2,3.603141E-2,1.3139397E-2,7.7889655E-3,2.641877E-1,2.385237E-1,0E0,0E0,0E0,0E0,0E0,0E0,0E0,0E0,0E0,0E0,0E0,0E0,0E0,0E0,0E0,0E0],"parents":[2147483647,0,0,1,1,2,2,3,3,4,4,5,5,7,7,9,9,10,10,11,11,13,13,14,14,15,15,16,16,17,17,19,19,23,23,24,24,27,27,28,28,29,29,30,30,31,31,32,32],"right_children":[2,4,6,8,10,12,-1,14,-1,16,18,20,-1,22,24,26,28,30,-1,32,-1,-1,-1,34,36,-1,-1,38,40,42,44,46,48,-1,-1,-1,-1,-1,-1,-1,-1,-1,-1,-1,-1,-1,-1,-1,-1],"split_conditions":[-1.4816995E-1,3.5481864E-1,-3.7538642E-1,4.9488914E-1,4.739157E-1,2.1785863E-1,1.20120365E-2,2.5437206E-1,2.2172073E-3,-6.805235E-2,2.6002234E-1,-3.89161E-1,1.1637439E-2,2.252999E-1,-4.528302E-1,-1.1288632E-1,-2.9516723E-2,6.664486E-2,2.7820598E-3,7.5354174E-2,1.0529837E-2,2.1393313E-3,3.5122295E-5,2.117925E-3,-2.5793248E-1,4.7263447E-3,4.2723573E-4,-1.7230305E-1,4.1420007E-1,4.552003E-1,-1.1309076E-1,-1.2282616E-1,-3.0923447E-1,-5.331117E-4,1.6739927E-3,-1.3776227E-4,4.7682817E-3,8.628724E-5,4.0271888E-3,3.2169413E-4,5.693388E-3,-3.903381E-4,2.0667755E-3,-3.0668057E-4,2.4846324E-3,1.14686405E-2,5.52644E-4,-3.170296E-4,8.188333E-3],"split_indices":[335,170,848,478,515,785,0,523,0,55,768,816,0,6,197,3,182,837,0,419,0,0,0,220,33,0,0,818,17,173,3,90,983,0,0,0,0,0,0,0,0,0,0,0,0,0,0,0,0],"split_type":[0,0,0,0,0,0,0,0,0,0,0,0,0,0,0,0,0,0,0,0,0,0,0,0,0,0,0,0,0,0,0,0,0,0,0,0,0,0,0,0,0,0,0,0,0,0,0,0,0],"sum_hessian":[4.828E3,2.488E3,2.34E3,2.18E3,3.08E2,2.339E3,1E0,2.177E3,3E0,9.4E1,2.14E2,2.338E3,1E0,3E0,2.174E3,5E0,8.9E1,2.13E2,1E0,2.337E3,1E0,2E0,1E0,2.165E3,9E0,4E0,1E0,8.5E1,4E0,2.1E2,3E0,2.056E3,2.81E2,2.164E3,1E0,8E0,1E0,8.3E1,2E0,2E0,2E0,2.09E2,1E0,1E0,2E0,1E0,2.055E3,2.79E2,2E0],"tree_param":{"num_deleted":"0","num_feature":"1024","num_nodes":"49","size_leaf_vector":"1"}},{"base_weights":[2.3593298E-4,-1.4676196E-2,1.6090717E-2,1.8704714E-2,-1.5778186E-2,1.5750239E-2,1.2192182E-2,1.9055663E-3,1.1374109E-1,6.547221E-2,-1.5974328E-2,1.5430255E-2,1.14628775E-2,4.0136665E-2,-5.254563E-3,7.26387E-3,2.1900767E-1,-4.1032396E-4,3.2539922E-3,-1.7282091E-2,-5.4377047E-3,1.8508255E-2,-1.11952545E-2,1.78038E-3,5.2162562E-3,1.9901397E-3,-8.930407E-3,4.6629665E-4,-8.956342E-3,7.7297026E-3,3.8643385E-4,-1.7354745E-2,2.070799E-3,7.164707E-2,-6.882519E-3,1.809513E-2,3.0083844E-1,6.9810147E-3,-1.316466E-2,4.3963143E-4,-4.8804362E-4,-4.730814E-6,-5.8152346E-4,-6.0275688E-5,-3.4275968E-4,-1.9106588E-4,-5.338607E-4,-4.4612773E-4,2.909829E-3,-2.6619376E-4,1.3310139E-3,5.8046198E-3,5.325336E-4,1.1296611E-2,2.2411186E-3,8.536214E-4,-4.248825E-4],"categories":[],"categories_nodes":[],"categories_segments":[],"categories_sizes":[],"default_left":[0,0,0,0,0,0,0,0,0,0,0,0,0,0,0,0,0,0,0,0,0,0,0,0,0,0,0,0,0,0,0,0,0,0,0,0,0,0,0,0,0,0,0,0,0,0,0,0,0,0,0,0,0,0,0,0,0],"id":16,"left_children":[1,3,5,7,9,11,-1,13,15,17,19,21,-1,23,25,27,29,-1,-1,31,33,35,37,-1,39,-1,41,-1,43,-1,-1,45,-1,47,49,51,53,-1,55,-1,-1,-1,-1,-1,-1,-1,-1,-1,-1,-1,-1,-1,-1,-1,-1,-1,-1],"loss_changes":[1.1419498E0,9.1854095E-2,3.0470455E-1,1.2750566E-1,3.9453328E-2,2.6840967E-1,0E0,1.9098932E-2,1.3291107E-1,2.1901408E-2,3.304547E-2,1.9189608E-1,0E0,7.0692115E-3,1.6119048E-2,1.0792604E-3,4.448068E-2,0E0,0E0,1.4611006E-2,3.0229751E-2,2.3914605E-1,1.1978355E-1,0E0,1.2522603E-3,0E0,5.2242638E-3,0E0,2.8501527E-5,0E0,0E0,1.0235667E-2,0E0,1.2407353E-2,2.7224377E-2,1.22969806E-1,2.323544E-2,0E0,1.0455489E-2,0E0,0E0,0E0,0E0,0E0,0E0,0E0,0E0,0E0,0E0,0E0,0E0,0E0,0E0,0E0,0E0,0E0,0E0],"parents":[2147483647,0,0,1,1,2,2,3,3,4,4,5,5,7,7,8,8,9,9,10,10,11,11,13,13,14,14,15,15,16,16,19,19,20,20,21,21,22,22,24,24,26,26,28,28,31,31,33,33,34,34,35,35,36,36,38,38],"right_children":[2,4,6,8,10,12,-1,14,16,18,20,22,-1,24,26,28,30,-1,-1,32,34,36,38,-1,40,-1,42,-1,44,-1,-1,46,-1,48,50,52,54,-1,56,-1,-1,-1,-1,-1,-1,-1,-1,-1,-1,-1,-1,-1,-1,-1,-1,-1,-1],"split_conditions":[-1.4816995E-1,1.1644365E-1,-8.180812E-2,-1.9375898E-1,8.560211E-2,2.1785863E-1,1.2192182E-2,-1.2714273E-1,-5.864978E-1,3.9584616E-1,8.964236E-2,-3.6490312E-1,1.14628775E-2,5.06447E-1,-5.1516956E-1,2.3868641E-1,-5.2783996E-1,-4.1032396E-4,3.2539922E-3,1.0578661E-1,3.8910028E-1,-2.5338322E-1,1.5523206E-1,1.78038E-3,3.9573476E-1,1.9901397E-3,3.623461E-1,4.6629665E-4,-5.2790064E-1,7.7297026E-3,3.8643385E-4,-5.279408E-1,2.070799E-3,-5.2795047E-1,-1.7229687E-1,-5.1512074E-1,-5.279751E-1,6.9810147E-3,1.3904767E-2,4.3963143E-4,-4.8804362E-4,-4.730814E-6,-5.8152346E-4,-6.0275688E-5,-3.4275968E-4,-1.9106588E-4,-5.338607E-4,-4.4612773E-4,2.909829E-3,-2.6619376E-4,1.3310139E-3,5.8046198E-3,5.325336E-4,1.1296611E-2,2.2411186E-3,8.536214E-4,-4.248825E-4],"split_indices":[335,218,828,486,390,785,0,52,448,9,595,453,0,939,863,23,0,0,0,758,977,146,664,0,9,0,73,0,0,0,0,0,0,0,818,863,0,0,641,0,0,0,0,0,0,0,0,0,0,0,0,0,0,0,0,0,0],"split_type":[0,0,0,0,0,0,0,0,0,0,0,0,0,0,0,0,0,0,0,0,0,0,0,0,0,0,0,0,0,0,0,0,0,0,0,0,0,0,0,0,0,0,0,0,0,0,0,0,0,0,0,0,0,0,0,0,0],"sum_hessian":[4.828E3,2.488E3,2.34E3,7.9E1,2.409E3,2.339E3,1E0,6.8E1,1.1E1,5E0,2.404E3,2.338E3,1E0,1E1,5.8E1,6E0,5E0,2E0,3E0,2.138E3,2.66E2,2.096E3,2.42E2,6E0,4E0,2E0,5.6E1,4E0,2E0,4E0,1E0,2.137E3,1E0,4E0,2.62E2,2.094E3,2E0,1E0,2.41E2,3E0,1E0,3.1E1,2.5E1,1E0,1E0,8.3E1,2.054E3,1E0,3E0,2.53E2,9E0,3E0,2.091E3,1E0,1E0,5E0,2.36E2],"tree_param":{"num_deleted":"0","num_feature":"1024","num_nodes":"57","size_leaf_vector":"1"}},{"base_weights":[2.4334482E-4,-1.4491169E-2,1.7209258E-2,-1.4823858E-2,2.0388238E-1,1.6868003E-2,1.1744788E-2,-1.729556E-2,-8.048116E-3,8.035605E-3,1.7953505E-4,1.7538612E-1,1.6293567E-2,-1.7378828E-2,1.227017E-3,-1.2027324E-2,3.3373355E-3,1.0718885E-2,-5.2191513E-3,4.480589E-2,1.3701176E-2,-1.7492797E-2,5.7852245E-3,-1.3102649E-2,3.3959374E-2,3.0616255E-4,1.0936716E-1,1.7876444E-2,-7.9725083E-4,3.3430308E-2,2.2274196E-1,8.942253E-2,1.2949514E-2,4.544954E-4,-5.271142E-4,8.9004426E-4,-4.524424E-4,1.5642745E-3,-4.0798192E-4,-3.274715E-5,4.1842824E-3,1.5348913E-3,-5.3692358E-5,-4.0601907E-4,5.8743767E-3,7.643829E-4,4.0057057E-5,7.1401754E-4,5.72711E-3,1.4516156E-3,1.2668707E-2,7.0783026E-3,-2.2868486E-4,3.8125913E-4,7.536167E-3],"categories":[],"categories_nodes":[],"categories_segments":[],"categories_sizes":[],"default_left":[0,0,0,0,0,0,0,0,0,0,0,0,0,0,0,0,0,0,0,0,0,0,0,0,0,0,0,0,0,0,0,0,0,0,0,0,0,0,0,0,0,0,0,0,0,0,0,0,0,0,0,0,0,0,0],"id":17,"left_children":[1,3,5,7,9,11,-1,13,15,-1,-1,17,19,21,-1,23,25,-1,27,29,31,33,35,37,39,41,43,45,-1,47,49,51,53,-1,-1,-1,-1,-1,-1,-1,-1,-1,-1,-1,-1,-1,-1,-1,-1,-1,-1,-1,-1,-1,-1],"loss_changes":[1.2074244E0,1.908238E-1,2.8014177E-1,4.31031E-2,4.9036026E-2,2.0147759E-1,0E0,9.8744035E-3,3.1391248E-2,0E0,0E0,2.6469612E-1,1.6473413E-1,5.088091E-3,0E0,2.581314E-2,5.7817575E-2,0E0,2.9412005E-3,3.6904123E-1,1.15635365E-1,5.033076E-3,5.4309997E-3,1.6979158E-2,4.4533767E-2,1.8851645E-2,5.5771317E-2,3.432667E-4,0E0,2.6234716E-1,3.6228073E-1,2.8618205E-1,1.1348209E-1,0E0,0E0,0E0,0E0,0E0,0E0,0E0,0E0,0E0,0E0,0E0,0E0,0E0,0E0,0E0,0E0,0E0,0E0,0E0,0E0,0E0,0E0],"parents":[2147483647,0,0,1,1,2,2,3,3,4,4,5,5,7,7,8,8,11,11,12,12,13,13,15,15,16,16,18,18,19,19,20,20,21,21,22,22,23,23,24,24,25,25,26,26,27,27,29,29,30,30,31,31,32,32],"right_children":[2,4,6,8,10,12,-1,14,16,-1,-1,18,20,22,-1,24,26,-1,28,30,32,34,36,38,40,42,44,46,-1,48,50,52,54,-1,-1,-1,-1,-1,-1,-1,-1,-1,-1,-1,-1,-1,-1,-1,-1,-1,-1,-1,-1,-1,-1],"split_conditions":[5.927663E-2,5.7172596E-1,-5.3930146E-1,3.1380564E-1,5.9143852E-2,6.261005E-2,1.1744788E-2,-1.5091692E-1,1.673988E0,8.035605E-3,1.7953505E-4,-5.588975E-1,1.01782724E-1,-2.422215E-1,1.227017E-3,-6.550354E-1,-2.9321173E-1,1.0718885E-2,2.2535156E-1,-3.764279E-1,-2.9853383E-1,-1.8188398E-2,6.339621E-1,-4.571654E-3,-4.9393427E-2,-2.9845846E-1,2.2532037E-1,5.925104E-2,-7.9725083E-4,-1.9450128E-1,-4.8135906E-1,3.9186043E-1,8.945966E-3,4.544954E-4,-5.271142E-4,8.9004426E-4,-4.524424E-4,1.5642745E-3,-4.0798192E-4,-3.274715E-5,4.1842824E-3,1.5348913E-3,-5.3692358E-5,-4.0601907E-4,5.8743767E-3,7.643829E-4,4.0057057E-5,7.1401754E-4,5.72711E-3,1.4516156E-3,1.2668707E-2,7.0783026E-3,-2.2868486E-4,3.8125913E-4,7.536167E-3],"split_indices":[733,221,802,803,1,636,0,984,897,0,0,35,990,431,0,694,525,0,6,531,727,701,644,584,416,727,6,1,0,530,49,71,306,0,0,0,0,0,0,0,0,0,0,0,0,0,0,0,0,0,0,0,0,0,0],"split_type":[0,0,0,0,0,0,0,0,0,0,0,0,0,0,0,0,0,0,0,0,0,0,0,0,0,0,0,0,0,0,0,0,0,0,0,0,0,0,0,0,0,0,0,0,0,0,0,0,0,0,0,0,0,0,0],"sum_hessian":[4.828E3,2.584E3,2.244E3,2.581E3,3E0,2.243E3,1E0,1.89E3,6.91E2,2E0,1E0,7E0,2.236E3,1.888E3,2E0,5.12E2,1.79E2,3E0,4E0,1.85E2,2.051E3,1.879E3,9E0,5.01E2,1.1E1,1.75E2,4E0,2E0,2E0,1.75E2,1E1,1.9E1,2.032E3,4E0,1.875E3,4E0,5E0,3E0,4.98E2,9E0,2E0,6E0,1.69E2,2E0,2E0,1E0,1E0,1.66E2,9E0,6E0,4E0,7E0,1.2E1,2.031E3,1E0],"tree_param":{"num_deleted":"0","num_feature":"1024","num_nodes":"55","size_leaf_vector":"1"}},{"base_weights":[2.5258338E-4,-1.4047898E-2,1.6718727E-2,-1.4373778E-2,1.998197E-1,-2.48113E-3,1.9946633E-2,-2.9407109E-3,-1.5752014E-2,7.874893E-3,1.76842E-4,1.4961585E-1,-5.3341105E-3,1.620876E-2,4.8208687E-2,2.646388E-2,-1.0443496E-2,-1.6046874E-2,2.485936E-2,6.932806E-3,-2.6679024E-4,-6.6413702E-3,1.3457772E-1,1.4979211E-2,8.649734E-2,1.1315579E-1,2.3209121E-2,1.3391577E-2,1.597375E-1,-1.2457318E-2,1.183425E-2,-1.719665E-2,-1.0951643E-2,3.7017548E-3,3.4955733E-3,-1.1471097E-2,2.615072E-2,6.206354E-3,-1.5035667E-4,1.1065674E-1,1.4104049E-2,4.0360922E-1,3.438408E-2,4.5346546E-1,8.186779E-2,1.7896304E-2,1.325828E-2,3.0066185E-3,1.277452E-4,-3.8749617E-4,6.183904E-3,1.030533E-3,-3.9263105E-4,-2.0121787E-4,3.388742E-3,-5.1851786E-4,8.3194923E-4,-3.5726817E-4,1.7317442E-3,1.4891257E-3,-3.652912E-4,3.5226138E-3,-3.850642E-4,-3.2434706E-4,2.3690625E-3,9.786263E-4,1.2357796E-2,-2.2893606E-4,5.122767E-4,1.3842383E-2,3.4529765E-3,4.711572E-3,-5.72263E-4,-4.9700966E-4,1.7253458E-2,1.4565676E-3,9.529777E-3,3.4509538E-4,6.490193E-3],"categories":[],"categories_nodes":[],"categories_segments":[],"categories_sizes":[],"default_left":[0,0,0,0,0,0,0,0,0,0,0,0,0,0,0,0,0,0,0,0,0,0,0,0,0,0,0,0,0,0,0,0,0,0,0,0,0,0,0,0,0,0,0,0,0,0,0,0,0,0,0,0,0,0,0,0,0,0,0,0,0,0,0,0,0,0,0,0,0,0,0,0,0,0,0,0,0,0,0],"id":18,"left_children":[1,3,5,7,9,11,13,15,17,-1,-1,19,21,23,25,27,29,31,33,-1,-1,35,37,39,41,43,45,47,49,51,53,55,57,-1,59,61,63,-1,-1,65,67,69,71,73,75,77,-1,-1,-1,-1,-1,-1,-1,-1,-1,-1,-1,-1,-1,-1,-1,-1,-1,-1,-1,-1,-1,-1,-1,-1,-1,-1,-1,-1,-1,-1,-1,-1,-1],"loss_changes":[1.1373379E0,1.8303424E-1,1.3918412E-1,4.063946E-2,4.7070995E-2,1.4139129E-1,2.0225865E-1,6.1828323E-2,2.7988613E-2,0E0,0E0,7.954474E-2,5.923924E-2,1.455375E-1,3.6107123E-1,9.716587E-2,1.0151967E-2,1.3215542E-2,3.5354126E-2,0E0,0E0,5.0505433E-2,3.1314153E-2,1.3835761E-1,4.6536854E-1,6.2302756E-1,3.5470957E-1,4.1604616E-2,4.271187E-2,6.4985715E-3,3.6382418E-2,7.7927113E-3,2.8562762E-2,0E0,1.14514185E-2,5.021943E-2,8.089706E-2,0E0,0E0,3.3921033E-1,1.0716215E-1,1.3599396E-2,1.7349835E-1,2.9542494E-1,4.4019705E-1,2.0303655E-1,0E0,0E0,0E0,0E0,0E0,0E0,0E0,0E0,0E0,0E0,0E0,0E0,0E0,0E0,0E0,0E0,0E0,0E0,0E0,0E0,0E0,0E0,0E0,0E0,0E0,0E0,0E0,0E0,0E0,0E0,0E0,0E0,0E0],"parents":[2147483647,0,0,1,1,2,2,3,3,4,4,5,5,6,6,7,7,8,8,11,11,12,12,13,13,14,14,15,15,16,16,17,17,18,18,21,21,22,22,23,23,24,24,25,25,26,26,27,27,28,28,29,29,30,30,31,31,32,32,34,34,35,35,36,36,39,39,40,40,41,41,42,42,43,43,44,44,45,45],"right_children":[2,4,6,8,10,12,14,16,18,-1,-1,20,22,24,26,28,30,32,34,-1,-1,36,38,40,42,44,46,48,50,52,54,56,58,-1,60,62,64,-1,-1,66,68,70,72,74,76,78,-1,-1,-1,-1,-1,-1,-1,-1,-1,-1,-1,-1,-1,-1,-1,-1,-1,-1,-1,-1,-1,-1,-1,-1,-1,-1,-1,-1,-1,-1,-1,-1,-1],"split_conditions":[5.927663E-2,5.7172596E-1,2.6247266E-1,-1.6479282E-1,1.1652281E-1,-2.8120402E-1,7.017232E-2,-8.0931175E-1,-3.636469E0,7.874893E-3,1.76842E-4,2.253536E-1,7.8572935E-1,-7.7976125E-1,-6.3439536E-1,2.6729625E-2,1.6643415E-1,-4.2899504E-1,-5.6512994E-1,6.932806E-3,-2.6679024E-4,-4.0021995E-1,1.1686865E-1,-7.9274416E-1,2.4555333E-1,-3.0291158E-1,2.2546881E-1,-1.2716058E-1,-4.2901728E-1,-3.4752765E-1,-1.9193158E-1,3.778501E-1,-3.6178845E-1,3.7017548E-3,-4.9371013E-1,-1.3976568E-1,1.6629392E-1,6.206354E-3,-1.5035667E-4,-2.0917307E-1,-7.9262596E-1,-4.2891628E-1,2.301872E-2,1.1639543E-1,4.4942435E-2,-3.6165747E-1,1.325828E-2,3.0066185E-3,1.277452E-4,-3.8749617E-4,6.183904E-3,1.030533E-3,-3.9263105E-4,-2.0121787E-4,3.388742E-3,-5.1851786E-4,8.3194923E-4,-3.5726817E-4,1.7317442E-3,1.4891257E-3,-3.652912E-4,3.5226138E-3,-3.850642E-4,-3.2434706E-4,2.3690625E-3,9.786263E-4,1.2357796E-2,-2.2893606E-4,5.122767E-4,1.3842383E-2,3.4529765E-3,4.711572E-3,-5.72263E-4,-4.9700966E-4,1.7253458E-2,1.4565676E-3,9.529777E-3,3.4509538E-4,6.490193E-3],"split_indices":[733,221,68,98,2,129,158,213,460,0,0,6,41,370,759,198,76,12,450,0,0,606,2,685,608,541,6,52,12,16,645,869,70,0,934,96,76,0,0,241,685,12,425,2,725,70,0,0,0,0,0,0,0,0,0,0,0,0,0,0,0,0,0,0,0,0,0,0,0,0,0,0,0,0,0,0,0,0,0],"split_type":[0,0,0,0,0,0,0,0,0,0,0,0,0,0,0,0,0,0,0,0,0,0,0,0,0,0,0,0,0,0,0,0,0,0,0,0,0,0,0,0,0,0,0,0,0,0,0,0,0,0,0,0,0,0,0,0,0,0,0,0,0,0,0,0,0,0,0,0,0,0,0,0,0,0,0,0,0,0,0],"sum_hessian":[4.828E3,2.584E3,2.244E3,2.581E3,3E0,3.23E2,1.921E3,2.78E2,2.303E3,2E0,1E0,5E0,3.18E2,1.698E3,2.23E2,5.6E1,2.22E2,2.287E3,1.6E1,3E0,2E0,3.16E2,2E0,1.67E3,2.8E1,6.1E1,1.62E2,5.2E1,4E0,2.04E2,1.8E1,1.864E3,4.23E2,2E0,1.4E1,2.76E2,4E1,1E0,1E0,1.4E1,1.656E3,3E0,2.5E1,4E0,5.7E1,1.61E2,1E0,4E0,4.8E1,1E0,3E0,2E0,2.02E2,1.6E1,2E0,1.861E3,3E0,4.18E2,5E0,3E0,1.1E1,2E0,2.74E2,2.4E1,1.6E1,1.2E1,2E0,1.99E2,1.457E3,2E0,1E0,7E0,1.8E1,1E0,3E0,5.1E1,6E0,1.57E2,4E0],"tree_param":{"num_deleted":"0","num_feature":"1024","num_nodes":"79","size_leaf_vector":"1"}},{"base_weights":[2.7153673E-4,-1.3615892E-2,1.6262064E-2,-1.3935102E-2,1.9583803E-1,1.5933309E-2,1.1309814E-2,-1.6080258E-2,-5.5596684E-3,7.7173957E-3,1.7418935E-4,2.2305563E-2,7.0209913E-3,-1.6218722E-2,4.3933716E-2,-1.37987435E-2,1.6765409E-3,2.0730589E-2,1.2269743E-1,3.2381401E-3,6.1292127E-2,-1.6341921E-2,2.8495096E-2,-4.348028E-4,6.216386E-2,-1.4817198E-2,7.397461E-2,-2.3401236E-4,7.676742E-2,7.794882E-2,1.8502565E-2,1.4056614E-2,3.4101963E-2,1.2665322E-1,1.3796036E-3,1.0872084E-2,3.946911E-2,-4.916153E-4,1.1431625E-3,-3.1451992E-4,1.5181692E-3,4.6248105E-4,2.1782336E-3,1.6744437E-3,-4.6006264E-4,-3.10858E-4,3.6397155E-3,3.274937E-4,-1.7605728E-4,5.053096E-3,1.9237392E-4,8.507564E-4,7.265233E-3,1.2555589E-4,8.0932456E-4,4.597681E-3,-7.133738E-5,8.773953E-6,1.6432745E-2,1.7253557E-5,4.18908E-3,4.719891E-3,-4.8229816E-5],"categories":[],"categories_nodes":[],"categories_segments":[],"categories_sizes":[],"default_left":[0,0,0,0,0,0,0,0,0,0,0,0,0,0,0,0,0,0,0,0,0,0,0,0,0,0,0,0,0,0,0,0,0,0,0,0,0,0,0,0,0,0,0,0,0,0,0,0,0,0,0,0,0,0,0,0,0,0,0,0,0,0,0],"id":19,"left_children":[1,3,5,7,9,11,-1,13,15,-1,-1,17,19,21,23,25,27,29,31,33,35,37,39,-1,41,43,45,47,49,51,53,-1,55,57,59,-1,61,-1,-1,-1,-1,-1,-1,-1,-1,-1,-1,-1,-1,-1,-1,-1,-1,-1,-1,-1,-1,-1,-1,-1,-1,-1,-1],"loss_changes":[1.0725845E0,1.7556149E-1,2.6023287E-1,4.630035E-2,4.5184597E-2,1.2728369E-1,0E0,1.7789125E-2,3.150232E-2,0E0,0E0,2.0427036E-1,1.9216727E-1,1.176399E-2,6.226643E-3,2.3176208E-2,4.0475134E-2,1.6288406E-1,5.9684753E-1,2.0098402E-1,3.8653594E-1,5.6661367E-3,5.7016434E-3,0E0,8.335998E-4,9.823736E-3,1.3236964E-2,1.7404601E-2,4.4065546E-2,3.8404393E-1,1.5058962E-1,0E0,7.4258775E-2,6.915847E-1,9.612949E-2,0E0,2.8105026E-1,0E0,0E0,0E0,0E0,0E0,0E0,0E0,0E0,0E0,0E0,0E0,0E0,0E0,0E0,0E0,0E0,0E0,0E0,0E0,0E0,0E0,0E0,0E0,0E0,0E0,0E0],"parents":[2147483647,0,0,1,1,2,2,3,3,4,4,5,5,7,7,8,8,11,11,12,12,13,13,14,14,15,15,16,16,17,17,18,18,19,19,20,20,21,21,22,22,24,24,25,25,26,26,27,27,28,28,29,29,30,30,32,32,33,33,34,34,36,36],"right_children":[2,4,6,8,10,12,-1,14,16,-1,-1,18,20,22,24,26,28,30,32,34,36,38,40,-1,42,44,46,48,50,52,54,-1,56,58,60,-1,62,-1,-1,-1,-1,-1,-1,-1,-1,-1,-1,-1,-1,-1,-1,-1,-1,-1,-1,-1,-1,-1,-1,-1,-1,-1,-1],"split_conditions":[5.927663E-2,5.7172596E-1,-5.3930146E-1,-2.2302823E-2,-1.1468539E0,-5.7195735E-1,1.1309814E-2,1.556902E-1,-3.6868975E0,7.7173957E-3,1.7418935E-4,-7.7976125E-1,1.5698826E-1,-4.9232334E-1,-1.1463554E0,-3.623817E-1,-4.528302E-1,1.8076684E-1,4.0220153E-1,-3.553194E-2,-2.99981E-1,2.5550687E-1,-1.1473067E0,-4.348028E-4,-2.2913536E-1,-3.7749127E-1,-1.1473156E0,2.941107E-1,-8.440643E-2,-2.3530456E-1,-6.653075E-1,1.4056614E-2,2.9316017E-1,2.9416963E-1,-2.0200868E-1,1.0872084E-2,6.1416453E-1,-4.916153E-4,1.1431625E-3,-3.1451992E-4,1.5181692E-3,4.6248105E-4,2.1782336E-3,1.6744437E-3,-4.6006264E-4,-3.10858E-4,3.6397155E-3,3.274937E-4,-1.7605728E-4,5.053096E-3,1.9237392E-4,8.507564E-4,7.265233E-3,1.2555589E-4,8.0932456E-4,4.597681E-3,-7.133738E-5,8.773953E-6,1.6432745E-2,1.7253557E-5,4.18908E-3,4.719891E-3,-4.8229816E-5],"split_indices":[733,221,802,40,5,539,0,673,986,0,0,370,42,330,5,447,197,291,140,829,179,354,5,0,39,344,5,323,72,577,284,0,722,323,653,0,949,0,0,0,0,0,0,0,0,0,0,0,0,0,0,0,0,0,0,0,0,0,0,0,0,0,0],"split_type":[0,0,0,0,0,0,0,0,0,0,0,0,0,0,0,0,0,0,0,0,0,0,0,0,0,0,0,0,0,0,0,0,0,0,0,0,0,0,0,0,0,0,0,0,0,0,0,0,0,0,0,0,0,0,0,0,0,0,0,0,0,0,0],"sum_hessian":[4.828E3,2.584E3,2.244E3,2.581E3,3E0,2.243E3,1E0,2.054E3,5.27E2,2E0,1E0,1.307E3,9.36E2,2.05E3,4E0,2.46E2,2.81E2,1.288E3,1.9E1,8.76E2,6E1,2.045E3,5E0,1E0,3E0,2.44E2,2E0,2.75E2,6E0,4.7E1,1.241E3,3E0,1.6E1,1.2E1,8.64E2,3E0,5.7E1,2.044E3,1E0,2E0,3E0,1E0,2E0,1E0,2.43E2,1E0,1E0,9.2E1,1.83E2,2E0,4E0,3.7E1,1E1,4.62E2,7.79E2,3E0,1.3E1,1E1,2E0,8.6E2,4E0,1.4E1,4.3E1],"tree_param":{"num_deleted":"0","num_feature":"1024","num_nodes":"63","size_leaf_vector":"1"}},{"base_weights":[2.8348388E-4,1.6152646E-2,-1.3080129E-2,1.5827965E-2,1.099087E-2,-1.51081085E-2,-1.9739473E-3,1.7961035E-2,-9.674335E-3,1.3236839E-2,-1.535915E-2,1.0985706E-1,-3.6423067E-3,1.6697165E-2,9.1926806E-2,1.3558541E-1,-1.3075315E-2,3.267365E-2,-6.0007756E-4,-1.5566126E-2,6.838591E-3,-9.20005E-3,6.9594253E-3,7.4937087E-3,-1.0615748E-2,1.1595668E-2,2.780488E-2,3.1487688E-1,3.2906186E-2,7.5540743E-3,1.2912235E-2,2.5066616E-2,-2.4039576E-2,5.3752337E-2,-8.76874E-4,1.2285771E-2,-1.5648723E-2,-1.1331134E-2,2.606781E-3,-3.1525537E-4,-7.911994E-5,8.084804E-2,3.4779764E-3,5.918908E-2,-1.1716583E-2,3.1963454E-4,4.170053E-3,7.617242E-4,8.239097E-3,1.6501946E-2,2.908878E-5,-8.935853E-4,2.2567187E-3,1.1686115E-3,-5.8756093E-4,-7.9263904E-5,2.5596723E-3,1.9881092E-3,-7.7860354E-4,8.314045E-4,1.9149886E-3,-3.47379E-4,4.1055956E-4,-2.9599533E-4,9.4099826E-4,-2.0284337E-4,-4.7513505E-4,3.0352222E-4,-4.8886E-4,-7.5185395E-5,6.618214E-3,7.476616E-4,-2.7318264E-4,-2.943301E-4,2.5637832E-3,-3.6979537E-4,2.047445E-3],"categories":[],"categories_nodes":[],"categories_segments":[],"categories_sizes":[],"default_left":[0,0,0,0,0,0,0,0,0,0,0,0,0,0,0,0,0,0,0,0,0,0,0,0,0,0,0,0,0,0,0,0,0,0,0,0,0,0,0,0,0,0,0,0,0,0,0,0,0,0,0,0,0,0,0,0,0,0,0,0,0,0,0,0,0,0,0,0,0,0,0,0,0,0,0,0,0],"id":20,"left_children":[1,3,5,7,-1,9,11,13,15,17,19,21,23,25,27,29,31,33,-1,35,37,39,-1,41,43,45,47,49,51,-1,53,55,57,59,61,63,65,67,-1,-1,-1,69,71,73,75,-1,-1,-1,-1,-1,-1,-1,-1,-1,-1,-1,-1,-1,-1,-1,-1,-1,-1,-1,-1,-1,-1,-1,-1,-1,-1,-1,-1,-1,-1,-1,-1],"loss_changes":[1.0242941E0,2.4526542E-1,5.9025735E-2,1.20230615E-1,0E0,1.5979052E-2,7.61493E-2,1.8889028E-1,8.6251184E-2,1.3574926E-2,1.0204911E-2,8.937248E-2,3.1219747E-2,1.1323619E-1,4.3703273E-1,5.3775527E-2,7.0859864E-2,9.240747E-3,0E0,5.2025914E-3,3.1530373E-2,6.63384E-6,0E0,4.537737E-2,1.9673854E-2,1.6339871E-1,3.6842456E-1,5.1625735E-1,7.6524675E-2,0E0,3.3017797E-3,6.36707E-2,2.4362236E-2,3.308691E-4,1.0935712E-3,3.268268E-3,3.5433173E-3,2.0814145E-3,0E0,0E0,0E0,9.374896E-2,4.016528E-2,8.089073E-3,1.2741845E-2,0E0,0E0,0E0,0E0,0E0,0E0,0E0,0E0,0E0,0E0,0E0,0E0,0E0,0E0,0E0,0E0,0E0,0E0,0E0,0E0,0E0,0E0,0E0,0E0,0E0,0E0,0E0,0E0,0E0,0E0,0E0,0E0],"parents":[2147483647,0,0,1,1,2,2,3,3,5,5,6,6,7,7,8,8,9,9,10,10,11,11,12,12,13,13,14,14,15,15,16,16,17,17,19,19,20,20,21,21,23,23,24,24,25,25,26,26,27,27,28,28,30,30,31,31,32,32,33,33,34,34,35,35,36,36,37,37,41,41,42,42,43,43,44,44],"right_children":[2,4,6,8,-1,10,12,14,16,18,20,22,24,26,28,30,32,34,-1,36,38,40,-1,42,44,46,48,50,52,-1,54,56,58,60,62,64,66,68,-1,-1,-1,70,72,74,76,-1,-1,-1,-1,-1,-1,-1,-1,-1,-1,-1,-1,-1,-1,-1,-1,-1,-1,-1,-1,-1,-1,-1,-1,-1,-1,-1,-1,-1,-1,-1,-1],"split_conditions":[8.544504E0,2.1785863E-1,-9.950935E-2,-3.280589E-1,1.099087E-2,-2.8888112E-1,-2.1272416E-1,-3.6129946E-1,-1.4957747E-2,2.567165E-1,2.9362902E-1,-8.3473675E-2,-1.3290134E-1,3.1388047E-1,4.8498163E-1,-1.4130911E-1,4.4867117E-2,3.1385362E-1,-6.0007756E-4,1.7909405E-1,-5.156016E-1,-4.290271E-1,6.9594253E-3,-8.447803E-2,-3.4940222E-1,-7.7974564E-1,8.529661E-2,-1.2240122E-1,9.490555E-2,7.5540743E-3,-4.2897505E-1,-3.4444988E-1,5.9749424E-2,-4.289691E-1,8.102742E-2,2.4982828E-1,-1.1225174E-1,-3.8385922E-1,2.606781E-3,-3.1525537E-4,-7.911994E-5,7.037284E-1,-3.837791E-1,-4.2892003E-1,-3.623758E-1,3.1963454E-4,4.170053E-3,7.617242E-4,8.239097E-3,1.6501946E-2,2.908878E-5,-8.935853E-4,2.2567187E-3,1.1686115E-3,-5.8756093E-4,-7.9263904E-5,2.5596723E-3,1.9881092E-3,-7.7860354E-4,8.314045E-4,1.9149886E-3,-3.47379E-4,4.1055956E-4,-2.9599533E-4,9.4099826E-4,-2.0284337E-4,-4.7513505E-4,3.0352222E-4,-4.8886E-4,-7.5185395E-5,6.618214E-3,7.476616E-4,-2.7318264E-4,-2.943301E-4,2.5637832E-3,-3.6979537E-4,2.047445E-3],"split_indices":[342,785,280,410,0,142,1014,975,228,415,722,13,510,803,481,28,315,803,0,887,931,12,0,72,930,370,325,90,556,0,12,92,149,12,106,30,81,245,0,0,0,66,245,12,447,0,0,0,0,0,0,0,0,0,0,0,0,0,0,0,0,0,0,0,0,0,0,0,0,0,0,0,0,0,0,0,0],"split_type":[0,0,0,0,0,0,0,0,0,0,0,0,0,0,0,0,0,0,0,0,0,0,0,0,0,0,0,0,0,0,0,0,0,0,0,0,0,0,0,0,0,0,0,0,0,0,0,0,0,0,0,0,0,0,0,0,0,0,0,0,0,0,0,0,0,0,0,0,0,0,0,0,0,0,0,0,0],"sum_hessian":[4.828E3,2.207E3,2.621E3,2.206E3,1E0,2.216E3,4.05E2,2.036E3,1.7E2,1.9E1,2.197E3,5E0,4E2,2.003E3,3.3E1,3E0,1.67E2,1.2E1,7E0,2.177E3,2E1,3E0,2E0,1.54E2,2.46E2,1.374E3,6.29E2,6E0,2.7E1,1E0,2E0,3.7E1,1.3E2,7E0,5E0,6E0,2.171E3,1.7E1,3E0,2E0,1E0,7E0,1.47E2,3E0,2.43E2,1.365E3,9E0,6.24E2,5E0,3E0,3E0,1.1E1,1.6E1,1E0,1E0,2.6E1,1.1E1,2E0,1.28E2,3E0,4E0,3E0,2E0,3E0,3E0,4.6E1,2.125E3,3E0,1.4E1,5E0,2E0,5.4E1,9.3E1,1E0,2E0,2.42E2,1E0],"tree_param":{"num_deleted":"0","num_feature":"1024","num_nodes":"77","size_leaf_vector":"1"}},{"base_weights":[2.907856E-4,1.5133534E-2,-1.3013606E-2,1.4808923E-2,1.1338429E-2,-1.3302195E-2,1.08260065E-2,1.4490156E-2,1.112874E-2,6.7768567E-3,-1.3484943E-2,1.12640165E-1,1.3877903E-2,-1.4084784E-2,3.2602604E-2,1.7488493E-3,9.356843E-3,3.8993005E-2,1.1470048E-2,3.248835E-2,-1.4377453E-2,8.939477E-3,5.868976E-3,2.0088707E-3,-6.877447E-4,9.784992E-4,1.3277535E-2,3.366806E-4,7.852609E-3,-1.2413882E-4,5.7774503E-3,-2.2821706E-4,-4.660838E-4,2.2023222E-3,-1.1968362E-4],"categories":[],"categories_nodes":[],"categories_segments":[],"categories_sizes":[],"default_left":[0,0,0,0,0,0,0,0,0,0,0,0,0,0,0,0,0,0,0,0,0,0,0,0,0,0,0,0,0,0,0,0,0,0,0],"id":21,"left_children":[1,3,5,7,-1,9,-1,11,-1,-1,13,15,17,19,21,23,-1,25,27,29,31,-1,33,-1,-1,-1,-1,-1,-1,-1,-1,-1,-1,-1,-1],"loss_changes":[9.537975E-1,2.6327956E-1,2.7961597E-1,2.5369686E-1,0E0,1.14338905E-1,0E0,1.3550815E-1,0E0,0E0,7.08164E-2,3.08793E-1,1.3670677E-1,3.472051E-2,2.3237199E-1,1.7625669E-2,0E0,4.9510682E-1,1.2527883E-1,9.461494E-2,1.9477367E-2,0E0,2.0934397E-2,0E0,0E0,0E0,0E0,0E0,0E0,0E0,0E0,0E0,0E0,0E0,0E0],"parents":[2147483647,0,0,1,1,2,2,3,3,5,5,7,7,10,10,11,11,12,12,13,13,14,14,15,15,17,17,18,18,19,19,20,20,22,22],"right_children":[2,4,6,8,-1,10,-1,12,-1,-1,14,16,18,20,22,24,-1,26,28,30,32,-1,34,-1,-1,-1,-1,-1,-1,-1,-1,-1,-1,-1,-1],"split_conditions":[2.3807088E-1,-8.180812E-2,2.1785863E-1,-3.7538642E-1,1.1338429E-2,1.2572038E-1,1.08260065E-2,-2.85008E-2,1.112874E-2,6.7768567E-3,1.5699603E-1,2.8560902E-3,1.01782724E-1,1.1810349E0,-1.1311974E-1,-1.1322026E-1,9.356843E-3,-2.7027953E0,-2.8181207E-1,1.0756139E0,-2.683285E-1,8.939477E-3,-4.1565296E-1,2.0088707E-3,-6.877447E-4,9.784992E-4,1.3277535E-2,3.366806E-4,7.852609E-3,-1.2413882E-4,5.7774503E-3,-2.2821706E-4,-4.660838E-4,2.2023222E-3,-1.1968362E-4],"split_indices":[4,828,785,848,0,365,0,702,0,0,42,871,990,882,3,3,0,138,579,809,27,0,867,0,0,0,0,0,0,0,0,0,0,0,0],"split_type":[0,0,0,0,0,0,0,0,0,0,0,0,0,0,0,0,0,0,0,0,0,0,0,0,0,0,0,0,0,0,0,0,0,0,0],"sum_hessian":[4.828E3,2.282E3,2.546E3,2.281E3,1E0,2.545E3,1E0,2.28E3,1E0,1E0,2.544E3,1.3E1,2.267E3,2.512E3,3.2E1,9E0,4E0,1.97E2,2.07E3,1.5E1,2.497E3,2E0,3E1,2E0,7E0,1.95E2,2E0,2.069E3,1E0,1.3E1,2E0,3.66E2,2.131E3,3E0,2.7E1],"tree_param":{"num_deleted":"0","num_feature":"1024","num_nodes":"35","size_leaf_vector":"1"}},{"base_weights":[3.0052857E-4,-1.1997912E-2,1.4216195E-2,-1.2183963E-2,6.972772E-3,1.3997403E-2,7.6466897E-3,-1.4069037E-2,3.2363636E-3,1.6612459E-2,-4.9864943E-3,-8.501447E-3,-1.4896954E-2,2.7719975E-4,1.3832532E-1,9.467578E-2,1.5207845E-2,-6.859702E-3,5.0141276E-3,3.1849742E-2,-9.298735E-3,3.4890335E-2,-1.4989823E-2,1.20060235E-1,-1.9338423E-3,3.0063674E-1,-5.3968746E-4,3.3767462E-1,3.2756206E-2,1.4815579E-2,2.657652E-1,7.873063E-2,-8.102301E-3,-4.3706663E-4,1.7610383E-3,-1.9324398E-4,-6.0180394E-4,-4.6699677E-4,2.793915E-3,-4.512732E-4,1.3402295E-3,1.3264969E-4,5.8703623E-3,4.444689E-3,-1.0801563E-4,1.1033116E-2,2.495537E-3,1.1830323E-2,-3.51347E-5,5.245367E-5,9.027217E-3,6.806248E-3,4.3446745E-4,1.1168351E-2,7.9108204E-4,5.297092E-3,-3.8216932E-4,2.9260764E-4,-4.284138E-4],"categories":[],"categories_nodes":[],"categories_segments":[],"categories_sizes":[],"default_left":[0,0,0,0,0,0,0,0,0,0,0,0,0,0,0,0,0,0,0,0,0,0,0,0,0,0,0,0,0,0,0,0,0,0,0,0,0,0,0,0,0,0,0,0,0,0,0,0,0,0,0,0,0,0,0,0,0,0,0],"id":22,"left_children":[1,3,5,7,-1,9,-1,11,13,15,17,19,21,23,25,27,29,31,-1,33,35,37,39,41,43,45,-1,47,49,51,53,55,57,-1,-1,-1,-1,-1,-1,-1,-1,-1,-1,-1,-1,-1,-1,-1,-1,-1,-1,-1,-1,-1,-1,-1,-1,-1,-1],"loss_changes":[8.2661045E-1,1.194306E-1,1.1575377E-1,7.4547976E-2,0E0,1.1252639E-1,0E0,1.0401487E-2,1.1189176E-1,2.1687096E-1,8.981317E-2,9.883286E-3,9.710252E-3,7.306465E-2,1.5763849E-1,5.1556253E-1,1.8840653E-1,2.9672662E-2,0E0,8.333681E-3,8.88001E-3,1.3204195E-2,6.9004297E-3,4.2856857E-2,6.832464E-2,1.320231E-2,0E0,1.3487738E-1,2.4060196E-1,1.3490498E-1,6.667967E-2,3.804653E-2,2.9924745E-2,0E0,0E0,0E0,0E0,0E0,0E0,0E0,0E0,0E0,0E0,0E0,0E0,0E0,0E0,0E0,0E0,0E0,0E0,0E0,0E0,0E0,0E0,0E0,0E0,0E0,0E0],"parents":[2147483647,0,0,1,1,2,2,3,3,5,5,7,7,8,8,9,9,10,10,11,11,12,12,13,13,14,14,15,15,16,16,17,17,19,19,20,20,21,21,22,22,23,23,24,24,25,25,27,27,28,28,29,29,30,30,31,31,32,32],"right_children":[2,4,6,8,-1,10,-1,12,14,16,18,20,22,24,26,28,30,32,-1,34,36,38,40,42,44,46,-1,48,50,52,54,56,58,-1,-1,-1,-1,-1,-1,-1,-1,-1,-1,-1,-1,-1,-1,-1,-1,-1,-1,-1,-1,-1,-1,-1,-1,-1,-1],"split_conditions":[-5.457836E-1,1.682228E-1,2.8450772E-1,-1.2812638E-1,6.972772E-3,5.5935994E-2,7.6466897E-3,1.7921034E-1,2.6964578E-1,-2.999562E-1,1.03026085E-1,8.032831E-2,-8.770008E-1,-2.5894124E-2,7.450378E-2,-6.168369E-3,-2.932667E-1,-4.2531773E-2,5.0141276E-3,-5.5908656E-1,7.442976E-2,4.283139E-2,-1.7211849E-2,4.275224E-2,2.2645637E-1,1.1634499E-1,-5.3968746E-4,1.164898E-1,4.7248235E-1,-8.131559E-1,1.1647952E-1,-2.5765976E-2,9.71608E-2,-4.3706663E-4,1.7610383E-3,-1.9324398E-4,-6.0180394E-4,-4.6699677E-4,2.793915E-3,-4.512732E-4,1.3402295E-3,1.3264969E-4,5.8703623E-3,4.444689E-3,-1.0801563E-4,1.1033116E-2,2.495537E-3,1.1830323E-2,-3.51347E-5,5.245367E-5,9.027217E-3,6.806248E-3,4.3446745E-4,1.1168351E-2,7.9108204E-4,5.297092E-3,-3.8216932E-4,2.9260764E-4,-4.284138E-4],"split_indices":[987,705,312,751,0,511,0,887,463,179,729,631,384,11,63,561,525,824,0,35,63,20,929,20,150,2,0,2,144,953,2,11,184,0,0,0,0,0,0,0,0,0,0,0,0,0,0,0,0,0,0,0,0,0,0,0,0,0,0],"split_type":[0,0,0,0,0,0,0,0,0,0,0,0,0,0,0,0,0,0,0,0,0,0,0,0,0,0,0,0,0,0,0,0,0,0,0,0,0,0,0,0,0,0,0,0,0,0,0,0,0,0,0,0,0,0,0,0,0,0,0],"sum_hessian":[4.828E3,2.563E3,2.265E3,2.562E3,1E0,2.264E3,1E0,2.283E3,2.79E2,1.99E3,2.74E2,2.97E2,1.986E3,2.74E2,5E0,3.4E1,1.956E3,2.72E2,2E0,5E0,2.92E2,3E0,1.983E3,4E0,2.7E2,2E0,3E0,6E0,2.8E1,1.954E3,2E0,3E0,2.69E2,2E0,3E0,2.32E2,6E1,2E0,1E0,1.982E3,1E0,2E0,2E0,2E0,2.68E2,1E0,1E0,5E0,1E0,2.6E1,2E0,2E0,1.952E3,1E0,1E0,1E0,2E0,6.9E1,2E2],"tree_param":{"num_deleted":"0","num_feature":"1024","num_nodes":"59","size_leaf_vector":"1"}},{"base_weights":[3.10474E-4,-1.3360821E-2,1.19971065E-2,-1.35666365E-2,6.668687E-3,1.1721134E-2,1.0955293E-2,6.02036E-2,-1.3826598E-2,1.1475041E-2,9.78087E-3,-1.7678969E-2,5.877026E-3,-1.4604055E-2,-7.703248E-3,1.6071044E-2,-2.0727022E-3,-1.600888E-4,-5.724073E-4,-1.4669434E-2,3.308747E-2,-9.777305E-3,2.3500169E-2,8.606209E-2,1.4214855E-2,1.5754482E-1,-3.2861393E-3,-4.4291778E-4,5.5928464E-4,1.5399607E-3,-5.1024585E-5,-3.5743494E-4,4.611377E-4,-1.9078323E-4,1.8839876E-3,1.5599051E-3,9.816233E-3,4.1256746E-4,1.3348901E-2,-7.73256E-4,8.650497E-3,1.1899599E-3,-1.7093218E-4],"categories":[],"categories_nodes":[],"categories_segments":[],"categories_sizes":[],"default_left":[0,0,0,0,0,0,0,0,0,0,0,0,0,0,0,0,0,0,0,0,0,0,0,0,0,0,0,0,0,0,0,0,0,0,0,0,0,0,0,0,0,0,0],"id":23,"left_children":[1,3,5,7,-1,9,-1,11,13,15,-1,17,-1,19,21,23,25,-1,-1,27,29,31,33,35,37,39,41,-1,-1,-1,-1,-1,-1,-1,-1,-1,-1,-1,-1,-1,-1,-1,-1],"loss_changes":[7.716964E-1,1.1097792E-1,2.4952558E-1,4.350224E-2,0E0,1.9759905E-1,0E0,8.801094E-2,1.0446578E-2,1.6204804E-1,0E0,1.955079E-6,0E0,6.6185594E-3,1.6538614E-2,2.5120467E-1,1.2835038E-1,0E0,0E0,6.4605176E-3,1.991397E-3,1.2921264E-2,1.9174814E-2,3.937206E-1,3.7129164E-1,1.2732822E-1,6.817564E-2,0E0,0E0,0E0,0E0,0E0,0E0,0E0,0E0,0E0,0E0,0E0,0E0,0E0,0E0,0E0,0E0],"parents":[2147483647,0,0,1,1,2,2,3,3,5,5,7,7,8,8,9,9,11,11,13,13,14,14,15,15,16,16,19,19,20,20,21,21,22,22,23,23,24,24,25,25,26,26],"right_children":[2,4,6,8,-1,10,-1,12,14,16,-1,18,-1,20,22,24,26,-1,-1,28,30,32,34,36,38,40,42,-1,-1,-1,-1,-1,-1,-1,-1,-1,-1,-1,-1,-1,-1,-1,-1],"split_conditions":[4.2107394E-1,1.682228E-1,-3.7538642E-1,2.4334194E-1,6.668687E-3,-3.89161E-1,1.0955293E-2,2.2533825E-1,-5.1540875E-1,1.4663227E-1,9.78087E-3,2.2524215E-1,5.877026E-3,-2.6572782E-1,-2.6340705E-1,1.3999738E-1,1.3536517E-1,-1.600888E-4,-5.724073E-4,3.324327E-1,2.2535715E-1,-1.9476156E-1,-3.7564093E-1,-3.6140054E-1,2.4994999E-1,2.497873E-1,-2.1270512E-1,-4.4291778E-4,5.5928464E-4,1.5399607E-3,-5.1024585E-5,-3.5743494E-4,4.611377E-4,-1.9078323E-4,1.8839876E-3,1.5599051E-3,9.816233E-3,4.1256746E-4,1.3348901E-2,-7.73256E-4,8.650497E-3,1.1899599E-3,-1.7093218E-4],"split_indices":[352,705,848,164,0,816,0,6,7,827,0,6,0,297,614,308,383,0,0,474,6,530,848,975,30,30,1014,0,0,0,0,0,0,0,0,0,0,0,0,0,0,0,0],"split_type":[0,0,0,0,0,0,0,0,0,0,0,0,0,0,0,0,0,0,0,0,0,0,0,0,0,0,0,0,0,0,0,0,0,0,0,0,0,0,0,0,0,0,0],"sum_hessian":[4.828E3,2.225E3,2.603E3,2.224E3,1E0,2.602E3,1E0,7E0,2.217E3,2.601E3,1E0,5E0,2E0,1.966E3,2.51E2,1.942E3,6.59E2,1E0,4E0,1.964E3,2E0,2.36E2,1.5E1,4.9E1,1.893E3,4E0,6.55E2,1.959E3,5E0,1E0,1E0,2.18E2,1.8E1,9E0,6E0,4.4E1,5E0,1.892E3,1E0,2E0,2E0,3.4E1,6.21E2],"tree_param":{"num_deleted":"0","num_feature":"1024","num_nodes":"43","size_leaf_vector":"1"}},{"base_weights":[3.156521E-4,-1.179061E-2,1.4255239E-2,6.476079E-3,-1.19622545E-2,1.3941004E-2,1.0790963E-2,2.0957077E-2,-1.2422487E-2,2.3558593E-1,1.3638205E-2,5.8126175E-3,5.093914E-3,-1.3234513E-2,-3.7595312E-4,1.0994638E-2,-3.932718E-4,1.3251834E-2,1.8385044E-1,4.2905033E-2,-6.2980438E-3,5.9246175E-2,-1.3350524E-2,1.5848911E-1,-4.370194E-3,1.9763237E-2,4.1230614E-3,-3.5488082E-4,7.0718317E-3,4.7725847E-4,1.477572E-3,-6.304849E-4,6.247313E-4,-2.6410274E-4,3.9509246E-3,-4.0388663E-4,8.023263E-4,8.9519867E-4,5.742765E-3,5.7036284E-4,-3.264682E-4,5.370637E-4,2.4418363E-3,-2.4632446E-4,5.5337814E-4],"categories":[],"categories_nodes":[],"categories_segments":[],"categories_sizes":[],"default_left":[0,0,0,0,0,0,0,0,0,0,0,0,0,0,0,0,0,0,0,0,0,0,0,0,0,0,0,0,0,0,0,0,0,0,0,0,0,0,0,0,0,0,0,0,0],"id":24,"left_children":[1,3,5,-1,7,9,-1,11,13,15,17,-1,19,21,23,-1,-1,25,27,29,31,33,35,37,39,41,43,-1,-1,-1,-1,-1,-1,-1,-1,-1,-1,-1,-1,-1,-1,-1,-1,-1,-1],"loss_changes":[8.150922E-1,1.035952E-1,2.3868087E-1,0E0,3.94094E-2,1.4739063E-1,0E0,9.7692795E-2,2.4929583E-2,1.0246833E-1,1.4500907E-1,0E0,1.4915468E-2,2.0870715E-2,1.0348897E-1,0E0,0E0,1.3294771E-1,5.3545207E-2,5.8731344E-4,1.1215806E-2,2.088052E-2,1.1104941E-2,1.1236832E-2,2.4417398E-2,1.4834487E-1,1.6497207E-1,0E0,0E0,0E0,0E0,0E0,0E0,0E0,0E0,0E0,0E0,0E0,0E0,0E0,0E0,0E0,0E0,0E0,0E0],"parents":[2147483647,0,0,1,1,2,2,4,4,5,5,7,7,8,8,9,9,10,10,12,12,13,13,14,14,17,17,18,18,19,19,20,20,21,21,22,22,23,23,24,24,25,25,26,26],"right_children":[2,4,6,-1,8,10,-1,12,14,16,18,-1,20,22,24,-1,-1,26,28,30,32,34,36,38,40,42,44,-1,-1,-1,-1,-1,-1,-1,-1,-1,-1,-1,-1,-1,-1,-1,-1,-1,-1],"split_conditions":[5.927663E-2,7.426521E-2,-5.3930146E-1,6.476079E-3,5.5000263E-1,-1.06945634E-1,1.0790963E-2,2.56647E-1,2.1441115E-1,2.2534981E-1,-3.4431612E-1,5.8126175E-3,-4.1548526E-1,4.168339E-2,-1.5180043E-2,1.0994638E-2,-3.932718E-4,-5.7195735E-1,-8.348411E-2,2.2533296E-1,2.1305157E-1,3.958246E-1,4.55822E-1,2.2528943E-1,1.4682609E-1,-4.3231335E-1,8.770656E-2,-3.5488082E-4,7.0718317E-3,4.7725847E-4,1.477572E-3,-6.304849E-4,6.247313E-4,-2.6410274E-4,3.9509246E-3,-4.0388663E-4,8.023263E-4,8.9519867E-4,5.742765E-3,5.7036284E-4,-3.264682E-4,5.370637E-4,2.4418363E-3,-2.4632446E-4,5.5337814E-4],"split_indices":[733,800,802,0,38,834,0,415,692,6,92,0,347,267,350,0,0,539,13,6,205,9,105,6,668,649,398,0,0,0,0,0,0,0,0,0,0,0,0,0,0,0,0,0,0],"split_type":[0,0,0,0,0,0,0,0,0,0,0,0,0,0,0,0,0,0,0,0,0,0,0,0,0,0,0,0,0,0,0,0,0,0,0,0,0,0,0,0,0,0,0,0,0],"sum_hessian":[4.828E3,2.584E3,2.244E3,1E0,2.583E3,2.243E3,1E0,3.5E1,2.548E3,2E0,2.241E3,2E0,3.3E1,2.387E3,1.61E2,1E0,1E0,2.237E3,4E0,7E0,2.6E1,3E0,2.384E3,3E0,1.58E2,1.305E3,9.32E2,1E0,3E0,2E0,5E0,1.7E1,9E0,2E0,1E0,2.378E3,6E0,1E0,2E0,3.4E1,1.24E2,1.268E3,3.7E1,5.01E2,4.31E2],"tree_param":{"num_deleted":"0","num_feature":"1024","num_nodes":"45","size_leaf_vector":"1"}},{"base_weights":[3.1790332E-4,1.4128036E-2,-1.1311803E-2,1.605276E-1,1.3589497E-2,1.8947909E-3,-1.2993251E-2,-7.4438057E-3,9.910799E-3,1.3801847E-1,1.2958594E-2,1.0138052E-1,5.347987E-4,-1.3075377E-2,2.669262E-3,1.5594878E-2,-8.400366E-4,1.1819687E-2,-7.2193826E-3,2.2798614E-1,1.2657981E-2,4.2827916E-3,-3.413565E-4,-4.6956193E-4,9.8114304E-2,-1.3294313E-2,2.6884137E-2,7.127435E-4,-1.09739785E-5,5.1984604E-4,-1.8289944E-2,-4.5269856E-4,1.0712075E-2,1.6887182E-2,-1.5514022E-3,5.5409558E-2,-2.2387258E-3,1.2975326E-4,4.2853905E-3,-1.3430321E-2,8.437484E-3,6.4479606E-3,-6.6975234E-3,-5.939848E-4,-1.6113292E-4,4.603674E-4,2.9623066E-3,4.3407143E-3,-9.9307115E-5,5.158232E-3,5.805146E-4,7.829349E-4,-1.4507426E-4,-4.045028E-4,9.512244E-4,-3.4980022E-4,1.528934E-3,3.037871E-4,-4.912554E-4],"categories":[],"categories_nodes":[],"categories_segments":[],"categories_sizes":[],"default_left":[0,0,0,0,0,0,0,0,0,0,0,0,0,0,0,0,0,0,0,0,0,0,0,0,0,0,0,0,0,0,0,0,0,0,0,0,0,0,0,0,0,0,0,0,0,0,0,0,0,0,0,0,0,0,0,0,0,0,0],"id":25,"left_children":[1,3,5,7,9,11,13,15,-1,17,19,21,23,25,-1,27,-1,-1,29,31,33,-1,-1,35,37,39,41,-1,-1,-1,43,-1,-1,45,47,49,51,-1,-1,53,55,-1,57,-1,-1,-1,-1,-1,-1,-1,-1,-1,-1,-1,-1,-1,-1,-1,-1],"loss_changes":[7.757348E-1,1.7190143E-1,5.8249235E-2,2.30675E-1,1.7099568E-1,4.0129825E-2,2.0642072E-2,2.8047548E-3,0E0,4.11788E-1,1.3874045E-1,2.028792E-2,2.8859545E-2,2.0697832E-2,0E0,3.9956317E-4,0E0,0E0,2.4909761E-3,9.951915E-2,1.315727E-1,0E0,0E0,2.8990969E-2,1.196832E-2,6.949842E-3,8.3533995E-2,0E0,0E0,0E0,1.0664808E-5,0E0,0E0,2.1136719E-1,1.298583E-1,3.4491025E-2,2.1026442E-2,0E0,0E0,5.938351E-3,1.3414532E-2,0E0,2.1195945E-3,0E0,0E0,0E0,0E0,0E0,0E0,0E0,0E0,0E0,0E0,0E0,0E0,0E0,0E0,0E0,0E0],"parents":[2147483647,0,0,1,1,2,2,3,3,4,4,5,5,6,6,7,7,9,9,10,10,11,11,12,12,13,13,15,15,18,18,19,19,20,20,23,23,24,24,25,25,26,26,30,30,33,33,34,34,35,35,36,36,39,39,40,40,42,42],"right_children":[2,4,6,8,10,12,14,16,-1,18,20,22,24,26,-1,28,-1,-1,30,32,34,-1,-1,36,38,40,42,-1,-1,-1,44,-1,-1,46,48,50,52,-1,-1,54,56,-1,58,-1,-1,-1,-1,-1,-1,-1,-1,-1,-1,-1,-1,-1,-1,-1,-1],"split_conditions":[8.544504E0,6.261005E-2,1.1653898E-1,-1.842274E-1,5.160023E-1,2.2645637E-1,2.6002234E-1,6.40877E-1,9.910799E-3,-3.6197048E-1,-5.6581537E-4,4.1417775E-1,4.4983596E-2,7.2561955E-1,2.669262E-3,4.1426662E-1,-8.400366E-4,1.1819687E-2,3.04806E-1,4.1415787E-1,-1.1769742E0,4.2827916E-3,-3.413565E-4,1.0030785E-1,4.1414857E-1,-1.6200447E-1,-9.591264E-2,7.127435E-4,-1.09739785E-5,5.1984604E-4,6.407932E-1,-4.5269856E-4,1.0712075E-2,4.791595E-2,1.4152677E-1,5.355145E-2,-1.24742515E-1,1.2975326E-4,4.2853905E-3,-2.2155046E-2,-2.9009717E-2,6.4479606E-3,-2.0923746E-1,-5.939848E-4,-1.6113292E-4,4.603674E-4,2.9623066E-3,4.3407143E-3,-9.9307115E-5,5.158232E-3,5.805146E-4,7.829349E-4,-1.4507426E-4,-4.045028E-4,9.512244E-4,-3.4980022E-4,1.528934E-3,3.037871E-4,-4.912554E-4],"split_indices":[342,636,218,181,336,150,768,22,0,70,612,17,725,193,0,17,0,0,24,17,790,0,0,706,17,880,128,0,0,0,22,0,0,408,783,86,59,0,0,40,233,0,241,0,0,0,0,0,0,0,0,0,0,0,0,0,0,0,0],"split_type":[0,0,0,0,0,0,0,0,0,0,0,0,0,0,0,0,0,0,0,0,0,0,0,0,0,0,0,0,0,0,0,0,0,0,0,0,0,0,0,0,0,0,0,0,0,0,0,0,0,0,0,0,0,0,0,0,0,0,0],"sum_hessian":[4.828E3,2.207E3,2.621E3,7E0,2.2E3,2.96E2,2.325E3,4E0,3E0,1E1,2.19E3,3E0,2.93E2,2.324E3,1E0,2E0,2E0,3E0,7E0,2E0,2.188E3,2E0,1E0,2.91E2,2E0,2.312E3,1.2E1,1E0,1E0,2E0,5E0,1E0,1E0,1.686E3,5.02E2,8E0,2.83E2,1E0,1E0,2.298E3,1.4E1,1E0,1.1E1,4E0,1E0,1.656E3,3E1,5E0,4.97E2,1E0,7E0,2.3E1,2.6E2,2.296E3,2E0,1E1,4E0,4E0,7E0],"tree_param":{"num_deleted":"0","num_feature":"1024","num_nodes":"59","size_leaf_vector":"1"}},{"base_weights":[3.2175833E-4,-1.0778066E-2,1.3491662E-2,-2.335489E-3,-1.3515711E-2,1.2926881E-1,1.2534782E-2,7.746101E-2,-4.1050375E-3,1.5618954E-2,-1.362705E-2,3.564889E-2,3.6555082E-1,1.6701142E-1,1.1892464E-2,-3.3418688E-3,8.409111E-3,4.609891E-2,-5.572519E-3,2.142763E-3,-2.5570353E-3,-1.3424252E-2,-2.6751634E-2,-5.5755917E-3,2.7463238E-3,1.3533338E-2,4.744203E-3,1.1553744E-2,-6.2327306E-3,3.5570476E-2,9.579341E-3,-2.3863452E-2,3.8536765E-2,-1.065284E-2,1.6137788E-1,8.828868E-2,-6.333986E-3,9.232197E-3,-4.1121023E-4,-1.3578511E-2,-4.0797694E-3,-2.922116E-2,4.39133E-3,-1.8328508E-2,4.4843045E-4,-5.0349353E-4,2.9736088E-4,2.9688245E-2,1.2005292E-2,9.329243E-3,7.6091317E-3,-1.7830526E-4,-7.672311E-4,1.3938947E-3,2.2136382E-4,-6.818289E-4,1.11517E-3,5.8793747E-3,-1.7442765E-4,4.90873E-3,-4.9429626E-4,1.7985085E-3,-2.0945857E-4,3.7249146E-4,-4.8054007E-6,7.651935E-4,-4.0836932E-4,3.119961E-4,-5.0171715E-4,-4.7887722E-4,-9.452671E-4,2.1441523E-5,1.7616832E-4,-6.023711E-4,-1.4363804E-4,7.036113E-4,9.505439E-3,3.3000496E-3,2.6602185E-4],"categories":[],"categories_nodes":[],"categories_segments":[],"categories_sizes":[],"default_left":[0,0,0,0,0,0,0,0,0,0,0,0,0,0,0,0,0,0,0,0,0,0,0,0,0,0,0,0,0,0,0,0,0,0,0,0,0,0,0,0,0,0,0,0,0,0,0,0,0,0,0,0,0,0,0,0,0,0,0,0,0,0,0,0,0,0,0,0,0,0,0,0,0,0,0,0,0,0,0],"id":26,"left_children":[1,3,5,7,9,11,13,15,17,19,21,23,25,27,29,31,-1,33,35,-1,37,39,41,43,-1,-1,-1,-1,45,47,49,51,53,55,57,59,61,63,-1,65,67,69,71,73,-1,-1,-1,75,-1,77,-1,-1,-1,-1,-1,-1,-1,-1,-1,-1,-1,-1,-1,-1,-1,-1,-1,-1,-1,-1,-1,-1,-1,-1,-1,-1,-1,-1,-1],"loss_changes":[7.060661E-1,6.0547054E-2,2.4310333E-1,9.111201E-2,6.632358E-3,3.8514116E-1,2.155112E-1,2.3040053E-1,4.66711E-2,8.297342E-3,4.889667E-3,3.276995E-2,1.739198E-2,3.4248215E-1,1.1927724E-1,1.0373195E-2,0E0,1.1948023E-1,4.4371687E-2,0E0,1.0466932E-3,2.7467906E-3,2.3586657E-3,2.629553E-3,0E0,0E0,0E0,0E0,1.1883557E-3,4.0419048E-1,1.19161695E-1,9.3275215E-5,6.4503914E-4,8.3520645E-3,3.584984E-2,4.215875E-2,2.6575105E-2,1.2161714E-4,0E0,2.873093E-3,6.21565E-3,3.1600706E-4,1.2137589E-5,4.608184E-5,0E0,0E0,0E0,3.363077E-1,0E0,9.155013E-2,0E0,0E0,0E0,0E0,0E0,0E0,0E0,0E0,0E0,0E0,0E0,0E0,0E0,0E0,0E0,0E0,0E0,0E0,0E0,0E0,0E0,0E0,0E0,0E0,0E0,0E0,0E0,0E0,0E0],"parents":[2147483647,0,0,1,1,2,2,3,3,4,4,5,5,6,6,7,7,8,8,9,9,10,10,11,11,12,12,13,13,14,14,15,15,17,17,18,18,20,20,21,21,22,22,23,23,28,28,29,29,30,30,31,31,32,32,33,33,34,34,35,35,36,36,37,37,39,39,40,40,41,41,42,42,43,43,47,47,49,49],"right_children":[2,4,6,8,10,12,14,16,18,20,22,24,26,28,30,32,-1,34,36,-1,38,40,42,44,-1,-1,-1,-1,46,48,50,52,54,56,58,60,62,64,-1,66,68,70,72,74,-1,-1,-1,76,-1,78,-1,-1,-1,-1,-1,-1,-1,-1,-1,-1,-1,-1,-1,-1,-1,-1,-1,-1,-1,-1,-1,-1,-1,-1,-1,-1,-1,-1,-1],"split_conditions":[2.6514035E-1,-4.069941E-1,-3.7144966E-2,-4.2910177E-1,-3.454889E-1,1.0295676E-1,5.160023E-1,-9.376022E-2,-7.530793E-2,-2.5820373E-2,2.4545625E-1,-4.290498E-1,-1.4152566E-1,-2.5558788E-1,1.01782724E-1,-1.8400045E-1,8.409111E-3,-9.380626E-2,-2.5911374E-2,2.142763E-3,5.500753E-1,1.0933945E0,-1.5097782E-1,-1.906306E-1,2.7463238E-3,1.3533338E-2,4.744203E-3,1.1553744E-2,-2.5749628E-2,-7.133536E-1,-2.8181207E-1,4.2731383E-1,-1.4169277E-1,-3.618597E-1,-4.332276E-1,-4.330869E-1,-8.0942005E-1,-1.4198676E-1,-4.1121023E-4,1.0174069E-1,-3.6724713E-1,-5.864423E-1,-1.4170125E-1,-4.3316975E-1,4.4843045E-4,-5.0349353E-4,2.9736088E-4,-2.7027953E0,1.2005292E-2,-4.3961638E-1,7.6091317E-3,-1.7830526E-4,-7.672311E-4,1.3938947E-3,2.2136382E-4,-6.818289E-4,1.11517E-3,5.8793747E-3,-1.7442765E-4,4.90873E-3,-4.9429626E-4,1.7985085E-3,-2.0945857E-4,3.7249146E-4,-4.8054007E-6,7.651935E-4,-4.0836932E-4,3.119961E-4,-5.0171715E-4,-4.7887722E-4,-9.452671E-4,2.1441523E-5,1.7616832E-4,-6.023711E-4,-1.4363804E-4,7.036113E-4,9.505439E-3,3.3000496E-3,2.6602185E-4],