{"learner":{"attributes":{"best_iteration":"361","best_score":"0.02952994194720645","scikit_learn":"{\"_estimator_type\": \"regressor\"}"},"feature_names":[],"feature_types":[],"gradient_booster":{"model":{"cats":{"enc":[],"feature_segments":[],"sorted_idx":[]},"gbtree_model_param":{"num_parallel_tree":"1","num_trees":"412"},"iteration_indptr":[0,1,2,3,4,5,6,7,8,9,10,11,12,13,14,15,16,17,18,19,20,21,22,23,24,25,26,27,28,29,30,31,32,33,34,35,36,37,38,39,40,41,42,43,44,45,46,47,48,49,50,51,52,53,54,55,56,57,58,59,60,61,62,63,64,65,66,67,68,69,70,71,72,73,74,75,76,77,78,79,80,81,82,83,84,85,86,87,88,89,90,91,92,93,94,95,96,97,98,99,100,101,102,103,104,105,106,107,108,109,110,111,112,113,114,115,116,117,118,119,120,121,122,123,124,125,126,127,128,129,130,131,132,133,134,135,136,137,138,139,140,141,142,143,144,145,146,147,148,149,150,151,152,153,154,155,156,157,158,159,160,161,162,163,164,165,166,167,168,169,170,171,172,173,174,175,176,177,178,179,180,181,182,183,184,185,186,187,188,189,190,191,192,193,194,195,196,197,198,199,200,201,202,203,204,205,206,207,208,209,210,211,212,213,214,215,216,217,218,219,220,221,222,223,224,225,226,227,228,229,230,231,232,233,234,235,236,237,238,239,240,241,242,243,244,245,246,247,248,249,250,251,252,253,254,255,256,257,258,259,260,261,262,263,264,265,266,267,268,269,270,271,272,273,274,275,276,277,278,279,280,281,282,283,284,285,286,287,288,289,290,291,292,293,294,295,296,297,298,299,300,301,302,303,304,305,306,307,308,309,310,311,312,313,314,315,316,317,318,319,320,321,322,323,324,325,326,327,328,329,330,331,332,333,334,335,336,337,338,339,340,341,342,343,344,345,346,347,348,349,350,351,352,353,354,355,356,357,358,359,360,361,362,363,364,365,366,367,368,369,370,371,372,373,374,375,376,377,378,379,380,381,382,383,384,385,386,387,388,389,390,391,392,393,394,395,396,397,398,399,400,401,402,403,404,405,406,407,408,409,410,411,412],"tree_info":[0,0,0,0,0,0,0,0,0,0,0,0,0,0,0,0,0,0,0,0,0,0,0,0,0,0,0,0,0,0,0,0,0,0,0,0,0,0,0,0,0,0,0,0,0,0,0,0,0,0,0,0,0,0,0,0,0,0,0,0,0,0,0,0,0,0,0,0,0,0,0,0,0,0,0,0,0,0,0,0,0,0,0,0,0,0,0,0,0,0,0,0,0,0,0,0,0,0,0,0,0,0,0,0,0,0,0,0,0,0,0,0,0,0,0,0,0,0,0,0,0,0,0,0,0,0,0,0,0,0,0,0,0,0,0,0,0,0,0,0,0,0,0,0,0,0,0,0,0,0,0,0,0,0,0,0,0,0,0,0,0,0,0,0,0,0,0,0,0,0,0,0,0,0,0,0,0,0,0,0,0,0,0,0,0,0,0,0,0,0,0,0,0,0,0,0,0,0,0,0,0,0,0,0,0,0,0,0,0,0,0,0,0,0,0,0,0,0,0,0,0,0,0,0,0,0,0,0,0,0,0,0,0,0,0,0,0,0,0,0,0,0,0,0,0,0,0,0,0,0,0,0,0,0,0,0,0,0,0,0,0,0,0,0,0,0,0,0,0,0,0,0,0,0,0,0,0,0,0,0,0,0,0,0,0,0,0,0,0,0,0,0,0,0,0,0,0,0,0,0,0,0,0,0,0,0,0,0,0,0,0,0,0,0,0,0,0,0,0,0,0,0,0,0,0,0,0,0,0,0,0,0,0,0,0,0,0,0,0,0,0,0,0,0,0,0,0,0,0,0,0,0,0,0,0,0,0,0,0,0,0,0,0,0,0,0,0,0,0,0,0,0,0,0,0,0,0,0,0,0,0,0,0,0,0,0,0,0,0,0,0,0,0,0,0,0,0,0,0,0,0,0,0,0,0,0,0,0,0,0,0,0],"trees":[{"base_weights":[-2.15425E-10,-9.438886E-3,3.5238507E-1,-2.487807E-2,5.4521713E-2,2.5938985E-1,6.413235E-1,-2.8535777E-3,-8.605732E-4,4.0750904E-3,1.5704295E-2,3.929478E-2,2.2398489E-2,4.422935E-2,7.675057E-2],"categories":[],"categories_nodes":[],"categories_segments":[],"categories_sizes":[],"default_left":[0,0,0,0,0,0,0,0,0,0,0,0,0,0,0],"id":0,"left_children":[1,3,5,7,9,11,13,-1,-1,-1,-1,-1,-1,-1,-1],"loss_changes":[1.6065172E1,4.646554E0,3.2192554E0,2.2533298E-1,1.2853978E0,3.7066078E-1,4.139576E-1,0E0,0E0,0E0,0E0,0E0,0E0,0E0,0E0],"parents":[2147483647,0,0,1,1,2,2,3,3,4,4,5,5,6,6],"right_children":[2,4,6,8,10,12,14,-1,-1,-1,-1,-1,-1,-1,-1],"split_conditions":[3.338564E2,6.3213956E-1,8.800701E2,3.6049506E-1,2.0195446E0,1.0393242E-5,1.1303436E1,-2.8535777E-3,-8.605732E-4,4.0750904E-3,1.5704295E-2,3.929478E-2,2.2398489E-2,4.422935E-2,7.675057E-2],"split_indices":[32,31,32,31,31,20,31,0,0,0,0,0,0,0,0],"split_type":[0,0,0,0,0,0,0,0,0,0,0,0,0,0,0],"sum_hessian":[4.828E3,4.703E3,1.25E2,3.789E3,9.14E2,9.6E1,2.9E1,3.093E3,6.96E2,8.07E2,1.07E2,1.8E1,7.8E1,1.3E1,1.6E1],"tree_param":{"num_deleted":"0","num_feature":"1058","num_nodes":"15","size_leaf_vector":"1"}},{"base_weights":[4.1155163E-5,-1.0682217E-2,2.3595513E-1,-2.257327E-2,4.208466E-2,1.7300366E-1,4.9917382E-1,-2.5168124E-3,-5.1060406E-4,2.4647934E-2,3.5079636E-3,2.5751188E-2,1.4077841E-2,1.07118E-2,5.397601E-2],"categories":[],"categories_nodes":[],"categories_segments":[],"categories_sizes":[],"default_left":[0,0,0,0,0,0,0,0,0,0,0,0,0,0,0],"id":1,"left_children":[1,3,5,7,9,11,13,-1,-1,-1,-1,-1,-1,-1,-1],"loss_changes":[1.2218893E1,2.8997865E0,3.393342E0,1.7079163E-1,1.2083747E0,4.2943144E-1,5.786648E-1,0E0,0E0,0E0,0E0,0E0,0E0,0E0,0E0],"parents":[2147483647,0,0,1,1,2,2,3,3,4,4,5,5,6,6],"right_children":[2,4,6,8,10,12,14,-1,-1,-1,-1,-1,-1,-1,-1],"split_conditions":[2.0195446E0,6.1953837E-1,6.7938867E0,4.096477E-1,7.0749998E-6,3.275E-6,5.590144E-1,-2.5168124E-3,-5.1060406E-4,2.4647934E-2,3.5079636E-3,2.5751188E-2,1.4077841E-2,1.07118E-2,5.397601E-2],"split_indices":[31,31,31,31,7,2,471,0,0,0,0,0,0,0,0],"split_type":[0,0,0,0,0,0,0,0,0,0,0,0,0,0,0],"sum_hessian":[4.828E3,4.619E3,2.09E2,3.77E3,8.49E2,1.7E2,3.9E1,3.282E3,4.88E2,2.7E1,8.22E2,4.5E1,1.25E2,4E0,3.5E1],"tree_param":{"num_deleted":"0","num_feature":"1058","num_nodes":"15","size_leaf_vector":"1"}},{"base_weights":[6.38862E-5,-9.0689575E-3,2.5349993E-1,-1.7795462E-2,5.2988462E-2,1.9030498E-1,5.378531E-1,-2.1548225E-3,9.997659E-4,4.712302E-3,2.6882349E-2,1.5166396E-2,2.7593631E-2,-1.5707583E-3,5.574831E-2],"categories":[],"categories_nodes":[],"categories_segments":[],"categories_sizes":[],"default_left":[0,0,0,0,0,0,0,0,0,0,0,0,0,0,0],"id":2,"left_children":[1,3,5,7,9,11,13,-1,-1,-1,-1,-1,-1,-1,-1],"loss_changes":[1.11794615E1,2.5256226E0,2.9165497E0,4.2659807E-1,7.152637E-1,4.180851E-1,3.3474827E-1,0E0,0E0,0E0,0E0,0E0,0E0,0E0,0E0],"parents":[2147483647,0,0,1,1,2,2,3,3,4,4,5,5,6,6],"right_children":[2,4,6,8,10,12,14,-1,-1,-1,-1,-1,-1,-1,-1],"split_conditions":[2.4883731E2,8.82148E-1,8.800701E2,5.053566E-1,4.413642E0,5.201464E2,2.1695623E-6,-2.1548225E-3,9.997659E-4,4.712302E-3,2.6882349E-2,1.5166396E-2,2.7593631E-2,-1.5707583E-3,5.574831E-2],"split_indices":[32,31,32,31,31,32,13,0,0,0,0,0,0,0,0],"split_type":[0,0,0,0,0,0,0,0,0,0,0,0,0,0,0],"sum_hessian":[4.828E3,4.661E3,1.67E2,4.087E3,5.74E2,1.38E2,2.9E1,3.601E3,4.86E2,5.6E2,1.4E1,9.7E1,4.1E1,1E0,2.8E1],"tree_param":{"num_deleted":"0","num_feature":"1058","num_nodes":"15","size_leaf_vector":"1"}},{"base_weights":[8.3875624E-5,-8.155532E-3,2.2872694E-1,-1.728513E-2,4.002237E-2,1.7158212E-1,4.8587373E-1,-1.9976215E-3,2.511063E-4,3.5775886E-3,2.4373328E-2,3.119717E-2,1.4946249E-2,3.2230105E-2,5.9199985E-2],"categories":[],"categories_nodes":[],"categories_segments":[],"categories_sizes":[],"default_left":[0,0,0,0,0,0,0,0,0,0,0,0,0,0,0],"id":3,"left_children":[1,3,5,7,9,11,13,-1,-1,-1,-1,-1,-1,-1,-1],"loss_changes":[9.099138E0,2.0512488E0,2.3853273E0,2.0888102E-1,6.3401604E-1,3.8501787E-1,3.299775E-1,0E0,0E0,0E0,0E0,0E0,0E0,0E0,0E0],"parents":[2147483647,0,0,1,1,2,2,3,3,4,4,5,5,6,6],"right_children":[2,4,6,8,10,12,14,-1,-1,-1,-1,-1,-1,-1,-1],"split_conditions":[2.4883731E2,7.2989714E-1,8.800701E2,4.5874655E-1,4.413642E0,6.005563E-6,1.1303436E1,-1.9976215E-3,2.511063E-4,3.5775886E-3,2.4373328E-2,3.119717E-2,1.4946249E-2,3.2230105E-2,5.9199985E-2],"split_indices":[32,31,32,31,31,4,31,0,0,0,0,0,0,0,0],"split_type":[0,0,0,0,0,0,0,0,0,0,0,0,0,0,0],"sum_hessian":[4.828E3,4.661E3,1.67E2,3.919E3,7.42E2,1.38E2,2.9E1,3.45E3,4.69E2,7.28E2,1.4E1,1.7E1,1.21E2,1.3E1,1.6E1],"tree_param":{"num_deleted":"0","num_feature":"1058","num_nodes":"15","size_leaf_vector":"1"}},{"base_weights":[1.09403525E-4,-4.7062184E-3,3.228902E-1,-1.0997441E-2,7.581684E-2,2.5750715E-1,5.3155017E-1,-1.581639E-3,7.6065783E-4,5.440625E-3,1.1306423E-2,3.0954987E-2,1.6300704E-2,2.4512406E-2,5.787928E-2],"categories":[],"categories_nodes":[],"categories_segments":[],"categories_sizes":[],"default_left":[0,0,0,0,0,0,0,0,0,0,0,0,0,0,0],"id":4,"left_children":[1,3,5,7,9,11,13,-1,-1,-1,-1,-1,-1,-1,-1],"loss_changes":[7.5076704E0,2.4116883E0,8.317628E-1,3.959332E-1,2.689823E-1,2.2495174E-1,7.462788E-2,0E0,0E0,0E0,0E0,0E0,0E0,0E0,0E0],"parents":[2147483647,0,0,1,1,2,2,3,3,4,4,5,5,6,6],"right_children":[2,4,6,8,10,12,14,-1,-1,-1,-1,-1,-1,-1,-1],"split_conditions":[5.201464E2,1.14147224E2,1.6221248E3,1.6414524E1,2.2254553E2,7.1249997E-6,7.001294E-2,-1.581639E-3,7.6065783E-4,5.440625E-3,1.1306423E-2,3.0954987E-2,1.6300704E-2,2.4512406E-2,5.787928E-2],"split_indices":[32,32,32,32,32,6,192,0,0,0,0,0,0,0,0],"split_type":[0,0,0,0,0,0,0,0,0,0,0,0,0,0,0],"sum_hessian":[4.828E3,4.758E3,7E1,4.414E3,3.44E2,5.5E1,1.5E1,3.506E3,9.08E2,2.2E2,1.24E2,3.4E1,2.1E1,3E0,1.2E1],"tree_param":{"num_deleted":"0","num_feature":"1058","num_nodes":"15","size_leaf_vector":"1"}},{"base_weights":[1.2860858E-4,-5.4117916E-3,2.3140241E-1,-1.3237206E-2,4.574956E-2,1.6780889E-1,4.0175083E-1,-1.6130427E-3,8.0145634E-4,3.5055566E-3,1.2754703E-2,1.3926211E-2,3.005955E-2,4.256663E-2,4.462296E-3],"categories":[],"categories_nodes":[],"categories_segments":[],"categories_sizes":[],"default_left":[0,0,0,0,0,0,0,0,0,0,0,0,0,0,0],"id":5,"left_children":[1,3,5,7,9,11,13,-1,-1,-1,-1,-1,-1,-1,-1],"loss_changes":[6.1888885E0,1.8890979E0,1.1567183E0,2.517302E-1,5.4311705E-1,2.7655125E-1,2.3723221E-1,0E0,0E0,0E0,0E0,0E0,0E0,0E0,0E0],"parents":[2147483647,0,0,1,1,2,2,3,3,4,4,5,5,6,6],"right_children":[2,4,6,8,10,12,14,-1,-1,-1,-1,-1,-1,-1,-1],"split_conditions":[3.552374E2,8.82148E-1,8.800701E2,5.053566E-1,2.5107412E0,1.1684903E0,-2.4901861E-1,-1.6130427E-3,8.0145634E-4,3.5055566E-3,1.2754703E-2,1.3926211E-2,3.005955E-2,4.256663E-2,4.462296E-3],"split_indices":[32,31,32,31,31,991,268,0,0,0,0,0,0,0,0],"split_type":[0,0,0,0,0,0,0,0,0,0,0,0,0,0,0],"sum_hessian":[4.828E3,4.716E3,1.12E2,4.091E3,6.25E2,8.3E1,2.9E1,3.601E3,4.9E2,5.54E2,7.1E1,7E1,1.3E1,2.7E1,2E0],"tree_param":{"num_deleted":"0","num_feature":"1058","num_nodes":"15","size_leaf_vector":"1"}},{"base_weights":[1.3779479E-4,-3.8290652E-3,2.660272E-1,-1.0123319E-2,6.0381334E-2,2.1053067E-1,4.436384E-1,-1.4517832E-3,1.1455914E-3,4.524774E-3,1.2507938E-2,2.2590186E-2,8.564137E-4,5.112796E-2,2.4568984E-2],"categories":[],"categories_nodes":[],"categories_segments":[],"categories_sizes":[],"default_left":[0,0,0,0,0,0,0,0,0,0,0,0,0,0,0],"id":6,"left_children":[1,3,5,7,9,11,13,-1,-1,-1,-1,-1,-1,-1,-1],"loss_changes":[5.0943875E0,1.9239923E0,6.0643387E-1,4.1125524E-1,4.1046393E-1,1.719153E-1,8.861542E-2,0E0,0E0,0E0,0E0,0E0,0E0,0E0,0E0],"parents":[2147483647,0,0,1,1,2,2,3,3,4,4,5,5,6,6],"right_children":[2,4,6,8,10,12,14,-1,-1,-1,-1,-1,-1,-1,-1],"split_conditions":[5.201464E2,1.1821766E0,1.6221248E3,5.053566E-1,2.8284674E0,9.6284515E-1,1.6950066E-3,-1.4517832E-3,1.1455914E-3,4.524774E-3,1.2507938E-2,2.2590186E-2,8.564137E-4,5.112796E-2,2.4568984E-2],"split_indices":[32,31,32,31,31,713,603,0,0,0,0,0,0,0,0],"split_type":[0,0,0,0,0,0,0,0,0,0,0,0,0,0,0],"sum_hessian":[4.828E3,4.758E3,7E1,4.334E3,4.24E2,5.5E1,1.5E1,3.601E3,7.33E2,3.45E2,7.9E1,5.1E1,4E0,1E1,5E0],"tree_param":{"num_deleted":"0","num_feature":"1058","num_nodes":"15","size_leaf_vector":"1"}},{"base_weights":[1.480098E-4,-5.4395306E-3,1.5520138E-1,-1.0904395E-2,3.342274E-2,1.0467512E-1,2.9521456E-1,-1.4454325E-3,1.4524155E-5,2.9020498E-3,1.9583846E-2,1.9242844E-2,8.406346E-3,2.1478323E-2,4.103241E-2],"categories":[],"categories_nodes":[],"categories_segments":[],"categories_sizes":[],"default_left":[0,0,0,0,0,0,0,0,0,0,0,0,0,0,0],"id":7,"left_children":[1,3,5,7,9,11,13,-1,-1,-1,-1,-1,-1,-1,-1],"loss_changes":[4.18453E0,9.904662E-1,1.1575875E0,1.6035569E-1,4.054379E-1,2.0991659E-1,3.1923938E-1,0E0,0E0,0E0,0E0,0E0,0E0,0E0,0E0],"parents":[2147483647,0,0,1,1,2,2,3,3,4,4,5,5,6,6],"right_children":[2,4,6,8,10,12,14,-1,-1,-1,-1,-1,-1,-1,-1],"split_conditions":[2.4883731E2,8.82148E-1,6.7801843E2,3.6049506E-1,4.413642E0,1.6676091E-5,1.1303436E1,-1.4454325E-3,1.4524155E-5,2.9020498E-3,1.9583846E-2,1.9242844E-2,8.406346E-3,2.1478323E-2,4.103241E-2],"split_indices":[32,31,32,31,31,16,31,0,0,0,0,0,0,0,0],"split_type":[0,0,0,0,0,0,0,0,0,0,0,0,0,0,0],"sum_hessian":[4.828E3,4.661E3,1.67E2,4.087E3,5.74E2,1.24E2,4.3E1,3.093E3,9.94E2,5.6E2,1.4E1,2.2E1,1.02E2,2.7E1,1.6E1],"tree_param":{"num_deleted":"0","num_feature":"1058","num_nodes":"15","size_leaf_vector":"1"}},{"base_weights":[1.5623917E-4,-3.1108519E-3,2.1914116E-1,-8.155902E-3,5.100062E-2,1.7305115E-1,3.667599E-1,-1.0771044E-3,1.7163027E-3,4.44113E-3,1.6969005E-2,1.3351381E-2,2.5590071E-2,4.4103827E-2,2.0825366E-2],"categories":[],"categories_nodes":[],"categories_segments":[],"categories_sizes":[],"default_left":[0,0,0,0,0,0,0,0,0,0,0,0,0,0,0],"id":8,"left_children":[1,3,5,7,9,11,13,-1,-1,-1,-1,-1,-1,-1,-1],"loss_changes":[3.4555593E0,1.2995995E0,4.195981E-1,2.8847456E-1,3.0998945E-1,1.4927018E-1,9.6529484E-2,0E0,0E0,0E0,0E0,0E0,0E0,0E0,0E0],"parents":[2147483647,0,0,1,1,2,2,3,3,4,4,5,5,6,6],"right_children":[2,4,6,8,10,12,14,-1,-1,-1,-1,-1,-1,-1,-1],"split_conditions":[5.201464E2,1.2094283E0,1.6221248E3,5.542122E1,5.152609E0,1.517805E0,1.4957014E-1,-1.0771044E-3,1.7163027E-3,4.44113E-3,1.6969005E-2,1.3351381E-2,2.5590071E-2,4.4103827E-2,2.0825366E-2],"split_indices":[32,31,32,32,31,536,686,0,0,0,0,0,0,0,0],"split_type":[0,0,0,0,0,0,0,0,0,0,0,0,0,0,0],"sum_hessian":[4.828E3,4.758E3,7E1,4.353E3,4.05E2,5.5E1,1.5E1,3.946E3,4.07E2,3.85E2,2E1,3.9E1,1.6E1,9E0,6E0],"tree_param":{"num_deleted":"0","num_feature":"1058","num_nodes":"15","size_leaf_vector":"1"}},{"base_weights":[1.6669113E-4,-5.183707E-3,1.0766458E-1,-1.0591352E-2,1.6376326E-2,7.892593E-2,2.4148154E-1,-1.2088539E-3,-3.7623887E-4,1.2868649E-2,1.1408561E-3,6.8612196E-3,1.8679952E-2,7.512305E-3,2.944303E-2],"categories":[],"categories_nodes":[],"categories_segments":[],"categories_sizes":[],"default_left":[0,0,0,0,0,0,0,0,0,0,0,0,0,0,0],"id":9,"left_children":[1,3,5,7,9,11,13,-1,-1,-1,-1,-1,-1,-1,-1],"loss_changes":[2.777989E0,5.3659946E-1,8.616104E-1,3.7569433E-2,5.135019E-1,1.9857323E-1,3.302207E-1,0E0,0E0,0E0,0E0,0E0,0E0,0E0,0E0],"parents":[2147483647,0,0,1,1,2,2,3,3,4,4,5,5,6,6],"right_children":[2,4,6,8,10,12,14,-1,-1,-1,-1,-1,-1,-1,-1],"split_conditions":[1.9002392E0,5.542286E-1,6.7938867E0,3.423119E-1,7.546667E-6,1.8840197E-1,-2.8643218E-1,-1.2088539E-3,-3.7623887E-4,1.2868649E-2,1.1408561E-3,6.8612196E-3,1.8679952E-2,7.512305E-3,2.944303E-2],"split_indices":[31,31,31,31,7,135,380,0,0,0,0,0,0,0,0],"split_type":[0,0,0,0,0,0,0,0,0,0,0,0,0,0,0],"sum_hessian":[4.828E3,4.6E3,2.28E2,3.678E3,9.22E2,1.89E2,3.9E1,3.016E3,6.62E2,3.8E1,8.84E2,1.74E2,1.5E1,1E1,2.9E1],"tree_param":{"num_deleted":"0","num_feature":"1058","num_nodes":"15","size_leaf_vector":"1"}},{"base_weights":[1.6553696E-4,-5.254384E-3,9.3904905E-2,-7.407647E-3,1.6358553E-2,6.71632E-2,2.2608702E-1,-1.0711767E-3,-7.8928155E-5,4.9926247E-3,1.293168E-3,1.4992605E-2,5.4871845E-3,2.732699E-2,9.25533E-3],"categories":[],"categories_nodes":[],"categories_segments":[],"categories_sizes":[],"default_left":[0,0,0,0,0,0,0,0,0,0,0,0,0,0,0],"id":10,"left_children":[1,3,5,7,9,11,13,-1,-1,-1,-1,-1,-1,-1,-1],"loss_changes":[2.453915E0,2.1261524E-1,9.1799617E-1,9.080881E-2,4.69777E-2,2.1658939E-1,2.5193E-1,0E0,0E0,0E0,0E0,0E0,0E0,0E0,0E0],"parents":[2147483647,0,0,1,1,2,2,3,3,4,4,5,5,6,6],"right_children":[2,4,6,8,10,12,14,-1,-1,-1,-1,-1,-1,-1,-1],"split_conditions":[1.6685765E2,6.962302E1,6.7801843E2,3.286445E-1,6.4599994E-6,1.6676091E-5,7.2499997E-6,-1.0711767E-3,-7.8928155E-5,4.9926247E-3,1.293168E-3,1.4992605E-2,5.4871845E-3,2.732699E-2,9.25533E-3],"split_indices":[32,32,32,24,22,16,6,0,0,0,0,0,0,0,0],"split_type":[0,0,0,0,0,0,0,0,0,0,0,0,0,0,0],"sum_hessian":[4.828E3,4.565E3,2.63E2,4.152E3,4.13E2,2.2E2,4.3E1,2.769E3,1.383E3,3.7E1,3.76E2,2.7E1,1.93E2,3.1E1,1.2E1],"tree_param":{"num_deleted":"0","num_feature":"1058","num_nodes":"15","size_leaf_vector":"1"}},{"base_weights":[1.6186309E-4,-2.3356446E-3,1.6756295E-1,-6.1794426E-3,3.8891528E-2,1.3004E-1,2.8842056E-1,-7.3098805E-4,3.0607316E-3,1.210325E-2,3.1299882E-3,1.5702035E-2,5.277538E-3,3.4027066E-2,1.452919E-2],"categories":[],"categories_nodes":[],"categories_segments":[],"categories_sizes":[],"default_left":[0,0,0,0,0,0,0,0,0,0,0,0,0,0,0],"id":11,"left_children":[1,3,5,7,9,11,13,-1,-1,-1,-1,-1,-1,-1,-1],"loss_changes":[2.019326E0,7.5439394E-1,2.8447413E-1,1.8128544E-1,2.4938732E-1,1.0845226E-1,6.930125E-2,0E0,0E0,0E0,0E0,0E0,0E0,0E0,0E0],"parents":[2147483647,0,0,1,1,2,2,3,3,4,4,5,5,6,6],"right_children":[2,4,6,8,10,12,14,-1,-1,-1,-1,-1,-1,-1,-1],"split_conditions":[5.201464E2,1.2094283E0,1.6221248E3,1.14147224E2,4.985451E0,2.625617E-1,2.2945341E-1,-7.3098805E-4,3.0607316E-3,1.210325E-2,3.1299882E-3,1.5702035E-2,5.277538E-3,3.4027066E-2,1.452919E-2],"split_indices":[32,31,32,32,32,102,832,0,0,0,0,0,0,0,0],"split_type":[0,0,0,0,0,0,0,0,0,0,0,0,0,0,0],"sum_hessian":[4.828E3,4.758E3,7E1,4.353E3,4.05E2,5.5E1,1.5E1,4.224E3,1.29E2,3.3E1,3.72E2,4E1,1.5E1,1E1,5E0],"tree_param":{"num_deleted":"0","num_feature":"1058","num_nodes":"15","size_leaf_vector":"1"}},{"base_weights":[1.6371308E-4,-4.348934E-3,7.821138E-2,-4.7845743E-3,1.94607E-1,5.637388E-2,1.8611766E-1,-8.2754233E-4,8.338433E-4,-4.653421E-3,3.0460099E-2,1.4574053E-2,4.67566E-3,2.2485342E-2,6.408453E-3],"categories":[],"categories_nodes":[],"categories_segments":[],"categories_sizes":[],"default_left":[0,0,0,0,0,0,0,0,0,0,0,0,0,0,0],"id":12,"left_children":[1,3,5,7,9,11,13,-1,-1,-1,-1,-1,-1,-1,-1],"loss_changes":[1.7011217E0,3.9668056E-1,6.115984E-1,2.0882715E-1,2.794152E-1,1.8312722E-1,1.9358039E-1,0E0,0E0,0E0,0E0,0E0,0E0,0E0,0E0],"parents":[2147483647,0,0,1,1,2,2,3,3,4,4,5,5,6,6],"right_children":[2,4,6,8,10,12,14,-1,-1,-1,-1,-1,-1,-1,-1],"split_conditions":[1.6685765E2,5.152609E0,6.7801843E2,5.053566E-1,1.0895023E-5,6.005563E-6,1.6865062E-2,-8.2754233E-4,8.338433E-4,-4.653421E-3,3.0460099E-2,1.4574053E-2,4.67566E-3,2.2485342E-2,6.408453E-3],"split_indices":[32,31,32,31,8,4,220,0,0,0,0,0,0,0,0],"split_type":[0,0,0,0,0,0,0,0,0,0,0,0,0,0,0],"sum_hessian":[4.828E3,4.565E3,2.63E2,4.556E3,9E0,2.2E2,4.3E1,3.599E3,9.57E2,3E0,6E0,2E1,2E2,3.2E1,1.1E1],"tree_param":{"num_deleted":"0","num_feature":"1058","num_nodes":"15","size_leaf_vector":"1"}},{"base_weights":[1.6265696E-4,-2.4818655E-3,1.10552475E-1,-5.1738517E-3,2.658433E-2,8.7547615E-2,2.4454771E-1,-8.083037E-4,1.7579767E-5,5.5555305E-3,1.3213685E-3,1.8429352E-2,7.190524E-3,1.1519188E-2,2.9287383E-2],"categories":[],"categories_nodes":[],"categories_segments":[],"categories_sizes":[],"default_left":[0,0,0,0,0,0,0,0,0,0,0,0,0,0,0],"id":13,"left_children":[1,3,5,7,9,11,13,-1,-1,-1,-1,-1,-1,-1,-1],"loss_changes":[1.4099963E0,3.6922297E-1,3.2691765E-1,6.720298E-2,1.5421015E-1,1.3505512E-1,6.628364E-2,0E0,0E0,0E0,0E0,0E0,0E0,0E0,0E0],"parents":[2147483647,0,0,1,1,2,2,3,3,4,4,5,5,6,6],"right_children":[2,4,6,8,10,12,14,-1,-1,-1,-1,-1,-1,-1,-1],"split_conditions":[3.552374E2,9.3333664E1,1.6221248E3,3.286445E-1,8.67332E1,3.4841116E-6,3.941201E-1,-8.083037E-4,1.7579767E-5,5.5555305E-3,1.3213685E-3,1.8429352E-2,7.190524E-3,1.1519188E-2,2.9287383E-2],"split_indices":[32,32,32,24,33,0,407,0,0,0,0,0,0,0,0],"split_type":[0,0,0,0,0,0,0,0,0,0,0,0,0,0,0],"sum_hessian":[4.828E3,4.716E3,1.12E2,4.317E3,3.99E2,9.7E1,1.5E1,2.796E3,1.521E3,1.25E2,2.74E2,1.2E1,8.5E1,5E0,1E1],"tree_param":{"num_deleted":"0","num_feature":"1058","num_nodes":"15","size_leaf_vector":"1"}},{"base_weights":[1.6140744E-4,-2.568438E-3,9.582703E-2,-4.940581E-3,3.1961814E-2,7.7970825E-2,2.2264333E-1,-7.221514E-4,3.2721285E-4,1.1939715E-2,2.0423762E-3,2.1436429E-2,6.0670963E-3,2.7644692E-2,1.1397488E-2],"categories":[],"categories_nodes":[],"categories_segments":[],"categories_sizes":[],"default_left":[0,0,0,0,0,0,0,0,0,0,0,0,0,0,0],"id":14,"left_children":[1,3,5,7,9,11,13,-1,-1,-1,-1,-1,-1,-1,-1],"loss_changes":[1.261351E0,3.848105E-1,2.860775E-1,8.235359E-2,3.022292E-1,2.677853E-1,6.204003E-2,0E0,0E0,0E0,0E0,0E0,0E0,0E0,0E0],"parents":[2147483647,0,0,1,1,2,2,3,3,4,4,5,5,6,6],"right_children":[2,4,6,8,10,12,14,-1,-1,-1,-1,-1,-1,-1,-1],"split_conditions":[2.8284674E0,1.14147224E2,1.6221248E3,4.5874655E-1,6.005563E-6,4.985451E0,1.4957014E-1,-7.221514E-4,3.2721285E-4,1.1939715E-2,2.0423762E-3,2.1436429E-2,6.0670963E-3,2.7644692E-2,1.1397488E-2],"split_indices":[31,32,32,31,4,32,686,0,0,0,0,0,0,0,0],"split_type":[0,0,0,0,0,0,0,0,0,0,0,0,0,0,0],"sum_hessian":[4.828E3,4.695E3,1.33E2,4.394E3,3.01E2,1.18E2,1.5E1,3.439E3,9.55E2,3.4E1,2.67E2,1.2E1,1.06E2,9E0,6E0],"tree_param":{"num_deleted":"0","num_feature":"1058","num_nodes":"15","size_leaf_vector":"1"}},{"base_weights":[1.6186039E-4,-1.940922E-3,1.0276297E-1,-4.992623E-3,1.9705998E-2,1.5249641E-1,5.6791782E-2,-7.0095685E-4,9.2160124E-5,1.1337507E-2,1.5496671E-3,-3.1121464E-3,1.756479E-2,9.756712E-3,8.851735E-4],"categories":[],"categories_nodes":[],"categories_segments":[],"categories_sizes":[],"default_left":[0,0,0,0,0,0,0,0,0,0,0,0,0,0,0],"id":15,"left_children":[1,3,5,7,9,11,13,-1,-1,-1,-1,-1,-1,-1,-1],"loss_changes":[1.0420456E0,3.1276003E-1,2.1311104E-1,4.94985E-2,2.2889909E-1,2.0101357E-1,1.00784466E-1,0E0,0E0,0E0,0E0,0E0,0E0,0E0,0E0],"parents":[2147483647,0,0,1,1,2,2,3,3,4,4,5,5,6,6],"right_children":[2,4,6,8,10,12,14,-1,-1,-1,-1,-1,-1,-1,-1],"split_conditions":[3.6780448E0,9.405554E-1,-1.9060795E-1,3.6049506E-1,7.76E-6,4.828877E-1,7.247991E-2,-7.0095685E-4,9.2160124E-5,1.1337507E-2,1.5496671E-3,-3.1121464E-3,1.756479E-2,9.756712E-3,8.851735E-4],"split_indices":[31,31,427,31,7,946,1050,0,0,0,0,0,0,0,0],"split_type":[0,0,0,0,0,0,0,0,0,0,0,0,0,0,0],"sum_hessian":[4.828E3,4.732E3,9.6E1,4.148E3,5.84E2,4.5E1,5.1E1,3.093E3,1.055E3,2.4E1,5.6E2,5E0,4E1,2.7E1,2.4E1],"tree_param":{"num_deleted":"0","num_feature":"1058","num_nodes":"15","size_leaf_vector":"1"}},{"base_weights":[1.5341355E-4,-2.426642E-3,7.002403E-2,-4.4650445E-3,2.1418728E-2,5.742452E-2,1.892802E-1,-6.3559966E-4,1.0053928E-5,1.00142015E-2,1.3080188E-3,1.5188326E-2,4.5628613E-3,8.751891E-3,2.2757906E-2],"categories":[],"categories_nodes":[],"categories_segments":[],"categories_sizes":[],"default_left":[0,0,0,0,0,0,0,0,0,0,0,0,0,0,0],"id":16,"left_children":[1,3,5,7,9,11,13,-1,-1,-1,-1,-1,-1,-1,-1],"loss_changes":[8.7069404E-1,2.2650455E-1,2.4757254E-1,3.7054762E-2,2.3960261E-1,1.6800338E-1,4.2439997E-2,0E0,0E0,0E0,0E0,0E0,0E0,0E0,0E0],"parents":[2147483647,0,0,1,1,2,2,3,3,4,4,5,5,6,6],"right_children":[2,4,6,8,10,12,14,-1,-1,-1,-1,-1,-1,-1,-1],"split_conditions":[2.3192008E0,9.3333664E1,1.6221248E3,3.4581652E-1,3.4027119E-6,4.985451E0,5.500605E-1,-6.3559966E-4,1.0053928E-5,1.00142015E-2,1.3080188E-3,1.5188326E-2,4.5628613E-3,8.751891E-3,2.2757906E-2],"split_indices":[31,32,32,31,0,32,72,0,0,0,0,0,0,0,0],"split_type":[0,0,0,0,0,0,0,0,0,0,0,0,0,0,0],"sum_hessian":[4.828E3,4.657E3,1.71E2,4.291E3,3.66E2,1.56E2,1.5E1,3.034E3,1.257E3,3.4E1,3.32E2,1.6E1,1.4E2,5E0,1E1],"tree_param":{"num_deleted":"0","num_feature":"1058","num_nodes":"15","size_leaf_vector":"1"}},{"base_weights":[1.509028E-4,-1.1924572E-3,1.106744E-1,-3.343573E-3,2.6420103E-2,-2.8487734E-2,1.24340415E-1,-3.8717058E-4,2.8216562E-3,9.427778E-3,2.012896E-3,-8.058804E-3,1.770943E-3,1.3969729E-2,3.4670447E-4],"categories":[],"categories_nodes":[],"categories_segments":[],"categories_sizes":[],"default_left":[0,0,0,0,0,0,0,0,0,0,0,0,0,0,0],"id":17,"left_children":[1,3,5,7,9,11,13,-1,-1,-1,-1,-1,-1,-1,-1],"loss_changes":[7.171074E-1,2.835347E-1,1.13845944E-1,7.3914886E-2,1.4538367E-1,1.5868487E-2,9.789628E-2,0E0,0E0,0E0,0E0,0E0,0E0,0E0,0E0],"parents":[2147483647,0,0,1,1,2,2,3,3,4,4,5,5,6,6],"right_children":[2,4,6,8,10,12,14,-1,-1,-1,-1,-1,-1,-1,-1],"split_conditions":[5.855678E2,1.336074E0,3.4314254E-1,1.4971889E2,4.985451E0,4.3070395E-6,-4.3792026E-3,-3.8717058E-4,2.8216562E-3,9.427778E-3,2.012896E-3,-8.058804E-3,1.770943E-3,1.3969729E-2,3.4670447E-4],"split_indices":[32,31,355,32,32,17,618,0,0,0,0,0,0,0,0],"split_type":[0,0,0,0,0,0,0,0,0,0,0,0,0,0,0],"sum_hessian":[4.828E3,4.771E3,5.7E1,4.427E3,3.44E2,5E0,5.2E1,4.355E3,7.2E1,2.8E1,3.16E2,2E0,3E0,4.6E1,6E0],"tree_param":{"num_deleted":"0","num_feature":"1058","num_nodes":"15","size_leaf_vector":"1"}},{"base_weights":[1.4034854E-4,-1.8830638E-3,6.199237E-2,-3.6736014E-3,1.8315947E-2,5.0171092E-2,1.6007638E-1,-3.734545E-4,1.2906983E-2,9.011743E-3,1.169891E-3,1.509002E-2,3.8488065E-3,2.0348435E-2,7.519693E-3],"categories":[],"categories_nodes":[],"categories_segments":[],"categories_sizes":[],"default_left":[0,0,0,0,0,0,0,0,0,0,0,0,0,0,0],"id":18,"left_children":[1,3,5,7,9,11,13,-1,-1,-1,-1,-1,-1,-1,-1],"loss_changes":[6.0447645E-1,1.6922078E-1,1.6936904E-1,3.5244092E-2,1.799638E-1,1.5659347E-1,4.3649733E-2,0E0,0E0,0E0,0E0,0E0,0E0,0E0,0E0],"parents":[2147483647,0,0,1,1,2,2,3,3,4,4,5,5,6,6],"right_children":[2,4,6,8,10,12,14,-1,-1,-1,-1,-1,-1,-1,-1],"split_conditions":[2.5107412E0,9.3333664E1,1.6221248E3,-2.6313236E-1,5.775897E-6,4.985451E0,1.4957014E-1,-3.734545E-4,1.2906983E-2,9.011743E-3,1.169891E-3,1.509002E-2,3.8488065E-3,2.0348435E-2,7.519693E-3],"split_indices":[31,32,32,648,4,32,686,0,0,0,0,0,0,0,0],"split_type":[0,0,0,0,0,0,0,0,0,0,0,0,0,0,0],"sum_hessian":[4.828E3,4.676E3,1.52E2,4.296E3,3.8E2,1.37E2,1.5E1,4.295E3,1E0,3.1E1,3.49E2,1.3E1,1.24E2,9E0,6E0],"tree_param":{"num_deleted":"0","num_feature":"1058","num_nodes":"15","size_leaf_vector":"1"}},{"base_weights":[1.407101E-4,-1.3254026E-3,7.167649E-2,-3.4364786E-3,1.3649263E-2,6.0382213E-2,2.3290937E-1,-4.515696E-4,5.6710944E-4,7.869456E-3,9.867497E-4,7.489881E-3,-3.3595457E-3,6.4125895E-3,2.5384087E-2],"categories":[],"categories_nodes":[],"categories_segments":[],"categories_sizes":[],"default_left":[0,0,0,0,0,0,0,0,0,0,0,0,0,0,0],"id":19,"left_children":[1,3,5,7,9,11,13,-1,-1,-1,-1,-1,-1,-1,-1],"loss_changes":[5.0655824E-1,1.4966962E-1,1.6257429E-1,4.080633E-2,1.4312537E-1,1.2802592E-1,4.9195886E-3,0E0,0E0,0E0,0E0,0E0,0E0,0E0,0E0],"parents":[2147483647,0,0,1,1,2,2,3,3,4,4,5,5,6,6],"right_children":[2,4,6,8,10,12,14,-1,-1,-1,-1,-1,-1,-1,-1],"split_conditions":[3.6780448E0,9.405554E-1,-7.741319E-2,-1.9217569E-3,3.5279907E-6,3.1610668E-1,5.3319523E-6,-4.515696E-4,5.6710944E-4,7.869456E-3,9.867497E-4,7.489881E-3,-3.3595457E-3,6.4125895E-3,2.5384087E-2],"split_indices":[31,31,839,328,0,935,0,0,0,0,0,0,0,0,0],"split_type":[0,0,0,0,0,0,0,0,0,0,0,0,0,0,0],"sum_hessian":[4.828E3,4.732E3,9.6E1,4.148E3,5.84E2,9.1E1,5E0,3.709E3,4.39E2,3.1E1,5.53E2,7.9E1,1.2E1,1E0,4E0],"tree_param":{"num_deleted":"0","num_feature":"1058","num_nodes":"15","size_leaf_vector":"1"}},{"base_weights":[1.3593682E-4,-1.2354933E-3,6.56723E-2,-2.4355683E-3,1.7150603E-2,5.117657E-2,1.3767035E-1,5.7048857E-4,-3.3591746E-4,4.537525E-3,4.2226358E-4,1.0381263E-2,3.4193527E-3,5.628963E-3,1.6954435E-2],"categories":[],"categories_nodes":[],"categories_segments":[],"categories_sizes":[],"default_left":[0,0,0,0,0,0,0,0,0,0,0,0,0,0,0],"id":20,"left_children":[1,3,5,7,9,11,13,-1,-1,-1,-1,-1,-1,-1,-1],"loss_changes":[4.3410462E-1,1.0442983E-1,9.627727E-2,3.3416677E-2,1.0562573E-1,7.1539596E-2,3.1959295E-2,0E0,0E0,0E0,0E0,0E0,0E0,0E0,0E0],"parents":[2147483647,0,0,1,1,2,2,3,3,4,4,5,5,6,6],"right_children":[2,4,6,8,10,12,14,-1,-1,-1,-1,-1,-1,-1,-1],"split_conditions":[3.9631482E2,1.2307418E2,1.6221248E3,-8.477145E-1,8.67332E1,2.81E-6,1.4059077E-1,5.7048857E-4,-3.3591746E-4,4.537525E-3,4.2226358E-4,1.0381263E-2,3.4193527E-3,5.628963E-3,1.6954435E-2],"split_indices":[32,32,32,981,33,2,168,0,0,0,0,0,0,0,0],"split_type":[0,0,0,0,0,0,0,0,0,0,0,0,0,0,0],"sum_hessian":[4.828E3,4.73E3,9.8E1,4.441E3,2.89E2,8.3E1,1.5E1,4.52E2,3.989E3,9E1,1.99E2,1.9E1,6.4E1,5E0,1E1],"tree_param":{"num_deleted":"0","num_feature":"1058","num_nodes":"15","size_leaf_vector":"1"}},{"base_weights":[1.3095333E-4,-1.5333341E-3,4.5201417E-2,-2.8228404E-3,1.355139E-2,7.262367E-2,1.9994536E-2,-2.8803837E-4,1.2204753E-2,6.894295E-3,6.944028E-4,4.863342E-3,1.3999377E-2,3.5109853E-3,-3.5420333E-3],"categories":[],"categories_nodes":[],"categories_segments":[],"categories_sizes":[],"default_left":[0,0,0,0,0,0,0,0,0,0,0,0,0,0,0],"id":21,"left_children":[1,3,5,7,9,11,13,-1,-1,-1,-1,-1,-1,-1,-1],"loss_changes":[3.622936E-1,9.064494E-2,1.1743942E-1,3.119146E-2,1.3384037E-1,1.2572208E-1,7.746641E-2,0E0,0E0,0E0,0E0,0E0,0E0,0E0,0E0],"parents":[2147483647,0,0,1,1,2,2,3,3,4,4,5,5,6,6],"right_children":[2,4,6,8,10,12,14,-1,-1,-1,-1,-1,-1,-1,-1],"split_conditions":[2.3192008E0,9.3333664E1,-1.9060574E-1,3.1531835E-1,4.69E-6,6.7938867E0,-4.886157E-1,-2.8803837E-4,1.2204753E-2,6.894295E-3,6.944028E-4,4.863342E-3,1.3999377E-2,3.5109853E-3,-3.5420333E-3],"split_indices":[31,32,427,655,6,31,1034,0,0,0,0,0,0,0,0],"split_type":[0,0,0,0,0,0,0,0,0,0,0,0,0,0,0],"sum_hessian":[4.828E3,4.657E3,1.71E2,4.291E3,3.66E2,8.1E1,9E1,4.29E3,1E0,3.8E1,3.28E2,6.1E1,2E1,7.1E1,1.9E1],"tree_param":{"num_deleted":"0","num_feature":"1058","num_nodes":"15","size_leaf_vector":"1"}},{"base_weights":[1.2579713E-4,-1.0022351E-3,5.5165496E-2,-3.414242E-3,7.409875E-3,3.7816007E-2,1.4748828E-1,-3.544476E-4,1.9440046E-3,6.028413E-3,4.5529692E-4,4.7105136E-3,-8.9245355E-3,5.9550917E-3,1.9949643E-2],"categories":[],"categories_nodes":[],"categories_segments":[],"categories_sizes":[],"default_left":[0,0,0,0,0,0,0,0,0,0,0,0,0,0,0],"id":22,"left_children":[1,3,5,7,9,11,13,-1,-1,-1,-1,-1,-1,-1,-1],"loss_changes":[2.9987127E-1,9.60582E-2,1.4979261E-1,1.1019092E-2,1.590904E-1,1.0216794E-1,5.6721687E-2,0E0,0E0,0E0,0E0,0E0,0E0,0E0,0E0],"parents":[2147483647,0,0,1,1,2,2,3,3,4,4,5,5,6,6],"right_children":[2,4,6,8,10,12,14,-1,-1,-1,-1,-1,-1,-1,-1],"split_conditions":[3.6780448E0,5.542286E-1,2.298343E-2,-1.8342063E-1,3.4027119E-6,6.2482648E-2,-3.437531E-1,-3.544476E-4,1.9440046E-3,6.028413E-3,4.5529692E-4,4.7105136E-3,-8.9245355E-3,5.9550917E-3,1.9949643E-2],"split_indices":[31,31,566,266,0,697,488,0,0,0,0,0,0,0,0],"split_type":[0,0,0,0,0,0,0,0,0,0,0,0,0,0,0],"sum_hessian":[4.828E3,4.732E3,9.6E1,3.678E3,1.054E3,8.2E1,1.4E1,3.658E3,2E1,5.3E1,1.001E3,7.7E1,5E0,6E0,8E0],"tree_param":{"num_deleted":"0","num_feature":"1058","num_nodes":"15","size_leaf_vector":"1"}},{"base_weights":[1.1938106E-4,-6.972134E-4,6.730334E-2,-2.1744317E-3,1.3289296E-2,9.995567E-2,2.6111552E-2,-3.0230393E-4,5.2721234E-4,1.7887173E-2,1.2165868E-3,-1.2091666E-4,1.1445098E-2,8.323841E-3,-1.2388856E-3],"categories":[],"categories_nodes":[],"categories_segments":[],"categories_sizes":[],"default_left":[0,0,0,0,0,0,0,0,0,0,0,0,0,0,0],"id":23,"left_children":[1,3,5,7,9,11,13,-1,-1,-1,-1,-1,-1,-1,-1],"loss_changes":[2.6497573E-1,9.86238E-2,7.540047E-2,2.7295941E-2,8.264901E-2,4.706365E-2,6.041523E-2,0E0,0E0,0E0,0E0,0E0,0E0,0E0,0E0],"parents":[2147483647,0,0,1,1,2,2,3,3,4,4,5,5,6,6],"right_children":[2,4,6,8,10,12,14,-1,-1,-1,-1,-1,-1,-1,-1],"split_conditions":[5.855678E2,1.1450872E0,2.2290538E-1,-1.918488E-3,8.658911E-2,-7.72782E-1,4.849577E-1,-3.0230393E-4,5.2721234E-4,1.7887173E-2,1.2165868E-3,-1.2091666E-4,1.1445098E-2,8.323841E-3,-1.2388856E-3],"split_indices":[32,31,976,328,866,1000,515,0,0,0,0,0,0,0,0],"split_type":[0,0,0,0,0,0,0,0,0,0,0,0,0,0,0],"sum_hessian":[4.828E3,4.771E3,5.7E1,4.316E3,4.55E2,3.1E1,2.6E1,3.875E3,4.41E2,2E0,4.53E2,4E0,2.7E1,1E1,1.6E1],"tree_param":{"num_deleted":"0","num_feature":"1058","num_nodes":"15","size_leaf_vector":"1"}},{"base_weights":[1.1525739E-4,-1.4993637E-3,2.8040428E-2,-1.6711691E-3,1.2935124E-1,4.0201373E-2,-4.947119E-3,4.8470238E-4,-2.7324626E-4,-7.4574943E-3,1.8505147E-2,2.9411018E-3,8.807181E-3,-3.8632862E-3,1.1652982E-3],"categories":[],"categories_nodes":[],"categories_segments":[],"categories_sizes":[],"default_left":[0,0,0,0,0,0,0,0,0,0,0,0,0,0,0],"id":24,"left_children":[1,3,5,7,9,11,13,-1,-1,-1,-1,-1,-1,-1,-1],"loss_changes":[2.1777475E-1,1.0286367E-1,1.06105074E-1,3.156494E-2,8.195259E-2,9.710175E-2,4.0711638E-2,0E0,0E0,0E0,0E0,0E0,0E0,0E0,0E0],"parents":[2147483647,0,0,1,1,2,2,3,3,4,4,5,5,6,6],"right_children":[2,4,6,8,10,12,14,-1,-1,-1,-1,-1,-1,-1,-1],"split_conditions":[1.6685765E2,6.7938867E0,7.5599996E-6,1.0374617E2,2.1173187E-6,6.7801843E2,-2.229284E-2,4.8470238E-4,-2.7324626E-4,-7.4574943E-3,1.8505147E-2,2.9411018E-3,8.807181E-3,-3.8632862E-3,1.1652982E-3],"split_indices":[32,31,6,33,5,32,74,0,0,0,0,0,0,0,0],"split_type":[0,0,0,0,0,0,0,0,0,0,0,0,0,0,0],"sum_hessian":[4.828E3,4.565E3,2.63E2,4.56E3,5E0,1.92E2,7.1E1,6.38E2,3.922E3,1E0,4E0,1.58E2,3.4E1,2.3E1,4.8E1],"tree_param":{"num_deleted":"0","num_feature":"1058","num_nodes":"15","size_leaf_vector":"1"}},{"base_weights":[1.0793717E-4,-1.070498E-3,3.202098E-2,4.0751817E-3,-3.134638E-3,5.485914E-2,1.1089657E-2,2.1864516E-4,3.6205095E-3,-3.0403183E-4,-8.0683725E-3,6.234343E-3,-7.2867656E-3,-1.5015523E-3,3.695376E-3],"categories":[],"categories_nodes":[],"categories_segments":[],"categories_sizes":[],"default_left":[0,0,0,0,0,0,0,0,0,0,0,0,0,0,0],"id":25,"left_children":[1,3,5,7,9,11,13,-1,-1,-1,-1,-1,-1,-1,-1],"loss_changes":[1.8164064E-1,4.9487274E-2,8.161327E-2,8.087428E-2,2.407517E-2,8.29303E-2,6.19969E-2,0E0,0E0,0E0,0E0,0E0,0E0,0E0,0E0],"parents":[2147483647,0,0,1,1,2,2,3,3,4,4,5,5,6,6],"right_children":[2,4,6,8,10,12,14,-1,-1,-1,-1,-1,-1,-1,-1],"split_conditions":[2.3192008E0,2.4283135E-1,-1.9060574E-1,1.8477798E2,5.201464E2,-9.0249985E-2,2.2918446E-2,2.1864516E-4,3.6205095E-3,-3.0403183E-4,-8.0683725E-3,6.234343E-3,-7.2867656E-3,-1.5015523E-3,3.695376E-3],"split_indices":[31,801,427,32,32,929,566,0,0,0,0,0,0,0,0],"split_type":[0,0,0,0,0,0,0,0,0,0,0,0,0,0,0],"sum_hessian":[4.828E3,4.657E3,1.71E2,1.333E3,3.324E3,8.1E1,9E1,1.26E3,7.3E1,3.321E3,3E0,7.7E1,4E0,4.5E1,4.5E1],"tree_param":{"num_deleted":"0","num_feature":"1058","num_nodes":"15","size_leaf_vector":"1"}},{"base_weights":[9.644109E-5,-4.2502666E-4,6.253979E-2,-1.3662808E-3,1.8242301E-2,9.8603584E-2,-1.1478943E-2,-2.8826186E-4,2.526997E-4,6.69814E-3,9.737876E-4,1.2156227E-2,-2.0121585E-4,4.566287E-3,-6.004316E-3],"categories":[],"categories_nodes":[],"categories_segments":[],"categories_sizes":[],"default_left":[0,0,0,0,0,0,0,0,0,0,0,0,0,0,0],"id":26,"left_children":[1,3,5,7,9,11,13,-1,-1,-1,-1,-1,-1,-1,-1],"loss_changes":[1.572694E-1,8.418859E-2,1.0790771E-1,2.6933257E-2,9.468228E-2,6.261474E-2,4.1592404E-2,0E0,0E0,0E0,0E0,0E0,0E0,0E0,0E0],"parents":[2147483647,0,0,1,1,2,2,3,3,4,4,5,5,6,6],"right_children":[2,4,6,8,10,12,14,-1,-1,-1,-1,-1,-1,-1,-1],"split_conditions":[6.7938867E0,1.6685765E2,2.100896E-1,4.096477E-1,2.610101E-1,1.5555389E-1,2.3499999E-5,-2.8826186E-4,2.526997E-4,6.69814E-3,9.737876E-4,1.2156227E-2,-2.0121585E-4,4.566287E-3,-6.004316E-3],"split_indices":[31,32,543,31,209,392,19,0,0,0,0,0,0,0,0],"split_type":[0,0,0,0,0,0,0,0,0,0,0,0,0,0,0],"sum_hessian":[4.828E3,4.789E3,3.9E1,4.56E3,2.29E2,2.6E1,1.3E1,3.282E3,1.278E3,3.3E1,1.96E2,2.1E1,5E0,6E0,7E0],"tree_param":{"num_deleted":"0","num_feature":"1058","num_nodes":"15","size_leaf_vector":"1"}},{"base_weights":[9.055584E-5,-6.637629E-4,3.6136936E-2,7.4566226E-3,-2.0263488E-3,1.4437151E-2,6.082501E-2,2.2187273E-3,-4.7419227E-5,-2.172247E-4,4.0210015E-3,-1.05439125E-4,6.3376203E-3,7.963966E-3,8.801992E-5],"categories":[],"categories_nodes":[],"categories_segments":[],"categories_sizes":[],"default_left":[0,0,0,0,0,0,0,0,0,0,0,0,0,0,0],"id":27,"left_children":[1,3,5,7,9,11,13,-1,-1,-1,-1,-1,-1,-1,-1],"loss_changes":[1.3132672E-1,5.236232E-2,5.215873E-2,7.945223E-2,2.5056615E-2,4.1006453E-2,5.1810563E-2,0E0,0E0,0E0,0E0,0E0,0E0,0E0,0E0],"parents":[2147483647,0,0,1,1,2,2,3,3,4,4,5,5,6,6],"right_children":[2,4,6,8,10,12,14,-1,-1,-1,-1,-1,-1,-1,-1],"split_conditions":[3.9631482E2,9.958856E1,-1.7411677E-2,1.8172027E-1,5.152609E0,1.3967898E0,1.8090455E-1,2.2187273E-3,-4.7419227E-5,-2.172247E-4,4.0210015E-3,-1.05439125E-4,6.3376203E-3,7.963966E-3,8.801992E-5],"split_indices":[32,33,647,948,31,234,325,0,0,0,0,0,0,0,0],"split_type":[0,0,0,0,0,0,0,0,0,0,0,0,0,0,0],"sum_hessian":[4.828E3,4.73E3,9.8E1,6.79E2,4.051E3,5.3E1,4.5E1,2.37E2,4.42E2,4.038E3,1.3E1,4.1E1,1.2E1,3.4E1,1.1E1],"tree_param":{"num_deleted":"0","num_feature":"1058","num_nodes":"15","size_leaf_vector":"1"}},{"base_weights":[8.569563E-5,-3.5193417E-4,5.248972E-2,-1.1351758E-3,1.5181619E-2,9.821164E-2,1.8572242E-3,-1.18414406E-4,1.1107995E-2,6.340164E-3,8.183786E-4,4.2590485E-3,1.676409E-2,2.4446712E-3,-9.46124E-3],"categories":[],"categories_nodes":[],"categories_segments":[],"categories_sizes":[],"default_left":[0,0,0,0,0,0,0,0,0,0,0,0,0,0,0],"id":28,"left_children":[1,3,5,7,9,11,13,-1,-1,-1,-1,-1,-1,-1,-1],"loss_changes":[1.1076464E-1,5.8294896E-2,9.241821E-2,2.5194114E-2,7.7091336E-2,7.395655E-2,4.5896947E-2,0E0,0E0,0E0,0E0,0E0,0E0,0E0,0E0],"parents":[2147483647,0,0,1,1,2,2,3,3,4,4,5,5,6,6],"right_children":[2,4,6,8,10,12,14,-1,-1,-1,-1,-1,-1,-1,-1],"split_conditions":[6.7938867E0,1.6685765E2,2.1005876E-1,3.1531835E-1,1.1558484E-1,2.9415807E-1,6.2470622E-2,-1.18414406E-4,1.1107995E-2,6.340164E-3,8.183786E-4,4.2590485E-3,1.676409E-2,2.4446712E-3,-9.46124E-3],"split_indices":[31,32,543,655,586,357,697,0,0,0,0,0,0,0,0],"split_type":[0,0,0,0,0,0,0,0,0,0,0,0,0,0,0],"sum_hessian":[4.828E3,4.789E3,3.9E1,4.56E3,2.29E2,2E1,1.9E1,4.559E3,1E0,2.8E1,2.01E2,1.2E1,8E0,1.6E1,3E0],"tree_param":{"num_deleted":"0","num_feature":"1058","num_nodes":"15","size_leaf_vector":"1"}},{"base_weights":[8.378485E-5,-4.0535408E-4,4.0326666E-2,6.6577867E-3,-1.6436084E-3,8.4300086E-2,2.0037686E-2,1.9480976E-3,-4.5277473E-5,-1.6927253E-4,9.888542E-3,1.0717782E-2,3.3038247E-3,-2.2322407E-3,3.833574E-3],"categories":[],"categories_nodes":[],"categories_segments":[],"categories_sizes":[],"default_left":[0,0,0,0,0,0,0,0,0,0,0,0,0,0,0],"id":29,"left_children":[1,3,5,7,9,11,13,-1,-1,-1,-1,-1,-1,-1,-1],"loss_changes":[9.507212E-2,4.174669E-2,5.005704E-2,6.492904E-2,2.0219263E-2,1.7568603E-2,3.263514E-2,0E0,0E0,0E0,0E0,0E0,0E0,0E0,0E0],"parents":[2147483647,0,0,1,1,2,2,3,3,4,4,5,5,6,6],"right_children":[2,4,6,8,10,12,14,-1,-1,-1,-1,-1,-1,-1,-1],"split_conditions":[5.855678E2,1.0374617E2,1.679144E-2,1.8172027E-1,-1.8336424E-1,3.234916E-1,3.138309E-1,1.9480976E-3,-4.5277473E-5,-1.6927253E-4,9.888542E-3,1.0717782E-2,3.3038247E-3,-2.2322407E-3,3.833574E-3],"split_indices":[32,33,220,948,266,525,837,0,0,0,0,0,0,0,0],"split_type":[0,0,0,0,0,0,0,0,0,0,0,0,0,0,0],"sum_hessian":[4.828E3,4.771E3,5.7E1,7.11E2,4.06E3,1.7E1,4E1,2.53E2,4.58E2,4.059E3,1E0,1.1E1,6E0,1.2E1,2.8E1],"tree_param":{"num_deleted":"0","num_feature":"1058","num_nodes":"15","size_leaf_vector":"1"}},{"base_weights":[8.1048405E-5,-6.759653E-4,2.3221387E-2,-1.7719738E-3,5.429998E-3,1.6972605E-2,1.2131606E-1,-1.8251581E-4,1.045519E-2,-4.052921E-4,1.2587205E-3,9.26722E-4,8.31348E-3,-1.5463476E-3,1.6260501E-2],"categories":[],"categories_nodes":[],"categories_segments":[],"categories_sizes":[],"default_left":[0,0,0,0,0,0,0,0,0,0,0,0,0,0,0],"id":30,"left_children":[1,3,5,7,9,11,13,-1,-1,-1,-1,-1,-1,-1,-1],"loss_changes":[8.460795E-2,3.1308986E-2,9.172571E-2,2.261761E-2,4.837533E-2,7.3151305E-2,5.3341776E-2,0E0,0E0,0E0,0E0,0E0,0E0,0E0,0E0],"parents":[2147483647,0,0,1,1,2,2,3,3,4,4,5,5,6,6],"right_children":[2,4,6,8,10,12,14,-1,-1,-1,-1,-1,-1,-1,-1],"split_conditions":[2.5107412E0,-4.8694673E0,1.5699603E-1,-2.6313236E-1,3.4581652E-1,-1.5091304E-1,2.4060382E-5,-1.8251581E-4,1.045519E-2,-4.052921E-4,1.2587205E-3,9.26722E-4,8.31348E-3,-1.5463476E-3,1.6260501E-2],"split_indices":[31,496,76,648,31,551,12,0,0,0,0,0,0,0,0],"split_type":[0,0,0,0,0,0,0,0,0,0,0,0,0,0,0],"sum_hessian":[4.828E3,4.676E3,1.52E2,3.965E3,7.11E2,1.44E2,8E0,3.964E3,1E0,3.06E2,4.05E2,1.3E2,1.4E1,2E0,6E0],"tree_param":{"num_deleted":"0","num_feature":"1058","num_nodes":"15","size_leaf_vector":"1"}},{"base_weights":[8.020804E-5,-2.8057338E-4,4.328178E-2,6.4836415E-3,-1.4437246E-3,2.0389505E-2,1.323022E-1,3.6904545E-4,3.6909436E-3,-1.4897407E-4,9.331179E-3,-3.562844E-3,4.6294197E-3,1.4304021E-2,2.856803E-3],"categories":[],"categories_nodes":[],"categories_segments":[],"categories_sizes":[],"default_left":[0,0,0,0,0,0,0,0,0,0,0,0,0,0,0],"id":31,"left_children":[1,3,5,7,9,11,13,-1,-1,-1,-1,-1,-1,-1,-1],"loss_changes":[7.5278506E-2,3.7696145E-2,7.881762E-2,5.960819E-2,1.7963782E-2,4.953659E-2,4.8248023E-3,0E0,0E0,0E0,0E0,0E0,0E0,0E0,0E0],"parents":[2147483647,0,0,1,1,2,2,3,3,4,4,5,5,6,6],"right_children":[2,4,6,8,10,12,14,-1,-1,-1,-1,-1,-1,-1,-1],"split_conditions":[6.7938867E0,9.958856E1,-7.744026E-2,2.2254553E2,-1.8336424E-1,5.855678E2,6.630058E-6,3.6904545E-4,3.6909436E-3,-1.4897407E-4,9.331179E-3,-3.562844E-3,4.6294197E-3,1.4304021E-2,2.856803E-3],"split_indices":[31,33,839,32,266,32,0,0,0,0,0,0,0,0,0],"split_type":[0,0,0,0,0,0,0,0,0,0,0,0,0,0,0],"sum_hessian":[4.828E3,4.789E3,3.9E1,7.02E2,4.087E3,3.2E1,7E0,6.44E2,5.8E1,4.086E3,1E0,1E1,2.2E1,6E0,1E0],"tree_param":{"num_deleted":"0","num_feature":"1058","num_nodes":"15","size_leaf_vector":"1"}},{"base_weights":[7.870385E-5,-2.4975158E-4,3.9409276E-2,4.66798E-3,-1.5600407E-3,7.8626916E-2,-3.7397079E-3,1.7342031E-3,1.7029293E-4,-1.6128806E-4,9.913979E-3,1.0659245E-2,-9.0523314E-4,1.6414747E-3,-8.846122E-3],"categories":[],"categories_nodes":[],"categories_segments":[],"categories_sizes":[],"default_left":[0,0,0,0,0,0,0,0,0,0,0,0,0,0,0],"id":32,"left_children":[1,3,5,7,9,11,13,-1,-1,-1,-1,-1,-1,-1,-1],"loss_changes":[6.239251E-2,3.0872371E-2,6.798209E-2,3.785031E-2,2.0289036E-2,5.245684E-2,3.560238E-2,0E0,0E0,0E0,0E0,0E0,0E0,0E0,0E0],"parents":[2147483647,0,0,1,1,2,2,3,3,4,4,5,5,6,6],"right_children":[2,4,6,8,10,12,14,-1,-1,-1,-1,-1,-1,-1,-1],"split_conditions":[6.7938867E0,5.045891E-1,2.1005876E-1,7.691567E1,3.1531835E-1,1.5555389E-1,6.2470622E-2,1.7342031E-3,1.7029293E-4,-1.6128806E-4,9.913979E-3,1.0659245E-2,-9.0523314E-4,1.6414747E-3,-8.846122E-3],"split_indices":[31,643,543,33,655,392,697,0,0,0,0,0,0,0,0],"split_type":[0,0,0,0,0,0,0,0,0,0,0,0,0,0,0],"sum_hessian":[4.828E3,4.789E3,3.9E1,1.007E3,3.782E3,2E1,1.9E1,1.9E2,8.17E2,3.781E3,1E0,1.5E1,5E0,1.6E1,3E0],"tree_param":{"num_deleted":"0","num_feature":"1058","num_nodes":"15","size_leaf_vector":"1"}},{"base_weights":[7.377564E-5,-4.0988627E-4,2.3186207E-2,6.2528467E-3,-1.2181586E-3,3.2120917E-3,4.3502405E-2,-5.705128E-4,1.3150836E-3,-1.467688E-4,1.0120018E-3,3.8523786E-3,-2.081235E-3,5.9462762E-3,-5.2695716E-4],"categories":[],"categories_nodes":[],"categories_segments":[],"categories_sizes":[],"default_left":[0,0,0,0,0,0,0,0,0,0,0,0,0,0,0],"id":33,"left_children":[1,3,5,7,9,11,13,-1,-1,-1,-1,-1,-1,-1,-1],"loss_changes":[5.399098E-2,2.5485486E-2,4.0034276E-2,4.2307846E-2,1.1954107E-2,4.4067297E-2,3.845585E-2,0E0,0E0,0E0,0E0,0E0,0E0,0E0,0E0],"parents":[2147483647,0,0,1,1,2,2,3,3,4,4,5,5,6,6],"right_children":[2,4,6,8,10,12,14,-1,-1,-1,-1,-1,-1,-1,-1],"split_conditions":[3.9631482E2,-8.477145E-1,9.523567E-2,4.5022097E0,1.5699603E-1,7.675147E-2,-1.08283415E-1,-5.705128E-4,1.3150836E-3,-1.467688E-4,1.0120018E-3,3.8523786E-3,-2.081235E-3,5.9462762E-3,-5.2695716E-4],"split_indices":[32,981,27,32,76,27,978,0,0,0,0,0,0,0,0],"split_type":[0,0,0,0,0,0,0,0,0,0,0,0,0,0,0],"sum_hessian":[4.828E3,4.73E3,9.8E1,5.11E2,4.219E3,5E1,4.8E1,1.87E2,3.24E2,4.129E3,9E1,2E1,3E1,3.6E1,1.2E1],"tree_param":{"num_deleted":"0","num_feature":"1058","num_nodes":"15","size_leaf_vector":"1"}},{"base_weights":[6.822025E-5,-5.344369E-4,1.6388621E-2,5.5917623E-3,-1.2070533E-3,3.6533233E-2,-1.1162992E-3,-3.1791706E-4,1.262778E-3,-1.2492295E-4,8.7903505E-3,2.626463E-3,1.2566757E-2,4.1167616E-4,-9.404152E-3],"categories":[],"categories_nodes":[],"categories_segments":[],"categories_sizes":[],"default_left":[0,0,0,0,0,0,0,0,0,0,0,0,0,0,0],"id":34,"left_children":[1,3,5,7,9,11,13,-1,-1,-1,-1,-1,-1,-1,-1],"loss_changes":[4.7504902E-2,1.9200418E-2,6.0693108E-2,2.8489579E-2,1.5887389E-2,6.9922194E-2,4.5611497E-2,0E0,0E0,0E0,0E0,0E0,0E0,0E0,0E0],"parents":[2147483647,0,0,1,1,2,2,3,3,4,4,5,5,6,6],"right_children":[2,4,6,8,10,12,14,-1,-1,-1,-1,-1,-1,-1,-1],"split_conditions":[2.3192008E0,1.1809609E0,3.1121114E-1,3.6401623E-1,-1.8336424E-1,2.6493695E-1,-3.378182E-1,-3.1791706E-4,1.262778E-3,-1.2492295E-4,8.7903505E-3,2.626463E-3,1.2566757E-2,4.1167616E-4,-9.404152E-3],"split_indices":[31,916,470,31,266,662,895,0,0,0,0,0,0,0,0],"split_type":[0,0,0,0,0,0,0,0,0,0,0,0,0,0,0],"sum_hessian":[4.828E3,4.657E3,1.71E2,4.6E2,4.197E3,7.9E1,9.2E1,2.05E2,2.55E2,4.196E3,1E0,7.2E1,7E0,8.8E1,4E0],"tree_param":{"num_deleted":"0","num_feature":"1058","num_nodes":"15","size_leaf_vector":"1"}},{"base_weights":[6.467248E-5,-2.0721497E-4,3.2621577E-2,5.0637806E-3,-1.1136002E-3,1.3370167E-2,1.0795595E-1,3.4913517E-4,4.9404944E-3,6.855341E-3,-1.16447816E-4,2.6082923E-3,-6.3037844E-3,1.2515726E-2,3.7568032E-3],"categories":[],"categories_nodes":[],"categories_segments":[],"categories_sizes":[],"default_left":[0,0,0,0,0,0,0,0,0,0,0,0,0,0,0],"id":35,"left_children":[1,3,5,7,9,11,13,-1,-1,-1,-1,-1,-1,-1,-1],"loss_changes":[4.275217E-2,2.2890115E-2,5.6568325E-2,4.884301E-2,1.4569815E-2,3.369897E-2,4.984185E-3,0E0,0E0,0E0,0E0,0E0,0E0,0E0,0E0],"parents":[2147483647,0,0,1,1,2,2,3,3,4,4,5,5,6,6],"right_children":[2,4,6,8,10,12,14,-1,-1,-1,-1,-1,-1,-1,-1],"split_conditions":[6.7938867E0,9.958856E1,-7.744026E-2,2.8379678E-4,3.1452322E-1,3.161029E-1,1.02357935E-5,3.4913517E-4,4.9404944E-3,6.855341E-3,-1.16447816E-4,2.6082923E-3,-6.3037844E-3,1.2515726E-2,3.7568032E-3],"split_indices":[31,33,839,646,441,935,4,0,0,0,0,0,0,0,0],"split_type":[0,0,0,0,0,0,0,0,0,0,0,0,0,0,0],"sum_hessian":[4.828E3,4.789E3,3.9E1,7.02E2,4.087E3,3.2E1,7E0,6.79E2,2.3E1,2E0,4.085E3,2.8E1,4E0,5E0,2E0],"tree_param":{"num_deleted":"0","num_feature":"1058","num_nodes":"15","size_leaf_vector":"1"}},{"base_weights":[6.330058E-5,-2.418446E-4,2.5168292E-2,-9.239149E-4,5.802869E-3,-6.2396374E-2,3.1079026E-2,-9.673763E-5,9.27193E-3,4.060138E-4,4.403259E-3,-1.6933233E-3,-7.1906345E-3,8.631727E-3,2.2553583E-3],"categories":[],"categories_nodes":[],"categories_segments":[],"categories_sizes":[],"default_left":[0,0,0,0,0,0,0,0,0,0,0,0,0,0,0],"id":36,"left_children":[1,3,5,7,9,11,13,-1,-1,-1,-1,-1,-1,-1,-1],"loss_changes":[3.6999453E-2,1.9679934E-2,3.1958356E-2,1.754535E-2,3.2067284E-2,5.118046E-4,2.3954414E-2,0E0,0E0,0E0,0E0,0E0,0E0,0E0,0E0],"parents":[2147483647,0,0,1,1,2,2,3,3,4,4,5,5,6,6],"right_children":[2,4,6,8,10,12,14,-1,-1,-1,-1,-1,-1,-1,-1],"split_conditions":[5.855678E2,1.9530591E-1,-2.8124502E-1,-2.6313236E-1,2.2162554E0,3.6276392E-6,-7.515487E-2,-9.673763E-5,9.27193E-3,4.060138E-4,4.403259E-3,-1.6933233E-3,-7.1906345E-3,8.631727E-3,2.2553583E-3],"split_indices":[32,962,163,648,31,0,383,0,0,0,0,0,0,0,0],"split_type":[0,0,0,0,0,0,0,0,0,0,0,0,0,0,0],"sum_hessian":[4.828E3,4.771E3,5.7E1,4.288E3,4.83E2,3E0,5.4E1,4.287E3,1E0,4.63E2,2E1,1E0,2E0,6E0,4.8E1],"tree_param":{"num_deleted":"0","num_feature":"1058","num_nodes":"15","size_leaf_vector":"1"}},{"base_weights":[6.0281356E-5,-1.1110478E-4,3.9304838E-2,-7.154762E-4,6.9753644E-3,8.119967E-2,1.2557444E-2,-7.5539545E-5,8.808333E-3,4.7270097E-3,3.3658466E-4,1.5356571E-3,8.8412035E-3,2.7274864E-3,-1.9388885E-3],"categories":[],"categories_nodes":[],"categories_segments":[],"categories_sizes":[],"default_left":[0,0,0,0,0,0,0,0,0,0,0,0,0,0,0],"id":37,"left_children":[1,3,5,7,9,11,13,-1,-1,-1,-1,-1,-1,-1,-1],"loss_changes":[3.2484088E-2,2.0601261E-2,2.251247E-2,1.5777007E-2,5.4818936E-2,2.4413653E-3,7.111175E-3,0E0,0E0,0E0,0E0,0E0,0E0,0E0,0E0],"parents":[2147483647,0,0,1,1,2,2,3,3,4,4,5,5,6,6],"right_children":[2,4,6,8,10,12,14,-1,-1,-1,-1,-1,-1,-1,-1],"split_conditions":[1.1303436E1,1.336074E0,5.0587577E-1,-2.6313236E-1,8.131951E0,4.9950386E-6,3.7776208E-1,-7.5539545E-5,8.808333E-3,4.7270097E-3,3.3658466E-4,1.5356571E-3,8.8412035E-3,2.7274864E-3,-1.9388885E-3],"split_indices":[31,31,821,648,32,0,903,0,0,0,0,0,0,0,0],"split_type":[0,0,0,0,0,0,0,0,0,0,0,0,0,0,0],"sum_hessian":[4.828E3,4.808E3,2E1,4.431E3,3.77E2,7E0,1.3E1,4.43E3,1E0,3E1,3.47E2,1E0,6E0,9E0,4E0],"tree_param":{"num_deleted":"0","num_feature":"1058","num_nodes":"15","size_leaf_vector":"1"}},{"base_weights":[5.9422055E-5,-2.8540526E-4,1.6537387E-2,5.3606937E-3,-9.168098E-4,-1.1112874E-3,3.4568917E-2,3.6998346E-4,4.741479E-3,-1.0549003E-4,2.454369E-3,3.0098748E-3,-2.2217722E-3,7.4386443E-3,1.8124077E-3],"categories":[],"categories_nodes":[],"categories_segments":[],"categories_sizes":[],"default_left":[0,0,0,0,0,0,0,0,0,0,0,0,0,0,0],"id":38,"left_children":[1,3,5,7,9,11,13,-1,-1,-1,-1,-1,-1,-1,-1],"loss_changes":[2.7443351E-2,1.68708E-2,3.1543445E-2,3.307124E-2,1.498935E-2,3.4264084E-2,3.0736659E-2,0E0,0E0,0E0,0E0,0E0,0E0,0E0,0E0],"parents":[2147483647,0,0,1,1,2,2,3,3,4,4,5,5,6,6],"right_children":[2,4,6,8,10,12,14,-1,-1,-1,-1,-1,-1,-1,-1],"split_conditions":[3.9631482E2,-8.4772146E-1,9.523567E-2,2.2162554E0,4.413642E0,7.675147E-2,4.4690864E-6,3.6998346E-4,4.741479E-3,-1.0549003E-4,2.454369E-3,3.0098748E-3,-2.2217722E-3,7.4386443E-3,1.8124077E-3],"split_indices":[32,981,27,31,31,27,21,0,0,0,0,0,0,0,0],"split_type":[0,0,0,0,0,0,0,0,0,0,0,0,0,0,0],"sum_hessian":[4.828E3,4.73E3,9.8E1,4.75E2,4.255E3,5E1,4.8E1,4.58E2,1.7E1,4.233E3,2.2E1,2E1,3E1,1.3E1,3.5E1],"tree_param":{"num_deleted":"0","num_feature":"1058","num_nodes":"15","size_leaf_vector":"1"}},{"base_weights":[5.7103804E-5,-7.439993E-5,3.961972E-2,2.9450078E-3,-1.1503088E-3,5.8216773E-2,-1.0781586E-3,1.792638E-4,5.0324476E-3,4.6852822E-3,-1.271957E-4,6.8426603E-3,2.3242922E-3,-1.3921182E-3,8.823648E-4],"categories":[],"categories_nodes":[],"categories_segments":[],"categories_sizes":[],"default_left":[0,0,0,0,0,0,0,0,0,0,0,0,0,0,0],"id":39,"left_children":[1,3,5,7,9,11,13,-1,-1,-1,-1,-1,-1,-1,-1],"loss_changes":[2.5126457E-2,1.5642185E-2,1.2172535E-2,6.8977095E-2,2.0789795E-2,2.3374148E-3,8.8585034E-4,0E0,0E0,0E0,0E0,0E0,0E0,0E0,0E0],"parents":[2147483647,0,0,1,1,2,2,3,3,4,4,5,5,6,6],"right_children":[2,4,6,8,10,12,14,-1,-1,-1,-1,-1,-1,-1,-1],"split_conditions":[1.6221248E3,-4.7979173E-1,4.025593E-1,2.5107412E0,5.34008E-1,-1.5723214E-1,3.4000002E-6,1.792638E-4,5.0324476E-3,4.6852822E-3,-1.271957E-4,6.8426603E-3,2.3242922E-3,-1.3921182E-3,8.823648E-4],"split_indices":[32,28,396,31,928,171,2,0,0,0,0,0,0,0,0],"split_type":[0,0,0,0,0,0,0,0,0,0,0,0,0,0,0],"sum_hessian":[4.828E3,4.813E3,1.5E1,1.264E3,3.549E3,1E1,5E0,1.235E3,2.9E1,8E0,3.541E3,7E0,3E0,2E0,3E0],"tree_param":{"num_deleted":"0","num_feature":"1058","num_nodes":"15","size_leaf_vector":"1"}},{"base_weights":[5.5209388E-5,5.232533E-3,-6.8617193E-4,1.5417635E-2,-1.6942885E-3,-7.256936E-4,8.31267E-3,7.959422E-4,3.6386028E-3,1.2333835E-3,-3.936955E-4,5.953666E-3,-7.683419E-5],"categories":[],"categories_nodes":[],"categories_segments":[],"categories_sizes":[],"default_left":[0,0,0,0,0,0,0,0,0,0,0,0,0],"id":40,"left_children":[1,3,5,7,9,11,-1,-1,-1,-1,-1,-1,-1],"loss_changes":[1.8539084E-2,4.2709097E-2,1.4055318E-2,3.8025144E-2,1.1405763E-2,1.0901805E-2,0E0,0E0,0E0,0E0,0E0,0E0,0E0],"parents":[2147483647,0,0,1,1,2,2,3,3,4,4,5,5],"right_children":[2,4,6,8,10,12,-1,-1,-1,-1,-1,-1,-1],"split_conditions":[7.691567E1,-3.4761503E-1,-1.8336424E-1,2.3443645E-1,-4.750188E-1,3.1452322E-1,8.31267E-3,7.959422E-4,3.6386028E-3,1.2333835E-3,-3.936955E-4,5.953666E-3,-7.683419E-5],"split_indices":[33,50,266,923,28,441,0,0,0,0,0,0,0],"split_type":[0,0,0,0,0,0,0,0,0,0,0,0,0],"sum_hessian":[4.828E3,6.04E2,4.224E3,2.44E2,3.6E2,4.223E3,1E0,1.81E2,6.3E1,4.9E1,3.11E2,2E0,4.221E3],"tree_param":{"num_deleted":"0","num_feature":"1058","num_nodes":"13","size_leaf_vector":"1"}},{"base_weights":[5.371902E-5,-6.423392E-5,3.5539452E-2,4.508852E-3,-7.1519177E-4,5.2543413E-2,-1.5577177E-3,2.630425E-3,1.7197417E-4,-7.528415E-5,7.897036E-3,6.3687125E-3,2.643354E-3,-1.738894E-3,5.086315E-4],"categories":[],"categories_nodes":[],"categories_segments":[],"categories_sizes":[],"default_left":[0,0,0,0,0,0,0,0,0,0,0,0,0,0,0],"id":41,"left_children":[1,3,5,7,9,11,13,-1,-1,-1,-1,-1,-1,-1,-1],"loss_changes":[2.0214772E-2,1.4333955E-2,1.0174628E-2,3.6428623E-2,1.27050355E-2,1.517091E-3,7.195446E-4,0E0,0E0,0E0,0E0,0E0,0E0,0E0,0E0],"parents":[2147483647,0,0,1,1,2,2,3,3,4,4,5,5,6,6],"right_children":[2,4,6,8,10,12,14,-1,-1,-1,-1,-1,-1,-1,-1],"split_conditions":[1.6221248E3,7.691567E1,4.025593E-1,-5.7035293E-2,-1.8336424E-1,6.594732E-1,4.678401E-6,2.630425E-3,1.7197417E-4,-7.528415E-5,7.897036E-3,6.3687125E-3,2.643354E-3,-1.738894E-3,5.086315E-4],"split_indices":[32,33,396,730,266,316,0,0,0,0,0,0,0,0,0],"split_type":[0,0,0,0,0,0,0,0,0,0,0,0,0,0,0],"sum_hessian":[4.828E3,4.813E3,1.5E1,5.99E2,4.214E3,1E1,5E0,6.7E1,5.32E2,4.213E3,1E0,6E0,4E0,1E0,4E0],"tree_param":{"num_deleted":"0","num_feature":"1058","num_nodes":"15","size_leaf_vector":"1"}},{"base_weights":[5.215851E-5,-1.5691314E-4,1.725281E-2,-1.9076183E-4,8.066758E-3,-4.002973E-2,2.4632137E-2,-7.4773314E-5,4.5366757E-4,-7.065657E-3,6.045401E-5,-1.187682E-3,3.5881742E-3],"categories":[],"categories_nodes":[],"categories_segments":[],"categories_sizes":[],"default_left":[0,0,0,0,0,0,0,0,0,0,0,0,0],"id":42,"left_children":[1,3,5,7,-1,9,11,-1,-1,-1,-1,-1,-1],"loss_changes":[1.7368607E-2,1.3070638E-2,2.5502997E-2,1.256566E-2,0E0,8.754209E-3,2.1783158E-2,0E0,0E0,0E0,0E0,0E0,0E0],"parents":[2147483647,0,0,1,1,2,2,3,3,5,5,6,6],"right_children":[2,4,6,8,-1,10,12,-1,-1,-1,-1,-1,-1],"split_conditions":[5.855678E2,-2.6313236E-1,-3.1989228E-2,1.9530436E-1,8.066758E-3,2.6475E-5,5.352141E-1,-7.4773314E-5,4.5366757E-4,-7.065657E-3,6.045401E-5,-1.187682E-3,3.5881742E-3],"split_indices":[32,648,688,962,0,19,205,0,0,0,0,0,0],"split_type":[0,0,0,0,0,0,0,0,0,0,0,0,0],"sum_hessian":[4.828E3,4.771E3,5.7E1,4.77E3,1E0,6E0,5.1E1,4.268E3,5.02E2,3E0,3E0,1.2E1,3.9E1],"tree_param":{"num_deleted":"0","num_feature":"1058","num_nodes":"13","size_leaf_vector":"1"}},{"base_weights":[4.773812E-5,-4.8322527E-4,5.960256E-3,-5.179244E-4,7.66342E-3,8.757869E-3,-3.8000796E-2,2.7462598E-3,-6.1282815E-5,7.937818E-4,1.5772847E-2,-1.8661699E-3,-6.8159103E-3],"categories":[],"categories_nodes":[],"categories_segments":[],"categories_sizes":[],"default_left":[0,0,0,0,0,0,0,0,0,0,0,0,0],"id":43,"left_children":[1,3,5,7,-1,9,11,-1,-1,-1,-1,-1,-1],"loss_changes":[1.5162708E-2,1.1899296E-2,4.928124E-2,1.1783159E-2,0E0,4.4559285E-2,1.2725662E-2,0E0,0E0,0E0,0E0,0E0,0E0],"parents":[2147483647,0,0,1,1,2,2,3,3,5,5,6,6],"right_children":[2,4,6,8,-1,10,12,-1,-1,-1,-1,-1,-1],"split_conditions":[1.336074E0,-2.6313236E-1,2.8625983E-1,8.280211E-3,7.66342E-3,1.8524097E-2,6.7733295E-2,2.7462598E-3,-6.1282815E-5,7.937818E-4,1.5772847E-2,-1.8661699E-3,-6.8159103E-3],"split_indices":[31,648,666,717,0,195,185,0,0,0,0,0,0],"split_type":[0,0,0,0,0,0,0,0,0,0,0,0,0],"sum_hessian":[4.828E3,4.431E3,3.97E2,4.43E3,1E0,3.74E2,2.3E1,1.4E1,4.416E3,3.73E2,1E0,1.5E1,8E0],"tree_param":{"num_deleted":"0","num_feature":"1058","num_nodes":"13","size_leaf_vector":"1"}},{"base_weights":[4.6739744E-5,-6.345196E-5,2.5278414E-2,-1.6719136E-4,2.3597093E-2,7.989309E-3,6.716963E-3,2.4028549E-3,-2.6860598E-5,2.7964594E-5,9.815699E-3,1.9605637E-3,-1.4638844E-3],"categories":[],"categories_nodes":[],"categories_segments":[],"categories_sizes":[],"default_left":[0,0,0,0,0,0,0,0,0,0,0,0,0],"id":44,"left_children":[1,3,5,7,9,11,-1,-1,-1,-1,-1,-1,-1],"loss_changes":[1.3427775E-2,1.18077835E-2,1.4672854E-2,1.1757709E-2,3.6482032E-2,4.4927006E-3,0E0,0E0,0E0,0E0,0E0,0E0,0E0],"parents":[2147483647,0,0,1,1,2,2,3,3,4,4,5,5],"right_children":[2,4,6,8,10,12,-1,-1,-1,-1,-1,-1,-1],"split_conditions":[1.1303436E1,-6.6514987E-1,-1.2808454E-1,5.34008E-1,1.08000256E-1,1.7932063E-6,6.716963E-3,2.4028549E-3,-2.6860598E-5,2.7964594E-5,9.815699E-3,1.9605637E-3,-1.4638844E-3],"split_indices":[31,318,785,928,455,1,0,0,0,0,0,0,0],"split_type":[0,0,0,0,0,0,0,0,0,0,0,0,0],"sum_hessian":[4.828E3,4.808E3,2E1,4.788E3,2E1,1.5E1,5E0,1.9E1,4.769E3,1.6E1,4E0,1E1,5E0],"tree_param":{"num_deleted":"0","num_feature":"1058","num_nodes":"13","size_leaf_vector":"1"}},{"base_weights":[4.609E-5,-1.808807E-4,1.0892073E-2,-2.1256338E-4,7.4839084E-3,-2.186686E-2,1.7950227E-2,-2.4289002E-5,7.160106E-3,2.0021389E-3,-3.9517833E-3,5.9573597E-4,4.6684775E-3],"categories":[],"categories_nodes":[],"categories_segments":[],"categories_sizes":[],"default_left":[0,0,0,0,0,0,0,0,0,0,0,0,0],"id":45,"left_children":[1,3,5,7,-1,9,11,-1,-1,-1,-1,-1,-1],"loss_changes":[1.1889617E-2,1.1260706E-2,2.328306E-2,1.0318698E-2,0E0,1.4099833E-2,2.7979871E-2,0E0,0E0,0E0,0E0,0E0,0E0],"parents":[2147483647,0,0,1,1,2,2,3,3,5,5,6,6],"right_children":[2,4,6,8,-1,10,12,-1,-1,-1,-1,-1,-1],"split_conditions":[3.9631482E2,-1.8336424E-1,1.817991E-1,-2.6313236E-1,7.4839084E-3,-6.3056916E-1,2.2942474E-2,-2.4289002E-5,7.160106E-3,2.0021389E-3,-3.9517833E-3,5.9573597E-4,4.6684775E-3],"split_indices":[32,266,491,648,0,413,566,0,0,0,0,0,0],"split_type":[0,0,0,0,0,0,0,0,0,0,0,0,0],"sum_hessian":[4.828E3,4.73E3,9.8E1,4.729E3,1E0,1.7E1,8.1E1,4.728E3,1E0,5E0,1.2E1,5.8E1,2.3E1],"tree_param":{"num_deleted":"0","num_feature":"1058","num_nodes":"13","size_leaf_vector":"1"}},{"base_weights":[4.5194756E-5,-2.0292497E-3,1.13248E-3,-8.4547343E-4,-4.7684414E-3,1.6939385E-2,5.3708674E-4,-9.6991454E-5,3.5391606E-3,-4.3347516E-4,-1.7643739E-3,5.1948023E-3,9.0223236E-4,4.1471052E-5,4.70953E-3],"categories":[],"categories_nodes":[],"categories_segments":[],"categories_sizes":[],"default_left":[0,0,0,0,0,0,0,0,0,0,0,0,0,0,0],"id":46,"left_children":[1,3,5,7,9,11,13,-1,-1,-1,-1,-1,-1,-1,-1],"loss_changes":[1.089417E-2,5.3819097E-3,2.9815387E-2,5.2697216E-3,2.7210452E-3,3.1405345E-2,1.7386694E-2,0E0,0E0,0E0,0E0,0E0,0E0,0E0,0E0],"parents":[2147483647,0,0,1,1,2,2,3,3,4,4,5,5,6,6],"right_children":[2,4,6,8,10,12,14,-1,-1,-1,-1,-1,-1,-1,-1],"split_conditions":[4.746628E0,-2.1248455E-1,-1.51567135E1,-1.5090357E-1,5.879131E-1,-2.658004E-1,-5.146685E-1,-9.6991454E-5,3.5391606E-3,-4.3347516E-4,-1.7643739E-3,5.1948023E-3,9.0223236E-4,4.1471052E-5,4.70953E-3],"split_indices":[32,1048,692,1018,31,331,897,0,0,0,0,0,0,0,0],"split_type":[0,0,0,0,0,0,0,0,0,0,0,0,0,0,0],"sum_hessian":[4.828E3,1.66E3,3.168E3,1.16E3,5E2,1.14E2,3.054E3,1.157E3,3E0,4.85E2,1.5E1,2E1,9.4E1,3.047E3,7E0],"tree_param":{"num_deleted":"0","num_feature":"1058","num_nodes":"15","size_leaf_vector":"1"}},{"base_weights":[4.3179323E-5,1.0531183E-2,-1.695143E-4,7.204163E-3,1.1126745E-2,2.5370389E-3,-1.0780132E-3,4.487254E-4,8.812132E-3,1.903518E-4,7.7102142E-3,4.2346003E-3,-1.1758974E-4],"categories":[],"categories_nodes":[],"categories_segments":[],"categories_sizes":[],"default_left":[0,0,0,0,0,0,0,0,0,0,0,0,0],"id":47,"left_children":[1,3,5,7,-1,9,11,-1,-1,-1,-1,-1,-1],"loss_changes":[1.0773989E-2,3.1372968E-2,1.164317E-2,2.0269964E-2,0E0,5.6067098E-2,1.5117897E-2,0E0,0E0,0E0,0E0,0E0,0E0],"parents":[2147483647,0,0,1,1,2,2,3,3,5,5,6,6],"right_children":[2,4,6,8,-1,10,12,-1,-1,-1,-1,-1,-1],"split_conditions":[7.9841584E-1,-1.5759674E-1,-4.8522356E-1,-2.8569442E-1,1.1126745E-2,3.6780448E0,5.34008E-1,4.487254E-4,8.812132E-3,1.903518E-4,7.7102142E-3,4.2346003E-3,-1.1758974E-4],"split_indices":[791,546,28,695,0,31,928,0,0,0,0,0,0],"split_type":[0,0,0,0,0,0,0,0,0,0,0,0,0],"sum_hessian":[4.828E3,9.5E1,4.733E3,9.3E1,2E0,1.189E3,3.544E3,9.1E1,2E0,1.18E3,9E0,7E0,3.537E3],"tree_param":{"num_deleted":"0","num_feature":"1058","num_nodes":"13","size_leaf_vector":"1"}},{"base_weights":[4.5572095E-5,-3.8955615E-5,2.5475E-2,-1.3528524E-4,2.1953575E-2,3.964454E-2,-4.7483244E-3,-1.643568E-5,6.960233E-3,4.112775E-4,5.704764E-3,4.972611E-3,1.7601431E-3,-1.2871464E-3,2.5311112E-4],"categories":[],"categories_nodes":[],"categories_segments":[],"categories_sizes":[],"default_left":[0,0,0,0,0,0,0,0,0,0,0,0,0,0,0],"id":48,"left_children":[1,3,5,7,9,11,13,-1,-1,-1,-1,-1,-1,-1,-1],"loss_changes":[1.03808865E-2,1.0201584E-2,7.040255E-3,9.730704E-3,1.2913606E-2,1.5692711E-3,3.8737035E-4,0E0,0E0,0E0,0E0,0E0,0E0,0E0,0E0],"parents":[2147483647,0,0,1,1,2,2,3,3,4,4,5,5,6,6],"right_children":[2,4,6,8,10,12,14,-1,-1,-1,-1,-1,-1,-1,-1],"split_conditions":[1.6221248E3,1.2198495E-1,4.025593E-1,4.55306E-1,9.7281456E-2,6.594732E-1,6.310853E-6,-1.643568E-5,6.960233E-3,4.112775E-4,5.704764E-3,4.972611E-3,1.7601431E-3,-1.2871464E-3,2.5311112E-4],"split_indices":[32,463,396,207,596,316,0,0,0,0,0,0,0,0,0],"split_type":[0,0,0,0,0,0,0,0,0,0,0,0,0,0,0],"sum_hessian":[4.828E3,4.813E3,1.5E1,4.793E3,2E1,1E1,5E0,4.792E3,1E0,1.4E1,6E0,6E0,4E0,2E0,3E0],"tree_param":{"num_deleted":"0","num_feature":"1058","num_nodes":"15","size_leaf_vector":"1"}},{"base_weights":[4.4899425E-5,4.5851497E-3,-4.0448707E-4,4.3177623E-2,2.7187201E-3,-4.357183E-4,6.8412772E-3,-2.1061195E-4,6.7723184E-3,9.572911E-5,3.2774557E-3,-4.68943E-4,9.202745E-6],"categories":[],"categories_nodes":[],"categories_segments":[],"categories_sizes":[],"default_left":[0,0,0,0,0,0,0,0,0,0,0,0,0],"id":49,"left_children":[1,3,5,7,9,11,-1,-1,-1,-1,-1,-1,-1],"loss_changes":[9.854594E-3,3.121572E-2,9.475753E-3,2.2372939E-2,2.1992173E-2,9.864427E-3,0E0,0E0,0E0,0E0,0E0,0E0,0E0],"parents":[2147483647,0,0,1,1,2,2,3,3,4,4,5,5],"right_children":[2,4,6,8,10,12,-1,-1,-1,-1,-1,-1,-1],"split_conditions":[4.1533787E1,-4.6662858E-1,-1.8336424E-1,4.09091E0,2.5563243E-1,1.4046228E-1,6.8412772E-3,-2.1061195E-4,6.7723184E-3,9.572911E-5,3.2774557E-3,-4.68943E-4,9.202745E-6],"split_indices":[33,306,266,79,388,147,0,0,0,0,0,0,0],"split_type":[0,0,0,0,0,0,0,0,0,0,0,0,0],"sum_hessian":[4.828E3,4.34E2,4.394E3,1.9E1,4.15E2,4.393E3,1E0,7E0,1.2E1,3.93E2,2.2E1,4.84E2,3.909E3],"tree_param":{"num_deleted":"0","num_feature":"1058","num_nodes":"13","size_leaf_vector":"1"}},{"base_weights":[4.378833E-5,1.1302976E-2,-1.3862304E-4,4.898723E-4,3.831347E-2,-1.664795E-4,6.6117616E-3,5.115538E-3,-2.3339498E-4,9.7517605E-4,8.70775E-3,-2.5585681E-5,1.9981137E-3],"categories":[],"categories_nodes":[],"categories_segments":[],"categories_sizes":[],"default_left":[0,0,0,0,0,0,0,0,0,0,0,0,0],"id":50,"left_children":[1,3,5,7,9,11,-1,-1,-1,-1,-1,-1,-1],"loss_changes":[9.919386E-3,2.2470407E-2,8.783446E-3,8.131335E-3,2.9792082E-2,8.562229E-3,0E0,0E0,0E0,0E0,0E0,0E0,0E0],"parents":[2147483647,0,0,1,1,2,2,3,3,4,4,5,5],"right_children":[2,4,6,8,10,12,-1,-1,-1,-1,-1,-1,-1],"split_conditions":[1.581479E-1,8.2673676E1,4.55306E-1,2.296326E-6,-3.649756E-1,-6.6514987E-1,6.6117616E-3,5.115538E-3,-2.3339498E-4,9.7517605E-4,8.70775E-3,-2.5585681E-5,1.9981137E-3],"split_indices":[627,32,207,17,166,318,0,0,0,0,0,0,0],"split_type":[0,0,0,0,0,0,0,0,0,0,0,0,0],"sum_hessian":[4.828E3,7.6E1,4.752E3,5.5E1,2.1E1,4.751E3,1E0,2E0,5.3E1,1.4E1,7E0,4.731E3,2E1],"tree_param":{"num_deleted":"0","num_feature":"1058","num_nodes":"13","size_leaf_vector":"1"}},{"base_weights":[4.4203254E-5,-1.2969142E-3,1.4783869E-3,-8.217531E-3,-6.6087284E-4,4.4695754E-3,-9.500548E-4,3.0577632E-3,-9.705924E-4,2.6650038E-3,-8.287233E-5,2.027663E-4,1.5251563E-3,-7.83464E-5,-7.2100842E-3],"categories":[],"categories_nodes":[],"categories_segments":[],"categories_sizes":[],"default_left":[0,0,0,0,0,0,0,0,0,0,0,0,0,0,0],"id":51,"left_children":[1,3,5,7,9,11,13,-1,-1,-1,-1,-1,-1,-1,-1],"loss_changes":[9.290058E-3,1.0981457E-2,1.6958252E-2,1.2422698E-2,1.0506031E-2,2.7508862E-2,1.5222119E-2,0E0,0E0,0E0,0E0,0E0,0E0,0E0,0E0],"parents":[2147483647,0,0,1,1,2,2,3,3,4,4,5,5,6,6],"right_children":[2,4,6,8,10,12,14,-1,-1,-1,-1,-1,-1,-1,-1],"split_conditions":[2.5181882E-6,-2.8117323E-1,3.5541666E-6,-6.4932305E-1,-2.811711E-1,2.2125E-5,9.974806E-2,3.0577632E-3,-9.705924E-4,2.6650038E-3,-8.287233E-5,2.027663E-4,1.5251563E-3,-7.83464E-5,-7.2100842E-3],"split_indices":[13,163,2,560,163,14,164,0,0,0,0,0,0,0,0],"split_type":[0,0,0,0,0,0,0,0,0,0,0,0,0,0,0],"sum_hessian":[4.828E3,2.495E3,2.333E3,2.09E2,2.286E3,1.045E3,1.288E3,7E0,2.02E2,1.3E1,2.273E3,8.53E2,1.92E2,1.286E3,2E0],"tree_param":{"num_deleted":"0","num_feature":"1058","num_nodes":"15","size_leaf_vector":"1"}},{"base_weights":[3.959822E-5,-4.9202667E-5,2.0373115E-2,-9.3678985E-4,2.0954143E-3,8.044517E-2,1.5064443E-3,-4.611007E-3,-8.700438E-5,2.3542334E-5,9.58768E-4,9.835331E-3,3.5721988E-3,-8.1881817E-4,2.064462E-3],"categories":[],"categories_nodes":[],"categories_segments":[],"categories_sizes":[],"default_left":[0,0,0,0,0,0,0,0,0,0,0,0,0,0,0],"id":52,"left_children":[1,3,5,7,9,11,13,-1,-1,-1,-1,-1,-1,-1,-1],"loss_changes":[8.720411E-3,9.15606E-3,2.3679368E-2,1.0217386E-2,1.9618994E-2,4.9116835E-4,3.3231785E-3,0E0,0E0,0E0,0E0,0E0,0E0,0E0,0E0],"parents":[2147483647,0,0,1,1,2,2,3,3,4,4,5,5,6,6],"right_children":[2,4,6,8,10,12,14,-1,-1,-1,-1,-1,-1,-1,-1],"split_conditions":[-2.6349287E-2,-3.5394933E-2,-6.0546714E-1,6.7398274E-1,9.3333664E1,-4.289907E-1,-5.268718E-1,-4.611007E-3,-8.700438E-5,2.3542334E-5,9.58768E-4,9.835331E-3,3.5721988E-3,-8.1881817E-4,2.064462E-3],"split_indices":[282,863,190,371,32,46,401,0,0,0,0,0,0,0,0],"split_type":[0,0,0,0,0,0,0,0,0,0,0,0,0,0,0],"sum_hessian":[4.828E3,4.808E3,2E1,3.401E3,1.407E3,4E0,1.6E1,4E0,3.397E3,1.128E3,2.79E2,2E0,2E0,1.1E1,5E0],"tree_param":{"num_deleted":"0","num_feature":"1058","num_nodes":"15","size_leaf_vector":"1"}},{"base_weights":[3.790338E-5,1.1303702E-5,6.4230575E-3,-1.5007897E-5,6.35087E-3,-1.9898273E-5,8.958187E-4],"categories":[],"categories_nodes":[],"categories_segments":[],"categories_sizes":[],"default_left":[0,0,0,0,0,0,0],"id":53,"left_children":[1,3,-1,5,-1,-1,-1],"loss_changes":[8.2448125E-3,8.0671795E-3,0E0,7.970396E-3,0E0,0E0,0E0],"parents":[2147483647,0,0,1,1,3,3],"right_children":[2,4,-1,6,-1,-1,-1],"split_conditions":[-1.8336424E-1,5.164034E-1,6.4230575E-3,-5.4550165E-1,6.35087E-3,-1.9898273E-5,8.958187E-4],"split_indices":[266,370,0,1021,0,0,0],"split_type":[0,0,0,0,0,0,0],"sum_hessian":[4.828E3,4.827E3,1E0,4.826E3,1E0,4.73E3,9.6E1],"tree_param":{"num_deleted":"0","num_feature":"1058","num_nodes":"7","size_leaf_vector":"1"}},{"base_weights":[3.6939768E-5,-3.6828926E-5,2.2229787E-2,1.0533815E-3,-1.6126045E-3,3.5201903E-2,-5.257388E-3,-7.17423E-5,9.4242813E-4,-3.499698E-6,-5.7873566E-4,4.3986696E-3,1.5862811E-3,-1.5812695E-3,1.6212464E-6],"categories":[],"categories_nodes":[],"categories_segments":[],"categories_sizes":[],"default_left":[0,0,0,0,0,0,0,0,0,0,0,0,0,0,0],"id":54,"left_children":[1,3,5,7,9,11,13,-1,-1,-1,-1,-1,-1,-1,-1],"loss_changes":[7.906555E-3,8.2717985E-3,5.8901384E-3,4.2193666E-2,1.2967866E-2,1.1710376E-3,3.3424317E-4,0E0,0E0,0E0,0E0,0E0,0E0,0E0,0E0],"parents":[2147483647,0,0,1,1,2,2,3,3,4,4,5,5,6,6],"right_children":[2,4,6,8,10,12,14,-1,-1,-1,-1,-1,-1,-1,-1],"split_conditions":[1.6221248E3,3.59E-6,4.025593E-1,4.7768298E-1,-2.5833527E-2,6.594732E-1,4.678401E-6,-7.17423E-5,9.4242813E-4,-3.499698E-6,-5.7873566E-4,4.3986696E-3,1.5862811E-3,-1.5812695E-3,1.6212464E-6],"split_indices":[32,2,396,31,945,316,0,0,0,0,0,0,0,0,0],"split_type":[0,0,0,0,0,0,0,0,0,0,0,0,0,0,0],"sum_hessian":[4.828E3,4.813E3,1.5E1,2.845E3,1.968E3,1E1,5E0,2.349E3,4.96E2,1.429E3,5.39E2,6E0,4E0,1E0,4E0],"tree_param":{"num_deleted":"0","num_feature":"1058","num_nodes":"15","size_leaf_vector":"1"}},{"base_weights":[3.4217814E-5,8.7890215E-3,-1.4332663E-4,5.762404E-3,1.0069338E-2,-2.2657272E-4,2.0526774E-2,2.2162783E-3,-6.2699156E-4,-2.5253923E-5,6.1102784E-3,1.1515899E-4,7.454697E-3],"categories":[],"categories_nodes":[],"categories_segments":[],"categories_sizes":[],"default_left":[0,0,0,0,0,0,0,0,0,0,0,0,0],"id":55,"left_children":[1,3,5,7,-1,9,11,-1,-1,-1,-1,-1,-1],"loss_changes":[7.5072967E-3,2.6123064E-2,8.150469E-3,1.868841E-2,0E0,7.525708E-3,1.9800527E-2,0E0,0E0,0E0,0E0,0E0,0E0],"parents":[2147483647,0,0,1,1,2,2,3,3,5,5,6,6],"right_children":[2,4,6,8,-1,10,12,-1,-1,-1,-1,-1,-1],"split_conditions":[7.9841584E-1,-1.5759674E-1,-2.6349287E-2,-1.8352109E-1,1.0069338E-2,4.55306E-1,5.846806E-1,2.2162783E-3,-6.2699156E-4,-2.5253923E-5,6.1102784E-3,1.1515899E-4,7.454697E-3],"split_indices":[791,546,282,266,0,207,269,0,0,0,0,0,0],"split_type":[0,0,0,0,0,0,0,0,0,0,0,0,0],"sum_hessian":[4.828E3,9.5E1,4.733E3,9.3E1,2E0,4.715E3,1.8E1,3.9E1,5.4E1,4.714E3,1E0,1.4E1,4E0],"tree_param":{"num_deleted":"0","num_feature":"1058","num_nodes":"13","size_leaf_vector":"1"}},{"base_weights":[3.603833E-5,1.0228288E-5,6.232346E-3,-1.4861975E-5,6.0560466E-3,6.801309E-4,-2.3642808E-5],"categories":[],"categories_nodes":[],"categories_segments":[],"categories_sizes":[],"default_left":[0,0,0,0,0,0,0],"id":56,"left_children":[1,3,-1,5,-1,-1,-1],"loss_changes":[7.7626607E-3,7.335701E-3,0E0,7.2915E-3,0E0,0E0,0E0],"parents":[2147483647,0,0,1,1,3,3],"right_children":[2,4,-1,6,-1,-1,-1],"split_conditions":[3.3215886E-1,-1.8336424E-1,6.232346E-3,6.486279E-1,6.0560466E-3,6.801309E-4,-2.3642808E-5],"split_indices":[233,266,0,88,0,0,0],"split_type":[0,0,0,0,0,0,0],"sum_hessian":[4.828E3,4.827E3,1E0,4.826E3,1E0,1.51E2,4.675E3],"tree_param":{"num_deleted":"0","num_feature":"1058","num_nodes":"7","size_leaf_vector":"1"}},{"base_weights":[3.51153E-5,1.880934E-2,-4.2955307E-5,2.5404717E-3,6.710785E-3,4.462839E-4,-3.3933357E-3,-8.4730686E-4,2.8464873E-3,-2.3463219E-5,5.3162815E-4,3.8244226E-3,-4.0071286E-4],"categories":[],"categories_nodes":[],"categories_segments":[],"categories_sizes":[],"default_left":[0,0,0,0,0,0,0,0,0,0,0,0,0],"id":57,"left_children":[1,3,5,7,-1,9,11,-1,-1,-1,-1,-1,-1],"loss_changes":[7.078746E-3,1.5544757E-2,7.885765E-3,4.809495E-3,0E0,1.39220655E-2,1.5819592E-2,0E0,0E0,0E0,0E0,0E0,0E0],"parents":[2147483647,0,0,1,1,2,2,3,3,5,5,6,6],"right_children":[2,4,6,8,-1,10,12,-1,-1,-1,-1,-1,-1],"split_conditions":[5.34008E-1,1.5824097E-1,3.857599E-1,-2.6437411E-2,6.710785E-3,9.922046E-1,8.280211E-3,-8.4730686E-4,2.8464873E-3,-2.3463219E-5,5.3162815E-4,3.8244226E-3,-4.0071286E-4],"split_indices":[928,627,571,282,0,31,717,0,0,0,0,0,0],"split_type":[0,0,0,0,0,0,0,0,0,0,0,0,0],"sum_hessian":[4.828E3,1.9E1,4.809E3,1.5E1,4E0,4.197E3,6.12E2,1.1E1,4E0,3.683E3,5.14E2,8E0,6.04E2],"tree_param":{"num_deleted":"0","num_feature":"1058","num_nodes":"13","size_leaf_vector":"1"}},{"base_weights":[3.4221808E-5,-4.5935292E-5,1.8388567E-2,3.134022E-4,-4.5552384E-3,3.1177872E-3,4.848473E-2,1.2757102E-3,1.2625015E-5,1.7014254E-3,-5.690433E-4,1.9197038E-3,-6.8415416E-4,7.9135544E-4,6.3130492E-3],"categories":[],"categories_nodes":[],"categories_segments":[],"categories_sizes":[],"default_left":[0,0,0,0,0,0,0,0,0,0,0,0,0,0,0],"id":58,"left_children":[1,3,5,7,9,11,13,-1,-1,-1,-1,-1,-1,-1,-1],"loss_changes":[7.1054194E-3,7.793747E-3,9.500266E-3,1.0373477E-2,8.789193E-3,2.5334153E-3,3.6597848E-3,0E0,0E0,0E0,0E0,0E0,0E0,0E0,0E0],"parents":[2147483647,0,0,1,1,2,2,3,3,4,4,5,5,6,6],"right_children":[2,4,6,8,10,12,14,-1,-1,-1,-1,-1,-1,-1,-1],"split_conditions":[1.2198495E-1,3.8285276E-1,9.7281456E-2,1.5815149E-1,-1.6761835E-1,4.163145E-1,-2.4008542E-1,1.2757102E-3,1.2625015E-5,1.7014254E-3,-5.690433E-4,1.9197038E-3,-6.8415416E-4,7.9135544E-4,6.3130492E-3],"split_indices":[463,1054,596,627,671,433,26,0,0,0,0,0,0,0,0],"split_type":[0,0,0,0,0,0,0,0,0,0,0,0,0,0,0],"sum_hessian":[4.828E3,4.808E3,2E1,4.454E3,3.54E2,1.4E1,6E0,6.5E1,4.389E3,1.7E1,3.37E2,5E0,9E0,2E0,4E0],"tree_param":{"num_deleted":"0","num_feature":"1058","num_nodes":"15","size_leaf_vector":"1"}},{"base_weights":[3.302766E-5,8.620597E-6,5.893516E-3,2.0641168E-3,-6.915744E-4,1.5151029E-4,6.8727606E-3,4.5345942E-3,-7.681754E-5],"categories":[],"categories_nodes":[],"categories_segments":[],"categories_sizes":[],"default_left":[0,0,0,0,0,0,0,0,0],"id":59,"left_children":[1,3,-1,5,7,-1,-1,-1,-1],"loss_changes":[6.9417967E-3,6.9501186E-3,0E0,4.480307E-2,1.2737343E-2,0E0,0E0,0E0,0E0],"parents":[2147483647,0,0,1,1,3,3,4,4],"right_children":[2,4,-1,6,8,-1,-1,-1,-1],"split_conditions":[3.3215886E-1,-4.8522356E-1,5.893516E-3,3.6780448E0,8.021975E-2,1.5151029E-4,6.8727606E-3,4.5345942E-3,-7.681754E-5],"split_indices":[233,28,0,31,665,0,0,0,0],"split_type":[0,0,0,0,0,0,0,0,0],"sum_hessian":[4.828E3,4.827E3,1E0,1.226E3,3.601E3,1.217E3,9E0,5E0,3.596E3],"tree_param":{"num_deleted":"0","num_feature":"1058","num_nodes":"9","size_leaf_vector":"1"}},{"base_weights":[3.3323133E-5,9.260733E-6,5.810329E-3,-2.5172634E-3,5.927482E-4,-1.5283008E-4,-1.9417735E-3,1.1319619E-6,7.2523777E-4],"categories":[],"categories_nodes":[],"categories_segments":[],"categories_sizes":[],"default_left":[0,0,0,0,0,0,0,0,0],"id":60,"left_children":[1,3,-1,5,7,-1,-1,-1,-1],"loss_changes":[6.7470362E-3,7.1189073E-3,0E0,1.5113146E-2,1.5190162E-2,0E0,0E0,0E0,0E0],"parents":[2147483647,0,0,1,1,3,3,4,4],"right_children":[2,4,-1,6,8,-1,-1,-1,-1],"split_conditions":[4.55306E-1,-3.4181755E-2,5.810329E-3,1.9309181E2,1.3012223E0,-1.5283008E-4,-1.9417735E-3,1.1319619E-6,7.2523777E-4],"split_indices":[207,887,0,32,31,0,0,0,0],"split_type":[0,0,0,0,0,0,0,0,0],"sum_hessian":[4.828E3,4.827E3,1E0,9.05E2,3.922E3,8.56E2,4.9E1,3.608E3,3.14E2],"tree_param":{"num_deleted":"0","num_feature":"1058","num_nodes":"9","size_leaf_vector":"1"}},{"base_weights":[3.091073E-5,7.113678E-6,5.7461546E-3,2.5936184E-4,-5.5411784E-3,1.04458E-5,1.3352538E-3,-8.012744E-3,-4.8009213E-4],"categories":[],"categories_nodes":[],"categories_segments":[],"categories_sizes":[],"default_left":[0,0,0,0,0,0,0,0,0],"id":61,"left_children":[1,3,-1,5,7,-1,-1,-1,-1],"loss_changes":[6.599289E-3,6.7584473E-3,0E0,9.366784E-3,1.1210043E-2,0E0,0E0,0E0,0E0],"parents":[2147483647,0,0,1,1,3,3,4,4],"right_children":[2,4,-1,6,8,-1,-1,-1,-1],"split_conditions":[-1.8336424E-1,-3.8414013E-2,5.7461546E-3,5.152609E0,1.4293725E-2,1.04458E-5,1.3352538E-3,-8.012744E-3,-4.8009213E-4],"split_indices":[266,708,0,31,118,0,0,0,0],"split_type":[0,0,0,0,0,0,0,0,0],"sum_hessian":[4.828E3,4.827E3,1E0,4.618E3,2.09E2,4.565E3,5.3E1,1E0,2.08E2],"tree_param":{"num_deleted":"0","num_feature":"1058","num_nodes":"9","size_leaf_vector":"1"}},{"base_weights":[2.752943E-5,4.0199448E-6,5.676566E-3,-1.9024823E-5,5.562056E-3,-9.360663E-6,1.705401E-3],"categories":[],"categories_nodes":[],"categories_segments":[],"categories_sizes":[],"default_left":[0,0,0,0,0,0,0],"id":62,"left_children":[1,3,-1,5,-1,-1,-1],"loss_changes":[6.441099E-3,6.188962E-3,0E0,6.1479984E-3,0E0,0E0,0E0],"parents":[2147483647,0,0,1,1,3,3],"right_children":[2,4,-1,6,-1,-1,-1],"split_conditions":[5.164034E-1,3.3215886E-1,5.676566E-3,1.2198495E-1,5.562056E-3,-9.360663E-6,1.705401E-3],"split_indices":[370,233,0,463,0,0,0],"split_type":[0,0,0,0,0,0,0],"sum_hessian":[4.828E3,4.827E3,1E0,4.826E3,1E0,4.806E3,2E1],"tree_param":{"num_deleted":"0","num_feature":"1058","num_nodes":"7","size_leaf_vector":"1"}},{"base_weights":[2.7454716E-5,4.594793E-6,5.5197584E-3,1.701979E-4,-8.160031E-3,-6.0601315E-6,8.749344E-4,-6.042447E-4,-7.1790996E-3],"categories":[],"categories_nodes":[],"categories_segments":[],"categories_sizes":[],"default_left":[0,0,0,0,0,0,0,0,0],"id":63,"left_children":[1,3,-1,5,7,-1,-1,-1,-1],"loss_changes":[6.0900077E-3,6.529267E-3,0E0,9.372155E-3,1.25016235E-2,0E0,0E0,0E0,0E0],"parents":[2147483647,0,0,1,1,3,3,4,4],"right_children":[2,4,-1,6,8,-1,-1,-1,-1],"split_conditions":[4.55306E-1,4.5580807E-1,5.5197584E-3,2.8284674E0,-1.6628547E-1,-6.0601315E-6,8.749344E-4,-6.042447E-4,-7.1790996E-3],"split_indices":[207,139,0,31,757,0,0,0,0],"split_type":[0,0,0,0,0,0,0,0,0],"sum_hessian":[4.828E3,4.827E3,1E0,4.732E3,9.5E1,4.609E3,1.23E2,9.3E1,2E0],"tree_param":{"num_deleted":"0","num_feature":"1058","num_nodes":"9","size_leaf_vector":"1"}},{"base_weights":[2.4420357E-5,-4.6077208E-3,2.9331257E-4,-3.1243768E-3,-4.212055E-2,2.132178E-4,3.3433158E-2,-4.520224E-4,2.8375874E-3,-5.66693E-3,1.0716309E-3,1.0686625E-3,3.5496357E-6,5.527555E-4,8.088607E-3],"categories":[],"categories_nodes":[],"categories_segments":[],"categories_sizes":[],"default_left":[0,0,0,0,0,0,0,0,0,0,0,0,0,0,0],"id":64,"left_children":[1,3,5,7,9,11,13,-1,-1,-1,-1,-1,-1,-1,-1],"loss_changes":[6.016096E-3,1.461417E-2,1.2109878E-2,1.1384467E-2,8.2943905E-3,8.478066E-3,1.4119123E-2,0E0,0E0,0E0,0E0,0E0,0E0,0E0,0E0],"parents":[2147483647,0,0,1,1,2,2,3,3,4,4,5,5,6,6],"right_children":[2,4,6,8,10,12,14,-1,-1,-1,-1,-1,-1,-1,-1],"split_conditions":[-1.978248E-1,2.5107412E0,-9.9229634E-2,1.6685765E2,5.9432127E-2,7.9841584E-1,5.053566E-1,-4.520224E-4,2.8375874E-3,-5.66693E-3,1.0716309E-3,1.0686625E-3,3.5496357E-6,5.527555E-4,8.088607E-3],"split_indices":[892,31,314,32,35,791,31,0,0,0,0,0,0,0,0],"split_type":[0,0,0,0,0,0,0,0,0,0,0,0,0,0,0],"sum_hessian":[4.828E3,2.64E2,4.564E3,2.55E2,9E0,4.554E3,1E1,2.45E2,1E1,7E0,2E0,7.5E1,4.479E3,7E0,3E0],"tree_param":{"num_deleted":"0","num_feature":"1058","num_nodes":"15","size_leaf_vector":"1"}},{"base_weights":[2.3532326E-5,-4.4620968E-4,2.6280864E-3,8.641513E-3,-6.9004815E-4,7.4373595E-3,2.3320746E-3,1.0457694E-2,4.868598E-4,-7.7315036E-4,-3.801098E-5,1.9572697E-4,5.67371E-3],"categories":[],"categories_nodes":[],"categories_segments":[],"categories_sizes":[],"default_left":[0,0,0,0,0,0,0,0,0,0,0,0,0],"id":65,"left_children":[1,3,5,7,9,-1,11,-1,-1,-1,-1,-1,-1],"loss_changes":[5.909302E-3,9.073574E-3,1.549984E-2,3.822017E-2,8.696176E-3,0E0,1.4896922E-2,0E0,0E0,0E0,0E0,0E0,0E0],"parents":[2147483647,0,0,1,1,2,2,3,3,4,4,6,6],"right_children":[2,4,6,8,10,-1,12,-1,-1,-1,-1,-1,-1],"split_conditions":[3.1388426E-1,7.719808E-2,-2.991406E-2,-1.4230889E-1,-7.518552E-2,7.4373595E-3,2.4572082E-2,1.0457694E-2,4.868598E-4,-7.7315036E-4,-3.801098E-5,1.9572697E-4,5.67371E-3],"split_indices":[837,261,216,501,685,0,211,0,0,0,0,0,0],"split_type":[0,0,0,0,0,0,0,0,0,0,0,0,0],"sum_hessian":[4.828E3,4.091E3,7.37E2,1.06E2,3.985E3,2E0,7.35E2,3E0,1.03E2,1.67E2,3.818E3,7.31E2,4E0],"tree_param":{"num_deleted":"0","num_feature":"1058","num_nodes":"13","size_leaf_vector":"1"}},{"base_weights":[2.6033054E-5,3.4148304E-6,5.4613412E-3,-1.9013663E-5,5.413288E-3,-1.0925004E-3,1.1128616E-5],"categories":[],"categories_nodes":[],"categories_segments":[],"categories_sizes":[],"default_left":[0,0,0,0,0,0,0],"id":66,"left_children":[1,3,-1,5,-1,-1,-1],"loss_changes":[5.9620333E-3,5.8624255E-3,0E0,6.860617E-3,0E0,0E0,0E0],"parents":[2147483647,0,0,1,1,3,3],"right_children":[2,4,-1,6,-1,-1,-1],"split_conditions":[-1.8336424E-1,-2.893142E-2,5.4613412E-3,6.3248605E-1,5.413288E-3,-1.0925004E-3,1.1128616E-5],"split_indices":[266,267,0,691,0,0,0],"split_type":[0,0,0,0,0,0,0],"sum_hessian":[4.828E3,4.827E3,1E0,4.826E3,1E0,5.6E1,4.77E3],"tree_param":{"num_deleted":"0","num_feature":"1058","num_nodes":"7","size_leaf_vector":"1"}},{"base_weights":[2.5457563E-5,1.8975523E-3,-6.120905E-4,1.4198261E-3,5.9894845E-2,-1.1742302E-4,-6.5980395E-3,9.315722E-5,4.051568E-3,-4.15868E-3,1.0932795E-2,2.865737E-3,-3.4382352E-5,-1.383855E-3,3.9046264E-4],"categories":[],"categories_nodes":[],"categories_segments":[],"categories_sizes":[],"default_left":[0,0,0,0,0,0,0,0,0,0,0,0,0,0,0],"id":67,"left_children":[1,3,5,7,9,11,13,-1,-1,-1,-1,-1,-1,-1,-1],"loss_changes":[5.764816E-3,3.3911236E-2,1.0667903E-2,2.3212291E-2,5.471213E-2,2.1697048E-2,2.0966318E-2,0E0,0E0,0E0,0E0,0E0,0E0,0E0,0E0],"parents":[2147483647,0,0,1,1,2,2,3,3,4,4,5,5,6,6],"right_children":[2,4,6,8,10,12,14,-1,-1,-1,-1,-1,-1,-1,-1],"split_conditions":[-4.8522356E-1,3.6780448E0,-1.9145018E-1,3.9631482E2,3.0099998E-6,6.486279E-1,1.4764944E-1,9.315722E-5,4.051568E-3,-4.15868E-3,1.0932795E-2,2.865737E-3,-3.4382352E-5,-1.383855E-3,3.9046264E-4],"split_indices":[28,31,970,32,2,88,720,0,0,0,0,0,0,0,0],"split_type":[0,0,0,0,0,0,0,0,0,0,0,0,0,0,0],"sum_hessian":[4.828E3,1.226E3,3.602E3,1.217E3,9E0,3.328E3,2.74E2,1.203E3,1.4E1,3E0,6E0,2.5E1,3.303E3,1.62E2,1.12E2],"tree_param":{"num_deleted":"0","num_feature":"1058","num_nodes":"15","size_leaf_vector":"1"}},{"base_weights":[2.5553485E-5,3.457337E-6,5.3352877E-3,3.1559815E-4,-3.8714337E-3,6.9925345E-6,8.4503985E-4,-3.885567E-3,-3.2692455E-4],"categories":[],"categories_nodes":[],"categories_segments":[],"categories_sizes":[],"default_left":[0,0,0,0,0,0,0,0,0],"id":68,"left_children":[1,3,-1,5,7,-1,-1,-1,-1],"loss_changes":[5.689963E-3,5.8407444E-3,0E0,8.930703E-3,7.457127E-3,0E0,0E0,0E0,0E0],"parents":[2147483647,0,0,1,1,3,3,4,4],"right_children":[2,4,-1,6,8,-1,-1,-1,-1],"split_conditions":[-2.6313236E-1,3.8285276E-1,5.3352877E-3,-1.14135936E-1,-6.7826696E-2,6.9925345E-6,8.4503985E-4,-3.885567E-3,-3.2692455E-4],"split_indices":[648,1054,0,467,89,0,0,0,0],"split_type":[0,0,0,0,0,0,0,0,0],"sum_hessian":[4.828E3,4.827E3,1E0,4.468E3,3.59E2,4.338E3,1.3E2,5E0,3.54E2],"tree_param":{"num_deleted":"0","num_feature":"1058","num_nodes":"9","size_leaf_vector":"1"}},{"base_weights":[2.3407E-5,1.4164025E-6,5.3097005E-3,3.4017046E-3,-3.352078E-4,3.5402135E-3,1.8550453E-4,-4.1231068E-4,1.3582163E-5],"categories":[],"categories_nodes":[],"categories_segments":[],"categories_sizes":[],"default_left":[0,0,0,0,0,0,0,0,0],"id":69,"left_children":[1,3,-1,5,7,-1,-1,-1,-1],"loss_changes":[5.635948E-3,5.527362E-3,0E0,2.1464113E-2,7.8403875E-3,0E0,0E0,0E0,0E0],"parents":[2147483647,0,0,1,1,3,3,4,4],"right_children":[2,4,-1,6,8,-1,-1,-1,-1],"split_conditions":[5.164034E-1,4.1533787E1,5.3097005E-3,-4.6662858E-1,1.4046228E-1,3.5402135E-3,1.8550453E-4,-4.1231068E-4,1.3582163E-5],"split_indices":[370,33,0,306,147,0,0,0,0],"split_type":[0,0,0,0,0,0,0,0,0],"sum_hessian":[4.828E3,4.827E3,1E0,4.34E2,4.393E3,1.9E1,4.15E2,4.85E2,3.908E3],"tree_param":{"num_deleted":"0","num_feature":"1058","num_nodes":"9","size_leaf_vector":"1"}},{"base_weights":[2.2854876E-5,4.3606926E-3,-2.4814575E-4,3.166914E-3,8.713349E-3,-9.465682E-3,-4.0814542E-5,2.4401807E-4,6.9697476E-3,-6.857081E-4,-9.152478E-3,4.379947E-5,-3.3718493E-4],"categories":[],"categories_nodes":[],"categories_segments":[],"categories_sizes":[],"default_left":[0,0,0,0,0,0,0,0,0,0,0,0,0],"id":70,"left_children":[1,3,5,7,-1,9,11,-1,-1,-1,-1,-1,-1],"loss_changes":[5.6778453E-3,2.7786776E-2,8.687397E-3,1.3416272E-2,0E0,2.0778356E-2,7.094132E-3,0E0,0E0,0E0,0E0,0E0,0E0],"parents":[2147483647,0,0,1,1,2,2,3,3,5,5,6,6],"right_children":[2,4,6,8,-1,10,12,-1,-1,-1,-1,-1,-1],"split_conditions":[1.1809402E0,-7.500801E-2,8.327259E-3,6.283786E-2,8.713349E-3,-1.4780533E-1,2.0445231E-3,2.4401807E-4,6.9697476E-3,-6.857081E-4,-9.152478E-3,4.379947E-5,-3.3718493E-4],"split_indices":[916,383,717,670,0,125,254,0,0,0,0,0,0],"split_type":[0,0,0,0,0,0,0,0,0,0,0,0,0],"sum_hessian":[4.828E3,2.83E2,4.545E3,2.8E2,3E0,9.9E1,4.446E3,2.78E2,2E0,9.7E1,2E0,3.888E3,5.58E2],"tree_param":{"num_deleted":"0","num_feature":"1058","num_nodes":"13","size_leaf_vector":"1"}},{"base_weights":[2.1769372E-5,-2.9415945E-8,5.263316E-3,9.093156E-4,-1.2830094E-3,-5.0653984E-5,7.744417E-4,-9.514251E-5,-1.7127328E-3],"categories":[],"categories_nodes":[],"categories_segments":[],"categories_sizes":[],"default_left":[0,0,0,0,0,0,0,0,0],"id":71,"left_children":[1,3,-1,5,7,-1,-1,-1,-1],"loss_changes":[5.5382107E-3,5.633857E-3,0E0,2.7352585E-2,1.0506921E-2,0E0,0E0,0E0,0E0],"parents":[2147483647,0,0,1,1,3,3,4,4],"right_children":[2,4,-1,6,8,-1,-1,-1,-1],"split_conditions":[3.3215886E-1,3.5541666E-6,5.263316E-3,4.7768298E-1,-1.747608E-2,-5.0653984E-5,7.744417E-4,-9.514251E-5,-1.7127328E-3],"split_indices":[233,2,0,31,189,0,0,0,0],"split_type":[0,0,0,0,0,0,0,0,0],"sum_hessian":[4.828E3,4.827E3,1E0,2.825E3,2.002E3,2.341E3,4.84E2,1.962E3,4E1],"tree_param":{"num_deleted":"0","num_feature":"1058","num_nodes":"9","size_leaf_vector":"1"}},{"base_weights":[2.0457821E-5,-1.0044695E-6,5.18202E-3,-7.0415415E-5,1.5890846E-2,2.9583081E-5,-3.688802E-4,7.472981E-3,-2.349487E-4],"categories":[],"categories_nodes":[],"categories_segments":[],"categories_sizes":[],"default_left":[0,0,0,0,0,0,0,0,0],"id":72,"left_children":[1,3,-1,5,7,-1,-1,-1,-1],"loss_changes":[5.368649E-3,5.326733E-3,0E0,6.3727507E-3,2.2713663E-2,0E0,0E0,0E0,0E0],"parents":[2147483647,0,0,1,1,3,3,4,4],"right_children":[2,4,-1,6,8,-1,-1,-1,-1],"split_conditions":[-1.8336424E-1,-6.6514987E-1,5.18202E-3,-8.133082E-1,2.4301035E-2,2.9583081E-5,-3.688802E-4,7.472981E-3,-2.349487E-4],"split_indices":[266,318,0,840,729,0,0,0,0],"split_type":[0,0,0,0,0,0,0,0,0],"sum_hessian":[4.828E3,4.827E3,1E0,4.807E3,2E1,4.366E3,4.41E2,4E0,1.6E1],"tree_param":{"num_deleted":"0","num_feature":"1058","num_nodes":"9","size_leaf_vector":"1"}},{"base_weights":[2.0913752E-5,-8.1644475E-7,5.246715E-3,1.5235487E-4,-7.552473E-3,3.7193898E-4,-2.698603E-5,-1.9536214E-4,-2.8730426E-3],"categories":[],"categories_nodes":[],"categories_segments":[],"categories_sizes":[],"default_left":[0,0,0,0,0,0,0,0,0],"id":73,"left_children":[1,3,-1,5,7,-1,-1,-1,-1],"loss_changes":[5.503495E-3,5.5856844E-3,0E0,7.129167E-3,1.1326803E-2,0E0,0E0,0E0,0E0],"parents":[2147483647,0,0,1,1,3,3,4,4],"right_children":[2,4,-1,6,8,-1,-1,-1,-1],"split_conditions":[4.55306E-1,4.5580807E-1,5.246715E-3,8.7648325E-2,1.1450872E0,3.7193898E-4,-2.698603E-5,-1.9536214E-4,-2.8730426E-3],"split_indices":[207,139,0,432,31,0,0,0,0],"split_type":[0,0,0,0,0,0,0,0,0],"sum_hessian":[4.828E3,4.827E3,1E0,4.732E3,9.5E1,5E2,4.232E3,7.6E1,1.9E1],"tree_param":{"num_deleted":"0","num_feature":"1058","num_nodes":"9","size_leaf_vector":"1"}},{"base_weights":[1.9345152E-5,-1.9671281E-6,5.145752E-3,-1.0122166E-2,1.189158E-4,-6.6393E-4,-7.060067E-3,-6.0288625E-5,1.9265134E-4],"categories":[],"categories_nodes":[],"categories_segments":[],"categories_sizes":[],"default_left":[0,0,0,0,0,0,0,0,0],"id":74,"left_children":[1,3,-1,5,7,-1,-1,-1,-1],"loss_changes":[5.2939635E-3,5.907583E-3,0E0,1.1537658E-2,6.227321E-3,0E0,0E0,0E0,0E0],"parents":[2147483647,0,0,1,1,3,3,4,4],"right_children":[2,4,-1,6,8,-1,-1,-1,-1],"split_conditions":[-2.893142E-2,6.3248605E-1,5.145752E-3,1.4086246E-1,-3.5394166E-2,-6.6393E-4,-7.060067E-3,-6.0288625E-5,1.9265134E-4],"split_indices":[267,691,0,548,863,0,0,0,0],"split_type":[0,0,0,0,0,0,0,0,0],"sum_hessian":[4.828E3,4.827E3,1E0,5.6E1,4.771E3,5.4E1,2E0,3.41E3,1.361E3],"tree_param":{"num_deleted":"0","num_feature":"1058","num_nodes":"9","size_leaf_vector":"1"}},{"base_weights":[1.6904367E-5,-4.3024654E-3,2.6764174E-4,-3.0051803E-3,-3.7082717E-2,5.858133E-3,-2.4893212E-5,8.5329183E-4,-5.777643E-4,-5.0126994E-3,1.0062918E-3,4.5070882E-4,8.005211E-3,-1.073998E-3,1.354881E-5],"categories":[],"categories_nodes":[],"categories_segments":[],"categories_sizes":[],"default_left":[0,0,0,0,0,0,0,0,0,0,0,0,0,0,0],"id":75,"left_children":[1,3,5,7,9,11,13,-1,-1,-1,-1,-1,-1,-1,-1],"loss_changes":[5.231091E-3,1.1157775E-2,7.465811E-3,8.238471E-3,6.654228E-3,2.2393536E-2,7.4580247E-3,0E0,0E0,0E0,0E0,0E0,0E0,0E0,0E0],"parents":[2147483647,0,0,1,1,2,2,3,3,4,4,5,5,6,6],"right_children":[2,4,6,8,10,12,14,-1,-1,-1,-1,-1,-1,-1,-1],"split_conditions":[-1.978248E-1,2.5107412E0,1.1809402E0,1.726451E-1,5.9432127E-2,-7.5010754E-2,8.3182E-3,8.5329183E-4,-5.777643E-4,-5.0126994E-3,1.0062918E-3,4.5070882E-4,8.005211E-3,-1.073998E-3,1.354881E-5],"split_indices":[892,31,916,989,35,383,717,0,0,0,0,0,0,0,0],"split_type":[0,0,0,0,0,0,0,0,0,0,0,0,0,0,0],"sum_hessian":[4.828E3,2.64E2,4.564E3,2.55E2,9E0,2.26E2,4.338E3,4.9E1,2.06E2,7E0,2E0,2.23E2,3E0,6.3E1,4.275E3],"tree_param":{"num_deleted":"0","num_feature":"1058","num_nodes":"15","size_leaf_vector":"1"}},{"base_weights":[1.5973063E-5,1.5989317E-2,-5.0447492E-5,2.0528557E-3,5.738813E-3,1.7928726E-4,-5.2383766E-3,-7.3001126E-4,2.4089408E-3,-5.3133367E-6,9.258301E-4,-4.0038812E-4,-8.661496E-3],"categories":[],"categories_nodes":[],"categories_segments":[],"categories_sizes":[],"default_left":[0,0,0,0,0,0,0,0,0,0,0,0,0],"id":76,"left_children":[1,3,5,7,-1,9,11,-1,-1,-1,-1,-1,-1],"loss_changes":[5.1241745E-3,1.142125E-2,5.7337265E-3,3.4735699E-3,0E0,9.721953E-3,2.0146849E-2,0E0,0E0,0E0,0E0,0E0,0E0],"parents":[2147483647,0,0,1,1,2,2,3,3,5,5,6,6],"right_children":[2,4,6,8,-1,10,12,-1,-1,-1,-1,-1,-1],"split_conditions":[5.34008E-1,1.5824097E-1,2.6301244E-1,4.4932883E-2,5.738813E-3,4.4858322E-1,2.5107412E0,-7.3001126E-4,2.4089408E-3,-5.3133367E-6,9.258301E-4,-4.0038812E-4,-8.661496E-3],"split_indices":[928,627,628,759,0,529,31,0,0,0,0,0,0],"split_type":[0,0,0,0,0,0,0,0,0,0,0,0,0],"sum_hessian":[4.828E3,1.9E1,4.809E3,1.5E1,4E0,4.606E3,2.03E2,1.1E1,4E0,4.492E3,1.14E2,2.01E2,2E0],"tree_param":{"num_deleted":"0","num_feature":"1058","num_nodes":"13","size_leaf_vector":"1"}},{"base_weights":[1.4225772E-5,-6.459306E-6,4.9940892E-3,-2.1621145E-3,4.913817E-4,-1.171499E-4,-1.5865371E-3,-2.4693893E-6,5.247674E-4],"categories":[],"categories_nodes":[],"categories_segments":[],"categories_sizes":[],"default_left":[0,0,0,0,0,0,0,0,0],"id":77,"left_children":[1,3,-1,5,7,-1,-1,-1,-1],"loss_changes":[4.9874093E-3,5.182344E-3,0E0,1.2280054E-2,9.6295485E-3,0E0,0E0,0E0,0E0],"parents":[2147483647,0,0,1,1,3,3,4,4],"right_children":[2,4,-1,6,8,-1,-1,-1,-1],"split_conditions":[4.55306E-1,-3.4181755E-2,4.9940892E-3,1.7871115E0,1.1450872E0,-1.171499E-4,-1.5865371E-3,-2.4693893E-6,5.247674E-4],"split_indices":[207,887,0,31,31,0,0,0,0],"split_type":[0,0,0,0,0,0,0,0,0],"sum_hessian":[4.828E3,4.827E3,1E0,9.05E2,3.922E3,8.45E2,6E1,3.539E3,3.83E2],"tree_param":{"num_deleted":"0","num_feature":"1058","num_nodes":"9","size_leaf_vector":"1"}},{"base_weights":[1.35927385E-5,-6.96674E-6,4.963738E-3,-5.281323E-3,2.0787383E-4,-2.016302E-4,-2.7644332E-3,4.701812E-6,1.0708784E-3],"categories":[],"categories_nodes":[],"categories_segments":[],"categories_sizes":[],"default_left":[0,0,0,0,0,0,0,0,0],"id":78,"left_children":[1,3,-1,5,7,-1,-1,-1,-1],"loss_changes":[4.9270806E-3,5.4719253E-3,0E0,1.3744224E-2,7.837065E-3,0E0,0E0,0E0,0E0],"parents":[2147483647,0,0,1,1,3,3,4,4],"right_children":[2,4,-1,6,8,-1,-1,-1,-1],"split_conditions":[3.3215886E-1,2.5660214E-1,4.963738E-3,-1.0827977E-1,-5.4550165E-1,-2.016302E-4,-2.7644332E-3,4.701812E-6,1.0708784E-3],"split_indices":[233,449,0,978,1021,0,0,0,0],"split_type":[0,0,0,0,0,0,0,0,0],"sum_hessian":[4.828E3,4.827E3,1E0,1.88E2,4.639E3,1.65E2,2.3E1,4.57E3,6.9E1],"tree_param":{"num_deleted":"0","num_feature":"1058","num_nodes":"9","size_leaf_vector":"1"}},{"base_weights":[1.2869638E-5,-3.2934418E-3,3.236525E-4,-1.7508287E-3,-1.8551713E-2,5.057203E-3,-1.1441567E-4,2.561946E-3,-2.6409992E-4,-1.0916317E-3,-5.745444E-3,1.8730201E-4,2.952445E-3,1.7129638E-5,-7.37785E-4],"categories":[],"categories_nodes":[],"categories_segments":[],"categories_sizes":[],"default_left":[0,0,0,0,0,0,0,0,0,0,0,0,0,0,0],"id":79,"left_children":[1,3,5,7,9,11,13,-1,-1,-1,-1,-1,-1,-1,-1],"loss_changes":[4.96308E-3,9.735627E-3,9.155602E-3,9.277338E-3,1.0660242E-2,2.9082362E-2,8.389425E-3,0E0,0E0,0E0,0E0,0E0,0E0,0E0,0E0],"parents":[2147483647,0,0,1,1,2,2,3,3,4,4,5,5,6,6],"right_children":[2,4,6,8,10,12,14,-1,-1,-1,-1,-1,-1,-1,-1],"split_conditions":[2.4335895E-1,1.0965872E-1,1.4158158E-1,2.9876059E-2,1.5913092E0,1.336074E0,-1.29107E-1,2.561946E-3,-2.6409992E-4,-1.0916317E-3,-5.745444E-3,1.8730201E-4,2.952445E-3,1.7129638E-5,-7.37785E-4],"split_indices":[198,477,817,112,31,31,995,0,0,0,0,0,0,0,0],"split_type":[0,0,0,0,0,0,0,0,0,0,0,0,0,0,0],"sum_hessian":[4.828E3,4.14E2,4.414E3,3.77E2,3.7E1,3.73E2,4.041E3,1.1E1,3.66E2,3.2E1,5E0,3.31E2,4.2E1,3.889E3,1.52E2],"tree_param":{"num_deleted":"0","num_feature":"1058","num_nodes":"15","size_leaf_vector":"1"}},{"base_weights":[1.1143682E-5,-9.214672E-6,4.9150637E-3,2.168132E-4,-4.980708E-3,1.402539E-5,1.9778435E-3,-3.7298672E-4,-4.072225E-3],"categories":[],"categories_nodes":[],"categories_segments":[],"categories_sizes":[],"default_left":[0,0,0,0,0,0,0,0,0],"id":80,"left_children":[1,3,-1,5,7,-1,-1,-1,-1],"loss_changes":[4.8313807E-3,5.426285E-3,0E0,6.914753E-3,9.236576E-3,0E0,0E0,0E0,0E0],"parents":[2147483647,0,0,1,1,3,3,4,4],"right_children":[2,4,-1,6,8,-1,-1,-1,-1],"split_conditions":[-1.8336424E-1,-3.8414013E-2,4.9150637E-3,-6.6514987E-1,5.054032E-1,1.402539E-5,1.9778435E-3,-3.7298672E-4,-4.072225E-3],"split_indices":[266,708,0,318,521,0,0,0,0],"split_type":[0,0,0,0,0,0,0,0,0],"sum_hessian":[4.828E3,4.827E3,1E0,4.618E3,2.09E2,4.601E3,1.7E1,2.03E2,6E0],"tree_param":{"num_deleted":"0","num_feature":"1058","num_nodes":"9","size_leaf_vector":"1"}},{"base_weights":[1.05393665E-5,1.7364688E-3,-5.77228E-4,1.2968048E-3,5.51139E-2,-2.4668901E-4,-9.622164E-3,-3.3059263E-5,1.0103621E-3,-3.5769192E-3,9.917368E-3,-5.1172992E-5,1.4603989E-3,-1.1496224E-3,7.167102E-3],"categories":[],"categories_nodes":[],"categories_segments":[],"categories_sizes":[],"default_left":[0,0,0,0,0,0,0,0,0,0,0,0,0,0,0],"id":81,"left_children":[1,3,5,7,9,11,13,-1,-1,-1,-1,-1,-1,-1,-1],"loss_changes":[4.899757E-3,2.8723933E-2,1.0769531E-2,1.7459948E-2,4.3590248E-2,1.3693073E-2,2.0172168E-2,0E0,0E0,0E0,0E0,0E0,0E0,0E0,0E0],"parents":[2147483647,0,0,1,1,2,2,3,3,4,4,5,5,6,6],"right_children":[2,4,6,8,10,12,14,-1,-1,-1,-1,-1,-1,-1,-1],"split_conditions":[-4.8522356E-1,3.6780448E0,1.01035394E-1,5.0183994E1,3.0099998E-6,-9.9309206E-2,4.673666E-1,-3.3059263E-5,1.0103621E-3,-3.5769192E-3,9.917368E-3,-5.1172992E-5,1.4603989E-3,-1.1496224E-3,7.167102E-3],"split_indices":[28,31,889,32,2,314,504,0,0,0,0,0,0,0,0],"split_type":[0,0,0,0,0,0,0,0,0,0,0,0,0,0,0],"sum_hessian":[4.828E3,1.226E3,3.602E3,1.217E3,9E0,3.476E3,1.26E2,1.028E3,1.89E2,3E0,6E0,3.416E3,6E1,1.24E2,2E0],"tree_param":{"num_deleted":"0","num_feature":"1058","num_nodes":"15","size_leaf_vector":"1"}},{"base_weights":[1.25387805E-5,9.039785E-3,-9.7183096E-5,3.6471377E-3,5.5168204E-2,-7.6635927E-3,7.3033305E-5,-9.889423E-5,4.8351292E-3,1.0173129E-3,6.213259E-3,-5.5129804E-5,-2.2499522E-3,-1.7625138E-5,5.528833E-4],"categories":[],"categories_nodes":[],"categories_segments":[],"categories_sizes":[],"default_left":[0,0,0,0,0,0,0,0,0,0,0,0,0,0,0],"id":82,"left_children":[1,3,5,7,9,11,13,-1,-1,-1,-1,-1,-1,-1,-1],"loss_changes":[4.7839372E-3,1.4226541E-2,6.146547E-3,1.1032174E-2,1.2480952E-3,1.1066933E-2,6.349675E-3,0E0,0E0,0E0,0E0,0E0,0E0,0E0,0E0],"parents":[2147483647,0,0,1,1,2,2,3,3,4,4,5,5,6,6],"right_children":[2,4,6,8,10,12,14,-1,-1,-1,-1,-1,-1,-1,-1],"split_conditions":[-3.4675545E-1,-1.3951759E-1,8.81148E-2,-5.069796E-1,2.8060383E-6,7.41E-1,7.01912E-2,-9.889423E-5,4.8351292E-3,1.0173129E-3,6.213259E-3,-5.5129804E-5,-2.2499522E-3,-1.7625138E-5,5.528833E-4],"split_indices":[1035,130,440,435,0,31,192,0,0,0,0,0,0,0,0],"split_type":[0,0,0,0,0,0,0,0,0,0,0,0,0,0,0],"sum_hessian":[4.828E3,5.7E1,4.771E3,5.2E1,5E0,1.04E2,4.667E3,4.8E1,4E0,1E0,4E0,7.1E1,3.3E1,4.464E3,2.03E2],"tree_param":{"num_deleted":"0","num_feature":"1058","num_nodes":"15","size_leaf_vector":"1"}},{"base_weights":[1.33966705E-5,-6.74745E-6,4.8634605E-3,-1.498397E-3,6.7123625E-4,-5.6909386E-4,-1.1803087E-6,9.640733E-4,1.9010802E-5],"categories":[],"categories_nodes":[],"categories_segments":[],"categories_sizes":[],"default_left":[0,0,0,0,0,0,0,0,0],"id":83,"left_children":[1,3,-1,5,7,-1,-1,-1,-1],"loss_changes":[4.7300025E-3,4.88363E-3,0E0,9.404936E-3,1.4325554E-2,0E0,0E0,0E0,0E0],"parents":[2147483647,0,0,1,1,3,3,4,4],"right_children":[2,4,-1,6,8,-1,-1,-1,-1],"split_conditions":[-2.893142E-2,2.0209138E-1,4.8634605E-3,2.7049208E-1,-1.5315683E-2,-5.6909386E-4,-1.1803087E-6,9.640733E-4,1.9010802E-5],"split_indices":[267,990,0,123,384,0,0,0,0],"split_type":[0,0,0,0,0,0,0,0,0],"sum_hessian":[4.828E3,4.827E3,1E0,1.508E3,3.319E3,3.94E2,1.114E3,1.68E2,3.151E3],"tree_param":{"num_deleted":"0","num_feature":"1058","num_nodes":"9","size_leaf_vector":"1"}},{"base_weights":[1.3149416E-5,1.2345283E-4,-8.906693E-3,2.1094179E-2,5.7300982E-5,-6.0482873E-3,-6.0247513E-3,-6.738599E-6,4.528845E-3,-4.404277E-4,3.6287565E-5,-3.8537235E-4,-4.4265864E-3],"categories":[],"categories_nodes":[],"categories_segments":[],"categories_sizes":[],"default_left":[0,0,0,0,0,0,0,0,0,0,0,0,0],"id":84,"left_children":[1,3,5,7,9,11,-1,-1,-1,-1,-1,-1,-1],"loss_changes":[4.7522997E-3,6.617372E-3,8.294027E-3,7.6828813E-3,6.4870315E-3,4.6100537E-3,0E0,0E0,0E0,0E0,0E0,0E0,0E0],"parents":[2147483647,0,0,1,1,2,2,3,3,4,4,5,5],"right_children":[2,4,6,8,10,12,-1,-1,-1,-1,-1,-1,-1],"split_conditions":[-4.193267E-1,6.957113E-1,-2.3829464E-2,-3.2037307E-2,5.51223E-1,-2.0546516E-2,-6.0247513E-3,-6.738599E-6,4.528845E-3,-4.404277E-4,3.6287565E-5,-3.8537235E-4,-4.4265864E-3],"split_indices":[674,658,219,860,160,85,0,0,0,0,0,0,0],"split_type":[0,0,0,0,0,0,0,0,0,0,0,0,0],"sum_hessian":[4.828E3,4.77E3,5.8E1,1.4E1,4.756E3,5.6E1,2E0,8E0,6E0,3.04E2,4.452E3,5.4E1,2E0],"tree_param":{"num_deleted":"0","num_feature":"1058","num_nodes":"13","size_leaf_vector":"1"}},{"base_weights":[1.0443192E-5,-4.0490305E-4,2.3134057E-3,1.8394249E-2,-4.832104E-4,7.4140844E-4,1.2108003E-2,4.045523E-4,1.2398693E-2,-7.276853E-5,5.3901516E-4,6.3704527E-3,4.4277735E-5,4.688998E-3,7.3883135E-4],"categories":[],"categories_nodes":[],"categories_segments":[],"categories_sizes":[],"default_left":[0,0,0,0,0,0,0,0,0,0,0,0,0,0,0],"id":85,"left_children":[1,3,5,7,9,11,13,-1,-1,-1,-1,-1,-1,-1,-1],"loss_changes":[4.620005E-3,6.0327677E-3,1.1354069E-2,2.5255455E-2,5.856608E-3,1.1949142E-2,1.6397899E-2,0E0,0E0,0E0,0E0,0E0,0E0,0E0,0E0],"parents":[2147483647,0,0,1,1,2,2,3,3,4,4,5,5,6,6],"right_children":[2,4,6,8,10,12,14,-1,-1,-1,-1,-1,-1,-1,-1],"split_conditions":[3.1388426E-1,8.658911E-2,-5.588203E-1,1.3742603E0,-1.3566789E-1,-2.991406E-2,1.0752741E0,4.045523E-4,1.2398693E-2,-7.276853E-5,5.3901516E-4,6.3704527E-3,4.4277735E-5,4.688998E-3,7.3883135E-4],"split_indices":[837,866,69,31,202,216,843,0,0,0,0,0,0,0,0],"split_type":[0,0,0,0,0,0,0,0,0,0,0,0,0,0,0],"sum_hessian":[4.828E3,4.091E3,7.37E2,1.6E1,4.075E3,6.36E2,1.01E2,1.5E1,1E0,3.913E3,1.62E2,2E0,6.34E2,1.1E1,9E1],"tree_param":{"num_deleted":"0","num_feature":"1058","num_nodes":"15","size_leaf_vector":"1"}},{"base_weights":[1.4599209E-5,-5.0660096E-6,4.7479137E-3,1.1942074E-4,-7.6876115E-3,-9.675637E-6,6.20613E-4,-1.4919305E-4,-3.3196963E-3],"categories":[],"categories_nodes":[],"categories_segments":[],"categories_sizes":[],"default_left":[0,0,0,0,0,0,0,0,0],"id":86,"left_children":[1,3,-1,5,7,-1,-1,-1,-1],"loss_changes":[4.507632E-3,4.618297E-3,0E0,6.253316E-3,1.2120156E-2,0E0,0E0,0E0,0E0],"parents":[2147483647,0,0,1,1,3,3,4,4],"right_children":[2,4,-1,6,8,-1,-1,-1,-1],"split_conditions":[4.55306E-1,4.558168E-1,4.7479137E-3,-7.741319E-2,1.2411165E0,-9.675637E-6,6.20613E-4,-1.4919305E-4,-3.3196963E-3],"split_indices":[207,139,0,839,31,0,0,0,0],"split_type":[0,0,0,0,0,0,0,0,0],"sum_hessian":[4.828E3,4.827E3,1E0,4.751E3,7.6E1,4.589E3,1.62E2,6.2E1,1.4E1],"tree_param":{"num_deleted":"0","num_feature":"1058","num_nodes":"9","size_leaf_vector":"1"}},{"base_weights":[1.35306545E-5,4.963834E-4,-1.8761418E-3,4.3110407E-4,5.057079E-2,1.0904408E-2,-2.6893052E-3,2.3496419E-3,3.1641855E-5,4.4748522E-4,1.1747727E-2,-6.4009987E-4,2.6741582E-3,-8.73186E-4,-1.3171647E-4],"categories":[],"categories_nodes":[],"categories_segments":[],"categories_sizes":[],"default_left":[0,0,0,0,0,0,0,0,0,0,0,0,0,0,0],"id":87,"left_children":[1,3,5,7,9,11,13,-1,-1,-1,-1,-1,-1,-1,-1],"loss_changes":[4.4070724E-3,1.2553361E-2,1.0245327E-2,1.0158289E-2,1.48948915E-2,1.6341228E-2,7.6578907E-3,0E0,0E0,0E0,0E0,0E0,0E0,0E0,0E0],"parents":[2147483647,0,0,1,1,2,2,3,3,4,4,5,5,6,6],"right_children":[2,4,6,8,10,12,14,-1,-1,-1,-1,-1,-1,-1,-1],"split_conditions":[-1.6471142E-1,1.8524097E-2,1.771593E1,4.820002E-1,9.714036E-6,-2.9002514E-2,-4.987549E-2,2.3496419E-3,3.1641855E-5,4.4748522E-4,1.1747727E-2,-6.4009987E-4,2.6741582E-3,-8.73186E-4,-1.3171647E-4],"split_indices":[132,195,33,602,4,591,710,0,0,0,0,0,0,0,0],"split_type":[0,0,0,0,0,0,0,0,0,0,0,0,0,0,0],"sum_hessian":[4.828E3,3.846E3,9.82E2,3.842E3,4E0,5.8E1,9.24E2,1.8E1,3.824E3,3E0,1E0,2.8E1,3E1,1.7E2,7.54E2],"tree_param":{"num_deleted":"0","num_feature":"1058","num_nodes":"15","size_leaf_vector":"1"}},{"base_weights":[1.5409192E-5,3.4641078E-5,-4.6418062E-3,1.5501731E-5,4.6210135E-3,-9.0148434E-4,1.2338564E-5],"categories":[],"categories_nodes":[],"categories_segments":[],"categories_sizes":[],"default_left":[0,0,0,0,0,0,0],"id":88,"left_children":[1,3,-1,5,-1,-1,-1],"loss_changes":[4.3139206E-3,4.266119E-3,0E0,4.7037154E-3,0E0,0E0,0E0],"parents":[2147483647,0,0,1,1,3,3],"right_children":[2,4,-1,6,-1,-1,-1],"split_conditions":[3.2326078E-1,-2.893142E-2,-4.6418062E-3,6.3248605E-1,4.6210135E-3,-9.0148434E-4,1.2338564E-5],"split_indices":[1051,267,0,691,0,0,0],"split_type":[0,0,0,0,0,0,0],"sum_hessian":[4.828E3,4.827E3,1E0,4.826E3,1E0,5.6E1,4.77E3],"tree_param":{"num_deleted":"0","num_feature":"1058","num_nodes":"7","size_leaf_vector":"1"}},{"base_weights":[1.3679973E-5,5.076409E-3,-1.7214108E-4,3.0230996E-3,5.275064E-3,-5.9535415E-3,4.1451403E-5,-8.117434E-4,8.977987E-4,9.872519E-5,-1.4809447E-3,5.563271E-5,-2.2220738E-4],"categories":[],"categories_nodes":[],"categories_segments":[],"categories_sizes":[],"default_left":[0,0,0,0,0,0,0,0,0,0,0,0,0],"id":89,"left_children":[1,3,5,7,-1,9,11,-1,-1,-1,-1,-1,-1],"loss_changes":[4.543811E-3,1.6579708E-2,5.753477E-3,1.1019081E-2,0E0,1.0218143E-2,5.238697E-3,0E0,0E0,0E0,0E0,0E0,0E0],"parents":[2147483647,0,0,1,1,2,2,3,3,5,5,6,6],"right_children":[2,4,6,8,-1,10,12,-1,-1,-1,-1,-1,-1],"split_conditions":[5.365127E-1,2.5107412E0,2.5660214E-1,-6.892836E-1,5.275064E-3,-2.6066175E-1,-1.6471142E-1,-8.117434E-4,8.977987E-4,9.872519E-5,-1.4809447E-3,5.563271E-5,-2.2220738E-4],"split_indices":[808,31,449,780,0,630,132,0,0,0,0,0,0],"split_type":[0,0,0,0,0,0,0,0,0,0,0,0,0],"sum_hessian":[4.828E3,1.7E2,4.658E3,1.64E2,6E0,1.65E2,4.493E3,5.7E1,