{"learner":{"attributes":{"best_iteration":"99","best_score":"0.43142669984938764","scikit_learn":"{\"_estimator_type\": \"regressor\"}"},"feature_names":[],"feature_types":[],"gradient_booster":{"model":{"cats":{"enc":[],"feature_segments":[],"sorted_idx":[]},"gbtree_model_param":{"num_parallel_tree":"1","num_trees":"150"},"iteration_indptr":[0,1,2,3,4,5,6,7,8,9,10,11,12,13,14,15,16,17,18,19,20,21,22,23,24,25,26,27,28,29,30,31,32,33,34,35,36,37,38,39,40,41,42,43,44,45,46,47,48,49,50,51,52,53,54,55,56,57,58,59,60,61,62,63,64,65,66,67,68,69,70,71,72,73,74,75,76,77,78,79,80,81,82,83,84,85,86,87,88,89,90,91,92,93,94,95,96,97,98,99,100,101,102,103,104,105,106,107,108,109,110,111,112,113,114,115,116,117,118,119,120,121,122,123,124,125,126,127,128,129,130,131,132,133,134,135,136,137,138,139,140,141,142,143,144,145,146,147,148,149,150],"tree_info":[0,0,0,0,0,0,0,0,0,0,0,0,0,0,0,0,0,0,0,0,0,0,0,0,0,0,0,0,0,0,0,0,0,0,0,0,0,0,0,0,0,0,0,0,0,0,0,0,0,0,0,0,0,0,0,0,0,0,0,0,0,0,0,0,0,0,0,0,0,0,0,0,0,0,0,0,0,0,0,0,0,0,0,0,0,0,0,0,0,0,0,0,0,0,0,0,0,0,0,0,0,0,0,0,0,0,0,0,0,0,0,0,0,0,0,0,0,0,0,0,0,0,0,0,0,0,0,0,0,0,0,0,0,0,0,0,0,0,0,0,0,0,0,0,0,0,0,0,0,0],"trees":[{"base_weights":[-1.7778989E-8,-4.1858265E-1,1.0466081E0,-4.9598355E-2,2.7901735E-3,8.829077E-2,1.6130434E-1],"categories":[],"categories_nodes":[],"categories_segments":[],"categories_sizes":[],"default_left":[0,0,0,0,0,0,0],"id":0,"left_children":[1,3,5,-1,-1,-1,-1],"loss_changes":[2.1177368E3,1.19371216E2,1.2378174E2,0E0,0E0,0E0,0E0],"parents":[2147483647,0,0,1,1,2,2],"right_children":[2,4,6,-1,-1,-1,-1],"split_conditions":[4.5874655E-1,3.2823488E-1,1.5913092E0,-4.9598355E-2,2.7901735E-3,8.829077E-2,1.6130434E-1],"split_indices":[31,31,31,0,0,0,0],"split_type":[0,0,0,0,0,0,0],"sum_hessian":[4.828E3,3.45E3,1.378E3,2.94E3,5.1E2,1.075E3,3.03E2],"tree_param":{"num_deleted":"0","num_feature":"1058","num_nodes":"7","size_leaf_vector":"1"}},{"base_weights":[1.2593468E-4,-3.5949817E-1,9.9335986E-1,-4.312858E-2,1.6146446E-2,9.1029935E-2,1.9608234E-1],"categories":[],"categories_nodes":[],"categories_segments":[],"categories_sizes":[],"default_left":[0,0,0,0,0,0,0],"id":1,"left_children":[1,3,5,-1,-1,-1,-1],"loss_changes":[1.7266603E3,1.3293677E2,9.790527E1,0E0,0E0,0E0,0E0],"parents":[2147483647,0,0,1,1,2,2],"right_children":[2,4,6,-1,-1,-1,-1],"split_conditions":[4.8226994E-1,7.7534122E0,3.6780448E0,-4.312858E-2,1.6146446E-2,9.1029935E-2,1.9608234E-1],"split_indices":[31,32,31,0,0,0,0],"split_type":[0,0,0,0,0,0,0],"sum_hessian":[4.828E3,3.546E3,1.282E3,3.117E3,4.29E2,1.186E3,9.6E1],"tree_param":{"num_deleted":"0","num_feature":"1058","num_nodes":"7","size_leaf_vector":"1"}},{"base_weights":[2.748796E-4,-3.2733962E-1,8.852849E-1,-3.998823E-2,1.0232519E-2,8.269952E-2,2.034297E-1],"categories":[],"categories_nodes":[],"categories_segments":[],"categories_sizes":[],"default_left":[0,0,0,0,0,0,0],"id":2,"left_children":[1,3,5,-1,-1,-1,-1],"loss_changes":[1.4015797E3,1.1008713E2,8.2423096E1,0E0,0E0,0E0,0E0],"parents":[2147483647,0,0,1,1,2,2],"right_children":[2,4,6,-1,-1,-1,-1],"split_conditions":[4.7768298E-1,3.423119E-1,5.152609E0,-3.998823E-2,1.0232519E-2,8.269952E-2,2.034297E-1],"split_indices":[31,31,31,0,0,0,0],"split_type":[0,0,0,0,0,0,0],"sum_hessian":[4.828E3,3.525E3,1.303E3,3.016E3,5.09E2,1.245E3,5.8E1],"tree_param":{"num_deleted":"0","num_feature":"1058","num_nodes":"7","size_leaf_vector":"1"}},{"base_weights":[4.0658462E-4,-2.833713E-1,8.3189785E-1,-3.5464074E-2,1.5009304E-2,7.344367E-2,1.4266358E-1],"categories":[],"categories_nodes":[],"categories_segments":[],"categories_sizes":[],"default_left":[0,0,0,0,0,0,0],"id":3,"left_children":[1,3,5,-1,-1,-1,-1],"loss_changes":[1.1406244E3,1.1149719E2,6.815216E1,0E0,0E0,0E0,0E0],"parents":[2147483647,0,0,1,1,2,2],"right_children":[2,4,6,-1,-1,-1,-1],"split_conditions":[5.053566E-1,3.6049506E-1,2.4883731E2,-3.5464074E-2,1.5009304E-2,7.344367E-2,1.4266358E-1],"split_indices":[31,31,32,0,0,0,0],"split_type":[0,0,0,0,0,0,0],"sum_hessian":[4.828E3,3.601E3,1.227E3,3.093E3,5.08E2,1.06E3,1.67E2],"tree_param":{"num_deleted":"0","num_feature":"1058","num_nodes":"7","size_leaf_vector":"1"}},{"base_weights":[4.8743488E-4,-2.550512E-1,7.492352E-1,-3.187593E-2,1.6971594E-2,6.9691055E-2,1.7177069E-1],"categories":[],"categories_nodes":[],"categories_segments":[],"categories_sizes":[],"default_left":[0,0,0,0,0,0,0],"id":4,"left_children":[1,3,5,-1,-1,-1,-1],"loss_changes":[9.249077E2,9.769052E1,5.8738953E1,0E0,0E0,0E0,0E0],"parents":[2147483647,0,0,1,1,2,2],"right_children":[2,4,6,-1,-1,-1,-1],"split_conditions":[5.053566E-1,7.7534122E0,5.152609E0,-3.187593E-2,1.6971594E-2,6.9691055E-2,1.7177069E-1],"split_indices":[31,32,31,0,0,0,0],"split_type":[0,0,0,0,0,0,0],"sum_hessian":[4.828E3,3.601E3,1.227E3,3.132E3,4.69E2,1.169E3,5.8E1],"tree_param":{"num_deleted":"0","num_feature":"1058","num_nodes":"7","size_leaf_vector":"1"}},{"base_weights":[5.793823E-4,-2.4946117E-1,6.2577003E-1,-2.9267186E-2,1.1296178E-2,4.8554704E-2,9.913137E-2],"categories":[],"categories_nodes":[],"categories_segments":[],"categories_sizes":[],"default_left":[0,0,0,0,0,0,0],"id":5,"left_children":[1,3,5,-1,-1,-1,-1],"loss_changes":[7.5566486E2,5.417502E1,6.934277E1,0E0,0E0,0E0,0E0],"parents":[2147483647,0,0,1,1,2,2],"right_children":[2,4,6,-1,-1,-1,-1],"split_conditions":[4.5874655E-1,7.7534122E0,1.2307418E2,-2.9267186E-2,1.1296178E-2,4.8554704E-2,9.913137E-2],"split_indices":[31,32,32,0,0,0,0],"split_type":[0,0,0,0,0,0,0],"sum_hessian":[4.828E3,3.45E3,1.378E3,3.083E3,3.67E2,1.001E3,3.77E2],"tree_param":{"num_deleted":"0","num_feature":"1058","num_nodes":"7","size_leaf_vector":"1"}},{"base_weights":[6.0200144E-4,-2.0776297E-1,6.1112684E-1,-2.7341222E-2,8.41483E-3,5.7620175E-2,1.8646164E-1],"categories":[],"categories_nodes":[],"categories_segments":[],"categories_sizes":[],"default_left":[0,0,0,0,0,0,0],"id":6,"left_children":[1,3,5,-1,-1,-1,-1],"loss_changes":[6.149421E2,6.913521E1,5.0624054E1,0E0,0E0,0E0,0E0],"parents":[2147483647,0,0,1,1,2,2],"right_children":[2,4,6,-1,-1,-1,-1],"split_conditions":[5.053566E-1,3.2823488E-1,8.800701E2,-2.7341222E-2,8.41483E-3,5.7620175E-2,1.8646164E-1],"split_indices":[31,31,32,0,0,0,0],"split_type":[0,0,0,0,0,0,0],"sum_hessian":[4.828E3,3.601E3,1.227E3,2.94E3,6.61E2,1.198E3,2.9E1],"tree_param":{"num_deleted":"0","num_feature":"1058","num_nodes":"7","size_leaf_vector":"1"}},{"base_weights":[6.816194E-4,-2.2804557E-1,4.523638E-1,-2.4970042E-2,2.5748601E-3,3.1559017E-2,7.805278E-2],"categories":[],"categories_nodes":[],"categories_segments":[],"categories_sizes":[],"default_left":[0,0,0,0,0,0,0],"id":7,"left_children":[1,3,5,-1,-1,-1,-1],"loss_changes":[4.9940973E2,1.7655533E1,7.2197784E1,0E0,0E0,0E0,0E0],"parents":[2147483647,0,0,1,1,2,2],"right_children":[2,4,6,-1,-1,-1,-1],"split_conditions":[3.877518E-1,7.4511495E0,1.2094283E0,-2.4970042E-2,2.5748601E-3,3.1559017E-2,7.805278E-2],"split_indices":[31,32,31,0,0,0,0],"split_type":[0,0,0,0,0,0,0],"sum_hessian":[4.828E3,3.206E3,1.622E3,2.954E3,2.52E2,1.149E3,4.73E2],"tree_param":{"num_deleted":"0","num_feature":"1058","num_nodes":"7","size_leaf_vector":"1"}},{"base_weights":[6.67634E-4,-1.7017478E-1,5.012482E-1,-1.9614002E-2,3.1013483E-2,4.7005698E-2,1.6249003E-1],"categories":[],"categories_nodes":[],"categories_segments":[],"categories_sizes":[],"default_left":[0,0,0,0,0,0,0],"id":8,"left_children":[1,3,5,-1,-1,-1,-1],"loss_changes":[4.1340485E2,4.5129242E1,4.0817688E1,0E0,0E0,0E0,0E0],"parents":[2147483647,0,0,1,1,2,2],"right_children":[2,4,6,-1,-1,-1,-1],"split_conditions":[5.053566E-1,3.0690203E1,8.800701E2,-1.9614002E-2,3.1013483E-2,4.7005698E-2,1.6249003E-1],"split_indices":[31,32,32,0,0,0,0],"split_type":[0,0,0,0,0,0,0],"sum_hessian":[4.828E3,3.601E3,1.227E3,3.418E3,1.83E2,1.198E3,2.9E1],"tree_param":{"num_deleted":"0","num_feature":"1058","num_nodes":"7","size_leaf_vector":"1"}},{"base_weights":[7.380523E-4,-1.8697575E-1,3.7142813E-1,-8.137095E-3,-2.2950819E-2,2.6652975E-2,7.0720576E-2],"categories":[],"categories_nodes":[],"categories_segments":[],"categories_sizes":[],"default_left":[0,0,0,0,0,0,0],"id":9,"left_children":[1,3,5,-1,-1,-1,-1],"loss_changes":[3.363669E2,1.435762E1,5.6671112E1,0E0,0E0,0E0,0E0],"parents":[2147483647,0,0,1,1,2,2],"right_children":[2,4,6,-1,-1,-1,-1],"split_conditions":[3.877518E-1,-3.7086767E-1,1.2307418E2,-8.137095E-3,-2.2950819E-2,2.6652975E-2,7.0720576E-2],"split_indices":[31,28,32,0,0,0,0],"split_type":[0,0,0,0,0,0,0],"sum_hessian":[4.828E3,3.206E3,1.622E3,9.23E2,2.283E3,1.24E3,3.82E2],"tree_param":{"num_deleted":"0","num_feature":"1058","num_nodes":"7","size_leaf_vector":"1"}},{"base_weights":[7.054167E-4,-1.395566E-1,4.1168284E-1,-1.769085E-2,1.0941974E-2,3.7925303E-2,1.3018933E-1],"categories":[],"categories_nodes":[],"categories_segments":[],"categories_sizes":[],"default_left":[0,0,0,0,0,0,0],"id":10,"left_children":[1,3,5,-1,-1,-1,-1],"loss_changes":[2.7865305E2,3.3574318E1,3.4028076E1,0E0,0E0,0E0,0E0],"parents":[2147483647,0,0,1,1,2,2],"right_children":[2,4,6,-1,-1,-1,-1],"split_conditions":[5.053566E-1,7.7534122E0,6.7938867E0,-1.769085E-2,1.0941974E-2,3.7925303E-2,1.3018933E-1],"split_indices":[31,32,31,0,0,0,0],"split_type":[0,0,0,0,0,0,0],"sum_hessian":[4.828E3,3.601E3,1.227E3,3.132E3,4.69E2,1.188E3,3.9E1],"tree_param":{"num_deleted":"0","num_feature":"1058","num_nodes":"7","size_leaf_vector":"1"}},{"base_weights":[7.350942E-4,-1.5734194E-1,2.9669383E-1,-4.8970818E-3,-1.8761035E-2,2.1038763E-2,6.0879584E-2],"categories":[],"categories_nodes":[],"categories_segments":[],"categories_sizes":[],"default_left":[0,0,0,0,0,0,0],"id":11,"left_children":[1,3,5,-1,-1,-1,-1],"loss_changes":[2.2615492E2,1.0308418E1,4.4949615E1,0E0,0E0,0E0,0E0],"parents":[2147483647,0,0,1,1,2,2],"right_children":[2,4,6,-1,-1,-1,-1],"split_conditions":[3.7351155E-1,4.214735E-2,1.4225903E0,-4.8970818E-3,-1.8761035E-2,2.1038763E-2,6.0879584E-2],"split_indices":[31,291,31,0,0,0,0],"split_type":[0,0,0,0,0,0,0],"sum_hessian":[4.828E3,3.148E3,1.68E3,6.89E2,2.459E3,1.32E3,3.6E2],"tree_param":{"num_deleted":"0","num_feature":"1058","num_nodes":"7","size_leaf_vector":"1"}},{"base_weights":[6.977646E-4,-1.1345155E-1,3.4182543E-1,-1.33726215E-2,2.4884382E-2,3.2191E-2,1.6092293E-1],"categories":[],"categories_nodes":[],"categories_segments":[],"categories_sizes":[],"default_left":[0,0,0,0,0,0,0],"id":12,"left_children":[1,3,5,-1,-1,-1,-1],"loss_changes":[1.88233E2,2.6704926E1,2.9037872E1,0E0,0E0,0E0,0E0],"parents":[2147483647,0,0,1,1,2,2],"right_children":[2,4,6,-1,-1,-1,-1],"split_conditions":[5.1859534E-1,3.0690203E1,1.6221248E3,-1.33726215E-2,2.4884382E-2,3.2191E-2,1.6092293E-1],"split_indices":[31,32,32,0,0,0,0],"split_type":[0,0,0,0,0,0,0],"sum_hessian":[4.828E3,3.619E3,1.209E3,3.429E3,1.9E2,1.194E3,1.5E1],"tree_param":{"num_deleted":"0","num_feature":"1058","num_nodes":"7","size_leaf_vector":"1"}},{"base_weights":[7.550449E-4,-9.998097E-2,3.1480238E-1,-1.4335962E-2,4.8211883E-3,2.9596696E-2,1.4751269E-1],"categories":[],"categories_nodes":[],"categories_segments":[],"categories_sizes":[],"default_left":[0,0,0,0,0,0,0],"id":13,"left_children":[1,3,5,-1,-1,-1,-1],"loss_changes":[1.5292737E2,2.3548698E1,2.4348228E1,0E0,0E0,0E0,0E0],"parents":[2147483647,0,0,1,1,2,2],"right_children":[2,4,6,-1,-1,-1,-1],"split_conditions":[5.4068655E-1,3.0915406E-1,1.6221248E3,-1.4335962E-2,4.8211883E-3,2.9596696E-2,1.4751269E-1],"split_indices":[31,31,32,0,0,0,0],"split_type":[0,0,0,0,0,0,0],"sum_hessian":[4.828E3,3.657E3,1.171E3,2.829E3,8.28E2,1.156E3,1.5E1],"tree_param":{"num_deleted":"0","num_feature":"1058","num_nodes":"7","size_leaf_vector":"1"}},{"base_weights":[7.8361714E-4,-1.19741E-1,2.1547975E-1,-1.4222424E-2,-2.4320611E-3,1.4079364E-2,4.759804E-2],"categories":[],"categories_nodes":[],"categories_segments":[],"categories_sizes":[],"default_left":[0,0,0,0,0,0,0],"id":14,"left_children":[1,3,5,-1,-1,-1,-1],"loss_changes":[1.25085175E2,6.631653E0,3.3613106E1,0E0,0E0,0E0,0E0],"parents":[2147483647,0,0,1,1,2,2],"right_children":[2,4,6,-1,-1,-1,-1],"split_conditions":[3.6049506E-1,1.6812554E-1,1.2307418E2,-1.4222424E-2,-2.4320611E-3,1.4079364E-2,4.759804E-2],"split_indices":[31,739,32,0,0,0,0],"split_type":[0,0,0,0,0,0,0],"sum_hessian":[4.828E3,3.093E3,1.735E3,2.502E3,5.91E2,1.352E3,3.83E2],"tree_param":{"num_deleted":"0","num_feature":"1058","num_nodes":"7","size_leaf_vector":"1"}},{"base_weights":[7.332217E-4,-7.964193E-2,2.681927E-1,-1.0128765E-2,1.5188162E-2,2.2534689E-2,7.019402E-2],"categories":[],"categories_nodes":[],"categories_segments":[],"categories_sizes":[],"default_left":[0,0,0,0,0,0,0],"id":15,"left_children":[1,3,5,-1,-1,-1,-1],"loss_changes":[1.0391655E2,1.8673872E1,2.0284088E1,0E0,0E0,0E0,0E0],"parents":[2147483647,0,0,1,1,2,2],"right_children":[2,4,6,-1,-1,-1,-1],"split_conditions":[5.754189E-1,2.240182E1,3.6780448E0,-1.0128765E-2,1.5188162E-2,2.2534689E-2,7.019402E-2],"split_indices":[31,32,31,0,0,0,0],"split_type":[0,0,0,0,0,0,0],"sum_hessian":[4.828E3,3.714E3,1.114E3,3.398E3,3.16E2,1.018E3,9.6E1],"tree_param":{"num_deleted":"0","num_feature":"1058","num_nodes":"7","size_leaf_vector":"1"}},{"base_weights":[7.2061457E-4,-7.1411185E-2,2.4413899E-1,4.432029E-3,-1.1226136E-2,2.2678979E-2,1.2540396E-1],"categories":[],"categories_nodes":[],"categories_segments":[],"categories_sizes":[],"default_left":[0,0,0,0,0,0,0],"id":16,"left_children":[1,3,5,-1,-1,-1,-1],"loss_changes":[8.4875984E1,1.764434E1,1.8507454E1,0E0,0E0,0E0,0E0],"parents":[2147483647,0,0,1,1,2,2],"right_children":[2,4,6,-1,-1,-1,-1],"split_conditions":[3.0086662E1,-4.9716473E-2,1.6221248E3,4.432029E-3,-1.1226136E-2,2.2678979E-2,1.2540396E-1],"split_indices":[32,710,32,0,0,0,0],"split_type":[0,0,0,0,0,0,0],"sum_hessian":[4.828E3,3.726E3,1.102E3,9.72E2,2.754E3,1.087E3,1.5E1],"tree_param":{"num_deleted":"0","num_feature":"1058","num_nodes":"7","size_leaf_vector":"1"}},{"base_weights":[7.362909E-4,-9.069856E-2,1.6361322E-1,4.0180734E-3,-1.0258885E-2,1.0595574E-2,3.8113713E-2],"categories":[],"categories_nodes":[],"categories_segments":[],"categories_sizes":[],"default_left":[0,0,0,0,0,0,0],"id":17,"left_children":[1,3,5,-1,-1,-1,-1],"loss_changes":[7.199081E1,4.8303375E0,2.167664E1,0E0,0E0,0E0,0E0],"parents":[2147483647,0,0,1,1,2,2],"right_children":[2,4,6,-1,-1,-1,-1],"split_conditions":[3.6049506E-1,1.18313424E-1,1.4225903E0,4.0180734E-3,-1.0258885E-2,1.0595574E-2,3.8113713E-2],"split_indices":[31,624,31,0,0,0,0],"split_type":[0,0,0,0,0,0,0],"sum_hessian":[4.828E3,3.093E3,1.735E3,2.57E2,2.836E3,1.375E3,3.6E2],"tree_param":{"num_deleted":"0","num_feature":"1058","num_nodes":"7","size_leaf_vector":"1"}},{"base_weights":[6.8903755E-4,-6.0325652E-2,2.0372353E-1,1.4036032E-3,-1.0349989E-2,1.8823888E-2,1.117775E-1],"categories":[],"categories_nodes":[],"categories_segments":[],"categories_sizes":[],"default_left":[0,0,0,0,0,0,0],"id":18,"left_children":[1,3,5,-1,-1,-1,-1],"loss_changes":[5.988372E1,1.1937821E1,1.5178539E1,0E0,0E0,0E0,0E0],"parents":[2147483647,0,0,1,1,2,2],"right_children":[2,4,6,-1,-1,-1,-1],"split_conditions":[5.754189E-1,-3.7086767E-1,1.6221248E3,1.4036032E-3,-1.0349989E-2,1.8823888E-2,1.117775E-1],"split_indices":[31,28,32,0,0,0,0],"split_type":[0,0,0,0,0,0,0],"sum_hessian":[4.828E3,3.714E3,1.114E3,1.365E3,2.349E3,1.099E3,1.5E1],"tree_param":{"num_deleted":"0","num_feature":"1058","num_nodes":"7","size_leaf_vector":"1"}},{"base_weights":[6.9568533E-4,-4.583192E-2,2.2514683E-1,-8.398233E-3,3.940975E-3,2.0042688E-2,8.2281046E-2],"categories":[],"categories_nodes":[],"categories_segments":[],"categories_sizes":[],"default_left":[0,0,0,0,0,0,0],"id":19,"left_children":[1,3,5,-1,-1,-1,-1],"loss_changes":[5.048193E1,1.3030952E1,1.1767853E1,0E0,0E0,0E0,0E0],"parents":[2147483647,0,0,1,1,2,2],"right_children":[2,4,6,-1,-1,-1,-1],"split_conditions":[5.153293E1,3.0171004E-1,8.800701E2,-8.398233E-3,3.940975E-3,2.0042688E-2,8.2281046E-2],"split_indices":[32,31,32,0,0,0,0],"split_type":[0,0,0,0,0,0,0],"sum_hessian":[4.828E3,4.001E3,8.27E2,2.764E3,1.237E3,7.98E2,2.9E1],"tree_param":{"num_deleted":"0","num_feature":"1058","num_nodes":"7","size_leaf_vector":"1"}},{"base_weights":[6.8689784E-4,-3.6396433E-2,2.331656E-1,-6.759893E-3,5.96335E-3,2.1207087E-2,9.560594E-2],"categories":[],"categories_nodes":[],"categories_segments":[],"categories_sizes":[],"default_left":[0,0,0,0,0,0,0],"id":20,"left_children":[1,3,5,-1,-1,-1,-1],"loss_changes":[4.167392E1,1.2503976E1,9.532497E0,0E0,0E0,0E0,0E0],"parents":[2147483647,0,0,1,1,2,2],"right_children":[2,4,6,-1,-1,-1,-1],"split_conditions":[7.150329E1,2.629025E-1,1.6221248E3,-6.759893E-3,5.96335E-3,2.1207087E-2,9.560594E-2],"split_indices":[32,628,32,0,0,0,0],"split_type":[0,0,0,0,0,0,0],"sum_hessian":[4.828E3,4.166E3,6.62E2,3.145E3,1.021E3,6.47E2,1.5E1],"tree_param":{"num_deleted":"0","num_feature":"1058","num_nodes":"7","size_leaf_vector":"1"}},{"base_weights":[6.9025456E-4,-4.5905452E-2,1.5574323E-1,-5.801738E-3,1.2644823E-2,1.3213475E-2,5.5794235E-2],"categories":[],"categories_nodes":[],"categories_segments":[],"categories_sizes":[],"default_left":[0,0,0,0,0,0,0],"id":21,"left_children":[1,3,5,-1,-1,-1,-1],"loss_changes":[3.4924473E1,7.7813754E0,1.038509E1,0E0,0E0,0E0,0E0],"parents":[2147483647,0,0,1,1,2,2],"right_children":[2,4,6,-1,-1,-1,-1],"split_conditions":[5.754189E-1,3.0690203E1,5.152609E0,-5.801738E-3,1.2644823E-2,1.3213475E-2,5.5794235E-2],"split_indices":[31,32,31,0,0,0,0],"split_type":[0,0,0,0,0,0,0],"sum_hessian":[4.828E3,3.714E3,1.114E3,3.472E3,2.42E2,1.056E3,5.8E1],"tree_param":{"num_deleted":"0","num_feature":"1058","num_nodes":"7","size_leaf_vector":"1"}},{"base_weights":[6.683247E-4,-5.7498146E-2,1.0428247E-1,-6.3232305E-3,1.3837057E-2,-2.0116106E-2,1.2914618E-2],"categories":[],"categories_nodes":[],"categories_segments":[],"categories_sizes":[],"default_left":[0,0,0,0,0,0,0],"id":22,"left_children":[1,3,5,-1,-1,-1,-1],"loss_changes":[2.9133795E1,3.5034971E0,1.32771015E1,0E0,0E0,0E0,0E0],"parents":[2147483647,0,0,1,1,2,2],"right_children":[2,4,6,-1,-1,-1,-1],"split_conditions":[3.6049506E-1,-5.455222E-1,2.1128337E0,-6.3232305E-3,1.3837057E-2,-2.0116106E-2,1.2914618E-2],"split_indices":[31,1021,32,0,0,0,0],"split_type":[0,0,0,0,0,0,0],"sum_hessian":[4.828E3,3.093E3,1.735E3,3.007E3,8.6E1,1.29E2,1.606E3],"tree_param":{"num_deleted":"0","num_feature":"1058","num_nodes":"7","size_leaf_vector":"1"}},{"base_weights":[6.016764E-4,-2.3991497E-2,2.1617335E-1,8.943988E-3,-4.826903E-3,1.9221138E-2,8.191305E-2],"categories":[],"categories_nodes":[],"categories_segments":[],"categories_sizes":[],"default_left":[0,0,0,0,0,0,0],"id":23,"left_children":[1,3,5,-1,-1,-1,-1],"loss_changes":[2.5627546E1,1.1961837E1,6.6794434E0,0E0,0E0,0E0,0E0],"parents":[2147483647,0,0,1,1,2,2],"right_children":[2,4,6,-1,-1,-1,-1],"split_conditions":[1.1821766E0,1.1809974E0,1.6221248E3,8.943988E-3,-4.826903E-3,1.9221138E-2,8.191305E-2],"split_indices":[31,916,32,0,0,0,0],"split_type":[0,0,0,0,0,0,0],"sum_hessian":[4.828E3,4.336E3,4.92E2,7.63E2,3.573E3,4.77E2,1.5E1],"tree_param":{"num_deleted":"0","num_feature":"1058","num_nodes":"7","size_leaf_vector":"1"}},{"base_weights":[6.06863E-4,-2.6252074E-2,1.6898745E-1,-5.5607925E-3,3.1866287E-3,1.5209386E-2,7.508696E-2],"categories":[],"categories_nodes":[],"categories_segments":[],"categories_sizes":[],"default_left":[0,0,0,0,0,0,0],"id":24,"left_children":[1,3,5,-1,-1,-1,-1],"loss_changes":[2.186162E1,7.118106E0,6.194399E0,0E0,0E0,0E0,0E0],"parents":[2147483647,0,0,1,1,2,2],"right_children":[2,4,6,-1,-1,-1,-1],"split_conditions":[7.150329E1,3.0171004E-1,1.6221248E3,-5.5607925E-3,3.1866287E-3,1.5209386E-2,7.508696E-2],"split_indices":[32,31,32,0,0,0,0],"split_type":[0,0,0,0,0,0,0],"sum_hessian":[4.828E3,4.166E3,6.62E2,2.768E3,1.398E3,6.47E2,1.5E1],"tree_param":{"num_deleted":"0","num_feature":"1058","num_nodes":"7","size_leaf_vector":"1"}},{"base_weights":[6.007724E-4,-2.0016588E-2,1.8132183E-1,7.898917E-3,-4.1207406E-3,3.2920998E-2,1.0092609E-2],"categories":[],"categories_nodes":[],"categories_segments":[],"categories_sizes":[],"default_left":[0,0,0,0,0,0,0],"id":25,"left_children":[1,3,5,-1,-1,-1,-1],"loss_changes":[1.8011152E1,9.113043E0,5.7856617E0,0E0,0E0,0E0,0E0],"parents":[2147483647,0,0,1,1,2,2],"right_children":[2,4,6,-1,-1,-1,-1],"split_conditions":[1.1821766E0,1.1809974E0,2.411975E-5,7.898917E-3,-4.1207406E-3,3.2920998E-2,1.0092609E-2],"split_indices":[31,916,12,0,0,0,0],"split_type":[0,0,0,0,0,0,0],"sum_hessian":[4.828E3,4.336E3,4.92E2,7.63E2,3.573E3,1.7E2,3.22E2],"tree_param":{"num_deleted":"0","num_feature":"1058","num_nodes":"7","size_leaf_vector":"1"}},{"base_weights":[5.697501E-4,-4.698022E-2,6.783239E-2,-5.007381E-3,3.373724E-2,-1.2200436E-2,9.814563E-3],"categories":[],"categories_nodes":[],"categories_segments":[],"categories_sizes":[],"default_left":[0,0,0,0,0,0,0],"id":26,"left_children":[1,3,5,-1,-1,-1,-1],"loss_changes":[1.5460724E1,3.4180102E0,1.1556565E1,0E0,0E0,0E0,0E0],"parents":[2147483647,0,0,1,1,2,2],"right_children":[2,4,6,-1,-1,-1,-1],"split_conditions":[3.0915406E-1,-5.45489E-1,2.1128337E0,-5.007381E-3,3.373724E-2,-1.2200436E-2,9.814563E-3],"split_indices":[31,1021,32,0,0,0,0],"split_type":[0,0,0,0,0,0,0],"sum_hessian":[4.828E3,2.829E3,1.999E3,2.809E3,2E1,2.74E2,1.725E3],"tree_param":{"num_deleted":"0","num_feature":"1058","num_nodes":"7","size_leaf_vector":"1"}},{"base_weights":[5.291235E-4,-1.5129407E-2,1.78952E-1,-7.3889196E-3,9.7161037E-4,4.372024E-2,1.3080822E-2],"categories":[],"categories_nodes":[],"categories_segments":[],"categories_sizes":[],"default_left":[0,0,0,0,0,0,0],"id":27,"left_children":[1,3,5,-1,-1,-1,-1],"loss_changes":[1.3505164E1,6.4900236E0,4.6773596E0,0E0,0E0,0E0,0E0],"parents":[2147483647,0,0,1,1,2,2],"right_children":[2,4,6,-1,-1,-1,-1],"split_conditions":[1.2307418E2,1.0898432E-2,1.71825E-5,-7.3889196E-3,9.7161037E-4,4.372024E-2,1.3080822E-2],"split_indices":[32,32,14,0,0,0,0],"split_type":[0,0,0,0,0,0,0],"sum_hessian":[4.828E3,4.441E3,3.87E2,1.318E3,3.123E3,5.7E1,3.3E2],"tree_param":{"num_deleted":"0","num_feature":"1058","num_nodes":"7","size_leaf_vector":"1"}},{"base_weights":[5.07507E-4,-1.8804587E-2,1.2157608E-1,1.7901476E-2,-2.5608575E-3,9.130632E-3,3.632991E-2],"categories":[],"categories_nodes":[],"categories_segments":[],"categories_sizes":[],"default_left":[0,0,0,0,0,0,0],"id":28,"left_children":[1,3,5,-1,-1,-1,-1],"loss_changes":[1.1302159E1,5.62506E0,4.766224E0,0E0,0E0,0E0,0E0],"parents":[2147483647,0,0,1,1,2,2],"right_children":[2,4,6,-1,-1,-1,-1],"split_conditions":[7.150329E1,4.7197485E-1,5.201464E2,1.7901476E-2,-2.5608575E-3,9.130632E-3,3.632991E-2],"split_indices":[32,178,32,0,0,0,0],"split_type":[0,0,0,0,0,0,0],"sum_hessian":[4.828E3,4.166E3,6.62E2,1.36E2,4.03E3,5.92E2,7E1],"tree_param":{"num_deleted":"0","num_feature":"1058","num_nodes":"7","size_leaf_vector":"1"}},{"base_weights":[4.9451477E-4,-3.785949E-2,5.474879E-2,4.6871554E-2,-3.9972602E-3,-1.0364605E-2,8.004458E-3],"categories":[],"categories_nodes":[],"categories_segments":[],"categories_sizes":[],"default_left":[0,0,0,0,0,0,0],"id":29,"left_children":[1,3,5,-1,-1,-1,-1],"loss_changes":[1.0058894E1,3.0877247E0,8.046347E0,0E0,0E0,0E0,0E0],"parents":[2147483647,0,0,1,1,2,2],"right_children":[2,4,6,-1,-1,-1,-1],"split_conditions":[3.0915406E-1,-4.9938938E-1,2.1128337E0,4.6871554E-2,-3.9972602E-3,-1.0364605E-2,8.004458E-3],"split_indices":[31,926,32,0,0,0,0],"split_type":[0,0,0,0,0,0,0],"sum_hessian":[4.828E3,2.829E3,1.999E3,9E0,2.82E3,2.74E2,1.725E3],"tree_param":{"num_deleted":"0","num_feature":"1058","num_nodes":"7","size_leaf_vector":"1"}},{"base_weights":[4.7022803E-4,-1.3494336E-2,1.2831931E-1,-2.5438655E-3,1.0754515E-2,2.5797496E-2,5.57419E-3],"categories":[],"categories_nodes":[],"categories_segments":[],"categories_sizes":[],"default_left":[0,0,0,0,0,0,0],"id":30,"left_children":[1,3,5,-1,-1,-1,-1],"loss_changes":[8.630253E0,6.308716E0,4.4360538E0,0E0,0E0,0E0,0E0],"parents":[2147483647,0,0,1,1,2,2],"right_children":[2,4,6,-1,-1,-1,-1],"split_conditions":[1.2094283E0,-2.2180954E-2,3.5541666E-6,-2.5438655E-3,1.0754515E-2,2.5797496E-2,5.57419E-3],"split_indices":[31,74,2,0,0,0,0],"split_type":[0,0,0,0,0,0,0],"sum_hessian":[4.828E3,4.355E3,4.73E2,3.966E3,3.89E2,1.67E2,3.06E2],"tree_param":{"num_deleted":"0","num_feature":"1058","num_nodes":"7","size_leaf_vector":"1"}},{"base_weights":[4.477763E-4,-7.6077236E-3,1.900519E-1,-2.9983362E-3,4.0612007E-3,-3.4788896E-3,2.6119778E-2],"categories":[],"categories_nodes":[],"categories_segments":[],"categories_sizes":[],"default_left":[0,0,0,0,0,0,0],"id":31,"left_children":[1,3,5,-1,-1,-1,-1],"loss_changes":[7.3829947E0,5.0067315E0,3.1785707E0,0E0,0E0,0E0,0E0],"parents":[2147483647,0,0,1,1,2,2],"right_children":[2,4,6,-1,-1,-1,-1],"split_conditions":[2.2254553E2,-2.225564E-2,2.1749102E-1,-2.9983362E-3,4.0612007E-3,-3.4788896E-3,2.6119778E-2],"split_indices":[32,74,819,0,0,0,0],"split_type":[0,0,0,0,0,0,0],"sum_hessian":[4.828E3,4.634E3,1.94E2,3.166E3,1.468E3,4.7E1,1.47E2],"tree_param":{"num_deleted":"0","num_feature":"1058","num_nodes":"7","size_leaf_vector":"1"}},{"base_weights":[4.177174E-4,-3.1529434E-2,4.34372E-2,-3.4340129E-3,3.0913323E-2,-8.774497E-3,6.6913986E-3],"categories":[],"categories_nodes":[],"categories_segments":[],"categories_sizes":[],"default_left":[0,0,0,0,0,0,0],"id":32,"left_children":[1,3,5,-1,-1,-1,-1],"loss_changes":[6.643593E0,2.6879482E0,6.361869E0,0E0,0E0,0E0,0E0],"parents":[2147483647,0,0,1,1,2,2],"right_children":[2,4,6,-1,-1,-1,-1],"split_conditions":[3.0171004E-1,-5.45489E-1,2.1128337E0,-3.4340129E-3,3.0913323E-2,-8.774497E-3,6.6913986E-3],"split_indices":[31,1021,32,0,0,0,0],"split_type":[0,0,0,0,0,0,0],"sum_hessian":[4.828E3,2.771E3,2.057E3,2.751E3,2E1,3.11E2,1.746E3],"tree_param":{"num_deleted":"0","num_feature":"1058","num_nodes":"7","size_leaf_vector":"1"}},{"base_weights":[3.9170223E-4,-4.7357967E-3,2.4561931E-1,-2.3004445E-3,4.9622282E-3,4.3224193E-2,-8.808345E-3],"categories":[],"categories_nodes":[],"categories_segments":[],"categories_sizes":[],"default_left":[0,0,0,0,0,0,0],"id":33,"left_children":[1,3,5,-1,-1,-1,-1],"loss_changes":[6.07801E0,4.705509E0,6.279591E0,0E0,0E0,0E0,0E0],"parents":[2147483647,0,0,1,1,2,2],"right_children":[2,4,6,-1,-1,-1,-1],"split_conditions":[3.6780448E0,6.79122E0,2.1009485E-1,-2.3004445E-3,4.9622282E-3,4.3224193E-2,-8.808345E-3],"split_indices":[31,787,543,0,0,0,0],"split_type":[0,0,0,0,0,0,0],"sum_hessian":[4.828E3,4.732E3,9.6E1,3.543E3,1.189E3,6.1E1,3.5E1],"tree_param":{"num_deleted":"0","num_feature":"1058","num_nodes":"7","size_leaf_vector":"1"}},{"base_weights":[3.7556828E-4,-2.7079445E-3,3.5216287E-1,-5.2370257E-3,1.617865E-3,6.3686565E-2,-1.3358504E-2],"categories":[],"categories_nodes":[],"categories_segments":[],"categories_sizes":[],"default_left":[0,0,0,0,0,0,0],"id":34,"left_children":[1,3,5,-1,-1,-1,-1],"loss_changes":[5.243243E0,4.4972076E0,6.0635643E0,0E0,0E0,0E0,0E0],"parents":[2147483647,0,0,1,1,2,2],"right_children":[2,4,6,-1,-1,-1,-1],"split_conditions":[6.7938867E0,1.0898432E-2,2.10088E-1,-5.2370257E-3,1.617865E-3,6.3686565E-2,-1.3358504E-2],"split_indices":[31,32,543,0,0,0,0],"split_type":[0,0,0,0,0,0,0],"sum_hessian":[4.828E3,4.789E3,3.9E1,1.318E3,3.471E3,2.4E1,1.5E1],"tree_param":{"num_deleted":"0","num_feature":"1058","num_nodes":"7","size_leaf_vector":"1"}},{"base_weights":[3.67007E-4,-2.5901752E-2,3.5740033E-2,4.3421615E-2,-2.7870543E-3,8.644466E-3,-1.8792391E-3],"categories":[],"categories_nodes":[],"categories_segments":[],"categories_sizes":[],"default_left":[0,0,0,0,0,0,0],"id":35,"left_children":[1,3,5,-1,-1,-1,-1],"loss_changes":[4.4917684E0,2.5492065E0,5.7008677E0,0E0,0E0,0E0,0E0],"parents":[2147483647,0,0,1,1,2,2],"right_children":[2,4,6,-1,-1,-1,-1],"split_conditions":[3.0171004E-1,-4.9938938E-1,4.025147E-1,4.3421615E-2,-2.7870543E-3,8.644466E-3,-1.8792391E-3],"split_indices":[31,926,396,0,0,0,0],"split_type":[0,0,0,0,0,0,0],"sum_hessian":[4.828E3,2.771E3,2.057E3,9E0,2.762E3,1.065E3,9.92E2],"tree_param":{"num_deleted":"0","num_feature":"1058","num_nodes":"7","size_leaf_vector":"1"}},{"base_weights":[3.597366E-4,-1.4927512E-3,4.9594316E-1,9.565611E-3,-9.784405E-4,7.986941E-2,8.545782E-3],"categories":[],"categories_nodes":[],"categories_segments":[],"categories_sizes":[],"default_left":[0,0,0,0,0,0,0],"id":36,"left_children":[1,3,5,-1,-1,-1,-1],"loss_changes":[4.43738E0,3.8822148E0,2.0321827E0,0E0,0E0,0E0,0E0],"parents":[2147483647,0,0,1,1,2,2],"right_children":[2,4,6,-1,-1,-1,-1],"split_conditions":[1.6221248E3,1.180951E0,2.1302168E-1,9.565611E-3,-9.784405E-4,7.986941E-2,8.545782E-3],"split_indices":[32,916,239,0,0,0,0],"split_type":[0,0,0,0,0,0,0],"sum_hessian":[4.828E3,4.813E3,1.5E1,3.76E2,4.437E3,7E0,8E0],"tree_param":{"num_deleted":"0","num_feature":"1058","num_nodes":"7","size_leaf_vector":"1"}},{"base_weights":[3.840096E-4,-5.2036005E-3,1.5002258E-1,-1.0499649E-3,1.4298533E-2,2.2092814E-2,-1.853328E-2],"categories":[],"categories_nodes":[],"categories_segments":[],"categories_sizes":[],"default_left":[0,0,0,0,0,0,0],"id":37,"left_children":[1,3,5,-1,-1,-1,-1],"loss_changes":[4.0416474E0,3.6617448E0,4.2603045E0,0E0,0E0,0E0,0E0],"parents":[2147483647,0,0,1,1,2,2],"right_children":[2,4,6,-1,-1,-1,-1],"split_conditions":[2.3192008E0,-8.767007E-1,-2.8111225E-1,-1.0499649E-3,1.4298533E-2,2.2092814E-2,-1.853328E-2],"split_indices":[31,418,163,0,0,0,0],"split_type":[0,0,0,0,0,0,0],"sum_hessian":[4.828E3,4.657E3,1.71E2,4.499E3,1.58E2,1.42E2,2.9E1],"tree_param":{"num_deleted":"0","num_feature":"1058","num_nodes":"7","size_leaf_vector":"1"}},{"base_weights":[3.5605044E-4,-1.3142241E-3,4.4718796E-1,-4.4063902E-3,1.4831078E-3,7.2732046E-2,7.056169E-3],"categories":[],"categories_nodes":[],"categories_segments":[],"categories_sizes":[],"default_left":[0,0,0,0,0,0,0],"id":38,"left_children":[1,3,5,-1,-1,-1,-1],"loss_changes":[3.6072931E0,3.3259952E0,1.7451315E0,0E0,0E0,0E0,0E0],"parents":[2147483647,0,0,1,1,2,2],"right_children":[2,4,6,-1,-1,-1,-1],"split_conditions":[1.6221248E3,1.0898432E-2,2.1302168E-1,-4.4063902E-3,1.4831078E-3,7.2732046E-2,7.056169E-3],"split_indices":[32,32,239,0,0,0,0],"split_type":[0,0,0,0,0,0,0],"sum_hessian":[4.828E3,4.813E3,1.5E1,1.318E3,3.495E3,7E0,8E0],"tree_param":{"num_deleted":"0","num_feature":"1058","num_nodes":"7","size_leaf_vector":"1"}},{"base_weights":[3.6818386E-4,8.785597E-2,-7.524513E-3,6.1598197E-3,6.0466737E-2,1.9086702E-2,-1.0653278E-3],"categories":[],"categories_nodes":[],"categories_segments":[],"categories_sizes":[],"default_left":[0,0,0,0,0,0,0],"id":39,"left_children":[1,3,5,-1,-1,-1,-1],"loss_changes":[3.3378592E0,5.3163877E0,2.758374E0,0E0,0E0,0E0,0E0],"parents":[2147483647,0,0,1,1,2,2],"right_children":[2,4,6,-1,-1,-1,-1],"split_conditions":[2.2653975E-1,1.5570264E-1,-4.8142695E-1,6.1598197E-3,6.0466737E-2,1.9086702E-2,-1.0653278E-3],"split_indices":[184,707,83,0,0,0,0],"split_type":[0,0,0,0,0,0,0],"sum_hessian":[4.828E3,3.97E2,4.431E3,3.81E2,1.6E1,6.6E1,4.365E3],"tree_param":{"num_deleted":"0","num_feature":"1058","num_nodes":"7","size_leaf_vector":"1"}},{"base_weights":[3.8393866E-4,-6.936857E-3,9.054957E-2,8.511985E-3,-1.4696169E-3,1.6055143E-2,-6.8584196E-3],"categories":[],"categories_nodes":[],"categories_segments":[],"categories_sizes":[],"default_left":[0,0,0,0,0,0,0],"id":40,"left_children":[1,3,5,-1,-1,-1,-1],"loss_changes":[3.1907508E0,3.1973732E0,4.07673E0,0E0,0E0,0E0,0E0],"parents":[2147483647,0,0,1,1,2,2],"right_children":[2,4,6,-1,-1,-1,-1],"split_conditions":[1.4225903E0,1.180951E0,6.245652E-2,8.511985E-3,-1.4696169E-3,1.6055143E-2,-6.8584196E-3],"split_indices":[31,916,697,0,0,0,0],"split_type":[0,0,0,0,0,0,0],"sum_hessian":[4.828E3,4.468E3,3.6E2,3.45E2,4.123E3,2.5E2,1.1E2],"tree_param":{"num_deleted":"0","num_feature":"1058","num_nodes":"7","size_leaf_vector":"1"}},{"base_weights":[3.5562913E-4,-1.1608688E-3,4.060438E-1,-5.732073E-4,1.2162118E-2,-4.625982E-3,5.906821E-2],"categories":[],"categories_nodes":[],"categories_segments":[],"categories_sizes":[],"default_left":[0,0,0,0,0,0,0],"id":41,"left_children":[1,3,5,-1,-1,-1,-1],"loss_changes":[2.9735675E0,2.7051277E0,1.585201E0,0E0,0E0,0E0,0E0],"parents":[2147483647,0,0,1,1,2,2],"right_children":[2,4,6,-1,-1,-1,-1],"split_conditions":[1.6221248E3,-8.767007E-1,1.4059077E-1,-5.732073E-4,1.2162118E-2,-4.625982E-3,5.906821E-2],"split_indices":[32,418,168,0,0,0,0],"split_type":[0,0,0,0,0,0,0],"sum_hessian":[4.828E3,4.813E3,1.5E1,4.643E3,1.7E2,5E0,1E1],"tree_param":{"num_deleted":"0","num_feature":"1058","num_nodes":"7","size_leaf_vector":"1"}},{"base_weights":[3.6106003E-4,-3.5869855E-2,1.6239388E-2,-1.9094655E-3,-1.3994067E-2,1.3335253E-3,5.8514655E-2],"categories":[],"categories_nodes":[],"categories_segments":[],"categories_sizes":[],"default_left":[0,0,0,0,0,0,0],"id":42,"left_children":[1,3,5,-1,-1,-1,-1],"loss_changes":[2.7809558E0,2.5635598E0,5.529578E0,0E0,0E0,0E0,0E0],"parents":[2147483647,0,0,1,1,2,2],"right_children":[2,4,6,-1,-1,-1,-1],"split_conditions":[1.3095533E0,7.2218314E-2,2.627023E-1,-1.9094655E-3,-1.3994067E-2,1.3335253E-3,5.8514655E-2],"split_indices":[32,636,102,0,0,0,0],"split_type":[0,0,0,0,0,0,0],"sum_hessian":[4.828E3,1.47E3,3.358E3,1.269E3,2.01E2,3.344E3,1.4E1],"tree_param":{"num_deleted":"0","num_feature":"1058","num_nodes":"7","size_leaf_vector":"1"}},{"base_weights":[3.5225548E-4,-1.6238308E-2,3.4232255E-2,-8.79083E-3,-5.6933105E-4,-6.3893646E-3,6.4700874E-3],"categories":[],"categories_nodes":[],"categories_segments":[],"categories_sizes":[],"default_left":[0,0,0,0,0,0,0],"id":43,"left_children":[1,3,5,-1,-1,-1,-1],"loss_changes":[2.717116E0,2.4509394E0,4.763131E0,0E0,0E0,0E0,0E0],"parents":[2147483647,0,0,1,1,2,2],"right_children":[2,4,6,-1,-1,-1,-1],"split_conditions":[-2.225564E-2,2.3799884E-1,1.0898432E-2,-8.79083E-3,-5.6933105E-4,-6.3893646E-3,6.4700874E-3],"split_indices":[74,38,32,0,0,0,0],"split_type":[0,0,0,0,0,0,0],"sum_hessian":[4.828E3,3.242E3,1.586E3,4.13E2,2.829E3,3.75E2,1.211E3],"tree_param":{"num_deleted":"0","num_feature":"1058","num_nodes":"7","size_leaf_vector":"1"}},{"base_weights":[3.1126832E-4,2.2612257E-2,-2.4197953E-2,-2.7477753E-3,5.250979E-3,2.1819502E-2,-2.8444699E-3],"categories":[],"categories_nodes":[],"categories_segments":[],"categories_sizes":[],"default_left":[0,0,0,0,0,0,0],"id":44,"left_children":[1,3,5,-1,-1,-1,-1],"loss_changes":[2.6421688E0,3.794673E0,2.3892844E0,0E0,0E0,0E0,0E0],"parents":[2147483647,0,0,1,1,2,2],"right_children":[2,4,6,-1,-1,-1,-1],"split_conditions":[-3.1906046E-2,1.0898432E-2,9.032573E-2,-2.7477753E-3,5.250979E-3,2.1819502E-2,-2.8444699E-3],"split_indices":[688,32,604,0,0,0,0],"split_type":[0,0,0,0,0,0,0],"sum_hessian":[4.828E3,2.528E3,2.3E3,9.45E2,1.583E3,3.7E1,2.263E3],"tree_param":{"num_deleted":"0","num_feature":"1058","num_nodes":"7","size_leaf_vector":"1"}},{"base_weights":[2.93487E-4,-1.0898907E-3,3.7037498E-1,-1.244666E-2,2.9290785E-4,6.2863715E-2,3.4579863E-3],"categories":[],"categories_nodes":[],"categories_segments":[],"categories_sizes":[],"default_left":[0,0,0,0,0,0,0],"id":45,"left_children":[1,3,5,-1,-1,-1,-1],"loss_changes":[2.474502E0,2.3890934E0,1.4958026E0,0E0,0E0,0E0,0E0],"parents":[2147483647,0,0,1,1,2,2],"right_children":[2,4,6,-1,-1,-1,-1],"split_conditions":[1.6221248E3,-2.8462386E-2,2.1302168E-1,-1.244666E-2,2.9290785E-4,6.2863715E-2,3.4579863E-3],"split_indices":[32,736,239,0,0,0,0],"split_type":[0,0,0,0,0,0,0],"sum_hessian":[4.828E3,4.813E3,1.5E1,1.49E2,4.664E3,7E0,8E0],"tree_param":{"num_deleted":"0","num_feature":"1058","num_nodes":"7","size_leaf_vector":"1"}},{"base_weights":[2.9777677E-4,9.4890215E-2,-4.8394995E-3,2.6819909E-2,-3.7068308E-3,-1.2035585E-3,6.2356666E-3],"categories":[],"categories_nodes":[],"categories_segments":[],"categories_sizes":[],"default_left":[0,0,0,0,0,0,0],"id":46,"left_children":[1,3,5,-1,-1,-1,-1],"loss_changes":[2.3489897E0,5.724351E0,2.219325E0,0E0,0E0,0E0,0E0],"parents":[2147483647,0,0,1,1,2,2],"right_children":[2,4,6,-1,-1,-1,-1],"split_conditions":[1.1809351E0,-2.0557612E-2,1.2094283E0,2.6819909E-2,-3.7068308E-3,-1.2035585E-3,6.2356666E-3],"split_indices":[916,85,31,0,0,0,0],"split_type":[0,0,0,0,0,0,0],"sum_hessian":[4.828E3,2.46E2,4.582E3,1.05E2,1.41E2,4.141E3,4.41E2],"tree_param":{"num_deleted":"0","num_feature":"1058","num_nodes":"7","size_leaf_vector":"1"}},{"base_weights":[2.8546996E-4,-1.3968937E-1,3.7572104E-3,3.7503138E-3,-2.2304727E-2,7.912269E-3,-5.3953263E-4],"categories":[],"categories_nodes":[],"categories_segments":[],"categories_sizes":[],"default_left":[0,0,0,0,0,0,0],"id":47,"left_children":[1,3,5,-1,-1,-1,-1],"loss_changes":[2.3492293E0,1.7532315E0,3.2549977E0,0E0,0E0,0E0,0E0],"parents":[2147483647,0,0,1,1,2,2],"right_children":[2,4,6,-1,-1,-1,-1],"split_conditions":[-3.6523545E-1,-4.8141137E-1,1.1721583E-1,3.7503138E-3,-2.2304727E-2,7.912269E-3,-5.3953263E-4],"split_indices":[487,83,169,0,0,0,0],"split_type":[0,0,0,0,0,0,0],"sum_hessian":[4.828E3,1.14E2,4.714E3,3.7E1,7.7E1,5.08E2,4.206E3],"tree_param":{"num_deleted":"0","num_feature":"1058","num_nodes":"7","size_leaf_vector":"1"}},{"base_weights":[2.4998185E-4,-1.333541E-2,3.294439E-2,-1.1921927E-2,-6.391639E-4,-2.7518084E-3,9.060957E-3],"categories":[],"categories_nodes":[],"categories_segments":[],"categories_sizes":[],"default_left":[0,0,0,0,0,0,0],"id":48,"left_children":[1,3,5,-1,-1,-1,-1],"loss_changes":[2.1470857E0,2.5085359E0,4.954936E0,0E0,0E0,0E0,0E0],"parents":[2147483647,0,0,1,1,2,2],"right_children":[2,4,6,-1,-1,-1,-1],"split_conditions":[-3.5394933E-2,1.0033074E-1,-2.6064795E-1,-1.1921927E-2,-6.391639E-4,-2.7518084E-3,9.060957E-3],"split_indices":[863,740,630,0,0,0,0],"split_type":[0,0,0,0,0,0,0],"sum_hessian":[4.828E3,3.412E3,1.416E3,2.07E2,3.205E3,6.92E2,7.24E2],"tree_param":{"num_deleted":"0","num_feature":"1058","num_nodes":"7","size_leaf_vector":"1"}},{"base_weights":[2.2110513E-4,-3.3420364E-3,1.223774E-1,1.6793093E-2,-6.1925646E-4,1.1373411E-3,4.0043563E-2],"categories":[],"categories_nodes":[],"categories_segments":[],"categories_sizes":[],"default_left":[0,0,0,0,0,0,0],"id":49,"left_children":[1,3,5,-1,-1,-1,-1],"loss_changes":[2.1039689E0,2.2962816E0,4.21492E0,0E0,0E0,0E0,0E0],"parents":[2147483647,0,0,1,1,2,2],"right_children":[2,4,6,-1,-1,-1,-1],"split_conditions":[-9.573381E-2,-1.0520075E-1,1.0327162E-1,1.6793093E-2,-6.1925646E-4,1.1373411E-3,4.0043563E-2],"split_indices":[162,117,913,0,0,0,0],"split_type":[0,0,0,0,0,0,0],"sum_hessian":[4.828E3,4.694E3,1.34E2,7.4E1,4.62E3,9.8E1,3.6E1],"tree_param":{"num_deleted":"0","num_feature":"1058","num_nodes":"7","size_leaf_vector":"1"}},{"base_weights":[2.3461579E-4,-2.3436605E-3,1.6837803E-1,2.0034997E-2,-4.883914E-4,-3.8329922E-4,4.6220046E-2],"categories":[],"categories_nodes":[],"categories_segments":[],"categories_sizes":[],"default_left":[0,0,0,0,0,0,0],"id":50,"left_children":[1,3,5,-1,-1,-1,-1],"loss_changes":[2.0955198E0,2.4543421E0,3.6990755E0,0E0,0E0,0E0,0E0],"parents":[2147483647,0,0,1,1,2,2],"right_children":[2,4,6,-1,-1,-1,-1],"split_conditions":[5.201464E2,-1.3331312E-1,2.162399E-1,2.0034997E-2,-4.883914E-4,-3.8329922E-4,4.6220046E-2],"split_indices":[32,1002,439,0,0,0,0],"split_type":[0,0,0,0,0,0,0],"sum_hessian":[4.828E3,4.758E3,7E1,5.6E1,4.702E3,4.6E1,2.4E1],"tree_param":{"num_deleted":"0","num_feature":"1058","num_nodes":"7","size_leaf_vector":"1"}},{"base_weights":[2.5175873E-4,-2.9822097E-3,1.2949447E-1,-6.265727E-4,1.2973309E-2,2.0076241E-2,-2.498328E-2],"categories":[],"categories_nodes":[],"categories_segments":[],"categories_sizes":[],"default_left":[0,0,0,0,0,0,0],"id":51,"left_children":[1,3,5,-1,-1,-1,-1],"loss_changes":[2.0203564E0,2.0575438E0,3.3404677E0,0E0,0E0,0E0,0E0],"parents":[2147483647,0,0,1,1,2,2],"right_children":[2,4,6,-1,-1,-1,-1],"split_conditions":[-1.2800522E-1,2.5218102E-1,9.252077E-2,-6.265727E-4,1.2973309E-2,2.0076241E-2,-2.498328E-2],"split_indices":[785,786,552,0,0,0,0],"split_type":[0,0,0,0,0,0,0],"sum_hessian":[4.828E3,4.713E3,1.15E2,4.602E3,1.11E2,9.8E1,1.7E1],"tree_param":{"num_deleted":"0","num_feature":"1058","num_nodes":"7","size_leaf_vector":"1"}},{"base_weights":[2.3119946E-4,-7.90633E-2,5.571038E-3,1.1539804E-2,-1.1230006E-2,6.6331453E-3,-5.4763467E-4],"categories":[],"categories_nodes":[],"categories_segments":[],"categories_sizes":[],"default_left":[0,0,0,0,0,0,0],"id":52,"left_children":[1,3,5,-1,-1,-1,-1],"loss_changes":[2.0468626E0,2.0101738E0,3.0411522E0,0E0,0E0,0E0,0E0],"parents":[2147483647,0,0,1,1,2,2],"right_children":[2,4,6,-1,-1,-1,-1],"split_conditions":[-1.7468654E-2,2.8612626E-1,-4.4393075E-1,1.1539804E-2,-1.1230006E-2,6.6331453E-3,-5.4763467E-4],"split_indices":[647,666,322,0,0,0,0],"split_type":[0,0,0,0,0,0,0],"sum_hessian":[4.828E3,3.02E2,4.526E3,4.3E1,2.59E2,6.94E2,3.832E3],"tree_param":{"num_deleted":"0","num_feature":"1058","num_nodes":"7","size_leaf_vector":"1"}},{"base_weights":[2.1205301E-4,-1.2893893E-1,3.4153664E-3,3.509472E-3,-2.0612055E-2,1.941947E-2,3.327624E-5],"categories":[],"categories_nodes":[],"categories_segments":[],"categories_sizes":[],"default_left":[0,0,0,0,0,0,0],"id":53,"left_children":[1,3,5,-1,-1,-1,-1],"loss_changes":[1.9999595E0,1.5029659E0,2.7738602E0,0E0,0E0,0E0,0E0],"parents":[2147483647,0,0,1,1,2,2],"right_children":[2,4,6,-1,-1,-1,-1],"split_conditions":[-3.6523545E-1,-4.8141137E-1,6.3360333E-1,3.509472E-3,-2.0612055E-2,1.941947E-2,3.327624E-5],"split_indices":[487,83,678,0,0,0,0],"split_type":[0,0,0,0,0,0,0],"sum_hessian":[4.828E3,1.14E2,4.714E3,3.7E1,7.7E1,7.2E1,4.642E3],"tree_param":{"num_deleted":"0","num_feature":"1058","num_nodes":"7","size_leaf_vector":"1"}},{"base_weights":[1.9230877E-4,-1.7033607E-3,2.1646543E-1,2.9859094E-2,-3.0864248E-4,6.512134E-2,-4.5788446E-3],"categories":[],"categories_nodes":[],"categories_segments":[],"categories_sizes":[],"default_left":[0,0,0,0,0,0,0],"id":54,"left_children":[1,3,5,-1,-1,-1,-1],"loss_changes":[1.9817309E0,1.9930078E0,4.8780556E0,0E0,0E0,0E0,0E0],"parents":[2147483647,0,0,1,1,2,2],"right_children":[2,4,6,-1,-1,-1,-1],"split_conditions":[2.627023E-1,4.8199025E-1,3.148015E2,2.9859094E-2,-3.0864248E-4,6.512134E-2,-4.5788446E-3],"split_indices":[102,602,33,0,0,0,0],"split_type":[0,0,0,0,0,0,0],"sum_hessian":[4.828E3,4.789E3,3.9E1,1.9E1,4.77E3,1.3E1,2.6E1],"tree_param":{"num_deleted":"0","num_feature":"1058","num_nodes":"7","size_leaf_vector":"1"}},{"base_weights":[2.2902449E-4,1.892785E-2,-2.0321308E-2,3.572454E-2,1.5125107E-3,-2.3971601E-4,-7.997634E-3],"categories":[],"categories_nodes":[],"categories_segments":[],"categories_sizes":[],"default_left":[0,0,0,0,0,0,0],"id":55,"left_children":[1,3,5,-1,-1,-1,-1],"loss_changes":[1.8575482E0,3.2400093E0,2.4619434E0,0E0,0E0,0E0,0E0],"parents":[2147483647,0,0,1,1,2,2],"right_children":[2,4,6,-1,-1,-1,-1],"split_conditions":[-3.1906046E-2,4.7194153E-1,4.1037138E-6,3.572454E-2,1.5125107E-3,-2.3971601E-4,-7.997634E-3],"split_indices":[688,178,17,0,0,0,0],"split_type":[0,0,0,0,0,0,0],"sum_hessian":[4.828E3,2.528E3,2.3E3,2.5E1,2.503E3,1.771E3,5.29E2],"tree_param":{"num_deleted":"0","num_feature":"1058","num_nodes":"7","size_leaf_vector":"1"}},{"base_weights":[2.241272E-4,6.538742E-2,-5.6545353E-3,4.229467E-3,5.2177966E-2,-9.137546E-4,1.3411323E-2],"categories":[],"categories_nodes":[],"categories_segments":[],"categories_sizes":[],"default_left":[0,0,0,0,0,0,0],"id":56,"left_children":[1,3,5,-1,-1,-1,-1],"loss_changes":[1.8517348E0,4.149535E0,2.1622033E0,0E0,0E0,0E0,0E0],"parents":[2147483647,0,0,1,1,2,2],"right_children":[2,4,6,-1,-1,-1,-1],"split_conditions":[2.2653975E-1,1.5570264E-1,2.5218102E-1,4.229467E-3,5.2177966E-2,-9.137546E-4,1.3411323E-2],"split_indices":[184,707,786,0,0,0,0],"split_type":[0,0,0,0,0,0,0],"sum_hessian":[4.828E3,3.97E2,4.431E3,3.81E2,1.6E1,4.326E3,1.05E2],"tree_param":{"num_deleted":"0","num_feature":"1058","num_nodes":"7","size_leaf_vector":"1"}},{"base_weights":[2.4450367E-4,-9.469981E-4,3.1899667E-1,-1.1616263E-2,2.8060804E-4,-6.8223416E-3,4.836713E-2],"categories":[],"categories_nodes":[],"categories_segments":[],"categories_sizes":[],"default_left":[0,0,0,0,0,0,0],"id":57,"left_children":[1,3,5,-1,-1,-1,-1],"loss_changes":[1.8356898E0,2.0834804E0,1.2467692E0,0E0,0E0,0E0,0E0],"parents":[2147483647,0,0,1,1,2,2],"right_children":[2,4,6,-1,-1,-1,-1],"split_conditions":[1.6221248E3,-2.8462386E-2,1.4059077E-1,-1.1616263E-2,2.8060804E-4,-6.8223416E-3,4.836713E-2],"split_indices":[32,736,168,0,0,0,0],"split_type":[0,0,0,0,0,0,0],"sum_hessian":[4.828E3,4.813E3,1.5E1,1.49E2,4.664E3,5E0,1E1],"tree_param":{"num_deleted":"0","num_feature":"1058","num_nodes":"7","size_leaf_vector":"1"}},{"base_weights":[2.3880876E-4,-1.9886909E-2,1.9420972E-2,-1.0414434E-3,-2.5562683E-2,9.7009464E-4,2.2047251E-2],"categories":[],"categories_nodes":[],"categories_segments":[],"categories_sizes":[],"default_left":[0,0,0,0,0,0,0],"id":58,"left_children":[1,3,5,-1,-1,-1,-1],"loss_changes":[1.8661894E0,5.259756E0,4.830293E0,0E0,0E0,0E0,0E0],"parents":[2147483647,0,0,1,1,2,2],"right_children":[2,4,6,-1,-1,-1,-1],"split_conditions":[2.493671E-1,1.8503833E-1,9.6650577E-1,-1.0414434E-3,-2.5562683E-2,9.7009464E-4,2.2047251E-2],"split_indices":[387,770,49,0,0,0,0],"split_type":[0,0,0,0,0,0,0],"sum_hessian":[4.828E3,2.356E3,2.472E3,2.268E3,8.8E1,2.361E3,1.11E2],"tree_param":{"num_deleted":"0","num_feature":"1058","num_nodes":"7","size_leaf_vector":"1"}},{"base_weights":[2.1269447E-4,-1.0893416E-3,2.7253693E-1,-1.1313649E-2,2.465362E-4,-5.2878014E-3,7.114398E-2],"categories":[],"categories_nodes":[],"categories_segments":[],"categories_sizes":[],"default_left":[0,0,0,0,0,0,0],"id":59,"left_children":[1,3,5,-1,-1,-1,-1],"loss_changes":[1.7138472E0,1.9170308E0,3.397846E0,0E0,0E0,0E0,0E0],"parents":[2147483647,0,0,1,1,2,2],"right_children":[2,4,6,-1,-1,-1,-1],"split_conditions":[2.1779789E-1,-2.8462386E-2,2.4580362E1,-1.1313649E-2,2.465362E-4,-5.2878014E-3,7.114398E-2],"split_indices":[819,736,32,0,0,0,0],"split_type":[0,0,0,0,0,0,0],"sum_hessian":[4.828E3,4.808E3,2E1,1.45E2,4.663E3,1.3E1,7E0],"tree_param":{"num_deleted":"0","num_feature":"1058","num_nodes":"7","size_leaf_vector":"1"}},{"base_weights":[2.254529E-4,-1.1867707E-1,3.174556E-3,1.634564E-2,-1.5865885E-2,2.1119615E-2,5.8451395E-5],"categories":[],"categories_nodes":[],"categories_segments":[],"categories_sizes":[],"default_left":[0,0,0,0,0,0,0],"id":60,"left_children":[1,3,5,-1,-1,-1,-1],"loss_changes":[1.6951485E0,1.3975846E0,2.541077E0,0E0,0E0,0E0,0E0],"parents":[2147483647,0,0,1,1,2,2],"right_children":[2,4,6,-1,-1,-1,-1],"split_conditions":[-3.6523545E-1,3.1741667E-1,3.915262E-1,1.634564E-2,-1.5865885E-2,2.1119615E-2,5.8451395E-5],"split_indices":[487,1004,883,0,0,0,0],"split_type":[0,0,0,0,0,0,0],"sum_hessian":[4.828E3,1.14E2,4.714E3,1.3E1,1.01E2,5.5E1,4.659E3],"tree_param":{"num_deleted":"0","num_feature":"1058","num_nodes":"7","size_leaf_vector":"1"}},{"base_weights":[2.1636559E-4,1.6731026E-2,-2.1014845E-2,8.996722E-3,-4.2667656E-4,-9.913143E-4,-1.6836153E-2],"categories":[],"categories_nodes":[],"categories_segments":[],"categories_sizes":[],"default_left":[0,0,0,0,0,0,0],"id":61,"left_children":[1,3,5,-1,-1,-1,-1],"loss_changes":[1.6949302E0,4.182425E0,3.4547079E0,0E0,0E0,0E0,0E0],"parents":[2147483647,0,0,1,1,2,2],"right_children":[2,4,6,-1,-1,-1,-1],"split_conditions":[-7.610661E-1,-2.3677388E-1,3.1471127E-1,8.996722E-3,-4.2667656E-4,-9.913143E-4,-1.6836153E-2],"split_indices":[290,754,441,0,0,0,0],"split_type":[0,0,0,0,0,0,0],"sum_hessian":[4.828E3,2.716E3,2.112E3,6.03E2,2.113E3,1.967E3,1.45E2],"tree_param":{"num_deleted":"0","num_feature":"1058","num_nodes":"7","size_leaf_vector":"1"}},{"base_weights":[1.8897849E-4,-9.1628216E-2,3.9865514E-3,3.3007678E-2,-1.27786845E-2,4.9720737E-3,-7.144158E-4],"categories":[],"categories_nodes":[],"categories_segments":[],"categories_sizes":[],"default_left":[0,0,0,0,0,0,0],"id":62,"left_children":[1,3,5,-1,-1,-1,-1],"loss_changes":[1.685581E0,3.0542068E0,2.3640938E0,0E0,0E0,0E0,0E0],"parents":[2147483647,0,0,1,1,2,2],"right_children":[2,4,6,-1,-1,-1,-1],"split_conditions":[-5.4767188E-2,3.3500087E-2,-4.0029514E-1,3.3007678E-2,-1.27786845E-2,4.9720737E-3,-7.144158E-4],"split_indices":[534,940,640,0,0,0,0],"split_type":[0,0,0,0,0,0,0],"sum_hessian":[4.828E3,1.89E2,4.639E3,1.3E1,1.76E2,9.06E2,3.733E3],"tree_param":{"num_deleted":"0","num_feature":"1058","num_nodes":"7","size_leaf_vector":"1"}},{"base_weights":[1.8528434E-4,-1.6609699E-1,2.2750164E-3,-2.71402E-2,1.2484836E-2,1.7492754E-2,-5.5499848E-5],"categories":[],"categories_nodes":[],"categories_segments":[],"categories_sizes":[],"default_left":[0,0,0,0,0,0,0],"id":63,"left_children":[1,3,5,-1,-1,-1,-1],"loss_changes":[1.6798356E0,1.9399322E0,2.3329115E0,0E0,0E0,0E0,0E0],"parents":[2147483647,0,0,1,1,2,2],"right_children":[2,4,6,-1,-1,-1,-1],"split_conditions":[1.610665E-1,-6.2085684E-2,4.7195822E-1,-2.71402E-2,1.2484836E-2,1.7492754E-2,-5.5499848E-5],"split_indices":[993,498,178,0,0,0,0],"split_type":[0,0,0,0,0,0,0],"sum_hessian":[4.828E3,5.7E1,4.771E3,4.2E1,1.5E1,7.4E1,4.697E3],"tree_param":{"num_deleted":"0","num_feature":"1058","num_nodes":"7","size_leaf_vector":"1"}},{"base_weights":[1.6849612E-4,-7.170078E-2,5.008334E-3,-9.932363E-3,1.4990321E-2,2.0628142E-4,1.981521E-2],"categories":[],"categories_nodes":[],"categories_segments":[],"categories_sizes":[],"default_left":[0,0,0,0,0,0,0],"id":64,"left_children":[1,3,5,-1,-1,-1,-1],"loss_changes":[1.6814713E0,1.9116735E0,2.5753617E0,0E0,0E0,0E0,0E0],"parents":[2147483647,0,0,1,1,2,2],"right_children":[2,4,6,-1,-1,-1,-1],"split_conditions":[-1.7468654E-2,4.9956337E-1,4.413642E0,-9.932363E-3,1.4990321E-2,2.0628142E-4,1.981521E-2],"split_indices":[647,389,31,0,0,0,0],"split_type":[0,0,0,0,0,0,0],"sum_hessian":[4.828E3,3.02E2,4.526E3,2.7E2,3.2E1,4.461E3,6.5E1],"tree_param":{"num_deleted":"0","num_feature":"1058","num_nodes":"7","size_leaf_vector":"1"}},{"base_weights":[1.6723113E-4,-1.5732056E-3,1.9873083E-1,6.250722E-3,-7.0560403E-4,5.888951E-2,-3.7090585E-3],"categories":[],"categories_nodes":[],"categories_segments":[],"categories_sizes":[],"default_left":[0,0,0,0,0,0,0],"id":65,"left_children":[1,3,5,-1,-1,-1,-1],"loss_changes":[1.6704706E0,1.6849558E0,3.929909E0,0E0,0E0,0E0,0E0],"parents":[2147483647,0,0,1,1,2,2],"right_children":[2,4,6,-1,-1,-1,-1],"split_conditions":[2.627023E-1,8.763826E-2,3.148015E2,6.250722E-3,-7.0560403E-4,5.888951E-2,-3.7090585E-3],"split_indices":[102,432,33,0,0,0,0],"split_type":[0,0,0,0,0,0,0],"sum_hessian":[4.828E3,4.789E3,3.9E1,3.75E2,4.414E3,1.3E1,2.6E1],"tree_param":{"num_deleted":"0","num_feature":"1058","num_nodes":"7","size_leaf_vector":"1"}},{"base_weights":[1.8821874E-4,8.367558E-3,-4.124284E-2,2.5169928E-2,5.2502303E-4,-1.0177195E-3,-1.262748E-2],"categories":[],"categories_nodes":[],"categories_segments":[],"categories_sizes":[],"default_left":[0,0,0,0,0,0,0],"id":66,"left_children":[1,3,5,-1,-1,-1,-1],"loss_changes":[1.6381582E0,3.0582807E0,2.1014779E0,0E0,0E0,0E0,0E0],"parents":[2147483647,0,0,1,1,2,2],"right_children":[2,4,6,-1,-1,-1,-1],"split_conditions":[-2.378073E-2,-4.8142695E-1,4.9723598E-1,2.5169928E-2,5.2502303E-4,-1.0177195E-3,-1.262748E-2],"split_indices":[219,83,31,0,0,0,0],"split_type":[0,0,0,0,0,0,0],"sum_hessian":[4.828E3,4.034E3,7.94E2,4.8E1,3.986E3,5.84E2,2.1E2],"tree_param":{"num_deleted":"0","num_feature":"1058","num_nodes":"7","size_leaf_vector":"1"}},{"base_weights":[1.768857E-4,-1.003858E-1,3.4858864E-3,-1.6761465E-2,1.6135765E-2,1.180309E-4,2.0861417E-2],"categories":[],"categories_nodes":[],"categories_segments":[],"categories_sizes":[],"default_left":[0,0,0,0,0,0,0],"id":67,"left_children":[1,3,5,-1,-1,-1,-1],"loss_changes":[1.6086229E0,2.791031E0,2.2126164E0,0E0,0E0,0E0,0E0],"parents":[2147483647,0,0,1,1,2,2],"right_children":[2,4,6,-1,-1,-1,-1],"split_conditions":[-7.519568E-2,2.0213388E-1,-6.612913E-1,-1.6761465E-2,1.6135765E-2,1.180309E-4,2.0861417E-2],"split_indices":[685,990,403,0,0,0,0],"split_type":[0,0,0,0,0,0,0],"sum_hessian":[4.828E3,1.51E2,4.677E3,1.21E2,3E1,4.628E3,4.9E1],"tree_param":{"num_deleted":"0","num_feature":"1058","num_nodes":"7","size_leaf_vector":"1"}},{"base_weights":[1.7184112E-4,-2.9320656E-3,1.06584504E-1,-8.035593E-3,2.8594732E-4,7.116153E-2,6.257664E-3],"categories":[],"categories_nodes":[],"categories_segments":[],"categories_sizes":[],"default_left":[0,0,0,0,0,0,0],"id":68,"left_children":[1,3,5,-1,-1,-1,-1],"loss_changes":[1.5965924E0,2.1068394E0,3.514186E0,0E0,0E0,0E0,0E0],"parents":[2147483647,0,0,1,1,2,2],"right_children":[2,4,6,-1,-1,-1,-1],"split_conditions":[-9.573381E-2,6.310936E-2,1.6135937E-1,-8.035593E-3,2.8594732E-4,7.116153E-2,6.257664E-3],"split_indices":[162,182,293,0,0,0,0],"split_type":[0,0,0,0,0,0,0],"sum_hessian":[4.828E3,4.694E3,1.34E2,3.24E2,4.37E3,6E0,1.28E2],"tree_param":{"num_deleted":"0","num_feature":"1058","num_nodes":"7","size_leaf_vector":"1"}},{"base_weights":[1.9791562E-4,2.6587364E-1,-1.0168516E-3,8.079947E-2,1.0736537E-3,3.248717E-4,-8.057032E-3],"categories":[],"categories_nodes":[],"categories_segments":[],"categories_sizes":[],"default_left":[0,0,0,0,0,0,0],"id":69,"left_children":[1,3,5,-1,-1,-1,-1],"loss_changes":[1.55994E0,3.016909E0,1.633693E0,0E0,0E0,0E0,0E0],"parents":[2147483647,0,0,1,1,2,2],"right_children":[2,4,6,-1,-1,-1,-1],"split_conditions":[4.8199025E-1,3.2529272E-2,4.2178667E-1,8.079947E-2,1.0736537E-3,3.248717E-4,-8.057032E-3],"split_indices":[602,846,971,0,0,0,0],"split_type":[0,0,0,0,0,0,0],"sum_hessian":[4.828E3,1.9E1,4.809E3,4E0,1.5E1,4.567E3,2.42E2],"tree_param":{"num_deleted":"0","num_feature":"1058","num_nodes":"7","size_leaf_vector":"1"}},{"base_weights":[2.2416965E-4,3.6763477E-3,-9.2234574E-2,3.366105E-2,2.311839E-4,-1.6813302E-2,2.4975843E-3],"categories":[],"categories_nodes":[],"categories_segments":[],"categories_sizes":[],"default_left":[0,0,0,0,0,0,0],"id":70,"left_children":[1,3,5,-1,-1,-1,-1],"loss_changes":[1.5429952E0,2.1146638E0,1.5605175E0,0E0,0E0,0E0,0E0],"parents":[2147483647,0,0,1,1,2,2],"right_children":[2,4,6,-1,-1,-1,-1],"split_conditions":[-1.01485275E-1,1.7259347E-1,-4.0257418E-1,3.366105E-2,2.311839E-4,-1.6813302E-2,2.4975843E-3],"split_indices":[1015,989,28,0,0,0,0],"split_type":[0,0,0,0,0,0,0],"sum_hessian":[4.828E3,4.657E3,1.71E2,1.6E1,4.641E3,1.03E2,6.8E1],"tree_param":{"num_deleted":"0","num_feature":"1058","num_nodes":"7","size_leaf_vector":"1"}},{"base_weights":[2.139147E-4,-1.3748086E-2,2.305217E-2,4.5088287E-2,-1.5910546E-3,1.3882307E-3,2.5353778E-2],"categories":[],"categories_nodes":[],"categories_segments":[],"categories_sizes":[],"default_left":[0,0,0,0,0,0,0],"id":71,"left_children":[1,3,5,-1,-1,-1,-1],"loss_changes":[1.5414009E0,3.035757E0,3.8656397E0,0E0,0E0,0E0,0E0],"parents":[2147483647,0,0,1,1,2,2],"right_children":[2,4,6,-1,-1,-1,-1],"split_conditions":[1.6822683E-2,1.6134337E-1,-4.9357164E-1,4.5088287E-2,-1.5910546E-3,1.3882307E-3,2.5353778E-2],"split_indices":[220,293,968,0,0,0,0],"split_type":[0,0,0,0,0,0,0],"sum_hessian":[4.828E3,2.997E3,1.831E3,1.1E1,2.986E3,1.764E3,6.7E1],"tree_param":{"num_deleted":"0","num_feature":"1058","num_nodes":"7","size_leaf_vector":"1"}},{"base_weights":[2.3614563E-4,-9.795488E-2,3.4670664E-3,4.9142256E-2,-1.2350007E-2,-4.071552E-5,1.1015735E-2],"categories":[],"categories_nodes":[],"categories_segments":[],"categories_sizes":[],"default_left":[0,0,0,0,0,0,0],"id":72,"left_children":[1,3,5,-1,-1,-1,-1],"loss_changes":[1.5336411E0,2.500658E0,1.9345741E0,0E0,0E0,0E0,0E0],"parents":[2147483647,0,0,1,1,2,2],"right_children":[2,4,6,-1,-1,-1,-1],"split_conditions":[-2.5907472E-2,-8.2253195E-2,-8.767007E-1,4.9142256E-2,-1.2350007E-2,-4.071552E-5,1.1015735E-2],"split_indices":[45,55,418,0,0,0,0],"split_type":[0,0,0,0,0,0,0],"sum_hessian":[4.828E3,1.51E2,4.677E3,4E0,1.47E2,4.516E3,1.61E2],"tree_param":{"num_deleted":"0","num_feature":"1058","num_nodes":"7","size_leaf_vector":"1"}},{"base_weights":[2.4220523E-4,1.3792881E-1,-2.0454852E-3,5.3160843E-2,-2.255284E-3,-8.916846E-3,2.7059304E-4],"categories":[],"categories_nodes":[],"categories_segments":[],"categories_sizes":[],"default_left":[0,0,0,0,0,0,0],"id":73,"left_children":[1,3,5,-1,-1,-1,-1],"loss_changes":[1.5225357E0,5.0270576E0,1.9690914E0,0E0,0E0,0E0,0E0],"parents":[2147483647,0,0,1,1,2,2],"right_children":[2,4,6,-1,-1,-1,-1],"split_conditions":[-1.0520075E-1,-4.2485114E-2,2.6479247E-1,5.3160843E-2,-2.255284E-3,-8.916846E-3,2.7059304E-4],"split_indices":[117,858,662,0,0,0,0],"split_type":[0,0,0,0,0,0,0],"sum_hessian":[4.828E3,7.6E1,4.752E3,2E1,5.6E1,2.43E2,4.509E3],"tree_param":{"num_deleted":"0","num_feature":"1058","num_nodes":"7","size_leaf_vector":"1"}},{"base_weights":[2.4422392E-4,-1.4134076E-3,1.8935464E-1,1.1413734E-3,-2.620211E-3,6.1920483E-2,-1.4661527E-2],"categories":[],"categories_nodes":[],"categories_segments":[],"categories_sizes":[],"default_left":[0,0,0,0,0,0,0],"id":74,"left_children":[1,3,5,-1,-1,-1,-1],"loss_changes":[1.5152026E0,1.5246009E0,6.3378572E0,0E0,0E0,0E0,0E0],"parents":[2147483647,0,0,1,1,2,2],"right_children":[2,4,6,-1,-1,-1,-1],"split_conditions":[-1.4791493E-1,3.3992117E2,2.9218975E-1,1.1413734E-3,-2.620211E-3,6.1920483E-2,-1.4661527E-2],"split_indices":[369,33,568,0,0,0,0],"split_type":[0,0,0,0,0,0,0],"sum_hessian":[4.828E3,4.789E3,3.9E1,3.157E3,1.632E3,1.6E1,2.3E1],"tree_param":{"num_deleted":"0","num_feature":"1058","num_nodes":"7","size_leaf_vector":"1"}},{"base_weights":[2.4822322E-4,1.3663244E-1,-2.0178333E-3,-2.1770464E-3,5.0236043E-2,4.1733976E-4,-6.645447E-3],"categories":[],"categories_nodes":[],"categories_segments":[],"categories_sizes":[],"default_left":[0,0,0,0,0,0,0],"id":75,"left_children":[1,3,5,-1,-1,-1,-1],"loss_changes":[1.4938686E0,4.6094675E0,1.8978016E0,0E0,0E0,0E0,0E0],"parents":[2147483647,0,0,1,1,2,2],"right_children":[2,4,6,-1,-1,-1,-1],"split_conditions":[9.0315044E-2,-4.980669E-2,-1.1461008E0,-2.1770464E-3,5.0236043E-2,4.1733976E-4,-6.645447E-3],"split_indices":[604,321,39,0,0,0,0],"split_type":[0,0,0,0,0,0,0],"sum_hessian":[4.828E3,7.6E1,4.752E3,5.5E1,2.1E1,4.338E3,4.14E2],"tree_param":{"num_deleted":"0","num_feature":"1058","num_nodes":"7","size_leaf_vector":"1"}},{"base_weights":[2.49376E-4,7.8801E-2,-3.674955E-3,6.9603495E-2,4.4216337E-3,-7.6047005E-3,3.492369E-4],"categories":[],"categories_nodes":[],"categories_segments":[],"categories_sizes":[],"default_left":[0,0,0,0,0,0,0],"id":76,"left_children":[1,3,5,-1,-1,-1,-1],"loss_changes":[1.4900852E0,4.8174415E0,2.3889556E0,0E0,0E0,0E0,0E0],"parents":[2147483647,0,0,1,1,2,2],"right_children":[2,4,6,-1,-1,-1,-1],"split_conditions":[-6.3058615E-2,2.0230982E-1,1.0036399E-1,6.9603495E-2,4.4216337E-3,-7.6047005E-3,3.492369E-4],"split_indices":[270,538,740,0,0,0,0],"split_type":[0,0,0,0,0,0,0],"sum_hessian":[4.828E3,2.27E2,4.601E3,9E0,2.18E2,4.12E2,4.189E3],"tree_param":{"num_deleted":"0","num_feature":"1058","num_nodes":"7","size_leaf_vector":"1"}},{"base_weights":[2.658942E-4,-1.7440729E-2,1.7142309E-2,-8.770904E-4,-2.3323031E-2,9.534202E-3,-1.9623524E-4],"categories":[],"categories_nodes":[],"categories_segments":[],"categories_sizes":[],"default_left":[0,0,0,0,0,0,0],"id":77,"left_children":[1,3,5,-1,-1,-1,-1],"loss_changes":[1.4445173E0,4.407217E0,3.6981595E0,0E0,0E0,0E0,0E0],"parents":[2147483647,0,0,1,1,2,2],"right_children":[2,4,6,-1,-1,-1,-1],"split_conditions":[2.493671E-1,1.8503833E-1,-4.6653584E-1,-8.770904E-4,-2.3323031E-2,9.534202E-3,-1.9623524E-4],"split_indices":[387,770,306,0,0,0,0],"split_type":[0,0,0,0,0,0,0],"sum_hessian":[4.828E3,2.356E3,2.472E3,2.268E3,8.8E1,4.83E2,1.989E3],"tree_param":{"num_deleted":"0","num_feature":"1058","num_nodes":"7","size_leaf_vector":"1"}},{"base_weights":[2.300766E-4,8.7903835E-2,-3.1609777E-3,6.30524E-2,4.139263E-3,-5.7568215E-3,4.429335E-4],"categories":[],"categories_nodes":[],"categories_segments":[],"categories_sizes":[],"default_left":[0,0,0,0,0,0,0],"id":78,"left_children":[1,3,5,-1,-1,-1,-1],"loss_changes":[1.4371212E0,4.464527E0,1.9227177E0,0E0,0E0,0E0,0E0],"parents":[2147483647,0,0,1,1,2,2],"right_children":[2,4,6,-1,-1,-1,-1],"split_conditions":[-3.1329784E-1,-3.2606547E0,-1.413908E-1,6.30524E-2,4.139263E-3,-5.7568215E-3,4.429335E-4],"split_indices":[951,809,62,0,0,0,0],"split_type":[0,0,0,0,0,0,0],"sum_hessian":[4.828E3,1.77E2,4.651E3,1.1E1,1.66E2,5.67E2,4.084E3],"tree_param":{"num_deleted":"0","num_feature":"1058","num_nodes":"7","size_leaf_vector":"1"}},{"base_weights":[2.4548505E-4,1.520999E-1,-1.6631874E-3,3.8622938E-2,-8.897237E-3,2.7681215E-4,-8.3612995E-3],"categories":[],"categories_nodes":[],"categories_segments":[],"categories_sizes":[],"default_left":[0,0,0,0,0,0,0],"id":79,"left_children":[1,3,5,-1,-1,-1,-1],"loss_changes":[1.4009777E0,3.4896178E0,1.7343479E0,0E0,0E0,0E0,0E0],"parents":[2147483647,0,0,1,1,2,2],"right_children":[2,4,6,-1,-1,-1,-1],"split_conditions":[-1.3331312E-1,3.2752603E-1,4.2178667E-1,3.8622938E-2,-8.897237E-3,2.7681215E-4,-8.3612995E-3],"split_indices":[1002,129,971,0,0,0,0],"split_type":[0,0,0,0,0,0,0],"sum_hessian":[4.828E3,5.7E1,4.771E3,2.8E1,2.9E1,4.529E3,2.42E2],"tree_param":{"num_deleted":"0","num_feature":"1058","num_nodes":"7","size_leaf_vector":"1"}},{"base_weights":[2.3437869E-4,-9.388462E-4,2.4561185E-1,-2.772489E-2,2.723634E-5,-4.830781E-3,6.4219974E-2],"categories":[],"categories_nodes":[],"categories_segments":[],"categories_sizes":[],"default_left":[0,0,0,0,0,0,0],"id":80,"left_children":[1,3,5,-1,-1,-1,-1],"loss_changes":[1.3914543E0,1.6103212E0,2.7740645E0,0E0,0E0,0E0,0E0],"parents":[2147483647,0,0,1,1,2,2],"right_children":[2,4,6,-1,-1,-1,-1],"split_conditions":[2.1779789E-1,2.1412404E-1,2.4580362E1,-2.772489E-2,2.723634E-5,-4.830781E-3,6.4219974E-2],"split_indices":[819,726,32,0,0,0,0],"split_type":[0,0,0,0,0,0,0],"sum_hessian":[4.828E3,4.808E3,2E1,1.8E1,4.79E3,1.3E1,7E0],"tree_param":{"num_deleted":"0","num_feature":"1058","num_nodes":"7","size_leaf_vector":"1"}},{"base_weights":[2.3063514E-4,7.29086E-2,-3.7164763E-3,3.344911E-3,5.7373058E-2,-2.2944076E-2,-1.7788204E-4],"categories":[],"categories_nodes":[],"categories_segments":[],"categories_sizes":[],"default_left":[0,0,0,0,0,0,0],"id":81,"left_children":[1,3,5,-1,-1,-1,-1],"loss_changes":[1.3866723E0,4.863211E0,2.0041444E0,0E0,0E0,0E0,0E0],"parents":[2147483647,0,0,1,1,2,2],"right_children":[2,4,6,-1,-1,-1,-1],"split_conditions":[1.1809351E0,2.8616986E-1,5.177758E-3,3.344911E-3,5.7373058E-2,-2.2944076E-2,-1.7788204E-4],"split_indices":[916,666,746,0,0,0,0],"split_type":[0,0,0,0,0,0,0],"sum_hessian":[4.828E3,2.46E2,4.582E3,2.31E2,1.5E1,3.6E1,4.546E3],"tree_param":{"num_deleted":"0","num_feature":"1058","num_nodes":"7","size_leaf_vector":"1"}},{"base_weights":[2.309118E-4,-3.043677E-3,8.792569E-2,-1.1091918E-2,2.9740224E-5,1.4921226E-2,-1.9802213E-2],"categories":[],"categories_nodes":[],"categories_segments":[],"categories_sizes":[],"default_left":[0,0,0,0,0,0,0],"id":82,"left_children":[1,3,5,-1,-1,-1,-1],"loss_changes":[1.3880937E0,1.6796589E0,3.1379502E0,0E0,0E0,0E0,0E0],"parents":[2147483647,0,0,1,1,2,2],"right_children":[2,4,6,-1,-1,-1,-1],"split_conditions":[2.3192008E0,-2.8462386E-2,-2.8111225E-1,-1.1091918E-2,2.9740224E-5,1.4921226E-2,-1.9802213E-2],"split_indices":[31,736,163,0,0,0,0],"split_type":[0,0,0,0,0,0,0],"sum_hessian":[4.828E3,4.657E3,1.71E2,1.37E2,4.52E3,1.42E2,2.9E1],"tree_param":{"num_deleted":"0","num_feature":"1058","num_nodes":"7","size_leaf_vector":"1"}},{"base_weights":[1.9793342E-4,-1.40699325E-2,2.0675795E-2,-1.7391805E-3,2.5449937E-2,4.3319706E-2,1.624012E-3],"categories":[],"categories_nodes":[],"categories_segments":[],"categories_sizes":[],"default_left":[0,0,0,0,0,0,0],"id":83,"left_children":[1,3,5,-1,-1,-1,-1],"loss_changes":[1.4123721E0,2.555023E0,3.6110682E0,0E0,0E0,0E0,0E0],"parents":[2147483647,0,0,1,1,2,2],"right_children":[2,4,6,-1,-1,-1,-1],"split_conditions":[9.844139E-1,-2.211258E-2,1.09448254E-1,-1.7391805E-3,2.5449937E-2,4.3319706E-2,1.624012E-3],"split_indices":[82,74,477,0,0,0,0],"split_type":[0,0,0,0,0,0,0],"sum_hessian":[4.828E3,2.846E3,1.982E3,2.814E3,3.2E1,1.8E1,1.964E3],"tree_param":{"num_deleted":"0","num_feature":"1058","num_nodes":"7","size_leaf_vector":"1"}},{"base_weights":[2.207736E-4,-7.8231595E-2,3.801303E-3,-1.1357813E-2,2.113741E-2,6.740343E-3,-3.3601208E-4],"categories":[],"categories_nodes":[],"categories_segments":[],"categories_sizes":[],"default_left":[0,0,0,0,0,0,0],"id":84,"left_children":[1,3,5,-1,-1,-1,-1],"loss_changes":[1.357925E0,2.231936E0,2.1063719E0,0E0,0E0,0E0,0E0],"parents":[2147483647,0,0,1,1,2,2],"right_children":[2,4,6,-1,-1,-1,-1],"split_conditions":[3.5735238E-1,3.2346615E-1,2.4298826E-2,-1.1357813E-2,2.113741E-2,6.740343E-3,-3.3601208E-4],"split_indices":[880,525,729,0,0,0,0],"split_type":[0,0,0,0,0,0,0],"sum_hessian":[4.828E3,2.08E2,4.62E3,1.87E2,2.1E1,4.65E2,4.155E3],"tree_param":{"num_deleted":"0","num_feature":"1058","num_nodes":"7","size_leaf_vector":"1"}},{"base_weights":[2.0875076E-4,1.3006133E-1,-1.9487633E-3,3.199758E-3,4.8205893E-2,-4.7359546E-3,4.8818346E-4],"categories":[],"categories_nodes":[],"categories_segments":[],"categories_sizes":[],"default_left":[0,0,0,0,0,0,0],"id":85,"left_children":[1,3,5,-1,-1,-1,-1],"loss_changes":[1.3542073E0,2.680664E0,1.4756129E0,0E0,0E0,0E0,0E0],"parents":[2147483647,0,0,1,1,2,2],"right_children":[2,4,6,-1,-1,-1,-1],"split_conditions":[-2.557645E-1,3.5786662E-1,-1.413908E-1,3.199758E-3,4.8205893E-2,-4.7359546E-3,4.8818346E-4],"split_indices":[345,1010,62,0,0,0,0],"split_type":[0,0,0,0,0,0,0],"sum_hessian":[4.828E3,7.6E1,4.752E3,6.2E1,1.4E1,6.19E2,4.133E3],"tree_param":{"num_deleted":"0","num_feature":"1058","num_nodes":"7","size_leaf_vector":"1"}},{"base_weights":[2.1716325E-4,-1.05806105E-1,2.8468159E-3,2.5142107E-2,-1.4999255E-2,-3.5731868E-5,1.4090411E-2],"categories":[],"categories_nodes":[],"categories_segments":[],"categories_sizes":[],"default_left":[0,0,0,0,0,0,0],"id":86,"left_children":[1,3,5,-1,-1,-1,-1],"loss_changes":[1.3478075E0,1.9599314E0,2.0867355E0,0E0,0E0,0E0,0E0],"parents":[2147483647,0,0,1,1,2,2],"right_children":[2,4,6,-1,-1,-1,-1],"split_conditions":[-1.6986817E-1,3.4313825E-1,-9.573381E-2,2.5142107E-2,-1.4999255E-2,-3.5731868E-5,1.4090411E-2],"split_indices":[307,355,162,0,0,0,0],"split_type":[0,0,0,0,0,0,0],"sum_hessian":[4.828E3,1.14E2,4.714E3,1.1E1,1.03E2,4.61E3,1.04E2],"tree_param":{"num_deleted":"0","num_feature":"1058","num_nodes":"7","size_leaf_vector":"1"}},{"base_weights":[2.1047913E-4,-1.3433277E-3,1.774774E-1,3.639986E-4,-5.777636E-3,-1.1979165E-4,6.2446516E-2],"categories":[],"categories_nodes":[],"categories_segments":[],"categories_sizes":[],"default_left":[0,0,0,0,0,0,0],"id":87,"left_children":[1,3,5,-1,-1,-1,-1],"loss_changes":[1.3313589E0,1.348254E0,3.3566027E0,0E0,0E0,0E0,0E0],"parents":[2147483647,0,0,1,1,2,2],"right_children":[2,4,6,-1,-1,-1,-1],"split_conditions":[2.627023E-1,-1.015047E-1,4.4991758E-1,3.639986E-4,-5.777636E-3,-1.1979165E-4,6.2446516E-2],"split_indices":[102,1015,320,0,0,0,0],"split_type":[0,0,0,0,0,0,0],"sum_hessian":[4.828E3,4.789E3,3.9E1,4.403E3,3.86E2,3E1,9E0],"tree_param":{"num_deleted":"0","num_feature":"1058","num_nodes":"7","size_leaf_vector":"1"}},{"base_weights":[2.2478089E-4,-2.5997902E-3,9.7059354E-2,7.7732686E-5,-1.4344677E-2,7.984283E-2,5.2346247E-3],"categories":[],"categories_nodes":[],"categories_segments":[],"categories_sizes":[],"default_left":[0,0,0,0,0,0,0],"id":88,"left_children":[1,3,5,-1,-1,-1,-1],"loss_changes":[1.3221134E0,2.2344942E0,4.1709886E0,0E0,0E0,0E0,0E0],"parents":[2147483647,0,0,1,1,2,2],"right_children":[2,4,6,-1,-1,-1,-1],"split_conditions":[2.521778E-1,-1.6604517E-2,3.173777E-1,7.7732686E-5,-1.4344677E-2,7.984283E-2,5.2346247E-3],"split_indices":[786,938,1004,0,0,0,0],"split_type":[0,0,0,0,0,0,0],"sum_hessian":[4.828E3,4.694E3,1.34E2,4.587E3,1.07E2,5E0,1.29E2],"tree_param":{"num_deleted":"0","num_feature":"1058","num_nodes":"7","size_leaf_vector":"1"}},{"base_weights":[2.4627868E-4,1.4776725E-1,-1.607931E-3,3.302492E-2,-8.146336E-3,-5.583605E-3,4.775215E-4],"categories":[],"categories_nodes":[],"categories_segments":[],"categories_sizes":[],"default_left":[0,0,0,0,0,0,0],"id":89,"left_children":[1,3,5,-1,-1,-1,-1],"loss_changes":[1.3221595E0,2.5905364E0,1.6533006E0,0E0,0E0,0E0,0E0],"parents":[2147483647,0,0,1,1,2,2],"right_children":[2,4,6,-1,-1,-1,-1],"split_conditions":[4.2553076E-1,-4.3536577E-1,-2.0854312E-1,3.302492E-2,-8.146336E-3,-5.583605E-3,4.775215E-4],"split_indices":[751,797,875,0,0,0,0],"split_type":[0,0,0,0,0,0,0],"sum_hessian":[4.828E3,5.7E1,4.771E3,3.1E1,2.6E1,5E2,4.271E3],"tree_param":{"num_deleted":"0","num_feature":"1058","num_nodes":"7","size_leaf_vector":"1"}},{"base_weights":[2.339256E-4,-4.0539256E-3,6.368062E-2,-6.4434984E-4,1.6560912E-2,3.692263E-2,1.0875331E-3],"categories":[],"categories_nodes":[],"categories_segments":[],"categories_sizes":[],"default_left":[0,0,0,0,0,0,0],"id":90,"left_children":[1,3,5,-1,-1,-1,-1],"loss_changes":[1.315048E0,1.8389528E0,4.925089E0,0E0,0E0,0E0,0E0],"parents":[2147483647,0,0,1,1,2,2],"right_children":[2,4,6,-1,-1,-1,-1],"split_conditions":[-3.7557173E-1,-6.1998278E-2,-6.3055825E-1,-6.4434984E-4,1.6560912E-2,3.692263E-2,1.0875331E-3],"split_indices":[882,498,413,0,0,0,0],"split_type":[0,0,0,0,0,0,0],"sum_hessian":[4.828E3,4.525E3,3.03E2,4.465E3,6E1,4.2E1,2.61E2],"tree_param":{"num_deleted":"0","num_feature":"1058","num_nodes":"7","size_leaf_vector":"1"}},{"base_weights":[2.4401725E-4,-2.3938943E-1,1.3394462E-3,-3.060898E-2,3.4721259E-3,2.0540208E-3,-1.3475864E-3],"categories":[],"categories_nodes":[],"categories_segments":[],"categories_sizes":[],"default_left":[0,0,0,0,0,0,0],"id":91,"left_children":[1,3,5,-1,-1,-1,-1],"loss_changes":[1.2691061E0,4.3411565E-1,1.3696771E0,0E0,0E0,0E0,0E0],"parents":[2147483647,0,0,1,1,2,2],"right_children":[2,4,6,-1,-1,-1,-1],"split_conditions":[-4.1980943E-1,-2.8871477E-1,-2.732063E-1,-3.060898E-2,3.4721259E-3,2.0540208E-3,-1.3475864E-3],"split_indices":[674,176,706,0,0,0,0],"split_type":[0,0,0,0,0,0,0],"sum_hessian":[4.828E3,1.9E1,4.809E3,1.5E1,4E0,2.094E3,2.715E3],"tree_param":{"num_deleted":"0","num_feature":"1058","num_nodes":"7","size_leaf_vector":"1"}},{"base_weights":[2.0320206E-4,-1.894512E-3,1.2485224E-1,-1.1785224E-2,1.2359714E-4,2.676281E-3,8.8974796E-2],"categories":[],"categories_nodes":[],"categories_segments":[],"categories_sizes":[],"default_left":[0,0,0,0,0,0,0],"id":92,"left_children":[1,3,5,-1,-1,-1,-1],"loss_changes":[1.26391E0,1.7261568E0,5.9308186E0,0E0,0E0,0E0,0E0],"parents":[2147483647,0,0,1,1,2,2],"right_children":[2,4,6,-1,-1,-1,-1],"split_conditions":[-3.275991E-1,-2.9366326E-1,6.8580306E-1,-1.1785224E-2,1.2359714E-4,2.676281E-3,8.8974796E-2],"split_indices":[144,559,196,0,0,0,0],"split_type":[0,0,0,0,0,0,0],"sum_hessian":[4.828E3,4.751E3,7.7E1,1.22E2,4.629E3,7.1E1,6E0],"tree_param":{"num_deleted":"0","num_feature":"1058","num_nodes":"7","size_leaf_vector":"1"}},{"base_weights":[2.3255179E-4,8.027034E-2,-3.07808E-3,2.9158995E-3,4.520243E-2,-4.8747796E-4,2.039978E-2],"categories":[],"categories_nodes":[],"categories_segments":[],"categories_sizes":[],"default_left":[0,0,0,0,0,0,0],"id":93,"left_children":[1,3,5,-1,-1,-1,-1],"loss_changes":[1.2808385E0,3.6086211E0,1.7300537E0,0E0,0E0,0E0,0E0],"parents":[2147483647,0,0,1,1,2,2],"right_children":[2,4,6,-1,-1,-1,-1],"split_conditions":[8.76204E-2,-1.2804776E-1,6.7938867E0,2.9158995E-3,4.520243E-2,-4.8747796E-4,2.039978E-2],"split_indices":[432,785,31,0,0,0,0],"split_type":[0,0,0,0,0,0,0],"sum_hessian":[4.828E3,1.89E2,4.639E3,1.69E2,2E1,4.602E3,3.7E1],"tree_param":{"num_deleted":"0","num_feature":"1058","num_nodes":"7","size_leaf_vector":"1"}},{"base_weights":[2.5153992E-4,-2.0983252E-3,1.12633936E-1,-6.9426843E-3,3.60631E-4,3.0458583E-2,-7.843329E-3],"categories":[],"categories_nodes":[],"categories_segments":[],"categories_sizes":[],"default_left":[0,0,0,0,0,0,0],"id":94,"left_children":[1,3,5,-1,-1,-1,-1],"loss_changes":[1.2764963E0,1.8193917E0,3.7025642E0,0E0,0E0,0E0,0E0],"parents":[2147483647,0,0,1,1,2,2],"right_children":[2,4,6,-1,-1,-1,-1],"split_conditions":[2.5565147E-1,6.311373E-2,1.9588822E-1,-6.9426843E-3,3.60631E-4,3.0458583E-2,-7.843329E-3],"split_indices":[388,182,390,0,0,0,0],"split_type":[0,0,0,0,0,0,0],"sum_hessian":[4.828E3,4.732E3,9.6E1,3.67E2,4.365E3,4.7E1,4.9E1],"tree_param":{"num_deleted":"0","num_feature":"1058","num_nodes":"7","size_leaf_vector":"1"}},{"base_weights":[2.3634448E-4,4.006703E-2,-6.3063423E-3,-8.995721E-3,8.309026E-3,-1.4859113E-2,-1.888348E-4],"categories":[],"categories_nodes":[],"categories_segments":[],"categories_sizes":[],"default_left":[0,0,0,0,0,0,0],"id":95,"left_children":[1,3,5,-1,-1,-1,-1],"loss_changes":[1.2597152E0,3.837575E0,2.6091611E0,0E0,0E0,0E0,0E0],"parents":[2147483647,0,0,1,1,2,2],"right_children":[2,4,6,-1,-1,-1,-1],"split_conditions":[-2.519279E-1,1.0898432E-2,-1.2240242E-1,-8.995721E-3,8.309026E-3,-1.4859113E-2,-1.888348E-4],"split_indices":[263,32,925,0,0,0,0],"split_type":[0,0,0,0,0,0,0],"sum_hessian":[4.828E3,6.79E2,4.149E3,1.68E2,5.11E2,1.22E2,4.027E3],"tree_param":{"num_deleted":"0","num_feature":"1058","num_nodes":"7","size_leaf_vector":"1"}},{"base_weights":[2.0293696E-4,-1.0322175E-1,2.7456786E-3,-1.9768586E-2,8.404326E-3,7.689123E-3,-2.9011987E-4],"categories":[],"categories_nodes":[],"categories_segments":[],"categories_sizes":[],"default_left":[0,0,0,0,0,0,0],"id":96,"left_children":[1,3,5,-1,-1,-1,-1],"loss_changes":[1.2713176E0,2.1018615E0,1.9760524E0,0E0,0E0,0E0,0E0],"parents":[2147483647,0,0,1,1,2,2],"right_children":[2,4,6,-1,-1,-1,-1],"split_conditions":[6.594004E-1,4.3150514E-2,1.5812424E-1,-1.9768586E-2,8.404326E-3,7.689123E-3,-2.9011987E-4],"split_indices":[316,562,902,0,0,0,0],"split_type":[0,0,0,0,0,0,0],"sum_hessian":[4.828E3,1.13E2,4.715E3,7.5E1,3.8E1,3.31E2,4.384E3],"tree_param":{"num_deleted":"0","num_feature":"1058","num_nodes":"7","size_leaf_vector":"1"}},{"base_weights":[1.8018753E-4,-1.1061265E-1,2.472662E-3,4.472461E-2,-1.3621116E-2,-3.07844E-4,7.68585E-3],"categories":[],"categories_nodes":[],"categories_segments":[],"categories_sizes":[],"default_left":[0,0,0,0,0,0,0],"id":97,"left_children":[1,3,5,-1,-1,-1,-1],"loss_changes":[1.227845E0,1.5822334E0,1.9563148E0,0E0,0E0,0E0,0E0],"parents":[2147483647,0,0,1,1,2,2],"right_children":[2,4,6,-1,-1,-1,-1],"split_conditions":[9.487761E-2,1.5808421E-1,6.575733E-2,4.472461E-2,-1.3621116E-2,-3.07844E-4,7.68585E-3],"split_indices":[590,902,443,0,0,0,0],"split_type":[0,0,0,0,0,0,0],"sum_hessian":[4.828E3,9.5E1,4.733E3,2E0,9.3E1,4.407E3,3.26E2],"tree_param":{"num_deleted":"0","num_feature":"1058","num_nodes":"7","size_leaf_vector":"1"}},{"base_weights":[1.8605479E-4,-7.86333E-2,3.4460197E-3,-1.2707497E-2,1.9565927E-2,1.0085771E-2,-3.9260056E-5],"categories":[],"categories_nodes":[],"categories_segments":[],"categories_sizes":[],"default_left":[0,0,0,0,0,0,0],"id":98,"left_children":[1,3,5,-1,-1,-1,-1],"loss_changes":[1.2421303E0,2.6257315E0,1.7358854E0,0E0,0E0,0E0,0E0],"parents":[2147483647,0,0,1,1,2,2],"right_children":[2,4,6,-1,-1,-1,-1],"split_conditions":[-5.4767188E-2,1.7384332E-1,-4.0036687E-1,-1.2707497E-2,1.9565927E-2,1.0085771E-2,-3.9260056E-5],"split_indices":[534,295,640,0,0,0,0],"split_type":[0,0,0,0,0,0,0],"sum_hessian":[4.828E3,1.89E2,4.639E3,1.62E2,2.7E1,1.73E2,4.466E3],"tree_param":{"num_deleted":"0","num_feature":"1058","num_nodes":"7","size_leaf_vector":"1"}},{"base_weights":[1.7794037E-4,-2.9090364E-3,8.284908E-2,-5.7842454E-4,9.985219E-3,2.3458587E-2,-7.431622E-4],"categories":[],"categories_nodes":[],"categories_segments":[],"categories_sizes":[],"default_left":[0,0,0,0,0,0,0],"id":99,"left_children":[1,3,5,-1,-1,-1,-1],"loss_changes":[1.233613E0,1.3785762E0,2.3888392E0,0E0,0E0,0E0,0E0],"parents":[2147483647,0,0,1,1,2,2],"right_children":[2,4,6,-1,-1,-1,-1],"split_conditions":[5.6225234E-1,-1.08606175E-1,3.847609E2,-5.7842454E-4,9.985219E-3,2.3458587E-2,-7.431622E-4],"split_indices":[243,760,33,0,0,0,0],"split_type":[0,0,0,0,0,0,0],"sum_hessian":[4.828E3,4.657E3,1.71E2,4.533E3,1.24E2,6.2E1,1.09E2],"tree_param":{"num_deleted":"0","num_feature":"1058","num_nodes":"7","size_leaf_vector":"1"}},{"base_weights":[1.8008727E-4,1.2378852E-1,-1.8736679E-3,4.7693226E-2,-2.017202E-3,-2.1582698E-2,-1.9565616E-5],"categories":[],"categories_nodes":[],"categories_segments":[],"categories_sizes":[],"default_left":[0,0,0,0,0,0,0],"id":100,"left_children":[1,3,5,-1,-1,-1,-1],"loss_changes":[1.2271005E0,4.0451245E0,1.7069954E0,0E0,0E0,0E0,0E0],"parents":[2147483647,0,0,1,1,2,2],"right_children":[2,4,6,-1,-1,-1,-1],"split_conditions":[-1.0520075E-1,-4.2485114E-2,-6.793582E-2,4.7693226E-2,-2.017202E-3,-2.1582698E-2,-1.9565616E-5],"split_indices":[117,858,606,0,0,0,0],"split_type":[0,0,0,0,0,0,0],"sum_hessian":[4.828E3,7.6E1,4.752E3,2E1,5.6E1,3.4E1,4.718E3],"tree_param":{"num_deleted":"0","num_feature":"1058","num_nodes":"7","size_leaf_vector":"1"}},{"base_weights":[1.7702387E-4,-3.7930954E-2,6.8462538E-3,1.1161253E-3,-1.2923506E-2,2.7581064E-2,4.1357343E-4],"categories":[],"categories_nodes":[],"categories_segments":[],"categories_sizes":[],"default_left":[0,0,0,0,0,0,0],"id":101,"left_children":[1,3,5,-1,-1,-1,-1],"loss_changes":[1.2285818E0,3.2315981E0,2.9958205E0,0E0,0E0,0E0,0E0],"parents":[2147483647,0,0,1,1,2,2],"right_children":[2,4,6,-1,-1,-1,-1],"split_conditions":[1.8582959E-2,-4.924723E-1,1.8586902E-2,1.1161253E-3,-1.2923506E-2,2.7581064E-2,4.1357343E-4],"split_indices":[511,364,511,0,0,0,0],"split_type":[0,0,0,0,0,0,0],"sum_hessian":[4.828E3,7.17E2,4.111E3,4.68E2,2.49E2,3.8E1,4.073E3],"tree_param":{"num_deleted":"0","num_feature":"1058","num_nodes":"7","size_leaf_vector":"1"}},{"base_weights":[1.6937665E-4,-1.4211564E-1,1.9575194E-3,1.4835539E-2,-2.319282E-2,-9.260763E-5,1.3540129E-2],"categories":[],"categories_nodes":[],"categories_segments":[],"categories_sizes":[],"default_left":[0,0,0,0,0,0,0],"id":102,"left_children":[1,3,5,-1,-1,-1,-1],"loss_changes":[1.2299662E0,1.6685001E0,1.8374013E0,0E0,0E0,0E0,0E0],"parents":[2147483647,0,0,1,1,2,2],"right_children":[2,4,6,-1,-1,-1,-1],"split_conditions":[1.610665E-1,5.14297E-2,-1.2800522E-1,1.4835539E-2,-2.319282E-2,-9.260763E-5,1.3540129E-2],"split_indices":[993,122,785,0,0,0,0],"split_type":[0,0,0,0,0,0,0],"sum_hessian":[4.828E3,5.7E1,4.771E3,1.3E1,4.4E1,4.673E3,9.8E1],"tree_param":{"num_deleted":"0","num_feature":"1058","num_nodes":"7","size_leaf_vector":"1"}},{"base_weights":[1.5560183E-4,-6.148221E-2,4.3064225E-3,-8.941806E-3,4.598748E-2,-1.1234223E-3,2.9165826E-3],"categories":[],"categories_nodes":[],"categories_segments":[],"categories_sizes":[],"default_left":[0,0,0,0,0,0,0],"id":103,"left_children":[1,3,5,-1,-1,-1,-1],"loss_changes":[1.2367935E0,4.56555E0,1.7506768E0,0E0,0E0,0E0,0E0],"parents":[2147483647,0,0,1,1,2,2],"right_children":[2,4,6,-1,-1,-1,-1],"split_conditions":[-1.4010817E-1,5.427917E-1,-2.2465198E-1,-8.941806E-3,4.598748E-2,-1.1234223E-3,2.9165826E-3],"split_indices":[80,303,872,0,0,0,0],"split_type":[0,0,0,0,0,0,0],"sum_hessian":[4.828E3,3.02E2,4.526E3,2.89E2,1.3E1,2.786E3,1.74E3],"tree_param":{"num_deleted":"0","num_feature":"1058","num_nodes":"7","size_leaf_vector":"1"}},{"base_weights":[1.6416209E-4,7.19763E-3,-3.5462692E-2,9.499337E-3,3.0132991E-5,1.0825294E-2,-5.307588E-3],"categories":[],"categories_nodes":[],"categories_segments":[],"categories_sizes":[],"default_left":[0,0,0,0,0,0,0],"id":104,"left_children":[1,3,5,-1,-1,-1,-1],"loss_changes":[1.2113193E0,2.4441795E0,2.0346751E0,0E0,0E0,0E0,0E0],"parents":[2147483647,0,0,1,1,2,2],"right_children":[2,4,6,-1,-1,-1,-1],"split_conditions":[-2.378073E-2,-1.7247368E-1,-2.2355948E-2,9.499337E-3,3.0132991E-5,1.0825294E-2,-5.307588E-3],"split_indices":[219,852,74,0,0,0,0],"split_type":[0,0,0,0,0,0,0],"sum_hessian":[4.828E3,4.034E3,7.94E2,2.91E2,3.743E3,8.5E1,7.09E2],"tree_param":{"num_deleted":"0","num_feature":"1058","num_nodes":"7","size_leaf_vector":"1"}},{"base_weights":[1.5708653E-4,-1.0877101E-1,2.410989E-3,1.0140329E-2,-2.251794E-2,7.813674E-5,1.9861583E-2],"categories":[],"categories_nodes":[],"categories_segments":[],"categories_sizes":[],"default_left":[0,0,0,0,0,0,0],"id":105,"left_children":[1,3,5,-1,-1,-1,-1],"loss_changes":[1.1868615E0,2.4661746E0,1.5138214E0,0E0,0E0,0E0,0E0],"parents":[2147483647,0,0,1,1,2,2],"right_children":[2,4,6,-1,-1,-1,-1],"split_conditions":[-3.4557644E-1,-3.0936587E-1,-1.4791493E-1,1.0140329E-2,-2.251794E-2,7.813674E-5,1.9861583E-2],"split_indices":[953,1017,369,0,0,0,0],"split_type":[0,0,0,0,0,0,0],"sum_hessian":[4.828E3,9.5E1,4.733E3,3.4E1,6.1E1,4.697E3,3.6E1],"tree_param":{"num_deleted":"0","num_feature":"1058","num_nodes":"7","size_leaf_vector":"1"}},{"base_weights":[1.4608333E-4,6.979839E-2,-3.3336012E-3,6.2197335E-2,3.8868547E-3,4.988084E-4,-6.030664E-3],"categories":[],"categories_nodes":[],"categories_segments":[],"categories_sizes":[],"default_left":[0,0,0,0,0,0,0],"id":106,"left_children":[1,3,5,-1,-1,-1,-1],"loss_changes":[1.171578E0,3.8555722E0,2.1837125E0,0E0,0E0,0E0,0E0],"parents":[2147483647,0,0,1,1,2,2],"right_children":[2,4,6,-1,-1,-1,-1],"split_conditions":[-6.3058615E-2,2.0230982E-1,-6.763603E-1,6.2197335E-2,3.8868547E-3,4.988084E-4,-6.030664E-3],"split_indices":[270,538,800,0,0,0,0],"split_type":[0,0,0,0,0,0,0],"sum_hessian":[4.828E3,2.27E2,4.601E3,9E0,2.18E2,4.017E3,5.84E2],"tree_param":{"num_deleted":"0","num_feature":"1058","num_nodes":"7","size_leaf_vector":"1"}},{"base_weights":[1.690847E-4,-8.556244E-2,2.9900563E-3,-1.16810445E-2,3.5251897E-2,-3.5275845E-4,5.6068394E-3],"categories":[],"categories_nodes":[],"categories_segments":[],"categories_sizes":[],"default_left":[0,0,0,0,0,0,0],"id":107,"left_children":[1,3,5,-1,-1,-1,-1],"loss_changes":[1.1691264E0,2.2316658E0,1.6196185E0,0E0,0E0,0E0,0E0],"parents":[2147483647,0,0,1,1,2,2],"right_children":[2,4,6,-1,-1,-1,-1],"split_conditions":[-2.5907472E-2,2.4711907E-1,2.344479E-1,-1.16810445E-2,3.5251897E-2,-3.5275845E-4,5.6068394E-3],"split_indices":[45,452,923,0,0,0,0],"split_type":[0,0,0,0,0,0,0],"sum_hessian":[4.828E3,1.51E2,4.677E3,1.43E2,8E0,4.168E3,5.09E2],"tree_param":{"num_deleted":"0","num_feature":"1058","num_nodes":"7","size_leaf_vector":"1"}},{"base_weights":[1.7007222E-4,-8.5606255E-2,2.9925175E-3,-1.3708912E-2,1.71786E-2,1.9919597E-2,8.7312415E-5],"categories":[],"categories_nodes":[],"categories_segments":[],"categories_sizes":[],"default_left":[0,0,0,0,0,0,0],"id":108,"left_children":[1,3,5,-1,-1,-1,-1],"loss_changes":[1.1703489E0,2.1113484E0,1.9455733E0,0E0,0E0,0E0,0E0],"parents":[2147483647,0,0,1,1,2,2],"right_children":[2,4,6,-1,-1,-1,-1],"split_conditions":[-7.519568E-2,2.0214416E-1,3.6099933E-2,-1.3708912E-2,1.71786E-2,1.9919597E-2,8.7312415E-5],"split_indices":[685,990,136,0,0,0,0],"split_type":[0,0,0,0,0,0,0],"sum_hessian":[4.828E3,1.51E2,4.677E3,1.27E2,2.4E1,4.7E1,4.63E3],"tree_param":{"num_deleted":"0","num_feature":"1058","num_nodes":"7","size_leaf_vector":"1"}},{"base_weights":[1.6765585E-4,1.9315201E-3,-1.3785574E-1,2.9169828E-2,7.729406E-5,-2.0305773E-2,2.5559166E-2],"categories":[],"categories_nodes":[],"categories_segments":[],"categories_sizes":[],"default_left":[0,0,0,0,0,0,0],"id":109,"left_children":[1,3,5,-1,-1,-1,-1],"loss_changes":[1.1769277E0,1.6017046E0,1.720566E0,0E0,0E0,0E0,0E0],"parents":[2147483647,0,0,1,1,2,2],"right_children":[2,4,6,-1,-1,-1,-1],"split_conditions":[2.7101355E-2,-2.112559E-2,5.353334E-1,2.9169828E-2,7.729406E-5,-2.0305773E-2,2.5559166E-2],"split_indices":[59,351,205,0,0,0,0],"split_type":[0,0,0,0,0,0,0],"sum_hessian":[4.828E3,4.77E3,5.8E1,1.6E1,4.754E3,5.1E1,7E0],"tree_param":{"num_deleted":"0","num_feature":"1058","num_nodes":"7","size_leaf_vector":"1"}},{"base_weights":[1.723254E-4,-8.570834E-2,2.9982026E-3,1.7734477E-2,-1.2894041E-2,2.5234926E-2,1.0104747E-4],"categories":[],"categories_nodes":[],"categories_segments":[],"categories_sizes":[],"default_left":[0,0,0,0,0,0,0],"id":110,"left_children":[1,3,5,-1,-1,-1,-1],"loss_changes":[1.1731977E0,1.8199394E0,2.31884E0,0E0,0E0,0E0,0E0],"parents":[2147483647,0,0,1,1,2,2],"right_children":[2,4,6,-1,-1,-1,-1],"split_conditions":[-3.6522737E-1,-7.890562E-2,-1.1349123E-1,1.7734477E-2,-1.2894041E-2,2.5234926E-2,1.0104747E-4],"split_indices":[487,661,37,0,0,0,0],"split_type":[0,0,0,0,0,0,0],"sum_hessian":[4.828E3,1.51E2,4.677E3,2E1,1.31E2,3.4E1,4.643E3],"tree_param":{"num_deleted":"0","num_feature":"1058","num_nodes":"7","size_leaf_vector":"1"}},{"base_weights":[1.7382219E-4,-2.0667072E-3,1.07329234E-1,-2.1237664E-2,-4.101092E-5,4.0956397E-2,-1.1381035E-3],"categories":[],"categories_nodes":[],"categories_segments":[],"categories_sizes":[],"default_left":[0,0,0,0,0,0,0],"id":111,"left_children":[1,3,5,-1,-1,-1,-1],"loss_changes":[1.1605154E0,1.6494082E0,3.5659416E0,0E0,0E0,0E0,0E0],"parents":[2147483647,0,0,1,1,2,2],"right_children":[2,4,6,-1,-1,-1,-1],"split_conditions":[-2.1227059E-1,-1.957343E-1,-6.344115E-1,-2.1237664E-2,-4.101092E-5,4.0956397E-2,-1.1381035E-3],"split_indices":[1048,458,793,0,0,0,0],"split_type":[0,0,0,0,0,0,0],"sum_hessian":[4.828E3,4.732E3,9.6E1,3.4E1,4.698E3,2.5E1,7.1E1],"tree_param":{"num_deleted":"0","num_feature":"1058","num_nodes":"7","size_leaf_vector":"1"}},{"base_weights":[1.6795141E-4,-2.4630968E-3,9.03689E-2,-1.2244229E-2,-9.262683E-6,3.2335512E-2,-2.6529755E-3],"categories":[],"categories_nodes":[],"categories_segments":[],"categories_sizes":[],"default_left":[0,0,0,0,0,0,0],"id":112,"left_children":[1,3,5,-1,-1,-1,-1],"loss_changes":[1.1471754E0,1.3358259E0,3.757037E0,0E0,0E0,0E0,0E0],"parents":[2147483647,0,0,1,1,2,2],"right_children":[2,4,6,-1,-1,-1,-1],"split_conditions":[-8.4284574E-2,1.0028604E-1,5.0587696E-1,-1.2244229E-2,-9.262683E-6,3.2335512E-2,-2.6529755E-3],"split_indices":[106,740,821,0,0,0,0],"split_type":[0,0,0,0,0,0,0],"sum_hessian":[4.828E3,4.694E3,1.34E2,8.8E1,4.606E3,4.3E1,9.1E1],"tree_param":{"num_deleted":"0","num_feature":"1058","num_nodes":"7","size_leaf_vector":"1"}},{"base_weights":[1.619869E-4,2.2543952E-1,-8.6806127E-4,9.255928E-2,-3.1257223E-3,1.2842128E-4,-1.3503941E-2],"categories":[],"categories_nodes":[],"categories_segments":[],"categories_sizes":[],"default_left":[0,0,0,0,0,0,0],"id":113,"left_children":[1,3,5,-1,-1,-1,-1],"loss_changes":[1.1216048E0,4.04079E0,1.3900985E0,0E0,0E0,0E0,0E0],"parents":[2147483647,0,0,1,1,2,2],"right_children":[2,4,6,-1,-1,-1,-1],"split_conditions":[-8.4557645E-2,4.27856E-2,-5.7192482E-2,9.255928E-2,-3.1257223E-3,1.2842128E-4,-1.3503941E-2],"split_indices":[106,54,71,0,0,0,0],"split_type":[0,0,0,0,0,0,0],"sum_hessian":[4.828E3,1.9E1,4.809E3,3E0,1.6E1,4.736E3,7.3E1],"tree_param":{"num_deleted":"0","num_feature":"1058","num_nodes":"7","size_leaf_vector":"1"}},{"base_weights":[1.9302314E-4,5.1247925E-2,-4.4128723E-3,2.6753384E-3,4.0050555E-2,2.1371601E-2,-6.144193E-4],"categories":[],"categories_nodes":[],"categories_segments":[],"categories_sizes":[],"default_left":[0,0,0,0,0,0,0],"id":114,"left_children":[1,3,5,-1,-1,-1,-1],"loss_changes":[1.136705E0,3.3898172E0,1.6784437E0,0E0,0E0,0E0,0E0],"parents":[2147483647,0,0,1,1,2,2],"right_children":[2,4,6,-1,-1,-1,-1],"split_conditions":[2.2653975E-1,1.5103266E-1,1.09448254E-1,2.6753384E-3,4.0050555E-2,2.1371601E-2,-6.144193E-4],"split_indices":[184,155,477,0,0,0,0],"split_type":[0,0,0,0,0,0,0],"sum_hessian":[4.828E3,3.97E2,4.431E3,3.74E2,2.3E1,3.2E1,4.399E3],"tree_param":{"num_deleted":"0","num_feature":"1058","num_nodes":"7","size_leaf_vector":"1"}},{"base_weights":[2.1313992E-4,-5.789501E-2,4.1262214E-3,2.4082173E-2,-7.4748956E-3,4.7559813E-3,-4.175645E-4],"categories":[],"categories_nodes":[],"categories_segments":[],"categories_sizes":[],"default_left":[0,0,0,0,0,0,0],"id":115,"left_children":[1,3,5,-1,-1,-1,-1],"loss_changes":[1.0991987E0,1.5895432E0,1.6336621E0,0E0,0E0,0E0,0E0],"parents":[2147483647,0,0,1,1,2,2],"right_children":[2,4,6,-1,-1,-1,-1],"split_conditions":[-1.7468654E-2,2.6525903E-1,-2.1020075E-2,2.4082173E-2,-7.4748956E-3,4.7559813E-3,-4.175645E-4],"split_indices":[647,690,351,0,0,0,0],"split_type":[0,0,0,0,0,0,0],"sum_hessian":[4.828E3,3.02E2,4.526E3,1.4E1,2.88E2,7.24E2,3.802E3],"tree_param":{"num_deleted":"0","num_feature":"1058","num_nodes":"7","size_leaf_vector":"1"}},{"base_weights":[2.0483727E-4,3.726898E-3,-6.437813E-2,8.236549E-3,-1.9754969E-4,2.7718678E-2,-9.446316E-3],"categories":[],"categories_nodes":[],"categories_segments":[],"categories_sizes":[],"default_left":[0,0,0,0,0,0,0],"id":116,"left_children":[1,3,5,-1,-1,-1,-1],"loss_changes":[1.099604E0,2.0560834E0,2.64755E0,0E0,0E0,0E0,0E0],"parents":[2147483647,0,0,1,1,2,2],"right_children":[2,4,6,-1,-1,-1,-1],"split_conditions":[4.2178667E-1,7.430735E-2,6.9666486E-3,8.236549E-3,-1.9754969E-4,2.7718678E-2,-9.446316E-3],"split_indices":[971,834,66,0,0,0,0],"split_type":[0,0,0,0,0,0,0],"sum_hessian":[4.828E3,4.581E3,2.47E2,3.07E2,4.274E3,1.8E1,2.29E2],"tree_param":{"num_deleted":"0","num_feature":"1058","num_nodes":"7","size_leaf_vector":"1"}},{"base_weights":[2.0068928E-4,2.3932057E-3,-1.0466969E-1,4.0090773E-2,1.2952441E-4,-3.1244356E-2,3.8350243E-4],"categories":[],"categories_nodes":[],"categories_segments":[],"categories_sizes":[],"default_left":[0,0,0,0,0,0,0],"id":117,"left_children":[1,3,5,-1,-1,-1,-1],"loss_changes":[1.1115434E0,2.0702586E0,2.2354946E0,0E0,0E0,0E0,0E0],"parents":[2147483647,0,0,1,1,2,2],"right_children":[2,4,6,-1,-1,-1,-1],"split_conditions":[-7.977177E-1,-8.4557645E-2,-5.6902045E-1,4.0090773E-2,1.2952441E-4,-3.1244356E-2,3.8350243E-4],"split_indices":[143,106,789,0,0,0,0],"split_type":[0,0,0,0,0,0,0],"sum_hessian":[4.828E3,4.732E3,9.6E1,1E1,4.722E3,3.1E1,6.5E1],"tree_param":{"num_deleted":"0","num_feature":"1058","num_nodes":"7","size_leaf_vector":"1"}},{"base_weights":[1.8642172E-4,2.2293967E-1,-8.3210086E-4,4.6842187E-4,5.366361E-2,-8.832174E-3,2.0203377E-4],"categories":[],"categories_nodes":[],"categories_segments":[],"categories_sizes":[],"default_left":[0,0,0,0,0,0,0],"id":118,"left_children":[1,3,5,-1,-1,-1,-1],"loss_changes":[1.0966101E0,1.49871E0,1.2014123E0,0E0,0E0,0E0,0E0],"parents":[2147483647,0,0,1,1,2,2],"right_children":[2,4,6,-1,-1,-1,-1],"split_conditions":[-3.770428E-1,2.9649907E-1,-2.8462386E-2,4.6842187E-4,5.366361E-2,-8.832174E-3,2.0203377E-4],"split_indices":[565,31,736,0,0,0,0],"split_type":[0,0,0,0,0,0,0],"sum_hessian":[4.828E3,1.9E1,4.809E3,1.3E1,6E0,1.49E2,4.66E3],"tree_param":{"num_deleted":"0","num_feature":"1058","num_nodes":"7","size_leaf_vector":"1"}},{"base_weights":[1.9603112E-4,-8.456731E-4,2.1806781E-1,-7.28997E-3,3.2352042E-4,-4.6030167E-3,5.752042E-2],"categories":[],"categories_nodes":[],"categories_segments":[],"categories_sizes":[],"default_left":[0,0,0,0,0,0,0],"id":119,"left_children":[1,3,5,-1,-1,-1,-1],"loss_changes":[1.0969871E0,1.4153515E0,2.2487674E0,0E0,0E0,0E0,0E0],"parents":[2147483647,0,0,1,1,2,2],"right_children":[2,4,6,-1,-1,-1,-1],"split_conditions":[2.1779789E-1,2.6479247E-1,2.4580362E1,-7.28997E-3,3.2352042E-4,-4.6030167E-3,5.752042E-2],"split_indices":[819,662,32,0,0,0,0],"split_type":[0,0,0,0,0,0,0],"sum_hessian":[4.828E3,4.808E3,2E1,2.55E2,4.553E3,1.3E1,7E0],"tree_param":{"num_deleted":"0","num_feature":"1058","num_nodes":"7","size_leaf_vector":"1"}},{"base_weights":[2.0495869E-4,1.16292596E-1,-1.7238612E-3,-1.8817015E-3,4.2827096E-2,3.768544E-4,-5.8887796E-3],"categories":[],"categories_nodes":[],"categories_segments":[],"categories_sizes":[],"default_left":[0,0,0,0,0,0,0],"id":120,"left_children":[1,3,5,-1,-1,-1,-1],"loss_changes":[1.0823212E0,3.3541265E0,1.493581E0,0E0,0E0,0E0,0E0],"parents":[2147483647,0,0,1,1,2,2],"right_children":[2,4,6,-1,-1,-1,-1],"split_conditions":[9.0315044E-2,-4.980669E-2,-1.1461008E0,-1.8817015E-3,4.2827096E-2,3.768544E-4,-5.8887796E-3],"split_indices":[604,321,39,0,0,0,0],"split_type":[0,0,0,0,0,0,0],"sum_hessian":[4.828E3,7.6E1,4.752E3,5.5E1,2.1E1,4.338E3,4.14E2],"tree_param":{"num_deleted":"0","num_feature":"1058","num_nodes":"7","size_leaf_vector":"1"}},{"base_weights":[2.0647066E-4,-2.5263336E-3,8.26979E-2,1.4038036E-4,-8.702564E-3,3.457136E-2,3.0531533E-4],"categories":[],"categories_nodes":[],"categories_segments":[],"categories_sizes":[],"default_left":[0,0,0,0,0,0,0],"id":121,"left_children":[1,3,5,-1,-1,-1,-1],"loss_changes":[1.0896933E0,1.5542336E0,3.2437458E0,0E0,0E0,0E0,0E0],"parents":[2147483647,0,0,1,1,2,2],"right_children":[2,4,6,-1,-1,-1,-1],"split_conditions":[1.5570264E-1,4.9482515E-1,-4.003171E-1,1.4038036E-4,-8.702564E-3,3.457136E-2,3.0531533E-4],"split_indices":[707,512,640,0,0,0,0],"split_type":[0,0,0,0,0,0,0],"sum_hessian":[4.828E3,4.676E3,1.52E2,4.471E3,2.05E2,3.3E1,1.19E2],"tree_param":{"num_deleted":"0","num_feature":"1058","num_nodes":"7","size_leaf_vector":"1"}},{"base_weights":[2.0215394E-4,2.2471024E-1,-8.2440145E-4,-5.81102E-3,4.749215E-2,-2.6820872E-2,2.9137736E-5],"categories":[],"categories_nodes":[],"categories_segments":[],"categories_sizes":[],"default_left":[0,0,0,0,0,0,0],"id":122,"left_children":[1,3,5,-1,-1,-1,-1],"loss_changes":[1.1139562E0,1.6396203E0,1.4358549E0,0E0,0E0,0E0,0E0],"parents":[2147483647,0,0,1,1,2,2],"right_children":[2,4,6,-1,-1,-1,-1],"split_conditions":[1.7259347E-1,-2.6652446E-1,-6.7950994E-2,-5.81102E-3,4.749215E-2,-2.6820872E-2,2.9137736E-5],"split_indices":[989,278,606,0,0,0,0],"split_type":[0,0,0,0,0,0,0],"sum_hessian":[4.828E3,1.9E1,4.809E3,1E1,9E0,1.7E1,4.792E3],"tree_param":{"num_deleted":"0","num_feature":"1058","num_nodes":"7","size_leaf_vector":"1"}},{"base_weights":[1.9119726E-4,-1.7646649E-3,1.1641114E-1,-8.803423E-3,1.9832332E-4,-6.121719E-3,3.2780763E-2],"categories":[],"categories_nodes":[],"categories_segments":[],"categories_sizes":[],"default_left":[0,0,0,0,0,0,0],"id":123,"left_children":[1,3,5,-1,-1,-1,-1],"loss_changes":[1.0987519E0,1.5376325E0,3.0642025E0,0E0,0E0,0E0,0E0],"parents":[2147483647,0,0,1,1,2,2],"right_children":[2,4,6,-1,-1,-1,-1],"split_conditions":[2.5218993E-1,-1.2075241E-1,3.905992E-1,-8.803423E-3,1.9832332E-4,-6.121719E-3,3.2780763E-2],"split_indices":[786,1007,664,0,0,0,0],"split_type":[0,0,0,0,0,0,0],"sum_hessian":[4.828E3,4.751E3,7.7E1,1.95E2,4.556E3,4.3E1,3.4E1],"tree_param":{"num_deleted":"0","num_feature":"1058","num_nodes":"7","size_leaf_vector":"1"}},{"base_weights":[1.8327888E-4,6.5058514E-2,-3.3400545E-3,4.9606454E-2,2.5031231E-3,-8.284582E-3,1.341226E-4],"categories":[],"categories_nodes":[],"categories_segments":[],"categories_sizes":[],"default_left":[0,0,0,0,0,0,0],"id":124,"left_children":[1,3,5,-1,-1,-1,-1],"loss_changes":[1.1049078E0,4.2584968E0,1.7068188E0,0E0,0E0,0E0,0E0],"parents":[2147483647,0,0,1,1,2,2],"right_children":[2,4,6,-1,-1,-1,-1],"split_conditions":[1.1809351E0,-2.8583694E-1,-2.8120232E-1,4.9606454E-2,2.5031231E-3,-8.284582E-3,1.341226E-4],"split_indices":[916,695,163,0,0,0,0],"split_type":[0,0,0,0,0,0,0],"sum_hessian":[4.828E3,2.46E2,4.582E3,1.8E1,2.28E2,2.52E2,4.33E3],"tree_param":{"num_deleted":"0","num_feature":"1058","num_nodes":"7","size_leaf_vector":"1"}},{"base_weights":[1.9224921E-4,-1.7512297E-3,1.1567628E-1,2.1702526E-5,-1.6112324E-2,2.6747936E-3,8.083061E-2],"categories":[],"categories_nodes":[],"categories_segments":[],"categories_sizes":[],"default_left":[0,0,0,0,0,0,0],"id":125,"left_children":[1,3,5,-1,-1,-1,-1],"loss_changes":[1.0848811E0,1.4913623E0,4.862692E0,0E0,0E0,0E0,0E0],"parents":[2147483647,0,0,1,1,2,2],"right_children":[2,4,6,-1,-1,-1,-1],"split_conditions":[-3.275991E-1,6.6704154E-2,6.8580306E-1,2.1702526E-5,-1.6112324E-2,2.6747936E-3,8.083061E-2],"split_indices":[144,871,196,0,0,0,0],"split_type":[0,0,0,0,0,0,0],"sum_hessian":[4.828E3,4.751E3,7.7E1,4.696E3,5.5E1,7.1E1,6E0],"tree_param":{"num_deleted":"0","num_feature":"1058","num_nodes":"7","size_leaf_vector":"1"}},{"base_weights":[2.1489048E-4,1.3402964E-1,-1.4670388E-3,-3.4680464E-3,3.3055697E-2,-7.765332E-3,1.8803922E-4],"categories":[],"categories_nodes":[],"categories_segments":[],"categories_sizes":[],"default_left":[0,0,0,0,0,0,0],"id":126,"left_children":[1,3,5,-1,-1,-1,-1],"loss_changes":[1.0878884E0,2.0237603E0,1.2179432E0,0E0,0E0,0E0,0E0],"parents":[2147483647,0,0,1,1,2,2],"right_children":[2,4,6,-1,-1,-1,-1],"split_conditions":[4.2553076E-1,6.4088076E-1,3.5735238E-1,-3.4680464E-3,3.3055697E-2,-7.765332E-3,1.8803922E-4],"split_indices":[751,56,880,0,0,0,0],"split_type":[0,0,0,0,0,0,0],"sum_hessian":[4.828E3,5.7E1,4.771E3,3.2E1,2.5E1,1.98E2,4.573E3],"tree_param":{"num_deleted":"0","num_feature":"1058","num_nodes":"7","size_leaf_vector":"1"}},{"base_weights":[2.070757E-4,1.3369802E-1,-1.470779E-3,3.9791647E-2,-3.9182412E-3,3.463317E-5,-1.4923858E-2],"categories":[],"categories_nodes":[],"categories_segments":[],"categories_sizes":[],"default_left":[0,0,0,0,0,0,0],"id":127,"left_children":[1,3,5,-1,-1,-1,-1],"loss_changes":[1.0826296E0,2.787466E0,1.2820238E0,0E0,0E0,0E0,0E0],"parents":[2147483647,0,0,1,1,2,2],"right_children":[2,4,6,-1,-1,-1,-1],"split_conditions":[-2.1689938E-1,2.578202E-1,3.232124E-1,3.9791647E-2,-3.9182412E-3,3.463317E-5,-1.4923858E-2],"split_indices":[904,294,1051,0,0,0,0],"split_type":[0,0,0,0,0,0,0],"sum_hessian":[4.828E3,5.7E1,4.771E3,2.1E1,3.6E1,4.716E3,5.5E1],"tree_param":{"num_deleted":"0","num_feature":"1058","num_nodes":"7","size_leaf_vector":"1"}},{"base_weights":[1.9938823E-4,8.199621E-2,-2.4923442E-3,4.369247E-2,1.2911352E-3,4.0308642E-4,-7.2704586E-3],"categories":[],"categories_nodes":[],"categories_segments":[],"categories_sizes":[],"default_left":[0,0,0,0,0,0,0],"id":128,"left_children":[1,3,5,-1,-1,-1,-1],"loss_changes":[1.0642792E0,3.7591846E0,2.1443617E0,0E0,0E0,0E0,0E0],"parents":[2147483647,0,0,1,1,2,2],"right_children":[2,4,6,-1,-1,-1,-1],"split_conditions":[8.7469354E-2,3.0188179E-3,-8.133149E-1,4.369247E-2,1.2911352E-3,4.0308642E-4,-7.2704586E-3],"split_indices":[326,905,840,0,0,0,0],"split_type":[0,0,0,0,0,0,0],"sum_hessian":[4.828E3,1.51E2,4.677E3,2.2E1,1.29E2,4.282E3,3.95E2],"tree_param":{"num_deleted":"0","num_feature":"1058","num_nodes":"7","size_leaf_vector":"1"}},{"base_weights":[2.0312404E-4,7.0117876E-2,-2.988012E-3,5.6869447E-2,3.6825095E-3,4.514073E-4,-5.4192664E-3],"categories":[],"categories_nodes":[],"categories_segments":[],"categories_sizes":[],"default_left":[0,0,0,0,0,0,0],"id":129,"left_children":[1,3,5,-1,-1,-1,-1],"loss_changes":[1.0784608E0,3.4395623E0,1.7766206E0,0E0,0E0,0E0,0E0],"parents":[2147483647,0,0,1,1,2,2],"right_children":[2,4,6,-1,-1,-1,-1],"split_conditions":[-6.306103E-2,-5.3717244E-1,-6.763603E-1,5.6869447E-2,3.6825095E-3,4.514073E-4,-5.4192664E-3],"split_indices":[270,480,800,0,0,0,0],"split_type":[0,0,0,0,0,0,0],"sum_hessian":[4.828E3,2.08E2,4.62E3,1E1,1.98E2,4.032E3,5.88E2],"tree_param":{"num_deleted":"0","num_feature":"1058","num_nodes":"7","size_leaf_vector":"1"}},{"base_weights":[2.1732393E-4,-3.9065406E-3,5.404145E-2,-5.2218087E-4,2.7674107E-2,3.942992E-3,7.4058376E-2],"categories":[],"categories_nodes":[],"categories_segments":[],"categories_sizes":[],"default_left":[0,0,0,0,0,0,0],"id":130,"left_children":[1,3,5,-1,-1,-1,-1],"loss_changes":[1.0729384E0,1.6617151E0,3.3632097E0,0E0,0E0,0E0,0E0],"parents":[2147483647,0,0,1,1,2,2],"right_children":[2,4,6,-1,-1,-1,-1],"split_conditions":[5.9459675E-2,-6.891298E-1,6.29807E-1,-5.2218087E-4,2.7674107E-2,3.942992E-3,7.4058376E-2],"split_indices":[767,780,813,0,0,0,0],"split_type":[0,0,0,0,0,0,0],"sum_hessian":[4.828E3,4.487E3,3.41E2,4.469E3,1.8E1,3.37E2,4E0],"tree_param":{"num_deleted":"0","num_feature":"1058","num_nodes":"7","size_leaf_vector":"1"}},{"base_weights":[2.608817E-4,-1.8915113E-3,1.0319824E-1,1.517398E-4,-9.021974E-3,2.4814324E-3,5.0516207E-2],"categories":[],"categories_nodes":[],"categories_segments":[],"categories_sizes":[],"default_left":[0,0,0,0,0,0,0],"id":131,"left_children":[1,3,5,-1,-1,-1,-1],"loss_changes":[1.0709499E0,1.4261332E0,3.0816367E0,0E0,0E0,0E0,0E0],"parents":[2147483647,0,0,1,1,2,2],"right_children":[2,4,6,-1,-1,-1,-1],"split_conditions":[3.113157E-1,5.059822E-1,-2.6682273E-1,1.517398E-4,-9.021974E-3,2.4814324E-3,5.0516207E-2],"split_indices":[470,821,561,0,0,0,0],"split_type":[0,0,0,0,0,0,0],"sum_hessian":[4.828E3,4.732E3,9.6E1,4.559E3,1.73E2,8.3E1,1.3E1],"tree_param":{"num_deleted":"0","num_feature":"1058","num_nodes":"7","size_leaf_vector":"1"}},{"base_weights":[2.6219472E-4,1.1564634E-1,-1.6549733E-3,4.3290008E-2,-1.3909169E-3,-7.38239E-3,2.2808694E-4],"categories":[],"categories_nodes":[],"categories_segments":[],"categories_sizes":[],"default_left":[0,0,0,