{"learner":{"attributes":{"best_iteration":"243","best_score":"0.03022028418071497","scikit_learn":"{\"_estimator_type\": \"regressor\"}"},"feature_names":[],"feature_types":[],"gradient_booster":{"model":{"cats":{"enc":[],"feature_segments":[],"sorted_idx":[]},"gbtree_model_param":{"num_parallel_tree":"1","num_trees":"294"},"iteration_indptr":[0,1,2,3,4,5,6,7,8,9,10,11,12,13,14,15,16,17,18,19,20,21,22,23,24,25,26,27,28,29,30,31,32,33,34,35,36,37,38,39,40,41,42,43,44,45,46,47,48,49,50,51,52,53,54,55,56,57,58,59,60,61,62,63,64,65,66,67,68,69,70,71,72,73,74,75,76,77,78,79,80,81,82,83,84,85,86,87,88,89,90,91,92,93,94,95,96,97,98,99,100,101,102,103,104,105,106,107,108,109,110,111,112,113,114,115,116,117,118,119,120,121,122,123,124,125,126,127,128,129,130,131,132,133,134,135,136,137,138,139,140,141,142,143,144,145,146,147,148,149,150,151,152,153,154,155,156,157,158,159,160,161,162,163,164,165,166,167,168,169,170,171,172,173,174,175,176,177,178,179,180,181,182,183,184,185,186,187,188,189,190,191,192,193,194,195,196,197,198,199,200,201,202,203,204,205,206,207,208,209,210,211,212,213,214,215,216,217,218,219,220,221,222,223,224,225,226,227,228,229,230,231,232,233,234,235,236,237,238,239,240,241,242,243,244,245,246,247,248,249,250,251,252,253,254,255,256,257,258,259,260,261,262,263,264,265,266,267,268,269,270,271,272,273,274,275,276,277,278,279,280,281,282,283,284,285,286,287,288,289,290,291,292,293,294],"tree_info":[0,0,0,0,0,0,0,0,0,0,0,0,0,0,0,0,0,0,0,0,0,0,0,0,0,0,0,0,0,0,0,0,0,0,0,0,0,0,0,0,0,0,0,0,0,0,0,0,0,0,0,0,0,0,0,0,0,0,0,0,0,0,0,0,0,0,0,0,0,0,0,0,0,0,0,0,0,0,0,0,0,0,0,0,0,0,0,0,0,0,0,0,0,0,0,0,0,0,0,0,0,0,0,0,0,0,0,0,0,0,0,0,0,0,0,0,0,0,0,0,0,0,0,0,0,0,0,0,0,0,0,0,0,0,0,0,0,0,0,0,0,0,0,0,0,0,0,0,0,0,0,0,0,0,0,0,0,0,0,0,0,0,0,0,0,0,0,0,0,0,0,0,0,0,0,0,0,0,0,0,0,0,0,0,0,0,0,0,0,0,0,0,0,0,0,0,0,0,0,0,0,0,0,0,0,0,0,0,0,0,0,0,0,0,0,0,0,0,0,0,0,0,0,0,0,0,0,0,0,0,0,0,0,0,0,0,0,0,0,0,0,0,0,0,0,0,0,0,0,0,0,0,0,0,0,0,0,0,0,0,0,0,0,0,0,0,0,0,0,0,0,0,0,0,0,0,0,0,0,0,0,0,0,0,0,0,0,0,0,0,0,0,0,0],"trees":[{"base_weights":[-2.15425E-10,-9.438886E-3,3.5238507E-1,-2.017679E-2,5.468437E-2,2.5938985E-1,6.413235E-1,-2.8552538E-2,-7.814165E-3,3.7666142E-2,1.20037645E-1,3.929478E-1,2.2398488E-1,8.161074E-4,6.628753E-1,-2.8862816E-3,-1.8257998E-3,-2.5243205E-3,4.174132E-4,2.7575477E-3,5.7526096E-3,1.803261E-2,9.385719E-3,5.2609914E-3,4.0893268E-2,1.8602513E-2,2.7392501E-2,5.0663915E-2,7.581522E-2],"categories":[],"categories_nodes":[],"categories_segments":[],"categories_sizes":[],"default_left":[0,0,0,0,0,0,0,0,0,0,0,0,0,0,0,0,0,0,0,0,0,0,0,0,0,0,0,0,0],"id":0,"left_children":[1,3,5,7,9,11,13,15,17,19,21,23,25,-1,27,-1,-1,-1,-1,-1,-1,-1,-1,-1,-1,-1,-1,-1,-1],"loss_changes":[1.6065172E1,3.24004E0,3.2192554E0,4.17068E-1,7.462115E-1,3.7066078E-1,4.039631E-1,7.145524E-3,3.4047592E-1,1.0602862E-1,2.0246959E-1,8.1851006E-2,9.880471E-2,0E0,4.757595E-2,0E0,0E0,0E0,0E0,0E0,0E0,0E0,0E0,0E0,0E0,0E0,0E0,0E0,0E0],"parents":[2147483647,0,0,1,1,2,2,3,3,4,4,5,5,6,6,7,7,8,8,9,9,10,10,11,11,12,12,14,14],"right_children":[2,4,6,8,10,12,14,16,18,20,22,24,26,-1,28,-1,-1,-1,-1,-1,-1,-1,-1,-1,-1,-1,-1,-1,-1],"split_conditions":[3.338564E2,5.542122E1,8.800701E2,2.3257676E-1,1.6685765E2,1.0393242E-5,2.1695623E-6,1.00473385E1,4.746628E0,1.0712626E2,7.946536E1,6.827339E-7,5.201464E2,8.161074E-4,1.6221248E3,-2.8862816E-3,-1.8257998E-3,-2.5243205E-3,4.174132E-4,2.7575477E-3,5.7526096E-3,1.803261E-2,9.385719E-3,5.2609914E-3,4.0893268E-2,1.8602513E-2,2.7392501E-2,5.0663915E-2,7.581522E-2],"split_indices":[32,32,32,24,32,20,13,32,32,32,33,5,32,0,32,0,0,0,0,0,0,0,0,0,0,0,0,0,0],"split_type":[0,0,0,0,0,0,0,0,0,0,0,0,0,0,0,0,0,0,0,0,0,0,0,0,0,0,0,0,0],"sum_hessian":[4.828E3,4.703E3,1.25E2,4.029E3,6.74E2,9.6E1,2.9E1,2.401E3,1.628E3,5.36E2,1.38E2,1.8E1,7.8E1,1E0,2.8E1,2.329E3,7.2E1,6.63E2,9.65E2,3.57E2,1.79E2,4E1,9.8E1,1E0,1.7E1,4.7E1,3.1E1,1.3E1,1.5E1],"tree_param":{"num_deleted":"0","num_feature":"34","num_nodes":"29","size_leaf_vector":"1"}},{"base_weights":[5.1470965E-5,-1.086412E-2,2.4019423E-1,-2.300871E-2,4.302778E-2,1.969069E-1,6.204037E-1,-2.5514647E-2,-6.1375494E-3,2.4046293E-1,3.6009964E-2,1.443403E-1,2.7217552E-1,6.651786E-1,1.30028175E-2,-2.6164486E-3,-1.8076169E-3,-1.0095993E-3,2.345185E-3,6.4807027E-3,3.0429339E-2,2.3272713E-3,5.8805863E-3,3.3661198E-2,1.3054176E-2,2.3051046E-2,3.4961846E-2,7.1354814E-2,3.0540574E-2],"categories":[],"categories_nodes":[],"categories_segments":[],"categories_sizes":[],"default_left":[0,0,0,0,0,0,0,0,0,0,0,0,0,0,0,0,0,0,0,0,0,0,0,0,0,0,0,0,0],"id":1,"left_children":[1,3,5,7,9,11,13,15,17,19,21,23,25,27,-1,-1,-1,-1,-1,-1,-1,-1,-1,-1,-1,-1,-1,-1,-1],"loss_changes":[1.2660868E1,3.0247571E0,3.334072E0,1.5927386E-1,1.1690707E0,7.124715E-1,3.745947E-1,1.5396357E-2,5.751235E-2,3.054334E-1,2.3730493E-1,2.5850797E-1,1.6786289E-1,1.1271763E-1,0E0,0E0,0E0,0E0,0E0,0E0,0E0,0E0,0E0,0E0,0E0,0E0,0E0,0E0,0E0],"parents":[2147483647,0,0,1,1,2,2,3,3,4,4,5,5,6,6,7,7,8,8,9,9,10,10,11,11,12,12,13,13],"right_children":[2,4,6,8,10,12,14,16,18,20,22,24,26,28,-1,-1,-1,-1,-1,-1,-1,-1,-1,-1,-1,-1,-1,-1,-1],"split_conditions":[2.0195446E0,6.1953837E-1,1.1303436E1,4.096477E-1,7.1749996E-6,3.6780448E0,2.411975E-5,3.423119E-1,5.210979E-1,3.5799999E-6,1.1450872E0,6.005563E-6,3.1616278E-6,6.73476E-6,1.30028175E-2,-2.6164486E-3,-1.8076169E-3,-1.0095993E-3,2.345185E-3,6.4807027E-3,3.0429339E-2,2.3272713E-3,5.8805863E-3,3.3661198E-2,1.3054176E-2,2.3051046E-2,3.4961846E-2,7.1354814E-2,3.0540574E-2],"split_indices":[31,31,31,31,7,31,12,31,24,6,31,4,9,17,0,0,0,0,0,0,0,0,0,0,0,0,0,0,0],"split_type":[0,0,0,0,0,0,0,0,0,0,0,0,0,0,0,0,0,0,0,0,0,0,0,0,0,0,0,0,0],"sum_hessian":[4.828E3,4.619E3,2.09E2,3.77E3,8.49E2,1.89E2,2E1,3.282E3,4.88E2,2.8E1,8.21E2,1.13E2,7.6E1,1.8E1,2E0,3.016E3,2.66E2,4.31E2,5.7E1,8E0,2E1,5.28E2,2.93E2,6E0,1.07E2,5.2E1,2.4E1,1.5E1,3E0],"tree_param":{"num_deleted":"0","num_feature":"34","num_nodes":"29","size_leaf_vector":"1"}},{"base_weights":[1.0050837E-4,-8.973641E-3,2.5190756E-1,-2.0560276E-2,4.133829E-2,1.8931307E-1,5.335317E-1,-2.296453E-2,-4.982068E-3,3.712225E-2,2.800211E-1,1.5234125E-1,2.710732E-1,4.8127267E-4,5.515975E-1,-2.3446276E-3,-1.4378389E-3,2.8306805E-3,-8.0430973E-4,2.5859394E-3,6.65722E-3,1.1704746E-2,4.4955563E-2,1.982562E-2,1.2485117E-2,3.4933385E-2,2.0388262E-2,4.0094886E-2,6.343525E-2],"categories":[],"categories_nodes":[],"categories_segments":[],"categories_sizes":[],"default_left":[0,0,0,0,0,0,0,0,0,0,0,0,0,0,0,0,0,0,0,0,0,0,0,0,0,0,0,0,0],"id":2,"left_children":[1,3,5,7,9,11,13,15,17,19,21,23,25,-1,27,-1,-1,-1,-1,-1,-1,-1,-1,-1,-1,-1,-1,-1,-1],"loss_changes":[1.103621E1,2.718544E0,2.8605204E0,1.4183629E-1,8.681021E-1,3.7887716E-1,2.8389645E-1,1.3242364E-2,5.1991966E-2,2.8320062E-1,3.6182535E-1,9.894347E-2,1.4962888E-1,0E0,1.0719776E-1,0E0,0E0,0E0,0E0,0E0,0E0,0E0,0E0,0E0,0E0,0E0,0E0,0E0,0E0],"parents":[2147483647,0,0,1,1,2,2,3,3,4,4,5,5,6,6,7,7,8,8,9,9,10,10,11,11,12,12,14,14],"right_children":[2,4,6,8,10,12,14,16,18,20,22,24,26,-1,28,-1,-1,-1,-1,-1,-1,-1,-1,-1,-1,-1,-1,-1,-1],"split_conditions":[2.4883731E2,6.3213956E-1,8.800701E2,4.096477E-1,4.413642E0,5.201464E2,2.1695623E-6,1.6414524E1,6.405378E-6,1.336074E0,3.0200067E-6,8.67332E1,3.245E-6,4.8127267E-4,1.1303436E1,-2.3446276E-3,-1.4378389E-3,2.8306805E-3,-8.0430973E-4,2.5859394E-3,6.65722E-3,1.1704746E-2,4.4955563E-2,1.982562E-2,1.2485117E-2,3.4933385E-2,2.0388262E-2,4.0094886E-2,6.343525E-2],"split_indices":[32,31,32,31,31,32,13,32,8,31,9,33,2,0,31,0,0,0,0,0,0,0,0,0,0,0,0,0,0],"split_type":[0,0,0,0,0,0,0,0,0,0,0,0,0,0,0,0,0,0,0,0,0,0,0,0,0,0,0,0,0],"sum_hessian":[4.828E3,4.661E3,1.67E2,3.789E3,8.72E2,1.38E2,2.9E1,3.282E3,5.07E2,8.58E2,1.4E1,9.7E1,4.1E1,1E0,2.8E1,3.106E3,1.76E2,4.2E1,4.65E2,6.22E2,2.36E2,8E0,6E0,3.4E1,6.3E1,1.7E1,2.4E1,1.2E1,1.6E1],"tree_param":{"num_deleted":"0","num_feature":"34","num_nodes":"29","size_leaf_vector":"1"}},{"base_weights":[1.4342654E-4,-6.95425E-3,2.651222E-1,-1.7664094E-2,4.5018457E-2,1.9480443E-1,4.8364562E-1,-1.9754142E-2,7.4892812E-3,3.5874553E-2,1.5199876E-1,3.3324976E-2,1.7133863E-1,4.5720898E-4,5.0000775E-1,-2.0532766E-3,-4.2963354E-4,4.170393E-3,2.6656777E-4,2.5647113E-3,6.8136505E-3,3.061909E-2,1.0578497E-2,9.545085E-3,1.8755246E-2,3.6393818E-2,5.7464868E-2],"categories":[],"categories_nodes":[],"categories_segments":[],"categories_sizes":[],"default_left":[0,0,0,0,0,0,0,0,0,0,0,0,0,0,0,0,0,0,0,0,0,0,0,0,0,0,0],"id":3,"left_children":[1,3,5,7,9,11,13,15,17,19,21,-1,23,-1,25,-1,-1,-1,-1,-1,-1,-1,-1,-1,-1,-1,-1],"loss_changes":[9.083907E0,2.619134E0,1.8419104E0,2.0523024E-1,7.8103423E-1,2.5802827E-1,2.3287344E-1,4.3264866E-2,4.940021E-2,2.4308062E-1,4.1653514E-1,0E0,8.6684465E-2,0E0,8.539772E-2,0E0,0E0,0E0,0E0,0E0,0E0,0E0,0E0,0E0,0E0,0E0,0E0],"parents":[2147483647,0,0,1,1,2,2,3,3,4,4,5,5,6,6,7,7,8,8,9,9,10,10,12,12,14,14],"right_children":[2,4,6,8,10,12,14,16,18,20,22,-1,24,-1,26,-1,-1,-1,-1,-1,-1,-1,-1,-1,-1,-1,-1],"split_conditions":[3.338564E2,7.108757E-1,8.800701E2,5.053566E-1,2.5107412E0,5.574815E-6,2.1695623E-6,3.2118397E1,4.8399997E-6,1.3126788E2,4.985451E0,3.3324976E-2,2.3192008E0,4.5720898E-4,1.1303436E1,-2.0532766E-3,-4.2963354E-4,4.170393E-3,2.6656777E-4,2.5647113E-3,6.8136505E-3,3.061909E-2,1.0578497E-2,9.545085E-3,1.8755246E-2,3.6393818E-2,5.7464868E-2],"split_indices":[32,31,32,31,31,4,13,32,10,32,32,0,31,0,31,0,0,0,0,0,0,0,0,0,0,0,0],"split_type":[0,0,0,0,0,0,0,0,0,0,0,0,0,0,0,0,0,0,0,0,0,0,0,0,0,0,0],"sum_hessian":[4.828E3,4.703E3,1.25E2,3.9E3,8.03E2,9.6E1,2.9E1,3.601E3,2.99E2,7.41E2,6.2E1,1.2E1,8.4E1,1E0,2.8E1,3.428E3,1.73E2,3.6E1,2.63E2,5.64E2,1.77E2,1.3E1,4.9E1,1.6E1,6.8E1,1.2E1,1.6E1],"tree_param":{"num_deleted":"0","num_feature":"34","num_nodes":"27","size_leaf_vector":"1"}},{"base_weights":[1.7225456E-4,-7.2801E-3,2.0697407E-1,-1.4638579E-2,4.5048147E-2,1.5553163E-1,4.3842492E-1,-1.7779417E-2,8.622066E-3,3.9846923E-2,2.3657079E-1,1.2408501E-1,2.2520396E-1,4.3434856E-4,4.5324346E-1,-1.9096973E-3,-9.735607E-4,8.374052E-3,5.560504E-4,3.4267826E-3,8.419695E-3,9.50134E-3,3.8477734E-2,1.9528156E-2,1.0886538E-2,2.929619E-2,1.6741008E-2,3.3034388E-2,5.205641E-2],"categories":[],"categories_nodes":[],"categories_segments":[],"categories_sizes":[],"default_left":[0,0,0,0,0,0,0,0,0,0,0,0,0,0,0,0,0,0,0,0,0,0,0,0,0,0,0,0,0],"id":4,"left_children":[1,3,5,7,9,11,13,15,17,19,21,23,25,-1,27,-1,-1,-1,-1,-1,-1,-1,-1,-1,-1,-1,-1,-1,-1],"loss_changes":[7.4437714E0,1.7957919E0,1.932086E0,2.9881406E-1,5.6336117E-1,2.7659893E-1,1.9100475E-1,3.7988782E-2,1.1153452E-1,1.3592482E-1,2.7813697E-1,8.493197E-2,1.1542702E-1,0E0,6.797123E-2,0E0,0E0,0E0,0E0,0E0,0E0,0E0,0E0,0E0,0E0,0E0,0E0,0E0,0E0],"parents":[2147483647,0,0,1,1,2,2,3,3,4,4,5,5,6,6,7,7,8,8,9,9,10,10,11,11,12,12,14,14],"right_children":[2,4,6,8,10,12,14,16,18,20,22,24,26,-1,28,-1,-1,-1,-1,-1,-1,-1,-1,-1,-1,-1,-1,-1,-1],"split_conditions":[2.4883731E2,8.82148E-1,8.800701E2,5.053566E-1,4.413642E0,5.201464E2,2.1695623E-6,3.6049506E-1,-2.1459219E-1,2.2162554E0,3.0200067E-6,1.6548709E-5,3.245E-6,4.3434856E-4,1.1303436E1,-1.9096973E-3,-9.735607E-4,8.374052E-3,5.560504E-4,3.4267826E-3,8.419695E-3,9.50134E-3,3.8477734E-2,1.9528156E-2,1.0886538E-2,2.929619E-2,1.6741008E-2,3.3034388E-2,5.205641E-2],"split_indices":[32,31,32,31,31,32,13,31,26,31,9,16,2,0,31,0,0,0,0,0,0,0,0,0,0,0,0,0,0],"split_type":[0,0,0,0,0,0,0,0,0,0,0,0,0,0,0,0,0,0,0,0,0,0,0,0,0,0,0,0,0],"sum_hessian":[4.828E3,4.661E3,1.67E2,4.087E3,5.74E2,1.38E2,2.9E1,3.601E3,4.86E2,5.6E2,1.4E1,9.7E1,4.1E1,1E0,2.8E1,3.093E3,5.08E2,1.8E1,4.68E2,4.99E2,6.1E1,8E0,6E0,1.5E1,8.2E1,1.7E1,2.4E1,1.2E1,1.6E1],"tree_param":{"num_deleted":"0","num_feature":"34","num_nodes":"29","size_leaf_vector":"1"}},{"base_weights":[2.022127E-4,-5.6203683E-3,2.1757697E-1,-1.3085374E-2,4.4034094E-2,1.5970825E-1,3.9743325E-1,-1.6002275E-2,8.4274355E-3,3.8895883E-2,2.1229059E-1,2.84941E-2,1.4037684E-1,4.2347482E-1,1.2229447E-1,-1.667551E-3,-2.642961E-4,9.17308E-3,5.232758E-4,2.8440831E-3,6.61601E-3,9.693502E-3,3.443682E-2,7.4171284E-3,1.5444994E-2,3.0554727E-2,4.854533E-2,4.1263105E-4,1.6030842E-2],"categories":[],"categories_nodes":[],"categories_segments":[],"categories_sizes":[],"default_left":[0,0,0,0,0,0,0,0,0,0,0,0,0,0,0,0,0,0,0,0,0,0,0,0,0,0,0,0,0],"id":5,"left_children":[1,3,5,7,9,11,13,15,17,19,21,-1,23,25,27,-1,-1,-1,-1,-1,-1,-1,-1,-1,-1,-1,-1,-1,-1],"loss_changes":[6.1132016E0,1.7442118E0,1.247941E0,2.567854E-1,5.2343345E-1,1.948309E-1,1.6316223E-1,3.235215E-2,1.2965631E-1,1.6857749E-1,2.408647E-1,0E0,6.867194E-2,4.9013615E-2,1.7306667E-2,0E0,0E0,0E0,0E0,0E0,0E0,0E0,0E0,0E0,0E0,0E0,0E0,0E0,0E0],"parents":[2147483647,0,0,1,1,2,2,3,3,4,4,5,5,6,6,7,7,8,8,9,9,10,10,12,12,13,13,14,14],"right_children":[2,4,6,8,10,12,14,16,18,20,22,-1,24,26,28,-1,-1,-1,-1,-1,-1,-1,-1,-1,-1,-1,-1,-1,-1],"split_conditions":[3.338564E2,8.82148E-1,8.800701E2,5.053566E-1,4.413642E0,5.5246805E-6,1.804E-5,3.2118397E1,4.03E-6,1.4268542E2,3.0200067E-6,2.84941E-2,2.3192008E0,1.1303436E1,6.630058E-6,-1.667551E-3,-2.642961E-4,9.17308E-3,5.232758E-4,2.8440831E-3,6.61601E-3,9.693502E-3,3.443682E-2,7.4171284E-3,1.5444994E-2,3.0554727E-2,4.854533E-2,4.1263105E-4,1.6030842E-2],"split_indices":[32,31,32,31,31,4,18,32,3,32,9,0,31,31,0,0,0,0,0,0,0,0,0,0,0,0,0,0,0],"split_type":[0,0,0,0,0,0,0,0,0,0,0,0,0,0,0,0,0,0,0,0,0,0,0,0,0,0,0,0,0],"sum_hessian":[4.828E3,4.703E3,1.25E2,4.089E3,6.14E2,9.6E1,2.9E1,3.601E3,4.88E2,5.97E2,1.7E1,1.1E1,8.5E1,2.6E1,3E0,3.428E3,1.73E2,1.7E1,4.71E2,4.33E2,1.64E2,1E1,7E0,1.6E1,6.9E1,1.1E1,1.5E1,1E0,2E0],"tree_param":{"num_deleted":"0","num_feature":"34","num_nodes":"29","size_leaf_vector":"1"}},{"base_weights":[2.2511768E-4,-5.889711E-3,1.6991027E-1,-1.0404713E-2,3.0888122E-2,1.2747255E-1,3.6087474E-1,-1.4977384E-2,-2.6921348E-3,2.3788191E-2,6.0872484E-2,2.307201E-1,1.1119444E-1,3.9199946E-4,3.7304834E-1,-1.5460172E-3,-9.920665E-4,-1.3905462E-3,4.160014E-4,3.6125828E-3,1.4048973E-3,1.3701855E-2,4.527237E-3,1.4646503E-2,2.7102197E-2,9.210355E-3,1.5789725E-2,3.8405698E-2,1.4962119E-2],"categories":[],"categories_nodes":[],"categories_segments":[],"categories_sizes":[],"default_left":[0,0,0,0,0,0,0,0,0,0,0,0,0,0,0,0,0,0,0,0,0,0,0,0,0,0,0,0,0],"id":6,"left_children":[1,3,5,7,9,11,13,15,17,19,21,23,25,-1,27,-1,-1,-1,-1,-1,-1,-1,-1,-1,-1,-1,-1,-1,-1],"loss_changes":[5.01155E0,7.744558E-1,1.3154869E0,1.464239E-1,1.071243E-1,2.0795894E-1,1.2890005E-1,6.211102E-3,1.1892219E-1,4.923828E-2,1.0902187E-1,2.14262E-2,9.423208E-2,0E0,1.3866425E-2,0E0,0E0,0E0,0E0,0E0,0E0,0E0,0E0,0E0,0E0,0E0,0E0,0E0,0E0],"parents":[2147483647,0,0,1,1,2,2,3,3,4,4,5,5,6,6,7,7,8,8,9,9,10,10,11,11,12,12,14,14],"right_children":[2,4,6,8,10,12,14,16,18,20,22,24,26,-1,28,-1,-1,-1,-1,-1,-1,-1,-1,-1,-1,-1,-1,-1,-1],"split_conditions":[2.4883731E2,6.962302E1,8.800701E2,2.9310277E-1,1.6685765E2,6.005563E-6,2.1695623E-6,2.2315991E-1,4.746628E0,1.753254E2,5.53E-6,3.9631482E2,5.201464E2,3.9199946E-4,1.804E-5,-1.5460172E-3,-9.920665E-4,-1.3905462E-3,4.160014E-4,3.6125828E-3,1.4048973E-3,1.3701855E-2,4.527237E-3,1.4646503E-2,2.7102197E-2,9.210355E-3,1.5789725E-2,3.8405698E-2,1.4962119E-2],"split_indices":[32,32,32,24,32,4,13,24,32,33,6,32,32,0,18,0,0,0,0,0,0,0,0,0,0,0,0,0,0],"split_type":[0,0,0,0,0,0,0,0,0,0,0,0,0,0,0,0,0,0,0,0,0,0,0,0,0,0,0,0,0],"sum_hessian":[4.828E3,4.661E3,1.67E2,4.152E3,5.09E2,1.38E2,2.9E1,2.606E3,1.546E3,4.13E2,9.6E1,1.7E1,1.21E2,1E0,2.8E1,2.377E3,2.29E2,5.86E2,9.6E2,1.81E2,2.32E2,1.5E1,8.1E1,7E0,1E1,8.8E1,3.3E1,2.6E1,2E0],"tree_param":{"num_deleted":"0","num_feature":"34","num_nodes":"29","size_leaf_vector":"1"}},{"base_weights":[2.3164759E-4,-4.2856825E-3,1.8879814E-1,-1.0792916E-2,3.8257267E-2,1.37343E-1,3.2657924E-1,-1.3219649E-2,7.0316987E-3,2.8830504E-2,1.10390544E-1,1.9195236E-1,1.0004585E-1,2.2256774E-1,3.9302525E-1,-1.4197861E-3,-7.2475336E-4,8.307341E-3,3.9623035E-4,9.696945E-3,2.6234218E-3,2.4002573E-2,7.775863E-3,1.4183238E-2,2.5814984E-2,6.134736E-3,1.2637985E-2,2.3911541E-2,3.723994E-4,1.4515172E-2,4.163983E-2],"categories":[],"categories_nodes":[],"categories_segments":[],"categories_sizes":[],"default_left":[0,0,0,0,0,0,0,0,0,0,0,0,0,0,0,0,0,0,0,0,0,0,0,0,0,0,0,0,0,0,0],"id":7,"left_children":[1,3,5,7,9,11,13,15,17,19,21,23,25,27,29,-1,-1,-1,-1,-1,-1,-1,-1,-1,-1,-1,-1,-1,-1,-1,-1],"loss_changes":[4.114234E0,1.3062526E0,7.5626516E-1,1.7709485E-1,4.2248684E-1,1.5188491E-1,1.19859934E-1,2.0940006E-2,1.1427125E-1,9.564015E-2,2.8591347E-1,7.287395E-2,4.523945E-2,4.9808443E-2,3.804922E-2,0E0,0E0,0E0,0E0,0E0,0E0,0E0,0E0,0E0,0E0,0E0,0E0,0E0,0E0,0E0,0E0],"parents":[2147483647,0,0,1,1,2,2,3,3,4,4,5,5,6,6,7,7,8,8,9,9,10,10,11,11,12,12,13,13,14,14],"right_children":[2,4,6,8,10,12,14,16,18,20,22,24,26,28,30,-1,-1,-1,-1,-1,-1,-1,-1,-1,-1,-1,-1,-1,-1,-1,-1],"split_conditions":[3.552374E2,8.82148E-1,8.800701E2,5.053566E-1,2.5107412E0,3.245E-6,1.1303436E1,3.6049506E-1,4.09E-6,3.4841116E-6,4.985451E0,5.855678E2,-5.044253E-2,1.1825147E-5,3.13E-6,-1.4197861E-3,-7.2475336E-4,8.307341E-3,3.9623035E-4,9.696945E-3,2.6234218E-3,2.4002573E-2,7.775863E-3,1.4183238E-2,2.5814984E-2,6.134736E-3,1.2637985E-2,2.3911541E-2,3.723994E-4,1.4515172E-2,4.163983E-2],"split_indices":[32,31,32,31,31,2,31,31,3,0,32,32,26,8,2,0,0,0,0,0,0,0,0,0,0,0,0,0,0,0,0],"split_type":[0,0,0,0,0,0,0,0,0,0,0,0,0,0,0,0,0,0,0,0,0,0,0,0,0,0,0,0,0,0,0],"sum_hessian":[4.828E3,4.716E3,1.12E2,4.091E3,6.25E2,8.3E1,2.9E1,3.601E3,4.9E2,5.54E2,7.1E1,3.2E1,5.1E1,1.3E1,1.6E1,3.093E3,5.08E2,1.8E1,4.72E2,1.9E1,5.35E2,1.3E1,5.8E1,2E1,1.2E1,2.2E1,2.9E1,1.2E1,1E0,2E0,1.4E1],"tree_param":{"num_deleted":"0","num_feature":"34","num_nodes":"31","size_leaf_vector":"1"}},{"base_weights":[2.478013E-4,-4.789301E-3,1.4002593E-1,-1.0623112E-2,2.5995797E-2,9.564564E-2,2.629239E-1,-1.2235273E-2,1.2368605E-3,2.2804683E-2,1.7935088E-1,1.4213982E-1,7.742337E-2,3.0826527E-1,1.3108942E-1,-1.2557295E-3,5.2816444E-4,2.2427717E-3,-2.6530123E-4,8.691511E-3,2.0404577E-3,6.453562E-3,3.0134892E-2,1.882186E-2,1.0465209E-2,8.657635E-3,2.8535689E-3,2.4189899E-2,3.6735382E-2,3.191777E-3,1.7161928E-2],"categories":[],"categories_nodes":[],"categories_segments":[],"categories_sizes":[],"default_left":[0,0,0,0,0,0,0,0,0,0,0,0,0,0,0,0,0,0,0,0,0,0,0,0,0,0,0,0,0,0,0],"id":8,"left_children":[1,3,5,7,9,11,13,15,17,19,21,23,25,27,29,-1,-1,-1,-1,-1,-1,-1,-1,-1,-1,-1,-1,-1,-1,-1,-1],"loss_changes":[3.4006574E0,8.375455E-1,8.9116573E-1,7.496622E-2,3.5951447E-1,9.489882E-2,2.2260237E-1,1.95328E-2,3.8801476E-2,1.1039916E-1,1.9066086E-1,3.903377E-2,3.8696527E-2,3.6625147E-2,4.677467E-2,0E0,0E0,0E0,0E0,0E0,0E0,0E0,0E0,0E0,0E0,0E0,0E0,0E0,0E0,0E0,0E0],"parents":[2147483647,0,0,1,1,2,2,3,3,4,4,5,5,6,6,7,7,8,8,9,9,10,10,11,11,12,12,13,13,14,14],"right_children":[2,4,6,8,10,12,14,16,18,20,22,24,26,28,30,-1,-1,-1,-1,-1,-1,-1,-1,-1,-1,-1,-1,-1,-1,-1,-1],"split_conditions":[2.4883731E2,7.2989714E-1,6.7801843E2,4.5874655E-1,4.413642E0,5.343638E1,7.2499997E-6,4.906248E1,5.3199997E-6,3.5279907E-6,5.3286262E-6,5.27E-6,1.7932063E-6,1.1303436E1,4.413642E0,-1.2557295E-3,5.2816444E-4,2.2427717E-3,-2.6530123E-4,8.691511E-3,2.0404577E-3,6.453562E-3,3.0134892E-2,1.882186E-2,1.0465209E-2,8.657635E-3,2.8535689E-3,2.4189899E-2,3.6735382E-2,3.191777E-3,1.7161928E-2],"split_indices":[32,31,32,31,31,33,6,32,10,0,21,6,1,31,31,0,0,0,0,0,0,0,0,0,0,0,0,0,0,0,0],"split_type":[0,0,0,0,0,0,0,0,0,0,0,0,0,0,0,0,0,0,0,0,0,0,0,0,0,0,0,0,0,0,0],"sum_hessian":[4.828E3,4.661E3,1.67E2,3.919E3,7.42E2,1.24E2,4.3E1,3.45E3,4.69E2,7.28E2,1.4E1,3.3E1,9.1E1,3.1E1,1.2E1,3.388E3,6.2E1,7.2E1,3.97E2,2.5E1,7.03E2,8E0,6E0,1.3E1,2E1,7.6E1,1.5E1,1.7E1,1.4E1,4E0,8E0],"tree_param":{"num_deleted":"0","num_feature":"34","num_nodes":"31","size_leaf_vector":"1"}},{"base_weights":[2.583592E-4,-2.6893502E-3,1.9783428E-1,-6.575277E-3,4.7047045E-2,1.5834853E-1,3.2366976E-1,-8.600991E-3,7.2434875E-3,7.692125E-2,3.3108924E-2,2.3537977E-2,1.3199046E-1,3.3682203E-1,6.3192965E-3,-3.985539E-4,-1.0984406E-3,1.9021778E-3,1.6422053E-4,5.411992E-3,1.1066004E-2,4.2377184E-3,6.2650134E-4,4.977345E-3,1.4887832E-2,1.5767578E-2,3.6846895E-2],"categories":[],"categories_nodes":[],"categories_segments":[],"categories_sizes":[],"default_left":[0,0,0,0,0,0,0,0,0,0,0,0,0,0,0,0,0,0,0,0,0,0,0,0,0,0,0],"id":9,"left_children":[1,3,5,7,9,11,13,15,17,19,21,-1,23,25,-1,-1,-1,-1,-1,-1,-1,-1,-1,-1,-1,-1,-1],"loss_changes":[2.8129241E0,9.200908E-1,3.0152583E-1,1.2365085E-1,1.4110786E-1,8.263409E-2,3.3528924E-2,4.2319298E-2,3.7243806E-2,7.7863574E-2,5.869925E-2,0E0,5.3682387E-2,2.694273E-2,0E0,0E0,0E0,0E0,0E0,0E0,0E0,0E0,0E0,0E0,0E0,0E0,0E0],"parents":[2147483647,0,0,1,1,2,2,3,3,4,4,5,5,6,6,7,7,8,8,9,9,10,10,12,12,13,13],"right_children":[2,4,6,8,10,12,14,16,18,20,22,-1,24,26,-1,-1,-1,-1,-1,-1,-1,-1,-1,-1,-1,-1,-1],"split_conditions":[5.201464E2,1.14147224E2,1.6221248E3,3.753267E1,8.67332E1,5.38E-6,2.56653E-6,-4.0948752E-1,1.0374617E2,2.2254553E2,1.2035E-5,2.3537977E-2,2.2952827E-6,1.1426894E-1,6.3192965E-3,-3.985539E-4,-1.0984406E-3,1.9021778E-3,1.6422053E-4,5.411992E-3,1.1066004E-2,4.2377184E-3,6.2650134E-4,4.977345E-3,1.4887832E-2,1.5767578E-2,3.6846895E-2],"split_indices":[32,32,32,32,33,3,1,28,33,32,7,0,9,25,0,0,0,0,0,0,0,0,0,0,0,0,0],"split_type":[0,0,0,0,0,0,0,0,0,0,0,0,0,0,0,0,0,0,0,0,0,0,0,0,0,0,0],"sum_hessian":[4.828E3,4.758E3,7E1,4.414E3,3.44E2,5.5E1,1.5E1,3.85E3,5.64E2,1.08E2,2.36E2,1.2E1,4.3E1,1.4E1,1E0,1.312E3,2.538E3,1.81E2,3.83E2,6.6E1,4.2E1,1.75E2,6.1E1,8E0,3.5E1,3E0,1.1E1],"tree_param":{"num_deleted":"0","num_feature":"34","num_nodes":"27","size_leaf_vector":"1"}},{"base_weights":[2.5825322E-4,-3.1394851E-3,1.42089E-1,-6.4310823E-3,3.2401152E-2,1.0334466E-1,2.4583684E-1,-9.6352035E-3,-5.3859944E-4,5.690107E-2,2.1057913E-2,1.4599976E-1,7.4287675E-2,-5.50201E-4,2.5469342E-1,-9.851512E-4,1.5767884E-3,5.43758E-4,-8.872455E-4,1.2414788E-2,4.59911E-3,3.940871E-3,1.305701E-3,1.5549503E-2,-7.846927E-5,1.1342893E-2,5.374076E-3,2.6698709E-2,1.11111235E-2],"categories":[],"categories_nodes":[],"categories_segments":[],"categories_sizes":[],"default_left":[0,0,0,0,0,0,0,0,0,0,0,0,0,0,0,0,0,0,0,0,0,0,0,0,0,0,0,0,0],"id":10,"left_children":[1,3,5,7,9,11,13,15,17,19,21,23,25,-1,27,-1,-1,-1,-1,-1,-1,-1,-1,-1,-1,-1,-1,-1,-1],"loss_changes":[2.3275592E0,5.520288E-1,4.288137E-1,8.151968E-2,1.09965205E-1,9.326601E-2,6.8181515E-2,1.5524536E-2,7.585087E-2,8.673152E-2,3.9861754E-2,4.6116054E-2,3.5724312E-2,0E0,2.1524072E-2,0E0,0E0,0E0,0E0,0E0,0E0,0E0,0E0,0E0,0E0,0E0,0E0,0E0,0E0],"parents":[2147483647,0,0,1,1,2,2,3,3,4,4,5,5,6,6,7,7,8,8,9,9,10,10,11,11,12,12,14,14],"right_children":[2,4,6,8,10,12,14,16,18,20,22,24,26,-1,28,-1,-1,-1,-1,-1,-1,-1,-1,-1,-1,-1,-1,-1,-1],"split_conditions":[3.552374E2,9.3333664E1,8.800701E2,3.286445E-1,8.67332E1,3.245E-6,2.1695623E-6,7.336297E1,3.3992117E2,-4.829423E-1,2.74865E-5,3.934345E-6,7.675147E-2,-5.50201E-4,6.73476E-6,-9.851512E-4,1.5767884E-3,5.43758E-4,-8.872455E-4,1.2414788E-2,4.59911E-3,3.940871E-3,1.305701E-3,1.5549503E-2,-7.846927E-5,1.1342893E-2,5.374076E-3,2.6698709E-2,1.11111235E-2],"split_indices":[32,32,32,24,33,2,13,32,33,28,15,9,27,0,17,0,0,0,0,0,0,0,0,0,0,0,0,0,0],"split_type":[0,0,0,0,0,0,0,0,0,0,0,0,0,0,0,0,0,0,0,0,0,0,0,0,0,0,0,0,0],"sum_hessian":[4.828E3,4.716E3,1.12E2,4.317E3,3.99E2,8.3E1,2.9E1,2.796E3,1.521E3,1.25E2,2.74E2,3.2E1,5.1E1,1E0,2.8E1,2.773E3,2.3E1,8.86E2,6.35E2,1.6E1,1.09E2,8.2E1,1.92E2,3E1,2E0,1.6E1,3.5E1,2.5E1,3E0],"tree_param":{"num_deleted":"0","num_feature":"34","num_nodes":"29","size_leaf_vector":"1"}},{"base_weights":[2.514704E-4,-4.2367727E-3,9.8991625E-2,-8.943757E-3,1.4150946E-2,7.305242E-2,2.0740691E-1,-9.771726E-3,-4.556929E-3,9.753449E-2,1.0441652E-2,6.4113125E-2,1.617469E-1,1.1579058E-1,2.522853E-1,-9.4677164E-4,-1.0724314E-3,1.6627144E-3,-6.9154584E-4,4.0218392E-3,1.5283967E-2,5.5498874E-4,2.2850726E-3,7.395491E-3,3.5877627E-5,1.69026E-2,2.9919862E-3,-6.526322E-3,1.4866526E-2,2.7908191E-2,8.392318E-3],"categories":[],"categories_nodes":[],"categories_segments":[],"categories_sizes":[],"default_left":[0,0,0,0,0,0,0,0,0,0,0,0,0,0,0,0,0,0,0,0,0,0,0,0,0,0,0,0,0,0,0],"id":11,"left_children":[1,3,5,7,9,11,13,15,17,19,21,23,25,27,29,-1,-1,-1,-1,-1,-1,-1,-1,-1,-1,-1,-1,-1,-1,-1,-1],"loss_changes":[2.1404862E0,3.999908E-1,5.754118E-1,1.3318181E-2,2.9033664E-1,1.252101E-1,1.352514E-1,7.945001E-4,2.939345E-2,1.20648146E-1,5.468733E-2,9.848416E-2,9.336472E-3,9.898369E-2,9.387851E-2,0E0,0E0,0E0,0E0,0E0,0E0,0E0,0E0,0E0,0E0,0E0,0E0,0E0,0E0,0E0,0E0],"parents":[2147483647,0,0,1,1,2,2,3,3,4,4,5,5,6,6,7,7,8,8,9,9,10,10,11,11,12,12,13,13,14,14],"right_children":[2,4,6,8,10,12,14,16,18,20,22,24,26,28,30,-1,-1,-1,-1,-1,-1,-1,-1,-1,-1,-1,-1,-1,-1,-1,-1],"split_conditions":[2.0195446E0,5.542286E-1,6.7938867E0,3.6049506E-1,7.546667E-6,6.7801843E2,1.2026151E-1,2.6757997E-1,7.95E-6,8.2673676E1,1.2094283E0,1.7542649E-6,7.5599996E-6,2.2254553E2,6.359541E-6,-9.4677164E-4,-1.0724314E-3,1.6627144E-3,-6.9154584E-4,4.0218392E-3,1.5283967E-2,5.5498874E-4,2.2850726E-3,7.395491E-3,3.5877627E-5,1.69026E-2,2.9919862E-3,-6.526322E-3,1.4866526E-2,2.7908191E-2,8.392318E-3],"split_indices":[31,31,31,31,7,32,25,24,7,32,31,1,6,32,13,0,0,0,0,0,0,0,0,0,0,0,0,0,0,0,0],"split_type":[0,0,0,0,0,0,0,0,0,0,0,0,0,0,0,0,0,0,0,0,0,0,0,0,0,0,0,0,0,0,0],"sum_hessian":[4.828E3,4.619E3,2.09E2,3.678E3,9.41E2,1.7E2,3.9E1,3.093E3,5.85E2,3.9E1,9.02E2,1.56E2,1.4E1,1.4E1,2.5E1,2.353E3,7.4E2,5.8E1,5.27E2,2E1,1.9E1,6.48E2,2.54E2,1.35E2,2.1E1,1.3E1,1E0,2E0,1.2E1,2.1E1,4E0],"tree_param":{"num_deleted":"0","num_feature":"34","num_nodes":"31","size_leaf_vector":"1"}},{"base_weights":[2.4559512E-4,-1.9749238E-3,1.4907946E-1,-4.8447973E-3,3.4756865E-2,1.1779814E-1,2.4924657E-1,-6.801463E-3,2.709516E-3,7.704975E-2,2.7327394E-2,1.8986227E-2,9.800459E-2,2.787166E-1,1.2866921E-2,-8.2648266E-4,-3.1804727E-4,3.3734378E-3,1.0545934E-4,1.6663838E-2,6.797883E-3,4.733054E-3,1.7589247E-3,-1.5294438E-3,1.0350215E-2,2.9491236E-2,5.0281617E-3],"categories":[],"categories_nodes":[],"categories_segments":[],"categories_sizes":[],"default_left":[0,0,0,0,0,0,0,0,0,0,0,0,0,0,0,0,0,0,0,0,0,0,0,0,0,0,0],"id":12,"left_children":[1,3,5,7,9,11,13,15,17,19,21,-1,23,25,-1,-1,-1,-1,-1,-1,-1,-1,-1,-1,-1,-1,-1],"loss_changes":[1.5962229E0,5.018412E-1,1.9310772E-1,6.5277696E-2,1.0629812E-1,6.127131E-2,2.0992458E-2,1.8556714E-2,4.663589E-2,3.0117333E-2,5.663161E-2,0E0,3.0234903E-2,2.956742E-2,0E0,0E0,0E0,0E0,0E0,0E0,0E0,0E0,0E0,0E0,0E0,0E0,0E0],"parents":[2147483647,0,0,1,1,2,2,3,3,4,4,5,5,6,6,7,7,8,8,9,9,10,10,12,12,13,13],"right_children":[2,4,6,8,10,12,14,16,18,20,22,-1,24,26,-1,-1,-1,-1,-1,-1,-1,-1,-1,-1,-1,-1,-1],"split_conditions":[5.201464E2,1.14147224E2,1.6221248E3,1.6414524E1,6.966628E-6,7.905E-6,7.23E-6,2.972668E-1,1.4092924E1,2.261E-5,2.7528959E-5,1.8986227E-2,9.529999E-6,2.56653E-6,1.2866921E-2,-8.2648266E-4,-3.1804727E-4,3.3734378E-3,1.0545934E-4,1.6663838E-2,6.797883E-3,4.733054E-3,1.7589247E-3,-1.5294438E-3,1.0350215E-2,2.9491236E-2,5.0281617E-3],"split_indices":[32,32,32,32,4,7,6,24,33,15,15,0,11,1,0,0,0,0,0,0,0,0,0,0,0,0,0],"split_type":[0,0,0,0,0,0,0,0,0,0,0,0,0,0,0,0,0,0,0,0,0,0,0,0,0,0,0],"sum_hessian":[4.828E3,4.758E3,7E1,4.414E3,3.44E2,5.5E1,1.5E1,3.506E3,9.08E2,5E1,2.94E2,1E1,4.5E1,1.1E1,4E0,2.496E3,1.01E3,4.5E1,8.63E2,3E0,4.7E1,9.5E1,1.99E2,2E0,4.3E1,1E1,1E0],"tree_param":{"num_deleted":"0","num_feature":"34","num_nodes":"27","size_leaf_vector":"1"}},{"base_weights":[2.4329302E-4,-3.1784754E-3,9.2908144E-2,-6.301374E-3,1.9364875E-2,6.7601964E-2,1.747285E-1,-7.619485E-3,3.3811827E-3,1.2758881E-1,1.5174624E-2,7.650291E-2,1.0169804E-2,2.3946846E-1,1.2159067E-1,-7.8159414E-4,-1.2289676E-5,5.759725E-3,1.07672815E-4,1.5154076E-2,4.2452165E-3,3.978004E-3,1.2004438E-3,4.088537E-3,8.696642E-3,-1.9012227E-3,9.568194E-3,2.8211076E-2,8.070483E-3,1.7384691E-2,3.104724E-3],"categories":[],"categories_nodes":[],"categories_segments":[],"categories_sizes":[],"default_left":[0,0,0,0,0,0,0,0,0,0,0,0,0,0,0,0,0,0,0,0,0,0,0,0,0,0,0,0,0,0,0],"id":13,"left_children":[1,3,5,7,9,11,13,15,17,19,21,23,25,27,29,-1,-1,-1,-1,-1,-1,-1,-1,-1,-1,-1,-1,-1,-1,-1,-1],"loss_changes":[1.5314634E0,3.2804802E-1,3.4432447E-1,5.2250654E-2,2.551902E-1,6.721169E-2,1.0848856E-1,5.3039193E-3,6.128277E-2,3.638971E-2,4.2190522E-2,3.9303005E-2,4.923207E-2,9.2323124E-2,1.08157545E-1,0E0,0E0,0E0,0E0,0E0,0E0,0E0,0E0,0E0,0E0,0E0,0E0,0E0,0E0,0E0,0E0],"parents":[2147483647,0,0,1,1,2,2,3,3,4,4,5,5,6,6,7,7,8,8,9,9,10,10,11,11,12,12,13,13,14,14],"right_children":[2,4,6,8,10,12,14,16,18,20,22,24,26,28,30,-1,-1,-1,-1,-1,-1,-1,-1,-1,-1,-1,-1,-1,-1,-1,-1],"split_conditions":[2.3192008E0,8.82148E-1,6.7938867E0,5.053566E-1,5.6427702E-6,2.3318796E-6,3.3356157E-1,4.906248E1,-2.1459219E-1,1.438E-5,3.7827755E1,2.4813085E-6,5.152609E0,-2.5264946E-1,1.645E-5,-7.8159414E-4,-1.2289676E-5,5.759725E-3,1.07672815E-4,1.5154076E-2,4.2452165E-3,3.978004E-3,1.2004438E-3,4.088537E-3,8.696642E-3,-1.9012227E-3,9.568194E-3,2.8211076E-2,8.070483E-3,1.7384691E-2,3.104724E-3],"split_indices":[31,31,31,31,4,5,24,32,26,23,33,13,31,28,18,0,0,0,0,0,0,0,0,0,0,0,0,0,0,0,0],"split_type":[0,0,0,0,0,0,0,0,0,0,0,0,0,0,0,0,0,0,0,0,0,0,0,0,0,0,0,0,0,0,0],"sum_hessian":[4.828E3,4.657E3,1.71E2,4.091E3,5.66E2,1.32E2,3.9E1,3.601E3,4.9E2,2E1,5.46E2,1.14E2,1.8E1,1.6E1,2.3E1,3.509E3,9.2E1,1.9E1,4.71E2,1.5E1,5E0,6.1E1,4.85E2,2.7E1,8.7E1,1.4E1,4E0,1.2E1,4E0,1.4E1,9E0],"tree_param":{"num_deleted":"0","num_feature":"34","num_nodes":"31","size_leaf_vector":"1"}},{"base_weights":[2.4109549E-4,-2.8542622E-3,8.40663E-2,-5.669997E-3,1.7471734E-2,6.099554E-2,1.5867493E-1,-6.8577565E-3,3.0550146E-3,1.11568086E-1,1.3288307E-2,6.8963796E-2,9.556351E-3,7.88779E-2,1.9860879E-1,-7.334878E-4,-3.9440623E-4,5.531394E-3,9.493603E-5,-6.752807E-4,1.2879265E-2,2.4541526E-3,8.281494E-4,1.0136345E-2,5.1003927E-3,-1.723775E-3,8.802739E-3,-6.4595E-3,1.059195E-2,1.4750126E-2,2.787562E-2],"categories":[],"categories_nodes":[],"categories_segments":[],"categories_sizes":[],"default_left":[0,0,0,0,0,0,0,0,0,0,0,0,0,0,0,0,0,0,0,0,0,0,0,0,0,0,0,0,0,0,0],"id":14,"left_children":[1,3,5,7,9,11,13,15,17,19,21,23,25,27,29,-1,-1,-1,-1,-1,-1,-1,-1,-1,-1,-1,-1,-1,-1,-1,-1],"loss_changes":[1.2532158E0,2.6668856E-1,2.8638136E-1,4.2427257E-2,2.2171426E-1,5.385503E-2,1.1179829E-1,4.978493E-3,5.3976744E-2,4.9782276E-2,3.0447237E-2,6.174785E-2,4.146605E-2,6.503792E-2,6.53826E-2,0E0,0E0,0E0,0E0,0E0,0E0,0E0,0E0,0E0,0E0,0E0,0E0,0E0,0E0,0E0,0E0],"parents":[2147483647,0,0,1,1,2,2,3,3,4,4,5,5,6,6,7,7,8,8,9,9,10,10,11,11,12,12,13,13,14,14],"right_children":[2,4,6,8,10,12,14,16,18,20,22,24,26,28,30,-1,-1,-1,-1,-1,-1,-1,-1,-1,-1,-1,-1,-1,-1,-1,-1],"split_conditions":[2.3192008E0,8.82148E-1,6.7938867E0,5.053566E-1,7.546667E-6,2.3318796E-6,1.2026151E-1,3.6049506E-1,1.2687499E-5,7.891684E-2,3.5541666E-6,3.4749999E-6,5.152609E0,2.2254553E2,9.714036E-6,-7.334878E-4,-3.9440623E-4,5.531394E-3,9.493603E-5,-6.752807E-4,1.2879265E-2,2.4541526E-3,8.281494E-4,1.0136345E-2,5.1003927E-3,-1.723775E-3,8.802739E-3,-6.4595E-3,1.059195E-2,1.4750126E-2,2.787562E-2],"split_indices":[31,31,31,31,7,5,25,31,23,25,2,2,31,32,4,0,0,0,0,0,0,0,0,0,0,0,0,0,0,0,0],"split_type":[0,0,0,0,0,0,0,0,0,0,0,0,0,0,0,0,0,0,0,0,0,0,0,0,0,0,0,0,0,0,0],"sum_hessian":[4.828E3,4.657E3,1.71E2,4.091E3,5.66E2,1.32E2,3.9E1,3.601E3,4.9E2,2.3E1,5.43E2,1.14E2,1.8E1,1.4E1,2.5E1,3.093E3,5.08E2,1.8E1,4.72E2,3E0,2E1,1.66E2,3.77E2,3.9E1,7.5E1,1.4E1,4E0,2E0,1.2E1,1.7E1,8E0],"tree_param":{"num_deleted":"0","num_feature":"34","num_nodes":"31","size_leaf_vector":"1"}},{"base_weights":[2.3542848E-4,-2.8810902E-3,6.8797715E-2,-6.0438435E-3,9.474165E-3,5.1278006E-2,1.4674804E-1,-6.5449905E-3,-2.6332226E-3,7.026444E-2,6.770859E-3,1.5116219E-1,4.013591E-2,1.7214085E-1,6.877107E-2,-6.161133E-4,-7.640446E-4,-4.067493E-4,4.143101E-3,2.9285583E-3,1.09779015E-2,2.0836524E-3,3.9412625E-4,-3.6914824E-4,1.846088E-2,6.81518E-3,2.7173387E-3,1.1491288E-2,2.0787977E-2,1.2066427E-2,3.4228086E-3],"categories":[],"categories_nodes":[],"categories_segments":[],"categories_sizes":[],"default_left":[0,0,0,0,0,0,0,0,0,0,0,0,0,0,0,0,0,0,0,0,0,0,0,0,0,0,0,0,0,0,0],"id":15,"left_children":[1,3,5,7,9,11,13,15,17,19,21,23,25,27,29,-1,-1,-1,-1,-1,-1,-1,-1,-1,-1,-1,-1,-1,-1,-1,-1],"loss_changes":[1.032038E0,1.8059124E-1,2.7926517E-1,6.2710047E-3,1.5432754E-1,1.8646798E-1,6.3403726E-2,1.3014674E-3,3.0062139E-2,6.155555E-2,3.5857413E-2,8.873007E-2,5.516368E-2,3.3379436E-2,1.55879E-2,0E0,0E0,0E0,0E0,0E0,0E0,0E0,0E0,0E0,0E0,0E0,0E0,0E0,0E0,0E0,0E0],"parents":[2147483647,0,0,1,1,2,2,3,3,4,4,5,5,6,6,7,7,8,8,9,9,10,10,11,11,12,12,13,13,14,14],"right_children":[2,4,6,8,10,12,14,16,18,20,22,24,26,28,30,-1,-1,-1,-1,-1,-1,-1,-1,-1,-1,-1,-1,-1,-1,-1,-1],"split_conditions":[2.0195446E0,5.542286E-1,6.7801843E2,3.877518E-1,7.546667E-6,4.985451E0,7.23E-6,2.6757997E-1,6.589732E-1,8.2673676E1,5.6999997E-6,1.109224E-6,9.408469E1,5.595E-6,2.613E-5,-6.161133E-4,-7.640446E-4,-4.067493E-4,4.143101E-3,2.9285583E-3,1.09779015E-2,2.0836524E-3,3.9412625E-4,-3.6914824E-4,1.846088E-2,6.81518E-3,2.7173387E-3,1.1491288E-2,2.0787977E-2,1.2066427E-2,3.4228086E-3],"split_indices":[31,31,32,31,7,32,6,24,24,32,10,1,33,10,15,0,0,0,0,0,0,0,0,0,0,0,0,0,0,0,0],"split_type":[0,0,0,0,0,0,0,0,0,0,0,0,0,0,0,0,0,0,0,0,0,0,0,0,0,0,0,0,0,0,0],"sum_hessian":[4.828E3,4.619E3,2.09E2,3.678E3,9.41E2,1.72E2,3.7E1,3.206E3,4.72E2,3.9E1,9.02E2,1.6E1,1.56E2,2.7E1,1E1,2.379E3,8.27E2,4.58E2,1.4E1,2E1,1.9E1,1.5E2,7.52E2,3E0,1.3E1,4.8E1,1.08E2,1.2E1,1.5E1,3E0,7E0],"tree_param":{"num_deleted":"0","num_feature":"34","num_nodes":"31","size_leaf_vector":"1"}},{"base_weights":[2.31379E-4,-2.0152612E-3,7.8962654E-2,-4.5304787E-3,1.703155E-2,5.5582624E-2,1.3251616E-1,-5.645453E-3,1.7771008E-3,7.825746E-2,1.3334572E-2,1.0824845E-1,4.666409E-2,6.41126E-2,1.6688298E-1,-5.794663E-4,1.20412E-4,5.070235E-3,-9.508815E-6,4.363122E-3,1.2944641E-2,5.231409E-4,2.0097392E-3,5.642224E-4,1.3846609E-2,7.620945E-3,3.0237187E-3,-6.2100226E-3,8.83069E-3,1.2192228E-2,2.5280425E-2],"categories":[],"categories_nodes":[],"categories_segments":[],"categories_sizes":[],"default_left":[0,0,0,0,0,0,0,0,0,0,0,0,0,0,0,0,0,0,0,0,0,0,0,0,0,0,0,0,0,0,0],"id":16,"left_children":[1,3,5,7,9,11,13,15,17,19,21,23,25,27,29,-1,-1,-1,-1,-1,-1,-1,-1,-1,-1,-1,-1,-1,-1,-1,-1],"loss_changes":[8.543167E-1,2.2504784E-1,1.604135E-1,2.9189065E-2,1.2299673E-1,3.957039E-2,8.3333135E-2,3.6106333E-3,5.7161544E-2,4.9298987E-2,2.8281376E-2,3.952548E-2,3.797877E-2,5.128834E-2,6.961763E-2,0E0,0E0,0E0,0E0,0E0,0E0,0E0,0E0,0E0,0E0,0E0,0E0,0E0,0E0,0E0,0E0],"parents":[2147483647,0,0,1,1,2,2,3,3,4,4,5,5,6,6,7,7,8,8,9,9,10,10,11,11,12,12,13,13,14,14],"right_children":[2,4,6,8,10,12,14,16,18,20,22,24,26,28,30,-1,-1,-1,-1,-1,-1,-1,-1,-1,-1,-1,-1,-1,-1,-1,-1],"split_conditions":[2.8284674E0,9.405554E-1,6.7938867E0,4.7768298E-1,3.4841116E-6,-4.8874754E-1,1.2026151E-1,4.906248E1,1.2687499E-5,3.9631482E2,2.5293475E-6,2.2236012E-5,3.9282363E-6,2.2254553E2,3.148015E2,-5.794663E-4,1.20412E-4,5.070235E-3,-9.508815E-6,4.363122E-3,1.2944641E-2,5.231409E-4,2.0097392E-3,5.642224E-4,1.3846609E-2,7.620945E-3,3.0237187E-3,-6.2100226E-3,8.83069E-3,1.2192228E-2,2.5280425E-2],"split_indices":[31,31,31,31,0,28,25,32,23,32,13,12,17,32,33,0,0,0,0,0,0,0,0,0,0,0,0,0,0,0,0],"split_type":[0,0,0,0,0,0,0,0,0,0,0,0,0,0,0,0,0,0,0,0,0,0,0,0,0,0,0,0,0,0,0],"sum_hessian":[4.828E3,4.695E3,1.33E2,4.148E3,5.47E2,9.4E1,3.9E1,3.525E3,6.23E2,3E1,5.17E2,1.2E1,8.2E1,1.4E1,2.5E1,3.45E3,7.5E1,2.2E1,6.01E2,1.9E1,1.1E1,2.36E2,2.81E2,3E0,9E0,2.8E1,5.4E1,2E0,1.2E1,1.8E1,7E0],"tree_param":{"num_deleted":"0","num_feature":"34","num_nodes":"31","size_leaf_vector":"1"}},{"base_weights":[2.2679387E-4,-2.3451478E-3,5.680843E-2,-4.0763216E-3,1.2877278E-2,4.163214E-2,1.2026687E-1,-5.0118812E-3,2.0805446E-3,6.9801755E-2,9.266576E-3,7.024545E-2,3.085559E-2,1.7253746E-1,7.8230746E-2,-5.154752E-4,6.205268E-5,4.7020987E-3,2.0052516E-5,9.535548E-3,4.1298154E-3,1.121533E-3,-1.1900737E-3,8.956606E-3,8.039923E-4,2.1033788E-3,5.1446627E-3,8.427887E-3,2.4162523E-2,1.2021846E-2,7.4261095E-4],"categories":[],"categories_nodes":[],"categories_segments":[],"categories_sizes":[],"default_left":[0,0,0,0,0,0,0,0,0,0,0,0,0,0,0,0,0,0,0,0,0,0,0,0,0,0,0,0,0,0,0],"id":17,"left_children":[1,3,5,7,9,11,13,15,17,19,21,23,25,27,29,-1,-1,-1,-1,-1,-1,-1,-1,-1,-1,-1,-1,-1,-1,-1,-1],"loss_changes":[7.028718E-1,1.2180181E-1,1.9723648E-1,2.3909159E-2,9.63668E-2,5.056086E-2,7.439244E-2,2.9017404E-3,4.6290487E-2,1.645644E-2,1.8489659E-2,5.456491E-2,2.4400279E-2,8.329505E-2,7.045743E-2,0E0,0E0,0E0,0E0,0E0,0E0,0E0,0E0,0E0,0E0,0E0,0E0,0E0,0E0,0E0,0E0],"parents":[2147483647,0,0,1,1,2,2,3,3,4,4,5,5,6,6,7,7,8,8,9,9,10,10,11,11,12,12,13,13,14,14],"right_children":[2,4,6,8,10,12,14,16,18,20,22,24,26,28,30,-1,-1,-1,-1,-1,-1,-1,-1,-1,-1,-1,-1,-1,-1,-1,-1],"split_conditions":[2.0195446E0,9.405554E-1,6.7938867E0,5.053566E-1,6.505704E-6,3.275E-6,3.3356157E-1,7.2455215E-1,-2.1459219E-1,7.92E-6,1.0901174E-5,6.883762E-6,9.440093E-3,2.880016E-1,1.645E-5,-5.154752E-4,6.205268E-5,4.7020987E-3,2.0052516E-5,9.535548E-3,4.1298154E-3,1.121533E-3,-1.1900737E-3,8.956606E-3,8.039923E-4,2.1033788E-3,5.1446627E-3,8.427887E-3,2.4162523E-2,1.2021846E-2,7.4261095E-4],"split_indices":[31,31,31,31,4,2,24,24,26,11,4,17,26,24,18,0,0,0,0,0,0,0,0,0,0,0,0,0,0,0,0],"split_type":[0,0,0,0,0,0,0,0,0,0,0,0,0,0,0,0,0,0,0,0,0,0,0,0,0,0,0,0,0,0,0],"sum_hessian":[4.828E3,4.619E3,2.09E2,4.148E3,4.71E2,1.7E2,3.9E1,3.601E3,5.47E2,2.7E1,4.44E2,4.5E1,1.25E2,1.6E1,2.3E1,3.512E3,8.9E1,2.1E1,5.26E2,1.3E1,1.4E1,4.07E2,3.7E1,3.4E1,1.1E1,8.6E1,3.9E1,8E0,8E0,1.4E1,9E0],"tree_param":{"num_deleted":"0","num_feature":"34","num_nodes":"31","size_leaf_vector":"1"}},{"base_weights":[2.2072851E-4,-9.3970704E-4,9.569276E-2,-2.2633988E-3,2.8262787E-2,1.1815421E-1,4.3369036E-2,-3.0261579E-3,8.993785E-3,5.0275046E-2,1.8721536E-2,9.258542E-2,1.7009926E-1,-8.258354E-4,6.92182E-2,-7.84849E-5,-4.3601167E-4,4.0897466E-3,6.222224E-4,2.663469E-3,6.8960204E-3,3.7073642E-3,8.174904E-4,1.2243523E-2,6.754191E-3,1.9193439E-2,4.0615737E-3,1.2831319E-3,-2.7864864E-3,8.840365E-3,-1.7806039E-3],"categories":[],"categories_nodes":[],"categories_segments":[],"categories_sizes":[],"default_left":[0,0,0,0,0,0,0,0,0,0,0,0,0,0,0,0,0,0,0,0,0,0,0,0,0,0,0,0,0,0,0],"id":18,"left_children":[1,3,5,7,9,11,13,15,17,19,21,23,25,27,29,-1,-1,-1,-1,-1,-1,-1,-1,-1,-1,-1,-1,-1,-1,-1,-1],"loss_changes":[5.3509074E-1,1.8452612E-1,6.304127E-2,3.9233252E-2,4.2533845E-2,3.7378132E-2,2.1762773E-2,1.2784012E-2,2.5388196E-2,2.5550142E-2,2.7955659E-2,1.3409272E-2,2.6131898E-2,3.311752E-3,2.1609306E-2,0E0,0E0,0E0,0E0,0E0,0E0,0E0,0E0,0E0,0E0,0E0,0E0,0E0,0E0,0E0,0E0],"parents":[2147483647,0,0,1,1,2,2,3,3,4,4,5,5,6,6,7,7,8,8,9,9,10,10,11,11,12,12,13,13,14,14],"right_children":[2,4,6,8,10,12,14,16,18,20,22,24,26,28,30,-1,-1,-1,-1,-1,-1,-1,-1,-1,-1,-1,-1,-1,-1,-1,-1],"split_conditions":[5.855678E2,1.6685765E2,7.23E-6,8.701369E1,8.296619E1,1.6221248E3,6.630058E-6,-4.1148478E-1,1.0217125E-5,1.0287562E-1,2.74865E-5,3.9039655E-6,9.440093E-3,7.845E-6,2.269E-5,-7.84849E-5,-4.3601167E-4,4.0897466E-3,6.222224E-4,2.663469E-3,6.8960204E-3,3.7073642E-3,8.174904E-4,1.2243523E-2,6.754191E-3,1.9193439E-2,4.0615737E-3,1.2831319E-3,-2.7864864E-3,8.840365E-3,-1.7806039E-3],"split_indices":[32,32,6,32,33,32,0,28,20,25,15,21,26,6,18,0,0,0,0,0,0,0,0,0,0,0,0,0,0,0,0],"split_type":[0,0,0,0,0,0,0,0,0,0,0,0,0,0,0,0,0,0,0,0,0,0,0,0,0,0,0,0,0,0,0],"sum_hessian":[4.828E3,4.771E3,5.7E1,4.565E3,2.06E2,3.9E1,1.8E1,4.276E3,2.89E2,6.1E1,1.45E2,2.8E1,1.1E1,7E0,1.1E1,1.596E3,2.68E3,2.2E1,2.67E2,2.8E1,3.3E1,5.2E1,9.3E1,1.1E1,1.7E1,9E0,2E0,5E0,2E0,9E0,2E0],"tree_param":{"num_deleted":"0","num_feature":"34","num_nodes":"31","size_leaf_vector":"1"}},{"base_weights":[2.1234198E-4,-1.7499796E-3,5.3353515E-2,-3.163126E-3,1.4781286E-2,3.8529478E-2,1.013096E-1,-4.3659713E-3,1.635165E-3,6.269856E-2,9.056196E-3,4.524288E-2,-4.13213E-3,1.4634186E-1,6.519051E-2,-4.4748324E-4,4.1180034E-4,1.4592361E-3,-1.0968779E-4,7.4911374E-3,-1.6957155E-3,-1.0968386E-5,1.8057087E-3,8.932791E-3,3.8247649E-3,-1.9627947E-3,8.505487E-3,6.8122684E-3,2.0830084E-2,1.0431654E-2,-1.7587842E-6],"categories":[],"categories_nodes":[],"categories_segments":[],"categories_sizes":[],"default_left":[0,0,0,0,0,0,0,0,0,0,0,0,0,0,0,0,0,0,0,0,0,0,0,0,0,0,0,0,0,0,0],"id":19,"left_children":[1,3,5,7,9,11,13,15,17,19,21,23,25,27,29,-1,-1,-1,-1,-1,-1,-1,-1,-1,-1,-1,-1,-1,-1,-1,-1],"loss_changes":[5.036618E-1,1.0886275E-1,1.18371814E-1,2.4778858E-2,1.0011158E-1,3.8278744E-2,5.5520892E-2,3.1881258E-3,3.0495074E-2,3.9210275E-2,2.7144838E-2,3.204766E-2,2.792793E-2,6.819841E-2,6.1233856E-2,0E0,0E0,0E0,0E0,0E0,0E0,0E0,0E0,0E0,0E0,0E0,0E0,0E0,0E0,0E0,0E0],"parents":[2147483647,0,0,1,1,2,2,3,3,4,4,5,5,6,6,7,7,8,8,9,9,10,10,11,11,12,12,13,13,14,14],"right_children":[2,4,6,8,10,12,14,16,18,20,22,24,26,28,30,-1,-1,-1,-1,-1,-1,-1,-1,-1,-1,-1,-1,-1,-1,-1,-1],"split_conditions":[2.3192008E0,9.3333664E1,6.7938867E0,4.5874655E-1,4.69E-6,2.3318796E-6,3.3356157E-1,4.906248E1,5.7104166E-6,1.4929769E-6,1.1821766E0,1.6869999E-5,6.7801843E2,2.880016E-1,6.9499997E-6,-4.4748324E-4,4.1180034E-4,1.4592361E-3,-1.0968779E-4,7.4911374E-3,-1.6957155E-3,-1.0968386E-5,1.8057087E-3,8.932791E-3,3.8247649E-3,-1.9627947E-3,8.505487E-3,6.8122684E-3,2.0830084E-2,1.0431654E-2,-1.7587842E-6],"split_indices":[31,32,31,31,6,5,24,32,6,1,31,14,32,24,10,0,0,0,0,0,0,0,0,0,0,0,0,0,0,0,0],"split_type":[0,0,0,0,0,0,0,0,0,0,0,0,0,0,0,0,0,0,0,0,0,0,0,0,0,0,0,0,0,0,0],"sum_hessian":[4.828E3,4.657E3,1.71E2,4.291E3,3.66E2,1.32E2,3.9E1,3.431E3,8.6E2,3.8E1,3.28E2,1.14E2,1.8E1,1.6E1,2.3E1,3.388E3,4.3E1,1.49E2,7.11E2,3.3E1,5E0,1.63E2,1.65E2,1.4E1,1E2,1.6E1,2E0,8E0,8E0,1.4E1,9E0],"tree_param":{"num_deleted":"0","num_feature":"34","num_nodes":"31","size_leaf_vector":"1"}},{"base_weights":[2.0483231E-4,-1.3640355E-3,5.518393E-2,-2.7308203E-3,1.6099537E-2,1.3930838E-1,4.576752E-2,-3.8037212E-3,2.391458E-3,5.8365915E-2,1.1684621E-2,2.5649525E-2,1.7084109E-2,2.6048478E-2,9.403918E-2,-4.090752E-4,-2.051508E-4,5.0087287E-3,1.0921265E-4,-8.981743E-5,6.937401E-3,2.4478198E-3,6.7427E-4,4.4121544E-4,4.468082E-3,7.7167265E-3,1.8505466E-3,1.1405471E-2,4.0000337E-3],"categories":[],"categories_nodes":[],"categories_segments":[],"categories_sizes":[],"default_left":[0,0,0,0,0,0,0,0,0,0,0,0,0,0,0,0,0,0,0,0,0,0,0,0,0,0,0,0,0],"id":20,"left_children":[1,3,5,7,9,11,13,15,17,19,21,23,-1,25,27,-1,-1,-1,-1,-1,-1,-1,-1,-1,-1,-1,-1,-1,-1],"loss_changes":[4.1660038E-1,1.1213252E-1,9.9772334E-2,2.3948349E-2,6.2949456E-2,4.2209625E-2,1.13678664E-1,1.8031932E-3,4.6734683E-2,2.0938635E-2,1.9434657E-2,1.41956E-3,0E0,3.250388E-2,3.329435E-2,0E0,0E0,0E0,0E0,0E0,0E0,0E0,0E0,0E0,0E0,0E0,0E0,0E0,0E0],"parents":[2147483647,0,0,1,1,2,2,3,3,4,4,5,5,6,6,7,7,8,8,9,9,10,10,11,11,13,13,14,14],"right_children":[2,4,6,8,10,12,14,16,18,20,22,24,-1,26,28,-1,-1,-1,-1,-1,-1,-1,-1,-1,-1,-1,-1,-1,-1],"split_conditions":[2.8284674E0,1.2094283E0,4.985451E0,5.053566E-1,6.8290524E-6,1.2161673E-6,6.7801843E2,3.6049506E-1,1.1689999E-5,1.0489925E-1,8.67332E1,1.109224E-6,1.7084109E-2,7.121554E-6,7.23E-6,-4.090752E-4,-2.051508E-4,5.0087287E-3,1.0921265E-4,-8.981743E-5,6.937401E-3,2.4478198E-3,6.7427E-4,4.4121544E-4,4.468082E-3,7.7167265E-3,1.8505466E-3,1.1405471E-2,4.0000337E-3],"split_indices":[31,31,32,31,4,1,32,31,23,25,33,1,0,4,6,0,0,0,0,0,0,0,0,0,0,0,0,0,0],"split_type":[0,0,0,0,0,0,0,0,0,0,0,0,0,0,0,0,0,0,0,0,0,0,0,0,0,0,0,0,0],"sum_hessian":[4.828E3,4.695E3,1.33E2,4.355E3,3.4E2,1.2E1,1.21E2,3.601E3,7.54E2,3.1E1,3.09E2,3E0,9E0,8.7E1,3.4E1,3.093E3,5.08E2,1.9E1,7.35E2,5E0,2.6E1,8.5E1,2.24E2,2E0,1E0,1E1,7.7E1,2.4E1,1E1],"tree_param":{"num_deleted":"0","num_feature":"34","num_nodes":"29","size_leaf_vector":"1"}},{"base_weights":[1.9707214E-4,9.429683E-3,-1.4150903E-3,-1.283934E-3,1.6402643E-2,-3.134821E-3,9.055376E-4,-2.8451176E-3,9.9040605E-3,3.3243097E-2,9.732424E-3,-3.2087674E-3,8.649229E-3,5.018656E-3,-3.654135E-3,-3.393142E-4,4.8656348E-4,2.7392032E-3,7.474056E-5,-2.2967808E-5,4.0944135E-3,3.010968E-3,6.46322E-4,-2.761042E-4,-4.949974E-4,-6.5020536E-4,1.6875075E-3,1.985572E-3,2.960916E-4,-1.6516795E-3,-3.4773463E-4],"categories":[],"categories_nodes":[],"categories_segments":[],"categories_sizes":[],"default_left":[0,0,0,0,0,0,0,0,0,0,0,0,0,0,0,0,0,0,0,0,0,0,0,0,0,0,0,0,0,0,0],"id":21,"left_children":[1,3,5,7,9,11,13,15,17,19,21,23,25,27,29,-1,-1,-1,-1,-1,-1,-1,-1,-1,-1,-1,-1,-1,-1,-1,-1],"loss_changes":[7.189044E-2,5.36597E-2,1.6413236E-2,4.988668E-3,4.8539788E-2,2.0859689E-3,3.285742E-2,1.0729292E-3,5.584123E-3,3.1715736E-2,2.0656643E-2,1.8167924E-3,1.9792044E-3,2.8060101E-2,1.8322365E-3,0E0,0E0,0E0,0E0,0E0,0E0,0E0,0E0,0E0,0E0,0E0,0E0,0E0,0E0,0E0,0E0],"parents":[2147483647,0,0,1,1,2,2,3,3,4,4,5,5,6,6,7,7,8,8,9,9,10,10,11,11,12,12,13,13,14,14],"right_children":[2,4,6,8,10,12,14,16,18,20,22,24,26,28,30,-1,-1,-1,-1,-1,-1,-1,-1,-1,-1,-1,-1,-1,-1,-1,-1],"split_conditions":[9.958856E1,2.9310277E-1,1.0972516E-6,3.7529937E-11,5.88E-6,7.603165E-6,1.873E-5,2.720526E-1,3.5703E-6,1.8624167E-5,2.6565E-5,3.3992117E2,6.758756E-7,3.723774E-6,9.714036E-6,-3.393142E-4,4.8656348E-4,2.7392032E-3,7.474056E-5,-2.2967808E-5,4.0944135E-3,3.010968E-3,6.46322E-4,-2.761042E-4,-4.949974E-4,-6.5020536E-4,1.6875075E-3,1.985572E-3,2.960916E-4,-1.6516795E-3,-3.4773463E-4],"split_indices":[33,24,1,29,6,13,11,24,9,19,15,33,1,17,4,0,0,0,0,0,0,0,0,0,0,0,0,0,0,0,0],"split_type":[0,0,0,0,0,0,0,0,0,0,0,0,0,0,0,0,0,0,0,0,0,0,0,0,0,0,0,0,0,0,0],"sum_hessian":[4.828E3,7.17E2,4.111E3,2.83E2,4.34E2,2.361E3,1.75E3,2.49E2,3.4E1,1.22E2,3.12E2,2.347E3,1.4E1,9.2E2,8.3E2,2.33E2,1.6E1,1.1E1,2.3E1,2.3E1,9.9E1,4.2E1,2.7E2,1.869E3,4.78E2,5E0,9E0,1.11E2,8.09E2,1E1,8.2E2],"tree_param":{"num_deleted":"0","num_feature":"34","num_nodes":"31","size_leaf_vector":"1"}},{"base_weights":[1.796922E-4,-1.2153381E-3,4.9066875E-2,-2.3909598E-3,1.3805844E-2,1.268131E-1,4.0380254E-2,-3.2421784E-3,1.6732528E-3,5.782225E-2,1.0440436E-2,4.1113547E-3,1.4874876E-1,2.9064218E-2,1.1353249E-1,-3.3511996E-4,1.04930245E-4,3.2490033E-3,-5.069202E-6,-2.10962E-3,7.0100897E-3,1.395044E-3,-5.5345905E-4,-3.057793E-5,6.472811E-4,8.0915885E-3,1.7595097E-2,6.28172E-3,2.0582874E-3,1.3239053E-2,4.55667E-3],"categories":[],"categories_nodes":[],"categories_segments":[],"categories_sizes":[],"default_left":[0,0,0,0,0,0,0,0,0,0,0,0,0,0,0,0,0,0,0,0,0,0,0,0,0,0,0,0,0,0,0],"id":22,"left_children":[1,3,5,7,9,11,13,15,17,19,21,23,25,27,29,-1,-1,-1,-1,-1,-1,-1,-1,-1,-1,-1,-1,-1,-1,-1,-1],"loss_changes":[3.2939312E-1,8.296073E-2,8.537638E-2,1.5075156E-2,4.990971E-2,3.43785E-2,9.769109E-2,1.6887486E-3,4.0112104E-2,2.4735138E-2,1.7908238E-2,3.327186E-5,6.060019E-3,2.9337995E-2,1.447463E-2,0E0,0E0,0E0,0E0,0E0,0E0,0E0,0E0,0E0,0E0,0E0,0E0,0E0,0E0,0E0,0E0],"parents":[2147483647,0,0,1,1,2,2,3,3,4,4,5,5,6,6,7,7,8,8,9,9,10,10,11,11,12,12,13,13,14,14],"right_children":[2,4,6,8,10,12,14,16,18,20,22,24,26,28,30,-1,-1,-1,-1,-1,-1,-1,-1,-1,-1,-1,-1,-1,-1,-1,-1],"split_conditions":[2.8284674E0,1.2094283E0,4.985451E0,5.053566E-1,4.95E-6,1.109224E-6,1.6221248E3,7.2455215E-1,3.4027119E-6,7.5648345E-2,8.169999E-6,3.9823017E-6,1.9944999E-5,2.392E-5,7.23E-6,-3.3511996E-4,1.04930245E-4,3.2490033E-3,-5.069202E-6,-2.10962E-3,7.0100897E-3,1.395044E-3,-5.5345905E-4,-3.057793E-5,6.472811E-4,8.0915885E-3,1.7595097E-2,6.28172E-3,2.0582874E-3,1.3239053E-2,4.55667E-3],"split_indices":[31,31,32,31,3,1,32,24,0,25,6,0,14,19,6,0,0,0,0,0,0,0,0,0,0,0,0,0,0,0,0],"split_type":[0,0,0,0,0,0,0,0,0,0,0,0,0,0,0,0,0,0,0,0,0,0,0,0,0,0,0,0,0,0,0],"sum_hessian":[4.828E3,4.695E3,1.33E2,4.355E3,3.4E2,1.2E1,1.21E2,3.601E3,7.54E2,2.3E1,3.17E2,2E0,1E1,1.06E2,1.5E1,3.512E3,8.9E1,3.9E1,7.15E2,3E0,2E1,2.6E2,5.7E1,1E0,1E0,4E0,6E0,2E1,8.6E1,1.1E1,4E0],"tree_param":{"num_deleted":"0","num_feature":"34","num_nodes":"31","size_leaf_vector":"1"}},{"base_weights":[1.7439523E-4,7.89178E-3,-1.2152668E-3,-1.1252151E-3,1.3645119E-2,-2.7116071E-3,6.924111E-4,-2.400367E-3,7.327111E-3,3.4909878E-2,9.768382E-3,-1.5049451E-2,-2.4692363E-3,7.6511325E-3,-2.1100433E-3,-2.903491E-4,2.7133594E-4,2.0740004E-3,-4.771935E-5,-2.3545511E-4,5.1262123E-3,1.0757635E-2,8.448783E-4,-6.056778E-4,-2.376682E-3,2.5172016E-4,-2.8777958E-4,1.2172185E-5,1.5446855E-3,-5.291238E-4,-1.4255055E-4],"categories":[],"categories_nodes":[],"categories_segments":[],"categories_sizes":[],"default_left":[0,0,0,0,0,0,0,0,0,0,0,0,0,0,0,0,0,0,0,0,0,0,0,0,0,0,0,0,0,0,0],"id":23,"left_children":[1,3,5,7,9,11,13,15,17,19,21,23,25,27,29,-1,-1,-1,-1,-1,-1,-1,-1,-1,-1,-1,-1,-1,-1,-1,-1],"loss_changes":[5.1798467E-2,3.8249314E-2,1.16854925E-2,3.1216522E-3,3.675603E-2,6.8226643E-3,3.5118844E-2,6.536605E-4,3.9876723E-3,4.2166322E-2,4.839481E-2,3.305316E-3,4.593105E-3,3.0344564E-2,2.7885581E-3,0E0,0E0,0E0,0E0,0E0,0E0,0E0,0E0,0E0,0E0,0E0,0E0,0E0,0E0,0E0,0E0],"parents":[2147483647,0,0,1,1,2,2,3,3,4,4,5,5,6,6,7,7,8,8,9,9,10,10,11,11,12,12,13,13,14,14],"right_children":[2,4,6,8,10,12,14,16,18,20,22,24,26,28,30,-1,-1,-1,-1,-1,-1,-1,-1,-1,-1,-1,-1,-1,-1,-1,-1],"split_conditions":[1.0374617E2,2.9310277E-1,7.143515E-12,3.3695918E-11,5.2299997E-6,-1.8294366E-1,3.3992117E2,2.5789785E-1,3.5703E-6,1.485E-6,2.158E-5,6.03E-6,-9.840103E-2,1.233251E-6,4.9345276E2,-2.903491E-4,2.7133594E-4,2.0740004E-3,-4.771935E-5,-2.3545511E-4,5.1262123E-3,1.0757635E-2,8.448783E-4,-6.056778E-4,-2.376682E-3,2.5172016E-4,-2.8777958E-4,1.2172185E-5,1.5446855E-3,-5.291238E-4,-1.4255055E-4],"split_indices":[33,24,29,29,6,26,33,24,9,2,15,10,26,1,33,0,0,0,0,0,0,0,0,0,0,0,0,0,0,0,0],"split_type":[0,0,0,0,0,0,0,0,0,0,0,0,0,0,0,0,0,0,0,0,0,0,0,0,0,0,0,0,0,0,0],"sum_hessian":[4.828E3,7.36E2,4.092E3,2.87E2,4.49E2,2.293E3,1.799E3,2.5E2,3.7E1,6.8E1,3.81E2,4.3E1,2.25E3,5.16E2,1.283E3,2.28E2,2.2E1,1.3E1,2.4E1,2.1E1,4.7E1,4E0,3.77E2,2.2E1,2.1E1,1.7E2,2.08E3,2.63E2,2.53E2,2.26E2,1.057E3],"tree_param":{"num_deleted":"0","num_feature":"34","num_nodes":"31","size_leaf_vector":"1"}},{"base_weights":[1.6034504E-4,-1.2523668E-3,3.8417622E-2,-2.2240987E-3,1.0115278E-2,3.1708427E-2,1.0185048E-1,-2.8695208E-3,3.5117753E-4,4.5155812E-2,5.9307907E-3,9.3824714E-2,2.3994347E-2,1.5728096E-2,1.1303024E-1,-2.3513152E-4,-4.0977562E-4,7.416594E-4,-2.7009146E-4,7.331832E-3,1.4735515E-3,9.1172353E-4,-9.114789E-4,-1.4390782E-4,1.2324735E-2,2.5956967E-4,3.3357067E-3,2.2483976E-3,1.1081696E-4,1.4363417E-2,6.1907154E-3],"categories":[],"categories_nodes":[],"categories_segments":[],"categories_sizes":[],"default_left":[0,0,0,0,0,0,0,0,0,0,0,0,0,0,0,0,0,0,0,0,0,0,0,0,0,0,0,0,0,0,0],"id":24,"left_children":[1,3,5,7,9,11,13,15,17,19,21,23,25,27,29,-1,-1,-1,-1,-1,-1,-1,-1,-1,-1,-1,-1,-1,-1,-1,-1],"loss_changes":[2.610387E-1,5.1476177E-2,6.9970846E-2,7.1349125E-3,5.354417E-2,7.297844E-2,1.3627499E-2,2.1747611E-3,1.8586894E-2,3.2331377E-2,1.5855987E-2,4.782687E-2,2.816271E-2,2.713953E-4,1.3011947E-2,0E0,0E0,0E0,0E0,0E0,0E0,0E0,0E0,0E0,0E0,0E0,0E0,0E0,0E0,0E0,0E0],"parents":[2147483647,0,0,1,1,2,2,3,3,4,4,5,5,6,6,7,7,8,8,9,9,10,10,11,11,12,12,13,13,14,14],"right_children":[2,4,6,8,10,12,14,16,18,20,22,24,26,28,30,-1,-1,-1,-1,-1,-1,-1,-1,-1,-1,-1,-1,-1,-1,-1,-1],"split_conditions":[2.3192008E0,9.3333664E1,1.6221248E3,4.5874655E-1,4.69E-6,4.985451E0,1.0489925E-1,2.640514E-1,6.19E-6,6.0917664E1,2.55175E-5,1.0385763E-1,2.3798758E2,1.0030027E-6,1.3425529E-1,-2.3513152E-4,-4.0977562E-4,7.416594E-4,-2.7009146E-4,7.331832E-3,1.4735515E-3,9.1172353E-4,-9.114789E-4,-1.4390782E-4,1.2324735E-2,2.5956967E-4,3.3357067E-3,2.2483976E-3,1.1081696E-4,1.4363417E-2,6.1907154E-3],"split_indices":[31,32,32,31,6,32,25,24,6,33,14,25,32,1,25,0,0,0,0,0,0,0,0,0,0,0,0,0,0,0,0],"split_type":[0,0,0,0,0,0,0,0,0,0,0,0,0,0,0,0,0,0,0,0,0,0,0,0,0,0,0,0,0,0,0],"sum_hessian":[4.828E3,4.657E3,1.71E2,4.291E3,3.66E2,1.56E2,1.5E1,3.431E3,8.6E2,3.8E1,3.28E2,1.6E1,1.4E2,2E0,1.3E1,2.415E3,1.016E3,2.59E2,6.01E2,1.9E1,1.9E1,2.71E2,5.7E1,4E0,1.2E1,4.3E1,9.7E1,1E0,1E0,7E0,6E0],"tree_param":{"num_deleted":"0","num_feature":"34","num_nodes":"31","size_leaf_vector":"1"}},{"base_weights":[1.5411011E-4,-1.1252769E-3,3.48008E-2,-2.0017293E-3,9.127745E-3,2.8638072E-2,9.309752E-2,-2.2820267E-3,2.8252527E-3,4.192233E-2,5.434309E-3,8.5158765E-2,2.1620413E-2,1.10096715E-1,3.367994E-2,-1.6810505E-4,-3.259081E-4,2.575607E-3,-1.5676935E-4,5.274909E-3,-2.280745E-3,1.6828477E-3,4.9960592E-5,-2.020479E-3,1.0917987E-2,8.236769E-3,1.8310404E-3,-1.2856275E-3,1.2244302E-2,5.3327265E-3,2.805968E-4],"categories":[],"categories_nodes":[],"categories_segments":[],"categories_sizes":[],"default_left":[0,0,0,0,0,0,0,0,0,0,0,0,0,0,0,0,0,0,0,0,0,0,0,0,0,0,0,0,0,0,0],"id":25,"left_children":[1,3,5,7,9,11,13,15,17,19,21,23,25,27,29,-1,-1,-1,-1,-1,-1,-1,-1,-1,-1,-1,-1,-1,-1,-1,-1],"loss_changes":[2.1409193E-1,4.187639E-2,5.9127763E-2,5.8134794E-3,4.4224948E-2,6.043178E-2,1.2452781E-2,2.3767352E-3,2.3813566E-2,2.7133182E-2,1.8602677E-2,4.523208E-2,2.684325E-2,1.9790336E-2,2.8833197E-3,0E0,0E0,0E0,0E0,0E0,0E0,0E0,0E0,0E0,0E0,0E0,0E0,0E0,0E0,0E0,0E0],"parents":[2147483647,0,0,1,1,2,2,3,3,4,4,5,5,6,6,7,7,8,8,9,9,10,10,11,11,12,12,13,13,14,14],"right_children":[2,4,6,8,10,12,14,16,18,20,22,24,26,28,30,-1,-1,-1,-1,-1,-1,-1,-1,-1,-1,-1,-1,-1,-1,-1,-1],"split_conditions":[2.3192008E0,9.3333664E1,1.6221248E3,9.776059E-1,4.5899997E-6,4.985451E0,7.23E-6,1.522999E-6,6.099142E0,1.4929769E-6,2.7528959E-5,1.109224E-6,2.1915E-5,3.1927727E-6,1.2764696E-6,-1.6810505E-4,-3.259081E-4,2.575607E-3,-1.5676935E-4,5.274909E-3,-2.280745E-3,1.6828477E-3,4.9960592E-5,-2.020479E-3,1.0917987E-2,8.236769E-3,1.8310404E-3,-1.2856275E-3,1.2244302E-2,5.3327265E-3,2.805968E-4],"split_indices":[31,32,32,31,6,32,6,5,32,1,15,1,15,17,1,0,0,0,0,0,0,0,0,0,0,0,0,0,0,0,0],"split_type":[0,0,0,0,0,0,0,0,0,0,0,0,0,0,0,0,0,0,0,0,0,0,0,0,0,0,0,0,0,0,0],"sum_hessian":[4.828E3,4.657E3,1.71E2,4.291E3,3.66E2,1.56E2,1.5E1,4.056E3,2.35E2,3.6E1,3.3E2,1.6E1,1.4E2,1.1E1,4E0,2.513E3,1.543E3,3.7E1,1.98E2,3.1E1,5E0,9.9E1,2.31E2,3E0,1.3E1,6E0,1.34E2,1E0,1E1,2E0,2E0],"tree_param":{"num_deleted":"0","num_feature":"34","num_nodes":"31","size_leaf_vector":"1"}},{"base_weights":[1.4743535E-4,-5.2119786E-4,5.5157267E-2,-1.6418928E-3,1.3864189E-2,6.945045E-2,2.216334E-2,-1.901731E-3,5.730488E-3,5.95451E-2,9.641442E-3,5.565284E-2,1.176843E-1,-1.6982203E-2,4.153684E-2,1.5515972E-4,-2.1560288E-4,3.2034784E-3,2.91571E-7,3.992432E-3,1.4574001E-2,2.3039726E-3,3.975907E-4,8.168935E-3,3.2168606E-3,1.2441992E-2,3.5267503E-3,7.8965724E-4,-2.851303E-3,-1.2991031E-3,5.2632E-3],"categories":[],"categories_nodes":[],"categories_segments":[],"categories_sizes":[],"default_left":[0,0,0,0,0,0,0,0,0,0,0,0,0,0,0,0,0,0,0,0,0,0,0,0,0,0,0,0,0,0,0],"id":26,"left_children":[1,3,5,7,9,11,13,15,17,19,21,23,25,27,29,-1,-1,-1,-1,-1,-1,-1,-1,-1,-1,-1,-1,-1,-1,-1,-1],"loss_changes":[1.7764615E-1,7.695518E-2,2.581285E-2,8.493289E-3,6.597602E-2,2.0071015E-2,1.5114725E-2,3.760174E-3,2.2749534E-2,4.322657E-2,2.3971379E-2,1.7549925E-2,5.3040683E-5,2.2332652E-3,8.548684E-3,0E0,0E0,0E0,0E0,0E0,0E0,0E0,0E0,0E0,0E0,0E0,0E0,0E0,0E0,0E0,0E0],"parents":[2147483647,0,0,1,1,2,2,3,3,4,4,5,5,6,6,7,7,8,8,9,9,10,10,11,11,12,12,13,13,14,14],"right_children":[2,4,6,8,10,12,14,16,18,20,22,24,26,28,30,-1,-1,-1,-1,-1,-1,-1,-1,-1,-1,-1,-1,-1,-1,-1,-1],"split_conditions":[5.855678E2,1.336074E0,7.23E-6,1.14147224E2,4.985451E0,1.0699098E-5,4.413642E0,2.4235735E1,2.2991931E-5,6.7938867E0,8.67332E1,4.0122054E-6,6.619906E-6,1.0389587E-5,2.7019335E-6,1.5515972E-4,-2.1560288E-4,3.2034784E-3,2.91571E-7,3.992432E-3,1.4574001E-2,2.3039726E-3,3.975907E-4,8.168935E-3,3.2168606E-3,1.2441992E-2,3.5267503E-3,7.8965724E-4,-2.851303E-3,-1.2991031E-3,5.2632E-3],"split_indices":[32,31,6,32,32,8,31,33,12,31,33,17,17,8,13,0,0,0,0,0,0,0,0,0,0,0,0,0,0,0,0],"split_type":[0,0,0,0,0,0,0,0,0,0,0,0,0,0,0,0,0,0,0,0,0,0,0,0,0,0,0,0,0,0,0],"sum_hessian":[4.828E3,4.771E3,5.7E1,4.427E3,3.44E2,3.9E1,1.8E1,4.277E3,1.5E2,2.8E1,3.16E2,3.2E1,7E0,6E0,1.2E1,2.93E2,3.984E3,2.6E1,1.24E2,2.4E1,4E0,9.3E1,2.23E2,1.4E1,1.8E1,6E0,1E0,2E0,4E0,2E0,1E1],"tree_param":{"num_deleted":"0","num_feature":"34","num_nodes":"31","size_leaf_vector":"1"}},{"base_weights":[1.4380543E-4,-8.6001644E-4,3.0828321E-2,-1.5802393E-3,8.885793E-3,2.5166767E-2,7.773246E-2,-1.6198665E-3,3.3227317E-2,2.5289167E-2,4.3947753E-3,6.322577E-2,1.5339571E-2,8.8429086E-2,1.9040505E-3,2.6293567E-4,-1.9160472E-4,5.304303E-3,-2.3017765E-3,3.2224645E-5,3.7765622E-3,6.43831E-4,-1.6409347E-3,1.4273163E-3,9.904815E-3,4.4579045E-3,6.7611074E-4,1.2121297E-2,3.8329065E-3,-8.297086E-4,1.1153162E-3],"categories":[],"categories_nodes":[],"categories_segments":[],"categories_sizes":[],"default_left":[0,0,0,0,0,0,0,0,0,0,0,0,0,0,0,0,0,0,0,0,0,0,0,0,0,0,0,0,0,0,0],"id":27,"left_children":[1,3,5,7,9,11,13,15,17,19,21,23,25,27,29,-1,-1,-1,-1,-1,-1,-1,-1,-1,-1,-1,-1,-1,-1,-1,-1],"loss_changes":[1.4876835E-1,3.2842632E-2,3.8672924E-2,6.0621668E-3,2.3609905E-2,5.0643973E-2,1.2809359E-2,5.482196E-3,6.793613E-3,2.1481246E-2,1.090419E-2,4.768703E-2,2.75407E-2,1.834865E-2,3.7559308E-4,0E0,0E0,0E0,0E0,0E0,0E0,0E0,0E0,0E0,0E0,0E0,0E0,0E0,0E0,0E0,0E0],"parents":[2147483647,0,0,1,1,2,2,3,3,4,4,5,5,6,6,7,7,8,8,9,9,10,10,11,11,12,12,13,13,14,14],"right_children":[2,4,6,8,10,12,14,16,18,20,22,24,26,28,30,-1,-1,-1,-1,-1,-1,-1,-1,-1,-1,-1,-1,-1,-1,-1,-1],"split_conditions":[2.5107412E0,1.2094283E0,1.6221248E3,3.9631482E2,2.3499999E-5,-4.829423E-1,9.440093E-3,1.771593E1,3.896202E-6,1.5556059E-6,-3.7688488E-1,2.063E-5,2.392E-5,7.1649997E-6,4.678401E-6,2.6293567E-4,-1.9160472E-4,5.304303E-3,-2.3017765E-3,3.2224645E-5,3.7765622E-3,6.43831E-4,-1.6409347E-3,1.4273163E-3,9.904815E-3,4.4579045E-3,6.7611074E-4,1.2121297E-2,3.8329065E-3,-8.297086E-4,1.1153162E-3],"split_indices":[31,31,32,32,19,28,26,33,0,9,28,14,19,6,0,0,0,0,0,0,0,0,0,0,0,0,0,0,0,0,0],"split_type":[0,0,0,0,0,0,0,0,0,0,0,0,0,0,0,0,0,0,0,0,0,0,0,0,0,0,0,0,0,0,0],"sum_hessian":[4.828E3,4.676E3,1.52E2,4.355E3,3.21E2,1.37E2,1.5E1,4.351E3,4E0,6.8E1,2.53E2,2.7E1,1.1E2,1.3E1,2E0,2.83E2,4.068E3,3E0,1E0,2.3E1,4.5E1,2.31E2,2.2E1,1.2E1,1.5E1,2.4E1,8.6E1,7E0,6E0,1E0,1E0],"tree_param":{"num_deleted":"0","num_feature":"34","num_nodes":"31","size_leaf_vector":"1"}},{"base_weights":[1.3741631E-4,-5.9408933E-4,3.5828948E-2,-1.4215097E-3,8.9425165E-3,2.02374E-2,6.412396E-2,-1.976654E-3,9.3572313E-4,3.4717645E-2,6.211184E-3,5.9431612E-2,7.026281E-3,5.2803896E-2,1.634966E-2,-1.5502218E-4,-2.9500818E-4,3.6965173E-3,4.7145904E-6,-4.6073893E-4,4.611792E-3,7.898264E-4,-2.143007E-3,7.674604E-3,-1.1698179E-3,5.815588E-3,-1.4605437E-4,6.352275E-3,-4.231582E-4],"categories":[],"categories_nodes":[],"categories_segments":[],"categories_sizes":[],"default_left":[0,0,0,0,0,0,0,0,0,0,0,0,0,0,0,0,0,0,0,0,0,0,0,0,0,0,0,0,0],"id":28,"left_children":[1,3,5,7,9,11,13,15,17,19,21,23,25,27,-1,-1,-1,-1,-1,-1,-1,-1,-1,-1,-1,-1,-1,-1,-1],"loss_changes":[1.2609951E-1,3.735978E-2,4.1495122E-2,5.7021314E-3,2.6395733E-2,3.272158E-2,2.961348E-2,1.4590733E-3,2.660268E-2,1.6351867E-2,1.6164381E-2,2.060293E-2,2.134741E-2,1.983215E-2,0E0,0E0,0E0,0E0,0E0,0E0,0E0,0E0,0E0,0E0,0E0,0E0,0E0,0E0,0E0],"parents":[2147483647,0,0,1,1,2,2,3,3,4,4,5,5,6,6,7,7,8,8,9,9,10,10,11,11,12,12,13,13],"right_children":[2,4,6,8,10,12,14,16,18,20,22,24,26,28,-1,-1,-1,-1,-1,-1,-1,-1,-1,-1,-1,-1,-1,-1,-1],"split_conditions":[3.6780448E0,1.2094283E0,3.1616278E-6,4.7768298E-1,6.8290524E-6,2.459E-5,2.192E-5,2.720526E-1,1.1689999E-5,-2.2457746E-1,2.582651E-6,1.7408025E-6,1.8539999E-5,6.359541E-6,1.634966E-2,-1.5502218E-4,-2.9500818E-4,3.6965173E-3,4.7145904E-6,-4.6073893E-4,4.611792E-3,7.898264E-4,-2.143007E-3,7.674604E-3,-1.1698179E-3,5.815588E-3,-1.4605437E-4,6.352275E-3,-4.231582E-4],"split_indices":[31,31,9,31,4,15,18,24,23,26,5,5,23,13,0,0,0,0,0,0,0,0,0,0,0,0,0,0,0],"split_type":[0,0,0,0,0,0,0,0,0,0,0,0,0,0,0,0,0,0,0,0,0,0,0,0,0,0,0,0,0],"sum_hessian":[4.828E3,4.732E3,9.6E1,4.355E3,3.77E2,6.3E1,3.3E1,3.525E3,8.3E2,3.5E1,3.42E2,1.5E1,4.8E1,3.1E1,2E0,2.453E3,1.072E3,1.9E1,8.11E2,8E0,2.7E1,3.23E2,1.9E1,1.2E1,3E0,6E0,4.2E1,2.6E1,5E0],"tree_param":{"num_deleted":"0","num_feature":"34","num_nodes":"29","size_leaf_vector":"1"}},{"base_weights":[1.3206185E-4,-4.0105247E-4,4.3992225E-2,-1.2058936E-3,9.9300705E-3,4.80431E-2,-2.2705353E-3,-1.7367491E-3,1.2409278E-3,4.9126554E-2,6.3129473E-3,3.4419842E-2,6.691345E-2,-1.6741047E-4,-1.6760005E-3,3.222815E-3,3.5281366E-5,3.2094277E-3,1.2446263E-2,1.7945747E-3,1.4031441E-4,5.025299E-3,-3.2542707E-4,7.952523E-3,8.1283395E-4],"categories":[],"categories_nodes":[],"categories_segments":[],"categories_sizes":[],"default_left":[0,0,0,0,0,0,0,0,0,0,0,0,0,0,0,0,0,0,0,0,0,0,0,0,0],"id":29,"left_children":[1,3,5,7,9,11,-1,13,15,17,19,21,23,-1,-1,-1,-1,-1,-1,-1,-1,-1,-1,-1,-1],"loss_changes":[1.1293165E-1,3.9690737E-2,1.676146E-2,5.7537216E-3,4.860345E-2,1.1836007E-2,0E0,3.3966824E-3,2.1729577E-2,3.3216663E-2,1.8080197E-2,2.0444524E-2,1.5664063E-2,0E0,0E0,0E0,0E0,0E0,0E0,0E0,0E0,0E0,0E0,0E0,0E0],"parents":[2147483647,0,0,1,1,2,2,3,3,4,4,5,5,7,7,8,8,9,9,10,10,11,11,12,12],"right_children":[2,4,6,8,10,12,-1,14,16,18,20,22,24,-1,-1,-1,-1,-1,-1,-1,-1,-1,-1,-1,-1],"split_conditions":[5.855678E2,1.336074E0,2.269E-5,5.3201616E-1,4.985451E0,-4.7076352E-2,-2.2705353E-3,1.2765867E2,1.1689999E-5,6.7938867E0,8.67332E1,9.320743E-6,6.2012527E-6,-1.6741047E-4,-1.6760005E-3,3.222815E-3,3.5281366E-5,3.2094277E-3,1.2446263E-2,1.7945747E-3,1.4031441E-4,5.025299E-3,-3.2542707E-4,7.952523E-3,8.1283395E-4],"split_indices":[32,31,18,31,32,26,0,32,23,31,33,4,21,0,0,0,0,0,0,0,0,0,0,0,0],"split_type":[0,0,0,0,0,0,0,0,0,0,0,0,0,0,0,0,0,0,0,0,0,0,0,0,0],"sum_hessian":[4.828E3,4.771E3,5.7E1,4.427E3,3.44E2,5.4E1,3E0,3.638E3,7.89E2,2.8E1,3.16E2,3.3E1,2.1E1,3.624E3,1.4E1,2.1E1,7.68E2,2.4E1,4E0,9.3E1,2.23E2,2.3E1,1E1,1.7E1,4E0],"tree_param":{"num_deleted":"0","num_feature":"34","num_nodes":"25","size_leaf_vector":"1"}},{"base_weights":[1.2510958E-4,-3.5696453E-4,3.9786015E-2,-1.022046E-3,9.925508E-3,2.2911962E-2,5.7047077E-2,-1.2805981E-3,4.95795E-3,5.189909E-2,6.286262E-3,6.0197633E-2,2.2903266E-3,8.1072494E-2,3.082021E-2,-1.7966893E-4,-2.8754128E-5,3.2776543E-3,8.3154475E-5,-2.6975586E-3,6.992405E-3,1.2973383E-3,-3.8969147E-4,1.3551194E-3,8.491686E-3,1.6222157E-3,-1.1849715E-3,8.874166E-3,2.3371668E-3,8.716696E-4,7.3283897E-3],"categories":[],"categories_nodes":[],"categories_segments":[],"categories_sizes":[],"default_left":[0,0,0,0,0,0,0,0,0,0,0,0,0,0,0,0,0,0,0,0,0,0,0,0,0,0,0,0,0,0,0],"id":30,"left_children":[1,3,5,7,9,11,13,15,17,19,21,23,25,27,29,-1,-1,-1,-1,-1,-1,-1,-1,-1,-1,-1,-1,-1,-1,-1,-1],"loss_changes":[9.234224E-2,3.2644335E-2,1.5586264E-2,6.9377E-3,4.397188E-2,2.3697766E-2,1.5144445E-2,2.2022426E-3,2.132383E-2,3.458564E-2,1.830032E-2,1.1532977E-2,4.3291585E-3,4.1211993E-3,1.3440158E-2,0E0,0E0,0E0,0E0,0E0,0E0,0E0,0E0,0E0,0E0,0E0,0E0,0E0,0E0,0E0,0E0],"parents":[2147483647,0,0,1,1,2,2,3,3,4,4,5,5,6,6,7,7,8,8,9,9,10,10,11,11,12,12,13,13,14,14],"right_children":[2,4,6,8,10,12,14,16,18,20,22,24,26,28,30,-1,-1,-1,-1,-1,-1,-1,-1,-1,-1,-1,-1,-1,-1,-1,-1],"split_conditions":[5.855678E2,1.4633335E0,9.523567E-2,1.0712626E2,4.985451E0,7.675147E-2,1.1538635E-1,3.0915406E-1,2.2619317E-5,1.109224E-6,4.4000244E-6,7.806361E-12,1.62E-5,5.7226443E-6,1.215E-5,-1.7966893E-4,-2.8754128E-5,3.2776543E-3,8.3154475E-5,-2.6975586E-3,6.992405E-3,1.2973383E-3,-3.8969147E-4,1.3551194E-3,8.491686E-3,1.6222157E-3,-1.1849715E-3,8.874166E-3,2.3371668E-3,8.716696E-4,7.3283897E-3],"split_indices":[32,31,27,32,32,27,27,31,12,1,21,29,18,21,7,0,0,0,0,0,0,0,0,0,0,0,0,0,0,0,0],"split_type":[0,0,0,0,0,0,0,0,0,0,0,0,0,0,0,0,0,0,0,0,0,0,0,0,0,0,0,0,0,0,0],"sum_hessian":[4.828E3,4.771E3,5.7E1,4.482E3,2.89E2,3E1,2.7E1,4.297E3,1.85E2,2.2E1,2.67E2,1E1,2E1,1.3E1,1.4E1,2.827E3,1.47E3,2.3E1,1.62E2,4E0,1.8E1,1.61E2,1.06E2,4E0,6E0,1E1,1E1,1.1E1,2E0,1E1,4E0],"tree_param":{"num_deleted":"0","num_feature":"34","num_nodes":"31","size_leaf_vector":"1"}},{"base_weights":[1.204783E-4,-5.4265064E-4,2.3358783E-2,-1.1686708E-3,4.8088892E-3,1.8746793E-2,6.4843714E-2,-6.702065E-4,-2.6753475E-3,3.857303E-4,1.4333221E-2,1.1457391E-2,4.5220837E-2,8.557534E-2,-3.2786813E-2,-1.5425269E-4,1.793564E-4,-1.216265E-4,-5.413303E-4,-2.6500465E-3,1.7204924E-4,2.7198128E-3,-1.8607806E-4,2.9027713E-3,-5.639267E-4,5.9059015E-3,-1.074959E-3,1.1997259E-2,4.8780832E-3,-9.1821107E-4,-3.999811E-3],"categories":[],"categories_nodes":[],"categories_segments":[],"categories_sizes":[],"default_left":[0,0,0,0,0,0,0,0,0,0,0,0,0,0,0,0,0,0,0,0,0,0,0,0,0,0,0,0,0,0,0],"id":31,"left_children":[1,3,5,7,9,11,13,15,17,19,21,23,25,27,29,-1,-1,-1,-1,-1,-1,-1,-1,-1,-1,-1,-1,-1,-1,-1,-1],"loss_changes":[7.442752E-2,1.573803E-2,2.4422355E-2,3.1562652E-3,2.0721264E-2,2.3025442E-2,2.9118259E-2,6.7963786E-3,4.1680895E-3,1.2139402E-2,3.2550767E-2,2.9301891E-2,2.077261E-2,8.069567E-3,1.4339457E-4,0E0,0E0,0E0,0E0,0E0,0E0,0E0,0E0,0E0,0E0,0E0,0E0,0E0,0E0,0E0,0E0],"parents":[2147483647,0,0,1,1,2,2,3,3,4,4,5,5,6,6,7,7,8,8,9,9,10,10,11,11,12,12,13,13,14,14],"right_children":[2,4,6,8,10,12,14,16,18,20,22,24,26,28,30,-1,-1,-1,-1,-1,-1,-1,-1,-1,-1,-1,-1,-1,-1,-1,-1],"split_conditions":[2.8284674E0,9.922046E-1,2.8513481E-5,3.0301735E-6,1.0578729E-1,6.428103E-6,1.6475758E-5,3.6049506E-1,2.9061458E-1,2.9449998E-6,-4.2943794E-1,6.265E-6,9.799999E-6,2.7954999E-5,7.683195E-6,-1.5425269E-4,1.793564E-4,-1.216265E-4,-5.413303E-4,-2.6500465E-3,1.7204924E-4,2.7198128E-3,-1.8607806E-4,2.9027713E-3,-5.639267E-4,5.9059015E-3,-1.074959E-3,1.1997259E-2,4.8780832E-3,-9.1821107E-4,-3.999811E-3],"split_indices":[31,31,16,9,25,0,8,31,24,2,28,6,3,23,0,0,0,0,0,0,0,0,0,0,0,0,0,0,0,0,0],"split_type":[0,0,0,0,0,0,0,0,0,0,0,0,0,0,0,0,0,0,0,0,0,0,0,0,0,0,0,0,0,0,0],"sum_hessian":[4.828E3,4.695E3,1.33E2,4.204E3,4.91E2,1.21E2,1.2E1,3.16E3,1.044E3,3.36E2,1.55E2,9.6E1,2.5E1,1E1,2E0,2.334E3,8.26E2,6.82E2,3.62E2,1.5E1,3.21E2,8.6E1,6.9E1,4.7E1,4.9E1,2E1,5E0,4E0,6E0,1E0,1E0],"tree_param":{"num_deleted":"0","num_feature":"34","num_nodes":"31","size_leaf_vector":"1"}},{"base_weights":[1.1227064E-4,-3.0066713E-4,3.4085147E-2,-7.2307547E-4,1.0417564E-2,3.7533768E-2,-2.185468E-3,-1.0073731E-3,5.3658085E-3,5.0143484E-2,6.261454E-3,6.0947742E-2,2.9582245E-2,-3.7471527E-5,-1.9563267E-4,9.1094844E-4,-1.307803E-3,-2.918874E-4,8.757902E-3,1.5680926E-3,-4.9755716E-4,-8.750022E-4,6.748506E-3,1.1514999E-3,5.1797978E-3],"categories":[],"categories_nodes":[],"categories_segments":[],"categories_sizes":[],"default_left":[0,0,0,0,0,0,0,0,0,0,0,0,0,0,0,0,0,0,0,0,0,0,0,0,0],"id":32,"left_children":[1,3,5,7,9,11,-1,13,15,17,19,21,23,-1,-1,-1,-1,-1,-1,-1,-1,-1,-1,-1,-1],"loss_changes":[6.775475E-2,2.1612624E-2,1.2009375E-2,7.954411E-3,2.9570088E-2,8.436747E-3,0E0,2.6336596E-3,1.427392E-2,3.4024738E-2,1.7542752E-2,6.513767E-3,1.6662758E-2,0E0,0E0,0E0,0E0,0E0,0E0,0E0,0E0,0E0,0E0,0E0,0E0],"parents":[2147483647,0,0,1,1,2,2,3,3,4,4,5,5,7,7,8,8,9,9,10,10,11,11,12,12],"right_children":[2,4,6,8,10,12,-1,14,16,18,20,22,24,-1,-1,-1,-1,-1,-1,-1,-1,-1,-1,-1,-1],"split_conditions":[5.855678E2,1.9002392E0,2.269E-5,1.18141624E2,4.985451E0,3.2976357E-6,-2.185468E-3,3.5399999E-6,1.215E-5,1.21036224E-1,4.4000244E-6,2.6689138E-6,1.6596589E-6,-3.7471527E-5,-1.9563267E-4,9.1094844E-4,-1.307803E-3,-2.918874E-4,8.757902E-3,1.5680926E-3,-4.9755716E-4,-8.750022E-4,6.748506E-3,1.1514999E-3,5.1797978E-3],"split_indices":[32,31,18,32,32,21,0,2,7,25,21,13,1,0,0,0,0,0,0,0,0,0,0,0,0],"split_type":[0,0,0,0,0,0,0,0,0,0,0,0,0,0,0,0,0,0,0,0,0,0,0,0,0],"sum_hessian":[4.828E3,4.771E3,5.7E1,4.591E3,1.8E2,5.4E1,3E0,4.387E3,2.04E2,1.6E1,1.64E2,1.2E1,4.2E1,2.633E3,1.754E3,1.7E2,3.4E1,7E0,9E0,8.9E1,7.5E1,1E0,1.1E1,2.4E1,1.8E1],"tree_param":{"num_deleted":"0","num_feature":"34","num_nodes":"25","size_leaf_vector":"1"}},{"base_weights":[1.049627E-4,-3.0967334E-4,2.789578E-2,-6.618904E-4,7.981732E-3,5.7373665E-2,2.1535274E-2,1.8028894E-3,-1.0626878E-3,6.3445285E-2,6.1787525E-3,1.7045492E-2,8.374443E-2,-5.340908E-3,3.9601088E-2,-1.2045433E-4,7.576069E-4,-4.067028E-5,-2.886301E-4,7.4454844E-3,4.1987302E-4,-2.9328743E-3,8.5378037E-4,-2.1165053E-3,4.144203E-3,3.572007E-3,9.581016E-3,-3.8096984E-3,8.575104E-5,7.812281E-3,2.760885E-3],"categories":[],"categories_nodes":[],"categories_segments":[],"categories_sizes":[],"default_left":[0,0,0,0,0,0,0,0,0,0,0,0,0,0,0,0,0,0,0,0,0,0,0,0,0,0,0,0,0,0,0],"id":33,"left_children":[1,3,5,7,9,11,13,15,17,19,21,23,25,27,29,-1,-1,-1,-1,-1,-1,-1,-1,-1,-1,-1,-1,-1,-1,-1,-1],"loss_changes":[5.565357E-2,1.3903343E-2,1.2076542E-2,4.5125647E-3,1.9007916E-2,1.1334352E-2,2.934391E-2,1.1103731E-2,4.6977475E-3,3.6010537E-3,1.60818E-2,6.470353E-3,6.3379854E-4,5.108565E-3,1.4473736E-2,0E0,0E0,0E0,0E0,0E0,0E0,0E0,0E0,0E0,0E0,0E0,0E0,0E0,0E0,0E0,0E0],"parents":[2147483647,0,0,1,1,2,2,3,3,4,4,5,5,6,6,7,7,8,8,9,9,10,10,11,11,12,12,13,13,14,14],"right_children":[2,4,6,8,10,12,14,16,18,20,22,24,26,28,30,-1,-1,-1,-1,-1,-1,-1,-1,-1,-1,-1,-1,-1,-1,-1,-1],"split_conditions":[5.201464E2,1.6685765E2,7.330843E-2,1.0374617E2,2.1915E-5,2.7980468E-6,9.523567E-2,4.534578E-1,4.985451E0,4.6925347E-6,2.972668E-1,3.3627507E-1,3.1715806E-6,5.855678E2,4.088035E-6,-1.2045433E-4,7.576069E-4,-4.067028E-5,-2.886301E-4,7.4454844E-3,4.1987302E-4,-2.9328743E-3,8.5378037E-4,-2.1165053E-3,4.144203E-3,3.572007E-3,9.581016E-3,-3.8096984E-3,8.575104E-5,7.812281E-3,2.760885E-3],"split_indices":[32,32,27,33,15,13,27,24,32,0,24,24,21,32,21,0,0,0,0,0,0,0,0,0,0,0,0,0,0,0,0],"split_type":[0,0,0,0,0,0,0,0,0,0,0,0,0,0,0,0,0,0,0,0,0,0,0,0,0,0,0,0,0,0,0],"sum_hessian":[4.828E3,4.758E3,7E1,4.565E3,1.93E2,1.1E1,5.9E1,6.38E2,3.927E3,5E0,1.88E2,5E0,6E0,2.4E1,3.5E1,4.2E2,2.18E2,2.889E3,1.038E3,4E0,1E0,1.1E1,1.77E2,2E0,3E0,2E0,4E0,3E0,2.1E1,7E0,2.8E1],"tree_param":{"num_deleted":"0","num_feature":"34","num_nodes":"31","size_leaf_vector":"1"}},{"base_weights":[1.0029056E-4,-1.8223932E-4,3.3930738E-2,-7.4878667E-4,6.8125236E-3,2.6871532E-2,1.5461988E-2,2.871426E-3,-1.0029472E-3,2.000985E-2,2.8334963E-3,3.7835907E-2,-1.3880371E-2,-2.0969076E-4,1.6954171E-3,-1.1365736E-4,3.728487E-4,9.432402E-4,6.052039E-3,-2.879284E-3,4.3742848E-4,2.2938135E-3,7.1704E-3,-6.455697E-3,9.821083E-4],"categories":[],"categories_nodes":[],"categories_segments":[],"categories_sizes":[],"default_left":[0,0,0,0,0,0,0,0,0,0,0,0,0,0,0,0,0,0,0,0,0,0,0,0,0],"id":34,"left_children":[1,3,5,7,9,11,-1,13,15,17,19,21,23,-1,-1,-1,-1,-1,-1,-1,-1,-1,-1,-1,-1],"loss_changes":[4.6162307E-2,1.8987222E-2,2.9923905E-2,4.080831E-3,1.8795295E-2,1.7951122E-2,0E0,2.0396175E-2,2.6229937E-3,3.4994494E-2,1.3624016E-2,1.39965825E-2,1.1444001E-2,0E0,0E0,0E0,0E0,0E0,0E0,0E0,0E0,0E0,0E0,0E0,0E0],"parents":[2147483647,0,0,1,1,2,2,3,3,4,4,5,5,7,7,8,8,9,9,10,10,11,11,12,12],"right_children":[2,4,6,8,10,12,-1,14,16,18,20,22,24,-1,-1,-1,-1,-1,-1,-1,-1,-1,-1,-1,-1],"split_conditions":[6.7938867E0,1.336074E0,2.8641252E-5,1.771593E1,3.3349997E-6,1.2224999E-5,1.5461988E-2,4.1585243E-1,7.070887E-1,2.256E-5,8.884999E-6,2.8418558E2,1.0895023E-5,-2.0969076E-4,1.6954171E-3,-1.1365736E-4,3.728487E-4,9.432402E-4,6.052039E-3,-2.879284E-3,4.3742848E-4,2.2938135E-3,7.1704E-3,-6.455697E-3,9.821083E-4],"split_indices":[31,31,16,33,2,22,0,31,24,14,7,33,8,0,0,0,0,0,0,0,0,0,0,0,0],"split_type":[0,0,0,0,0,0,0,0,0,0,0,0,0,0,0,0,0,0,0,0,0,0,0,0,0],"sum_hessian":[4.828E3,4.789E3,3.9E1,4.431E3,3.58E2,3.8E1,1E0,2.9E2,4.141E3,8.2E1,2.76E2,3E1,8E0,2.15E2,7.5E1,4.028E3,1.13E2,6.6E1,1.6E1,1.2E1,2.64E2,2.2E1,8E0,2E0,6E0],"tree_param":{"num_deleted":"0","num_feature":"34","num_nodes":"25","size_leaf_vector":"1"}},{"base_weights":[9.559414E-5,-1.6270041E-4,3.1023977E-2,-7.32833E-4,5.546863E-3,2.42867E-2,1.4688889E-2,-8.524365E-4,3.68535E-3,1.5161266E-2,2.0031892E-3,3.435761E-2,-1.31005095E-2,-3.9709885E-5,-1.6828148E-4,1.0563184E-4,1.0148375E-2,3.0439836E-4,3.078277E-3,1.4047677E-3,-2.9401618E-4,4.9445836E-4,4.812836E-3,-6.0253176E-3,8.979278E-4],"categories":[],"categories_nodes":[],"categories_segments":[],"categories_sizes":[],"default_left":[0,0,0,0,0,0,0,0,0,0,0,0,0,0,0,0,0,0,0,0,0,0,0,0,0],"id":35,"left_children":[1,3,5,7,9,11,-1,13,15,17,19,21,23,-1,-1,-1,-1,-1,-1,-1,-1,-1,-1,-1,-1],"loss_changes":[3.8582154E-2,1.5596513E-2,2.765711E-2,2.3049838E-3,1.4790213E-2,1.5134506E-2,0E0,1.6032422E-3,2.9461037E-2,2.205325E-2,1.9034605E-2,1.231825E-2,9.911118E-3,0E0,0E0,0E0,0E0,0E0,0E0,0E0,0E0,0E0,0E0,0E0,0E0],"parents":[2147483647,0,0,1,1,2,2,3,3,4,4,5,5,7,7,8,8,9,9,10,10,11,11,12,12],"right_children":[2,4,6,8,10,12,-1,14,16,18,20,22,24,-1,-1,-1,-1,-1,-1,-1,-1,-1,-1,-1,-1],"split_conditions":[6.7938867E0,1.2094283E0,2.8641252E-5,7.070887E-1,-4.829423E-1,1.2224999E-5,1.4688889E-2,1.0909999E-5,7.565199E-1,1.0578729E-1,2.401E-5,7.5902135E-6,1.0895023E-5,-3.9709885E-5,-1.6828148E-4,1.0563184E-4,1.0148375E-2,3.0439836E-4,3.078277E-3,1.4047677E-3,-2.9401618E-4,4.9445836E-4,4.812836E-3,-6.0253176E-3,8.979278E-4],"split_indices":[31,31,16,24,28,22,0,7,31,25,19,4,8,0,0,0,0,0,0,0,0,0,0,0,0],"split_type":[0,0,0,0,0,0,0,0,0,0,0,0,0,0,0,0,0,0,0,0,0,0,0,0,0],"sum_hessian":[4.828E3,4.789E3,3.9E1,4.355E3,4.34E2,3.8E1,1E0,4.241E3,1.14E2,1.16E2,3.18E2,3E1,8E0,2.74E3,1.501E3,1.12E2,2E0,6.6E1,5E1,9.2E1,2.26E2,1E1,2E1,2E0,6E0],"tree_param":{"num_deleted":"0","num_feature":"34","num_nodes":"25","size_leaf_vector":"1"}},{"base_weights":[9.2124756E-5,-3.5332324E-4,1.5702063E-2,3.0064974E-3,-8.191327E-4,1.09757325E-2,4.9872763E-2,1.2139175E-2,5.5503607E-4,-1.5255593E-2,-7.556772E-4,4.4065177E-2,6.501884E-3,1.0642262E-1,1.4493502E-2,3.3489072E-3,5.650492E-4,-2.9262877E-5,2.9202537E-3,2.5865168E-3,-1.9195942E-3,3.3904988E-4,-8.6847154E-5,5.220239E-3,-3.1720698E-4,-1.4779195E-3,1.549512E-3,2.1164285E-3,1.1924143E-2,2.7514182E-3,-2.93997E-3],"categories":[],"categories_nodes":[],"categories_segments":[],"categories_sizes":[],"default_left":[0,0,0,0,0,0,0,0,0,0,0,0,0,0,0,0,0,0,0,0,0,0,0,0,0,0,0,0,0,0,0],"id":36,"left_children":[1,3,5,7,9,11,13,15,17,19,21,23,25,27,29,-1,-1,-1,-1,-1,-1,-1,-1,-1,-1,-1,-1,-1,-1,-1,-1],"loss_changes":[3.3583593E-2,7.3518734E-3,2.1093883E-2,1.2799431E-2,3.7672753E-3,1.7329913E-2,3.0468635E-2,1.657323E-2,1.0984677E-2,3.4130486E-3,1.9241134E-3,5.546905E-3,2.0515893E-2,4.033804E-3,7.095621E-3,0E0,0E0,0E0,0E0,0E0,0E0,0E0,0E0,0E0,0E0,0E0,0E0,0E0,0E0,0E0,0E0],"parents":[2147483647,0,0,1,1,2,2,3,3,4,4,5,5,6,6,7,7,8,8,9,9,10,10,11,11,12,12,13,13,14,14],"right_children":[2,4,6,8,10,12,14,16,18,20,22,24,26,28,30,-1,-1,-1,-1,-1,-1,-1,-1,-1,-1,-1,-1,-1,-1,-1,-1],"split_conditions":[2.8284674E0,7.691567E1,2.8179804E-5,-1.4953105E-1,7.946536E1,2.229E-5,2.8224998E-5,4.3749997E-6,2.0195446E0,2.5819998E-5,1.0374617E2,2.59553E2,1.4505691E-5,4.849539E-6,2.0325E-5,3.3489072E-3,5.650492E-4,-2.9262877E-5,2.9202537E-3,2.5865168E-3,-1.9195942E-3,3.3904988E-4,-8.6847154E-5,5.220239E-3,-3.1720698E-4,-1.4779195E-3,1.549512E-3,2.1164285E-3,1.1924143E-2,2.7514182E-3,-2.93997E-3],"split_indices":[31,33,16,26,33,19,23,6,31,15,33,33,20,0,11,0,0,0,0,0,0,0,0,0,0,0,0,0,0,0,0],"split_type":[0,0,0,0,0,0,0,0,0,0,0,0,0,0,0,0,0,0,0,0,0,0,0,0,0,0,0,0,0,0,0],"sum_hessian":[4.828E3,4.695E3,1.33E2,5.71E2,4.124E3,1.18E2,1.5E1,1.2E2,4.51E2,1.7E1,4.107E3,1.3E1,1.05E2,5E0,1E1,2.7E1,9.3E1,4.39E2,1.2E1,1E0,1.6E1,1.08E2,3.999E3,1.1E1,2E0,3.1E1,7.4E1,1E0,4E0,8E0,2E0],"tree_param":{"num_deleted":"0","num_feature":"34","num_nodes":"31","size_leaf_vector":"1"}},{"base_weights":[8.8410416E-5,-2.1410163E-4,2.0363994E-2,-3.198664E-4,2.366368E-2,4.8598643E-2,1.4377665E-2,-6.196913E-4,4.0257E-3,-9.3546305E-3,7.848776E-2,5.7407502E-2,-2.4149418E-3,-8.789219E-3,3.0066399E-2,-5.7115963E-6,-1.45454E-4,6.1258924E-4,-1.7044991E-3,-3.8547062E-3,2.5344526E-3,9.314528E-3,-1.2057417E-3,6.493049E-3,-8.9111924E-4,-1.7347863E-3,8.353687E-4,1.0475699E-3,4.205704E-3],"categories":[],"categories_nodes":[],"categories_segments":[],"categories_sizes":[],"default_left":[0,0,0,0,0,0,0,0,0,0,0,0,0,0,0,0,0,0,0,0,0,0,0,0,0,0,0,0,0],"id":37,"left_children":[1,3,5,7,9,11,13,15,17,19,21,23,-1,25,27,-1,-1,-1,-1,-1,-1,-1,-1,-1,-1,-1,-1,-1,-1],"loss_changes":[2.9623557E-2,1.2026084E-2,1.1301821E-2,6.1769797E-3,3.87484E-2,9.076292E-3,2.2071805E-2,2.0824126E-3,1.3645681E-2,1.5158295E-2,1.1740427E-2,6.066669E-3,0E0,3.8129194E-3,8.016005E-3,0E0,0E0,0E0,0E0,0E0,0E0,0E0,0E0,0E0,0E0,0E0,0E0,0E0,0E0],"parents":[2147483647,0,0,1,1,2,2,3,3,4,4,5,5,6,6,7,7,8,8,9,9,10,10,11,11,13,13,14,14],"right_children":[2,4,6,8,10,12,14,16,18,20,22,24,-1,26,28,-1,-1,-1,-1,-1,-1,-1,-1,-1,-1,-1,-1,-1,-1],"split_conditions":[5.201464E2,5.152609E0,7.330843E-2,1.2307418E2,1.6474318E-6,1.7932063E-6,9.523567E-2,3.5399999E-6,2.2089748E-6,2.7375E-5,2.0821835E-6,7.9269485E-6,-2.4149418E-3,2.6475E-5,6.7801843E2,-5.7115963E-6,-1.45454E-4,6.1258924E-4,-1.7044991E-3,-3.8547062E-3,2.5344526E-3,9.314528E-3,-1.2057417E-3,6.493049E-3,-8.9111924E-4,-1.7347863E-3,8.353687E-4,1.0475699E-3,4.205704E-3],"split_indices":[32,31,27,32,1,1,27,2,5,19,1,0,0,19,32,0,0,0,0,0,0,0,0,0,0,0,0,0,0],"split_type":[0,0,0,0,0,0,0,0,0,0,0,0,0,0,0,0,0,0,0,0,0,0,0,0,0,0,0,0,0],"sum_hessian":[4.828E3,4.758E3,7E1,4.738E3,2E1,1.1E1,5.9E1,4.433E3,3.05E2,1.3E1,7E0,1E1,1E0,2.4E1,3.5E1,2.649E3,1.784E3,2.78E2,2.7E1,7E0,6E0,6E0,1E0,9E0,1E0,1.6E1,8E0,1.4E1,2.1E1],"tree_param":{"num_deleted":"0","num_feature":"34","num_nodes":"29","size_leaf_vector":"1"}},{"base_weights":[8.2279585E-5,-1.6508029E-4,2.0432608E-2,-6.372155E-4,3.3305073E-3,4.1998412E-2,1.3893737E-2,-6.9103745E-4,1.1920753E-2,2.4183232E-2,1.3151572E-3,7.5298846E-3,5.158598E-2,-8.977743E-3,2.3175767E-2,-6.5387954E-5,-1.4741463E-3,5.1665595E-3,-2.5041678E-3,1.7955203E-3,7.664446E-3,8.9794456E-4,-2.156714E-4,1.9454658E-4,8.742869E-4,-8.25049E-4,5.91512E-3,1.6501651E-3,-2.4966479E-3,2.8176645E-3,-2.0124752E-3],"categories":[],"categories_nodes":[],"categories_segments":[],"categories_sizes":[],"default_left":[0,0,0,0,0,0,0,0,0,0,0,0,0,0,0,0,0,0,0,0,0,0,0,0,0,0,0,0,0,0,0],"id":38,"left_children":[1,3,5,7,9,11,13,15,17,19,21,23,25,27,29,-1,-1,-1,-1,-1,-1,-1,-1,-1,-1,-1,-1,-1,-1,-1,-1],"loss_changes":[2.431186E-2,7.877784E-3,7.5954124E-3,2.850372E-3,2.38387E-2,3.9076675E-3,9.973579E-3,2.17685E-3,2.773698E-2,1.4960336E-2,1.3829657E-2,1.0086296E-5,5.0147846E-3,6.1153537E-3,7.7128857E-3,0E0,0E0,0E0,0E0,0E0,0E0,0E0,0E0,0E0,0E0,0E0,0E0,0E0,0E0,0E0,0E0],"parents":[2147483647,0,0,1,1,2,2,3,3,4,4,5,5,6,6,7,7,8,8,9,9,10,10,11,11,12,12,13,13,14,14],"right_children":[2,4,6,8,10,12,14,16,18,20,22,24,26,28,30,-1,-1,-1,-1,-1,-1,-1,-1,-1,-1,-1,-1,-1,-1,-1,-1],"split_conditions":[5.855678E2,9.922046E-1,3.2976357E-6,2.0759732E2,6.099142E0,3.22E-6,2.447517E-6,1.7571063E2,1.9544395E-6,6.7938867E0,8.67332E1,2.8780717E-6,2.6689138E-6,1.1044257E-6,2.269E-5,-6.5387954E-5,-1.4741463E-3,5.1665595E-3,-2.5041678E-3,1.7955203E-3,7.664446E-3,8.9794456E-4,-2.156714E-4,1.9454658E-4,8.742869E-4,-8.25049E-4,5.91512E-3,1.6501651E-3,-2.4966479E-3,2.8176645E-3,-2.0124752E-3],"split_indices":[32,31,21,32,32,10,9,32,9,31,33,0,13,1,18,0,0,0,0,0,0,0,0,0,0,0,0,0,0,0,0],"split_type":[0,0,0,0,0,0,0,0,0,0,0,0,0,0,0,0,0,0,0,0,0,0,0,0,0,0,0,0,0,0,0],"sum_hessian":[4.828E3,4.771E3,5.7E1,4.204E3,5.67E2,1.2E1,4.5E1,4.187E3,1.7E1,4.9E1,5.18E2,3E0,9E0,1.3E1,3.2E1,4.177E3,1E1,8E0,9E0,4.5E1,4E0,1.61E2,3.57E2,1E0,2E0,1E0,8E0,5E0,8E0,2.9E1,3E0],"tree_param":{"num_deleted":"0","num_feature":"34","num_nodes":"31","size_leaf_vector":"1"}},{"base_weights":[7.765105E-5,-7.853099E-4,1.0004757E-3,-6.583267E-4,-1.6472902E-2,2.974178E-3,-6.019238E-4,-1.2589597E-2,-5.6586944E-4,-3.701079E-2,-7.159555E-3,1.041146E-3,1.1512184E-2,-4.561963E-3,7.1053713E-4,-4.475799E-4,-2.9423528E-3,7.400939E-3,-6.870971E-5,-4.412647E-3,-7.161908E-5,-3.655343E-4,-1.9957954E-3,6.24975E-5,2.427731E-3,-8.228481E-4,1.3715064E-3,2.2668687E-4,-7.4425206E-4,4.990442E-4,-5.0191018E-5],"categories":[],"categories_nodes":[],"categories_segments":[],"categories_sizes":[],"default_left":[0,0,0,0,0,0,0,0,0,0,0,0,0,0,0,0,0,0,0,0,0,0,0,0,0,0,0,0,0,0,0],"id":39,"left_children":[1,3,5,7,9,11,13,15,17,19,21,23,25,27,29,-1,-1,-1,-1,-1,-1,-1,-1,-1,-1,-1,-1,-1,-1,-1,-1],"loss_changes":[3.8464158E-3,4.961336E-3,7.383437E-3,2.7253358E-3,3.5605486E-3,1.7251449E-2,6.702686E-3,2.4634616E-3,2.2281647E-2,1.5179636E-3,5.997714E-4,8.243191E-3,8.505711E-3,6.3312105E-3,5.030799E-3,0E0,0E0,0E0,0E0,0E0,0E0,0E0,0E0,0E0,0E0,0E0,0E0,0E0,0E0,0E0,0E0],"parents":[2147483647,0,0,1,1,2,2,3,3,4,4,5,5,6,6,7,7,8,8,9,9,10,10,11,11,12,12,13,13,14,14],"right_children":[2,4,6,8,10,12,14,16,18,20,22,24,26,28,30,-1,-1,-1,-1,-1,-1,-1,-1,-1,-1,-1,-1,-1,-1,-1,-1],"split_conditions":[2.5181882E-6,6.2445106E-12,3.5541666E-6,-2.2457746E-1,1.9123767E-5,2.2125E-5,5.655602E-6,9.827775E-6,-2.1459219E-1,7.753471E-6,2.8086647E-6,6.7E-6,7.498513E-2,8.498424E-12,-4.0501317E-1,-4.475799E-4,-2.9423528E-3,7.400939E-3,-6.870971E-5,-4.412647E-3,-7.161908E-5,-3.655343E-4,-1.9957954E-3,6.24975E-5,2.427731E-3,-8.228481E-4,1.3715064E-3,2.2668687E-4,-7.4425206E-4,4.990442E-4,-5.0191018E-5],"split_indices":[13,29,2,26,16,14,0,20,26,4,9,6,25,29,28,0,0,0,0,0,0,0,0,0,0,0,0,0,0,0,0],"split_type":[0,0,0,0,0,0,0,0,0,0,0,0,0,0,0,0,0,0,0,0,0,0,0,0,0,0,0,0,0,0,0],"sum_hessian":[4.828E3,2.495E3,2.333E3,2.476E3,1.9E1,1.045E3,1.288E3,1.8E1,2.458E3,5E0,1.4E1,8.53E2,1.92E2,3.2E2,9.68E2,1.3E1,5E0,3E0,2.455E3,4E0,1E0,1.2E1,2E0,8.39E2,1.4E1,1.9E1,1.73E2,9.5E1,2.25E2,2.13E2,7.55E2],"tree_param":{"num_deleted":"0","num_feature":"34","num_nodes":"31","size_leaf_vector":"1"}},{"base_weights":[6.9899776E-5,-1.7559183E-4,1.652377E-2,-3.894326E-4,4.8582866E-3,1.2172796E-2,4.926608E-2,-3.491439E-4,-1.2589743E-2,7.55159E-3,-2.5576688E-2,3.4938604E-2,4.4906386E-3,7.163819E-3,-1.1900157E-2,1.3162775E-4,-6.189738E-5,-3.995361E-3,1.0092125E-3,5.545446E-3,5.856367E-4,1.3965108E-4,-2.7468004E-3,6.0154794E-4,4.1150446E-3,-2.598369E-3,1.0188352E-3,1.13403796E-4,-1.8984274E-3],"categories":[],"categories_nodes":[],"categories_segments":[],"categories_sizes":[],"default_left":[0,0,0,0,0,0,0,0,0,0,0,0,0,0,0,0,0,0,0,0,0,0,0,0,0,0,0,0,0],"id":40,"left_children":[1,3,5,7,9,11,13,15,17,19,21,23,25,-1,27,-1,-1,-1,-1,-1,-1,-1,-1,-1,-1,-1,-1,-1,-1],"loss_changes":[1.9508619E-2,5.124709E-3,9.515019E-3,2.2399507E-3,1.6095446E-2,1.1036097E-2,1.1799846E-2,2.0463944E-3,9.713171E-3,1.4211121E-2,8.5459556E-4,2.627112E-3,8.772798E-3,0E0,2.9853615E-4,0E0,0E0,0E0,0E0,0E0,0E0,0E0,0E0,0E0,0E0,0E0,0E0,0E0,0E0],"parents":[2147483647,0,0,1,1,2,2,3,3,4,4,5,5,6,6,7,7,8,8,9,9,10,10,11,11,12,12,14,14],"right_children":[2,4,6,8,10,12,14,16,18,20,22,24,26,-1,28,-1,-1,-1,-1,-1,-1,-1,-1,-1,-1,-1,-1,-1,-1],"split_conditions":[5.201464E2,1.6685765E2,4.448522E2,1.6080396E2,1.7659999E-5,3.3329504E-6,3.252135E-1,1.0374617E2,2.066E-5,2.1915E-5,3.3305E-5,5.000414E-6,2.17271E-6,7.163819E-3,4.6925347E-6,1.3162775E-4,-6.189738E-5,-3.995361E-3,1.0092125E-3,5.545446E-3,5.856367E-4,1.3965108E-4,-2.7468004E-3,6.0154794E-4,4.1150446E-3,-2.598369E-3,1.0188352E-3,1.13403796E-4,-1.8984274E-3],"split_indices":[32,32,33,32,11,21,24,33,14,15,19,8,9,0,0,0,0,0,0,0,0,0,0,0,0,0,0,0,0],"split_type":[0,0,0,0,0,0,0,0,0,0,0,0,0,0,0,0,0,0,0,0,0,0,0,0,0,0,0,0,0],"sum_hessian":[4.828E3,4.758E3,7E1,4.565E3,1.93E2,6.3E1,7E0,4.551E3,1.4E1,1.78E2,1.5E1,1.5E1,4.8E1,5E0,2E0,6.34E2,3.917E3,6E0,8E0,5E0,1.73E2,1E0,1.4E1,3E0,1.2E1,7E0,4.1E1,1E0,1E0],"tree_param":{"num_deleted":"0","num_feature":"34","num_nodes":"29","size_leaf_vector":"1"}},{"base_weights":[6.479917E-5,-1.0658673E-4,2.0586642E-2,-4.932502E-4,3.4317735E-3,1.4760149E-2,1.2390993E-2,2.8279515E-5,-1.3393677E-3,1.1732156E-2,-6.81824E-5,3.0648919E-2,-1.8666278E-3,-3.263972E-5,7.321806E-4,-1.0061457E-5,-3.065914E-4,6.52453E-4,3.7939448E-3,-1.817075E-3,1.9836692E-4,-2.3939506E-4,5.7901624E-3,-3.4890508E-3,2.3056834E-3],"categories":[],"categories_nodes":[],"categories_segments":[],"categories_sizes":[],"default_left":[0,0,0,0,0,0,0,0,0,0,0,0,0,0,0,0,0,0,0,0,0,0,0,0,0],"id":41,"left_children":[1,3,5,7,9,11,-1,13,15,17,19,21,23,-1,-1,-1,-1,-1,-1,-1,-1,-1,-1,-1,-1],"loss_changes":[1.6986532E-2,6.555153E-3,2.2251565E-2,1.9059065E-3,1.371286E-2,1.03601925E-2,0E0,6.917023E-3,3.5222364E-3,1.8859353E-2,1.2404925E-2,1.8148767E-2,1.726585E-2,0E0,0E0,0E0,0E0,0E0,0E0,0E0,0E0,0E0,0E0,0E0,0E0],"parents":[2147483647,0,0,1,1,2,2,3,3,4,4,5,5,7,7,8,8,9,9,10,10,11,11,12,12],"right_children":[2,4,6,8,10,12,-1,14,16,18,20,22,24,-1,-1,-1,-1,-1,-1,-1,-1,-1,-1,-1,-1],"split_conditions":[6.7938867E0,1.1450872E0,2.8641252E-5,1.522999E-6,3.423333E-6,6.465E-6,1.2390993E-2,2.501692E-6,2.9061458E-1,2.6761189E-5,1.5115833E-5,5.7999996E-6,6.428103E-6,-3.263972E-5,7.321806E-4,-1.0061457E-5,-3.065914E-4,6.52453E-4,3.7939448E-3,-1.817075E-3,1.9836692E-4,-2.3939506E-4,5.7901624E-3,-3.4890508E-3,2.3056834E-3],"split_indices":[31,31,16,5,2,10,0,9,24,12,18,6,0,0,0,0,0,0,0,0,0,0,0,0,0],"split_type":[0,0,0,0,0,0,0,0,0,0,0,0,0,0,0,0,0,0,0,0,0,0,0,0,0],"sum_hessian":[4.828E3,4.789E3,3.9E1,4.318E3,4.71E2,3.8E1,1E0,2.672E3,1.646E3,1.39E2,3.32E2,1.9E1,1.9E1,2.549E3,1.23E2,9.59E2,6.87E2,1.17E2,2.2E1,3.3E1,2.99E2,9E0,1E1,8E0,1.1E1],"tree_param":{"num_deleted":"0","num_feature":"34","num_nodes":"25","size_leaf_vector":"1"}},{"base_weights":[6.245469E-5,-1.4458818E-4,1.3939279E-2,-9.5510106E-5,-1.5659977E-2,3.9902277E-2,9.028914E-3,-1.7506641E-4,2.5002915E-2,1.4251794E-2,-3.2041043E-2,9.219806E-3,6.393437E-2,-8.583656E-3,2.14983E-2,-4.1563704E-5,2.3344967E-4,9.0202654E-4,5.516417E-3,2.0302094E-3,1.4341275E-4,-4.684533E-3,-7.8676885E-4,-2.1618218E-3,3.0043372E-3,6.9851982E-3,1.7173156E-3,-3.5272506E-3,-3.5689137E-4,5.3368597E-3,1.4636362E-3],"categories":[],"categories_nodes":[],"categories_segments":[],"categories_sizes":[],"default_left":[0,0,0,0,0,0,0,0,0,0,0,0,0,0,0,0,0,0,0,0,0,0,0,0,0,0,0,0,0,0,0],"id":42,"left_children":[1,3,5,7,9,11,13,15,17,19,21,23,25,27,29,-1,-1,-1,-1,-1,-1,-1,-1,-1,-1,-1,-1,-1,-1,-1,-1],"loss_changes":[1.3876203E-2,3.6223177E-3,8.691359E-3,9.478898E-3,7.8064427E-3,7.521542E-3,1.35812275E-2,2.8572034E-3,6.7332564E-3,4.3618865E-4,3.2101283E-3,4.502429E-3,4.6071038E-4,3.3538956E-3,7.0917867E-3,0E0,0E0,0E0,0E0,0E0,0E0,0E0,0E0,0E0,0E0,0E0,0E0,0E0,0E0,0E0,0E0],"parents":[2147483647,0,0,1,1,2,2,3,3,4,4,5,5,6,6,7,7,8,8,9,9,10,10,11,11,12,12,13,13,14,14],"right_children":[2,4,6,8,10,12,14,16,18,20,22,24,26,28,30,-1,-1,-1,-1,-1,-1,-1,-1,-1,-1,-1,-1,-1,-1,-1,-1],"split_conditions":[5.201464E2,4.5999686E2,7.307874E-2,3.9631482E2,8.1759095E-2,2.7980468E-6,9.523567E-2,9.3333664E1,4.7047697E-6,7.683333E-6,2.534397E-5,3.3627507E-1,8.8375E-6,5.855678E2,9.7076476E-2,-4.1563704E-5,2.3344967E-4,9.0202654E-4,5.516417E-3,2.0302094E-3,1.4341275E-4,-4.684533E-3,-7.8676885E-4,-2.1618218E-3,3.0043372E-3,6.9851982E-3,1.7173156E-3,-3.5272506E-3,-3.5689137E-4,5.3368597E-3,1.4636362E-3],"split_indices":[32,32,27,32,27,13,27,32,17,3,12,24,3,32,27,0,0,0,0,0,0,0,0,0,0,0,0,0,0,0,0],"split_type":[0,0,0,0,0,0,0,0,0,0,0,0,0,0,0,0,0,0,0,0,0,0,0,0,0,0,0,0,0,0,0],"sum_hessian":[4.828E3,4.758E3,7E1,4.744E3,1.4E1,1E1,6E1,4.73E3,1.4E1,5E0,9E0,5E0,5E0,2.5E1,3.5E1,4.317E3,4.13E2,1E1,4E0,3E0,2E0,5E0,4E0,2E0,3E0,4E0,1E0,3E0,2.2E1,5E0,3E1],"tree_param":{"num_deleted":"0","num_feature":"34","num_nodes":"31","size_leaf_vector":"1"}},{"base_weights":[5.94757E-5,-9.257239E-5,1.8265748E-2,-3.570302E-4,5.1521435E-3,1.26963975E-2,1.1773521E-2,-3.1993672E-4,-1.1577499E-2,1.923794E-2,1.4293547E-3,2.0562762E-2,-1.580957E-2,-7.682613E-5,6.342835E-5,-3.6559124E-3,4.569225E-4,1.1164136E-3,5.2983966E-3,4.206549E-4,-2.2763615E-3,2.6971698E-3,-1.8158043E-3,-5.1972065E-3,1.9471518E-4],"categories":[],"categories_nodes":[],"categories_segments":[],"categories_sizes":[],"default_left":[0,0,0,0,0,0,0,0,0,0,0,0,0,0,0,0,0,0,0,0,0,0,0,0,0],"id":43,"left_children":[1,3,5,7,9,11,-1,13,15,17,19,21,23,-1,-1,-1,-1,-1,-1,-1,-1,-1,-1,-1,-1],"loss_changes":[1.3369469E-2,6.645599E-3,2.0664398E-2,1.8946128E-3,1.2033345E-2,9.070383E-3,0E0,1.9456954E-3,6.2176175E-3,1.24865025E-2,1.2391264E-2,8.182687E-3,5.8803433E-3,0E0,0E0,0E0,0E0,0E0,0E0,0E0,0E0,0E0,0E0,0E0,0E0],"parents":[2147483647,0,0,1,1,2,2,3,3,4,4,5,5,7,7,8,8,9,9,10,10,11,11,12,12],"right_children":[2,4,6,8,10,12,-1,14,16,18,20,22,24,-1,-1,-1,-1,-1,-1,-1,-1,-1,-1,-1,-1],"split_conditions":[6.7938867E0,1.6685765E2,2.8641252E-5,1.6080396E2,-4.8522356E-1,1.804E-5,1.1773521E-2,3.6049506E-1,2.2951133E-5,-4.9516335E-1,3.3305E-5,9.440093E-3,1.46825E-5,-7.682613E-5,6.342835E-5,-3.6559124E-3,4.569225E-4,1.1164136E-3,5.2983966E-3,4.206549E-4,-2.2763615E-3,2.6971698E-3,-1.8158043E-3,-5.1972065E-3,1.9471518E-4],"split_indices":[31,32,16,32,28,18,0,31,12,28,19,26,11,0,0,0,0,0,0,0,0,0,0,0,0],"split_type":[0,0,0,0,0,0,0,0,0,0,0,0,0,0,0,0,0,0,0,0,0,0,0,0,0],"sum_hessian":[4.828E3,4.789E3,3.9E1,4.56E3,2.29E2,3.8E1,1E0,4.546E3,1.4E1,4.7E1,1.82E2,3E1,8E0,3.093E3,1.453E3,5E0,9E0,3.9E1,8E0,1.64E2,1.8E1,2.6E1,4E0,2E0,6E0],"tree_param":{"num_deleted":"0","num_feature":"34","num_nodes":"25","size_leaf_vector":"1"}},{"base_weights":[5.539181E-5,-3.0172689E-5,2.5796149E-2,-2.633112E-4,4.245091E-3,3.8542636E-2,3.90172E-3,2.032616E-3,-4.1835086E-4,4.203686E-2,2.9782348E-3,1.5001595E-3,5.420367E-2,-1.7836535E-2,3.8831574E-3,-1.7501591E-4,1.284947E-3,-3.3198532E-5,-7.2968897E-4,5.9515536E-3,9.6793025E-4,-1.4742496E-3,5.2721985E-4,-5.9674383E-4,1.1951476E-3,6.031587E-3,8.7652507E-4,-2.246809E-3,3.4484267E-5],"categories":[],"categories_nodes":[],"categories_segments":[],"categories_sizes":[],"default_left":[0,0,0,0,0,0,0,0,0,0,0,0,0,0,0,0,0,0,0,0,0,0,0,0,0,0,0,0,0],"id":44,"left_children":[1,3,5,7,9,11,13,15,17,19,21,23,25,27,-1,-1,-1,-1,-1,-1,-1,-1,-1,-1,-1,-1,-1,-1,-1],"loss_changes":[1.0636627E-2,4.7993697E-3,4.314849E-3,1.6261626E-3,1.1796115E-2,5.7199225E-3,6.0078185E-3,1.184771E-2,2.5390047E-3,3.9484687E-3,9.915199E-3,3.8350464E-4,1.4154166E-3,4.2878813E-4,0E0,0E0,0E0,0E0,0E0,0E0,0E0,0E0,0E0,0E0,0E0,0E0,0E0,0E0,0E0],"parents":[2147483647,0,0,1,1,2,2,3,3,4,4,5,5,6,6,7,7,8,8,9,9,10,10,11,11,12,12,13,13],"right_children":[2,4,6,8,10,12,14,16,18,20,22,24,26,28,-1,-1,-1,-1,-1,-1,-1,-1,-1,-1,-1,-1,-1,-1,-1],"split_conditions":[1.6221248E3,1.6685765E2,1.3425529E-1,1.771593E1,2.1915E-5,1.1426894E-1,8.91E-6,7.05361E0,1.471011E2,4.6925347E-6,1.703E-5,3.1060697E-6,1.0082723E-5,9.585661E-6,3.8831574E-3,-1.7501591E-4,1.284947E-3,-3.3198532E-5,-7.2968897E-4,5.9515536E-3,9.6793025E-4,-1.4742496E-3,5.2721985E-4,-5.9674383E-4,1.1951476E-3,6.031587E-3,8.7652507E-4,-2.246809E-3,3.4484267E-5],"split_indices":[32,32,25,33,15,25,3,32,32,0,14,13,4,4,0,0,0,0,0,0,0,0,0,0,0,0,0,0,0],"split_type":[0,0,0,0,0,0,0,0,0,0,0,0,0,0,0,0,0,0,0,0,0,0,0,0,0,0,0,0,0],"sum_hessian":[4.828E3,4.813E3,1.5E1,4.565E3,2.48E2,9E0,6E0,2.88E2,4.277E3,7E0,2.41E2,3E0,6E0,4E0,2E0,2.14E2,7.4E1,4.225E3,5.2E1,4E0,3E0,2.7E1,2.14E2,2E0,1E0,5E0,1E0,3E0,1E0],"tree_param":{"num_deleted":"0","num_feature":"34","num_nodes":"29","size_leaf_vector":"1"}},{"base_weights":[5.306195E-5,-7.936623E-5,1.591001E-2,-3.285702E-4,2.9973786E-3,1.058129E-2,1.1186505E-2,2.0736821E-3,-4.9726333E-4,2.791721E-2,1.9052196E-3,-2.5948843E-2,1.5497559E-2,-1.5446014E-4,1.232994E-3,-1.8366701E-4,-7.1511217E-6,-1.9790072E-3,5.3749857E-3,-3.5916802E-3,2.6805853E-4,-7.86164E-4,-4.914883E-3,-2.7142274E-3,2.034324E-3],"categories":[],"categories_nodes":[],"categories_segments":[],"categories_sizes":[],"default_left":[0,0,0,0,0,0,0,0,0,0,0,0,0,0,0,0,0,0,0,0,0,0,0,0,0],"id":45,"left_children":[1,3,5,7,9,11,-1,13,15,17,19,21,23,-1,-1,-1,-1,-1,-1,-1,-1,-1,-1,-1,-1],"loss_changes":[1.0141713E-2,3.6736554E-3,1.9269023E-2,1.7970699E-3,9.7175045E-3,7.4062287E-3,0E0,1.0818069E-2,2.3618657E-3,1.9549794E-2,1.0213713E-2,1.7117234E-3,7.7838264E-3,0E0,0E0,0E0,0E0,0E0,0E0,0E0,0E0,0E0,0E0,0E0,0E0],"parents":[2147483647,0,0,1,1,2,2,3,3,4,4,5,5,7,7,8,8,9,9,10,10,11,11,12,12],"right_children":[2,4,6,8,10,12,-1,14,16,18,20,22,24,-1,-1,-1,-1,-1,-1,-1,-1,-1,-1,-1,-1],"split_conditions":[6.7938867E0,1.336074E0,2.8641252E-5,1.771593E1,4.785E-6,-4.468201E-1,1.1186505E-2,4.1585243E-1,-5.468425E-2,-2.1459219E-1,7.627532E-7,5.248821E-6,6.2813774E-2,-1.5446014E-4,1.232994E-3,-1.8366701E-4,-7.1511217E-6,-1.9790072E-3,5.3749857E-3,-3.5916802E-3,2.6805853E-4,-7.86164E-4,-4.914883E-3,-2.7142274E-3,2.034324E-3],"split_indices":[31,31,16,33,3,28,0,31,26,26,1,0,27,0,0,0,0,0,0,0,0,0,0,0,0],"split_type":[0,0,0,0,0,0,0,0,0,0,0,0,0,0,0,0,0,0,0,0,0,0,0,0,0],"sum_hessian":[4.828E3,4.789E3,3.9E1,4.431E3,3.58E2,3.8E1,1E0,2.9E2,4.141E3,1.4E1,3.44E2,4E0,3.4E1,2.15E2,7.5E1,9.98E2,3.143E3,5E0,9E0,6E0,3.38E2,3E0,1E0,3E0,3.1E1],"tree_param":{"num_deleted":"0","num_feature":"34","num_nodes":"25","size_leaf_vector":"1"}},{"base_weights":[4.8949772E-5,-1.7602928E-4,7.932926E-3,-2.4261016E-4,1.0187603E-2,3.5957198E-3,3.969508E-2,-1.8354054E-4,-1.9861707E-2,3.2256853E-2,-1.1139046E-2,3.003015E-2,7.045828E-5,-1.0849254E-2,6.365608E-2,-4.1545918E-5,2.6347238E-4,2.0133767E-3,-3.2599908E-3,4.716351E-3,-6.9891603E-4,-3.1225707E-3,7.9534337E-4,8.0594106E-4,4.550078E-3,-4.4368135E-4,2.7710362E-3,1.9445786E-3,-3.0858223E-3,9.822835E-4,7.4527594E-3],"categories":[],"categories_nodes":[],"categories_segments":[],"categories_sizes":[],"default_left":[0,0,0,0,0,0,0,0,0,0,0,0,0,0,0,0,0,0,0,0,0,0,0,0,0,0,0,0,0,0,0],"id":46,"left_children":[1,3,5,7,9,11,13,15,17,19,21,23,25,27,29,-1,-1,-1,-1,-1,-1,-1,-1,-1,-1,-1,-1,-1,-1,-1,-1],"loss_changes":[8.566736E-3,3.2428037E-3,1.8316973E-2,5.404906E-3,1.4479206E-2,1.108729E-2,2.0068098E-2,3.042986E-3,7.7889427E-3,9.105036E-3,6.3844174E-3,4.391907E-3,1.3328484E-2,4.2370977E-3,5.705666E-3,0E0,0E0,0E0,0E0,0E0,0E0,0E0,0E0,0E0,0E0,0E0,0E0,0E0,0E0,0E0,0E0],"parents":[2147483647,0,0,1,1,2,2,3,3,4,4,5,5,6,6,7,7,8,8,9,9,10,10,11,11,12,12,13,13,14,14],"right_children":[2,4,6,8,10,12,14,16,18,20,22,24,26,28,30,-1,-1,-1,-1,-1,-1,-1,-1,-1,-1,-1,-1,-1,-1,-1,-1],"split_conditions":[2.8284674E0,3.9631482E2,2.8179804E-5,3.338564E2,-4.6313676E-1,1.742E-5,3.0143118E-1,9.3333664E1,2.7759997E-5,3.1929998E-5,1.2753397E-1,3.1752677E-6,3.0309999E-5,4.0650575E-6,4.849539E-6,-4.1545918E-5,2.6347238E-4,2.0133767E-3,-3.2599908E-3,4.716351E-3,-6.9891603E-4,-3.1225707E-3,7.9534337E-4,8.0594106E-4,4.550078E-3,-4.4368135E-4,2.7710362E-3,1.9445786E-3,-3.0858223E-3,9.822835E-4,7.4527594E-3],"split_indices":[31,32,16,32,28,23,24,32,15,15,25,13,15,17,0,0,0,0,0,0,0,0,0,0,0,0,0,0,0,0,0],"split_type":[0,0,0,0,0,0,0,0,0,0,0,0,0,0,0,0,0,0,0,0,0,0,0,0,0,0,0,0,0,0,0],"sum_hessian":[4.828E3,4.695E3,1.33E2,4.666E3,2.9E1,1.18E2,1.5E1,4.653E3,1.3E1,1.4E1,1.5E1,1.3E1,1.05E2,5E0,1E1,4.3E3,3.53E2,3E0,1E1,1E1,4E0,7E0,8E0,6E0,7E0,9.1E1,1.4E1,2E0,3E0,2E0,8E0],"tree_param":{"num_deleted":"0","num_feature":"34","num_nodes":"31","size_leaf_vector":"1"}},{"base_weights":[4.7293906E-5,-6.796998E-5,1.3848962E-2,1.8332951E-3,-4.0531217E-4,8.945324E-3,1.0254541E-2,6.675609E-4,1.4016648E-2,-1.4431016E-3,2.4656658E-5,-2.506736E-2,1.3548698E-2,9.2903245E-4,-3.2234715E-5,3.7904629E-3,2.8399154E-4,-2.7756274E-4,8.324143E-5,-1.1200959E-5,1.1459681E-3,-2.0468533E-4,-3.973208E-3,9.3008735E-4,4.4144127E-3],"categories":[],"categories_nodes":[],"categories_segments":[],"categories_sizes":[],"default_left":[0,0,0,0,0,0,0,0,0,0,0,0,0,0,0,0,0,0,0,0,0,0,0,0,0],"id":47,"left_children":[1,3,5,7,9,11,-1,13,15,17,19,21,23,-1,-1,-1,-1,-1,-1,-1,-1,-1,-1,-1,-1],"loss_changes":[7.6830783E-3,3.0729384E-3,1.6480109E-2,1.02448845E-2,1.815693E-3,6.4459816E-3,0E0,5.636585E-3,1.6712695E-2,3.6166736E-3,4.4989698E-3,1.6066206E-3,4.138161E-3,0E0,0E0,0E0,0E0,0E0,0E0,0E0,0E0,0E0,0E0,0E0,0E0],"parents":[2147483647,0,0,1,1,2,2,3,3,4,4,5,5,7,7,8,8,9,9,10,10,11,11,12,12],"right_children":[2,4,6,8,10,12,-1,14,16,18,20,22,24,-1,-1,-1,-1,-1,-1,-1,-1,-1,-1,-1,-1],"split_conditions":[6.7938867E0,1.0374617E2,2.8641252E-5,1.7871115E0,-1.1563665E-2,-4.468201E-1,1.0254541E-2,-5.0780034E-1,-4.6494803E-1,3.005E-5,2.8284674E0,4.5445736E-6,5.127048E2,9.2903245E-4,-3.2234715E-5,3.7904629E-3,2.8399154E-4,-2.7756274E-4,8.324143E-5,-1.1200959E-5,1.1459681E-3,-2.0468533E-4,-3.973208E-3,9.3008735E-4,4.4144127E-3],"split_indices":[31,33,16,31,26,28,0,28,28,15,31,0,33,0,0,0,0,0,0,0,0,0,0,0,0],"split_type":[0,0,0,0,0,0,0,0,0,0,0,0,0,0,0,0,0,0,0,0,0,0,0,0,0],"sum_hessian":[4.828E3,4.789E3,3.9E1,7.21E2,4.068E3,3.8E1,1E0,6.59E2,6.2E1,1.191E3,2.877E3,4E0,3.4E1,6.7E1,5.92E2,1.9E1,4.3E1,7.51E2,4.4E2,2.844E3,3.3E1,2E0,2E0,3.1E1,3E0],"tree_param":{"num_deleted":"0","num_feature":"34","num_nodes":"25","size_leaf_vector":"1"}},{"base_weights":[4.615387E-5,-2.1658176E-5,2.0446219E-2,2.4596304E-3,-2.655938E-4,3.2298077E-2,5.9410505E-4,7.997272E-3,-1.8171573E-3,8.875843E-4,-6.90082E-4,5.3037573E-3,9.632151E-3,-1.8511903E-2,3.223942E-3,5.2168244E-4,2.6779629E-3,-1.1164134E-4,-1.8102924E-3,5.9013284E-5,3.9523756E-3,-2.5330621E-3,-5.8954418E-5,1.8698632E-3,-5.6672096E-4,-2.2673502E-3,-9.327531E-5],"categories":[],"categories_nodes":[],"categories_segments":[],"categories_sizes":[],"default_left":[0,0,0,0,0,0,0,0,0,0,0,0,0,0,0,0,0,0,0,0,0,0,0,0,0,0,0],"id":48,"left_children":[1,3,5,7,9,11,13,15,17,19,21,-1,23,25,-1,-1,-1,-1,-1,-1,-1,-1,-1,-1,-1,-1,-1],"loss_changes":[6.6807372E-3,2.9144452E-3,3.7453617E-3,1.0222042E-2,2.1466264E-3,4.1899337E-3,4.8291218E-3,9.678284E-3,2.7643547E-3,1.3537691E-2,7.92483E-3,0E0,9.3823735E-4,3.44638E-4,0E0,0E0,0E0,0E0,0E0,0E0,0E0,0E0,0E0,0E0,0E0,0E0,0E0],"parents":[2147483647,0,0,1,1,2,2,3,3,4,4,5,5,6,6,7,7,8,8,9,9,10,10,12,12,13,13],"right_children":[2,4,6,8,10,12,14,16,18,20,22,-1,24,26,-1,-1,-1,-1,-1,-1,-1,-1,-1,-1,-1,-1,-1],"split_conditions":[1.6221248E3,4.1533787E1,1.3425529E-1,-3.4482676E-1,-4.8522356E-1,6.465E-6,1.2725E-5,1.6524323E0,2.0195446E0,3.6780448E0,4.5764484E1,5.3037573E-3,3.2653531E-6,1.2099999E-5,3.223942E-3,5.2168244E-4,2.6779629E-3,-1.1164134E-4,-1.8102924E-3,5.9013284E-5,3.9523756E-3,-2.5330621E-3,-5.8954418E-5,1.8698632E-3,-5.6672096E-4,-2.2673502E-3,-9.327531E-5],"split_indices":[32,33,25,28,28,10,7,31,31,31,33,0,17,7,0,0,0,0,0,0,0,0,0,0,0,0,0],"split_type":[0,0,0,0,0,0,0,0,0,0,0,0,0,0,0,0,0,0,0,0,0,0,0,0,0,0,0],"sum_hessian":[4.828E3,4.813E3,1.5E1,4.3E2,4.383E3,9E0,6E0,1.87E2,2.43E2,1.179E3,3.204E3,4E0,5E0,4E0,2E0,1.64E2,2.3E1,2.34E2,9E0,1.171E3,8E0,1.2E1,3.192E3,3E0,2E0,3E0,1E0],"tree_param":{"num_deleted":"0","num_feature":"34","num_nodes":"27","size_leaf_vector":"1"}},{"base_weights":[4.364374E-5,-1.8932331E-5,1.8868491E-2,2.216631E-3,-2.3871083E-4,2.4169108E-2,-1.2157221E-2,-1.1199173E-3,7.602339E-3,2.653774E-4,-1.1238044E-3,4.847049E-3,5.282733E-3,-1.734972E-3,-8.861125E-5,-7.718577E-5,-3.1491877E-3,4.440766E-3,6.174625E-4,-6.0310205E-5,2.1803092E-4,-6.8914634E-4,-1.6381724E-5,-1.3177544E-3,1.6709128E-3],"categories":[],"categories_nodes":[],"categories_segments":[],"categories_sizes":[],"default_left":[0,0,0,0,0,0,0,0,0,0,0,0,0,0,0,0,0,0,0,0,0,0,0,0,0],"id":49,"left_children":[1,3,5,7,9,11,13,15,17,19,21,-1,23,-1,-1,-1,-1,-1,-1,-1,-1,-1,-1,-1,-1],"loss_changes":[5.688846E-3,2.365786E-3,2.9251166E-3,7.7534444E-3,1.9562866E-3,6.1694523E-3,1.6020189E-4,2.7982169E-3,8.396131E-3,4.6479576E-3,8.808046E-3,0E0,2.1185952E-3,0E0,0E0,0E0,0E0,0E0,0E0,0E0,0E0,0E0,0E0,0E0,0E0],"parents":[2147483647,0,0,1,1,2,2,3,3,4,4,5,5,6,6,7,7,8,8,9,9,10,10,12,12],"right_children":[2,4,6,8,10,12,14,16,18,20,22,-1,24,-1,-1,-1,-1,-1,-1,-1,-1,-1,-1,-1,-1],"split_conditions":[1.6221248E3,4.1533787E1,6.619906E-6,5.3201616E-1,1.087E-5,6.465E-6,4.678401E-6,1.2307418E2,5.4447867E-7,3.6049506E-1,9.350049E-6,4.847049E-3,6.3845196E-6,-1.734972E-3,-8.861125E-5,-7.718577E-5,-3.1491877E-3,4.440766E-3,6.174625E-4,-6.0310205E-5,2.1803092E-4,-6.8914634E-4,-1.6381724E-5,-1.3177544E-3,1.6709128E-3],"split_indices":[32,33,17,31,7,10,0,32,1,31,4,0,0,0,0,0,0,0,0,0,0,0,0,0,0],"split_type":[0,0,0,0,0,0,0,0,0,0,0,0,0,0,0,0,0,0,0,0,0,0,0,0,0],"sum_hessian":[4.828E3,4.813E3,1.5E1,4.3E2,4.383E3,1.3E1,2E0,2.66E2,1.64E2,2.793E3,1.59E3,5E0,8E0,1E0,1E0,2.64E2,2E0,5E0,1.59E2,1.922E3,8.71E2,2.26E2,1.364E3,3E0,5E0],"tree_param":{"num_deleted":"0","num_feature":"34","num_nodes":"25","size_leaf_vector":"1"}},{"base_weights":[4.0244486E-5,-5.1939995E-5,1.107833E-2,-1.3403715E-4,5.485669E-3,6.467511E-3,9.545013E-3,-8.453682E-5,-9.428797E-3,-6.857892E-4,2.8160067E-2,-4.456248E-3,8.983103E-3,-1.2285039E-5,1.6248206E-3,1.1762049E-3,-2.4340164E-3,1.9584727E-3,-1.0023828E-3,3.6447253E-3,-3.741503E-4,1.3022334E-3,-1.4729857E-3],"categories":[],"categories_nodes":[],"categories_segments":[],"categories_sizes":[],"default_left":[0,0,0,0,0,0,0,0,0,0,0,0,0,0,0,0,0,0,0,0,0,0,0],"id":50,"left_children":[1,3,5,7,9,11,-1,13,15,17,19,-1,21,-1,-1,-1,-1,-1,-1,-1,-1,-1,-1],"loss_changes":[4.9142763E-3,2.178374E-3,1.4943601E-2,2.1713052E-3,9.814698E-3,5.4067625E-3,0E0,2.9412163E-3,8.185902E-3,1.0796378E-2,4.1019805E-3,0E0,3.8315386E-3,0E0,0E0,0E0,0E0,0E0,0E0,0E0,0E0,0E0,0E0],"parents":[2147483647,0,0,1,1,2,2,3,3,4,4,5,5,7,7,8,8,9,9,10,10,12,12],"right_children":[2,4,6,8,10,12,-1,14,16,18,20,-1,22,-1,-1,-1,-1,-1,-1,-1,-1,-1,-1],"split_conditions":[6.7938867E0,3.9631482E2,2.8641252E-5,3.338564E2,3.269578E-3,8.8550724E-2,9.545013E-3,4.413642E0,2.7759997E-5,2.81E-6,3.7987888E-6,-4.456248E-3,9.440093E-3,-1.2285039E-5,1.6248206E-3,