{"learner":{"attributes":{"best_iteration":"105","best_score":"0.7002968020167918","scikit_learn":"{\"_estimator_type\": \"regressor\"}"},"feature_names":[],"feature_types":[],"gradient_booster":{"model":{"cats":{"enc":[],"feature_segments":[],"sorted_idx":[]},"gbtree_model_param":{"num_parallel_tree":"1","num_trees":"156"},"iteration_indptr":[0,1,2,3,4,5,6,7,8,9,10,11,12,13,14,15,16,17,18,19,20,21,22,23,24,25,26,27,28,29,30,31,32,33,34,35,36,37,38,39,40,41,42,43,44,45,46,47,48,49,50,51,52,53,54,55,56,57,58,59,60,61,62,63,64,65,66,67,68,69,70,71,72,73,74,75,76,77,78,79,80,81,82,83,84,85,86,87,88,89,90,91,92,93,94,95,96,97,98,99,100,101,102,103,104,105,106,107,108,109,110,111,112,113,114,115,116,117,118,119,120,121,122,123,124,125,126,127,128,129,130,131,132,133,134,135,136,137,138,139,140,141,142,143,144,145,146,147,148,149,150,151,152,153,154,155,156],"tree_info":[0,0,0,0,0,0,0,0,0,0,0,0,0,0,0,0,0,0,0,0,0,0,0,0,0,0,0,0,0,0,0,0,0,0,0,0,0,0,0,0,0,0,0,0,0,0,0,0,0,0,0,0,0,0,0,0,0,0,0,0,0,0,0,0,0,0,0,0,0,0,0,0,0,0,0,0,0,0,0,0,0,0,0,0,0,0,0,0,0,0,0,0,0,0,0,0,0,0,0,0,0,0,0,0,0,0,0,0,0,0,0,0,0,0,0,0,0,0,0,0,0,0,0,0,0,0,0,0,0,0,0,0,0,0,0,0,0,0,0,0,0,0,0,0,0,0,0,0,0,0,0,0,0,0,0,0],"trees":[{"base_weights":[-1.0839457E-2,4.2666692E-1,-3.7513876E-1,4.9442002E-1,1.573574E-1,-2.4024365E-2,-4.7157383E-1,1.591906E-2,-2.6369386E-3,4.4984548E-4,1.0214937E-2,5.871362E-3,-6.539033E-3,-2.9321662E-3,-1.5020552E-2],"categories":[],"categories_nodes":[],"categories_segments":[],"categories_sizes":[],"default_left":[0,0,0,0,0,0,0,0,0,0,0,0,0,0,0],"id":0,"left_children":[1,3,5,7,9,11,13,-1,-1,-1,-1,-1,-1,-1,-1],"loss_changes":[6.228901E2,3.0071838E1,7.184909E1,3.1029083E1,1.030184E1,2.2204435E1,1.6717133E1,0E0,0E0,0E0,0E0,0E0,0E0,0E0,0E0],"parents":[2147483647,0,0,1,1,2,2,3,3,4,4,5,5,6,6],"right_children":[2,4,6,8,10,12,14,-1,-1,-1,-1,-1,-1,-1,-1],"split_conditions":[8.544504E0,7.4797314E-1,-2.6831317E-1,-3.875469E-1,-5.290456E-1,8.546416E0,1.09504275E-1,1.591906E-2,-2.6369386E-3,4.4984548E-4,1.0214937E-2,5.871362E-3,-6.539033E-3,-2.9321662E-3,-1.5020552E-2],"split_indices":[342,304,27,484,375,342,443,0,0,0,0,0,0,0,0],"split_type":[0,0,0,0,0,0,0,0,0,0,0,0,0,0,0],"sum_hessian":[3.848E3,1.746E3,2.102E3,1.375E3,3.71E2,4.61E2,1.641E3,1.297E3,7.8E1,2.27E2,1.44E2,2.16E2,2.45E2,1.28E2,1.513E3],"tree_param":{"num_deleted":"0","num_feature":"1024","num_nodes":"15","size_leaf_vector":"1"}},{"base_weights":[4.9017128E-3,4.4129944E-1,-3.5920668E-1,4.9937212E-1,1.3837029E-1,-4.011396E-2,-4.7244677E-1,1.5981635E-2,1.959153E-3,7.924387E-3,-5.9941695E-3,5.856767E-3,-7.0288335E-3,-3.847613E-4,-1.4571928E-2],"categories":[],"categories_nodes":[],"categories_segments":[],"categories_sizes":[],"default_left":[0,0,0,0,0,0,0,0,0,0,0,0,0,0,0],"id":1,"left_children":[1,3,5,7,9,11,13,-1,-1,-1,-1,-1,-1,-1,-1],"loss_changes":[6.222256E2,2.925824E1,7.65777E1,2.0423859E1,1.5534623E1,2.842563E1,9.417358E0,0E0,0E0,0E0,0E0,0E0,0E0,0E0,0E0],"parents":[2147483647,0,0,1,1,2,2,3,3,4,4,5,5,6,6],"right_children":[2,4,6,8,10,12,14,-1,-1,-1,-1,-1,-1,-1,-1],"split_conditions":[8.544504E0,-2.3783332E-2,-2.6829457E-1,2.380732E-1,1.973547E-2,8.546416E0,-5.690349E-1,1.5981635E-2,1.959153E-3,7.924387E-3,-5.9941695E-3,5.856767E-3,-7.0288335E-3,-3.847613E-4,-1.4571928E-2],"split_indices":[342,185,27,4,607,342,755,0,0,0,0,0,0,0,0],"split_type":[0,0,0,0,0,0,0,0,0,0,0,0,0,0,0],"sum_hessian":[3.856E3,1.751E3,2.105E3,1.453E3,2.98E2,5.62E2,1.543E3,1.343E3,1.1E2,2.22E2,7.6E1,2.54E2,3.08E2,4.5E1,1.498E3],"tree_param":{"num_deleted":"0","num_feature":"1024","num_nodes":"15","size_leaf_vector":"1"}},{"base_weights":[-1.2061465E-2,-3.85601E-1,3.7773836E-1,-4.745677E-1,-1.2520245E-1,-1.721947E-2,4.1821766E-1,2.8509183E-3,-1.4459926E-2,1.7018443E-3,-9.142928E-3,-4.6543214E-3,8.398357E-3,1.4470535E-2,3.2721818E-3],"categories":[],"categories_nodes":[],"categories_segments":[],"categories_sizes":[],"default_left":[0,0,0,0,0,0,0,0,0,0,0,0,0,0,0],"id":2,"left_children":[1,3,5,7,9,11,13,-1,-1,-1,-1,-1,-1,-1,-1],"loss_changes":[5.6699E2,4.427307E1,3.0688446E1,7.5994873E0,1.8387943E1,9.746136E0,3.272159E1,0E0,0E0,0E0,0E0,0E0,0E0,0E0,0E0],"parents":[2147483647,0,0,1,1,2,2,3,3,4,4,5,5,6,6],"right_children":[2,4,6,8,10,12,14,-1,-1,-1,-1,-1,-1,-1,-1],"split_conditions":[5.9259918E-2,4.6484582E-2,-3.6370664E0,2.9214957E-1,8.54687E0,-4.828223E-1,-7.4557867E0,2.8509183E-3,-1.4459926E-2,1.7018443E-3,-9.142928E-3,-4.6543214E-3,8.398357E-3,1.4470535E-2,3.2721818E-3],"split_indices":[733,883,460,534,342,739,948,0,0,0,0,0,0,0,0],"split_type":[0,0,0,0,0,0,0,0,0,0,0,0,0,0,0],"sum_hessian":[3.834E3,1.958E3,1.876E3,1.441E3,5.17E2,1.76E2,1.7E3,1.4E1,1.427E3,2.67E2,2.5E2,1.3E2,4.6E1,1.394E3,3.06E2],"tree_param":{"num_deleted":"0","num_feature":"1024","num_nodes":"15","size_leaf_vector":"1"}},{"base_weights":[-1.1311268E-2,3.9330292E-1,-3.4928474E-1,-6.133544E-2,4.2307895E-1,-8.5795894E-2,-4.6087724E-1,-6.605441E-3,4.921809E-3,1.3670044E-2,-9.913315E-4,1.808492E-3,-9.46914E-3,-1.3992609E-2,1.8659086E-3],"categories":[],"categories_nodes":[],"categories_segments":[],"categories_sizes":[],"default_left":[0,0,0,0,0,0,0,0,0,0,0,0,0,0,0],"id":3,"left_children":[1,3,5,7,9,11,13,-1,-1,-1,-1,-1,-1,-1,-1],"loss_changes":[5.3169836E2,2.4739563E1,6.1090088E1,5.9171224E0,2.5201416E1,2.2965418E1,5.164398E0,0E0,0E0,0E0,0E0,0E0,0E0,0E0,0E0],"parents":[2147483647,0,0,1,1,2,2,3,3,4,4,5,5,6,6],"right_children":[2,4,6,8,10,12,14,-1,-1,-1,-1,-1,-1,-1,-1],"split_conditions":[8.544504E0,8.537854E0,-5.6896967E-1,-1.6968559E-1,-6.866588E-1,2.5326148E-1,-5.792262E-1,-6.605441E-3,4.921809E-3,1.3670044E-2,-9.913315E-4,1.808492E-3,-9.46914E-3,-1.3992609E-2,1.8659086E-3],"split_indices":[342,342,755,249,176,77,719,0,0,0,0,0,0,0,0],"split_type":[0,0,0,0,0,0,0,0,0,0,0,0,0,0,0],"sum_hessian":[3.828E3,1.74E3,2.088E3,1.05E2,1.635E3,6.37E2,1.451E3,6.2E1,4.3E1,1.526E3,1.09E2,4.03E2,2.34E2,1.439E3,1.2E1],"tree_param":{"num_deleted":"0","num_feature":"1024","num_nodes":"15","size_leaf_vector":"1"}},{"base_weights":[4.1023534E-4,3.8074937E-1,-3.520133E-1,-2.540674E-1,4.0749568E-1,-4.4169104E-1,-1.0655966E-1,-9.332768E-3,4.0246015E-3,1.4200568E-2,2.734541E-3,1.0222688E-3,-1.3620999E-2,4.088801E-3,-7.2159413E-3],"categories":[],"categories_nodes":[],"categories_segments":[],"categories_sizes":[],"default_left":[0,0,0,0,0,0,0,0,0,0,0,0,0,0,0],"id":4,"left_children":[1,3,5,7,9,11,13,-1,-1,-1,-1,-1,-1,-1,-1],"loss_changes":[5.206128E2,3.4822693E1,4.2963654E1,3.3330178E0,3.6289E1,9.07843E0,1.9821505E1,0E0,0E0,0E0,0E0,0E0,0E0,0E0,0E0],"parents":[2147483647,0,0,1,1,2,2,3,3,4,4,5,5,6,6],"right_children":[2,4,6,8,10,12,14,-1,-1,-1,-1,-1,-1,-1,-1],"split_conditions":[8.545247E0,-3.6869664E0,4.6484582E-2,3.1530198E-1,-7.4557867E0,-3.148671E-1,8.546485E0,-9.332768E-3,4.0246015E-3,1.4200568E-2,2.734541E-3,1.0222688E-3,-1.3620999E-2,4.088801E-3,-7.2159413E-3],"split_indices":[342,986,883,965,948,635,342,0,0,0,0,0,0,0,0],"split_type":[0,0,0,0,0,0,0,0,0,0,0,0,0,0,0],"sum_hessian":[3.824E3,1.838E3,1.986E3,6.4E1,1.774E3,1.437E3,5.49E2,6.1E1,3E0,1.456E3,3.18E2,3.5E1,1.402E3,1.95E2,3.54E2],"tree_param":{"num_deleted":"0","num_feature":"1024","num_nodes":"15","size_leaf_vector":"1"}},{"base_weights":[1.2429879E-3,3.8114685E-1,-3.1991565E-1,4.3957716E-1,1.0555165E-1,-4.2388058E-1,-4.1773066E-2,3.307502E-3,1.4239942E-2,6.377342E-3,-5.805602E-3,-6.873044E-4,-1.3080067E-2,3.9496636E-3,-7.59802E-3],"categories":[],"categories_nodes":[],"categories_segments":[],"categories_sizes":[],"default_left":[0,0,0,0,0,0,0,0,0,0,0,0,0,0,0],"id":5,"left_children":[1,3,5,7,9,11,13,-1,-1,-1,-1,-1,-1,-1,-1],"loss_changes":[4.7888467E2,2.7561462E1,6.0975388E1,1.5462524E1,1.256518E1,7.2097473E0,2.3447954E1,0E0,0E0,0E0,0E0,0E0,0E0,0E0,0E0],"parents":[2147483647,0,0,1,1,2,2,3,3,4,4,5,5,6,6],"right_children":[2,4,6,8,10,12,14,-1,-1,-1,-1,-1,-1,-1,-1],"split_conditions":[8.544504E0,-2.3783332E-2,-4.2900842E-1,1.3925157E-1,-2.7029629E0,-7.806796E-1,8.54687E0,3.307502E-3,1.4239942E-2,6.377342E-3,-5.805602E-3,-6.873044E-4,-1.3080067E-2,3.9496636E-3,-7.59802E-3],"split_indices":[342,185,12,203,138,326,342,0,0,0,0,0,0,0,0],"split_type":[0,0,0,0,0,0,0,0,0,0,0,0,0,0,0],"sum_hessian":[3.865E3,1.768E3,2.097E3,1.444E3,3.24E2,1.515E3,5.82E2,1.51E2,1.293E3,2.45E2,7.9E1,4.7E1,1.468E3,3.26E2,2.56E2],"tree_param":{"num_deleted":"0","num_feature":"1024","num_nodes":"15","size_leaf_vector":"1"}},{"base_weights":[2.3174563E-3,-3.370024E-1,3.372469E-1,-1.1033063E-1,-4.2020163E-1,-2.015626E-1,3.6477205E-1,2.009186E-3,-8.203709E-3,-1.2806201E-2,1.9404619E-3,-7.842348E-3,4.0483032E-3,1.2422323E-2,1.204301E-3],"categories":[],"categories_nodes":[],"categories_segments":[],"categories_sizes":[],"default_left":[0,0,0,0,0,0,0,0,0,0,0,0,0,0,0],"id":6,"left_children":[1,3,5,7,9,11,13,-1,-1,-1,-1,-1,-1,-1,-1],"loss_changes":[4.3993237E2,3.4874863E1,3.109616E1,1.6659464E1,5.3444366E0,3.3541832E0,2.9336426E1,0E0,0E0,0E0,0E0,0E0,0E0,0E0,0E0],"parents":[2147483647,0,0,1,1,2,2,3,3,4,4,5,5,6,6],"right_children":[2,4,6,8,10,12,14,-1,-1,-1,-1,-1,-1,-1,-1],"split_conditions":[5.9254322E-2,-5.6896085E-1,1.0330074E0,8.54687E0,-4.0127423E-1,-9.947159E-2,-7.4557486E0,2.009186E-3,-8.203709E-3,-1.2806201E-2,1.9404619E-3,-7.842348E-3,4.0483032E-3,1.2422323E-2,1.204301E-3],"split_indices":[733,755,295,342,400,280,948,0,0,0,0,0,0,0,0],"split_type":[0,0,0,0,0,0,0,0,0,0,0,0,0,0,0],"sum_hessian":[3.811E3,1.893E3,1.918E3,5.27E2,1.366E3,8.4E1,1.834E3,2.61E2,2.66E2,1.351E3,1.5E1,7.7E1,7E0,1.585E3,2.49E2],"tree_param":{"num_deleted":"0","num_feature":"1024","num_nodes":"15","size_leaf_vector":"1"}},{"base_weights":[1.7359661E-3,3.4940657E-1,-3.2311442E-1,4.10999E-1,7.73169E-2,-1.2225003E-1,-4.2723262E-1,1.29673295E-2,-1.1292299E-3,6.5696207E-3,-2.9027113E-3,6.123852E-3,-6.950353E-3,2.3656948E-3,-1.2893807E-2],"categories":[],"categories_nodes":[],"categories_segments":[],"categories_sizes":[],"default_left":[0,0,0,0,0,0,0,0,0,0,0,0,0,0,0],"id":7,"left_children":[1,3,5,7,9,11,13,-1,-1,-1,-1,-1,-1,-1,-1],"loss_changes":[4.421624E2,3.073732E1,4.076233E1,1.5118927E1,1.0154855E1,2.7597912E1,2.7288818E0,0E0,0E0,0E0,0E0,0E0,0E0,0E0,0E0],"parents":[2147483647,0,0,1,1,2,2,3,3,4,4,5,5,6,6],"right_children":[2,4,6,8,10,12,14,-1,-1,-1,-1,-1,-1,-1,-1],"split_conditions":[8.545247E0,-2.3784729E-2,-3.3383334E0,4.3798736E-1,-2.8114286E-1,8.546416E0,-5.6908774E-1,1.29673295E-2,-1.1292299E-3,6.5696207E-3,-2.9027113E-3,6.123852E-3,-6.950353E-3,2.3656948E-3,-1.2893807E-2],"split_indices":[342,185,322,67,129,342,755,0,0,0,0,0,0,0,0],"split_type":[0,0,0,0,0,0,0,0,0,0,0,0,0,0,0],"sum_hessian":[3.855E3,1.861E3,1.994E3,1.505E3,3.56E2,7.03E2,1.291E3,1.438E3,6.7E1,1.92E2,1.64E2,1.7E2,5.33E2,2E0,1.289E3],"tree_param":{"num_deleted":"0","num_feature":"1024","num_nodes":"15","size_leaf_vector":"1"}},{"base_weights":[3.5879153E-3,-3.3312476E-1,3.2831144E-1,-3.9308384E-1,-1.113322E-1,-2.1295418E-1,3.5652032E-1,3.9679665E-4,-1.199753E-2,2.5463796E-3,-7.5378334E-3,-8.224491E-3,4.646814E-3,1.846849E-3,1.2208794E-2],"categories":[],"categories_nodes":[],"categories_segments":[],"categories_sizes":[],"default_left":[0,0,0,0,0,0,0,0,0,0,0,0,0,0,0],"id":8,"left_children":[1,3,5,7,9,11,13,-1,-1,-1,-1,-1,-1,-1,-1],"loss_changes":[4.3024802E2,2.437976E1,3.2860474E1,4.3486786E0,1.3077223E1,3.930181E0,2.7738937E1,0E0,0E0,0E0,0E0,0E0,0E0,0E0,0E0],"parents":[2147483647,0,0,1,1,2,2,3,3,4,4,5,5,6,6],"right_children":[2,4,6,8,10,12,14,-1,-1,-1,-1,-1,-1,-1,-1],"split_conditions":[5.925213E-2,1.0281786E-1,2.650799E-1,3.0916783E-1,3.576816E-1,3.549363E-1,-5.5747086E-1,3.9679665E-4,-1.199753E-2,2.5463796E-3,-7.5378334E-3,-8.224491E-3,4.646814E-3,1.846849E-3,1.2208794E-2],"split_indices":[733,729,211,386,846,170,127,0,0,0,0,0,0,0,0],"split_type":[0,0,0,0,0,0,0,0,0,0,0,0,0,0,0],"sum_hessian":[3.875E3,1.902E3,1.973E3,1.479E3,4.23E2,8.8E1,1.885E3,2.4E1,1.455E3,1.81E2,2.42E2,8.2E1,6E0,2.85E2,1.6E3],"tree_param":{"num_deleted":"0","num_feature":"1024","num_nodes":"15","size_leaf_vector":"1"}},{"base_weights":[-4.894135E-3,3.2178974E-1,-3.0856103E-1,-3.8579743E-2,3.603326E-1,-8.098731E-2,-3.7892553E-1,3.8734325E-3,-7.2949124E-3,1.29508125E-2,3.4078138E-3,-7.5136926E-3,1.9698993E-3,3.3978664E-3,-1.1667379E-2],"categories":[],"categories_nodes":[],"categories_segments":[],"categories_sizes":[],"default_left":[0,0,0,0,0,0,0,0,0,0,0,0,0,0,0],"id":9,"left_children":[1,3,5,7,9,11,13,-1,-1,-1,-1,-1,-1,-1,-1],"loss_changes":[3.8977155E2,2.671019E1,3.1682068E1,8.146462E0,2.8690628E1,1.3391952E1,8.925812E0,0E0,0E0,0E0,0E0,0E0,0E0,0E0,0E0],"parents":[2147483647,0,0,1,1,2,2,3,3,4,4,5,5,6,6],"right_children":[2,4,6,8,10,12,14,-1,-1,-1,-1,-1,-1,-1,-1],"split_conditions":[8.545247E0,-5.292626E-1,2.3813204E-1,-3.3368354E0,7.4797314E-1,1.4019841E-1,-1.01298995E-1,3.8734325E-3,-7.2949124E-3,1.29508125E-2,3.4078138E-3,-7.5136926E-3,1.9698993E-3,3.3978664E-3,-1.1667379E-2],"split_indices":[342,375,4,322,304,514,239,0,0,0,0,0,0,0,0],"split_type":[0,0,0,0,0,0,0,0,0,0,0,0,0,0,0],"sum_hessian":[3.869E3,1.863E3,2.006E3,1.8E2,1.683E3,4.89E2,1.517E3,1.05E2,7.5E1,1.288E3,3.95E2,2.17E2,2.72E2,2.4E1,1.493E3],"tree_param":{"num_deleted":"0","num_feature":"1024","num_nodes":"15","size_leaf_vector":"1"}},{"base_weights":[7.83238E-4,3.3393845E-1,-2.792668E-1,-1.3212931E-1,3.642994E-1,-3.6750048E-1,-4.4367634E-2,3.8456712E-3,-7.8906305E-3,1.1786413E-2,-1.7093383E-3,4.809547E-3,-1.1297037E-2,3.5423236E-3,-6.634107E-3],"categories":[],"categories_nodes":[],"categories_segments":[],"categories_sizes":[],"default_left":[0,0,0,0,0,0,0,0,0,0,0,0,0,0,0],"id":10,"left_children":[1,3,5,7,9,11,13,-1,-1,-1,-1,-1,-1,-1,-1],"loss_changes":[3.6405585E2,2.665979E1,4.3449997E1,5.475122E0,2.0911728E1,9.1671295E0,1.8385818E1,0E0,0E0,0E0,0E0,0E0,0E0,0E0,0E0],"parents":[2147483647,0,0,1,1,2,2,3,3,4,4,5,5,6,6],"right_children":[2,4,6,8,10,12,14,-1,-1,-1,-1,-1,-1,-1,-1],"split_conditions":[8.544504E0,-1.5156802E1,-4.2900744E-1,1.4700523E-1,-6.866588E-1,-5.690762E-1,8.54687E0,3.8456712E-3,-7.8906305E-3,1.1786413E-2,-1.7093383E-3,4.809547E-3,-1.1297037E-2,3.5423236E-3,-6.634107E-3],"split_indices":[342,658,12,668,176,755,342,0,0,0,0,0,0,0,0],"split_type":[0,0,0,0,0,0,0,0,0,0,0,0,0,0,0],"sum_hessian":[3.842E3,1.752E3,2.09E3,1.01E2,1.651E3,1.507E3,5.83E2,3.4E1,6.7E1,1.548E3,1.03E2,1.7E1,1.49E3,3.09E2,2.74E2],"tree_param":{"num_deleted":"0","num_feature":"1024","num_nodes":"15","size_leaf_vector":"1"}},{"base_weights":[-1.7106589E-2,3.029087E-1,-2.8552243E-1,6.340721E-2,3.5221285E-1,-2.0315731E-2,-3.4439492E-1,-5.562128E-3,4.778821E-3,1.1518666E-2,-2.6109968E-3,-5.3418707E-3,3.9760913E-3,4.6835095E-3,-1.0490904E-2],"categories":[],"categories_nodes":[],"categories_segments":[],"categories_sizes":[],"default_left":[0,0,0,0,0,0,0,0,0,0,0,0,0,0,0],"id":11,"left_children":[1,3,5,7,9,11,13,-1,-1,-1,-1,-1,-1,-1,-1],"loss_changes":[3.367346E2,2.0455276E1,3.306221E1,9.045362E0,2.15961E1,1.0810881E1,6.2604523E0,0E0,0E0,0E0,0E0,0E0,0E0,0E0,0E0],"parents":[2147483647,0,0,1,1,2,2,3,3,4,4,5,5,6,6],"right_children":[2,4,6,8,10,12,14,-1,-1,-1,-1,-1,-1,-1,-1],"split_conditions":[8.544504E0,-1.3724282E0,-2.887754E-1,3.8270137E-1,-3.8755038E-1,6.2490646E-2,-1.06945634E-1,-5.562128E-3,4.778821E-3,1.1518666E-2,-2.6109968E-3,-5.3418707E-3,3.9760913E-3,4.6835095E-3,-1.0490904E-2],"split_indices":[342,601,142,890,484,663,834,0,0,0,0,0,0,0,0],"split_type":[0,0,0,0,0,0,0,0,0,0,0,0,0,0,0],"sum_hessian":[3.86E3,1.759E3,2.101E3,3.12E2,1.447E3,3.89E2,1.712E3,7.9E1,2.33E2,1.353E3,9.4E1,1.89E2,2E2,9E0,1.703E3],"tree_param":{"num_deleted":"0","num_feature":"1024","num_nodes":"15","size_leaf_vector":"1"}},{"base_weights":[2.9277187E-3,2.6141286E-1,-3.1644532E-1,-2.7191797E-2,3.345842E-1,-2.4975356E-2,-3.4831172E-1,3.1011894E-3,-5.11683E-3,3.5534794E-3,1.2065023E-2,-4.40464E-3,5.685436E-3,2.9476865E-3,-1.0661982E-2],"categories":[],"categories_nodes":[],"categories_segments":[],"categories_sizes":[],"default_left":[0,0,0,0,0,0,0,0,0,0,0,0,0,0,0],"id":12,"left_children":[1,3,5,7,9,11,13,-1,-1,-1,-1,-1,-1,-1,-1],"loss_changes":[3.214672E2,4.5718002E1,1.59189E1,9.195825E0,2.3680511E1,6.1662283E0,6.0105286E0,0E0,0E0,0E0,0E0,0E0,0E0,0E0,0E0],"parents":[2147483647,0,0,1,1,2,2,3,3,4,4,5,5,6,6],"right_children":[2,4,6,8,10,12,14,-1,-1,-1,-1,-1,-1,-1,-1],"split_conditions":[2.3811062E-1,-3.637011E0,-2.6832792E-1,-1.24642E-1,1.3929114E-1,1.8182644E-1,-1.3701048E0,3.1011894E-3,-5.11683E-3,3.5534794E-3,1.2065023E-2,-4.40464E-3,5.685436E-3,2.9476865E-3,-1.0661982E-2],"split_indices":[4,460,27,59,203,457,601,0,0,0,0,0,0,0,0],"split_type":[0,0,0,0,0,0,0,0,0,0,0,0,0,0,0],"sum_hessian":[3.834E3,2.122E3,1.712E3,4.33E2,1.689E3,1.74E2,1.538E3,2.31E2,2.02E2,4.22E2,1.267E3,1.17E2,5.7E1,1.8E1,1.52E3],"tree_param":{"num_deleted":"0","num_feature":"1024","num_nodes":"15","size_leaf_vector":"1"}},{"base_weights":[-7.770642E-3,-2.6748127E-1,2.9239428E-1,-1.1052392E-2,-3.2351786E-1,3.404158E-1,5.3737953E-2,-5.037104E-3,4.639088E-3,-1.008651E-2,4.957645E-3,-3.6015576E-3,1.0895299E-2,3.946592E-3,-7.5131687E-3],"categories":[],"categories_nodes":[],"categories_segments":[],"categories_sizes":[],"default_left":[0,0,0,0,0,0,0,0,0,0,0,0,0,0,0],"id":13,"left_children":[1,3,5,7,9,11,13,-1,-1,-1,-1,-1,-1,-1,-1],"loss_changes":[3.0731024E2,3.0255264E1,2.0412704E1,1.1434182E1,1.24236145E1,1.7207108E1,9.08337E0,0E0,0E0,0E0,0E0,0E0,0E0,0E0,0E0],"parents":[2147483647,0,0,1,1,2,2,3,3,4,4,5,5,6,6],"right_children":[2,4,6,8,10,12,14,-1,-1,-1,-1,-1,-1,-1,-1],"split_conditions":[5.9279483E-2,-5.690136E-1,-7.4557867E0,1.4026336E-1,-2.5914624E-1,-3.6869664E0,-2.6222345E-1,-5.037104E-3,4.639088E-3,-1.008651E-2,4.957645E-3,-3.6015576E-3,1.0895299E-2,3.946592E-3,-7.5131687E-3],"split_indices":[733,755,948,514,542,986,857,0,0,0,0,0,0,0,0],"split_type":[0,0,0,0,0,0,0,0,0,0,0,0,0,0,0],"sum_hessian":[3.882E3,2.083E3,1.799E3,3.8E2,1.703E3,1.487E3,3.12E2,1.95E2,1.85E2,1.669E3,3.4E1,6.4E1,1.423E3,2.62E2,5E1],"tree_param":{"num_deleted":"0","num_feature":"1024","num_nodes":"15","size_leaf_vector":"1"}},{"base_weights":[3.480307E-3,3.037683E-1,-2.3901232E-1,3.6562502E-1,8.482099E-2,-2.9913714E-2,-3.3776316E-1,-2.3778994E-3,1.1849597E-2,6.668245E-3,-1.3341479E-3,2.9389202E-3,-5.4963236E-3,3.8091834E-3,-1.0335585E-2],"categories":[],"categories_nodes":[],"categories_segments":[],"categories_sizes":[],"default_left":[0,0,0,0,0,0,0,0,0,0,0,0,0,0,0],"id":14,"left_children":[1,3,5,7,9,11,13,-1,-1,-1,-1,-1,-1,-1,-1],"loss_changes":[2.855843E2,2.2797607E1,4.4504494E1,1.8665222E1,7.849546E0,1.4829234E1,5.9311523E0,0E0,0E0,0E0,0E0,0E0,0E0,0E0,0E0],"parents":[2147483647,0,0,1,1,2,2,3,3,4,4,5,5,6,6],"right_children":[2,4,6,8,10,12,14,-1,-1,-1,-1,-1,-1,-1,-1],"split_conditions":[2.8538936E-1,7.4797314E-1,2.3814918E-1,3.239927E-2,1.3428186E0,-1.3691221E0,3.2117795E-2,-2.3778994E-3,1.1849597E-2,6.668245E-3,-1.3341479E-3,2.9389202E-3,-5.4963236E-3,3.8091834E-3,-1.0335585E-2],"split_indices":[196,304,4,714,687,601,812,0,0,0,0,0,0,0,0],"split_type":[0,0,0,0,0,0,0,0,0,0,0,0,0,0,0],"sum_hessian":[3.862E3,1.722E3,2.14E3,1.327E3,3.95E2,6.99E2,1.441E3,7.9E1,1.248E3,1.81E2,2.14E2,3.87E2,3.12E2,1.3E1,1.428E3],"tree_param":{"num_deleted":"0","num_feature":"1024","num_nodes":"15","size_leaf_vector":"1"}},{"base_weights":[4.459553E-3,-2.583557E-1,2.7696982E-1,-5.912306E-2,-3.2089847E-1,-1.392368E-1,3.07477E-1,3.6073148E-3,-5.807017E-3,1.5254234E-3,-9.904666E-3,4.256012E-3,-6.997536E-3,1.0427746E-3,1.0292589E-2],"categories":[],"categories_nodes":[],"categories_segments":[],"categories_sizes":[],"default_left":[0,0,0,0,0,0,0,0,0,0,0,0,0,0,0],"id":15,"left_children":[1,3,5,7,9,11,13,-1,-1,-1,-1,-1,-1,-1,-1],"loss_changes":[2.8275333E2,2.4476547E1,2.5891693E1,1.3165627E1,5.74469E0,5.0361757E0,1.7268234E1,0E0,0E0,0E0,0E0,0E0,0E0,0E0,0E0],"parents":[2147483647,0,0,1,1,2,2,3,3,4,4,5,5,6,6],"right_children":[2,4,6,8,10,12,14,-1,-1,-1,-1,-1,-1,-1,-1],"split_conditions":[5.9259918E-2,2.3813991E-1,4.2106423E-1,3.5767785E-1,-2.3902364E-2,1.1649379E-1,1.268755E-1,3.6073148E-3,-5.807017E-3,1.5254234E-3,-9.904666E-3,4.256012E-3,-6.997536E-3,1.0427746E-3,1.0292589E-2],"split_indices":[733,4,352,846,185,218,623,0,0,0,0,0,0,0,0],"split_type":[0,0,0,0,0,0,0,0,0,0,0,0,0,0,0],"sum_hessian":[3.888E3,1.98E3,1.908E3,4.87E2,1.493E3,1.23E2,1.785E3,2.1E2,2.77E2,3.3E1,1.46E3,2.7E1,9.6E1,2.13E2,1.572E3],"tree_param":{"num_deleted":"0","num_feature":"1024","num_nodes":"15","size_leaf_vector":"1"}},{"base_weights":[-2.4837146E-3,2.2468217E-1,-2.8798777E-1,-1.2773094E-2,2.979947E-1,-3.090366E-1,5.7055924E-2,2.726596E-3,-5.0723655E-3,1.1242663E-2,3.2937394E-3,2.4419972E-3,-9.525059E-3,7.7572702E-3,-6.6552334E-3],"categories":[],"categories_nodes":[],"categories_segments":[],"categories_sizes":[],"default_left":[0,0,0,0,0,0,0,0,0,0,0,0,0,0,0],"id":16,"left_children":[1,3,5,7,9,11,13,-1,-1,-1,-1,-1,-1,-1,-1],"loss_changes":[2.5630945E2,3.8430183E1,1.32460785E1,9.3400345E0,2.307933E1,6.245407E0,8.802494E0,0E0,0E0,0E0,0E0,0E0,0E0,0E0,0E0],"parents":[2147483647,0,0,1,1,2,2,3,3,4,4,5,5,6,6],"right_children":[2,4,6,8,10,12,14,-1,-1,-1,-1,-1,-1,-1,-1],"split_conditions":[2.3811062E-1,3.318464E-1,-1.1290186E-1,-2.2220756E-1,1.4965522E-1,-1.9309771E-1,8.529202E-2,2.726596E-3,-5.0723655E-3,1.1242663E-2,3.2937394E-3,2.4419972E-3,-9.525059E-3,7.7572702E-3,-6.6552334E-3],"split_indices":[4,199,3,958,916,255,325,0,0,0,0,0,0,0,0],"split_type":[0,0,0,0,0,0,0,0,0,0,0,0,0,0,0],"sum_hessian":[3.892E3,2.171E3,1.721E3,5.18E2,1.653E3,1.625E3,9.6E1,3.19E2,1.99E2,1.153E3,5E2,2.9E1,1.596E3,5.7E1,3.9E1],"tree_param":{"num_deleted":"0","num_feature":"1024","num_nodes":"15","size_leaf_vector":"1"}},{"base_weights":[7.830022E-3,2.9566273E-1,-2.298397E-1,-1.9242139E-1,3.1415966E-1,2.4146045E-2,-2.9247668E-1,-7.865304E-3,2.428266E-3,1.1209579E-2,3.0469515E-3,-4.966829E-3,6.443495E-3,-9.2754355E-3,-8.067536E-4],"categories":[],"categories_nodes":[],"categories_segments":[],"categories_sizes":[],"default_left":[0,0,0,0,0,0,0,0,0,0,0,0,0,0,0],"id":17,"left_children":[1,3,5,7,9,11,13,-1,-1,-1,-1,-1,-1,-1,-1],"loss_changes":[2.709549E2,1.7982788E1,3.47342E1,2.2383971E0,2.0830872E1,1.7594288E1,7.483307E0,0E0,0E0,0E0,0E0,0E0,0E0,0E0,0E0],"parents":[2147483647,0,0,1,1,2,2,3,3,4,4,5,5,6,6],"right_children":[2,4,6,8,10,12,14,-1,-1,-1,-1,-1,-1,-1,-1],"split_conditions":[8.544504E0,-3.6370292E0,-5.690108E-1,-4.8816112E-1,1.871561E-2,-5.486224E-4,-1.1442986E-1,-7.865304E-3,2.428266E-3,1.1209579E-2,3.0469515E-3,-4.966829E-3,6.443495E-3,-9.2754355E-3,-8.067536E-4],"split_indices":[342,460,755,133,85,612,710,0,0,0,0,0,0,0,0],"split_type":[0,0,0,0,0,0,0,0,0,0,0,0,0,0,0],"sum_hessian":[3.901E3,1.761E3,2.14E3,5.4E1,1.707E3,4.27E2,1.713E3,4.4E1,1E1,1.316E3,3.91E2,2.16E2,2.11E2,1.607E3,1.06E2],"tree_param":{"num_deleted":"0","num_feature":"1024","num_nodes":"15","size_leaf_vector":"1"}},{"base_weights":[-5.9211063E-3,2.7706552E-1,-2.1373129E-1,7.2927706E-2,3.4250686E-1,-5.927221E-2,-3.153269E-1,-4.5087105E-3,4.6609817E-3,1.149209E-2,7.127569E-4,3.1413662E-3,-6.7716627E-3,3.425287E-3,-9.554036E-3],"categories":[],"categories_nodes":[],"categories_segments":[],"categories_sizes":[],"default_left":[0,0,0,0,0,0,0,0,0,0,0,0,0,0,0],"id":18,"left_children":[1,3,5,7,9,11,13,-1,-1,-1,-1,-1,-1,-1,-1],"loss_changes":[2.3218433E2,2.1586975E1,3.5155113E1,8.870871E0,1.5992081E1,2.636655E1,2.9336548E0,0E0,0E0,0E0,0E0,0E0,0E0,0E0,0E0],"parents":[2147483647,0,0,1,1,2,2,3,3,4,4,5,5,6,6],"right_children":[2,4,6,8,10,12,14,-1,-1,-1,-1,-1,-1,-1,-1],"split_conditions":[-1.3701048E0,1.3929114E-1,-3.3375826E0,-5.0773174E-2,2.6492321E-1,8.54687E0,3.574845E-1,-4.5087105E-3,4.6609817E-3,1.149209E-2,7.127569E-4,3.1413662E-3,-6.7716627E-3,3.425287E-3,-9.554036E-3],"split_indices":[601,203,322,108,628,342,846,0,0,0,0,0,0,0,0],"split_type":[0,0,0,0,0,0,0,0,0,0,0,0,0,0,0],"sum_hessian":[3.888E3,1.642E3,2.246E3,4.14E2,1.228E3,9.1E2,1.336E3,1.05E2,3.09E2,1.084E3,1.44E2,4.64E2,4.46E2,2E0,1.334E3],"tree_param":{"num_deleted":"0","num_feature":"1024","num_nodes":"15","size_leaf_vector":"1"}},{"base_weights":[1.3916146E-2,-2.0927739E-1,2.8529546E-1,-4.4242064E-3,-2.8993943E-1,3.358937E-1,7.230728E-2,-6.599163E-3,1.7923642E-3,-8.8685965E-3,5.0615827E-3,1.1015299E-2,-1.31795E-3,5.9658373E-3,-2.7121035E-3],"categories":[],"categories_nodes":[],"categories_segments":[],"categories_sizes":[],"default_left":[0,0,0,0,0,0,0,0,0,0,0,0,0,0,0],"id":19,"left_children":[1,3,5,7,9,11,13,-1,-1,-1,-1,-1,-1,-1,-1],"loss_changes":[2.376512E2,3.5553947E1,1.834636E1,9.232688E0,5.521637E0,1.7380188E1,8.32299E0,0E0,0E0,0E0,0E0,0E0,0E0,0E0,0E0],"parents":[2147483647,0,0,1,1,2,2,3,3,4,4,5,5,6,6],"right_children":[2,4,6,8,10,12,14,-1,-1,-1,-1,-1,-1,-1,-1],"split_conditions":[2.6514292E-1,2.3813204E-1,1.4968076E-1,2.650725E-1,2.915645E-2,-1.4462744E-1,-8.133105E-1,-6.599163E-3,1.7923642E-3,-8.8685965E-3,5.0615827E-3,1.1015299E-2,-1.31795E-3,5.9658373E-3,-2.7121035E-3],"split_indices":[211,4,916,211,732,440,806,0,0,0,0,0,0,0,0],"split_type":[0,0,0,0,0,0,0,0,0,0,0,0,0,0,0],"sum_hessian":[3.864E3,2.124E3,1.74E3,6.09E2,1.515E3,1.392E3,3.48E2,1.23E2,4.86E2,1.507E3,8E0,1.287E3,1.05E2,1.92E2,1.56E2],"tree_param":{"num_deleted":"0","num_feature":"1024","num_nodes":"15","size_leaf_vector":"1"}},{"base_weights":[2.362918E-3,2.465885E-1,-2.2657324E-1,2.8183073E-1,-6.2048092E-2,-9.089646E-2,-2.9671246E-1,1.8442712E-3,1.0554088E-2,-5.715852E-3,5.0883098E-3,2.8786778E-3,-6.6343476E-3,2.2339593E-3,-8.969068E-3],"categories":[],"categories_nodes":[],"categories_segments":[],"categories_sizes":[],"default_left":[0,0,0,0,0,0,0,0,0,0,0,0,0,0,0],"id":20,"left_children":[1,3,5,7,9,11,13,-1,-1,-1,-1,-1,-1,-1,-1],"loss_changes":[2.1922995E2,2.1158363E1,1.8451813E1,2.568637E1,7.4876842E0,1.84758E1,1.7743073E0,0E0,0E0,0E0,0E0,0E0,0E0,0E0,0E0],"parents":[2147483647,0,0,1,1,2,2,3,3,4,4,5,5,6,6],"right_children":[2,4,6,8,10,12,14,-1,-1,-1,-1,-1,-1,-1,-1],"split_conditions":[8.545247E0,2.380732E-1,-3.3383334E0,1.3929114E-1,1.3967603E0,2.5325507E-1,-5.6908774E-1,1.8442712E-3,1.0554088E-2,-5.715852E-3,5.0883098E-3,2.8786778E-3,-6.6343476E-3,2.2339593E-3,-8.969068E-3],"split_indices":[342,4,322,203,200,77,755,0,0,0,0,0,0,0,0],"split_type":[0,0,0,0,0,0,0,0,0,0,0,0,0,0,0],"sum_hessian":[3.861E3,1.867E3,1.994E3,1.678E3,1.89E2,7.03E2,1.291E3,4.18E2,1.26E3,1.25E2,6.4E1,2.92E2,4.11E2,2E0,1.289E3],"tree_param":{"num_deleted":"0","num_feature":"1024","num_nodes":"15","size_leaf_vector":"1"}},{"base_weights":[2.1325885E-3,2.0845543E-1,-2.51182E-1,-3.4127906E-2,2.7567267E-1,-3.609444E-2,-2.7603185E-1,-3.3443468E-3,5.7892525E-3,1.0225546E-2,1.4482547E-3,-4.7514685E-3,6.1629256E-3,3.4145347E-3,-8.383448E-3],"categories":[],"categories_nodes":[],"categories_segments":[],"categories_sizes":[],"default_left":[0,0,0,0,0,0,0,0,0,0,0,0,0,0,0],"id":21,"left_children":[1,3,5,7,9,11,13,-1,-1,-1,-1,-1,-1,-1,-1],"loss_changes":[2.0514136E2,3.555165E1,9.118805E0,9.358355E0,2.4658463E1,7.3853254E0,3.051918E0,0E0,0E0,0E0,0E0,0E0,0E0,0E0,0E0],"parents":[2147483647,0,0,1,1,2,2,3,3,4,4,5,5,6,6],"right_children":[2,4,6,8,10,12,14,-1,-1,-1,-1,-1,-1,-1,-1],"split_conditions":[2.3811062E-1,1.9505697E-1,-2.683275E-1,-1.227182E-1,7.4797314E-1,1.8182163E-1,-3.681335E-1,-3.3443468E-3,5.7892525E-3,1.0225546E-2,1.4482547E-3,-4.7514685E-3,6.1629256E-3,3.4145347E-3,-8.383448E-3],"split_indices":[4,928,27,90,304,457,147,0,0,0,0,0,0,0,0],"split_type":[0,0,0,0,0,0,0,0,0,0,0,0,0,0,0],"sum_hessian":[3.865E3,2.133E3,1.732E3,4.66E2,1.667E3,1.87E2,1.545E3,3.59E2,1.07E2,1.284E3,3.83E2,1.31E2,5.6E1,5E0,1.54E3],"tree_param":{"num_deleted":"0","num_feature":"1024","num_nodes":"15","size_leaf_vector":"1"}},{"base_weights":[7.0650172E-3,-2.004575E-1,2.4645911E-1,-2.6268646E-1,2.7105434E-2,-5.695002E-2,2.8873432E-1,-8.1461435E-3,5.263056E-3,-4.707311E-3,5.2766544E-3,-5.4081385E-3,4.14721E-3,-1.1030951E-3,9.603187E-3],"categories":[],"categories_nodes":[],"categories_segments":[],"categories_sizes":[],"default_left":[0,0,0,0,0,0,0,0,0,0,0,0,0,0,0],"id":22,"left_children":[1,3,5,7,9,11,13,-1,-1,-1,-1,-1,-1,-1,-1],"loss_changes":[1.9508379E2,3.0008354E1,2.3876343E1,7.847397E0,1.394223E1,6.7172613E0,1.674289E1,0E0,0E0,0E0,0E0,0E0,0E0,0E0,0E0],"parents":[2147483647,0,0,1,1,2,2,3,3,4,4,5,5,6,6],"right_children":[2,4,6,8,10,12,14,-1,-1,-1,-1,-1,-1,-1,-1],"split_conditions":[2.6514035E-1,4.6520434E-2,1.2687208E-1,1.5699232E-1,1.402519E-1,-9.5835215E-1,-3.6201942E-1,-8.1461435E-3,5.263056E-3,-4.707311E-3,5.2766544E-3,-5.4081385E-3,4.14721E-3,-1.1030951E-3,9.603187E-3],"split_indices":[211,883,623,42,514,153,70,0,0,0,0,0,0,0,0],"split_type":[0,0,0,0,0,0,0,0,0,0,0,0,0,0,0],"sum_hessian":[3.867E3,2.074E3,1.793E3,1.625E3,4.49E2,2.18E2,1.575E3,1.604E3,2.1E1,2E2,2.49E2,1.35E2,8.3E1,1.38E2,1.437E3],"tree_param":{"num_deleted":"0","num_feature":"1024","num_nodes":"15","size_leaf_vector":"1"}},{"base_weights":[2.03868E-3,1.9712958E-1,-2.359737E-1,-1.3430778E-2,2.6239863E-1,1.1738882E-2,-2.5621268E-1,3.2773379E-3,-3.405301E-3,9.826586E-3,1.180875E-3,3.7077598E-3,-5.6470814E-3,3.661757E-3,-7.7957483E-3],"categories":[],"categories_nodes":[],"categories_segments":[],"categories_sizes":[],"default_left":[0,0,0,0,0,0,0,0,0,0,0,0,0,0,0],"id":23,"left_children":[1,3,5,7,9,11,13,-1,-1,-1,-1,-1,-1,-1,-1],"loss_changes":[1.819311E2,2.9694565E1,8.938972E0,6.977177E0,2.3517921E1,4.3215213E0,3.203476E0,0E0,0E0,0E0,0E0,0E0,0E0,0E0,0E0],"parents":[2147483647,0,0,1,1,2,2,3,3,4,4,5,5,6,6],"right_children":[2,4,6,8,10,12,14,-1,-1,-1,-1,-1,-1,-1,-1],"split_conditions":[2.3811062E-1,3.3184958E-1,3.216027E-2,-1.3287762E-1,-3.7647405E-1,4.946094E-1,3.213422E-1,3.2773379E-3,-3.405301E-3,9.826586E-3,1.180875E-3,3.7077598E-3,-5.6470814E-3,3.661757E-3,-7.7957483E-3],"split_indices":[4,199,812,510,531,478,1012,0,0,0,0,0,0,0,0],"split_type":[0,0,0,0,0,0,0,0,0,0,0,0,0,0,0],"sum_hessian":[3.858E3,2.123E3,1.735E3,5.08E2,1.615E3,1.32E2,1.603E3,2.27E2,2.81E2,1.239E3,3.76E2,9.2E1,4E1,6E0,1.597E3],"tree_param":{"num_deleted":"0","num_feature":"1024","num_nodes":"15","size_leaf_vector":"1"}},{"base_weights":[5.228234E-3,-1.8070993E-1,2.3284416E-1,-2.5271532E-1,-2.1920135E-2,2.7619076E-1,-2.6015796E-2,3.615011E-3,-7.7241734E-3,2.1455584E-3,-5.651338E-3,-2.8235122E-4,9.325556E-3,-5.7737045E-3,4.0773805E-3],"categories":[],"categories_nodes":[],"categories_segments":[],"categories_sizes":[],"default_left":[0,0,0,0,0,0,0,0,0,0,0,0,0,0,0],"id":24,"left_children":[1,3,5,7,9,11,13,-1,-1,-1,-1,-1,-1,-1,-1],"loss_changes":[1.65135E2,2.4393448E1,1.989666E1,3.5495224E0,1.1338364E1,1.4986244E1,8.304199E0,0E0,0E0,0E0,0E0,0E0,0E0,0E0,0E0],"parents":[2147483647,0,0,1,1,2,2,3,3,4,4,5,5,6,6],"right_children":[2,4,6,8,10,12,14,-1,-1,-1,-1,-1,-1,-1,-1],"split_conditions":[2.6514292E-1,4.6484582E-2,-7.4557486E0,2.1898179E-1,-1.2212102E-1,2.3919186E-1,3.132421E-1,3.615011E-3,-7.7241734E-3,2.1455584E-3,-5.651338E-3,-2.8235122E-4,9.325556E-3,-5.7737045E-3,4.0773805E-3],"split_indices":[211,883,948,442,891,788,389,0,0,0,0,0,0,0,0],"split_type":[0,0,0,0,0,0,0,0,0,0,0,0,0,0,0],"sum_hessian":[3.842E3,2.118E3,1.724E3,1.445E3,6.73E2,1.475E3,2.49E2,9E0,1.436E3,4.42E2,2.31E2,1.62E2,1.313E3,1.2E2,1.29E2],"tree_param":{"num_deleted":"0","num_feature":"1024","num_nodes":"15","size_leaf_vector":"1"}},{"base_weights":[-4.966289E-3,2.132904E-1,-1.7880598E-1,2.4221767E-1,-1.5329355E-1,7.010893E-3,-2.2644626E-1,-8.7094476E-4,8.16448E-3,-6.708907E-3,6.02464E-3,-1.9235633E-3,7.0969295E-3,4.548372E-3,-7.085086E-3],"categories":[],"categories_nodes":[],"categories_segments":[],"categories_sizes":[],"default_left":[0,0,0,0,0,0,0,0,0,0,0,0,0,0,0],"id":25,"left_children":[1,3,5,7,9,11,13,-1,-1,-1,-1,-1,-1,-1,-1],"loss_changes":[1.4930637E2,1.9618378E1,1.943431E1,1.3462784E1,4.9837527E0,8.227203E0,7.4850845E0,0E0,0E0,0E0,0E0,0E0,0E0,0E0,0E0],"parents":[2147483647,0,0,1,1,2,2,3,3,4,4,5,5,6,6],"right_children":[2,4,6,8,10,12,14,-1,-1,-1,-1,-1,-1,-1,-1],"split_conditions":[2.8538936E-1,5.9132284E-1,1.6166593E-1,1.268691E-1,3.8893497E-1,-3.0934912E-1,-5.279613E-1,-8.7094476E-4,8.16448E-3,-6.708907E-3,6.02464E-3,-1.9235633E-3,7.0969295E-3,4.548372E-3,-7.085086E-3],"split_indices":[196,900,259,623,506,983,0,0,0,0,0,0,0,0,0],"split_type":[0,0,0,0,0,0,0,0,0,0,0,0,0,0,0],"sum_hessian":[3.875E3,1.715E3,2.16E3,1.599E3,1.16E2,4.46E2,1.714E3,1.59E2,1.44E3,1.06E2,1E1,3.57E2,8.9E1,3.2E1,1.682E3],"tree_param":{"num_deleted":"0","num_feature":"1024","num_nodes":"15","size_leaf_vector":"1"}},{"base_weights":[1.4012587E-3,2.0150508E-1,-1.8736695E-1,2.4015254E-1,-3.8744606E-2,-5.5080816E-2,-2.4662781E-1,-1.9176072E-4,8.6024245E-3,6.724293E-3,-3.877022E-3,6.0832966E-3,-4.837776E-3,3.8586673E-3,-7.5300476E-3],"categories":[],"categories_nodes":[],"categories_segments":[],"categories_sizes":[],"default_left":[0,0,0,0,0,0,0,0,0,0,0,0,0,0,0],"id":26,"left_children":[1,3,5,7,9,11,13,-1,-1,-1,-1,-1,-1,-1,-1],"loss_changes":[1.5003479E2,1.8180687E1,1.561618E1,1.918206E1,7.839059E0,1.9352215E1,3.2712173E0,0E0,0E0,0E0,0E0,0E0,0E0,0E0,0E0],"parents":[2147483647,0,0,1,1,2,2,3,3,4,4,5,5,6,6],"right_children":[2,4,6,8,10,12,14,-1,-1,-1,-1,-1,-1,-1,-1],"split_conditions":[8.545247E0,-2.8201887E-1,-1.3926537E-1,7.351362E-1,-1.2347093E-1,8.546485E0,6.82888E-3,-1.9176072E-4,8.6024245E-3,6.724293E-3,-3.877022E-3,6.0832966E-3,-4.837776E-3,3.8586673E-3,-7.5300476E-3],"split_indices":[342,579,922,817,332,342,32,0,0,0,0,0,0,0,0],"split_type":[0,0,0,0,0,0,0,0,0,0,0,0,0,0,0],"sum_hessian":[3.912E3,1.898E3,2.014E3,1.635E3,2.63E2,6.41E2,1.373E3,2.64E2,1.371E3,5.6E1,2.07E2,1.79E2,4.62E2,6E0,1.367E3],"tree_param":{"num_deleted":"0","num_feature":"1024","num_nodes":"15","size_leaf_vector":"1"}},{"base_weights":[4.2080265E-3,1.7547873E-1,-2.0470148E-1,2.1205157E-1,-1.333173E-1,1.5105908E-1,-2.1676658E-1,-2.7166456E-3,7.521682E-3,-5.0919866E-3,4.5373663E-3,-3.3604542E-3,1.0377249E-2,-6.884492E-3,2.3419247E-3],"categories":[],"categories_nodes":[],"categories_segments":[],"categories_sizes":[],"default_left":[0,0,0,0,0,0,0,0,0,0,0,0,0,0,0],"id":27,"left_children":[1,3,5,7,9,11,13,-1,-1,-1,-1,-1,-1,-1,-1],"loss_changes":[1.4119241E2,2.5332527E1,8.614014E0,2.3500305E1,3.3400464E0,5.0581536E0,7.031067E0,0E0,0E0,0E0,0E0,0E0,0E0,0E0,0E0],"parents":[2147483647,0,0,1,1,2,2,3,3,4,4,5,5,6,6],"right_children":[2,4,6,8,10,12,14,-1,-1,-1,-1,-1,-1,-1,-1],"split_conditions":[2.3811062E-1,-2.2221248E-1,-2.393562E-2,1.268755E-1,-2.3701929E-2,4.587943E-1,-5.153772E-1,-2.7166456E-3,7.521682E-3,-5.0919866E-3,4.5373663E-3,-3.3604542E-3,1.0377249E-2,-6.884492E-3,2.3419247E-3],"split_indices":[4,958,185,623,185,703,7,0,0,0,0,0,0,0,0],"split_type":[0,0,0,0,0,0,0,0,0,0,0,0,0,0,0],"sum_hessian":[3.886E3,2.138E3,1.748E3,1.92E3,2.18E2,4.6E1,1.702E3,2.13E2,1.707E3,2.04E2,1.4E1,2.5E1,2.1E1,1.638E3,6.4E1],"tree_param":{"num_deleted":"0","num_feature":"1024","num_nodes":"15","size_leaf_vector":"1"}},{"base_weights":[3.380471E-3,-1.6848041E-1,2.1071209E-1,-2.1937016E-1,7.57828E-3,2.4319682E-1,-3.940547E-2,-6.8657105E-3,5.309879E-3,2.989931E-3,-5.184744E-3,-3.5311878E-3,7.980519E-3,2.159331E-3,-7.4575115E-3],"categories":[],"categories_nodes":[],"categories_segments":[],"categories_sizes":[],"default_left":[0,0,0,0,0,0,0,0,0,0,0,0,0,0,0],"id":28,"left_children":[1,3,5,7,9,11,13,-1,-1,-1,-1,-1,-1,-1,-1],"loss_changes":[1.4035127E2,1.9348808E1,1.4790619E1,7.5023804E0,9.022392E0,1.3985184E1,5.918829E0,0E0,0E0,0E0,0E0,0E0,0E0,0E0,0E0],"parents":[2147483647,0,0,1,1,2,2,3,3,4,4,5,5,6,6],"right_children":[2,4,6,8,10,12,14,-1,-1,-1,-1,-1,-1,-1,-1],"split_conditions":[2.6514292E-1,4.6524502E-2,-6.763744E-2,1.5699232E-1,8.54687E0,-3.620404E-1,4.8207462E-1,-6.8657105E-3,5.309879E-3,2.989931E-3,-5.184744E-3,-3.5311878E-3,7.980519E-3,2.159331E-3,-7.4575115E-3],"split_indices":[211,883,55,42,342,70,480,0,0,0,0,0,0,0,0],"split_type":[0,0,0,0,0,0,0,0,0,0,0,0,0,0,0],"sum_hessian":[3.879E3,2.124E3,1.755E3,1.642E3,4.82E2,1.554E3,2.01E2,1.616E3,2.6E1,3.28E2,1.54E2,8.5E1,1.469E3,1.44E2,5.7E1],"tree_param":{"num_deleted":"0","num_feature":"1024","num_nodes":"15","size_leaf_vector":"1"}},{"base_weights":[2.465041E-3,-1.6193664E-1,1.9229E-1,-1.796848E-1,2.4973722E-1,-1.9845921E-1,2.1421012E-1,-1.9169408E-3,-6.8371454E-3,1.1891995E-2,-3.816781E-3,-7.981649E-3,4.4032694E-3,1.1106457E-2,4.7221836E-3],"categories":[],"categories_nodes":[],"categories_segments":[],"categories_sizes":[],"default_left":[0,0,0,0,0,0,0,0,0,0,0,0,0,0,0],"id":29,"left_children":[1,3,5,7,9,11,13,-1,-1,-1,-1,-1,-1,-1,-1],"loss_changes":[1.2460964E2,1.698204E1,1.7146812E1,1.1114853E1,7.0969005E0,3.831862E0,1.3928146E1,0E0,0E0,0E0,0E0,0E0,0E0,0E0,0E0],"parents":[2147483647,0,0,1,1,2,2,3,3,4,4,5,5,6,6],"right_children":[2,4,6,8,10,12,14,-1,-1,-1,-1,-1,-1,-1,-1],"split_conditions":[5.927663E-2,-6.775409E-1,-1.5156832E1,-3.3385243E0,2.3811732E-1,-1.0039952E-3,7.432211E-2,-1.9169408E-3,-6.8371454E-3,1.1891995E-2,-3.816781E-3,-7.981649E-3,4.4032694E-3,1.1106457E-2,4.7221836E-3],"split_indices":[733,1013,658,322,4,217,800,0,0,0,0,0,0,0,0],"split_type":[0,0,0,0,0,0,0,0,0,0,0,0,0,0,0],"sum_hessian":[3.933E3,2.11E3,1.823E3,2.039E3,7.1E1,8.4E1,1.739E3,6.2E2,1.419E3,5E1,2.1E1,7.6E1,8E0,4.2E2,1.319E3],"tree_param":{"num_deleted":"0","num_feature":"1024","num_nodes":"15","size_leaf_vector":"1"}},{"base_weights":[-2.4931114E-3,-1.5755649E-1,1.7891404E-1,-2.1957043E-1,-2.9740965E-2,2.2441494E-1,-2.9345265E-2,2.2058787E-3,-6.6967187E-3,-3.1732244E-3,3.955908E-3,-1.5733191E-3,7.743668E-3,-5.4344563E-3,3.8127443E-3],"categories":[],"categories_nodes":[],"categories_segments":[],"categories_sizes":[],"default_left":[0,0,0,0,0,0,0,0,0,0,0,0,0,0,0],"id":30,"left_children":[1,3,5,7,9,11,13,-1,-1,-1,-1,-1,-1,-1,-1],"loss_changes":[1.1010106E2,1.6528683E1,1.7292236E1,2.008728E0,9.3144455E0,1.4255051E1,9.002337E0,0E0,0E0,0E0,0E0,0E0,0E0,0E0,0E0],"parents":[2147483647,0,0,1,1,2,2,3,3,4,4,5,5,6,6],"right_children":[2,4,6,8,10,12,14,-1,-1,-1,-1,-1,-1,-1,-1],"split_conditions":[2.6514035E-1,1.487659E-1,-7.4557867E0,2.6711804E-1,-6.653616E-1,2.3917863E-1,3.1324342E-1,2.2058787E-3,-6.6967187E-3,-3.1732244E-3,3.955908E-3,-1.5733191E-3,7.743668E-3,-5.4344563E-3,3.8127443E-3],"split_indices":[211,361,948,851,284,788,389,0,0,0,0,0,0,0,0],"split_type":[0,0,0,0,0,0,0,0,0,0,0,0,0,0,0],"sum_hessian":[3.854E3,2.08E3,1.774E3,1.386E3,6.94E2,1.454E3,3.2E2,1E1,1.376E3,4.79E2,2.15E2,1.56E2,1.298E3,1.6E2,1.6E2],"tree_param":{"num_deleted":"0","num_feature":"1024","num_nodes":"15","size_leaf_vector":"1"}},{"base_weights":[-3.880964E-3,-1.7563158E-1,1.6009767E-1,-2.0252444E-1,9.722365E-3,-1.1914804E-1,1.8308735E-1,-6.299108E-3,2.7475453E-3,-3.2703595E-3,5.866356E-3,-6.508636E-3,3.698308E-3,-1.1858582E-3,6.454481E-3],"categories":[],"categories_nodes":[],"categories_segments":[],"categories_sizes":[],"default_left":[0,0,0,0,0,0,0,0,0,0,0,0,0,0,0],"id":31,"left_children":[1,3,5,7,9,11,13,-1,-1,-1,-1,-1,-1,-1,-1],"loss_changes":[1.0986418E2,9.554916E0,1.3468296E1,4.223068E0,6.596663E0,4.83319E0,1.3502369E1,0E0,0E0,0E0,0E0,0E0,0E0,0E0,0E0],"parents":[2147483647,0,0,1,1,2,2,3,3,4,4,5,5,6,6],"right_children":[2,4,6,8,10,12,14,-1,-1,-1,-1,-1,-1,-1,-1],"split_conditions":[5.925213E-2,-5.154019E-1,2.6245368E-1,-2.2212032E-2,-1.2355376E-1,-3.2658145E-2,-3.637011E0,-6.299108E-3,2.7475453E-3,-3.2703595E-3,5.866356E-3,-6.508636E-3,3.698308E-3,-1.1858582E-3,6.454481E-3],"split_indices":[733,7,68,40,332,741,460,0,0,0,0,0,0,0,0],"split_type":[0,0,0,0,0,0,0,0,0,0,0,0,0,0,0],"sum_hessian":[3.841E3,1.875E3,1.966E3,1.635E3,2.4E2,1.4E2,1.826E3,1.603E3,3.2E1,1.54E2,8.6E1,1.02E2,3.8E1,2.29E2,1.597E3],"tree_param":{"num_deleted":"0","num_feature":"1024","num_nodes":"15","size_leaf_vector":"1"}},{"base_weights":[-5.7844655E-3,-1.5307862E-1,1.7654677E-1,-1.9607608E-1,-1.4021574E-2,-3.9107714E-2,2.2425365E-1,5.8432505E-3,-6.066917E-3,-4.533818E-3,3.4857302E-3,7.4459696E-3,-3.111594E-3,7.3336847E-3,-4.97174E-3],"categories":[],"categories_nodes":[],"categories_segments":[],"categories_sizes":[],"default_left":[0,0,0,0,0,0,0,0,0,0,0,0,0,0,0],"id":32,"left_children":[1,3,5,7,9,11,13,-1,-1,-1,-1,-1,-1,-1,-1],"loss_changes":[1.05631004E2,1.2922062E1,1.8349762E1,5.172394E0,1.0274464E1,7.1581335E0,1.2591988E1,0E0,0E0,0E0,0E0,0E0,0E0,0E0,0E0],"parents":[2147483647,0,0,1,1,2,2,3,3,4,4,5,5,6,6],"right_children":[2,4,6,8,10,12,14,-1,-1,-1,-1,-1,-1,-1,-1],"split_conditions":[2.6514292E-1,3.3228618E-1,-4.8378882E-1,-3.5351548E-1,-3.68693E0,-4.9935254E-1,2.8441307E-1,5.8432505E-3,-6.066917E-3,-4.533818E-3,3.4857302E-3,7.4459696E-3,-3.111594E-3,7.3336847E-3,-4.97174E-3],"split_indices":[211,474,739,580,986,892,312,0,0,0,0,0,0,0,0],"split_type":[0,0,0,0,0,0,0,0,0,0,0,0,0,0,0],"sum_hessian":[3.873E3,2.145E3,1.728E3,1.629E3,5.16E2,3.14E2,1.414E3,1.1E1,1.618E3,2.49E2,2.67E2,4.2E1,2.72E2,1.355E3,5.9E1],"tree_param":{"num_deleted":"0","num_feature":"1024","num_nodes":"15","size_leaf_vector":"1"}},{"base_weights":[-1.7115998E-3,1.3720767E-1,-1.742074E-1,-8.740234E-2,1.7896453E-1,1.3983665E-1,-1.8413235E-1,4.6715033E-3,-4.7147335E-3,-8.452099E-4,6.6573126E-3,-4.312624E-3,9.525623E-3,7.826334E-6,-5.9390017E-3],"categories":[],"categories_nodes":[],"categories_segments":[],"categories_sizes":[],"default_left":[0,0,0,0,0,0,0,0,0,0,0,0,0,0,0],"id":33,"left_children":[1,3,5,7,9,11,13,-1,-1,-1,-1,-1,-1,-1,-1],"loss_changes":[9.460408E1,2.0981144E1,6.261261E0,6.890237E0,1.6680252E1,4.947008E0,4.3892136E0,0E0,0E0,0E0,0E0,0E0,0E0,0E0,0E0],"parents":[2147483647,0,0,1,1,2,2,3,3,4,4,5,5,6,6],"right_children":[2,4,6,8,10,12,14,-1,-1,-1,-1,-1,-1,-1,-1],"split_conditions":[2.3811062E-1,1.0330487E0,-1.9309771E-1,6.903613E-2,-4.8378882E-1,-2.163505E-3,2.4219286E-2,4.6715033E-3,-4.7147335E-3,-8.452099E-4,6.6573126E-3,-4.312624E-3,9.525623E-3,7.826334E-6,-5.9390017E-3],"split_indices":[4,295,255,847,739,294,177,0,0,0,0,0,0,0,0],"split_type":[0,0,0,0,0,0,0,0,0,0,0,0,0,0,0],"sum_hessian":[3.888E3,2.157E3,1.731E3,3.33E2,1.824E3,4.1E1,1.69E3,6.6E1,2.67E2,3.15E2,1.509E3,1.8E1,2.3E1,1.2E2,1.57E3],"tree_param":{"num_deleted":"0","num_feature":"1024","num_nodes":"15","size_leaf_vector":"1"}},{"base_weights":[-8.5137095E-3,1.0786775E-1,-1.8329385E-1,-1.22982904E-1,1.4615203E-1,2.174893E-1,-1.9373594E-1,1.9152652E-3,-5.2844896E-3,5.4468536E-3,-1.4622201E-3,-1.9991111E-3,1.0387984E-2,-5.931046E-3,3.591462E-3],"categories":[],"categories_nodes":[],"categories_segments":[],"categories_sizes":[],"default_left":[0,0,0,0,0,0,0,0,0,0,0,0,0,0,0],"id":34,"left_children":[1,3,5,7,9,11,13,-1,-1,-1,-1,-1,-1,-1,-1],"loss_changes":[7.992369E1,2.1396801E1,7.8345413E0,3.833747E0,1.4329926E1,2.668025E0,2.6317444E0,0E0,0E0,0E0,0E0,0E0,0E0,0E0,0E0],"parents":[2147483647,0,0,1,1,2,2,3,3,4,4,5,5,6,6],"right_children":[2,4,6,8,10,12,14,-1,-1,-1,-1,-1,-1,-1,-1],"split_conditions":[2.3813768E-1,-3.68693E0,-1.01298995E-1,9.627956E-1,1.8729718E-2,-4.5775685E-1,4.0495345E-1,1.9152652E-3,-5.2844896E-3,5.4468536E-3,-1.4622201E-3,-1.9991111E-3,1.0387984E-2,-5.931046E-3,3.591462E-3],"split_indices":[4,986,239,679,85,898,69,0,0,0,0,0,0,0,0],"split_type":[0,0,0,0,0,0,0,0,0,0,0,0,0,0,0],"sum_hessian":[3.87E3,2.33E3,1.54E3,3.22E2,2.008E3,2.4E1,1.516E3,7E1,2.52E2,1.701E3,3.07E2,1.2E1,1.2E1,1.508E3,8E0],"tree_param":{"num_deleted":"0","num_feature":"1024","num_nodes":"15","size_leaf_vector":"1"}},{"base_weights":[-1.43098E-3,-1.446751E-1,1.6825387E-1,-1.8314214E-1,3.0705538E-3,2.1175589E-1,-2.0178601E-2,-5.7070586E-3,1.6272174E-3,4.958006E-3,-4.1944357E-3,-1.8121356E-3,7.3491503E-3,-4.8587983E-3,3.8744106E-3],"categories":[],"categories_nodes":[],"categories_segments":[],"categories_sizes":[],"default_left":[0,0,0,0,0,0,0,0,0,0,0,0,0,0,0],"id":35,"left_children":[1,3,5,7,9,11,13,-1,-1,-1,-1,-1,-1,-1,-1],"loss_changes":[9.4722946E1,1.2025764E1,1.4751984E1,3.1332703E0,1.1492953E1,1.357003E1,8.291614E0,0E0,0E0,0E0,0E0,0E0,0E0,0E0,0E0],"parents":[2147483647,0,0,1,1,2,2,3,3,4,4,5,5,6,6],"right_children":[2,4,6,8,10,12,14,-1,-1,-1,-1,-1,-1,-1,-1],"split_conditions":[5.927663E-2,-1.2883765E-2,1.4968076E-1,5.354002E-1,-6.282163E-1,-3.625295E-1,6.336735E-1,-5.7070586E-3,1.6272174E-3,4.958006E-3,-4.1944357E-3,-1.8121356E-3,7.3491503E-3,-4.8587983E-3,3.8744106E-3],"split_indices":[733,980,916,171,772,447,644,0,0,0,0,0,0,0,0],"split_type":[0,0,0,0,0,0,0,0,0,0,0,0,0,0,0],"sum_hessian":[3.837E3,2.083E3,1.754E3,1.647E3,4.36E2,1.422E3,3.32E2,1.605E3,4.2E1,2.02E2,2.34E2,1.52E2,1.27E3,1.69E2,1.63E2],"tree_param":{"num_deleted":"0","num_feature":"1024","num_nodes":"15","size_leaf_vector":"1"}},{"base_weights":[-2.0128249E-3,-1.6591261E-1,1.2655327E-1,-1.7818226E-1,1.006186E-1,-1.6338375E-1,1.5708213E-1,4.3165847E-3,-5.524476E-3,7.87056E-3,-3.372294E-3,1.4220184E-3,-6.8685017E-3,5.9392424E-3,-8.3560456E-4],"categories":[],"categories_nodes":[],"categories_segments":[],"categories_sizes":[],"default_left":[0,0,0,0,0,0,0,0,0,0,0,0,0,0,0],"id":36,"left_children":[1,3,5,7,9,11,13,-1,-1,-1,-1,-1,-1,-1,-1],"loss_changes":[8.259981E1,6.1724854E0,2.0216564E1,3.981182E0,4.15784E0,3.4213295E0,1.5313129E1,0E0,0E0,0E0,0E0,0E0,0E0,0E0,0E0],"parents":[2147483647,0,0,1,1,2,2,3,3,4,4,5,5,6,6],"right_children":[2,4,6,8,10,12,14,-1,-1,-1,-1,-1,-1,-1,-1],"split_conditions":[4.2106423E-1,9.729192E-2,2.6509175E-1,-1.9494036E-1,2.5454718E-1,2.3864265E-1,1.4069375E-1,4.3165847E-3,-5.524476E-3,7.87056E-3,-3.372294E-3,1.4220184E-3,-6.8685017E-3,5.9392424E-3,-8.3560456E-4],"split_indices":[352,184,211,530,523,23,134,0,0,0,0,0,0,0,0],"split_type":[0,0,0,0,0,0,0,0,0,0,0,0,0,0,0],"sum_hessian":[3.86E3,1.693E3,2.167E3,1.628E3,6.5E1,1.94E2,1.973E3,1.7E1,1.611E3,3.3E1,3.2E1,4.8E1,1.46E2,1.614E3,3.59E2],"tree_param":{"num_deleted":"0","num_feature":"1024","num_nodes":"15","size_leaf_vector":"1"}},{"base_weights":[7.596737E-3,-1.3833998E-1,1.5491693E-1,-1.6969255E-1,6.27066E-2,-3.838887E-2,1.8489794E-1,-5.2316645E-3,4.7080102E-3,-3.2209142E-3,6.4743254E-3,3.5546587E-3,-6.675261E-3,-4.983563E-4,6.900669E-3],"categories":[],"categories_nodes":[],"categories_segments":[],"categories_sizes":[],"default_left":[0,0,0,0,0,0,0,0,0,0,0,0,0,0,0],"id":37,"left_children":[1,3,5,7,9,11,13,-1,-1,-1,-1,-1,-1,-1,-1],"loss_changes":[8.406071E1,1.2705257E1,1.1485199E1,3.4409714E0,8.168158E0,9.05184E0,1.5472713E1,0E0,0E0,0E0,0E0,0E0,0E0,0E0,0E0],"parents":[2147483647,0,0,1,1,2,2,3,3,4,4,5,5,6,6],"right_children":[2,4,6,8,10,12,14,-1,-1,-1,-1,-1,-1,-1,-1],"split_conditions":[5.9254322E-2,-5.154019E-1,-5.0755378E-2,-6.774989E-1,6.334885E-2,6.314864E-2,3.318464E-1,-5.2316645E-3,4.7080102E-3,-3.2209142E-3,6.4743254E-3,3.5546587E-3,-6.675261E-3,-4.983563E-4,6.900669E-3],"split_indices":[733,7,108,1013,784,148,199,0,0,0,0,0,0,0,0],"split_type":[0,0,0,0,0,0,0,0,0,0,0,0,0,0,0],"sum_hessian":[3.85E3,1.935E3,1.915E3,1.678E3,2.57E2,2.56E2,1.659E3,1.668E3,1E1,1.26E2,1.31E2,1.44E2,1.12E2,3.07E2,1.352E3],"tree_param":{"num_deleted":"0","num_feature":"1024","num_nodes":"15","size_leaf_vector":"1"}},{"base_weights":[-1.0876051E-3,-1.3414617E-1,1.3593605E-1,5.4805223E-2,-1.6562343E-1,-7.413549E-2,1.752631E-1,7.129992E-3,-3.412352E-3,3.132855E-3,-5.215065E-3,-8.873544E-3,6.1915256E-4,-4.085448E-3,6.3249995E-3],"categories":[],"categories_nodes":[],"categories_segments":[],"categories_sizes":[],"default_left":[0,0,0,0,0,0,0,0,0,0,0,0,0,0,0],"id":38,"left_children":[1,3,5,7,9,11,13,-1,-1,-1,-1,-1,-1,-1,-1],"loss_changes":[7.1087326E1,1.2036808E1,1.6260124E1,1.0211499E1,4.3213234E0,6.989265E0,1.8885517E1,0E0,0E0,0E0,0E0,0E0,0E0,0E0,0E0],"parents":[2147483647,0,0,1,1,2,2,3,3,4,4,5,5,6,6],"right_children":[2,4,6,8,10,12,14,-1,-1,-1,-1,-1,-1,-1,-1],"split_conditions":[2.51969E-1,-2.683214E-1,1.2688346E-1,5.320626E-3,2.0147835E-1,-8.349098E-1,3.2403022E-2,7.129992E-3,-3.412352E-3,3.132855E-3,-5.215065E-3,-8.873544E-3,6.1915256E-4,-4.085448E-3,6.3249995E-3],"split_indices":[752,27,623,712,794,743,714,0,0,0,0,0,0,0,0],"split_type":[0,0,0,0,0,0,0,0,0,0,0,0,0,0,0],"sum_hessian":[3.839E3,1.948E3,1.891E3,2.75E2,1.673E3,2.94E2,1.597E3,1.26E2,1.49E2,3.9E1,1.634E3,6.9E1,2.25E2,1.55E2,1.442E3],"tree_param":{"num_deleted":"0","num_feature":"1024","num_nodes":"15","size_leaf_vector":"1"}},{"base_weights":[3.1949389E-3,-1.4078283E-1,1.4602193E-1,-1.6607293E-1,2.00832E-2,-1.483762E-1,1.6593279E-1,-5.1266733E-3,5.606118E-3,8.245204E-3,-2.3162665E-3,-6.969491E-3,4.0429304E-3,-8.197173E-4,6.142937E-3],"categories":[],"categories_nodes":[],"categories_segments":[],"categories_sizes":[],"default_left":[0,0,0,0,0,0,0,0,0,0,0,0,0,0,0],"id":39,"left_children":[1,3,5,7,9,11,13,-1,-1,-1,-1,-1,-1,-1,-1],"loss_changes":[8.030189E1,8.012939E0,1.2227585E1,3.820549E0,7.849281E0,4.2666006E0,1.405117E1,0E0,0E0,0E0,0E0,0E0,0E0,0E0,0E0],"parents":[2147483647,0,0,1,1,2,2,3,3,4,4,5,5,6,6],"right_children":[2,4,6,8,10,12,14,-1,-1,-1,-1,-1,-1,-1,-1],"split_conditions":[5.9254322E-2,-5.154064E-1,-3.686972E0,-6.774989E-1,8.546485E0,9.074019E-2,-4.8378882E-1,-5.1266733E-3,5.606118E-3,8.245204E-3,-2.3162665E-3,-6.969491E-3,4.0429304E-3,-8.197173E-4,6.142937E-3],"split_indices":[733,7,986,1013,342,570,739,0,0,0,0,0,0,0,0],"split_type":[0,0,0,0,0,0,0,0,0,0,0,0,0,0,0],"sum_hessian":[3.845E3,1.915E3,1.93E3,1.654E3,2.61E2,1.1E2,1.82E3,1.647E3,7E0,5.7E1,2.04E2,8.9E1,2.1E1,3.06E2,1.514E3],"tree_param":{"num_deleted":"0","num_feature":"1024","num_nodes":"15","size_leaf_vector":"1"}},{"base_weights":[3.2865925E-4,1.5249892E-1,-1.1392172E-1,-1.8473339E-1,1.7314261E-1,-2.2265946E-2,-1.7607984E-1,4.2520086E-3,-8.914544E-3,5.6822244E-3,-5.1710065E-3,2.6284691E-3,-4.1747303E-3,3.2618593E-3,-5.3879335E-3],"categories":[],"categories_nodes":[],"categories_segments":[],"categories_sizes":[],"default_left":[0,0,0,0,0,0,0,0,0,0,0,0,0,0,0],"id":40,"left_children":[1,3,5,7,9,11,13,-1,-1,-1,-1,-1,-1,-1,-1],"loss_changes":[6.851592E1,1.2724861E1,1.2706669E1,5.373979E0,1.0015854E1,1.2490743E1,1.9254189E0,0E0,0E0,0E0,0E0,0E0,0E0,0E0,0E0],"parents":[2147483647,0,0,1,1,2,2,3,3,4,4,5,5,6,6],"right_children":[2,4,6,8,10,12,14,-1,-1,-1,-1,-1,-1,-1,-1],"split_conditions":[-1.3701048E0,8.537814E0,-3.3375826E0,-3.357911E-1,-6.866568E-1,-1.3690052E0,2.1893682E-1,4.2520086E-3,-8.914544E-3,5.6822244E-3,-5.1710065E-3,2.6284691E-3,-4.1747303E-3,3.2618593E-3,-5.3879335E-3],"split_indices":[601,342,322,598,176,601,442,0,0,0,0,0,0,0,0],"split_type":[0,0,0,0,0,0,0,0,0,0,0,0,0,0,0],"sum_hessian":[3.881E3,1.66E3,2.221E3,8.2E1,1.578E3,9.14E2,1.307E3,1.9E1,6.3E1,1.52E3,5.8E1,4.75E2,4.39E2,5E0,1.302E3],"tree_param":{"num_deleted":"0","num_feature":"1024","num_nodes":"15","size_leaf_vector":"1"}},{"base_weights":[-5.5512185E-3,-1.24144845E-1,1.4026685E-1,-1.6182874E-1,-2.8553506E-2,1.8937318E-1,-2.0633563E-2,-4.98453E-3,3.7785047E-3,-3.771032E-3,2.541887E-3,7.332298E-3,1.8443707E-4,8.250879E-3,-2.9358491E-3],"categories":[],"categories_nodes":[],"categories_segments":[],"categories_sizes":[],"default_left":[0,0,0,0,0,0,0,0,0,0,0,0,0,0,0],"id":41,"left_children":[1,3,5,7,9,11,13,-1,-1,-1,-1,-1,-1,-1,-1],"loss_changes":[6.806922E1,7.6782684E0,1.4070793E1,2.5557785E0,7.472882E0,1.3628994E1,1.0854175E1,0E0,0E0,0E0,0E0,0E0,0E0,0E0,0E0],"parents":[2147483647,0,0,1,1,2,2,3,3,4,4,5,5,6,6],"right_children":[2,4,6,8,10,12,14,-1,-1,-1,-1,-1,-1,-1,-1],"split_conditions":[2.6514292E-1,4.649573E-2,-8.4059864E-2,-3.617655E-1,1.5693343E-1,-1.1769737E0,-3.68617E0,-4.98453E-3,3.7785047E-3,-3.771032E-3,2.541887E-3,7.332298E-3,1.8443707E-4,8.250879E-3,-2.9358491E-3],"split_indices":[211,883,583,70,42,790,986,0,0,0,0,0,0,0,0],"split_type":[0,0,0,0,0,0,0,0,0,0,0,0,0,0,0],"sum_hessian":[3.876E3,2.14E3,1.736E3,1.52E3,6.2E2,1.326E3,4.1E2,1.51E3,1E1,3.32E2,2.88E2,1.012E3,3.14E2,6.9E1,3.41E2],"tree_param":{"num_deleted":"0","num_feature":"1024","num_nodes":"15","size_leaf_vector":"1"}},{"base_weights":[-2.7038754E-4,-1.138246E-1,1.4619124E-1,-1.36257E-1,8.273332E-2,2.155253E-1,3.0159624E-2,-4.464446E-3,2.2435E-3,9.964454E-3,-1.0624734E-3,7.355399E-3,-3.710326E-3,-4.5687985E-3,2.9348847E-3],"categories":[],"categories_nodes":[],"categories_segments":[],"categories_sizes":[],"default_left":[0,0,0,0,0,0,0,0,0,0,0,0,0,0,0],"id":42,"left_children":[1,3,5,7,9,11,13,-1,-1,-1,-1,-1,-1,-1,-1],"loss_changes":[6.4662895E1,9.99448E0,1.3465309E1,5.573349E0,7.5136647E0,1.1552063E1,8.71916E0,0E0,0E0,0E0,0E0,0E0,0E0,0E0,0E0],"parents":[2147483647,0,0,1,1,2,2,3,3,4,4,5,5,6,6],"right_children":[2,4,6,8,10,12,14,-1,-1,-1,-1,-1,-1,-1,-1],"split_conditions":[2.6514876E-1,1.02901846E-1,5.428099E-1,2.1441549E-1,1.853855E-2,-1.4462744E-1,-5.690774E-1,-4.464446E-3,2.2435E-3,9.964454E-3,-1.0624734E-3,7.355399E-3,-3.710326E-3,-4.5687985E-3,2.9348847E-3],"split_indices":[211,729,269,692,477,440,755,0,0,0,0,0,0,0,0],"split_type":[0,0,0,0,0,0,0,0,0,0,0,0,0,0,0],"sum_hessian":[3.828E3,2.16E3,1.668E3,1.947E3,2.13E2,1.028E3,6.4E2,1.846E3,1.01E2,5.1E1,1.62E2,9.53E2,7.5E1,1.63E2,4.77E2],"tree_param":{"num_deleted":"0","num_feature":"1024","num_nodes":"15","size_leaf_vector":"1"}},{"base_weights":[-1.8003283E-3,-1.11620314E-1,1.20414406E-1,-1.4732918E-1,6.260601E-2,1.6741669E-1,-1.3602353E-2,3.8787266E-3,-4.579942E-3,8.147807E-3,-1.5498509E-3,-3.627769E-3,6.0843434E-3,2.6601227E-3,-6.1202957E-3],"categories":[],"categories_nodes":[],"categories_segments":[],"categories_sizes":[],"default_left":[0,0,0,0,0,0,0,0,0,0,0,0,0,0,0],"id":43,"left_children":[1,3,5,7,9,11,13,-1,-1,-1,-1,-1,-1,-1,-1],"loss_changes":[5.288176E1,1.3186161E1,1.1816124E1,3.1469765E0,9.352248E0,1.4850388E1,1.0513158E1,0E0,0E0,0E0,0E0,0E0,0E0,0E0,0E0],"parents":[2147483647,0,0,1,1,2,2,3,3,4,4,5,5,6,6],"right_children":[2,4,6,8,10,12,14,-1,-1,-1,-1,-1,-1,-1,-1],"split_conditions":[2.4538483E-1,-5.1541036E-1,2.4479052E-2,3.4321076E-1,8.546485E0,-5.292765E-1,9.627839E-1,3.8787266E-3,-4.579942E-3,8.147807E-3,-1.5498509E-3,-3.627769E-3,6.0843434E-3,2.6601227E-3,-6.1202957E-3],"split_indices":[589,7,177,321,342,375,679,0,0,0,0,0,0,0,0],"split_type":[0,0,0,0,0,0,0,0,0,0,0,0,0,0,0],"sum_hessian":[3.88E3,2.045E3,1.835E3,1.701E3,3.44E2,1.353E3,4.82E2,1.9E1,1.682E3,1.07E2,2.37E2,1.4E2,1.213E3,3.24E2,1.58E2],"tree_param":{"num_deleted":"0","num_feature":"1024","num_nodes":"15","size_leaf_vector":"1"}},{"base_weights":[4.6235844E-3,1.5158035E-1,-1.0027814E-1,-4.056235E-2,1.9789311E-1,3.9500095E-2,-1.348627E-1,4.740084E-3,-4.352841E-3,6.6324584E-3,-5.713836E-3,-3.509665E-3,3.7929064E-3,5.4526594E-3,-4.2865817E-3],"categories":[],"categories_nodes":[],"categories_segments":[],"categories_sizes":[],"default_left":[0,0,0,0,0,0,0,0,0,0,0,0,0,0,0],"id":44,"left_children":[1,3,5,7,9,11,13,-1,-1,-1,-1,-1,-1,-1,-1],"loss_changes":[6.082513E1,1.4861309E1,1.1292906E1,7.8279915E0,1.3231522E1,6.9734554E0,5.486355E0,0E0,0E0,0E0,0E0,0E0,0E0,0E0,0E0],"parents":[2147483647,0,0,1,1,2,2,3,3,4,4,5,5,6,6],"right_children":[2,4,6,8,10,12,14,-1,-1,-1,-1,-1,-1,-1,-1],"split_conditions":[2.853663E-1,-1.3724282E0,-5.6901443E-1,-1.5766673E-1,3.1286785E-3,6.334125E-2,-2.3921449E-2,4.740084E-3,-4.352841E-3,6.6324584E-3,-5.713836E-3,-3.509665E-3,3.7929064E-3,5.4526594E-3,-4.2865817E-3],"split_indices":[196,601,755,512,871,784,185,0,0,0,0,0,0,0,0],"split_type":[0,0,0,0,0,0,0,0,0,0,0,0,0,0,0],"sum_hessian":[3.886E3,1.613E3,2.273E3,3.14E2,1.299E3,4.5E2,1.823E3,1.03E2,2.11E2,1.238E3,6.1E1,1.57E2,2.93E2,2.9E1,1.794E3],"tree_param":{"num_deleted":"0","num_feature":"1024","num_nodes":"15","size_leaf_vector":"1"}},{"base_weights":[6.6644144E-3,-1.04068E-1,1.3176048E-1,9.4370484E-2,-1.2615643E-1,3.1921202E-1,9.437849E-2,6.0291495E-3,-3.3836667E-3,-4.09847E-3,4.524165E-3,1.3405774E-2,-7.4256695E-4,4.154693E-3,-1.8009946E-3],"categories":[],"categories_nodes":[],"categories_segments":[],"categories_sizes":[],"default_left":[0,0,0,0,0,0,0,0,0,0,0,0,0,0,0],"id":45,"left_children":[1,3,5,7,9,11,13,-1,-1,-1,-1,-1,-1,-1,-1],"loss_changes":[5.442105E1,9.496124E0,1.2017681E1,5.670876E0,6.090145E0,1.3240202E1,1.1011268E1,0E0,0E0,0E0,0E0,0E0,0E0,0E0,0E0],"parents":[2147483647,0,0,1,1,2,2,3,3,4,4,5,5,6,6],"right_children":[2,4,6,8,10,12,14,-1,-1,-1,-1,-1,-1,-1,-1],"split_conditions":[5.927663E-2,3.216027E-2,2.2653975E-1,8.547053E0,-6.775351E-1,1.871561E-2,-1.6753465E0,6.0291495E-3,-3.3836667E-3,-4.09847E-3,4.524165E-3,1.3405774E-2,-7.4256695E-4,4.154693E-3,-1.8009946E-3],"split_indices":[733,812,150,342,1013,85,700,0,0,0,0,0,0,0,0],"split_type":[0,0,0,0,0,0,0,0,0,0,0,0,0,0,0],"sum_hessian":[3.869E3,2.055E3,1.814E3,1.96E2,1.859E3,2.64E2,1.55E3,1.3E2,6.6E1,1.806E3,5.3E1,1.86E2,7.8E1,1.208E3,3.42E2],"tree_param":{"num_deleted":"0","num_feature":"1024","num_nodes":"15","size_leaf_vector":"1"}},{"base_weights":[6.5790047E-3,-1.01572625E-1,1.4057043E-1,-1.3555692E-1,1.721796E-2,-1.2606028E-1,1.6229326E-1,-4.280822E-3,5.403852E-3,-1.9212815E-3,5.1634647E-3,-8.784168E-3,2.2362561E-3,-4.1060154E-3,5.3273374E-3],"categories":[],"categories_nodes":[],"categories_segments":[],"categories_sizes":[],"default_left":[0,0,0,0,0,0,0,0,0,0,0,0,0,0,0],"id":46,"left_children":[1,3,5,7,9,11,13,-1,-1,-1,-1,-1,-1,-1,-1],"loss_changes":[5.735053E1,8.915117E0,1.0848179E1,4.617132E0,6.80044E0,5.6722097E0,8.260155E0,0E0,0E0,0E0,0E0,0E0,0E0,0E0,0E0],"parents":[2147483647,0,0,1,1,2,2,3,3,4,4,5,5,6,6],"right_children":[2,4,6,8,10,12,14,-1,-1,-1,-1,-1,-1,-1,-1],"split_conditions":[2.6514292E-1,4.6523485E-2,-1.612234E-1,1.5699232E-1,-6.653616E-1,1.4045465E-1,-3.686972E0,-4.280822E-3,5.403852E-3,-1.9212815E-3,5.1634647E-3,-8.784168E-3,2.2362561E-3,-4.1060154E-3,5.3273374E-3],"split_indices":[211,883,1022,42,284,113,986,0,0,0,0,0,0,0,0],"split_type":[0,0,0,0,0,0,0,0,0,0,0,0,0,0,0],"sum_hessian":[3.898E3,2.161E3,1.737E3,1.677E3,4.84E2,1.2E2,1.617E3,1.656E3,2.1E1,3.29E2,1.55E2,5.8E1,6.2E1,6.7E1,1.55E3],"tree_param":{"num_deleted":"0","num_feature":"1024","num_nodes":"15","size_leaf_vector":"1"}},{"base_weights":[-6.7294884E-4,-1.1362939E-1,9.892806E-2,-1.325722E-1,2.2740448E-2,1.0349075E-2,1.5459116E-1,-4.164735E-3,3.9506727E-3,-2.5362927E-3,6.0455897E-3,3.469035E-3,-2.2225576E-3,5.6497008E-3,-5.001517E-3],"categories":[],"categories_nodes":[],"categories_segments":[],"categories_sizes":[],"default_left":[0,0,0,0,0,0,0,0,0,0,0,0,0,0,0],"id":47,"left_children":[1,3,5,7,9,11,13,-1,-1,-1,-1,-1,-1,-1,-1],"loss_changes":[4.4371986E1,4.8642483E0,1.0286499E1,3.2366428E0,5.3253098E0,7.733245E0,1.4869303E1,0E0,0E0,0E0,0E0,0E0,0E0,0E0,0E0],"parents":[2147483647,0,0,1,1,2,2,3,3,4,4,5,5,6,6],"right_children":[2,4,6,8,10,12,14,-1,-1,-1,-1,-1,-1,-1,-1],"split_conditions":[4.2107394E-1,-5.1541036E-1,-4.6662566E-1,-5.7565156E-2,-1.2355376E-1,-3.2681536E-2,3.1103992E-3,-4.164735E-3,3.9506727E-3,-2.5362927E-3,6.0455897E-3,3.469035E-3,-2.2225576E-3,5.6497008E-3,-5.001517E-3],"split_indices":[352,7,64,791,332,741,871,0,0,0,0,0,0,0,0],"split_type":[0,0,0,0,0,0,0,0,0,0,0,0,0,0,0],"sum_hessian":[3.884E3,1.818E3,2.066E3,1.597E3,2.21E2,8.11E2,1.255E3,1.574E3,2.3E1,1.48E2,7.3E1,3.56E2,4.55E2,1.147E3,1.08E2],"tree_param":{"num_deleted":"0","num_feature":"1024","num_nodes":"15","size_leaf_vector":"1"}},{"base_weights":[3.313088E-3,8.813244E-2,-1.2346515E-1,1.3552013E-1,-5.1168457E-2,-1.2888002E-1,1.2844287E-1,4.985239E-3,-4.866812E-3,-7.5794156E-3,-3.989379E-5,3.8690497E-3,-3.9767893E-3,7.025818E-3,-2.5282898E-3],"categories":[],"categories_nodes":[],"categories_segments":[],"categories_sizes":[],"default_left":[0,0,0,0,0,0,0,0,0,0,0,0,0,0,0],"id":48,"left_children":[1,3,5,7,9,11,13,-1,-1,-1,-1,-1,-1,-1,-1],"loss_changes":[4.202754E1,1.5661318E1,2.6340752E0,1.682714E1,6.175442E0,1.9825516E0,1.6718838E0,0E0,0E0,0E0,0E0,0E0,0E0,0E0,0E0],"parents":[2147483647,0,0,1,1,2,2,3,3,4,4,5,5,6,6],"right_children":[2,4,6,8,10,12,14,-1,-1,-1,-1,-1,-1,-1,-1],"split_conditions":[2.3813768E-1,-9.3863696E-2,2.9145235E-2,8.829366E-3,-2.6628408E-1,3.9205186E-2,-9.5807746E-2,4.985239E-3,-4.866812E-3,-7.5794156E-3,-3.989379E-5,3.8690497E-3,-3.9767893E-3,7.025818E-3,-2.5282898E-3],"split_indices":[4,145,732,306,244,999,128,0,0,0,0,0,0,0,0],"split_type":[0,0,0,0,0,0,0,0,0,0,0,0,0,0,0],"sum_hessian":[3.848E3,2.311E3,1.537E3,1.725E3,5.86E2,1.519E3,1.8E1,1.576E3,1.49E2,9.2E1,4.94E2,7E0,1.512E3,1E1,8E0],"tree_param":{"num_deleted":"0","num_feature":"1024","num_nodes":"15","size_leaf_vector":"1"}},{"base_weights":[-5.4786475E-3,-1.1759555E-1,8.312814E-2,-1.3252725E-1,1.417422E-2,-7.659303E-2,1.1581811E-1,-7.514854E-3,-3.5228243E-3,5.2578086E-3,-2.7955784E-3,2.6852943E-3,-5.048273E-3,5.3075408E-3,3.285437E-4],"categories":[],"categories_nodes":[],"categories_segments":[],"categories_sizes":[],"default_left":[0,0,0,0,0,0,0,0,0,0,0,0,0,0,0],"id":49,"left_children":[1,3,5,7,9,11,13,-1,-1,-1,-1,-1,-1,-1,-1],"loss_changes":[3.9126514E1,3.4759483E0,1.1758164E1,1.9034863E0,4.0179768E0,6.4215446E0,1.1724983E1,0E0,0E0,0E0,0E0,0E0,0E0,0E0,0E0],"parents":[2147483647,0,0,1,1,2,2,3,3,4,4,5,5,6,6],"right_children":[2,4,6,8,10,12,14,-1,-1,-1,-1,-1,-1,-1,-1],"split_conditions":[4.2106423E-1,-5.1540875E-1,2.3917411E-1,-5.719903E-1,-1.9455843E-1,1.7785753E-1,-4.3004572E-1,-7.514854E-3,-3.5228243E-3,5.2578086E-3,-2.7955784E-3,2.6852943E-3,-5.048273E-3,5.3075408E-3,3.285437E-4],"split_indices":[352,7,788,539,285,452,493,0,0,0,0,0,0,0,0],"split_type":[0,0,0,0,0,0,0,0,0,0,0,0,0,0,0],"sum_hessian":[3.879E3,1.708E3,2.171E3,1.534E3,1.74E2,3.62E2,1.809E3,1.21E2,1.413E3,6.2E1,1.12E2,1.29E2,2.33E2,1.13E3,6.79E2],"tree_param":{"num_deleted":"0","num_feature":"1024","num_nodes":"15","size_leaf_vector":"1"}},{"base_weights":[-2.4509954E-3,-7.047183E-2,1.592053E-1,-9.576039E-2,9.921856E-2,8.719599E-2,3.2298434E-1,-3.8503287E-3,4.899274E-4,-4.0206932E-3,5.517956E-3,-1.6443207E-3,5.0983583E-3,-3.5090125E-3,1.1233923E-2],"categories":[],"categories_nodes":[],"categories_segments":[],"categories_sizes":[],"default_left":[0,0,0,0,0,0,0,0,0,0,0,0,0,0,0],"id":50,"left_children":[1,3,5,7,9,11,13,-1,-1,-1,-1,-1,-1,-1,-1],"loss_changes":[4.328695E1,1.2171731E1,1.2906462E1,8.923536E0,8.129276E0,1.0279505E1,9.127766E0,0E0,0E0,0E0,0E0,0E0,0E0,0E0,0E0],"parents":[2147483647,0,0,1,1,2,2,3,3,4,4,5,5,6,6],"right_children":[2,4,6,8,10,12,14,-1,-1,-1,-1,-1,-1,-1,-1],"split_conditions":[-2.0969576E-1,-3.538857E-2,3.1388047E-1,3.323E-1,-2.835735E-1,2.2288543E-1,1.0036385E-1,-3.8503287E-3,4.899274E-4,-4.0206932E-3,5.517956E-3,-1.6443207E-3,5.0983583E-3,-3.5090125E-3,1.1233923E-2],"split_indices":[647,829,803,474,136,942,455,0,0,0,0,0,0,0,0],"split_type":[0,0,0,0,0,0,0,0,0,0,0,0,0,0,0],"sum_hessian":[3.876E3,2.74E3,1.136E3,2.396E3,3.44E2,8.21E2,3.15E2,1.853E3,5.43E2,8.7E1,2.57E2,3.06E2,5.15E2,2.9E1,2.86E2],"tree_param":{"num_deleted":"0","num_feature":"1024","num_nodes":"15","size_leaf_vector":"1"}},{"base_weights":[-2.0240624E-3,1.017077E-1,-9.253911E-2,1.3480076E-1,-1.68635E-1,6.346772E-2,-1.1807258E-1,4.796249E-3,-2.117053E-3,-7.861658E-3,4.248602E-3,6.552259E-3,-2.6488886E-3,-3.730225E-3,3.845262E-3],"categories":[],"categories_nodes":[],"categories_segments":[],"categories_sizes":[],"default_left":[0,0,0,0,0,0,0,0,0,0,0,0,0,0,0],"id":51,"left_children":[1,3,5,7,9,11,13,-1,-1,-1,-1,-1,-1,-1,-1],"loss_changes":[3.706958E1,1.7143461E1,8.621813E0,8.865986E0,7.3159685E0,8.009109E0,3.2904606E0,0E0,0E0,0E0,0E0,0E0,0E0,0E0,0E0],"parents":[2147483647,0,0,1,1,2,2,3,3,4,4,5,5,6,6],"right_children":[2,4,6,8,10,12,14,-1,-1,-1,-1,-1,-1,-1,-1],"split_conditions":[2.3806727E-1,7.255389E-2,-5.6902045E-1,-9.384103E-2,-2.0209181E-1,8.546689E0,-4.2225367E-1,4.796249E-3,-2.117053E-3,-7.861658E-3,4.248602E-3,6.552259E-3,-2.6488886E-3,-3.730225E-3,3.845262E-3],"split_indices":[4,1016,755,145,653,342,456,0,0,0,0,0,0,0,0],"split_type":[0,0,0,0,0,0,0,0,0,0,0,0,0,0,0],"sum_hessian":[3.888E3,1.81E3,2.078E3,1.626E3,1.84E2,2.86E2,1.792E3,1.455E3,1.71E2,1.45E2,3.9E1,1.35E2,1.51E2,1.762E3,3E1],"tree_param":{"num_deleted":"0","num_feature":"1024","num_nodes":"15","size_leaf_vector":"1"}},{"base_weights":[5.0201104E-3,1.1698592E-1,-7.885847E-2,1.70965E-1,-2.8850306E-2,5.8096737E-2,-1.0735211E-1,6.3577034E-3,-9.664416E-5,-4.0964335E-3,4.334089E-3,1.0319269E-2,-2.2934169E-4,-3.6521016E-3,2.4528326E-3],"categories":[],"categories_nodes":[],"categories_segments":[],"categories_sizes":[],"default_left":[0,0,0,0,0,0,0,0,0,0,0,0,0,0,0],"id":52,"left_children":[1,3,5,7,9,11,13,-1,-1,-1,-1,-1,-1,-1,-1],"loss_changes":[3.6565643E1,1.3270773E1,8.877643E0,8.731594E0,9.476884E0,7.65291E0,5.3420696E0,0E0,0E0,0E0,0E0,0E0,0E0,0E0,0E0],"parents":[2147483647,0,0,1,1,2,2,3,3,4,4,5,5,6,6],"right_children":[2,4,6,8,10,12,14,-1,-1,-1,-1,-1,-1,-1,-1],"split_conditions":[2.8538382E-1,-1.4490858E-1,-5.6902045E-1,-3.5018712E-1,-3.4548137E-1,9.0735835E-1,4.656782E-2,6.3577034E-3,-9.664416E-5,-4.0964335E-3,4.334089E-3,1.0319269E-2,-2.2934169E-4,-3.6521016E-3,2.4528326E-3],"split_indices":[196,459,755,253,919,103,883,0,0,0,0,0,0,0,0],"split_type":[0,0,0,0,0,0,0,0,0,0,0,0,0,0,0],"sum_hessian":[3.834E3,1.637E3,2.197E3,1.191E3,4.46E2,3.73E2,1.824E3,9.59E2,2.32E2,2.79E2,1.67E2,4.6E1,3.27E2,1.705E3,1.19E2],"tree_param":{"num_deleted":"0","num_feature":"1024","num_nodes":"15","size_leaf_vector":"1"}},{"base_weights":[-4.6041232E-4,1.08328134E-1,-8.17032E-2,9.588442E-3,2.2002414E-1,5.3004682E-2,-1.09094605E-1,1.5922697E-3,-6.722381E-3,8.382545E-3,-2.371016E-4,-1.6196868E-3,6.1890837E-3,-3.5473786E-3,4.783938E-3],"categories":[],"categories_nodes":[],"categories_segments":[],"categories_sizes":[],"default_left":[0,0,0,0,0,0,0,0,0,0,0,0,0,0,0],"id":53,"left_children":[1,3,5,7,9,11,13,-1,-1,-1,-1,-1,-1,-1,-1],"loss_changes":[3.433711E1,1.8255594E1,8.379676E0,9.634302E0,1.059845E1,6.8293443E0,5.1320457E0,0E0,0E0,0E0,0E0,0E0,0E0,0E0,0E0],"parents":[2147483647,0,0,1,1,2,2,3,3,4,4,5,5,6,6],"right_children":[2,4,6,8,10,12,14,-1,-1,-1,-1,-1,-1,-1,-1],"split_conditions":[-1.3701048E0,3.361022E-2,1.0951887E-1,-2.3784729E-2,-3.501856E-1,-4.828223E-1,1.4887464E-1,1.5922697E-3,-6.722381E-3,8.382545E-3,-2.371016E-4,-1.6196868E-3,6.1890837E-3,-3.5473786E-3,4.783938E-3],"split_indices":[601,906,443,185,253,739,361,0,0,0,0,0,0,0,0],"split_type":[0,0,0,0,0,0,0,0,0,0,0,0,0,0,0],"sum_hessian":[3.825E3,1.631E3,2.194E3,8.83E2,7.48E2,3.66E2,1.828E3,7.64E2,1.19E2,5.88E2,1.6E2,2.27E2,1.39E2,1.784E3,4.4E1],"tree_param":{"num_deleted":"0","num_feature":"1024","num_nodes":"15","size_leaf_vector":"1"}},{"base_weights":[1.0212172E-3,-8.850109E-2,9.3892895E-2,-1.0208317E-1,1.6024785E-1,-1.4679693E-1,1.1886948E-1,1.0161513E-3,-3.4511527E-3,-3.6594535E-3,7.956958E-3,-7.4845827E-3,2.570043E-4,5.8640623E-3,2.1800026E-4],"categories":[],"categories_nodes":[],"categories_segments":[],"categories_sizes":[],"default_left":[0,0,0,0,0,0,0,0,0,0,0,0,0,0,0],"id":54,"left_children":[1,3,5,7,9,11,13,-1,-1,-1,-1,-1,-1,-1,-1],"loss_changes":[3.2898705E1,7.2984953E0,1.2198038E1,3.5145035E0,4.4076405E0,3.1911368E0,1.5139866E1,0E0,0E0,0E0,0E0,0E0,0E0,0E0,0E0],"parents":[2147483647,0,0,1,1,2,2,3,3,4,4,5,5,6,6],"right_children":[2,4,6,8,10,12,14,-1,-1,-1,-1,-1,-1,-1,-1],"split_conditions":[2.51969E-1,1.5698582E-1,3.2403022E-2,3.2235774E-1,3.229023E-1,1.3430084E0,-4.3004912E-1,1.0161513E-3,-3.4511527E-3,-3.6594535E-3,7.956958E-3,-7.4845827E-3,2.570043E-4,5.8640623E-3,2.1800026E-4],"split_indices":[752,42,714,1004,1017,687,493,0,0,0,0,0,0,0,0],"split_type":[0,0,0,0,0,0,0,0,0,0,0,0,0,0,0],"sum_hessian":[3.897E3,1.985E3,1.912E3,1.899E3,8.6E1,1.66E2,1.746E3,1.61E2,1.738E3,2.2E1,6.4E1,8.9E1,7.7E1,1.022E3,7.24E2],"tree_param":{"num_deleted":"0","num_feature":"1024","num_nodes":"15","size_leaf_vector":"1"}},{"base_weights":[3.1931316E-3,-8.170744E-2,1.073413E-1,-1.0682457E-1,8.230757E-2,1.2805223E-1,-1.3810183E-1,-3.506331E-3,3.7247252E-3,-3.3244464E-4,7.7701956E-3,4.861348E-3,-1.1993953E-3,-9.430658E-3,2.9986284E-3],"categories":[],"categories_nodes":[],"categories_segments":[],"categories_sizes":[],"default_left":[0,0,0,0,0,0,0,0,0,0,0,0,0,0,0],"id":55,"left_children":[1,3,5,7,9,11,13,-1,-1,-1,-1,-1,-1,-1,-1],"loss_changes":[3.456216E1,9.137363E0,9.451818E0,4.803196E0,5.086136E0,9.527536E0,7.2783256E0,0E0,0E0,0E0,0E0,0E0,0E0,0E0,0E0],"parents":[2147483647,0,0,1,1,2,2,3,3,4,4,5,5,6,6],"right_children":[2,4,6,8,10,12,14,-1,-1,-1,-1,-1,-1,-1,-1],"split_conditions":[-2.5920737E-1,-5.154019E-1,5.9132284E-1,1.5698582E-1,-3.282648E-1,-3.501856E-1,-1.911278E-1,-3.506331E-3,3.7247252E-3,-3.3244464E-4,7.7701956E-3,4.861348E-3,-1.1993953E-3,-9.430658E-3,2.9986284E-3],"split_indices":[542,7,900,42,410,253,254,0,0,0,0,0,0,0,0],"split_type":[0,0,0,0,0,0,0,0,0,0,0,0,0,0,0],"sum_hessian":[3.849E3,2.124E3,1.725E3,1.851E3,2.73E2,1.604E3,1.21E2,1.788E3,6.3E1,1.97E2,7.6E1,1.335E3,2.69E2,6.4E1,5.7E1],"tree_param":{"num_deleted":"0","num_feature":"1024","num_nodes":"15","size_leaf_vector":"1"}},{"base_weights":[2.8837817E-3,-7.38336E-2,9.732298E-2,-4.169515E-3,-1.13258384E-1,1.3266921E-1,-8.479128E-2,-1.0288814E-3,7.538622E-3,-8.414726E-3,-2.8821682E-3,1.6047616E-3,6.924788E-3,6.8360874E-3,-5.223949E-3],"categories":[],"categories_nodes":[],"categories_segments":[],"categories_sizes":[],"default_left":[0,0,0,0,0,0,0,0,0,0,0,0,0,0,0],"id":56,"left_children":[1,3,5,7,9,11,13,-1,-1,-1,-1,-1,-1,-1,-1],"loss_changes":[2.861647E1,5.9731855E0,1.173106E1,6.561594E0,3.1894188E0,1.1240648E1,9.737948E0,0E0,0E0,0E0,0E0,0E0,0E0,0E0,0E0],"parents":[2147483647,0,0,1,1,2,2,3,3,4,4,5,5,6,6],"right_children":[2,4,6,8,10,12,14,-1,-1,-1,-1,-1,-1,-1,-1],"split_conditions":[2.6514292E-1,-3.3375554E0,-2.3783332E-2,7.853659E-1,-1.4670874E-1,2.4938935E-1,-2.658712E-1,-1.0288814E-3,7.538622E-3,-8.414726E-3,-2.8821682E-3,1.6047616E-3,6.924788E-3,6.8360874E-3,-5.223949E-3],"split_indices":[211,322,185,41,414,353,297,0,0,0,0,0,0,0,0],"split_type":[0,0,0,0,0,0,0,0,0,0,0,0,0,0,0],"sum_hessian":[3.89E3,2.15E3,1.74E3,7.89E2,1.361E3,1.464E3,2.76E2,7.29E2,6E1,8.4E1,1.277E3,8.36E2,6.28E2,5.1E1,2.25E2],"tree_param":{"num_deleted":"0","num_feature":"1024","num_nodes":"15","size_leaf_vector":"1"}},{"base_weights":[-3.7951546E-3,-7.8057274E-2,9.263005E-2,-1.1041318E-1,1.4321858E-3,-7.674465E-2,1.3575396E-1,-6.5908353E-3,-2.7960972E-3,3.4852582E-3,-2.6289355E-3,4.161518E-3,-4.539114E-3,-3.2431884E-3,4.965982E-3],"categories":[],"categories_nodes":[],"categories_segments":[],"categories_sizes":[],"default_left":[0,0,0,0,0,0,0,0,0,0,0,0,0,0,0],"id":57,"left_children":[1,3,5,7,9,11,13,-1,-1,-1,-1,-1,-1,-1,-1],"loss_changes":[2.8201086E1,5.7247686E0,1.2831776E1,2.3591385E0,7.1830783E0,6.525382E0,1.0536432E1,0E0,0E0,0E0,0E0,0E0,0E0,0E0,0E0],"parents":[2147483647,0,0,1,1,2,2,3,3,4,4,5,5,6,6],"right_children":[2,4,6,8,10,12,14,-1,-1,-1,-1,-1,-1,-1,-1],"split_conditions":[2.6514876E-1,1.4510434E-2,-4.3364567E-1,-1.9303046E-1,-3.2655414E-2,-4.3006122E-1,4.164929E-1,-6.5908353E-3,-2.7960972E-3,3.4852582E-3,-2.6289355E-3,4.161518E-3,-4.539114E-3,-3.2431884E-3,4.965982E-3],"split_indices":[211,84,10,255,741,493,935,0,0,0,0,0,0,0,0],"split_type":[0,0,0,0,0,0,0,0,0,0,0,0,0,0,0],"sum_hessian":[3.878E3,2.194E3,1.684E3,1.551E3,6.43E2,3.37E2,1.347E3,1.63E2,1.388E3,2.77E2,3.66E2,8E1,2.57E2,1.38E2,1.209E3],"tree_param":{"num_deleted":"0","num_feature":"1024","num_nodes":"15","size_leaf_vector":"1"}},{"base_weights":[4.9042837E-3,1.0166112E-1,-6.832665E-2,-1.6230696E-1,1.2018071E-1,1.6329171E-2,-1.064508E-1,5.9101037E-3,-8.207648E-3,4.1266014E-3,-5.5388617E-3,7.1873665E-3,-1.883972E-3,-6.6112103E-3,-2.50231E-3],"categories":[],"categories_nodes":[],"categories_segments":[],"categories_sizes":[],"default_left":[0,0,0,0,0,0,0,0,0,0,0,0,0,0,0],"id":58,"left_children":[1,3,5,7,9,11,13,-1,-1,-1,-1,-1,-1,-1,-1],"loss_changes":[2.8168137E1,8.954435E0,7.3590517E0,6.6150017E0,9.324476E0,1.3329406E1,3.556425E0,0E0,0E0,0E0,0E0,0E0,0E0,0E0,0E0],"parents":[2147483647,0,0,1,1,2,2,3,3,4,4,5,5,6,6],"right_children":[2,4,6,8,10,12,14,-1,-1,-1,-1,-1,-1,-1,-1],"split_conditions":[-1.3701048E0,-1.5156832E1,-3.3384123E0,6.31496E-1,3.1286785E-3,8.546416E0,-3.6370292E0,5.9101037E-3,-8.207648E-3,4.1266014E-3,-5.5388617E-3,7.1873665E-3,-1.883972E-3,-6.6112103E-3,-2.50231E-3],"split_indices":[601,658,322,212,871,342,460,0,0,0,0,0,0,0,0],"split_type":[0,0,0,0,0,0,0,0,0,0,0,0,0,0,0],"sum_hessian":[3.916E3,1.682E3,2.234E3,9.5E1,1.587E3,6.99E2,1.535E3,1.7E1,7.8E1,1.517E3,7E1,1.67E2,5.32E2,2.15E2,1.32E3],"tree_param":{"num_deleted":"0","num_feature":"1024","num_nodes":"15","size_leaf_vector":"1"}},{"base_weights":[-1.0762734E-3,7.892809E-2,-7.342892E-2,1.3087152E-1,-2.2946361E-2,-9.161702E-2,9.068496E-2,4.767916E-3,-5.047574E-3,2.5721125E-3,-4.7175377E-3,3.9950917E-3,-2.9572635E-3,6.657857E-3,-2.9807093E-3],"categories":[],"categories_nodes":[],"categories_segments":[],"categories_sizes":[],"default_left":[0,0,0,0,0,0,0,0,0,0,0,0,0,0,0],"id":59,"left_children":[1,3,5,7,9,11,13,-1,-1,-1,-1,-1,-1,-1,-1],"loss_changes":[2.2754915E1,9.969711E0,6.41012E0,1.1218077E1,9.979915E0,3.3234968E0,6.1736407E0,0E0,0E0,0E0,0E0,0E0,0E0,0E0,0E0],"parents":[2147483647,0,0,1,1,2,2,3,3,4,4,5,5,6,6],"right_children":[2,4,6,8,10,12,14,-1,-1,-1,-1,-1,-1,-1,-1],"split_conditions":[6.7419094E-1,-5.4845244E-1,-5.153938E-1,-5.6892717E-1,-5.700703E-2,-1.24725424E-1,2.53245E-1,4.767916E-3,-5.047574E-3,2.5721125E-3,-4.7175377E-3,3.9950917E-3,-2.9572635E-3,6.657857E-3,-2.9807093E-3],"split_indices":[337,422,7,755,696,59,77,0,0,0,0,0,0,0,0],"split_type":[0,0,0,0,0,0,0,0,0,0,0,0,0,0,0],"sum_hessian":[3.871E3,1.837E3,2.034E3,1.211E3,6.26E2,1.843E3,1.91E2,1.12E3,9.1E1,3.52E2,2.74E2,3.9E1,1.804E3,1.1E2,8.1E1],"tree_param":{"num_deleted":"0","num_feature":"1024","num_nodes":"15","size_leaf_vector":"1"}},{"base_weights":[1.7236412E-3,9.283089E-2,-6.77494E-2,1.3819326E-1,-3.86701E-2,-7.6265834E-2,1.8728648E-1,7.7953325E-3,1.9073609E-3,3.4724295E-3,-5.0438074E-3,-2.861001E-3,1.0657966E-3,1.0057883E-2,-2.4198312E-3],"categories":[],"categories_nodes":[],"categories_segments":[],"categories_sizes":[],"default_left":[0,0,0,0,0,0,0,0,0,0,0,0,0,0,0],"id":60,"left_children":[1,3,5,7,9,11,13,-1,-1,-1,-1,-1,-1,-1,-1],"loss_changes":[2.4962332E1,1.03369465E1,5.2894306E0,1.1077496E1,9.799398E0,4.7716103E0,4.0229197E0,0E0,0E0,0E0,0E0,0E0,0E0,0E0,0E0],"parents":[2147483647,0,0,1,1,2,2,3,3,4,4,5,5,6,6],"right_children":[2,4,6,8,10,12,14,-1,-1,-1,-1,-1,-1,-1,-1],"split_conditions":[2.8538382E-1,3.979679E-2,6.409611E-1,-6.2469696E-3,2.4904698E-1,-5.154019E-1,1.2276712E-1,7.7953325E-3,1.9073609E-3,3.4724295E-3,-5.0438074E-3,-2.861001E-3,1.0657966E-3,1.0057883E-2,-2.4198312E-3],"split_indices":[196,745,22,412,100,7,559,0,0,0,0,0,0,0,0],"split_type":[0,0,0,0,0,0,0,0,0,0,0,0,0,0,0],"sum_hessian":[3.884E3,1.676E3,2.208E3,1.245E3,4.31E2,2.157E3,5.1E1,4.45E2,8E2,1.98E2,2.33E2,1.846E3,3.11E2,2.8E1,2.3E1],"tree_param":{"num_deleted":"0","num_feature":"1024","num_nodes":"15","size_leaf_vector":"1"}},{"base_weights":[3.794089E-3,9.540033E-2,-6.386337E-2,-4.0479694E-2,1.5033309E-1,-8.56515E-2,6.860163E-2,4.0208595E-3,-4.262417E-3,-3.755997E-3,5.5394694E-3,2.6886493E-3,-2.9123866E-3,-3.013302E-3,7.124427E-3],"categories":[],"categories_nodes":[],"categories_segments":[],"categories_sizes":[],"default_left":[0,0,0,0,0,0,0,0,0,0,0,0,0,0,0],"id":61,"left_children":[1,3,5,7,9,11,13,-1,-1,-1,-1,-1,-1,-1,-1],"loss_changes":[2.4503124E1,1.271506E1,6.742301E0,9.560499E0,1.2058649E1,4.2009745E0,1.0364895E1,0E0,0E0,0E0,0E0,0E0,0E0,0E0,0E0],"parents":[2147483647,0,0,1,1,2,2,3,3,4,4,5,5,6,6],"right_children":[2,4,6,8,10,12,14,-1,-1,-1,-1,-1,-1,-1,-1],"split_conditions":[-3.474279E-1,2.745181E-2,-4.828119E-1,1.0181886E-1,-4.8382273E-1,2.3802827E-1,1.3548718E-1,4.0208595E-3,-4.262417E-3,-3.755997E-3,5.5394694E-3,2.6886493E-3,-2.9123866E-3,-3.013302E-3,7.124427E-3],"split_indices":[16,216,739,990,739,4,662,0,0,0,0,0,0,0,0],"split_type":[0,0,0,0,0,0,0,0,0,0,0,0,0,0,0],"sum_hessian":[3.894E3,1.649E3,2.245E3,4.77E2,1.172E3,1.937E3,3.08E2,1.72E2,3.05E2,1.21E2,1.051E3,1.06E2,1.831E3,1.6E2,1.48E2],"tree_param":{"num_deleted":"0","num_feature":"1024","num_nodes":"15","size_leaf_vector":"1"}},{"base_weights":[-2.7645696E-3,6.199234E-2,-8.838281E-2,2.6608558E-2,2.0300585E-1,1.452499E-1,-9.784324E-2,-9.606673E-4,3.8049435E-3,1.6184421E-3,1.0951943E-2,-4.260704E-3,8.438356E-3,-2.4164813E-3,-7.5918217E-3],"categories":[],"categories_nodes":[],"categories_segments":[],"categories_sizes":[],"default_left":[0,0,0,0,0,0,0,0,0,0,0,0,0,0,0],"id":62,"left_children":[1,3,5,7,9,11,13,-1,-1,-1,-1,-1,-1,-1,-1],"loss_changes":[2.1815144E1,1.1019624E1,4.1705437E0,1.0851689E1,1.0158646E1,4.246483E0,3.8068552E0,0E0,0E0,0E0,0E0,0E0,0E0,0E0,0E0],"parents":[2147483647,0,0,1,1,2,2,3,3,4,4,5,5,6,6],"right_children":[2,4,6,8,10,12,14,-1,-1,-1,-1,-1,-1,-1,-1],"split_conditions":[2.649245E-1,-3.5343006E-2,3.4318057E-1,2.8291672E-1,1.7720504E-1,3.952774E-2,4.5561258E-2,-9.606673E-4,3.8049435E-3,1.6184421E-3,1.0951943E-2,-4.260704E-3,8.438356E-3,-2.4164813E-3,-7.5918217E-3],"split_indices":[628,829,321,908,1005,187,490,0,0,0,0,0,0,0,0],"split_type":[0,0,0,0,0,0,0,0,0,0,0,0,0,0,0],"sum_hessian":[3.875E3,2.211E3,1.664E3,1.796E3,4.15E2,4.8E1,1.616E3,1.146E3,6.5E2,2.37E2,1.78E2,1.5E1,3.3E1,1.495E3,1.21E2],"tree_param":{"num_deleted":"0","num_feature":"1024","num_nodes":"15","size_leaf_vector":"1"}},{"base_weights":[-9.085845E-4,-5.540826E-2,9.941767E-2,-6.697333E-2,1.4265163E-1,-2.4095446E-1,1.1883293E-1,1.7805581E-3,-2.4710186E-3,1.03748E-2,-2.3276631E-3,2.5819812E-3,-9.2805335E-3,4.2384644E-3,-4.669164E-3],"categories":[],"categories_nodes":[],"categories_segments":[],"categories_sizes":[],"default_left":[0,0,0,0,0,0,0,0,0,0,0,0,0,0,0],"id":63,"left_children":[1,3,5,7,9,11,13,-1,-1,-1,-1,-1,-1,-1,-1],"loss_changes":[2.1325445E1,6.0748997E0,9.932353E0,4.8293657E0,7.472325E0,2.6775756E0,8.786919E0,0E0,0E0,0E0,0E0,0E0,0E0,0E0,0E0],"parents":[2147483647,0,0,1,1,2,2,3,3,4,4,5,5,6,6],"right_children":[2,4,6,8,10,12,14,-1,-1,-1,-1,-1,-1,-1,-1],"split_conditions":[-2.0971055E-1,1.5698351E-1,-2.6074204E-1,2.3019137E-2,5.161589E-1,2.469121E-1,1.9391961E-1,1.7805581E-3,-2.4710186E-3,1.03748E-2,-2.3276631E-3,2.5819812E-3,-9.2805335E-3,4.2384644E-3,-4.669164E-3],"split_indices":[647,42,596,425,336,418,305,0,0,0,0,0,0,0,0],"split_type":[0,0,0,0,0,0,0,0,0,0,0,0,0,0,0],"sum_hessian":[3.84E3,2.497E3,1.343E3,2.378E3,1.19E2,5.4E1,1.289E3,2.49E2,2.129E3,5.3E1,6.6E1,8E0,4.6E1,1.205E3,8.4E1],"tree_param":{"num_deleted":"0","num_feature":"1024","num_nodes":"15","size_leaf_vector":"1"}},{"base_weights":[-1.2607916E-3,7.534902E-2,-6.896743E-2,1.0233334E-1,-1.4480373E-1,-8.456986E-2,8.7641634E-2,5.080363E-3,4.9860956E-4,3.8960543E-3,-1.050423E-2,-2.7189571E-3,6.3877464E-3,-1.5712491E-3,8.771723E-3],"categories":[],"categories_nodes":[],"categories_segments":[],"categories_sizes":[],"default_left":[0,0,0,0,0,0,0,0,0,0,0,0,0,0,0],"id":64,"left_children":[1,3,5,7,9,11,13,-1,-1,-1,-1,-1,-1,-1,-1],"loss_changes":[2.0307365E1,1.1357562E1,5.2999096E0,9.415821E0,1.3377464E1,4.0144663E0,6.27908E0,0E0,0E0,0E0,0E0,0E0,0E0,0E0,0E0],"parents":[2147483647,0,0,1,1,2,2,3,3,4,4,5,5,6,6],"right_children":[2,4,6,8,10,12,14,-1,-1,-1,-1,-1,-1,-1,-1],"split_conditions":[2.3806727E-1,7.255389E-2,-3.4936743E-3,3.667477E-2,-8.029299E-2,-4.4110292E-1,1.4897008E-1,5.080363E-3,4.9860956E-4,3.8960543E-3,-1.050423E-2,-2.7189571E-3,6.3877464E-3,-1.5712491E-3,8.771723E-3],"split_indices":[4,1016,174,430,831,697,916,0,0,0,0,0,0,0,0],"split_type":[0,0,0,0,0,0,0,0,0,0,0,0,0,0,0],"sum_hessian":[3.855E3,1.807E3,2.048E3,1.624E3,1.83E2,1.875E3,1.73E2,8.95E2,7.29E2,8.3E1,1E2,1.858E3,1.7E1,1.16E2,5.7E1],"tree_param":{"num_deleted":"0","num_feature":"1024","num_nodes":"15","size_leaf_vector":"1"}},{"base_weights":[3.7938117E-3,-6.397311E-2,8.040208E-2,2.3438841E-1,-7.220206E-2,-1.5582561E-1,1.07059136E-1,9.940277E-3,-2.096014E-3,-9.191225E-3,-1.7711407E-3,5.650013E-3,-6.9871005E-3,4.317317E-3,-1.8289348E-3],"categories":[],"categories_nodes":[],"categories_segments":[],"categories_sizes":[],"default_left":[0,0,0,0,0,0,0,0,0,0,0,0,0,0,0],"id":65,"left_children":[1,3,5,7,9,11,13,-1,-1,-1,-1,-1,-1,-1,-1],"loss_changes":[2.0380413E1,5.624344E0,1.2099799E1,2.5529256E0,5.7798824E0,6.5947847E0,1.06222725E1,0E0,0E0,0E0,0E0,0E0,0E0,0E0,0E0],"parents":[2147483647,0,0,1,1,2,2,3,3,4,4,5,5,6,6],"right_children":[2,4,6,8,10,12,14,-1,-1,-1,-1,-1,-1,-1,-1],"split_conditions":[-1.6029741E-1,2.1053253E-1,2.6246047E-1,-1.4799845E-1,8.544642E0,-6.306789E-2,-1.707942E-1,9.940277E-3,-2.096014E-3,-9.191225E-3,-1.7711407E-3,5.650013E-3,-6.9871005E-3,4.317317E-3,-1.8289348E-3],"split_indices":[505,547,68,335,342,236,143,0,0,0,0,0,0,0,0],"split_type":[0,0,0,0,0,0,0,0,0,0,0,0,0,0,0],"sum_hessian":[3.866E3,2.054E3,1.812E3,3.3E1,2.021E3,1.69E2,1.643E3,2.3E1,1E1,7.2E1,1.949E3,2.3E1,1.46E2,1.351E3,2.92E2],"tree_param":{"num_deleted":"0","num_feature":"1024","num_nodes":"15","size_leaf_vector":"1"}},{"base_weights":[7.91894E-5,-4.2664725E-2,9.907643E-2,-6.881554E-2,7.854845E-2,2.775386E-1,4.164257E-2,4.8313758E-4,-2.934279E-3,-3.6126715E-3,4.426322E-3,1.3280637E-2,-1.997194E-5,-4.6720686E-3,2.7917337E-3],"categories":[],"categories_nodes":[],"categories_segments":[],"categories_sizes":[],"default_left":[0,0,0,0,0,0,0,0,0,0,0,0,0,0,0],"id":66,"left_children":[1,3,5,7,9,11,13,-1,-1,-1,-1,-1,-1,-1,-1],"loss_changes":[1.655784E1,8.825286E0,1.1748007E1,5.6215715E0,7.383358E0,1.2965403E1,9.852344E0,0E0,0E0,0E0,0E0,0E0,0E0,0E0,0E0],"parents":[2147483647,0,0,1,1,2,2,3,3,4,4,5,5,6,6],"right_children":[2,4,6,8,10,12,14,-1,-1,-1,-1,-1,-1,-1,-1],"split_conditions":[-2.0969684E-1,8.963816E-2,-4.4380558E-1,-4.395033E-1,-3.68693E0,-1.7501629E1,3.2339585E-1,4.8313758E-4,-2.934279E-3,-3.6126715E-3,4.426322E-3,1.3280637E-2,-1.997194E-5,-4.6720686E-3,2.7917337E-3],"split_indices":[647,595,756,93,986,760,491,0,0,0,0,0,0,0,0],"split_type":[0,0,0,0,0,0,0,0,0,0,0,0,0,0,0],"sum_hessian":[3.853E3,2.703E3,1.15E3,2.234E3,4.69E2,2.52E2,8.98E2,5.72E2,1.662E3,1.15E2,3.54E2,1.47E2,1.05E2,1.73E2,7.25E2],"tree_param":{"num_deleted":"0","num_feature":"1024","num_nodes":"15","size_leaf_vector":"1"}},{"base_weights":[2.1320856E-3,2.413703E-1,-2.1078497E-2,3.3452842E-1,-5.8558392E-3,-7.5478874E-2,4.2441197E-2,-3.3523152E-3,1.1609924E-2,3.9917226E-3,-4.550629E-3,-1.7971845E-3,-8.49319E-3,2.909457E-3,-1.9139025E-3],"categories":[],"categories_nodes":[],"categories_segments":[],"categories_sizes":[],"default_left":[0,0,0,0,0,0,0,0,0,0,0,0,0,0,0],"id":67,"left_children":[1,3,5,7,9,11,13,-1,-1,-1,-1,-1,-1,-1,-1],"loss_changes":[2.1914286E1,8.096628E0,1.2535886E1,7.244875E0,3.137741E0,5.7961884E0,9.920026E0,0E0,0E0,0E0,0E0,0E0,0E0,0E0,0E0],"parents":[2147483647,0,0,1,1,2,2,3,3,4,4,5,5,6,6],"right_children":[2,4,6,8,10,12,14,-1,-1,-1,-1,-1,-1,-1,-1],"split_conditions":[2.2653975E-1,-6.1872404E-2,3.1118432E-1,7.997108E-2,3.111752E-1,-6.763493E-1,-9.385584E-2,-3.3523152E-3,1.1609924E-2,3.9917226E-3,-4.550629E-3,-1.7971845E-3,-8.49319E-3,2.909457E-3,-1.9139025E-3],"split_indices":[150,950,436,339,436,766,145,0,0,0,0,0,0,0,0],"split_type":[0,0,0,0,0,0,0,0,0,0,0,0,0,0,0],"sum_hessian":[3.889E3,3.19E2,3.57E3,2.24E2,9.5E1,1.92E3,1.65E3,2E1,2.04E2,5E1,4.5E1,1.822E3,9.8E1,1.092E3,5.58E2],"tree_param":{"num_deleted":"0","num_feature":"1024","num_nodes":"15","size_leaf_vector":"1"}},{"base_weights":[1.6389032E-3,-4.6303388E-2,9.216454E-2,1.8361217E-1,-5.786469E-2,2.687926E-1,4.5895547E-2,9.610787E-3,-2.019367E-3,-1.3203826E-3,-7.6455427E-3,9.95268E-3,-4.248961E-3,3.287688E-4,1.2096994E-2],"categories":[],"categories_nodes":[],"categories_segments":[],"categories_sizes":[],"default_left":[0,0,0,0,0,0,0,0,0,0,0,0,0,0,0],"id":68,"left_children":[1,3,5,7,9,11,13,-1,-1,-1,-1,-1,-1,-1,-1],"loss_changes":[1.7162552E1,7.192646E0,1.0817928E1,5.1419616E0,6.444188E0,8.59362E0,1.3862168E1,0E0,0E0,0E0,0E0,0E0,0E0,0E0,0E0],"parents":[2147483647,0,0,1,1,2,2,3,3,4,4,5,5,6,6],"right_children":[2,4,6,8,10,12,14,-1,-1,-1,-1,-1,-1,-1,-1],"split_conditions":[-2.0970988E-1,4.1720916E-2,-4.438166E-1,4.6724924E-1,-1.6659407E-2,-3.6133835E-1,-3.6132637E-1,9.610787E-3,-2.019367E-3,-1.3203826E-3,-7.6455427E-3,9.95268E-3,-4.248961E-3,3.287688E-4,1.2096994E-2],"split_indices":[647,267,756,470,904,975,975,0,0,0,0,0,0,0,0],"split_type":[0,0,0,0,0,0,0,0,0,0,0,0,0,0,0],"sum_hessian":[3.895E3,2.556E3,1.339E3,1.01E2,2.455E3,2.48E2,1.091E3,6E1,4.1E1,2.328E3,1.27E2,2.2E2,2.8E1,1.022E3,6.9E1],"tree_param":{"num_deleted":"0","num_feature":"1024","num_nodes":"15","size_leaf_vector":"1"}},{"base_weights":[1.1815961E-2,-5.0182767E-2,9.297763E-2,-5.997942E-2,2.2058655E-1,-6.4134434E-2,1.352069E-1,-7.5479853E-3,-1.4148725E-3,1.0220627E-2,-4.2858827E-3,5.7266895E-3,-3.931878E-3,6.2631997E-3,-7.1488525E-4],"categories":[],"categories_nodes":[],"categories_segments":[],"categories_sizes":[],"default_left":[0,0,0,0,0,0,0,0,0,0,0,0,0,0,0],"id":69,"left_children":[1,3,5,7,9,11,13,-1,-1,-1,-1,-1,-1,-1,-1],"loss_changes":[1.9688986E1,6.29107E0,1.1492736E1,4.9686155E0,5.1268005E0,7.219439E0,1.5873701E1,0E0,0E0,0E0,0E0,0E0,0E0,0E0,0E0],"parents":[2147483647,0,0,1,1,2,2,3,3,4,4,5,5,6,6],"right_children":[2,4,6,8,10,12,14,-1,-1,-1,-1,-1,-1,-1,-1],"split_conditions":[-2.22875E-2,-3.8926876E-1,-5.291891E-1,-3.4548137E-1,-3.6266366E-1,4.893713E-1,1.4965522E-1,-7.5479853E-3,-1.4148725E-3,1.0220627E-2,-4.2858827E-3,5.7266895E-3,-3.931878E-3,6.2631997E-3,-7.1488525E-4],"split_indices":[40,816,375,919,434,738,916,0,0,0,0,0,0,0,0],"split_type":[0,0,0,0,0,0,0,0,0,0,0,0,0,0,0],"sum_hessian":[3.855E3,2.192E3,1.663E3,2.138E3,5.4E1,3.49E2,1.314E3,9.9E1,2.039E3,4.2E1,1.2E1,6.1E1,2.88E2,8.92E2,4.22E2],"tree_param":{"num_deleted":"0","num_feature":"1024","num_nodes":"15","size_leaf_vector":"1"}},{"base_weights":[1.2473576E-3,9.804439E-2,-4.6427637E-2,-5.1333543E-2,1.6749243E-1,-6.781121E-2,8.891343E-2,5.671793E-3,-5.528421E-3,-2.617614E-3,6.048982E-3,2.633386E-3,-2.3252338E-3,6.9253817E-3,-4.4597876E-3],"categories":[],"categories_nodes":[],"categories_segments":[],"categories_sizes":[],"default_left":[0,0,0,0,0,0,0,0,0,0,0,0,0,0,0],"id":70,"left_children":[1,3,5,7,9,11,13,-1,-1,-1,-1,-1,-1,-1,-1],"loss_changes":[1.8069664E1,1.3661156E1,7.774937E0,1.4883715E1,8.259529E0,3.648466E0,1.3539408E1,0E0,0E0,0E0,0E0,0E0,0E0,0E0,0E0],"parents":[2147483647,0,0,1,1,2,2,3,3,4,4,5,5,6,6],"right_children":[2,4,6,8,10,12,14,-1,-1,-1,-1,-1,-1,-1,-1],"split_conditions":[1.6157365E-1,4.3592295E-1,-6.775409E-1,2.0740269E-1,-4.6668273E-1,3.214355E-2,3.66613E-1,5.671793E-3,-5.528421E-3,-2.617614E-3,6.048982E-3,2.633386E-3,-2.3252338E-3,6.9253817E-3,-4.4597876E-3],"split_indices":[259,573,1013,902,64,812,57,0,0,0,0,0,0,0,0],"split_type":[0,0,0,0,0,0,0,0,0,0,0,0,0,0,0],"sum_hessian":[3.856E3,1.262E3,2.594E3,4.03E2,8.59E2,2.253E3,3.41E2,1.39E2,2.64E2,9.6E1,7.63E2,1.18E2,2.135E3,2.14E2,1.27E2],"tree_param":{"num_deleted":"0","num_feature":"1024","num_nodes":"15","size_leaf_vector":"1"}},{"base_weights":[5.2599027E-3,8.757837E-2,-4.9455E-2,1.5489133E-1,1.3887788E-3,1.1405798E-1,-6.485561E-2,-2.6712734E-3,6.0420167E-3,-2.970001E-3,3.8454495E-3,-3.990071E-3,5.5163004E-3,-2.2740825E-3,2.7884045E-3],"categories":[],"categories_nodes":[],"categories_segments":[],"categories_sizes":[],"default_left":[0,0,0,0,0,0,0,0,0,0,0,0,0,0,0],"id":71,"left_children":[1,3,5,7,9,11,13,-1,-1,-1,-1,-1,-1,-1,-1],"loss_changes":[1.785336E1,9.171799E0,6.2227907E0,1.0612507E1,9.596197E0,4.4595575E0,4.006652E0,0E0,0E0,0E0,0E0,0E0,0E0,0E0,0E0],"parents":[2147483647,0,0,1,1,2,2,3,3,4,4,5,5,6,6],"right_children":[2,4,6,8,10,12,14,-1,-1,-1,-1,-1,-1,-1,-1],"split_conditions":[-7.5061165E-2,2.4583748E-1,-5.157799E-1,2.3917203E-1,-5.290524E-1,-2.976942E-2,-2.221961E-2,-2.6712734E-3,6.0420167E-3,-2.970001E-3,3.8454495E-3,-3.990071E-3,5.5163004E-3,-2.2740825E-3,2.7884045E-3],"split_indices":[651,202,931,788,375,182,40,0,0,0,0,0,0,0,0],"split_type":[0,0,0,0,0,0,0,0,0,0,0,0,0,0,0],"sum_hessian":[3.905E3,1.552E3,2.353E3,8.58E2,6.94E2,1.86E2,2.167E3,1.33E2,7.25E2,3.91E2,3.03E2,3.5E1,1.51E2,2.041E3,1.26E2],"tree_param":{"num_deleted":"0","num_feature":"1024","num_nodes":"15","size_leaf_vector":"1"}},{"base_weights":[-4.1416604E-3,9.40391E-2,-4.189969E-2,-6.214644E-2,1.5771598E-1,-6.033821E-2,1.04732074E-1,-5.192752E-3,3.8800428E-3,6.7212824E-3,-2.7867595E-3,-7.39331E-3,-1.3318256E-3,6.3188816E-3,-4.1641486E-3],"categories":[],"categories_nodes":[],"categories_segments":[],"categories_sizes":[],"default_left":[0,0,0,0,0,0,0,0,0,0,0,0,0,0,0],"id":72,"left_children":[1,3,5,7,9,11,13,-1,-1,-1,-1,-1,-1,-1,-1],"loss_changes":[1.4809491E1,1.1333447E1,7.9842696E0,7.958275E0,1.3872105E1,7.3273354E0,9.465135E0,0E0,0E0,0E0,0E0,0E0,0E0,0E0,0E0],"parents":[2147483647,0,0,1,1,2,2,3,3,4,4,5,5,6,6],"right_children":[2,4,6,8,10,12,14,-1,-1,-1,-1,-1,-1,-1,-1],"split_conditions":[-2.8114387E-1,-4.666654E-1,-1.14394635E-1,3.3229536E-1,-3.372173E-1,8.567684E-2,1.22745514E-1,-5.192752E-3,3.8800428E-3,6.7212824E-3,-2.7867595E-3,-7.39331E-3,-1.3318256E-3,6.3188816E-3,-4.1641486E-3],"split_indices":[129,64,710,474,536,390,559,0,0,0,0,0,0,0,0],"split_type":[0,0,0,0,0,0,0,0,0,0,0,0,0,0,0],"sum_hessian":[3.933E3,1.08E3,2.853E3,3.13E2,7.67E2,2.55E3,3.03E2,2E2,1.13E2,6.09E2,1.58E2,1.67E2,2.383E3,2.14E2,8.9E1],"tree_param":{"num_deleted":"0","num_feature":"1024","num_nodes":"15","size_leaf_vector":"1"}},{"base_weights":[-7.4164144E-4,-4.1130416E-2,8.126753E-2,-5.4862406E-2,1.9548325E-1,-6.0699355E-2,1.3946429E-1,5.658345E-4,-2.3052536E-3,-1.9080823E-3,9.489159E-3,3.0266617E-3,-4.9581667E-3,4.8985556E-3,-6.208911E-3],"categories":[],"categories_nodes":[],"categories_segments":[],"categories_sizes":[],"default_left":[0,0,0,0,0,0,0,0,0,0,0,0,0,0,0],"id":73,"left_children":[1,3,5,7,9,11,13,-1,-1,-1,-1,-1,-1,-1,-1],"loss_changes":[1.3018053E1,8.876821E0,1.0969795E1,4.1139197E0,5.3303347E0,7.2255187E0,8.68014E0,0E0,0E0,0E0,0E0,0E0,0E0,0E0,0E0],"parents":[2147483647,0,0,1,1,2,2,3,3,4,4,5,5,6,6],"right_children":[2,4,6,8,10,12,14,-1,-1,-1,-1,-1,-1,-1,-1],"split_conditions":[4.2167184E-1,1.5698351E-1,-1.9517781E-2,-7.89443E-3,-8.3502665E-2,4.5513335E-1,3.1286785E-3,5.658345E-4,-2.3052536E-3,-1.9080823E-3,9.489159E-3,3.0266617E-3,-4.9581667E-3,4.8985556E-3,-6.208911E-3],"split_indices":[937,42,878,468,13,173,871,0,0,0,0,0,0,0,0],"split_type":[0,0,0,0,0,0,0,0,0,0,0,0,0,0,0],"sum_hessian":[3.87E3,2.603E3,1.267E3,2.482E3,1.21E2,3.68E2,8.99E2,5.71E2,1.911E3,4.3E1,7.8E1,1.45E2,2.23E2,8.56E2,4.3E1],"tree_param":{"num_deleted":"0","num_feature":"1024","num_nodes":"15","size_leaf_vector":"1"}},{"base_weights":[-2.8165274E-3,-2.48205E-2,1.6099378E-1,1.4602038E-1,-4.192309E-2,3.086513E-1,2.1151405E-2,6.601057E-3,-5.19861E-3,-8.2544796E-4,-6.5195076E-3,1.0840629E-2,-2.7154132E-3,5.33294E-3,-3.7661407E-3],"categories":[],"categories_nodes":[],"categories_segments":[],"categories_sizes":[],"default_left":[0,0,0,0,0,0,0,0,0,0,0,0,0,0,0],"id":74,"left_children":[1,3,5,7,9,11,13,-1,-1,-1,-1,-1,-1,-1,-1],"loss_changes":[1.4090834E1,1.024348E1,9.364531E0,8.706595E0,7.7885675E0,5.6725254E0,6.872334E0,0E0,0E0,0E0,0E0,0E0,0E0,0E0,0E0],"parents":[2147483647,0,0,1,1,2,2,3,3,4,4,5,5,6,6],"right_children":[2,4,6,8,10,12,14,-1,-1,-1,-1,-1,-1,-1,-1],"split_conditions":[-3.5343006E-2,2.2653975E-1,-8.436625E-2,-1.2345609E-1,-1.6467138E-1,5.591078E-2,1.2315353E-1,6.601057E-3,-5.19861E-3,-8.2544796E-4,-6.5195076E-3,1.0840629E-2,-2.7154132E-3,5.33294E-3,-3.7661407E-3],"split_indices":[829,150,72,497,98,511,123,0,0,0,0,0,0,0,0],"split_type":[0,0,0,0,0,0,0,0,0,0,0,0,0,0,0],"sum_hessian":[3.846E3,3.413E3,4.33E2,2.9E2,3.123E3,1.93E2,2.4E2,2.43E2,4.7E1,2.918E3,2.05E2,1.73E2,2E1,1.13E2,1.27E2],"tree_param":{"num_deleted":"0","num_feature":"1024","num_nodes":"15","size_leaf_vector":"1"}},{"base_weights":[-3.2384112E-3,1.9664542E-1,-2.1828497E-2,3.0738914E-1,-7.1381934E-2,-4.80518E-2,9.951903E-2,1.1952624E-2,-4.7992228E-4,3.0778707E-3,-5.6018224E-3,6.3340575E-4,-2.06745E-3,7.508845E-4,8.614506E-3],"categories":[],"categories_nodes":[],"categories_segments":[],"categories_sizes":[],"default_left":[0,0,0,0,0,0,0,0,0,0,0,0,0,0,0],"id":75,"left_children":[1,3,5,7,9,11,13,-1,-1,-1,-1,-1,-1,-1,-1],"loss_changes":[1.4583461E1,1.0572164E1,1.1554592E1,7.3153095E0,3.022962E0,4.327946E0,8.827219E0,0E0,0E0,0E0,0E0,0E0,0E0,0E0,0E0],"parents":[2147483647,0,0,1,1,2,2,3,3,4,4,5,5,6,6],"right_children":[2,4,6,8,10,12,14,-1,-1,-1,-1,-1,-1,-1,-1],"split_conditions":[2.2653975E-1,-6.1872404E-2,-2.0966388E-1,-3.2807186E-1,5.057893E-1,6.601229E-1,3.1388047E-1,1.1952624E-2,-4.7992228E-4,3.0778707E-3,-5.6018224E-3,6.3340575E-4,-2.06745E-3,7.508845E-4,8.614506E-3],"split_indices":[150,950,647,410,787,479,803,0,0,0,0,0,0,0,0],"split_type":[0,0,0,0,0,0,0,0,0,0,0,0,0,0,0],"sum_hessian":[3.86E3,3.04E2,3.556E3,2.12E2,9.2E1,2.939E3,6.17E2,1.6E2,5.2E1,3.8E1,5.4E1,6.81E2,2.258E3,4.66E2,1.51E2],"tree_param":{"num_deleted":"0","num_feature":"1024","num_nodes":"15","size_leaf_vector":"1"}},{"base_weights":[-2.1326842E-4,5.9139404E-2,-4.760047E-2,1.9142236E-1,1.6628455E-2,-7.475491E-2,2.2098275E-2,-4.12922E-5,1.0419627E-2,-3.4608613E-3,2.6428346E-3,-7.509577E-3,-1.5723394E-3,5.968861E-3,-2.7670169E-3],"categories":[],"categories_nodes":[],"categories_segments":[],"categories_sizes":[],"default_left":[0,0,0,0,0,0,0,0,0,0,0,0,0,0,0],"id":76,"left_children":[1,3,5,7,9,11,13,-1,-1,-1,-1,-1,-1,-1,-1],"loss_changes":[1.10928E1,9.751211E0,4.2000966E0,1.2728473E1,1.3114675E1,5.8239517E0,1.3451669E1,0E0,0E0,0E0,0E0,0E0,0E0,0E0,0E0],"parents":[2147483647,0,0,1,1,2,2,3,3,4,4,5,5,6,6],"right_children":[2,4,6,8,10,12,14,-1,-1,-1,-1,-1,-1,-1,-1],"split_conditions":[-2.683121E-1,7.432211E-2,-1.9120045E-1,-1.4586438E-1,1.0799402E-1,2.0065955E-3,-1.4465915E-1,-4.12922E-5,1.0419627E-2,-3.4608613E-3,2.6428346E-3,-7.509577E-3,-1.5723394E-3,5.968861E-3,-2.7670169E-3],"split_indices":[27,800,376,856,417,220,440,0,0,0,0,0,0,0,0],"split_type":[0,0,0,0,0,0,0,0,0,0,0,0,0,0,0],"sum_hessian":[3.884E3,1.721E3,2.163E3,3.93E2,1.328E3,1.555E3,6.08E2,1.89E2,2.04E2,4.6E2,8.68E2,1.41E2,1.414E3,2.3E2,3.78E2],"tree_param":{"num_deleted":"0","num_feature":"1024","num_nodes":"15","size_leaf_vector":"1"}},{"base_weights":[5.628232E-3,6.9246404E-2,-5.2919663E-2,1.0720771E-1,-7.0921294E-2,-5.9843503E-2,2.3458557E-1,-3.6971213E-3,4.0877564E-3,-3.9732037E-3,8.545058E-3,5.7723774E-3,-2.0246448E-3,8.984502E-3,-1.4229865E-3],"categories":[],"categories_nodes":[],"categories_segments":[],"categories_sizes":[],"default_left":[0,0,0,0,0,0,0,0,0,0,0,0,0,0,0],"id":77,"left_children":[1,3,5,7,9,11,13,-1,-1,-1,-1,-1,-1,-1,-1],"loss_changes":[1.45580845E1,1.0188915E1,4.476087E0,1.044528E1,1.0258057E1,4.271463E0,1.4144902E0,0E0,0E0,0E0,0E0,0E0,0E0,0E0,0E0],"parents":[2147483647,0,0,1,1,2,2,3,3,4,4,5,5,6,6],"right_children":[2,4,6,8,10,12,14,-1,-1,-1,-1,-1,-1,-1,-1],"split_conditions":[-6.304483E-1,-1.6753465E0,-6.2601763E-1,-3.686959E0,1.5570556E-1,3.2110877E-2,-6.778736E-2,-3.6971213E-3,4.0877564E-3,-3.9732037E-3,8.545058E-3,5.7723774E-3,-2.0246448E-3,8.984502E-3,-1.4229865E-3],"split_indices":[379,700,821,986,673,812,572,0,0,0,0,0,0,0,0],"split_type":[0,0,0,0,0,0,0,0,0,0,0,0,0,0,0],"sum_hessian":[3.849E3,1.842E3,2.007E3,1.455E3,3.87E2,1.983E3,2.4E1,1.52E2,1.303E3,3.46E2,4.1E1,3.7E1,1.946E3,1.8E1,6E0],"tree_param":{"num_deleted":"0","num_feature":"1024","num_nodes":"15","size_leaf_vector":"1"}},{"base_weights":[1.9767904E-4,6.49271E-2,-4.6227034E-2,-8.958658E-2,1.0258255E-1,-5.3953957E-2,2.1664914E-1,-5.225984E-3,5.2914885E-3,7.847499E-3,1.618614E-3,-1.8449908E-3,5.0873263E-3,-2.8144557E-3,1.1526366E-2],"categories":[],"categories_nodes":[],"categories_segments":[],"categories_sizes":[],"default_left":[0,0,0,0,0,0,0,0,0,0,0,0,0,0,0],"id":78,"left_children":[1,3,5,7,9,11,13,-1,-1,-1,-1,-1,-1,-1,-1],"loss_changes":[1.1749616E1,9.776954E0,4.975769E0,8.48327E0,9.83697E0,4.0843525E0,4.774935E0,0E0,0E0,0E0,0E0,0E0,0E0,0E0,0E0],"parents":[2147483647,0,0,1,1,2,2,3,3,4,4,5,5,6,6],"right_children":[2,4,6,8,10,12,14,-1,-1,-1,-1,-1,-1,-1,-1],"split_conditions":[-4.4386083E-1,-4.59257E-3,8.969664E-2,4.6482337E-1,7.432211E-2,2.916164E-2,-3.8936937E-1,-5.225984E-3,5.2914885E-3,7.847499E-3,1.618614E-3,-1.8449908E-3,5.0873263E-3,-2.8144557E-3,1.1526366E-2],"split_indices":[288,584,595,550,800,732,816,0,0,0,0,0,0,0,0],"split_type":[0,0,0,0,0,0,0,0,0,0,0,0,0,0,0],"sum_hessian":[3.85E3,1.603E3,2.247E3,3.06E2,1.297E3,2.206E3,4.1E1,2.4E2,6.6E1,2.73E2,1.024E3,2.155E3,5.1E1,1.9E1,2.2E1],"tree_param":{"num_deleted":"0","num_feature":"1024","num_nodes":"15","size_leaf_vector":"1"}},{"base_weights":[7.5712907E-3,8.083066E-2,-4.8523255E-2,1.3386801E-1,-5.9501096E-3,-2.1458913E-1,-3.4788575E-2,6.067038E-3,-1.1286052E-3,-8.22542E-3,1.5589874E-3,2.596525E-3,-8.001708E-3,7.907911E-3,-1.2878795E-3],"categories":[],"categories_nodes":[],"categories_segments":[],"categories_sizes":[],"default_left":[0,0,0,0,0,0,0,0,0,0,0,0,0,0,0],"id":79,"left_children":[1,3,5,7,9,11,13,-1,-1,-1,-1,-1,-1,-1,-1],"loss_changes":[1.620617E1,7.889776E0,4.8760505E0,1.2679197E1,1.0944596E1,3.283018E0,5.44298E0,0E0,0E0,0E0,0E0,0E0,0E0,0E0,0E0],"parents":[2147483647,0,0,1,1,2,2,3,3,4,4,5,5,6,6],"right_children":[2,4,6,8,10,12,14,-1,-1,-1,-1,-1,-1,-1,-1],"split_conditions":[2.8538382E-1,5.428099E-1,2.4553064E-1,-1.707942E-1,-2.6518242E-2,9.627839E-1,-3.535081E-1,6.067038E-3,-1.1286052E-3,-8.22542E-3,1.5589874E-3,2.596525E-3,-8.001708E-3,7.907911E-3,-1.2878795E-3],"split_indices":[196,269,608,143,248,679,580,0,0,0,0,0,0,0,0],"split_type":[0,0,0,0,0,0,0,0,0,0,0,0,0,0,0],"sum_hessian":[3.885E3,1.679E3,2.206E3,1.032E3,6.47E2,1.35E2,2.071E3,7.34E2,2.98E2,9.5E1,5.52E2,1.7E1,1.18E2,3E1,2.041E3],"tree_param":{"num_deleted":"0","num_feature":"1024","num_nodes":"15","size_leaf_vector":"1"}},{"base_weights":[-6.698172E-3,4.9241655E-2,-4.828485E-2,7.610971E-2,-1.5078802E-1,1.3811266E-1,-6.070222E-2,-2.0413834E-3,3.3251834E-3,2.5277296E-3,-8.013551E-3,-2.8501963E-3,8.058865E-3,3.628467E-3,-2.1395134E-3],"categories":[],"categories_nodes":[],"categories_segments":[],"categories_sizes":[],"default_left":[0,0,0,0,0,0,0,0,0,0,0,0,0,0,0],"id":80,"left_children":[1,3,5,7,9,11,13,-1,-1,-1,-1,-1,-1,-1,-1],"loss_changes":[9.155731E0,9.373299E0,5.4708605E0,7.7410145E0,6.3898787E0,5.3295183E0,4.375495E0,0E0,0E0,0E0,0E0,0E0,0E0,0E0,0E0],"parents":[2147483647,0,0,1,1,2,2,3,3,4,4,5,5,6,6],"right_children":[2,4,6,8,10,12,14,-1,-1,-1,-1,-1,-1,-1,-1],"split_conditions":[-2.6831397E-1,7.255389E-2,5.035969E-1,-8.210001E-2,7.448556E-2,-4.8333588E-1,-1.4923322E-1,-2.0413834E-3,3.3251834E-3,2.5277296E-3,-8.013551E-3,-2.8501963E-3,8.058865E-3,3.628467E-3,-2.1395134E-3],"split_indices":[27,1016,372,828,63,739,742,0,0,0,0,0,0,0,0],"split_type":[0,0,0,0,0,0,0,0,0,0,0,0,0,0,0],"sum_hessian":[3.875E3,1.65E3,2.225E3,1.471E3,1.79E2,1.2E2,2.105E3,2.8E2,1.191E3,6.2E1,1.17E2,4.6E1,7.4E1,9.9E1,2.006E3],"tree_param":{"num_deleted":"0","num_feature":"1024","num_nodes":"15","size_leaf_vector":"1"}},{"base_weights":[3.6298027E-3,6.4034626E-2,-4.2961314E-2,3.4943386E-3,1.4591067E-1,-5.46867E-2,1.2466774E-1,-6.130741E-3,1.157965E-3,-3.6760133E-3,5.922085E-3,-5.6896447E-3,-1.030847E-3,6.920597E-3,-4.379492E-3],"categories":[],"categories_nodes":[],"categories_segments":[],"categories_sizes":[],"default_left":[0,0,0,0,0,0,0,0,0,0,0,0,0,0,0],"id":81,"left_children":[1,3,5,7,9,11,13,-1,-1,-1,-1,-1,-1,-1,-1],"loss_changes":[1.1114696E1,8.505442E0,4.589595E0,7.671827E0,1.0816293E1,5.581769E0,5.457873E0,0E0,0E0,0E0,0E0,0E0,0E0,0E0,0E0],"parents":[2147483647,0,0,1,1,2,2,3,3,4,4,5,5,6,6],"right_children":[2,4,6,8,10,12,14,-1,-1,-1,-1,-1,-1,-1,-1],"split_conditions":[-2.683121E-1,-5.5888236E-1,-6.947901E-1,5.904678E-2,-6.5214384E-1,-2.6829457E-1,-1.486895E0,-6.130741E-3,1.157965E-3,-3.6760133E-3,5.922085E-3,-5.6896447E-3,-1.030847E-3,6.920597E-3,-4.379492E-3],"split_indices":[27,35,380,120,611,27,769,0,0,0,0,0,0,0,0],"split_type":[0,0,0,0,0,0,0,0,0,0,0,0,0,0,0],"sum_hessian":[3.89E3,1.689E3,2.201E3,9.89E2,7E2,2.076E3,1.25E2,1.22E2,8.67E2,1.06E2,5.94E2,2.39E2,1.837E3,9.3E1,3.2E1],"tree_param":{"num_deleted":"0","num_feature":"1024","num_nodes":"15","size_leaf_vector":"1"}},{"base_weights":[-8.7516644E-4,1.2620234E-1,-2.0360136E-2,-1.3433187E-1,2.153116E-1,-3.6268014E-2,1.3950115E-1,-8.999536E-3,1.9724288E-3,8.38032E-3,-3.8832638E-3,-6.379005E-4,-5.7094E-3,6.853508E-3,-4.974189E-3],"categories":[],"categories_nodes":[],"categories_segments":[],"categories_sizes":[],"default_left":[0,0,0,0,0,0,0,0,0,0,0,0,0,0,0],"id":82,"left_children":[1,3,5,7,9,11,13,-1,-1,-1,-1,-1,-1,-1,-1],"loss_changes":[9.68436E0,1.29400215E1,8.772737E0,5.596398E0,9.892853E0,7.0601153E0,9.636442E0,0E0,0E0,0E0,0E0,0E0,0E0,0E0,0E0],"parents":[2147483647,0,0,1,1,2,2,3,3,4,4,5,5,6,6],"right_children":[2,4,6,8,10,12,14,-1,-1,-1,-1,-1,-1,-1,-1],"split_conditions":[7.432211E-2,-6.198317E-2,3.138988E-1,4.8012756E-2,3.6699835E-2,1.6743275E0,-6.386337E-2,-8.999536E-3,1.9724288E-3,8.38032E-3,-3.8832638E-3,-6.379005E-4,-5.7094E-3,6.853508E-3,-4.974189E-3],"split_indices":[800,950,803,507,430,897,404,0,0,0,0,0,0,0,0],"split_type":[0,0,0,0,0,0,0,0,0,0,0,0,0,0,0],"sum_hessian":[3.85E3,4.9E2,3.36E3,1.21E2,3.69E2,3.077E3,2.83E2,5.8E1,