{"learner":{"attributes":{"best_iteration":"174","best_score":"0.432611220725608","scikit_learn":"{\"_estimator_type\": \"regressor\"}"},"feature_names":[],"feature_types":[],"gradient_booster":{"model":{"cats":{"enc":[],"feature_segments":[],"sorted_idx":[]},"gbtree_model_param":{"num_parallel_tree":"1","num_trees":"225"},"iteration_indptr":[0,1,2,3,4,5,6,7,8,9,10,11,12,13,14,15,16,17,18,19,20,21,22,23,24,25,26,27,28,29,30,31,32,33,34,35,36,37,38,39,40,41,42,43,44,45,46,47,48,49,50,51,52,53,54,55,56,57,58,59,60,61,62,63,64,65,66,67,68,69,70,71,72,73,74,75,76,77,78,79,80,81,82,83,84,85,86,87,88,89,90,91,92,93,94,95,96,97,98,99,100,101,102,103,104,105,106,107,108,109,110,111,112,113,114,115,116,117,118,119,120,121,122,123,124,125,126,127,128,129,130,131,132,133,134,135,136,137,138,139,140,141,142,143,144,145,146,147,148,149,150,151,152,153,154,155,156,157,158,159,160,161,162,163,164,165,166,167,168,169,170,171,172,173,174,175,176,177,178,179,180,181,182,183,184,185,186,187,188,189,190,191,192,193,194,195,196,197,198,199,200,201,202,203,204,205,206,207,208,209,210,211,212,213,214,215,216,217,218,219,220,221,222,223,224,225],"tree_info":[0,0,0,0,0,0,0,0,0,0,0,0,0,0,0,0,0,0,0,0,0,0,0,0,0,0,0,0,0,0,0,0,0,0,0,0,0,0,0,0,0,0,0,0,0,0,0,0,0,0,0,0,0,0,0,0,0,0,0,0,0,0,0,0,0,0,0,0,0,0,0,0,0,0,0,0,0,0,0,0,0,0,0,0,0,0,0,0,0,0,0,0,0,0,0,0,0,0,0,0,0,0,0,0,0,0,0,0,0,0,0,0,0,0,0,0,0,0,0,0,0,0,0,0,0,0,0,0,0,0,0,0,0,0,0,0,0,0,0,0,0,0,0,0,0,0,0,0,0,0,0,0,0,0,0,0,0,0,0,0,0,0,0,0,0,0,0,0,0,0,0,0,0,0,0,0,0,0,0,0,0,0,0,0,0,0,0,0,0,0,0,0,0,0,0,0,0,0,0,0,0,0,0,0,0,0,0,0,0,0,0,0,0,0,0,0,0,0,0,0,0,0,0,0,0],"trees":[{"base_weights":[-1.0895649E-2,-3.96827E-1,1.0783622E0,-2.4602009E-2,3.9391504E-3,4.4878732E-2,7.6397076E-2],"categories":[],"categories_nodes":[],"categories_segments":[],"categories_sizes":[],"default_left":[0,0,0,0,0,0,0],"id":0,"left_children":[1,3,5,-1,-1,-1,-1],"loss_changes":[1.6261005E3,1.297197E2,6.853931E1,0E0,0E0,0E0,0E0],"parents":[2147483647,0,0,1,1,2,2],"right_children":[2,4,6,-1,-1,-1,-1],"split_conditions":[4.7768298E-1,3.2823488E-1,1.4633335E0,-2.4602009E-2,3.9391504E-3,4.4878732E-2,7.6397076E-2],"split_indices":[31,31,31,0,0,0,0],"split_type":[0,0,0,0,0,0,0],"sum_hessian":[3.848E3,2.846E3,1.002E3,2.371E3,4.75E2,7.36E2,2.66E2],"tree_param":{"num_deleted":"0","num_feature":"1058","num_nodes":"7","size_leaf_vector":"1"}},{"base_weights":[4.85985E-3,-3.963599E-1,1.0008361E0,-2.3228692E-2,4.598519E-3,4.2668026E-2,7.902474E-2],"categories":[],"categories_nodes":[],"categories_segments":[],"categories_sizes":[],"default_left":[0,0,0,0,0,0,0],"id":1,"left_children":[1,3,5,-1,-1,-1,-1],"loss_changes":[1.5488411E3,9.246536E1,8.16582E1,0E0,0E0,0E0,0E0],"parents":[2147483647,0,0,1,1,2,2],"right_children":[2,4,6,-1,-1,-1,-1],"split_conditions":[4.5874655E-1,3.423119E-1,1.7871115E0,-2.3228692E-2,4.598519E-3,4.2668026E-2,7.902474E-2],"split_indices":[31,31,31,0,0,0,0],"split_type":[0,0,0,0,0,0,0],"sum_hessian":[3.856E3,2.753E3,1.103E3,2.416E3,3.37E2,8.99E2,2.04E2],"tree_param":{"num_deleted":"0","num_feature":"1058","num_nodes":"7","size_leaf_vector":"1"}},{"base_weights":[-1.1331972E-2,-3.7822887E-1,9.3115443E-1,-2.1955779E-2,6.175847E-3,3.9327905E-2,7.035269E-2],"categories":[],"categories_nodes":[],"categories_segments":[],"categories_sizes":[],"default_left":[0,0,0,0,0,0,0],"id":2,"left_children":[1,3,5,-1,-1,-1,-1],"loss_changes":[1.332759E3,8.528708E1,6.32511E1,0E0,0E0,0E0,0E0],"parents":[2147483647,0,0,1,1,2,2],"right_children":[2,4,6,-1,-1,-1,-1],"split_conditions":[4.5874655E-1,7.7534122E0,1.5913092E0,-2.1955779E-2,6.175847E-3,3.9327905E-2,7.035269E-2],"split_indices":[31,32,31,0,0,0,0],"split_type":[0,0,0,0,0,0,0],"sum_hessian":[3.834E3,2.764E3,1.07E3,2.466E3,2.98E2,8.41E2,2.29E2],"tree_param":{"num_deleted":"0","num_feature":"1058","num_nodes":"7","size_leaf_vector":"1"}},{"base_weights":[-1.035191E-2,-3.3453932E-1,9.663749E-1,-2.1124996E-2,5.7298033E-3,4.287637E-2,7.319583E-2],"categories":[],"categories_nodes":[],"categories_segments":[],"categories_sizes":[],"default_left":[0,0,0,0,0,0,0],"id":3,"left_children":[1,3,5,-1,-1,-1,-1],"loss_changes":[1.218507E3,1.14617615E2,3.9382202E1,0E0,0E0,0E0,0E0],"parents":[2147483647,0,0,1,1,2,2],"right_children":[2,4,6,-1,-1,-1,-1],"split_conditions":[5.053566E-1,3.423119E-1,2.2254553E2,-2.1124996E-2,5.7298033E-3,4.287637E-2,7.319583E-2],"split_indices":[31,31,32,0,0,0,0],"split_type":[0,0,0,0,0,0,0],"sum_hessian":[3.828E3,2.879E3,9.49E2,2.408E3,4.71E2,8.01E2,1.48E2],"tree_param":{"num_deleted":"0","num_feature":"1058","num_nodes":"7","size_leaf_vector":"1"}},{"base_weights":[5.883559E-4,-3.4089342E-1,8.589695E-1,-1.9881252E-2,6.2606144E-3,3.8989004E-2,8.5362814E-2],"categories":[],"categories_nodes":[],"categories_segments":[],"categories_sizes":[],"default_left":[0,0,0,0,0,0,0],"id":4,"left_children":[1,3,5,-1,-1,-1,-1],"loss_changes":[1.126756E3,7.321594E1,6.0177002E1,0E0,0E0,0E0,0E0],"parents":[2147483647,0,0,1,1,2,2],"right_children":[2,4,6,-1,-1,-1,-1],"split_conditions":[4.5874655E-1,7.7534122E0,3.6780448E0,-1.9881252E-2,6.2606144E-3,3.8989004E-2,8.5362814E-2],"split_indices":[31,32,31,0,0,0,0],"split_type":[0,0,0,0,0,0,0],"sum_hessian":[3.824E3,2.74E3,1.084E3,2.444E3,2.96E2,1.009E3,7.5E1],"tree_param":{"num_deleted":"0","num_feature":"1058","num_nodes":"7","size_leaf_vector":"1"}},{"base_weights":[2.0601714E-3,-3.106132E-1,8.675783E-1,-1.876217E-2,7.5237313E-3,3.5530727E-2,6.05669E-2],"categories":[],"categories_nodes":[],"categories_segments":[],"categories_sizes":[],"default_left":[0,0,0,0,0,0,0],"id":5,"left_children":[1,3,5,-1,-1,-1,-1],"loss_changes":[1.0513646E3,8.561444E1,4.7022583E1,0E0,0E0,0E0,0E0],"parents":[2147483647,0,0,1,1,2,2],"right_children":[2,4,6,-1,-1,-1,-1],"split_conditions":[4.8226994E-1,7.7534122E0,1.2307418E2,-1.876217E-2,7.5237313E-3,3.5530727E-2,6.05669E-2],"split_indices":[31,32,32,0,0,0,0],"split_type":[0,0,0,0,0,0,0],"sum_hessian":[3.865E3,2.844E3,1.021E3,2.496E3,3.48E2,7.22E2,2.99E2],"tree_param":{"num_deleted":"0","num_feature":"1058","num_nodes":"7","size_leaf_vector":"1"}},{"base_weights":[2.4756982E-3,-2.9759315E-1,8.0879664E-1,-1.8557822E-2,2.9103782E-3,3.6268555E-2,8.139667E-2],"categories":[],"categories_nodes":[],"categories_segments":[],"categories_sizes":[],"default_left":[0,0,0,0,0,0,0],"id":6,"left_children":[1,3,5,-1,-1,-1,-1],"loss_changes":[9.269048E2,7.329347E1,5.9193542E1,0E0,0E0,0E0,0E0],"parents":[2147483647,0,0,1,1,2,2],"right_children":[2,4,6,-1,-1,-1,-1],"split_conditions":[4.7768298E-1,3.2512945E-1,3.6780448E0,-1.8557822E-2,2.9103782E-3,3.6268555E-2,8.139667E-2],"split_indices":[31,31,31,0,0,0,0],"split_type":[0,0,0,0,0,0,0],"sum_hessian":[3.811E3,2.782E3,1.029E3,2.305E3,4.77E2,9.51E2,7.8E1],"tree_param":{"num_deleted":"0","num_feature":"1058","num_nodes":"7","size_leaf_vector":"1"}},{"base_weights":[2.3706101E-3,-2.733584E-1,8.0151707E-1,-1.6957708E-2,6.6302004E-3,3.616504E-2,7.622983E-2],"categories":[],"categories_nodes":[],"categories_segments":[],"categories_sizes":[],"default_left":[0,0,0,0,0,0,0],"id":7,"left_children":[1,3,5,-1,-1,-1,-1],"loss_changes":[8.538356E2,7.7402954E1,4.518982E1,0E0,0E0,0E0,0E0],"parents":[2147483647,0,0,1,1,2,2],"right_children":[2,4,6,-1,-1,-1,-1],"split_conditions":[5.053566E-1,3.6049506E-1,3.6780448E0,-1.6957708E-2,6.6302004E-3,3.616504E-2,7.622983E-2],"split_indices":[31,31,31,0,0,0,0],"split_type":[0,0,0,0,0,0,0],"sum_hessian":[3.855E3,2.871E3,9.84E2,2.472E3,3.99E2,9.06E2,7.8E1],"tree_param":{"num_deleted":"0","num_feature":"1058","num_nodes":"7","size_leaf_vector":"1"}},{"base_weights":[4.4669188E-3,-2.691612E-1,7.315307E-1,-1.612903E-2,7.1946396E-3,3.29518E-2,7.2183184E-2],"categories":[],"categories_nodes":[],"categories_segments":[],"categories_sizes":[],"default_left":[0,0,0,0,0,0,0],"id":8,"left_children":[1,3,5,-1,-1,-1,-1],"loss_changes":[7.748707E2,6.290837E1,4.5467285E1,0E0,0E0,0E0,0E0],"parents":[2147483647,0,0,1,1,2,2],"right_children":[2,4,6,-1,-1,-1,-1],"split_conditions":[4.7768298E-1,7.7534122E0,3.6780448E0,-1.612903E-2,7.1946396E-3,3.29518E-2,7.2183184E-2],"split_indices":[31,32,31,0,0,0,0],"split_type":[0,0,0,0,0,0,0],"sum_hessian":[3.875E3,2.82E3,1.055E3,2.499E3,3.21E2,9.75E2,8E1],"tree_param":{"num_deleted":"0","num_feature":"1058","num_nodes":"7","size_leaf_vector":"1"}},{"base_weights":[-8.586572E-4,-2.4453394E-1,7.284247E-1,-1.5787328E-2,3.7620396E-3,2.9505253E-2,5.2591693E-2],"categories":[],"categories_nodes":[],"categories_segments":[],"categories_sizes":[],"default_left":[0,0,0,0,0,0,0],"id":9,"left_children":[1,3,5,-1,-1,-1,-1],"loss_changes":[6.911119E2,6.6617905E1,3.736389E1,0E0,0E0,0E0,0E0],"parents":[2147483647,0,0,1,1,2,2],"right_children":[2,4,6,-1,-1,-1,-1],"split_conditions":[5.053566E-1,3.2823488E-1,1.3126788E2,-1.5787328E-2,3.7620396E-3,2.9505253E-2,5.2591693E-2],"split_indices":[31,31,32,0,0,0,0],"split_type":[0,0,0,0,0,0,0],"sum_hessian":[3.869E3,2.905E3,9.64E2,2.376E3,5.29E2,6.95E2,2.69E2],"tree_param":{"num_deleted":"0","num_feature":"1058","num_nodes":"7","size_leaf_vector":"1"}},{"base_weights":[3.4969332E-4,-2.4536628E-1,6.6972685E-1,-1.4935329E-2,5.178986E-3,2.6567211E-2,5.04754E-2],"categories":[],"categories_nodes":[],"categories_segments":[],"categories_sizes":[],"default_left":[0,0,0,0,0,0,0],"id":10,"left_children":[1,3,5,-1,-1,-1,-1],"loss_changes":[6.352074E2,5.2890762E1,4.339557E1,0E0,0E0,0E0,0E0],"parents":[2147483647,0,0,1,1,2,2],"right_children":[2,4,6,-1,-1,-1,-1],"split_conditions":[4.8226994E-1,6.423703E0,1.4633335E0,-1.4935329E-2,5.178986E-3,2.6567211E-2,5.04754E-2],"split_indices":[31,32,31,0,0,0,0],"split_type":[0,0,0,0,0,0,0],"sum_hessian":[3.842E3,2.815E3,1.027E3,2.443E3,3.72E2,7.48E2,2.79E2],"tree_param":{"num_deleted":"0","num_feature":"1058","num_nodes":"7","size_leaf_vector":"1"}},{"base_weights":[-1.1699063E-2,-2.2928086E-1,6.083525E-1,-1.4068283E-2,5.470335E-3,2.6201162E-2,5.5963714E-2],"categories":[],"categories_nodes":[],"categories_segments":[],"categories_sizes":[],"default_left":[0,0,0,0,0,0,0],"id":11,"left_children":[1,3,5,-1,-1,-1,-1],"loss_changes":[5.23504E2,5.0971268E1,3.7565094E1,0E0,0E0,0E0,0E0],"parents":[2147483647,0,0,1,1,2,2],"right_children":[2,4,6,-1,-1,-1,-1],"split_conditions":[4.8226994E-1,3.6049506E-1,2.4883731E2,-1.4068283E-2,5.470335E-3,2.6201162E-2,5.5963714E-2],"split_indices":[31,31,32,0,0,0,0],"split_type":[0,0,0,0,0,0,0],"sum_hessian":[3.86E3,2.862E3,9.98E2,2.482E3,3.8E2,8.74E2,1.24E2],"tree_param":{"num_deleted":"0","num_feature":"1058","num_nodes":"7","size_leaf_vector":"1"}},{"base_weights":[4.4900044E-3,-2.1005777E-1,6.2511617E-1,-1.3178348E-2,7.496182E-3,2.8478606E-2,7.249011E-2],"categories":[],"categories_nodes":[],"categories_segments":[],"categories_sizes":[],"default_left":[0,0,0,0,0,0,0],"id":12,"left_children":[1,3,5,-1,-1,-1,-1],"loss_changes":[5.1315686E2,5.5562393E1,3.70907E1,0E0,0E0,0E0,0E0],"parents":[2147483647,0,0,1,1,2,2],"right_children":[2,4,6,-1,-1,-1,-1],"split_conditions":[4.9723598E-1,7.7534122E0,5.152609E0,-1.3178348E-2,7.496182E-3,2.8478606E-2,7.249011E-2],"split_indices":[31,32,31,0,0,0,0],"split_type":[0,0,0,0,0,0,0],"sum_hessian":[3.834E3,2.854E3,9.8E2,2.487E3,3.67E2,9.34E2,4.6E1],"tree_param":{"num_deleted":"0","num_feature":"1058","num_nodes":"7","size_leaf_vector":"1"}},{"base_weights":[-4.5123245E-3,-2.2086076E-1,5.335957E-1,-1.3350146E-2,1.478322E-3,2.0878958E-2,4.182007E-2],"categories":[],"categories_nodes":[],"categories_segments":[],"categories_sizes":[],"default_left":[0,0,0,0,0,0,0],"id":13,"left_children":[1,3,5,-1,-1,-1,-1],"loss_changes":[4.5428055E2,3.2237213E1,3.581836E1,0E0,0E0,0E0,0E0],"parents":[2147483647,0,0,1,1,2,2],"right_children":[2,4,6,-1,-1,-1,-1],"split_conditions":[4.5874655E-1,3.2322514E-1,1.2307418E2,-1.3350146E-2,1.478322E-3,2.0878958E-2,4.182007E-2],"split_indices":[31,31,32,0,0,0,0],"split_type":[0,0,0,0,0,0,0],"sum_hessian":[3.882E3,2.773E3,1.109E3,2.341E3,4.32E2,8.19E2,2.9E2],"tree_param":{"num_deleted":"0","num_feature":"1058","num_nodes":"7","size_leaf_vector":"1"}},{"base_weights":[3.668494E-3,-2.0660597E-1,5.254557E-1,-1.2279177E-2,5.174426E-3,2.0770999E-2,4.156673E-2],"categories":[],"categories_nodes":[],"categories_segments":[],"categories_sizes":[],"default_left":[0,0,0,0,0,0,0],"id":14,"left_children":[1,3,5,-1,-1,-1,-1],"loss_changes":[4.2591574E2,3.3698128E1,3.4074738E1,0E0,0E0,0E0,0E0],"parents":[2147483647,0,0,1,1,2,2],"right_children":[2,4,6,-1,-1,-1,-1],"split_conditions":[4.5874655E-1,7.7534122E0,1.3126788E2,-1.2279177E-2,5.174426E-3,2.0770999E-2,4.156673E-2],"split_indices":[31,32,32,0,0,0,0],"split_type":[0,0,0,0,0,0,0],"sum_hessian":[3.862E3,2.757E3,1.105E3,2.451E3,3.06E2,8.3E2,2.75E2],"tree_param":{"num_deleted":"0","num_feature":"1058","num_nodes":"7","size_leaf_vector":"1"}},{"base_weights":[7.1436423E-3,-1.7546417E-1,5.424029E-1,-1.0738376E-2,1.0022767E-2,2.4933506E-2,5.99187E-2],"categories":[],"categories_nodes":[],"categories_segments":[],"categories_sizes":[],"default_left":[0,0,0,0,0,0,0],"id":15,"left_children":[1,3,5,-1,-1,-1,-1],"loss_changes":[3.8195206E2,4.348455E1,2.2539398E1,0E0,0E0,0E0,0E0],"parents":[2147483647,0,0,1,1,2,2],"right_children":[2,4,6,-1,-1,-1,-1],"split_conditions":[5.053566E-1,1.4317813E1,5.152609E0,-1.0738376E-2,1.0022767E-2,2.4933506E-2,5.99187E-2],"split_indices":[31,32,31,0,0,0,0],"split_type":[0,0,0,0,0,0,0],"sum_hessian":[3.888E3,2.904E3,9.84E2,2.633E3,2.71E2,9.39E2,4.5E1],"tree_param":{"num_deleted":"0","num_feature":"1058","num_nodes":"7","size_leaf_vector":"1"}},{"base_weights":[-5.960243E-6,-1.7199133E-1,5.001434E-1,-1.0896549E-2,6.6175745E-3,2.1364516E-2,4.536908E-2],"categories":[],"categories_nodes":[],"categories_segments":[],"categories_sizes":[],"default_left":[0,0,0,0,0,0,0],"id":16,"left_children":[1,3,5,-1,-1,-1,-1],"loss_changes":[3.365039E2,4.098829E1,2.582109E1,0E0,0E0,0E0,0E0],"parents":[2147483647,0,0,1,1,2,2],"right_children":[2,4,6,-1,-1,-1,-1],"split_conditions":[5.053566E-1,7.7534122E0,2.4883731E2,-1.0896549E-2,6.6175745E-3,2.1364516E-2,4.536908E-2],"split_indices":[31,32,32,0,0,0,0],"split_type":[0,0,0,0,0,0,0],"sum_hessian":[3.892E3,2.901E3,9.91E2,2.523E3,3.78E2,8.58E2,1.33E2],"tree_param":{"num_deleted":"0","num_feature":"1058","num_nodes":"7","size_leaf_vector":"1"}},{"base_weights":[7.4518123E-3,-1.6482492E-1,4.9735403E-1,-1.0839487E-2,3.5595559E-3,2.2572955E-2,6.9570996E-2],"categories":[],"categories_nodes":[],"categories_segments":[],"categories_sizes":[],"default_left":[0,0,0,0,0,0,0],"id":17,"left_children":[1,3,5,-1,-1,-1,-1],"loss_changes":[3.309033E2,3.573374E1,3.5572052E1,0E0,0E0,0E0,0E0],"parents":[2147483647,0,0,1,1,2,2],"right_children":[2,4,6,-1,-1,-1,-1],"split_conditions":[4.9723598E-1,3.2512945E-1,6.7938867E0,-1.0839487E-2,3.5595559E-3,2.2572955E-2,6.9570996E-2],"split_indices":[31,31,31,0,0,0,0],"split_type":[0,0,0,0,0,0,0],"sum_hessian":[3.901E3,2.891E3,1.01E3,2.37E3,5.21E2,9.75E2,3.5E1],"tree_param":{"num_deleted":"0","num_feature":"1058","num_nodes":"7","size_leaf_vector":"1"}},{"base_weights":[-4.0711714E-3,-1.6473082E-1,4.5695096E-1,-1.016695E-2,4.108725E-3,2.0999042E-2,6.973439E-2],"categories":[],"categories_nodes":[],"categories_segments":[],"categories_sizes":[],"default_left":[0,0,0,0,0,0,0],"id":18,"left_children":[1,3,5,-1,-1,-1,-1],"loss_changes":[2.8946844E2,2.7792458E1,2.9157516E1,0E0,0E0,0E0,0E0],"parents":[2147483647,0,0,1,1,2,2],"right_children":[2,4,6,-1,-1,-1,-1],"split_conditions":[4.9723598E-1,3.6049506E-1,8.800701E2,-1.016695E-2,4.108725E-3,2.0999042E-2,6.973439E-2],"split_indices":[31,31,32,0,0,0,0],"split_type":[0,0,0,0,0,0,0],"sum_hessian":[3.888E3,2.888E3,1E3,2.499E3,3.89E2,9.76E2,2.4E1],"tree_param":{"num_deleted":"0","num_feature":"1058","num_nodes":"7","size_leaf_vector":"1"}},{"base_weights":[1.4676893E-2,-1.4632903E-1,4.7824666E-1,-9.361073E-3,6.3561313E-3,2.150215E-2,6.0744513E-2],"categories":[],"categories_nodes":[],"categories_segments":[],"categories_sizes":[],"default_left":[0,0,0,0,0,0,0],"id":19,"left_children":[1,3,5,-1,-1,-1,-1],"loss_changes":[2.898454E2,3.247601E1,3.0319916E1,0E0,0E0,0E0,0E0],"parents":[2147483647,0,0,1,1,2,2],"right_children":[2,4,6,-1,-1,-1,-1],"split_conditions":[5.053566E-1,7.7534122E0,5.152609E0,-9.361073E-3,6.3561313E-3,2.150215E-2,6.0744513E-2],"split_indices":[31,32,31,0,0,0,0],"split_type":[0,0,0,0,0,0,0],"sum_hessian":[3.864E3,2.873E3,9.91E2,2.502E3,3.71E2,9.45E2,4.6E1],"tree_param":{"num_deleted":"0","num_feature":"1058","num_nodes":"7","size_leaf_vector":"1"}},{"base_weights":[1.3489607E-3,-1.7667475E-1,3.4872186E-1,-3.567326E-3,-1.0612773E-2,1.2136611E-2,2.9876122E-2],"categories":[],"categories_nodes":[],"categories_segments":[],"categories_sizes":[],"default_left":[0,0,0,0,0,0,0],"id":20,"left_children":[1,3,5,-1,-1,-1,-1],"loss_changes":[2.400011E2,9.4650345E0,3.3226547E1,0E0,0E0,0E0,0E0],"parents":[2147483647,0,0,1,1,2,2],"right_children":[2,4,6,-1,-1,-1,-1],"split_conditions":[3.877518E-1,-4.0153402E-1,1.2094283E0,-3.567326E-3,-1.0612773E-2,1.2136611E-2,2.9876122E-2],"split_indices":[31,28,31,0,0,0,0],"split_type":[0,0,0,0,0,0,0],"sum_hessian":[3.861E3,2.556E3,1.305E3,6.53E2,1.903E3,9.29E2,3.76E2],"tree_param":{"num_deleted":"0","num_feature":"1058","num_nodes":"7","size_leaf_vector":"1"}},{"base_weights":[3.895869E-3,-1.7027788E-1,3.327898E-1,-9.842109E-3,-1.8419091E-3,1.2192451E-2,3.334532E-2],"categories":[],"categories_nodes":[],"categories_segments":[],"categories_sizes":[],"default_left":[0,0,0,0,0,0,0],"id":21,"left_children":[1,3,5,-1,-1,-1,-1],"loss_changes":[2.2254486E2,8.931107E0,3.8342575E1,0E0,0E0,0E0,0E0],"parents":[2147483647,0,0,1,1,2,2],"right_children":[2,4,6,-1,-1,-1,-1],"split_conditions":[3.7351155E-1,4.2168817E-1,1.4633335E0,-9.842109E-3,-1.8419091E-3,1.2192451E-2,3.334532E-2],"split_indices":[31,971,31,0,0,0,0],"split_type":[0,0,0,0,0,0,0],"sum_hessian":[3.865E3,2.53E3,1.335E3,2.106E3,4.24E2,1.068E3,2.67E2],"tree_param":{"num_deleted":"0","num_feature":"1058","num_nodes":"7","size_leaf_vector":"1"}},{"base_weights":[7.2340616E-3,-1.591534E-1,3.1321746E-1,-2.0085727E-3,-9.660615E-3,9.218342E-3,2.5592906E-2],"categories":[],"categories_nodes":[],"categories_segments":[],"categories_sizes":[],"default_left":[0,0,0,0,0,0,0],"id":22,"left_children":[1,3,5,-1,-1,-1,-1],"loss_changes":[1.9788354E2,1.0126301E1,3.409581E1,0E0,0E0,0E0,0E0],"parents":[2147483647,0,0,1,1,2,2],"right_children":[2,4,6,-1,-1,-1,-1],"split_conditions":[3.7351155E-1,4.214735E-2,7.150329E1,-2.0085727E-3,-9.660615E-3,9.218342E-3,2.5592906E-2],"split_indices":[31,291,32,0,0,0,0],"split_type":[0,0,0,0,0,0,0],"sum_hessian":[3.867E3,2.508E3,1.359E3,5.63E2,1.945E3,8.36E2,5.23E2],"tree_param":{"num_deleted":"0","num_feature":"1058","num_nodes":"7","size_leaf_vector":"1"}},{"base_weights":[3.1354895E-3,-1.210031E-1,3.7221217E-1,-7.2453166E-3,1.3957149E-2,1.3898599E-2,2.8426075E-2],"categories":[],"categories_nodes":[],"categories_segments":[],"categories_sizes":[],"default_left":[0,0,0,0,0,0,0],"id":23,"left_children":[1,3,5,-1,-1,-1,-1],"loss_changes":[1.7766922E2,2.8161495E1,1.6475891E1,0E0,0E0,0E0,0E0],"parents":[2147483647,0,0,1,1,2,2],"right_children":[2,4,6,-1,-1,-1,-1],"split_conditions":[5.1859534E-1,3.0690203E1,1.2307418E2,-7.2453166E-3,1.3957149E-2,1.3898599E-2,2.8426075E-2],"split_indices":[31,32,32,0,0,0,0],"split_type":[0,0,0,0,0,0,0],"sum_hessian":[3.858E3,2.892E3,9.66E2,2.735E3,1.57E2,6.69E2,2.97E2],"tree_param":{"num_deleted":"0","num_feature":"1058","num_nodes":"7","size_leaf_vector":"1"}},{"base_weights":[3.47719E-3,-1.4425854E-1,2.8697398E-1,-2.6447044E-3,-8.856337E-3,1.0304083E-2,2.6859244E-2],"categories":[],"categories_nodes":[],"categories_segments":[],"categories_sizes":[],"default_left":[0,0,0,0,0,0,0],"id":24,"left_children":[1,3,5,-1,-1,-1,-1],"loss_changes":[1.6174579E2,7.5308914E0,2.5670654E1,0E0,0E0,0E0,0E0],"parents":[2147483647,0,0,1,1,2,2],"right_children":[2,4,6,-1,-1,-1,-1],"split_conditions":[3.831061E-1,-3.8874826E-1,1.2307418E2,-2.6447044E-3,-8.856337E-3,1.0304083E-2,2.6859244E-2],"split_indices":[31,28,32,0,0,0,0],"split_type":[0,0,0,0,0,0,0],"sum_hessian":[3.842E3,2.529E3,1.313E3,6.76E2,1.853E3,1.006E3,3.07E2],"tree_param":{"num_deleted":"0","num_feature":"1058","num_nodes":"7","size_leaf_vector":"1"}},{"base_weights":[-1.7373092E-3,-1.4241035E-1,2.6467648E-1,1.2358592E-3,-7.8877555E-3,8.539337E-3,2.3930414E-2],"categories":[],"categories_nodes":[],"categories_segments":[],"categories_sizes":[],"default_left":[0,0,0,0,0,0,0],"id":25,"left_children":[1,3,5,-1,-1,-1,-1],"loss_changes":[1.4597601E2,6.575985E0,2.6218353E1,0E0,0E0,0E0,0E0],"parents":[2147483647,0,0,1,1,2,2],"right_children":[2,4,6,-1,-1,-1,-1],"split_conditions":[3.7351155E-1,2.43042E-2,1.1821766E0,1.2358592E-3,-7.8877555E-3,8.539337E-3,2.3930414E-2],"split_indices":[31,729,31,0,0,0,0],"split_type":[0,0,0,0,0,0,0],"sum_hessian":[3.875E3,2.539E3,1.336E3,2.13E2,2.326E3,9.41E2,3.95E2],"tree_param":{"num_deleted":"0","num_feature":"1058","num_nodes":"7","size_leaf_vector":"1"}},{"base_weights":[2.4258175E-3,-1.3556059E-1,2.484014E-1,3.4580834E-3,-7.3269415E-3,8.204764E-3,2.6113853E-2],"categories":[],"categories_nodes":[],"categories_segments":[],"categories_sizes":[],"default_left":[0,0,0,0,0,0,0],"id":26,"left_children":[1,3,5,-1,-1,-1,-1],"loss_changes":[1.3345447E2,5.7627716E0,3.1768288E1,0E0,0E0,0E0,0E0],"parents":[2147483647,0,0,1,1,2,2],"right_children":[2,4,6,-1,-1,-1,-1],"split_conditions":[3.6049506E-1,4.887829E-2,1.3742603E0,3.4580834E-3,-7.3269415E-3,8.204764E-3,2.6113853E-2],"split_indices":[31,337,31,0,0,0,0],"split_type":[0,0,0,0,0,0,0],"sum_hessian":[3.912E3,2.509E3,1.403E3,1.25E2,2.384E3,1.085E3,3.18E2],"tree_param":{"num_deleted":"0","num_feature":"1058","num_nodes":"7","size_leaf_vector":"1"}},{"base_weights":[3.4511392E-3,-9.9508196E-2,3.0545118E-1,-5.9269215E-3,1.1548529E-2,1.3375143E-2,4.3042663E-2],"categories":[],"categories_nodes":[],"categories_segments":[],"categories_sizes":[],"default_left":[0,0,0,0,0,0,0],"id":27,"left_children":[1,3,5,-1,-1,-1,-1],"loss_changes":[1.214451E2,1.8593906E1,1.8626236E1,0E0,0E0,0E0,0E0],"parents":[2147483647,0,0,1,1,2,2],"right_children":[2,4,6,-1,-1,-1,-1],"split_conditions":[5.1859534E-1,3.0690203E1,5.152609E0,-5.9269215E-3,1.1548529E-2,1.3375143E-2,4.3042663E-2],"split_indices":[31,32,31,0,0,0,0],"split_type":[0,0,0,0,0,0,0],"sum_hessian":[3.886E3,2.903E3,9.83E2,2.751E3,1.52E2,9.34E2,4.9E1],"tree_param":{"num_deleted":"0","num_feature":"1058","num_nodes":"7","size_leaf_vector":"1"}},{"base_weights":[3.9061706E-3,-9.474786E-2,2.9972702E-1,-5.7409992E-3,1.10677285E-2,1.3226822E-2,4.427139E-2],"categories":[],"categories_nodes":[],"categories_segments":[],"categories_sizes":[],"default_left":[0,0,0,0,0,0,0],"id":28,"left_children":[1,3,5,-1,-1,-1,-1],"loss_changes":[1.1378025E2,1.8806486E1,1.7753593E1,0E0,0E0,0E0,0E0],"parents":[2147483647,0,0,1,1,2,2],"right_children":[2,4,6,-1,-1,-1,-1],"split_conditions":[5.3201616E-1,3.0690203E1,5.152609E0,-5.7409992E-3,1.10677285E-2,1.3226822E-2,4.427139E-2],"split_indices":[31,32,31,0,0,0,0],"split_type":[0,0,0,0,0,0,0],"sum_hessian":[3.879E3,2.914E3,9.65E2,2.746E3,1.68E2,9.24E2,4.1E1],"tree_param":{"num_deleted":"0","num_feature":"1058","num_nodes":"7","size_leaf_vector":"1"}},{"base_weights":[1.7138517E-3,-9.570566E-2,2.7998427E-1,-5.742512E-3,8.558447E-3,1.2315386E-2,5.5633496E-2],"categories":[],"categories_nodes":[],"categories_segments":[],"categories_sizes":[],"default_left":[0,0,0,0,0,0,0],"id":29,"left_children":[1,3,5,-1,-1,-1,-1],"loss_changes":[1.0715862E2,1.515633E1,2.6002449E1,0E0,0E0,0E0,0E0],"parents":[2147483647,0,0,1,1,2,2],"right_children":[2,4,6,-1,-1,-1,-1],"split_conditions":[2.240182E1,5.3201616E-1,8.800701E2,-5.742512E-3,8.558447E-3,1.2315386E-2,5.5633496E-2],"split_indices":[32,31,32,0,0,0,0],"split_type":[0,0,0,0,0,0,0],"sum_hessian":[3.933E3,2.918E3,1.015E3,2.728E3,1.9E2,9.88E2,2.7E1],"tree_param":{"num_deleted":"0","num_feature":"1058","num_nodes":"7","size_leaf_vector":"1"}},{"base_weights":[2.9917613E-3,-8.484303E-2,2.8140247E-1,4.24258E-4,-6.934853E-3,1.2189808E-2,4.1206136E-2],"categories":[],"categories_nodes":[],"categories_segments":[],"categories_sizes":[],"default_left":[0,0,0,0,0,0,0],"id":30,"left_children":[1,3,5,-1,-1,-1,-1],"loss_changes":[9.4729576E1,1.4813625E1,1.6951431E1,0E0,0E0,0E0,0E0],"parents":[2147483647,0,0,1,1,2,2],"right_children":[2,4,6,-1,-1,-1,-1],"split_conditions":[5.4068655E-1,-3.7086767E-1,5.152609E0,4.24258E-4,-6.934853E-3,1.2189808E-2,4.1206136E-2],"split_indices":[31,28,31,0,0,0,0],"split_type":[0,0,0,0,0,0,0],"sum_hessian":[3.854E3,2.935E3,9.19E2,1.077E3,1.858E3,8.73E2,4.6E1],"tree_param":{"num_deleted":"0","num_feature":"1058","num_nodes":"7","size_leaf_vector":"1"}},{"base_weights":[4.091612E-3,-8.129023E-2,2.5747478E-1,-5.4449122E-3,4.997069E-3,1.1230883E-2,4.6616375E-2],"categories":[],"categories_nodes":[],"categories_segments":[],"categories_sizes":[],"default_left":[0,0,0,0,0,0,0],"id":31,"left_children":[1,3,5,-1,-1,-1,-1],"loss_changes":[8.352308E1,1.4558786E1,1.9480865E1,0E0,0E0,0E0,0E0],"parents":[2147483647,0,0,1,1,2,2],"right_children":[2,4,6,-1,-1,-1,-1],"split_conditions":[5.053566E-1,7.7534122E0,6.7938867E0,-5.4449122E-3,4.997069E-3,1.1230883E-2,4.6616375E-2],"split_indices":[31,32,31,0,0,0,0],"split_type":[0,0,0,0,0,0,0],"sum_hessian":[3.841E3,2.878E3,9.63E2,2.501E3,3.77E2,9.31E2,3.2E1],"tree_param":{"num_deleted":"0","num_feature":"1058","num_nodes":"7","size_leaf_vector":"1"}},{"base_weights":[-1.247353E-3,-1.0195655E-1,2.0080282E-1,1.1849555E-3,-5.9573795E-3,8.645737E-3,4.0484563E-2],"categories":[],"categories_nodes":[],"categories_segments":[],"categories_sizes":[],"default_left":[0,0,0,0,0,0,0],"id":32,"left_children":[1,3,5,-1,-1,-1,-1],"loss_changes":[7.921722E1,5.6403103E0,2.0589977E1,0E0,0E0,0E0,0E0],"parents":[2147483647,0,0,1,1,2,2],"right_children":[2,4,6,-1,-1,-1,-1],"split_conditions":[3.877518E-1,-3.759005E-1,5.855678E2,1.1849555E-3,-5.9573795E-3,8.645737E-3,4.0484563E-2],"split_indices":[31,48,32,0,0,0,0],"split_type":[0,0,0,0,0,0,0],"sum_hessian":[3.873E3,2.588E3,1.285E3,3.11E2,2.277E3,1.241E3,4.4E1],"tree_param":{"num_deleted":"0","num_feature":"1058","num_nodes":"7","size_leaf_vector":"1"}},{"base_weights":[-1.8754514E-3,-7.748991E-2,2.1568476E-1,3.0226752E-3,-5.3135804E-3,9.625445E-3,4.3119486E-2],"categories":[],"categories_nodes":[],"categories_segments":[],"categories_sizes":[],"default_left":[0,0,0,0,0,0,0],"id":33,"left_children":[1,3,5,-1,-1,-1,-1],"loss_changes":[6.4291954E1,1.1577957E1,1.3447678E1,0E0,0E0,0E0,0E0],"parents":[2147483647,0,0,1,1,2,2],"right_children":[2,4,6,-1,-1,-1,-1],"split_conditions":[5.053566E-1,3.6720507E-2,8.800701E2,3.0226752E-3,-5.3135804E-3,9.625445E-3,4.3119486E-2],"split_indices":[31,517,32,0,0,0,0],"split_type":[0,0,0,0,0,0,0],"sum_hessian":[3.888E3,2.89E3,9.98E2,4.97E2,2.393E3,9.76E2,2.2E1],"tree_param":{"num_deleted":"0","num_feature":"1058","num_nodes":"7","size_leaf_vector":"1"}},{"base_weights":[-2.977445E-3,-7.7412546E-2,2.177784E-1,-4.6570576E-3,6.149868E-3,9.75827E-3,4.1370284E-2],"categories":[],"categories_nodes":[],"categories_segments":[],"categories_sizes":[],"default_left":[0,0,0,0,0,0,0],"id":34,"left_children":[1,3,5,-1,-1,-1,-1],"loss_changes":[6.3924686E1,9.28422E0,1.190876E1,0E0,0E0,0E0,0E0],"parents":[2147483647,0,0,1,1,2,2],"right_children":[2,4,6,-1,-1,-1,-1],"split_conditions":[2.240182E1,5.053566E-1,8.800701E2,-4.6570576E-3,6.149868E-3,9.75827E-3,4.1370284E-2],"split_indices":[32,31,32,0,0,0,0],"split_type":[0,0,0,0,0,0,0],"sum_hessian":[3.87E3,2.899E3,9.71E2,2.693E3,2.06E2,9.49E2,2.2E1],"tree_param":{"num_deleted":"0","num_feature":"1058","num_nodes":"7","size_leaf_vector":"1"}},{"base_weights":[2.715573E-3,-6.649994E-2,2.4209784E-1,1.9544165E-3,-5.237739E-3,1.0702634E-2,4.322989E-2],"categories":[],"categories_nodes":[],"categories_segments":[],"categories_sizes":[],"default_left":[0,0,0,0,0,0,0],"id":35,"left_children":[1,3,5,-1,-1,-1,-1],"loss_changes":[6.390181E1,1.2126416E1,1.3250572E1,0E0,0E0,0E0,0E0],"parents":[2147483647,0,0,1,1,2,2],"right_children":[2,4,6,-1,-1,-1,-1],"split_conditions":[3.0086662E1,-3.1493482E-1,8.800701E2,1.9544165E-3,-5.237739E-3,1.0702634E-2,4.322989E-2],"split_indices":[32,669,32,0,0,0,0],"split_type":[0,0,0,0,0,0,0],"sum_hessian":[3.837E3,2.982E3,8.55E2,7.93E2,2.189E3,8.31E2,2.4E1],"tree_param":{"num_deleted":"0","num_feature":"1058","num_nodes":"7","size_leaf_vector":"1"}},{"base_weights":[7.119822E-4,-8.16785E-2,1.6365378E-1,-5.3174766E-3,5.0601235E-4,7.1552913E-3,4.3359485E-2],"categories":[],"categories_nodes":[],"categories_segments":[],"categories_sizes":[],"default_left":[0,0,0,0,0,0,0],"id":36,"left_children":[1,3,5,-1,-1,-1,-1],"loss_changes":[5.2087852E1,5.8470745E0,1.7595467E1,0E0,0E0,0E0,0E0],"parents":[2147483647,0,0,1,1,2,2],"right_children":[2,4,6,-1,-1,-1,-1],"split_conditions":[3.877518E-1,1.6812114E-1,8.800701E2,-5.3174766E-3,5.0601235E-4,7.1552913E-3,4.3359485E-2],"split_indices":[31,739,32,0,0,0,0],"split_type":[0,0,0,0,0,0,0],"sum_hessian":[3.86E3,2.567E3,1.293E3,2.022E3,5.45E2,1.268E3,2.5E1],"tree_param":{"num_deleted":"0","num_feature":"1058","num_nodes":"7","size_leaf_vector":"1"}},{"base_weights":[6.9179707E-3,-7.770468E-2,1.7357735E-1,-4.461698E-3,2.7973442E-3,7.7899355E-3,4.0528707E-2],"categories":[],"categories_nodes":[],"categories_segments":[],"categories_sizes":[],"default_left":[0,0,0,0,0,0,0],"id":37,"left_children":[1,3,5,-1,-1,-1,-1],"loss_changes":[5.457307E1,4.0054264E0,1.3493534E1,0E0,0E0,0E0,0E0],"parents":[2147483647,0,0,1,1,2,2],"right_children":[2,4,6,-1,-1,-1,-1],"split_conditions":[3.877518E-1,7.4511495E0,8.800701E2,-4.461698E-3,2.7973442E-3,7.7899355E-3,4.0528707E-2],"split_indices":[31,32,32,0,0,0,0],"split_type":[0,0,0,0,0,0,0],"sum_hessian":[3.85E3,2.557E3,1.293E3,2.357E3,2E2,1.27E3,2.3E1],"tree_param":{"num_deleted":"0","num_feature":"1058","num_nodes":"7","size_leaf_vector":"1"}},{"base_weights":[4.3773614E-3,-7.220371E-2,1.5352783E-1,-3.9664283E-3,7.1874983E-3,6.895984E-3,4.6587385E-2],"categories":[],"categories_nodes":[],"categories_segments":[],"categories_sizes":[],"default_left":[0,0,0,0,0,0,0],"id":38,"left_children":[1,3,5,-1,-1,-1,-1],"loss_changes":[4.4074524E1,4.0375643E0,1.46147995E1,0E0,0E0,0E0,0E0],"parents":[2147483647,0,0,1,1,2,2],"right_children":[2,4,6,-1,-1,-1,-1],"split_conditions":[3.831061E-1,1.556946E-1,1.1303436E1,-3.9664283E-3,7.1874983E-3,6.895984E-3,4.6587385E-2],"split_indices":[31,707,31,0,0,0,0],"split_type":[0,0,0,0,0,0,0],"sum_hessian":[3.839E3,2.54E3,1.299E3,2.465E3,7.5E1,1.285E3,1.4E1],"tree_param":{"num_deleted":"0","num_feature":"1058","num_nodes":"7","size_leaf_vector":"1"}},{"base_weights":[2.2919686E-3,-5.5605475E-2,1.9300641E-1,4.8241206E-3,-3.863027E-3,8.127819E-3,4.0352173E-2],"categories":[],"categories_nodes":[],"categories_segments":[],"categories_sizes":[],"default_left":[0,0,0,0,0,0,0],"id":39,"left_children":[1,3,5,-1,-1,-1,-1],"loss_changes":[4.2673763E1,9.839689E0,1.5515812E1,0E0,0E0,0E0,0E0],"parents":[2147483647,0,0,1,1,2,2],"right_children":[2,4,6,-1,-1,-1,-1],"split_conditions":[5.754189E-1,-4.8834085E-1,6.7938867E0,4.8241206E-3,-3.863027E-3,8.127819E-3,4.0352173E-2],"split_indices":[31,167,31,0,0,0,0],"split_type":[0,0,0,0,0,0,0],"sum_hessian":[3.845E3,2.955E3,8.9E2,3.64E2,2.591E3,8.6E2,3E1],"tree_param":{"num_deleted":"0","num_feature":"1058","num_nodes":"7","size_leaf_vector":"1"}},{"base_weights":[2.6529902E-3,-6.612459E-2,1.3742231E-1,2.6794353E-3,-4.0837815E-3,1.2137466E-2,2.6065283E-3],"categories":[],"categories_nodes":[],"categories_segments":[],"categories_sizes":[],"default_left":[0,0,0,0,0,0,0],"id":40,"left_children":[1,3,5,-1,-1,-1,-1],"loss_changes":[3.6156963E1,4.8524513E0,1.1713743E1,0E0,0E0,0E0,0E0],"parents":[2147483647,0,0,1,1,2,2],"right_children":[2,4,6,-1,-1,-1,-1],"split_conditions":[3.877518E-1,2.4278739E-1,1.7049999E-5,2.6794353E-3,-4.0837815E-3,1.2137466E-2,2.6065283E-3],"split_indices":[31,801,18,0,0,0,0],"split_type":[0,0,0,0,0,0,0],"sum_hessian":[3.881E3,2.573E3,1.308E3,2.93E2,2.28E3,5.77E2,7.31E2],"tree_param":{"num_deleted":"0","num_feature":"1058","num_nodes":"7","size_leaf_vector":"1"}},{"base_weights":[-5.599423E-3,-4.7220524E-2,2.1525812E-1,-3.6721292E-3,1.7595962E-3,9.297127E-3,4.4639762E-2],"categories":[],"categories_nodes":[],"categories_segments":[],"categories_sizes":[],"default_left":[0,0,0,0,0,0,0],"id":41,"left_children":[1,3,5,-1,-1,-1,-1],"loss_changes":[3.5823055E1,7.109683E0,1.061488E1,0E0,0E0,0E0,0E0],"parents":[2147483647,0,0,1,1,2,2],"right_children":[2,4,6,-1,-1,-1,-1],"split_conditions":[8.82148E-1,2.629025E-1,1.6221248E3,-3.6721292E-3,1.7595962E-3,9.297127E-3,4.4639762E-2],"split_indices":[31,628,32,0,0,0,0],"split_type":[0,0,0,0,0,0,0],"sum_hessian":[3.876E3,3.268E3,6.08E2,2.48E3,7.88E2,5.95E2,1.3E1],"tree_param":{"num_deleted":"0","num_feature":"1058","num_nodes":"7","size_leaf_vector":"1"}},{"base_weights":[2.1641755E-3,-4.102109E-2,2.2271742E-1,2.7478319E-3,-3.5230618E-3,1.567443E-2,6.1300113E-3],"categories":[],"categories_nodes":[],"categories_segments":[],"categories_sizes":[],"default_left":[0,0,0,0,0,0,0],"id":42,"left_children":[1,3,5,-1,-1,-1,-1],"loss_changes":[3.664697E1,9.131498E0,5.34095E0,0E0,0E0,0E0,0E0],"parents":[2147483647,0,0,1,1,2,2],"right_children":[2,4,6,-1,-1,-1,-1],"split_conditions":[5.738059E1,1.7143528E-1,2.2409999E-5,2.7478319E-3,-3.5230618E-3,1.567443E-2,6.1300113E-3],"split_indices":[32,944,14,0,0,0,0],"split_type":[0,0,0,0,0,0,0],"sum_hessian":[3.828E3,3.208E3,6.2E2,7.51E2,2.457E3,3.14E2,3.06E2],"tree_param":{"num_deleted":"0","num_feature":"1058","num_nodes":"7","size_leaf_vector":"1"}},{"base_weights":[3.4760586E-3,-4.642433E-2,1.7443465E-1,1.5772724E-3,-3.686377E-3,7.610687E-3,4.5224186E-2],"categories":[],"categories_nodes":[],"categories_segments":[],"categories_sizes":[],"default_left":[0,0,0,0,0,0,0],"id":43,"left_children":[1,3,5,-1,-1,-1,-1],"loss_changes":[3.326618E1,6.45018E0,1.291514E1,0E0,0E0,0E0,0E0],"parents":[2147483647,0,0,1,1,2,2],"right_children":[2,4,6,-1,-1,-1,-1],"split_conditions":[3.0086662E1,-4.9716473E-2,1.6221248E3,1.5772724E-3,-3.686377E-3,7.610687E-3,4.5224186E-2],"split_indices":[32,710,32,0,0,0,0],"split_type":[0,0,0,0,0,0,0],"sum_hessian":[3.88E3,3.009E3,8.71E2,7.8E2,2.229E3,8.57E2,1.4E1],"tree_param":{"num_deleted":"0","num_feature":"1058","num_nodes":"7","size_leaf_vector":"1"}},{"base_weights":[3.5555852E-3,-3.6990266E-2,1.9017838E-1,-3.4660443E-3,1.7928763E-3,1.6618168E-2,5.5330424E-3],"categories":[],"categories_nodes":[],"categories_segments":[],"categories_sizes":[],"default_left":[0,0,0,0,0,0,0],"id":44,"left_children":[1,3,5,-1,-1,-1,-1],"loss_changes":[2.9550522E1,7.582739E0,7.512623E0,0E0,0E0,0E0,0E0],"parents":[2147483647,0,0,1,1,2,2],"right_children":[2,4,6,-1,-1,-1,-1],"split_conditions":[5.153293E1,3.0171004E-1,2.411975E-5,-3.4660443E-3,1.7928763E-3,1.6618168E-2,5.5330424E-3],"split_indices":[32,31,12,0,0,0,0],"split_type":[0,0,0,0,0,0,0],"sum_hessian":[3.886E3,3.199E3,6.87E2,2.216E3,9.83E2,2.35E2,4.52E2],"tree_param":{"num_deleted":"0","num_feature":"1058","num_nodes":"7","size_leaf_vector":"1"}},{"base_weights":[5.2183024E-3,-2.464334E-2,2.6628333E-1,3.7806977E-3,-2.5740338E-3,1.0597559E-2,3.7028663E-2],"categories":[],"categories_nodes":[],"categories_segments":[],"categories_sizes":[],"default_left":[0,0,0,0,0,0,0],"id":45,"left_children":[1,3,5,-1,-1,-1,-1],"loss_changes":[3.0305647E1,9.429256E0,8.712254E0,0E0,0E0,0E0,0E0],"parents":[2147483647,0,0,1,1,2,2],"right_children":[2,4,6,-1,-1,-1,-1],"split_conditions":[1.2094283E0,1.181015E0,8.800701E2,3.7806977E-3,-2.5740338E-3,1.0597559E-2,3.7028663E-2],"split_indices":[31,916,32,0,0,0,0],"split_type":[0,0,0,0,0,0,0],"sum_hessian":[3.869E3,3.48E3,3.89E2,7.31E2,2.749E3,3.62E2,2.7E1],"tree_param":{"num_deleted":"0","num_feature":"1058","num_nodes":"7","size_leaf_vector":"1"}},{"base_weights":[4.8074927E-3,-4.45538E-2,1.4669196E-1,1.3830533E-3,-3.4161527E-3,6.4149806E-3,4.1038327E-2],"categories":[],"categories_nodes":[],"categories_segments":[],"categories_sizes":[],"default_left":[0,0,0,0,0,0,0],"id":46,"left_children":[1,3,5,-1,-1,-1,-1],"loss_changes":[2.743543E1,5.0087447E0,1.1481152E1,0E0,0E0,0E0,0E0],"parents":[2147483647,0,0,1,1,2,2],"right_children":[2,4,6,-1,-1,-1,-1],"split_conditions":[2.240182E1,-4.9716473E-2,1.6221248E3,1.3830533E-3,-3.4161527E-3,6.4149806E-3,4.1038327E-2],"split_indices":[32,710,32,0,0,0,0],"split_type":[0,0,0,0,0,0,0],"sum_hessian":[3.898E3,2.897E3,1.001E3,7.17E2,2.18E3,9.86E2,1.5E1],"tree_param":{"num_deleted":"0","num_feature":"1058","num_nodes":"7","size_leaf_vector":"1"}},{"base_weights":[1.3551129E-3,-4.1412022E-2,1.4470765E-1,-2.430036E-3,1.173818E-2,6.0907076E-3,3.292032E-2],"categories":[],"categories_nodes":[],"categories_segments":[],"categories_sizes":[],"default_left":[0,0,0,0,0,0,0],"id":47,"left_children":[1,3,5,-1,-1,-1,-1],"loss_changes":[2.3933172E1,6.0840225E0,9.747009E0,0E0,0E0,0E0,0E0],"parents":[2147483647,0,0,1,1,2,2],"right_children":[2,4,6,-1,-1,-1,-1],"split_conditions":[3.0086662E1,9.405554E-1,8.800701E2,-2.430036E-3,1.173818E-2,6.0907076E-3,3.292032E-2],"split_indices":[32,31,32,0,0,0,0],"split_type":[0,0,0,0,0,0,0],"sum_hessian":[3.884E3,2.997E3,8.87E2,2.929E3,6.8E1,8.61E2,2.6E1],"tree_param":{"num_deleted":"0","num_feature":"1058","num_nodes":"7","size_leaf_vector":"1"}},{"base_weights":[3.8073617E-3,-2.715131E-2,1.9290397E-1,-2.951335E-3,2.4569926E-3,8.301595E-3,3.6471352E-2],"categories":[],"categories_nodes":[],"categories_segments":[],"categories_sizes":[],"default_left":[0,0,0,0,0,0,0],"id":48,"left_children":[1,3,5,-1,-1,-1,-1],"loss_changes":[2.2637804E1,8.112345E0,6.6320305E0,0E0,0E0,0E0,0E0],"parents":[2147483647,0,0,1,1,2,2],"right_children":[2,4,6,-1,-1,-1,-1],"split_conditions":[7.150329E1,-2.2257809E-2,1.6221248E3,-2.951335E-3,2.4569926E-3,8.301595E-3,3.6471352E-2],"split_indices":[32,74,32,0,0,0,0],"split_type":[0,0,0,0,0,0,0],"sum_hessian":[3.848E3,3.314E3,5.34E2,2.339E3,9.75E2,5.21E2,1.3E1],"tree_param":{"num_deleted":"0","num_feature":"1058","num_nodes":"7","size_leaf_vector":"1"}},{"base_weights":[4.7816366E-6,-3.866923E-2,1.3268295E-1,6.315063E-3,-2.4663107E-3,5.858614E-3,3.421694E-2],"categories":[],"categories_nodes":[],"categories_segments":[],"categories_sizes":[],"default_left":[0,0,0,0,0,0,0],"id":49,"left_children":[1,3,5,-1,-1,-1,-1],"loss_changes":[2.000653E1,5.3699694E0,6.727907E0,0E0,0E0,0E0,0E0],"parents":[2147483647,0,0,1,1,2,2],"right_children":[2,4,6,-1,-1,-1,-1],"split_conditions":[3.0690203E1,4.8881177E-2,1.6221248E3,6.315063E-3,-2.4663107E-3,5.858614E-3,3.421694E-2],"split_indices":[32,337,32,0,0,0,0],"split_type":[0,0,0,0,0,0,0],"sum_hessian":[3.879E3,3.009E3,8.7E2,1.76E2,2.833E3,8.58E2,1.2E1],"tree_param":{"num_deleted":"0","num_feature":"1058","num_nodes":"7","size_leaf_vector":"1"}},{"base_weights":[5.979361E-3,-5.612854E-2,9.4034456E-2,-2.9927853E-3,1.2722954E-2,-5.35451E-3,6.406804E-3],"categories":[],"categories_nodes":[],"categories_segments":[],"categories_sizes":[],"default_left":[0,0,0,0,0,0,0],"id":50,"left_children":[1,3,5,-1,-1,-1,-1],"loss_changes":[2.1304993E1,2.7974496E0,1.1186551E1,0E0,0E0,0E0,0E0],"parents":[2147483647,0,0,1,1,2,2],"right_children":[2,4,6,-1,-1,-1,-1],"split_conditions":[3.0516294E-1,-5.45489E-1,2.1128337E0,-2.9927853E-3,1.2722954E-2,-5.35451E-3,6.406804E-3],"split_indices":[31,1021,32,0,0,0,0],"split_type":[0,0,0,0,0,0,0],"sum_hessian":[3.876E3,2.275E3,1.601E3,2.256E3,1.9E1,2.29E2,1.372E3],"tree_param":{"num_deleted":"0","num_feature":"1058","num_nodes":"7","size_leaf_vector":"1"}},{"base_weights":[8.2853105E-4,-5.3435303E-2,7.594528E-2,-2.8712742E-3,1.0139499E-2,-5.94586E-3,5.239373E-3],"categories":[],"categories_nodes":[],"categories_segments":[],"categories_sizes":[],"default_left":[0,0,0,0,0,0,0],"id":51,"left_children":[1,3,5,-1,-1,-1,-1],"loss_changes":[1.5929308E1,2.4362435E0,9.336215E0,0E0,0E0,0E0,0E0],"parents":[2147483647,0,0,1,1,2,2],"right_children":[2,4,6,-1,-1,-1,-1],"split_conditions":[3.0516294E-1,-6.947382E-1,1.3095533E0,-2.8712742E-3,1.0139499E-2,-5.94586E-3,5.239373E-3],"split_indices":[31,414,32,0,0,0,0],"split_type":[0,0,0,0,0,0,0],"sum_hessian":[3.888E3,2.259E3,1.629E3,2.232E3,2.7E1,2.06E2,1.423E3],"tree_param":{"num_deleted":"0","num_feature":"1058","num_nodes":"7","size_leaf_vector":"1"}},{"base_weights":[5.3344374E-3,-1.7710965E-2,2.1224664E-1,4.78035E-3,-1.8007187E-3,8.20573E-3,2.8369818E-2],"categories":[],"categories_nodes":[],"categories_segments":[],"categories_sizes":[],"default_left":[0,0,0,0,0,0,0],"id":52,"left_children":[1,3,5,-1,-1,-1,-1],"loss_changes":[1.8367226E1,7.2274275E0,5.667139E0,0E0,0E0,0E0,0E0],"parents":[2147483647,0,0,1,1,2,2],"right_children":[2,4,6,-1,-1,-1,-1],"split_conditions":[1.2094283E0,1.180983E0,6.7938867E0,4.78035E-3,-1.8007187E-3,8.20573E-3,2.8369818E-2],"split_indices":[31,916,31,0,0,0,0],"split_type":[0,0,0,0,0,0,0],"sum_hessian":[3.834E3,3.458E3,3.76E2,4.75E2,2.983E3,3.44E2,3.2E1],"tree_param":{"num_deleted":"0","num_feature":"1058","num_nodes":"7","size_leaf_vector":"1"}},{"base_weights":[-2.0014062E-3,-2.8710457E-2,1.625676E-1,6.1755567E-3,-1.9269175E-3,6.304748E-3,3.0416409E-2],"categories":[],"categories_nodes":[],"categories_segments":[],"categories_sizes":[],"default_left":[0,0,0,0,0,0,0],"id":53,"left_children":[1,3,5,-1,-1,-1,-1],"loss_changes":[1.6903347E1,4.9964237E0,7.9635115E0,0E0,0E0,0E0,0E0],"parents":[2147483647,0,0,1,1,2,2],"right_children":[2,4,6,-1,-1,-1,-1],"split_conditions":[7.150329E1,1.1809462E0,8.800701E2,6.1755567E-3,-1.9269175E-3,6.304748E-3,3.0416409E-2],"split_indices":[32,916,32,0,0,0,0],"split_type":[0,0,0,0,0,0,0],"sum_hessian":[3.825E3,3.298E3,5.27E2,1.93E2,3.105E3,4.99E2,2.8E1],"tree_param":{"num_deleted":"0","num_feature":"1058","num_nodes":"7","size_leaf_vector":"1"}},{"base_weights":[5.3690774E-3,-4.6010602E-2,7.9269916E-2,-2.4766268E-3,1.3513207E-2,-7.074812E-3,5.2338126E-3],"categories":[],"categories_nodes":[],"categories_segments":[],"categories_sizes":[],"default_left":[0,0,0,0,0,0,0],"id":54,"left_children":[1,3,5,-1,-1,-1,-1],"loss_changes":[1.4871359E1,2.7080874E0,9.155938E0,0E0,0E0,0E0,0E0],"parents":[2147483647,0,0,1,1,2,2],"right_children":[2,4,6,-1,-1,-1,-1],"split_conditions":[3.1221163E-1,-5.45489E-1,1.345028E-1,-2.4766268E-3,1.3513207E-2,-7.074812E-3,5.2338126E-3],"split_indices":[31,1021,32,0,0,0,0],"split_type":[0,0,0,0,0,0,0],"sum_hessian":[3.897E3,2.301E3,1.596E3,2.284E3,1.7E1,1.6E2,1.436E3],"tree_param":{"num_deleted":"0","num_feature":"1058","num_nodes":"7","size_leaf_vector":"1"}},{"base_weights":[-1.9472985E-3,-3.0474395E-2,9.314353E-2,-1.7046651E-3,1.8870888E-2,1.2855642E-2,2.9225943E-3],"categories":[],"categories_nodes":[],"categories_segments":[],"categories_sizes":[],"default_left":[0,0,0,0,0,0,0],"id":55,"left_children":[1,3,5,-1,-1,-1,-1],"loss_changes":[1.0496561E1,4.521617E0,4.929422E0,0E0,0E0,0E0,0E0],"parents":[2147483647,0,0,1,1,2,2],"right_children":[2,4,6,-1,-1,-1,-1],"split_conditions":[3.0690203E1,-1.4791493E-1,3.1109253E-1,-1.7046651E-3,1.8870888E-2,1.2855642E-2,2.9225943E-3],"split_indices":[32,369,24,0,0,0,0],"split_type":[0,0,0,0,0,0,0],"sum_hessian":[3.849E3,2.966E3,8.83E2,2.949E3,1.7E1,1.43E2,7.4E2],"tree_param":{"num_deleted":"0","num_feature":"1058","num_nodes":"7","size_leaf_vector":"1"}},{"base_weights":[9.6430205E-4,-8.157697E-3,3.9703968E-1,-1.7649153E-3,2.979132E-3,2.7062764E-2,-4.1502086E-3],"categories":[],"categories_nodes":[],"categories_segments":[],"categories_sizes":[],"default_left":[0,0,0,0,0,0,0],"id":56,"left_children":[1,3,5,-1,-1,-1,-1],"loss_changes":[1.4123086E1,7.047833E0,6.541485E0,0E0,0E0,0E0,0E0],"parents":[2147483647,0,0,1,1,2,2],"right_children":[2,4,6,-1,-1,-1,-1],"split_conditions":[3.6780448E0,2.629025E-1,-2.8112927E-1,-1.7649153E-3,2.979132E-3,2.7062764E-2,-4.1502086E-3],"split_indices":[31,628,163,0,0,0,0],"split_type":[0,0,0,0,0,0,0],"sum_hessian":[3.89E3,3.812E3,7.8E1,2.725E3,1.087E3,5.9E1,1.9E1],"tree_param":{"num_deleted":"0","num_feature":"1058","num_nodes":"7","size_leaf_vector":"1"}},{"base_weights":[-2.2147633E-3,-1.9424742E-2,1.5003648E-1,3.248981E-3,-1.8391997E-3,1.4592767E-2,3.4035973E-3],"categories":[],"categories_nodes":[],"categories_segments":[],"categories_sizes":[],"default_left":[0,0,0,0,0,0,0],"id":57,"left_children":[1,3,5,-1,-1,-1,-1],"loss_changes":[1.021664E1,5.1550198E0,4.404478E0,0E0,0E0,0E0,0E0],"parents":[2147483647,0,0,1,1,2,2],"right_children":[2,4,6,-1,-1,-1,-1],"split_conditions":[1.2094283E0,1.180996E0,2.411975E-5,3.248981E-3,-1.8391997E-3,1.4592767E-2,3.4035973E-3],"split_indices":[31,916,12,0,0,0,0],"split_type":[0,0,0,0,0,0,0],"sum_hessian":[3.878E3,3.492E3,3.86E2,5.91E2,2.901E3,1.32E2,2.54E2],"tree_param":{"num_deleted":"0","num_feature":"1058","num_nodes":"7","size_leaf_vector":"1"}},{"base_weights":[-5.418876E-4,-1.4331222E-2,1.9127575E-1,6.6561783E-3,-1.3095572E-3,7.1002445E-3,3.343537E-2],"categories":[],"categories_nodes":[],"categories_segments":[],"categories_sizes":[],"default_left":[0,0,0,0,0,0,0],"id":58,"left_children":[1,3,5,-1,-1,-1,-1],"loss_changes":[1.0411829E1,6.4564676E0,5.260598E0,0E0,0E0,0E0,0E0],"parents":[2147483647,0,0,1,1,2,2],"right_children":[2,4,6,-1,-1,-1,-1],"split_conditions":[1.5913092E0,1.1809462E0,1.6221248E3,6.6561783E-3,-1.3095572E-3,7.1002445E-3,3.343537E-2],"split_indices":[31,916,32,0,0,0,0],"split_type":[0,0,0,0,0,0,0],"sum_hessian":[3.916E3,3.662E3,2.54E2,2.65E2,3.397E3,2.42E2,1.2E1],"tree_param":{"num_deleted":"0","num_feature":"1058","num_nodes":"7","size_leaf_vector":"1"}},{"base_weights":[-9.90883E-5,-1.623112E-2,1.3875833E-1,9.246176E-3,-1.1420378E-3,1.0804726E-2,-2.3772044E-3],"categories":[],"categories_nodes":[],"categories_segments":[],"categories_sizes":[],"default_left":[0,0,0,0,0,0,0],"id":59,"left_children":[1,3,5,-1,-1,-1,-1],"loss_changes":[8.716164E0,4.67708E0,5.9379473E0,0E0,0E0,0E0,0E0],"parents":[2147483647,0,0,1,1,2,2],"right_children":[2,4,6,-1,-1,-1,-1],"split_conditions":[1.1821766E0,4.7197244E-1,6.245652E-2,9.246176E-3,-1.1420378E-3,1.0804726E-2,-2.3772044E-3],"split_indices":[31,178,697,0,0,0,0],"split_type":[0,0,0,0,0,0,0],"sum_hessian":[3.871E3,3.476E3,3.95E2,1.02E2,3.374E3,2.78E2,1.17E2],"tree_param":{"num_deleted":"0","num_feature":"1058","num_nodes":"7","size_leaf_vector":"1"}},{"base_weights":[3.5928243E-3,-1.2100479E-2,1.7177558E-1,-3.3996843E-3,5.835015E-4,6.869907E-3,2.9764691E-2],"categories":[],"categories_nodes":[],"categories_segments":[],"categories_sizes":[],"default_left":[0,0,0,0,0,0,0],"id":60,"left_children":[1,3,5,-1,-1,-1,-1],"loss_changes":[1.0298387E1,4.7524014E0,4.030381E0,0E0,0E0,0E0,0E0],"parents":[2147483647,0,0,1,1,2,2],"right_children":[2,4,6,-1,-1,-1,-1],"split_conditions":[1.2307418E2,1.0898432E-2,1.6221248E3,-3.3996843E-3,5.835015E-4,6.869907E-3,2.9764691E-2],"split_indices":[32,32,32,0,0,0,0],"split_type":[0,0,0,0,0,0,0],"sum_hessian":[3.884E3,3.561E3,3.23E2,1.057E3,2.504E3,3.11E2,1.2E1],"tree_param":{"num_deleted":"0","num_feature":"1058","num_nodes":"7","size_leaf_vector":"1"}},{"base_weights":[4.531381E-3,-1.5415113E-2,1.7350805E-1,3.326247E-3,-1.6691905E-3,6.140297E-3,2.5094062E-2],"categories":[],"categories_nodes":[],"categories_segments":[],"categories_sizes":[],"default_left":[0,0,0,0,0,0,0],"id":61,"left_children":[1,3,5,-1,-1,-1,-1],"loss_changes":[1.3185147E1,5.1769257E0,6.2597866E0,0E0,0E0,0E0,0E0],"parents":[2147483647,0,0,1,1,2,2],"right_children":[2,4,6,-1,-1,-1,-1],"split_conditions":[1.1821766E0,1.1809974E0,5.152609E0,3.326247E-3,-1.6691905E-3,6.140297E-3,2.5094062E-2],"split_indices":[31,916,31,0,0,0,0],"split_type":[0,0,0,0,0,0,0],"sum_hessian":[3.894E3,3.491E3,4.03E2,6.23E2,2.868E3,3.61E2,4.2E1],"tree_param":{"num_deleted":"0","num_feature":"1058","num_nodes":"7","size_leaf_vector":"1"}},{"base_weights":[8.3105755E-4,-1.9025635E-2,1.2743933E-1,8.689242E-3,-1.3250768E-3,5.2231033E-3,2.8321818E-2],"categories":[],"categories_nodes":[],"categories_segments":[],"categories_sizes":[],"default_left":[0,0,0,0,0,0,0],"id":62,"left_children":[1,3,5,-1,-1,-1,-1],"loss_changes":[9.791221E0,4.8993573E0,4.7342014E0,0E0,0E0,0E0,0E0],"parents":[2147483647,0,0,1,1,2,2],"right_children":[2,4,6,-1,-1,-1,-1],"split_conditions":[7.150329E1,4.7197485E-1,1.1303436E1,8.689242E-3,-1.3250768E-3,5.2231033E-3,2.8321818E-2],"split_indices":[32,178,31,0,0,0,0],"split_type":[0,0,0,0,0,0,0],"sum_hessian":[3.875E3,3.357E3,5.18E2,1.17E2,3.24E3,5.04E2,1.4E1],"tree_param":{"num_deleted":"0","num_feature":"1058","num_nodes":"7","size_leaf_vector":"1"}},{"base_weights":[1.6175307E-4,-9.296485E-3,2.407527E-1,-1.0346533E-3,4.872823E-3,1.6224042E-2,-6.524656E-3],"categories":[],"categories_nodes":[],"categories_segments":[],"categories_sizes":[],"default_left":[0,0,0,0,0,0,0],"id":63,"left_children":[1,3,5,-1,-1,-1,-1],"loss_changes":[8.783313E0,4.5386877E0,4.961647E0,0E0,0E0,0E0,0E0],"parents":[2147483647,0,0,1,1,2,2],"right_children":[2,4,6,-1,-1,-1,-1],"split_conditions":[2.3192008E0,-2.2180954E-2,-2.811132E-1,-1.0346533E-3,4.872823E-3,1.6224042E-2,-6.524656E-3],"split_indices":[31,74,163,0,0,0,0],"split_type":[0,0,0,0,0,0,0],"sum_hessian":[3.84E3,3.704E3,1.36E2,3.354E3,3.5E2,1.12E2,2.4E1],"tree_param":{"num_deleted":"0","num_feature":"1058","num_nodes":"7","size_leaf_vector":"1"}},{"base_weights":[2.6929353E-3,-1.7006872E-2,1.22499205E-1,9.113239E-3,-1.2000165E-3,-8.89052E-3,7.0144096E-3],"categories":[],"categories_nodes":[],"categories_segments":[],"categories_sizes":[],"default_left":[0,0,0,0,0,0,0],"id":64,"left_children":[1,3,5,-1,-1,-1,-1],"loss_changes":[9.142854E0,4.681636E0,3.1716309E0,0E0,0E0,0E0,0E0],"parents":[2147483647,0,0,1,1,2,2],"right_children":[2,4,6,-1,-1,-1,-1],"split_conditions":[7.150329E1,4.7197485E-1,2.489114E-1,9.113239E-3,-1.2000165E-3,-8.89052E-3,7.0144096E-3],"split_indices":[32,178,134,0,0,0,0],"split_type":[0,0,0,0,0,0,0],"sum_hessian":[3.855E3,3.318E3,5.37E2,1.04E2,3.214E3,2.5E1,5.12E2],"tree_param":{"num_deleted":"0","num_feature":"1058","num_nodes":"7","size_leaf_vector":"1"}},{"base_weights":[8.356951E-5,-1.2454366E-2,1.5104088E-1,-1.0952444E-3,5.1324056E-3,1.2329577E-3,1.3380738E-2],"categories":[],"categories_nodes":[],"categories_segments":[],"categories_sizes":[],"default_left":[0,0,0,0,0,0,0],"id":65,"left_children":[1,3,5,-1,-1,-1,-1],"loss_changes":[7.3548894E0,3.925434E0,4.324385E0,0E0,0E0,0E0,0E0],"parents":[2147483647,0,0,1,1,2,2],"right_children":[2,4,6,-1,-1,-1,-1],"split_conditions":[1.4225903E0,-2.2173954E-2,2.9219824E-1,-1.0952444E-3,5.1324056E-3,1.2329577E-3,1.3380738E-2],"split_indices":[31,74,568,0,0,0,0],"split_type":[0,0,0,0,0,0,0],"sum_hessian":[3.866E3,3.578E3,2.88E2,3.314E3,2.64E2,1.44E2,1.44E2],"tree_param":{"num_deleted":"0","num_feature":"1058","num_nodes":"7","size_leaf_vector":"1"}},{"base_weights":[5.663896E-3,-3.2863926E-2,5.9553433E-2,-1.8233726E-3,1.336419E-2,2.4414991E-3,1.9260846E-2],"categories":[],"categories_nodes":[],"categories_segments":[],"categories_sizes":[],"default_left":[0,0,0,0,0,0,0],"id":66,"left_children":[1,3,5,-1,-1,-1,-1],"loss_changes":[8.0401125E0,2.5407822E0,5.4483666E0,0E0,0E0,0E0,0E0],"parents":[2147483647,0,0,1,1,2,2],"right_children":[2,4,6,-1,-1,-1,-1],"split_conditions":[3.0516294E-1,-5.45489E-1,5.152609E0,-1.8233726E-3,1.336419E-2,2.4414991E-3,1.9260846E-2],"split_indices":[31,1021,31,0,0,0,0],"split_type":[0,0,0,0,0,0,0],"sum_hessian":[3.853E3,2.249E3,1.604E3,2.231E3,1.8E1,1.564E3,4E1],"tree_param":{"num_deleted":"0","num_feature":"1058","num_nodes":"7","size_leaf_vector":"1"}},{"base_weights":[1.6758747E-3,-2.9422413E-3,3.8913292E-1,-1.675187E-3,1.93219E-3,-6.7477166E-3,2.5890177E-2],"categories":[],"categories_nodes":[],"categories_segments":[],"categories_sizes":[],"default_left":[0,0,0,0,0,0,0],"id":67,"left_children":[1,3,5,-1,-1,-1,-1],"loss_changes":[6.9880137E0,4.9225564E0,3.8007903E0,0E0,0E0,0E0,0E0],"parents":[2147483647,0,0,1,1,2,2],"right_children":[2,4,6,-1,-1,-1,-1],"split_conditions":[6.7801843E2,3.0171004E-1,2.3192008E0,-1.675187E-3,1.93219E-3,-6.7477166E-3,2.5890177E-2],"split_indices":[32,31,31,0,0,0,0],"split_type":[0,0,0,0,0,0,0],"sum_hessian":[3.889E3,3.853E3,3.6E1,2.222E3,1.631E3,7E0,2.9E1],"tree_param":{"num_deleted":"0","num_feature":"1058","num_nodes":"7","size_leaf_vector":"1"}},{"base_weights":[2.454745E-3,-6.3123093E-3,2.0282471E-1,-2.7515555E-3,9.143352E-4,-2.9311723E-3,1.431634E-2],"categories":[],"categories_nodes":[],"categories_segments":[],"categories_sizes":[],"default_left":[0,0,0,0,0,0,0],"id":68,"left_children":[1,3,5,-1,-1,-1,-1],"loss_changes":[6.8725376E0,4.5053906E0,3.7482157E0,0E0,0E0,0E0,0E0],"parents":[2147483647,0,0,1,1,2,2],"right_children":[2,4,6,-1,-1,-1,-1],"split_conditions":[2.2254553E2,2.3025684E0,2.1749102E-1,-2.7515555E-3,9.143352E-4,-2.9311723E-3,1.431634E-2],"split_indices":[32,32,819,0,0,0,0],"split_type":[0,0,0,0,0,0,0],"sum_hessian":[3.895E3,3.741E3,1.54E2,1.251E3,2.49E3,3.8E1,1.16E2],"tree_param":{"num_deleted":"0","num_feature":"1058","num_nodes":"7","size_leaf_vector":"1"}},{"base_weights":[5.4268334E-3,-2.979469E-2,5.283955E-2,1.2643034E-2,-1.7079016E-3,1.0833571E-3,8.221097E-3],"categories":[],"categories_nodes":[],"categories_segments":[],"categories_sizes":[],"default_left":[0,0,0,0,0,0,0],"id":69,"left_children":[1,3,5,-1,-1,-1,-1],"loss_changes":[6.470093E0,2.8292804E0,5.707034E0,0E0,0E0,0E0,0E0],"parents":[2147483647,0,0,1,1,2,2],"right_children":[2,4,6,-1,-1,-1,-1],"split_conditions":[3.0346507E-1,6.3360184E-1,-1.514236E-1,1.2643034E-2,-1.7079016E-3,1.0833571E-3,8.221097E-3],"split_indices":[31,678,961,0,0,0,0],"split_type":[0,0,0,0,0,0,0],"sum_hessian":[3.855E3,2.214E3,1.641E3,2.5E1,2.189E3,1.292E3,3.49E2],"tree_param":{"num_deleted":"0","num_feature":"1058","num_nodes":"7","size_leaf_vector":"1"}},{"base_weights":[-2.493793E-3,-1.5307002E-2,8.407087E-2,-1.0673517E-3,6.981326E-3,1.0943705E-2,1.0022252E-3],"categories":[],"categories_nodes":[],"categories_segments":[],"categories_sizes":[],"default_left":[0,0,0,0,0,0,0],"id":70,"left_children":[1,3,5,-1,-1,-1,-1],"loss_changes":[4.300924E0,3.1890779E0,4.2716084E0,0E0,0E0,0E0,0E0],"parents":[2147483647,0,0,1,1,2,2],"right_children":[2,4,6,-1,-1,-1,-1],"split_conditions":[7.640077E1,-1.003653E0,-4.1559556E-1,-1.0673517E-3,6.981326E-3,1.0943705E-2,1.0022252E-3],"split_indices":[32,244,901,0,0,0,0],"split_type":[0,0,0,0,0,0,0],"sum_hessian":[3.856E3,3.366E3,4.9E2,3.248E3,1.18E2,1.5E2,3.4E2],"tree_param":{"num_deleted":"0","num_feature":"1058","num_nodes":"7","size_leaf_vector":"1"}},{"base_weights":[5.54475E-3,-2.8121913E-2,5.2027483E-2,-1.0875025E-3,-1.1914194E-2,8.803937E-3,1.2063964E-3],"categories":[],"categories_nodes":[],"categories_segments":[],"categories_sizes":[],"default_left":[0,0,0,0,0,0,0],"id":71,"left_children":[1,3,5,-1,-1,-1,-1],"loss_changes":[6.1412873E0,2.9973567E0,5.661202E0,0E0,0E0,0E0,0E0],"parents":[2147483647,0,0,1,1,2,2],"right_children":[2,4,6,-1,-1,-1,-1],"split_conditions":[3.0516294E-1,1.2292169E1,1.07949466E-1,-1.0875025E-3,-1.1914194E-2,8.803937E-3,1.2063964E-3],"split_indices":[31,32,451,0,0,0,0],"split_type":[0,0,0,0,0,0,0],"sum_hessian":[3.905E3,2.267E3,1.638E3,2.211E3,5.6E1,2.91E2,1.347E3],"tree_param":{"num_deleted":"0","num_feature":"1058","num_nodes":"7","size_leaf_vector":"1"}},{"base_weights":[-6.6257676E-4,-3.7034939E-3,4.9743697E-1,-2.5451432E-3,7.058246E-4,2.7322868E-2,-3.4822823E-4],"categories":[],"categories_nodes":[],"categories_segments":[],"categories_sizes":[],"default_left":[0,0,0,0,0,0,0],"id":72,"left_children":[1,3,5,-1,-1,-1,-1],"loss_changes":[5.9908037E0,3.3118365E0,6.314821E-1,0E0,0E0,0E0,0E0],"parents":[2147483647,0,0,1,1,2,2],"right_children":[2,4,6,-1,-1,-1,-1],"split_conditions":[1.6221248E3,1.0898432E-2,-4.6658835E-1,-2.5451432E-3,7.058246E-4,2.7322868E-2,-3.4822823E-4],"split_indices":[32,32,98,0,0,0,0],"split_type":[0,0,0,0,0,0,0],"sum_hessian":[3.933E3,3.919E3,1.4E1,1.069E3,2.85E3,1.2E1,2E0],"tree_param":{"num_deleted":"0","num_feature":"1058","num_nodes":"7","size_leaf_vector":"1"}},{"base_weights":[2.269551E-3,-1.9554092E-4,4.7813004E-1,-3.0785985E-4,7.95399E-3,2.6792997E-2,-3.4532548E-4],"categories":[],"categories_nodes":[],"categories_segments":[],"categories_sizes":[],"default_left":[0,0,0,0,0,0,0],"id":73,"left_children":[1,3,5,-1,-1,-1,-1],"loss_changes":[4.5523295E0,3.6845334E0,5.970311E-1,0E0,0E0,0E0,0E0],"parents":[2147483647,0,0,1,1,2,2],"right_children":[2,4,6,-1,-1,-1,-1],"split_conditions":[1.6221248E3,-8.767007E-1,-4.6660542E-1,-3.0785985E-4,7.95399E-3,2.6792997E-2,-3.4532548E-4],"split_indices":[32,418,98,0,0,0,0],"split_type":[0,0,0,0,0,0,0],"sum_hessian":[3.87E3,3.86E3,1E1,3.73E3,1.3E2,8E0,2E0],"tree_param":{"num_deleted":"0","num_feature":"1058","num_nodes":"7","size_leaf_vector":"1"}},{"base_weights":[-1.5417294E-3,-6.120436E-3,2.9416254E-1,2.065562E-3,-1.3660933E-3,2.7833981E-2,-1.4094964E-3],"categories":[],"categories_nodes":[],"categories_segments":[],"categories_sizes":[],"default_left":[0,0,0,0,0,0,0],"id":74,"left_children":[1,3,5,-1,-1,-1,-1],"loss_changes":[5.2388086E0,3.8396795E0,5.149687E0,0E0,0E0,0E0,0E0],"parents":[2147483647,0,0,1,1,2,2],"right_children":[2,4,6,-1,-1,-1,-1],"split_conditions":[5.152609E0,-2.3834394E-2,8.570269E-2,2.065562E-3,-1.3660933E-3,2.7833981E-2,-1.4094964E-3],"split_indices":[31,219,507,0,0,0,0],"split_type":[0,0,0,0,0,0,0],"sum_hessian":[3.846E3,3.797E3,4.9E1,1.17E3,2.627E3,2.3E1,2.6E1],"tree_param":{"num_deleted":"0","num_feature":"1058","num_nodes":"7","size_leaf_vector":"1"}},{"base_weights":[3.5396249E-3,1.1501922E-3,4.6293032E-1,-2.3775774E-3,9.723023E-4,-1.2159011E-3,2.5068698E-2],"categories":[],"categories_nodes":[],"categories_segments":[],"categories_sizes":[],"default_left":[0,0,0,0,0,0,0],"id":75,"left_children":[1,3,5,-1,-1,-1,-1],"loss_changes":[4.242709E0,3.4486609E0,4.965558E-1,0E0,0E0,0E0,0E0],"parents":[2147483647,0,0,1,1,2,2],"right_children":[2,4,6,-1,-1,-1,-1],"split_conditions":[1.6221248E3,1.0898432E-2,1.4436762E-6,-2.3775774E-3,9.723023E-4,-1.2159011E-3,2.5068698E-2],"split_indices":[32,32,5,0,0,0,0],"split_type":[0,0,0,0,0,0,0],"sum_hessian":[3.86E3,3.85E3,1E1,1.047E3,2.803E3,1E0,9E0],"tree_param":{"num_deleted":"0","num_feature":"1058","num_nodes":"7","size_leaf_vector":"1"}},{"base_weights":[-6.124073E-4,-3.668147E-3,4.9365398E-1,-1.2143712E-3,1.8437718E-3,2.7161175E-2,-4.3008925E-4],"categories":[],"categories_nodes":[],"categories_segments":[],"categories_sizes":[],"default_left":[0,0,0,0,0,0,0],"id":76,"left_children":[1,3,5,-1,-1,-1,-1],"loss_changes":[5.899408E0,3.2525558E0,6.4424515E-1,0E0,0E0,0E0,0E0],"parents":[2147483647,0,0,1,1,2,2],"right_children":[2,4,6,-1,-1,-1,-1],"split_conditions":[1.6221248E3,-2.225564E-2,-4.6655482E-1,-1.2143712E-3,1.8437718E-3,2.7161175E-2,-4.3008925E-4],"split_indices":[32,74,98,0,0,0,0],"split_type":[0,0,0,0,0,0,0],"sum_hessian":[3.884E3,3.87E3,1.4E1,2.568E3,1.302E3,1.2E1,2E0],"tree_param":{"num_deleted":"0","num_feature":"1058","num_nodes":"7","size_leaf_vector":"1"}},{"base_weights":[-2.1616757E-4,-2.8207242E-3,4.7714075E-1,-2.4047203E-3,8.363571E-4,-1.2084192E-3,2.571452E-2],"categories":[],"categories_nodes":[],"categories_segments":[],"categories_sizes":[],"default_left":[0,0,0,0,0,0,0],"id":77,"left_children":[1,3,5,-1,-1,-1,-1],"loss_changes":[4.8113656E0,3.4135396E0,5.153885E-1,0E0,0E0,0E0,0E0],"parents":[2147483647,0,0,1,1,2,2],"right_children":[2,4,6,-1,-1,-1,-1],"split_conditions":[1.6221248E3,1.3095533E0,3.0036697E-6,-2.4047203E-3,8.363571E-4,-1.2084192E-3,2.571452E-2],"split_indices":[32,32,17,0,0,0,0],"split_type":[0,0,0,0,0,0,0],"sum_hessian":[3.849E3,3.838E3,1.1E1,1.153E3,2.685E3,1E0,1E1],"tree_param":{"num_deleted":"0","num_feature":"1058","num_nodes":"7","size_leaf_vector":"1"}},{"base_weights":[-2.6962193E-4,-2.7046197E-3,4.257562E-1,4.8269606E-3,-6.2837795E-4,1.2575388E-3,2.5040347E-2],"categories":[],"categories_nodes":[],"categories_segments":[],"categories_sizes":[],"default_left":[0,0,0,0,0,0,0],"id":78,"left_children":[1,3,5,-1,-1,-1,-1],"loss_changes":[4.015771E0,3.7786927E0,5.354893E-1,0E0,0E0,0E0,0E0],"parents":[2147483647,0,0,1,1,2,2],"right_children":[2,4,6,-1,-1,-1,-1],"split_conditions":[1.6221248E3,-1.7247368E-1,-7.979939E-1,4.8269606E-3,-6.2837795E-4,1.2575388E-3,2.5040347E-2],"split_indices":[32,852,143,0,0,0,0],"split_type":[0,0,0,0,0,0,0],"sum_hessian":[3.85E3,3.838E3,1.2E1,3.39E2,3.499E3,4E0,8E0],"tree_param":{"num_deleted":"0","num_feature":"1058","num_nodes":"7","size_leaf_vector":"1"}},{"base_weights":[7.703137E-3,-4.1318773E-3,1.1237999E-1,6.115477E-3,-7.397777E-4,8.480933E-3,-3.345618E-3],"categories":[],"categories_nodes":[],"categories_segments":[],"categories_sizes":[],"default_left":[0,0,0,0,0,0,0],"id":79,"left_children":[1,3,5,-1,-1,-1,-1],"loss_changes":[4.829972E0,4.7493877E0,4.177427E0,0E0,0E0,0E0,0E0],"parents":[2147483647,0,0,1,1,2,2],"right_children":[2,4,6,-1,-1,-1,-1],"split_conditions":[1.2094283E0,1.180951E0,-6.8924236E-1,6.115477E-3,-7.397777E-4,8.480933E-3,-3.345618E-3],"split_indices":[31,916,780,0,0,0,0],"split_type":[0,0,0,0,0,0,0],"sum_hessian":[3.885E3,3.499E3,3.86E2,2.64E2,3.235E3,2.93E2,9.3E1],"tree_param":{"num_deleted":"0","num_feature":"1058","num_nodes":"7","size_leaf_vector":"1"}},{"base_weights":[-2.0225598E-3,-2.4796413E-2,2.9270854E-2,-6.158006E-4,-5.599371E-3,6.9464925E-3,1.2408054E-4],"categories":[],"categories_nodes":[],"categories_segments":[],"categories_sizes":[],"default_left":[0,0,0,0,0,0,0],"id":80,"left_children":[1,3,5,-1,-1,-1,-1],"loss_changes":[2.7759874E0,2.4389625E0,4.8172874E0,0E0,0E0,0E0,0E0],"parents":[2147483647,0,0,1,1,2,2],"right_children":[2,4,6,-1,-1,-1,-1],"split_conditions":[3.0171004E-1,-1.914724E-1,4.8206913E-1,-6.158006E-4,-5.599371E-3,6.9464925E-3,1.2408054E-4],"split_indices":[31,970,602,0,0,0,0],"split_type":[0,0,0,0,0,0,0],"sum_hessian":[3.875E3,2.244E3,1.631E3,1.973E3,2.71E2,3.12E2,1.319E3],"tree_param":{"num_deleted":"0","num_feature":"1058","num_nodes":"7","size_leaf_vector":"1"}},{"base_weights":[5.908429E-4,-4.997324E-2,2.398847E-2,-1.0189178E-3,-7.026358E-3,-3.258277E-4,5.494793E-3],"categories":[],"categories_nodes":[],"categories_segments":[],"categories_sizes":[],"default_left":[0,0,0,0,0,0,0],"id":81,"left_children":[1,3,5,-1,-1,-1,-1],"loss_changes":[4.625998E0,3.286439E0,7.012044E0,0E0,0E0,0E0,0E0],"parents":[2147483647,0,0,1,1,2,2],"right_children":[2,4,6,-1,-1,-1,-1],"split_conditions":[2.5747712E0,7.2167665E-2,2.6292238E-1,-1.0189178E-3,-7.026358E-3,-3.258277E-4,5.494793E-3],"split_indices":[32,636,628,0,0,0,0],"split_type":[0,0,0,0,0,0,0],"sum_hessian":[3.89E3,1.227E3,2.663E3,9.34E2,2.93E2,1.972E3,6.91E2],"tree_param":{"num_deleted":"0","num_feature":"1058","num_nodes":"7","size_leaf_vector":"1"}},{"base_weights":[5.472494E-3,3.6997966E-2,-2.6806688E-2,-1.5167891E-3,3.986357E-3,-1.0261298E-3,-1.025757E-2],"categories":[],"categories_nodes":[],"categories_segments":[],"categories_sizes":[],"default_left":[0,0,0,0,0,0,0],"id":82,"left_children":[1,3,5,-1,-1,-1,-1],"loss_changes":[3.9379177E0,5.6546993E0,2.101863E0,0E0,0E0,0E0,0E0],"parents":[2147483647,0,0,1,1,2,2],"right_children":[2,4,6,-1,-1,-1,-1],"split_conditions":[-3.1908244E-2,1.0898432E-2,-4.153323E-1,-1.5167891E-3,3.986357E-3,-1.0261298E-3,-1.025757E-2],"split_indices":[688,32,381,0,0,0,0],"split_type":[0,0,0,0,0,0,0],"sum_hessian":[3.85E3,1.947E3,1.903E3,7.57E2,1.19E3,1.849E3,5.4E1],"tree_param":{"num_deleted":"0","num_feature":"1058","num_nodes":"7","size_leaf_vector":"1"}},{"base_weights":[-1.804478E-4,-3.5643186E-3,3.2877693E-1,-4.74642E-4,6.13822E-3,2.3004143E-2,-5.9754625E-3],"categories":[],"categories_nodes":[],"categories_segments":[],"categories_sizes":[],"default_left":[0,0,0,0,0,0,0],"id":83,"left_children":[1,3,5,-1,-1,-1,-1],"loss_changes":[4.3730373E0,2.9235423E0,2.9043465E0,0E0,0E0,0E0,0E0],"parents":[2147483647,0,0,1,1,2,2],"right_children":[2,4,6,-1,-1,-1,-1],"split_conditions":[6.7938867E0,2.9839575E-1,6.0592943E-1,-4.74642E-4,6.13822E-3,2.3004143E-2,-5.9754625E-3],"split_indices":[31,550,626,0,0,0,0],"split_type":[0,0,0,0,0,0,0],"sum_hessian":[3.908E3,3.878E3,3E1,3.713E3,1.65E2,2.3E1,7E0],"tree_param":{"num_deleted":"0","num_feature":"1058","num_nodes":"7","size_leaf_vector":"1"}},{"base_weights":[3.6779838E-3,1.0777886E-3,4.4060743E-1,-2.857259E-4,6.3485713E-3,2.589117E-2,1.0547391E-3],"categories":[],"categories_nodes":[],"categories_segments":[],"categories_sizes":[],"default_left":[0,0,0,0,0,0,0],"id":84,"left_children":[1,3,5,-1,-1,-1,-1],"loss_changes":[4.4169593E0,3.3242207E0,6.3580704E-1,0E0,0E0,0E0,0E0],"parents":[2147483647,0,0,1,1,2,2],"right_children":[2,4,6,-1,-1,-1,-1],"split_conditions":[1.6221248E3,-1.2802696E-1,1.708008E-1,-2.857259E-4,6.3485713E-3,2.589117E-2,1.0547391E-3],"split_indices":[32,785,582,0,0,0,0],"split_type":[0,0,0,0,0,0,0],"sum_hessian":[3.882E3,3.869E3,1.3E1,3.68E3,1.89E2,9E0,4E0],"tree_param":{"num_deleted":"0","num_feature":"1058","num_nodes":"7","size_leaf_vector":"1"}},{"base_weights":[6.2441514E-3,2.9591485E-3,2.7597088E-1,1.4144259E-3,-1.2509463E-3,-2.398288E-3,2.4120236E-2],"categories":[],"categories_nodes":[],"categories_segments":[],"categories_sizes":[],"default_left":[0,0,0,0,0,0,0],"id":85,"left_children":[1,3,5,-1,-1,-1,-1],"loss_changes":[3.3871894E0,2.6971774E0,3.307477E0,0E0,0E0,0E0,0E0],"parents":[2147483647,0,0,1,1,2,2],"right_children":[2,4,6,-1,-1,-1,-1],"split_conditions":[6.7801843E2,-3.1906046E-2,-1.946935E-1,1.4144259E-3,-1.2509463E-3,-2.398288E-3,2.4120236E-2],"split_indices":[32,688,319,0,0,0,0],"split_type":[0,0,0,0,0,0,0],"sum_hessian":[3.822E3,3.786E3,3.6E1,1.987E3,1.799E3,1.7E1,1.9E1],"tree_param":{"num_deleted":"0","num_feature":"1058","num_nodes":"7","size_leaf_vector":"1"}},{"base_weights":[-1.8778554E-5,6.791221E-2,-1.4411599E-2,4.161121E-4,1.2068938E-2,-8.312884E-4,1.8251864E-2],"categories":[],"categories_nodes":[],"categories_segments":[],"categories_sizes":[],"default_left":[0,0,0,0,0,0,0],"id":86,"left_children":[1,3,5,-1,-1,-1,-1],"loss_changes":[3.7916026E0,6.988308E0,2.7492146E0,0E0,0E0,0E0,0E0],"parents":[2147483647,0,0,1,1,2,2],"right_children":[2,4,6,-1,-1,-1,-1],"split_conditions":[1.4161193E-1,-2.4589936E-1,1.6221248E3,4.161121E-4,1.2068938E-2,-8.312884E-4,1.8251864E-2],"split_indices":[817,703,32,0,0,0,0],"split_type":[0,0,0,0,0,0,0],"sum_hessian":[3.858E3,6.68E2,3.19E3,5.05E2,1.63E2,3.181E3,9E0],"tree_param":{"num_deleted":"0","num_feature":"1058","num_nodes":"7","size_leaf_vector":"1"}},{"base_weights":[3.9450442E-3,7.9804845E-4,2.8450078E-1,1.1171929E-2,-1.3020198E-4,2.2926409E-2,-1.059709E-2],"categories":[],"categories_nodes":[],"categories_segments":[],"categories_sizes":[],"default_left":[0,0,0,0,0,0,0],"id":87,"left_children":[1,3,5,-1,-1,-1,-1],"loss_changes":[3.4225287E0,2.9189425E0,4.686781E0,0E0,0E0,0E0,0E0],"parents":[2147483647,0,0,1,1,2,2],"right_children":[2,4,6,-1,-1,-1,-1],"split_conditions":[6.7938867E0,3.915262E-1,2.101131E-1,1.1171929E-2,-1.3020198E-4,2.2926409E-2,-1.059709E-2],"split_indices":[31,883,543,0,0,0,0],"split_type":[0,0,0,0,0,0,0],"sum_hessian":[3.869E3,3.836E3,3.3E1,4.8E1,3.788E3,2.5E1,8E0],"tree_param":{"num_deleted":"0","num_feature":"1058","num_nodes":"7","size_leaf_vector":"1"}},{"base_weights":[-3.1504491E-3,-4.48331E-2,1.4906201E-2,-1.3763927E-3,-9.683581E-3,-3.9004706E-4,3.8057037E-3],"categories":[],"categories_nodes":[],"categories_segments":[],"categories_sizes":[],"default_left":[0,0,0,0,0,0,0],"id":88,"left_children":[1,3,5,-1,-1,-1,-1],"loss_changes":[2.9088974E0,2.9550893E0,3.7557688E0,0E0,0E0,0E0,0E0],"parents":[2147483647,0,0,1,1,2,2],"right_children":[2,4,6,-1,-1,-1,-1],"split_conditions":[1.3095533E0,3.4581652E-1,6.791231E0,-1.3763927E-3,-9.683581E-3,-3.9004706E-4,3.8057037E-3],"split_indices":[32,31,787,0,0,0,0],"split_type":[0,0,0,0,0,0,0],"sum_hessian":[3.846E3,1.158E3,2.688E3,1.048E3,1.1E2,1.967E3,7.21E2],"tree_param":{"num_deleted":"0","num_feature":"1058","num_nodes":"7","size_leaf_vector":"1"}},{"base_weights":[3.549479E-3,1.0356553E-3,3.8915795E-1,1.2070116E-3,-1.3334706E-3,2.3431329E-2,1.188058E-3],"categories":[],"categories_nodes":[],"categories_segments":[],"categories_sizes":[],"default_left":[0,0,0,0,0,0,0],"id":89,"left_children":[1,3,5,-1,-1,-1,-1],"loss_changes":[3.7415447E0,2.4702363E0,6.1458874E-1,0E0,0E0,0E0,0E0],"parents":[2147483647,0,0,1,1,2,2],"right_children":[2,4,6,-1,-1,-1,-1],"split_conditions":[1.6221248E3,-3.190029E-2,2.2945341E-1,1.2070116E-3,-1.3334706E-3,2.3431329E-2,1.188058E-3],"split_indices":[32,688,832,0,0,0,0],"split_type":[0,0,0,0,0,0,0],"sum_hessian":[3.854E3,3.839E3,1.5E1,2.094E3,1.745E3,1E1,5E0],"tree_param":{"num_deleted":"0","num_feature":"1058","num_nodes":"7","size_leaf_vector":"1"}},{"base_weights":[-3.4521075E-4,2.5906876E-1,-3.8453597E-3,2.3453897E-2,-1.7255491E-3,-6.550184E-4,4.0052095E-3],"categories":[],"categories_nodes":[],"categories_segments":[],"categories_sizes":[],"default_left":[0,0,0,0,0,0,0],"id":90,"left_children":[1,3,5,-1,-1,-1,-1],"loss_changes":[3.5465734E0,3.3679142E0,3.0040965E0,0E0,0E0,0E0,0E0],"parents":[2147483647,0,0,1,1,2,2],"right_children":[2,4,6,-1,-1,-1,-1],"split_conditions":[-1.3331312E-1,-3.4668165E-1,1.2094283E0,2.3453897E-2,-1.7255491E-3,-6.550184E-4,4.0052095E-3],"split_indices":[1002,1035,31,0,0,0,0],"split_type":[0,0,0,0,0,0,0],"sum_hessian":[3.885E3,4.2E1,3.843E3,2.1E1,2.1E1,3.469E3,3.74E2],"tree_param":{"num_deleted":"0","num_feature":"1058","num_nodes":"7","size_leaf_vector":"1"}},{"base_weights":[1.1242513E-3,1.2557694E-1,-5.8171554E-3,1.5468495E-2,-6.555385E-4,-5.861585E-4,6.102852E-3],"categories":[],"categories_nodes":[],"categories_segments":[],"categories_sizes":[],"default_left":[0,0,0,0,0,0,0],"id":91,"left_children":[1,3,5,-1,-1,-1,-1],"loss_changes":[3.3686497E0,5.291465E0,2.8048718E0,0E0,0E0,0E0,0E0],"parents":[2147483647,0,0,1,1,2,2],"right_children":[2,4,6,-1,-1,-1,-1],"split_conditions":[1.1809351E0,-2.0557612E-2,-8.767117E-1,1.5468495E-2,-6.555385E-4,-5.861585E-4,6.102852E-3],"split_indices":[916,85,418,0,0,0,0],"split_type":[0,0,0,0,0,0,0],"sum_hessian":[3.881E3,1.96E2,3.685E3,7.9E1,1.17E2,3.531E3,1.54E2],"tree_param":{"num_deleted":"0","num_feature":"1058","num_nodes":"7","size_leaf_vector":"1"}},{"base_weights":[-3.1927442E-3,-8.7849805E-3,1.2722477E-1,-5.5981963E-4,1.2151775E-2,-2.2882366E-4,1.6385056E-2],"categories":[],"categories_nodes":[],"categories_segments":[],"categories_sizes":[],"default_left":[0,0,0,0,0,0,0],"id":92,"left_children":[1,3,5,-1,-1,-1,-1],"loss_changes":[2.8555465E0,2.3037648E0,4.269105E0,0E0,0E0,0E0,0E0],"parents":[2147483647,0,0,1,1,2,2],"right_children":[2,4,6,-1,-1,-1,-1],"split_conditions":[-8.76705E-1,6.7938867E0,3.2750294E-1,-5.5981963E-4,1.2151775E-2,-2.2882366E-4,1.6385056E-2],"split_indices":[418,31,129,0,0,0,0],"split_type":[0,0,0,0,0,0,0],"sum_hessian":[3.89E3,3.739E3,1.51E2,3.713E3,2.6E1,9.7E1,5.4E1],"tree_param":{"num_deleted":"0","num_feature":"1058","num_nodes":"7","size_leaf_vector":"1"}},{"base_weights":[-3.674381E-3,8.570971E-2,-1.2065055E-2,-4.671578E-5,1.1979036E-2,1.0382556E-2,-7.5197924E-4],"categories":[],"categories_nodes":[],"categories_segments":[],"categories_sizes":[],"default_left":[0,0,0,0,0,0,0],"id":93,"left_children":[1,3,5,-1,-1,-1,-1],"loss_changes":[2.9098134E0,4.4417953E0,2.3467655E0,0E0,0E0,0E0,0E0],"parents":[2147483647,0,0,1,1,2,2],"right_children":[2,4,6,-1,-1,-1,-1],"split_conditions":[2.2653975E-1,-3.538857E-2,-4.8143476E-1,-4.671578E-5,1.1979036E-2,1.0382556E-2,-7.5197924E-4],"split_indices":[184,863,83,0,0,0,0],"split_type":[0,0,0,0,0,0,0],"sum_hessian":[3.856E3,3.23E2,3.533E3,2.13E2,1.1E2,3.8E1,3.495E3],"tree_param":{"num_deleted":"0","num_feature":"1058","num_nodes":"7","size_leaf_vector":"1"}},{"base_weights":[-1.6852269E-3,-4.0062014E-3,3.8271463E-1,7.6476176E-4,-2.0527483E-3,1.0026678E-3,2.3615656E-2],"categories":[],"categories_nodes":[],"categories_segments":[],"categories_sizes":[],"default_left":[0,0,0,0,0,0,0],"id":94,"left_children":[1,3,5,-1,-1,-1,-1],"loss_changes":[3.4190075E0,2.725068E0,6.526451E-1,0E0,0E0,0E0,0E0],"parents":[2147483647,0,0,1,1,2,2],"right_children":[2,4,6,-1,-1,-1,-1],"split_conditions":[1.6221248E3,3.3992117E2,-2.0918296E-1,7.6476176E-4,-2.0527483E-3,1.0026678E-3,2.3615656E-2],"split_indices":[32,33,275,0,0,0,0],"split_type":[0,0,0,0,0,0,0],"sum_hessian":[3.805E3,3.792E3,1.3E1,2.497E3,1.295E3,5E0,8E0],"tree_param":{"num_deleted":"0","num_feature":"1058","num_nodes":"7","size_leaf_vector":"1"}},{"base_weights":[-1.6551962E-4,-1.3316943E-1,4.36241E-3,1.0624097E-2,-9.148802E-3,-1.0948126E-3,1.5443888E-3],"categories":[],"categories_nodes":[],"categories_segments":[],"categories_sizes":[],"default_left":[0,0,0,0,0,0,0],"id":95,"left_children":[1,3,5,-1,-1,-1,-1],"loss_changes":[2.3780024E0,2.6268342E0,2.6667757E0,0E0,0E0,0E0,0E0],"parents":[2147483647,0,0,1,1,2,2],"right_children":[2,4,6,-1,-1,-1,-1],"split_conditions":[-2.8462386E-2,4.7493345E-1,2.493671E-1,1.0624097E-2,-9.148802E-3,-1.0948126E-3,1.5443888E-3],"split_indices":[736,391,387,0,0,0,0],"split_type":[0,0,0,0,0,0,0],"sum_hessian":[3.929E3,1.2E2,3.809E3,1.1E1,1.09E2,1.915E3,1.894E3],"tree_param":{"num_deleted":"0","num_feature":"1058","num_nodes":"7","size_leaf_vector":"1"}},{"base_weights":[-3.7774278E-3,2.5404955E-3,-1.356382E-1,1.03541305E-2,-5.749343E-5,-6.3467835E-4,-1.2459249E-2],"categories":[],"categories_nodes":[],"categories_segments":[],"categories_sizes":[],"default_left":[0,0,0,0,0,0,0],"id":96,"left_children":[1,3,5,-1,-1,-1,-1],"loss_changes":[3.2433183E0,2.811122E0,2.4532437E0,0E0,0E0,0E0,0E0],"parents":[2147483647,0,0,1,1,2,2],"right_children":[2,4,6,-1,-1,-1,-1],"split_conditions":[3.5491437E-1,9.0315044E-2,-1.6760838E-1,1.03541305E-2,-5.749343E-5,-6.3467835E-4,-1.2459249E-2],"split_indices":[204,604,222,0,0,0,0],"split_type":[0,0,0,0,0,0,0],"sum_hessian":[3.879E3,3.711E3,1.68E2,5.6E1,3.655E3,8.6E1,8.2E1],"tree_param":{"num_deleted":"0","num_feature":"1058","num_nodes":"7","size_leaf_vector":"1"}},{"base_weights":[1.1257208E-3,-3.9452538E-2,2.0368716E-2,-8.3375146E-4,-6.3272933E-3,5.097327E-3,-1.15241004E-4],"categories":[],"categories_nodes":[],"categories_segments":[],"categories_sizes":[],"default_left":[0,0,0,0,0,0,0],"id":97,"left_children":[1,3,5,-1,-1,-1,-1],"loss_changes":[3.0267913E0,2.4526587E0,4.865099E0,0E0,0E0,0E0,0E0],"parents":[2147483647,0,0,1,1,2,2],"right_children":[2,4,6,-1,-1,-1,-1],"split_conditions":[2.3025684E0,7.219686E-2,-1.0157812E-1,-8.3375146E-4,-6.3272933E-3,5.097327E-3,-1.15241004E-4],"split_indices":[32,636,1015,0,0,0,0],"split_type":[0,0,0,0,0,0,0],"sum_hessian":[3.856E3,1.237E3,2.619E3,9.9E2,2.47E2,5.62E2,2.057E3],"tree_param":{"num_deleted":"0","num_feature":"1058","num_nodes":"7","size_leaf_vector":"1"}},{"base_weights":[3.9510083E-4,-6.227986E-3,1.352369E-1,-4.1198652E-4,1.7535444E-2,-9.0714464E-5,1.570768E-2],"categories":[],"categories_nodes":[],"categories_segments":[],"categories_sizes":[],"default_left":[0,0,0,0,0,0,0],"id":98,"left_children":[1,3,5,-1,-1,-1,-1],"loss_changes":[3.471744E0,2.6900487E0,4.4684753E0,0E0,0E0,0E0,0E0],"parents":[2147483647,0,0,1,1,2,2],"right_children":[2,4,6,-1,-1,-1,-1],"split_conditions":[-3.6132637E-1,1.6221248E3,7.1584E-2,-4.1198652E-4,1.7535444E-2,-9.0714464E-5,1.570768E-2],"split_indices":[1009,32,200,0,0,0,0],"split_type":[0,0,0,0,0,0,0],"sum_hessian":[3.868E3,3.696E3,1.72E2,3.685E3,1.1E1,1.03E2,6.9E1],"tree_param":{"num_deleted":"0","num_feature":"1058","num_nodes":"7","size_leaf_vector":"1"}},{"base_weights":[4.970112E-3,2.8414063E-3,3.747506E-1,-5.0619044E-3,4.917783E-4,1.0181581E-4,2.2822237E-2],"categories":[],"categories_nodes":[],"categories_segments":[],"categories_sizes":[],"default_left":[0,0,0,0,0,0,0],"id":99,"left_children":[1,3,5,-1,-1,-1,-1],"loss_changes":[3.0254037E0,2.8089192E0,6.605737E-1,0E0,0E0,0E0,0E0],"parents":[2147483647,0,0,1,1,2,2],"right_children":[2,4,6,-1,-1,-1,-1],"split_conditions":[1.6221248E3,-1.7468654E-2,-1.9472776E-1,-5.0619044E-3,4.917783E-4,1.0181581E-4,2.2822237E-2],"split_indices":[32,647,319,0,0,0,0],"split_type":[0,0,0,0,0,0,0],"sum_hessian":[3.847E3,3.835E3,1.2E1,2.33E2,3.602E3,4E0,8E0],"tree_param":{"num_deleted":"0","num_feature":"1058","num_nodes":"7","size_leaf_vector":"1"}},{"base_weights":[1.2165898E-3,-7.5444026E-4,3.3087802E-1,-1.8105153E-3,7.719423E-4,-3.3553672E-4,2.2698725E-2],"categories":[],"categories_nodes":[],"categories_segments":[],"categories_sizes":[],"default_left":[0,0,0,0,0,0,0],"id":100,"left_children":[1,3,5,-1,-1,-1,-1],"loss_changes":[2.5145173E0,2.2177787E0,9.8625255E-1,0E0,0E0,0E0,0E0],"parents":[2147483647,0,0,1,1,2,2],"right_children":[2,4,6,-1,-1,-1,-1],"split_conditions":[2.1779789E-1,1.6848226E0,2.8701425E-1,-1.8105153E-3,7.719423E-4,-3.3553672E-4,2.2698725E-2],"split_indices":[819,32,31,0,0,0,0],"split_type":[0,0,0,0,0,0,0],"sum_hessian":[3.856E3,3.843E3,1.3E1,1.201E3,2.642E3,6E0,7E0],"tree_param":{"num_deleted":"0","num_feature":"1058","num_nodes":"7","size_leaf_vector":"1"}},{"base_weights":[1.4475613E-3,-1.1408803E-1,6.8963887E-3,-9.056689E-3,2.421569E-3,1.280568E-4,1.003516E-2],"categories":[],"categories_nodes":[],"categories_segments":[],"categories_sizes":[],"default_left":[0,0,0,0,0,0,0],"id":101,"left_children":[1,3,5,-1,-1,-1,-1],"loss_changes":[2.4460511E0,1.9945674E0,3.1103268E0,0E0,0E0,0E0,0E0],"parents":[2147483647,0,0,1,1,2,2],"right_children":[2,4,6,-1,-1,-1,-1],"split_conditions":[4.0220153E-1,-5.4647446E-2,-1.2800522E-1,-9.056689E-3,2.421569E-3,1.280568E-4,1.003516E-2],"split_indices":[174,534,785,0,0,0,0],"split_type":[0,0,0,0,0,0,0],"sum_hessian":[3.863E3,1.65E2,3.698E3,1.16E2,4.9E1,3.627E3,7.1E1],"tree_param":{"num_deleted":"0","num_feature":"1058","num_nodes":"7","size_leaf_vector":"1"}},{"base_weights":[1.2217175E-3,-2.6051167E-2,2.6708612E-2,-8.2205934E-4,-1.3858363E-2,2.2875912E-4,5.548088E-3],"categories":[],"categories_nodes":[],"categories_segments":[],"categories_sizes":[],"default_left":[0,0,0,0,0,0,0],"id":102,"left_children":[1,3,5,-1,-1,-1,-1],"loss_changes":[2.6789267E0,4.4478474E0,3.7096267E0,0E0,0E0,0E0,0E0],"parents":[2147483647,0,0,1,1,2,2],"right_children":[2,4,6,-1,-1,-1,-1],"split_conditions":[2.4936056E-1,1.8503833E-1,-4.3091246E-1,-8.2205934E-4,-1.3858363E-2,2.2875912E-4,5.548088E-3],"split_indices":[387,770,955,0,0,0,0],"split_type":[0,0,0,0,0,0,0],"sum_hessian":[3.834E3,1.852E3,1.982E3,1.794E3,5.8E1,1.578E3,4.04E2],"tree_param":{"num_deleted":"0","num_feature":"1058","num_nodes":"7","size_leaf_vector":"1"}},{"base_weights":[4.618905E-3,2.4416086E-3,3.372912E-1,4.1599153E-3,-3.3327247E-4,2.0243177E-2,-2.4947865E-4],"categories":[],"categories_nodes":[],"categories_segments":[],"categories_sizes":[],"default_left":[0,0,0,0,0,0,0],"id":103,"left_children":[1,3,5,-1,-1,-1,-1],"loss_changes":[2.784767E0,2.8304312E0,5.984187E-1,0E0,0E0,0E0,0E0],"parents":[2147483647,0,0,1,1,2,2],"right_children":[2,4,6,-1,-1,-1,-1],"split_conditions":[1.6221248E3,8.815869E-2,1.708008E-1,4.1599153E-3,-3.3327247E-4,2.0243177E-2,-2.4947865E-4],"split_indices":[32,440,582,0,0,0,0],"split_type":[0,0,0,0,0,0,0],"sum_hessian":[3.846E3,3.831E3,1.5E1,3.8E2,3.451E3,1.1E1,4E0],"tree_param":{"num_deleted":"0","num_feature":"1058","num_nodes":"7","size_leaf_vector":"1"}},{"base_weights":[1.4428633E-3,-9.870631E-2,8.661572E-3,-1.0303408E-2,-1.6591195E-3,2.2731573E-4,9.3925325E-3],"categories":[],"categories_nodes":[],"categories_segments":[],"categories_sizes":[],"default_left":[0,0,0,0,0,0,0],"id":104,"left_children":[1,3,5,-1,-1,-1,-1],"loss_changes":[2.806357E0,1.7676964E0,2.6601434E0,0E0,0E0,0E0,0E0],"parents":[2147483647,0,0,1,1,2,2],"right_children":[2,4,6,-1,-1,-1,-1],"split_conditions":[-1.7468654E-2,-5.7937676E-1,2.5218102E-1,-1.0303408E-2,-1.6591195E-3,2.2731573E-4,9.3925325E-3],"split_indices":[647,753,786,0,0,0,0],"split_type":[0,0,0,0,0,0,0],"sum_hessian":[3.86E3,2.51E2,3.609E3,8.7E1,1.64E2,3.538E3,7.1E1],"tree_param":{"num_deleted":"0","num_feature":"1058","num_nodes":"7","size_leaf_vector":"1"}},{"base_weights":[5.2732846E-4,7.994263E-2,-6.8423576E-3,-3.0036992E-4,1.19141275E-2,-8.1826135E-4,3.3708431E-3],"categories":[],"categories_nodes":[],"categories_segments":[],"categories_sizes":[],"default_left":[0,0,0,0,0,0,0],"id":105,"left_children":[1,3,5,-1,-1,-1,-1],"loss_changes":[2.2675223E0,4.4917808E0,2.518625E0,0E0,0E0,0E0,0E0],"parents":[2147483647,0,0,1,1,2,2],"right_children":[2,4,6,-1,-1,-1,-1],"split_conditions":[2.2653975E-1,-3.538857E-2,-3.4234118E-1,-3.0036992E-4,1.19141275E-2,-8.1826135E-4,3.3708431E-3],"split_indices":[184,863,292,0,0,0,0],"split_type":[0,0,0,0,0,0,0],"sum_hessian":[3.855E3,3.19E2,3.536E3,2.13E2,1.06E2,3.141E3,3.95E2],"tree_param":{"num_deleted":"0","num_feature":"1058","num_nodes":"7","size_leaf_vector":"1"}},{"base_weights":[-4.468295E-3,8.043256E-2,-1.2471592E-2,1.3811934E-2,7.0454687E-4,1.2922451E-2,-7.783137E-4],"categories":[],"categories_nodes":[],"categories_segments":[],"categories_sizes":[],"default_left":[0,0,0,0,0,0,0],"id":106,"left_children":[1,3,5,-1,-1,-1,-1],"loss_changes":[2.6654654E0,4.3517275E0,3.0417504E0,0E0,0E0,0E0,0E0],"parents":[2147483647,0,0,1,1,2,2],"right_children":[2,4,6,-1,-1,-1,-1],"split_conditions":[2.1300286E-1,2.2257301E-1,3.9152038E-1,1.3811934E-2,7.0454687E-4,1.2922451E-2,-7.783137E-4],"split_indices":[239,998,883,0,0,0,0],"split_type":[0,0,0,0,0,0,0],"sum_hessian":[3.898E3,3.28E2,3.57E3,7.5E1,2.53E2,3.1E1,3.539E3],"tree_param":{"num_deleted":"0","num_feature":"1058","num_nodes":"7","size_leaf_vector":"1"}},{"base_weights":[5.7221204E-3,-1.6786947E-3,9.535812E-2,-4.1905275E-4,5.0352626E-3,8.244972E-3,-3.655192E-3],"categories":[],"categories_nodes":[],"categories_segments":[],"categories_sizes":[],"default_left":[0,0,0,0,0,0,0],"id":107,"left_children":[1,3,5,-1,-1,-1,-1],"loss_changes":[2.5920978E0,2.4904764E0,3.6116376E0,0E0,0E0,0E0,0E0],"parents":[2147483647,0,0,1,1,2,2],"right_children":[2,4,6,-1,-1,-1,-1],"split_conditions":[1.4225903E0,-3.7557173E-1,6.245827E-2,-4.1905275E-4,5.0352626E-3,8.244972E-3,-3.655192E-3],"split_indices":[31,882,697,0,0,0,0],"split_type":[0,0,0,0,0,0,0],"sum_hessian":[3.895E3,3.607E3,2.88E2,3.394E3,2.13E2,2.04E2,8.4E1],"tree_param":{"num_deleted":"0","num_feature":"1058","num_nodes":"7","size_leaf_vector":"1"}},{"base_weights":[-4.947652E-4,-2.6701477E-3,3.4940413E-1,-7.950116E-3,1.3653208E-4,2.3485327E-3,2.1206025E-2],"categories":[],"categories_nodes":[],"categories_segments":[],"categories_sizes":[],"default_left":[0,0,0,0,0,0,0],"id":108,"left_children":[1,3,5,-1,-1,-1,-1],"loss_changes":[2.9565566E0,3.2617168E0,3.431089E-1,0E0,0E0,0E0,0E0],"parents":[2147483647,0,0,1,1,2,2],"right_children":[2,4,6,-1,-1,-1,-1],"split_conditions":[1.6221248E3,-2.8462386E-2,-1.4134179E-1,-7.950116E-3,1.3653208E-4,2.3485327E-3,2.1206025E-2],"split_indices":[32,736,62,0,0,0,0],"split_type":[0,0,0,0,0,0,0],"sum_hessian":[3.862E3,3.848E3,1.4E1,1.19E2,3.729E3,6E0,8E0],"tree_param":{"num_deleted":"0","num_feature":"1058","num_nodes":"7","size_leaf_vector":"1"}},{"base_weights":[-8.3424663E-4,1.7670722E-1,-4.1951104E-3,-2.8031023E-4,2.32601E-2,4.5265697E-4,-2.466737E-3],"categories":[],"categories_nodes":[],"categories_segments":[],"categories_sizes":[],"default_left":[0,0,0,0,0,0,0],"id":109,"left_children":[1,3,5,-1,-1,-1,-1],"loss_changes":[2.312437E0,3.8130255E0,2.2775445E0,0E0,0E0,0E0,0E0],"parents":[2147483647,0,0,1,1,2,2],"right_children":[2,4,6,-1,-1,-1,-1],"split_conditions":[9.0315044E-2,-4.980669E-2,-2.3789076E-2,-2.8031023E-4,2.32601E-2,4.5265697E-4,-2.466737E-3],"split_indices":[604,321,219,0,0,0,0],"split_type":[0,0,0,0,0,0,0],"sum_hessian":[3.853E3,6.2E1,3.791E3,4.4E1,1.8E1,2.937E3,8.54E2],"tree_param":{"num_deleted":"0","num_feature":"1058","num_nodes":"7","size_leaf_vector":"1"}},{"base_weights":[3.082038E-3,9.047486E-2,-5.0418847E-3,1.9685577E-3,1.5427087E-2,-4.9144414E-4,7.7098156E-3],"categories":[],"categories_nodes":[],"categories_segments":[],"categories_sizes":[],"default_left":[0,0,0,0,0,0,0],"id":110,"left_children":[1,3,5,-1,-1,-1,-1],"loss_changes":[2.7464755E0,3.544908E0,2.7158885E0,0E0,0E0,0E0,0E0],"parents":[2147483647,0,0,1,1,2,2],"right_children":[2,4,6,-1,-1,-1,-1],"split_conditions":[2.2653975E-1,-1.23432875E-1,2.521778E-1,1.9685577E-3,1.5427087E-2,-4.9144414E-4,7.7098156E-3],"split_indices":[184,366,786,0,0,0,0],"split_type":[0,0,0,0,0,0,0],"sum_hessian":[3.852E3,3.19E2,3.533E3,2.68E2,5.1E1,3.439E3,9.4E1],"tree_param":{"num_deleted":"0","num_feature":"1058","num_nodes":"7","size_leaf_vector":"1"}},{"base_weights":[1.9719861E-3,-1.0588662E-1,7.38604E-3,-8.360659E-3,3.862187E-3,4.685396E-3,-1.2564806E-4],"categories":[],"categories_nodes":[],"categories_segments":[],"categories_sizes":[],"default_left":[0,0,0,0,0,0,0],"id":111,"left_children":[1,3,5,-1,-1,-1,-1],"loss_changes":[2.2478619E0,2.1956203E0,3.131535E0,0E0,0E0,0E0,0E0],"parents":[2147483647,0,0,1,1,2,2],"right_children":[2,4,6,-1,-1,-1,-1],"split_conditions":[-5.4763027E-2,1.6981928E-1,6.3253975E-1,-8.360659E-3,3.862187E-3,4.685396E-3,-1.2564806E-4],"split_indices":[534,743,691,0,0,0,0],"split_type":[0,0,0,0,0,0,0],"sum_hessian":[3.826E3,1.74E2,3.652E3,1.31E2,4.3E1,3.67E2,3.285E3],"tree_param":{"num_deleted":"0","num_feature":"1058","num_nodes":"7","size_leaf_vector":"1"}},{"base_weights":[2.6284722E-3,-2.5844248E-3,1.3046226E-1,-2.9249323E-4,1.2547878E-2,-1.5856493E-3,1.8680435E-2],"categories":[],"categories_nodes":[],"categories_segments":[],"categories_sizes":[],"default_left":[0,0,0,0,0,0,0],"id":112,"left_children":[1,3,5,-1,-1,-1,-1],"loss_changes":[2.6022708E0,3.125199E0,6.1516285E0,0E0,0E0,0E0,0E0],"parents":[2147483647,0,0,1,1,2,2],"right_children":[2,4,6,-1,-1,-1,-1],"split_conditions":[-8.767007E-1,5.152609E0,-2.2180954E-2,-2.9249323E-4,1.2547878E-2,-1.5856493E-3,1.8680435E-2],"split_indices":[418,31,74,0,0,0,0],"split_type":[0,0,0,0,0,0,0],"sum_hessian":[3.89E3,3.747E3,1.43E2,3.709E3,3.8E1,9.1E1,5.2E1],"tree_param":{"num_deleted":"0","num_feature":"1058","num_nodes":"7","size_leaf_vector":"1"}},{"base_weights":[1.9107475E-3,-8.049093E-4,2.491625E-1,-1.3629414E-4,1.7450629E-2,2.8011495E-2,-1.1558951E-3],"categories":[],"categories_nodes":[],"categories_segments":[],"categories_sizes":[],"default_left":[0,0,0,0,0,0,0],"id":113,"left_children":[1,3,5,-1,-1,-1,-1],"loss_changes":[2.5958202E0,2.5839078E0,3.68681E0,0E0,0E0,0E0,0E0],"parents":[2147483647,0,0,1,1,2,2],"right_children":[2,4,6,-1,-1,-1,-1],"split_conditions":[2.627023E-1,1.6221248E3,3.148015E2,-1.3629414E-4,1.7450629E-2,2.8011495E-2,-1.1558951E-3],"split_indices":[102,32,33,0,0,0,0],"split_type":[0,0,0,0,0,0,0],"sum_hessian":[3.853E3,3.821E3,3.2E1,3.81E3,1.1E1,1E1,2.2E1],"tree_param":{"num_deleted":"0","num_feature":"1058","num_nodes":"7","size_leaf_vector":"1"}},{"base_weights":[3.2769812E-3,-3.8880935E-5,2.4215151E-1,-3.4071717E-3,4.987707E-4,-4.8912293E-3,1.6696248E-2],"categories":[],"categories_nodes":[],"categories_segments":[],"categories_sizes":[],"default_left":[0,0,0,0,0,0,0],"id":114,"left_children":[1,3,5,-1,-1,-1,-1],"loss_changes":[3.0662165E0,2.6175666E0,1.9803014E0,0E0,0E0,0E0,0E0],"parents":[2147483647,0,0,1,1,2,2],"right_children":[2,4,6,-1,-1,-1,-1],"split_conditions":[5.855678E2,1.8577036E-2,-7.873882E-2,-3.4071717E-3,4.987707E-4,-4.8912293E-3,1.6696248E-2],"split_indices":[32,511,644,0,0,0,0],"split_type":[0,0,0,0,0,0,0],"sum_hessian":[3.861E3,3.818E3,4.3E1,4.82E2,3.336E3,9E0,3.4E1],"tree_param":{"num_deleted":"0","num_feature":"1058","num_nodes":"7","size_leaf_vector":"1"}},{"base_weights":[2.3934133E-3,-1.07285604E-1,7.3186858E-3,-7.153512E-3,8.94809E-3,-1.6394378E-4,4.3535028E-3],"categories":[],"categories_nodes":[],"categories_segments":[],"categories_sizes":[],"default_left":[0,0,0,0,0,0,0],"id":115,"left_children":[1,3,5,-1,-1,-1,-1],"loss_changes":[2.0989623E0,1.9666653E0,3.1418164E0,0E0,0E0,0E0,0E0],"parents":[2147483647,0,0,1,1,2,2],"right_children":[2,4,6,-1,-1,-1,-1],"split_conditions":[3.5735238E-1,8.763647E-2,-2.2195041E-2,-7.153512E-3,8.94809E-3,-1.6394378E-4,4.3535028E-3],"split_indices":[880,326,74,0,0,0,0],"split_type":[0,0,0,0,0,0,0],"sum_hessian":[3.861E3,1.57E2,3.704E3,1.44E2,1.3E1,3.278E3,4.26E2],"tree_param":{"num_deleted":"0","num_feature":"1058","num_nodes":"7","size_leaf_vector":"1"}},{"base_weights":[1.9745282E-3,-2.6656507E-2,2.8824128E-2,-8.0792414E-4,-1.2743716E-2,3.64725E-3,-6.019241E-4],"categories":[],"categories_nodes":[],"categories_segments":[],"categories_sizes":[],"default_left":[0,0,0,0,0,0,0],"id":116,"left_children":[1,3,5,-1,-1,-1,-1],"loss_changes":[2.9857504E0,4.462988E0,3.6217806E0,0E0,0E0,0E0,0E0],"parents":[2147483647,0,0,1,1,2,2],"right_children":[2,4,6,-1,-1,-1,-1],"split_conditions":[2.493671E-1,1.8503833E-1,3.3992117E2,-8.0792414E-4,-1.2743716E-2,3.64725E-3,-6.019241E-4],"split_indices":[387,770,33,0,0,0,0],"split_type":[0,0,0,0,0,0,0],"sum_hessian":[3.864E3,1.87E3,1.994E3,1.798E3,7.2E1,9.55E2,1.039E3],"tree_param":{"num_deleted":"0","num_feature":"1058","num_nodes":"7","size_leaf_vector":"1"}},{"base_weights":[-1.5504952E-3,-1.2964916E-1,3.5065697E-3,8.730519E-3,-8.594117E-3,-1.5233594E-6,9.615337E-3],"categories":[],"categories_nodes":[],"categories_segments":[],"categories_sizes":[],"default_left":[0,0,0,0,0,0,0],"id":117,"left_children":[1,3,5,-1,-1,-1,-1],"loss_changes":[2.5245008E0,2.2019012E0,2.5056183E0,0E0,0E0,0E0,0E0],"parents":[2147483647,0,0,1,1,2,2],"right_children":[2,4,6,-1,-1,-1,-1],"split_conditions":[-2.5904054E-2,-2.0855585E-1,-6.947382E-1,8.730519E-3,-8.594117E-3,-1.5233594E-6,9.615337E-3],"split_indices":[45,875,414,0,0,0,0],"split_type":[0,0,0,0,0,0,0],"sum_hessian":[3.88E3,1.38E2,3.742E3,1.3E1,1.25E2,3.683E3,5.9E1],"tree_param":{"num_deleted":"0","num_feature":"1058","num_nodes":"7","size_leaf_vector":"1"}},{"base_weights":[2.7473415E-3,2.7850375E-1,1.4276149E-4,2.3784274E-2,-4.442861E-3,4.3718718E-4,-3.969282E-3],"categories":[],"categories_nodes":[],"categories_segments":[],"categories_sizes":[],"default_left":[0,0,0,0,0,0,0],"id":118,"left_children":[1,3,5,-1,-1,-1,-1],"loss_changes":[2.7633502E0,3.0304084E0,2.6212742E0,0E0,0E0,0E0,0E0],"parents":[2147483647,0,0,1,1,2,2],"right_children":[2,4,6,-1,-1,-1,-1],"split_conditions":[6.335879E-1,8.396543E-3,-3.1885687E-2,2.3784274E-2,-4.442861E-3,4.3718718E-4,-3.969282E-3],"split_indices":[678,619,688,0,0,0,0],"split_type":[0,0,0,0,0,0,0],"sum_hessian":[3.838E3,2.6E1,3.812E3,1.5E1,1.1E1,3.448E3,3.64E2],"tree_param":{"num_deleted":"0","num_feature":"1058","num_nodes":"7","size_leaf_vector":"1"}},{"base_weights":[2.2202935E-3,-1.458387E-1,6.2401453E-3,4.4309623E-3,-9.453553E-3,1.5293732E-2,1.5726348E-4],"categories":[],"categories_nodes":[],"categories_segments":[],"categories_sizes":[],"default_left":[0,0,0,0,0,0,0],"id":119,"left_children":[1,3,5,-1,-1,-1,-1],"loss_changes":[2.3415918E0,1.2217152E0,3.5374227E0,0E0,0E0,0E0,0E0],"parents":[2147483647,0,0,1,1,2,2],"right_children":[2,4,6,-1,-1,-1,-1],"split_conditions":[-3.6523545E-1,-4.8142216E-1,3.6099933E-2,4.4309623E-3,-9.453553E-3,1.5293732E-2,1.5726348E-4],"split_indices":[487,83,136,0,0,0,0],"split_type":[0,0,0,0,0,0,0],"sum_hessian":[3.909E3,9.4E1,3.815E3,1.3E1,8.1E1,2.9E1,3.786E3],"tree_param":{"num_deleted":"0","num_feature":"1058","num_nodes":"7","size_leaf_vector":"1"}},{"base_weights":[8.29192E-4,-7.497638E-2,7.5256494E-3,-6.8613365E-3,4.4737863E-3,3.917193E-3,-8.8243825E-5],"categories":[],"categories_nodes":[],"categories_segments":[],"categories_sizes":[],"default_left":[0,0,0,0,0,0,0],"id":120,"left_children":[1,3,5,-1,-1,-1,-1],"loss_changes":[1.9574751E0,3.3270283E0,2.3318005E0,0E0,0E0,0E0,0E0],"parents":[2147483647,0,0,1,1,2,2],"right_children":[2,4,6,-1,-1,-1,-1],"split_conditions":[1.0034736E-1,-2.8573677E-1,-4.003171E-1,-6.8613365E-3,4.4737863E-3,3.917193E-3,-8.8243825E-5],"split_indices":[740,695,640,0,0,0,0],"split_type":[0,0,0,0,0,0,0],"sum_hessian":[3.835E3,3.03E2,3.532E3,2.21E2,8.2E1,4.01E2,3.131E3],"tree_param":{"num_deleted":"0","num_feature":"1058","num_nodes":"7","size_leaf_vector":"1"}},{"base_weights":[6.9121824E-4,6.872519E-2,-8.086171E-3,1.04022315E-2,-1.8448841E-4,-8.10686E-3,-1.0683213E-4],"categories":[],"categories_nodes":[],"categories_segments":[],"categories_sizes":[],"default_left":[0,0,0,0,0,0,0],"id":121,"left_children":[1,3,5,-1,-1,-1,-1],"loss_changes":[2.304626E0,4.456842E0,3.130155E0,0E0,0E0,0E0,0E0],"parents":[2147483647,0,0,1,1,2,2],"right_children":[2,4,6,-1,-1,-1,-1],"split_conditions":[-4.4394988E-1,4.175798E-2,-2.582988E-1,1.04022315E-2,-1.8448841E-4,-8.10686E-3,-1.0683213E-4],"split_indices":[322,301,67,0,0,0,0],"split_type":[0,0,0,0,0,0,0],"sum_hessian":[3.84E3,4.31E2,3.409E3,1.41E2,2.9E2,1.17E2,3.292E3],"tree_param":{"num_deleted":"0","num_feature":"1058","num_nodes":"7","size_leaf_vector":"1"}},{"base_weights":[1.0606005E-3,-3.3481263E-3,1.3565665E-1,-4.969881E-3,2.6139905E-4,1.2524399E-2,-2.4886027E-3],"categories":[],"categories_nodes":[],"categories_segments":[],"categories_sizes":[],"default_left":[0,0,0,0,0,0,0],"id":122,"left_children":[1,3,5,-1,-1,-1,-1],"loss_changes":[2.282594E0,3.0752409E0,2.7224221E0,0E0,0E0,0E0,0E0],"parents":[2147483647,0,0,1,1,2,2],"right_children":[2,4,6,-1,-1,-1,-1],"split_conditions":[-9.573381E-2,4.1627678E-1,-3.4138557E-2,-4.969881E-3,2.6139905E-4,1.2524399E-2,-2.4886027E-3],"split_indices":[162,433,887,0,0,0,0],"split_type":[0,0,0,0,0,0,0],"sum_hessian":[3.829E3,3.717E3,1.12E2,2.96E2,3.421E3,6.7E1,4.5E1],"tree_param":{"num_deleted":"0","num_feature":"1058","num_nodes":"7","size_leaf_vector":"1"}},{"base_weights":[8.563419E-4,-1.4656144E-1,4.7685076E-3,2.301047E-3,-1.139232E-2,-2.0659187E-4,3.998924E-3],"categories":[],"categories_nodes":[],"categories_segments":[],"categories_sizes":[],"default_left":[0,0,0,0,0,0,0],"id":123,"left_children":[1,3,5,-1,-1,-1,-1],"loss_changes":[2.2308319E0,1.6702621E0,2.524245E0,0E0,0E0,0E0,0E0],"parents":[2147483647,0,0,1,1,2,2],"right_children":[2,4,6,-1,-1,-1,-1],"split_conditions":[-3.6523545E-1,-4.8141137E-1,-6.652421E-1,2.301047E-3,-1.139232E-2,-2.0659187E-4,3.998924E-3],"split_indices":[487,83,318,0,0,0,0],"split_type":[0,0,0,0,0,0,0],"sum_hessian":[3.846E3,9E1,3.756E3,2.8E1,6.2E1,3.367E3,3.89E2],"tree_param":{"num_deleted":"0","num_feature":"1058","num_nodes":"7","size_leaf_vector":"1"}},{"base_weights":[1.8540671E-4,7.567475E-2,-7.841347E-3,2.8654217E-4,1.4357326E-2,-4.577999E-3,1.5046874E-4],"categories":[],"categories_nodes":[],"categories_segments":[],"categories_sizes":[],"default_left":[0,0,0,0,0,0,0],"id":124,"left_children":[1,3,5,-1,-1,-1,-1],"loss_changes":[2.3642306E0,5.5302296E0,3.2067087E0,0E0,0E0,0E0,0E0],"parents":[2147483647,0,0,1,1,2,2],"right_children":[2,4,6,-1,-1,-1,-1],"split_conditions":[-3.132763E-1,3.202747E-1,-1.413908E-1,2.8654217E-4,1.4357326E-2,-4.577999E-3,1.5046874E-4],"split_indices":[951,31,62,0,0,0,0],"split_type":[0,0,0,0,0,0,0],"sum_hessian":[3.882E3,3.65E2,3.517E3,2.82E2,8.3E1,3.95E2,3.122E3],"tree_param":{"num_deleted":"0","num_feature":"1058","num_nodes":"7","size_leaf_vector":"1"}},{"base_weights":[1.7167053E-3,7.7320345E-2,-4.800912E-3,1.14345495E-2,-7.091229E-4,-3.640114E-3,2.4937617E-4],"categories":[],"categories_nodes":[],"categories_segments":[],"categories_sizes":[],"default_left":[0,0,0,0,0,0,0],"id":125,"left_children":[1,3,5,-1,-1,-1,-1],"loss_changes":[1.9185605E0,4.3123426E0,2.391235E0,0E0,0E0,0E0,0E0],"parents":[2147483647,0,0,1,1,2,2],"right_children":[2,4,6,-1,-1,-1,-1],"split_conditions":[2.1300042E-1,-4.3950516E-1,1.8582959E-2,1.14345495E-2,-7.091229E-4,-3.640114E-3,2.4937617E-4],"split_indices":[239,127,511,0,0,0,0],"split_type":[0,0,0,0,0,0,0],"sum_hessian":[3.876E3,2.99E2,3.577E3,1.07E2,1.92E2,4.42E2,3.135E3],"tree_param":{"num_deleted":"0","num_feature":"1058","num_nodes":"7","size_leaf_vector":"1"}},{"base_weights":[-2.2423933E-3,2.0343515E-1,-5.8336155E-3,1.661369E-2,-3.3111875E-3,-5.3250976E-4,7.073564E-3],"categories":[],"categories_nodes":[],"categories_segments":[],"categories_sizes":[],"default_left":[0,0,0,0,0,0,0],"id":126,"left_children":[1,3,5,-1,-1,-1,-1],"loss_changes":[2.8836756E0,2.5477903E0,2.7331836E0,0E0,0E0,0E0,0E0],"parents":[2147483647,0,0,1,1,2,2],"right_children":[2,4,6,-1,-1,-1,-1],"split_conditions":[-1.0520075E-1,1.2310846E-1,-9.573381E-2,1.661369E-2,-3.3111875E-3,-5.3250976E-4,7.073564E-3],"split_indices":[117,157,162,0,0,0,0],"split_type":[0,0,0,0,0,0,0],"sum_hessian":[3.878E3,5.7E1,3.821E3,3.7E1,2E1,3.709E3,1.12E2],"tree_param":{"num_deleted":"0","num_feature":"1058","num_nodes":"7","size_leaf_vector":"1"}},{"base_weights":[2.4927333E-3,-7.877485E-2,1.0261341E-2,1.4544914E-2,-5.055013E-3,4.691196E-3,-9.348167E-5],"categories":[],"categories_nodes":[],"categories_segments":[],"categories_sizes":[],"default_left":[0,0,0,0,0,0,0],"id":127,"left_children":[1,3,5,-1,-1,-1,-1],"loss_changes":[2.467137E0,3.1084073E0,3.6145651E0,0E0,0E0,0E0,0E0],"parents":[2147483647,0,0,1,1,2,2],"right_children":[2,4,6,-1,-1,-1,-1],"split_conditions":[6.311373E-2,-3.276237E-2,-4.8834085E-1,1.4544914E-2,-5.055013E-3,4.691196E-3,-9.348167E-5],"split_indices":[182,775,167,0,0,0,0],"split_type":[0,0,0,0,0,0,0],"sum_hessian":[3.885E3,3.31E2,3.554E3,1.2E1,3.19E2,4.42E2,3.112E3],"tree_param":{"num_deleted":"0","num_feature":"1058","num_nodes":"7","size_leaf_vector":"1"}},{"base_weights":[1.4528788E-3,-1.2703137E-1,6.2949066E-3,6.4843968E-3,-9.245195E-3,-1.522768E-4,4.466781E-3],"categories":[],"categories_nodes":[],"categories_segments":[],"categories_sizes":[],"default_left":[0,0,0,0,0,0,0],"id":128,"left_children":[1,3,5,-1,-1,-1,-1],"loss_changes":[2.432415E0,2.3494911E0,2.9229941E0,0E0,0E0,0E0,0E0],"parents":[2147483647,0,0,1,1,2,2],"right_children":[2,4,6,-1,-1,-1,-1],"split_conditions":[2.9313195E-1,-7.925445E-1,2.344479E-1,6.4843968E-3,-9.245195E-3,-1.522768E-4,4.466781E-3],"split_indices":[756,719,923,0,0,0,0],"split_type":[0,0,0,0,0,0,0],"sum_hessian":[3.887E3,1.32E2,3.755E3,2.2E1,1.1E2,3.384E3,3.71E2],"tree_param":{"num_deleted":"0","num_feature":"1058","num_nodes":"7","size_leaf_vector":"1"}},{"base_weights":[1.1624133E-3,9.969204E-3,-7.6492414E-2,1.3051939E-2,3.359711E-4,5.2622235E-3,-5.922196E-3],"categories":[],"categories_nodes":[],"categories_segments":[],"categories_sizes":[],"default_left":[0,0,0,0,0,0,0],"id":129,"left_children":[1,3,5,-1,-1,-1,-1],"loss_changes":[2.6385498E0,2.808812E0,3.1209412E0,0E0,0E0,0E0,0E0],"parents":[2147483647,0,0,1,1,2,2],"right_children":[2,4,6,-1,-1,-1,-1],"split_conditions":[-1.6638754E-2,3.1227982E-1,-1.3848864E-1,1.3051939E-2,3.359711E-4,5.2622235E-3,-5.922196E-3],"split_indices":[938,133,430,0,0,0,0],"split_type":[0,0,0,0,0,0,0],"sum_hessian":[3.837E3,3.454E3,3.83E2,3.4E1,3.42E3,6.9E1,3.14E2],"tree_param":{"num_deleted":"0","num_feature":"1058","num_nodes":"7","size_leaf_vector":"1"}},{"base_weights":[-8.84335E-4,-7.579846E-2,8.1390655E-3,-1.0671361E-2,-4.7864445E-4,6.4624697E-3,-2.1771388E-5],"categories":[],"categories_nodes":[],"categories_segments":[],"categories_sizes":[],"default_left":[0,0,0,0,0,0,0],"id":130,"left_children":[1,3,5,-1,-1,-1,-1],"loss_changes":[2.6222124E0,3.7803342E0,3.5967484E0,0E0,0E0,0E0,0E0],"parents":[2147483647,0,0,1,1,2,2],"right_children":[2,4,6,-1,-1,-1,-1],"split_conditions":[-2.0854312E-1,-1.6477358E-1,8.763826E-2,-1.0671361E-2,-4.7864445E-4,6.4624697E-3,-2.1771388E-5],"split_indices":[875,132,432,0,0,0,0],"split_type":[0,0,0,0,0,0,0],"sum_hessian":[3.86E3,4.07E2,3.453E3,1.25E2,2.82E2,2.19E2,3.234E3],"tree_param":{"num_deleted":"0","num_feature":"1058","num_nodes":"7","size_leaf_vector":"1"}},{"base_weights":[-6.320619E-5,-8.616393E-3,7.862329E-2,-6.4157257E-3,-9.133351E-5,8.4588025E-3,-1.3760778E-3],"categories":[],"categories_nodes":[],"categories_segments":[],"categories_sizes":[],"default_left":[0,0,0,0,0,0,0],"id":131,"left_children":[1,3,5,-1,-1,-1,-1],"loss_changes":[2.6154015E0,2.8462298E0,3.7086196E0,0E0,0E0,0E0,0E0],"parents":[2147483647,0,0,1,1,2,2],"right_children":[2,4,6,-1,-1,-1,-1],"split_conditions":[-4.394286E-1,-1.4011021E-1,-4.0280715E-2,-6.4157257E-3,-9.133351E-5,8.4588025E-3,-1.3760778E-3],"split_indices":[127,80,877,0,0,0,0],"split_type":[0,0,0,0,0,0,0],"sum_hessian":[3.866E3,3.495E3,3.71E2,1.78E2,3.317E3,1.97E2,1.74E2],"tree_param":{"num_deleted":"0",