{"learner":{"attributes":{"best_iteration":"61","best_score":"0.42948333378946496","scikit_learn":"{\"_estimator_type\": \"regressor\"}"},"feature_names":[],"feature_types":[],"gradient_booster":{"model":{"cats":{"enc":[],"feature_segments":[],"sorted_idx":[]},"gbtree_model_param":{"num_parallel_tree":"1","num_trees":"112"},"iteration_indptr":[0,1,2,3,4,5,6,7,8,9,10,11,12,13,14,15,16,17,18,19,20,21,22,23,24,25,26,27,28,29,30,31,32,33,34,35,36,37,38,39,40,41,42,43,44,45,46,47,48,49,50,51,52,53,54,55,56,57,58,59,60,61,62,63,64,65,66,67,68,69,70,71,72,73,74,75,76,77,78,79,80,81,82,83,84,85,86,87,88,89,90,91,92,93,94,95,96,97,98,99,100,101,102,103,104,105,106,107,108,109,110,111,112],"tree_info":[0,0,0,0,0,0,0,0,0,0,0,0,0,0,0,0,0,0,0,0,0,0,0,0,0,0,0,0,0,0,0,0,0,0,0,0,0,0,0,0,0,0,0,0,0,0,0,0,0,0,0,0,0,0,0,0,0,0,0,0,0,0,0,0,0,0,0,0,0,0,0,0,0,0,0,0,0,0,0,0,0,0,0,0,0,0,0,0,0,0,0,0,0,0,0,0,0,0,0,0,0,0,0,0,0,0,0,0,0,0,0,0],"trees":[{"base_weights":[-1.7753264E-8,-3.6080515E-1,9.5239556E-1,-5.114116E-1,-6.061364E-2,7.2667E-1,1.4657121E0,-5.143666E-2,9.905077E-4,-3.7104473E-2,2.3660513E-2,7.627908E-2,7.816707E-3,1.2118256E-1,1.8069579E-1],"categories":[],"categories_nodes":[],"categories_segments":[],"categories_sizes":[],"default_left":[0,0,0,0,0,0,0,0,0,0,0,0,0,0,0],"id":0,"left_children":[1,3,5,7,9,11,13,-1,-1,-1,-1,-1,-1,-1,-1],"loss_changes":[1.6659146E3,1.5865112E2,1.4368616E2,3.6556396E0,1.1030531E2,2.1539825E1,1.2497925E1,0E0,0E0,0E0,0E0,0E0,0E0,0E0,0E0],"parents":[2147483647,0,0,1,1,2,2,3,3,4,4,5,5,6,6],"right_children":[2,4,6,8,10,12,14,-1,-1,-1,-1,-1,-1,-1,-1],"split_conditions":[1.6414524E1,2.2315991E-1,1.2307418E2,1.0519655E1,2.3025684E0,8.667474E-6,2.9772958E2,-5.143666E-2,9.905077E-4,-3.7104473E-2,2.3660513E-2,7.627908E-2,7.816707E-3,1.2118256E-1,1.8069579E-1],"split_indices":[32,24,32,32,32,0,32,0,0,0,0,0,0,0,0],"split_type":[0,0,0,0,0,0,0,0,0,0,0,0,0,0,0],"sum_hessian":[4.828E3,3.506E3,1.322E3,2.33E3,1.176E3,9.35E2,3.87E2,2.317E3,1.3E1,5.74E2,6.02E2,8.84E2,5.1E1,2.48E2,1.39E2],"tree_param":{"num_deleted":"0","num_feature":"34","num_nodes":"15","size_leaf_vector":"1"}},{"base_weights":[6.6572445E-4,-3.8491586E-1,9.6183693E-1,-4.537327E-1,1.2889619E-2,7.999094E-1,1.4174486E0,-3.691989E-2,-4.770491E-2,7.276568E-3,-3.2060727E-2,3.4487795E-2,8.727454E-2,1.23481944E-1,1.9959174E-1],"categories":[],"categories_nodes":[],"categories_segments":[],"categories_sizes":[],"default_left":[0,0,0,0,0,0,0,0,0,0,0,0,0,0,0],"id":1,"left_children":[1,3,5,7,9,11,13,-1,-1,-1,-1,-1,-1,-1,-1],"loss_changes":[1.7967129E3,9.477844E1,9.1062744E1,4.0532227E0,1.0616901E1,3.169043E1,1.2435547E1,0E0,0E0,0E0,0E0,0E0,0E0,0E0,0E0],"parents":[2147483647,0,0,1,1,2,2,3,3,4,4,5,5,6,6],"right_children":[2,4,6,8,10,12,14,-1,-1,-1,-1,-1,-1,-1,-1],"split_conditions":[4.5874655E-1,3.2823488E-1,1.4633335E0,-3.8874826E-1,-3.3657706E-1,5.053566E-1,5.152609E0,-3.691989E-2,-4.770491E-2,7.276568E-3,-3.2060727E-2,3.4487795E-2,8.727454E-2,1.23481944E-1,1.9959174E-1],"split_indices":[31,31,31,28,28,31,31,0,0,0,0,0,0,0,0],"split_type":[0,0,0,0,0,0,0,0,0,0,0,0,0,0,0],"sum_hessian":[4.828E3,3.45E3,1.378E3,2.94E3,5.1E2,1.037E3,3.41E2,6.72E2,2.268E3,4.39E2,7.1E1,1.51E2,8.86E2,2.83E2,5.8E1],"tree_param":{"num_deleted":"0","num_feature":"34","num_nodes":"15","size_leaf_vector":"1"}},{"base_weights":[1.2924641E-3,-3.3366627E-1,9.030946E-1,-3.9661595E-1,1.15812264E-1,7.655193E-1,1.3181746E0,-4.1424293E-2,-1.0937794E-2,-1.932299E-2,2.1301333E-2,3.5006836E-2,7.955768E-2,1.0793053E-1,1.6828246E-1],"categories":[],"categories_nodes":[],"categories_segments":[],"categories_sizes":[],"default_left":[0,0,0,0,0,0,0,0,0,0,0,0,0,0,0],"id":2,"left_children":[1,3,5,7,9,11,13,-1,-1,-1,-1,-1,-1,-1,-1],"loss_changes":[1.4644111E3,1.0048047E2,6.488757E1,1.52578125E1,1.3688944E1,9.827209E0,9.100647E0,0E0,0E0,0E0,0E0,0E0,0E0,0E0,0E0],"parents":[2147483647,0,0,1,1,2,2,3,3,4,4,5,5,6,6],"right_children":[2,4,6,8,10,12,14,-1,-1,-1,-1,-1,-1,-1,-1],"split_conditions":[4.7768298E-1,3.6049506E-1,1.5913092E0,7.7534122E0,2.1128337E0,5.053566E-1,3.6780448E0,-4.1424293E-2,-1.0937794E-2,-1.932299E-2,2.1301333E-2,3.5006836E-2,7.955768E-2,1.0793053E-1,1.6828246E-1],"split_indices":[31,31,31,32,32,31,31,0,0,0,0,0,0,0,0],"split_type":[0,0,0,0,0,0,0,0,0,0,0,0,0,0,0],"sum_hessian":[4.828E3,3.525E3,1.303E3,3.093E3,4.32E2,1E3,3.03E2,2.91E3,1.83E2,1.01E2,3.31E2,7.6E1,9.24E2,2.07E2,9.6E1],"tree_param":{"num_deleted":"0","num_feature":"34","num_nodes":"15","size_leaf_vector":"1"}},{"base_weights":[1.866811E-3,-3.1245187E-1,7.8538555E-1,-3.6869556E-1,1.2631488E-2,6.451588E-1,1.1537617E0,-3.7725713E-2,-1.6841397E-2,-2.4497582E-2,1.3711258E-2,2.886076E-2,7.032582E-2,1.0016223E-1,1.6821425E-1],"categories":[],"categories_nodes":[],"categories_segments":[],"categories_sizes":[],"default_left":[0,0,0,0,0,0,0,0,0,0,0,0,0,0,0],"id":3,"left_children":[1,3,5,7,9,11,13,-1,-1,-1,-1,-1,-1,-1,-1],"loss_changes":[1.1939304E3,6.3308838E1,6.425525E1,4.4230957E0,1.7010855E1,1.9265808E1,1.2894653E1,0E0,0E0,0E0,0E0,0E0,0E0,0E0,0E0],"parents":[2147483647,0,0,1,1,2,2,3,3,4,4,5,5,6,6],"right_children":[2,4,6,8,10,12,14,-1,-1,-1,-1,-1,-1,-1,-1],"split_conditions":[4.5874655E-1,3.2823488E-1,1.4225903E0,7.7534122E0,2.1128337E0,5.053566E-1,5.152609E0,-3.7725713E-2,-1.6841397E-2,-2.4497582E-2,1.3711258E-2,2.886076E-2,7.032582E-2,1.0016223E-1,1.6821425E-1],"split_indices":[31,31,31,32,32,31,31,0,0,0,0,0,0,0,0],"split_type":[0,0,0,0,0,0,0,0,0,0,0,0,0,0,0],"sum_hessian":[4.828E3,3.45E3,1.378E3,2.94E3,5.1E2,1.018E3,3.6E2,2.811E3,1.29E2,1.63E2,3.47E2,1.51E2,8.67E2,3.02E2,5.8E1],"tree_param":{"num_deleted":"0","num_feature":"34","num_nodes":"15","size_leaf_vector":"1"}},{"base_weights":[2.30479E-3,-2.8139558E-1,7.094951E-1,-3.3201095E-1,1.11609E-2,5.858632E-1,1.0580641E0,-3.3966515E-2,-1.5278417E-2,-1.3255459E-2,2.0851089E-2,2.6153943E-2,6.376015E-2,9.1041386E-2,1.5386657E-1],"categories":[],"categories_nodes":[],"categories_segments":[],"categories_sizes":[],"default_left":[0,0,0,0,0,0,0,0,0,0,0,0,0,0,0],"id":4,"left_children":[1,3,5,7,9,11,13,-1,-1,-1,-1,-1,-1,-1,-1],"loss_changes":[9.726452E2,5.1272278E1,5.3616028E1,3.527954E0,1.5024758E1,1.59010315E1,1.0899109E1,0E0,0E0,0E0,0E0,0E0,0E0,0E0,0E0],"parents":[2147483647,0,0,1,1,2,2,3,3,4,4,5,5,6,6],"right_children":[2,4,6,8,10,12,14,-1,-1,-1,-1,-1,-1,-1,-1],"split_conditions":[4.5874655E-1,3.2823488E-1,1.4633335E0,7.7534122E0,1.0519655E1,5.053566E-1,5.152609E0,-3.3966515E-2,-1.5278417E-2,-1.3255459E-2,2.0851089E-2,2.6153943E-2,6.376015E-2,9.1041386E-2,1.5386657E-1],"split_indices":[31,31,31,32,32,31,31,0,0,0,0,0,0,0,0],"split_type":[0,0,0,0,0,0,0,0,0,0,0,0,0,0,0],"sum_hessian":[4.828E3,3.45E3,1.378E3,2.94E3,5.1E2,1.037E3,3.41E2,2.811E3,1.29E2,2.97E2,2.13E2,1.51E2,8.86E2,2.83E2,5.8E1],"tree_param":{"num_deleted":"0","num_feature":"34","num_nodes":"15","size_leaf_vector":"1"}},{"base_weights":[2.6802863E-3,-2.4378726E-1,6.662263E-1,-2.9049447E-1,8.962986E-2,5.8240265E-1,1.0933656E0,-3.0301778E-2,-8.597143E-3,-1.4965333E-2,1.6489126E-2,1.8805502E-2,6.0140826E-2,9.176221E-2,1.6016082E-1],"categories":[],"categories_nodes":[],"categories_segments":[],"categories_sizes":[],"default_left":[0,0,0,0,0,0,0,0,0,0,0,0,0,0,0],"id":5,"left_children":[1,3,5,7,9,11,13,-1,-1,-1,-1,-1,-1,-1,-1],"loss_changes":[7.928431E2,5.5310898E1,4.064337E1,7.687195E0,8.206649E0,7.255707E0,3.5246277E0,0E0,0E0,0E0,0E0,0E0,0E0,0E0,0E0],"parents":[2147483647,0,0,1,1,2,2,3,3,4,4,5,5,6,6],"right_children":[2,4,6,8,10,12,14,-1,-1,-1,-1,-1,-1,-1,-1],"split_conditions":[4.7768298E-1,3.6049506E-1,2.2254553E2,7.7534122E0,2.1128337E0,4.746628E0,8.800701E2,-3.0301778E-2,-8.597143E-3,-1.4965333E-2,1.6489126E-2,1.8805502E-2,6.0140826E-2,9.176221E-2,1.6016082E-1],"split_indices":[31,31,32,32,32,32,32,0,0,0,0,0,0,0,0],"split_type":[0,0,0,0,0,0,0,0,0,0,0,0,0,0,0],"sum_hessian":[4.828E3,3.525E3,1.303E3,3.093E3,4.32E2,1.109E3,1.94E2,2.91E3,1.83E2,1.01E2,3.31E2,5.6E1,1.053E3,1.65E2,2.9E1],"tree_param":{"num_deleted":"0","num_feature":"34","num_nodes":"15","size_leaf_vector":"1"}},{"base_weights":[3.0188982E-3,-1.8649258E-1,5.5680954E-1,-2.7774224E-1,-1.3536178E-2,4.1160825E-1,8.533028E-1,-2.7970973E-2,-8.872933E-3,-2.6888495E-2,1.0472245E-2,4.5678917E-2,2.2349296E-2,7.6343246E-2,1.4825143E-1],"categories":[],"categories_nodes":[],"categories_segments":[],"categories_sizes":[],"default_left":[0,0,0,0,0,0,0,0,0,0,0,0,0,0,0],"id":6,"left_children":[1,3,5,7,9,11,13,-1,-1,-1,-1,-1,-1,-1,-1],"loss_changes":[5.0878494E2,5.696776E1,4.9699036E1,6.3093567E-1,3.8269653E1,6.194931E0,1.1131348E1,0E0,0E0,0E0,0E0,0E0,0E0,0E0,0E0],"parents":[2147483647,0,0,1,1,2,2,3,3,4,4,5,5,6,6],"right_children":[2,4,6,8,10,12,14,-1,-1,-1,-1,-1,-1,-1,-1],"split_conditions":[2.240182E1,2.2814143E-1,1.2307418E2,1.0519655E1,1.0898432E-2,1.904104E-6,8.800701E2,-2.7970973E-2,-8.872933E-3,-2.6888495E-2,1.0472245E-2,4.5678917E-2,2.2349296E-2,7.6343246E-2,1.4825143E-1],"split_indices":[32,24,32,32,32,5,32,0,0,0,0,0,0,0,0],"split_type":[0,0,0,0,0,0,0,0,0,0,0,0,0,0,0],"sum_hessian":[4.828E3,3.602E3,1.226E3,2.354E3,1.248E3,8.39E2,3.87E2,2.325E3,2.9E1,3.91E2,8.57E2,6.65E2,1.74E2,3.58E2,2.9E1],"tree_param":{"num_deleted":"0","num_feature":"34","num_nodes":"15","size_leaf_vector":"1"}},{"base_weights":[3.211753E-3,-2.0035823E-1,5.6347704E-1,-2.4025574E-1,7.136001E-2,5.1025367E-1,1.1108391E0,-2.5147839E-2,-1.15206195E-2,2.9444952E-2,-8.214121E-4,4.4150155E-2,6.425675E-2,1.1941212E-1,3.633567E-2],"categories":[],"categories_nodes":[],"categories_segments":[],"categories_sizes":[],"default_left":[0,0,0,0,0,0,0,0,0,0,0,0,0,0,0],"id":7,"left_children":[1,3,5,7,9,11,13,-1,-1,-1,-1,-1,-1,-1,-1],"loss_changes":[5.5291833E2,3.8721603E1,3.1971039E1,4.064987E0,8.243432E0,8.042908E0,2.259781E0,0E0,0E0,0E0,0E0,0E0,0E0,0E0,0E0],"parents":[2147483647,0,0,1,1,2,2,3,3,4,4,5,5,6,6],"right_children":[2,4,6,8,10,12,14,-1,-1,-1,-1,-1,-1,-1,-1],"split_conditions":[4.8226994E-1,3.6049506E-1,3.6780448E0,3.0915406E-1,6.03E-6,1.2094283E0,2.2904165E-5,-2.5147839E-2,-1.15206195E-2,2.9444952E-2,-8.214121E-4,4.4150155E-2,6.425675E-2,1.1941212E-1,3.633567E-2],"split_indices":[31,31,31,31,10,31,14,0,0,0,0,0,0,0,0],"split_type":[0,0,0,0,0,0,0,0,0,0,0,0,0,0,0],"sum_hessian":[4.828E3,3.546E3,1.282E3,3.093E3,4.53E2,1.186E3,9.6E1,2.829E3,2.64E2,1.12E2,3.41E2,8.09E2,3.77E2,8.1E1,1.5E1],"tree_param":{"num_deleted":"0","num_feature":"34","num_nodes":"15","size_leaf_vector":"1"}},{"base_weights":[3.4199513E-3,-1.8977694E-1,4.8499566E-1,-2.2362499E-1,-1.7839338E-3,4.3780375E-1,1.0144484E0,-2.3576569E-2,-1.5396793E-2,-1.0262176E-2,1.4305367E-2,2.0747518E-2,4.798344E-2,6.166748E-2,1.2958683E-1],"categories":[],"categories_nodes":[],"categories_segments":[],"categories_sizes":[],"default_left":[0,0,0,0,0,0,0,0,0,0,0,0,0,0,0],"id":8,"left_children":[1,3,5,7,9,11,13,-1,-1,-1,-1,-1,-1,-1,-1],"loss_changes":[4.510428E2,2.2012657E1,3.0239136E1,2.1165466E0,8.004354E0,1.1512146E1,3.8744965E0,0E0,0E0,0E0,0E0,0E0,0E0,0E0,0E0],"parents":[2147483647,0,0,1,1,2,2,3,3,4,4,5,5,6,6],"right_children":[2,4,6,8,10,12,14,-1,-1,-1,-1,-1,-1,-1,-1],"split_conditions":[4.5874655E-1,3.2512945E-1,3.6780448E0,4.1482872E-1,1.0519655E1,5.4068655E-1,5.855678E2,-2.3576569E-2,-1.5396793E-2,-1.0262176E-2,1.4305367E-2,2.0747518E-2,4.798344E-2,6.166748E-2,1.2958683E-1],"split_indices":[31,31,31,24,32,31,32,0,0,0,0,0,0,0,0],"split_type":[0,0,0,0,0,0,0,0,0,0,0,0,0,0,0],"sum_hessian":[4.828E3,3.45E3,1.378E3,2.922E3,5.28E2,1.282E3,9.6E1,2.468E3,4.54E2,3.13E2,2.15E2,2.07E2,1.075E3,5.3E1,4.3E1],"tree_param":{"num_deleted":"0","num_feature":"34","num_nodes":"15","size_leaf_vector":"1"}},{"base_weights":[3.5431467E-3,-1.3751079E-1,4.1572064E-1,-2.0341286E-2,-2.0759797E-1,2.995194E-1,6.5375E-1,-1.627723E-2,1.0761608E-2,-2.0952193E-2,-1.0216403E-2,3.391763E-2,1.4814312E-2,5.7834424E-2,1.1976429E-1],"categories":[],"categories_nodes":[],"categories_segments":[],"categories_sizes":[],"default_left":[0,0,0,0,0,0,0,0,0,0,0,0,0,0,0],"id":9,"left_children":[1,3,5,7,9,11,13,-1,-1,-1,-1,-1,-1,-1,-1],"loss_changes":[2.818494E2,2.9619804E1,3.222879E1,2.5015976E1,2.4417877E-1,4.5941772E0,9.35553E0,0E0,0E0,0E0,0E0,0E0,0E0,0E0,0E0],"parents":[2147483647,0,0,1,1,2,2,3,3,4,4,5,5,6,6],"right_children":[2,4,6,8,10,12,14,-1,-1,-1,-1,-1,-1,-1,-1],"split_conditions":[2.240182E1,-3.5386446E-1,1.2307418E2,2.3025684E0,3.6669997E-5,4.2748548E-2,8.800701E2,-1.627723E-2,1.0761608E-2,-2.0952193E-2,-1.0216403E-2,3.391763E-2,1.4814312E-2,5.7834424E-2,1.1976429E-1],"split_indices":[32,28,32,32,18,26,32,0,0,0,0,0,0,0,0],"split_type":[0,0,0,0,0,0,0,0,0,0,0,0,0,0,0],"sum_hessian":[4.828E3,3.602E3,1.226E3,1.353E3,2.249E3,8.39E2,3.87E2,6.39E2,7.14E2,2.199E3,5E1,6.55E2,1.84E2,3.58E2,2.9E1],"tree_param":{"num_deleted":"0","num_feature":"34","num_nodes":"15","size_leaf_vector":"1"}},{"base_weights":[3.5808238E-3,-1.155865E-1,4.0391654E-1,-1.8550873E-1,6.2438343E-3,3.3160883E-1,7.095014E-1,-1.8943029E-2,-1.0390299E-2,-1.5674626E-2,1.0389017E-2,2.4440512E-2,4.0676694E-2,9.205235E-2,5.0249357E-2],"categories":[],"categories_nodes":[],"categories_segments":[],"categories_sizes":[],"default_left":[0,0,0,0,0,0,0,0,0,0,0,0,0,0,0],"id":10,"left_children":[1,3,5,7,9,11,13,-1,-1,-1,-1,-1,-1,-1,-1],"loss_changes":[2.3127304E2,3.1837254E1,2.2218124E1,5.6290436E-1,2.199875E1,5.022476E0,4.2858047E0,0E0,0E0,0E0,0E0,0E0,0E0,0E0,0E0],"parents":[2147483647,0,0,1,1,2,2,3,3,4,4,5,5,6,6],"right_children":[2,4,6,8,10,12,14,-1,-1,-1,-1,-1,-1,-1,-1],"split_conditions":[3.0086662E1,2.2814143E-1,2.2254553E2,3.003E-5,1.3095533E0,7.150329E1,2.0464999E-5,-1.8943029E-2,-1.0390299E-2,-1.5674626E-2,1.0389017E-2,2.4440512E-2,4.0676694E-2,9.205235E-2,5.0249357E-2],"split_indices":[32,24,32,14,32,32,14,0,0,0,0,0,0,0,0],"split_type":[0,0,0,0,0,0,0,0,0,0,0,0,0,0,0],"sum_hessian":[4.828E3,3.726E3,1.102E3,2.364E3,1.362E3,9.08E2,1.94E2,2.243E3,1.21E2,5.08E2,8.54E2,4.4E2,4.68E2,7.9E1,1.15E2],"tree_param":{"num_deleted":"0","num_feature":"34","num_nodes":"15","size_leaf_vector":"1"}},{"base_weights":[3.5799108E-3,-1.3859026E-1,3.9485028E-1,-1.6337864E-1,5.6673512E-2,3.6258593E-1,9.222872E-1,-1.7318415E-2,-8.869421E-3,2.7809901E-2,-1.9417256E-3,3.0413726E-2,4.6668857E-2,4.547482E-2,1.15334235E-1],"categories":[],"categories_nodes":[],"categories_segments":[],"categories_sizes":[],"default_left":[0,0,0,0,0,0,0,0,0,0,0,0,0,0,0],"id":11,"left_children":[1,3,5,7,9,11,13,-1,-1,-1,-1,-1,-1,-1,-1],"loss_changes":[2.6967053E2,1.7304604E1,1.8642426E1,2.15905E0,6.9281607E0,6.089096E0,2.1010551E0,0E0,0E0,0E0,0E0,0E0,0E0,0E0,0E0],"parents":[2147483647,0,0,1,1,2,2,3,3,4,4,5,5,6,6],"right_children":[2,4,6,8,10,12,14,-1,-1,-1,-1,-1,-1,-1,-1],"split_conditions":[4.8226994E-1,3.7351155E-1,5.152609E0,3.0171004E-1,6.03E-6,1.2094283E0,6.7801843E2,-1.7318415E-2,-8.869421E-3,2.7809901E-2,-1.9417256E-3,3.0413726E-2,4.6668857E-2,4.547482E-2,1.15334235E-1],"split_indices":[31,31,31,31,10,31,32,0,0,0,0,0,0,0,0],"split_type":[0,0,0,0,0,0,0,0,0,0,0,0,0,0,0],"sum_hessian":[4.828E3,3.546E3,1.282E3,3.148E3,3.98E2,1.224E3,5.8E1,2.771E3,3.77E2,9.5E1,3.03E2,8.09E2,4.15E2,2.9E1,2.9E1],"tree_param":{"num_deleted":"0","num_feature":"34","num_nodes":"15","size_leaf_vector":"1"}},{"base_weights":[3.7129675E-3,-9.401746E-2,3.3202568E-1,-1.5107757E-1,5.40009E-3,2.7505255E-1,6.1744577E-1,-1.5457441E-2,-8.571264E-3,-1.6189786E-2,7.373085E-3,1.9734774E-2,3.388479E-2,5.0433535E-2,1.1034229E-1],"categories":[],"categories_nodes":[],"categories_segments":[],"categories_sizes":[],"default_left":[0,0,0,0,0,0,0,0,0,0,0,0,0,0,0],"id":12,"left_children":[1,3,5,7,9,11,13,-1,-1,-1,-1,-1,-1,-1,-1],"loss_changes":[1.5554492E2,2.1201653E1,1.6384232E1,4.1013336E-1,1.5803519E1,4.0158463E0,4.1645813E0,0E0,0E0,0E0,0E0,0E0,0E0,0E0,0E0],"parents":[2147483647,0,0,1,1,2,2,3,3,4,4,5,5,6,6],"right_children":[2,4,6,8,10,12,14,-1,-1,-1,-1,-1,-1,-1,-1],"split_conditions":[3.0086662E1,2.2814143E-1,2.4883731E2,2.9879999E-5,1.0898432E-2,7.150329E1,1.6221248E3,-1.5457441E-2,-8.571264E-3,-1.6189786E-2,7.373085E-3,1.9734774E-2,3.388479E-2,5.0433535E-2,1.1034229E-1],"split_indices":[32,24,32,14,32,32,32,0,0,0,0,0,0,0,0],"split_type":[0,0,0,0,0,0,0,0,0,0,0,0,0,0,0],"sum_hessian":[4.828E3,3.726E3,1.102E3,2.364E3,1.362E3,9.35E2,1.67E2,2.231E3,1.33E2,3.91E2,9.71E2,4.4E2,4.95E2,1.52E2,1.5E1],"tree_param":{"num_deleted":"0","num_feature":"34","num_nodes":"15","size_leaf_vector":"1"}},{"base_weights":[3.71693E-3,-1.1549122E-1,3.3178738E-1,-1.357475E-1,4.412707E-2,3.0716142E-1,8.937968E-1,-1.4265207E-2,-7.2040777E-3,2.4330987E-2,-2.4101252E-3,2.5490731E-2,3.96631E-2,9.32665E-2,-3.2677452E-4],"categories":[],"categories_nodes":[],"categories_segments":[],"categories_sizes":[],"default_left":[0,0,0,0,0,0,0,0,0,0,0,0,0,0,0],"id":13,"left_children":[1,3,5,7,9,11,13,-1,-1,-1,-1,-1,-1,-1,-1],"loss_changes":[1.8959094E2,1.1557423E1,1.513591E1,1.2863312E0,5.6033225E0,4.846924E0,1.7389755E0,0E0,0E0,0E0,0E0,0E0,0E0,0E0,0E0],"parents":[2147483647,0,0,1,1,2,2,3,3,4,4,5,5,6,6],"right_children":[2,4,6,8,10,12,14,-1,-1,-1,-1,-1,-1,-1,-1],"split_conditions":[4.8226994E-1,3.7351155E-1,6.7938867E0,3.0915406E-1,6.03E-6,1.2094283E0,2.7234186E-5,-1.4265207E-2,-7.2040777E-3,2.4330987E-2,-2.4101252E-3,2.5490731E-2,3.96631E-2,9.32665E-2,-3.2677452E-4],"split_indices":[31,31,31,31,10,31,12,0,0,0,0,0,0,0,0],"split_type":[0,0,0,0,0,0,0,0,0,0,0,0,0,0,0],"sum_hessian":[4.828E3,3.546E3,1.282E3,3.148E3,3.98E2,1.243E3,3.9E1,2.829E3,3.19E2,9.5E1,3.03E2,8.09E2,4.34E2,3.7E1,2E0],"tree_param":{"num_deleted":"0","num_feature":"34","num_nodes":"15","size_leaf_vector":"1"}},{"base_weights":[3.6729437E-3,-1.0951986E-1,2.8581297E-1,-1.2350955E-1,1.1747717E-2,2.6037756E-1,7.4126846E-1,-1.284371E-2,-6.7946003E-3,2.234407E-2,-3.5218627E-3,3.4256976E-2,2.0946313E-2,3.441363E-2,9.483318E-2],"categories":[],"categories_nodes":[],"categories_segments":[],"categories_sizes":[],"default_left":[0,0,0,0,0,0,0,0,0,0,0,0,0,0,0],"id":14,"left_children":[1,3,5,7,9,11,13,-1,-1,-1,-1,-1,-1,-1,-1],"loss_changes":[1.5482048E2,5.884388E0,1.414946E1,7.6231E-1,3.72757E0,4.8481827E0,2.3281898E0,0E0,0E0,0E0,0E0,0E0,0E0,0E0,0E0],"parents":[2147483647,0,0,1,1,2,2,3,3,4,4,5,5,6,6],"right_children":[2,4,6,8,10,12,14,-1,-1,-1,-1,-1,-1,-1,-1],"split_conditions":[4.5874655E-1,3.6049506E-1,5.152609E0,3.0915406E-1,5.2025363E-2,1.627E-5,6.7801843E2,-1.284371E-2,-6.7946003E-3,2.234407E-2,-3.5218627E-3,3.4256976E-2,2.0946313E-2,3.441363E-2,9.483318E-2],"split_indices":[31,31,31,31,27,18,32,0,0,0,0,0,0,0,0],"split_type":[0,0,0,0,0,0,0,0,0,0,0,0,0,0,0],"sum_hessian":[4.828E3,3.45E3,1.378E3,3.093E3,3.57E2,1.32E3,5.8E1,2.829E3,2.64E2,5.8E1,2.99E2,4.83E2,8.37E2,2.9E1,2.9E1],"tree_param":{"num_deleted":"0","num_feature":"34","num_nodes":"15","size_leaf_vector":"1"}},{"base_weights":[3.6852271E-3,-9.140013E-2,2.8122476E-1,-1.0378534E-1,1.3331746E-1,2.5898242E-1,7.676338E-1,-1.1334335E-2,-2.2947928E-3,4.5714345E-2,3.7956883E-3,4.1470017E-2,2.356421E-2,-1.3279439E-3,8.2144976E-2],"categories":[],"categories_nodes":[],"categories_segments":[],"categories_sizes":[],"default_left":[0,0,0,0,0,0,0,0,0,0,0,0,0,0,0],"id":15,"left_children":[1,3,5,7,9,11,13,-1,-1,-1,-1,-1,-1,-1,-1],"loss_changes":[1.27931595E2,1.0188408E1,1.139489E1,2.6226158E0,5.7863674E0,3.3769302E0,2.1683407E0,0E0,0E0,0E0,0E0,0E0,0E0,0E0,0E0],"parents":[2147483647,0,0,1,1,2,2,3,3,4,4,5,5,6,6],"right_children":[2,4,6,8,10,12,14,-1,-1,-1,-1,-1,-1,-1,-1],"split_conditions":[5.053566E-1,3.0690203E1,6.7938867E0,3.6401623E-1,8.333629E-7,5.431868E0,1.0393242E-5,-1.1334335E-2,-2.2947928E-3,4.5714345E-2,3.7956883E-3,4.1470017E-2,2.356421E-2,-1.3279439E-3,8.2144976E-2],"split_indices":[31,32,31,31,1,32,20,0,0,0,0,0,0,0,0],"split_type":[0,0,0,0,0,0,0,0,0,0,0,0,0,0,0],"sum_hessian":[4.828E3,3.601E3,1.227E3,3.418E3,1.83E2,1.188E3,3.9E1,3.053E3,3.65E2,3.3E1,1.5E2,1.33E2,1.055E3,3E0,3.6E1],"tree_param":{"num_deleted":"0","num_feature":"34","num_nodes":"15","size_leaf_vector":"1"}},{"base_weights":[3.6923361E-3,-8.2160756E-2,2.5428134E-1,-9.344657E-2,1.22551E-1,2.2381775E-1,5.582071E-1,-1.0204602E-2,-2.0714344E-3,4.2206038E-2,3.4398423E-3,2.8002024E-2,1.669675E-2,3.3350077E-2,7.990431E-2],"categories":[],"categories_nodes":[],"categories_segments":[],"categories_sizes":[],"default_left":[0,0,0,0,0,0,0,0,0,0,0,0,0,0,0],"id":16,"left_children":[1,3,5,7,9,11,13,-1,-1,-1,-1,-1,-1,-1,-1],"loss_changes":[1.04292885E2,8.457151E0,1.0203598E1,2.1229305E0,4.9505043E0,3.178093E0,3.0716248E0,0E0,0E0,0E0,0E0,0E0,0E0,0E0,0E0],"parents":[2147483647,0,0,1,1,2,2,3,3,4,4,5,5,6,6],"right_children":[2,4,6,8,10,12,14,-1,-1,-1,-1,-1,-1,-1,-1],"split_conditions":[5.053566E-1,3.0690203E1,3.6780448E0,3.6401623E-1,8.333629E-7,6.7799997E-6,6.7801843E2,-1.0204602E-2,-2.0714344E-3,4.2206038E-2,3.4398423E-3,2.8002024E-2,1.669675E-2,3.3350077E-2,7.990431E-2],"split_indices":[31,32,31,31,1,6,32,0,0,0,0,0,0,0,0],"split_type":[0,0,0,0,0,0,0,0,0,0,0,0,0,0,0],"sum_hessian":[4.828E3,3.601E3,1.227E3,3.418E3,1.83E2,1.131E3,9.6E1,3.053E3,3.65E2,3.3E1,1.5E2,5.49E2,5.82E2,6.2E1,3.4E1],"tree_param":{"num_deleted":"0","num_feature":"34","num_nodes":"15","size_leaf_vector":"1"}},{"base_weights":[3.7185708E-3,-7.385226E-2,2.3013014E-1,-8.876686E-2,4.640419E-2,2.1066907E-1,6.589678E-1,-4.273117E-3,-9.76302E-3,2.4324523E-2,-2.348553E-3,1.6568145E-2,2.8333543E-2,1.4781912E-2,8.024884E-2],"categories":[],"categories_nodes":[],"categories_segments":[],"categories_sizes":[],"default_left":[0,0,0,0,0,0,0,0,0,0,0,0,0,0,0],"id":17,"left_children":[1,3,5,7,9,11,13,-1,-1,-1,-1,-1,-1,-1,-1],"loss_changes":[8.513943E1,6.5177956E0,8.93531E0,1.2705059E0,5.6287794E0,3.44693E0,2.4084282E0,0E0,0E0,0E0,0E0,0E0,0E0,0E0,0E0],"parents":[2147483647,0,0,1,1,2,2,3,3,4,4,5,5,6,6],"right_children":[2,4,6,8,10,12,14,-1,-1,-1,-1,-1,-1,-1,-1],"split_conditions":[5.053566E-1,3.877518E-1,6.7938867E0,2.657884E2,6.07E-6,1.2094283E0,1.1858505E-1,-4.273117E-3,-9.76302E-3,2.4324523E-2,-2.348553E-3,1.6568145E-2,2.8333543E-2,1.4781912E-2,8.024884E-2],"split_indices":[31,31,31,33,10,31,25,0,0,0,0,0,0,0,0],"split_type":[0,0,0,0,0,0,0,0,0,0,0,0,0,0,0],"sum_hessian":[4.828E3,3.601E3,1.227E3,3.206E3,3.95E2,1.188E3,3.9E1,5.27E2,2.679E3,9.7E1,2.98E2,7.54E2,4.34E2,1.3E1,2.6E1],"tree_param":{"num_deleted":"0","num_feature":"34","num_nodes":"15","size_leaf_vector":"1"}},{"base_weights":[3.6523538E-3,-4.98993E-2,1.8651408E-1,2.5336982E-3,-8.40577E-2,1.7087361E-1,7.894536E-2,7.2717755E-3,-6.5744403E-3,-7.7079185E-3,-1.0116452E-2,1.1858498E-2,2.6372302E-2],"categories":[],"categories_nodes":[],"categories_segments":[],"categories_sizes":[],"default_left":[0,0,0,0,0,0,0,0,0,0,0,0,0],"id":18,"left_children":[1,3,5,7,9,11,-1,-1,-1,-1,-1,-1,-1],"loss_changes":[4.7469414E1,6.718485E0,9.005459E0,7.183147E0,1.9313622E-1,4.945196E0,0E0,0E0,0E0,0E0,0E0,0E0,0E0],"parents":[2147483647,0,0,1,1,2,2,3,3,4,4,5,5],"right_children":[2,4,6,8,10,12,-1,-1,-1,-1,-1,-1,-1],"split_conditions":[3.0690203E1,-3.5386446E-1,1.6221248E3,3.3992117E2,3.6940793E2,1.2307418E2,7.894536E-2,7.2717755E-3,-6.5744403E-3,-7.7079185E-3,-1.0116452E-2,1.1858498E-2,2.6372302E-2],"split_indices":[32,28,32,33,33,32,0,0,0,0,0,0,0],"split_type":[0,0,0,0,0,0,0,0,0,0,0,0,0],"sum_hessian":[4.828E3,3.74E3,1.088E3,1.479E3,2.261E3,1.073E3,1.5E1,7.29E2,7.5E2,1.645E3,6.16E2,7.01E2,3.72E2],"tree_param":{"num_deleted":"0","num_feature":"34","num_nodes":"13","size_leaf_vector":"1"}},{"base_weights":[3.4939204E-3,-6.168666E-2,1.9373816E-1,-7.063637E-2,1.0047124E-1,1.809345E-1,7.420864E-1,-7.955043E-3,-1.6083069E-3,3.7451427E-2,2.0542727E-3,3.5414226E-2,1.5580005E-2,6.986423E-4,7.698046E-2],"categories":[],"categories_nodes":[],"categories_segments":[],"categories_sizes":[],"default_left":[0,0,0,0,0,0,0,0,0,0,0,0,0,0,0],"id":19,"left_children":[1,3,5,7,9,11,13,-1,-1,-1,-1,-1,-1,-1,-1],"loss_changes":[6.0111824E1,5.311493E0,7.3421288E0,1.654211E0,4.150508E0,4.7682037E0,4.556074E-1,0E0,0E0,0E0,0E0,0E0,0E0,0E0,0E0],"parents":[2147483647,0,0,1,1,2,2,3,3,4,4,5,5,6,6],"right_children":[2,4,6,8,10,12,14,-1,-1,-1,-1,-1,-1,-1,-1],"split_conditions":[5.053566E-1,3.0690203E1,1.6221248E3,4.5828226E-1,8.333629E-7,5.431868E0,1.1303436E1,-7.955043E-3,-1.6083069E-3,3.7451427E-2,2.0542727E-3,3.5414226E-2,1.5580005E-2,6.986423E-4,7.698046E-2],"split_indices":[31,32,32,24,1,32,31,0,0,0,0,0,0,0,0],"split_type":[0,0,0,0,0,0,0,0,0,0,0,0,0,0,0],"sum_hessian":[4.828E3,3.601E3,1.227E3,3.418E3,1.83E2,1.212E3,1.5E1,2.934E3,4.84E2,3.3E1,1.5E2,1.37E2,1.075E3,1E0,1.4E1],"tree_param":{"num_deleted":"0","num_feature":"34","num_nodes":"15","size_leaf_vector":"1"}},{"base_weights":[3.4723722E-3,-6.056397E-2,1.6307686E-1,-6.754911E-2,3.0262206E-2,1.4045462E-1,4.234274E-1,-7.729569E-3,-3.9060034E-3,2.8349722E-2,-1.6309323E-3,1.8856553E-2,7.7761137E-3,2.1055752E-2,5.9656944E-2],"categories":[],"categories_nodes":[],"categories_segments":[],"categories_sizes":[],"default_left":[0,0,0,0,0,0,0,0,0,0,0,0,0,0,0],"id":20,"left_children":[1,3,5,7,9,11,13,-1,-1,-1,-1,-1,-1,-1,-1],"loss_changes":[4.9545483E1,2.2155828E0,7.5801964E0,8.6279774E-1,3.0417962E0,3.750351E0,2.650692E0,0E0,0E0,0E0,0E0,0E0,0E0,0E0,0E0],"parents":[2147483647,0,0,1,1,2,2,3,3,4,4,5,5,6,6],"right_children":[2,4,6,8,10,12,14,-1,-1,-1,-1,-1,-1,-1,-1],"split_conditions":[4.5874655E-1,3.877518E-1,3.6780448E0,2.0464999E-5,8.02E-6,8.609647E-6,5.855678E2,-7.729569E-3,-3.9060034E-3,2.8349722E-2,-1.6309323E-3,1.8856553E-2,7.7761137E-3,2.1055752E-2,5.9656944E-2],"split_indices":[31,31,31,14,7,4,32,0,0,0,0,0,0,0,0],"split_type":[0,0,0,0,0,0,0,0,0,0,0,0,0,0,0],"sum_hessian":[4.828E3,3.45E3,1.378E3,3.206E3,2.44E2,1.282E3,9.6E1,2.376E3,8.3E2,3E1,2.14E2,7.14E2,5.68E2,5.3E1,4.3E1],"tree_param":{"num_deleted":"0","num_feature":"34","num_nodes":"15","size_leaf_vector":"1"}},{"base_weights":[3.378194E-3,-5.6236822E-2,6.210053E-2,-1.4643934E-2,-6.317528E-2,1.08184054E-1,-9.189713E-3,-4.739731E-3,1.2158782E-2,-5.081299E-3,-9.003599E-3,9.447544E-4,1.3589876E-2,7.470199E-3,-9.710973E-3],"categories":[],"categories_nodes":[],"categories_segments":[],"categories_sizes":[],"default_left":[0,0,0,0,0,0,0,0,0,0,0,0,0,0,0],"id":21,"left_children":[1,3,5,7,9,11,13,-1,-1,-1,-1,-1,-1,-1,-1],"loss_changes":[1.6971468E1,6.8509865E-1,8.032659E0,1.6505812E0,6.379614E-1,4.0480576E0,7.212278E0,0E0,0E0,0E0,0E0,0E0,0E0,0E0,0E0],"parents":[2147483647,0,0,1,1,2,2,3,3,4,4,5,5,6,6],"right_children":[2,4,6,8,10,12,14,-1,-1,-1,-1,-1,-1,-1,-1],"split_conditions":[2.2315991E-1,2.1169945E2,3.3992117E2,4.237239E-6,8.527635E-6,7.0629285E-6,2.1971446E-5,-4.739731E-3,1.2158782E-2,-5.081299E-3,-9.003599E-3,9.447544E-4,1.3589876E-2,7.470199E-3,-9.710973E-3],"split_indices":[24,33,33,17,0,4,16,0,0,0,0,0,0,0,0],"split_type":[0,0,0,0,0,0,0,0,0,0,0,0,0,0,0],"sum_hessian":[4.828E3,2.396E3,2.432E3,3.47E2,2.049E3,1.474E3,9.58E2,2.85E2,6.2E1,1.423E3,6.26E2,3.26E2,1.148E3,4.91E2,4.67E2],"tree_param":{"num_deleted":"0","num_feature":"34","num_nodes":"15","size_leaf_vector":"1"}},{"base_weights":[3.0520118E-3,-4.7177527E-2,1.5256183E-1,-5.4884333E-2,8.7699875E-2,1.4081702E-1,6.571675E-1,-5.267729E-3,-2.88119E-2,2.7824646E-2,-3.7658177E-4,3.128584E-2,1.16531225E-2,2.6412445E-5,6.8442844E-2],"categories":[],"categories_nodes":[],"categories_segments":[],"categories_sizes":[],"default_left":[0,0,0,0,0,0,0,0,0,0,0,0,0,0,0],"id":22,"left_children":[1,3,5,7,9,11,13,-1,-1,-1,-1,-1,-1,-1,-1],"loss_changes":[3.6404434E1,3.820384E0,6.2990017E0,1.6184835E0,3.496173E0,4.66593E0,4.4588757E-1,0E0,0E0,0E0,0E0,0E0,0E0,0E0,0E0],"parents":[2147483647,0,0,1,1,2,2,3,3,4,4,5,5,6,6],"right_children":[2,4,6,8,10,12,14,-1,-1,-1,-1,-1,-1,-1,-1],"split_conditions":[5.1859534E-1,3.0690203E1,1.6221248E3,2.8551846E1,3.0505788E-1,5.431868E0,1.1303436E1,-5.267729E-3,-2.88119E-2,2.7824646E-2,-3.7658177E-4,3.128584E-2,1.16531225E-2,2.6412445E-5,6.8442844E-2],"split_indices":[31,32,32,32,24,32,31,0,0,0,0,0,0,0,0],"split_type":[0,0,0,0,0,0,0,0,0,0,0,0,0,0,0],"sum_hessian":[4.828E3,3.619E3,1.209E3,3.429E3,1.9E2,1.194E3,1.5E1,3.409E3,2E1,5.5E1,1.35E2,1.33E2,1.061E3,1E0,1.4E1],"tree_param":{"num_deleted":"0","num_feature":"34","num_nodes":"15","size_leaf_vector":"1"}},{"base_weights":[2.9633923E-3,-4.6009496E-2,5.1202185E-2,-9.306842E-3,-5.214973E-2,8.9908704E-2,-8.666099E-3,-3.8586003E-3,1.0988687E-2,-4.0863217E-3,-7.675993E-3,9.795682E-3,-1.7127145E-2,7.5244107E-3,-7.4349903E-3],"categories":[],"categories_nodes":[],"categories_segments":[],"categories_sizes":[],"default_left":[0,0,0,0,0,0,0,0,0,0,0,0,0,0,0],"id":23,"left_children":[1,3,5,7,9,11,13,-1,-1,-1,-1,-1,-1,-1,-1],"loss_changes":[1.1452814E1,5.373702E-1,5.66662E0,1.2882923E0,5.405483E-1,3.2871485E0,5.3911157E0,0E0,0E0,0E0,0E0,0E0,0E0,0E0,0E0],"parents":[2147483647,0,0,1,1,2,2,3,3,4,4,5,5,6,6],"right_children":[2,4,6,8,10,12,14,-1,-1,-1,-1,-1,-1,-1,-1],"split_conditions":[2.2315991E-1,2.1169945E2,3.3992117E2,9.073809E-12,8.527635E-6,1.337598E-1,2.724E-5,-3.8586003E-3,1.0988687E-2,-4.0863217E-3,-7.675993E-3,9.795682E-3,-1.7127145E-2,7.5244107E-3,-7.4349903E-3],"split_indices":[24,33,33,29,0,26,19,0,0,0,0,0,0,0,0],"split_type":[0,0,0,0,0,0,0,0,0,0,0,0,0,0,0],"sum_hessian":[4.828E3,2.396E3,2.432E3,3.47E2,2.049E3,1.474E3,9.58E2,2.84E2,6.3E1,1.423E3,6.26E2,1.436E3,3.8E1,4.2E2,5.38E2],"tree_param":{"num_deleted":"0","num_feature":"34","num_nodes":"15","size_leaf_vector":"1"}},{"base_weights":[2.6425128E-3,-3.846511E-2,1.3881543E-1,-4.9802102E-2,3.2663118E-2,1.2684308E-1,6.143827E-1,-3.4443878E-3,-6.876691E-3,1.791009E-2,-1.4529472E-3,2.9576382E-2,1.0451685E-2,-6.287965E-5,6.402701E-2],"categories":[],"categories_nodes":[],"categories_segments":[],"categories_sizes":[],"default_left":[0,0,0,0,0,0,0,0,0,0,0,0,0,0,0],"id":24,"left_children":[1,3,5,7,9,11,13,-1,-1,-1,-1,-1,-1,-1,-1],"loss_changes":[2.7135286E1,3.0192275E0,5.620369E0,9.130249E-1,3.6058054E0,3.8733177E0,4.0205383E-1,0E0,0E0,0E0,0E0,0E0,0E0,0E0,0E0],"parents":[2147483647,0,0,1,1,2,2,3,3,4,4,5,5,6,6],"right_children":[2,4,6,8,10,12,14,-1,-1,-1,-1,-1,-1,-1,-1],"split_conditions":[5.754189E-1,3.877518E-1,1.6221248E3,8.8317745E-7,6.07E-6,4.985451E0,1.1303436E1,-3.4443878E-3,-6.876691E-3,1.791009E-2,-1.4529472E-3,2.9576382E-2,1.0451685E-2,-6.287965E-5,6.402701E-2],"split_indices":[31,31,32,1,10,32,31,0,0,0,0,0,0,0,0],"split_type":[0,0,0,0,0,0,0,0,0,0,0,0,0,0,0],"sum_hessian":[4.828E3,3.714E3,1.114E3,3.206E3,5.08E2,1.099E3,1.5E1,1.787E3,1.419E3,1.17E2,3.91E2,1.14E2,9.85E2,1E0,1.4E1],"tree_param":{"num_deleted":"0","num_feature":"34","num_nodes":"15","size_leaf_vector":"1"}},{"base_weights":[2.6058913E-3,-3.4602124E-2,1.2585908E-1,-4.4853985E-2,2.9714495E-2,1.14519715E-1,5.7853E-1,-3.1018658E-3,-6.1938344E-3,1.6665023E-2,-1.7611729E-3,1.8102037E-2,6.653639E-3,-6.2307445E-5,6.0292102E-2],"categories":[],"categories_nodes":[],"categories_segments":[],"categories_sizes":[],"default_left":[0,0,0,0,0,0,0,0,0,0,0,0,0,0,0],"id":25,"left_children":[1,3,5,7,9,11,13,-1,-1,-1,-1,-1,-1,-1,-1],"loss_changes":[2.223065E1,2.468804E0,5.106964E0,7.409458E-1,3.3863273E0,3.4182892E0,3.569088E-1,0E0,0E0,0E0,0E0,0E0,0E0,0E0,0E0],"parents":[2147483647,0,0,1,1,2,2,3,3,4,4,5,5,6,6],"right_children":[2,4,6,8,10,12,14,-1,-1,-1,-1,-1,-1,-1,-1],"split_conditions":[5.754189E-1,3.877518E-1,1.6221248E3,8.8317745E-7,6.355355E-2,6.5399995E-6,1.1303436E1,-3.1018658E-3,-6.1938344E-3,1.6665023E-2,-1.7611729E-3,1.8102037E-2,6.653639E-3,-6.2307445E-5,6.0292102E-2],"split_indices":[31,31,32,1,27,6,31,0,0,0,0,0,0,0,0],"split_type":[0,0,0,0,0,0,0,0,0,0,0,0,0,0,0],"sum_hessian":[4.828E3,3.714E3,1.114E3,3.206E3,5.08E2,1.099E3,1.5E1,1.787E3,1.419E3,1.24E2,3.84E2,4.49E2,6.5E2,1E0,1.4E1],"tree_param":{"num_deleted":"0","num_feature":"34","num_nodes":"15","size_leaf_vector":"1"}},{"base_weights":[2.5325553E-3,-3.112685E-2,1.1402926E-1,-3.7507918E-2,5.8278497E-2,9.196765E-2,3.172278E-1,-3.541226E-3,-2.6684416E-2,3.0171786E-2,-1.8854275E-4,1.4666713E-2,4.0016966E-3,3.7575718E-2,-2.2710187E-3],"categories":[],"categories_nodes":[],"categories_segments":[],"categories_sizes":[],"default_left":[0,0,0,0,0,0,0,0,0,0,0,0,0,0,0],"id":26,"left_children":[1,3,5,7,9,11,13,-1,-1,-1,-1,-1,-1,-1,-1],"loss_changes":[1.8192085E1,2.1464074E0,4.747019E0,1.5789895E0,3.6965477E0,2.8625507E0,2.1943483E0,0E0,0E0,0E0,0E0,0E0,0E0,0E0,0E0],"parents":[2147483647,0,0,1,1,2,2,3,3,4,4,5,5,6,6],"right_children":[2,4,6,8,10,12,14,-1,-1,-1,-1,-1,-1,-1,-1],"split_conditions":[5.754189E-1,3.0690203E1,3.6780448E0,2.8551846E1,1.8658847E-6,6.7799997E-6,2.2904165E-5,-3.541226E-3,-2.6684416E-2,3.0171786E-2,-1.8854275E-4,1.4666713E-2,4.0016966E-3,3.7575718E-2,-2.2710187E-3],"split_indices":[31,32,31,32,13,6,14,0,0,0,0,0,0,0,0],"split_type":[0,0,0,0,0,0,0,0,0,0,0,0,0,0,0],"sum_hessian":[4.828E3,3.714E3,1.114E3,3.472E3,2.42E2,1.018E3,9.6E1,3.452E3,2E1,4E1,2.02E2,4.87E2,5.31E2,8.1E1,1.5E1],"tree_param":{"num_deleted":"0","num_feature":"34","num_nodes":"15","size_leaf_vector":"1"}},{"base_weights":[2.3903602E-3,-1.6707966E-2,1.6768403E-1,-3.7042327E-2,4.08029E-2,2.854222E-1,9.8799355E-2,-4.421012E-3,-8.010248E-4,2.2413826E-2,2.2377332E-3,1.2279637E-2,3.8988866E-2,3.363814E-2,7.2788284E-3],"categories":[],"categories_nodes":[],"categories_segments":[],"categories_sizes":[],"default_left":[0,0,0,0,0,0,0,0,0,0,0,0,0,0,0],"id":27,"left_children":[1,3,5,7,9,11,13,-1,-1,-1,-1,-1,-1,-1,-1],"loss_changes":[1.5300773E1,5.09753E0,3.7894049E0,6.656952E-1,3.80083E0,2.579239E0,1.8068349E0,0E0,0E0,0E0,0E0,0E0,0E0,0E0,0E0],"parents":[2147483647,0,0,1,1,2,2,3,3,4,4,5,5,6,6],"right_children":[2,4,6,8,10,12,14,-1,-1,-1,-1,-1,-1,-1,-1],"split_conditions":[1.1821766E0,3.877518E-1,2.411975E-5,2.16E-5,7.95E-6,2.4145124E-6,4.985451E0,-4.421012E-3,-8.010248E-4,2.2413826E-2,2.2377332E-3,1.2279637E-2,3.8988866E-2,3.363814E-2,7.2788284E-3],"split_indices":[31,31,12,14,7,9,32,0,0,0,0,0,0,0,0],"split_type":[0,0,0,0,0,0,0,0,0,0,0,0,0,0,0],"sum_hessian":[4.828E3,4.336E3,4.92E2,3.206E3,1.13E3,1.7E2,3.22E2,2.567E3,6.39E2,9.3E1,1.037E3,7.5E1,9.5E1,2E1,3.02E2],"tree_param":{"num_deleted":"0","num_feature":"34","num_nodes":"15","size_leaf_vector":"1"}},{"base_weights":[2.3820382E-3,-1.4992454E-2,1.5275201E-1,-3.335433E-2,3.6938883E-2,2.5972825E-1,9.015187E-2,-2.0320534E-3,-4.951122E-3,1.99455E-2,1.8873586E-3,1.4209147E-2,4.203127E-2,1.1667515E-2,-9.5505295E-3],"categories":[],"categories_nodes":[],"categories_segments":[],"categories_sizes":[],"default_left":[0,0,0,0,0,0,0,0,0,0,0,0,0,0,0],"id":28,"left_children":[1,3,5,7,9,11,13,-1,-1,-1,-1,-1,-1,-1,-1],"loss_changes":[1.2662669E1,4.156479E0,3.1276073E0,6.671827E-1,3.309284E0,2.8030853E0,1.7462771E0,0E0,0E0,0E0,0E0,0E0,0E0,0E0,0E0],"parents":[2147483647,0,0,1,1,2,2,3,3,4,4,5,5,6,6],"right_children":[2,4,6,8,10,12,14,-1,-1,-1,-1,-1,-1,-1,-1],"split_conditions":[1.1821766E0,3.877518E-1,2.411975E-5,8.8317745E-7,4.8849997E-6,1.2204572E-1,-3.727089E-1,-2.0320534E-3,-4.951122E-3,1.99455E-2,1.8873586E-3,1.4209147E-2,4.203127E-2,1.1667515E-2,-9.5505295E-3],"split_indices":[31,31,12,1,6,25,28,0,0,0,0,0,0,0,0],"split_type":[0,0,0,0,0,0,0,0,0,0,0,0,0,0,0],"sum_hessian":[4.828E3,4.336E3,4.92E2,3.206E3,1.13E3,1.7E2,3.22E2,1.787E3,1.419E3,1.03E2,1.027E3,1.09E2,6.1E1,2.85E2,3.7E1],"tree_param":{"num_deleted":"0","num_feature":"34","num_nodes":"15","size_leaf_vector":"1"}},{"base_weights":[2.2951572E-3,-2.7119221E-2,7.560264E-2,1.2809931E-2,-3.47754E-2,6.760717E-2,4.8447323E-1,-4.2986874E-3,9.878765E-3,-3.1001025E-3,-1.5211828E-2,2.0728797E-2,5.488654E-3,-6.4414635E-4,5.0761193E-2],"categories":[],"categories_nodes":[],"categories_segments":[],"categories_sizes":[],"default_left":[0,0,0,0,0,0,0,0,0,0,0,0,0,0,0],"id":29,"left_children":[1,3,5,7,9,11,13,-1,-1,-1,-1,-1,-1,-1,-1],"loss_changes":[1.0452654E1,1.0621932E0,4.209994E0,2.7481322E0,1.2398973E0,2.3258114E0,3.1667662E-1,0E0,0E0,0E0,0E0,0E0,0E0,0E0,0E0],"parents":[2147483647,0,0,1,1,2,2,3,3,4,4,5,5,6,6],"right_children":[2,4,6,8,10,12,14,-1,-1,-1,-1,-1,-1,-1,-1],"split_conditions":[4.5874655E-1,2.2089734E2,1.6221248E3,2.7832627E-1,4.2688E-1,4.8849997E-6,1.1303436E1,-4.2986874E-3,9.878765E-3,-3.1001025E-3,-1.5211828E-2,2.0728797E-2,5.488654E-3,-6.4414635E-4,5.0761193E-2],"split_indices":[31,33,32,31,31,6,31,0,0,0,0,0,0,0,0],"split_type":[0,0,0,0,0,0,0,0,0,0,0,0,0,0,0],"sum_hessian":[4.828E3,3.45E3,1.378E3,5.54E2,2.896E3,1.363E3,1.5E1,3.39E2,2.15E2,2.818E3,7.8E1,1.01E2,1.262E3,1E0,1.4E1],"tree_param":{"num_deleted":"0","num_feature":"34","num_nodes":"15","size_leaf_vector":"1"}},{"base_weights":[2.1971103E-3,-1.2395407E-2,1.3402809E-1,-3.08955E-2,2.187915E-2,1.1396101E-1,4.5607272E-1,-2.6050243E-3,-1.8670717E-2,9.919885E-3,-3.331159E-4,3.283782E-2,9.014596E-3,-6.382899E-4,4.7800124E-2],"categories":[],"categories_nodes":[],"categories_segments":[],"categories_sizes":[],"default_left":[0,0,0,0,0,0,0,0,0,0,0,0,0,0,0],"id":30,"left_children":[1,3,5,7,9,11,13,-1,-1,-1,-1,-1,-1,-1,-1],"loss_changes":[9.323697E0,2.7745297E0,2.6016407E0,2.0946589E0,2.9973578E0,2.0937548E0,2.8403473E-1,0E0,0E0,0E0,0E0,0E0,0E0,0E0,0E0],"parents":[2147483647,0,0,1,1,2,2,3,3,4,4,5,5,6,6],"right_children":[2,4,6,8,10,12,14,-1,-1,-1,-1,-1,-1,-1,-1],"split_conditions":[1.2094283E0,3.0915406E-1,1.6221248E3,1.2292169E1,6.37954E-2,4.985451E0,1.1303436E1,-2.6050243E-3,-1.8670717E-2,9.919885E-3,-3.331159E-4,3.283782E-2,9.014596E-3,-6.382899E-4,4.7800124E-2],"split_indices":[31,31,32,32,27,32,31,0,0,0,0,0,0,0,0],"split_type":[0,0,0,0,0,0,0,0,0,0,0,0,0,0,0],"sum_hessian":[4.828E3,4.355E3,4.73E2,2.829E3,1.526E3,4.58E2,1.5E1,2.755E3,7.4E1,3.68E2,1.158E3,3.3E1,4.25E2,1E0,1.4E1],"tree_param":{"num_deleted":"0","num_feature":"34","num_nodes":"15","size_leaf_vector":"1"}},{"base_weights":[2.1372226E-3,-1.118265E-2,1.2246822E-1,-2.5006304E-2,2.7271789E-2,5.855737E-2,2.05564E-1,-1.7101733E-3,-4.701889E-3,1.8026013E-2,1.207601E-3,1.3651148E-3,1.5377834E-2,2.4345739E-2,-5.7737054E-3],"categories":[],"categories_nodes":[],"categories_segments":[],"categories_sizes":[],"default_left":[0,0,0,0,0,0,0,0,0,0,0,0,0,0,0],"id":31,"left_children":[1,3,5,7,9,11,13,-1,-1,-1,-1,-1,-1,-1,-1],"loss_changes":[7.768011E0,2.32717E0,2.444706E0,5.51543E-1,2.6726482E0,1.2062238E0,2.1959028E0,0E0,0E0,0E0,0E0,0E0,0E0,0E0,0E0],"parents":[2147483647,0,0,1,1,2,2,3,3,4,4,5,5,6,6],"right_children":[2,4,6,8,10,12,14,-1,-1,-1,-1,-1,-1,-1,-1],"split_conditions":[1.2094283E0,3.877518E-1,1.0774073E-1,2.640514E-1,7.95E-6,2.9855937E-6,7.845E-6,-1.7101733E-3,-4.701889E-3,1.8026013E-2,1.207601E-3,1.3651148E-3,1.5377834E-2,2.4345739E-2,-5.7737054E-3],"split_indices":[31,31,25,24,7,13,6,0,0,0,0,0,0,0,0],"split_type":[0,0,0,0,0,0,0,0,0,0,0,0,0,0,0],"sum_hessian":[4.828E3,4.355E3,4.73E2,3.206E3,1.149E3,2.77E2,1.96E2,2.372E3,8.34E2,9.4E1,1.055E3,1.96E2,8.1E1,1.72E2,2.4E1],"tree_param":{"num_deleted":"0","num_feature":"34","num_nodes":"15","size_leaf_vector":"1"}},{"base_weights":[2.0230021E-3,-8.495297E-3,1.2926818E-1,-2.5544466E-2,2.0908915E-2,1.052647E-1,4.184103E-1,-2.1157719E-3,-1.6690059E-2,1.0461749E-2,4.8458876E-4,1.8284498E-2,3.223241E-3,4.700313E-2,4.2114328E-3],"categories":[],"categories_nodes":[],"categories_segments":[],"categories_sizes":[],"default_left":[0,0,0,0,0,0,0,0,0,0,0,0,0,0,0],"id":32,"left_children":[1,3,5,7,9,11,13,-1,-1,-1,-1,-1,-1,-1,-1],"loss_changes":[6.4861746E0,2.2502403E0,2.1275167E0,1.7251331E0,2.2121973E0,1.9524469E0,2.876687E-1,0E0,0E0,0E0,0E0,0E0,0E0,0E0,0E0],"parents":[2147483647,0,0,1,1,2,2,3,3,4,4,5,5,6,6],"right_children":[2,4,6,8,10,12,14,-1,-1,-1,-1,-1,-1,-1,-1],"split_conditions":[1.4225903E0,3.0915406E-1,1.6221248E3,1.2292169E1,7.7979685E-6,8.644374E-6,7.23E-6,-2.1157719E-3,-1.6690059E-2,1.0461749E-2,4.8458876E-4,1.8284498E-2,3.223241E-3,4.700313E-2,4.2114328E-3],"split_indices":[31,31,32,32,8,4,6,0,0,0,0,0,0,0,0],"split_type":[0,0,0,0,0,0,0,0,0,0,0,0,0,0,0],"sum_hessian":[4.828E3,4.468E3,3.6E2,2.829E3,1.639E3,3.45E2,1.5E1,2.755E3,7.4E1,2.55E2,1.384E3,1.6E2,1.85E2,1.1E1,4E0],"tree_param":{"num_deleted":"0","num_feature":"34","num_nodes":"15","size_leaf_vector":"1"}},{"base_weights":[1.9547695E-3,-8.113339E-3,1.14785E-1,-3.180856E-2,1.9563662E-3,3.9658092E-2,1.9293311E-1,-1.5487577E-3,-7.364809E-3,-6.959419E-4,6.751598E-3,8.445603E-4,2.9654253E-2,3.163951E-2,1.450015E-3],"categories":[],"categories_nodes":[],"categories_segments":[],"categories_sizes":[],"default_left":[0,0,0,0,0,0,0,0,0,0,0,0,0,0,0],"id":33,"left_children":[1,3,5,7,9,11,13,-1,-1,-1,-1,-1,-1,-1,-1],"loss_changes":[5.5052185E0,1.0626482E0,2.254283E0,8.9543474E-1,1.8359855E0,1.6988258E0,4.183822E0,0E0,0E0,0E0,0E0,0E0,0E0,0E0,0E0],"parents":[2147483647,0,0,1,1,2,2,3,3,4,4,5,5,6,6],"right_children":[2,4,6,8,10,12,14,-1,-1,-1,-1,-1,-1,-1,-1],"split_conditions":[1.2307418E2,1.0898432E-2,-7.179028E-2,2.720526E-1,5.174657E-1,2.3418053E-5,2.5760364E-5,-1.5487577E-3,-7.364809E-3,-6.959419E-4,6.751598E-3,8.445603E-4,2.9654253E-2,3.163951E-2,1.450015E-3],"split_indices":[32,32,26,24,24,16,16,0,0,0,0,0,0,0,0],"split_type":[0,0,0,0,0,0,0,0,0,0,0,0,0,0,0],"sum_hessian":[4.828E3,4.441E3,3.87E2,1.318E3,3.123E3,2.05E2,1.82E2,9.58E2,3.6E2,2.757E3,3.66E2,1.92E2,1.3E1,1.03E2,7.9E1],"tree_param":{"num_deleted":"0","num_feature":"34","num_nodes":"15","size_leaf_vector":"1"}},{"base_weights":[1.8848176E-3,-7.088022E-3,1.1042949E-1,-1.9416885E-2,2.4138791E-2,6.967375E-2,2.4296154E-1,-7.666119E-4,-3.4057868E-3,1.4114507E-2,1.251199E-3,-4.0120087E-3,1.1632526E-2,8.528148E-3,3.8368713E-2],"categories":[],"categories_nodes":[],"categories_segments":[],"categories_sizes":[],"default_left":[0,0,0,0,0,0,0,0,0,0,0,0,0,0,0],"id":34,"left_children":[1,3,5,7,9,11,13,-1,-1,-1,-1,-1,-1,-1,-1],"loss_changes":[4.7198167E0,1.7286772E0,1.8292532E0,5.506786E-1,1.7127799E0,1.5679184E0,1.514524E0,0E0,0E0,0E0,0E0,0E0,0E0,0E0,0E0],"parents":[2147483647,0,0,1,1,2,2,3,3,4,4,5,5,6,6],"right_children":[2,4,6,8,10,12,14,-1,-1,-1,-1,-1,-1,-1,-1],"split_conditions":[1.4225903E0,3.877518E-1,1.0495774E-1,8.8317745E-7,7.95E-6,1.3382534E-6,2.968263E2,-7.666119E-4,-3.4057868E-3,1.4114507E-2,1.251199E-3,-4.0120087E-3,1.1632526E-2,8.528148E-3,3.8368713E-2],"split_indices":[31,31,27,1,7,5,33,0,0,0,0,0,0,0,0],"split_type":[0,0,0,0,0,0,0,0,0,0,0,0,0,0,0],"sum_hessian":[4.828E3,4.468E3,3.6E2,3.206E3,1.262E3,2.87E2,7.3E1,1.787E3,1.419E3,1.04E2,1.158E3,8.6E1,2.01E2,4.2E1,3.1E1],"tree_param":{"num_deleted":"0","num_feature":"34","num_nodes":"15","size_leaf_vector":"1"}},{"base_weights":[1.8321533E-3,-7.870572E-3,8.5795745E-2,-2.0497644E-2,1.4475202E-2,3.5528638E-4,1.4143278E-1,-1.4182988E-3,-4.3908637E-3,8.578601E-3,-8.8397256E-4,5.4877787E-3,-1.6529737E-2,2.5775233E-2,9.422359E-3],"categories":[],"categories_nodes":[],"categories_segments":[],"categories_sizes":[],"default_left":[0,0,0,0,0,0,0,0,0,0,0,0,0,0,0],"id":35,"left_children":[1,3,5,7,9,11,13,-1,-1,-1,-1,-1,-1,-1,-1],"loss_changes":[3.9481535E0,1.2292418E0,2.3858318E0,4.0489447E-1,2.6261878E0,1.9693254E0,1.426507E0,0E0,0E0,0E0,0E0,0E0,0E0,0E0,0E0],"parents":[2147483647,0,0,1,1,2,2,3,3,4,4,5,5,6,6],"right_children":[2,4,6,8,10,12,14,-1,-1,-1,-1,-1,-1,-1,-1],"split_conditions":[1.1821766E0,3.0171004E-1,1.1428108E-6,2.640514E-1,6.37954E-2,2.1459999E-5,3.9593115E-6,-1.4182988E-3,-4.3908637E-3,8.578601E-3,-8.8397256E-4,5.4877787E-3,-1.6529737E-2,2.5775233E-2,9.422359E-3],"split_indices":[31,31,1,24,27,23,21,0,0,0,0,0,0,0,0],"split_type":[0,0,0,0,0,0,0,0,0,0,0,0,0,0,0],"sum_hessian":[4.828E3,4.336E3,4.92E2,2.771E3,1.565E3,1.98E2,2.94E2,2.195E3,5.76E2,3.79E2,1.186E3,1.54E2,4.4E1,7.2E1,2.22E2],"tree_param":{"num_deleted":"0","num_feature":"34","num_nodes":"15","size_leaf_vector":"1"}},{"base_weights":[1.7027614E-3,-1.2721E-2,4.9475946E-2,1.8145338E-2,-1.9209528E-2,8.071103E-2,-1.5576754E-2,-4.0601776E-3,7.127434E-3,-1.0087953E-2,-1.5242207E-3,2.9973327E-3,1.3551508E-2,6.731166E-3,-5.6572636E-3],"categories":[],"categories_nodes":[],"categories_segments":[],"categories_sizes":[],"default_left":[0,0,0,0,0,0,0,0,0,0,0,0,0,0,0],"id":36,"left_children":[1,3,5,7,9,11,13,-1,-1,-1,-1,-1,-1,-1,-1],"loss_changes":[3.3400097E0,7.493174E-1,2.2964575E0,2.063945E0,9.832262E-1,2.0754423E0,1.3055651E0,0E0,0E0,0E0,0E0,0E0,0E0,0E0,0E0],"parents":[2147483647,0,0,1,1,2,2,3,3,4,4,5,5,6,6],"right_children":[2,4,6,8,10,12,14,-1,-1,-1,-1,-1,-1,-1,-1],"split_conditions":[5.754189E-1,2.2089734E2,2.3555E-5,2.9120001E-5,2.9059024E2,2.4145124E-6,1.1346241E2,-4.0601776E-3,7.127434E-3,-1.0087953E-2,-1.5242207E-3,2.9973327E-3,1.3551508E-2,6.731166E-3,-5.6572636E-3],"split_indices":[31,33,14,19,33,9,33,0,0,0,0,0,0,0,0],"split_type":[0,0,0,0,0,0,0,0,0,0,0,0,0,0,0],"sum_hessian":[4.828E3,3.714E3,1.114E3,6.42E2,3.072E3,7.51E2,3.63E2,3.06E2,3.36E2,1.31E2,2.941E3,3.98E2,3.53E2,1.18E2,2.45E2],"tree_param":{"num_deleted":"0","num_feature":"34","num_nodes":"15","size_leaf_vector":"1"}},{"base_weights":[1.5512563E-3,-2.891791E-4,3.5598755E-1,-1.3435671E-2,3.2842472E-2,4.0978214E-1,2.1018812E-2,1.794196E-3,-1.9543744E-3,2.9610623E-2,2.5963753E-3,4.5494173E-2,-3.2056172E-4,-9.932801E-4,3.104032E-3],"categories":[],"categories_nodes":[],"categories_segments":[],"categories_sizes":[],"default_left":[0,0,0,0,0,0,0,0,0,0,0,0,0,0,0],"id":37,"left_children":[1,3,5,7,9,11,13,-1,-1,-1,-1,-1,-1,-1,-1],"loss_changes":[3.1569393E0,2.1051426E0,3.6435676E-1,6.6663915E-1,2.4095092E0,4.0624094E-1,7.425719E-3,0E0,0E0,0E0,0E0,0E0,0E0,0E0,0E0],"parents":[2147483647,0,0,1,1,2,2,3,3,4,4,5,5,6,6],"right_children":[2,4,6,8,10,12,14,-1,-1,-1,-1,-1,-1,-1,-1],"split_conditions":[1.6221248E3,4.5874655E-1,7.23E-6,2.2494153E2,1.7463906E-5,9.440093E-3,8.3725E-6,1.794196E-3,-1.9543744E-3,2.9610623E-2,2.5963753E-3,4.5494173E-2,-3.2056172E-4,-9.932801E-4,3.104032E-3],"split_indices":[32,31,6,33,12,26,3,0,0,0,0,0,0,0,0],"split_type":[0,0,0,0,0,0,0,0,0,0,0,0,0,0,0],"sum_hessian":[4.828E3,4.813E3,1.5E1,3.45E3,1.363E3,1.1E1,4E0,5.59E2,2.891E3,2.4E1,1.339E3,9E0,2E0,1E0,3E0],"tree_param":{"num_deleted":"0","num_feature":"34","num_nodes":"15","size_leaf_vector":"1"}},{"base_weights":[1.560105E-3,-1.9381635E-4,3.3930257E-1,-7.696387E-3,4.7496706E-2,3.9031523E-1,2.0424621E-2,-9.766875E-4,2.2655813E-2,3.3817194E-2,3.4965468E-3,4.333919E-2,-3.1521718E-4,-9.842505E-4,3.032402E-3],"categories":[],"categories_nodes":[],"categories_segments":[],"categories_sizes":[],"default_left":[0,0,0,0,0,0,0,0,0,0,0,0,0,0,0],"id":38,"left_children":[1,3,5,7,9,11,13,-1,-1,-1,-1,-1,-1,-1,-1],"loss_changes":[2.8665621E0,1.7293321E0,3.2694983E-1,2.0475755E0,2.2748928E0,3.6959553E-1,7.1794116E-3,0E0,0E0,0E0,0E0,0E0,0E0,0E0,0E0],"parents":[2147483647,0,0,1,1,2,2,3,3,4,4,5,5,6,6],"right_children":[2,4,6,8,10,12,14,-1,-1,-1,-1,-1,-1,-1,-1],"split_conditions":[1.6221248E3,7.150329E1,7.23E-6,2.0195446E0,1.4455459E-6,9.440093E-3,8.3725E-6,-9.766875E-4,2.2655813E-2,3.3817194E-2,3.4965468E-3,4.333919E-2,-3.1521718E-4,-9.842505E-4,3.032402E-3],"split_indices":[32,32,6,31,13,26,3,0,0,0,0,0,0,0,0],"split_type":[0,0,0,0,0,0,0,0,0,0,0,0,0,0,0],"sum_hessian":[4.828E3,4.813E3,1.5E1,4.166E3,6.47E2,1.1E1,4E0,4.139E3,2.7E1,1.6E1,6.31E2,9E0,2E0,1E0,3E0],"tree_param":{"num_deleted":"0","num_feature":"34","num_nodes":"15","size_leaf_vector":"1"}},{"base_weights":[1.619192E-3,-2.0263756E-2,1.3733788E-2,-1.0387675E-2,-1.2053047E-1,1.5978435E-1,8.318436E-3,-1.4896458E-3,4.741873E-3,-2.7058946E-3,-1.5663717E-2,-2.4748927E-3,2.714037E-2,2.0436684E-2,4.5976508E-4],"categories":[],"categories_nodes":[],"categories_segments":[],"categories_sizes":[],"default_left":[0,0,0,0,0,0,0,0,0,0,0,0,0,0,0],"id":39,"left_children":[1,3,5,7,9,11,13,-1,-1,-1,-1,-1,-1,-1,-1],"loss_changes":[1.2853516E0,1.6986183E0,2.4543643E0,4.1991192E-1,4.7735763E-1,2.3534899E0,2.1928256E0,0E0,0E0,0E0,0E0,0E0,0E0,0E0,0E0],"parents":[2147483647,0,0,1,1,2,2,3,3,4,4,5,5,6,6],"right_children":[2,4,6,8,10,12,14,-1,-1,-1,-1,-1,-1,-1,-1],"split_conditions":[1.5019066E-5,2.0275038E-1,2.3954137E-6,1.525E-5,-2.9047546E-1,2.7573644E-6,2.1915E-5,-1.4896458E-3,4.741873E-3,-2.7058946E-3,-1.5663717E-2,-2.4748927E-3,2.714037E-2,2.0436684E-2,4.5976508E-4],"split_indices":[16,24,0,19,26,21,15,0,0,0,0,0,0,0,0],"split_type":[0,0,0,0,0,0,0,0,0,0,0,0,0,0,0],"sum_hessian":[4.828E3,1.718E3,3.11E3,1.574E3,1.44E2,1.01E2,3.009E3,1.467E3,1.07E2,4.5E1,9.9E1,4.1E1,6E1,4.6E1,2.963E3],"tree_param":{"num_deleted":"0","num_feature":"34","num_nodes":"15","size_leaf_vector":"1"}},{"base_weights":[1.5201954E-3,-1.4830852E-4,3.227999E-1,-5.2010193E-3,5.872891E-2,3.4589297E-1,-2.1039464E-3,3.5966837E-3,-8.933578E-4,1.0689854E-2,-4.0599816E-3,3.8809657E-2,1.16464E-3],"categories":[],"categories_nodes":[],"categories_segments":[],"categories_sizes":[],"default_left":[0,0,0,0,0,0,0,0,0,0,0,0,0],"id":40,"left_children":[1,3,5,7,9,11,-1,-1,-1,-1,-1,-1,-1],"loss_changes":[2.5939198E0,1.4378467E0,2.7128172E-1,6.8716013E-1,1.8711284E0,2.933545E-1,0E0,0E0,0E0,0E0,0E0,0E0,0E0],"parents":[2147483647,0,0,1,1,2,2,3,3,4,4,5,5],"right_children":[2,4,6,8,10,12,-1,-1,-1,-1,-1,-1,-1],"split_conditions":[1.6221248E3,1.2307418E2,2.56653E-6,4.1533787E1,-3.988857E-1,4.75E-6,-2.1039464E-3,3.5966837E-3,-8.933578E-4,1.0689854E-2,-4.0599816E-3,3.8809657E-2,1.16464E-3],"split_indices":[32,32,1,33,28,2,0,0,0,0,0,0,0],"split_type":[0,0,0,0,0,0,0,0,0,0,0,0,0],"sum_hessian":[4.828E3,4.813E3,1.5E1,4.441E3,3.72E2,1.4E1,1E0,3.62E2,4.079E3,2.5E2,1.22E2,1.1E1,3E0],"tree_param":{"num_deleted":"0","num_feature":"34","num_nodes":"13","size_leaf_vector":"1"}},{"base_weights":[1.4657463E-3,-6.413207E-4,2.0753019E-1,-1.0545008E-2,2.4765031E-2,-4.975975E-2,3.142626E-1,-7.810179E-4,-8.473155E-3,1.1203865E-2,6.297997E-4,9.095112E-3,-2.0518182E-2,3.924436E-2,-5.68199E-3],"categories":[],"categories_nodes":[],"categories_segments":[],"categories_sizes":[],"default_left":[0,0,0,0,0,0,0,0,0,0,0,0,0,0,0],"id":41,"left_children":[1,3,5,7,9,11,13,-1,-1,-1,-1,-1,-1,-1,-1],"loss_changes":[2.10195E0,1.2101195E0,1.5019739E0,6.9537306E-1,2.1671066E0,6.896153E-1,1.2674038E0,0E0,0E0,0E0,0E0,0E0,0E0,0E0,0E0],"parents":[2147483647,0,0,1,1,2,2,3,3,4,4,5,5,6,6],"right_children":[2,4,6,8,10,12,14,-1,-1,-1,-1,-1,-1,-1,-1],"split_conditions":[6.7938867E0,4.5874655E-1,5.287959E-6,4.2688E-1,3.1109253E-1,4.9950386E-6,5.1375E-6,-7.810179E-4,-8.473155E-3,1.1203865E-2,6.297997E-4,9.095112E-3,-2.0518182E-2,3.924436E-2,-5.68199E-3],"split_indices":[31,31,0,31,24,0,2,0,0,0,0,0,0,0,0],"split_type":[0,0,0,0,0,0,0,0,0,0,0,0,0,0,0],"sum_hessian":[4.828E3,4.789E3,3.9E1,3.45E3,1.339E3,1.3E1,2.6E1,3.338E3,1.12E2,2.25E2,1.114E3,9E0,4E0,2.1E1,5E0],"tree_param":{"num_deleted":"0","num_feature":"34","num_nodes":"15","size_leaf_vector":"1"}},{"base_weights":[1.3702658E-3,-1.3454621E-4,2.9113048E-1,-6.0729394E-3,3.7612904E-2,3.222935E-1,-1.1207323E-2,-1.296531E-3,3.1310634E-3,-3.7875455E-3,7.861547E-3,3.7901368E-2,1.5106491E-3,-2.1675022E-3,9.4488537E-4],"categories":[],"categories_nodes":[],"categories_segments":[],"categories_sizes":[],"default_left":[0,0,0,0,0,0,0,0,0,0,0,0,0,0,0],"id":42,"left_children":[1,3,5,7,9,11,13,-1,-1,-1,-1,-1,-1,-1,-1],"loss_changes":[2.1099274E0,1.0834041E0,2.7166438E-1,1.0800536E0,2.0633333E0,3.4348917E-1,4.6427133E-3,0E0,0E0,0E0,0E0,0E0,0E0,0E0,0E0],"parents":[2147483647,0,0,1,1,2,2,3,3,4,4,5,5,6,6],"right_children":[2,4,6,8,10,12,14,-1,-1,-1,-1,-1,-1,-1,-1],"split_conditions":[1.6221248E3,7.150329E1,6.619906E-6,4.7782907E-1,-1.1568159E-1,7.23E-6,4.678401E-6,-1.296531E-3,3.1310634E-3,-3.7875455E-3,7.861547E-3,3.7901368E-2,1.5106491E-3,-2.1675022E-3,9.4488537E-4],"split_indices":[32,32,17,24,26,6,0,0,0,0,0,0,0,0,0],"split_type":[0,0,0,0,0,0,0,0,0,0,0,0,0,0,0],"sum_hessian":[4.828E3,4.813E3,1.5E1,4.166E3,6.47E2,1.3E1,2E0,3.523E3,6.43E2,2.28E2,4.19E2,9E0,4E0,1E0,1E0],"tree_param":{"num_deleted":"0","num_feature":"34","num_nodes":"15","size_leaf_vector":"1"}},{"base_weights":[1.3243881E-3,-1.0884107E-4,2.772932E-1,-1.0189579E-2,1.9941092E-2,3.08058E-1,-1.2750347E-2,1.7243378E-4,-2.5100294E-3,1.2609963E-2,9.419904E-4,3.6209926E-2,1.4674886E-3,-2.1477982E-3,7.568511E-4],"categories":[],"categories_nodes":[],"categories_segments":[],"categories_sizes":[],"default_left":[0,0,0,0,0,0,0,0,0,0,0,0,0,0,0],"id":43,"left_children":[1,3,5,7,9,11,13,-1,-1,-1,-1,-1,-1,-1,-1],"loss_changes":[1.9138591E0,9.7684747E-1,2.6235652E-1,5.717391E-1,1.7941713E0,3.1152272E-1,3.75359E-3,0E0,0E0,0E0,0E0,0E0,0E0,0E0,0E0],"parents":[2147483647,0,0,1,1,2,2,3,3,4,4,5,5,6,6],"right_children":[2,4,6,8,10,12,14,-1,-1,-1,-1,-1,-1,-1,-1],"split_conditions":[1.6221248E3,3.877518E-1,9.440093E-3,8.8317745E-7,4.8849997E-6,7.23E-6,4.678401E-6,1.7243378E-4,-2.5100294E-3,1.2609963E-2,9.419904E-4,3.6209926E-2,1.4674886E-3,-2.1477982E-3,7.568511E-4],"split_indices":[32,31,26,1,6,6,0,0,0,0,0,0,0,0,0],"split_type":[0,0,0,0,0,0,0,0,0,0,0,0,0,0,0],"sum_hessian":[4.828E3,4.813E3,1.5E1,3.206E3,1.607E3,1.3E1,2E0,1.787E3,1.419E3,1.35E2,1.472E3,9E0,4E0,1E0,1E0],"tree_param":{"num_deleted":"0","num_feature":"34","num_nodes":"15","size_leaf_vector":"1"}},{"base_weights":[1.2901317E-3,-7.470574E-5,2.640785E-1,-3.965132E-3,4.5257844E-2,2.9431695E-1,-1.394393E-2,-7.778593E-4,3.3810434E-3,8.823621E-3,-4.282513E-3,3.457743E-2,1.4255609E-3,-2.1282716E-3,6.071156E-4],"categories":[],"categories_nodes":[],"categories_segments":[],"categories_sizes":[],"default_left":[0,0,0,0,0,0,0,0,0,0,0,0,0,0,0],"id":44,"left_children":[1,3,5,7,9,11,13,-1,-1,-1,-1,-1,-1,-1,-1],"loss_changes":[1.7354109E0,8.523929E-1,2.5121343E-1,6.4382166E-1,1.4839103E0,2.8216565E-1,3.0547439E-3,0E0,0E0,0E0,0E0,0E0,0E0,0E0,0E0],"parents":[2147483647,0,0,1,1,2,2,3,3,4,4,5,5,6,6],"right_children":[2,4,6,8,10,12,14,-1,-1,-1,-1,-1,-1,-1,-1],"split_conditions":[1.6221248E3,1.2307418E2,6.619906E-6,3.9799997E-5,-3.988857E-1,7.23E-6,4.678401E-6,-7.778593E-4,3.3810434E-3,8.823621E-3,-4.282513E-3,3.457743E-2,1.4255609E-3,-2.1282716E-3,6.071156E-4],"split_indices":[32,32,17,19,28,6,0,0,0,0,0,0,0,0,0],"split_type":[0,0,0,0,0,0,0,0,0,0,0,0,0,0,0],"sum_hessian":[4.828E3,4.813E3,1.5E1,4.441E3,3.72E2,1.3E1,2E0,4.041E3,4E2,2.5E2,1.22E2,9E0,4E0,1E0,1E0],"tree_param":{"num_deleted":"0","num_feature":"34","num_nodes":"15","size_leaf_vector":"1"}},{"base_weights":[1.2471539E-3,-4.5799642E-4,1.6799295E-1,6.891685E-3,-2.673347E-2,-6.0936045E-2,2.6758844E-1,-1.0057348E-5,1.5179488E-2,-1.558611E-2,-8.4156136E-4,7.5433734E-3,-2.0248357E-2,-1.0475949E-2,3.3318356E-2],"categories":[],"categories_nodes":[],"categories_segments":[],"categories_sizes":[],"default_left":[0,0,0,0,0,0,0,0,0,0,0,0,0,0,0],"id":45,"left_children":[1,3,5,7,9,11,13,-1,-1,-1,-1,-1,-1,-1,-1],"loss_changes":[1.3763416E0,9.2860776E-1,1.2802725E0,3.8077607E0,2.472857E0,5.9670544E-1,1.2283127E0,0E0,0E0,0E0,0E0,0E0,0E0,0E0,0E0],"parents":[2147483647,0,0,1,1,2,2,3,3,4,4,5,5,6,6],"right_children":[2,4,6,8,10,12,14,-1,-1,-1,-1,-1,-1,-1,-1],"split_conditions":[6.7938867E0,1.5408984E-6,5.287959E-6,6.3557736E-6,7.4033333E-6,4.9950386E-6,6.2813774E-2,-1.0057348E-5,1.5179488E-2,-1.558611E-2,-8.4156136E-4,7.5433734E-3,-2.0248357E-2,-1.0475949E-2,3.3318356E-2],"split_indices":[31,1,0,17,3,0,27,0,0,0,0,0,0,0,0],"split_type":[0,0,0,0,0,0,0,0,0,0,0,0,0,0,0],"sum_hessian":[4.828E3,4.789E3,3.9E1,3.748E3,1.041E3,1.3E1,2.6E1,3.585E3,1.63E2,1.2E2,9.21E2,9E0,4E0,3E0,2.3E1],"tree_param":{"num_deleted":"0","num_feature":"34","num_nodes":"15","size_leaf_vector":"1"}},{"base_weights":[1.1407842E-3,-8.06171E-5,2.3631722E-1,-1.0907543E-2,1.45931095E-2,2.658521E-1,-1.7222285E-2,-6.6694734E-4,-1.608718E-2,1.1574811E-2,3.8898343E-4,3.1632636E-2,7.4569666E-4,-2.1774985E-3,2.9870382E-4],"categories":[],"categories_nodes":[],"categories_segments":[],"categories_sizes":[],"default_left":[0,0,0,0,0,0,0,0,0,0,0,0,0,0,0],"id":46,"left_children":[1,3,5,7,9,11,13,-1,-1,-1,-1,-1,-1,-1,-1],"loss_changes":[1.389881E0,7.678282E-1,2.3299205E-1,1.7567604E0,2.2171772E0,2.7638447E-1,1.7545109E-3,0E0,0E0,0E0,0E0,0E0,0E0,0E0,0E0],"parents":[2147483647,0,0,1,1,2,2,3,3,4,4,5,5,6,6],"right_children":[2,4,6,8,10,12,14,-1,-1,-1,-1,-1,-1,-1,-1],"split_conditions":[1.6221248E3,3.0171004E-1,6.619906E-6,1.2292169E1,2.459E-5,7.23E-6,4.678401E-6,-6.6694734E-4,-1.608718E-2,1.1574811E-2,3.8898343E-4,3.1632636E-2,7.4569666E-4,-2.1774985E-3,2.9870382E-4],"split_indices":[32,31,17,32,15,6,0,0,0,0,0,0,0,0,0],"split_type":[0,0,0,0,0,0,0,0,0,0,0,0,0,0,0],"sum_hessian":[4.828E3,4.813E3,1.5E1,2.771E3,2.042E3,1.3E1,2E0,2.705E3,6.6E1,1.86E2,1.856E3,9E0,4E0,1E0,1E0],"tree_param":{"num_deleted":"0","num_feature":"34","num_nodes":"15","size_leaf_vector":"1"}},{"base_weights":[1.0798438E-3,-3.2623163E-3,5.360253E-2,-7.617807E-2,-1.5080892E-3,1.1045714E-1,2.9776453E-3,3.5952826E-3,-1.0513173E-2,4.259652E-3,-5.934659E-4,-2.1539684E-3,1.9311627E-2,-1.3340451E-2,5.6458516E-3],"categories":[],"categories_nodes":[],"categories_segments":[],"categories_sizes":[],"default_left":[0,0,0,0,0,0,0,0,0,0,0,0,0,0,0],"id":47,"left_children":[1,3,5,7,9,11,13,-1,-1,-1,-1,-1,-1,-1,-1],"loss_changes":[1.1051122E0,5.7163566E-1,1.0616665E0,3.7869084E-1,8.5823035E-1,1.9400661E0,1.5778482E0,0E0,0E0,0E0,0E0,0E0,0E0,0E0,0E0],"parents":[2147483647,0,0,1,1,2,2,3,3,4,4,5,5,6,6],"right_children":[2,4,6,8,10,12,14,-1,-1,-1,-1,-1,-1,-1,-1],"split_conditions":[1.4225903E0,-6.044004E-1,8.644374E-6,-1.5706047E-1,-5.530826E-1,1.3382534E-6,9.170421E-6,3.5952826E-3,-1.0513173E-2,4.259652E-3,-5.934659E-4,-2.1539684E-3,1.9311627E-2,-1.3340451E-2,5.6458516E-3],"split_indices":[31,28,4,26,28,5,4,0,0,0,0,0,0,0,0],"split_type":[0,0,0,0,0,0,0,0,0,0,0,0,0,0,0],"sum_hessian":[4.828E3,4.468E3,3.6E2,9.5E1,4.373E3,1.64E2,1.96E2,1.9E1,7.6E1,3.91E2,3.982E3,6.6E1,9.8E1,5.1E1,1.45E2],"tree_param":{"num_deleted":"0","num_feature":"34","num_nodes":"15","size_leaf_vector":"1"}},{"base_weights":[9.846905E-4,-1.579475E-4,2.2102854E-1,5.8946116E-3,-2.3008984E-2,2.6322618E-1,-1.4545236E-4,1.0281891E-4,1.3472832E-2,-1.1034351E-2,-3.046176E-4,3.1138776E-2,-5.940731E-4,-2.3332639E-3,1.9586363E-3],"categories":[],"categories_nodes":[],"categories_segments":[],"categories_sizes":[],"default_left":[0,0,0,0,0,0,0,0,0,0,0,0,0,0,0],"id":48,"left_children":[1,3,5,7,9,11,13,-1,-1,-1,-1,-1,-1,-1,-1],"loss_changes":[1.2167696E0,6.68412E-1,2.3370838E-1,2.3942258E0,1.7610024E0,2.9073215E-1,1.0975368E-2,0E0,0E0,0E0,0E0,0E0,0E0,0E0,0E0],"parents":[2147483647,0,0,1,1,2,2,3,3,4,4,5,5,6,6],"right_children":[2,4,6,8,10,12,14,-1,-1,-1,-1,-1,-1,-1,-1],"split_conditions":[1.6221248E3,1.5811744E-6,6.351512E-3,6.681144E-6,1.6264501E-5,7.23E-6,4.678401E-6,1.0281891E-4,1.3472832E-2,-1.1034351E-2,-3.046176E-4,3.1138776E-2,-5.940731E-4,-2.3332639E-3,1.9586363E-3],"split_indices":[32,1,26,17,11,6,0,0,0,0,0,0,0,0,0],"split_type":[0,0,0,0,0,0,0,0,0,0,0,0,0,0,0],"sum_hessian":[4.828E3,4.813E3,1.5E1,3.811E3,1.002E3,1.1E1,4E0,3.682E3,1.29E2,1.78E2,8.24E2,8E0,3E0,1E0,3E0],"tree_param":{"num_deleted":"0","num_feature":"34","num_nodes":"15","size_leaf_vector":"1"}},{"base_weights":[9.5319375E-4,-1.3752686E-4,2.1099374E-1,1.9665003E-2,-7.030743E-3,2.4058239E-1,-2.1545967E-2,9.041011E-4,1.676956E-2,-7.958367E-3,-6.4325395E-5,2.9827967E-2,1.09574E-3,-2.3120535E-3,-3.8415736E-5],"categories":[],"categories_nodes":[],"categories_segments":[],"categories_sizes":[],"default_left":[0,0,0,0,0,0,0,0,0,0,0,0,0,0,0],"id":49,"left_children":[1,3,5,7,9,11,13,-1,-1,-1,-1,-1,-1,-1,-1],"loss_changes":[1.1086544E0,6.5973717E-1,2.238493E-1,1.9475381E0,1.6608882E0,2.7203727E-1,3.110296E-4,0E0,0E0,0E0,0E0,0E0,0E0,0E0,0E0],"parents":[2147483647,0,0,1,1,2,2,3,3,4,4,5,5,6,6],"right_children":[2,4,6,8,10,12,14,-1,-1,-1,-1,-1,-1,-1,-1],"split_conditions":[1.6221248E3,2.2089734E2,6.619906E-6,2.0389346E2,2.9059024E2,7.2400003E-6,4.678401E-6,9.041011E-4,1.676956E-2,-7.958367E-3,-6.4325395E-5,2.9827967E-2,1.09574E-3,-2.3120535E-3,-3.8415736E-5],"split_indices":[32,33,17,33,33,10,0,0,0,0,0,0,0,0,0],"split_type":[0,0,0,0,0,0,0,0,0,0,0,0,0,0,0],"sum_hessian":[4.828E3,4.813E3,1.5E1,1.238E3,3.575E3,1.3E1,2E0,1.165E3,7.3E1,2.8E2,3.295E3,8E0,5E0,1E0,1E0],"tree_param":{"num_deleted":"0","num_feature":"34","num_nodes":"15","size_leaf_vector":"1"}},{"base_weights":[9.368904E-4,-1.0375601E-4,2.0132364E-1,-6.114834E-3,2.008226E-2,2.306954E-1,-2.2741936E-3,-7.971795E-4,8.406821E-3,1.5815333E-2,-6.786496E-5,2.8595066E-2,1.0592144E-3],"categories":[],"categories_nodes":[],"categories_segments":[],"categories_sizes":[],"default_left":[0,0,0,0,0,0,0,0,0,0,0,0,0],"id":50,"left_children":[1,3,5,7,9,11,-1,-1,-1,-1,-1,-1,-1],"loss_changes":[1.0090857E0,5.8644944E-1,2.1699464E-1,6.303466E-1,3.1800008E0,2.4943459E-1,0E0,0E0,0E0,0E0,0E0,0E0,0E0],"parents":[2147483647,0,0,1,1,2,2,3,3,4,4,5,5],"right_children":[2,4,6,8,10,12,-1,-1,-1,-1,-1,-1,-1],"split_conditions":[1.6221248E3,5.754189E-1,9.440093E-3,7.150329E1,9.11033E0,7.2400003E-6,-2.2741936E-3,-7.971795E-4,8.406821E-3,1.5815333E-2,-6.786496E-5,2.8595066E-2,1.0592144E-3],"split_indices":[32,31,26,32,32,10,0,0,0,0,0,0,0],"split_type":[0,0,0,0,0,0,0,0,0,0,0,0,0],"sum_hessian":[4.828E3,4.813E3,1.5E1,3.714E3,1.099E3,1.3E1,2E0,3.648E3,6.6E1,1.35E2,9.64E2,8E0,5E0],"tree_param":{"num_deleted":"0","num_feature":"34","num_nodes":"13","size_leaf_vector":"1"}},{"base_weights":[9.480653E-4,-3.2341685E-3,4.781366E-2,-4.849088E-3,1.4591129E-1,-1.1509911E-1,6.4266995E-2,-1.4315425E-4,-6.0288236E-3,-9.277372E-3,2.2478057E-2,2.5136494E-3,-1.4723966E-2,1.3797714E-2,1.1615389E-3],"categories":[],"categories_nodes":[],"categories_segments":[],"categories_sizes":[],"default_left":[0,0,0,0,0,0,0,0,0,0,0,0,0,0,0],"id":51,"left_children":[1,3,5,7,9,11,13,-1,-1,-1,-1,-1,-1,-1,-1],"loss_changes":[9.4980836E-1,1.079134E0,1.1381128E0,8.3524954E-1,1.1121334E0,2.1730083E-1,1.408285E0,0E0,0E0,0E0,0E0,0E0,0E0,0E0,0E0],"parents":[2147483647,0,0,1,1,2,2,3,3,4,4,5,5,6,6],"right_children":[2,4,6,8,10,12,14,-1,-1,-1,-1,-1,-1,-1,-1],"split_conditions":[1.2307418E2,2.0195446E0,1.34525E-5,1.0357178E0,6.99408E-2,4.3933314E-6,1.6121902E2,-1.4315425E-4,-6.0288236E-3,-9.277372E-3,2.2478057E-2,2.5136494E-3,-1.4723966E-2,1.3797714E-2,1.1615389E-3],"split_indices":[32,31,23,31,27,8,33,0,0,0,0,0,0,0,0],"split_type":[0,0,0,0,0,0,0,0,0,0,0,0,0,0,0],"sum_hessian":[4.828E3,4.441E3,3.87E2,4.403E3,3.8E1,3E1,3.57E2,4.157E3,2.46E2,9E0,2.9E1,6E0,2.4E1,1.42E2,2.15E2],"tree_param":{"num_deleted":"0","num_feature":"34","num_nodes":"15","size_leaf_vector":"1"}},{"base_weights":[8.73466E-4,-1.0307906E-4,1.8891916E-1,1.6957501E-2,-6.0418723E-3,2.1828088E-1,-2.479011E-3,7.245202E-4,1.5240783E-2,-7.1861483E-3,-2.481944E-5,2.7070457E-2,9.851854E-4],"categories":[],"categories_nodes":[],"categories_segments":[],"categories_sizes":[],"default_left":[0,0,0,0,0,0,0,0,0,0,0,0,0],"id":52,"left_children":[1,3,5,7,9,11,-1,-1,-1,-1,-1,-1,-1],"loss_changes":[8.886213E-1,4.8968732E-1,2.1098387E-1,1.6307443E0,1.366917E0,2.2464287E-1,0E0,0E0,0E0,0E0,0E0,0E0,0E0],"parents":[2147483647,0,0,1,1,2,2,3,3,4,4,5,5],"right_children":[2,4,6,8,10,12,-1,-1,-1,-1,-1,-1,-1],"split_conditions":[1.6221248E3,2.2089734E2,6.619906E-6,2.0389346E2,2.9059024E2,7.2400003E-6,-2.479011E-3,7.245202E-4,1.5240783E-2,-7.1861483E-3,-2.481944E-5,2.7070457E-2,9.851854E-4],"split_indices":[32,33,17,33,33,10,0,0,0,0,0,0,0],"split_type":[0,0,0,0,0,0,0,0,0,0,0,0,0],"sum_hessian":[4.828E3,4.813E3,1.5E1,1.238E3,3.575E3,1.3E1,2E0,1.165E3,7.3E1,2.8E2,3.295E3,8E0,5E0],"tree_param":{"num_deleted":"0","num_feature":"34","num_nodes":"13","size_leaf_vector":"1"}},{"base_weights":[8.570745E-4,-7.462596E-5,1.802579E-1,-6.864378E-2,1.448324E-3,2.098691E-1,-2.67118E-3,4.7111963E-3,-9.16295E-3,4.720069E-3,-1.9801613E-4,-7.2555937E-4,2.3400268E-2],"categories":[],"categories_nodes":[],"categories_segments":[],"categories_sizes":[],"default_left":[0,0,0,0,0,0,0,0,0,0,0,0,0],"id":53,"left_children":[1,3,5,7,9,11,-1,-1,-1,-1,-1,-1,-1],"loss_changes":[8.087958E-1,5.0464743E-1,2.0927519E-1,3.2254496E-1,7.425748E-1,1.3749826E-1,0E0,0E0,0E0,0E0,0E0,0E0,0E0],"parents":[2147483647,0,0,1,1,2,2,3,3,4,4,5,5],"right_children":[2,4,6,8,10,12,-1,-1,-1,-1,-1,-1,-1],"split_conditions":[1.6221248E3,-6.044004E-1,9.440093E-3,-2.0913844E-1,-5.613749E-1,3.0036697E-6,-2.67118E-3,4.7111963E-3,-9.16295E-3,4.720069E-3,-1.9801613E-4,-7.2555937E-4,2.3400268E-2],"split_indices":[32,28,26,26,28,17,0,0,0,0,0,0,0],"split_type":[0,0,0,0,0,0,0,0,0,0,0,0,0],"sum_hessian":[4.828E3,4.813E3,1.5E1,9.5E1,4.718E3,1.3E1,2E0,1.4E1,8.1E1,3.2E2,4.398E3,2E0,1.1E1],"tree_param":{"num_deleted":"0","num_feature":"34","num_nodes":"13","size_leaf_vector":"1"}},{"base_weights":[8.1285846E-4,-3.2669622E-3,3.6117185E-2,3.2774836E-2,-6.6340026E-3,-2.6147554E-2,7.753131E-2,-7.0462696E-4,1.7950041E-2,4.0205682E-4,-2.4797178E-3,2.210637E-3,-1.6785437E-2,-6.2581836E-3,1.1901571E-2],"categories":[],"categories_nodes":[],"categories_segments":[],"categories_sizes":[],"default_left":[0,0,0,0,0,0,0,0,0,0,0,0,0,0,0],"id":54,"left_children":[1,3,5,7,9,11,13,-1,-1,-1,-1,-1,-1,-1,-1],"loss_changes":[6.9802284E-1,5.295796E-1,1.3147497E0,2.1920033E0,7.7179056E-1,1.4593917E0,1.8414849E0,0E0,0E0,0E0,0E0,0E0,0E0,0E0,0E0],"parents":[2147483647,0,0,1,1,2,2,3,3,4,4,5,5,6,6],"right_children":[2,4,6,8,10,12,14,-1,-1,-1,-1,-1,-1,-1,-1],"split_conditions":[1.1821766E0,4.1533787E1,1.1428108E-6,2.7099115E-5,1.6779999E-5,2.1459999E-5,9.408469E1,-7.0462696E-4,1.7950041E-2,4.0205682E-4,-2.4797178E-3,2.210637E-3,-1.6785437E-2,-6.2581836E-3,1.1901571E-2],"split_indices":[31,33,1,12,18,23,33,0,0,0,0,0,0,0,0],"split_type":[0,0,0,0,0,0,0,0,0,0,0,0,0,0,0],"sum_hessian":[4.828E3,4.336E3,4.92E2,3.63E2,3.973E3,1.98E2,2.94E2,2.93E2,7E1,2.509E3,1.464E3,1.54E2,4.4E1,6.6E1,2.28E2],"tree_param":{"num_deleted":"0","num_feature":"34","num_nodes":"15","size_leaf_vector":"1"}},{"base_weights":[7.444568E-4,-1.1217604E-4,1.6570827E-1,5.7466608E-3,-2.076517E-2,1.9398272E-1,-2.6574633E-3,-8.890288E-6,1.2691565E-2,-1.41006205E-2,-3.1850956E-4,1.8303689E-3,2.5940249E-2],"categories":[],"categories_nodes":[],"categories_segments":[],"categories_sizes":[],"default_left":[0,0,0,0,0,0,0,0,0,0,0,0,0],"id":55,"left_children":[1,3,5,7,9,11,-1,-1,-1,-1,-1,-1,-1],"loss_changes":[6.838601E-1,5.847885E-1,1.8746758E-1,2.662304E0,2.253097E0,2.1685606E-1,0E0,0E0,0E0,0E0,0E0,0E0,0E0],"parents":[2147483647,0,0,1,1,2,2,3,3,4,4,5,5],"right_children":[2,4,6,8,10,12,-1,-1,-1,-1,-1,-1,-1],"split_conditions":[1.6221248E3,1.5408984E-6,6.619906E-6,6.3557736E-6,7.4033333E-6,8.325356E-2,-2.6574633E-3,-8.890288E-6,1.2691565E-2,-1.41006205E-2,-3.1850956E-4,1.8303689E-3,2.5940249E-2],"split_indices":[32,1,17,17,3,27,0,0,0,0,0,0,0],"split_type":[0,0,0,0,0,0,0,0,0,0,0,0,0],"sum_hessian":[4.828E3,4.813E3,1.5E1,3.755E3,1.058E3,1.3E1,2E0,3.592E3,1.63E2,1.26E2,9.32E2,7E0,6E0],"tree_param":{"num_deleted":"0","num_feature":"34","num_nodes":"13","size_leaf_vector":"1"}},{"base_weights":[7.1833853E-4,-2.9431998E-3,3.2403324E-2,-8.470025E-3,1.8194003E-2,-2.6027307E-2,7.163754E-2,1.8039209E-4,-6.111044E-3,1.3274498E-2,-4.894826E-4,-9.610967E-3,4.2016967E-3,-2.6387423E-3,1.2495318E-2],"categories":[],"categories_nodes":[],"categories_segments":[],"categories_sizes":[],"default_left":[0,0,0,0,0,0,0,0,0,0,0,0,0,0,0],"id":56,"left_children":[1,3,5,7,9,11,13,-1,-1,-1,-1,-1,-1,-1,-1],"loss_changes":[5.6223804E-1,5.092478E-1,1.1694703E0,1.8680295E0,2.39744E0,1.0370413E0,1.6165298E0,0E0,0E0,0E0,0E0,0E0,0E0,0E0,0E0],"parents":[2147483647,0,0,1,1,2,2,3,3,4,4,5,5,6,6],"right_children":[2,4,6,8,10,12,14,-1,-1,-1,-1,-1,-1,-1,-1],"split_conditions":[1.1821766E0,5.1049997E-6,7.474968E-2,1.7755687E-5,-3.9758962E-1,-4.2739907E-1,9.408469E1,1.8039209E-4,-6.111044E-3,1.3274498E-2,-4.894826E-4,-9.610967E-3,4.2016967E-3,-2.6387423E-3,1.2495318E-2],"split_indices":[31,2,27,20,28,28,33,0,0,0,0,0,0,0,0],"split_type":[0,0,0,0,0,0,0,0,0,0,0,0,0,0,0],"sum_hessian":[4.828E3,4.336E3,4.92E2,3.442E3,8.94E2,1.99E2,2.93E2,2.888E3,5.54E2,1.42E2,7.52E2,9.6E1,1.03E2,1.05E2,1.88E2],"tree_param":{"num_deleted":"0","num_feature":"34","num_nodes":"15","size_leaf_vector":"1"}},{"base_weights":[6.6987006E-4,-1.3687539E-4,1.5603925E-1,-1.3520231E-2,7.2982837E-3,1.9321388E-1,-1.11792935E-2,-5.416662E-4,-1.3323863E-2,1.36981355E-2,2.485309E-4,2.3545451E-2,-1.3899216E-3,-2.5420568E-3,1.2378057E-3],"categories":[],"categories_nodes":[],"categories_segments":[],"categories_sizes":[],"default_left":[0,0,0,0,0,0,0,0,0,0,0,0,0,0,0],"id":57,"left_children":[1,3,5,7,9,11,13,-1,-1,-1,-1,-1,-1,-1,-1],"loss_changes":[6.066257E-1,4.8091084E-1,1.7700714E-1,1.6672554E0,1.9358649E0,2.1644676E-1,7.8433845E-3,0E0,0E0,0E0,0E0,0E0,0E0,0E0,0E0],"parents":[2147483647,0,0,1,1,2,2,3,3,4,4,5,5,6,6],"right_children":[2,4,6,8,10,12,14,-1,-1,-1,-1,-1,-1,-1,-1],"split_conditions":[1.6221248E3,1.5019066E-5,6.351512E-3,1.2779741E-5,2.3954137E-6,7.23E-6,4.9950386E-6,-5.416662E-4,-1.3323863E-2,1.36981355E-2,2.485309E-4,2.3545451E-2,-1.3899216E-3,-2.5420568E-3,1.2378057E-3],"split_indices":[32,16,26,16,0,6,0,0,0,0,0,0,0,0,0],"split_type":[0,0,0,0,0,0,0,0,0,0,0,0,0,0,0],"sum_hessian":[4.828E3,4.813E3,1.5E1,1.716E3,3.097E3,1.1E1,4E0,1.617E3,9.9E1,1.01E2,2.996E3,8E0,3E0,2E0,2E0],"tree_param":{"num_deleted":"0","num_feature":"34","num_nodes":"15","size_leaf_vector":"1"}},{"base_weights":[6.4614683E-4,-1.2302282E-4,1.4877589E-1,5.0370046E-3,-1.8312417E-2,1.7668861E-1,-2.8703392E-3,-3.1491523E-5,1.16177155E-2,-1.2705441E-2,-2.4185369E-4,2.2746094E-2,-2.0305952E-4],"categories":[],"categories_nodes":[],"categories_segments":[],"categories_sizes":[],"default_left":[0,0,0,0,0,0,0,0,0,0,0,0,0],"id":58,"left_children":[1,3,5,7,9,11,-1,-1,-1,-1,-1,-1,-1],"loss_changes":[5.514098E-1,4.5359847E-1,1.7456388E-1,2.2398374E0,1.8427861E0,2.1332061E-1,0E0,0E0,0E0,0E0,0E0,0E0,0E0],"parents":[2147483647,0,0,1,1,2,2,3,3,4,4,5,5],"right_children":[2,4,6,8,10,12,-1,-1,-1,-1,-1,-1,-1],"split_conditions":[1.6221248E3,1.5408984E-6,6.619906E-6,6.3557736E-6,7.4033333E-6,7.2400003E-6,-2.8703392E-3,-3.1491523E-5,1.16177155E-2,-1.2705441E-2,-2.4185369E-4,2.2746094E-2,-2.0305952E-4],"split_indices":[32,1,17,17,3,10,0,0,0,0,0,0,0],"split_type":[0,0,0,0,0,0,0,0,0,0,0,0,0],"sum_hessian":[4.828E3,4.813E3,1.5E1,3.755E3,1.058E3,1.3E1,2E0,3.592E3,1.63E2,1.26E2,9.32E2,8E0,5E0],"tree_param":{"num_deleted":"0","num_feature":"34","num_nodes":"13","size_leaf_vector":"1"}},{"base_weights":[6.1937654E-4,-8.768324E-3,1.1420397E-2,-3.43975E-2,-1.9261393E-3,2.1694355E-1,6.442138E-3,-7.3002847E-3,1.1200032E-3,-3.3502144E-4,1.2553016E-2,4.5516927E-2,-2.1987837E-3,7.891393E-3,-2.534867E-4],"categories":[],"categories_nodes":[],"categories_segments":[],"categories_sizes":[],"default_left":[0,0,0,0,0,0,0,0,0,0,0,0,0,0,0],"id":59,"left_children":[1,3,5,7,9,11,13,-1,-1,-1,-1,-1,-1,-1,-1],"loss_changes":[4.9155876E-1,4.5422024E-1,2.2921987E0,9.693047E-1,3.7774757E-1,3.1168208E0,1.4404321E0,0E0,0E0,0E0,0E0,0E0,0E0,0E0,0E0],"parents":[2147483647,0,0,1,1,2,2,3,3,4,4,5,5,6,6],"right_children":[2,4,6,8,10,12,14,-1,-1,-1,-1,-1,-1,-1,-1],"split_conditions":[2.84146E-1,-3.923382E-1,2.1915E-5,1.9995E-5,5.096477E-1,6.316725E-2,4.8849997E-6,-7.3002847E-3,1.1200032E-3,-3.3502144E-4,1.2553016E-2,4.5516927E-2,-2.1987837E-3,7.891393E-3,-2.534867E-4],"split_indices":[31,28,15,14,24,27,6,0,0,0,0,0,0,0,0],"split_type":[0,0,0,0,0,0,0,0,0,0,0,0,0,0,0],"sum_hessian":[4.828E3,2.584E3,2.244E3,5.36E2,2.048E3,4.3E1,2.201E3,2.87E2,2.49E2,2.035E3,1.3E1,1.7E1,2.6E1,2.34E2,1.967E3],"tree_param":{"num_deleted":"0","num_feature":"34","num_nodes":"15","size_leaf_vector":"1"}},{"base_weights":[6.752322E-4,-2.3626308E-3,3.471749E-2,-3.5342905E-3,1.4647713E-1,-9.353341E-3,1.0058199E-1,-4.8716876E-5,-5.060497E-3,-1.1288367E-2,2.6513357E-2,1.4800587E-3,-1.6502371E-2,2.0285051E-2,-1.3519706E-3],"categories":[],"categories_nodes":[],"categories_segments":[],"categories_sizes":[],"default_left":[0,0,0,0,0,0,0,0,0,0,0,0,0,0,0],"id":60,"left_children":[1,3,5,7,9,11,13,-1,-1,-1,-1,-1,-1,-1,-1],"loss_changes":[5.011454E-1,7.813849E-1,1.161781E0,6.34575E-1,1.3764112E0,9.53157E-1,1.8944664E0,0E0,0E0,0E0,0E0,0E0,0E0,0E0,0E0],"parents":[2147483647,0,0,1,1,2,2,3,3,4,4,5,5,6,6],"right_children":[2,4,6,8,10,12,14,-1,-1,-1,-1,-1,-1,-1,-1],"split_conditions":[1.2307418E2,2.5107412E0,-5.044253E-2,1.0357178E0,8.29369E-2,1.215E-5,2.5861254E-5,-4.8716876E-5,-5.060497E-3,-1.1288367E-2,2.6513357E-2,1.4800587E-3,-1.6502371E-2,2.0285051E-2,-1.3519706E-3],"split_indices":[32,31,26,31,27,7,16,0,0,0,0,0,0,0,0],"split_type":[0,0,0,0,0,0,0,0,0,0,0,0,0,0,0],"sum_hessian":[4.828E3,4.441E3,3.87E2,4.416E3,2.5E1,2.37E2,1.5E2,4.157E3,2.59E2,8E0,1.7E1,2.13E2,2.4E1,7.5E1,7.5E1],"tree_param":{"num_deleted":"0","num_feature":"34","num_nodes":"15","size_leaf_vector":"1"}},{"base_weights":[6.367065E-4,-5.247686E-5,1.3333927E-1,-2.8757069E-3,3.0004283E-2,1.7110379E-1,-1.8549833E-2,-4.070959E-5,-9.125921E-3,9.8806545E-3,-1.6138997E-3,2.1064306E-2,-1.5261192E-3,-3.0508458E-3,8.8669854E-4],"categories":[],"categories_nodes":[],"categories_segments":[],"categories_sizes":[],"default_left":[0,0,0,0,0,0,0,0,0,0,0,0,0,0,0],"id":61,"left_children":[1,3,5,7,9,11,13,-1,-1,-1,-1,-1,-1,-1,-1],"loss_changes":[4.4253603E-1,4.101289E-1,1.7513993E-1,9.635675E-1,1.3334726E0,1.8689007E-1,7.295325E-3,0E0,0E0,0E0,0E0,0E0,0E0,0E0,0E0],"parents":[2147483647,0,0,1,1,2,2,3,3,4,4,5,5,6,6],"right_children":[2,4,6,8,10,12,14,-1,-1,-1,-1,-1,-1,-1,-1],"split_conditions":[1.6221248E3,3.9799997E-5,6.351512E-3,2.9377497E-5,2.592E-5,7.23E-6,3.705E-6,-4.070959E-5,-9.125921E-3,9.8806545E-3,-1.6138997E-3,2.1064306E-2,-1.5261192E-3,-3.0508458E-3,8.8669854E-4],"split_indices":[32,19,26,18,11,6,2,0,0,0,0,0,0,0,0],"split_type":[0,0,0,0,0,0,0,0,0,0,0,0,0,0,0],"sum_hessian":[4.828E3,4.813E3,1.5E1,4.408E3,4.05E2,1.1E1,4E0,4.298E3,1.1E2,1.58E2,2.47E2,8E0,3E0,2E0,2E0],"tree_param":{"num_deleted":"0","num_feature":"34","num_nodes":"15","size_leaf_vector":"1"}},{"base_weights":[6.070757E-4,-1.1616558E-2,7.375142E-3,-2.960025E-3,-9.990086E-2,1.5969083E-1,4.0701204E-3,-6.9499883E-4,4.7661993E-3,-1.386043E-2,-1.8171942E-3,3.2702826E-2,-2.210717E-3,1.2252882E-2,-3.8131977E-5],"categories":[],"categories_nodes":[],"categories_segments":[],"categories_sizes":[],"default_left":[0,0,0,0,0,0,0,0,0,0,0,0,0,0,0],"id":62,"left_children":[1,3,5,7,9,11,13,-1,-1,-1,-1,-1,-1,-1,-1],"loss_changes":[4.0110624E-1,1.3176425E0,1.5641294E0,3.2324877E-1,4.6194434E-1,2.080123E0,1.6161506E0,0E0,0E0,0E0,0E0,0E0,0E0,0E0,0E0],"parents":[2147483647,0,0,1,1,2,2,3,3,4,4,5,5,6,6],"right_children":[2,4,6,8,10,12,14,-1,-1,-1,-1,-1,-1,-1,-1],"split_conditions":[1.5019066E-5,2.0275038E-1,1.7463906E-5,1.525E-5,3.0019997E-5,1.7542649E-6,2.3954137E-6,-6.9499883E-4,4.7661993E-3,-1.386043E-2,-1.8171942E-3,3.2702826E-2,-2.210717E-3,1.2252882E-2,-3.8131977E-5],"split_indices":[16,24,12,19,15,1,0,0,0,0,0,0,0,0,0],"split_type":[0,0,0,0,0,0,0,0,0,0,0,0,0,0,0],"sum_hessian":[4.828E3,1.718E3,3.11E3,1.574E3,1.44E2,5.6E1,3.054E3,1.467E3,1.07E2,9.3E1,5.1E1,2.5E1,3.1E1,1.01E2,2.953E3],"tree_param":{"num_deleted":"0","num_feature":"34","num_nodes":"15","size_leaf_vector":"1"}},{"base_weights":[6.1065576E-4,-3.1589274E-3,2.4026835E-2,-4.417796E-3,1.994751E-1,1.5972996E-1,5.707852E-4,-2.596066E-4,-1.187874E-2,-5.0845514E-3,2.2982612E-2,4.5151036E-2,5.855314E-3,1.1777153E-3,-1.8384296E-2],"categories":[],"categories_nodes":[],"categories_segments":[],"categories_sizes":[],"default_left":[0,0,0,0,0,0,0,0,0,0,0,0,0,0,0],"id":63,"left_children":[1,3,5,7,9,11,13,-1,-1,-1,-1,-1,-1,-1,-1],"loss_changes":[4.2780557E-1,1.0740669E0,2.1381042E0,8.6365455E-1,3.1439102E-1,2.6582456E0,1.2264842E0,0E0,0E0,0E0,0E0,0E0,0E0,0E0,0E0],"parents":[2147483647,0,0,1,1,2,2,3,3,4,4,5,5,6,6],"right_children":[2,4,6,8,10,12,14,-1,-1,-1,-1,-1,-1,-1,-1],"split_conditions":[7.150329E1,2.8284674E0,6.899444E-2,6.4816986E1,5.910801E-2,5.542286E-1,1.46493185E-5,-2.596066E-4,-1.187874E-2,-5.0845514E-3,2.2982612E-2,4.5151036E-2,5.855314E-3,1.1777153E-3,-1.8384296E-2],"split_indices":[32,31,25,32,27,31,8,0,0,0,0,0,0,0,0],"split_type":[0,0,0,0,0,0,0,0,0,0,0,0,0,0,0],"sum_hessian":[4.828E3,4.166E3,6.62E2,4.15E3,1.6E1,8.9E1,5.73E2,4.095E3,5.5E1,1E0,1.5E1,1.4E1,7.5E1,5.49E2,2.4E1],"tree_param":{"num_deleted":"0","num_feature":"34","num_nodes":"15","size_leaf_vector":"1"}},{"base_weights":[6.313622E-4,-5.5667046E-2,2.1077993E-3,-1.1955087E-1,5.2469935E-2,4.281072E-2,-7.589621E-4,-4.2174678E-4,-1.5183384E-2,-1.9746858E-3,2.8986534E-2,-4.051074E-3,1.4225371E-2,-5.4593044E-3,3.3186463E-4],"categories":[],"categories_nodes":[],"categories_segments":[],"categories_sizes":[],"default_left":[0,0,0,0,0,0,0,0,0,0,0,0,0,0,0],"id":64,"left_children":[1,3,5,7,9,11,13,-1,-1,-1,-1,-1,-1,-1,-1],"loss_changes":[4.0331307E-1,9.193455E-1,5.515475E-1,2.9518402E-1,9.658678E-1,2.6344914E0,9.727235E-1,0E0,0E0,0E0,0E0,0E0,0E0,0E0,0E0],"parents":[2147483647,0,0,1,1,2,2,3,3,4,4,5,5,6,6],"right_children":[2,4,6,8,10,12,14,-1,-1,-1,-1,-1,-1,-1,-1],"split_conditions":[-5.9789765E-1,1.16015375E-1,-5.613749E-1,6.827339E-7,2.319886E-5,3.9964962E0,-5.3214765E-1,-4.2174678E-4,-1.5183384E-2,-1.9746858E-3,2.8986534E-2,-4.051074E-3,1.4225371E-2,-5.4593044E-3,3.3186463E-4],"split_indices":[28,27,28,5,16,32,28,0,0,0,0,0,0,0,0],"split_type":[0,0,0,0,0,0,0,0,0,0,0,0,0,0,0],"sum_hessian":[4.828E3,1.14E2,4.714E3,7.1E1,4.3E1,3.01E2,4.413E3,1.8E1,5.3E1,4E1,3E0,1.67E2,1.34E2,3.02E2,4.111E3],"tree_param":{"num_deleted":"0","num_feature":"34","num_nodes":"15","size_leaf_vector":"1"}},{"base_weights":[6.022308E-4,-4.447138E-5,1.2512311E-1,4.5925407E-3,-1.7551959E-2,-4.3662298E-3,1.7790577E-1,-1.8955591E-4,6.1719785E-3,5.11118E-4,-8.503082E-3,-4.1564284E-3,3.3293553E-3,2.143077E-2,-1.8884937E-3],"categories":[],"categories_nodes":[],"categories_segments":[],"categories_sizes":[],"default_left":[0,0,0,0,0,0,0,0,0,0,0,0,0,0,0],"id":65,"left_children":[1,3,5,7,9,11,13,-1,-1,-1,-1,-1,-1,-1,-1],"loss_changes":[3.8964978E-1,3.9234892E-1,1.7863753E-1,1.417413E0,1.55198E0,3.7653025E-2,1.6941595E-1,0E0,0E0,0E0,0E0,0E0,0E0,0E0,0E0],"parents":[2147483647,0,0,1,1,2,2,3,3,4,4,5,5,6,6],"right_children":[2,4,6,8,10,12,14,-1,-1,-1,-1,-1,-1,-1,-1],"split_conditions":[1.6221248E3,1.5811744E-6,3.0143118E-1,5.0216886E-6,4.985451E0,3.705E-6,7.23E-6,-1.8955591E-4,6.1719785E-3,5.11118E-4,-8.503082E-3,-4.1564284E-3,3.3293553E-3,2.143077E-2,-1.8884937E-3],"split_indices":[32,1,24,21,32,2,6,0,0,0,0,0,0,0,0],"split_type":[0,0,0,0,0,0,0,0,0,0,0,0,0,0,0],"sum_hessian":[4.828E3,4.813E3,1.5E1,3.811E3,1.002E3,7E0,8E0,3.431E3,3.8E2,7.57E2,2.45E2,3E0,4E0,6E0,2E0],"tree_param":{"num_deleted":"0","num_feature":"34","num_nodes":"15","size_leaf_vector":"1"}},{"base_weights":[5.7653565E-4,1.5780123E-2,-4.735534E-3,8.018772E-3,1.5438706E-1,-6.792018E-2,8.7185437E-4,-2.5012787E-3,3.9792038E-3,-8.756849E-3,2.3636904E-2,-9.607497E-3,2.0508594E-3,-5.5340765E-4,6.195472E-3],"categories":[],"categories_nodes":[],"categories_segments":[],"categories_sizes":[],"default_left":[0,0,0,0,0,0,0,0,0,0,0,0,0,0,0],"id":66,"left_children":[1,3,5,7,9,11,13,-1,-1,-1,-1,-1,-1,-1,-1],"loss_changes":[3.9147627E-1,1.3377202E0,1.2735951E0,1.268328E0,1.5161605E0,7.4918365E-1,1.2986072E0,0E0,0E0,0E0,0E0,0E0,0E0,0E0,0E0],"parents":[2147483647,0,0,1,1,2,2,3,3,4,4,5,5,6,6],"right_children":[2,4,6,8,10,12,14,-1,-1,-1,-1,-1,-1,-1,-1],"split_conditions":[2.2089734E2,2.08391E2,2.9059024E2,1.535644E-5,3.7351155E-1,1.188E-5,6.5242136E-1,-2.5012787E-3,3.9792038E-3,-8.756849E-3,2.3636904E-2,-9.607497E-3,2.0508594E-3,-5.5340765E-4,6.195472E-3],"split_indices":[33,33,33,20,31,7,31,0,0,0,0,0,0,0,0],"split_type":[0,0,0,0,0,0,0,0,0,0,0,0,0,0,0],"sum_hessian":[4.828E3,1.245E3,3.583E3,1.189E3,5.6E1,2.83E2,3.3E3,5.84E2,6.05E2,1.4E1,4.2E1,2.14E2,6.9E1,2.995E3,3.05E2],"tree_param":{"num_deleted":"0","num_feature":"34","num_nodes":"15","size_leaf_vector":"1"}},{"base_weights":[5.487365E-4,-4.6410467E-3,1.5259731E-2,-5.1296636E-2,3.0894205E-3,8.582182E-2,-3.7788765E-3,-2.5966945E-3,-1.8419785E-2,5.16315E-4,-1.7903721E-2,1.4865952E-2,-9.33133E-3,7.969983E-4,-9.363091E-3],"categories":[],"categories_nodes":[],"categories_segments":[],"categories_sizes":[],"default_left":[0,0,0,0,0,0,0,0,0,0,0,0,0,0,0],"id":67,"left_children":[1,3,5,7,9,11,13,-1,-1,-1,-1,-1,-1,-1,-1],"loss_changes":[3.7007436E-1,1.2942243E0,1.7013056E0,1.6690066E0,1.1740131E0,3.1667008E0,1.0683995E0,0E0,0E0,0E0,0E0,0E0,0E0,0E0,0E0],"parents":[2147483647,0,0,1,1,2,2,3,3,4,4,5,5,6,6],"right_children":[2,4,6,8,10,12,14,-1,-1,-1,-1,-1,-1,-1,-1],"split_conditions":[1.0452517E-1,-5.3214765E-1,1.2007858E-1,-5.4022723E-1,6.75486E-1,7.06E-6,2.6293097E-5,-2.5966945E-3,-1.8419785E-2,5.16315E-4,-1.7903721E-2,1.4865952E-2,-9.33133E-3,7.969983E-4,-9.363091E-3],"split_indices":[27,28,27,28,24,3,16,0,0,0,0,0,0,0,0],"split_type":[0,0,0,0,0,0,0,0,0,0,0,0,0,0,0],"sum_hessian":[4.828E3,3.574E3,1.254E3,5E2,3.074E3,2.59E2,9.95E2,4.3E2,7E1,3.049E3,2.5E1,1.93E2,6.6E1,8.88E2,1.07E2],"tree_param":{"num_deleted":"0","num_feature":"34","num_nodes":"15","size_leaf_vector":"1"}},{"base_weights":[4.0821862E-4,-2.1489928E-3,2.9068334E-2,-3.7997495E-3,8.109124E-2,-1.6620278E-2,8.395435E-2,-1.9756695E-5,-7.2796517E-3,2.930445E-2,-4.6167867E-3,-1.2833324E-2,1.2192017E-3,3.5668563E-2,4.186936E-3],"categories":[],"categories_nodes":[],"categories_segments":[],"categories_sizes":[],"default_left":[0,0,0,0,0,0,0,0,0,0,0,0,0,0,0],"id":68,"left_children":[1,3,5,7,9,11,13,-1,-1,-1,-1,-1,-1,-1,-1],"loss_changes":[3.5520157E-1,6.1469036E-1,1.0094968E0,1.0869654E0,2.4819417E0,7.3985547E-1,1.9396347E0,0E0,0E0,0E0,0E0,0E0,0E0,0E0,0E0],"parents":[2147483647,0,0,1,1,2,2,3,3,4,4,5,5,6,6],"right_children":[2,4,6,8,10,12,14,-1,-1,-1,-1,-1,-1,-1,-1],"split_conditions":[1.2307418E2,1.5913092E0,7.1999993E-6,1.0357178E0,5.0473295E-6,8.82148E-1,1.6869999E-5,-1.9756695E-5,-7.2796517E-3,2.930445E-2,-4.6167867E-3,-1.2833324E-2,1.2192017E-3,3.5668563E-2,4.186936E-3],"split_indices":[32,31,10,31,0,31,14,0,0,0,0,0,0,0,0],"split_type":[0,0,0,0,0,0,0,0,0,0,0,0,0,0,0],"sum_hessian":[4.828E3,4.441E3,3.87E2,4.364E3,7.7E1,2.15E2,1.72E2,4.157E3,2.07E2,2.4E1,5.3E1,3.7E1,1.78E2,1.3E1,1.59E2],"tree_param":{"num_deleted":"0","num_feature":"34","num_nodes":"15","size_leaf_vector":"1"}},{"base_weights":[4.6171126E-4,-5.417309E-2,1.6702368E-3,-1.49369575E-2,-1.3525285E-1,3.242809E-2,-1.2063194E-3,-4.857931E-3,5.956955E-3,-1.5886374E-2,1.0264624E-3,-1.04078865E-2,7.631287E-3,-6.8061813E-3,2.625265E-4],"categories":[],"categories_nodes":[],"categories_segments":[],"categories_sizes":[],"default_left":[0,0,0,0,0,0,0,0,0,0,0,0,0,0,0],"id":69,"left_children":[1,3,5,7,9,11,13,-1,-1,-1,-1,-1,-1,-1,-1],"loss_changes":[3.2034615E-1,3.138292E-1,4.2003614E-1,2.3447753E-1,1.2968814E-1,2.5116E0,1.115325E0,0E0,0E0,0E0,0E0,0E0,0E0,0E0,0E0],"parents":[2147483647,0,0,1,1,2,2,3,3,4,4,5,5,6,6],"right_children":[2,4,6,8,10,12,14,-1,-1,-1,-1,-1,-1,-1,-1],"split_conditions":[-6.044004E-1,8.204266E-7,-5.530826E-1,2.0231494E-1,3.7987888E-6,7.407695E-2,-5.3214765E-1,-4.857931E-3,5.956955E-3,-1.5886374E-2,1.0264624E-3,-1.04078865E-2,7.631287E-3,-6.8061813E-3,2.625265E-4],"split_indices":[28,1,28,31,13,25,28,0,0,0,0,0,0,0,0],"split_type":[0,0,0,0,0,0,0,0,0,0,0,0,0,0,0],"sum_hessian":[4.828E3,9.5E1,4.733E3,7.2E1,2.3E1,3.96E2,4.337E3,5.2E1,2E1,1.9E1,4E0,9.3E1,3.03E2,2.26E2,4.111E3],"tree_param":{"num_deleted":"0","num_feature":"34","num_nodes":"15","size_leaf_vector":"1"}},{"base_weights":[3.6783918E-4,-2.1522176E-3,2.727804E-2,1.1112852E-3,-6.381347E-2,9.063986E-2,-2.2699945E-2,-2.2762308E-4,9.192167E-3,1.5647065E-4,-2.2648187E-2,4.319502E-3,2.8864635E-2,-7.7668077E-4,-1.671434E-2],"categories":[],"categories_nodes":[],"categories_segments":[],"categories_sizes":[],"default_left":[0,0,0,0,0,0,0,0,0,0,0,0,0,0,0],"id":70,"left_children":[1,3,5,7,9,11,13,-1,-1,-1,-1,-1,-1,-1,-1],"loss_changes":[3.2867718E-1,8.927692E-1,1.334754E0,1.3002557E0,2.3751404E0,1.6132805E0,5.0469685E-1,0E0,0E0,0E0,0E0,0E0,0E0,0E0,0E0],"parents":[2147483647,0,0,1,1,2,2,3,3,4,4,5,5,6,6],"right_children":[2,4,6,8,10,12,14,-1,-1,-1,-1,-1,-1,-1,-1],"split_conditions":[3.9799997E-5,3.2609998E-5,1.32899995E-5,3.082E-5,3.351887E-1,3.0180001E-5,1.0519655E1,-2.2762308E-4,9.192167E-3,1.5647065E-4,-2.2648187E-2,4.319502E-3,2.8864635E-2,-7.7668077E-4,-1.671434E-2],"split_indices":[19,23,3,23,31,14,32,0,0,0,0,0,0,0,0],"split_type":[0,0,0,0,0,0,0,0,0,0,0,0,0,0,0],"sum_hessian":[4.828E3,4.423E3,4.05E2,4.21E3,2.13E2,1.75E2,2.3E2,4.068E3,1.42E2,1.59E2,5.4E1,1.51E2,2.4E1,2.18E2,1.2E1],"tree_param":{"num_deleted":"0","num_feature":"34","num_nodes":"15","size_leaf_vector":"1"}},{"base_weights":[3.3552415E-4,-1.3441572E-2,5.5322936E-3,-4.8703984E-3,-1.3221663E-1,7.902736E-3,-1.1781344E-1,-4.578719E-3,1.8680266E-4,-1.6984958E-2,5.959715E-3,5.0778396E-4,1.5479842E-2,1.36987185E-2,-1.5116147E-2],"categories":[],"categories_nodes":[],"categories_segments":[],"categories_sizes":[],"default_left":[0,0,0,0,0,0,0,0,0,0,0,0,0,0,0],"id":71,"left_children":[1,3,5,7,9,11,13,-1,-1,-1,-1,-1,-1,-1,-1],"loss_changes":[3.47127E-1,1.3455197E0,1.0385019E0,3.45223E-1,7.4367356E-1,1.4291636E0,7.763774E-1,0E0,0E0,0E0,0E0,0E0,0E0,0E0,0E0],"parents":[2147483647,0,0,1,1,2,2,3,3,4,4,5,5,6,6],"right_children":[2,4,6,8,10,12,14,-1,-1,-1,-1,-1,-1,-1,-1],"split_conditions":[1.0898432E-2,3.423119E-1,2.6766122E-6,-5.554739E-1,4.0590706E-1,7.246651E-6,1.8314772E-6,-4.578719E-3,1.8680266E-4,-1.6984958E-2,5.959715E-3,5.0778396E-4,1.5479842E-2,1.36987185E-2,-1.5116147E-2],"split_indices":[32,31,1,28,24,13,13,0,0,0,0,0,0,0,0],"split_type":[0,0,0,0,0,0,0,0,0,0,0,0,0,0,0],"sum_hessian":[4.828E3,1.318E3,3.51E3,1.239E3,7.9E1,3.453E3,5.7E1,1.67E2,1.072E3,6.7E1,1.2E1,3.398E3,5.5E1,3E0,5.4E1],"tree_param":{"num_deleted":"0","num_feature":"34","num_nodes":"15","size_leaf_vector":"1"}},{"base_weights":[3.0020985E-4,8.42409E-3,-8.083695E-3,3.9245286E-3,1.3080586E-1,-2.1556807E-3,-6.940656E-2,4.94734E-3,-8.419859E-4,3.9536517E-2,3.5761022E-3,-3.3593024E-4,1.2353166E-2,-1.6954653E-3,-1.4606602E-2],"categories":[],"categories_nodes":[],"categories_segments":[],"categories_sizes":[],"default_left":[0,0,0,0,0,0,0,0,0,0,0,0,0,0,0],"id":72,"left_children":[1,3,5,7,9,11,13,-1,-1,-1,-1,-1,-1,-1,-1],"loss_changes":[3.301964E-1,1.3506023E0,8.658694E-1,1.3451866E0,2.0462284E0,3.348479E-1,8.196312E-1,0E0,0E0,0E0,0E0,0E0,0E0,0E0,0E0],"parents":[2147483647,0,0,1,1,2,2,3,3,4,4,5,5,6,6],"right_children":[2,4,6,8,10,12,14,-1,-1,-1,-1,-1,-1,-1,-1],"split_conditions":[-3.5386446E-1,-3.616628E-1,2.3871595E-1,3.1109253E-1,6.0917664E1,2.2315991E-1,2.035E-5,4.94734E-3,-8.419859E-4,3.9536517E-2,3.5761022E-3,-3.3593024E-4,1.2353166E-2,-1.6954653E-3,-1.4606602E-2],"split_indices":[28,28,24,24,33,24,14,0,0,0,0,0,0,0,0],"split_type":[0,0,0,0,0,0,0,0,0,0,0,0,0,0,0],"sum_hessian":[4.828E3,2.452E3,2.376E3,2.375E3,7.7E1,2.176E3,2E2,5E2,1.875E3,1.2E1,6.5E1,2.165E3,1.1E1,1.26E2,7.4E1],"tree_param":{"num_deleted":"0","num_feature":"34","num_nodes":"15","size_leaf_vector":"1"}},{"base_weights":[3.589309E-4,-2.2820571E-4,1.1348575E-1,-6.6954945E-3,9.940317E-3,7.527215E-3,1.913623E-1,7.222493E-4,-3.8337198E-3,4.3981597E-3,-1.5595999E-3,5.4421504E-3,-4.114069E-3,2.0188823E-2,4.956852E-4],"categories":[],"categories_nodes":[],"categories_segments":[],"categories_sizes":[],"default_left":[0,0,0,0,0,0,0,0,0,0,0,0,0,0,0],"id":73,"left_children":[1,3,5,7,9,11,13,-1,-1,-1,-1,-1,-1,-1,-1],"loss_changes":[3.216033E-1,3.1783938E-1,1.9188792E-1,1.3036776E0,1.6402531E0,7.031657E-2,1.7461896E-2,0E0,0E0,0E0,0E0,0E0,0E0,0E0,0E0],"parents":[2147483647,0,0,1,1,2,2,3,3,4,4,5,5,6,6],"right_children":[2,4,6,8,10,12,14,-1,-1,-1,-1,-1,-1,-1,-1],"split_conditions":[1.6221248E3,2.043E-5,8.91E-6,1.5919999E-5,1.3965E-5,1.3115E-5,7.23829E-6,7.222493E-4,-3.8337198E-3,4.3981597E-3,-1.5595999E-3,5.4421504E-3,-4.114069E-3,2.0188823E-2,4.956852E-4],"split_indices":[32,14,3,14,11,11,0,0,0,0,0,0,0,0,0],"split_type":[0,0,0,0,0,0,0,0,0,0,0,0,0,0,0],"sum_hessian":[4.828E3,4.813E3,1.5E1,2.944E3,1.869E3,1.1E1,4E0,2.05E3,8.94E2,7.98E2,1.071E3,5E0,6E0,3E0,1E0],"tree_param":{"num_deleted":"0","num_feature":"34","num_nodes":"15","size_leaf_vector":"1"}},{"base_weights":[3.679816E-4,-6.8116286E-3,1.0265443E-2,-4.6643834E-3,-1.5434226E-1,5.9340514E-2,-6.5458003E-3,-7.6457084E-4,1.868785E-2,7.314985E-3,-2.077411E-2,-2.3834668E-3,1.2437152E-2,-4.841548E-3,2.8182801E-3],"categories":[],"categories_nodes":[],"categories_segments":[],"categories_sizes":[],"default_left":[0,0,0,0,0,0,0,0,0,0,0,0,0,0,0],"id":74,"left_children":[1,3,5,7,9,11,13,-1,-1,-1,-1,-1,-1,-1,-1],"loss_changes":[3.4448707E-1,8.829651E-1,1.6852608E0,1.6018116E0,6.3787484E-1,2.847715E0,2.2340178E0,0E0,0E0,0E0,0E0,0E0,0E0,0E0,0E0],"parents":[2147483647,0,0,1,1,2,2,3,3,4,4,5,5,6,6],"right_children":[2,4,6,8,10,12,14,-1,-1,-1,-1,-1,-1,-1,-1],"split_conditions":[2.8127224E-6,6.590098E-6,4.3234686E-6,6.0813527E-6,3.2568112E-6,1.199E-5,9.967443E-2,-7.6457084E-4,1.868785E-2,7.314985E-3,-2.077411E-2,-2.3834668E-3,1.2437152E-2,-4.841548E-3,2.8182801E-3],"split_indices":[13,17,17,21,9,11,27,0,0,0,0,0,0,0,0],"split_type":[0,0,0,0,0,0,0,0,0,0,0,0,0,0,0],"sum_hessian":[4.828E3,2.8E3,2.028E3,2.77E3,3E1,5.11E2,1.517E3,2.737E3,3.3E1,5E0,2.5E1,2.27E2,2.84E2,6.86E2,8.31E2],"tree_param":{"num_deleted":"0","num_feature":"34","num_nodes":"15","size_leaf_vector":"1"}},{"base_weights":[3.5701657E-4,2.876788E-3,-2.4644433E-2,-3.1338826E-5,9.211042E-2,-1.3830408E-1,7.7464106E-3,-2.5786535E-4,6.1255014E-3,2.6810313E-2,1.6769627E-3,9.487552E-3,-1.7216377E-2,9.43975E-3,-1.8031972E-3],"categories":[],"categories_nodes":[],"categories_segments":[],"categories_sizes":[],"default_left":[0,0,0,0,0,0,0,0,0,0,0,0,0,0,0],"id":75,"left_children":[1,3,5,7,9,11,13,-1,-1,-1,-1,-1,-1,-1,-1],"loss_changes":[3.05493E-1,1.1428789E0,1.6453137E0,6.689738E-1,1.798101E0,9.449848E-1,8.09994E-1,0E0,0E0,0E0,0E0,0E0,0E0,0E0,0E0],"parents":[2147483647,0,0,1,1,2,2,3,3,4,4,5,5,6,6],"right_children":[2,4,6,8,10,12,14,-1,-1,-1,-1,-1,-1,-1,-1],"split_conditions":[6.4891337E-6,6.1135383E-6,8.032916E-6,6.681144E-6,3.1635088E-6,2.3027326E-6,3.3992117E2,-2.5786535E-4,6.1255014E-3,2.6810313E-2,1.6769627E-3,9.487552E-3,-1.7216377E-2,9.43975E-3,-1.8031972E-3],"split_indices":[21,21,3,17,13,13,33,0,0,0,0,0,0,0,0],"split_type":[0,0,0,0,0,0,0,0,0,0,0,0,0,0,0],"sum_hessian":[4.828E3,4.394E3,4.34E2,4.265E3,1.29E2,8.9E1,3.45E2,4.104E3,1.61E2,3.1E1,9.8E1,9E0,8E1,7.3E1,2.72E2],"tree_param":{"num_deleted":"0","num_feature":"34","num_nodes":"15","size_leaf_vector":"1"}},{"base_weights":[3.9213407E-4,2.4482117E-3,-2.941053E-2,9.5274526E-4,2.3448424E-1,-1.0935425E-1,6.2461056E-2,-2.6370343E-4,4.9407245E-3,3.458562E-2,-4.75761E-3,2.4697257E-3,-1.431997E-2,6.00482E-4,3.7649613E-2],"categories":[],"categories_nodes":[],"categories_segments":[],"categories_sizes":[],"default_left":[0,0,0,0,0,0,0,0,0,0,0,0,0,0,0],"id":76,"left_children":[1,3,5,7,9,11,13,-1,-1,-1,-1,-1,-1,-1,-1],"loss_changes":[2.971762E-1,1.5714204E0,2.3671498E0,7.8682035E-1,1.07554E0,8.1119895E-1,2.672236E0,0E0,0E0,0E0,0E0,0E0,0E0,0E0,0E0],"parents":[2147483647,0,0,1,1,2,2,3,3,4,4,5,5,6,6],"right_children":[2,4,6,8,10,12,14,-1,-1,-1,-1,-1,-1,-1,-1],"split_conditions":[6.158754E-1,6.0531163E-1,2.071E-5,5.174657E-1,5.828409E-6,3.6283075E-6,7.804252E2,-2.6370343E-4,4.9407245E-3,3.458562E-2,-4.75761E-3,2.4697257E-3,-1.431997E-2,6.00482E-4,3.7649613E-2],"split_indices":[24,24,14,24,4,8,33,0,0,0,0,0,0,0,0],"split_type":[0,0,0,0,0,0,0,0,0,0,0,0,0,0,0],"sum_hessian":[4.828E3,4.525E3,3.03E2,4.506E3,1.9E1,1.61E2,1.42E2,4.204E3,3.02E2,1.2E1,7E0,3.3E1,1.28E2,1.29E2,1.3E1],"tree_param":{"num_deleted":"0","num_feature":"34","num_nodes":"15","size_leaf_vector":"1"}},{"base_weights":[4.7880455E-4,-2.832906E-2,2.7193478E-3,5.6447607E-2,-6.449763E-2,8.562158E-2,1.1200074E-3,-6.46219E-3,1.8473282E-2,-5.329927E-4,-1.3811034E-2,-1.1240327E-2,1.3024734E-2,2.7554514E-4,-9.536785E-3],"categories":[],"categories_nodes":[],"categories_segments":[],"categories_sizes":[],"default_left":[0,0,0,0,0,0,0,0,0,0,0,0,0,0,0],"id":77,"left_children":[1,3,5,7,9,11,13,-1,-1,-1,-1,-1,-1,-1,-1],"loss_changes":[3.1304038E-1,1.1095952E0,5.954259E-1,1.8278348E0,1.0815127E0,8.975479E-1,7.005794E-1,0E0,0E0,0E0,0E0,0E0,0E0,0E0,0E0],"parents":[2147483647,0,0,1,1,2,2,3,3,4,4,5,5,6,6],"right_children":[2,4,6,8,10,12,14,-1,-1,-1,-1,-1,-1,-1,-1],"split_conditions":[-2.0004374E-1,3.9207507E-6,-1.7897706E-1,2.6117685E-5,4.31E-6,2.99E-6,6.4897966E-1,-6.46219E-3,1.8473282E-2,-5.329927E-4,-1.3811034E-2,-1.1240327E-2,1.3024734E-2,2.7554514E-4,-9.536785E-3],"split_indices":[26,13,26,12,18,6,24,0,0,0,0,0,0,0,0],"split_type":[0,0,0,0,0,0,0,0,0,0,0,0,0,0,0],"sum_hessian":[4.828E3,3.4E2,4.488E3,1E2,2.4E2,7.5E1,4.413E3,5.4E1,4.6E1,1.39E2,1.01E2,1.1E1,6.4E1,4.349E3,6.4E1],"tree_param":{"num_deleted":"0","num_feature":"34","num_nodes":"15","size_leaf_vector":"1"}},{"base_weights":[4.1065604E-4,-2.6372855E-3,2.0662894E-2,-3.1663604E-2,3.7489114E-3,-9.997532E-4,1.7749527E-1,-1.30676655E-2,-1.8278267E-3,-2.025507E-4,7.586191E-3,1.0795667E-3,-1.6804537E-2,2.4626264E-2,-9.102929E-3],"categories":[],"categories_nodes":[],"categories_segments":[],"categories_sizes":[],"default_left":[0,0,0,0,0,0,0,0,0,0,0,0,0,0,0],"id":78,"left_children":[1,3,5,7,9,11,13,-1,-1,-1,-1,-1,-1,-1,-1],"loss_changes":[2.9918328E-1,7.823269E-1,2.1557288E0,9.846851E-1,1.4435666E0,1.1353431E0,1.6460323E0,0E0,0E0,0E0,0E0,0E0,0E0,0E0,0E0],"parents":[2147483647,0,0,1,1,2,2,3,3,4,4,5,5,6,6],"right_children":[2,4,6,8,10,12,14,-1,-1,-1,-1,-1,-1,-1,-1],"split_conditions":[5.174657E-1,-5.044253E-2,6.17E-6,7.538474E-6,7.5333305E1,6.2012527E-6,6.96E-6,-1.30676655E-2,-1.8278267E-3,-2.025507E-4,7.586191E-3,1.0795667E-3,-1.6804537E-2,2.4626264E-2,-9.102929E-3],"split_indices":[24,26,6,4,32,21,6,0,0,0,0,0,0,0,0],"split_type":[0,0,0,0,0,0,0,0,0,0,0,0,0,0,0],"sum_hessian":[4.828E3,4.204E3,6.24E2,7.51E2,3.453E3,5.57E2,6.7E1,7.9E1,6.72E2,3.206E3,2.47E2,5.29E2,2.8E1,5.4E1,1.3E1],"tree_param":{"num_deleted":"0","num_feature":"34","num_nodes":"15","size_leaf_vector":"1"}},{"base_weights":[3.5364355E-4,-6.5196753E-3,9.828859E-3,-1.2906678E-2,6.1789785E-2,3.0523263E-2,-2.3249429E-2,-7.401325E-4,-1.1045815E-2,-4.8700855E-3,1.3402225E-2,-1.8078367E-4,1.1717053E-2,4.433452E-3,-6.575682E-3],"categories":[],"categories_nodes":[],"categories_segments":[],"categories_sizes":[],"default_left":[0,0,0,0,0,0,0,0,0,0,0,0,0,0,0],"id":79,"left_children":[1,3,5,7,9,11,13,-1,-1,-1,-1,-1,-1,-1,-1],"loss_changes":[3.1572127E-1,1.2339575E0,1.4021797E0,1.376353E0,1.9966747E0,3.5262809E0,2.2986786E0,0E0,0E0,0E0,0E0,0E0,0E0,0E0,0E0],"parents":[2147483647,0,0,1,1,2,2,3,3,4,4,5,5,6,6],"right_children":[2,4,6,8,10,12,14,-1,-1,-1,-1,-1,-1,-1,-1],"split_conditions":[2.8127224E-6,9.56498E1,9.61703E0,9.776059E-1,-1.1192984E-1,1.4182233E0,1.5527359E2,-7.401325E-4,-1.1045815E-2,-4.8700855E-3,1.3402225E-2,-1.8078367E-4,1.1717053E-2,4.433452E-3,-6.575682E-3],"split_indices":[13,32,32,31,26,32,33,0,0,0,0,0,0,0,0],"split_type":[0,0,0,0,0,0,0,0,0,0,0,0,0,0,0],"sum_hessian":[4.828E3,2.8E3,2.028E3,2.568E3,2.32E2,1.248E3,7.8E2,2.441E3,1.27E2,9.3E1,1.39E2,9.16E2,3.32E2,3.01E2,4.79E2],"tree_param":{"num_deleted":"0","num_feature":"34","num_nodes":"15","size_leaf_vector":"1"}},{"base_weights":[3.3097403E-4,-2.0430658E-3,2.5682323E-2,1.6807932E-4,-8.152932E-2,-8.380231E-3,1.1111357E-1,4.670919E-4,-2.7958655E-3,-3.5317794E-3,-2.3501799E-2,1.0007254E-2,-1.8222524E-3,2.5991073E-2,6.086105E-4],"categories":[],"categories_nodes":[],"categories_segments":[],"categories_sizes":[],"default_left":[0,0,0,0,0,0,0,0,0,0,0,0,0,0,0],"id":80,"left_children":[1,3,5,7,9,11,13,-1,-1,-1,-1,-1,-1,-1,-1],"loss_changes":[2.9170027E-1,7.792618E-1,1.2169642E0,5.488146E-1,7.6815045E-1,3.448674E-1,1.8438884E0,0E0,0E0,0E0,0E0,0E0,0E0,0E0,0E0],"parents":[2147483647,0,0,1,1,2,2,3,3,4,4,5,5,6,6],"right_children":[2,4,6,8,10,12,14,-1,-1,-1,-1,-1,-1,-1,-1],"split_conditions":[3.9799997E-5,2.9377497E-5,3.384368E-1,3.5703E-6,4.911577E-1,1.0756371E-6,2.51553E2,4.670919E-4,-2.7958655E-3,-3.5317794E-3,-2.3501799E-2,1.0007254E-2,-1.8222524E-3,2.5991073E-2,6.086105E-4],"split_indices":[19,18,31,9,31,5,33,0,0,0,0,0,0,0,0],"split_type":[0,0,0,0,0,0,0,0,0,0,0,0,0,0,0],"sum_hessian":[4.828E3,4.423E3,4.05E2,4.313E3,1.1E2,2.96E2,1.09E2,3.725E3,5.88E2,9.4E1,1.6E1,1.7E1,2.79E2,3.9E1,7E1],"tree_param":{"num_deleted":"0","num_feature":"34","num_nodes":"15","size_leaf_vector":"1"}},{"base_weights":[3.0908902E-4,-6.6130245E-3,9.3353195E-3,-8.8652346E-4,-9.114315E-2,1.4257945E-1,1.1988949E-3,-6.1701157E-4,1.1086722E-2,5.836025E-4,-1.8441945E-2,-1.7328861E-3,3.251658E-2,8.963535E-3,-6.8516907E-4],"categories":[],"categories_nodes":[],"categories_segments":[],"categories_sizes":[],"default_left":[0,0,0,0,0,0,0,0,0,0,0,0,0,0,0],"id":81,"left_children":[1,3,5,7,9,11,13,-1,-1,-1,-1,-1,-1,-1,-1],"loss_changes":[3.0289844E-1,1.3274577E0,2.2793016E0,1.5302305E0,1.5847422E0,3.5891933E0,1.4250882E0,0E0,0E0,0E0,0E0,0E0,0E0,0E0,0E0],"parents":[2147483647,0,0,1,1,2,2,3,3,4,4,5,5,6,6],"right_children":[2,4,6,8,10,12,14,-1,-1,-1,-1,-1,-1,-1,-1],"split_conditions":[6.2999998E-6,1.7712939E-5,4.8837096E-6,2.4062227E-5,-5.643965E-1,5.7999996E-6,4.1533787E1,-6.1701157E-4,1.1086722E-2,5.836025E-4,-1.8441945E-2,-1.7328861E-3,3.251658E-2,8.963535E-3,-6.8516907E-4],"split_indices":[3,20,0,16,28,6,33,0,0,0,0,0,0,0,0],"split_type":[0,0,0,0,0,0,0,0,0,0,0,0,0,0,0],"sum_hessian":[4.828E3,2.734E3,2.094E3,2.57E3,1.64E2,1.11E2,1.983E3,2.463E3,1.07E2,8.5E1,7.9E1,6.4E1,4.7E1,1.57E2,1.826E3],"tree_param":{"num_deleted":"0","num_feature":"34","num_nodes":"15","size_leaf_vector":"1"}},{"base_weights":[3.4365454E-4,7.129855E-3,-8.788353E-3,2.623732E-4,9.769014E-2,-2.2807416E-2,2.9345222E-2,3.8448154E-4,-9.546248E-3,-2.2420308E-2,1.2894883E-2,-5.727251E-4,-9.773201E-3,7.02831E-3,-5.5397986E-3],"categories":[],"categories_nodes":[],"categories_segments":[],"categories_sizes":[],"default_left":[0,0,0,0,0,0,0,0,0,0,0,0,0,0,0],"id":82,"left_children":[1,3,5,7,9,11,13,-1,-1,-1,-1,-1,-1,-1,-1],"loss_changes":[3.0044535E-1,1.7293065E0,1.1117048E0,8.9357036E-1,2.2612505E0,1.9357445E0,1.9816914E0,0E0,0E0,0E0,0E0,0E0,0E0,0E0,0E0],"parents":[2147483647,0,0,1,1,2,2,3,3,4,4,5,5,6,6],"right_children":[2,4,6,8,10,12,14,-1,-1,-1,-1,-1,-1,-1,-1],"split_conditions":[3.1109253E-1,3.0086662E1,1.0452517E-1,1.1943002E1,3.0915406E-1,4.837697E2,1.5282405E-6,3.8448154E-4,-9.546248E-3,-2.2420308E-2,1.2894883E-2,-5.727251E-4,-9.773201E-3,7.02831E-3,-5.5397986E-3],"split_indices":[24,32,27,32,31,33,1,0,0,0,0,0,0,0,0],"split_type":[0,0,0,0,0,0,0,0,0,0,0,0,0,0,0],"sum_hessian":[4.828E3,2.771E3,2.057E3,2.585E3,1.86E2,1.507E3,5.5E2,2.501E3,8.4E1,1.1E1,1.75E2,1.236E3,2.71E2,3.72E2,1.78E2],"tree_param":{"num_deleted":"0","num_feature":"34","num_nodes":"15","size_leaf_vector":"1"}},{"base_weights":[2.5234907E-4,6.062926E-3,-9.746389E-3,-1.3745876E-3,7.060384E-2,-6.0115516E-2,4.565185E-3,-8.0844585E-4,3.081382E-3,1.4540054E-2,-9.050382E-5,-8.1670405E-3,2.81047E-3,1.4484989E-2,-8.312431E-4],"categories":[],"categories_nodes":[],"categories_segments":[],"categories_sizes":[],"default_left":[0,0,0,0,0,0,0,0,0,0,0,0,0,0,0],"id":83,"left_children":[1,3,5,7,9,11,13,-1,-1,-1,-1,-1,-1,-1,-1],"loss_changes":[2.8167114E-1,1.4727238E0,1.2873195E0,5.9838015E-1,1.6968312E0,7.74076E-1,2.5357664E0,0E0,0E0,0E0,0E0,0E0,0E0,0E0,0E0],"parents":[2147483647,0,0,1,1,2,2,3,3,4,4,5,5,6,6],"right_children":[2,4,6,8,10,12,14,-1,-1,-1,-1,-1,-1,-1,-1],"split_conditions":[1.7049999E-5,1.008E-5,2.436933E-5,2.088E-5,8.609647E-6,1.3742603E0,1.7755687E-5,-8.0844585E-4,3.081382E-3,1.4540054E-2,-9.050382E-5,-8.1670405E-3,2.81047E-3,1.4484989E-2,-8.312431E-4],"split_indices":[18,22,16,14,4,31,20,0,0,0,0,0,0,0,0],"split_type":[0,0,0,0,0,0,0,0,0,0,0,0,0,0,0],"sum_hessian":[4.828E3,3.056E3,1.772E3,2.749E3,3.07E2,3.85E2,1.387E3,2.281E3,4.68E2,1.45E2,1.62E2,3.1E2,7.5E1,1.08E2,1.279E3],"tree_param":{"num_deleted":"0","num_feature":"34","num_nodes":"15","size_leaf_vector":"1"}},{"base_weights":[2.7882628E-4,6.8956576E-3,-8.624994E-3,2.4581337E-4,7.0821226E-2,-1.0643444E-1,-3.5819758E-3,2.7005802E-4,-2.3711141E-2,2.9799595E-2,3.758038E-3,-1.3735904E-2,8.748974E-3,1.0585279E-3,-4.39785E-3],"categories":[],"categories_nodes":[],"categories_segments":[],"categories_sizes":[],"default_left":[0,0,0,0,0,0,0,0,0,0,0,0,0,0,0],"id":84,"left_children":[1,3,5,7,9,11,13,-1,-1,-1,-1,-1,-1,-1,-1],"loss_changes":[2.8562587E-1,1.1820154E0,1.0157453E0,1.479942E0,1.8665003E0,7.258749E-1,1.1355355E0,0E0,0E0,0E0,0E0,0E0,0E0,0E0,0E0],"parents":[2147483647,0,0,1,1,2,2,3,3,4,4,5,5,6,6],"right_children":[2,4,6,8,10,12,14,-1,-1,-1,-1,-1,-1,-1,-1],"split_conditions":[3.1109253E-1,4.4110975E-1,2.31E-5,4.2688E-1,4.4971166E-6,3.615013E-6,1.1E-5,2.7005802E-4,-2.3711141E-2,2.9799595E-2,3.758038E-3,-1.3735904E-2,8.748974E-3,1.0585279E-3,-4.39785E-3],"split_indices":[24,31,15,31,0,13,7,0,0,0,0,0,0,0,0],"split_type":[0,0,0,0,0,0,0,0,0,0,0,0,0,0,0],"sum_hessian":[4.828E3,2.771E3,2.057E3,2.519E3,2.52E2,9.1E1,1.966E3,2.503E3,1.6E1,2.2E1,2.3E2,8.1E1,