{"learner":{"attributes":{"best_iteration":"100","best_score":"0.7026038709976635","scikit_learn":"{\"_estimator_type\": \"regressor\"}"},"feature_names":[],"feature_types":[],"gradient_booster":{"model":{"cats":{"enc":[],"feature_segments":[],"sorted_idx":[]},"gbtree_model_param":{"num_parallel_tree":"1","num_trees":"151"},"iteration_indptr":[0,1,2,3,4,5,6,7,8,9,10,11,12,13,14,15,16,17,18,19,20,21,22,23,24,25,26,27,28,29,30,31,32,33,34,35,36,37,38,39,40,41,42,43,44,45,46,47,48,49,50,51,52,53,54,55,56,57,58,59,60,61,62,63,64,65,66,67,68,69,70,71,72,73,74,75,76,77,78,79,80,81,82,83,84,85,86,87,88,89,90,91,92,93,94,95,96,97,98,99,100,101,102,103,104,105,106,107,108,109,110,111,112,113,114,115,116,117,118,119,120,121,122,123,124,125,126,127,128,129,130,131,132,133,134,135,136,137,138,139,140,141,142,143,144,145,146,147,148,149,150,151],"tree_info":[0,0,0,0,0,0,0,0,0,0,0,0,0,0,0,0,0,0,0,0,0,0,0,0,0,0,0,0,0,0,0,0,0,0,0,0,0,0,0,0,0,0,0,0,0,0,0,0,0,0,0,0,0,0,0,0,0,0,0,0,0,0,0,0,0,0,0,0,0,0,0,0,0,0,0,0,0,0,0,0,0,0,0,0,0,0,0,0,0,0,0,0,0,0,0,0,0,0,0,0,0,0,0,0,0,0,0,0,0,0,0,0,0,0,0,0,0,0,0,0,0,0,0,0,0,0,0,0,0,0,0,0,0,0,0,0,0,0,0,0,0,0,0,0,0,0,0,0,0,0,0],"trees":[{"base_weights":[5.1648617E-3,-3.736665E-1,4.426388E-1,-5.169541E-1,-1.1668281E-1,4.791013E-1,-8.7359965E-2,2.9355603E-1,-5.2285326E-1,1.02434136E-1,-2.9201525E-1,5.80204E-1,3.3541888E-1,2.3200664E-1,-2.7307197E-1,-2.6689311E-3,1.2352434E-2,1.9608454E-3,-1.57138E-2,-1.0664369E-2,5.505327E-3,2.6751354E-3,-9.641035E-3,2.8660381E-3,1.8676609E-2,1.3602348E-2,4.4949115E-3,1.5526337E-2,-2.4171907E-3,-1.0933356E-2,5.1072575E-3],"categories":[],"categories_nodes":[],"categories_segments":[],"categories_sizes":[],"default_left":[0,0,0,0,0,0,0,0,0,0,0,0,0,0,0,0,0,0,0,0,0,0,0,0,0,0,0,0,0,0,0],"id":0,"left_children":[1,3,5,7,9,11,13,15,17,19,21,23,25,27,29,-1,-1,-1,-1,-1,-1,-1,-1,-1,-1,-1,-1,-1,-1,-1,-1],"loss_changes":[6.410359E2,7.573001E1,3.5107086E1,7.88443E0,2.9304945E1,2.2473236E1,7.9880123E0,1.0896813E0,1.0733948E0,1.33866005E1,5.008251E0,1.9376617E1,1.5043472E1,4.9689226E0,3.9825206E0,0E0,0E0,0E0,0E0,0E0,0E0,0E0,0E0,0E0,0E0,0E0,0E0,0E0,0E0,0E0,0E0],"parents":[2147483647,0,0,1,1,2,2,3,3,4,4,5,5,6,6,7,7,8,8,9,9,10,10,11,11,12,12,13,13,14,14],"right_children":[2,4,6,8,10,12,14,16,18,20,22,24,26,28,30,-1,-1,-1,-1,-1,-1,-1,-1,-1,-1,-1,-1,-1,-1,-1,-1],"split_conditions":[-3.6798543E-1,-3.6231535E-3,-6.866517E-1,3.612818E-1,3.5767785E-1,-9.371079E0,1.808821E-1,1.861565E-2,6.4872E-1,2.0693107E-1,-1.1769978E0,-1.2872624E-3,-5.7195914E-1,4.5565307E-1,-6.342711E-1,-2.6689311E-3,1.2352434E-2,1.9608454E-3,-1.57138E-2,-1.0664369E-2,5.505327E-3,2.6751354E-3,-9.641035E-3,2.8660381E-3,1.8676609E-2,1.3602348E-2,4.4949115E-3,1.5526337E-2,-2.4171907E-3,-1.0933356E-2,5.1072575E-3],"split_indices":[147,174,176,909,846,963,291,477,54,902,790,217,539,105,759,0,0,0,0,0,0,0,0,0,0,0,0,0,0,0,0],"split_type":[0,0,0,0,0,0,0,0,0,0,0,0,0,0,0,0,0,0,0,0,0,0,0,0,0,0,0,0,0,0,0],"sum_hessian":[3.848E3,2.063E3,1.785E3,1.318E3,7.45E2,1.671E3,1.14E2,6E0,1.312E3,3.33E2,4.12E2,9.63E2,7.08E2,4.1E1,7.3E1,2E0,4E0,1E0,1.311E3,4.5E1,2.88E2,2.8E1,3.84E2,8E1,8.83E2,4.24E2,2.84E2,1.8E1,2.3E1,6.2E1,1.1E1],"tree_param":{"num_deleted":"0","num_feature":"1024","num_nodes":"31","size_leaf_vector":"1"}},{"base_weights":[-2.799188E-4,4.0555805E-1,-3.909104E-1,4.6464112E-1,1.502235E-1,-4.8599985E-1,-1.350678E-1,8.8255815E-2,4.9527514E-1,2.5953698E-1,-1.958313E-1,2.0301183E-1,-4.9421102E-1,1.4226969E-1,-2.9807696E-1,-1.8303526E-3,1.0754562E-2,7.023978E-3,1.615126E-2,1.0401925E-2,-8.592711E-3,2.6779417E-3,-1.2046674E-2,1.3897247E-2,-5.2990993E-3,-1.5033113E-2,4.2875805E-3,-1.07726725E-2,8.6695105E-3,6.7881336E-3,-9.752955E-3],"categories":[],"categories_nodes":[],"categories_segments":[],"categories_sizes":[],"default_left":[0,0,0,0,0,0,0,0,0,0,0,0,0,0,0,0,0,0,0,0,0,0,0,0,0,0,0,0,0,0,0],"id":1,"left_children":[1,3,5,7,9,11,13,15,17,19,21,23,25,27,29,-1,-1,-1,-1,-1,-1,-1,-1,-1,-1,-1,-1,-1,-1,-1,-1],"loss_changes":[6.144727E2,2.7980377E1,4.7391235E1,1.7307861E1,1.45804405E1,9.1276245E0,2.5243568E1,5.381791E0,1.4733276E1,1.4655594E1,5.930315E0,3.1893542E0,6.9609985E0,1.6484547E1,5.680475E0,0E0,0E0,0E0,0E0,0E0,0E0,0E0,0E0,0E0,0E0,0E0,0E0,0E0,0E0,0E0,0E0],"parents":[2147483647,0,0,1,1,2,2,3,3,4,4,5,5,6,6,7,7,8,8,9,9,10,10,11,11,12,12,13,13,14,14],"right_children":[2,4,6,8,10,12,14,16,18,20,22,24,26,28,30,-1,-1,-1,-1,-1,-1,-1,-1,-1,-1,-1,-1,-1,-1,-1,-1],"split_conditions":[8.545247E0,-2.3782413E-2,3.322647E-1,5.875936E-1,-7.4557967E0,4.1670954E-1,8.546416E0,1.2717143E-1,-2.2278804E-1,-3.2606113E0,6.3525474E-1,-2.4422862E-1,1.6977261E-1,-4.8304373E-1,-3.5349655E-1,-1.8303526E-3,1.0754562E-2,7.023978E-3,1.615126E-2,1.0401925E-2,-8.592711E-3,2.6779417E-3,-1.2046674E-2,1.3897247E-2,-5.2990993E-3,-1.5033113E-2,4.2875805E-3,-1.07726725E-2,8.6695105E-3,6.7881336E-3,-9.752955E-3],"split_indices":[342,185,474,900,948,208,342,623,131,775,744,905,799,739,580,0,0,0,0,0,0,0,0,0,0,0,0,0,0,0,0],"split_type":[0,0,0,0,0,0,0,0,0,0,0,0,0,0,0,0,0,0,0,0,0,0,0,0,0,0,0,0,0,0,0],"sum_hessian":[3.856E3,1.891E3,1.965E3,1.529E3,3.62E2,1.426E3,5.39E2,1.18E2,1.411E3,2.77E2,8.5E1,1.4E1,1.412E3,2E2,3.39E2,8.1E1,3.7E1,2.09E2,1.202E3,2.42E2,3.5E1,3.8E1,4.7E1,7E0,7E0,1.399E3,1.3E1,4.2E1,1.58E2,1.3E1,3.26E2],"tree_param":{"num_deleted":"0","num_feature":"1024","num_nodes":"31","size_leaf_vector":"1"}},{"base_weights":[-1.3875098E-3,-3.904757E-1,3.6956474E-1,-4.731904E-1,-1.3063006E-1,2.7581738E-2,4.4085172E-1,1.6385746E-1,-4.8068312E-1,-3.0913165E-1,4.446044E-2,2.053907E-1,-1.5076873E-1,5.2144283E-1,1.8129581E-1,-6.44827E-3,1.3388116E-2,1.6630011E-3,-1.455894E-2,3.5475842E-3,-1.03827985E-2,-3.0407738E-3,9.775291E-3,6.1967626E-4,1.28588285E-2,9.005809E-5,-1.0103542E-2,-6.9962777E-3,1.605288E-2,-8.190566E-3,6.638609E-3],"categories":[],"categories_nodes":[],"categories_segments":[],"categories_sizes":[],"default_left":[0,0,0,0,0,0,0,0,0,0,0,0,0,0,0,0,0,0,0,0,0,0,0,0,0,0,0,0,0,0,0],"id":2,"left_children":[1,3,5,7,9,11,13,15,17,19,21,23,25,27,29,-1,-1,-1,-1,-1,-1,-1,-1,-1,-1,-1,-1,-1,-1,-1,-1],"loss_changes":[5.562597E2,3.9810272E1,4.7978058E1,7.5799255E0,1.476428E1,1.1440686E1,3.3192657E1,3.5266967E0,3.755066E0,4.0899277E0,1.0382888E1,7.3345985E0,5.1874E0,1.4024078E1,7.907921E0,0E0,0E0,0E0,0E0,0E0,0E0,0E0,0E0,0E0,0E0,0E0,0E0,0E0,0E0,0E0,0E0],"parents":[2147483647,0,0,1,1,2,2,3,3,4,4,5,5,6,6,7,7,8,8,9,9,10,10,11,11,12,12,13,13,14,14],"right_children":[2,4,6,8,10,12,14,16,18,20,22,24,26,28,30,-1,-1,-1,-1,-1,-1,-1,-1,-1,-1,-1,-1,-1,-1,-1,-1],"split_conditions":[5.925213E-2,-4.2900842E-1,-1.1469121E0,2.5882527E-1,-3.6869502E0,9.524966E-2,7.4797314E-1,2.7310732E-1,6.594604E-1,1.9389614E-1,2.673012E-1,-1.4464596E-1,-1.3688506E-1,3.3210343E-1,-1.947175E-1,-6.44827E-3,1.3388116E-2,1.6630011E-3,-1.455894E-2,3.5475842E-3,-1.03827985E-2,-3.0407738E-3,9.775291E-3,6.1967626E-4,1.28588285E-2,9.005809E-5,-1.0103542E-2,-6.9962777E-3,1.605288E-2,-8.190566E-3,6.638609E-3],"split_indices":[733,12,5,660,986,556,304,881,282,305,851,440,521,474,530,0,0,0,0,0,0,0,0,0,0,0,0,0,0,0,0],"split_type":[0,0,0,0,0,0,0,0,0,0,0,0,0,0,0,0,0,0,0,0,0,0,0,0,0,0,0,0,0,0,0],"sum_hessian":[3.834E3,1.871E3,1.963E3,1.413E3,4.58E2,3.41E2,1.622E3,1.4E1,1.399E3,2.23E2,2.35E2,1.7E2,1.71E2,1.23E3,3.92E2,7E0,7E0,1.1E1,1.388E3,1.6E1,2.07E2,1.59E2,7.6E1,9.9E1,7.1E1,9.9E1,7.2E1,1.9E1,1.211E3,2.7E1,3.65E2],"tree_param":{"num_deleted":"0","num_feature":"1024","num_nodes":"31","size_leaf_vector":"1"}},{"base_weights":[-6.338347E-4,3.8405704E-1,-3.575683E-1,-2.658507E-1,4.0505457E-1,-4.613331E-1,-7.707194E-2,-3.8947025E-1,2.3191679E-1,8.502782E-2,4.5715073E-1,1.053786E-1,-4.6757028E-1,1.3255307E-1,-3.0175516E-1,-1.2448648E-2,1.4293685E-3,-2.5226178E-3,9.556704E-3,-2.5184348E-3,1.111628E-2,1.5194458E-2,8.443862E-3,-6.9498485E-3,1.2560616E-2,4.056634E-3,-1.4105675E-2,-4.396677E-3,7.0731905E-3,-1.0273044E-2,2.3952131E-4],"categories":[],"categories_nodes":[],"categories_segments":[],"categories_sizes":[],"default_left":[0,0,0,0,0,0,0,0,0,0,0,0,0,0,0,0,0,0,0,0,0,0,0,0,0,0,0,0,0,0,0],"id":3,"left_children":[1,3,5,7,9,11,13,15,17,19,21,23,25,27,29,-1,-1,-1,-1,-1,-1,-1,-1,-1,-1,-1,-1,-1,-1,-1,-1],"loss_changes":[5.283669E2,2.6350098E1,5.7739304E1,4.841409E0,2.958786E1,5.6356506E0,2.6351658E1,8.1039524E-1,7.8805923E-1,1.3047757E1,1.1956177E1,3.50428E0,2.910675E0,8.757947E0,3.4167614E0,0E0,0E0,0E0,0E0,0E0,0E0,0E0,0E0,0E0,0E0,0E0,0E0,0E0,0E0,0E0,0E0],"parents":[2147483647,0,0,1,1,2,2,3,3,4,4,5,5,6,6,7,7,8,8,9,9,10,10,11,11,12,12,13,13,14,14],"right_children":[2,4,6,8,10,12,14,16,18,20,22,24,26,28,30,-1,-1,-1,-1,-1,-1,-1,-1,-1,-1,-1,-1,-1,-1,-1,-1],"split_conditions":[8.545247E0,-3.637196E0,4.6484582E-2,1.4566469E-1,-5.574731E-1,6.8526934E-3,8.54687E0,1.0844545E-1,2.3858897E-1,1.6626607E-1,-9.94119E-3,-6.290878E-2,-1.7428143E-2,-2.071781E-1,7.852998E-1,-1.2448648E-2,1.4293685E-3,-2.5226178E-3,9.556704E-3,-2.5184348E-3,1.111628E-2,1.5194458E-2,8.443862E-3,-6.9498485E-3,1.2560616E-2,4.056634E-3,-1.4105675E-2,-4.396677E-3,7.0731905E-3,-1.0273044E-2,2.3952131E-4],"split_indices":[342,460,883,1008,127,32,342,461,23,76,265,236,613,938,41,0,0,0,0,0,0,0,0,0,0,0,0,0,0,0,0],"split_type":[0,0,0,0,0,0,0,0,0,0,0,0,0,0,0,0,0,0,0,0,0,0,0,0,0,0,0,0,0,0,0],"sum_hessian":[3.828E3,1.842E3,1.986E3,5.4E1,1.788E3,1.445E3,5.41E2,4.5E1,9E0,2.54E2,1.534E3,1.4E1,1.431E3,2.82E2,2.59E2,4.3E1,2E0,2E0,7E0,1.64E2,9E1,1.183E3,3.51E2,8E0,6E0,4E0,1.427E3,7.5E1,2.07E2,2.28E2,3.1E1],"tree_param":{"num_deleted":"0","num_feature":"1024","num_nodes":"31","size_leaf_vector":"1"}},{"base_weights":[-3.8030301E-3,-3.9094234E-1,3.2111582E-1,2.0260863E-2,-4.248058E-1,-1.68828E-1,3.8320154E-1,-2.513438E-1,3.7521532E-1,-4.6353707E-1,-2.0522758E-1,-3.4814295E-1,-8.464336E-3,4.1460264E-1,2.1588389E-2,-1.0462494E-2,5.8490816E-3,1.8021492E-2,-4.360902E-3,1.9657004E-3,-1.3943685E-2,-7.584673E-3,6.0066725E-3,8.513168E-3,-1.2094921E-2,-6.7806416E-3,1.0513869E-2,-5.7962993E-3,1.2999916E-2,6.3570826E-3,-7.927774E-3],"categories":[],"categories_nodes":[],"categories_segments":[],"categories_sizes":[],"default_left":[0,0,0,0,0,0,0,0,0,0,0,0,0,0,0,0,0,0,0,0,0,0,0,0,0,0,0,0,0,0,0],"id":4,"left_children":[1,3,5,7,9,11,13,15,17,19,21,23,25,27,29,-1,-1,-1,-1,-1,-1,-1,-1,-1,-1,-1,-1,-1,-1,-1,-1],"loss_changes":[4.8352988E2,2.4510101E1,6.4221634E1,1.47293215E1,1.2834564E1,6.9293885E0,2.1008179E1,4.4621577E0,8.621031E0,1.2123108E0,5.5428114E0,5.1076965E0,1.156813E1,2.0290894E1,9.209715E0,0E0,0E0,0E0,0E0,0E0,0E0,0E0,0E0,0E0,0E0,0E0,0E0,0E0,0E0,0E0,0E0],"parents":[2147483647,0,0,1,1,2,2,3,3,4,4,5,5,6,6,7,7,8,8,9,9,10,10,11,11,12,12,13,13,14,14],"right_children":[2,4,6,8,10,12,14,16,18,20,22,24,26,28,30,-1,-1,-1,-1,-1,-1,-1,-1,-1,-1,-1,-1,-1,-1,-1,-1],"split_conditions":[4.210707E-1,-6.2225217E-1,1.0330215E0,1.6739101E0,5.919283E-1,5.9238095E0,5.928199E0,1.4202341E-1,5.248266E-1,5.035788E-1,1.033108E0,1.8550259E-1,-3.0730626E-1,2.6507768E-1,-3.3572704E-1,-1.0462494E-2,5.8490816E-3,1.8021492E-2,-4.360902E-3,1.9657004E-3,-1.3943685E-2,-7.584673E-3,6.0066725E-3,8.513168E-3,-1.2094921E-2,-6.7806416E-3,1.0513869E-2,-5.7962993E-3,1.2999916E-2,6.3570826E-3,-7.927774E-3],"split_indices":[352,952,295,897,223,684,684,783,724,372,295,736,896,211,598,0,0,0,0,0,0,0,0,0,0,0,0,0,0,0,0],"split_type":[0,0,0,0,0,0,0,0,0,0,0,0,0,0,0,0,0,0,0,0,0,0,0,0,0,0,0,0,0,0,0],"sum_hessian":[3.824E3,1.744E3,2.08E3,1.33E2,1.611E3,2.32E2,1.848E3,7.7E1,5.6E1,1.36E3,2.51E2,1.04E2,1.28E2,1.699E3,1.49E2,6.5E1,1.2E1,3.8E1,1.8E1,2E0,1.358E3,2.28E2,2.3E1,5E0,9.9E1,8.2E1,4.6E1,4.8E1,1.651E3,9.1E1,5.8E1],"tree_param":{"num_deleted":"0","num_feature":"1024","num_nodes":"31","size_leaf_vector":"1"}},{"base_weights":[-4.516683E-3,-3.485979E-1,3.6133346E-1,-1.4585105E-1,-4.4301546E-1,-5.763797E-2,4.0378785E-1,2.446306E-1,-1.940871E-1,8.880155E-3,-4.4737518E-1,-2.0315567E-1,3.4522465E-1,1.4888605E-1,4.6135774E-1,-5.4013246E-4,1.38457995E-2,-1.1182395E-2,-3.9014611E-3,-1.3533862E-2,2.474288E-3,-7.6103485E-3,9.348386E-3,-5.583227E-3,1.599508E-2,1.0954112E-2,1.126924E-3,-3.6496674E-3,1.4520088E-2],"categories":[],"categories_nodes":[],"categories_segments":[],"categories_sizes":[],"default_left":[0,0,0,0,0,0,0,0,0,0,0,0,0,0,0,0,0,0,0,0,0,0,0,0,0,0,0,0,0],"id":5,"left_children":[1,3,5,7,9,11,13,15,17,-1,19,21,23,25,27,-1,-1,-1,-1,-1,-1,-1,-1,-1,-1,-1,-1,-1,-1],"loss_changes":[4.8905304E2,3.767787E1,3.3725983E1,1.2736574E1,5.709259E0,1.1370847E1,2.4421448E1,4.4123974E0,6.208267E0,0E0,3.0709229E0,4.4315376E0,6.1850424E0,7.807088E0,1.895343E1,0E0,0E0,0E0,0E0,0E0,0E0,0E0,0E0,0E0,0E0,0E0,0E0,0E0,0E0],"parents":[2147483647,0,0,1,1,2,2,3,3,4,4,5,5,6,6,7,7,8,8,10,10,11,11,12,12,13,13,14,14],"right_children":[2,4,6,8,10,12,14,16,18,-1,20,22,24,26,28,-1,-1,-1,-1,-1,-1,-1,-1,-1,-1,-1,-1,-1,-1],"split_conditions":[5.9259918E-2,-5.589008E-1,-3.6370664E0,-1.4468E-1,-6.2232924E-1,-4.828119E-1,-4.8378882E-1,2.5528175E-1,-4.8300883E-1,8.880155E-3,6.000726E-1,9.8455334E-1,-2.1813738E-3,2.0278913E-3,2.5872257E-1,-5.4013246E-4,1.38457995E-2,-1.1182395E-2,-3.9014611E-3,-1.3533862E-2,2.474288E-3,-7.6103485E-3,9.348386E-3,-5.583227E-3,1.599508E-2,1.0954112E-2,1.126924E-3,-3.6496674E-3,1.4520088E-2],"split_indices":[733,35,460,440,952,739,739,354,739,0,469,48,294,220,660,0,0,0,0,0,0,0,0,0,0,0,0,0,0],"split_type":[0,0,0,0,0,0,0,0,0,0,0,0,0,0,0,0,0,0,0,0,0,0,0,0,0,0,0,0,0],"sum_hessian":[3.865E3,1.992E3,1.873E3,6.41E2,1.351E3,1.72E2,1.701E3,6.6E1,5.75E2,4E0,1.347E3,1.3E2,4.2E1,3.2E2,1.381E3,3.4E1,3.2E1,1.39E2,4.36E2,1.339E3,8E0,1.23E2,7E0,1.1E1,3.1E1,1.01E2,2.19E2,5E1,1.331E3],"tree_param":{"num_deleted":"0","num_feature":"1024","num_nodes":"29","size_leaf_vector":"1"}},{"base_weights":[6.039652E-3,-3.6254284E-1,3.0411395E-1,-1.7711648E-1,-4.4011745E-1,-1.5025339E-2,4.0128458E-1,-2.3395236E-1,2.1686241E-1,-4.4142252E-1,1.7113364E-3,-2.6702493E-1,1.0885346E-1,4.7233233E-1,1.705613E-1,-8.316246E-3,2.0078577E-3,-7.518195E-3,9.754237E-3,-1.3258548E-2,5.2487757E-4,7.906231E-3,-9.081694E-3,-7.203022E-3,5.8597657E-3,9.822929E-4,1.48936035E-2,-4.4955174E-3,8.071602E-3],"categories":[],"categories_nodes":[],"categories_segments":[],"categories_sizes":[],"default_left":[0,0,0,0,0,0,0,0,0,0,0,0,0,0,0,0,0,0,0,0,0,0,0,0,0,0,0,0,0],"id":6,"left_children":[1,3,5,7,9,11,13,15,17,19,-1,21,23,25,27,-1,-1,-1,-1,-1,-1,-1,-1,-1,-1,-1,-1,-1,-1],"loss_changes":[4.2089658E2,2.3860947E1,6.57415E1,1.2196049E1,1.0310364E0,1.602424E1,2.5815582E1,6.185383E0,4.40863E0,3.6846924E-1,0E0,3.998702E0,1.087928E1,1.2943237E1,1.2963281E1,0E0,0E0,0E0,0E0,0E0,0E0,0E0,0E0,0E0,0E0,0E0,0E0,0E0,0E0],"parents":[2147483647,0,0,1,1,2,2,3,3,4,4,5,5,6,6,7,7,8,8,9,9,11,11,12,12,13,13,14,14],"right_children":[2,4,6,8,10,12,14,16,18,20,-1,22,24,26,28,-1,-1,-1,-1,-1,-1,-1,-1,-1,-1,-1,-1,-1,-1],"split_conditions":[4.210707E-1,-3.213332E-2,3.318464E-1,-6.5509313E-1,7.2557354E-1,7.46631E-1,7.4797314E-1,3.2956746E-1,-3.6976202E-3,1.3767372E-2,1.7113364E-3,-1.9750741E-1,-2.6628408E-1,-1.6052775E-1,3.8269624E-1,-8.316246E-3,2.0078577E-3,-7.518195E-3,9.754237E-3,-1.3258548E-2,5.2487757E-4,7.906231E-3,-9.081694E-3,-7.203022E-3,5.8597657E-3,9.822929E-4,1.48936035E-2,-4.4955174E-3,8.071602E-3],"split_indices":[352,808,199,694,193,304,304,94,174,316,0,781,244,960,890,0,0,0,0,0,0,0,0,0,0,0,0,0,0],"split_type":[0,0,0,0,0,0,0,0,0,0,0,0,0,0,0,0,0,0,0,0,0,0,0,0,0,0,0,0,0],"sum_hessian":[3.811E3,1.703E3,2.108E3,5.12E2,1.191E3,4.94E2,1.614E3,4.51E2,6.1E1,1.189E3,2E0,1.59E2,3.35E2,1.226E3,3.88E2,3.95E2,5.6E1,9E0,5.2E1,1.188E3,1E0,6E0,1.53E2,6.3E1,2.72E2,6.5E1,1.161E3,9E1,2.98E2],"tree_param":{"num_deleted":"0","num_feature":"1024","num_nodes":"29","size_leaf_vector":"1"}},{"base_weights":[3.8507115E-3,3.7925678E-1,-2.898955E-1,4.3888047E-1,1.0083354E-1,-4.228332E-2,-4.0571985E-1,4.716105E-1,4.022025E-2,1.7949495E-1,-2.2074702E-1,1.6024852E-1,-2.3155828E-1,-4.2328924E-1,-1.0163357E-1,6.497532E-3,1.5097167E-2,5.5859494E-3,-8.620113E-3,1.4053895E-3,1.1294282E-2,-1.1901195E-2,3.1766028E-3,1.2320958E-2,1.7260883E-3,-7.7290633E-3,7.486883E-3,2.6635053E-3,-1.2761955E-2,7.968157E-3,-6.902443E-3],"categories":[],"categories_nodes":[],"categories_segments":[],"categories_sizes":[],"default_left":[0,0,0,0,0,0,0,0,0,0,0,0,0,0,0,0,0,0,0,0,0,0,0,0,0,0,0,0,0,0,0],"id":7,"left_children":[1,3,5,7,9,11,13,15,17,19,21,23,25,27,29,-1,-1,-1,-1,-1,-1,-1,-1,-1,-1,-1,-1,-1,-1,-1,-1],"loss_changes":[4.273089E2,2.7795135E1,6.2177704E1,1.8051636E1,8.313872E0,2.7358349E1,7.476883E0,9.323364E0,6.129512E0,6.5388575E0,4.2133646E0,8.664305E0,5.2599945E0,1.8855133E0,5.0451846E0,0E0,0E0,0E0,0E0,0E0,0E0,0E0,0E0,0E0,0E0,0E0,0E0,0E0,0E0,0E0,0E0],"parents":[2147483647,0,0,1,1,2,2,3,3,4,4,5,5,6,6,7,7,8,8,9,9,10,10,11,11,12,12,13,13,14,14],"right_children":[2,4,6,8,10,12,14,16,18,20,22,24,26,28,30,-1,-1,-1,-1,-1,-1,-1,-1,-1,-1,-1,-1,-1,-1,-1,-1],"split_conditions":[2.8538936E-1,-7.4557867E0,-5.689627E-1,-3.8755542E-1,1.8844941E-1,7.104955E-2,4.6484582E-2,3.6331323E-1,-5.689744E-1,5.9058003E-2,4.1107735E-1,2.934461E-1,-1.1968589E-1,5.3420794E-1,-1.9776629E-1,6.497532E-3,1.5097167E-2,5.5859494E-3,-8.620113E-3,1.4053895E-3,1.1294282E-2,-1.1901195E-2,3.1766028E-3,1.2320958E-2,1.7260883E-3,-7.7290633E-3,7.486883E-3,2.6635053E-3,-1.2761955E-2,7.968157E-3,-6.902443E-3],"split_indices":[196,948,755,484,101,60,883,782,755,120,392,722,941,894,858,0,0,0,0,0,0,0,0,0,0,0,0,0,0,0,0],"split_type":[0,0,0,0,0,0,0,0,0,0,0,0,0,0,0,0,0,0,0,0,0,0,0,0,0,0,0,0,0,0,0],"sum_hessian":[3.855E3,1.691E3,2.164E3,1.388E3,3.03E2,6.94E2,1.47E3,1.281E3,1.07E2,2.47E2,5.6E1,3.36E2,3.58E2,1.386E3,8.4E1,1.5E2,1.131E3,7.7E1,3E1,1.55E2,9.2E1,3.5E1,2.1E1,8.9E1,2.47E2,3.44E2,1.4E1,4E0,1.382E3,1.9E1,6.5E1],"tree_param":{"num_deleted":"0","num_feature":"1024","num_nodes":"31","size_leaf_vector":"1"}},{"base_weights":[-6.47688E-3,-3.1546408E-1,3.3441168E-1,-3.8646942E-1,-7.1609676E-2,8.091447E-2,3.7438202E-1,-3.9661083E-1,2.8698286E-2,5.2937254E-2,-2.3283233E-1,4.8037896E-1,-1.3647294E-2,5.9766956E-3,4.145069E-1,-3.5253705E-3,-1.2207456E-2,9.122863E-3,-5.40861E-3,6.1927303E-3,-2.904501E-3,-9.829264E-3,2.065666E-3,-2.4046529E-4,2.3186041E-2,3.6624428E-3,-8.050167E-3,-3.6564625E-3,9.365406E-3,1.2883288E-2,-4.7091856E-3],"categories":[],"categories_nodes":[],"categories_segments":[],"categories_sizes":[],"default_left":[0,0,0,0,0,0,0,0,0,0,0,0,0,0,0,0,0,0,0,0,0,0,0,0,0,0,0,0,0,0,0],"id":8,"left_children":[1,3,5,7,9,11,13,15,17,19,21,23,25,27,29,-1,-1,-1,-1,-1,-1,-1,-1,-1,-1,-1,-1,-1,-1,-1,-1],"loss_changes":[4.1026276E2,3.5097748E1,1.8462234E1,6.7662354E0,9.620993E0,1.0075686E1,2.3582443E1,3.959381E0,3.2532802E0,6.5208106E0,6.1750174E0,7.3473024E0,8.071041E0,6.9186764E0,1.2965408E1,0E0,0E0,0E0,0E0,0E0,0E0,0E0,0E0,0E0,0E0,0E0,0E0,0E0,0E0,0E0,0E0],"parents":[2147483647,0,0,1,1,2,2,3,3,4,4,5,5,6,6,7,7,8,8,9,9,10,10,11,11,12,12,13,13,14,14],"right_children":[2,4,6,8,10,12,14,16,18,20,22,24,26,28,30,-1,-1,-1,-1,-1,-1,-1,-1,-1,-1,-1,-1,-1,-1,-1,-1],"split_conditions":[5.9269715E-2,-9.9532075E-2,-5.0755378E-2,2.914842E-2,6.3404506E-1,1.6974342E-1,1.4040838E-1,-2.686223E-2,5.9209E-2,2.695337E-1,5.922263E-2,-4.819788E-1,6.2743515E-2,-1.4135592E-1,-7.498204E-2,-3.5253705E-3,-1.2207456E-2,9.122863E-3,-5.40861E-3,6.1927303E-3,-2.904501E-3,-9.829264E-3,2.065666E-3,-2.4046529E-4,2.3186041E-2,3.6624428E-3,-8.050167E-3,-3.6564625E-3,9.365406E-3,1.2883288E-2,-4.7091856E-3],"split_indices":[733,280,108,732,644,709,514,248,733,463,733,551,636,28,651,0,0,0,0,0,0,0,0,0,0,0,0,0,0,0,0],"split_type":[0,0,0,0,0,0,0,0,0,0,0,0,0,0,0,0,0,0,0,0,0,0,0,0,0,0,0,0,0,0,0],"sum_hessian":[3.875E3,2.033E3,1.842E3,1.57E3,4.63E2,2.55E2,1.587E3,1.533E3,3.7E1,2.65E2,1.98E2,4.1E1,2.14E2,1.57E2,1.43E3,5.9E1,1.474E3,1.4E1,2.3E1,1.29E2,1.36E2,1.5E2,4.8E1,1.9E1,2.2E1,1.43E2,7.1E1,1.15E2,4.2E1,1.396E3,3.4E1],"tree_param":{"num_deleted":"0","num_feature":"1024","num_nodes":"31","size_leaf_vector":"1"}},{"base_weights":[-2.5406068E-3,-3.1070223E-1,3.12525E-1,-3.8049608E-1,-1.01801045E-1,5.5513147E-2,3.585694E-1,-3.9125088E-1,4.701709E-2,-2.78175E-1,2.3552777E-2,3.4566778E-1,-5.9923753E-2,4.308741E-1,1.73836E-1,1.1664983E-3,-1.1863699E-2,-6.466885E-3,1.2585467E-2,4.8526167E-3,-9.173502E-3,5.6204437E-3,-5.3297807E-3,1.5952101E-2,-3.1873994E-3,4.6785837E-3,-5.7381666E-3,1.0002866E-2,1.5553722E-2,1.3748682E-3,1.1900169E-2],"categories":[],"categories_nodes":[],"categories_segments":[],"categories_sizes":[],"default_left":[0,0,0,0,0,0,0,0,0,0,0,0,0,0,0,0,0,0,0,0,0,0,0,0,0,0,0,0,0,0,0],"id":9,"left_children":[1,3,5,7,9,11,13,15,17,19,21,23,25,27,29,-1,-1,-1,-1,-1,-1,-1,-1,-1,-1,-1,-1,-1,-1,-1,-1],"loss_changes":[3.7758752E2,2.8276978E1,2.2557663E1,6.9427185E0,1.1252748E1,1.0389482E1,2.1009674E1,2.7497559E0,5.3057976E0,3.0573673E0,1.0384913E1,7.96463E0,6.706537E0,8.205551E0,1.3367404E1,0E0,0E0,0E0,0E0,0E0,0E0,0E0,0E0,0E0,0E0,0E0,0E0,0E0,0E0,0E0,0E0],"parents":[2147483647,0,0,1,1,2,2,3,3,4,4,5,5,6,6,7,7,8,8,9,9,10,10,11,11,12,12,13,13,14,14],"right_children":[2,4,6,8,10,12,14,16,18,20,22,24,26,28,30,-1,-1,-1,-1,-1,-1,-1,-1,-1,-1,-1,-1,-1,-1,-1,-1],"split_conditions":[5.9259918E-2,-2.2331301E-2,2.6514292E-1,-4.012696E-1,6.334885E-2,-5.9195554E-1,-1.6753465E0,9.0371974E-2,2.9832783E-1,1.9937967E-1,1.2588336E-1,-4.8861971E-1,3.43284E-1,-2.2247138E-2,-3.632712E-1,1.1664983E-3,-1.1863699E-2,-6.466885E-3,1.2585467E-2,4.8526167E-3,-9.173502E-3,5.6204437E-3,-5.3297807E-3,1.5952101E-2,-3.1873994E-3,4.6785837E-3,-5.7381666E-3,1.0002866E-2,1.5553722E-2,1.3748682E-3,1.1900169E-2],"split_indices":[733,40,211,400,784,252,700,845,516,615,365,1000,321,40,449,0,0,0,0,0,0,0,0,0,0,0,0,0,0,0,0],"split_type":[0,0,0,0,0,0,0,0,0,0,0,0,0,0,0,0,0,0,0,0,0,0,0,0,0,0,0,0,0,0,0],"sum_hessian":[3.869E3,1.956E3,1.913E3,1.46E3,4.96E2,2.94E2,1.619E3,1.425E3,3.5E1,2.01E2,2.95E2,7.8E1,2.16E2,1.154E3,4.65E2,1.3E1,1.412E3,2.3E1,1.2E1,9E0,1.92E2,1.63E2,1.32E2,5.4E1,2.4E1,8.1E1,1.35E2,5.69E2,5.85E2,3.03E2,1.62E2],"tree_param":{"num_deleted":"0","num_feature":"1024","num_nodes":"31","size_leaf_vector":"1"}},{"base_weights":[-4.5413845E-3,3.073021E-1,-2.885881E-1,-1.1421874E-1,3.3814567E-1,-3.4812242E-1,8.025141E-2,-2.1048088E-1,1.5312092E-1,4.1420192E-1,2.0190798E-1,-9.728507E-2,-3.7357518E-1,-9.251044E-2,4.2640057E-1,7.373528E-3,-7.937999E-3,-4.3112747E-3,8.85691E-3,1.3969723E-2,3.1595202E-3,1.0182402E-2,1.5706859E-3,-5.607171E-3,6.866433E-3,6.5363687E-3,-1.1327923E-2,4.0270868E-4,-9.336828E-3,2.0947466E-2,-5.1441975E-4],"categories":[],"categories_nodes":[],"categories_segments":[],"categories_sizes":[],"default_left":[0,0,0,0,0,0,0,0,0,0,0,0,0,0,0,0,0,0,0,0,0,0,0,0,0,0,0,0,0,0,0],"id":10,"left_children":[1,3,5,7,9,11,13,15,17,19,21,23,25,27,29,-1,-1,-1,-1,-1,-1,-1,-1,-1,-1,-1,-1,-1,-1,-1,-1],"loss_changes":[3.4208975E2,2.4321457E1,4.46577E1,3.7450042E0,1.6965149E1,1.0758392E1,1.767706E1,3.1689959E0,2.1537495E0,1.6881546E1,1.288055E1,5.5140233E0,4.576721E0,4.698868E0,1.1936348E1,0E0,0E0,0E0,0E0,0E0,0E0,0E0,0E0,0E0,0E0,0E0,0E0,0E0,0E0,0E0,0E0],"parents":[2147483647,0,0,1,1,2,2,3,3,4,4,5,5,6,6,7,7,8,8,9,9,10,10,11,11,12,12,13,13,14,14],"right_children":[2,4,6,8,10,12,14,16,18,20,22,24,26,28,30,-1,-1,-1,-1,-1,-1,-1,-1,-1,-1,-1,-1,-1,-1,-1,-1],"split_conditions":[1.1654777E-1,-1.8956575E-1,-1.1443924E-1,-1.0922662E-3,-1.964495E-1,1.6166236E-1,7.8537774E-1,7.851714E-1,4.8161742E-1,-3.875469E-1,2.0340553E-3,5.9176933E-2,-3.5349655E-1,4.859695E-2,-2.99711E-2,7.373528E-3,-7.937999E-3,-4.3112747E-3,8.85691E-3,1.3969723E-2,3.1595202E-3,1.0182402E-2,1.5706859E-3,-5.607171E-3,6.866433E-3,6.5363687E-3,-1.1327923E-2,4.0270868E-4,-9.336828E-3,2.0947466E-2,-5.1441975E-4],"split_indices":[218,80,710,154,704,259,41,41,480,484,220,1,580,119,648,0,0,0,0,0,0,0,0,0,0,0,0,0,0,0,0],"split_type":[0,0,0,0,0,0,0,0,0,0,0,0,0,0,0,0,0,0,0,0,0,0,0,0,0,0,0,0,0,0,0],"sum_hessian":[3.842E3,1.831E3,2.011E3,1.23E2,1.708E3,1.732E3,2.79E2,9.2E1,3.1E1,1.083E3,6.25E2,1.64E2,1.568E3,1.91E2,8.8E1,6E0,8.6E1,1E1,2.1E1,9.24E2,1.59E2,3.19E2,3.06E2,1.32E2,3.2E1,7E0,1.561E3,1.35E2,5.6E1,5.1E1,3.7E1],"tree_param":{"num_deleted":"0","num_feature":"1024","num_nodes":"31","size_leaf_vector":"1"}},{"base_weights":[-2.8170787E-3,3.23655E-1,-2.7327406E-1,3.6524564E-1,3.0010823E-2,-3.4996495E-1,-2.46466E-2,3.9381838E-1,-4.980797E-2,1.6939712E-1,-1.9998126E-1,-4.829566E-2,-3.6821902E-1,1.8625575E-1,-2.0953363E-1,1.2452321E-2,-9.265264E-4,-6.8715834E-3,7.247308E-3,1.9024403E-3,2.153451E-2,-1.0876817E-2,1.974571E-3,-6.737541E-3,7.620534E-3,9.316203E-4,-1.1147597E-2,-3.0191133E-3,1.0294929E-2,-7.7848574E-3,7.62232E-3],"categories":[],"categories_nodes":[],"categories_segments":[],"categories_sizes":[],"default_left":[0,0,0,0,0,0,0,0,0,0,0,0,0,0,0,0,0,0,0,0,0,0,0,0,0,0,0,0,0,0,0],"id":11,"left_children":[1,3,5,7,9,11,13,15,17,19,21,23,25,27,29,-1,-1,-1,-1,-1,-1,-1,-1,-1,-1,-1,-1,-1,-1,-1,-1],"loss_changes":[3.4259253E2,2.136058E1,4.0374893E1,1.8447495E1,7.6799855E0,8.74852E0,2.031575E1,1.3138626E1,6.1940956E0,8.146984E0,4.171074E0,6.1131177E0,2.1685333E0,1.1329245E1,7.0754023E0,0E0,0E0,0E0,0E0,0E0,0E0,0E0,0E0,0E0,0E0,0E0,0E0,0E0,0E0,0E0,0E0],"parents":[2147483647,0,0,1,1,2,2,3,3,4,4,5,5,6,6,7,7,8,8,9,9,10,10,11,11,12,12,13,13,14,14],"right_children":[2,4,6,8,10,12,14,16,18,20,22,24,26,28,30,-1,-1,-1,-1,-1,-1,-1,-1,-1,-1,-1,-1,-1,-1,-1,-1],"split_conditions":[8.544504E0,-7.4557486E0,8.96056E-2,-6.866588E-1,1.4533341E-1,6.6498406E-2,8.546485E0,5.9132284E-1,-9.337914E-2,-3.2939303E-1,-2.0503846E-1,1.4523615E-2,-1.3511481E-2,1.6739306E0,-1.4817235E-1,1.2452321E-2,-9.265264E-4,-6.8715834E-3,7.247308E-3,1.9024403E-3,2.153451E-2,-1.0876817E-2,1.974571E-3,-6.737541E-3,7.620534E-3,9.316203E-4,-1.1147597E-2,-3.0191133E-3,1.0294929E-2,-7.7848574E-3,7.62232E-3],"split_indices":[342,948,595,176,1008,837,342,900,263,776,307,84,730,897,335,0,0,0,0,0,0,0,0,0,0,0,0,0,0,0,0],"split_type":[0,0,0,0,0,0,0,0,0,0,0,0,0,0,0,0,0,0,0,0,0,0,0,0,0,0,0,0,0,0,0],"sum_hessian":[3.86E3,1.748E3,2.112E3,1.529E3,2.19E2,1.611E3,5.01E2,1.431E3,9.8E1,1.38E2,8.1E1,9.4E1,1.517E3,2.34E2,2.67E2,1.363E3,6.8E1,6.2E1,3.6E1,1.25E2,1.3E1,4.8E1,3.3E1,6.1E1,3.3E1,1.2E1,1.505E3,8.4E1,1.5E2,2.45E2,2.2E1],"tree_param":{"num_deleted":"0","num_feature":"1024","num_nodes":"31","size_leaf_vector":"1"}},{"base_weights":[-2.6640554E-3,-3.1582618E-1,2.4554752E-1,-3.6481208E-1,-8.911563E-2,-2.6826885E-1,2.9073563E-1,-3.671174E-1,1.2531331E-1,-2.32672E-1,4.4598546E-2,-3.4639385E-1,-4.5560833E-2,3.496207E-1,8.8997066E-2,-1.1039739E-2,2.3188158E-3,6.692967E-3,-2.3070015E-3,5.7469904E-3,-8.978929E-3,-6.4297277E-3,4.2598825E-3,-1.0979428E-2,4.5848703E-3,7.721142E-3,-1.1163655E-2,1.2298983E-2,3.056672E-3,-4.849002E-3,4.5991414E-3],"categories":[],"categories_nodes":[],"categories_segments":[],"categories_sizes":[],"default_left":[0,0,0,0,0,0,0,0,0,0,0,0,0,0,0,0,0,0,0,0,0,0,0,0,0,0,0,0,0,0,0],"id":12,"left_children":[1,3,5,7,9,11,13,15,17,19,21,23,25,27,29,-1,-1,-1,-1,-1,-1,-1,-1,-1,-1,-1,-1,-1,-1,-1,-1],"loss_changes":[2.995714E2,1.8598846E1,5.0699493E1,2.0396576E0,6.169553E0,2.9566145E0,2.3221924E1,8.258209E-1,4.483929E-1,4.9261885E0,4.6419044E0,1.8402843E0,6.6954355E0,2.2454956E1,7.6779385E0,0E0,0E0,0E0,0E0,0E0,0E0,0E0,0E0,0E0,0E0,0E0,0E0,0E0,0E0,0E0,0E0],"parents":[2147483647,0,0,1,1,2,2,3,3,4,4,5,5,6,6,7,7,8,8,9,9,10,10,11,11,12,12,13,13,14,14],"right_children":[2,4,6,8,10,12,14,16,18,20,22,24,26,28,30,-1,-1,-1,-1,-1,-1,-1,-1,-1,-1,-1,-1,-1,-1,-1,-1],"split_conditions":[4.2106423E-1,4.6484582E-2,-3.686972E0,3.138914E-1,-2.6351398E-1,-4.1500556E-1,-1.1769612E0,-9.5764905E-2,2.6853837E-2,-1.6806656E-1,3.1379887E-1,2.5206167E-1,-3.3377845E0,7.4797314E-1,-5.4509515E-1,-1.1039739E-2,2.3188158E-3,6.692967E-3,-2.3070015E-3,5.7469904E-3,-8.978929E-3,-6.4297277E-3,4.2598825E-3,-1.0979428E-2,4.5848703E-3,7.721142E-3,-1.1163655E-2,1.2298983E-2,3.056672E-3,-4.849002E-3,4.5991414E-3],"split_indices":[352,883,986,803,614,206,790,128,25,411,803,752,322,304,985,0,0,0,0,0,0,0,0,0,0,0,0,0,0,0,0],"split_type":[0,0,0,0,0,0,0,0,0,0,0,0,0,0,0,0,0,0,0,0,0,0,0,0,0,0,0,0,0,0,0],"sum_hessian":[3.834E3,1.694E3,2.14E3,1.388E3,3.06E2,1.69E2,1.971E3,1.384E3,4E0,1.44E2,1.62E2,1.21E2,4.8E1,1.52E3,4.51E2,1.383E3,1E0,2E0,2E0,1.7E1,1.27E2,4.1E1,1.21E2,1.19E2,2E0,2.6E1,2.2E1,1.217E3,3.03E2,8.9E1,3.62E2],"tree_param":{"num_deleted":"0","num_feature":"1024","num_nodes":"31","size_leaf_vector":"1"}},{"base_weights":[1.5800494E-3,-2.7362478E-1,2.6734924E-1,9.764652E-2,-3.1816652E-1,3.208028E-1,-7.4655255E-3,2.4060057E-1,-2.4256442E-1,-3.4273157E-1,-6.509873E-2,4.3017668E-1,1.5409192E-1,-1.0373152E-1,2.599376E-1,-5.9238975E-3,9.9566765E-3,-8.628176E-3,6.2190127E-3,-4.3162447E-3,-1.0617832E-2,-6.4554196E-3,5.7106004E-3,3.944191E-3,1.4027708E-2,7.593911E-3,-7.581793E-5,-4.6096025E-3,7.4905558E-3,1.5669452E-2,-5.115905E-3],"categories":[],"categories_nodes":[],"categories_segments":[],"categories_sizes":[],"default_left":[0,0,0,0,0,0,0,0,0,0,0,0,0,0,0,0,0,0,0,0,0,0,0,0,0,0,0,0,0,0,0],"id":13,"left_children":[1,3,5,7,9,11,13,15,17,19,21,23,25,27,29,-1,-1,-1,-1,-1,-1,-1,-1,-1,-1,-1,-1,-1,-1,-1,-1],"loss_changes":[2.8539618E2,3.2012238E1,2.9183258E1,1.0942767E1,1.0432159E1,2.9641754E1,8.841667E0,6.8538475E0,1.974062E0,2.964035E0,6.697158E0,1.0538452E1,1.0461027E1,4.8297443E0,1.1168703E1,0E0,0E0,0E0,0E0,0E0,0E0,0E0,0E0,0E0,0E0,0E0,0E0,0E0,0E0,0E0,0E0],"parents":[2147483647,0,0,1,1,2,2,3,3,4,4,5,5,6,6,7,7,8,8,9,9,10,10,11,11,12,12,13,13,14,14],"right_children":[2,4,6,8,10,12,14,16,18,20,22,24,26,28,30,-1,-1,-1,-1,-1,-1,-1,-1,-1,-1,-1,-1,-1,-1,-1,-1],"split_conditions":[-1.6031957E-1,1.1655178E-1,4.8223877E-1,4.3425116E-1,2.6843475E-2,-1.964495E-1,-3.321409E-1,1.4953758E-1,-2.4979721E-1,-6.30447E-1,3.5786662E-1,-2.0595514E-3,-5.71958E-1,-3.0729133E-1,5.6364894E-1,-5.9238975E-3,9.9566765E-3,-8.628176E-3,6.2190127E-3,-4.3162447E-3,-1.0617832E-2,-6.4554196E-3,5.7106004E-3,3.944191E-3,1.4027708E-2,7.593911E-3,-7.581793E-5,-4.6096025E-3,7.4905558E-3,1.5669452E-2,-5.115905E-3],"split_indices":[505,218,568,402,25,704,749,652,770,379,976,294,539,896,820,0,0,0,0,0,0,0,0,0,0,0,0,0,0,0,0],"split_type":[0,0,0,0,0,0,0,0,0,0,0,0,0,0,0,0,0,0,0,0,0,0,0,0,0,0,0,0,0,0,0],"sum_hessian":[3.882E3,1.907E3,1.975E3,2.03E2,1.704E3,1.652E3,3.23E2,1.45E2,5.8E1,1.55E3,1.54E2,9.88E2,6.64E2,2.42E2,8.1E1,2.3E1,1.22E2,5.6E1,2E0,9E1,1.46E3,9.8E1,5.6E1,1.15E2,8.73E2,4.03E2,2.61E2,2.17E2,2.5E1,4.9E1,3.2E1],"tree_param":{"num_deleted":"0","num_feature":"1024","num_nodes":"31","size_leaf_vector":"1"}},{"base_weights":[-4.328632E-3,3.051098E-1,-2.5125736E-1,8.4776334E-2,3.75257E-1,-4.5083843E-2,-3.284986E-1,1.3622738E-1,-3.2327798E-1,2.5296903E-1,4.7400257E-1,1.18691966E-1,-2.1392478E-1,-3.383405E-1,3.0783325E-2,-1.3939376E-3,7.872183E-3,2.5415532E-3,-1.2926306E-2,9.283314E-3,-2.8488212E-3,1.4936597E-2,-3.3438175E-3,8.0012595E-3,-1.485808E-3,-7.1173436E-3,7.638123E-3,6.691275E-3,-1.0227223E-2,1.4205858E-2,-5.305067E-3],"categories":[],"categories_nodes":[],"categories_segments":[],"categories_sizes":[],"default_left":[0,0,0,0,0,0,0,0,0,0,0,0,0,0,0,0,0,0,0,0,0,0,0,0,0,0,0,0,0,0,0],"id":14,"left_children":[1,3,5,7,9,11,13,15,17,19,21,23,25,27,29,-1,-1,-1,-1,-1,-1,-1,-1,-1,-1,-1,-1,-1,-1,-1,-1],"loss_changes":[2.966232E2,2.6312164E1,3.423419E1,9.447172E0,1.4547256E1,1.6845148E1,5.6521454E0,9.066039E0,2.6039295E0,1.2161999E1,1.0483032E1,7.875747E0,3.8709383E0,2.962265E0,5.525404E0,0E0,0E0,0E0,0E0,0E0,0E0,0E0,0E0,0E0,0E0,0E0,0E0,0E0,0E0,0E0,0E0],"parents":[2147483647,0,0,1,1,2,2,3,3,4,4,5,5,6,6,7,7,8,8,9,9,10,10,11,11,12,12,13,13,14,14],"right_children":[2,4,6,8,10,12,14,16,18,20,22,24,26,28,30,-1,-1,-1,-1,-1,-1,-1,-1,-1,-1,-1,-1,-1,-1,-1,-1],"split_conditions":[-1.3699322E0,1.3929114E-1,2.3813204E-1,5.6356794E-1,-5.588839E-1,-1.3691654E0,1.7455035E-1,-4.08354E-1,9.627267E-1,2.380732E-1,6.339359E-1,1.032038E-1,-2.8897604E-1,-7.9631675E-3,-2.0648645E-2,-1.3939376E-3,7.872183E-3,2.5415532E-3,-1.2926306E-2,9.283314E-3,-2.8488212E-3,1.4936597E-2,-3.3438175E-3,8.0012595E-3,-1.485808E-3,-7.1173436E-3,7.638123E-3,6.691275E-3,-1.0227223E-2,1.4205858E-2,-5.305067E-3],"split_indices":[601,203,4,820,35,601,82,1015,679,4,167,844,363,468,51,0,0,0,0,0,0,0,0,0,0,0,0,0,0,0,0],"split_type":[0,0,0,0,0,0,0,0,0,0,0,0,0,0,0,0,0,0,0,0,0,0,0,0,0,0,0,0,0,0,0],"sum_hessian":[3.862E3,1.713E3,2.149E3,4.19E2,1.294E3,5.9E2,1.559E3,3.78E2,4.1E1,5.94E2,7E2,3.01E2,2.89E2,1.518E3,4.1E1,1.57E2,2.21E2,9E0,3.2E1,5.12E2,8.2E1,6.74E2,2.6E1,1.57E2,1.44E2,2.8E2,9E0,3E0,1.515E3,9E0,3.2E1],"tree_param":{"num_deleted":"0","num_feature":"1024","num_nodes":"31","size_leaf_vector":"1"}},{"base_weights":[4.617863E-3,-2.5561434E-1,2.624403E-1,-5.0465126E-2,-3.2548967E-1,-1.224084E-1,2.993765E-1,-2.3728383E-1,9.68648E-2,2.6786524E-1,-3.2857317E-1,5.560584E-1,-1.8666758E-1,3.6428124E-1,9.624122E-2,3.82834E-3,-8.367158E-3,7.315534E-3,-4.6485057E-3,-1.3570575E-3,9.949589E-3,-1.0008735E-2,2.7598406E-3,1.8799424E-2,-1.756242E-3,-6.7312242E-3,4.133232E-3,1.1477981E-2,-1.1152566E-2,5.7441615E-3,-5.686129E-3],"categories":[],"categories_nodes":[],"categories_segments":[],"categories_sizes":[],"default_left":[0,0,0,0,0,0,0,0,0,0,0,0,0,0,0,0,0,0,0,0,0,0,0,0,0,0,0,0,0,0,0],"id":15,"left_children":[1,3,5,7,9,11,13,15,17,19,21,23,25,27,29,-1,-1,-1,-1,-1,-1,-1,-1,-1,-1,-1,-1,-1,-1,-1,-1],"loss_changes":[2.622021E2,2.771708E1,2.8270172E1,1.4156981E1,3.5312042E0,8.841972E0,2.3302307E1,3.7882805E0,1.1111724E1,4.0965968E-1,3.3788605E0,1.1477604E0,2.4010744E0,1.9704926E1,1.2555213E1,0E0,0E0,0E0,0E0,0E0,0E0,0E0,0E0,0E0,0E0,0E0,0E0,0E0,0E0,0E0,0E0],"parents":[2147483647,0,0,1,1,2,2,3,3,4,4,5,5,6,6,7,7,8,8,9,9,10,10,11,11,12,12,13,13,14,14],"right_children":[2,4,6,8,10,12,14,16,18,20,22,24,26,28,30,-1,-1,-1,-1,-1,-1,-1,-1,-1,-1,-1,-1,-1,-1,-1,-1],"split_conditions":[4.2109364E-1,-5.6897265E-1,2.1773796E-1,-3.686972E0,1.0307924E-1,5.9987116E-1,7.4795455E-1,-2.6767865E-1,3.5768855E-1,-1.1347233E-1,-1.5097176E-1,-2.2931229E-1,1.01123825E-1,-5.6888944E-1,-2.3783332E-2,3.82834E-3,-8.367158E-3,7.315534E-3,-4.6485057E-3,-1.3570575E-3,9.949589E-3,-1.0008735E-2,2.7598406E-3,1.8799424E-2,-1.756242E-3,-6.7312242E-3,4.133232E-3,1.1477981E-2,-1.1152566E-2,5.7441615E-3,-5.686129E-3],"split_indices":[352,755,43,986,879,469,304,862,846,3,517,39,194,755,185,0,0,0,0,0,0,0,0,0,0,0,0,0,0,0,0],"split_type":[0,0,0,0,0,0,0,0,0,0,0,0,0,0,0,0,0,0,0,0,0,0,0,0,0,0,0,0,0,0,0],"sum_hessian":[3.888E3,1.935E3,1.953E3,4.96E2,1.439E3,1.69E2,1.784E3,2.16E2,2.8E2,3E0,1.436E3,8E0,1.61E2,1.346E3,4.38E2,2E1,1.96E2,1.77E2,1.03E2,1E0,2E0,1.421E3,1.5E1,7E0,1E0,1.47E2,1.4E1,1.318E3,2.8E1,3.31E2,1.07E2],"tree_param":{"num_deleted":"0","num_feature":"1024","num_nodes":"31","size_leaf_vector":"1"}},{"base_weights":[6.568288E-4,2.695596E-1,-2.506947E-1,1.5193686E-1,3.6505228E-1,-2.843606E-1,1.6165245E-1,2.2766179E-1,4.706249E-4,-1.1565537E-1,4.0431306E-1,-3.0960333E-1,-6.50612E-2,6.144697E-1,1.3372468E-2,-7.267155E-3,7.6013543E-3,-4.1332613E-3,5.1221866E-3,-6.9597987E-3,7.830196E-3,-2.4199304E-3,1.27388425E-2,-9.395211E-3,6.6975676E-3,5.772052E-4,-1.1128451E-2,2.1949325E-2,-1.823166E-3,5.4298667E-3,-7.929167E-3],"categories":[],"categories_nodes":[],"categories_segments":[],"categories_sizes":[],"default_left":[0,0,0,0,0,0,0,0,0,0,0,0,0,0,0,0,0,0,0,0,0,0,0,0,0,0,0,0,0,0,0],"id":16,"left_children":[1,3,5,7,9,11,13,15,17,19,21,23,25,27,29,-1,-1,-1,-1,-1,-1,-1,-1,-1,-1,-1,-1,-1,-1,-1,-1],"loss_changes":[2.6440848E2,2.0674057E1,2.8529152E1,9.90881E0,2.0019974E1,1.0166992E1,1.0593685E1,7.5743275E0,7.2498584E0,4.3740435E0,9.8007965E0,3.8896332E0,5.3834333E0,3.5303583E0,6.5292645E0,0E0,0E0,0E0,0E0,0E0,0E0,0E0,0E0,0E0,0E0,0E0,0E0,0E0,0E0,0E0,0E0],"parents":[2147483647,0,0,1,1,2,2,3,3,4,4,5,5,6,6,7,7,8,8,9,9,10,10,11,11,12,12,13,13,14,14],"right_children":[2,4,6,8,10,12,14,16,18,20,22,24,26,28,30,-1,-1,-1,-1,-1,-1,-1,-1,-1,-1,-1,-1,-1,-1,-1,-1],"split_conditions":[1.1655178E-1,-3.5397206E-2,-1.9514533E-2,8.580833E-2,1.268691E-1,-1.1443924E-1,4.022683E-1,3.2701218E-1,8.9641474E-2,3.334807E-1,3.2403022E-2,3.5135353E-1,3.827237E-1,-7.499463E-2,-9.2288874E-2,-7.267155E-3,7.6013543E-3,-4.1332613E-3,5.1221866E-3,-6.9597987E-3,7.830196E-3,-2.4199304E-3,1.27388425E-2,-9.395211E-3,6.6975676E-3,5.772052E-4,-1.1128451E-2,2.1949325E-2,-1.823166E-3,5.4298667E-3,-7.929167E-3],"split_indices":[218,829,226,390,623,710,140,95,595,36,714,439,1020,651,116,0,0,0,0,0,0,0,0,0,0,0,0,0,0,0,0],"split_type":[0,0,0,0,0,0,0,0,0,0,0,0,0,0,0,0,0,0,0,0,0,0,0,0,0,0,0,0,0,0,0],"sum_hessian":[3.892E3,1.88E3,2.012E3,8.54E2,1.026E3,1.863E3,1.49E2,5.66E2,2.88E2,7.6E1,9.5E2,1.667E3,1.96E2,2.9E1,1.2E2,2.5E1,5.41E2,1.6E2,1.28E2,6.1E1,1.5E1,3.7E1,9.13E2,1.66E3,7E0,1.61E2,3.5E1,2.4E1,5E0,7.7E1,4.3E1],"tree_param":{"num_deleted":"0","num_feature":"1024","num_nodes":"31","size_leaf_vector":"1"}},{"base_weights":[-5.698066E-3,-2.363345E-1,2.627728E-1,-3.2175368E-1,-9.976025E-2,-1.4625712E-1,2.8575265E-1,1.4247479E-1,-3.2575256E-1,4.5932454E-1,-1.2956092E-1,3.0879936E-1,-2.7895135E-1,3.0990237E-1,-4.1376088E-2,9.219742E-3,-3.7242873E-3,1.7824568E-3,-9.795458E-3,1.6946223E-2,-5.110036E-3,-5.3284653E-3,1.7849978E-3,-3.2757544E-3,1.3414251E-2,-1.0618029E-2,6.8753166E-3,5.7839686E-3,1.17605245E-2,-6.4027263E-3,9.950242E-3],"categories":[],"categories_nodes":[],"categories_segments":[],"categories_sizes":[],"default_left":[0,0,0,0,0,0,0,0,0,0,0,0,0,0,0,0,0,0,0,0,0,0,0,0,0,0,0,0,0,0,0],"id":17,"left_children":[1,3,5,7,9,11,13,15,17,19,21,23,25,27,29,-1,-1,-1,-1,-1,-1,-1,-1,-1,-1,-1,-1,-1,-1,-1,-1],"loss_changes":[2.4278688E2,2.4282745E1,1.7449738E1,2.8644257E0,1.4357174E1,7.0808873E0,1.370842E1,1.1726565E0,5.7151794E-1,3.886426E0,7.3011923E0,2.1073663E0,4.0497212E0,1.4648972E1,8.8590765E0,0E0,0E0,0E0,0E0,0E0,0E0,0E0,0E0,0E0,0E0,0E0,0E0,0E0,0E0,0E0,0E0],"parents":[2147483647,0,0,1,1,2,2,3,3,4,4,5,5,6,6,7,7,8,8,9,9,10,10,11,11,12,12,13,13,14,14],"right_children":[2,4,6,8,10,12,14,16,18,20,22,24,26,28,30,-1,-1,-1,-1,-1,-1,-1,-1,-1,-1,-1,-1,-1,-1,-1,-1],"split_conditions":[5.927663E-2,2.2934109E-1,-1.5156832E1,7.721451E-2,1.3429029E0,6.31496E-1,2.6493913E-1,-1.2260784E-3,7.8950435E-2,1.4884923E-1,1.0330518E0,1.9274956E-1,-2.8568533E-1,-5.588839E-1,-4.5320302E-1,9.219742E-3,-3.7242873E-3,1.7824568E-3,-9.795458E-3,1.6946223E-2,-5.110036E-3,-5.3284653E-3,1.7849978E-3,-3.2757544E-3,1.3414251E-2,-1.0618029E-2,6.8753166E-3,5.7839686E-3,1.17605245E-2,-6.4027263E-3,9.950242E-3],"split_indices":[733,798,658,227,687,212,628,217,74,361,295,876,661,35,197,0,0,0,0,0,0,0,0,0,0,0,0,0,0,0,0],"split_type":[0,0,0,0,0,0,0,0,0,0,0,0,0,0,0,0,0,0,0,0,0,0,0,0,0,0,0,0,0,0,0],"sum_hessian":[3.901E3,2.099E3,1.802E3,1.283E3,8.16E2,9.3E1,1.709E3,8E0,1.275E3,3.4E1,7.82E2,1.8E1,7.5E1,1.592E3,1.17E2,4E0,4E0,1E0,1.274E3,3E1,4E0,6.24E2,1.58E2,5E0,1.3E1,6.8E1,7E0,6.7E2,9.22E2,8.3E1,3.4E1],"tree_param":{"num_deleted":"0","num_feature":"1024","num_nodes":"31","size_leaf_vector":"1"}},{"base_weights":[9.257948E-3,-2.2551787E-1,2.805005E-1,-8.160532E-2,-3.0683434E-1,3.2486802E-1,7.8729816E-2,2.7845234E-1,-1.3517974E-1,-3.1192797E-1,3.4935936E-1,-1.6081339E-1,3.4328833E-1,3.0463615E-1,-4.2557396E-2,9.742991E-4,1.5980737E-2,-1.5885114E-3,-7.6701036E-3,-9.494921E-3,5.90887E-3,2.7537264E-4,1.1013043E-2,-1.000499E-2,5.4048533E-3,-3.2301222E-3,1.0730672E-2,-6.937986E-4,1.5345173E-2,-8.68689E-3,2.7220752E-3],"categories":[],"categories_nodes":[],"categories_segments":[],"categories_sizes":[],"default_left":[0,0,0,0,0,0,0,0,0,0,0,0,0,0,0,0,0,0,0,0,0,0,0,0,0,0,0,0,0,0,0],"id":18,"left_children":[1,3,5,7,9,11,13,15,17,19,21,23,25,27,29,-1,-1,-1,-1,-1,-1,-1,-1,-1,-1,-1,-1,-1,-1,-1,-1],"loss_changes":[2.4886186E2,2.4266258E1,1.5974335E1,1.5229618E1,5.551895E0,1.381955E1,9.445492E0,6.268268E0,6.572236E0,3.7160492E0,5.683613E-2,4.192624E0,9.684723E0,8.254794E0,7.8352985E0,0E0,0E0,0E0,0E0,0E0,0E0,0E0,0E0,0E0,0E0,0E0,0E0,0E0,0E0,0E0,0E0],"parents":[2147483647,0,0,1,1,2,2,3,3,4,4,5,5,6,6,7,7,8,8,9,9,10,10,11,11,12,12,13,13,14,14],"right_children":[2,4,6,8,10,12,14,16,18,20,22,24,26,28,30,-1,-1,-1,-1,-1,-1,-1,-1,-1,-1,-1,-1,-1,-1,-1,-1],"split_conditions":[5.927663E-2,6.6017675E-1,-7.455793E0,-8.0931175E-1,-2.0964593E-1,-2.4615003E-1,1.3428186E0,1.1638234E-1,-6.3425225E-1,-3.6364083E0,2.2532456E-1,-2.0971435E-1,-8.0964386E-1,3.7776783E-1,-2.0970988E-1,9.742991E-4,1.5980737E-2,-1.5885114E-3,-7.6701036E-3,-9.494921E-3,5.90887E-3,2.7537264E-4,1.1013043E-2,-1.000499E-2,5.4048533E-3,-3.2301222E-3,1.0730672E-2,-6.937986E-4,1.5345173E-2,-8.68689E-3,2.7220752E-3],"split_indices":[733,479,948,213,647,943,687,2,759,460,6,647,213,869,647,0,0,0,0,0,0,0,0,0,0,0,0,0,0,0,0],"split_type":[0,0,0,0,0,0,0,0,0,0,0,0,0,0,0,0,0,0,0,0,0,0,0,0,0,0,0,0,0,0,0],"sum_hessian":[3.888E3,2.085E3,1.803E3,7.6E2,1.325E3,1.473E3,3.3E2,9.3E1,6.67E2,1.32E3,5E0,5.1E1,1.422E3,1.1E2,2.2E2,5.3E1,4E1,4.05E2,2.62E2,1.312E3,8E0,1E0,4E0,3.4E1,1.7E1,4.2E1,1.38E3,4.6E1,6.4E1,7.3E1,1.47E2],"tree_param":{"num_deleted":"0","num_feature":"1024","num_nodes":"31","size_leaf_vector":"1"}},{"base_weights":[8.043371E-3,-2.2425969E-1,2.6981732E-1,-1.0225598E-1,-3.0555767E-1,-2.0652229E-1,2.885722E-1,-1.6122968E-1,1.7231455E-1,-3.0667943E-1,2.9266484E-3,1.5998916E-1,-3.688881E-1,4.9678084E-2,3.313106E-1,-6.3049053E-3,2.2111517E-4,9.516103E-3,-4.058915E-3,-9.219796E-3,1.33091E-3,1.1348759E-2,-4.964931E-3,-1.2025985E-2,3.703439E-3,6.7831622E-3,-3.9427285E-3,1.0484569E-2,-1.9257013E-3],"categories":[],"categories_nodes":[],"categories_segments":[],"categories_sizes":[],"default_left":[0,0,0,0,0,0,0,0,0,0,0,0,0,0,0,0,0,0,0,0,0,0,0,0,0,0,0,0,0],"id":19,"left_children":[1,3,5,7,9,11,13,15,17,19,-1,21,23,25,27,-1,-1,-1,-1,-1,-1,-1,-1,-1,-1,-1,-1,-1,-1],"loss_changes":[2.361865E2,2.0100143E1,1.6908844E1,1.3847091E1,8.553772E-1,5.0533514E0,1.781517E1,5.7494164E0,7.2483044E0,4.155426E-1,0E0,2.7577055E0,1.3607793E0,9.211601E0,1.0949173E1,0E0,0E0,0E0,0E0,0E0,0E0,0E0,0E0,0E0,0E0,0E0,0E0,0E0,0E0],"parents":[2147483647,0,0,1,1,2,2,3,3,4,4,5,5,6,6,7,7,8,8,9,9,11,11,12,12,13,13,14,14],"right_children":[2,4,6,8,10,12,14,16,18,20,-1,22,24,26,28,-1,-1,-1,-1,-1,-1,-1,-1,-1,-1,-1,-1,-1,-1],"split_conditions":[5.927663E-2,-6.383191E-2,-3.6869664E0,-3.686761E0,-3.5268094E-2,1.7788249E-1,-5.574731E-1,-7.7278435E-1,1.2712592E-1,-1.224257E-1,2.9266484E-3,1.4078574E-1,6.3754976E-1,-4.093425E-1,2.8441307E-1,-6.3049053E-3,2.2111517E-4,9.516103E-3,-4.058915E-3,-9.219796E-3,1.33091E-3,1.1348759E-2,-4.964931E-3,-1.2025985E-2,3.703439E-3,6.7831622E-3,-3.9427285E-3,1.0484569E-2,-1.9257013E-3],"split_indices":[733,404,986,986,829,452,127,646,623,90,0,113,268,819,312,0,0,0,0,0,0,0,0,0,0,0,0,0,0],"split_type":[0,0,0,0,0,0,0,0,0,0,0,0,0,0,0,0,0,0,0,0,0,0,0,0,0,0,0,0,0],"sum_hessian":[3.864E3,2.048E3,1.816E3,8.28E2,1.22E3,6.5E1,1.751E3,6.85E2,1.43E2,1.219E3,1E0,2E1,4.5E1,2.69E2,1.482E3,5.29E2,1.56E2,9.7E1,4.6E1,1.218E3,1E0,1.1E1,9E0,4.4E1,1E0,1.35E2,1.34E2,1.418E3,6.4E1],"tree_param":{"num_deleted":"0","num_feature":"1024","num_nodes":"29","size_leaf_vector":"1"}},{"base_weights":[1.0409021E-2,-2.0310149E-1,2.6872662E-1,-6.415265E-2,-2.9779637E-1,5.9291016E-2,3.1768373E-1,1.2944092E-1,-2.2282188E-1,-3.0008307E-1,5.708378E-3,3.317386E-1,-3.272508E-2,-6.6776946E-2,3.4387347E-1,6.247801E-3,-2.2253694E-3,8.557148E-3,-6.9576227E-3,-9.0211155E-3,1.3115088E-3,-5.308332E-3,1.757702E-2,-3.9753276E-3,8.363464E-3,-5.064834E-3,6.7264787E-3,-6.276485E-3,1.0733667E-2],"categories":[],"categories_nodes":[],"categories_segments":[],"categories_sizes":[],"default_left":[0,0,0,0,0,0,0,0,0,0,0,0,0,0,0,0,0,0,0,0,0,0,0,0,0,0,0,0,0],"id":20,"left_children":[1,3,5,7,9,11,13,15,17,19,-1,21,23,25,27,-1,-1,-1,-1,-1,-1,-1,-1,-1,-1,-1,-1,-1,-1],"loss_changes":[2.1404506E2,2.7769157E1,1.7816528E1,2.713538E1,1.9783707E0,8.757561E0,1.4537582E1,6.5741405E0,2.8989525E0,4.0016937E-1,0E0,1.2414056E1,8.668846E0,3.3184505E0,1.1000244E1,0E0,0E0,0E0,0E0,0E0,0E0,0E0,0E0,0E0,0E0,0E0,0E0,0E0,0E0],"parents":[2147483647,0,0,1,1,2,2,3,3,4,4,5,5,6,6,7,7,8,8,9,9,11,11,12,12,13,13,14,14],"right_children":[2,4,6,8,10,12,14,16,18,20,-1,22,24,26,28,-1,-1,-1,-1,-1,-1,-1,-1,-1,-1,-1,-1,-1,-1],"split_conditions":[2.6514292E-1,-3.336578E0,-4.8378882E-1,8.546485E0,-1.509057E-1,1.4698383E-1,-1.517199E-1,4.2829793E-2,6.1411154E-1,-4.289325E-1,5.708378E-3,-3.8112208E-1,2.8615326E-1,-2.1257654E-1,8.537773E0,6.247801E-3,-2.2253694E-3,8.557148E-3,-6.9576227E-3,-9.0211155E-3,1.3115088E-3,-5.308332E-3,1.757702E-2,-3.9753276E-3,8.363464E-3,-5.064834E-3,6.7264787E-3,-6.276485E-3,1.0733667E-2],"split_indices":[211,322,739,342,888,668,927,20,949,12,0,667,632,1014,342,0,0,0,0,0,0,0,0,0,0,0,0,0,0],"split_type":[0,0,0,0,0,0,0,0,0,0,0,0,0,0,0,0,0,0,0,0,0,0,0,0,0,0,0,0,0],"sum_hessian":[3.861E3,2.115E3,1.746E3,8.64E2,1.251E3,3.35E2,1.411E3,3.9E2,4.74E2,1.249E3,2E0,7.8E1,2.57E2,8.9E1,1.322E3,2.81E2,1.09E2,3E0,4.71E2,1.248E3,1E0,2.7E1,5.1E1,1.99E2,5.8E1,6.9E1,2E1,2.9E1,1.293E3],"tree_param":{"num_deleted":"0","num_feature":"1024","num_nodes":"29","size_leaf_vector":"1"}},{"base_weights":[-6.1306363E-4,2.083614E-1,-2.4493825E-1,-7.664787E-2,2.7736628E-1,-2.719131E-1,-2.2980813E-2,1.4499896E-2,-2.8999987E-1,3.6514908E-1,1.5572998E-1,-4.2954978E-2,-2.8244817E-1,2.0567726E-1,-1.4383473E-1,-3.180724E-3,7.4872687E-3,-1.0366098E-2,1.6309712E-3,1.1998761E-2,2.033141E-3,8.6791925E-3,1.6883526E-3,-4.814292E-3,1.0515055E-2,3.9627994E-3,-8.548706E-3,-1.8287874E-3,1.8113818E-2,-6.5438123E-3,5.6325113E-3],"categories":[],"categories_nodes":[],"categories_segments":[],"categories_sizes":[],"default_left":[0,0,0,0,0,0,0,0,0,0,0,0,0,0,0,0,0,0,0,0,0,0,0,0,0,0,0,0,0,0,0],"id":21,"left_children":[1,3,5,7,9,11,13,15,17,19,21,23,25,27,29,-1,-1,-1,-1,-1,-1,-1,-1,-1,-1,-1,-1,-1,-1,-1,-1],"loss_changes":[1.9835905E2,4.1395355E1,1.0660721E1,8.131817E0,1.7455109E1,3.7283707E0,5.9608507E0,8.792626E0,2.5784712E0,9.801056E0,9.468361E0,4.3541203E0,1.9612885E0,8.329513E0,3.858328E0,0E0,0E0,0E0,0E0,0E0,0E0,0E0,0E0,0E0,0E0,0E0,0E0,0E0,0E0,0E0,0E0],"parents":[2147483647,0,0,1,1,2,2,3,3,4,4,5,5,6,6,7,7,8,8,9,9,10,10,11,11,12,12,13,13,14,14],"right_children":[2,4,6,8,10,12,14,16,18,20,22,24,26,28,30,-1,-1,-1,-1,-1,-1,-1,-1,-1,-1,-1,-1,-1,-1,-1,-1],"split_conditions":[1.1658919E-1,-3.637011E0,-3.691142E-1,-2.7042787E0,-4.3004912E-1,6.8725955E-1,-6.262221E-1,3.4988574E-3,4.4932883E-2,2.380732E-1,2.4878262E-1,1.0289575E-1,4.8927005E-2,2.9145235E-2,-1.9496085E-2,-3.180724E-3,7.4872687E-3,-1.0366098E-2,1.6309712E-3,1.1998761E-2,2.033141E-3,8.6791925E-3,1.6883526E-3,-4.814292E-3,1.0515055E-2,3.9627994E-3,-8.548706E-3,-1.8287874E-3,1.8113818E-2,-6.5438123E-3,5.6325113E-3],"split_indices":[218,460,301,138,493,982,821,243,725,4,814,729,303,732,226,0,0,0,0,0,0,0,0,0,0,0,0,0,0,0,0],"split_type":[0,0,0,0,0,0,0,0,0,0,0,0,0,0,0,0,0,0,0,0,0,0,0,0,0,0,0,0,0,0,0],"sum_hessian":[3.865E3,2.084E3,1.781E3,4.06E2,1.678E3,1.586E3,1.95E2,2.91E2,1.15E2,9.63E2,7.15E2,7.2E1,1.514E3,6.5E1,1.3E2,1.96E2,9.5E1,9.9E1,1.6E1,8.59E2,1.04E2,2.97E2,4.18E2,6E1,1.2E1,6E0,1.508E3,4.4E1,2.1E1,1.09E2,2.1E1],"tree_param":{"num_deleted":"0","num_feature":"1024","num_nodes":"31","size_leaf_vector":"1"}},{"base_weights":[2.8952411E-3,-2.3987132E-1,1.9080174E-1,-2.5458422E-1,8.076871E-2,2.4372082E-2,2.6490253E-1,-2.8507304E-1,-1.3631004E-1,3.608183E-1,-1.6020618E-1,7.772757E-2,-2.2130558E-1,3.2484543E-1,2.7181048E-2,2.0506808E-3,-8.576477E-3,2.5089097E-3,-6.8443147E-3,-3.667477E-3,1.6682453E-2,9.124186E-3,-9.96369E-3,-1.8093344E-3,5.260982E-3,3.8039084E-3,-8.521078E-3,1.0465932E-2,-4.0986454E-3,-9.888503E-4,1.5583765E-2],"categories":[],"categories_nodes":[],"categories_segments":[],"categories_sizes":[],"default_left":[0,0,0,0,0,0,0,0,0,0,0,0,0,0,0,0,0,0,0,0,0,0,0,0,0,0,0,0,0,0,0],"id":22,"left_children":[1,3,5,7,9,11,13,15,17,19,21,23,25,27,29,-1,-1,-1,-1,-1,-1,-1,-1,-1,-1,-1,-1,-1,-1,-1,-1],"loss_changes":[1.7731639E2,8.206589E0,2.69561E1,5.467636E0,6.111816E0,9.164276E0,2.150003E1,5.6220245E-1,7.3004785E0,4.5471497E0,5.081388E0,7.8016424E0,3.0897236E0,1.3877113E1,9.527012E0,0E0,0E0,0E0,0E0,0E0,0E0,0E0,0E0,0E0,0E0,0E0,0E0,0E0,0E0,0E0,0E0],"parents":[2147483647,0,0,1,1,2,2,3,3,4,4,5,5,6,6,7,7,8,8,9,9,10,10,11,11,12,12,13,13,14,14],"right_children":[2,4,6,8,10,12,14,16,18,20,22,24,26,28,30,-1,-1,-1,-1,-1,-1,-1,-1,-1,-1,-1,-1,-1,-1,-1,-1],"split_conditions":[4.2106423E-1,2.4567568E-1,-2.0521596E-1,-2.4087822E-1,-2.0209976E-1,-6.281821E-1,-7.4557867E0,5.469596E-1,2.4730666E-1,-1.9303985E-1,-1.9185418E-1,-2.669178E-1,3.627614E-1,3.1286785E-3,4.9199966E-1,2.0506808E-3,-8.576477E-3,2.5089097E-3,-6.8443147E-3,-3.667477E-3,1.6682453E-2,9.124186E-3,-9.96369E-3,-1.8093344E-3,5.260982E-3,3.8039084E-3,-8.521078E-3,1.0465932E-2,-4.0986454E-3,-9.888503E-4,1.5583765E-2],"split_indices":[352,608,307,967,653,772,948,866,418,255,936,527,159,871,368,0,0,0,0,0,0,0,0,0,0,0,0,0,0,0,0],"split_type":[0,0,0,0,0,0,0,0,0,0,0,0,0,0,0,0,0,0,0,0,0,0,0,0,0,0,0,0,0,0,0],"sum_hessian":[3.867E3,1.686E3,2.181E3,1.614E3,7.2E1,6.76E2,1.505E3,1.272E3,3.42E2,3.1E1,4.1E1,5.61E2,1.15E2,1.199E3,3.06E2,1E0,1.271E3,1.01E2,2.41E2,1E1,2.1E1,9E0,3.2E1,2.34E2,3.27E2,1.6E1,9.9E1,1.142E3,5.7E1,2.81E2,2.5E1],"tree_param":{"num_deleted":"0","num_feature":"1024","num_nodes":"31","size_leaf_vector":"1"}},{"base_weights":[2.5531112E-3,-2.0200862E-1,2.0066391E-1,-2.643938E-2,-2.5585797E-1,-1.5669234E-1,2.3225954E-1,-1.3268231E-1,1.4873526E-1,-2.6450652E-1,8.238632E-2,-2.7521205E-1,-1.7194647E-3,2.550858E-1,-2.1254896E-1,9.613576E-3,-5.0145937E-3,6.4039794E-3,-8.22823E-3,5.5206316E-3,-8.002406E-3,-6.1200727E-3,1.0147849E-2,-9.189714E-3,3.6411588E-3,-4.9508517E-3,1.1165165E-2,8.999357E-3,2.903818E-3,7.086892E-3,-1.004676E-2],"categories":[],"categories_nodes":[],"categories_segments":[],"categories_sizes":[],"default_left":[0,0,0,0,0,0,0,0,0,0,0,0,0,0,0,0,0,0,0,0,0,0,0,0,0,0,0,0,0,0,0],"id":23,"left_children":[1,3,5,7,9,11,13,15,17,19,21,23,25,27,29,-1,-1,-1,-1,-1,-1,-1,-1,-1,-1,-1,-1,-1,-1,-1,-1],"loss_changes":[1.571595E2,1.7971138E1,2.2607002E1,8.739824E0,4.485962E0,3.0442467E0,1.8960281E1,5.081044E0,5.4594293E0,1.9228058E0,3.9143734E0,1.5316014E0,5.621097E0,1.2003311E1,5.9521785E0,0E0,0E0,0E0,0E0,0E0,0E0,0E0,0E0,0E0,0E0,0E0,0E0,0E0,0E0,0E0,0E0],"parents":[2147483647,0,0,1,1,2,2,3,3,4,4,5,5,6,6,7,7,8,8,9,9,10,10,11,11,12,12,13,13,14,14],"right_children":[2,4,6,8,10,12,14,16,18,20,22,24,26,28,30,-1,-1,-1,-1,-1,-1,-1,-1,-1,-1,-1,-1,-1,-1,-1,-1],"split_conditions":[4.2108673E-1,-5.6897265E-1,-8.030476E-2,-1.7983285E-1,-6.775757E-1,2.489258E-1,-5.6892276E-1,-1.9363856E-2,9.377156E-1,7.315429E-1,2.7775827E-1,1.9404933E-1,-3.282648E-1,2.8434333E-1,2.9216573E-1,9.613576E-3,-5.0145937E-3,6.4039794E-3,-8.22823E-3,5.5206316E-3,-8.002406E-3,-6.1200727E-3,1.0147849E-2,-9.189714E-3,3.6411588E-3,-4.9508517E-3,1.1165165E-2,8.999357E-3,2.903818E-3,7.086892E-3,-1.004676E-2],"split_indices":[352,755,642,465,1013,100,755,878,899,815,1003,305,410,312,534,0,0,0,0,0,0,0,0,0,0,0,0,0,0,0,0],"split_type":[0,0,0,0,0,0,0,0,0,0,0,0,0,0,0,0,0,0,0,0,0,0,0,0,0,0,0,0,0,0,0],"sum_hessian":[3.858E3,1.898E3,1.96E3,4.49E2,1.449E3,1.56E2,1.804E3,2.81E2,1.68E2,1.415E3,3.4E1,8.4E1,7.2E1,1.72E3,8.4E1,1.4E1,2.67E2,1.5E2,1.8E1,3E0,1.412E3,1.7E1,1.7E1,8E1,4E0,5.4E1,1.8E1,1.333E3,3.87E2,1.6E1,6.8E1],"tree_param":{"num_deleted":"0","num_feature":"1024","num_nodes":"31","size_leaf_vector":"1"}},{"base_weights":[-4.461926E-3,-2.0305672E-1,2.0042446E-1,-5.455729E-2,-2.4490556E-1,-2.274054E-2,2.359213E-1,-1.6677627E-1,1.0282053E-1,1.991341E-2,-2.5143313E-1,-1.6066548E-1,1.452116E-1,-1.0301241E-1,2.6070842E-1,-6.150366E-3,4.5315507E-3,7.846507E-3,-3.915235E-3,-6.800405E-3,8.321935E-3,-7.662703E-3,6.797251E-5,-7.375065E-3,7.1462165E-3,9.08835E-3,-7.0011327E-3,-7.1112416E-3,5.9743742E-3,-3.9082495E-3,8.41802E-3],"categories":[],"categories_nodes":[],"categories_segments":[],"categories_sizes":[],"default_left":[0,0,0,0,0,0,0,0,0,0,0,0,0,0,0,0,0,0,0,0,0,0,0,0,0,0,0,0,0,0,0],"id":24,"left_children":[1,3,5,7,9,11,13,15,17,19,21,23,25,27,29,-1,-1,-1,-1,-1,-1,-1,-1,-1,-1,-1,-1,-1,-1,-1,-1],"loss_changes":[1.5714243E2,1.2053085E1,1.5112709E1,8.012865E0,2.689682E0,6.4877987E0,1.4054924E1,3.5057673E0,7.4152474E0,3.5495305E0,1.5151672E0,5.7833123E0,8.290808E0,5.291314E0,1.2280731E1,0E0,0E0,0E0,0E0,0E0,0E0,0E0,0E0,0E0,0E0,0E0,0E0,0E0,0E0,0E0,0E0],"parents":[2147483647,0,0,1,1,2,2,3,3,4,4,5,5,6,6,7,7,8,8,9,9,10,10,11,11,12,12,13,13,14,14],"right_children":[2,4,6,8,10,12,14,16,18,20,22,24,26,28,30,-1,-1,-1,-1,-1,-1,-1,-1,-1,-1,-1,-1,-1,-1,-1,-1],"split_conditions":[5.9256256E-2,-4.0698126E-1,2.6512703E-1,3.2459017E-2,3.9479664E-1,2.4894048E-1,-1.5156802E1,3.6371154E-1,2.7950788E-1,-5.6795653E-2,2.1441549E-1,3.2537587E-2,2.9774133E-2,4.509243E-1,4.7327805E-1,-6.150366E-3,4.5315507E-3,7.846507E-3,-3.915235E-3,-6.800405E-3,8.321935E-3,-7.662703E-3,6.797251E-5,-7.375065E-3,7.1462165E-3,9.08835E-3,-7.0011327E-3,-7.1112416E-3,5.9743742E-3,-3.9082495E-3,8.41802E-3],"split_indices":[733,262,211,714,1010,100,658,782,247,696,692,714,111,543,515,0,0,0,0,0,0,0,0,0,0,0,0,0,0,0,0],"split_type":[0,0,0,0,0,0,0,0,0,0,0,0,0,0,0,0,0,0,0,0,0,0,0,0,0,0,0,0,0,0,0],"sum_hessian":[3.842E3,1.951E3,1.891E3,4.34E2,1.517E3,2.6E2,1.631E3,2.53E2,1.81E2,3.6E1,1.481E3,1.43E2,1.17E2,1.09E2,1.522E3,2.29E2,2.4E1,1.07E2,7.4E1,1.9E1,1.7E1,1.458E3,2.3E1,1.21E2,2.2E1,8.4E1,3.3E1,7.7E1,3.2E1,7.1E1,1.451E3],"tree_param":{"num_deleted":"0","num_feature":"1024","num_nodes":"31","size_leaf_vector":"1"}},{"base_weights":[-8.932018E-3,1.9735837E-1,-1.8449132E-1,2.3443969E-2,2.276738E-1,-2.5830778E-1,-7.034001E-2,2.8804842E-1,-5.354762E-2,2.7111384E-1,5.6429207E-2,7.149265E-2,-2.5990945E-1,8.141067E-2,-1.9447035E-1,-7.944065E-3,1.2071966E-2,1.4946903E-2,-2.8348656E-3,-1.5297882E-3,8.829227E-3,8.406994E-3,-9.2342997E-4,-1.9088798E-3,4.4111228E-3,1.4641719E-3,-7.823438E-3,-5.7792346E-5,1.1407935E-2,9.776134E-3,-6.14708E-3],"categories":[],"categories_nodes":[],"categories_segments":[],"categories_sizes":[],"default_left":[0,0,0,0,0,0,0,0,0,0,0,0,0,0,0,0,0,0,0,0,0,0,0,0,0,0,0,0,0,0,0],"id":25,"left_children":[1,3,5,7,9,11,13,15,17,19,21,23,25,27,29,-1,-1,-1,-1,-1,-1,-1,-1,-1,-1,-1,-1,-1,-1,-1,-1],"loss_changes":[1.4106403E2,9.3892975E0,1.7547127E1,5.797375E0,1.1183853E1,8.5878754E-1,1.5981283E1,5.1115594E0,5.509298E0,9.212219E0,6.3515325E0,2.3646758E-1,4.6909332E-1,9.5959835E0,3.1919098E0,0E0,0E0,0E0,0E0,0E0,0E0,0E0,0E0,0E0,0E0,0E0,0E0,0E0,0E0,0E0,0E0],"parents":[2147483647,0,0,1,1,2,2,3,3,4,4,5,5,6,6,7,7,8,8,9,9,10,10,11,11,12,12,13,13,14,14],"right_children":[2,4,6,8,10,12,14,16,18,20,22,24,26,28,30,-1,-1,-1,-1,-1,-1,-1,-1,-1,-1,-1,-1,-1,-1,-1,-1],"split_conditions":[8.544504E0,-1.9064552E-1,1.0091578E-1,2.2258247E-1,1.4968076E-1,3.2344338E-1,2.5320464E-1,2.5708264E-1,6.266166E-2,7.3511803E-1,-2.8276298E-2,4.14128E-1,8.023886E-2,-4.827433E-1,8.549342E-2,-7.944065E-3,1.2071966E-2,1.4946903E-2,-2.8348656E-3,-1.5297882E-3,8.829227E-3,8.406994E-3,-9.2342997E-4,-1.9088798E-3,4.4111228E-3,1.4641719E-3,-7.823438E-3,-5.7792346E-5,1.1407935E-2,9.776134E-3,-6.14708E-3],"split_indices":[342,393,194,964,916,491,77,533,636,817,702,17,631,739,473,0,0,0,0,0,0,0,0,0,0,0,0,0,0,0,0],"split_type":[0,0,0,0,0,0,0,0,0,0,0,0,0,0,0,0,0,0,0,0,0,0,0,0,0,0,0,0,0,0,0],"sum_hessian":[3.875E3,1.781E3,2.094E3,2.67E2,1.514E3,1.264E3,8.3E2,5.4E1,2.13E2,1.203E3,3.11E2,4E0,1.26E3,3.75E2,4.55E2,7E0,4.7E1,7E0,2.06E2,8E1,1.123E3,8.1E1,2.3E2,2E0,2E0,2E0,1.258E3,3.01E2,7.4E1,3E0,4.52E2],"tree_param":{"num_deleted":"0","num_feature":"1024","num_nodes":"31","size_leaf_vector":"1"}},{"base_weights":[5.7104426E-3,-1.7447133E-1,2.2576463E-1,-1.3772321E-2,-2.3441626E-1,2.4505243E-1,-1.9579005E-1,-2.5697967E-1,5.659616E-2,1.9473141E-2,-2.4425815E-1,-1.09675094E-1,2.644374E-1,-3.2602367E-1,2.3676138E-1,8.1333695E-3,-8.552817E-3,-5.661886E-3,4.691283E-3,1.2822682E-2,-3.4560296E-3,7.499931E-3,-7.406715E-3,-6.9617215E-3,7.981377E-3,-1.2068317E-3,8.519866E-3,5.168461E-3,-1.1787542E-2,1.3577298E-2,-3.930608E-3],"categories":[],"categories_nodes":[],"categories_segments":[],"categories_sizes":[],"default_left":[0,0,0,0,0,0,0,0,0,0,0,0,0,0,0,0,0,0,0,0,0,0,0,0,0,0,0,0,0,0,0],"id":26,"left_children":[1,3,5,7,9,11,13,15,17,19,21,23,25,27,29,-1,-1,-1,-1,-1,-1,-1,-1,-1,-1,-1,-1,-1,-1,-1,-1],"loss_changes":[1.5590024E2,2.0794449E1,1.4871407E1,1.0379691E1,3.980606E0,1.1959251E1,5.4475155E0,2.7921038E0,1.1849021E1,4.228333E0,2.5896149E0,4.985631E0,9.719643E0,2.9436307E0,2.5772886E0,0E0,0E0,0E0,0E0,0E0,0E0,0E0,0E0,0E0,0E0,0E0,0E0,0E0,0E0,0E0,0E0],"parents":[2147483647,0,0,1,1,2,2,3,3,4,4,5,5,6,6,7,7,8,8,9,9,10,10,11,11,12,12,13,13,14,14],"right_children":[2,4,6,8,10,12,14,16,18,20,22,24,26,28,30,-1,-1,-1,-1,-1,-1,-1,-1,-1,-1,-1,-1,-1,-1,-1,-1],"split_conditions":[2.6514292E-1,-4.069831E-1,1.8844941E-1,2.650725E-1,-3.3752868E-1,-3.620404E-1,-8.593635E-1,3.8199794E-1,1.4019416E-1,4.2735285E-1,-4.569219E-1,-4.8270798E-1,3.9113525E-2,-4.2370896E0,4.7753572E-1,8.1333695E-3,-8.552817E-3,-5.661886E-3,4.691283E-3,1.2822682E-2,-3.4560296E-3,7.499931E-3,-7.406715E-3,-6.9617215E-3,7.981377E-3,-1.2068317E-3,8.519866E-3,5.168461E-3,-1.1787542E-2,1.3577298E-2,-3.930608E-3],"split_indices":[211,262,101,211,536,70,748,351,514,26,222,739,999,575,823,0,0,0,0,0,0,0,0,0,0,0,0,0,0,0,0],"split_type":[0,0,0,0,0,0,0,0,0,0,0,0,0,0,0,0,0,0,0,0,0,0,0,0,0,0,0,0,0,0,0],"sum_hessian":[3.912E3,2.152E3,1.76E3,5.88E2,1.564E3,1.687E3,7.3E1,1.26E2,4.62E2,5.8E1,1.506E3,8.5E1,1.602E3,5.8E1,1.5E1,2E0,1.24E2,1.31E2,3.31E2,9E0,4.9E1,3E0,1.503E3,6.7E1,1.8E1,9.6E1,1.506E3,5E0,5.3E1,8E0,7E0],"tree_param":{"num_deleted":"0","num_feature":"1024","num_nodes":"31","size_leaf_vector":"1"}},{"base_weights":[-2.332151E-3,-2.0107803E-1,1.6459541E-1,-2.2642915E-1,1.2090158E-2,-1.8589864E-2,2.148164E-1,1.1665538E-1,-2.3623793E-1,3.4668174E-1,-7.786701E-2,2.336112E-1,-7.531098E-2,2.7507216E-1,4.975104E-2,1.1123063E-2,-5.5444078E-3,5.392034E-3,-7.1866545E-3,-2.3335053E-3,1.6493242E-2,-4.533373E-3,6.2008E-3,-7.235588E-4,1.6048206E-2,5.75228E-4,-8.061964E-3,9.623449E-3,1.284629E-3,-6.203822E-3,4.535603E-3],"categories":[],"categories_nodes":[],"categories_segments":[],"categories_sizes":[],"default_left":[0,0,0,0,0,0,0,0,0,0,0,0,0,0,0,0,0,0,0,0,0,0,0,0,0,0,0,0,0,0,0],"id":27,"left_children":[1,3,5,7,9,11,13,15,17,19,21,23,25,27,29,-1,-1,-1,-1,-1,-1,-1,-1,-1,-1,-1,-1,-1,-1,-1,-1],"loss_changes":[1.2958531E2,9.662804E0,1.9571E1,5.6397705E0,6.259634E0,6.8421235E0,1.6443367E1,4.592204E0,2.5735092E0,4.2206955E0,3.7513924E0,6.9632287E0,7.1424E0,1.2803642E1,1.2231106E1,0E0,0E0,0E0,0E0,0E0,0E0,0E0,0E0,0E0,0E0,0E0,0E0,0E0,0E0,0E0,0E0],"parents":[2147483647,0,0,1,1,2,2,3,3,4,4,5,5,6,6,7,7,8,8,9,9,10,10,11,11,12,12,13,13,14,14],"right_children":[2,4,6,8,10,12,14,16,18,20,22,24,26,28,30,-1,-1,-1,-1,-1,-1,-1,-1,-1,-1,-1,-1,-1,-1,-1,-1],"split_conditions":[4.2107394E-1,-5.154064E-1,3.318464E-1,8.492912E-3,3.576265E-1,4.750181E-1,-8.3094515E-2,1.8550879E-1,2.2653252E-1,-4.5298654E-1,1.09549485E-1,-1.9481613E-1,6.27644E-1,-1.234662E-1,1.9610874E-1,1.1123063E-2,-5.5444078E-3,5.392034E-3,-7.1866545E-3,-2.3335053E-3,1.6493242E-2,-4.533373E-3,6.2008E-3,-7.235588E-4,1.6048206E-2,5.75228E-4,-8.061964E-3,9.623449E-3,1.284629E-3,-6.203822E-3,4.535603E-3],"split_indices":[352,7,199,683,846,357,13,549,150,197,443,530,324,497,671,0,0,0,0,0,0,0,0,0,0,0,0,0,0,0,0],"split_type":[0,0,0,0,0,0,0,0,0,0,0,0,0,0,0,0,0,0,0,0,0,0,0,0,0,0,0,0,0,0,0],"sum_hessian":[3.886E3,1.773E3,2.113E3,1.584E3,1.89E2,4.56E2,1.657E3,4.1E1,1.543E3,3.4E1,1.55E2,7.8E1,3.78E2,1.209E3,4.48E2,2.1E1,2E1,8E0,1.535E3,1.3E1,2.1E1,1.27E2,2.8E1,4.7E1,3.1E1,2.6E2,1.18E2,1.007E3,2.02E2,1.24E2,3.24E2],"tree_param":{"num_deleted":"0","num_feature":"1024","num_nodes":"31","size_leaf_vector":"1"}},{"base_weights":[-9.062871E-3,-1.6507728E-1,1.7518604E-1,-3.768578E-2,-2.2200054E-1,2.6015422E-1,9.453295E-2,5.588789E-2,-1.7979556E-1,-2.2767207E-1,3.9233592E-1,3.1609443E-1,-3.6982376E-2,1.6268665E-1,-7.974557E-2,1.5880344E-2,-3.871863E-4,4.878962E-3,-6.158189E-3,-6.9022607E-3,5.495295E-3,1.6611608E-2,-2.4977853E-3,1.5058817E-2,7.338156E-3,7.421792E-3,-7.5757345E-3,7.2864494E-3,-4.39912E-3,6.8419874E-3,-5.2549853E-3],"categories":[],"categories_nodes":[],"categories_segments":[],"categories_sizes":[],"default_left":[0,0,0,0,0,0,0,0,0,0,0,0,0,0,0,0,0,0,0,0,0,0,0,0,0,0,0,0,0,0,0],"id":28,"left_children":[1,3,5,7,9,11,13,15,17,19,21,23,25,27,29,-1,-1,-1,-1,-1,-1,-1,-1,-1,-1,-1,-1,-1,-1,-1,-1],"loss_changes":[1.1208038E2,1.5224339E1,1.20071335E1,8.93018E0,5.9697495E0,1.4494827E1,1.1211653E1,1.3357305E1,2.6544685E0,1.853157E0,1.7658372E0,8.458717E0,9.573783E0,1.7075563E1,8.300453E0,0E0,0E0,0E0,0E0,0E0,0E0,0E0,0E0,0E0,0E0,0E0,0E0,0E0,0E0,0E0,0E0],"parents":[2147483647,0,0,1,1,2,2,3,3,4,4,5,5,6,6,7,7,8,8,9,9,10,10,11,11,12,12,13,13,14,14],"right_children":[2,4,6,8,10,12,14,16,18,20,22,24,26,28,30,-1,-1,-1,-1,-1,-1,-1,-1,-1,-1,-1,-1,-1,-1,-1,-1],"split_conditions":[5.927663E-2,-3.2181688E-2,-2.8114387E-1,2.5328523E-1,4.0493417E-1,7.255389E-2,1.871188E-2,2.4197921E-2,-4.6666452E-1,-6.774989E-1,1.4378096E0,7.246985E-2,-8.028503E-2,3.576125E-1,-1.4870526E0,1.5880344E-2,-3.871863E-4,4.878962E-3,-6.158189E-3,-6.9022607E-3,5.495295E-3,1.6611608E-2,-2.4977853E-3,1.5058817E-2,7.338156E-3,7.421792E-3,-7.5757345E-3,7.2864494E-3,-4.39912E-3,6.8419874E-3,-5.2549853E-3],"split_indices":[733,808,129,77,69,1016,85,177,797,1013,34,1016,831,846,769,0,0,0,0,0,0,0,0,0,0,0,0,0,0,0,0],"split_type":[0,0,0,0,0,0,0,0,0,0,0,0,0,0,0,0,0,0,0,0,0,0,0,0,0,0,0,0,0,0,0],"sum_hessian":[3.879E3,2.101E3,1.778E3,6.54E2,1.447E3,8.55E2,9.23E2,3.98E2,2.56E2,1.44E3,7E0,7.19E2,1.36E2,6.64E2,2.59E2,4.2E1,3.56E2,1.4E1,2.42E2,1.436E3,4E0,4E0,3E0,1.83E2,5.36E2,5.8E1,7.8E1,5.29E2,1.35E2,5.8E1,2.01E2],"tree_param":{"num_deleted":"0","num_feature":"1024","num_nodes":"31","size_leaf_vector":"1"}},{"base_weights":[6.9659003E-3,2.0501158E-1,-1.6587625E-1,-1.8898146E-1,2.2420706E-1,-2.2834718E-1,-6.1481997E-2,1.7557041E-1,-3.5367087E-1,5.5142704E-2,2.7993158E-1,7.849175E-2,-2.3058596E-1,1.5206544E-1,-1.6751537E-1,1.1847342E-2,-5.591731E-3,-1.16385985E-2,3.7168341E-3,3.4803338E-3,-9.469681E-3,-2.8661524E-3,8.993785E-3,-3.015208E-3,5.6591784E-3,-6.9601596E-3,2.6846866E-3,6.8614255E-3,-5.532646E-3,2.7491963E-3,-5.5999295E-3],"categories":[],"categories_nodes":[],"categories_segments":[],"categories_sizes":[],"default_left":[0,0,0,0,0,0,0,0,0,0,0,0,0,0,0,0,0,0,0,0,0,0,0,0,0,0,0,0,0,0,0],"id":29,"left_children":[1,3,5,7,9,11,13,15,17,19,21,23,25,27,29,-1,-1,-1,-1,-1,-1,-1,-1,-1,-1,-1,-1,-1,-1,-1,-1],"loss_changes":[1.3531148E2,1.4354546E1,1.362672E1,6.084383E0,1.6436073E1,1.0856934E0,1.8459827E1,3.5148342E0,1.5612116E0,1.0500099E1,1.0144974E1,5.2477205E-1,8.0275726E-1,7.437034E0,2.8607655E0,0E0,0E0,0E0,0E0,0E0,0E0,0E0,0E0,0E0,0E0,0E0,0E0,0E0,0E0,0E0,0E0],"parents":[2147483647,0,0,1,1,2,2,3,3,4,4,5,5,6,6,7,7,8,8,9,9,10,10,11,11,12,12,13,13,14,14],"right_children":[2,4,6,8,10,12,14,16,18,20,22,24,26,28,30,-1,-1,-1,-1,-1,-1,-1,-1,-1,-1,-1,-1,-1,-1,-1,-1],"split_conditions":[8.544504E0,-5.293237E-1,-1.1305425E-1,-2.5401428E0,-9.5835215E-1,2.8531662E-1,8.546485E0,2.6537737E-1,4.166454E-1,5.8462226E-1,-1.3971625E-1,2.6532432E-1,1.4015245E-1,9.3768877E-1,9.62782E-1,1.1847342E-2,-5.591731E-3,-1.16385985E-2,3.7168341E-3,3.4803338E-3,-9.469681E-3,-2.8661524E-3,8.993785E-3,-3.015208E-3,5.6591784E-3,-6.9601596E-3,2.6846866E-3,6.8614255E-3,-5.532646E-3,2.7491963E-3,-5.5999295E-3],"split_indices":[342,375,3,529,153,196,342,656,399,360,96,656,691,899,679,0,0,0,0,0,0,0,0,0,0,0,0,0,0,0,0],"split_type":[0,0,0,0,0,0,0,0,0,0,0,0,0,0,0,0,0,0,0,0,0,0,0,0,0,0,0,0,0,0,0],"sum_hessian":[3.933E3,1.832E3,2.101E3,8.1E1,1.751E3,1.307E3,7.94E2,2.5E1,5.6E1,4.39E2,1.312E3,7E0,1.3E3,2.62E2,5.32E2,1.5E1,1E1,5.4E1,2E0,3.83E2,5.6E1,6.4E1,1.248E3,3E0,4E0,1.297E3,3E0,2.16E2,4.6E1,3.4E1,4.98E2],"tree_param":{"num_deleted":"0","num_feature":"1024","num_nodes":"31","size_leaf_vector":"1"}},{"base_weights":[-8.854323E-3,1.4234819E-1,-1.7821556E-1,1.7272906E-1,-7.2163425E-2,-1.9219252E-1,2.5793588E-1,2.6985044E-3,2.143048E-1,1.6827788E-2,-3.2721612E-1,7.663267E-2,-2.0122896E-1,-1.6615252E-1,4.741014E-1,1.1030365E-2,-1.7350707E-3,-3.2590732E-3,7.006632E-3,-4.7023925E-3,7.844094E-3,3.149532E-3,-1.1118974E-2,1.4527277E-2,-2.2604386E-3,5.472235E-3,-6.156506E-3,-1.0361516E-2,5.524077E-3,1.8843714E-2,-2.6632887E-3],"categories":[],"categories_nodes":[],"categories_segments":[],"categories_sizes":[],"default_left":[0,0,0,0,0,0,0,0,0,0,0,0,0,0,0,0,0,0,0,0,0,0,0,0,0,0,0,0,0,0,0],"id":30,"left_children":[1,3,5,7,9,11,13,15,17,19,21,23,25,27,29,-1,-1,-1,-1,-1,-1,-1,-1,-1,-1,-1,-1,-1,-1,-1,-1],"loss_changes":[9.920239E1,1.3465046E1,1.1633259E1,1.2690407E1,5.979098E0,4.468498E0,6.3798013E0,8.232696E0,9.224098E0,9.029944E0,1.6650972E0,4.3915396E0,3.0073166E0,2.3938904E0,4.2855444E0,0E0,0E0,0E0,0E0,0E0,0E0,0E0,0E0,0E0,0E0,0E0,0E0,0E0,0E0,0E0,0E0],"parents":[2147483647,0,0,1,1,2,2,3,3,4,4,5,5,6,6,7,7,8,8,9,9,10,10,11,11,12,12,13,13,14,14],"right_children":[2,4,6,8,10,12,14,16,18,20,22,24,26,28,30,-1,-1,-1,-1,-1,-1,-1,-1,-1,-1,-1,-1,-1,-1,-1,-1],"split_conditions":[-2.8877187E-1,-5.067354E-1,2.0161685E-1,-5.574573E-1,-1.3928907E-1,1.2582205E-1,5.5516696E-1,7.425109E-1,-5.292765E-1,1.402519E-1,5.499976E-1,1.9298774E-1,2.62584E-1,2.2936387E-1,3.2119083E-1,1.1030365E-2,-1.7350707E-3,-3.2590732E-3,7.006632E-3,-4.7023925E-3,7.844094E-3,3.149532E-3,-1.1118974E-2,1.4527277E-2,-2.2604386E-3,5.472235E-3,-6.156506E-3,-1.0361516E-2,5.524077E-3,1.8843714E-2,-2.6632887E-3],"split_indices":[142,401,794,127,922,365,666,313,375,514,38,289,594,798,302,0,0,0,0,0,0,0,0,0,0,0,0,0,0,0,0],"split_type":[0,0,0,0,0,0,0,0,0,0,0,0,0,0,0,0,0,0,0,0,0,0,0,0,0,0,0,0,0,0,0],"sum_hessian":[3.854E3,2.037E3,1.817E3,1.786E3,2.51E2,1.766E3,5.1E1,3.53E2,1.433E3,1.93E2,5.8E1,5.5E1,1.711E3,1.8E1,3.3E1,4.3E1,3.1E2,7.8E1,1.355E3,1.15E2,7.8E1,4E0,5.4E1,9E0,4.6E1,1.3E1,1.698E3,1.2E1,6E0,2.5E1,8E0],"tree_param":{"num_deleted":"0","num_feature":"1024","num_nodes":"31","size_leaf_vector":"1"}},{"base_weights":[-7.850749E-4,-1.5837823E-1,1.590318E-1,-2.0051663E-1,4.9251903E-2,-1.9710885E-1,1.7992458E-1,-2.0854306E-1,1.3400708E-1,1.3614587E-1,-1.6943245E-1,-3.897902E-1,6.1737154E-2,2.1029757E-1,-9.590749E-2,4.093118E-3,-6.3746506E-3,-4.202057E-3,1.194996E-2,-4.097402E-3,9.413726E-3,-7.348421E-3,3.366899E-3,1.669974E-3,-1.359449E-2,-8.43283E-3,8.943096E-3,6.915392E-3,-3.8234915E-3,1.0548444E-2,-4.3156724E-3],"categories":[],"categories_nodes":[],"categories_segments":[],"categories_sizes":[],"default_left":[0,0,0,0,0,0,0,0,0,0,0,0,0,0,0,0,0,0,0,0,0,0,0,0,0,0,0,0,0,0,0],"id":31,"left_children":[1,3,5,7,9,11,13,15,17,19,21,23,25,27,29,-1,-1,-1,-1,-1,-1,-1,-1,-1,-1,-1,-1,-1,-1,-1,-1],"loss_changes":[9.7243324E1,1.7107204E1,1.4618599E1,4.623848E0,6.615465E0,5.776748E0,1.5415859E1,2.4458084E0,3.745519E0,1.2346882E1,2.4018757E0,2.0868006E0,5.37584E0,1.1484436E1,4.518449E0,0E0,0E0,0E0,0E0,0E0,0E0,0E0,0E0,0E0,0E0,0E0,0E0,0E0,0E0,0E0,0E0],"parents":[2147483647,0,0,1,1,2,2,3,3,4,4,5,5,6,6,7,7,8,8,9,9,10,10,11,11,12,12,13,13,14,14],"right_children":[2,4,6,8,10,12,14,16,18,20,22,24,26,28,30,-1,-1,-1,-1,-1,-1,-1,-1,-1,-1,-1,-1,-1,-1,-1,-1],"split_conditions":[2.519667E-1,4.6518862E-2,-5.157211E-1,-4.9237972E-1,6.3408476E-1,8.7699406E-2,-6.342764E-1,-6.65473E-1,2.6850676E-2,-5.101058E-1,3.6134815E-1,-2.483367E-1,2.1302992E-1,-5.6892276E-1,1.4151262E-1,4.093118E-3,-6.3746506E-3,-4.202057E-3,1.194996E-2,-4.097402E-3,9.413726E-3,-7.348421E-3,3.366899E-3,1.669974E-3,-1.359449E-2,-8.43283E-3,8.943096E-3,6.915392E-3,-3.8234915E-3,1.0548444E-2,-4.3156724E-3],"split_indices":[752,883,7,330,644,398,759,284,25,734,909,225,205,755,432,0,0,0,0,0,0,0,0,0,0,0,0,0,0,0,0],"split_type":[0,0,0,0,0,0,0,0,0,0,0,0,0,0,0,0,0,0,0,0,0,0,0,0,0,0,0,0,0,0,0],"sum_hessian":[3.841E3,1.934E3,1.907E3,1.608E3,3.26E2,1.01E2,1.806E3,1.574E3,3.4E1,2.36E2,9E1,5.5E1,4.6E1,1.629E3,1.77E2,1.4E1,1.56E3,1.9E1,1.5E1,9.4E1,1.42E2,7.2E1,1.8E1,7E0,4.8E1,1.8E1,2.8E1,1.54E3,8.9E1,1.1E1,1.66E2],"tree_param":{"num_deleted":"0","num_feature":"1024","num_nodes":"31","size_leaf_vector":"1"}},{"base_weights":[-1.6923225E-3,1.7804556E-1,-1.498376E-1,-1.5168904E-1,2.0032068E-1,4.7113236E-2,-1.8847702E-1,-3.3328432E-1,2.3833175E-1,-1.5194502E-1,2.194505E-1,2.2289595E-1,-1.6039328E-1,-1.9598663E-1,1.2426392E-1,-1.1858488E-2,6.46294E-3,1.5335315E-2,-2.711962E-3,1.2778523E-2,-8.809335E-3,7.8042303E-3,1.7380136E-3,1.9655644E-4,1.384675E-2,2.260125E-3,-6.8126773E-3,1.0247579E-3,-6.1608832E-3,-6.2973816E-3,1.0708499E-2],"categories":[],"categories_nodes":[],"categories_segments":[],"categories_sizes":[],"default_left":[0,0,0,0,0,0,0,0,0,0,0,0,0,0,0,0,0,0,0,0,0,0,0,0,0,0,0,0,0,0,0],"id":32,"left_children":[1,3,5,7,9,11,13,15,17,19,21,23,25,27,29,-1,-1,-1,-1,-1,-1,-1,-1,-1,-1,-1,-1,-1,-1,-1,-1],"loss_changes":[1.03660645E2,1.3223499E1,1.6328686E1,9.080957E0,1.14659195E1,1.3415939E1,4.438072E0,3.7092113E0,4.31888E0,8.702545E0,1.0174217E1,1.0193131E1,2.843872E0,3.8421173E0,4.481679E0,0E0,0E0,0E0,0E0,0E0,0E0,0E0,0E0,0E0,0E0,0E0,0E0,0E0,0E0,0E0,0E0],"parents":[2147483647,0,0,1,1,2,2,3,3,4,4,5,5,6,6,7,7,8,8,9,9,10,10,11,11,12,12,13,13,14,14],"right_children":[2,4,6,8,10,12,14,16,18,20,22,24,26,28,30,-1,-1,-1,-1,-1,-1,-1,-1,-1,-1,-1,-1,-1,-1,-1,-1],"split_conditions":[8.544504E0,-1.5156802E1,-5.690221E-1,3.1323755E-1,-5.2931523E-1,8.54675E0,-1.3842593E-1,-9.58168E-1,-2.9555524E-2,3.156726E-1,-1.707942E-1,-5.154182E-1,-1.5182012E-1,-4.0955022E-1,2.9410407E-1,-1.1858488E-2,6.46294E-3,1.5335315E-2,-2.711962E-3,1.2778523E-2,-8.809335E-3,7.8042303E-3,1.7380136E-3,1.9655644E-4,1.384675E-2,2.260125E-3,-6.8126773E-3,1.0247579E-3,-6.1608832E-3,-6.2973816E-3,1.0708499E-2],"split_indices":[342,658,755,389,375,342,396,153,648,160,143,7,927,819,323,0,0,0,0,0,0,0,0,0,0,0,0,0,0,0,0],"split_type":[0,0,0,0,0,0,0,0,0,0,0,0,0,0,0,0,0,0,0,0,0,0,0,0,0,0,0,0,0,0,0],"sum_hessian":[3.873E3,1.749E3,2.124E3,1.07E2,1.642E3,3.48E2,1.776E3,7.4E1,3.3E1,8.1E1,1.561E3,1.88E2,1.6E2,1.738E3,3.8E1,6.9E1,5E0,1.5E1,1.8E1,1.2E1,6.9E1,1.242E3,3.19E2,1.04E2,8.4E1,3.5E1,1.25E2,6.7E1,1.671E3,1.6E1,2.2E1],"tree_param":{"num_deleted":"0","num_feature":"1024","num_nodes":"31","size_leaf_vector":"1"}},{"base_weights":[-3.4673228E-3,-1.4368577E-1,1.5317683E-1,-2.014771E-1,-3.7719693E-2,1.743036E-1,-1.02860026E-1,-2.0427558E-1,1.1629878E-1,-1.2075082E-1,1.4471757E-1,2.223163E-1,3.0341681E-2,7.3401E-2,-3.4291744E-1,-6.187776E-3,5.534526E-3,-3.2159945E-3,7.701805E-3,7.1827155E-3,-4.2516757E-3,6.9552287E-3,-5.301662E-3,7.8202365E-3,-1.3443E-4,8.122929E-3,-2.3194996E-3,7.403226E-3,-6.897889E-3,4.3411353E-3,-1.1718627E-2],"categories":[],"categories_nodes":[],"categories_segments":[],"categories_sizes":[],"default_left":[0,0,0,0,0,0,0,0,0,0,0,0,0,0,0,0,0,0,0,0,0,0,0,0,0,0,0,0,0,0,0],"id":33,"left_children":[1,3,5,7,9,11,13,15,17,19,21,23,25,27,29,-1,-1,-1,-1,-1,-1,-1,-1,-1,-1,-1,-1,-1,-1,-1,-1],"loss_changes":[8.5837326E1,1.2551525E1,1.016473E1,1.4221039E0,1.1384248E1,1.17451515E1,6.4716816E0,1.4015274E0,8.4014916E-1,4.221806E0,7.0188737E0,1.114711E1,1.1572205E1,5.458222E0,2.0539656E0,0E0,0E0,0E0,0E0,0E0,0E0,0E0,0E0,0E0,0E0,0E0,0E0,0E0,0E0,0E0,0E0],"parents":[2147483647,0,0,1,1,2,2,3,3,4,4,5,5,6,6,7,7,8,8,9,9,10,10,11,11,12,12,13,13,14,14],"right_children":[2,4,6,8,10,12,14,16,18,20,22,24,26,28,30,-1,-1,-1,-1,-1,-1,-1,-1,-1,-1,-1,-1,-1,-1,-1,-1],"split_conditions":[-1.6029741E-1,-4.2902347E-1,-6.3041675E-1,-8.538427E-2,-3.282648E-1,-9.344178E-1,3.3396602E-1,-1.5093477E-1,9.8447055E-1,-5.5907816E-1,-6.342507E-1,-4.3317518E-1,-2.8116968E-1,-5.588287E-1,-5.7214564E-1,-6.187776E-3,5.534526E-3,-3.2159945E-3,7.701805E-3,7.1827155E-3,-4.2516757E-3,6.9552287E-3,-5.301662E-3,7.8202365E-3,-1.3443E-4,8.122929E-3,-2.3194996E-3,7.403226E-3,-6.897889E-3,4.3411353E-3,-1.1718627E-2],"split_indices":[505,12,379,387,410,364,498,984,48,35,759,10,129,35,539,0,0,0,0,0,0,0,0,0,0,0,0,0,0,0,0],"split_type":[0,0,0,0,0,0,0,0,0,0,0,0,0,0,0,0,0,0,0,0,0,0,0,0,0,0,0,0,0,0,0],"sum_hessian":[3.888E3,2.052E3,1.836E3,1.322E3,7.3E2,1.699E3,1.37E2,1.314E3,8E0,5.04E2,2.26E2,1.27E3,4.29E2,8.3E1,5.4E1,1.312E3,2E0,4E0,4E0,2.2E1,4.82E2,1.8E2,4.6E1,1.085E3,1.85E2,1.28E2,3.01E2,5.4E1,2.9E1,3E0,5.1E1],"tree_param":{"num_deleted":"0","num_feature":"1024","num_nodes":"31","size_leaf_vector":"1"}},{"base_weights":[-6.432943E-4,-1.533045E-1,1.5186432E-1,-1.8287304E-1,-1.580273E-2,-8.107137E-2,1.7767711E-1,-1.8752207E-1,3.2964605E-1,-1.8543157E-1,9.6716404E-2,-2.2267291E-1,1.7588083E-1,2.0548326E-1,-3.6681693E-2,5.030585E-3,-5.7453304E-3,1.258849E-2,-1.9505809E-3,-8.225991E-3,1.1420351E-3,8.563118E-3,-1.5986294E-3,-9.5930295E-3,6.615342E-3,-6.0050185E-3,9.47367E-3,5.0300173E-3,1.1330814E-2,-4.196686E-3,6.290833E-3],"categories":[],"categories_nodes":[],"categories_segments":[],"categories_sizes":[],"default_left":[0,0,0,0,0,0,0,0,0,0,0,0,0,0,0,0,0,0,0,0,0,0,0,0,0,0,0,0,0,0,0],"id":34,"left_children":[1,3,5,7,9,11,13,15,17,19,21,23,25,27,29,-1,-1,-1,-1,-1,-1,-1,-1,-1,-1,-1,-1,-1,-1,-1,-1],"loss_changes":[9.056696E1,7.874874E0,1.1844799E1,4.4281273E0,6.9550476E0,7.7049894E0,1.0536037E1,2.5754433E0,9.119787E-1,2.9811277E0,6.38006E0,6.47126E0,4.6832466E0,9.493385E0,5.6332107E0,0E0,0E0,0E0,0E0,0E0,0E0,0E0,0E0,0E0,0E0,0E0,0E0,0E0,0E0,0E0,0E0],"parents":[2147483647,0,0,1,1,2,2,3,3,4,4,5,5,6,6,7,7,8,8,9,9,10,10,11,11,12,12,13,13,14,14],"right_children":[2,4,6,8,10,12,14,16,18,20,22,24,26,28,30,-1,-1,-1,-1,-1,-1,-1,-1,-1,-1,-1,-1,-1,-1,-1,-1],"split_conditions":[5.9254322E-2,3.3229336E-1,1.268691E-1,4.376228E-1,-7.885521E-2,2.4340305E-1,5.621433E-1,1.3428838E0,3.049536E-1,-3.0730626E-1,4.556069E-1,4.8350397E-2,5.4705274E-1,3.139011E-1,-1.143903E-1,5.030585E-3,-5.7453304E-3,1.258849E-2,-1.9505809E-3,-8.225991E-3,1.1420351E-3,8.563118E-3,-1.5986294E-3,-9.5930295E-3,6.615342E-3,-6.0050185E-3,9.47367E-3,5.0300173E-3,1.1330814E-2,-4.196686E-3,6.290833E-3],"split_indices":[733,474,623,445,627,164,209,687,24,896,105,639,866,803,710,0,0,0,0,0,0,0,0,0,0,0,0,0,0,0,0],"split_type":[0,0,0,0,0,0,0,0,0,0,0,0,0,0,0,0,0,0,0,0,0,0,0,0,0,0,0,0,0,0,0],"sum_hessian":[3.87E3,1.934E3,1.936E3,1.589E3,3.45E2,1.91E2,1.745E3,1.581E3,8E0,1.35E2,2.1E2,1.24E2,6.7E1,1.545E3,2E2,1.3E1,1.568E3,6E0,2E0,9.5E1,4E1,8.9E1,1.21E2,1.04E2,2E1,1.7E1,5E1,1.283E3,2.62E2,1.44E2,5.6E1],"tree_param":{"num_deleted":"0","num_feature":"1024","num_nodes":"31","size_leaf_vector":"1"}},{"base_weights":[-9.296693E-5,1.7451033E-1,-1.3007763E-1,2.2175486E-1,1.7719006E-2,-1.8046154E-1,-2.431888E-2,-9.51539E-3,2.5440228E-1,-2.4441332E-1,7.828608E-2,2.2678225E-1,-1.847282E-1,-5.8149435E-2,2.8580463E-1,7.124614E-3,-4.1912007E-3,-1.5283058E-3,8.476593E-3,7.899661E-3,-9.766527E-3,7.156107E-3,-1.5148671E-3,-3.9481577E-3,1.1958972E-2,4.7938847E-3,-5.672715E-3,-3.3383013E-3,2.6097354E-3,1.7442593E-2,-4.3004104E-5],"categories":[],"categories_nodes":[],"categories_segments":[],"categories_sizes":[],"default_left":[0,0,0,0,0,0,0,0,0,0,0,0,0,0,0,0,0,0,0,0,0,0,0,0,0,0,0,0,0,0,0],"id":35,"left_children":[1,3,5,7,9,11,13,15,17,19,21,23,25,27,29,-1,-1,-1,-1,-1,-1,-1,-1,-1,-1,-1,-1,-1,-1,-1,-1],"loss_changes":[8.753755E1,1.2153507E1,1.1737518E1,9.567886E0,6.4149647E0,3.0183334E0,7.7726407E0,5.6699443E0,9.668015E0,3.988175E0,6.8482313E0,1.7564003E0,2.5354996E0,5.2014346E0,6.206905E0,0E0,0E0,0E0,0E0,0E0,0E0,0E0,0E0,0E0,0E0,0E0,0E0,0E0,0E0,0E0,0E0],"parents":[2147483647,0,0,1,1,2,2,3,3,4,4,5,5,6,6,7,7,8,8,9,9,10,10,11,11,12,12,13,13,14,14],"right_children":[2,4,6,8,10,12,14,16,18,20,22,24,26,28,30,-1,-1,-1,-1,-1,-1,-1,-1,-1,-1,-1,-1,-1,-1,-1,-1],"split_conditions":[8.543796E0,7.4797934E-1,1.4877328E-1,-4.6667984E-1,-9.356726E-2,5.5883236E-2,4.84069E-2,3.362772E-1,7.351362E-1,4.947416E-1,6.601454E-1,4.2106798E-1,-3.5349655E-1,3.907974E-1,2.7837473E-1,7.124614E-3,-4.1912007E-3,-1.5283058E-3,8.476593E-3,7.899661E-3,-9.766527E-3,7.156107E-3,-1.5148671E-3,-3.9481577E-3,1.1958972E-2,4.7938847E-3,-5.672715E-3,-3.3383013E-3,2.6097354E-3,1.7442593E-2,-4.3004104E-5],"split_indices":[342,304,361,64,163,511,639,31,817,478,479,352,580,620,1019,0,0,0,0,0,0,0,0,0,0,0,0,0,0,0,0],"split_type":[0,0,0,0,0,0,0,0,0,0,0,0,0,0,0,0,0,0,0,0,0,0,0,0,0,0,0,0,0,0,0],"sum_hessian":[3.837E3,1.636E3,2.201E3,1.254E3,3.82E2,1.486E3,7.15E2,1.56E2,1.098E3,6.6E1,3.16E2,1E1,1.476E3,6.52E2,6.3E1,5.1E1,1.05E2,9.2E1,1.006E3,6E0,6E1,1.37E2,1.79E2,4E0,6E0,1.4E1,1.462E3,4.79E2,1.73E2,2.6E1,3.7E1],"tree_param":{"num_deleted":"0","num_feature":"1024","num_nodes":"31","size_leaf_vector":"1"}},{"base_weights":[1.6942438E-3,-1.3198967E-1,1.6121364E-1,-1.8647443E-1,-4.0005684E-2,-1.5659887E-2,1.960006E-1,-1.8951538E-1,7.950053E-2,1.08560674E-1,-1.5152968E-1,-9.5854595E-2,2.8319022E-1,5.620406E-2,2.540899E-1,-5.321088E-3,-8.888173E-3,-4.9993237E-3,9.163924E-3,-1.4966627E-4,8.451449E-3,3.0613274E-3,-4.9795234E-3,2.3893048E-3,-6.107702E-3,1.5201035E-2,-6.8197805E-3,-4.8848134E-3,4.1093314E-3,9.150221E-3,-5.2323926E-4],"categories":[],"categories_nodes":[],"categories_segments":[],"categories_sizes":[],"default_left":[0,0,0,0,0,0,0,0,0,0,0,0,0,0,0,0,0,0,0,0,0,0,0,0,0,0,0,0,0,0,0],"id":36,"left_children":[1,3,5,7,9,11,13,15,17,19,21,23,25,27,29,-1,-1,-1,-1,-1,-1,-1,-1,-1,-1,-1,-1,-1,-1,-1,-1],"loss_changes":[8.274123E1,1.050515E1,1.0915161E1,1.2207336E0,1.3386335E1,7.46131E0,1.1867676E1,1.174408E0,1.7326722E0,6.8562894E0,1.8553991E0,4.7755446E0,8.6828575E0,8.131339E0,1.4459564E1,0E0,0E0,0E0,0E0,0E0,0E0,0E0,0E0,0E0,0E0,0E0,0E0,0E0,0E0,0E0,0E0],"parents":[2147483647,0,0,1,1,2,2,3,3,4,4,5,5,6,6,7,7,8,8,9,9,10,10,11,11,12,12,13,13,14,14],"right_children":[2,4,6,8,10,12,14,16,18,20,22,24,26,28,30,-1,-1,-1,-1,-1,-1,-1,-1,-1,-1,-1,-1,-1,-1,-1,-1],"split_conditions":[2.6514035E-1,-8.559092E-2,-4.666615E-1,-3.690183E-1,-1.3691221E0,-6.260707E-1,-9.5831853E-1,-1.3701525E-1,2.6506627E-1,-1.7526563E-1,3.9842296E-2,9.685278E-2,-6.993494E-2,1.2687208E-1,1.0755397E0,-5.321088E-3,-8.888173E-3,-4.9993237E-3,9.163924E-3,-1.4966627E-4,8.451449E-3,3.0613274E-3,-4.9795234E-3,2.3893048E-3,-6.107702E-3,1.5201035E-2,-6.8197805E-3,-4.8848134E-3,4.1093314E-3,9.150221E-3,-5.2323926E-4],"split_indices":[211,387,64,301,601,821,153,521,211,764,1006,472,616,623,809,0,0,0,0,0,0,0,0,0,0,0,0,0,0,0,0],"split_type":[0,0,0,0,0,0,0,0,0,0,0,0,0,0,0,0,0,0,0,0,0,0,0,0,0,0,0,0,0,0,0],"sum_hessian":[3.86E3,2.101E3,1.759E3,1.313E3,7.88E2,2.9E2,1.469E3,1.301E3,1.2E1,3.38E2,4.5E2,2.34E2,5.6E1,4.37E2,1.032E3,1.192E3,1.09E2,7E0,5E0,2.1E2,1.28E2,2.1E1,4.29E2,9E1,1.44E2,3.9E1,1.7E1,1.15E2,3.22E2,8.68E2,1.64E2],"tree_param":{"num_deleted":"0","num_feature":"1024","num_nodes":"31","size_leaf_vector":"1"}},{"base_weights":[7.1743713E-3,-1.2722862E-1,1.4605978E-1,7.930712E-2,-1.5355837E-1,1.6015716E-1,-1.9970177E-1,2.6764148E-1,-6.915988E-2,-1.6783006E-1,1.9671537E-2,1.734431E-1,-2.40856E-1,-2.9222274E-1,1.5262002E-1,1.58021E-2,1.0540215E-3,-5.033141E-3,5.026109E-3,-5.1815957E-3,1.1810944E-2,-5.1511335E-3,5.820677E-3,-2.4327966E-3,5.7745543E-3,6.3300827E-3,-9.763143E-3,-1.0583342E-2,4.4655246E-3,9.836599E-3,-5.827683E-3],"categories":[],"categories_nodes":[],"categories_segments":[],"categories_sizes":[],"default_left":[0,0,0,0,0,0,0,0,0,0,0,0,0,0,0,0,0,0,0,0,0,0,0,0,0,0,0,0,0,0,0],"id":37,"left_children":[1,3,5,7,9,11,13,15,17,19,21,23,25,27,29,-1,-1,-1,-1,-1,-1,-1,-1,-1,-1,-1,-1,-1,-1,-1,-1],"loss_changes":[7.223897E1,1.0818396E1,9.59568E0,6.58827E0,4.3545685E0,1.0188999E1,3.021165E0,6.0198164E0,3.4554589E0,5.1171417E0,5.071203E0,8.788414E0,3.0944912E0,2.287931E0,2.0352435E0,0E0,0E0,0E0,0E0,0E0,0E0,0E0,0E0,0E0,0E0,0E0,0E0,0E0,0E0,0E0,0E0],"parents":[2147483647,0,0,1,1,2,2,3,3,4,4,5,5,6,6,7,7,8,8,9,9,10,10,11,11,12,12,13,13,14,14],"right_children":[2,4,6,8,10,12,14,16,18,20,22,24,26,28,30,-1,-1,-1,-1,-1,-1,-1,-1,-1,-1,-1,-1,-1,-1,-1,-1],"split_conditions":[5.9259918E-2,-5.690329E-1,1.8844941E-1,-6.614715E-1,1.01082966E-1,-9.227168E-2,3.6339208E-1,-6.517453E-1,-3.690725E-1,-5.456373E-1,-5.458823E-1,5.0626546E-1,2.431585E-2,-5.7336915E-1,2.578478E-1,1.58021E-2,1.0540215E-3,-5.033141E-3,5.026109E-3,-5.1815957E-3,1.1810944E-2,-5.1511335E-3,5.820677E-3,-2.4327966E-3,5.7745543E-3,6.3300827E-3,-9.763143E-3,-1.0583342E-2,4.4655246E-3,9.836599E-3,-5.827683E-3],"split_indices":[733,755,101,369,194,116,782,381,301,987,987,939,695,451,260,0,0,0,0,0,0,0,0,0,0,0,0,0,0,0,0],"split_type":[0,0,0,0,0,0,0,0,0,0,0,0,0,0,0,0,0,0,0,0,0,0,0,0,0,0,0,0,0,0,0],"sum_hessian":[3.85E3,1.957E3,1.893E3,2.19E2,1.738E3,1.824E3,6.9E1,9.3E1,1.26E2,1.606E3,1.32E2,1.771E3,5.3E1,5.6E1,1.3E1,3.8E1,5.5E1,9.1E1,3.5E1,1.599E3,7E0,6.3E1,6.9E1,1.21E2,1.65E3,6E0,4.7E1,5.1E1,5E0,9E0,4E0],"tree_param":{"num_deleted":"0","num_feature":"1024","num_nodes":"31","size_leaf_vector":"1"}},{"base_weights":[3.386038E-3,-1.3565719E-1,1.2341281E-1,3.232591E-1,-1.5071957E-1,1.4499967E-1,-1.5866064E-1,-1.1349618E-1,5.5333984E-1,-1.6801159E-1,-7.740603E-3,1.0307868E-1,2.997161E-1,2.3890656E-1,-2.5573343E-1,4.180952E-3,-7.2016045E-3,2.2051914E-2,-4.068063E-3,-5.2542384E-3,2.5839857E-3,-2.7613156E-3,7.806173E-3,4.4550407E-3,-7.3605304E-4,2.768004E-3,1.4127333E-2,-2.1154212E-3,1.8240217E-2,-9.168135E-3,7.4018748E-3],"categories":[],"categories_nodes":[],"categories_segments":[],"categories_sizes":[],"default_left":[0,0,0,0,0,0,0,0,0,0,0,0,0,0,0,0,0,0,0,0,0,0,0,0,0,0,0,0,0,0,0],"id":38,"left_children":[1,3,5,7,9,11,13,15,17,19,21,23,25,27,29,-1,-1,-1,-1,-1,-1,-1,-1,-1,-1,-1,-1,-1,-1,-1,-1],"loss_changes":[6.440304E1,1.2846531E1,1.2840536E1,6.657358E0,4.2840233E0,1.220229E1,6.4770947E0,1.2625924E0,6.1298513E0,2.9594116E0,4.7120757E0,8.922562E0,1.3984299E1,4.425988E0,3.9364252E0,0E0,0E0,0E0,0E0,0E0,0E0,0E0,0E0,0E0,0E0,0E0,0E0,0E0,0E0,0E0,0E0],"parents":[2147483647,0,0,1,1,2,2,3,3,4,4,5,5,6,6,7,7,8,8,9,9,10,10,11,11,12,12,13,13,14,14],"right_children":[2,4,6,8,10,12,14,16,18,20,22,24,26,28,30,-1,-1,-1,-1,-1,-1,-1,-1,-1,-1,-1,-1,-1,-1,-1,-1],"split_conditions":[2.0155138E-1,1.6156311E-1,-5.6892717E-1,-1.5730579E-1,-2.9334146E-1,-3.5343006E-2,-1.3927668E-1,-5.156971E-1,-3.2242037E-2,-3.0279496E-1,1.4003251E-1,-4.3003023E-1,5.845618E-1,-1.0505406E-1,-4.574629E-1,4.180952E-3,-7.2016045E-3,2.2051914E-2,-4.068063E-3,-5.2542384E-3,2.5839857E-3,-2.7613156E-3,7.806173E-3,4.4550407E-3,-7.3605304E-4,2.768004E-3,1.4127333E-2,-2.1154212E-3,1.8240217E-2,-9.168135E-3,7.4018748E-3],"split_indices":[794,259,755,137,525,829,922,931,808,541,691,493,360,83,898,0,0,0,0,0,0,0,0,0,0,0,0,0,0,0,0],"split_type":[0,0,0,0,0,0,0,0,0,0,0,0,0,0,0,0,0,0,0,0,0,0,0,0,0,0,0,0,0,0,0],"sum_hessian":[3.839E3,1.778E3,2.061E3,5E1,1.728E3,1.919E3,1.42E2,1.9E1,3.1E1,1.54E3,1.88E2,1.523E3,3.96E2,2.5E1,1.17E2,6E0,1.3E1,2.4E1,7E0,1.501E3,3.9E1,1.48E2,4E1,1.122E3,4.01E2,1.86E2,2.1E2,1.8E1,7E0,1.1E2,7E0],"tree_param":{"num_deleted":"0","num_feature":"1024","num_nodes":"31","size_leaf_vector":"1"}},{"base_weights":[-1.9642275E-3,-1.20706804E-1,1.4397584E-1,1.7274587E-1,-1.352478E-1,-2.3160313E-1,1.6116728E-1,-1.6936131E-1,2.893566E-1,1.3461402E-2,-1.5786582E-1,-3.4492868E-1,1.364302E-1,-1.3096674E-1,1.8595177E-1,-9.775467E-3,3.5233435E-3,1.46514205E-2,1.1170905E-3,3.4389298E-3,-4.7680205E-3,-1.4824736E-3,-5.2274903E-3,-1.1686801E-2,2.781788E-3,-6.4516678E-3,9.675741E-3,-6.9252765E-3,6.696042E-3,3.0694203E-3,8.46907E-3],"categories":[],"categories_nodes":[],"categories_segments":[],"categories_sizes":[],"default_left":[0,0,0,0,0,0,0,0,0,0,0,0,0,0,0,0,0,0,0,0,0,0,0,0,0,0,0,0,0,0,0],"id":39,"left_children":[1,3,5,7,9,11,13,15,17,19,21,23,25,27,29,-1,-1,-1,-1,-1,-1,-1,-1,-1,-1,-1,-1,-1,-1,-1,-1],"loss_changes":[6.697825E1,9.326809E0,1.156926E1,4.6788607E0,6.869362E0,3.8071938E0,1.229155E1,1.8637855E0,3.9327416E0,5.0308347E0,3.0553207E0,1.6113458E0,2.3942568E0,5.3259497E0,1.2105209E1,0E0,0E0,0E0,0E0,0E0,0E0,0E0,0E0,0E0,0E0,0E0,0E0,0E0,0E0,0E0,0E0],"parents":[2147483647,0,0,1,1,2,2,3,3,4,4,5,5,6,6,7,7,8,8,9,9,10,10,11,11,12,12,13,13,14,14],"right_children":[2,4,6,8,10,12,14,16,18,20,22,24,26,28,30,-1,-1,-1,-1,-1,-1,-1,-1,-1,-1,-1,-1,-1,-1,-1,-1],"split_conditions":[2.6514292E-1,6.8722445E-1,2.6243684E-1,5.582796E-1,1.528812E-2,1.2692729E-1,-3.6201942E-1,-5.6830525E-2,-2.1219364E-1,-1.01529084E-1,-6.394265E-2,-1.6965914E-1,3.8435278E-3,-4.826976E-1,3.361253E-2,-9.775467E-3,3.5233435E-3,1.46514205E-2,1.1170905E-3,3.4389298E-3,-4.7680205E-3,-1.4824736E-3,-5.2274903E-3,-1.1686801E-2,2.781788E-3,-6.4516678E-3,9.675741E-3,-6.9252765E-3,6.696042E-3,3.0694203E-3,8.46907E-3],"split_indices":[211,982,68,1011,822,623,70,696,801,981,404,249,994,739,906,0,0,0,0,0,0,0,0,0,0,0,0,0,0,0,0],"split_type":[0,0,0,0,0,0,0,0,0,0,0,0,0,0,0,0,0,0,0,0,0,0,0,0,0,0,0,0,0,0,0],"sum_hessian":[3.845E3,2.121E3,1.724E3,9.5E1,2.026E3,7E1,1.654E3,2.3E1,7.2E1,2.68E2,1.758E3,5.4E1,1.6E1,1.26E2,1.528E3,1.4E1,9E0,3.5E1,3.7E1,1.71E2,9.7E1,2.36E2,1.522E3,5E1,4E0,5E0,1.1E1,1.01E2,2.5E1,8.29E2,6.99E2],"tree_param":{"num_deleted":"0","num_feature":"1024","num_nodes":"31","size_leaf_vector":"1"}},{"base_weights":[3.5202084E-3,-1.08815745E-1,1.5467635E-1,-2.5288545E-2,-1.6922146E-1,-3.2911167E-2,1.8809885E-1,8.129869E-2,-1.5251698E-1,-1.5581755E-1,-3.1897944E-1,9.306497E-2,-2.6913336E-1,-1.5317988E-1,2.0489462E-1,-1.4618663E-3,5.5642496E-3,4.5389454E-3,-5.2864356E-3,-4.7355387E-3,5.362835E-3,1.0890815E-3,-9.793854E-3,-5.2344673E-3,7.463984E-3,-1.0368957E-2,5.487071E-3,4.49615E-3,-1.0387953E-2,-3.26363E-3,6.6247946E-3],"categories":[],"categories_nodes":[],"categories_segments":[],"categories_sizes":[],"default_left":[0,0,0,0,0,0,0,0,0,0,0,0,0,0,0,0,0,0,0,0,0,0,0,0,0,0,0,0,0,0,0],"id":40,"left_children":[1,3,5,7,9,11,13,15,17,19,21,23,25,27,29,-1,-1,-1,-1,-1,-1,-1,-1,-1,-1,-1,-1,-1,-1,-1,-1],"loss_changes":[6.623854E1,1.1249079E1,1.0488323E1,1.3020434E1,2.1065025E0,7.987643E0,8.413231E0,7.1883736E0,3.4128666E0,1.1055183E0,3.763752E-1,7.809052E0,3.8481164E0,4.7320175E0,6.9919167E0,0E0,0E0,0E0,0E0,0E0,0E0,0E0,0E0,0E0,0E0,0E0,0E0,0E0,0E0,0E0,0E0],"parents":[2147483647,0,0,1,1,2,2,3,3,4,4,5,5,6,6,7,7,8,8,9,9,10,10,11,11,12,12,13,13,14,14],"right_children":[2,4,6,8,10,12,14,16,18,20,22,24,26,28,30,-1,-1,-1,-1,-1,-1,-1,-1,-1,-1,-1,-1,-1,-1,-1,-1],"split_conditions":[2.6515353E-1,-3.3366783E0,-5.574731E-1,8.54687E0,9.8432726E-1,1.867283E-2,-3.322472E-1,7.0379144E-1,9.62782E-1,-1.5094435E-1,3.7787893E-1,9.4908506E-2,2.0216818E-1,6.770251E-2,2.5872952E-1,-1.4618663E-3,5.5642496E-3,4.5389454E-3,-5.2864356E-3,-4.7355387E-3,5.362835E-3,1.0890815E-3,-9.793854E-3,-5.2344673E-3,7.463984E-3,-1.0368957E-2,5.487071E-3,4.49615E-3,-1.0387953E-2,-3.26363E-3,6.6247946E-3],"split_indices":[211,322,127,342,48,477,749,66,679,888,29,556,956,151,660,0,0,0,0,0,0,0,0,0,0,0,0,0,0,0,0],"split_type":[0,0,0,0,0,0,0,0,0,0,0,0,0,0,0,0,0,0,0,0,0,0,0,0,0,0,0,0,0,0,0],"sum_hessian":[3.881E3,2.228E3,1.653E3,9.41E2,1.287E3,2.5E2,1.403E3,5.14E2,4.27E2,1.2E3,8.7E1,1.67E2,8.3E1,6.2E1,1.341E3,2.31E2,2.83E2,2.7E1,4E2,1.198E3,2E0,1E0,8.6E1,6.1E1,1.06E2,7.3E1,1E1,2.5E1,3.7E1,6.2E1,1.279E3],"tree_param":{"num_deleted":"0","num_feature":"1024","num_nodes":"31","size_leaf_vector":"1"}},{"base_weights":[4.122905E-3,-1.09512284E-1,1.268366E-1,-1.2985754E-1,6.670278E-2,1.4970335E-1,-1.0651897E-1,-1.4346842E-1,1.3195948E-1,-9.3430534E-2,2.2374001E-1,3.4948085E-2,2.1269947E-1,-1.7253046E-1,1.1323674E-1,-4.7322633E-3,7.851035E-4,9.4271E-3,-4.846412E-3,8.781338E-3,-4.63217E-3,-3.275919E-3,1.1874457E-2,2.6387193E-3,-4.7275447E-3,3.144785E-3,8.428558E-3,7.8180665E-3,-6.2603876E-3,1.2335018E-2,-3.86178E-3],"categories":[],"categories_nodes":[],"categories_segments":[],"categories_sizes":[],"default_left":[0,0,0,0,0,0,0,0,0,0,0,0,0,0,0,0,0,0,0,0,0,0,0,0,0,0,0,0,0,0,0],"id":41,"left_children":[1,3,5,7,9,11,13,15,17,19,21,23,25,27,29,-1,-1,-1,-1,-1,-1,-1,-1,-1,-1,-1,-1,-1,-1,-1,-1],"loss_changes":[5.43276E1,7.3393574E0,1.0153952E1,6.6643085E0,5.64077E0,1.2287487E1,2.7049751E0,4.2350883E0,5.5900984E0,3.1360984E0,6.848729E0,6.4459276E0,7.819092E0,2.6888828E0,3.8453321E0,0E0,0E0,0E0,0E0,0E0,0E0,0E0,0E0,0E0,0E0,0E0,0E0,0E0,0E0,0E0,0E0],"parents":[2147483647,0,0,1,1,2,2,3,3,4,4,5,5,6,6,7,7,8,8,9,9,10,10,11,11,12,12,13,13,14,14],"right_children":[2,4,6,8,10,12,14,16,18,20,22,24,26,28,30,-1,-1,-1,-1,-1,-1,-1,-1,-1,-1,-1,-1,-1,-1,-1,-1],"split_conditions":[-1.4226559E-1,5.3538E-1,2.589428E-1,-5.456784E-1,6.1422044E-1,-5.7939726E-1,3.1611004E-1,2.1439041E-1,4.1979828E-1,3.1103897E-1,-5.459012E-1,-6.2229115E-1,-2.0969576E-1,6.267637E-2,2.2148352E-2,-4.7322633E-3,7.851035E-4,9.4271E-3,-4.846412E-3,8.781338E-3,-4.63217E-3,-3.275919E-3,1.1874457E-2,2.6387193E-3,-4.7275447E-3,3.144785E-3,8.428558E-3,7.8180665E-3,-6.2603876E-3,1.2335018E-2,-3.86178E-3],"split_indices":[467,171,660,987,949,719,901,692,574,458,987,952,647,636,230,0,0,0,0,0,0,0,0,0,0,0,0,0,0,0,0],"split_type":[0,0,0,0,0,0,0,0,0,0,0,0,0,0,0,0,0,0,0,0,0,0,0,0,0,0,0,0,0,0,0],"sum_hessian":[3.876E3,2.013E3,1.863E3,1.807E3,2.06E2,1.7E3,1.63E2,1.722E3,8.5E1,1.04E2,1.02E2,6.08E2,1.092E3,1.27E2,3.6E1,1.589E3,1.33E2,5.2E1,3.3E1,9E0,9.5E1,3.6E1,6.6E1,4.81E2,1.27E2,4.33E2,6.59E2,5E0,1.22E2,1.3E1,2.3E1],"tree_param":{"num_deleted":"0","num_feature":"1024","num_nodes":"31","size_leaf_vector":"1"}},{"base_weights":[4.4353097E-3,1.3350306E-1,-1.114166E-1,-4.4339728E-2,1.7116378E-1,-1.2767053E-1,1.9842164E-1,-1.11855716E-1,1.924702E-1,-1.0233575E-1,1.9976437E-1,-1.3670799E-1,2.6406822E-1,-2.1199113E-1,3.461972E-1,2.3027642E-3,-6.284712E-3,-4.8134374E-3,1.3725425E-2,8.815802E-3,-4.18527E-3,-6.752658E-3,6.3397377E-3,-4.3586725E-3,6.9536637E-3,1.3279333E-2,-4.2018397E-3,1.9662112E-3,-7.207857E-3,-1.3484764E-3,1.4717698E-2],"categories":[],"categories_nodes":[],"categories_segments":[],"categories_sizes":[],"default_left":[0,0,0,0,0,0,0,0,0,0,0,0,0,0,0,0,0,0,0,0,0,0,0,0,0,0,0,0,0,0,0],"id":42,"left_children":[1,3,5,7,9,11,13,15,17,19,21,23,25,27,29,-1,-1,-1,-1,-1,-1,-1,-1,-1,-1,-1,-1,-1,-1,-1,-1],"loss_changes":[5.7537388E1,1.2265686E1,1.0466518E1,5.4275255E0,1.1969086E1,7.204441E0,7.1020494E0,4.9487867E0,7.8430214E0,2.6044164E0,7.179714E0,6.332123E0,4.0118666E0,4.2423356E-1,4.795292E0,0E0,0E0,0E0,0E0,0E0,0E0,0E0,0E0,0E0,0E0,0E0,0E0,0E0,0E0,0E0,0E0],"parents":[2147483647,0,0,1,1,2,2,3,3,4,4,5,5,6,6,7,7,8,8,9,9,10,10,11,11,12,12,13,13,14,14],"right_children":[2,4,6,8,10,12,14,16,18,20,22,24,26,28,30,-1,-1,-1,-1,-1,-1,-1,-1,-1,-1,-1,-1,-1,-1,-1,-1],"split_conditions":[6.7419094E-1,-4.8378882E-1,-5.1537234E-1,-6.293855E-2,3.2293263E-1,8.969953E-2,1.3981114E-1,3.8015366E-1,-5.470162E-2,-3.5350156E-1,3.239927E-2,1.6815637E-1,-4.1496408E-1,-3.6739537E-1,4.7508776E-1,2.3027642E-3,-6.284712E-3,-4.8134374E-3,1.3725425E-2,8.815802E-3,-4.18527E-3,-6.752658E-3,6.3397377E-3,-4.3586725E-3,6.9536637E-3,1.3279333E-2,-4.2018397E-3,1.9662112E-3,-7.207857E-3,-1.3484764E-3,1.4717698E-2],"split_indices":[337,739,7,420,1017,595,308,1021,500,580,714,705,206,18,357,0,0,0,0,0,0,0,0,0,0,0,0,0,0,0,0],"split_type":[0,0,0,0,0,0,0,0,0,0,0,0,0,0,0,0,0,0,0,0,0,0,0,0,0,0,0,0,0,0,0],"sum_hessian":[3.828E3,1.81E3,2.018E3,3.16E2,1.494E3,1.923E3,9.5E1,2.5E2,6.6E1,1.39E2,1.355E3,1.886E3,3.7E1,2.4E1,7.1E1,8.6E1,1.64E2,3E1,3.6E1,6E0,1.33E2,3.1E1,1.324E3,1.849E3,3.7E1,2.5E1,1.2E1,1E0,2.3E1,2.1E1,5E1],"tree_param":{"num_deleted":"0","num_feature":"1024","num_nodes":"31","size_leaf_vector":"1"}},{"base_weights":[-3.8642376E-3,1.2961593E-1,-1.0560053E-1,1.5745822E-1,-1.2978747E-1,7.155011E-2,-1.2601018E-1,1.8427506E-1,-1.0504166E-1,3.947243E-1,-1.9501922E-1,2.4810217E-1,-9.27564E-2,1.8829142E-1,-1.3492389E-1,-2.8392174E-3,6.1224843E-3,6.1102975E-3,-7.271123E-3,-1.3249608E-4,1.2475024E-2,2.9131547E-3,-9.631821E-3,1.1041411E-2,-5.985116E-3,-5.237767E-3,7.943746E-3,1.1221587E-2,-3.47887E-3,3.2815612E-3,-4.3520327E-3],"categories":[],"categories_nodes":[],"categories_segments":[],"categories_sizes":[],"default_left":[0,0,0,0,0,0,0,0,0,0,0,0,0,0,0,0,0,0,0,0,0,0,0,0,0,0,0,0,0,0,0],"id":43,"left_children":[1,3,5,7,9,11,13,15,17,19,21,23,25,27,29,-1,-1,-1,-1,-1,-1,-1,-1,-1,-1,-1,-1,-1,-1,-1,-1],"loss_changes":[5.296221E1,1.2388523E1,8.091446E0,1.0949791E1,6.552093E0,7.0471635E0,5.82362E0,7.872467E0,6.7682605E0,2.0373273E-1,6.092475E0,6.962083E0,4.236875E0,3.76836E0,4.9639854E0,0E0,0E0,0E0,0E0,0E0,0E0,0E0,0E0,0E0,0E0,0E0,0E0,0E0,0E0,0E0,0E0],"parents":[2147483647,0,0,1,1,2,2,3,3,4,4,5,5,6,6,7,7,8,8,9,9,10,10,11,11,12,12,13,13,14,14],"right_children":[2,4,6,8,10,12,14,16,18,20,22,24,26,28,30,-1,-1,-1,-1,-1,-1,-1,-1,-1,-1,-1,-1,-1,-1,-1,-1],"split_conditions":[-3.4741396E-1,9.9726774E-2,2.2659217E-1,4.820693E-1,-4.258234E-2,8.546485E0,-1.4572878E-1,-2.0221034E-1,-6.767933E-2,7.85588E-1,-1.6761504E-1,-3.848296E-2,5.9158027E-2,4.5741793E-2,-1.9309771E-1,-2.8392174E-3,6.1224843E-3,6.1102975E-3,-7.271123E-3,-1.3249608E-4,1.2475024E-2,2.9131547E-3,-9.631821E-3,1.1041411E-2,-5.985116E-3,-5.237767E-3,7.943746E-3,1.1221587E-2,-3.47887E-3,3.2815612E-3,-4.3520327E-3],"split_indices":[16,130,150,480,482,342,856,653,55,41,188,674,1,112,255,0,0,0,0,0,0,0,0,0,0,0,0,0,0,0,0],"split_type":[0,0,0,0,0,0,0,0,0,0,0,0,0,0,0,0,0,0,0,0,0,0,0,0,0,0,0,0,0,0,0],"sum_hessian":[3.88E3,1.677E3,2.203E3,1.518E3,1.59E2,2.25E2,1.978E3,1.38E3,1.38E2,1.2E1,1.47E2,1.06E2,1.19E2,4.9E1,1.929E3,8.9E1,1.291E3,4.1E1,9.7E1,1E0,1.1E1,4.5E1,1.02E2,8.5E1,2.1E1,1.01E2,1.8E1,2.9E1,2E1,7.3E1,1.856E3],"tree_param":{"num_deleted":"0","num_feature":"1024","num_nodes":"31","size_leaf_vector":"1"}},{"base_weights":[-3.4093396E-3,9.5197104E-2,-1.2871143E-1,5.7424486E-2,2.5500688E-1,-1.3484716E-1,3.412301E-1,8.3499976E-2,-1.3335986E-1,-7.949654E-2,3.1048638E-1,2.1356574E-1,-1.4067054E-1,6.420037E-1,-5.3387894E-3,-3.5167527E-3,3.3329471E-3,2.5073143E-3,-8.187806E-3,6.2897177E-3,-1.0225572E-2,-1.607989E-3,1.109869E-2,-4.296364E-3,1.3225017E-2,7.065101E-3,-4.3094046E-3,-1.3946913E-3,2.2713643E-2],"categories":[],"categories_nodes":[],"categories_segments":[],"categories_sizes":[],"default_left":[0,0,0,0,0,0,0,0,0,0,0,0,0,0,0,0,0,0,0,0,0,0,0,0,0,0,0,0,0],"id":44,"left_children":[1,3,5,7,9,11,13,15,17,19,21,23,25,27,-1,-1,-1,-1,-1,-1,-1,-1,-1,-1,-1,-1,-1,-1,-1],"loss_changes":[4.8259922E1,1.30492115E1,5.419647E0,8.971466E0,7.948431E0,3.7597656E0,5.0464725E0,8.844126E0,6.8285446E0,5.7779484E0,7.949772E0,3.2260242E0,2.22258E0,1.7786236E0,0E0,0E0,0E0,0E0,0E0,0E0,0E0,0E0,0E0,0E0,0E0,0E0,0E0,0E0,0E0],"parents":[2147483647,0,0,1,1,2,2,3,3,4,4,5,5,6,6,7,7,8,8,9,9,10,10,11,11,12,12,13,13],"right_children":[2,4,6,8,10,12,14,16,18,20,22,24,26,28,-1,-1,-1,-1,-1,-1,-1,-1,-1,-1,-1,-1,-1,-1,-1],"split_conditions":[2.3811062E-1,-3.5343006E-2,2.1779789E-1,1.8731259E-2,9.3564737E-1,-3.5349655E-1,4.8957688E-1,-3.6869664E0,-6.5214E-1,2.4553405E-1,-2.811998E-1,8.099021E-2,-3.7799608E-2,-2.24019E-2,-5.3387894E-3,-3.5167527E-3,3.3329471E-3,2.5073143E-3,-8.187806E-3,6.2897177E-3,-1.0225572E-2,-1.607989E-3,1.109869E-2,-4.296364E-3,1.3225017E-2,7.065101E-3,-4.3094046E-3,-1.3946913E-3,2.2713643E-2],"split_indices":[4,829,785,85,141,580,738,986,381,589,129,106,773,40,0,0,0,0,0,0,0,0,0,0,0,0,0,0,0],"split_type":[0,0,0,0,0,0,0,0,0,0,0,0,0,0,0,0,0,0,0,0,0,0,0,0,0,0,0,0,0],"sum_hessian":[3.886E3,2.176E3,1.71E3,1.771E3,4.05E2,1.695E3,1.5E1,1.563E3,2.08E2,5.7E1,3.48E2,2.2E1,1.673E3,8E0,7E0,1.85E2,1.378E3,8.3E1,1.25E2,2.8E1,2.9E1,4.9E1,2.99E2,1E1,1.2E1,7E0,1.666E3,2E0,6E0],"tree_param":{"num_deleted":"0","num_feature":"1024","num_nodes":"29","size_leaf_vector":"1"}},{"base_weights":[1.0275722E-2,1.07960634E-1,-1.317866E-1,-8.564953E-2,1.3681653E-1,1.8921965E-1,-1.3814388E-1,-1.4365861E-1,1.7516397E-1,1.55036E-1,-1.3621058E-1,5.136561E-1,-9.715264E-2,-1.23536214E-1,-2.432729E-1,5.6815175E-3,-4.9494635E-3,-2.5906623E-3,1.1599095E-2,5.0021843E-3,-7.2892974E-3,-9.141669E-3,4.0805726E-3,-1.6430679E-3,1.8568192E-2,2.5969998E-3,-5.3476654E-3,-3.9685E-3,1.22091165E-2,1.3886787E-3,-8.2893735E-3],"categories":[],"categories_nodes":[],"categories_segments":[],"categories_sizes":[],"default_left":[0,0,0,0,0,0,0,0,0,0,0,0,0,0,0,0,0,0,0,0,0,0,0,0,0,0,0,0,0,0,0],"id":45,"left_children":[1,3,5,7,9,11,13,15,17,19,21,23,25,27,29,-1,-1,-1,-1,-1,-1,-1,-1,-1,-1,-1,-1,-1,-1,-1,-1],"loss_changes":[5.3972504E1,1.2989153E1,3.495947E0,4.866151E0,1.0204773E1,3.7508664E0,2.095148E0,2.1233678E0,3.652132E0,9.1996765E0,6.4239597E0,1.4162126E0,5.566142E-1,6.9885273E0,1.8499651E0,0E0,0E0,0E0,0E0,0E0,0E0,0E0,0E0,0E0,0E0,0E0,0E0,0E0,0E0,0E0,0E0],"parents":[2147483647,0,0,1,1,2,2,3,3,4,4,5,5,6,6,7,7,8,8,9,9,10,10,11,11,12,12,13,13,14,14],"right_children":[2,4,6,8,10,12,14,16,18,20,22,24,26,28,30,-1,-1,-1,-1,-1,-1,-1,-1,-1,-1,-1,-1,-1,-1,-1,-1],"split_conditions":[2.3813024E-1,-3.68693E0,-1.01298995E-1,6.3013315E-1,5.9132284E-1,-7.026447E-2,6.804522E-1,4.1641548E-1,9.914704E-2,4.1707063E-1,4.5089984E-1,-5.1549196E-1,5.859047E-1,4.6541415E-2,4.1670954E-1,5.6815175E-3,-4.9494635E-3,-2.5906623E-3,1.1599095E-2,5.0021843E-3,-7.2892974E-3,-9.141669E-3,4.0805726E-3,-1.6430679E-3,1.8568192E-2,2.5969998E-3,-5.3476654E-3,-3.9685E-3,1.22091165E-2,1.3886787E-3,-8.2893735E-3],"split_indices":[4,986,239,779,900,616,345,399,130,208,543,7,900,883,208,0,0,0,0,0,0,0,0,0,0,0,0,0,0,0,0],"split_type":[0,0,0,0,0,0,0,0,0,0,0,0,0,0,0,0,0,0,0,0,0,0,0,0,0,0,0,0,0,0,0],"sum_hessian":[3.869E3,2.294E3,1.575E3,2.95E2,1.999E3,2.5E1,1.55E3,2.45E2,5E1,1.878E3,1.21E2,8E0,1.7E1,1.38E3,1.7E2,1E1,2.35E2,2.5E1,2.5E1,1.83E3,4.8E1,7.4E1,4.7E1,2E0,6E0,5E0,1.2E1,1.365E3,1.5E1,1.7E1,1.53E2],"tree_param":{"num_deleted":"0","num_feature":"1024","num_nodes":"31","size_leaf_vector":"1"}},{"base_weights":[-6.211151E-3,-1.0154395E-1,1.03604876E-1,4.8270516E-2,-1.3519515E-1,1.4280742E-1,-5.5601098E-2,-1.8950635E-1,1.2750563E-1,2.522385E-1,-1.4148706E-1,1.6851522E-1,-1.4355904E-1,-1.4668024E-1,1.3024712E-1,4.411755E-3,-6.660472E-3,3.3081832E-4,9.497459E-3,1.3767492E-2,-2.726777E-3,-3.7350839E-3,-7.5581823E-3,7.4786146E-4,6.1727064E-3,-9.419861E-3,4.006465E-3,2.700878E-3,-7.6981527E-3,-4.7517456E-3,7.899048E-3],"categories":[],"categories_nodes":[],"categories_segments":[],"categories_sizes":[],"default_left":[0,0,0,0,0,0,0,0,0,0,0,0,0,0,0,0,0,0,0,0,0,0,0,0,0,0,0,0,0,0,0],"id":46,"left_children":[1,3,5,7,9,11,13,15,17,19,21,23,25,27,29,-1,-1,-1,-1,-1,-1,-1,-1,-1,-1,-1,-1,-1,-1,-1,-1],"loss_changes":[4.1018326E1,1.0637156E1,1.1444773E1,7.627021E0,4.5375347E0,1.1019667E1,6.4032173E0,1.4425275E0,6.5720806E0,2.6155674E0,2.8641891E0,7.1570053E0,6.370223E0,6.7621045E0,5.2560368E0,0E0,0E0,0E0,0E0,0E0,0E0,0E0,0E0,0E0,0E0,0E0,0E0,0E0,0E0,0E0,0E0],"parents":[2147483647,0,0,1,1,2,2,3,3,4,4,5,5,6,6,7,7,8,8,9,9,10,10,11,11,12,12,13,13,14,14],"right_children":[2,4,6,8,10,12,14,16,18,20,22,24,26,28,30,-1,-1,-1,-1,-1,-1,-1,-1,-1,-1,-1,-1,-1,-1,-1,-1],"split_conditions":[2.4539596E-1,-5.6901443E-1,-2.3787526E-2,1.8532477E-1,3.2110877E-2,1.8196025E-1,-3.4364462E-1,7.623387E-1,1.7788742E-1,-3.2213036E-2,5.168766E-2,-1.5731795E-1,1.9698182E-2,-1.9406842E-1,9.73819E-2,4.411755E-3,-6.660472E-3,3.3081832E-4,9.497459E-3,1.3767492E-2,-2.726777E-3,-3.7350839E-3,-7.5581823E-3,7.4786146E-4,6.1727064E-3,-9.419861E-3,4.006465E-3,2.700878E-3,-7.6981527E-3,-4.7517456E-3,7.899048E-3],"split_indices":[589,755,185,549,812,457,643,391,452,808,44,137,607,486,562,0,0,0,0,0,0,0,0,0,0,0,0,0,0,0,0],"split_type":[0,0,0,0,0,0,0,0,0,0,0,0,0,0,0,0,0,0,0,0,0,0,0,0,0,0,0,0,0,0,0],"sum_hessian":[3.898E3,2.087E3,1.811E3,3.82E2,1.705E3,1.454E3,3.57E2,9.2E1,2.9E2,2.1E1,1.684E3,1.338E3,1.16E2,2.41E2,1.16E2,5E0,8.7E1,1.86E2,1.04E2,1.1E1,1E1,1.478E3,2.06E2,2.79E2,1.059E3,7.1E1,4.5E1,7.7E1,1.64E2,3.6E1,8E1],"tree_param":{"num_deleted":"0","num_feature":"1024","num_nodes":"31","size_leaf_vector":"1"}},{"base_weights":[2.1587168E-4,-9.903213E-2,1.16105035E-1,-1.0788256E-1,1.9506043E-1,1.521774E-1,-2.8007125E-2,-1.3208584E-1,-3.678776E-2,4.1641203E-1,-2.4615845E-1,1.7270347E-1,-1.374515E-1,3.1456137E-1,-1.2460265E-1,-4.1930946E-3,1.153661E-2,4.7286376E-3,-2.945437E-3,1.6744543E-2,-6.21158E-3,2.3049177E-3,-9.9600805E-3,4.800295E-3,2.0885479E-2,-8.1414785E-3,5.3925803E-3,1.4749287E-2,-2.7136046E-3,1.30811045E-2,-5.0415657E-3],"categories":[],"categories_nodes":[],"categories_segments":[],"categories_sizes":[],"default_left":[0,0,0,0,0,0,0,0,0,0,0,0,0,0,0,0,0,0,0,0,0,0,0,0,0,0,0,0,0,0,0],"id":47,"left_children":[1,3,5,7,9,11,13,15,17,19,21,23,25,27,29,-1,-1,-1,-1,-1,-1,-1,-1,-1,-1,-1,-1,-1,-1,-1,-1],"loss_changes":[4.4902863E1,5.684225E0,9.405054E0,3.4754581E0,7.373226E0,8.810001E0,1.2602378E1,6.5875416E0,6.528283E0,5.3090343E0,1.0314287E0,7.8632393E0,4.7786527E0,6.469242E0,7.91883E0,0E0,0E0,0E0,0E0,0E0,0E0,0E0,0E0,0E0,0E0,0E0,0E0,0E0,0E0,0E0,0E0],"parents":[2147483647,0,0,1,1,2,2,3,3,4,4,5,5,6,6,7,7,8,8,9,9,10,10,11,11,12,12,13,13,14,14],"right_children":[2,4,6,8,10,12,14,16,18,20,22,24,26,28,30,-1,-1,-1,-1,-1,-1,-1,-1,-1,-1,-1,-1,-1,-1,-1,-1],"split_conditions":[2.6514035E-1,-6.7753947E-1,-8.405473E-2,-5.7928765E-1,-2.5887312E-2,5.6364894E-1,-3.6861522E0,-1.4771597E-1,7.102998E-2,-1.9283568E-2,3.1480676E-1,-3.4533155E-1,5.929767E-1,-1.9775198E-1,-1.4871048E0,-4.1930946E-3,1.153661E-2,4.7286376E-3,-2.945437E-3,1.6744543E-2,-6.21158E-3,